512.0
416.0
-192.0
-832.0
-32.0
-256.0
320.0
224.0
288.0
96.0
-288.0
96.0
288.0
288.0
-96.0
320.0
-96.0
96.0
-320.0
-992.0
-320.0
448.0
-384.0
-64.0
-352.0
224.0
96.0
0.0
96.0
64.0
352.0
0.0
160.0
0.0
-640.0
224.0
64.0
-704.0
-256.0
-64.0
384.0
32.0
-32.0
256.0
-640.0
320.0
224.0
-640.0
-128.0
-608.0
160.0
-384.0
0.0
-672.0
320.0
-576.0
352.0
-288.0
480.0
224.0
352.0
-576.0
-96.0
-640.0
32.0
-352.0
96.0
384.0
160.0
352.0
256.0
-128.0
288.0
-256.0
-544.0
352.0
96.0
-128.0
-288.0
-352.0
-128.0
352.0
384.0
512.0
0.0
224.0
-352.0
160.0
-192.0
-832.0
-384.0
-800.0
-64.0
-192.0
384.0
-64.0
-224.0
448.0
-480.0
416.0
-448.0
-192.0
192.0
448.0
-256.0
224.0
-160.0
416.0
-448.0
-416.0
128.0
-832.0
0.0
256.0
-736.0
256.0
-224.0
160.0
384.0
160.0
-64.0
448.0
96.0
256.0
96.0
-480.0
-576.0
-288.0
0.0
96.0
192.0
-864.0
-224.0
-256.0
0.0
416.0
288.0
-320.0
448.0
160.0
416.0
-192.0
0.0
-128.0
32.0
-704.0
-192.0
384.0
-64.0
320.0
-448.0
-320.0
192.0
320.0
160.0
-160.0
448.0
-448.0
-320.0
-224.0
-32.0
352.0
-448.0
-800.0
224.0
128.0
96.0
0.0
-352.0
-288.0
-32.0
-480.0
-480.0
32.0
384.0
160.0
-768.0
288.0
-352.0
192.0
-128.0
384.0
-480.0
320.0
0.0
-352.0
-192.0
32.0
64.0
352.0
128.0
-640.0
96.0
96.0
-288.0
288.0
416.0
-1056.0
416.0
-128.0
-352.0
-672.0
0.0
192.0
320.0
-320.0
-640.0
416.0
-384.0
448.0
32.0
-448.0
160.0
416.0
-512.0
-544.0
-224.0
0.0
448.0
0.0
-160.0
-384.0
320.0
-192.0
-128.0
288.0
-608.0
480.0
128.0
32.0
256.0
352.0
-288.0
-960.0
-64.0
256.0
224.0
-160.0
384.0
-128.0
128.0
-640.0
224.0
352.0
-192.0
-608.0
-352.0
-64.0
288.0
448.0
-320.0
480.0
-288.0
-96.0
-160.0
288.0
-128.0
224.0
-160.0
160.0
576.0
448.0
-448.0
-288.0
0.0
-608.0
288.0
128.0
-64.0
-32.0
-768.0
64.0
320.0
0.0
448.0
128.0
352.0
96.0
-512.0
-416.0
64.0
-416.0
-288.0
-576.0
-96.0
192.0
480.0
-512.0
512.0
-224.0
-576.0
256.0
-384.0
-384.0
352.0
96.0
32.0
160.0
-320.0
32.0
480.0
288.0
-288.0
-448.0
64.0
-608.0
-64.0
96.0
0.0
288.0
-128.0
320.0
-352.0
256.0
416.0
-96.0
-736.0
320.0
-384.0
288.0
32.0
-864.0
288.0
-224.0
-192.0
-448.0
-384.0
320.0
288.0
448.0
320.0
-736.0
64.0
256.0
-768.0
384.0
-192.0
384.0
-32.0
256.0
320.0
-384.0
96.0
160.0
-832.0
288.0
-320.0
-96.0
96.0
256.0
-640.0
-160.0
-128.0
480.0
-96.0
96.0
-1088.0
224.0
0.0
-192.0
-640.0
256.0
576.0
-64.0
448.0
-352.0
-288.0
256.0
-576.0
-320.0
-544.0
160.0
-320.0
-288.0
640.0
416.0
0.0
-224.0
224.0
-192.0
-480.0
-544.0
32.0
352.0
-480.0
-256.0
96.0
-352.0
256.0
512.0
512.0
320.0
-352.0
-544.0
96.0
-384.0
384.0
64.0
-224.0
-352.0
-96.0
-640.0
192.0
352.0
192.0
-576.0
128.0
-480.0
480.0
320.0
-128.0
-256.0
416.0
416.0
-576.0
-64.0
-160.0
288.0
-416.0
-512.0
416.0
448.0
-192.0
-672.0
320.0
-512.0
64.0
0.0
-480.0
0.0
320.0
128.0
64.0
384.0
224.0
-544.0
-480.0
-192.0
32.0
288.0
-416.0
-480.0
288.0
352.0
-32.0
-320.0
160.0
320.0
-384.0
128.0
-32.0
-640.0
0.0
-448.0
416.0
-192.0
448.0
-992.0
384.0
-64.0
480.0
352.0
-192.0
-928.0
224.0
-320.0
96.0
160.0
-128.0
-160.0
-544.0
160.0
-160.0
448.0
-256.0
256.0
-576.0
448.0
-160.0
64.0
-736.0
416.0
-96.0
-224.0
224.0
384.0
288.0
96.0
128.0
-96.0
-736.0
448.0
-256.0
-256.0
64.0
224.0
32.0
-64.0
96.0
-128.0
192.0
-768.0
384.0
32.0
-864.0
0.0
-416.0
352.0
0.0
224.0
352.0
416.0
448.0
-544.0
256.0
-576.0
160.0
-32.0
-576.0
-320.0
-224.0
-928.0
192.0
-224.0
352.0
64.0
32.0
-608.0
448.0
288.0
64.0
-544.0
128.0
320.0
-512.0
128.0
-288.0
-640.0
384.0
160.0
-96.0
-288.0
0.0
-320.0
128.0
-64.0
-544.0
224.0
-544.0
416.0
224.0
-640.0
-128.0
128.0
-224.0
-64.0
256.0
-608.0
224.0
-512.0
224.0
64.0
288.0
-256.0
320.0
-224.0
416.0
128.0
-768.0
-160.0
-672.0
448.0
-32.0
-288.0
192.0
224.0
192.0
64.0
-64.0
-96.0
224.0
160.0
-416.0
-928.0
288.0
96.0
448.0
-160.0
352.0
64.0
96.0
288.0
384.0
-448.0
-96.0
-480.0
352.0
288.0
-672.0
192.0
-64.0
-448.0
96.0
-320.0
-320.0
352.0
416.0
-384.0
-32.0
224.0
-480.0
128.0
96.0
416.0
480.0
288.0
-1024.0
64.0
-128.0
-128.0
224.0
480.0
-384.0
-224.0
480.0
288.0
-64.0
-224.0
0.0
-608.0
-384.0
416.0
-352.0
192.0
-384.0
128.0
0.0
64.0
96.0
-32.0
-192.0
-288.0
-192.0
384.0
352.0
-576.0
-288.0
-512.0
480.0
320.0
416.0
-128.0
-288.0
-512.0
192.0
-512.0
-288.0
384.0
-320.0
384.0
-544.0
320.0
96.0
-256.0
-320.0
64.0
64.0
128.0
-224.0
-96.0
64.0
-928.0
-160.0
320.0
-96.0
-224.0
192.0
-160.0
576.0
-32.0
96.0
416.0
-96.0
-128.0
64.0
-448.0
64.0
320.0
-512.0
320.0
192.0
-192.0
192.0
-64.0
-32.0
352.0
416.0
-704.0
-352.0
-384.0
256.0
-480.0
96.0
192.0
64.0
288.0
288.0
-992.0
416.0
0.0
128.0
-512.0
224.0
256.0
-384.0
-64.0
416.0
-704.0
-32.0
288.0
-608.0
352.0
192.0
96.0
32.0
-288.0
-384.0
256.0
32.0
288.0
480.0
416.0
384.0
-320.0
288.0
-608.0
128.0
192.0
-448.0
-160.0
-448.0
-96.0
-128.0
480.0
192.0
128.0
-928.0
416.0
96.0
320.0
192.0
-224.0
-160.0
-672.0
-128.0
224.0
448.0
-672.0
576.0
64.0
224.0
-192.0
-288.0
-576.0
-32.0
-672.0
-32.0
-224.0
352.0
160.0
160.0
-416.0
-256.0
-992.0
-96.0
-160.0
64.0
224.0
448.0
-128.0
-128.0
-416.0
96.0
416.0
320.0
-480.0
-480.0
128.0
-352.0
352.0
192.0
-256.0
160.0
128.0
-640.0
192.0
288.0
-480.0
-224.0
-704.0
224.0
-352.0
-288.0
256.0
32.0
448.0
-736.0
288.0
128.0
-224.0
-544.0
-192.0
96.0
320.0
224.0
32.0
352.0
128.0
-480.0
-480.0
448.0
320.0
-480.0
-576.0
64.0
-800.0
64.0
352.0
-96.0
320.0
-512.0
-384.0
-128.0
-320.0
448.0
416.0
32.0
256.0
-224.0
-64.0
224.0
-320.0
224.0
416.0
-320.0
256.0
-352.0
256.0
64.0
-608.0
-352.0
128.0
-128.0
512.0
512.0
224.0
-672.0
-320.0
192.0
-256.0
-384.0
-800.0
-32.0
480.0
192.0
-96.0
64.0
-288.0
288.0
288.0
480.0
192.0
64.0
-992.0
-32.0
-288.0
192.0
0.0
-192.0
224.0
288.0
384.0
256.0
-640.0
160.0
256.0
448.0
-192.0
-512.0
-704.0
160.0
-64.0
288.0
352.0
-608.0
256.0
256.0
-448.0
32.0
-704.0
96.0
-608.0
-352.0
192.0
480.0
128.0
-608.0
224.0
-128.0
288.0
0.0
-704.0
64.0
480.0
64.0
-640.0
-416.0
-224.0
320.0
352.0
512.0
480.0
128.0
0.0
288.0
-448.0
0.0
-352.0
-448.0
-352.0
160.0
-480.0
64.0
32.0
256.0
-512.0
384.0
-768.0
448.0
0.0
-480.0
384.0
-224.0
-32.0
-320.0
160.0
0.0
96.0
0.0
64.0
96.0
224.0
416.0
-672.0
192.0
-352.0
416.0
256.0
-256.0
160.0
-64.0
-768.0
128.0
224.0
160.0
-64.0
352.0
-896.0
512.0
288.0
-224.0
-480.0
160.0
0.0
480.0
224.0
-512.0
-96.0
-320.0
224.0
544.0
320.0
-64.0
-608.0
64.0
-384.0
96.0
352.0
-416.0
192.0
352.0
512.0
-352.0
224.0
-128.0
192.0
-544.0
-544.0
288.0
-384.0
288.0
-256.0
320.0
-352.0
-288.0
384.0
352.0
-480.0
-352.0
96.0
128.0
-608.0
128.0
288.0
-992.0
288.0
192.0
288.0
-192.0
0.0
-448.0
256.0
0.0
480.0
192.0
160.0
-992.0
-64.0
-192.0
-320.0
64.0
-352.0
224.0
416.0
-416.0
320.0
-672.0
480.0
-32.0
-96.0
416.0
32.0
160.0
-640.0
96.0
-64.0
320.0
224.0
-672.0
-288.0
-64.0
-544.0
-128.0
352.0
-256.0
320.0
-736.0
352.0
-256.0
-96.0
-64.0
128.0
448.0
32.0
-32.0
192.0
-384.0
-192.0
-128.0
-800.0
224.0
-352.0
128.0
192.0
-928.0
128.0
-192.0
128.0
-64.0
-480.0
-512.0
320.0
-96.0
32.0
-320.0
96.0
64.0
288.0
-192.0
192.0
-576.0
64.0
256.0
288.0
96.0
64.0
256.0
352.0
-640.0
160.0
-160.0
-192.0
576.0
-32.0
352.0
-480.0
96.0
256.0
-704.0
192.0
160.0
-512.0
288.0
-576.0
64.0
-32.0
512.0
-576.0
352.0
0.0
-96.0
-192.0
-224.0
352.0
224.0
352.0
-608.0
-480.0
384.0
-64.0
192.0
224.0
512.0
-416.0
352.0
-160.0
-128.0
-96.0
-640.0
-576.0
-352.0
224.0
96.0
256.0
-416.0
96.0
-768.0
224.0
-160.0
-416.0
288.0
480.0
-512.0
32.0
448.0
288.0
-64.0
-352.0
32.0
-576.0
-736.0
384.0
128.0
320.0
-96.0
0.0
-224.0
128.0
-96.0
-32.0
160.0
288.0
-544.0
-576.0
352.0
-256.0
192.0
64.0
-288.0
-416.0
-128.0
-672.0
32.0
352.0
-384.0
-256.0
256.0
-576.0
192.0
416.0
64.0
-672.0
0.0
96.0
-640.0
384.0
-256.0
-96.0
0.0
160.0
-192.0
-832.0
224.0
-416.0
288.0
-352.0
320.0
-864.0
288.0
64.0
-704.0
320.0
0.0
416.0
544.0
256.0
-576.0
160.0
-160.0
-96.0
-384.0
-224.0
320.0
320.0
-480.0
-128.0
-704.0
512.0
-160.0
-416.0
-576.0
384.0
-256.0
64.0
-288.0
288.0
32.0
288.0
-32.0
224.0
224.0
-736.0
128.0
96.0
-480.0
288.0
288.0
-832.0
416.0
0.0
128.0
-128.0
-352.0
-1088.0
-128.0
288.0
384.0
0.0
448.0
32.0
64.0
-672.0
-64.0
-544.0
320.0
-160.0
480.0
-544.0
288.0
-64.0
-320.0
-896.0
192.0
-576.0
320.0
-288.0
480.0
-736.0
416.0
96.0
