-1883
3225
-298
-3856
-2971
2921
957
-395
-872
2247
538
-7060
2433
1939
3909
-691
1649
-305
858
2973
621
1297
-1082
5803
3050
-277
1669
1540
1355
-5920
-4724
772
78
1742
30
116
-9190
562
290
1509
-165
868
-376
1668
15360
1543
2732
-871
5
-818
-337
2088
-304
867
1432
-631
-2215
2227
5447
-1260
1517
109
452
684
-1017
-2472
-1443
1406
923
429
-4812
2686
-316
-175
2731
-519
1945
1663
1343
1104
1661
-2081
-970
-716
2128
-4915
-830
3291
-686
268
4877
1941
343
-445
2881
3386
-1667
1722
-917
2150
1336
-869
2213
-1079
-1865
149
-4734
990
-912
1907
-2626
3514
-651
288
1899
-145
495
614
-1088
1241
-538
4050
158
2353
-2126
-1470
2832
1139
2140
2137
1553
-1126
789
-2154
-1323
-1511
205
819
1033
2756
1067
1172
7135
-252
-2791
1110
1444
-506
-5483
-199
-1807
795
1521
3401
20386
-1796
1729
95
3348
1866
1199
-743
3282
602
-1644
-503
1772
573
1302
2072
-223
1109
-877
-361
-2819
4099
-447
284
7068
-354
-1037
2539
1382
1781
526
1434
-1272
-1275
-674
-1287
-540
-932
-1311
125
-39
-797
3603
758
218
2254
-1052
3335
-311
-1719
-2336
781
2117
599
-735
187
974
4381
-128
-2808
5225
1519
-1206
2142
-778
2412
2227
-1013
1301
-983
10947
5566
301
2435
1061
4689
-573
540
1407
3624
-569
544
-1390
-344
2241
7658
1336
-16
6
2246
-786
-1024
984
1709
707
11967
1940
3020
190
2996
-853
-8451
-2403
-1420
-2195
3323
-260
-480
995
194
-1134
1074
-10
1456
1487
186
909
237
1553
-2143
-360
-1415
36
319
-268
191
-2483
-634
2152
-1051
2570
3312
-161
528
-284
-51
-2433
-1494
106
1318
1443
534
-1209
-482
-216
1666
-1204
-750
504
-873
-762
2547
-2340
-798
56
1007
-275
-408
2709
-439
3034
-236
-4071
-1064
-1499
-884
2201
450
-503
3158
10234
-804
382
2902
1827
-725
-133
2381
-1468
-2619
608
2403
257
-243
2009
566
-1293
1757
2346
92
469
127
-895
-67
2098
490
-790
244
2022
-834
2728
1422
2588
325
3895
3182
2506
-961
-322
84
9067
-229
-1680
-1695
-2653
876
-26
-35
366
32
-292
-4352
-193
1852
1575
-272
-649
1894
206
-1022
1100
-18
-1496
-251
2022
385
339
335
-1325
999
1335
3747
-600
925
-3098
2564
2445
1371
1143
-136
1066
-3120
-1530
1074
1305
-1434
130
1614
-486
-855
6057
-457
1107
-1471
737
-4046
-1425
-117
-333
1350
-838
2924
4105
568
1645
687
1952
-57
-1004
10769
99
-884
5042
592
-1917
-868
-2204
836
-901
-681
-52
1978
17740
193
1471
486
-482
5885
-378
-3344
381
3114
-3444
-435
1450
-847
-2613
2008
660
682
-536
184
-914
-2677
1781
1304
769
-4791
-451
-1050
1439
-4540
6449
-941
147
2319
3464
534
27
-448
573
474
-141
767
-878
1917
1422
897
4550
310
14956
2094
-6901
-1299
1855
-581
-331
20
-2485
2389
-298
602
4708
-2610
913
21039
1542
-1629
-778
-7362
-828
2104
697
-644
-677
-569
-1578
-1003
-1526
-1347
3524
-523
1925
-685
775
11185
978
655
1315
2691
10056
1534
-1234
984
1480
-3354
-1408
3414
-834
327
444
1967
-3928
-283
1961
-1452
6883
2
1056
229
-378
909
2423
473
546
3322
613
52
-619
908
119
795
120
157
-610
2516
-1722
-1353
-184
2235
-955
85
-243
78
-128
1892
2774
-1196
-454
15
879
2798
-998
698
2325
1343
-784
-471
-41
-1327
-272
-293
-4997
4
-772
1147
4982
1395
206
204
-954
1158
245
1345
844
1250
159
-2244
-179
1434
-869
-5988
1030
-957
2202
1324
395
3174
3098
-4028
-4538
1337
1224
-2271
1512
538
1756
124
-242
-1751
-1571
6796
-2194
-623
922
5609
-1551
-1583
3262
-2186
-846
2963
-1110
2947
-663
727
-1452
-187
-2564
-1342
1861
-1558
-89
337
4025
3704
896
3626
36
-313
-586
-426
1143
-277
302
424
906
-5540
-651
4622
-204
4492
-2183
1009
2056
-1565
-405
-641
2456
320
1177
1604
874
-4050
1011
371
-1103
-147
-109
-500
-799
2049
-1227
-873
3245
-831
4363
-1693
-545
10
-359
-227
-363
222
958
2048
-3089
-670
1026
-5221
-5
-344
-32
-389
2279
570
-1060
327
-3081
729
955
-1028
116
-1925
-4578
3099
-697
2773
265
-940
187
1595
-117
1083
-354
-148
604
120
-455
-3040
1565
-157
-868
982
1384
-2575
328
2066
1691
-1506
2277
-994
-1131
-685
-1476
841
-701
1186
-778
-1656
-136
1193
666
634
3115
-1481
-2729
-3377
-1368
246
573
-381
-958
798
-264
-379
511
1828
-138
-1710
-606
-783
819
-3062
2163
-295
3155
-2721
-5612
1945
876
927
2134
-806
3551
696
2043
1129
-840
-1607
-2978
-942
-764
453
-88
244
1711
210
-992
2202
-1693
-950
1426
148
-1774
663
1023
1745
-970
122
728
-1706
3309
2781
1861
3841
2148
303
32
-246
1503
2642
-59
-2631
-84
530
-309
-897
2694
-71
-169
-2155
1212
-781
4335
-614
826
3129
-754
1417
5401
-8
3625
-713
-759
796
822
154
-602
617
126
-466
-725
-14199
-1002
1682
-115
-2440
5
-17
-290
2607
692
252
578
-473
7296
3208
704
-1482
1775
-1305
-3524
-600
2700
-746
2273
1795
96
130
292
3176
154
-300
414
-550
-1291
958
861
-663
837
821
190
-1032
-635
142
-697
222
1808
-340
2664
419
20445
-2921
-600
590
-81
1623
350
-1310
-83
-873
-7925
1372
178
10509
2482
6637
1221
1264
-958
3257
488
1455
150
14497
1521
323
-1864
2426
479
-126
3005
-1626
3376
-2808
604
3416
-900
468
-2371
1907
7027
-179
1767
-2953
2379
2764
2318
-3353
4854
729
-2273
-232
-2813
974
-864
1759
250
653
-2487
-458
-881
-3829
1145
-1131
-664
1533
-1019
894
1954
-48
-867
927
3225
-499
-913
-301
-7489
-1077
-1189
2199
808
697
1765
-2036
-1009
-1893
-276
-366
658
-251
1608
5331
6035
-843
2451
-778
302
948
1594
-723
1244
863
-1419
-1561
-426
3706
16003
2988
-211
3374
-2136
1560
-837
-112
-544
2775
-565
2512
-72
1522
1904
851
-934
350
-698
-782
1569
2642
982
-333
-494
1204
2009
373
3592
-1926
-207
1570
-34
-3831
882
-958
-40
1779
1497
2914
95
-1378
-678
-2352
-71
-1361
13
2144
8898
3156
1051
1338
1417
-1812
-676
326
1412
2272
2666
7954
997
-2747
-573
2602
-75
-297
74
-359
580
128
-1540
-76
6706
-1821
6490
2586
-1272
-533
2799
6261
197
-124
187
-729
-840
2399
1547
27
1854
6900
-859
683
5184
-265
712
1507
-3435
-2633
-180
787
2425
-682
-1691
4234
1725
2223
555
-2502
-5506
15711
1155
11485
-468
2882
382
-1193
-1173
160
3537
-240
212
-1955
-189
-62
1242
2930
1002
-311
1748
2671
