-5172
1878
1621
-83
1481
-2049
-2303
807
1461
-3137
16962
-1300
1396
6908
3642
1441
5768
-1235
-2358
-5461
-907
-2433
-270
1403
1661
179
-14060
1728
-657
377
9284
2021
869
3099
-3617
1326
2877
5485
-3859
-566
996
1342
-244
-1107
3392
-55
4944
-616
261
2206
-330
854
478
-6513
1775
2836
-541
-3589
4973
2791
519
-840
3967
-17730
2920
-10358
-5090
-4947
-947
1752
-459
-250
-3150
-1701
-618
-2770
216
-402
2317
9312
4853
671
1965
1110
-5137
269
1741
-534
-1582
278
863
-2183
-2048
-8480
-888
612
-12997
-3253
280
4203
3335
1916
2138
-5415
-3310
-1580
5927
2680
1300
-8662
1278
-875
-10005
1636
-2967
2956
-4874
247
-169
-498
-459
-1033
2210
-979
-7556
508
-3896
1520
1660
2582
-234
1620
-781
571
-562
-5160
6508
2763
2967
-563
2301
-1262
4396
-2189
554
1691
-3574
2259
-819
-8328
-390
2307
-2871
-1181
-1729
-2741
-5983
-2792
-1150
4025
2009
1357
-313
4588
571
364
7092
-2709
-419
2419
1600
-1219
2542
-2784
-664
-632
3305
-544
1046
-544
-4155
2119
400
370
2618
-1945
-3687
-2346
-6776
-532
-2563
-1592
-1685
-1677
1430
-908
2242
-576
-1775
-2175
1017
-276
-4033
1247
-2538
2443
1075
1459
-4709
3751
1385
-1275
-3389
4885
-339
2095
586
1305
2415
-20325
-130
1625
2833
967
-123
-19449
-1953
-1466
-957
-236
-1085
-40603
-1403
39
275
2343
-4750
-577
1751
-1126
-387
9779
-4711
359
-1334
3279
-1482
3170
-3010
-3025
4987
4826
-1611
7377
22221
1570
2484
-3299
-2060
382
-513
-8139
-3350
444
-745
1724
-2813
-1456
-464
3841
2872
4031
-1308
-2363
2269
-1368
-606
39
733
-145
-130
3859
265
2241
2574
2102
-24315
-3228
-3398
-1228
-3940
-5178
931
1093
-13429
1608
1237
1708
-2333
3285
135
909
1654
666
2216
603
-766
2798
191
-2646
-3570
-395
820
1093
-1759
-2439
24738
-300
1154
1817
-914
-1383
-33491
-1885
-657
-6291
-2391
2472
5360
-1923
2753
1453
-4076
-1942
-1822
10991
13723
-2442
3268
1722
-1687
-31452
3525
1316
-571
-1440
5668
-1783
-1525
-600
51
-1106
6102
-10754
12937
-811
1501
-2163
2609
-1676
-2303
-257
-692
-3092
-850
-1215
-493
-4242
4335
920
-1237
-2734
3048
-756
-1997
-162
-381
6639
-3402
1189
-1745
-12
-68
-441
-755
2799
78
-1044
1201
-1627
829
3768
-5538
-1997
-254
195
-486
1382
-2986
1989
2485
-1180
-14087
2263
2028
-48099
357
1241
-1018
-2744
4326
2454
1385
-1702
84
-3095
1220
-1157
-2462
-7538
-1183
-656
-2227
-4422
2341
1425
-1729
-1053
733
-3503
-27599
-1996
-551
822
4606
1145
-356
2425
-1881
-2099
-2421
-519
-12
-839
5449
2192
-255
569
-926
-1576
825
-1772
-670
-792
-536
-1885
6916
-17732
-1032
2382
-1465
4623
-727
1907
-3965
-425
-2562
-3631
643
4072
762
3143
890
-13514
1032
5021
1478
-1089
1762
-1647
-4470
-1474
-424
-3069
544
2000
1343
2995
878
-146
1182
-482
819
-1070
3064
810
910
-994
5813
-11409
-1739
-2731
2402
-4337
-935
1841
809
-680
-3218
-9552
-621
763
-1314
4002
-2691
398
-1605
1731
-188
1591
750
273
642
12
1594
-509
5533
10941
-1859
2308
1067
-1732
-864
2262
12721
1310
-1803
-553
836
3821
-3209
1250
964
901
7441
-2866
-1289
-219
-1702
7071
1080
-843
4484
-1917
-4832
15288
-11369
1220
-2554
5118
4436
-3887
-826
-3648
-944
2221
3229
-2282
1665
-1325
1990
2381
-896
1929
563
5235
227
-4224
-177
-8675
-407
2747
-4414
1087
2225
-35288
449
-579
177
452
-392
-1760
281
1551
4467
2480
3021
-950
-923
-1313
-1021
-1337
-539
-1472
-14164
4064
-1293
1127
-274
-2242
-19656
-801
10752
3823
4670
-985
-3305
1370
1674
309
74
-947
1158
-1395
-1313
193
658
2673
-3548
173
1801
-496
-381
-2469
1770
970
1444
1822
-10592
769
-143
-282
-6970
2124
1298
199
180
1083
-3342
-3790
1406
-2114
4890
3287
7970
3930
7129
-966
1355
3920
-3666
-9368
-2414
-3486
-397
1427
-3935
-1282
4199
-238
698
-5475
