-17048
8219
-35821
-44554
22352
-5794
-35323
-16970
-14367
4681
-2618
-11216
-21893
56
-1970
13522
-15109
-9011
72854
-30497
-19424
-7511
-2115
-19782
-31732
-28440
-10007
-6526
-3792
-27966
-18790
-1179
632
-8576
10359
-10952
-25653
-10880
-13919
8768
-6052
1968
-10053
-24326
-19811
-8714
47670
-25472
-18208
-15938
4477
-6556
-2834
-10933
32375
331
-17219
21153
20383
-8838
11982
-2265
7526
-12471
-34329
32423
-3415
329
-18347
5005
-17798
2101
-12179
309
13862
-7279
-20389
-32645
-29370
-32880
-26973
8610
-16923
-10174
-13069
15599
89777
-5821
-21520
97013
-23664
54522
18679
-23570
5928
7805
7603
-26707
-23134
-8101
11998
-9167
-10877
14626
-29124
-2244
1020
-52632
-14411
-17964
-16050
5642
-19369
-28001
-10006
17806
13143
-12175
-25195
903
-24909
13160
-12575
-31023
33510
-9110
48735
-19616
-14478
2844
-1661
-21392
-15126
23227
11933
-7479
-24814
-32812
49006
-35451
-1630
-10217
8984
-22665
41392
-7401
11674
-16246
-6339
-9796
-30967
2013
-22692
-27761
13410
-16174
13392
-26028
-30533
-7046
-5888
-28726
14367
-30167
-10000
-3890
-32092
8788
-11815
-24953
-48839
-17297
-13015
4803
16089
-36409
10919
-14075
-28232
17836
13235
13486
-10005
-7870
32891
-5913
6726
-3553
-4487
-17135
1
13685
-12812
11905
6633
-5434
-10287
22221
-22430
5264
-18112
-15253
10371
22533
-31327
-13981
-10473
-43623
-3477
-44626
6077
-20309
11546
7182
2550
18624
-17361
2923
-15010
5985
-1047
26147
50469
-9907
-11915
3892
13540
-19019
-3801
16830
-20852
8030
7993
8762
-21084
-10430
-4069
26007
-23137
-3142
4140
14813
-9313
-7197
10366
-15392
38915
-16259
-17543
-5639
-19137
-15766
-23016
-18293
-20846
-13427
-3729
7200
-7184
-30902
-27762
4947
-2905
2787
12954
-35401
6188
-8694
5228
-29962
-31306
28586
55797
-19733
-3627
-30319
7814
-12581
-7104
-17442
-13441
-18128
10222
-17656
-16660
5094
-26932
-31837
-29456
35220
-15985
-11100
23772
-24644
-10376
-8563
4517
-21113
-22527
17624
23470
26968
-39428
-17283
-21649
-12317
-23855
12604
-8312
7225
-7688
-16015
-1628
-9986
-21338
-27498
92
-20661
-11849
-4998
86784
-3631
7633
-22557
-23741
7794
-21907
-27982
-3623
-34449
-2099
-21509
55
6140
-4145
3672
12250
-30340
2069
-25538
-14370
-9314
-17109
3935
-41038
-38475
-18768
-12770
-16389
-17930
-21529
-20474
17005
42480
-7600
-5968
681
-8373
2537
-11216
-38119
-4292
-58077
-5295
12578
-35693
1419
5288
-20063
-20471
-37986
-5415
35549
-25747
-16665
-28090
-13352
-19152
-17849
-12396
-5760
-13073
14441
12892
-5563
-12454
53489
-15411
-1662
16020
-5878
8289
70146
10296
56731
15390
-12279
-21831
1207
-5234
-22864
-25578
343
-7360
31273
9083
-26702
14971
24510
-35262
-35801
-24928
-10770
-21674
10655
-2898
40636
-19040
-19326
-4346
-5588
-30396
-35983
21532
-4603
-3783
18738
-18499
594
-18200
-36789
-19270
-9463
-18416
5016
1893
-4848
-44798
-32249
55596
14353
-21786
-6836
-6460
-21893
-28863
-4385
-12153
31498
13168
-22707
-24889
9405
370
-29527
-1988
37177
-23501
-16179
-4445
23316
-15953
-12365
-13289
-21627
-6999
-31491
21249
-35545
-5409
-14224
-7180
-1515
15216
-15683
-33255
-25267
-15086
3507
-21783
-19507
6043
21575
-24642
-10612
-5735
-13256
19482
-31075
-26079
-56070
-16618
-23402
13711
13041
-26795
-19532
-13600
3686
9
14889
-20042
14199
-19033
-42237
30504
-17132
-11334
-10172
-8127
-20771
-6702
-9192
8426
-19009
-2781
2705
7935
-39094
-23479
-17864
-16637
2063
-30402
-29770
17232
-14150
-19890
-34324
9501
-6319
-23282
-12673
8041
-9093
-40336
-16235
-22107
33507
1891
-23230
-17463
23541
-19262
-19437
-19381
-2022
-19050
3132
4721
-30854
-11013
-28494
-20186
28979
-35527
-21072
-32013
-1881
-7173
-24321
42309
158
-30179
-5505
-12721
-28568
-12002
-22897
-4886
-11446
-33766
-2334
18479
-2884
-11828
-2601
-41750
-3837
-14504
939
8079
779
1862
-23485
-11752
2238
-15572
-19508
-26782
-1453
-2589
-43316
-6699
-23178
-1813
-14085
4893
-43669
-28958
7449
-4944
-3007
-36176
-42528
6420
-15994
24994
-16629
-18552
-20692
-8901
-29087
41686
-10121
-13837
9083
-16403
-25830
146699
-36223
-1797
-18439
-9454
7773
6746
-2021
-3422
2804
-14903
-25661
14667
-23293
36988
-34972
4967
-21488
717
-15424
212761
-7129
-3279
-23899
20945
-22951
-19506
-22093
-19046
-7680
-11884
19603
-24931
-2950
3180
-8943
-16350
-17598
-7669
-20361
7091
-8400
33353
-33979
5751
-37534
-22261
-2049
-89
-12029
-34310
-11448
-26052
