1161
-2835
9548
31211
34145
-730
9334
3750
57965
2905
2012
1902
20678
-3413
1368
54145
6152
7183
2687
-675
6156
1630
8497
-1962
7262
1694
1045
3292
-3411
-3836
-6145
7912
-1828
6873
1482
12021
3261
6047
270
-2844
2196
3119
6242
1565
-1627
3688
-997
37114
4132
-720
1707
3315
11286
4644
637
4826
5528
4892
-583
11566
7696
13297
6760
8754
3189
4608
607
-3313
-1839
3435
1440
1486
7978
1042
3143
7480
3739
4199
9105
7951
5947
6097
3573
25410
6305
-5303
27401
6155
1496
4894
6935
8168
-3119
2634
4008
1885
8709
3927
-2316
-1014
-901
-2211
3351
-1158
3694
-13218
17920
3752
3866
776
-1020
5870
8219
5480
6310
3742
-126
160
6179
2389
4702
2635
5547
6434
-3789
-49
-138
2237
6674
-1783
7420
5453
7624
2897
4821
7106
800
-355
497
-13106
3316
12521
2826
7605
2503
-1067
19944
35059
45281
5828
2188
2157
8074
2021
-2764
2519
5668
1310
1670
4481
3803
-7693
9790
2260
3971
3492
9121
-6437
3452
2939
3497
-630
-752
-4818
18443
8182
2697
1232
-7399
4293
151
-4765
-390
3167
32
4973
2712
3179
5158
2802
2240
1706
2158
6359
8907
4955
353
6725
-1582
4564
3813
6434
796
12691
-6779
6184
9846
5133
18184
1168
5410
7779
4190
-15050
-4028
12929
-6151
5905
-9489
-451
6242
1874
10121
-4365
1334
-1716
-3648
1536
3216
-1280
3948
-2192
3041
1121
2423
8277
7963
-3396
651
2782
-1133
9475
1484
3195
-3519
-6920
6
-12510
-7164
7117
375
3492
8315
24403
10385
-2001
5269
804
1126
10927
9993
5463
5463
11966
-2486
2883
4784
3138
13745
4391
-7038
-2424
-625
7437
5841
194
-1301
-323
5987
118
3614
4365
-2902
2603
3264
-4439
3349
872
-2214
23719
2863
10041
3777
6225
1580
631
-376
-4963
-4812
9754
6866
5103
7422
6883
234
3425
2717
-12900
-1582
1498
5732
3475
4632
1018
10735
-1527
14152
4073
7947
-171
362
4240
3312
-12639
5678
2426
-300
3438
478
5654
-3217
3566
9829
3946
1087
1651
3522
-3337
5893
-3688
-3518
2324
2153
-4026
2020
1019
7148
130
-1295
457
7746
4954
-8756
8203
9834
-4572
6223
996
3616
-4555
6266
-13873
6185
7894
11582
3949
-12547
8611
-10804
2588
1913
4306
-2373
2883
5889
-5120
3151
2107
9047
4672
363
2763
8936
5684
7368
3991
17857
5325
-768
1622
5963
-1115
-1306
109
-1254
-635
-9253
-26431
10008
1623
-5733
1460
4930
2412
-3017
1585
38491
-25890
4003
1164
4201
7403
-5042
1771
353
-1439
2684
1706
911
3013
3875
7781
5896
7907
2827
-1779
8777
-1862
10925
-2673
1639
10555
490
-989
5478
-5905
-6967
4947
5178
-6594
-1020
1085
17484
-2003
1801
3479
303
-9009
-5606
6157
149
-595
1829
6261
3968
7094
35
2375
3433
-145
495
1221
4460
4221
-2177
-12447
1024
5955
1020
6682
7421
-1281
1392
4288
447
4383
2911
1691
4067
1576
326
2943
2238
1636
341
12792
-1094
5773
7778
-564
-10432
3387
-1705
4185
-11407
-10992
-2142
10364
8821
7645
6908
5496
443
-2667
-110
3113
4419
52
5000
1800
7904
481
1908
2619
1408
2001
3810
5899
3597
3984
828
1625
1964
2309
912
-234
7344
242
7549
4423
6323
-170
5156
26199
1119
2296
-12487
27088
-3289
5411
-1519
10700
-862
3169
6206
9889
1881
1680
6238
1688
-2265
21381
3432
1713
-7676
-8718
6965
2943
-3249
8569
8344
-2354
7891
-6253
-1739
1316
-1936
-1004
-93
4499
-516
10896
1428
-3920
-4837
56
4957
-3175
1047
-175
3730
-1674
8915
7038
-6259
378
5262
1198
-3312
-491
6730
131
5267
1242
4394
-2636
2976
-5337
7598
4192
11294
6960
-3622
13335
-1775
-6787
190
587
6042
3222
335
7632
3084
-6077
6335
1138
3952
480
1077
9502
7005
2778
5852
8360
5079
1525
-761
1725
3896
1010
-15512
-4355
3919
7385
4106
3759
4921
1000
-2555
10148
1491
3342
-380
5195
-8451
454
3841
-7443
2896
8192
-2435
7371
56
-20080
7827
2071
18871
2013
-6892
-3788
8155
3903
6651
3148
4357
-1738
4017
-1930
1865
-4826
7147
3250
3147
6530
3587
-1001
5127
24645
930
3086
2919
6132
1688
-995
7904
4737
19310
-271
5247
5257
8980
-1961
15617
609
3759
-6829
284
1615
10130
-1730
1541
-860
21698
8171
-13178
4321
3153
6242
8822
3992
3863
277
1697
2324
-1891
3578
4275
4518
9665
2472
-8344
7387
1473
-4999
7787
-12765
2613
6592
20918
10207
3799
2466
-1154
-3511
-2351
3954
-1433
-46
1839
-1936
-864
2282
-4906
41930
3410
-135
358
-950
-4981
8296
251
1686
-1651
6521
9688
-67
173
-526
2769
46781
1905
4532
447
114
11250
3051
9010
3939
245
-1619
-37
1998
-6313
1230
2864
-9565
297
-3
8158
2926
-821
5210
4761
5894
4002
6366
7415
-18613
-2796
9448
-2639
629
5627
1421
-837
-4174
6757
4338
10236
-754
4311
2128
-2056
5871
7920
4532
3711
5508
1278
-478
-3546
3284
-13448
4690
4159
4093
3619
-11399
28
7971
1616
-441
4579
818
5442
-1672
4614
8174
-1161
-6059
6117
2105
3093
2401
2664
-2624
8389
3099
18362
11055
-4579
-2451
5006
5818
-103
-1057
54
4243
-2545
-746
2001
1215
36461
6019
-554
7019
4813
9609
1680
2048
6370
-2608
5206
-4519
5167
1066
15695
-21125
11673
2030
3083
6064
6606
-739
720
8904
-1489
142
-697
1944
2573
4320
3573
3297
1687
7357
444
5922
7583
2297
445
3
333
874
9787
6373
-4672
5114
-1391
-674
6849
4396
4596
7479
-4930
9270
3368
-2883
-1880
4044
7742
316
6009
940
5370
6359
-2927
2904
53
-1158
4749
4435
-7975
3393
6476
8958
-1274
-6111
2171
530
-9613
6092
11420
-3000
3028
3280
3838
7181
-42
10243
1531
1690
4960
-12706
-3356
7237
-2038
-863
7931
1617
5494
7917
2652
44361
3851
6438
8434
3877
5678
6152
1997
-2838
-1928
1857
2401
2120
-5849
5729
4174
20418
-5027
-4030
-793
1158
-1071
2699
3998
-2018
1573
8233
5916
-2375
12623
4672
5055
2516
-1109
-12182
5464
-1761
-2402
10354
-11724
1106
2487
3591
8130
2297
6201
3753
2237
1387
-191
9391
5231
57485
5423
-635
-7327
-4112
-5116
1497
-5912
-3642
1789
826
-3137
-10131
147
12159
4220
10299
589
4560
-374
-10348
1901
1369
1051
6114
3824
399
7242
1238
10011
1540
8785
-4228
2697
2381
-7174
39784
1178
7667
1511
535
3603
14706
5484
-2735
108
13936
2199
3868
7877
7069
3778
6372
13309
5177
6485
5088
3213
10375
2225
8927
4485
3875
-600
2755
-438
2085
33517
34390
337
6894
2212
6869
-260
2451
6948
7
2786
539
3281
12207
-2705
51141
2144
5133
9852
5913
6544
3837
2439
-13014
4559
-17457
6893
-59
7818
7219
602
7750
4393
3274
-3718
4337
-2531
5266
67551
733
30140
-7242
2569
6904
5624
1108
10401
28
6995
-3761
18830
5746
1573
6893
-987
4627
12333
9362
-4243
1257
5411
5347
-919
4341
5426
2492
680
6392
5941
2315
5827
1205
3565
4567
7797
4999
5776
4480
371
4546
