15
-53
68
0
13
-53
-39
-10
-27
-9
-127
1
11
-98
-4
-11
9
-34
52
-43
-20
-26
-26
-63
58
-54
0
-33
-31
-35
-35
-5
-30
20
-53
67
-3
-85
24
-70
-127
-34
90
57
97
-52
-20
64
20
-38
26
-64
-37
-24
-66
67
-10
-79
19
-59
-35
3
1
34
-127
-38
-59
84
-5
-36
47
-88
127
-43
-1
-32
-4
-3
-127
18
25
-5
-120
18
-95
5
-96
39
-60
-27
-6
43
18
-44
-24
-14
-3
12
-59
11
-39
-8
57
10
-56
16
-6
76
-58
-22
48
11
-72
71
77
-17
-31
12
-62
-2
-9
-37
-6
-14
41
37
-69
108
35
32
-29
-28
45
53
46
68
-71
-127
19
-13
29
-6
127
57
63
13
16
2
-23
-46
46
-43
-35
19
-51
60
42
64
-16
-14
127
-53
-15
-32
-38
-49
36
-37
62
-19
-68
35
24
-9
61
77
-34
-19
29
-95
66
-17
-16
-29
6
-22
-51
-16
-9
-22
-21
-11
1
-14
-3
32
-47
-7
-62
8
11
110
-10
29
-5
27
-49
-52
8
22
-14
-16
60
1
-50
31
-8
-19
-2
73
-4
-58
-68
17
-59
-46
-71
-21
-35
-35
44
12
34
-41
-40
4
67
-16
14
-63
29
13
34
-50
42
-54
41
127
3
0
113
0
-29
7
-1
-78
5
62
-7
-49
-25
-26
-64
-38
50
36
-77
0
24
-51
3
-80
-41
26
-38
55
25
-29
48
62
34
-48
1
-26
0
23
-47
11
66
-16
-10
-43
26
-127
-9
26
-26
-18
-11
-22
-16
-9
-72
35
97
41
-28
6
-60
-15
64
-50
86
-81
-7
-28
-53
79
-41
-25
-9
-41
2
127
-48
-32
14
6
112
-62
4
3
20
-4
-2
-31
15
-24
121
-4
-74
-25
-3
-78
-21
5
-42
-6
15
23
-56
8
55
90
-73
14
2
-18
39
-5
2
-11
8
30
57
53
12
-29
32
-86
15
8
-29
68
-25
4
-27
-43
12
28
-12
-32
26
9
-11
125
-55
15
-29
-50
39
-25
29
-32
44
-6
33
-2
-90
-15
-24
7
-30
-11
88
86
-35
-12
-39
43
13
2
-21
55
-8
-12
8
-22
33
36
-47
0
1
-28
28
-66
-61
-24
-79
-5
36
-10
113
-50
20
47
12
9
44
12
-127
29
19
-8
-21
-32
-72
-30
-27
-37
15
96
65
25
-45
-22
24
-44
-36
-45
-29
96
36
-52
-25
-2
30
-16
-3
-62
-30
5
-33
29
-65
-40
-74
40
-26
-115
27
69
-22
16
3
-31
5
-41
66
21
27
79
109
-17
-40
11
-50
-21
-73
-106
105
16
-51
70
31
5
-6
36
19
-9
96
-64
-33
30
-44
-27
-60
-10
-17
6
-82
-38
21
96
-55
-19
79
127
4
41
52
35
-47
-23
18
60
125
16
-31
-8
24
51
-47
-11
-11
-53
21
-18
127
71
-35
27
-21
52
35
-9
-38
12
12
3
100
33
-36
-15
6
-22
-24
-5
-30
-27
-15
30
30
-22
127
-49
-46
-42
25
-12
22
41
41
-41
-18
67
-14
-30
21
-12
109
54
32
-7
15
-52
95
-41
35
-4
83
-26
34
46
-5
-32
12
24
-33
127
-36
-81
-15
-16
-53
-51
11
-12
-69
75
50
-19
-32
1
-3
11
4
-64
-34
18
-90
26
-2
8
-25
-38
-6
61
11
-34
47
-39
-119
-46
-26
2
-92
2
31
-42
-12
-3
-41
127
24
-24
-38
-26
1
-5
-41
69
7
-72
-45
52
44
-19
37
-33
17
62
-46
-1
-52
-23
-3
17
-6
-57
-40
20
-13
-42
56
-14
76
127
10
24
15
72
17
86
90
52
22
-13
53
75
-23
29
-124
-17
19
127
25
19
-125
-44
2
90
10
-116
25
-26
-110
-31
-11
-28
-12
85
25
-127
36
54
-14
21
0
111
24
21
-52
-11
29
116
55
113
51
76
47
-6
79
127
10
-20
-13
79
-93
-67
-53
5
28
-1
127
-18
79
27
69
43
18
-80
-85
63
114
119
-33
37
-13
-8
74
58
-4
-88
-42
-59
-4
55
10
54
-74
-30
13
-59
-36
-77
68
-4
61
7
0
-9
-35
56
78
-11
28
-32
20
-7
49
-3
-19
19
44
-126
-17
55
-12
108
38
-33
-64
3
-7
68
34
56
35
45
-3
15
23
9
-15
54
123
-74
-16
90
5
-8
31
-21
39
-6
-27
-43
64
38
30
69
-22
-33
0
30
-62
25
21
-4
2
2
-127
31
9
-19
67
51
8
24
-49
127
-11
-20
28
44
8
67
-29
15
-9
127
-25
-23
-90
63
-32
81
71
59
48
55
60
80
-56
23
-10
66
76
69
6
33
21
9
57
63
18
81
55
-46
86
37
-104
110
-27
60
63
17
-65
36
-6
109
31
-127
-33
-11
79
57
22
2
-34
9
-33
118
10
49
-63
8
-78
7
50
10
31
40
47
73
66
114
-15
5
-29
85
11
7
-61
25
66
-2
-19
-6
32
-57
27
50
-24
20
43
3
14
40
-24
-5
33
127
-16
12
120
76
-127
-5
-75
40
32
16
51
-5
27
-26
-33
-85
64
21
-118
70
-26
-68
-31
54
53
75
41
67
59
28
-32
69
81
29
-29
19
127
82
-32
5
25
36
-4
24
32
-28
-85
113
101
117
29
-3
-49
-19
80
96
-28
-27
74
45
37
110
62
42
-25
89
72
44
-6
8
22
-5
49
50
19
37
107
-54
-5
62
-43
-27
27
-30
27
42
0
4
28
106
12
-30
9
-20
18
-14
-23
41
67
45
-68
-6
77
-72
30
-11
105
111
-2
-35
-13
-56
59
-60
-20
70
-14
62
32
-32
25
2
65
55
-8
75
63
6
-9
-25
-90
-5
33
-22
59
34
58
-21
13
-4
-83
114
-16
98
-1
17
-38
4
-95
52
30
27
92
18
-90
65
78
5
-9
36
-17
-41
11
-37
8
-50
37
35
-36
119
25
-37
-16
26
51
14
30
14
-114
26
68
-44
-56
-22
8
8
6
-9
84
-27
-16
-77
22
-127
30
-25
-59
17
21
-56
-83
-69
31
55
55
14
-111
34
-31
-16
-20
5
-30
127
-25
60
27
68
63
-8
-28
0
30
37
-88
14
10
-40
-26
36
32
-34
17
-12
0
-11
30
43
12
127
63
-28
-127
-86
-104
20
-36
26
-77
60
15
48
89
13
127
13
118
14
67
-110
-18
50
0
41
68
62
-1
112
63
37
30
20
15
-77
108
-31
81
53
-83
10
20
63
-3
31
-14
43
18
88
25
1
-23
-109
-108
59
126
0
114
21
73
-7
-17
-28
-3
6
54
33
-28
-9
58
32
44
101
118
34
-16
38
58
-114
59
-16
29
4
7
60
10
15
15
-11
60
72
0
80
67
41
21
14
6
-127
38
-2
37
-112
1
74
-57
103
-17
-60
-28
-43
-92
-9
18
14
-68
-37
-40
66
16
60
18
43
69
43
78
-20
52
37
-17
41
68
111
92
-39
48
33
-51
-19
-23
-20
8
-11
-53
5
23
14
43
-75
6
-24
-9
-26
-55
-14
51
19
23
-12
-23
-114
13
0
-10
18
-73
-9
-42
4
-27
48
3
-48
-115
-27
-25
-41
-46
-17
59
-62
-5
30
-42
-16
-32
-28
-37
40
-11
5
-10
18
-65
-101
-32
-41
-27
-70
90
6
-5
-16
21
-37
-8
-80
-16
-36
17
-15
0
57
-53
-55
-17
-55
-35
-26
-27
0
-13
18
-11
-42
-18
-49
-38
32
3
-31
-25
-27
1
3
19
46
29
124
-22
-34
-25
-46
-45
-50
20
24
17
101
-10
0
-16
-8
-10
-37
-35
12
19
-8
-19
-26
-16
-11
22
58
0
-35
59
-27
62
-9
-34
29
5
-12
-14
-34
34
-56
-7
-127
-50
18
-62
-24
-4
25
-3
37
0
8
-20
28
106
-24
101
-77
-74
-24
-4
-11
-6
-11
-18
12
12
-42
-21
-16
-17
32
21
47
1
-66
18
28
-26
21
51
-22
18
-20
-13
-54
20
9
-11
-24
62
-74
57
0
-9
-40
-51
-20
13
-27
-18
0
-42
17
-16
-2
-35
9
30
-16
-63
-12
68
0
-1
34
-10
-44
8
-5
21
-58
-13
35
-62
-32
26
23
-6
32
10
15
-13
-24
11
-7
14
-17
2
11
4
0
-3
-37
10
51
-38
-39
-14
-58
-50
-19
-29
-41
4
-25
-38
17
-43
0
37
-49
14
-10
14
-2
9
12
-58
21
-13
-26
-33
7
8
7
-60
-21
-30
-14
4
-4
67
0
81
22
51
-126
31
-44
-65
0
27
-12
34
-19
-12
-18
-3
7
-4
-27
-28
2
-16
-37
30
98
-2
1
0
-19
-37
-15
-72
38
1
-29
32
-11
11
2
-11
-26
-62
-18
28
12
-43
-20
-46
-12
67
-27
-5
-34
-8
-29
-17
-67
43
52
-5
-31
-15
19
-17
8
-13
13
-18
-82
12
-19
-16
-26
-127
-10
-31
-9
-15
-46
-52
-55
-1
41
-56
-5
-27
6
-9
7
-2
48
34
6
-14
-33
-40
12
-19
15
-21
42
-18
-13
-6
-88
-39
7
-74
-23
-6
47
39
-5
9
2
-16
-50
16
31
-78
16
-61
23
2
9
-127
-32
10
-9
-38
-17
-58
-57
-14
-6
-7
-5
-26
-12
-22
27
66
-42
-50
82
-18
-15
11
9
19
3
35
-1
-9
-60
-85
11
-78
-24
58
-16
-30
-24
-20
-36
-22
-78
-25
-26
-50
68
-24
12
35
-24
-80
43
-1
2
-2
10
22
39
127
73
-1
-16
-127
-70
24
-28
1
-18
19
-3
-51
19
42
31
39
-23
13
65
27
58
-58
-64
-60
12
-14
-38
-11
1
17
20
-37
-39
-28
-93
15
-47
-13
-50
40
-7
-5
-60
10
22
-44
-20
7
-51
-10
-52
80
-51
-33
6
-1
-30
2
-24
37
-12
-14
-38
-24
-1
-18
-10
-38
-56
-37
-31
73
-5
-94
21
-94
48
10
5
-2
1
15
-14
-57
-105
-3
-18
22
1
127
-6
-19
22
2
13
89
-1
12
-30
-21
27
-1
-5
3
-41
-14
-14
-60
63
21
-62
-6
-17
-15
3
-21
-65
-15
37
-6
-18
-19
-4
8
-69
-54
-42
18
-3
5
-33
32
0
4
-18
48
-16
0
19
12
12
-11
17
-29
-72
57
-15
22
-56
-8
0
6
-3
3
-22
-23
-10
-3
-21
38
-34
1
-6
-28
-45
-60
-20
-8
-41
-64
-6
-13
-42
9
16
-58
0
-22
-17
7
-63
-17
-12
-13
10
-19
-30
51
-34
-28
-18
24
-91
36
50
5
-55
-8
-104
11
-19
1
-32
22
-3
-6
25
-99
-46
-24
16
-127
-10
33
-105
12
-52
-51
-31
5
-23
79
30
76
39
-47
46
79
-30
2
-9
50
26
-1
-108
19
3
-62
-127
-58
-99
-35
104
-126
20
-22
-110
-10
-40
-119
46
-70
48
7
-65
7
62
-43
-70
-9
43
-67
9
-2
-79
-42
48
-31
6
-127
11
91
-96
26
7
51
-35
-11
-93
7
-24
-65
-17
28
-37
-41
-22
48
-77
40
-87
-24
37
12
-43
-77
-18
-15
-127
-24
43
-16
-7
-57
-13
5
22
117
-127
-93
-93
9
-40
-33
-1
-8
78
-24
-50
51
13
-102
-33
43
0
9
-33
-46
39
39
-41
-87
-17
-20
-31
-90
69
-18
10
-18
-127
-39
-106
11
-9
18
60
-41
46
1
41
-18
-9
25
3
0
40
-116
20
-90
26
-83
-117
-13
-14
-22
-95
16
-80
13
8
16
-18
127
7
-127
-5
-47
-31
-60
-52
-127
-53
-2
-40
-16
-28
-68
0
-31
46
-15
75
-80
-25
-8
10
29
-60
-127
38
-7
-110
-100
-40
25
-11
-56
3
-34
-2
-12
56
51
-10
8
-20
59
4
-62
-5
-78
23
-101
127
-64
-47
-10
-59
-8
-127
24
3
-127
-28
127
12
-127
-90
-21
43
36
-97
-97
-46
-60
48
-127
-53
15
-17
-74
-38
-116
31
5
14
-100
-105
-76
14
-111
-40
-127
-44
7
-23
-24
36
36
76
-100
24
-50
-18
-32
-82
-11
18
-50
28
-87
-67
-28
-4
60
-63
-84
-20
-101
30
86
-4
11
-36
34
-33
36
-59
-35
-14
49
-19
-62
-9
13
18
-109
-100
108
-69
1
-43
22
-127
27
-5
-67
4
99
66
-54
-115
-3
-28
17
75
6
-62
37
-31
-40
-32
29
25
-4
-31
-127
3
-67
-78
-16
-22
-28
-54
40
37
-7
38
35
-5
3
-39
26
-54
-72
-52
-45
-34
-85
-127
-36
-48
-45
-127
15
-23
3
-38
2
17
-6
-125
47
29
-84
-21
20
-127
-8
-88
27
-49
-65
67
-56
5
-127
45
-18
-1
-5
-78
-54
26
-30
26
-30
-23
55
-14
33
53
-42
-10
45
-12
-5
-59
-27
-50
15
37
3
13
-60
-54
-6
-17
18
-45
-7
19
-29
27
-106
1
-62
-47
89
39
-82
-81
80
-42
55
-26
39
60
-72
-58
9
7
-34
79
35
18
4
-35
-92
-39
79
-38
-68
-50
-78
23
-121
-12
-127
-75
-29
-7
1
4
-10
-64
-5
-90
-31
-35
-45
-43
-23
-61
4
31
-23
-54
-49
-19
22
127
-52
-14
-18
-12
-38
-81
1
2
-35
-109
-46
4
-34
-67
-7
-32
-7
57
-6
18
-63
-48
-42
97
-127
17
0
49
-71
73
-7
-76
-28
-1
57
-49
-38
-13
-27
-72
-99
-59
-47
-27
75
18
93
20
10
17
-37
30
-31
-65
-110
23
-80
-39
-30
-30
-46
8
-127
-74
-127
-20
6
-3
-68
84
-57
6
-78
15
-6
-127
48
-104
8
-32
61
90
0
36
127
-29
-36
-34
3
-73
-21
-15
-127
-39
-7
-61
44
34
-58
63
6
-37
-28
55
-34
-71
-25
-57
27
51
-10
-23
74
12
-118
-3
23
-8
-16
-1
0
85
-32
-87
-87
1
39
67
9
5
-24
3
-26
-64
-11
-49
-70
14
-10
-7
-16
-2
68
-41
-6
0
-127
6
127
-55
53
-80
5
-39
19
-84
9
-86
-36
-91
-45
-30
61
60
-100
1
-109
-8
18
-40
-53
-10
-35
-1
-115
-2
-1
58
-1
29
54
0
-56
-10
-75
-16
-33
102
-4
-42
-49
-15
21
9
-127
-18
-70
24
92
5
-16
-49
-36
-96
-23
23
44
32
-26
-31
-8
15
-23
28
-3
-102
16
-91
-21
-18
-22
-49
-11
21
61
8
55
40
36
8
12
-16
48
-52
-26
127
49
-3
-47
94
127
22
32
0
14
-20
-51
45
-74
-25
58
55
48
-42
81
-30
-12
-48
-53
-40
4
-87
7
88
-11
-33
-9
-65
-1
39
1
-112
-24
-31
30
16
-12
-3
24
55
-20
-59
20
63
4
-25
-73
-39
-127
2
1
38
23
-41
-94
-18
-22
6
-6
2
-10
49
-54
45
-47
-40
5
-52
-17
-11
-72
26
-14
-66
-100
-8
-98
-15
67
-127
4
-68
71
-33
-1
23
102
8
27
-17
3
7
37
-41
39
53
-4
41
-40
8
-32
17
-14
-15
-71
-9
26
17
-33
-32
-26
-15
70
-75
45
-35
-34
-47
-25
10
12
-29
-23
18
22
30
50
50
-34
-69
-8
19
-81
-16
49
70
-43
-40
13
-17
41
39
-58
22
-21
-95
28
28
-16
-5
-31
-12
-61
-18
111
-72
-8
-39
-18
5
104
-70
-98
-25
-69
-70
127
-41
16
-25
-83
-1
14
19
-19
19
-11
-32
-85
-41
45
-21
24
46
-65
-47
67
-73
28
11
35
63
-58
-4
35
-82
11
58
-20
-69
-51
-119
-19
33
-53
-34
107
27
1
-13
-71
-35
26
50
-59
3
-17
-55
16
-59
15
-76
-45
24
0
-31
-39
-2
-124
14
-43
114
25
-59
83
-1
24
-46
34
-66
37
-58
52
-123
48
-55
-51
32
-46
-25
41
-88
-41
-49
88
25
-22
-40
-49
-19
32
-96
-16
-22
24
1
21
-42
-58
27
18
38
5
5
-28
-30
-42
50
18
-57
28
-55
-2
-14
42
44
19
-64
9
56
18
-10
-25
-4
-38
-37
-35
-26
45
52
27
2
-48
-50
-24
-31
-9
17
44
21
-38
36
92
-126
67
-117
-73
18
12
20
-43
-58
-21
-38
29
25
39
-45
36
21
2
-65
38
-4
3
-122
-73
-7
40
-10
-11
-39
-54
-21
-127
90
33
3
-21
-22
-33
-10
22
54
-81
15
-34
47
-70
-10
-11
22
11
-25
80
32
24
33
-23
-15
1
-29
-1
-5
-27
-2
-124
-66
10
22
9
121
4
33
-36
27
13
-1
121
-99
3
0
34
-24
22
-12
-81
42
37
39
-70
-8
-8
-13
103
-37
-22
90
-71
-74
-41
-48
-70
79
20
34
-47
-65
-1
-52
-66
2
18
28
42
-23
-49
0
-16
-42
4
-24
-91
-18
-2
-14
7
-18
-44
43
-47
-64
-22
-85
-84
-59
52
17
48
-71
-40
4
-69
20
-9
-5
-17
-3
-24
-127
-9
11
24
39
-8
-29
5
-9
-18
-46
27
22
-103
-85
48
-4
38
6
-56
19
-30
12
28
-34
-18
-1
-36
-32
3
39
-50
-5
1
-4
-32
73
75
10
-59
9
6
-29
-8
14
-26
-79
-41
25
77
88
-14
-25
26
46
9
-49
-3
15
19
42
61
36
21
-24
-62
-89
-42
34
-11
51
-29
-3
-12
-4
-2
-53
20
81
43
-27
115
-43
-58
13
76
-44
-24
-30
78
3
53
-31
45
-95
9
87
8
-7
-44
36
-46
4
-20
38
-53
48
-97
-4
9
30
-30
-19
31
23
18
5
8
29
-3
11
-32
45
27
-35
25
5
6
69
-9
-39
-76
5
3
28
-51
-33
60
126
31
-24
-2
-11
-20
-43
-4
10
19
32
-32
53
29
10
5
-11
-7
-44
-15
21
-3
-61
-18
26
23
9
-43
70
44
54
-27
-5
36
27
-14
-37
2
-84
76
67
4
77
68
11
32
-67
34
-43
-39
-51
67
-38
-41
-31
-46
-4
-32
-29
51
127
-88
-99
0
-26
56
54
90
120
-59
-84
38
-75
-85
-17
-51
21
-46
47
18
125
-32
-107
-23
-107
-45
-127
30
5
112
-96
26
-23
50
-72
-48
-6
-14
19
-66
-39
-19
52
-8
56
15
-57
94
-56
43
-9
12
24
-45
-78
48
-37
11
60
65
-34
-1
-3
-63
21
-46
16
32
-74
45
-33
48
24
-64
-54
32
20
-80
37
5
-127
-23
-11
-6
-17
17
-20
-49
-17
-121
-3
-95
32
56
99
-104
38
-91
-22
-5
-35
-42
-44
46
-52
-53
-62
7
16
72
86
-75
25
64
127
9
47
-32
-3
-4
41
75
-11
-21
68
67
21
-19
-29
22
58
54
-46
-34
98
-48
-52
-19
68
89
-10
-17
-13
71
-47
4
34
-24
2
47
-43
22
-27
61
-12
23
127
0
-88
-27
18
-80
1
20
-11
4
-127
-31
1
-61
63
-125
127
-45
-22
41
-9
-103
-30
-127
-10
88
38
14
-82
-7
-57
-37
0
-60
-6
1
-13
3
-70
-48
-31
28
-68
-117
49
53
72
-72
-65
-7
39
71
84
4
-20
1
-114
12
40
27
-56
108
-17
-26
-6
-39
27
74
-7
36
0
11
-37
-68
-64
-23
27
1
-66
-26
18
-38
-3
-3
7
52
127
-55
-15
-55
-36
-46
44
11
23
60
-23
-14
-1
90
-91
-15
34
20
-66
-17
17
71
-20
28
20
-12
3
-51
61
-107
7
-77
11
-56
-44
-36
-28
-27
-22
3
-3
-52
52
48
97
11
-26
-17
77
12
-89
54
39
33
-22
39
41
-28
4
44
-49
-3
-113
-21
4
5
17
7
-38
-25
40
-27
13
5
15
-19
-65
-43
-75
-38
81
-58
-104
-118
23
76
-16
-35
19
-25
2
-38
-4
-123
-30
17
-49
24
-15
-45
-12
9
112
69
-10
43
58
12
-45
-29
20
8
47
-19
-76
-11
-106
-84
102
4
69
-65
-24
1
-19
16
-96
-94
-59
-127
81
18
61
8
127
-38
11
126
13
92
22
-3
-63
-17
-127
87
102
43
-6
-58
-62
127
-49
-49
35
-46
71
53
29
4
10
-97
-43
-15
-42
-63
-3
-127
-19
7
67
11
8
-127
10
80
-45
2
-117
-5
-127
-46
57
16
-25
19
-61
27
-38
-5
68
24
-12
-23
19
-57
75
55
-50
-103
36
-58
28
82
-127
-1
-116
64
-14
71
13
-30
24
-20
-17
5
0
44
12
-61
-18
-43
18
-77
-6
-60
69
-5
-125
22
-28
15
-31
36
22
-36
97
-6
22
-46
127
-14
-3
1
-20
-52
-15
-16
-2
4
-16
-25
-29
18
-26
-121
-10
-62
59
-40
-50
-57
33
4
-58
-44
-86
1
35
-39
-92
81
-26
33
-33
2
38
-26
-17
103
120
10
-36
33
-58
42
-10
-38
27
53
-23
40
38
57
124
-48
-19
-41
83
3
-30
-127
-41
20
-35
-62
-127
-40
0
-9
77
-44
-65
91
29
23
-17
-5
-16
-127
-44
-37
-28
0
-37
-26
-71
27
30
-78
-62
-44
-43
-72
-48
82
22
-21
-17
-13
-47
47
-37
46
47
93
-25
-44
23
38
85
65
3
13
11
-69
62
-41
-13
-99
-12
60
-51
-30
-84
-8
40
-24
-30
72
-48
115
-16
-28
-91
-58
-11
10
-25
-9
18
-31
-28
29
-56
-2
-67
55
-48
8
49
-11
-127
23
-81
21
-14
93
-11
74
-45
-11
-28
-41
45
11
13
-34
-39
12
-33
47
-36
-4
-43
-26
-5
0
-18
-125
-58
1
-52
11
2
-8
45
-54
-44
-2
-60
-37
48
0
-72
38
4
-77
33
65
-83
-57
-46
43
68
-46
21
-82
-35
-13
78
-16
-107
10
-127
18
-115
-3
94
91
-7
-72
49
51
90
-41
-100
-74
27
21
-12
-44
-20
-16
-57
43
-2
-10
31
-22
21
8
-52
-42
-80
47
-65
33
66
-9
4
85
40
-4
56
71
-11
-10
7
12
59
44
-12
0
-31
7
50
97
17
13
3
-16
-7
-52
-95
-11
-45
-13
-6
-37
-4
-39
28
-19
82
-1
-8
-74
-53
-56
64
11
-17
27
-29
19
75
1
12
83
-1
-53
-127
-26
-15
-12
30
-6
-2
-4
127
6
-29
-57
-115
35
18
-17
-17
-2
37
5
-8
-13
-30
-6
-24
-7
-37
-9
8
32
-43
-21
-45
-49
-3
-18
-22
127
20
-32
37
-2
-78
17
-37
-12
28
29
-12
2
-12
69
-14
-58
28
63
-27
-66
33
-62
71
6
26
15
56
1
-61
-5
-85
7
-6
-3
41
13
7
29
-41
-127
5
-19
-37
-11
-63
-25
50
45
-19
32
-117
-28
12
-69
19
-25
29
-9
-41
24
-38
25
-57
54
44
-33
127
-24
4
-42
8
26
20
-24
5
113
-43
49
-29
33
11
-20
-73
-21
-38
-48
12
-7
52
1
-3
8
71
-10
9
45
-120
-17
65
-13
15
87
57
44
-4
-31
-38
10
4
-8
-51
3
7
45
-19
17
10
22
3
12
43
-33
-47
-127
43
-89
-127
5
10
-8
34
-25
-17
127
2
-15
-69
-71
-1
-64
-54
100
-39
-26
-15
35
0
-7
0
102
-49
12
47
-79
-22
-4
21
5
112
65
-24
-36
-78
-3
32
36
35
-38
-23
-57
-55
40
30
-30
-66
-2
-2
-15
-53
0
73
-45
27
72
-19
40
10
24
-22
-50
-47
103
-20
-43
56
-127
-51
7
-55
-18
-3
-94
62
0
20
1
-110
38
-42
-59
-2
19
15
15
37
-1
89
-68
7
-22
50
-52
27
35
-32
75
6
67
-11
10
-9
-49
-26
-20
-64
-28
-18
0
-57
-43
-2
28
-56
-6
36
16
-30
0
-20
-17
-18
18
-6
-101
-22
-7
35
-1
-43
56
-30
22
-8
-46
77
-5
42
107
0
7
4
-67
-1
-33
-64
5
-22
-24
-54
-22
-49
36
64
1
-87
-15
-51
-56
-36
-29
65
-127
35
-24
49
9
37
40
9
8
-10
5
27
-32
127
-19
50
-80
-8
-42
22
4
-59
74
27
25
7
-62
-7
26
-43
9
-28
-41
-16
-50
38
5
17
-32
30
-20
-15
-39
-9
-21
-16
-1
-82
-7
-21
-15
-59
-92
-43
11
-16
-9
-40
8
-4
-20
61
-8
-8
-10
29
0
51
57
53
50
-31
35
-9
-40
6
-5
-42
-25
17
87
-44
32
-84
-29
-4
-16
-6
-25
24
22
-60
-19
55
-22
97
1
29
85
-35
-75
-6
-36
-15
0
-12
8
-9
38
-34
-48
24
4
-115
-61
74
127
-79
51
-45
-68
-24
2
-2
-50
-98
69
40
-117
-68
49
39
25
-25
47
40
50
-18
31
-49
-112
-15
92
-102
27
-4
-23
-16
6
-34
26
51
-25
20
-85
-40
23
91
-7
56
54
-18
-44
-81
60
25
-9
1
17
3
75
15
-108
45
15
-59
-67
-2
35
24
6
-53
29
-98
9
-6
-37
-36
31
-10
-12
67
-16
-17
-30
44
-40
40
7
-63
-1
63
30
-90
82
14
-43
-3
-2
-5
45
-10
-21
-9
77
30
6
-19
23
-5
55
-56
-92
55
33
39
-14
-50
36
-13
14
36
60
-71
5
11
34
-55
-127
-101
-2
-33
10
-99
-75
-39
-103
-97
-9
-60
127
14
26
25
-64
107
-115
-65
15
21
47
22
-80
-48
-3
17
44
46
-40
-33
26
127
-28
-41
-57
31
-14
-51
1
6
-43
-30
-12
-15
59
-77
18
-127
87
-42
-29
127
-26
27
0
-22
-12
45
-5
-38
86
-21
20
-75
18
1
-31
-27
68
-35
25
29
-8
-41
40
103
15
2
-66
-127
-51
-127
-23
30
82
-24
-52
60
-49
-23
127
-13
-55
-37
77
-6
-17
-49
6
87
-73
-29
-123
-52
-80
-50
-127
-4
-127
-26
-55
41
-21
-127
-16
1
-17
-65
-88
-76
-45
24
18
-41
6
9
51
47
21
4
105
53
52
-77
-7
-29
-118
-7
-2
-103
27
-28
-62
-127
-12
1
23
57
5
-7
21
41
33
30
-15
-67
-40
9
59
11
-79
18
-51
29
-73
-127
14
19
-14
-37
0
-77
-89
4
4
-15
34
-63
-9
20
-24
-35
-9
16
61
30
5
-24
32
-37
19
-6
-41
71
-47
24
17
-20
36
58
-3
50
12
52
78
-68
9
53
-20
93
-99
-26
-30
10
12
-127
45
3
-30
89
41
-65
-37
-9
-6
79
19
-63
-92
0
-127
-127
-46
29
20
-87
28
-65
-50
-31
-41
-127
31
46
1
-127
-18
-23
-24
-31
26
-46
-26
62
41
65
-35
-25
-97
8
-11
30
-58
-10
17
-90
39
-13
5
88
18
-25
88
25
97
13
1
-1
49
-43
-49
32
-25
9
21
53
-82
-32
14
3
-77
-5
-28
-28
-19
-13
-35
-58
43
-38
-106
-3
25
42
-54
-34
21
57
31
44
-67
-91
25
-86
-62
56
-92
-10
33
-19
10
-61
-33
11
-94
-25
16
-5
71
-25
-46
-61
-23
36
-9
-6
-57
-37
-61
36
-35
-20
-49
8
-11
-43
32
-50
-2
-1
-5
-47
-127
-22
-60
-15
-127
-46
-36
-31
-118
-20
1
-31
3
-34
38
0
0
-9
-84
15
-17
127
-99
-48
-50
-46
47
-16
-19
-26
95
-38
-11
15
-22
-37
61
-48
71
16
4
-19
-21
-12
127
13
-21
-15
-66
-67
25
25
35
55
53
-127
42
55
-116
-31
-8
70
42
-11
-9
-9
1
-91
36
5
-127
65
12
-43
35
-5
-61
-13
27
23
-7
12
2
66
14
14
-106
-8
-127
6
-65
-11
89
-20
-53
53
-109
-127
-53
18
-127
-32
-19
-46
72
-127
-10
-41
30
-127
-13
-45
106
-22
21
52
127
5
14
46
-49
31
127
-75
-67
22
-30
20
-27
-127
-61
5
19
44
-127
7
-63
-5
-54
-14
-68
-10
-17
97
-67
-127
-45
22
-26
86
24
-51
-58
-32
-14
-27
3
125
30
-50
0
-11
7
11
6
-33
1
54
127
21
58
-84
48
-76
20
8
56
-28
4
21
-119
-15
-121
80
-67
-54
14
-74
0
-36
-6
65
23
-88
-23
-46
33
60
-6
-51
81
-43
10
127
-68
-28
-83
27
-36
-37
-39
-42
34
-61
-37
6
4
62
-4
-88
55
35
-77
-37
16
13
114
26
0
-34
-64
-7
57
1
-4
-3
-77
32
-48
19
127
-16
-3
-88
21
-2
-71
-18
-40
-96
-73
-72
-47
63
2
-68
-77
127
24
-127
64
17
10
27
-127
44
-25
-127
119
-104
-11
24
-46
7
34
-4
21
-32
12
66
-75
-64
29
-15
51
-38
26
-3
-51
-65
-25
-33
-85
9
7
84
-49
11
-27
-23
-55
-127
-7
-64
-6
-24
2
22
-30
30
-44
-14
63
53
27
-60
8
-11
-109
88
13
69
-21
-5
-57
30
34
45
-36
-15
25
7
-53
-90
-82
44
-4
24
-4
30
65
26
-127
-9
57
-46
-47
-64
12
1
-28
-15
51
-99
-4
32
-33
-41
-54
-14
-76
-6
6
22
57
-67
-1
-28
45
28
71
5
30
18
-92
16
-26
-5
-51
-17
-76
-55
-101
8
-103
-89
-41
-76
-71
-76
19
-7
-52
-18
6
-5
-58
-9
-69
-54
-53
-45
-82
-9
-127
-7
-17
7
-10
30
17
-51
43
-126
52
35
-54
19
48
13
31
11
-37
-3
50
-11
-8
41
-8
-6
4
-23
-32
-39
-45
-37
102
53
-67
-66
0
38
1
7
-36
-8
15
-20
94
-44
26
-29
-43
16
0
15
25
-12
-17
-70
39
-25
-17
-8
1
-3
-14
-68
23
-27
-85
-46
-16
118
-2
34
-18
14
116
2
-26
-14
-37
31
-13
5
47
-35
-78
-17
13
-7
-68
-16
1
-38
-42
-44
23
-3
-21
33
-24
-64
-91
-29
-81
-23
-16
-24
-4
-46
-8
-44
-20
8
-46
-46
-46
-17
11
26
-27
-25
27
1
-31
-9
-26
-40
-7
-34
9
7
-36
-15
-23
15
-22
-1
-32
-108
23
-12
-31
-4
-28
-93
-45
-16
-77
-13
3
-18
-125
-37
-26
-105
-32
31
17
-12
45
-56
-25
-44
-38
-37
5
24
-35
6
-97
-23
5
-47
111
-15
1
-17
13
86
-31
-73
55
-20
-1
70
-8
24
-39
-17
27
-23
-70
-40
7
62
-27
-22
-13
5
-43
-38
-8
-24
-64
-37
-63
-16
-43
-1
3
-36
11
6
-13
-23
-42
-22
-25
-11
-39
-57
-28
-27
-7
-59
-35
-84
-15
-51
-3
19
-16
20
-27
-7
-30
15
-21
-42
-4
3
-102
83
16
11
-16
-62
101
15
17
21
-119
-34
17
-51
-9
-60
-49
-58
-12
-43
-49
-53
-61
63
-80
-47
96
18
-55
-97
-71
16
-113
21
-17
-20
-45
-37
-46
18
-65
-1
37
-14
9
-29
-8
-33
-54
10
-72
-24
-19
-40
-3
13
17
-44
3
-63
-34
-17
4
47
-53
57
-60
-127
25
-7
-42
-86
13
7
-34
-96
-13
-98
2
-25
-39
-36
-17
-98
-35
18
-7
31
4
-126
-30
-4
1
-127
127
-4
-14
34
-30
65
-15
-41
-76
23
-48
-34
60
-14
-42
8
31
-71
-40
5
3
-50
-78
85
34
17
-18
33
-40
-19
50
-5
-2
-40
-31
-11
0
-50
9
-24
53
-57
-26
-43
30
9
-13
-34
-93
-115
8
123
-50
-12
14
12
-39
-12
-38
0
-32
-24
-27
-80
-53
-3
5
39
-104
-31
-33
27
6
71
15
-36
-31
-78
-15
1
17
7
-60
35
-38
-127
-64
-40
36
-50
-31
26
54
13
23
17
-49
-21
7
-7
-59
-84
28
-42
18
-34
3
-7
-33
-8
-52
-37
-5
-33
-57
-28
-49
-43
-48
-21
-32
-80
-77
-39
14
2
-7
16
-127
53
-38
-24
4
-22
-57
-38
-17
21
-77
38
-21
53
-17
-38
-81
-20
-65
8
-100
-3
30
-21
43
-5
-65
79
-15
-63
-40
-10
5
-36
-24
13
-43
-13
-40
-27
-29
0
-26
30
-2
-7
-46
-72
-6
-53
-55
-51
-3
-106
-35
-45
127
-19
-8
-23
-49
1
-44
36
-11
13
4
-4
-8
73
29
-37
-18
-28
35
-82
127
49
-9
-53
-27
-16
-28
-16
-118
5
54
0
53
-38
19
13
-34
-23
58
19
17
-8
-6
31
-10
-15
15
41
-14
-27
47
-28
-29
27
50
-48
-76
-30
-23
44
-22
4
16
-84
-120
24
54
24
-5
-24
117
-122
12
4
-45
-30
-28
-68
73
-50
11
-11
6
-32
26
-101
-47
-55
27
-90
36
-43
-37
-14
39
-82
83
48
-11
75
10
16
71
-14
-38
13
-12
18
-51
24
-37
-12
-1
18
-39
36
-27
19
60
-20
72
-37
-34
-26
16
29
-44
-43
19
127
33
-17
-32
-47
-44
-11
-8
31
-23
3
4
-32
19
33
-43
-2
-51
38
20
-33
-109
16
-34
-31
3
6
6
-23
27
-32
-116
13
-11
-18
21
-54
-73
-38
3
13
36
-117
-36
25
48
23
-47
38
-19
-11
-61
-20
7
2
38
65
-30
-55
-6
-6
10
1
18
-16
-16
23
-6
-25
17
12
46
30
71
-4
31
-5
-17
-31
-4
31
-79
19
-5
-18
-35
-1
13
3
23
-28
25
-69
-13
9
3
-43
61
-61
2
21
-12
47
-64
34
-61
-72
2
6
-4
-12
16
-21
21
19
0
14
-13
-85
-59
12
-78
-86
4
-62
-28
6
0
-30
36
34
-40
10
56
13
17
11
16
20
5
20
-11
47
5
-15
-24
-44
6
10
49
-70
24
11
32
30
59
0
98
4
-25
-68
10
-1
-51
12
14
-14
97
17
41
-16
-13
7
41
5
-45
-5
-9
-17
17
-23
-5
-46
30
16
13
-10
-7
116
-57
-18
-73
-1
-6
5
-10
0
37
24
-2
18
6
53
-3
27
-11
0
-66
-39
-24
-53
25
1
-15
18
77
39
-127
127
15
0
6
53
2
3
9
0
43
-83
-23
16
16
0
-25
-31
-28
-48
-30
24
-8
23
-53
-34
24
74
15
16
-9
7
65
25
30
16
-37
-44
-51
-31
13
16
-29
18
33
-34
-17
-23
8
42
-76
-13
4
5
-38
-20
-26
-39
46
9
73
-46
10
-7
-77
-15
-19
-31
-12
44
2
-46
2
-58
-83
80
20
-127
-6
-37
26
-69
-13
-26
-80
-127
-73
65
5
63
-27
60
99
35
-14
-6
-36
9
28
21
-41
-33
57
67
-80
-44
37
47
55
-18
18
-117
-127
-11
51
-8
-18
-19
-10
37
-7
6
-11
-75
-119
-62
-10
5
7
12
-43
16
109
-17
114
-43
-65
-70
-24
11
58
-8
-25
24
4
52
10
37
1
-11
7
4
-127
9
-37
66
0
22
-88
39
22
-56
58
-50
13
-14
-105
-70
0
-67
-42
-37
61
10
-9
-63
-4
-34
-96
-10
-29
-11
-25
10
54
-89
27
32
-73
-48
-23
68
-6
24
35
-13
-117
50
-16
77
-14
32
51
-7
32
12
-61
-13
31
-118
-28
3
-17
-19
-68
111
-56
-17
-7
68
65
-39
-13
-26
-37
10
-87
-23
66
-8
58
31
16
-69
-15
-1
14
53
3
-6
17
-33
54
-89
-41
11
45
-90
-3
14
28
23
-53
-32
-17
-75
-11
-31
-56
-31
30
-3
-24
-33
40
-41
9
-34
3
77
-26
-21
-17
-47
25
-11
-6
-48
9
-7
26
-21
23
-64
-32
6
-5
-38
-3
-106
-33
-16
4
50
4
59
-115
-1
13
62
-11
66
12
17
6
24
11
25
-9
-16
-7
1
-4
82
34
16
19
39
-24
24
-8
-67
6
46
22
-44
91
-79
-6
-35
9
-15
-17
-21
-3
-18
-6
90
-87
69
21
8
8
-14
30
-49
22
15
-40
-70
3
20
-21
24
-70
-39
15
6
27
-27
-52
127
2
61
-6
-95
127
68
-12
127
28
100
57
3
73
-19
4
-80
33
-60
-22
82
127
-127
-88
50
101
62
56
-88
-78
-91
127
-60
1
-127
6
22
17
-105
-10
-79
-36
114
-72
62
-2
94
-127
-74
-57
-57
-100
-49
45
113
104
-123
-55
-46
36
-116
-96
-127
127
-55
-20
-1
-49
-13
5
36
-2
-73
60
-43
-26
76
0
127
-46
3
90
5
59
119
-22
-72
-57
-36
12
1
-65
-21
35
23
41
-20
1
20
-69
108
127
35
35
-127
-39
-104
-22
41
127
-67
-5
17
-24
23
-70
-70
-77
-30
16
-9
70
-19
-116
-116
2
40
-66
17
127
-108
-51
-29
-43
1
127
-18
-127
41
-81
82
-24
-7
-26
3
-37
-85
72
-53
15
-25
-30
-93
-37
18
14
-3
-33
-75
-56
44
-22
-127
73
3
65
-12
-42
43
-2
-23
-87
62
-85
60
-65
-70
85
-17
-41
122
0
-10
74
-86
127
-45
99
13
-56
-74
-21
-110
82
-4
115
44
82
-21
24
-9
-73
127
-127
16
107
47
23
-5
-72
-62
-55
11
-108
22
10
-17
59
-7
-84
48
-9
7
20
-17
-30
24
16
29
-20
-88
29
22
94
48
28
-12
-62
-101
-38
109
7
-54
-49
-83
-36
-127
33
-47
101
-7
-53
-19
-37
-38
-114
-40
-5
58
18
-127
-28
-35
-104
36
-10
26
67
74
25
-1
15
107
21
-5
-26
12
127
-3
-102
-27
25
74
102
37
-43
-33
-25
1
127
70
17
-11
-5
-42
41
-49
-63
30
-85
81
-1
58
46
12
11
-14
-43
14
33
-127
-12
87
58
26
23
100
-127
32
87
-33
98
17
-21
127
-58
102
50
-48
-127
-86
-7
-47
-127
-33
-48
-41
24
84
37
4
13
-127
25
13
-32
-80
70
-74
127
6
60
127
-21
-36
97
25
1
-13
-43
-6
-58
5
-42
-50
-109
-52
-57
67
-18
45
30
99
-67
-11
-127
-36
-110
46
96
-98
65
34
53
47
-40
22
-20
-55
-104
59
-17
-55
-35
37
-38
53
-92
37
21
76
-33
39
10
32
68
18
-18
-19
-60
46
-65
-85
127
75
17
-34
-74
44
33
-70
116
-77
-6
121
-107
17
-15
127
-13
-74
-12
-89
20
3
-115
69
-124
127
-75
-13
-102
-52
-26
-127
-118
-77
-5
61
-38
-28
-66
117
7
59
10
51
-54
127
24
2
41
127
51
93
-5
-24
42
-2
-127
12
86
-99
-20
-109
-10
21
-68
-82
-92
94
8
-51
46
-36
16
19
-89
-66
-127
-62
9
-13
39
108
4
-113
54
-33
-89
-19
-45
-53
-16
71
71
127
-5
58
-17
-94
13
24
-96
-127
-1
14
-36
79
-15
1
2
21
8
-9
-32
-3
2
13
55
74
-20
-42
-21
-127
63
3
-107
-104
-14
-75
63
-5
-18
5
15
-32
17
49
12
43
0
-14
47
-43
8
12
23
63
37
-9
9
92
-93
43
-43
80
-23
-40
22
70
-11
-62
-61
-65
-51
20
29
8
0
-36
39
28
15
-73
104
-30
-45
-81
-32
-26
-57
-127
-14
-91
-14
-62
-49
-31
-110
25
-42
-5
50
-113
-64
-127
-3
-1
11
-109
12
-5
-15
23
-10
127
-40
33
114
-23
114
-31
61
-43
-21
-16
7
-30
19
-17
-119
-124
-32
56
-127
-4
47
-68
117
-19
-93
-45
-22
-55
92
7
-25
31
-24
47
-12
52
81
-47
127
-127
-1
74
94
-60
-20
-32
27
28
89
127
-66
-27
-65
3
63
-19
-7
-37
44
-59
-19
1
-25
27
2
-74
27
-33
-12
-16
-1
-31
12
-25
-13
-75
33
5
-13
-36
-9
25
-106
95
16
-47
-56
-28
39
-50
-32
68
43
-91
15
14
100
55
-7
-66
-14
5
-5
-25
-5
-81
49
40
-4
84
-85
-13
28
12
-37
127
-34
-99
-61
127
40
108
-92
15
17
-127
52
5
-57
79
-52
-24
21
-20
83
-62
65
-46
0
-121
-32
-9
127
21
-19
42
-62
22
-32
23
-20
42
-14
25
-66
-28
-39
21
28
65
-107
-51
-32
-26
-91
-57
-37
-19
12
-38
-36
15
54
8
-69
48
67
-64
-13
-22
109
-58
-29
1
27
-97
-1
78
-21
24
101
-40
61
35
-54
85
-67
19
12
3
-2
21
80
-35
59
119
-30
49
-91
22
37
-14
-44
-35
-51
-5
7
-3
-32
-26
8
-27
29
52
-2
-29
-27
-72
-7
-79
96
99
-101
-20
127
-63
29
44
-63
20
-31
-31
-82
-11
-1
13
18
-1
1
4
-84
29
-46
36
19
-22
91
24
1
-29
53
-56
54
-10
-3
27
-46
-51
5
-14
11
52
-17
-127
-117
-116
-43
42
-2
26
3
-95
31
69
-9
-69
12
-76
-127
38
-27
-42
15
23
-36
-127
-37
-78
-35
-59
7
39
41
15
-45
-8
-27
32
20
127
61
108
-2
1
19
-67
84
5
-23
18
11
-96
-20
6
103
-4
56
-23
11
-11
15
1
60
-5
74
-94
-48
31
-96
71
-41
-45
54
55
-26
26
13
6
-63
31
-7
-60
-2
-59
55
-92
-10
106
3
0
-23
30
-44
-22
-16
127
-43
-37
-22
-31
-14
-82
77
55
-18
-77
16
-11
-29
-18
12
-27
-30
31
15
-1
-16
36
-123
83
-46
-34
58
-54
10
127
-53
16
-12
-45
-48
-116
-48
17
-80
-96
56
-7
39
-85
59
56
33
-19
122
5
24
-100
44
23
93
-27
26
-9
-9
52
24
-79
-43
53
-42
28
-94
-3
-18
57
-35
-35
-44
29
-25
73
-4
-39
-45
-37
1
-113
-53
-23
-41
1
28
46
-55
-67
-27
-53
50
8
23
-25
14
4
-75
-47
-81
-85
-62
-50
-36
-39
-52
-89
16
26
36
-22
37
-56
77
-49
19
-16
-29
10
-7
12
-41
0
84
-66
-61
52
-26
-15
-31
-81
-127
-49
46
38
-35
-59
-43
-126
-57
-29
30
-58
-30
-34
-5
-83
45
56
18
-36
-37
-23
8
-9
-118
8
-22
106
9
-38
11
44
19
3
64
94
-127
-70
-65
-26
33
0
48
-40
-13
-127
32
32
-4
-30
-21
-44
-27
63
48
30
-56
71
9
-16
9
97
0
-6
-6
55
8
46
1
29
-47
-24
-48
-40
-14
7
24
-5
31
-32
35
18
92
43
36
-40
-47
-69
-11
41
-106
75
-60
-46
53
23
84
-9
-90
18
-13
-40
106
19
127
-22
56
-127
-23
5
-98
79
-20
-4
54
-19
-27
-73
-7
-5
51
-24
36
-26
30
37
11
-67
-30
89
-1
-30
24
-12
-20
37
6
24
40
72
-3
74
28
-32
-97
-10
-127
5
-50
-40
29
42
-86
51
-25
8
14
-66
20
53
-109
8
-52
11
-61
7
41
-37
-23
17
46
4
-48
100
76
127
31
7
-61
108
38
42
-32
-110
51
-25
41
18
53
-56
-46
60
20
-127
53
9
-84
7
0
60
12
-34
-42
14
42
48
86
-78
0
23
35
40
-36
-66
94
30
-20
-96
10
4
-41
-12
-10
-73
80
-16
-127
-3
16
-41
31
-11
-66
-54
-16
-23
100
-17
-30
44
-8
3
-54
-39
-49
-36
2
-39
24
23
-4
-62
2
97
-2
-29
-22
-1
-79
-41
-18
-38
54
91
-45
-124
-55
-43
26
72
62
37
-41
-9
-12
-127
14
-18
-28
11
-82
-9
-10
17
-35
4
-44
-9
-40
-29
-13
-77
-39
49
9
-87
28
-14
6
-3
-31
15
127
48
25
4
-4
16
-27
60
-22
-20
-22
-30
-75
23
27
-87
-39
-27
-63
-80
22
7
-72
-42
-19
-7
-28
46
-36
-76
-127
24
16
-37
5
24
-41
-105
16
-44
-127
19
-89
25
-50
-23
-52
-46
1
-8
-29
17
-93
-54
-6
112
44
-32
8
7
-40
-22
21
-115
0
-30
-107
-66
-59
-19
-8
14
2
-82
18
-63
-90
33
-27
-23
23
27
7
-47
40
-55
-61
-14
-14
1
-98
-26
29
20
-127
-45
19
48
-6
-13
-30
-127
-21
-34
-6
-20
-8
-35
15
23
27
-11
61
-47
86
-127
8
-30
19
7
20
24
-26
-34
-47
-30
-31
-11
0
-7
36
19
121
-93
-76
-5
19
-12
-90
-55
-9
-41
17
39
1
-30
28
-106
27
32
53
-45
12
-55
-23
47
40
19
-39
-69
-34
29
-18
-18
-1
-68
14
-10
-93
20
-33
20
-40
-46
32
0
-38
-7
-41
16
-85
-91
-30
-23
29
-17
-36
-31
34
-67
-8
-21
4
0
-27
-7
-24
-82
38
5
-33
-37
-7
25
-26
6
6
28
-48
-86
4
-48
127
-44
-127
-3
-46
41
91
-1
-92
-32
18
92
-46
-63
-18
-74
40
51
-24
-26
-22
-34
45
-17
-66
-12
-53
10
-39
-12
-34
7
-76
-42
-16
-2
9
-34
-5
44
-49
11
-29
-39
-1
-78
-13
-14
-79
22
-75
31
-8
-59
-127
-27
8
0
-42
-6
-1
-54
23
-14
13
7
51
-53
84
-26
-45
-55
-41
-12
-80
-127
-17
71
45
21
-9
-12
35
46
127
18
-86
-97
-37
-19
6
2
-36
-46
-9
36
-48
12
-80
-18
-77
-31
-3
1
72
20
-34
-56
-12
-53
16
-17
2
-12
-45
12
-16
-21
30
-8
-8
-1
-105
-25
-16
-72
-92
-64
-9
104
-28
127
17
-99
84
-42
-12
0
-50
-11
-14
50
4
-13
-4
-98
1
30
12
-4
-9
-102
-123
4
13
-20
-50
-70
13
-49
-15
-78
-55
-50
-46
-25
-21
-98
-85
-25
-27
-3
-55
17
-3
-38
32
8
-21
-41
-60
100
26
-17
-44
55
-51
7
2
-1
-21
-45
5
-27
-48
61
-52
-97
-76
-19
59
92
-56
-47
-48
-25
-11
-58
127
-54
-1
-93
88
15
-20
-40
73
-12
-14
46
-11
-3
127
-8
-3
-15
-18
44
-102
-8
-16
65
37
-71
-29
-114
-88
-23
59
-6
-70
39
61
-17
-13
-105
-3
50
67
23
-105
-32
-35
82
-121
-47
46
-27
-70
27
16
35
-17
2
-21
0
-26
5
28
-22
-6
-60
43
-15
-20
-51
-3
-56
-15
-59
-42
-70
-44
-72
-18
30
-46
-46
-5
73
-20
-109
-41
65
5
-19
-26
53
22
-18
-26
-20
71
10
-51
-19
-11
-34
-58
114
20
-94
9
-19
-27
-42
-101
-38
21
15
3
-41
-43
-18
16
-80
-20
-5
63
-29
-18
59
-25
-17
2
8
-20
12
-38
-127
-23
-23
-18
67
50
-56
-85
-65
-11
-31
-21
-110
36
45
-32
-42
-20
-11
-58
-46
-19
3
-31
-71
-42
26
-49
10
-2
-98
-8
-12
-51
25
-50
-89
21
-17
-2
4
-22
-24
-28
11
-121
-127
-76
-79
0
10
-40
24
-51
-73
-18
-38
-16
73
-12
-13
-10
6
-59
-2
-70
-37
-10
-13
-22
-20
12
-47
-86
23
47
-57
-84
-22
-80
-52
10
43
-13
43
-28
24
11
-41
-27
-81
-27
-46
-39
24
27
-8
-18
-59
32
112
-23
-76
-62
33
-31
-14
-4
-5
43
-41
-18
-33
32
-66
-69
-53
-6
-24
-48
14
-36
20
-56
-41
-3
-70
-27
-38
-16
-68
-81
-127
-58
-77
20
-25
-29
-11
30
-6
-26
-75
6
-63
127
-98
-24
-72
-61
-35
-95
52
-37
52
72
65
4
-46
-90
-62
-26
13
-29
93
-23
-19
-96
-51
-19
-35
59
-10
-45
7
4
-71
-58
-8
40
-55
6
-16
-77
-122
52
-9
39
-91
-55
-25
43
-26
1
-109
-20
8
18
-56
69
-5
8
-37
-36
-35
71
-8
31
-24
14
-34
-105
-20
-64
25
19
-62
5
14
-23
-41
-11
5
3
33
-27
-9
1
32
9
-23
-53
-72
-51
-72
-57
-45
-37
54
17
66
-69
-20
-94
-78
-45
-70
-27
7
-7
36
55
10
-30
-21
-33
-21
1
12
-6
-57
63
-18
-40
-22
-12
-26
-28
-94
17
-64
-5
-52
4
8
-33
-124
-51
-10
26
65
-1
-27
-127
23
-11
13
-90
-120
4
-53
-92
-99
76
5
-26
27
-70
37
46
5
-14
-66
30
10
2
-51
9
-30
36
-14
-79
-48
21
-28
-17
46
-114
9
-41
-15
-66
8
-15
31
-52
-38
-14
-30
20
17
-37
-22
-56
-41
-75
-25
-44
34
48
5
-67
3
-22
-23
-38
-76
51
21
-64
4
-48
-44
-5
-43
-8
-9
-40
82
55
-104
-17
59
-32
-9
-50
-88
-94
50
15
-65
21
-26
-46
31
-16
-16
6
37
-32
59
-48
-60
-23
14
12
-120
-55
62
-40
-41
33
59
-8
-27
-69
-2
-4
-3
-21
-78
-81
-35
5
-69
-64
-18
-37
-15
22
-18
-23
17
47
-5
-15
-20
-52
-127
-19
-30
-34
-4
-13
-50
-12
-13
-127
-59
-26
1
-48
-63
60
-21
51
60
78
-74
-34
31
-38
-70
80
-38
-9
-64
-69
-63
27
-68
-6
-35
-85
61
-23
-41
22
44
-26
39
-23
-49
-127
-29
56
-100
-44
-66
-63
35
-98
-62
63
5
-9
-28
-50
-38
-39
0
-12
60
-17
-78
95
-65
-94
-31
-11
36
-76
21
-7
60
-127
-72
-122
-9
-46
-58
-11
34
-41
-37
99
17
5
-53
34
-74
-108
-71
6
44
-43
-9
-1
-20
-33
53
74
23
43
-28
-62
-50
-20
-37
21
15
-25
36
-1
83
64
59
-92
-27
10
6
1
-92
-6
67
-55
24
-127
-35
17
14
-43
-75
-60
-29
-114
-50
-46
-3
-39
-33
57
-42
-60
-35
-127
15
-8
-127
-47
-41
-16
-8
67
35
-30
97
-74
-127
-43
-78
-9
16
-64
30
-109
66
-127
22
-20
15
-47
-127
44
60
30
-41
124
96
-25
-26
-47
78
-61
15
34
-90
11
14
-64
-127
-77
-68
-61
-53
53
-85
-60
-59
28
-87
38
75
-23
-96
-7
-31
31
5
-49
-63
-60
16
28
-47
-35
-34
17
-31
-37
-12
-67
87
31
-37
59
-37
60
-80
-107
15
4
-3
6
-37
19
32
13
-29
8
-41
-25
6
14
-3
-9
-79
-26
-31
39
-8
-14
19
4
1
35
5
-17
98
111
28
-12
-30
45
12
-26
17
-69
-54
-36
-36
50
-16
-65
49
-71
16
24
91
28
-4
-42
-99
-37
75
37
-125
41
74
-28
5
108
-3
28
-79
-51
-113
-30
-14
-91
24
10
2
41
-38
-20
-21
19
9
-12
-65
-32
13
25
25
85
-27
-2
23
27
23
28
-86
-1
61
24
49
84
2
-2
-56
17
-92
39
46
-11
21
-52
34
0
-66
101
-62
-45
-16
-10
-71
71
37
-34
-38
17
-75
-14
27
-49
-17
-26
28
-29
-34
-20
-81
-36
0
33
-96
-66
4
-62
-48
8
-5
26
-42
16
47
57
24
-14
29
-2
-34
-31
-46
43
-23
-57
-52
-16
8
23
31
15
-89
-34
34
20
-3
-21
16
-26
-8
38
17
-9
-2
-28
-24
9
-98
95
-46
56
25
12
3
28
-2
-23
-6
17
-27
38
-76
-24
53
33
-127
82
29
-6
-19
-25
-69
18
-15
9
11
-12
-5
-1
-51
18
-35
-26
-58
12
-4
70
98
22
-41
31
26
-10
5
18
1
-17
0
22
4
44
-12
-27
12
-57
1
-4
8
17
29
74
26
61
-127
-41
-17
-32
31
3
-3
26
-13
33
2
6
-2
10
-23
36
-4
-57
-1
23
53
5
-27
41
15
-69
76
4
-10
-47
51
29
-9
-4
77
-15
-8
18
-5
-87
44
18
-15
-91
31
19
36
-36
-33
-50
-59
-18
-50
-23
27
-12
-11
29
-15
-5
40
7
17
-20
2
22
15
-38
-14
-17
-12
88
80
-16
-4
21
-28
26
-13
61
4
7
-55
-6
5
58
30
-81
-1
20
3
10
-32
8
74
-20
14
37
-127
17
36
63
43
48
-21
100
-31
68
44
-3
-51
-9
22
-8
-17
-1
16
12
-19
-18
20
-37
-13
-87
24
-53
21
-8
8
-18
13
-76
-2
64
-15
30
-12
-7
-25
-12
56
9
81
-19
54
73
19
24
36
-19
-23
14
-20
42
83
-6
-52
-29
-58
17
3
25
12
-45
-46
-14
36
-4
-3
-18
-52
33
-44
88
122
-103
-7
16
4
39
-102
-107
-25
74
22
16
102
-55
49
48
20
25
-12
-33
34
21
20
32
-8
9
127
-4
-54
2
43
14
28
-34
47
33
-73
-4
-16
56
14
-8
-5
26
-16
78
-2
-54
-30
-66
11
52
-10
38
-9
-5
-56
-70
-13
-66
39
50
13
3
-52
49
34
49
16
61
-20
13
56
-8
9
3
-18
-5
2
92
-41
-13
34
45
-13
-24
81
40
31
-24
-27
4
31
38
31
11
-19
-32
20
-20
-25
127
-49
-12
-17
-10
5
32
22
51
88
-24
-9
-16
-3
43
-49
-47
4
7
34
-25
-4
16
-21
47
77
-58
-28
-8
78
1
35
-51
-6
54
33
22
31
49
95
38
2
22
19
32
-34
75
33
0
104
24
-3
-7
-127
-15
3
5
20
-23
9
23
3
72
-20
-38
57
74
51
7
26
35
29
43
-44
-15
74
-6
-22
-15
-48
71
7
81
-11
-17
-52
82
-79
-72
-2
60
34
54
-13
-36
-64
-69
-35
10
-85
-3
37
-10
50
-43
-36
-2
-38
-37
-127
6
-28
22
-23
31
75
-7
-42
11
92
39
-22
29
-85
-16
59
32
-30
41
66
36
39
64
-3
7
-38
46
-18
-45
-13
-64
-52
-27
52
20
34
58
-6
40
-30
20
2
69
-8
32
-40
-98
28
11
-33
-11
-23
-12
-9
38
56
6
-10
9
-33
10
11
24
37
23
-16
-59
-12
45
-6
-18
2
-30
-26
-6
28
-49
-107
-31
-37
44
-85
-64
-31
44
-2
-7
127
32
106
16
20
56
-103
56
0
-7
45
51
47
5
-3
-87
49
15
27
-49
20
-20
-38
83
18
10
5
-103
17
2
-11
-11
0
44
91
-15
-50
-28
-11
7
-23
-7
-4
16
-42
-28
-27
20
-51
-30
-4
-120
-7
-1
100
-10
-14
-35
24
52
-39
12
71
-66
-82
-25
-54
27
5
31
13
-26
18
-21
87
-17
33
-8
23
-48
-27
50
-13
38
54
-19
33
87
-39
-9
1
55
-70
40
1
14
6
-5
-6
-29
-67
30
-7
-60
60
-24
-28
-42
-17
-14
-23
-40
-70
-48
32
-59
28
23
8
-127
-13
33
7
55
7
-26
-22
-11
-10
-14
-19
-38
5
3
3
43
-72
-1
-11
-17
45
-74
-31
17
44
46
-42
26
-49
11
-30
44
-45
27
-3
27
-49
-34
43
-4
-3
31
51
42
-4
-46
-16
-21
-8
-77
-38
53
-53
-78
-127
12
30
48
-16
6
-56
-18
2
-2
-30
-5
-56
-34
-6
-64
19
-114
16
-62
41
-82
-3
-58
99
-85
33
21
-82
8
13
12
113
3
28
-89
9
31
-66
-73
-27
-8
-26
-29
34
-110
-47
48
59
-27
-42
-40
-40
-47
25
-42
24
-100
-81
11
-9
20
33
-33
-9
-73
45
-21
-69
17
11
-19
-58
-9
-48
-92
15
17
127
-39
-5
12
-33
-32
-19
-13
-35
-64
32
37
-20
72
-11
6
75
52
23
39
-23
-17
-52
-28
54
23
-4
-58
-15
-5
-14
-12
-4
-57
12
-49
-4
-5
-30
-1
-13
47
-49
-23
-73
-75
-21
4
6
26
-54
32
2
-25
-86
-69
3
49
28
5
50
15
-16
-20
1
-52
-17
26
34
-40
-6
22
-41
23
-90
14
36
-22
42
25
-52
19
-46
-89
41
-61
-5
-19
-47
-74
45
-22
-20
-62
-30
15
-38
-41
4
6
-39
33
39
21
0
15
-43
-61
-42
-2
5
-57
-47
9
15
26
5
1
-30
-127
-63
16
33
-95
2
13
19
-51
-2
-90
21
-49
10
10
4
-55
-13
84
64
-127
-11
-72
-72
24
25
-66
5
-17
-41
-17
45
-29
-73
-47
-51
-9
-52
28
127
-28
-1
-8
-24
-26
10
-70
77
-47
-40
-7
-49
-36
9
-13
-66
50
-43
76
-20
24
28
3
-37
-43
-16
51
-5
-10
41
-17
15
-62
-29
22
113
-29
22
70
14
28
35
-16
-8
3
4
55
-127
-23
-19
-60
17
37
4
-36
18
-7
13
-52
-60
-5
13
26
127
-41
52
19
45
9
22
-45
21
-36
26
-10
56
-27
-13
-29
42
39
-72
33
-93
47
-69
-66
14
-16
-29
-83
68
-20
-4
13
-55
79
4
-15
6
-28
24
58
-84
-66
-63
115
3
-77
-62
-41
6
36
-3
92
-29
-2
-12
-39
21
92
1
-23
-71
-3
-38
63
71
-36
-67
47
10
-21
-43
0
-6
-24
50
-12
29
-3
-99
-12
18
-19
-26
23
6
50
44
0
-38
-43
-54
-89
1
-1
-19
48
52
-59
35
-39
-17
-23
-2
-38
-16
-22
31
71
29
25
15
20
25
-80
-74
-53
21
66
-46
8
51
4
-58
2
-49
-50
-13
-13
6
-3
-109
17
80
-9
-27
23
-70
-42
-33
-88
-11
-101
51
60
-44
-55
-1
25
17
-35
17
-13
21
17
6
46
-26
15
-6
8
33
-79
26
-15
1
-127
72
19
16
-59
-23
14
-47
-107
12
-20
-69
-68
-39
-23
52
-127
79
12
21
55
-42
-11
-76
46
-53
30
-31
-17
-4
-33
-66
6
11
-15
19
-62
-6
-4
-73
54
-7
-50
-119
4
-110
4
-69
-15
10
-92
39
22
-70
-53
-4
-70
17
-19
16
-30
-57
24
50
24
-25
-2
99
44
15
15
-26
-28
87
11
-127
14
32
32
-3
-4
38
0
32
92
0
-110
-9
84
-15
-86
24
-56
0
-27
-45
5
-5
-72
-8
-108
63
-31
101
-62
-15
60
39
-86
-20
53
52
89
-30
-22
20
-21
-94
62
-11
-26
-63
26
-68
-51
-41
12
-90
19
-16
-87
-32
5
-58
-40
24
20
-7
24
-11
-24
-103
-54
-127
-37
-37
-67
-36
-4
23
-3
3
49
37
50
-17
51
91
33
7
0
23
-4
-28
-53
-21
-48
28
-25
-52
-67
45
37
125
-56
-11
-44
-66
127
-127
62
-47
-102
15
-127
-74
5
-79
-63
25
-56
65
17
-55
-7
-14
-15
124
3
0
17
23
-17
-57
-46
-91
-67
13
24
-44
34
39
34
44
23
-6
-62
83
16
-26
26
21
-115
-85
5
6
-13
-1
-32
51
-74
33
-37
-7
-24
-39
-19
73
-11
-2
-63
55
-77
-12
42
-101
54
-44
-12
-8
-9
0
-37
-67
22
-52
-63
-48
-80
-33
-25
-16
-88
-5
-115
10
-39
51
-12
4
-48
8
11
19
-10
-77
2
-59
2
44
25
-98
-68
-65
-49
-2
64
53
-27
-33
21
33
-46
25
17
44
-127
-93
15
-5
33
-49
127
-76
127
-95
50
-33
-66
-33
3
-112
-30
-74
21
63
9
-13
58
-71
-12
4
19
-41
-15
51
-27
-20
76
67
30
-25
-13
-44
62
58
-21
22
-28
-100
-127
0
-37
-5
-48
78
-16
55
60
-41
62
-21
22
7
-35
9
90
45
7
13
-17
0
0
33
-43
77
-40
23
-40
-13
42
15
-11
10
-108
-20
88
11
-7
5
35
21
15
-50
31
-6
-55
26
14
-33
-35
-58
-34
28
65
79
-69
-45
6
14
24
-1
-31
2
-67
-43
-24
-47
-4
-9
-70
-41
-20
-33
56
47
-60
3
27
36
-18
1
-14
9
50
13
-41
34
29
127
-5
-9
8
-32
-4
-72
24
-27
36
-49
55
-17
-3
14
-23
5
-20
62
-64
-28
-58
-67
-18
-2
-25
46
-27
-17
-40
-40
-1
36
-13
-23
-78
-20
10
56
25
-59
67
-20
-9
39
-4
36
-127
5
101
-29
-77
5
50
-23
-5
-9
59
-40
-24
1
-12
60
-48
67
113
-40
18
67
-35
13
-123
-11
-63
-71
-107
-30
-47
-15
25
1
49
-76
65
-60
61
126
24
-29
-52
-6
-51
25
-1
33
-7
30
-37
-57
47
-26
-75
-28
-21
4
-92
-48
-24
-97
-17
13
-96
46
3
23
-43
-23
-22
-67
53
-40
-25
34
-25
35
-31
-42
-125
6
-38
79
-41
15
14
63
-66
21
-46
-64
-45
59
-27
13
33
-10
-26
40
4
-5
-67
-20
-11
92
25
47
5
11
74
74
-38
-13
8
-26
52
-40
-36
-15
-38
-22
-7
34
-7
-46
-4
-44
82
-82
-18
-48
6
20
88
-35
-13
7
-35
-72
88
26
52
15
55
-9
25
-92
127
-101
-55
4
5
-97
-36
-34
-127
-69
-32
-125
-50
127
-34
127
69
-14
73
27
30
-39
45
-26
-115
-20
-127
-37
-51
-115
41
10
-28
-45
-38
26
-57
49
3
-86
28
-1
-27
-120
11
-4
18
25
59
9
12
0
-35
-8
7
29
45
-118
-26
14
-18
-3
-18
127
-77
-14
-30
25
-32
8
-75
107
89
-127
20
12
-87
-20
36
-60
-8
2
-91
112
-2
-2
-13
28
75
77
-48
13
-36
33
-9
18
-48
9
-11
15
-15
63
8
16
-50
10
34
52
-54
-55
19
-15
-13
-37
-127
0
11
-4
1
-45
61
-123
-36
-103
-85
-94
-118
28
-127
-34
47
-52
-75
30
0
-82
-90
-45
-62
5
-28
-87
-28
43
-43
31
68
-127
-64
112
-31
75
-123
25
-127
-92
-104
-51
20
4
-4
-127
-12
127
41
-14
-24
-123
-20
-94
-124
-79
66
-13
-2
-69
85
-80
-59
127
-32
-67
-35
117
-29
127
-10
44
-105
102
-105
75
-72
53
-117
-127
-90
-47
43
-13
-40
18
-9
2
39
-32
-25
-58
-57
19
-56
-81
-4
-38
-95
-30
-13
2
-99
22
-61
-31
-18
-51
-121
-50
71
-15
10
53
1
39
19
-47
-109
123
-14
-73
-3
61
-60
-28
46
-17
7
33
-29
-127
8
-18
-45
-8
8
-6
-40
-61
-18
-26
-21
-22
-6
-30
-75
-2
-89
44
-127
-59
-41
-17
36
-38
-3
13
-51
-52
99
-30
-107
-13
-75
-16
-9
16
-32
38
-106
-92
-1
-20
-33
12
-71
5
29
-60
12
-86
-104
-25
70
61
127
94
45
41
-50
-24
-96
-65
15
40
127
-54
127
-53
-112
60
-127
-47
43
80
-33
-85
-54
84
-77
-27
-63
70
-93
-32
-15
-4
69
-67
43
-3
-51
-61
-61
-83
12
-61
-106
-40
21
-31
-31
19
-1
13
10
-58
65
29
23
-35
8
-7
-127
60
-55
-77
-62
-111
3
40
127
-31
23
-105
-8
44
-15
-10
-63
81
-24
-18
-54
33
-9
-55
-42
-30
-23
36
-29
-71
-6
127
17
17
13
92
-127
-36
89
-77
-14
118
127
25
53
-39
70
-45
4
-6
19
-9
49
-14
-88
125
-24
-45
-20
-58
-127
-19
-97
55
-45
49
43
-45
-66
33
45
20
92
-127
-36
-18
-28
0
-68
-38
-52
61
-60
82
4
-76
3
-69
-127
-53
127
127
25
-127
24
34
73
23
-121
-113
-35
-80
85
-56
-127
-5
-127
-48
-71
-40
-40
-58
-44
-87
25
-87
5
-34
-16
-30
-52
-1
21
12
-20
-124
-25
-42
62
-51
-63
-96
42
9
39
19
99
-24
66
31
-66
26
21
34
-127
24
-127
36
2
-56
-73
-2
-89
-34
38
-3
-31
-33
69
-51
-45
20
-127
46
-58
34
18
-71
-45
-41
-119
-33
64
-45
-35
-33
-6
-127
-3
-38
-107
-26
-25
-15
54
3
50
-1
107
-118
-41
-127
-17
-61
33
33
79
1
-15
-41
-18
-82
-16
-69
-51
-21
-1
-60
-51
-11
21
80
105
-26
-104
-127
-26
-102
-28
101
-57
-24
11
-38
1
68
127
-39
-50
-36
-127
-32
-26
2
37
-24
-39
-29
3
27
31
-15
32
-27
-55
-31
-4
52
-3
26
-4
49
-58
-105
-52
-127
43
-61
-127
-76
-31
-21
-9
38
-23
-74
-9
59
-127
-12
-20
68
-31
-10
-37
-70
-23
34
64
-59
93
-95
-32
14
-38
10
-77
-59
-49
66
16
8
-33
63
-73
15
-20
-22
110
-113
3
-7
-36
-37
-4
-56
-3
-81
-65
-40
-46
-62
-13
-50
-16
7
16
-108
-127
3
-21
-127
-51
76
9
43
-116
75
-122
-127
51
127
-42
-22
-35
-6
39
-115
60
-127
-39
35
-24
-61
-116
-66
40
22
-52
29
28
125
72
-47
-72
-35
-78
-41
-127
4
-50
-40
-27
18
-38
-31
38
21
38
-44
-33
29
28
-68
26
-13
26
-127
127
-82
-36
-61
-65
-127
-124
-14
-83
10
127
-33
-31
25
-127
7
47
36
-32
-54
-53
107
32
-85
-13
-124
-95
-90
-20
-41
-14
-41
29
-90
-83
127
-21
12
-45
-19
3
-90
19
-76
-29
-26
61
29
-59
-15
-4
17
48
-6
-34
14
-30
-53
36
-23
-20
86
27
-8
-15
-58
9
-55
81
-50
-29
-55
52
47
-26
116
-2
-118
66
-35
45
25
-7
-44
-22
83
-28
-48
-1
-56
18
2
-39
17
29
-19
36
15
11
60
-14
-30
19
-17
5
-57
3
-69
-63
-4
-1
-42
-43
73
-100
27
15
-9
35
-82
-8
15
16
-57
123
-7
-4
29
1
-82
-2
62
-31
-31
-44
24
51
-8
-56
-48
-16
-19
29
-84
4
56
-14
-54
47
-58
-60
-68
58
10
51
19
-45
-15
120
39
-44
92
-3
5
-6
-28
-42
53
-80
-101
34
-15
12
-44
-63
1
37
3
-67
-58
-43
-9
1
-35
-1
-35
-82
-16
-16
-21
-127
23
-84
17
-38
-70
-70
-17
-25
-8
-17
-6
-26
-21
8
-8
-18
-32
-52
36
-50
3
-55
116
-107
27
-32
-4
-27
17
-55
-25
15
-43
87
-82
-90
-6
10
-37
22
38
-53
-21
-34
-83
1
45
-31
-3
-62
52
-27
9
-21
-60
23
-15
31
9
-68
57
-46
-39
-72
50
-14
-121
-47
51
25
-16
-53
-6
41
-21
104
-68
-127
-20
-16
-77
-56
-36
-42
-31
-20
-68
51
12
-127
35
-65
-59
28
-17
-9
91
-20
-5
-5
-37
17
-47
-27
127
29
-22
-35
-51
-24
-98
-35
-57
-16
-18
-52
-22
-27
-57
-37
-57
2
-71
-25
24
21
-27
-65
22
7
41
-79
15
-37
-69
-90
-10
3
-32
-80
23
33
-21
8
-93
-17
-52
102
-84
-106
29
-17
-85
-19
-9
1
-12
69
-45
10
-74
21
-31
-40
9
-50
113
-25
-101
-33
-127
-38
13
-32
-57
-30
23
-34
8
-29
127
-13
-9
-94
-38
-99
12
5
-75
-50
-10
-79
-46
-72
-21
-20
-13
-63
6
103
-80
-89
-28
-108
12
127
-51
9
4
22
-76
35
-69
-81
-127
0
-45
9
-33
-60
-62
22
-30
-58
-109
12
-88
1
-88
13
-127
-63
-31
-24
44
20
-21
79
-50
-40
23
33
-30
21
11
103
16
-31
-112
48
-9
-24
5
-97
0
-80
-43
-49
-13
-64
26
-55
-73
-59
-65
-40
-28
45
-75
-50
39
30
-14
-62
28
-49
7
12
-127
-30
2
-127
-53
32
-10
-57
13
-99
-38
73
31
19
-2
-11
-32
1
35
27
-47
-77
-69
-70
-57
-45
40
-5
-73
-21
-59
15
92
-75
-25
3
41
-89
-41
-28
92
-51
41
-33
-6
-22
-16
89
-6
72
31
19
-55
67
-10
-96
-40
5
-52
59
-117
32
-52
-43
-96
23
-62
-54
-17
-34
-104
127
57
-24
-111
-9
58
-79
46
-20
-27
-17
-8
110
-2
-45
-4
-54
-5
-61
-53
28
-19
57
-31
-44
-6
23
-26
5
-1
-44
-2
-53
-5
-48
-66
-54
-37
-51
-38
-84
2
-55
-35
-10
5
42
-8
-27
60
-34
-30
-39
-17
-74
8
79
-83
-42
-25
-83
-49
-118
14
16
-32
41
-49
-107
24
-106
-68
-26
-69
54
37
-27
-127
26
-92
30
-58
-14
1
21
-12
-74
-28
18
-19
36
16
-8
-14
-79
20
-28
-1
7
-69
-68
-29
-127
-38
54
2
91
7
-87
-28
-44
-11
-12
-48
-16
-78
-4
-61
-56
-37
23
-40
20
105
-9
-60
69
16
8
24
107
51
-31
33
2
5
-86
-17
-58
5
-10
127
-62
-32
-20
22
21
39
-105
54
-64
-1
-12
66
-87
20
12
-24
-33
-17
-63
-8
-11
11
-69
33
3
11
37
36
40
-38
21
3
-1
10
12
32
-31
-10
30
12
-10
16
26
26
57
-4
3
-67
-2
61
4
0
31
33
36
33
44
18
-52
-56
-36
-127
-91
61
127
-5
23
-80
47
41
122
58
-11
-127
-25
-33
1
-87
-12
5
-76
-62
12
4
29
-3
-1
-24
-52
-31
-44
-18
-19
-1
28
-62
-63
-48
7
-73
39
-57
40
-71
62
58
25
1
74
-58
-52
-17
126
-53
16
-1
-44
-62
-47
25
-97
-57
-4
42
-9
-39
-4
-34
-127
-109
-11
-50
-18
-7
17
-40
-9
17
14
-49
-3
-55
-51
18
-95
-8
-127
46
-60
-3
-68
-31
57
-31
-3
-33
-74
-48
18
-7
-96
15
27
-7
35
-100
-56
18
-60
-2
12
-23
0
7
70
-24
25
-21
-7
94
44
-105
-3
-7
-13
11
-10
-24
-68
2
-11
-4
-44
5
53
-53
23
40
5
43
19
-19
41
-41
-41
-69
1
-17
11
68
33
-10
6
-54
90
-19
-1
-22
-11
56
20
-36
-2
0
-9
-36
-30
-20
-34
-30
41
-45
27
40
-34
39
-34
-17
-59
-12
-123
-39
14
-29
-23
54
-3
-10
-76
-26
25
35
-50
-26
34
17
36
76
95
29
14
-4
-28
33
-29
17
26
-24
19
-59
68
-15
-52
-36
-30
-55
-28
37
-31
-3
-38
41
3
34
8
61
44
1
30
1
59
6
20
27
20
-20
40
16
46
-40
-60
75
-38
-12
47
6
40
14
4
-18
53
53
-90
-15
-21
-3
-97
-21
7
21
7
26
-118
-27
69
119
-39
-44
-75
-95
20
-97
-22
-18
-11
-11
-38
5
9
-61
89
-35
39
8
14
127
-59
32
5
-10
39
-39
-17
44
-36
32
-46
-49
-13
-92
-11
18
-54
16
-49
41
-4
-28
-62
-65
45
-20
57
12
34
-30
2
-22
48
-83
17
15
5
-55
54
20
13
18
-43
43
-9
-81
0
46
103
16
0
71
33
40
43
-20
-127
27
-31
47
-54
-13
43
45
-18
-64
-93
22
-41
-39
-8
6
-39
-16
-90
-127
43
-34
-5
63
-25
63
-49
-8
-9
-76
4
-29
-28
-8
-70
-17
-64
-55
-40
-11
26
5
96
-44
-51
-35
-28
-64
22
127
-31
24
60
67
-4
2
5
-71
-10
4
30
-107
-79
-78
-41
-43
-18
23
-85
-33
-80
-9
10
-20
44
-119
-8
-99
26
-50
-24
43
15
38
-37
50
-10
-45
-70
-14
8
29
27
8
-28
3
-36
45
16
-26
-44
-10
-22
28
17
6
-39
-44
-53
-39
-84
-4
32
8
49
-104
-22
56
-65
-35
62
-19
-34
22
-5
1
-72
78
-23
51
-13
-58
18
-30
-38
-9
-11
-1
20
47
-82
-38
47
44
37
69
1
-25
-81
-13
-4
3
12
73
-41
-10
10
-40
-26
-4
-17
-44
-70
8
-89
41
-114
-9
-31
-51
-46
0
18
64
-3
-72
-5
23
-57
16
81
-84
-9
-5
1
40
-1
-36
-19
-48
76
-50
20
-10
20
-127
20
33
-72
-127
9
49
-52
-78
8
75
11
-46
33
-27
-55
36
-93
-19
-59
-28
-2
-17
22
-35
15
29
119
-66
18
-14
2
-17
-115
-1
21
-17
-13
-58
-1
-34
-47
-54
9
20
82
28
14
83
30
19
82
19
-31
52
51
-41
7
-71
-26
21
-127
7
-26
-13
-13
69
-88
-89
16
26
47
-13
-74
-15
70
-77
-27
-8
-4
-43
-4
65
-1
11
37
4
59
12
-56
21
58
-7
6
-28
-32
15
26
33
-73
-21
-29
-23
-30
-40
25
-36
-8
64
-3
-9
-31
-40
-124
93
-44
18
-38
-60
-24
9
-7
-47
-29
-37
-12
-26
22
48
-38
-60
-30
-23
-32
60
31
22
-62
-41
-58
-17
-24
-50
-2
3
-118
-60
-35
-47
-50
-66
-62
-85
0
101
-81
-45
-34
-35
-91
35
-17
15
33
45
-27
46
36
-34
-7
-18
23
-13
18
34
-28
9
24
-43
-34
-16
5
-15
-20
-63
-65
-11
66
-42
-59
7
29
-40
-48
-33
55
-26
-28
7
-46
-36
67
-59
-56
-29
-4
-19
14
66
78
-15
-12
-23
56
-3
-36
26
-35
26
-12
10
-28
-12
-37
-41
-40
-12
-83
-21
-11
-27
-1
14
34
-35
-94
-10
13
1
22
59
0
-63
-11
29
-9
18
17
-127
23
-21
-48
-31
-7
-7
112
127
44
-90
-17
-73
-17
50
-65
-34
-15
-13
-89
-60
-43
-10
-92
47
7
3
-74
-26
37
-20
-113
-6
27
12
10
13
-56
12
-11
0
5
-75
-11
-3
-25
-24
-15
3
-17
-22
63
82
31
50
-15
11
11
38
0
-8
54
9
6
-41
-23
-61
-13
-18
-35
-30
47
13
-13
-2
28
5
-54
-60
-80
-48
-31
-75
-100
46
17
-57
-9
-54
-51
-25
-44
2
-44
-54
65
-16
-12
62
-31
-47
-16
-43
-42
51
-38
23
-64
-4
-86
-44
1
-55
-16
102
10
-31
-33
62
-42
-24
-14
5
-104
8
-67
23
8
31
-29
61
-49
-39
-35
-35
-38
6
-14
-40
32
25
-3
11
-98
12
-66
75
-93
-55
-10
-24
-3
6
40
3
6
60
28
-9
-42
-29
-17
1
-6
-16
-24
-95
0
-74
-2
-2
54
-49
34
-72
30
17
-32
13
-33
-23
-109
7
-2
-18
19
31
-35
-80
9
-41
27
37
-42
-17
-36
-25
-49
-42
6
-24
-17
32
-4
-14
27
56
-7
5
-45
106
22
-12
11
-28
-49
-19
13
58
-22
-31
-8
-3
4
2
10
-39
-39
-60
-1
-10
44
17
37
-53
-18
2
-42
0
-62
-21
5
-10
-5
-71
18
-24
-15
-48
-37
-20
5
19
13
-7
25
-38
-27
19
-19
3
-38
-33
-22
-42
7
-28
-28
12
-55
-49
4
50
8
-30
-53
-11
-58
-90
72
-80
-26
-12
29
8
-50
90
-23
-43
-16
-20
-73
-29
-121
-29
-4
-17
-62
-7
-6
-46
-66
-30
10
101
58
67
-92
-54
-4
-81
-63
16
-12
47
-54
-18
-11
-22
13
-10
-17
0
-11
-45
-31
-105
-44
-19
-127
25
-38
3
-23
-47
20
-93
31
-61
43
-38
-31
-5
-61
26
-52
-37
-52
2
-14
-15
-50
55
-49
-29
20
-50
-56
44
-39
88
-26
-9
76
-12
-11
18
-34
6
32
26
3
-52
0
4
-53
-8
18
-20
-27
27
-63
-49
25
-11
-15
-18
21
-38
14
-4
-47
-33
-36
-65
33
-45
-18
-15
-25
47
58
-127
81
-4
-85
0
-2
-9
-34
-77
-4
2
-85
21
-22
-8
-7
-24
-33
-32
-9
-10
5
26
-35
-62
8
14
37
35
65
-22
-38
-14
127
-72
-26
-36
-22
8
-23
70
-25
-42
13
-32
-72
-22
-36
-15
-22
-53
-69
16
-28
5
-116
-43
-4
-88
88
-74
62
-18
0
-80
-47
11
-14
-60
-20
-30
12
6
26
-15
-1
-15
-67
-81
-12
-9
-30
-52
-6
-66
-111
-39
52
-9
42
-6
27
18
37
-8
-25
11
-20
-34
-23
8
3
-32
-57
47
44
-56
-69
10
-4
18
1
-16
-6
-122
-35
-19
-7
-11
41
110
-108
-18
12
-14
7
0
-32
5
-36
23
-51
-22
-34
-30
-62
106
26
41
-17
-30
66
-127
-10
-102
-12
-40
19
-54
3
68
-26
-54
127
35
23
-66
-15
-27
17
-8
-42
-109
13
-37
42
4
90
16
-32
-36
-21
-27
-18
-38
-41
-96
-71
-45
-42
-1
19
-37
-24
16
-15
-100
42
-19
24
-45
-11
-79
-46
-15
3
-59
-1
16
-88
-45
-89
9
-24
-3
120
-50
-3
2
5
-67
-48
-19
15
-15
-3
4
-127
-7
-17
-25
21
6
40
11
-37
-43
-40
-2
37
-60
16
-24
10
19
-11
8
70
7
-36
-27
53
-19
-66
-10
-27
6
37
10
2
-29
-52
23
9
-21
-5
-62
-4
12
-27
44
-29
-53
-11
-25
29
54
20
-15
-7
-17
127
-50
-22
-53
-72
53
-9
6
-7
-47
0
4
-9
21
-44
-59
-39
-12
-4
-62
-26
71
7
0
7
23
43
-38
-32
25
61
-2
13
-1
27
16
-14
4
-4
127
58
-77
-21
-9
-41
-30
-92
-60
-68
-39
-28
3
-5
-54
31
-9
3
-12
-12
127
-41
7
-74
-6
18
8
-127
-97
-14
1
-65
4
-40
-61
-127
8
-23
-68
-16
43
-94
-68
46
-18
7
50
-21
-44
44
-35
-16
9
23
-35
35
-87
-21
80
-15
28
-11
18
55
-14
-49
-22
127
-15
-11
-11
-3
-10
127
-34
7
-54
-38
-34
-6
-54
-4
-43
35
-28
-13
-127
11
59
1
11
-127
-37
43
-6
-3
-25
14
31
-104
-86
-10
-6
-6
-26
-55
11
-6
-56
-76
-21
14
73
-10
-25
47
-115
-39
28
-3
-49
5
127
70
-17
97
21
60
43
-63
-41
-35
-57
-21
-2
-13
-73
41
-52
-9
-84
-84
21
-74
-11
50
-15
122
3
-57
15
-44
13
-8
-53
-17
-13
-27
-4
-7
10
12
6
-19
-7
-1
-31
-29
-19
-33
-32
27
-26
-1
-7
-72
4
-29
-31
-64
16
-52
-5
18
-18
-75
-52
-15
15
-19
-43
35
-7
-22
-33
29
63
-33
3
-50
-63
23
-18
15
24
127
-48
-53
-73
67
-46
-32
6
44
27
-49
65
-34
-34
-41
-14
-53
-70
-22
-29
-69
-1
-26
18
29
-1
-107
-8
40
-39
-39
-11
18
-40
-37
-44
-21
1
4
1
-13
-95
7
-9
-37
-114
24
-70
53
-30
-4
-37
48
-36
-14
-47
-32
-2
-46
-44
-9
83
-10
-34
-23
-6
6
16
12
-7
-12
-12
-20
-89
-63
-21
-12
64
51
-33
-33
-22
-65
3
-58
36
-59
-19
-71
32
-55
-65
33
16
-73
-12
59
-14
16
27
70
104
-6
-55
-15
-7
127
-8
-68
-6
-17
-119
27
-7
11
16
70
-13
-93
-41
-19
-73
-3
-23
21
-11
9
-57
-58
6
11
-36
-7
14
26
-19
-127
-78
-16
-61
-3
12
96
13
22
-1
-64
11
75
-7
-102
-26
-16
-76
-11
29
9
3
-45
-69
18
-45
17
127
-81
-36
11
-67
-65
-55
-5
-62
-1
-93
33
40
-76
-81
-12
-19
-5
-15
-89
-9
7
47
4
-48
11
-32
-6
10
-27
6
-14
-1
9
-7
-71
-64
8
-13
-40
-49
-37
30
86
6
74
127
-44
-34
-38
-34
-15
98
-29
54
-80
-41
-22
-17
4
5
-18
-58
16
21
10
-22
-20
-50
5
69
-20
33
19
-14
0
40
-11
20
63
-29
-14
81
37
-89
6
103
-75
10
127
34
-36
16
-66
6
-21
-15
-46
-21
-18
12
10
10
0
-2
-73
-17
-25
-64
3
-127
-77
-15
-11
28
-4
54
29
-26
127
-9
-6
8
5
-31
-16
49
113
20
59
-125
69
6
23
6
-42
-5
-11
64
-2
0
63
8
2
1
-3
39
80
-7
-53
-7
-33
41
33
70
-19
46
-16
-31
-15
81
125
-67
-19
75
-28
25
-10
-77
60
101
80
40
36
-79
28
14
-15
10
-43
10
-79
-23
11
5
-7
-39
43
84
-77
31
39
63
65
-2
-53
-26
-3
-11
-42
-93
-36
21
9
21
-35
84
6
66
41
-36
12
-11
-40
28
-55
70
66
95
-15
86
-14
25
23
44
-57
10
127
21
-5
8
-1
-42
34
12
38
48
-83
-11
-56
-46
-31
27
41
-19
35
47
53
-87
-11
12
-7
58
127
-7
3
81
4
10
-67
18
-24
14
-7
26
-14
-25
35
-23
11
17
-10
93
-13
8
32
-54
92
-60
23
-7
10
-9
6
53
-59
22
-12
35
-12
-38
26
-1
31
-25
-25
-8
14
-40
32
31
-2
39
-40
47
68
115
0
35
-36
60
-8
66
57
20
-19
9
16
82
13
-31
-6
-92
13
-3
-12
56
9
19
7
41
34
23
-11
-26
-57
8
11
-30
63
-16
18
-13
35
-3
-9
103
-39
2
-42
9
14
101
40
9
-17
-9
-3
-75
33
-67
71
-62
21
-99
5
1
112
-9
-18
16
50
4
-17
-111
33
-22
-20
20
17
-37
27
43
-15
-17
-47
-45
42
-44
-127
97
11
103
-7
24
-21
-5
28
-6
66
-58
109
-127
-23
21
-20
26
40
30
-27
-80
55
-56
-28
17
13
123
-64
5
22
83
-80
35
28
-38
-31
10
43
-43
108
-57
-28
-7
-103
37
-6
31
69
-78
22
31
20
25
24
21
31
41
85
3
73
56
-4
-7
40
6
-67
56
12
-13
-20
-52
28
78
-4
23
27
28
-45
49
-15
77
-16
10
-45
-97
19
33
15
30
-12
-38
96
-27
29
13
32
12
-50
-44
-5
-41
30
-23
29
48
-6
80
-45
-4
14
44
-17
22
3
8
76
31
-56
-23
23
30
-83
-44
-11
25
-51
-37
-47
56
-33
66
1
-4
-1
-3
-10
64
8
-11
-30
-23
-26
-11
22
12
58
26
46
-2
-1
0
40
-70
44
-13
-86
11
48
17
22
-35
-9
15
-10
-33
62
-31
-86
56
-2
-4
-71
-56
-19
52
44
38
-23
116
78
38
-21
-27
23
35
0
-8
-10
37
3
-45
0
0
-83
28
-23
65
38
-35
81
-20
27
-56
-25
0
8
127
66
127
-37
-8
-5
-22
30
-11
-33
45
21
70
19
3
-43
-8
-27
41
-71
-4
-5
17
-49
41
-50
15
-8
64
-2
1
-21
-44
-27
-55
4
12
49
22
-42
5
-41
36
80
-18
6
47
61
-85
-2
12
-5
-23
-20
4
-34
70
80
-6
99
0
12
-54
-3
6
-114
-18
47
-73
45
14
-10
19
-71
79
-1
-11
40
-54
12
65
47
-127
-13
-24
3
-106
-24
-28
11
38
-39
84
-2
-26
25
18
26
3
-24
56
50
-35
-21
-60
54
86
-93
15
58
40
-2
18
-11
7
-43
54
-20
40
-25
29
-24
-2
20
-44
9
26
-4
14
-20
39
-45
127
-2
-17
-47
13
-7
45
-18
105
40
33
29
22
49
37
18
-123
-15
-44
-55
18
0
-20
-9
21
-3
-50
24
-21
77
-55
-115
12
-41
41
-23
-13
39
11
40
-47
21
97
-27
9
64
13
64
-18
70
-2
-7
-45
46
-20
116
-34
17
2
-40
-33
-63
25
32
-58
27
-10
42
-53
-21
-24
-18
2
11
77
-18
-38
30
-17
127
-126
-30
-30
29
-47
-4
-63
-36
-17
-53
-5
116
62
-127
-65
-58
-60
-62
48
-10
-68
-5
-45
10
-55
-21
-5
-20
101
24
118
34
73
-55
-35
14
82
-17
-91
47
12
-75
-15
44
109
-58
-50
-44
0
5
-65
-127
0
-64
-89
-9
-77
26
45
-49
-11
13
-13
-23
-35
-47
74
4
-98
30
-3
-40
-16
-122
-79
-11
-63
-127
39
-44
-51
7
-47
87
-126
-36
-81
24
21
-116
51
-9
2
-54
-14
-127
-6
-22
-42
18
-55
-90
-46
-91
32
-56
13
27
-4
55
-6
11
29
-70
112
-54
-45
-49
-54
-54
-14
44
15
41
-29
-60
-18
-37
18
-30
-30
-61
-72
45
-20
97
21
127
127
-49
-54
-32
-85
13
-70
-17
24
-19
-40
-23
24
-79
27
-20
6
114
-5
-71
68
-60
38
-18
-60
-5
-37
15
3
-37
10
-11
12
-8
36
-49
17
12
84
-78
-18
-117
-83
-52
37
17
-77
21
-100
-18
-42
21
-52
-94
-35
43
-9
50
-127
6
-50
3
8
-22
-40
-64
68
-53
-23
-20
-8
10
-30
-8
-99
29
-7
8
-20
-12
-58
-24
9
3
-34
-34
-18
-51
-70
-72
14
-30
-12
22
102
-127
-40
-50
-44
-9
-9
40
-74
-14
-107
-51
40
-53
-43
-72
-54
-38
-68
-23
-29
43
-10
-96
-32
-79
14
18
-36
-8
-47
-37
-72
60
-79
24
-67
58
78
14
-3
46
29
-107
20
-93
3
-18
127
-107
-4
39
-127
86
-64
-36
-37
-28
22
38
-42
-12
23
-36
-40
-41
-18
-101
-31
-6
-15
-127
10
-88
-9
-111
-25
-39
24
-65
-40
32
3
-24
-47
-54
-29
32
-21
-61
-127
-77
8
21
-13
-78
-43
72
73
-67
58
-28
-127
43
-28
-92
-27
-22
-127
50
50
13
-8
53
-91
13
-33
49
111
-29
-7
-5
-45
7
40
57
-22
-31
-61
-88
-32
-113
5
-54
-57
-39
-21
-28
-33
2
14
59
9
-62
-44
127
-21
34
-20
-48
-46
-83
-44
37
-64
-13
-24
-127
-26
-68
20
-32
-13
-127
-21
36
-127
-118
48
9
-67
-46
-21
-84
-47
-8
-53
-77
20
1
-35
-127
-81
-1
25
85
-8
59
-72
-6
-16
-34
-61
121
-42
20
42
0
97
-58
-23
-57
76
47
-27
-64
-77
-30
47
-40
121
-7
-2
-56
-5
-51
-7
25
125
32
-25
-23
98
-68
52
-3
78
-48
17
-106
2
-6
40
-5
2
-82
-43
-17
-23
51
67
57
6
-40
-62
-93
-127
-10
-51
-19
-10
9
-100
-16
11
9
-57
-4
-46
74
-105
-14
-30
-23
1
7
-75
127
-40
-31
-49
-73
-25
-115
38
42
21
71
-82
4
44
-87
-94
12
-12
127
61
-46
-33
91
-48
-69
-36
-127
18
-77
-21
-70
-91
26
-35
9
4
15
-3
-48
-39
10
28
80
0
2
-37
-127
-111
-114
39
56
-69
-76
29
-32
-65
25
1
62
80
17
49
-36
59
-16
80
-107
-36
-93
33
-111
22
32
-4
-2
-21
-47
-7
15
38
-50
127
67
0
32
-24
-12
-4
-45
3
48
49
-127
-13
-67
-32
-28
16
-50
-17
-61
-53
-52
-16
-34
-32
-17
-78
-15
8
7
-12
-38
-8
-18
88
-94
30
-54
27
73
-104
59
-37
-76
-18
-48
83
13
-45
-127
-55
47
-6
30
69
-60
-19
-94
62
65
-60
-17
-127
-43
-26
-48
-50
-41
-18
-48
-118
40
-61
-5
-5
-5
-83
-91
50
-36
-127
-37
35
9
-11
102
62
106
-9
9
50
-34
-30
71
-6
20
69
-56
-49
37
7
-15
106
-62
2
-29
51
4
-71
127
96
-2
-81
65
-127
-127
-127
-39
-51
-27
-49
20
63
-29
-37
-40
16
-127
-47
44
-49
-24
-17
-67
-15
5
-24
94
-7
-25
0
-46
8
-57
98
-40
-81
6
-39
19
-52
76
-8
40
-14
102
-78
-41
-71
-71
62
92
-65
37
85
-11
66
-81
-127
-16
-18
-49
-4
82
-44
-76
-33
-8
27
-4
69
-59
-43
-29
44
-79
-26
61
-127
-13
41
-63
-40
9
36
-41
60
-93
-58
65
7
40
28
86
-2
-12
-83
79
127
-4
8
-18
-61
-93
45
-44
28
-44
28
-30
-29
61
-62
9
-23
-92
-6
-73
17
-88
105
38
-8
41
-127
-31
40
-20
-75
15
54
-4
-40
-66
-31
-14
-16
-24
45
-16
-6
-4
-104
-64
-14
-56
15
51
-82
-127
83
-81
8
61
-18
34
-30
-127
-78
-127
39
43
-63
-51
-67
-23
-31
64
44
-20
63
0
-10
76
15
-67
-10
-54
-35
23
101
-3
-125
24
-97
-106
-21
54
22
48
63
-23
127
-15
90
-78
11
18
-31
-14
70
10
47
-4
-82
-71
-26
9
9
-5
-27
10
-37
13
82
44
-9
-20
-35
-40
39
16
38
102
51
71
58
-4
32
-42
58
1
-93
27
-27
1
-115
-87
71
-26
36
38
-70
60
53
15
1
26
40
4
-60
-26
-98
-50
23
42
-51
106
48
-49
5
7
85
-69
-12
-35
-76
-43
22
-20
25
35
9
-118
36
-1
62
-23
34
127
11
12
47
-23
-61
51
-19
52
10
73
67
-8
62
58
-82
16
-18
127
-30
10
-30
-70
12
86
-24
45
-9
-1
48
6
-58
-32
-39
5
21
-27
-65
-9
-1
64
-76
100
-70
-29
-24
-9
-31
-39
22
-2
49
-41
-71
-71
-6
-55
30
41
11
35
44
-17
-68
-94
37
-28
95
28
9
-29
-21
63
-62
-19
19
-97
-9
-14
-1
-26
-36
36
88
-33
11
-31
-41
1
-11
39
14
3
-32
-6
6
-127
18
-61
-99
-14
-15
-57
-27
25
57
74
51
55
-70
-23
50
89
-33
46
-9
25
-28
-26
20
-16
113
-92
18
26
-54
30
98
-82
61
-61
-97
16
-55
-117
-8
-22
25
50
11
-36
-44
16
-14
11
-16
-15
-1
51
11
55
39
-43
5
-34
38
3
104
0
-102
-32
28
-3
-9
8
-11
-36
-63
-51
-57
-48
9
39
-31
-42
-37
-39
39
41
-38
-22
-12
46
-87
-82
55
-49
-100
-40
-84
-12
-78
12
-55
2
-20
-21
18
-8
76
30
-87
-54
-40
-4
33
69
21
101
44
-9
-25
64
23
-127
20
-1
40
-70
-62
-18
39
-72
-86
-8
-15
-61
38
19
-4
57
-86
-107
-54
81
-29
34
-1
-37
37
50
26
-24
77
22
63
20
42
6
-21
84
-51
28
-35
-30
-39
-18
48
-37
-105
-1
-101
0
75
14
-80
10
-8
-53
64
15
25
-46
-49
55
18
63
-18
99
2
-7
-3
127
-64
-127
61
3
-8
-22
49
61
40
16
-52
18
36
10
-63
14
-16
26
93
16
-42
99
19
61
-19
2
93
-127
-26
36
-34
23
-69
13
4
32
-48
-101
-39
-6
-82
93
64
-42
-30
103
-67
-38
-30
24
-18
-13
-65
-8
-26
-27
48
61
-118
-5
-27
69
-16
56
-15
68
14
-36
20
-39
-12
-67
-68
-71
18
-43
-100
18
-127
-47
8
-18
-127
4
-108
-101
127
-94
-79
-95
-56
-61
-1
-127
-38
-78
-93
-98
27
60
-59
-127
-2
-123
-64
-32
-5
-11
-96
-85
-102
-13
-50
-90
-80
-78
-42
-113
-113
-127
-8
-21
-85
17
-6
-103
-103
38
9
-83
-127
-21
27
-48
-28
-39
65
-42
105
-35
-14
-127
-28
-79
35
-64
8
-127
-127
-32
38
-35
-52
-127
-23
20
-110
-127
-55
-22
-41
-95
18
-32
-56
-98
-126
-73
13
13
-17
-103
-127
61
-56
11
-127
-72
-111
-4
-20
-127
-20
-49
-127
-37
-127
-50
0
-43
-68
-127
-34
27
-127
-98
-69
-104
8
-127
-127
-75
18
-52
-39
-5
-120
-64
-86
-10
-115
-104
-61
-13
-52
-98
-119
-39
-45
-29
12
-50
-55
-127
-36
-127
-101
-83
-20
-83
-90
-127
-127
-18
-54
-127
-80
7
-20
-6
-120
-56
-20
11
-65
-32
-127
-119
-127
-79
3
-51
-44
36
-21
-29
-127
-108
-6
-21
-96
-27
-5
-127
33
-76
-127
-17
-69
31
-50
-117
-14
-37
20
-127
10
-62
8
-69
-69
-39
-127
-32
-127
20
-108
-14
-26
-96
-124
24
73
-115
-38
36
-91
-127
-127
-108
-102
-25
-112
22
-88
-46
-104
-71
-127
-58
-48
-111
-127
-74
-31
-23
-28
-112
-68
-44
-38
-101
-88
-99
-109
-124
8
-26
-23
-41
5
-86
1
-4
-127
-117
-65
-127
-24
-31
-127
-13
-59
-127
-4
46
-62
-69
-127
-127
-37
-101
-14
-49
-104
-118
-37
-127
-79
77
-127
-40
5
-47
-79
-71
-2
-44
-92
-13
-29
-126
-104
45
-27
57
-55
29
-25
-127
-75
-127
-38
81
-127
-96
92
3
-81
-31
-127
3
-66
-109
-47
24
-33
-127
-84
-34
-82
-63
-21
-26
-52
42
-127
-54
23
-48
-127
-127
45
-114
-36
-77
-1
-75
-85
-68
-127
-74
18
-88
-93
-115
-49
105
-115
-127
26
-117
-51
14
-83
18
-23
39
-127
-103
-127
-127
-60
-71
-102
-1
-109
-89
-30
-40
-81
73
-33
85
-127
-95
-61
-127
-30
-127
-116
-15
-71
-35
-45
3
-127
12
38
42
-107
-78
-6
33
-127
-66
-127
-75
33
-36
-116
-77
-127
-75
-60
-58
7
31
-26
-60
-45
-114
-9
-34
-127
9
-127
-127
-43
34
-127
-119
-34
-28
-40
101
-75
-32
-63
-27
-37
-92
-8
-68
20
-91
-72
-9
-85
1
-49
-120
-22
-24
-55
-33
-53
-96
-89
-39
-127
-127
-102
-19
-69
-127
-127
21
5
-111
-127
-2
-15
-33
-127
-86
-71
-83
-42
-48
127
-40
57
-89
-61
31
15
-54
-56
-104
-72
-122
15
-36
-22
48
-111
-75
9
-57
-119
80
-72
41
-127
10
-4
-72
-90
-25
-46
-127
-17
-55
-20
-20
-121
-127
-127
-104
58
-9
-7
27
-127
-127
-47
28
-33
-23
-4
23
-127
-54
-14
-127
-101
8
-113
19
-24
-114
-9
57
-38
-100
-127
15
-127
-117
-29
34
37
-60
125
-127
-61
-28
-42
-110
-127
-28
-66
-77
-108
-74
-11
-37
-19
-127
-51
-36
-127
-92
-58
-99
-127
-109
-64
-70
-40
-17
-46
-73
-66
-57
-47
-88
-68
15
-10
-127
-17
-13
-23
-22
-28
-42
-81
-29
-23
-43
-8
-123
-27
-127
-127
-72
-127
-41
-127
-30
-108
15
-23
3
-127
-127
-67
-45
-127
-92
-81
-124
-96
-125
-127
23
-99
-48
-48
-44
-18
-39
-127
-40
-58
-59
-84
1
-127
-34
-60
-44
-44
-111
-1
-33
-6
-61
-4
-49
-9
26
-38
-61
-80
29
-110
-87
-22
-117
72
-62
-16
-75
-78
-111
-5
-127
-28
-30
-117
6
-20
-5
-55
-1
39
45
26
-127
114
46
-55
-11
-38
38
-15
-23
-11
18
-9
70
-5
-35
-102
-20
-74
27
-32
-8
127
3
-69
82
-41
-77
41
-34
13
109
-24
-13
25
-100
-96
-19
-25
-93
-24
18
44
10
-18
-55
-79
29
10
-53
-52
-53
15
22
-40
6
40
27
76
-43
64
15
-89
-71
56
26
11
-13
40
-24
-10
-44
-33
-47
127
20
18
-16
-101
-19
0
63
-38
-127
-14
-18
-46
37
-86
-35
-10
-3
-25
122
-21
52
-67
-54
99
21
-57
-18
2
13
-46
5
-92
-57
61
-54
-70
121
-32
115
24
-107
-34
-8
-19
110
67
-79
-47
-113
-27
-92
-85
78
-88
-127
-41
-6
-38
-26
7
-53
-98
11
-37
-55
5
-22
-15
1
42
-74
-8
-97
-32
14
10
-27
32
-24
-124
-21
34
-10
-31
-69
27
43
21
79
-127
-97
95
-127
-31
-10
-77
-48
93
-48
-34
99
-8
-38
44
-115
-16
-19
-20
71
105
-24
-7
35
-33
-29
-60
43
-49
-92
17
53
-5
-7
-33
-127
54
9
-40
-6
16
5
13
-4
39
-84
-3
-32
-43
-10
5
20
106
-9
126
-38
-28
-86
-13
36
-5
-42
-49
-10
-92
-87
2
47
-45
75
-27
42
23
79
-8
61
-49
-127
-48
13
36
49
19
-112
-26
4
-37
-30
-44
-73
-2
-4
-70
-33
-32
73
-127
50
-75
-15
0
3
-1
-17
76
-38
-5
123
29
-73
46
68
-30
-103
-14
-79
-70
73
-23
5
-64
-28
9
11
-56
-37
-29
4
-127
-18
-56
41
127
-2
-14
15
23
-56
1
-48
-43
36
34
-64
11
4
-46
-43
1
-35
54
-5
-127
-46
-21
55
-12
-127
-79
-11
-49
-75
115
-14
-12
-47
-17
-120
62
10
-21
-127
103
27
-9
-70
-80
-87
51
-17
-103
-16
-120
50
-23
-83
-4
-50
38
-18
-12
-78
-39
-42
-23
52
116
-38
18
-68
-63
-35
-56
-17
24
-57
-77
-46
-71
69
-1
7
-30
106
-127
-20
55
-32
7
43
23
-15
1
-1
53
-59
35
-50
82
-61
-67
2
96
-52
17
-78
-52
-22
70
-124
-51
-127
-4
-20
-127
77
-49
85
105
48
-15
-22
81
-64
-72
-32
-36
-43
-41
-127
-11
-127
-25
-76
-72
11
-50
-1
-24
72
-127
-92
-48
127
-127
-36
-32
18
-5
-76
-60
-3
55
-30
-58
62
-8
-47
-57
-68
11
-7
97
10
50
22
48
-75
-44
7
127
34
-56
-48
-37
-127
-91
78
104
-62
9
-127
63
-23
-81
-16
-42
127
-5
-123
-127
-79
-55
27
-20
-1
30
-17
109
29
-21
13
-10
-26
-18
6
52
0
103
96
-38
-50
-70
-7
-10
54
-35
-39
57
-47
-11
-25
21
-97
-21
-125
-57
-79
-22
-14
-18
63
-38
36
-89
-20
-68
-58
22
-4
-127
-122
4
47
-30
22
-33
-6
-90
66
-27
-30
80
-64
-6
21
-21
4
-88
8
-52
-108
-78
-107
39
25
113
79
127
-68
51
-20
-57
-13
56
58
51
-19
101
32
78
-35
89
-22
-75
-4
-67
21
-3
-49
-39
-19
127
-17
9
-127
-30
106
42
-72
-51
-44
-19
-31
-27
-39
-24
98
12
-37
2
105
-8
-127
14
-81
26
-58
-23
-51
49
-54
41
28
-27
42
1
77
2
-23
60
-18
57
-12
-27
-21
38
57
85
34
92
-126
55
127
22
-61
-20
-108
24
20
-24
-37
-39
-127
10
-10
-26
-50
-101
122
-47
33
20
-127
-7
-8
6
-42
-40
-23
-54
-70
-16
-19
25
100
57
0
38
21
-8
-14
98
-14
57
97
31
127
103
127
127
-13
6
106
40
127
127
19
-26
41
-18
66
-8
-12
34
-17
58
-30
-62
78
-34
-44
105
127
-92
-32
21
31
-13
35
14
-7
98
-37
-33
24
91
-5
47
127
70
127
-35
-56
-38
-12
-83
57
-25
-37
75
59
-75
-26
-37
-21
-63
62
59
-3
-123
-43
22
50
-50
46
-91
39
-34
127
-51
85
-79
-24
-10
125
126
2
49
-46
8
83
110
92
64
-74
3
13
127
25
-25
-47
40
-61
75
-42
-75
2
-22
53
9
11
-4
-9
79
-35
-55
34
18
84
-10
-42
127
95
-26
-52
-2
29
39
-39
18
41
19
-51
38
-60
30
24
15
-2
-19
41
-117
81
-16
9
-14
-117
31
-17
19
73
28
59
-84
78
127
-23
-67
58
127
-22
75
2
127
-32
105
36
76
127
18
9
5
-60
12
-1
125
127
-16
46
-26
-48
18
31
-14
23
32
46
-67
-87
127
127
-43
11
-82
32
-1
27
87
67
53
16
33
-56
45
-82
127
-13
-105
23
109
35
-127
127
-97
-25
15
84
54
32
127
67
94
-8
47
-25
127
127
-42
-71
127
72
102
38
33
-48
-116
61
-58
74
-54
-23
-19
-31
127
79
7
56
127
-41
-31
102
-22
-36
38
127
24
35
43
-45
81
33
7
79
27
42
76
127
-38
14
55
126
-15
64
127
127
5
87
-106
38
50
-1
-33
66
41
12
-5
77
127
-42
49
127
110
-81
-12
78
-90
-127
35
42
35
114
-15
-127
103
4
23
33
29
-28
66
-12
27
38
71
-15
8
38
-38
34
125
88
127
108
6
-14
120
-39
3
15
68
25
-127
98
-18
-21
-14
127
92
51
72
-9
0
82
77
70
-7
88
69
-10
-81
127
-30
43
127
45
5
-55
73
127
92
122
-22
-36
58
9
46
-26
-124
-8
127
-22
13
-95
122
93
56
114
32
94
127
-91
30
-7
-22
-61
84
-24
23
-34
127
127
14
-68
51
61
65
94
35
-38
127
109
12
-7
-15
-14
-13
-12
65
14
-67
11
-41
12
-57
-10
68
84
-40
-41
125
89
21
-49
-25
47
24
-5
123
2
-123
-30
-59
117
-5
0
71
-20
-21
-109
-3
127
-75
2
97
-71
-56
121
18
37
19
91
127
29
86
77
9
3
2
37
107
11
83
-114
47
4
-83
50
-53
-10
-63
-40
46
-45
-24
-47
-38
-101
14
-108
-26
74
-49
31
82
-45
127
127
-3
89
25
66
11
95
48
-26
59
14
27
-10
-49
72
-59
6
-41
1
11
81
74
54
-56
6
-16
44
116
46
67
-42
127
103
-15
1
116
-24
51
111
-23
112
-4
-61
15
20
60
-75
-24
-31
91
-30
103
14
-63
11
-1
29
-50
97
-95
6
-8
127
116
14
127
107
25
127
8
-94
-1
52
-85
0
20
-57
31
64
18
-26
62
12
40
-33
36
127
12
-16
-60
-45
66
35
38
-7
-7
77
89
30
-34
-47
-16
102
34
108
-26
16
-26
115
50
127
100
-54
21
127
-5
-26
-34
49
34
75
127
3
104
8
46
127
7
32
110
15
127
74
75
127
-60
29
46
-7
-8
88
6
-66
62
-57
-53
2
35
-34
30
25
-1
-54
-2
-16
11
3
-59
72
73
-10
127
127
-30
74
-13
-23
92
89
114
127
25
-7
127
-127
-53
-53
-31
