-2
-1
-24
-6
-2
5
4
1
14
3
7
-4
-6
-7
-17
9
25
-13
7
-7
4
6
-4
-7
0
-1
4
-2
-3
1
3
-2
3
-5
-4
3
-3
-4
0
-1
-1
0
5
0
-4
-4
0
-1
-26
-5
14
-7
5
2
8
-15
0
-5
16
-6
-9
2
0
14
1
15
31
-4
-17
10
-2
8
-7
17
22
-21
-93
-9
-5
46
-4
5
10
13
-4
20
11
-9
7
-5
-21
18
17
-3
3
4
34
4
-3
-25
-14
2
25
-65
-58
-9
-23
83
-32
15
14
28
56
24
-73
-9
23
-26
1
-1
-2
-4
-8
-2
3
-2
2
8
3
-2
0
6
-2
4
7
-7
3
-1
17
1
2
1
2
2
-5
-28
-18
-7
11
-4
2
8
-24
2
26
2
4
0
-16
4
19
-14
62
-6
12
5
1
-2
-15
1
38
-2
-6
-6
-3
-10
8
-6
12
-1
1
1
14
-16
-13
-6
-35
-3
20
-5
-3
1
3
-5
-6
4
1
0
0
-3
3
-2
1
0
-2
-6
6
-2
-1
-6
3
0
3
1
1
0
5
-3
-7
3
2
-1
3
0
1
1
0
-2
0
-5
4
-3
0
-7
-13
2
-2
-4
0
-3
3
-13
-48
-13
-60
22
3
74
-14
11
22
-11
-39
30
-7
22
-34
27
29
1
-4
3
21
-9
5
-3
1
1
31
20
-14
4
32
10
-17
23
1
53
-37
15
-1
-21
50
-4
-10
-13
2
-2
-6
-5
-14
-4
16
11
14
8
-27
12
0
4
8
23
-9
18
16
-27
25
-5
7
5
4
-5
30
7
6
-5
-29
-9
12
36
7
-6
7
-30
25
32
23
-15
-16
-10
2
11
-2
-8
8
-35
36
-21
16
25
5
8
-29
-25
1
2
2
-21
-15
26
-36
-25
2
2
-16
-16
6
32
0
2
-7
-4
30
24
9
-6
6
-20
-12
7
-3
6
11
-2
18
30
-9
-27
10
10
11
-9
-10
7
-4
5
-17
-7
-1
3
-3
-8
-4
-6
-9
-5
2
-6
7
-3
-11
9
-33
4
-7
0
-2
-3
1
3
5
5
0
-10
-8
13
19
1
4
4
2
-6
10
7
6
-11
34
-8
4
-2
-4
-11
-24
-13
37
35
57
-11
12
-40
6
-69
-12
30
52
6
-21
-52
7
79
-9
-12
-74
28
-6
-9
2
120
69
-48
26
4
25
-23
-9
-3
-76
-24
-3
-14
-15
-65
6
45
9
-6
-67
-19
-15
-21
0
-10
-70
-9
12
1
4
7
-10
-2
16
-5
4
8
-14
-3
20
-2
45
-1
6
4
5
15
13
0
57
27
-21
2
1
-17
-4
-2
-18
-13
-2
8
12
19
-15
17
-8
2
1
-7
-5
-2
-4
117
57
-4
-37
-74
29
57
13
12
-19
2
-13
14
6
33
27
-72
83
-27
0
9
-50
5
-9
-35
-28
-35
54
-9
-4
14
14
3
12
-17
3
-11
8
0
-6
40
4
-7
44
2
-14
3
47
-13
-10
-19
-2
8
24
45
5
-14
-6
7
-41
-24
-9
13
37
32
23
-10
-12
-44
1
-12
55
0
-53
9
14
2
32
-62
-52
-16
9
7
5
97
80
-5
-5
6
-41
-9
5
-66
-3
-49
-6
6
58
52
-35
9
-2
-33
0
-1
-28
-10
-9
-21
-3
31
-18
24
-10
3
-6
-25
1
3
-12
3
15
11
7
1
11
5
-15
1
1
-6
2
2
0
5
-14
7
8
4
-2
0
2
5
-14
-5
-7
-43
-10
-1
-5
23
26
-11
2
-11
8
37
-5
-5
14
5
31
27
2
-7
9
11
7
-25
-30
9
23
-42
4
43
34
16
-5
8
-2
30
35
-22
22
-28
11
-16
12
7
-6
104
6
5
52
25
29
7
20
-8
18
5
9
9
-13
-37
4
49
12
10
-6
-1
-14
-23
-2
5
5
-3
-23
-26
-59
-11
-2
-31
-31
6
-6
-28
7
7
-14
34
26
29
-33
4
-29
28
-3
-6
66
8
-42
-24
6
10
-42
54
15
5
53
-90
15
-14
32
-13
9
-9
72
-16
-27
-31
3
22
7
-2
-59
36
-16
12
11
-6
-61
-1
-32
4
9
10
-20
41
-1
42
-35
8
12
9
1
51
-5
2
22
1
-2
0
4
0
1
-3
-1
1
-2
-2
6
3
0
3
9
0
0
-3
1
-2
19
12
-12
-15
30
2
-13
-47
17
8
-7
-5
-12
-21
13
26
-1
10
67
-2
-18
-6
12
-12
2
-4
-3
-3
8
-1
0
-1
-3
-3
8
5
-3
0
-5
-4
6
-4
12
-2
-3
4
-2
-2
7
1
-22
9
14
1
18
-4
53
4
-3
-12
-9
18
48
-4
-20
4
40
3
9
23
6
-60
-21
-5
56
7
-27
-4
-6
-113
24
-8
12
28
11
-23
36
47
-15
43
-53
13
6
-57
-14
-19
-2
-3
-27
-9
12
-1
1
6
-5
4
8
-1
6
9
2
-7
3
-12
7
1
4
6
3
3
-5
7
-10
-2
-5
3
-2
-7
1
-6
-6
6
4
-5
4
5
1
-3
0
1
4
-5
2
0
4
6
7
-4
-12
-4
1
29
-6
13
12
-3
13
9
5
-1
17
-10
-2
6
16
-2
3
9
3
7
23
3
5
1
5
15
5
5
0
4
-1
-2
6
-3
6
3
0
2
6
6
3
3
5
3
-14
3
-2
2
-6
-9
0
-5
-3
4
-3
-5
4
3
3
3
-22
0
2
-3
0
3
4
-4
8
-1
3
-1
-2
4
-7
-2
2
0
-5
1
-10
-1
3
0
17
2
-1
9
2
0
5
1
-67
31
42
-15
-1
-9
-9
3
-17
-8
0
-19
30
30
-49
27
-14
34
-53
7
3
-13
7
6
-7
9
-14
6
-1
-10
0
-1
-14
0
18
-18
5
1
-5
6
-23
1
4
-8
0
0
1
-2
27
1
-9
5
6
2
-4
3
-13
-5
4
7
-5
-8
-16
6
3
4
-5
2
1
-9
42
9
14
-20
24
-4
-29
-38
-43
9
16
19
-19
127
45
5
18
-19
0
-5
1
-56
8
-27
1
22
67
-21
29
-21
0
22
21
10
21
8
-10
15
1
-35
34
-26
-12
-7
5
15
2
10
-22
-29
44
4
4
-14
-6
50
-66
5
50
3
-9
-18
-54
-6
45
0
90
-6
-1
-41
-4
-125
19
4
-37
-6
67
-52
11
29
95
2
-16
4
-21
17
104
12
-42
-21
-18
-10
54
43
-8
0
6
-6
-45
-9
7
3
-6
-8
-3
6
19
8
12
-6
-1
-17
3
15
3
5
-27
-11
-1
3
5
-2
48
20
-7
-1
0
1
17
5
-10
3
-1
-4
22
11
5
6
15
3
7
4
2
0
4
-15
-22
-5
38
-7
8
6
-11
7
21
5
5
16
19
-33
6
10
17
-4
-12
0
-4
5
-80
-10
24
-8
3
9
49
60
1
19
0
4
-1
-44
-61
-22
-5
-27
-16
-12
3
-49
0
0
2
-9
30
-2
8
-5
-7
12
-6
-5
10
5
8
6
-3
5
-11
-8
22
-2
4
2
3
2
6
-15
30
-24
-30
0
3
13
20
-6
-2
27
13
32
15
19
-7
-87
0
-9
13
-1
-1
-2
4
-7
12
2
5
1
2
-4
-18
-2
-12
-2
-1
2
-3
6
3
11
-9
-4
15
6
4
6
8
2
-37
0
3
3
-7
16
0
0
4
2
2
6
7
3
17
-14
5
-6
0
1
1
0
-20
3
0
-8
0
5
0
-23
32
1
-4
18
0
24
-7
3
-1
8
-42
-1
3
16
-2
-8
15
8
33
-36
8
-9
-7
15
8
6
32
14
-11
19
22
-31
23
-21
10
-30
-6
13
5
-23
6
24
-11
9
-61
-13
-8
22
14
9
2
-7
-5
-24
1
-36
21
22
-6
-2
-9
11
8
-3
15
40
8
-24
-5
-24
11
-9
-25
8
31
-2
-22
-11
-4
-6
-5
16
9
7
-24
9
3
8
1
2
13
2
-3
-1
-11
-39
1
-2
-5
9
-13
23
2
14
-7
4
43
3
4
-10
-4
-1
-14
8
2
-30
18
-12
1
-46
-10
-14
-9
27
6
-15
14
18
5
5
-1
-1
11
98
-3
6
5
-18
21
1
28
3
1
-37
-13
5
-53
13
67
14
9
8
42
-57
-32
-8
64
-9
-13
17
-8
-66
47
24
30
-127
-8
17
9
7
22
14
11
4
-1
26
23
-1
8
9
56
12
-127
15
22
-9
32
22
40
-16
10
24
19
10
21
-9
-5
-4
9
4
-10
47
44
2
-2
-10
-24
1
-4
12
-38
-15
14
6
-6
2
-19
2
9
7
24
2
-20
-41
-3
9
-36
-3
14
3
5
-1
5
32
-40
-6
-9
53
-17
-5
-8
10
-51
-2
8
20
-22
-49
43
76
-25
-14
-2
-40
-12
-3
-3
-14
22
-5
82
-10
18
-127
-17
15
20
-4
-27
-14
3
57
13
30
58
4
-12
-26
-19
8
-21
7
-52
11
-16
-20
-31
-6
9
7
25
-127
11
-67
127
-24
65
9
-33
-17
29
-5
11
4
-26
4
49
10
-8
2
7
-11
-2
1
-7
-6
-8
-1
-16
10
2
6
12
-3
-5
-18
-2
-7
-3
1
10
1
4
1
3
2
7
1
2
-1
0
1
12
1
-2
1
14
1
1
-1
2
-1
-7
8
-13
22
22
-7
-88
-7
-24
13
-3
18
12
52
24
-21
18
-3
-37
-3
-5
27
9
-24
2
-2
4
-4
15
0
2
13
3
3
7
7
-3
10
3
-10
4
-6
1
0
0
12
2
5
-23
6
3
25
0
21
-28
-33
-34
-14
-3
-1
2
-8
-4
9
-16
9
63
-18
-2
-15
10
1
-15
-1
-60
25
-15
26
72
27
27
-8
29
-32
-47
23
8
55
13
-65
55
-41
33
-22
2
-27
-6
2
3
-2
-4
0
7
-1
3
-7
-4
3
1
-2
1
-3
0
-1
-2
1
1
-4
1
2
5
-4
-24
6
4
-1
-1
-2
5
0
0
-1
1
-1
-8
-4
4
8
-14
0
1
5
0
0
11
-70
36
-13
-48
-34
6
-19
-2
-13
9
2
7
-17
12
45
5
42
2
35
4
2
-9
-69
-13
-2
5
4
-4
5
2
19
6
-7
9
4
-3
-3
-5
-18
23
-1
-14
0
-8
11
-5
-7
1
7
4
7
-28
2
-6
-28
1
3
-28
-2
25
-20
-2
15
-12
4
18
0
22
-20
11
1
4
12
26
12
-37
-9
6
-3
-36
5
4
-23
7
30
-50
-8
5
13
-8
3
24
-8
8
50
0
2
-21
1
-5
0
9
-20
-16
11
-5
14
2
-9
0
12
23
-2
-13
-1
21
26
6
-5
-5
2
-23
7
-8
-2
-2
-1
-3
-5
-2
4
9
-6
1
4
-8
1
-22
-7
11
-3
-2
5
-52
17
12
-33
37
9
10
62
27
-1
33
14
22
56
34
-76
1
-19
60
6
-6
18
21
9
-23
-12
38
-21
17
-8
-7
-9
5
-10
10
-17
24
-26
-7
-47
6
-6
22
-2
12
4
0
0
-7
-6
-8
-1
-1
-2
8
-4
8
-4
4
6
12
5
15
22
6
-24
-13
-5
6
0
-2
0
2
-2
14
-2
0
-1
0
5
-5
-1
-4
0
-1
1
-2
1
-4
3
14
1
-1
2
2
1
-2
5
-4
-4
10
6
-16
5
0
-6
1
20
5
-6
-9
-28
4
1
-24
2
0
-2
-1
2
-3
4
22
-6
-4
7
0
-15
6
-4
-1
5
-3
5
5
3
-21
9
-9
-2
2
10
-1
-13
13
-7
-4
11
-36
-6
-13
53
-24
-1
-7
0
-2
20
-10
3
-16
-40
97
2
-25
10
5
19
-11
-12
-38
-4
14
1
4
40
15
12
43
8
7
15
-8
12
-23
-30
8
0
-13
7
-4
2
6
-29
4
-18
-32
7
-24
-92
-36
-17
-43
-11
127
4
27
36
41
-60
-83
7
24
7
-5
11
-2
1
8
-2
-1
-2
2
1
1
-5
-1
-2
-5
1
0
7
-9
-8
12
-1
-1
0
1
2
-5
4
5
2
-2
0
0
-6
-2
-5
-1
5
-6
-5
0
1
3
0
-3
-1
2
0
-1
5
-30
37
-28
-5
2
21
-17
20
-2
-7
6
-9
-38
16
-3
8
-24
52
-27
0
97
8
8
10
-6
1
31
11
-26
-3
5
-18
-14
-11
-7
-12
0
-13
11
-6
-13
1
10
-3
-3
-11
-2
1
40
6
-12
-29
17
-9
-10
55
-24
-33
-25
-11
5
40
24
-37
-2
-9
-34
-9
4
30
10
-5
15
26
13
-42
10
11
-14
8
-20
3
25
7
-6
11
-7
-14
9
-39
1
0
-7
-7
2
-18
-28
-2
-7
-7
46
-2
28
4
1
16
17
13
15
-12
-1
2
21
-21
-28
-7
16
4
4
12
13
0
42
-20
-9
-4
12
50
-10
-3
12
-3
13
-47
33
18
-22
0
19
-8
-10
53
-2
-17
5
-2
5
-3
0
2
-1
-16
-7
-5
15
8
1
4
-1
-9
-1
-11
42
0
-23
-16
-13
6
10
20
-2
10
0
1
2
7
6
16
6
-12
5
23
3
-7
0
-1
21
11
-2
1
7
0
-1
-4
-34
-6
11
0
2
6
-17
3
16
0
14
6
11
2
-4
-20
-20
-7
9
5
0
4
4
-6
4
13
-20
6
-3
-7
10
2
-2
-7
2
2
-6
-3
-4
16
22
0
-1
-3
3
5
6
-8
35
2
-119
-17
47
50
-32
-9
-32
-22
28
-31
15
12
45
-79
-11
-3
-12
-29
5
-2
-18
-21
2
16
-20
-2
6
-46
19
13
-29
26
-31
-27
-4
10
3
79
37
17
25
-11
-3
13
5
-3
-13
14
36
4
-8
-14
17
-3
-1
-12
21
28
0
-23
-22
7
77
-5
-3
22
6
-8
47
-7
16
18
-7
4
-20
-43
-81
-1
-6
13
-15
26
84
-14
12
-2
-4
4
-11
-4
4
98
-26
-9
-83
48
-2
62
-11
-22
-66
1
-93
-12
12
-23
-53
44
-14
29
-56
77
10
-37
-2
-19
-7
-5
-15
4
-5
2
4
-4
3
-1
-4
0
14
1
-6
-4
-8
5
5
-1
3
3
1
3
42
24
9
-27
73
11
-1
119
3
27
1
-10
6
43
-2
-78
9
-72
-57
7
13
57
21
0
-19
18
-3
-14
19
8
16
-46
-19
-3
-27
-38
12
52
44
48
-9
-22
-31
12
-27
17
-2
-6
23
-21
39
11
21
-13
-11
-23
3
7
-3
25
-12
22
-11
19
11
-61
30
6
20
-1
15
-7
-7
-12
1
19
8
5
5
-1
2
9
-2
8
8
16
1
3
-6
32
-74
12
12
-16
7
1
-10
-57
-21
116
14
-59
-20
2
-40
29
-62
14
16
38
-33
-48
73
-60
11
-29
8
8
7
-4
-6
11
39
-37
36
4
-3
-19
-18
-12
8
-5
0
-9
-31
21
26
-45
58
-7
-12
32
5
9
-1
7
5
0
2
1
1
4
4
3
0
-1
4
5
5
-3
-4
3
-23
1
6
2
3
-1
2
-1
-5
-4
5
0
0
5
2
-4
6
4
-4
-1
-1
-9
3
-6
-3
1
1
-3
1
1
-32
20
18
24
-80
-12
-27
58
21
-15
25
-49
19
-19
16
21
-39
-19
62
0
-17
-8
-2
-18
-28
11
-14
0
7
3
-29
-43
26
3
10
11
-4
56
-27
23
9
7
-29
-1
-9
0
5
-29
89
14
11
-2
19
11
-4
37
21
-9
39
-7
8
33
14
-3
-38
-7
47
5
-14
-102
22
-7
-32
15
-13
-23
-101
-11
7
47
-3
5
21
20
-16
-3
-13
-45
12
4
23
4
-1
19
4
5
-2
-15
-9
15
-9
-11
-25
33
12
-2
2
9
18
33
-14
-25
-2
-58
21
5
21
18
9
0
69
-9
-22
18
22
-10
-40
-18
-2
8
46
-33
0
31
-8
-23
-12
-29
-23
-17
13
22
2
13
-26
7
12
-8
-55
-12
-50
-43
27
-7
21
74
13
17
-36
21
22
-17
10
2
-38
2
0
7
-24
14
37
25
-49
16
-10
71
-2
-127
-5
11
6
32
-66
35
62
6
-13
-127
-26
36
13
16
-4
4
14
1
3
0
7
11
4
-2
-4
-2
-4
6
9
-3
-1
1
-11
1
3
1
4
0
19
-10
-30
10
13
2
28
-82
19
-11
-25
52
21
25
62
55
-25
19
-18
14
-18
-30
-5
-31
1
5
19
-7
9
1
10
3
10
-1
0
-3
-4
-11
11
0
-7
25
-31
2
-1
-6
2
2
2
5
-5
3
112
10
8
-89
14
-44
19
2
-18
-44
19
0
-30
16
24
-22
1
-18
6
19
28
-2
24
21
-33
-15
-12
-7
5
11
2
25
-15
-27
11
-29
13
19
-24
-4
33
4
-7
12
6
12
-90
13
-16
-18
-3
8
0
-1
33
3
-47
14
1
17
-25
42
-3
-5
-32
7
7
-5
-5
8
-46
-7
21
8
-20
-2
30
12
27
-15
-15
-11
18
-6
-7
6
-9
2
-4
-15
0
-15
0
3
4
4
6
0
8
0
11
1
2
12
-15
1
2
4
8
10
-11
-1
-1
7
3
3
13
0
-24
-7
-31
-9
40
11
-7
-9
15
36
25
-42
9
-10
-26
-3
-9
5
27
-24
8
-101
28
-7
-18
44
5
-19
-5
-70
6
-45
21
5
-45
-6
-14
27
95
-34
31
-17
37
-38
-3
8
6
-1
32
-5
4
-4
-2
-5
0
3
-2
3
-3
1
1
-4
-12
8
32
-1
-13
13
-1
2
5
3
-6
-5
8
-1
-2
7
-1
1
10
7
-2
2
-7
-7
7
-13
-4
0
1
3
0
0
-2
-3
-34
0
5
6
-20
30
-40
17
-8
-10
0
9
-31
-2
20
-16
127
-4
0
15
9
10
23
7
-3
6
-24
3
1
35
6
-1
-4
-2
-10
19
33
9
-8
-11
78
0
-52
4
-8
2
-2
1
-1
2
0
1
2
2
1
2
0
-1
2
-2
-6
0
-2
6
10
1
1
2
2
3
2
10
-31
-17
25
19
23
69
-21
2
20
11
-2
0
8
16
-55
25
8
11
-37
8
-7
-8
-22
8
6
6
-55
-9
-2
33
-13
-12
11
36
8
42
-6
-71
1
23
-19
-12
36
-11
-1
-15
-9
-24
56
28
-106
-18
13
-55
-6
-14
-3
2
16
-54
25
127
-4
18
11
-3
60
6
6
-2
-5
-4
4
-2
5
-2
3
21
0
11
6
14
7
6
-10
-17
0
0
21
2
-2
-3
0
-5
-4
-13
-17
-32
-78
-7
-14
77
15
-5
8
15
25
22
18
8
-19
-5
-10
14
7
20
7
-5
35
0
-12
-4
-34
-40
4
15
0
11
-21
6
9
11
-5
-39
29
-13
29
-1
-1
52
-9
3
1
-13
2
18
6
-8
-13
-6
-25
8
0
9
9
3
-6
-35
-5
-13
12
0
11
2
4
-1
-6
9
80
-8
-12
-5
15
-4
-18
-8
-7
15
-8
-29
-5
3
-9
5
15
-4
-4
-10
-7
-27
0
-2
2
-6
5
-1
-1
1
-11
2
6
1
-1
3
-2
0
1
-6
3
1
-1
7
2
-1
-18
5
28
1
1
6
-1
-15
-22
-4
5
1
-2
-7
7
11
-16
4
-22
-3
-5
-7
9
-4
0
-6
53
-2
14
4
33
1
7
10
5
-10
15
12
-60
-3
22
-21
-7
-3
-3
19
0
50
95
3
-26
12
-54
2
-6
-87
31
0
7
15
12
-13
-82
-7
2
-1
-20
0
-3
127
-4
11
-3
-8
62
22
-23
-13
-13
-1
-11
1
5
-26
0
15
20
-19
-54
-1
-18
1
27
-10
4
-1
-1
0
-9
0
1
1
0
-2
1
-5
-1
3
-1
-3
0
-4
0
1
13
1
-1
1
1
2
8
-1
24
-26
-22
0
3
-27
-12
3
-14
8
13
-17
33
1
16
-7
-5
1
46
-19
13
0
20
9
-2
-4
-19
4
0
-24
-11
3
-17
6
-13
-44
4
0
18
-23
-31
6
-14
-25
-2
-33
8
-2
-1
0
8
3
0
8
7
3
-4
7
-10
9
-6
-7
14
7
22
1
-8
3
1
7
-6
0
1
-3
7
-1
2
2
4
0
9
5
0
6
-6
0
0
-2
-1
0
-3
1
-2
1
-9
4
44
46
-39
7
3
-29
-8
-1
-32
-9
-2
-11
2
52
-12
27
-7
-1
-1
-24
-1
0
-1
1
-35
6
-10
3
7
-10
9
-5
-3
-6
2
-12
-11
6
4
12
-6
-4
6
-8
-4
-2
0
-3
12
9
39
3
-9
-28
14
12
12
-11
-1
-10
2
-23
16
17
1
-3
28
-5
3
9
-15
-20
-6
-2
-59
-19
18
107
43
-12
0
13
13
45
13
-62
2
3
24
20
36
21
5
-5
25
12
38
15
-5
-14
-2
-20
37
12
-14
25
4
-52
-13
-2
27
-12
-28
5
11
-14
-1
5
-45
30
-4
-22
18
9
39
24
-1
-6
-4
-21
-12
-9
4
-15
-12
37
-7
-12
-7
-4
-2
1
-33
5
13
14
2
-4
27
9
-23
9
-9
88
-6
17
-64
-39
-57
19
76
1
15
9
18
32
12
2
2
3
1
-3
-4
1
4
7
-1
16
4
7
10
2
14
1
6
4
1
-11
-3
4
4
1
11
6
7
0
4
6
7
1
-2
-2
-5
1
6
-6
2
1
-9
1
-1
-1
0
-2
-5
16
67
-9
-11
-38
10
-4
7
4
-5
25
3
5
14
9
-5
-21
11
-11
20
7
2
-4
-16
-8
15
-8
-10
7
-41
-29
-27
-1
13
-28
3
20
43
19
13
17
3
0
6
-27
3
6
-6
8
-11
-24
20
-5
11
28
-28
8
3
-6
11
8
-3
-5
14
-10
65
3
-1
3
4
-7
24
3
23
18
-80
19
-3
36
16
0
-20
12
-21
10
-22
18
7
2
-60
-5
-27
10
17
7
-17
3
86
-12
-25
-2
8
28
17
-1
-28
-11
66
20
8
11
2
-61
-30
36
-19
-12
9
1
-29
32
16
19
-41
14
21
102
-43
5
-11
-23
-3
3
-74
-51
-18
-49
-95
-18
46
21
-3
-6
-22
-23
51
-22
49
-6
-8
-27
11
1
13
-16
-20
-25
1
6
-7
62
-53
0
22
0
-19
5
4
-1
-7
2
-3
0
2
-19
8
-9
-5
17
-2
-7
2
7
7
4
-3
2
-5
-9
-2
-2
1
-6
-55
29
36
7
6
-26
-13
-20
33
0
24
-4
40
11
-43
38
2
-17
-41
-12
9
-2
9
-35
11
-13
-11
-4
6
7
-13
3
25
24
-6
-3
-43
10
4
-16
-28
-27
5
-35
-6
4
-14
-5
0
18
-51
-15
49
-72
62
-11
4
8
-10
88
16
-13
-35
14
1
-8
14
-20
7
-25
7
2
23
1
5
-1
10
-7
23
-5
-3
0
-4
-2
16
-5
-4
1
-19
-1
3
1
-3
0
1
-8
-21
20
-24
-6
-7
-21
3
12
-9
-2
10
-11
-3
0
4
5
20
1
16
-10
3
0
-5
18
41
36
-16
-14
-8
-22
47
-2
-9
10
-9
31
37
1
21
1
-22
-14
-4
33
-7
4
9
-6
-72
10
42
77
-43
13
-16
-5
-127
-12
17
4
-9
-75
1
47
11
70
20
19
8
-20
26
-11
36
-18
14
3
-12
8
-10
3
6
-10
3
20
-52
-8
-43
20
-20
-10
16
43
3
1
0
8
-10
-15
15
-3
3
-18
-6
-2
2
-10
-21
-18
10
-8
-2
5
4
8
10
13
3
-2
-4
8
-29
2
18
4
-9
10
17
-17
4
-4
4
0
-16
-14
-58
14
10
-21
-29
9
-12
0
6
24
-75
-19
61
4
-3
-4
-19
19
15
-3
-24
16
20
-25
-20
-16
-30
19
-1
14
1
-4
3
-2
-19
2
-1
4
-1
-20
2
-2
7
14
9
-7
-1
-2
-1
3
-29
-2
9
-3
2
4
-3
2
-2
-5
0
0
3
0
1
-3
-1
3
-3
-2
5
-5
2
3
-2
1
-1
-4
0
-1
-46
11
-46
-19
0
-20
-67
-65
127
14
21
-5
-3
61
-8
-14
26
5
37
-14
24
6
11
-127
-14
-25
13
21
-13
-20
-12
21
16
-26
-21
11
-1
2
-2
-92
2
-6
-7
-13
33
0
9
-1
20
-4
-12
3
-13
-2
-20
-50
0
5
-5
7
9
-34
62
37
-26
7
3
9
14
10
-2
33
-6
-3
-36
4
2
2
0
-7
-4
-4
4
0
13
-2
-8
0
6
3
12
-5
-6
0
-2
-3
-2
-4
-20
-10
13
3
8
6
-5
3
11
10
3
11
5
-9
6
-10
4
0
5
6
2
1
-2
1
-20
-6
9
8
-4
2
-7
-2
-1
9
7
5
-6
6
4
-9
-14
0
-4
0
-1
0
-127
-1
7
-14
45
21
43
91
-59
7
33
21
-17
35
32
-32
9
-37
69
-6
-25
-6
6
27
-22
5
27
-30
-14
-27
8
83
18
-21
52
-1
0
33
13
14
-5
-71
45
-43
2
-2
14
5
-7
-3
41
-29
20
-7
25
-52
74
18
-13
-17
1
32
-83
52
74
-26
-47
16
-34
60
-8
-23
-4
8
-1
-11
-95
8
-8
16
7
6
10
-21
-85
-10
12
-11
44
103
-63
16
75
12
7
0
12
-127
13
14
7
-42
18
-26
-6
2
-10
-5
26
33
15
3
17
-33
42
14
-6
9
-64
-4
6
9
16
-8
10
-3
-5
10
0
-9
-30
36
52
26
-7
-58
66
-17
-24
-14
27
28
1
-4
-14
-4
-1
-2
-9
5
10
-18
1
4
0
1
-1
8
17
6
27
0
47
0
3
-1
0
-6
-29
3
50
50
71
-2
1
-122
9
-8
14
-19
-57
-30
0
52
45
86
92
-9
27
-37
-5
19
51
-3
-70
3
-4
24
-8
96
118
20
-2
-12
17
-64
-92
40
33
-12
36
-15
12
-95
6
-53
41
1
37
-1
75
-12
26
-66
-23
6
-36
45
-22
-10
2
-30
67
64
-64
-13
35
-13
-13
-16
28
-10
77
2
-35
-10
5
22
-22
10
22
41
-18
22
14
-11
-48
-16
39
-18
-14
-18
-6
7
2
4
-25
-9
5
-1
-5
0
1
0
19
27
10
4
-10
-18
4
-14
-22
-7
3
1
-4
3
-7
-1
-1
-5
11
-1
0
9
-1
1
7
1
-3
7
-3
-7
1
-6
0
0
-1
6
3
-1
2
3
38
10
-14
2
12
-12
4
-2
-5
-1
-1
1
-12
12
-11
7
-3
-6
-6
0
-3
5
-6
-3
17
11
1
9
2
-1
-12
-11
-8
-4
-13
-6
2
8
5
0
-10
-1
-2
10
-1
0
15
13
-7
12
-43
32
27
28
109
-6
37
2
18
-39
-38
2
-26
-3
21
-1
-9
-33
-4
3
4
-4
6
9
1
-1
2
2
-2
3
-5
5
3
6
5
-1
3
-2
4
2
4
0
1
1
2
3
4
-1
3
0
-8
-4
2
-3
-1
8
3
-7
8
-5
-7
-3
-39
3
3
-7
-1
0
-23
-47
-11
0
12
-7
-3
49
-9
-14
10
13
-17
-8
-28
57
-6
77
20
1
-41
10
-27
3
0
-6
-25
-4
10
-1
1
10
-5
-1
5
5
6
4
4
-3
8
-9
4
0
0
4
1
3
-13
11
2
-6
15
4
-6
11
2
-6
-2
-14
9
-2
5
-16
0
-1
-31
1
10
3
4
1
-23
6
106
-10
-59
-24
19
22
-7
-1
-10
27
36
-11
-5
24
10
-69
84
-1
-64
-16
-7
-9
-20
4
5
-21
-13
1
-14
-16
-11
1
26
4
10
59
18
-2
17
-2
9
-13
-1
-32
-3
-37
-3
4
-9
0
1
2
-4
-4
-11
-3
-3
2
-5
-5
-2
1
2
6
-2
2
1
-2
1
2
-8
1
3
0
5
-2
1
-2
-1
-5
5
2
-2
1
2
-3
6
-7
-9
-1
0
-6
-3
-1
-1
0
-17
-3
9
1
-3
-2
5
-2
1
7
7
-1
3
-4
8
-6
-7
-1
6
3
3
1
3
2
-40
11
-11
2
4
-12
-4
-7
5
-1
5
-9
-5
6
7
5
-7
-6
2
-16
-3
2
-17
12
-23
-9
38
-10
-3
56
32
0
-9
45
5
-110
-36
36
-47
13
-5
8
-24
-24
-3
-10
-8
4
-6
-23
-37
-13
56
34
-26
11
-15
47
-27
-3
-38
68
37
22
110
-22
-69
59
-6
5
1
9
-8
-14
4
-7
3
-2
18
1
27
2
3
13
19
-22
1
5
-57
-3
7
-1
-11
-5
14
-7
8
-14
33
-9
-8
-12
-18
4
1
-5
-7
-11
2
12
18
-4
9
-1
4
19
3
74
-4
-2
1
-8
-5
2
-4
-21
-5
-10
-13
-3
-2
-1
14
-1
-14
15
1
1
-6
-6
-3
-9
28
-14
11
-23
-15
20
-4
35
4
-7
-20
-6
-4
37
5
-28
14
-30
-15
19
11
8
5
-1
4
0
-8
-9
8
2
2
7
-3
0
9
0
4
7
-5
-13
3
3
1
-1
-4
0
1
1
-5
-7
-13
20
-7
8
127
-67
9
4
-17
-15
-1
25
9
-49
-23
56
36
-10
0
36
1
-94
13
-11
23
2
-12
-15
-16
9
5
3
28
27
5
9
1
-28
-24
1
35
-8
-17
-13
-1
5
2
-7
-20
-6
-2
-3
-9
3
-12
1
-2
2
-2
5
-4
-2
6
-4
13
5
-4
-3
5
10
0
49
-32
-69
88
-17
-22
95
-11
23
43
35
-12
55
9
-76
45
-59
57
-4
-32
59
6
10
-60
-7
-26
-4
-2
4
-29
65
36
-2
-16
93
-17
-93
85
73
31
18
23
-10
-2
35
-1
-39
16
13
-27
7
31
-4
-3
23
10
-42
27
-21
-82
13
13
89
17
-62
34
-6
25
4
-10
5
6
9
-24
-1
1
1
-9
-9
-3
-5
-7
6
5
-8
7
0
2
4
-20
1
2
-4
-1
1
6
15
-31
-12
39
-6
1
-12
13
8
-3
29
4
-5
3
-40
9
0
-16
2
0
3
-4
-9
9
2
44
18
-28
-5
3
-22
-12
-5
-9
-2
-9
-9
5
22
-19
-6
-23
-4
5
-22
-7
1
-7
6
127
34
18
-4
-1
-68
-17
-10
-47
2
77
-10
20
-105
127
9
4
-5
71
-20
4
-12
8
-6
16
-1
28
-6
-19
-33
2
-4
2
4
23
-3
-4
22
-17
-16
1
-11
-15
-4
-7
-1
-31
-32
31
-7
-31
-4
-6
58
-36
11
43
-8
1
-18
-61
-4
-5
21
69
-23
-1
-58
-12
98
-4
-3
-56
-23
6
9
7
12
-1
-2
31
4
8
8
4
-32
4
3
18
5
2
7
-2
-5
-23
5
-20
16
-19
-16
-10
-26
-34
8
7
15
18
3
-35
0
-57
-4
-26
3
7
18
-6
-9
0
2
-26
5
-7
1
-3
-12
0
-7
-4
-4
3
-7
-3
3
0
8
-19
2
-4
-7
-2
-6
7
-7
-12
14
-7
-4
-11
3
17
10
1
25
24
-14
8
-1
12
-5
43
7
14
-20
-2
16
-17
20
-104
50
-70
-28
-9
4
-5
-20
27
-8
-58
7
7
-33
-74
127
-34
-12
-1
-5
0
8
69
1
15
-15
29
1
29
-21
-33
9
-7
34
-12
18
-50
8
34
8
-2
-5
-3
-56
-4
30
18
-11
-21
-3
-27
-6
7
-7
-4
22
-7
-8
3
14
-23
66
13
-23
15
27
-34
16
-11
-5
-4
2
-18
-4
0
3
-1
-4
4
-5
-2
4
4
1
0
-3
0
3
-25
2
0
2
2
1
11
18
14
-7
17
4
1
-39
-14
-7
-12
-23
8
-6
5
4
-2
55
-17
10
-2
-5
2
5
13
-33
38
-7
8
41
24
25
5
-3
-63
15
13
8
0
-8
-16
-116
23
-87
20
30
-3
-24
-15
3
11
-5
18
11
4
17
3
1
8
-9
-1
-4
-3
-21
5
17
-21
-10
-3
14
9
0
4
-13
41
-6
4
-9
8
-13
9
12
7
1
15
-16
-3
-23
1
-4
25
0
21
1
0
1
-2
-7
5
-4
-1
5
6
-7
-5
-2
1
-4
-4
-9
-1
1
2
8
9
-3
-3
-5
0
-6
15
12
-28
15
42
10
4
-14
6
38
26
2
-10
0
26
67
-28
10
-1
-13
-6
4
-10
-3
4
8
-26
127
-22
-29
-15
4
-23
19
-18
17
-4
7
-30
-20
9
-6
2
7
17
-4
-12
-7
10
-6
24
16
-4
-12
-28
-80
83
-9
12
29
6
54
27
6
-25
15
21
-4
-4
46
-9
-17
3
31
-66
-1
12
26
5
-7
-44
-44
5
39
87
-2
-45
-20
-92
60
-103
-29
-98
59
6
17
0
1
4
1
-4
-1
1
9
0
4
4
-5
7
-8
0
-8
0
-4
0
0
-2
1
1
-4
2
-10
-7
2
40
-3
2
-16
-3
4
5
-12
-30
-24
-8
-8
5
5
0
11
36
3
7
-8
-10
17
21
-2
-13
6
-10
13
10
6
-17
80
-7
-96
107
-1
18
6
-15
1
-30
95
1
-14
-11
-12
12
12
47
-3
-16
69
16
-3
-11
6
22
49
5
-31
13
-39
3
3
41
21
6
15
-3
-4
-4
-24
10
11
8
-53
11
16
-2
-1
25
9
8
22
15
-27
29
-5
7
-7
9
-15
5
-5
15
17
-14
4
0
-6
0
1
-8
1
2
2
-4
0
-8
11
-9
-1
-1
5
0
-2
-1
-3
-9
-3
6
-2
-3
8
4
0
10
10
0
1
-1
-14
8
-5
-1
0
-3
4
-1
2
1
-4
-12
0
2
-2
-3
-1
-8
0
7
5
5
3
-1
-7
5
-11
-15
-1
6
-2
-1
-5
-4
-12
3
40
28
4
31
46
-29
8
1
-16
15
-48
36
-90
10
8
-33
-4
0
-1
6
-1
2
-1
70
32
-38
-11
-25
-2
22
-14
19
60
-19
-8
16
26
-26
-8
28
-11
12
-18
8
14
5
-1
38
14
-24
-2
13
-30
8
-2
-4
5
8
-9
32
-47
1
116
52
25
-28
-12
0
-2
18
3
16
-2
16
2
1
2
28
12
3
1
1
10
24
3
-4
2
-25
2
10
23
3
-23
-27
-5
-20
-15
12
2
4
34
1
3
0
8
3
8
31
8
1
-16
-13
2
3
-3
0
-30
8
9
13
5
-7
-17
-9
-23
-33
-4
2
-19
4
12
2
13
-33
12
36
-22
-4
-9
1
-2
-17
3
-25
-8
-62
20
-45
48
-6
0
-6
-19
-26
-10
-10
75
15
35
-42
-10
-15
2
-6
1
8
-4
-8
-4
9
0
4
7
3
1
5
1
-2
1
2
-12
8
-5
-4
1
-4
3
1
-2
-5
14
14
-11
21
12
-1
17
18
1
-8
19
-16
34
-12
-67
-30
16
-9
-5
-21
-13
10
-1
-49
28
19
-18
-24
5
35
34
-66
14
6
-16
15
2
-32
-21
9
6
48
-2
3
-35
11
38
-15
-8
17
-9
7
6
-2
8
-7
7
9
-3
1
15
-14
-17
1
6
9
3
-1
9
6
8
0
-1
-15
-1
4
1
-3
-2
0
-1
3
12
4
-2
-1
7
0
-15
2
0
-1
-4
-2
6
8
-6
24
-2
0
1
3
5
6
9
-17
6
-3
8
-8
-7
-8
11
-4
6
-6
2
1
-8
-2
0
-6
-3
1
-1
1
-4
-7
-4
1
-4
-5
-1
4
2
5
-6
9
-1
2
-1
3
0
16
-25
-20
0
54
-37
2
92
2
4
44
19
-22
34
10
20
-18
33
-24
10
-63
29
-20
1
11
-8
-26
-20
-6
2
40
-59
-9
1
14
41
4
-6
-85
9
7
-4
-7
-3
1
39
-11
5
18
-27
12
-1
3
-1
29
5
-18
11
11
-62
-3
-29
53
-14
43
3
16
-3
-58
-26
-12
36
36
-20
50
-82
77
33
20
25
18
16
44
5
-13
14
31
-32
8
-25
74
-37
-21
32
9
-84
-8
-18
-112
25
7
24
7
-81
-13
15
-10
33
70
-6
-36
110
-110
-66
-10
3
-75
-20
-11
8
-12
-3
12
2
64
-3
9
-16
-4
-1
3
2
2
-14
0
1
-17
9
9
-6
30
28
3
-10
-16
-9
-19
-25
11
7
10
-60
-9
-2
8
34
13
26
20
25
11
-1
-24
8
-17
-17
-3
-13
-3
6
-24
2
-4
2
-4
-11
-2
-6
-4
-3
3
-8
-2
5
-4
4
-28
2
0
-4
0
-6
-4
-51
14
25
10
-5
-3
27
-5
-4
14
6
-13
49
-18
1
-7
-23
58
-10
15
9
3
-3
-36
7
58
-5
-10
-6
12
23
15
8
24
1
0
15
12
-8
14
-20
-49
-9
-12
-15
0
-18
36
11
60
-4
-10
-12
-22
-82
76
2
43
23
2
-29
-23
-9
-11
2
79
3
-26
-8
-11
-2
37
-6
-30
-50
-32
-21
47
-38
-64
7
-16
74
-19
16
-53
12
75
-18
-77
-1
61
23
-5
37
12
-9
-10
-29
0
-14
-4
44
-5
-1
25
14
-22
49
-52
-16
13
2
0
-16
-16
31
-4
10
-18
-2
-21
-3
-6
-1
33
-21
-12
-3
13
9
-19
9
-20
-16
26
28
-40
-10
20
-18
5
-12
-24
12
38
12
-8
-32
-11
-68
25
-2
7
26
86
-20
28
-86
-22
-5
45
2
124
-16
4
-3
-19
7
12
-3
-10
5
3
14
-4
-12
-5
-21
-6
-4
2
3
8
9
38
-6
-22
-5
0
-7
2
2
4
-2
6
-1
-2
1
-6
0
-1
5
-7
1
11
-10
3
0
10
4
4
1
4
-1
15
-29
-12
16
3
-1
2
9
43
-26
-5
34
-1
13
57
17
-42
18
73
13
12
-9
4
1
0
28
42
-18
-2
14
-15
0
7
-9
-5
-28
-3
22
50
-10
-25
21
33
-7
-30
-23
-4
-1
0
-1
-14
0
-1
-2
3
0
3
1
1
2
3
-5
-1
-3
-4
0
-28
2
13
-3
3
3
-2
1
9
-11
-3
4
-1
-3
5
-1
-6
9
3
6
-3
-1
-12
8
-19
-2
-1
7
1
-6
19
-3
43
8
-5
0
-10
-7
10
6
-19
4
-22
17
10
4
-19
-17
1
-10
27
-1
5
0
6
4
-49
-20
-27
1
16
20
-4
11
26
19
-12
6
3
-32
24
3
-12
0
1
-12
-4
-3
-1
4
-19
-1
3
1
-4
-11
0
-6
-2
-3
3
-5
12
4
-1
-4
-31
2
2
1
-2
-2
-2
-2
-20
18
-28
0
-1
-49
-50
9
4
2
15
-54
-20
25
-1
16
66
-4
13
-22
2
72
-19
4
39
-23
-3
22
1
62
-4
0
-14
-14
-16
-8
-3
11
9
-15
3
0
-7
-4
10
5
9
-6
21
-1
18
0
2
14
39
4
-8
11
-16
5
85
12
8
3
-79
12
0
7
-4
-50
2
0
5
-5
4
1
3
6
8
-1
-1
8
3
5
10
-10
3
5
-17
2
1
3
1
0
-8
3
27
-1
-6
2
2
-16
-10
-9
-4
-4
-7
-12
1
13
-27
2
-2
-3
1
-2
-1
-1
-15
-1
-10
27
-56
-17
-2
-44
58
8
-13
44
3
5
-42
-5
18
43
-72
-18
1
-50
2
-20
-3
9
26
0
-6
7
-3
-21
-2
-2
-9
-16
10
-12
-14
0
-13
6
-22
-3
-4
-1
-1
-17
7
1
-71
-20
49
7
-20
66
-86
19
-7
4
12
40
-51
-11
79
-30
74
-1
-9
50
2
-5
11
5
24
8
1
0
6
8
16
7
1
9
1
3
22
4
8
-1
3
1
6
2
1
-1
18
-24
-50
5
9
-28
23
-51
-13
6
22
14
18
-6
3
118
6
-34
6
-25
-26
-4
-3
19
-10
-1
28
3
5
-1
8
-2
2
-3
6
-11
-5
5
5
3
-15
0
-5
-1
1
-1
1
4
4
-1
-8
-2
5
0
0
6
0
0
0
5
2
-1
2
-7
3
-9
7
1
-2
1
2
3
4
3
8
-8
5
0
-1
10
2
0
6
-2
0
4
1
2
3
-5
22
1
-2
-2
1
8
32
7
31
-10
-59
-5
21
-30
10
-26
0
-18
32
-21
24
11
-5
-28
3
12
-13
19
3
-10
-5
-1
7
-9
-12
2
-2
-19
-18
-10
-11
-9
0
3
9
-2
-12
9
18
0
1
-4
1
-4
8
-17
-30
-30
-39
-11
14
21
-10
5
15
-3
34
16
31
12
19
-80
12
7
0
12
3
4
8
15
-9
2
-2
2
1
-9
13
-8
-11
-2
6
-12
14
0
-19
13
-58
1
3
-4
-1
-3
26
6
9
-26
79
-10
14
-50
-27
15
14
-8
15
-33
-34
1
37
-7
20
-10
1
7
1
27
4
5
-7
-15
18
-6
1
18
4
1
8
12
6
28
-2
-20
14
-12
3
-1
-8
17
-3
3
-3
14
41
2
-11
1
5
28
6
16
-11
-17
0
7
3
-27
-26
-12
12
-7
6
8
14
-4
6
-1
56
10
-6
-15
16
-18
42
-12
-4
-1
-10
-2
33
5
-9
18
-9
-6
-8
-7
-13
2
70
13
-37
-1
20
-19
-34
10
-8
-1
15
-4
-19
10
-32
-33
4
-2
8
-8
-4
88
-4
-7
-14
1
-26
-2
81
2
13
-53
-20
4
13
-5
-6
-21
34
1
-37
11
57
0
1
-36
-2
18
1
1
0
0
3
1
1
2
6
2
1
-1
-1
-1
2
-2
4
5
8
1
3
1
1
1
9
-18
-16
12
14
-2
-11
-1
2
10
-9
-6
1
-2
-47
7
39
-16
-3
12
5
22
-3
10
-5
3
-9
22
78
11
13
1
12
-10
35
-14
-10
17
-11
8
-41
4
-17
-26
-29
-12
-5
3
7
2
-49
-30
108
8
8
-67
-40
-2
14
-6
3
-21
-2
-27
-9
65
26
-20
-8
23
6
3
-17
2
-3
0
6
-4
6
10
-25
2
-6
-41
3
1
21
-5
13
-11
-20
-3
-8
27
4
-21
-10
15
-104
41
9
1
2
-64
-40
13
2
-11
-3
-1
-31
109
-64
34
-69
18
4
-15
-10
4
3
-2
4
-5
14
-1
1
24
12
4
4
3
-2
9
6
-14
3
4
0
3
-9
9
1
4
-4
-30
29
-14
127
-9
-19
3
18
9
7
27
22
22
19
-23
2
-43
-21
6
53
13
-2
-5
-10
-2
-16
-8
-16
5
22
-12
11
-5
3
7
-1
-10
-16
5
12
18
-19
-7
3
-26
-1
-5
-11
27
-10
4
12
-16
-18
0
17
-9
-24
0
19
-3
17
25
-34
19
29
6
23
-8
-8
8
8
-2
21
0
7
0
2
6
7
0
8
11
1
11
8
-6
4
-4
5
1
-2
8
1
7
-12
-8
-12
0
14
7
-39
-28
3
0
23
4
2
52
4
-24
26
-38
44
-7
0
32
2
-9
1
-3
-9
9
5
-1
-4
-9
0
2
8
-7
2
-2
-6
-9
10
-5
-12
0
1
-2
-4
-6
-13
0
49
-21
-55
3
17
34
9
7
-29
55
15
51
-49
14
13
-23
17
5
28
0
2
-1
5
3
9
-3
-4
6
5
0
9
1
-13
2
-3
16
-3
14
2
3
26
-4
7
18
5
-15
-4
5
-19
-6
3
0
3
-2
10
-6
0
1
7
-1
8
5
0
-12
-12
-3
11
1
2
2
4
-1
-5
-4
2
0
3
2
1
-3
3
3
-4
3
-1
-12
5
0
-12
1
-2
2
0
1
-8
1
8
-2
3
-1
-3
-5
-8
-3
7
1
-4
3
-9
-6
6
-5
-4
-1
1
2
-2
2
1
-7
23
-12
-19
-3
-2
-4
-6
0
0
5
-3
-4
-11
-1
-16
0
10
-3
5
7
4
-21
-51
-24
11
11
-3
-3
-20
29
54
-19
0
-30
23
-47
8
38
84
0
-35
-43
15
-8
0
-22
-4
-31
-40
-2
7
-14
-16
-8
6
-15
38
-9
-9
6
-12
102
-74
29
-4
-1
127
88
16
-2
10
17
40
-16
-33
-6
15
26
-12
4
-15
-8
2
6
39
29
5
-20
1
8
-1
10
1
-11
42
-12
3
0
24
-96
22
19
5
6
36
-59
52
37
79
-50
41
-24
30
4
-31
2
-15
-36
103
-7
-28
19
-1
-7
-17
51
95
5
-7
-3
15
-21
-46
20
15
6
4
-5
13
7
2
-17
1
-2
-1
-6
6
1
7
-11
3
-3
6
0
-4
-6
4
-1
-18
7
-4
-1
-9
0
-7
-10
30
-1
21
16
43
9
-1
-38
26
-1
-14
5
-9
2
20
-3
2
21
-25
-3
19
-1
-1
-9
-1
8
4
1
5
1
1
-1
7
3
1
0
7
2
5
-5
-4
5
-30
1
9
3
3
0
1
3
26
32
-20
15
-5
6
7
3
-26
6
10
-3
10
-2
-10
11
-1
6
19
0
2
-14
28
2
-44
-15
41
17
18
78
3
10
12
-14
-10
-46
-3
-30
39
-29
71
-4
2
45
12
4
3
-5
-12
-9
15
1
8
6
17
4
-10
-1
-5
-1
11
12
6
-6
10
3
0
9
3
2
0
-2
-3
-3
3
-1
-1
5
-1
-1
4
1
2
0
-1
-3
4
-5
20
0
2
3
1
3
-12
6
-12
-13
-29
0
4
-44
27
-9
11
8
-8
-22
22
-3
17
-6
30
-1
7
-12
-3
12
0
-7
-13
-7
-1
8
-3
-6
-12
5
-13
-3
6
1
-7
1
-3
8
8
0
-3
3
4
-22
-6
3
66
4
15
-7
-8
-1
11
8
12
-8
-21
-5
23
-19
-25
-11
2
-1
-18
-4
3
-3
-4
0
7
2
6
0
-2
-3
-6
-4
7
-1
-4
3
2
-11
14
-10
0
-1
-3
-1
-2
-4
-1
-2
-10
-9
1
0
6
0
3
-7
1
8
-1
-2
1
-6
4
0
3
0
-8
-5
-1
-3
2
0
3
-6
13
0
-2
13
6
4
3
3
0
6
1
-14
1
-4
-5
2
-1
9
3
6
-9
19
-53
19
-77
33
-27
49
-9
-15
13
-44
-52
-10
-16
-68
-26
99
54
-16
38
14
16
-1
24
9
70
5
93
-10
15
-25
11
9
-9
22
29
21
20
43
7
-69
92
-2
-46
6
-5
-2
3
-4
2
-1
13
-1
1
11
-1
4
4
7
0
8
1
-7
3
-9
5
1
1
6
3
3
5
-7
40
-6
-6
-13
1
22
11
3
7
-7
5
21
19
-16
-1
-24
-20
14
3
0
-5
5
31
-1
12
-7
13
0
3
66
42
-10
-8
-15
-4
-12
-2
4
10
0
-57
7
-3
-33
-3
-9
27
7
-3
5
16
3
-12
9
1
3
11
-13
16
7
17
-11
11
-9
1
-2
-4
8
3
2
-15
0
20
14
10
4
4
7
-1
12
2
-7
9
-23
-9
-7
-2
-2
4
-6
16
-6
10
10
-2
1
-2
4
3
0
-2
-7
7
-3
6
0
-1
1
3
1
1
3
-16
0
-1
0
-1
1
-7
13
9
-6
55
3
-12
-28
-4
-5
10
-7
2
10
41
-4
-4
-8
33
-2
-8
-11
4
0
-9
96
-37
5
-78
-5
-13
-43
4
-28
-67
-35
11
-29
30
70
-56
60
18
-37
-9
-22
-9
3
-5
-2
33
4
-9
-6
-2
0
9
-7
5
-2
-6
12
15
-19
-2
-18
40
-11
1
-8
-3
4
2
-7
-23
0
27
11
-6
39
8
3
3
-3
-14
20
3
-17
24
-5
12
1
-12
10
4
-4
12
-6
-19
0
14
-1
-12
35
-9
-3
-1
-3
-2
-12
-5
1
24
5
-14
-5
13
1
-1
4
-9
-11
27
23
8
-36
-53
33
77
-2
31
84
43
-10
-3
-33
-34
-9
84
13
-3
-54
-13
-11
8
-2
7
7
-4
-1
3
-6
15
-7
1
1
-4
-7
11
8
-3
-1
9
-2
-5
2
-2
0
12
-29
15
3
-92
-8
23
-70
27
5
-7
-6
22
-34
30
29
-19
12
41
0
12
11
18
-2
