6391
11114
-7441
-1347
8138
-29052
9847
-11499
1765
4095
555
-17309
-27048
10219
-5429
-829
19868
14341
25832
15007
12890
-12475
-558
19759
13313
4825
21658
-30950
-5054
-14075
-6489
238
-1923
-19466
-18354
16761
8223
-14113
-3050
-19349
27841
24713
-5060
-18271
-19730
14438
7504
-26972
3322
16149
4911
-26688
-10245
16066
-14336
3633
712
-10592
10162
-12834
12254
-2782
15335
42633
-3402
-8053
-9247
-9895
-19896
-14129
36774
38766
-44937
-14448
-31097
-6710
-3485
-27214
-8222
-4683
-24404
21436
-1646
4503
15222
13659
1888
13922
-16485
-19874
-4093
2562
-8592
-26974
21186
-24380
-12487
-3893
16352
7245
-8313
16359
-2674
18270
-11131
-3243
12070
11619
-9721
11695
10848
-7023
-173
9454
-27605
-13657
-2729
-2489
-328
-7138
7415
13012
-12220
2719
496
53229
-37791
5286
23044
49
4377
-21056
-641
8295
29170
-21202
18369
-6393
-3398
-8228
-4803
5339
-18753
2722
-5849
19960
-8056
-9576
31052
6067
12742
-6559
-1853
-2
-29761
-19543
-19847
-11327
-32742
-20981
-15473
-11862
12587
10227
3946
940
-29062
2
9046
2148
19130
-391
18336
-8857
13869
908
-2595
-9025
-11824
-34675
5346
1185
17480
-27991
-18037
-27
-20594
-27110
19059
30167
9185
5928
