-21
75
-48
-26
7
11
24
12
3
-44
-42
31
-3
-23
3
24
1
21
17
-4
59
37
9
-16
4
10
-17
-22
1
-20
86
-38
28
29
25
-22
-22
85
49
-6
14
13
13
41
-36
-5
-6
-50
44
-61
24
47
-14
4
29
2
76
32
-19
20
78
25
-21
-2
67
55
-33
-3
36
-2
10
6
11
-9
-13
43
-12
79
-89
26
8
4
15
10
3
-22
11
-44
-11
-20
48
-53
-30
-57
-43
-12
56
-1
-28
-66
57
-40
-72
9
-2
8
96
-2
-2
0
16
48
65
-44
14
-61
-33
47
-17
-1
18
-29
-9
-9
-52
-19
-87
33
21
14
41
4
-50
102
15
-4
-22
-31
-42
54
29
7
10
1
11
-77
-45
-11
-18
9
5
-48
36
-87
1
-8
12
1
60
10
-21
-25
-92
-11
54
-6
5
-19
-39
31
-29
34
11
18
26
7
-18
16
3
28
-1
-3
-18
10
-7
6
-18
-7
7
22
-37
72
-8
-4
7
-38
28
35
-23
15
2
-16
44
41
-3
9
-16
13
22
27
-5
16
-2
25
11
-1
-16
9
-57
-1
5
-1
-11
23
4
-4
-54
6
38
11
0
29
18
25
10
-11
-1
66
11
0
-6
-11
-13
-43
14
-7
26
67
-69
1
9
-15
13
-7
24
4
-33
16
63
-22
-70
13
31
-26
-16
-14
7
-41
14
16
25
-4
32
7
0
34
12
-1
4
-52
-19
-29
14
-7
14
40
21
8
14
10
-3
22
9
35
15
-26
20
-3
15
34
-5
3
-6
11
-15
-31
1
-69
10
5
-19
16
-9
-2
-43
5
-6
-2
2
-49
26
15
-60
72
31
9
-21
-20
37
-31
17
-8
-9
19
15
13
-23
1
-4
28
24
2
11
-1
74
9
2
-7
7
-8
-13
-6
-4
-82
29
-12
-44
2
14
-7
5
-31
-8
16
-1
23
1
33
-3
0
-26
5
-28
10
52
3
7
6
39
0
-2
-31
-67
23
-24
-22
12
36
24
-44
28
36
58
-47
37
-61
88
-32
-71
-26
52
-9
83
-54
-6
-42
-15
21
-26
53
-23
41
-26
-22
16
26
23
-2
62
4
49
-20
0
-48
-14
22
-9
17
-68
20
-21
-60
-74
-30
-2
11
13
-25
-47
-7
-71
-21
27
12
-1
-76
-51
28
23
-2
-33
80
-26
-48
21
-94
24
32
-24
-1
2
-83
-19
26
0
12
-10
-5
52
1
-35
113
-7
127
24
37
127
69
-55
34
28
7
-17
7
9
38
-7
-1
15
-4
-49
20
-18
1
-18
-8
-4
-9
15
-5
1
-23
-60
38
33
-46
47
-13
-18
5
2
49
40
13
28
-9
-28
2
-51
33
36
-21
4
4
-1
-28
12
-4
121
21
28
-9
-19
-24
1
21
7
21
-36
18
-32
-57
0
21
18
-2
9
18
0
-38
8
-2
-7
4
-3
-28
-9
24
41
9
15
-19
8
21
-6
-13
-18
-19
38
15
21
-72
31
13
-6
65
-23
-14
-56
45
50
-14
66
31
-34
23
-35
44
22
28
50
45
19
-127
23
13
-4
11
19
-18
-17
36
5
103
57
15
-116
-43
-54
114
29
-37
70
-53
9
12
3
15
42
-1
-2
-8
21
75
79
-7
-12
-101
-30
99
26
-3
-93
75
-28
-56
-52
-10
-2
37
-7
-12
-30
76
70
46
40
10
-9
88
-3
39
26
38
39
-14
49
18
14
5
-55
18
-28
9
-26
-30
-35
118
-4
9
-81
59
31
5
-3
12
-5
31
19
-9
6
-27
-46
-54
8
4
11
19
28
0
5
5
-8
-32
-47
13
-20
12
5
1
-40
10
-58
21
-30
13
-12
28
-18
15
-39
-27
-16
-28
6
3
0
-40
10
9
-37
6
30
-6
39
16
9
12
-33
14
-10
-7
52
11
3
6
14
-33
-3
-1
-35
6
21
-5
-21
-50
-21
16
11
21
5
-10
36
25
-12
-10
3
-13
-2
-50
-23
30
-34
-72
10
9
0
-13
-40
22
11
5
51
-14
-18
61
24
7
91
40
41
0
52
1
52
-55
-35
-37
11
-51
-126
-13
2
32
0
4
4
-4
38
-11
0
-108
52
6
91
-100
93
-25
-7
40
-32
-8
-72
-56
9
-58
-13
-21
111
-42
-34
84
25
-41
38
13
68
-17
-7
-77
-30
-10
-14
-16
50
-33
32
1
-10
-14
-39
17
17
15
29
91
63
-48
-57
-46
-26
-18
43
26
58
-31
-3
31
-12
2
1
-48
65
-27
46
15
-19
22
-11
-12
5
127
8
-3
-67
1
-13
-32
9
9
43
38
-17
18
-8
3
7
17
-36
6
92
82
17
-63
-51
84
34
18
26
9
33
28
51
10
-43
-41
18
11
0
80
13
-2
-51
-19
2
35
9
-10
5
-4
76
13
45
2
-32
-13
-13
-4
-44
-27
-5
-10
-63
8
30
9
15
-100
1
5
-22
-30
8
13
49
3
3
27
-7
-6
33
-40
3
-7
-19
8
-18
9
-10
75
-12
-9
-7
-73
-33
3
-15
16
12
-4
-25
-121
18
-44
-22
14
5
-14
2
-21
-17
3
-19
-4
-84
-3
24
9
46
7
-1
-81
-6
46
-11
35
-37
-10
-20
35
1
0
-28
51
-27
14
14
37
50
5
26
3
0
50
-16
-28
61
48
-3
-18
-27
-10
3
18
-20
9
127
-22
-14
-20
2
12
31
50
-16
13
15
11
35
12
9
17
-6
9
-21
1
-111
116
-6
-31
-109
55
-31
-27
-127
11
-26
-15
3
54
16
-6
-21
-8
21
-22
-12
26
-36
49
-1
8
33
7
-13
22
5
25
31
-16
18
21
5
-1
-26
26
-5
4
-14
-14
-16
13
-29
34
-30
-20
23
-20
-17
12
-19
21
20
-3
3
-5
-21
15
16
2
-40
-15
-53
12
40
-18
10
-15
-46
2
-17
-14
33
36
17
5
1
14
-20
13
-14
-4
10
-30
-21
11
-1
23
14
23
-13
8
-20
-51
-15
-10
44
-10
-14
-1
-4
8
-9
5
-6
-15
1
33
8
-16
3
0
-25
-3
-4
0
-15
-11
-18
-21
4
-4
-2
-16
-35
41
24
-36
38
1
-20
-13
-15
25
45
4
24
-26
-11
-13
-30
25
11
-12
15
8
8
-3
18
-7
91
-11
4
-4
-19
-17
-6
3
-18
13
-8
0
-4
-40
7
20
18
-4
26
-4
13
-18
8
-2
-16
37
-2
-36
2
6
16
11
0
2
5
-2
-18
-4
2
-31
25
7
9
-57
22
12
21
54
-4
-12
-9
19
-3
-30
-7
-19
8
-9
-31
7
7
-44
-9
-5
6
-17
-32
-5
-6
25
-37
-40
-44
-17
8
-31
-36
50
25
-27
0
0
-5
-37
-7
36
-3
10
12
-17
-5
29
8
49
10
1
-33
17
17
2
6
59
-19
-11
28
8
-20
-11
-8
-10
-14
6
0
-33
41
17
20
1
-34
0
13
-10
-24
-12
11
-60
22
23
-13
6
-8
33
-23
-1
9
4
-11
11
-59
-25
-16
-5
1
19
-37
1
-9
0
-5
-17
-29
23
-10
-2
-1
11
25
-7
1
-26
1
-3
9
36
-24
9
41
-4
-3
-26
-67
6
27
39
-88
60
-5
30
-16
39
12
-21
33
27
-16
-21
-8
-33
8
15
-6
-9
20
-84
22
65
-2
8
-35
18
-52
-30
17
-23
33
-10
38
7
-23
48
-9
0
27
7
10
-6
25
31
37
20
3
-33
-71
0
-5
13
-11
-23
15
-3
4
-29
6
23
-52
-42
-43
-13
4
-29
-31
-13
-37
8
3
12
61
48
2
16
-31
41
0
2
44
-4
15
-39
-3
-11
32
27
-29
-20
51
-9
-1
-39
-23
-8
63
28
-22
-64
33
29
10
21
66
-17
-21
-34
26
-31
13
-7
-13
-13
8
-35
-70
-15
-29
77
3
24
19
-52
-45
20
10
-21
-9
-17
17
3
-21
-21
-11
22
-56
-4
-12
-10
23
-19
-25
38
-37
-10
44
-41
-4
36
31
17
-3
-77
-11
52
78
43
33
73
38
10
-25
4
16
27
-60
-3
3
19
-1
-8
-3
-23
4
-45
23
-3
22
-20
-18
51
-19
55
-14
15
-49
-8
-26
1
-34
-17
53
19
-23
-7
7
-17
-34
-8
48
1
19
-7
-30
-26
-15
9
2
-6
5
30
-11
-14
-7
-37
4
-22
-80
13
31
-25
35
-9
7
-1
-7
4
-27
-22
10
14
-18
-10
-28
-6
27
28
10
-53
41
15
18
43
-16
1
0
-4
4
7
3
-8
42
66
-12
-64
-21
-23
0
8
62
29
14
19
-29
1
9
-12
-99
-19
30
11
-33
-8
43
-5
0
-86
-25
-89
15
-7
22
2
-2
-49
-20
-22
-28
14
1
-10
-112
24
-78
73
3
32
0
109
34
59
-93
7
-18
-18
28
-16
12
29
-100
24
39
-13
10
21
0
0
-39
22
-3
-22
17
-105
-78
23
19
47
21
12
7
-10
38
-30
18
-7
3
-6
-25
-27
-65
0
61
37
-127
9
-6
3
38
8
-10
-5
44
13
19
-4
18
32
22
-3
10
24
-35
-4
-4
9
6
46
18
-21
-24
-45
39
21
0
-4
-12
5
-2
24
-2
30
49
-34
-51
42
30
27
-6
-40
18
90
-12
-51
-90
-11
0
-50
13
-15
16
59
34
66
8
16
-7
-59
31
-12
-52
32
-33
63
4
36
83
13
-36
6
-2
88
-20
12
-5
0
37
88
4
24
-39
48
110
39
-28
56
-15
18
-47
-14
18
-7
-16
1
18
-22
16
-26
-53
-36
51
28
19
8
28
-32
-7
13
11
-28
9
32
2
-14
13
2
43
24
-15
6
27
45
-14
-15
-28
-15
3
-64
-11
21
-45
33
10
-1
15
-12
14
-41
44
-9
11
-9
36
35
-16
-17
20
-14
-3
14
-21
17
10
5
34
17
-8
9
6
-23
-22
-12
-85
7
-29
-3
54
25
101
4
4
-5
23
-32
-25
-2
41
-28
-22
14
-39
0
0
22
12
-1
47
-67
-3
-27
11
6
-7
-5
-22
-48
-16
1
0
6
8
-10
-5
15
-1
7
-21
-9
6
17
-8
-19
-39
-4
-27
-6
-26
53
-13
15
10
-43
25
-11
-42
54
-22
-28
3
23
23
-25
29
6
9
7
-1
16
-23
49
-17
21
11
-1
24
-4
-6
-5
-13
-12
-6
-12
-9
-15
13
-36
1
-11
-42
23
-13
-47
29
35
11
1
8
2
-8
22
-13
-12
8
-57
-45
24
12
-2
6
-29
-16
2
49
-42
-20
12
19
-103
-14
9
7
-30
-2
-46
-49
25
-13
57
-27
75
-4
-21
5
-6
-19
36
-12
-58
-41
-30
2
29
0
37
-7
-17
-37
2
-39
18
-11
-54
-32
2
4
-39
-30
-25
-32
-17
-39
-33
14
44
-14
58
-16
29
1
-3
-10
-104
-1
76
4
41
-1
35
-22
53
11
11
-5
-15
-4
-5
97
27
-49
-1
110
-21
-45
-23
42
-15
1
-7
-35
46
78
-21
70
11
-15
8
12
11
54
25
-1
3
7
-56
0
52
-77
-16
-23
-3
-2
43
-1
18
16
5
7
6
14
-1
22
16
7
-10
-1
-10
-21
13
-4
35
54
80
14
-49
29
-67
-15
40
-4
-12
-12
5
9
-18
-4
5
3
-11
-9
9
-36
15
-27
10
14
-17
60
37
11
19
-12
5
-14
-5
9
-31
-8
-13
-10
-19
-26
21
-12
-19
46
5
13
-7
-10
-8
-3
37
-12
2
16
-25
-46
26
-3
14
-19
-45
-5
1
74
-16
-4
1
-2
-17
-2
33
-48
15
-14
10
2
-5
38
7
-6
36
-4
31
29
-64
-13
40
45
8
-3
2
23
-54
-35
-8
-52
-15
-36
3
-1
-11
-49
-21
-35
-41
-68
63
-53
-68
116
49
24
17
-15
4
45
14
-52
27
44
-22
85
-6
26
22
127
44
18
23
10
-16
28
25
-13
48
-4
3
13
75
18
-22
27
26
-20
-127
-19
-6
8
-35
-7
-76
-58
17
-3
5
-24
61
18
3
25
-20
22
0
33
-19
-73
35
39
32
-1
13
11
-1
13
41
-1
-26
7
-8
3
69
-1
30
2
22
11
-17
-4
-33
10
-22
25
8
-24
18
-16
-23
-7
9
-1
-13
16
13
-49
48
29
2
-43
9
3
-31
3
3
3
27
11
32
-94
-7
-25
21
34
29
8
-3
29
-6
-4
0
-21
-21
23
-6
-5
-51
39
-12
14
13
-7
-8
2
-53
-12
-2
31
28
5
29
-29
16
-20
7
-20
10
25
-15
-1
6
28
0
-9
-24
-37
1
-7
-2
22
-20
5
18
36
7
-17
-1
-35
-16
-1
31
1
-48
43
2
11
-29
0
8
-22
-28
-22
-47
-10
-25
15
74
-22
-22
4
-57
28
26
21
18
-39
-30
-10
28
26
6
8
-13
5
-23
-48
28
-13
-51
-23
15
13
14
-62
56
13
-27
10
5
43
20
-1
12
1
37
-38
-4
-1
2
-36
-25
-1
4
49
55
-48
-1
-2
7
-7
-64
-13
2
22
31
-1
-5
11
-81
-41
-3
-24
16
-65
4
6
7
10
8
10
-7
-1
-20
9
10
-7
-31
7
7
7
18
15
25
-7
14
26
-10
46
1
27
56
-53
-16
17
17
14
-26
19
-17
-36
-18
14
18
-12
-37
22
-8
17
8
29
-15
58
26
-22
55
10
-11
18
-10
-67
11
8
-64
18
-6
-11
-1
13
-33
-15
-1
1
-10
-8
7
11
4
-4
-24
45
10
-9
4
-11
30
0
-16
-11
-7
-19
-24
20
-25
-10
-23
17
11
10
14
-41
12
37
-61
19
78
55
-42
7
-10
29
75
-14
60
13
0
17
8
75
-47
39
115
-95
60
23
60
-26
73
-75
-29
-2
-7
7
27
122
-23
-7
-34
2
45
-47
42
6
28
-39
0
-32
-1
-68
0
1
-55
12
2
-112
2
46
-1
-35
65
-60
9
42
-13
34
-76
43
27
-17
28
-28
12
8
6
-13
-13
70
-77
59
-45
1
6
2
-54
-32
-29
-32
-4
31
19
-51
31
17
45
-41
-91
-28
-23
-14
82
25
26
40
35
-15
15
7
80
-2
46
17
8
15
-29
-6
18
-23
-44
-2
10
39
-18
-29
-29
-12
-11
4
32
54
52
-9
-97
4
-2
46
-23
-6
12
-2
-42
2
-6
-23
-26
-50
8
-1
-19
-27
-34
1
-19
5
-42
-8
10
22
12
34
1
5
-4
-53
29
10
11
4
-4
3
-48
-13
10
32
49
-36
2
17
-4
10
-26
-14
5
48
-46
-11
21
37
21
-12
25
88
-51
9
10
14
-2
32
-4
27
-21
75
-5
-46
-26
46
-14
112
34
5
9
-18
36
-18
80
-5
-34
77
-25
17
103
90
32
72
-12
56
39
-53
-121
31
-28
-9
-68
-22
57
127
8
-29
74
-28
20
-43
-16
16
16
-10
3
-25
52
-105
63
-11
-17
-3
-84
87
-31
-42
-22
2
28
74
-23
43
-27
16
103
12
57
-27
79
-2
-64
-10
-60
-14
0
-39
47
-55
-54
-24
46
-8
18
39
-3
-55
-27
-15
16
22
-27
11
-35
-1
1
-10
-10
-15
-30
23
-1
-20
-18
-21
-2
-14
3
13
8
41
33
-31
3
32
43
-21
-26
-11
-36
2
-21
2
-14
-3
9
10
23
-3
-11
42
27
32
-53
8
8
2
-22
-20
12
-18
7
-19
19
-38
22
30
-31
25
-11
-32
14
31
13
4
-12
18
-7
0
9
-14
15
-1
-18
9
-12
26
10
-28
17
4
-15
-40
-17
17
-18
13
-12
-25
-11
12
-10
12
55
-13
-22
-27
-76
-36
-28
-22
42
126
44
-21
-2
-38
-10
11
-47
-10
-11
7
-38
39
-94
56
0
-22
-19
-22
-85
44
-4
25
-14
5
45
15
-8
-42
13
11
-15
-95
-19
-21
-7
5
12
-31
-21
-48
-16
-7
11
13
-10
4
11
-2
15
-32
23
-19
48
18
75
-21
-15
54
-9
50
101
-31
-2
-43
23
2
-48
2
-26
-46
-28
-40
-64
-26
-57
-31
-60
25
59
-12
12
34
-2
37
-47
28
-3
-8
20
0
70
16
-4
-17
-62
-11
-2
26
10
4
14
-16
25
32
-1
4
15
28
-38
-7
0
15
7
3
-23
22
11
26
22
36
-39
-25
-40
27
63
-1
-28
-31
16
-1
-28
-8
58
-7
-25
-43
15
-20
-14
-6
-23
0
-8
-2
-2
-11
10
28
18
-15
15
3
-36
-45
-4
67
-6
15
12
-22
41
-2
5
-3
-5
86
-4
-12
0
-1
10
-15
-12
80
4
19
20
-63
-93
-29
18
70
-54
-27
-36
-22
-16
-8
-97
22
55
-20
-39
127
-13
2
-14
-17
-3
-3
-52
15
2
-14
-20
-9
12
-18
-2
37
-3
6
24
-2
42
-23
19
-59
18
99
28
8
-39
-26
-9
14
27
16
-13
-15
6
36
-18
28
-2
25
11
-6
27
58
-12
-23
-19
-5
-27
-6
-12
37
22
44
2
16
1
-15
13
-14
46
-53
-24
-10
58
-20
0
30
-8
19
44
24
-9
11
61
-16
-23
35
-53
28
-23
74
28
35
-25
-4
53
8
47
1
-54
13
13
-3
62
6
-80
-9
-13
-10
-32
0
4
-6
24
-33
38
-3
29
46
-12
-42
-30
-31
-5
-22
19
19
-2
42
9
-35
-20
32
2
4
20
17
27
-3
8
-22
-63
-7
51
-7
-7
66
-13
-90
-22
16
13
11
-6
-4
3
14
-5
29
-32
-1
-14
7
20
-19
-19
5
16
-3
39
22
-6
-23
-8
18
-11
-27
-29
-98
19
17
8
31
-29
-14
-8
29
0
-22
-12
-33
-31
-8
8
-23
-45
11
0
-85
-127
1
-6
-101
-36
-23
18
-21
-16
0
50
87
103
12
24
1
58
25
-7
28
46
57
-71
37
-97
80
-4
19
-24
64
-79
5
-26
-40
10
18
35
78
16
-20
11
18
46
33
-16
27
20
10
42
-43
-34
39
-93
-44
-20
-53
-17
0
127
59
92
4
6
-65
-29
1
16
-6
-31
1
-11
-89
-8
9
-26
-27
-19
5
24
20
63
-24
-32
36
5
8
-27
11
-24
6
-11
20
27
-8
14
5
-42
-39
6
-27
7
-5
64
-20
-52
37
18
-20
-25
22
12
-12
-49
127
-2
2
34
-8
112
81
0
40
-24
-67
-19
14
15
18
37
-4
-34
17
-96
-59
-20
87
127
-45
26
20
9
-38
-18
-85
-30
-8
-9
19
-3
30
-32
-37
-16
28
-13
28
-31
-38
21
7
-3
15
-73
34
3
19
127
7
61
-2
0
-4
-20
-18
25
29
104
2
-70
-14
-35
3
14
-9
0
-38
-10
-15
-7
0
-1
-77
35
-41
-24
6
-6
15
10
-11
-57
24
-9
17
15
57
-10
33
5
44
4
-2
7
41
-16
-12
11
45
-26
-9
-61
1
38
-2
-47
-50
-18
-30
6
-34
-5
-12
-10
102
-48
-32
10
-23
-17
-14
-7
-11
-21
8
-8
-6
-46
-16
-10
3
26
-55
-103
12
-33
-5
39
-7
39
27
32
17
7
11
7
-51
38
-114
30
30
1
-26
8
-54
8
11
20
0
41
-27
36
37
21
2
-3
30
-2
-16
30
-19
-27
27
20
-17
25
2
-4
-8
6
-1
-21
-28
10
4
53
-28
-26
-19
14
-3
1
-25
-6
10
12
31
23
-27
-23
2
1
-26
-42
-11
-40
-65
5
-4
12
9
9
-11
-13
-27
-28
-1
12
-32
18
-26
-14
-39
12
31
3
-4
1
-7
-1
-38
-47
3
7
-27
0
20
10
-8
31
-9
6
17
-6
-7
23
-38
30
-15
-17
7
-4
-1
2
-50
-54
-7
-54
-40
-32
56
-49
14
-9
45
105
-1
-34
-29
2
119
-33
24
-19
8
86
-5
26
4
-74
50
-18
-49
-93
-78
6
23
13
-49
-21
-30
-29
-16
-7
-3
7
1
40
91
-86
48
-13
19
-47
2
53
69
14
-59
1
-74
21
0
56
69
-1
34
-20
-2
12
51
60
-61
33
81
-8
-23
29
127
32
-86
2
-66
-50
31
4
-33
62
21
12
29
35
13
-21
-93
-80
-27
3
51
-78
-17
-13
19
8
-33
-14
0
22
15
11
9
7
68
18
8
-21
-20
47
25
-28
-45
57
-87
17
-48
37
7
19
-42
2
-56
-23
25
45
-52
23
-53
-103
10
15
20
-66
9
19
-21
58
-1
-87
-11
-24
-41
-8
91
-54
-4
-9
-39
10
-10
55
-45
24
21
-5
49
4
-33
23
28
11
-58
86
-9
-29
-4
10
35
36
18
-8
-28
-49
29
-37
21
8
26
-18
22
-32
-14
-48
-22
53
-19
-8
32
-22
-9
-22
29
56
47
-31
-6
-43
4
46
-26
3
-8
7
-10
-17
17
27
13
57
33
-26
81
50
7
63
36
-7
8
36
14
-4
46
6
6
33
51
-36
-18
27
-53
8
-29
-46
-17
26
-28
-7
39
-19
-6
-56
-127
15
-49
-20
-30
-85
-22
-20
5
-3
-32
-80
69
20
-7
40
-70
22
11
-23
12
100
39
-44
77
-6
-5
-17
50
21
26
8
-49
-7
24
-28
-49
-22
-48
-17
14
56
-59
-46
-6
35
37
-38
31
19
49
11
22
-72
-2
29
35
1
-12
-20
-48
76
1
-8
-37
0
-24
-4
-33
42
-20
-8
-38
-11
28
32
33
33
51
13
31
127
-10
64
4
-44
36
9
127
-43
-57
13
-10
3
-56
-1
-15
28
-9
-19
-1
124
-43
13
1
8
26
-8
-42
13
50
-1
-51
-9
-39
-38
-44
41
-23
29
5
-13
-14
-26
-23
7
43
-24
-70
-23
6
-33
32
1
-39
32
-54
-44
-2
-8
3
-28
12
-4
20
-17
6
-18
4
-44
9
-47
-15
-12
-2
-14
-7
-2
-5
3
-6
-10
-47
2
-10
5
-15
-12
16
-42
31
-11
-35
-48
-25
10
-17
7
9
-19
21
-1
54
11
23
-11
31
-5
20
-5
-15
44
-30
-7
38
33
11
-12
42
-13
-15
15
26
5
14
-22
17
-10
-21
24
-2
-4
1
-25
-1
-32
48
9
-16
18
9
-5
-44
-9
-7
-15
10
16
-62
5
15
-8
47
40
-3
-14
25
-4
39
-53
-47
-12
-3
-5
-41
-8
17
47
-34
-6
-13
-28
27
10
38
0
46
28
39
14
-3
6
28
-9
9
-7
21
21
-49
-39
15
-67
72
27
15
27
28
44
-24
-68
-5
37
-75
11
24
82
21
-108
15
19
-68
5
42
-7
-58
36
-28
17
-26
63
-46
-10
-57
-12
82
-8
-35
59
-11
14
64
3
101
25
40
-22
12
-35
-21
-27
42
41
10
-45
-32
-82
-20
-30
-67
20
14
11
-5
25
12
30
18
-30
23
2
15
38
-6
3
-14
15
-14
-28
-2
-74
8
3
-14
26
3
-7
-52
7
-17
-1
-6
-49
21
13
-64
79
39
8
-39
-23
46
-30
24
-10
-17
20
13
22
-28
-12
-9
41
29
-2
13
12
76
6
0
-4
-8
-10
-23
-11
-7
-83
13
-6
-40
-2
5
-11
5
-22
-5
18
-2
19
8
38
-6
-8
-31
6
-27
9
61
0
7
-3
46
2
3
-30
-60
15
10
0
-13
36
-1
-7
24
-9
18
-3
16
-21
10
8
-6
-11
-1
-7
1
5
-10
15
-14
35
6
-29
-18
4
-11
-1
15
13
-32
8
-9
-7
-4
-6
21
-11
33
11
-21
-18
-13
8
6
-20
79
11
27
8
-9
-29
-16
1
22
-17
-13
4
15
2
10
3
2
-1
-7
-5
-24
-16
-2
-11
-15
38
18
29
10
18
-50
11
15
-8
-21
-18
2
0
55
31
-3
2
3
54
4
-16
-52
23
10
11
-14
25
-18
6
12
6
-5
11
-18
6
-8
9
-10
-9
-7
13
4
-29
-1
38
-7
35
-18
37
-3
14
-6
-7
3
-7
78
-15
-1
18
47
31
-19
-4
5
-51
23
-4
-20
-2
0
-6
-20
-16
-5
-18
4
15
-6
1
50
9
15
13
-35
-22
-35
-15
-4
0
-39
-3
-13
11
13
6
-4
-9
-7
-41
-2
7
6
-6
2
4
-19
24
-24
-12
-37
22
11
2
8
26
-4
-7
-1
23
28
32
-10
-36
17
35
17
-31
21
-26
11
3
9
23
2
27
-16
29
6
-39
8
-18
-55
-5
-41
-18
28
-18
29
-36
-38
93
-11
16
-44
14
14
-30
36
8
0
-9
11
22
21
13
-4
-6
-37
-8
-10
12
-5
53
-9
-14
-32
14
49
-24
-33
-16
-33
-1
-9
31
22
-16
49
14
-21
-9
18
20
11
-2
54
20
-5
28
-29
13
3
22
-4
-1
44
-44
-1
3
32
-11
-23
-31
-1
-53
-13
15
-13
26
7
19
15
-26
18
2
8
61
-1
16
-15
8
1
-14
-23
-54
-2
-10
0
16
-9
4
-27
-6
-20
8
0
-32
14
19
-29
47
32
4
-9
-12
28
-17
12
-13
-2
11
2
26
-61
-12
-10
27
14
8
3
7
28
-4
5
-4
-12
-10
-3
-11
0
-40
-16
13
-20
-2
-6
-12
-5
-13
-8
2
5
9
-10
24
1
-9
-25
-6
-22
3
37
-10
3
1
17
-2
-6
-10
-26
24
5
8
-41
78
16
35
-14
-41
16
10
17
-34
-11
28
3
2
-6
4
-12
-11
-1
33
11
-47
-24
44
28
-3
-19
43
13
-12
80
6
-30
81
33
-16
19
-44
23
-71
28
-23
24
-24
8
24
1
-36
19
-14
-1
4
-30
-12
-77
-5
-14
-11
2
-24
7
-4
-7
24
-31
14
40
13
29
8
6
-53
-17
-58
27
-5
-24
14
-8
0
-9
28
-17
-7
-40
3
7
-1
2
-40
-26
-19
-15
32
127
-39
-36
-12
43
9
46
-49
28
-13
-42
72
8
-24
-8
44
-33
52
40
1
-24
0
-50
29
-79
19
4
-99
69
-1
-9
10
2
13
-10
12
7
-29
100
-31
-31
-33
-2
58
-8
-79
6
-26
127
22
-39
25
17
38
13
-36
55
37
21
-34
-40
27
-17
-4
-42
47
-19
-12
65
-16
-8
-19
34
-17
4
37
9
-38
9
-20
-34
9
-12
-1
8
4
92
32
2
47
15
-37
-4
-55
-30
-6
-49
-60
-29
-19
-48
-8
19
19
23
-12
8
1
57
-29
40
8
6
-5
40
5
-23
-81
41
4
-35
59
-27
30
-39
58
-91
-50
56
-27
-52
-32
-20
-70
-84
-4
40
-44
-68
76
-21
30
-5
44
38
7
39
-75
46
-58
31
-17
-10
-32
-30
43
-65
-7
28
17
-112
48
-46
3
-81
-5
-77
60
-44
-50
20
4
-12
25
-26
18
-21
13
-5
6
23
26
13
-27
34
-18
-7
-1
-10
76
-41
-32
-13
12
30
-15
32
1
-5
-2
-15
1
-90
69
-3
14
3
-30
32
12
-9
-13
-22
-7
11
5
19
-44
-4
5
-16
0
25
-27
-18
8
-40
12
-17
13
-15
18
-20
-49
0
4
-2
6
12
-10
25
-15
10
-31
11
-11
-2
13
-47
13
-9
-26
-43
-26
32
6
38
-1
-37
-20
39
-1
8
22
-7
7
-6
14
-18
16
-9
0
1
6
-2
45
3
-23
-32
-3
-3
34
-22
-23
-8
-21
-10
-62
32
-13
-3
-22
-45
-16
-2
-19
-11
39
26
-8
-15
-64
14
10
22
12
49
-112
-17
12
78
-30
0
25
18
23
15
6
-11
26
-33
-7
47
-7
-45
35
-29
54
61
99
48
-47
-4
-25
-7
-3
94
10
-9
-2
11
-22
-61
-15
-71
31
6
87
32
0
-13
-7
6
10
14
-4
-13
11
-11
-22
26
-15
-53
-13
66
48
15
-10
-4
-20
-9
1
-64
-19
100
-73
-8
9
-36
-11
-6
19
-12
-54
50
-18
-58
-73
-46
46
66
111
-22
-47
4
8
-74
63
17
32
-9
29
6
-30
-59
-10
42
17
-32
-5
-37
-121
-80
-12
-95
-18
-1
-52
45
-48
46
-42
-77
-50
13
25
-14
-80
-18
-22
23
10
-27
127
-15
47
-78
-52
26
23
-29
-127
29
11
-48
26
106
-2
106
26
8
65
-57
0
31
15
127
16
8
-11
-31
-14
-1
31
-77
11
2
31
11
-21
-65
22
-32
24
-14
30
-1
-47
-1
-3
-36
-2
12
-34
-7
29
26
-4
3
-3
13
-33
-3
-15
-20
-23
-19
-12
-3
0
-13
-5
8
40
15
-16
17
-2
-23
2
-16
9
43
14
6
-36
-7
-23
-7
14
-2
-9
34
4
19
-11
24
-17
74
-21
-18
2
-15
1
2
6
-34
12
39
-16
19
-30
1
18
10
8
30
-11
14
-9
7
-2
-19
30
-6
-51
20
-16
14
10
2
29
8
0
-21
2
23
-62
17
1
-13
-17
24
7
39
30
5
4
-12
49
0
-10
26
-7
8
-2
31
-9
13
13
2
-12
6
-6
-7
8
-4
6
-4
41
8
-31
-19
-8
1
-11
8
12
-33
0
-6
-8
3
-5
11
-28
24
17
-15
-19
-18
6
-1
-23
54
9
21
10
-11
-33
-15
7
25
-22
-15
2
7
3
-5
2
-5
-9
-24
5
-24
-10
-5
-10
-19
37
11
31
11
11
-47
8
6
-5
-24
-23
3
-2
74
25
5
5
-6
41
2
-1
-29
12
10
9
-6
16
-12
-25
3
-30
-1
1
9
-58
9
0
5
-17
6
12
3
8
19
25
16
17
11
-10
22
-3
-2
21
17
24
-45
-38
12
34
-9
-14
-7
-4
-12
2
-9
-12
-27
1
-1
-17
58
-8
-2
0
-10
13
-1
11
-16
-22
-3
5
-2
2
-13
3
5
-14
6
-14
-3
-7
-9
-3
-11
64
15
15
-19
-13
-10
4
6
-3
-12
3
15
-3
38
19
11
-7
-6
29
7
17
-47
11
9
-3
8
-21
21
-9
-2
-19
11
-20
-25
19
-3
-4
-18
-1
4
-11
-12
-15
1
7
-66
-30
-64
10
-33
7
-9
17
-9
15
-8
-17
-35
2
14
6
9
13
14
2
-13
14
21
90
15
3
-9
-6
30
-6
12
55
-20
14
32
33
-27
-5
40
-1
-18
2
-1
10
49
-19
14
7
-10
-6
9
-38
-2
-10
19
-20
36
22
-28
5
-5
43
-26
-2
1
24
-19
-8
-55
-11
-12
-15
12
25
-55
1
8
10
-5
-3
-5
17
6
1
-6
-5
-2
-3
5
-23
15
2
-1
36
-10
34
28
5
2
-41
-33
-18
24
55
-97
52
-18
-28
0
20
-5
-26
47
2
-1
-7
-10
-13
12
8
-4
-43
5
-21
10
-1
-20
0
-29
-1
-25
18
14
-7
28
-7
-14
6
-42
43
-30
15
-75
11
15
-10
21
32
31
42
-11
-20
-45
1
-15
38
-12
-24
2
-1
-4
-19
-9
6
-41
-19
-50
24
-24
0
-36
24
19
-17
48
-13
-5
-2
-5
-18
14
-28
7
-7
18
-13
28
-7
14
-5
0
-20
50
41
-55
-2
19
34
12
4
17
-36
21
-27
17
-17
5
9
-58
12
-18
1
-11
-40
31
-26
4
-35
6
-39
-2
-18
-1
-12
-19
9
11
5
31
-5
28
-15
-9
10
16
9
20
17
-2
1
-7
32
-25
5
13
-1
-4
-58
15
6
16
-30
16
-16
-61
0
-30
-51
5
16
11
33
2
9
13
-1
5
-30
25
-61
0
-13
-5
6
-10
21
-40
-53
-15
-19
1
21
-11
6
21
-16
-24
36
30
-17
-3
11
10
26
-9
40
-14
-44
42
24
6
26
-33
-14
39
23
-56
-6
-1
25
-12
10
13
13
63
-39
25
38
12
4
26
-19
-13
-11
8
8
17
11
2
5
-15
20
126
-21
-4
9
20
1
40
6
-13
5
-38
-17
10
12
17
18
17
-24
0
12
-94
1
-24
-21
23
-12
-2
-29
-111
-1
13
22
23
22
12
-4
14
67
57
-6
25
47
-3
-7
48
-17
16
22
33
65
-7
46
19
67
-9
-58
-11
29
-17
-20
32
23
18
75
50
53
0
-3
2
50
-8
-6
-8
-56
-19
-42
-26
-47
-16
13
7
0
27
-18
-7
11
37
16
7
-11
11
50
-19
17
-15
-39
25
31
-4
37
-8
39
-15
20
22
-46
50
6
-25
3
-3
-50
13
6
-68
-29
-48
8
15
-2
-9
46
-14
-11
-28
7
27
42
-15
37
-27
-5
22
-4
33
37
-57
-44
-6
73
0
21
-38
43
127
21
4
22
18
32
-9
-72
-106
11
10
-2
34
3
56
-12
21
41
-25
18
-35
22
18
84
-15
31
118
2
9
53
-57
-1
27
-18
21
47
89
-12
-58
0
10
-21
55
-21
34
29
-8
24
41
-2
-18
-15
-54
-21
7
-3
-32
58
18
-89
53
-3
10
-26
-20
47
45
20
34
-13
16
16
-17
30
-9
-20
83
58
-15
-2
0
40
2
-16
-28
-43
2
-6
16
-6
7
-3
-30
40
11
-2
-8
12
3
-27
-36
-4
-39
1
-26
-16
51
-8
19
-27
45
-11
-41
-61
9
69
-20
2
-3
24
-20
16
-1
65
5
-7
-20
36
25
6
1
-37
-8
-9
41
35
-7
-9
7
13
-8
15
-3
-6
-3
-13
40
-11
19
6
0
4
-16
-8
30
1
69
0
-15
19
5
-2
-36
-5
19
51
4
15
-107
-103
-38
-6
49
-41
-5
-2
-8
43
-2
3
27
-10
13
2
24
-8
13
7
0
-16
-3
-11
-16
-2
-6
21
17
52
7
-44
-4
-19
-12
10
-9
-12
-27
8
-8
8
1
-2
6
-23
16
15
-18
-6
-21
8
10
-22
69
9
22
20
-7
-19
-11
2
29
-28
-6
-7
6
-2
-16
8
-13
-20
15
1
-25
-10
-6
-7
-11
40
1
25
7
-15
-45
18
4
-5
-23
-33
-2
2
68
6
0
4
-4
12
3
10
-55
19
48
-1
34
-51
102
-14
86
108
-23
38
58
99
-29
-35
33
-12
-35
-2
-58
69
-1
-6
5
32
-14
-15
77
81
-46
-23
56
-13
1
8
-65
64
-127
41
-39
-118
59
7
49
53
-100
-31
30
-25
16
63
24
-31
-1
-16
7
21
-5
-14
-27
-11
-12
6
90
-3
40
127
13
-45
-54
35
-16
-9
-4
127
-58
7
13
-127
8
2
46
0
-40
-7
2
-8
-21
6
5
17
-85
-22
-4
103
62
-92
-5
-38
40
39
12
-77
5
14
8
-49
25
-26
-85
-27
1
50
8
-12
-42
-33
-21
28
-4
-34
20
31
49
82
48
-15
-109
-34
-22
25
15
11
97
62
78
42
48
-28
-26
-49
-30
-38
-71
-5
11
98
-21
0
6
-12
14
18
-22
-23
-12
-24
2
-14
35
127
-37
51
-13
-30
51
-76
-34
51
32
-52
23
19
-24
26
8
-28
31
-39
-127
53
4
37
-44
7
8
-59
-35
-10
-6
34
23
-9
10
33
-9
28
29
-7
-36
-28
24
1
-2
56
-25
6
18
15
1
9
1
-33
13
-31
-31
-14
-22
6
2
31
-7
-2
-13
12
26
2
-23
51
14
-50
13
3
-21
-21
-13
-20
18
6
4
-12
-34
32
4
25
12
-17
2
2
-14
8
-28
-1
-22
-10
16
-9
-20
14
6
8
7
13
3
-9
-7
-41
3
9
-33
-22
-33
24
14
1
-11
-2
-20
2
22
45
-16
-1
18
-16
-1
20
-15
16
34
7
-23
80
43
111
89
-27
43
-15
78
66
-29
-26
-85
15
16
14
-2
3
27
-20
-6
-22
-92
-17
35
54
31
85
-68
34
-5
-92
26
-58
-85
-21
-6
46
-15
19
5
-127
-48
72
-24
7
-2
44
-74
-98
72
95
10
-3
38
-72
0
-25
48
8
87
20
60
-94
-75
106
70
-26
58
-36
-7
83
-41
12
-127
-42
-13
10
-26
-6
7
-12
37
-22
13
-24
4
-88
-3
-27
-28
-64
101
-48
-26
1
-18
29
-2
-8
21
-34
5
5
-7
42
19
25
-21
-9
-1
-1
-31
6
-6
-21
33
31
-18
-16
10
-36
-31
24
-11
-13
-35
-1
10
-40
14
31
-1
-4
34
24
7
5
-6
10
-17
6
-70
-9
-12
13
-11
-2
-24
17
22
-5
-14
-10
12
-12
-7
7
-6
-8
-81
23
16
-14
-10
0
-21
32
-7
-5
10
-31
11
1
-3
-16
-4
-4
-19
-6
62
-12
9
-5
-30
-32
-12
7
54
30
-20
-2
-4
11
29
-8
-8
-8
16
-1
-5
-25
-9
-31
8
-9
-53
3
-12
-8
-10
29
49
46
10
9
5
7
-5
34
-2
16
-20
-32
23
-29
-13
-2
16
-23
6
-2
-12
-29
12
10
4
-11
-11
-21
-11
-36
-3
-6
9
-5
11
16
8
-21
-6
-1
-29
-1
-6
-7
-16
-18
-21
-2
2
3
1
0
11
29
33
11
6
7
-26
28
-1
-13
0
-10
-19
-8
-3
-1
13
0
-14
29
-23
-18
6
21
22
-1
19
-41
-30
16
-5
-5
-41
22
3
37
-15
-8
-10
-4
-7
3
12
13
-4
-14
-34
1
25
39
-30
6
-19
19
-13
12
-10
-4
29
-7
26
25
3
-13
4
58
2
-4
1
23
-49
-8
10
-2
6
10
-16
16
-60
2
12
-13
-16
5
-33
8
5
5
19
12
35
4
8
-4
0
-28
-6
4
19
-16
9
30
-18
13
3
16
-33
-11
36
12
-10
-3
-8
-31
-22
-30
-32
24
-3
-51
-67
-48
21
-37
62
8
15
-2
-97
-10
31
-28
-31
-9
1
-6
-22
-10
-9
21
-13
-73
-32
-19
-20
-53
-93
20
0
-9
-19
5
8
7
-23
-19
-25
52
14
-6
-16
-51
-3
0
-27
7
-85
-22
-13
32
22
50
3
-4
52
-7
-22
-20
-6
-19
-20
-2
9
58
14
-4
-6
-13
-19
-11
1
59
-6
-5
28
-11
30
-7
-8
-24
3
37
-24
-4
-38
-2
-9
-23
-15
48
-11
5
17
36
-16
27
44
54
50
-17
-23
19
-11
-5
4
2
44
52
-114
-28
-7
-67
-60
18
42
31
21
43
-67
-7
-17
109
108
-97
33
38
10
10
37
50
-17
53
-49
-22
-69
-4
-8
69
23
-99
-39
-1
117
41
-91
0
2
58
-12
-7
-6
32
-73
29
-10
20
-19
-15
-5
-12
14
-52
-38
-32
-19
-74
6
-89
5
-9
38
1
-37
-5
-13
54
-17
42
25
-38
-35
-10
-7
-46
64
38
-12
13
3
-51
7
5
-10
-3
-26
-1
19
-21
-6
-39
-3
11
32
-17
12
-4
-1
-29
10
-21
25
2
30
11
30
17
-22
6
4
-21
15
-35
9
-47
-2
-14
1
-1
-10
-10
7
9
9
31
-33
38
11
-23
-8
-31
-24
-41
-1
29
7
5
-24
-50
0
13
-19
-9
-6
6
19
40
-16
1
-3
-9
-28
31
-1
-17
-5
-1
-14
36
-12
8
27
49
-3
27
4
6
15
-25
-5
-11
-9
-101
-31
9
-8
13
25
13
-22
10
-7
-21
-19
-3
-8
20
20
61
-5
-17
-9
16
27
17
47
-125
-21
21
57
-52
-12
3
11
22
19
13
-26
23
-72
22
-11
12
-78
10
10
40
30
127
22
-34
18
16
-6
9
49
20
3
19
-32
-12
-46
4
-71
-14
-3
41
8
-15
20
-9
-24
4
53
-10
-5
6
-20
20
17
-66
-48
5
29
50
-1
-15
21
-28
3
39
-80
-16
74
-34
10
-8
-7
-30
27
16
-22
-82
1
6
13
-8
-10
-70
30
-3
21
8
66
42
0
5
-74
5
9
15
35
74
-5
-2
-40
14
15
-17
18
-15
4
30
4
58
0
37
57
6
42
-20
-79
21
11
-63
-1
-6
26
13
-19
13
-32
6
15
-36
-6
13
-20
16
-75
21
8
-4
34
-7
-6
-75
82
39
54
-6
29
42
32
107
-20
-14
-68
66
24
27
-17
23
-9
16
-77
-5
5
22
67
-5
-37
15
-1
-108
24
31
-84
-42
16
-1
6
7
-50
-27
-19
47
-23
-19
-1
-12
8
-62
23
-4
-16
-30
4
41
-29
74
20
41
-81
10
-32
10
-46
25
67
-3
-17
92
-2
-9
-33
11
-5
34
-58
-39
-29
-24
-46
6
4
33
-15
21
40
51
-1
-17
-20
-14
-86
-39
20
-31
44
-14
-41
-1
-34
-38
-30
-16
68
7
2
-14
12
-9
12
13
14
8
11
17
32
19
-22
21
29
-5
37
-15
10
3
43
32
-6
4
56
-37
-14
-31
6
-43
27
-27
47
83
2
2
47
-10
7
-9
1
-12
-44
54
0
-6
12
6
79
22
34
27
21
2
-13
-59
28
-32
11
-27
-78
-10
-4
6
-55
14
-5
-20
8
-32
40
-25
0
28
26
4
2
-41
11
-8
-2
-10
-21
53
-2
-40
30
-14
-127
7
17
-44
-6
23
20
-6
6
6
-6
-66
-5
-1
-22
16
49
18
13
-3
-7
-18
2
-9
-41
-63
15
49
-31
13
-14
-58
3
-17
-34
13
-45
7
12
-8
13
0
-8
-21
-15
25
-59
-30
-8
-24
25
-32
-5
29
67
-19
6
-3
21
17
-17
1
53
-27
-46
-58
28
20
33
-7
39
64
-38
13
-12
26
18
40
-8
0
0
86
47
54
50
-2
-48
61
19
-34
24
-19
-8
-34
-48
6
13
-6
9
38
-44
-37
-40
3
-3
-17
-59
-27
13
31
22
-19
-43
-6
-9
30
10
50
-23
-6
31
-40
5
32
6
-9
7
1
-54
-40
4
5
8
12
30
21
-4
-41
-2
10
-95
87
7
-10
-4
1
19
20
-3
3
-16
20
-17
20
25
-14
56
3
-23
-25
-45
-10
-23
-1
-27
16
25
21
-26
-27
32
-4
5
28
33
21
11
-16
-12
-13
14
-32
5
8
37
-13
-25
-17
-8
-5
-14
-13
-8
5
34
-3
-19
-12
-14
-4
13
16
6
-11
0
6
-11
3
12
-12
-12
7
3
20
-6
-29
-60
35
4
2
2
-27
-6
15
-28
-52
57
-2
-5
1
-7
-1
13
2
-24
41
29
-74
-40
0
-34
2
24
3
56
127
10
3
-40
-89
21
31
6
16
-3
-6
-6
-56
31
-10
-13
-24
-63
-42
35
-20
-55
61
51
71
-12
-36
42
-11
-89
37
-25
20
68
-7
-71
19
35
-36
-18
-3
6
-69
22
12
-44
26
-58
-53
-19
5
-25
34
26
43
26
-30
-39
47
-43
11
-15
1
-9
-23
-36
-4
-6
9
-13
12
40
7
48
-26
89
34
-44
-42
8
8
11
1
42
-48
-33
-34
-30
-17
7
33
50
10
68
64
35
-38
62
-23
-58
-26
63
-33
7
-47
16
99
127
-1
-26
58
-46
-31
64
-11
108
4
93
-36
1
16
6
-5
16
63
-57
-78
-127
88
-65
-80
11
-30
117
25
-35
75
94
22
-91
-10
-124
47
-5
-79
104
8
-39
48
-14
67
34
-6
93
-44
74
36
127
16
-4
53
8
-20
-27
54
8
92
-47
-116
7
127
18
4
-39
38
-33
-28
-20
-84
33
-27
5
-11
-37
36
-18
16
1
-48
-32
-4
5
48
-51
52
60
-11
6
61
-8
-119
90
-35
56
-7
52
-10
-39
29
1
120
112
53
29
2
-5
32
-12
26
-14
-100
19
-2
10
-43
11
-26
26
-7
-95
20
26
1
2
28
67
-18
15
-84
-1
-4
-31
6
11
-29
2
5
6
36
20
32
-25
18
59
6
13
22
-44
1
-30
-48
-4
-20
4
-127
60
32
53
37
59
-108
-29
45
-15
32
-34
-27
1
-22
-12
16
-11
-85
22
28
6
48
5
26
67
-30
76
-9
44
-30
-31
80
-51
127
-32
-6
14
127
-78
-18
0
30
-28
21
-17
43
-36
35
13
43
-27
60
45
47
-34
-65
4
20
3
64
3
-36
25
-9
13
1
8
-37
58
54
-46
-19
-107
17
-9
-16
-58
-46
16
-43
-30
-36
0
8
-32
46
10
-14
-5
-25
56
-5
15
7
-8
57
23
-6
-57
1
-13
-18
-5
-7
6
-16
12
21
15
5
-6
-6
17
-8
7
-10
2
14
-20
-4
-13
28
31
5
-11
9
11
-9
-3
5
0
0
-17
0
27
-17
19
3
7
15
-27
12
-15
-19
7
-10
8
-9
8
17
-7
-21
-9
-9
-7
-1
-35
5
23
-42
50
-1
-16
3
0
22
1
-10
4
5
-9
2
-17
29
6
-5
13
-19
-11
12
5
-3
-4
-48
16
-6
30
14
-21
-16
-19
20
-19
6
-15
-2
25
-26
-3
35
8
37
-13
-46
9
8
-16
54
0
-82
0
-8
-15
-34
2
17
-4
-4
-3
38
0
22
51
11
-35
-23
-28
3
-26
2
22
7
31
-6
-30
-18
36
-9
9
16
50
11
5
-12
-16
-50
1
15
12
-22
59
-4
-63
2
7
-10
21
-16
-16
6
28
-1
11
-11
13
-8
18
19
-11
-24
2
32
10
21
38
3
-25
-4
7
28
-25
-29
-88
8
11
1
43
-44
-12
16
21
-18
-12
51
3
20
19
-20
2
26
-25
-7
25
22
17
-38
15
-2
18
-5
17
6
-10
-7
-7
-27
-40
-24
42
34
-30
11
54
26
29
-16
31
2
35
-42
13
50
-31
-27
2
-7
-4
5
2
5
-67
12
-9
6
10
-14
21
2
-39
-33
-28
-25
-24
-14
18
-5
-5
-52
27
37
-22
13
-21
-7
2
-56
4
-3
38
-38
-25
15
20
-6
-20
5
-32
-2
24
3
-4
-2
-31
-11
-11
12
-38
4
15
13
27
-57
17
41
19
9
-16
-18
14
-18
-27
-1
-5
17
-9
-3
-29
-7
-1
8
-74
-10
27
12
-115
5
25
39
44
-7
13
11
118
-31
33
18
-35
43
28
-48
-34
1
-31
-43
-16
0
-21
-22
-18
-15
80
38
-20
-11
-90
11
-2
33
39
-32
-8
-23
13
-4
35
-3
-27
24
-1
32
8
14
-29
38
-18
40
4
-30
-5
-9
20
-16
-23
-46
100
5
4
25
-35
12
18
78
-25
-34
-9
4
-13
19
2
0
-2
-28
13
-4
4
51
5
9
-19
5
-2
-4
-32
-30
-17
-2
-12
-3
-22
-8
-20
-11
-33
21
-2
-30
4
14
-18
13
34
4
2
-15
32
-8
9
0
3
26
3
27
-52
-2
19
22
16
23
-3
12
-1
-5
-10
11
-15
-7
-1
-9
4
-24
-14
18
1
0
-19
-13
-4
-12
-6
-5
19
-22
9
19
-11
5
-18
0
-26
1
34
-11
-6
10
-19
-10
-3
-14
-3
33
43
-4
-17
-45
0
18
-15
-42
5
-40
-26
-2
9
80
19
19
25
6
-127
-59
-42
-19
-43
-4
-44
-54
27
97
-43
47
-18
7
77
-32
66
21
84
-38
-79
101
16
67
-3
-28
-29
-38
31
31
33
-23
0
46
-31
-3
-10
-56
4
30
-16
55
-47
62
13
-10
13
-12
46
-31
-35
17
-51
16
-24
39
-12
35
33
57
-37
31
-35
-16
37
-25
23
17
6
16
22
-24
-36
51
68
-38
56
-127
24
127
-127
-47
-4
-56
76
-77
22
-43
-33
36
29
21
21
-18
-17
-78
7
-48
127
2
21
-57
-85
4
14
-71
36
-47
13
7
13
60
48
-30
-25
127
48
-3
-5
-15
31
51
-29
19
8
-24
57
-74
18
-58
9
-127
46
127
-38
8
-19
15
16
-17
-68
-1
8
-19
-25
-50
37
-13
-6
24
42
6
-4
35
-60
-25
-43
17
-28
33
0
-90
29
10
-6
-43
-17
-50
10
30
-28
-9
0
-32
-13
1
-2
-33
-6
19
14
-49
12
-23
11
-66
-17
20
37
-4
-33
11
-65
109
-6
5
-26
48
22
-36
-10
-16
44
37
23
17
52
-19
19
-7
54
3
25
-73
1
-111
-16
46
-17
-16
-19
8
-34
-7
-7
5
60
15
3
-9
35
25
-10
-17
-2
13
31
19
21
6
0
-5
16
-6
12
-49
10
39
35
9
-14
-6
17
24
7
-60
19
4
80
20
-12
33
6
3
-18
27
-65
5
32
58
3
2
-5
-22
-14
-35
0
-31
4
0
-1
-35
10
-11
-13
-10
0
19
-9
8
10
30
21
-2
-6
-4
29
-2
-25
28
5
-11
-51
-38
11
39
-9
4
-23
-1
-7
2
-1
-2
-15
4
5
4
19
-20
-5
17
3
37
3
12
-19
-9
-1
5
-7
0
-13
2
-3
-3
19
-11
-6
-6
-24
-4
1
53
10
9
-17
-45
10
2
-11
-7
-8
4
4
-1
8
-5
-2
-16
-22
-1
9
2
-58
39
10
-12
-11
-3
3
-22
-23
-1
2
-5
16
-14
6
-4
5
-6
-8
10
2
6
18
-41
11
-11
3
-41
24
2
-23
1
-12
5
-8
-5
-2
-5
-18
-37
-12
-3
-10
-5
-27
-32
9
14
20
-35
23
0
11
12
3
-2
13
-9
-24
2
-28
-8
7
-14
-11
9
-7
22
21
3
-3
3
0
-4
-17
31
4
27
10
-21
-58
14
4
19
-8
-27
-32
-3
63
19
-12
-6
26
8
5
-3
13
25
-34
-12
9
-41
8
34
6
25
-1
-9
45
-34
10
-31
-7
-7
-20
9
-12
-4
-3
13
31
38
3
2
-5
3
-7
-6
-15
-15
43
3
-30
-27
1
34
10
27
7
11
25
18
30
-28
15
-28
29
5
-37
-20
-9
-4
6
39
-64
18
61
-41
41
-24
19
16
-7
6
56
2
-43
0
24
2
-32
29
-4
-67
19
-5
32
14
25
17
6
-1
-12
-11
28
-84
11
-9
-6
2
27
34
40
14
-15
-39
5
-4
18
-22
-17
-5
5
-5
-18
32
-5
-26
21
10
-26
18
-5
14
-2
-27
57
19
16
9
26
27
-14
-57
11
-8
-18
-35
-46
14
1
24
-6
-3
16
-44
18
-17
69
-1
6
-9
-12
21
20
-54
27
-29
20
1
-4
28
-24
-46
9
-33
-55
6
33
-34
-19
3
28
7
17
11
20
-49
0
27
-17
-23
41
9
8
-15
1
45
-8
-25
-67
-18
2
12
29
-35
-19
-3
-15
-47
-42
3
10
28
-27
-9
8
-6
5
4
11
-32
15
-4
9
3
18
13
-22
51
-10
26
-6
-1
9
-13
-19
-20
-11
-29
15
28
-15
-33
7
-26
-26
-21
57
0
57
1
-14
-23
-5
4
-1
-15
20
45
-25
-35
-8
-18
5
-22
-60
12
22
-21
44
-1
-6
3
6
20
4
-7
-12
5
-24
-7
-31
1
21
24
-3
-67
5
5
-8
35
-10
-35
-9
-6
4
0
-5
9
7
50
-12
-71
-63
-7
8
2
-20
18
-2
1
3
-18
15
-8
-8
-24
4
11
-8
-15
-7
-1
6
9
-5
1
-22
44
18
-27
14
-1
-6
3
16
50
-9
10
21
-23
-15
-3
-10
8
28
2
-12
-22
-10
5
8
-13
115
6
33
-20
-22
-25
-11
11
7
-5
-22
9
-7
-20
10
13
12
12
9
-8
-4
-25
-1
-7
-18
22
13
-3
13
22
-21
7
14
-7
-5
3
2
-3
25
23
10
3
5
5
9
-8
-27
52
-22
0
8
3
29
2
22
-20
-14
-6
12
-27
-1
11
-16
-9
-9
-5
12
-3
-9
-32
38
12
6
19
29
10
-39
-2
-13
-9
50
-8
-26
-45
-11
-39
15
-17
-52
-11
18
-30
24
0
9
0
8
10
19
4
-20
-15
3
-6
-13
-13
19
23
69
0
-4
16
-11
-8
-11
16
10
-2
5
12
-5
49
7
0
-21
3
99
18
-5
17
6
-12
-33
-15
44
-45
18
-3
-14
0
2
-19
5
0
16
4
-7
43
45
-41
11
-2
-17
14
-9
35
67
-50
-7
3
34
-28
-18
12
110
62
-7
-68
43
-10
-49
44
43
11
37
35
-3
4
-9
-7
27
-42
-71
-69
-30
-28
-52
6
23
-2
-8
-55
90
73
6
-35
6
43
8
-43
11
41
6
97
25
2
37
3
4
-49
3
-58
11
-7
-66
15
22
-28
26
-13
40
2
16
19
11
-40
-9
74
2
-6
-20
-71
-23
16
14
-18
6
43
8
26
10
-42
-23
23
20
9
6
-12
1
-9
5
-38
31
-27
13
-2
13
37
-15
-20
-21
8
79
11
-13
30
-15
18
-2
-42
-3
-35
13
-5
13
1
1
21
35
7
-18
-23
33
-7
28
-42
-6
-19
14
37
-21
-21
-22
-14
-3
2
21
23
34
-50
33
-19
-21
8
28
20
21
-14
4
21
-3
9
-15
53
6
11
-7
-12
10
0
-22
17
-2
-28
0
-3
-12
-24
-5
5
-13
-4
-14
10
32
15
-22
1
-2
-19
-26
0
14
-28
18
5
-43
43
-20
-20
-2
-15
-50
-31
-8
-5
-13
4
-37
-12
43
-13
26
12
2
49
9
-1
21
18
-6
-19
4
47
-41
-24
-28
21
-10
-18
-16
-16
24
-31
30
-49
-29
14
11
21
2
-1
-29
1
37
-22
14
1
-8
5
-18
11
-32
5
39
2
3
17
-15
-63
-3
-10
38
-30
60
-4
-19
20
4
13
44
-4
11
40
-13
-20
-21
30
10
-29
-22
16
12
-7
7
-23
-100
-54
-23
-83
-17
43
9
30
38
37
-7
18
-95
22
63
13
15
-36
15
-68
-83
-79
-127
-59
-19
-21
5
91
40
-1
39
0
67
32
-30
-28
4
34
37
5
-59
-11
36
17
-15
44
-22
-7
3
71
-40
-7
45
-2
6
-68
52
20
55
29
-15
14
33
5
11
-31
46
9
-66
-87
10
76
-38
-27
63
15
32
-28
-21
-52
-25
-10
-64
-69
33
3
29
-12
23
53
-27
21
18
1
-8
-4
3
-7
10
55
-2
2
5
31
-4
-8
-2
7
-60
14
7
19
3
9
-8
1
-19
9
35
-37
8
-39
-61
3
14
-36
-75
-16
31
23
-31
-20
18
21
-26
-10
19
-14
2
18
-19
-62
-7
30
-12
21
-18
-22
-16
23
-12
0
66
-19
-34
5
-15
-21
11
2
-17
1
-6
-10
-7
-30
-4
-19
-21
-4
37
-11
-7
-2
7
-61
5
-14
-12
-3
12
-10
12
3
8
32
-17
-1
-37
-1
36
-16
-11
-18
27
30
-5
-28
53
49
-22
59
-6
-3
28
9
75
92
-16
26
-75
96
-48
-27
-68
-29
-40
18
55
76
-14
14
26
24
25
10
42
31
-23
65
15
10
-6
-22
-26
7
3
-83
22
9
56
69
67
-8
61
-45
-3
-16
-13
14
9
-4
17
-64
-37
-14
15
-11
-32
35
-17
24
2
-127
-8
35
-20
23
0
14
44
-39
-114
21
-29
-64
-18
-20
-21
23
-13
39
-72
-56
-9
15
23
4
41
-1
0
-10
-14
-8
-18
38
-11
50
-16
-5
2
-1
15
-12
-9
-33
-19
-1
-14
25
23
13
-27
14
-25
58
23
5
-41
-15
30
-47
18
-7
-45
-1
-7
-10
3
52
0
15
-30
10
24
-3
-2
-9
6
5
-35
-8
-8
36
58
13
5
5
-30
14
11
13
15
10
9
-9
-5
18
9
10
-6
24
82
30
-19
-3
-3
26
-24
-10
55
-18
-5
-3
6
-19
-24
-27
-16
-10
41
-32
34
37
-94
-23
-9
-80
-7
-12
-17
38
13
-60
5
0
0
-21
17
52
6
-45
-8
34
-15
31
33
3
2
-28
14
83
127
1
26
127
0
18
-71
58
63
-1
-18
0
-60
-16
8
45
-47
7
-3
-26
-55
-6
7
21
68
32
-37
15
6
-41
-29
49
-12
-13
-45
19
2
10
-7
-26
1
61
14
-21
-7
27
-14
7
-1
-14
39
-23
29
-11
66
-41
-127
34
-62
5
-46
-4
-24
43
-12
-1
-12
-12
-15
-40
7
-19
5
-10
13
14
20
-6
-24
-6
4
19
-37
21
-14
4
4
0
-38
-9
-7
-18
-26
14
-7
-27
-38
-10
17
-37
2
22
-15
-13
18
17
7
3
15
19
1
7
-23
7
26
5
-13
21
-20
4
-13
9
-2
-10
11
1
-10
4
0
8
-23
6
-5
-10
-39
-4
-2
17
4
-5
27
-41
4
2
-25
-3
-10
-6
-18
-7
21
-5
-12
-5
-61
-21
-5
-4
6
55
-40
-30
-27
-20
52
-25
-8
5
31
69
-12
47
102
-50
-74
11
-9
50
-58
20
45
9
-56
-45
25
-53
-15
127
-37
76
27
-53
-31
58
41
8
-8
-63
-30
-41
-40
-8
-23
-10
33
-46
-34
51
54
33
4
-2
36
26
-2
-64
41
50
39
79
46
-16
28
9
-77
-29
7
-21
-3
-23
-57
-5
7
10
4
-2
54
13
-8
-24
54
-15
-9
28
-16
-11
-54
-77
-43
-36
15
-57
-23
15
-18
89
72
-18
-9
-24
-25
15
-73
-60
79
-50
39
4
7
-16
127
27
-52
-40
-1
60
-9
-46
22
-57
90
-50
25
-68
10
23
51
5
-29
-12
24
59
15
-38
-17
8
-61
54
-44
0
-26
-39
-11
18
10
-71
60
-61
11
-30
51
16
99
72
-10
20
31
6
15
-120
-127
-12
-26
24
-10
-124
39
26
11
62
-18
-82
-45
-52
-6
-15
36
21
-89
-72
-75
-32
29
23
8
-24
19
99
-46
-110
90
25
-28
-5
-23
-7
-17
-14
49
-27
-17
-127
57
-57
-42
67
-28
-49
19
-57
32
-10
-61
-37
75
-42
48
-23
-1
82
28
-28
9
-66
27
33
61
1
5
-1
-127
1
-43
68
13
86
-17
-4
-40
-29
-56
19
-102
-17
-73
19
-27
-14
-43
-25
-67
16
3
2
-17
-50
10
75
53
-120
5
-54
7
-56
33
-95
11
6
-25
-113
-1
26
-16
-59
-35
22
-31
-57
-16
9
-7
9
28
102
-48
49
43
-78
-48
-19
-83
-102
-26
-21
1
-111
-53
59
76
9
15
48
37
7
98
4
-81
17
4
127
-38
111
30
68
8
90
83
66
-11
119
48
-12
-69
-49
-103
-22
-5
5
28
-1
70
-47
-127
9
-16
42
-49
54
7
24
-40
40
35
-7
-4
6
-4
-1
-12
-7
-32
11
-16
10
53
-2
-37
-2
-30
12
36
-108
-1
-2
-15
-113
-45
5
-24
-1
-10
12
-24
-30
44
127
-4
18
88
-94
-11
-53
20
8
-41
-28
10
12
3
-35
20
-9
-2
49
-46
35
-33
32
24
-6
19
-15
34
19
-17
4
-127
-14
2
24
27
44
57
-27
17
-112
-37
-17
70
9
-57
30
17
-14
74
-89
-43
-30
-13
8
-17
-43
14
-9
-27
-7
-56
-9
3
-39
28
-23
12
-67
-109
-12
-3
-9
25
31
11
-49
-18
9
64
-15
-2
-20
50
-55
-68
40
99
-17
-25
-40
-44
-23
55
-47
53
-45
-15
25
-13
2
-89
32
-21
23
3
25
3
-31
-14
117
-10
34
-7
-17
-76
34
35
3
-7
-17
-7
-21
74
-48
-33
25
-38
35
19
26
81
15
-3
25
-58
-32
44
-24
-65
-16
45
-5
71
-27
-8
27
-82
-50
-10
-34
19
-4
2
20
-12
43
-18
-7
-78
19
1
36
17
-49
-31
69
-53
6
57
-67
-26
-51
9
-38
-40
22
-46
38
-25
15
20
-102
-42
-34
-1
20
-19
63
36
-16
1
-46
-25
-3
22
36
9
-24
4
56
6
-25
-7
-20
5
-46
-18
18
-3
-11
3
1
2
-3
0
-1
-43
18
0
-3
41
-62
11
-30
43
-34
21
29
-36
-22
-4
-22
18
-9
-25
-12
-28
-38
5
9
-25
-21
-12
-47
24
17
30
-26
15
0
10
19
16
12
28
-17
-40
12
-34
-20
13
-19
-43
8
-3
13
12
6
25
10
11
-1
4
-12
-3
14
9
-21
-54
5
12
25
-6
-38
-30
-10
55
23
7
-17
33
36
28
-23
28
34
25
16
12
-4
-27
-8
-20
-39
65
36
17
-110
-48
22
40
4
53
-25
-30
-4
-36
-58
-61
-57
-8
69
-3
-22
-49
-6
12
-17
-25
6
-108
-26
63
-37
-79
-37
-10
108
45
-24
78
-58
-80
28
112
-28
11
52
-35
25
7
16
45
-2
-69
-12
-71
-39
19
-30
-13
-94
36
19
22
9
11
30
-14
20
-1
71
29
30
-40
88
-3
10
31
-41
127
-58
13
10
-17
-91
-26
-49
-6
40
29
64
-39
-54
-26
-10
33
18
-28
-50
-9
-2
-27
-7
-40
-35
-4
2
7
-2
10
-34
-16
18
-37
3
-51
-39
11
18
55
-68
63
7
-20
4
-24
5
8
-5
7
-34
-32
22
-41
-9
-55
-20
15
22
-105
-5
16
-66
-3
0
19
-26
-55
23
-50
41
51
3
-8
-3
1
2
-12
-2
20
-3
19
24
20
10
0
-27
17
-20
-70
14
-16
-29
18
-24
30
-1
14
-72
21
-16
-19
-27
23
-30
-50
51
35
-43
31
-17
0
-39
-7
-19
6
7
-38
39
11
20
8
-16
48
-11
-10
-46
-3
10
-20
-17
5
46
9
-47
43
8
42
-15
30
13
51
35
13
-69
-28
-20
-30
3
3
2
35
25
16
51
5
34
-7
-17
-1
-15
-11
16
35
33
41
-59
54
-3
20
7
53
6
-27
-8
-3
7
-12
6
32
15
-13
9
0
-34
-44
12
11
31
-18
-30
8
-3
18
10
17
-32
30
28
-30
25
14
-14
-11
-10
-42
-71
-19
2
-34
-91
-11
-4
7
4
14
-7
-4
10
28
-17
43
-17
2
-28
-18
35
-36
-5
-31
5
64
28
-88
3
-12
-9
-50
9
-1
-42
-14
12
-17
-15
38
5
34
-13
8
5
-20
-55
18
22
-9
26
17
33
77
65
-8
27
-31
1
-24
15
-1
-21
-57
-16
-73
-21
35
-2
58
-33
-13
-12
-29
67
63
-25
-3
-7
-2
127
-4
-5
-2
15
11
11
53
-8
-3
0
65
-14
-6
6
-8
5
-9
18
29
-17
19
-17
27
-13
18
27
-14
-3
-3
-10
9
13
-9
4
-20
42
2
-26
-26
14
-14
-31
0
28
-31
-1
-26
-1
11
-10
17
5
27
13
-28
-31
-3
37
16
-10
103
-23
20
-4
-6
-32
-26
0
7
-19
2
-10
33
-10
31
5
19
9
21
-41
-15
-7
-13
-14
-33
59
33
16
29
15
-49
10
21
4
-20
-12
-7
4
63
19
-5
-11
-2
50
6
-46
-51
28
33
-19
-10
112
-127
36
-1
20
22
47
34
-15
-1
127
1
-12
-36
-6
-1
-55
30
18
-7
8
-9
-7
-24
68
39
38
91
9
2
-15
-1
-6
-14
-14
-63
45
-40
-44
-2
34
-57
-13
31
-14
-63
-40
47
-66
30
3
61
21
76
-15
15
-96
38
34
4
-9
6
97
18
-10
-41
-19
-4
-14
40
-10
6
65
44
4
25
15
-14
-29
-18
54
-21
-14
-62
-98
-8
1
-51
9
89
20
28
21
27
3
-13
-3
10
43
-4
-8
13
-5
-44
16
-19
5
-19
-8
-3
-11
15
-3
-4
-23
-61
25
29
-36
32
-6
-16
4
1
43
34
11
26
-2
-28
10
-56
28
33
-18
5
7
-3
-27
9
-4
101
14
30
-7
-12
-18
2
27
6
16
-23
23
-33
-49
13
19
14
1
9
13
2
-34
9
-2
-12
-1
-3
-27
-15
33
36
8
22
-13
9
27
-4
-9
-23
-20
26
22
12
-65
28
9
-4
57
0
-3
40
2
-12
9
-21
85
-11
40
17
89
-6
-5
-7
-22
-14
2
25
-16
-6
1
8
-30
13
-18
-11
-22
12
-24
76
-3
39
-11
-13
2
60
18
1
43
14
17
-13
34
7
25
-17
-7
7
-5
-19
-5
-11
17
5
-3
-7
9
13
12
12
-30
-39
0
11
13
-12
22
-4
1
-12
22
20
62
4
34
-20
-64
-21
3
-33
7
9
18
-9
-13
-10
-2
8
-22
9
45
-12
5
-17
2
19
-44
21
9
-1
17
-6
14
-127
1
-69
-6
27
30
-9
-14
-29
3
-20
-35
28
-13
-8
58
-97
21
-1
40
-1
-42
87
34
34
5
-44
-29
13
25
7
2
33
10
-33
-38
45
-54
60
-21
21
-32
-32
5
7
105
53
6
-17
-41
19
-63
-44
-60
19
-85
-46
43
-23
-35
-7
-109
-7
9
-10
2
-3
14
-83
34
-10
40
23
-64
23
-45
3
90
14
25
-35
-16
-49
-57
-58
37
-8
-36
7
3
-19
13
0
4
-2
-6
7
-1
-8
-11
-2
9
-8
-16
6
4
5
9
-6
-4
-30
38
27
-29
22
-6
-1
10
12
49
10
3
27
-20
-17
1
-25
11
22
4
-6
-14
-11
-6
3
-9
102
20
26
-17
-19
-21
-5
18
5
-3
-22
13
-17
-29
-5
16
11
5
6
8
-7
-27
4
-2
-8
18
6
-11
7
16
-5
7
11
-3
0
9
6
-6
14
8
18
7
14
-22
12
8
-16
49
-17
11
2
-16
-10
33
23
-15
16
-20
15
1
19
34
-11
7
5
-4
7
18
-7
-12
10
38
-8
-16
-10
-7
-4
-39
9
47
-21
-5
-23
-8
7
-12
3
7
3
3
-31
-28
2
36
19
-5
82
-28
6
-5
-6
-22
-19
0
-11
-8
8
-10
30
-22
47
8
27
20
25
-51
7
0
-14
-13
-33
42
26
-6
39
17
-24
9
10
20
-13
-4
-7
5
48
4
0
-17
-11
48
5
-29
-29
24
4
-4
-6
-3
9
58
-33
70
14
26
19
-4
0
18
6
34
-10
0
1
20
-12
26
25
-99
-31
1
90
18
-36
24
39
83
-39
-35
60
-29
-17
-51
-38
15
41
-82
25
50
-18
45
-3
13
38
33
-25
15
-16
-2
-47
-15
-5
6
22
-4
42
-18
-25
-14
-32
11
-29
25
-62
-9
9
-1
20
27
33
24
63
2
6
29
7
50
-1
40
4
-20
38
-33
9
-25
7
-2
-6
-87
3
-38
1
21
5
-86
76
70
6
-43
30
-14
51
-36
17
18
-40
19
-6
-1
49
-2
4
-30
-56
7
-57
12
-12
59
43
-13
-48
61
-43
28
-92
53
40
-9
-6
17
-28
39
-2
-77
-17
57
39
-65
73
-9
52
19
-18
27
27
20
50
-36
1
-71
33
-7
8
5
-32
115
-123
-71
-88
29
-22
5
24
13
16
16
-4
60
52
-32
-5
15
2
-57
-25
-39
-33
38
1
23
43
-44
-25
86
21
75
-14
13
12
20
-36
20
-55
41
7
-7
25
2
-10
-9
16
-127
13
-34
7
4
-14
-3
10
-13
106
20
-11
22
-79
-17
3
-2
2
79
-3
12
-1
38
106
-3
18
23
45
-28
-8
39
12
-9
9
-12
33
-114
8
30
-9
-58
-20
-36
-32
2
67
8
10
13
7
-24
22
-7
-82
8
16
32
4
-34
-6
12
-33
5
-11
5
25
-33
16
18
-3
2
2
8
-2
-1
7
25
-2
5
21
25
6
11
-11
16
10
40
24
-33
19
4
14
45
1
-2
-14
12
-19
-30
-3
-82
2
-4
-19
28
0
-12
-44
2
-17
-2
5
-57
22
22
-59
70
37
1
-36
-21
38
-24
21
-4
-13
11
12
22
-55
-6
-16
41
26
1
14
8
83
11
7
-8
-12
-11
-7
-8
-2
-90
10
4
-30
-2
-3
-11
2
-20
-7
15
1
21
-5
41
1
-6
-33
-6
-31
11
65
-4
9
2
43
-5
2
-30
-56
2
0
42
-12
28
97
-111
-4
46
28
-23
44
-20
-6
-24
-14
5
-127
64
14
-98
-33
73
85
40
14
65
14
-13
-13
106
89
127
56
13
55
-43
-62
56
-9
-82
59
49
-5
-12
33
45
57
127
-63
-38
-24
-64
29
48
-6
13
58
22
-21
27
-127
33
45
4
22
-9
72
-61
21
-1
49
2
5
2
94
-22
33
95
-75
-46
27
13
7
27
25
-9
54
70
-5
-21
24
11
-19
-4
19
-5
-21
13
-32
21
0
13
-30
20
-3
-10
-64
-13
4
24
-3
20
-23
8
14
0
-5
-13
-8
4
-32
15
-17
26
19
30
6
17
1
9
-3
-9
35
9
23
-8
9
16
26
-15
19
-12
9
-38
-17
-17
20
-41
4
18
5
-5
38
-22
9
-16
-7
-10
-12
4
7
-4
12
20
-6
-3
-7
9
19
-25
5
-20
15
-36
26
-20
12
28
-2
21
1
-18
5
9
16
-38
42
-20
22
28
-18
2
-93
18
28
12
-21
67
55
13
-6
7
6
-25
18
-67
8
13
61
7
-39
-29
6
5
-14
-19
-23
-2
-46
-23
-24
37
-30
52
-6
12
21
60
-1
1
0
-35
-46
50
-28
37
7
-5
1
40
33
15
-5
-15
18
-38
-13
-5
-13
-12
4
14
-118
22
-30
-1
12
57
-23
-4
62
3
28
3
15
4
0
49
-50
11
93
9
-3
6
-7
-8
-53
-7
24
18
-17
1
11
-6
21
-29
68
62
38
-18
16
52
0
-28
42
-14
25
-14
30
-77
-5
-36
-8
26
-35
14
-56
51
6
-15
-6
56
5
-12
22
-33
28
7
-46
81
14
-12
-39
29
0
-37
20
22
-17
-1
-5
37
25
-14
57
8
-36
27
10
-1
-6
-35
-15
6
48
6
-2
57
-18
-21
-47
-11
-8
19
-88
3
37
1
-66
-16
31
-17
7
52
-3
-18
-44
-20
-25
11
-14
-3
-15
-6
-104
46
11
14
32
-39
-7
-66
-47
-74
3
-35
-27
63
42
29
34
35
-16
13
-62
-106
9
-2
53
-14
20
-38
55
-27
26
-21
-37
-17
27
-2
21
-36
-39
2
-16
89
47
7
-66
15
-1
-13
18
53
-7
-14
-57
-18
-45
-3
-17
-74
9
-23
-42
-64
-10
18
8
-17
30
-15
-22
-42
58
7
-22
18
-9
-38
66
-22
15
15
61
19
-8
75
-18
-1
-10
75
48
28
19
-27
8
38
-1
-6
46
54
25
0
31
95
-29
2
-3
-125
29
43
-8
25
-35
-42
35
34
11
-12
45
-13
-4
-4
14
4
21
56
-12
-28
3
-5
-21
28
25
-25
1
-13
3
-32
69
-73
13
-19
-37
-14
-5
-19
16
45
6
-33
-47
-6
-16
-20
11
36
58
-33
39
-6
9
66
-43
12
-63
6
-48
-2
34
-15
40
-1
10
17
-37
14
-12
0
34
8
-1
-1
5
-23
75
-58
127
5
-20
-17
15
-20
-2
12
-10
35
-20
-49
102
-29
-7
76
8
-31
-2
34
52
32
11
-65
1
-33
6
-27
-58
-25
3
-15
32
-7
-58
-67
-15
-16
115
93
-13
-13
-46
-18
49
4
42
5
8
45
-72
-67
-61
19
-25
-13
-69
80
66
4
25
13
13
21
-13
19
-32
27
-56
19
2
41
-47
-6
19
28
-25
-29
35
-13
22
-19
23
-39
-51
-10
50
9
1
-6
-40
-18
-7
-19
-19
-61
-29
6
-44
28
9
38
-4
8
38
2
24
24
-27
-13
27
22
90
75
5
0
-13
3
9
16
-1
-2
6
-4
-9
50
4
6
-11
-9
4
-7
-9
-5
-5
-28
13
40
0
-14
16
-20
-18
0
-1
3
4
19
33
-14
-6
27
-36
3
25
-9
14
-8
13
-25
-1
6
19
-7
15
3
-8
-8
5
16
2
8
-8
-1
-23
-25
-5
10
11
9
-34
21
19
-25
-6
5
-9
-19
-7
-13
11
17
27
0
9
-9
1
-1
-4
-15
-8
-22
20
7
-15
-22
9
3
12
44
2
2
-4
-34
16
23
0
-6
-5
-12
13
6
4
-6
-24
-4
18
43
-3
3
-12
-29
3
-23
5
1
49
-7
25
22
28
46
-8
-5
-70
17
11
33
19
28
-18
-17
4
-21
15
52
-5
14
-24
-22
-11
-17
6
-4
-5
-6
-46
9
42
-34
13
-18
17
-1
3
22
-13
1
-56
8
-8
-3
15
-24
23
6
29
21
5
-5
-9
34
6
13
-10
4
10
-38
-2
-2
24
14
-21
28
11
10
-1
0
-14
24
-18
-4
-18
-2
4
5
31
-18
9
-1
4
0
17
17
-11
19
2
-5
0
12
9
-5
-6
-16
22
-8
11
0
-8
-19
10
-3
8
48
-13
-17
-7
8
-9
-7
-10
7
2
-29
6
13
-12
-18
-9
9
2
5
-24
-8
5
-10
-21
9
-7
1
13
-8
-5
-12
20
-6
-10
8
-11
15
8
-2
10
7
-23
-7
-3
1
-4
-8
7
-3
25
12
-1
6
-27
-18
-7
35
24
-21
6
-34
46
-42
-65
12
-11
-56
21
-16
5
85
-12
25
-38
-3
-27
4
10
62
4
10
46
-91
40
29
-4
69
1
7
2
22
-71
-39
-28
-52
-14
37
-2
20
-27
44
-53
36
8
11
42
19
-59
-24
3
-29
76
1
48
10
64
-60
-51
2
-24
-58
16
45
12
-51
27
-47
32
4
20
3
7
62
-4
20
70
-21
-38
15
-39
-1
-6
-22
-14
22
39
25
-21
124
127
-51
-61
-29
-9
-11
44
-23
0
16
-2
-34
-54
20
3
-21
-32
9
-14
9
5
-17
12
4
-2
-2
34
-41
1
-25
16
-37
14
12
-51
-6
-17
-14
20
16
16
0
-24
-33
-20
-6
1
-12
-32
-24
1
28
21
-29
-7
18
11
19
14
2
16
1
-33
28
-9
1
0
-18
-17
13
-7
21
48
27
30
7
5
0
-31
16
-6
36
-6
-30
-65
6
19
38
2
-25
-40
-1
46
16
-7
-14
70
26
6
3
37
45
-29
5
14
-53
-27
-13
-127
58
33
-19
-44
-96
-24
-3
15
34
-86
-5
4
0
43
57
-78
37
-44
8
48
-19
18
-41
8
-56
-51
-34
-9
91
-11
21
121
-21
-96
2
79
-3
-24
24
34
85
70
25
-110
37
8
-7
-4
39
-58
-60
-40
-1
8
-16
-28
7
87
19
66
127
-127
-11
-10
47
-24
44
7
19
7
10
72
-4
-61
4
0
15
-48
9
11
40
-8
69
-58
1
-19
18
-1
32
-10
-12
-20
-39
-7
9
43
-13
6
-1
29
40
10
1
-28
-5
-6
13
-19
-3
-36
-29
31
14
-18
-2
-11
-9
-41
1
-14
-35
0
-4
23
-38
-9
-2
-11
-24
22
4
27
-20
43
-10
3
17
-2
4
34
15
-11
18
-14
12
8
6
2
14
7
-22
13
5
0
11
-56
-7
2
-14
-33
-1
-1
-12
14
-26
1
-28
18
-2
6
13
4
-17
-16
-6
-5
-54
2
-2
-25
18
21
-13
33
68
-13
1
-23
31
-12
-16
11
-9
3
-10
35
15
21
13
-12
-9
10
14
-30
27
-18
-13
-4
29
-15
-18
-28
-22
-3
-7
7
4
-28
11
24
-49
7
17
-7
-34
30
24
-3
-19
2
6
-7
-7
3
13
32
-5
-20
-23
-17
8
4
-5
-9
-4
-12
2
0
3
4
9
-54
15
-12
-15
-25
-6
-14
14
11
9
37
-2
-24
-5
-10
-10
-16
-14
-6
-8
48
10
-3
6
-34
2
-7
5
27
29
-1
8
-42
29
15
91
-4
34
-7
-11
36
2
-42
-53
-80
-5
32
-10
-4
-2
-19
8
8
-58
-118
-33
-38
37
117
24
-53
-6
19
71
6
-42
-75
-28
-52
20
-3
-33
37
-17
17
35
17
12
50
31
16
-84
49
29
8
-20
27
13
25
-16
-1
13
-16
17
24
-81
50
15
6
-20
21
-13
-5
32
-8
-2
-9
-66
20
35
-14
-18
-16
-69
13
-23
-94
68
-32
-21
-63
62
-21
22
-1
-30
-65
61
-77
-22
22
-2
2
30
-21
29
-14
-14
-127
-69
-33
12
30
-1
-17
18
109
-7
38
-4
-33
41
-2
-26
31
3
25
-32
26
9
72
7
47
50
-89
14
-23
24
9
43
7
2
15
49
64
3
88
53
-79
35
54
14
36
38
-27
-84
10
17
3
0
-1
-11
-46
1
-23
4
20
-48
-60
47
21
33
1
-26
-34
-8
7
3
10
49
-17
-3
42
-44
8
52
15
-46
13
-41
-106
-78
16
6
-10
7
12
38
-15
0
15
-13
-53
25
-9
2
-2
-7
-4
-5
17
-13
3
-26
-48
42
33
-40
46
-20
-8
-7
14
55
36
23
20
-10
-29
7
-53
38
30
-37
1
-1
-4
-28
12
-15
116
20
26
-20
-14
-3
5
15
0
20
-31
12
-23
-51
-3
20
35
-1
18
11
6
-33
15
1
-9
-9
-9
-26
-1
30
48
10
9
-5
6
28
-2
-11
-18
-16
34
17
10
-57
25
14
-13
55
37
36
58
-38
81
127
-3
-2
-7
-9
-97
-32
24
-4
1
19
4
7
-82
27
0
-41
-45
12
41
42
-53
-25
-3
-28
-36
-55
19
6
57
-49
-48
19
17
39
38
-59
-68
16
-28
-7
19
14
13
-30
-24
10
28
10
8
-4
-127
-20
-1
24
21
4
-21
-16
-6
-84
-39
-9
-20
43
9
14
38
24
52
8
-41
-66
-43
-39
3
-21
-7
15
-67
-24
39
-1
6
9
-20
41
-27
50
-68
-3
3
0
-36
63
15
38
-13
-49
6
5
10
-34
11
38
4
1
-3
2
-3
-28
-7
37
31
-42
-21
35
33
-12
-15
25
-4
-15
84
7
-17
78
39
15
0
-33
31
-80
31
-26
0
-26
1
28
-2
-52
30
2
4
30
-24
-10
-57
-31
-10
-6
10
-18
18
-9
-5
8
-41
12
36
15
21
7
3
-55
-5
-60
34
-7
-29
8
-9
1
-16
-5
-18
-8
-43
13
3
13
-3
-51
-26
-34
-11
3
14
43
-70
28
8
-25
4
-21
-1
-5
-23
-35
13
-11
0
-39
15
-1
-24
-4
-24
-44
-31
25
100
38
-41
53
36
13
15
43
-27
5
-48
19
-4
-42
23
6
27
-13
-45
27
-3
-28
14
5
-25
-13
-37
76
26
8
-17
4
43
-15
-13
-15
-11
19
48
14
25
10
38
35
51
-6
21
5
-9
-31
-4
-33
-17
-23
9
-6
-18
7
-2
-82
-11
1
-31
-70
6
38
-28
14
-8
-6
-3
-15
25
8
-11
10
-6
-11
16
2
-5
22
46
-7
56
-15
-4
10
-12
-24
3
14
0
-20
29
20
2
-37
-10
2
8
19
-2
-72
-11
-39
21
31
-27
4
1
13
-11
4
52
-36
-21
38
57
-42
-17
12
-16
-28
-27
-52
22
-20
22
90
-6
0
1
-17
47
-117
-6
43
38
54
52
35
37
-57
-20
-7
6
-8
23
-20
1
10
0
-1
116
69
26
-49
38
0
6
62
28
-17
-50
-3
-17
31
-13
17
-7
-46
-3
14
19
-11
12
-12
-2
-24
9
31
-27
-3
-38
9
2
-6
-20
2
-72
1
-11
-17
-23
57
-16
-36
-5
34
-14
5
-33
4
33
-15
14
34
6
16
-16
-11
9
53
4
11
48
-82
4
-24
-7
-28
-18
-10
-26
3
27
-27
40
-13
25
10
26
9
9
-37
-27
3
-2
-4
-22
46
34
-15
28
-10
-22
11
18
9
4
4
-22
5
41
-19
-15
7
11
-40
-9
-61
7
-14
16
-12
45
-25
-35
11
18
-12
68
21
1
-61
-30
-10
-44
0
14
14
84
85
-10
31
15
-127
36
35
-26
44
-13
-10
-7
13
-6
7
-48
-40
-27
1
-1
-52
-56
-99
16
45
-32
-76
40
31
-64
-41
3
-1
-69
-6
0
16
70
-36
3
57
-17
-50
7
9
29
6
-37
-24
10
-1
-14
-24
6
-31
-9
-4
-43
-46
-47
-15
-6
10
42
-25
-78
34
30
32
0
-48
-13
33
14
44
95
-8
4
-6
7
6
42
-10
-17
35
23
4
-6
-11
6
5
17
4
24
33
16
1
9
13
44
9
-24
18
-5
-3
2
-40
-31
-19
-7
-41
9
-20
12
-39
4
29
4
-22
15
0
14
-11
-8
0
-6
27
32
-31
-2
-25
-19
2
31
-6
-9
7
11
28
-29
-8
22
-1
23
-8
-3
-22
-10
-2
-7
22
3
9
-41
-9
-11
3
13
26
-20
-36
-4
-5
-29
-12
-3
30
39
-35
-8
-10
6
-6
21
-7
-9
-6
28
8
-17
-37
10
9
65
-15
-3
5
8
-24
15
3
10
-65
-23
60
-23
7
-9
3
-21
-16
-37
-5
23
15
2
5
27
-13
2
-16
45
1
-23
-27
-41
19
-1
19
-5
14
-8
2
-31
17
-21
15
23
24
-14
7
4
-21
-45
7
12
4
-15
-12
-31
-35
5
-4
13
9
-55
-27
-27
23
-6
72
19
16
-10
0
4
24
-3
-6
-58
3
8
32
17
8
-21
-31
14
20
-17
58
54
24
-33
11
-87
-19
-12
-8
106
31
-32
-3
40
22
-26
11
10
-2
15
-8
-20
23
0
12
-17
72
109
-23
-26
-16
13
-42
22
16
3
-26
-54
-41
-17
15
-37
25
30
12
29
-24
66
39
16
-21
-11
-50
14
-1
-44
46
25
22
6
-6
34
-1
4
-44
6
-10
42
28
9
5
-11
-83
7
-23
-31
-22
-47
14
15
16
-6
-44
-2
2
1
28
-15
24
-10
-60
16
27
45
-21
26
1
-31
59
-22
13
8
38
13
12
-25
-42
-21
-17
5
-10
7
14
-15
2
-11
24
15
5
-26
29
34
48
4
-15
-13
24
65
-28
-20
34
27
41
35
-31
10
-62
21
-3
16
15
12
-7
-29
-5
-7
5
-14
-12
-23
-12
36
21
24
-3
-23
-27
-7
-8
-40
-3
-42
-5
-30
13
28
19
18
-48
-5
-22
-5
-13
-4
12
22
3
1
35
-17
-8
-28
-33
14
-8
4
36
-30
-18
-6
56
8
-3
-4
22
-3
0
32
-5
14
-3
33
6
8
1
-5
-4
-1
-22
2
-18
0
13
-4
28
-4
-25
-21
4
-15
-8
4
-19
-25
3
-41
35
8
-5
3
-22
23
7
-6
-9
-8
11
12
-13
34
10
11
21
8
-14
-11
3
45
-14
-4
-4
26
2
4
-2
-3
-23
12
-9
-35
-4
-6
-11
-13
30
10
34
4
7
-36
20
5
1
-27
-18
-7
8
52
18
0
-1
6
40
3
-26
-57
4
13
-45
-8
-37
77
19
-43
-36
-8
30
-25
-50
11
-6
-13
-16
-34
-7
92
24
4
-13
-4
51
127
-21
-3
-63
9
-4
28
9
-70
-13
29
-7
40
-16
-59
24
10
-23
23
45
-73
78
19
33
-61
-5
-21
-9
13
-3
-20
10
19
37
-22
-19
-7
-54
8
11
14
7
-28
14
32
4
-80
-31
-4
-92
39
23
-17
-2
10
50
-14
-8
-7
-23
-23
5
2
20
-66
-115
12
-49
40
-84
78
-119
-5
0
-13
23
-18
-7
-20
-1
4
6
30
-18
8
0
6
3
15
14
-10
16
3
-5
3
11
8
-4
-8
-11
26
-12
11
-2
0
-19
4
-2
12
47
-21
-17
-11
10
-9
-5
-8
7
2
-28
-2
17
-14
-15
-6
8
3
8
-24
0
6
-9
-25
10
-5
1
14
-11
-4
-14
24
-5
-7
11
-13
14
7
-5
11
3
-16
-7
-4
3
-2
-3
2
-1
29
13
1
10
-28
-29
-8
36
32
-26
52
1
-10
-13
16
14
-63
-41
-8
-9
-4
-2
6
-18
7
-18
-12
2
9
-10
25
-65
-11
-37
8
-38
18
11
-34
7
-12
-4
25
3
-29
8
-10
-57
1
12
0
-25
-29
-51
21
1
13
-25
-2
-9
18
3
7
5
25
2
-30
-1
-45
0
-22
-12
13
6
6
54
18
4
19
16
4
-10
-7
13
12
42
-4
-2
-68
10
12
45
-9
-19
-36
-6
57
15
-13
-2
65
9
4
-1
40
37
-62
-25
-31
-11
19
-92
31
-4
-10
-13
-79
39
24
31
-5
10
-12
-37
-21
-38
-4
-20
-39
-6
20
-29
19
-7
-42
-17
-35
-31
56
-17
31
21
-23
33
-39
35
-15
-9
-55
-84
-23
24
-32
14
-106
-3
2
19
18
-15
19
1
-8
-28
-7
-41
-21
-6
-5
-20
38
38
41
-16
35
8
-2
-16
-23
43
7
3
-17
-22
-32
-15
22
23
-1
-31
-44
-10
-68
53
-7
-20
5
-1
14
59
56
45
11
6
-6
29
9
9
-8
-13
3
-3
7
34
1
1
-2
-4
0
7
-10
9
4
-19
1
22
-4
-4
2
-6
2
-7
-3
-12
-2
-10
4
-9
13
39
-29
-6
15
-4
10
5
8
1
5
2
3
7
5
-10
-9
-13
2
6
-10
12
-10
-9
0
-13
-13
5
15
-18
-27
11
11
-16
-3
13
-11
-9
-4
-10
12
8
34
-7
1
-3
3
11
-13
-10
6
1
15
10
-29
-37
1
22
24
6
-104
31
56
-23
0
-53
-20
-16
76
17
10
-35
-4
-17
-15
-1
96
-3
32
76
36
-15
-4
18
-29
-44
69
62
-5
18
-36
2
50
-3
-22
-26
23
-51
-79
-18
94
-88
17
26
-3
50
32
24
-38
3
-18
-15
-34
6
-38
12
-93
-29
-43
-101
-30
127
39
-17
-10
-30
6
2
-30
-39
-57
-4
75
42
-6
-1
9
89
39
-9
-34
-8
13
-34
23
10
-30
-35
-5
33
65
35
2
-7
5
50
-19
-17
-21
-10
4
-10
24
14
-13
-14
-46
13
-24
16
23
3
23
6
13
-29
29
13
-26
-17
0
-10
-5
-35
8
18
74
-8
-19
16
18
-12
32
81
112
-4
24
-27
54
-18
8
-9
14
44
-2
-19
-43
51
-35
-21
14
17
7
-28
-18
19
31
12
-24
5
11
21
2
15
-39
17
-14
24
8
28
26
7
34
-9
16
29
21
-2
3
12
-3
-4
-38
22
-16
63
-18
24
25
64
12
18
92
20
58
13
-23
13
65
-21
6
26
0
-32
10
10
16
47
30
-19
-13
-53
3
-13
44
42
4
-90
-74
64
31
-34
24
93
17
-24
44
-38
13
12
24
-64
-19
34
20
8
42
-19
-31
12
-71
-15
38
85
-13
-32
-29
24
-7
-32
-2
-79
-24
18
-83
-15
24
30
13
-11
74
10
-28
20
-2
-6
-10
-110
-19
25
-40
4
-32
24
25
94
-2
8
-49
15
0
-20
8
-82
-18
42
-98
-54
-52
11
-15
4
9
7
15
14
12
-11
-1
39
-18
35
9
22
9
11
3
-27
-6
-38
-13
7
-17
14
-21
35
-22
-26
-34
52
4
5
32
41
3
-41
-30
-1
-36
-5
-22
-15
15
40
8
-25
-6
-8
0
0
12
32
-4
10
-22
29
14
-6
38
-8
-44
0
-24
-1
-6
16
-3
17
0
1
-4
17
1
-17
29
-3
4
15
-7
-55
2
0
-33
-2
-17
16
-4
-13
-24
28
-6
30
11
3
-24
2
-34
34
22
30
52
27
6
17
8
72
-13
38
-14
4
39
-25
-9
12
-30
-43
10
7
-19
-8
-29
-25
-2
-34
14
18
39
48
31
-77
-11
32
-6
5
15
-12
-1
-30
14
-7
-19
-10
-53
22
14
4
-4
-28
-4
-18
43
21
-7
-1
-11
15
9
-4
15
11
-57
-32
34
-6
2
-19
7
-42
-12
2
13
31
-35
-17
14
2
12
-13
13
6
5
-21
-10
-9
28
13
-11
21
22
-44
46
15
-32
17
35
91
-18
-32
38
26
-26
61
20
-55
-21
7
-9
-10
-70
-45
-22
64
117
-41
82
18
-37
-45
-1
-22
15
32
-28
-3
-22
3
31
47
-75
42
-37
10
51
6
-35
-39
49
22
-7
10
-5
-52
12
-43
-18
24
46
-8
7
-19
83
-8
20
5
8
32
1
-10
-83
-27
-38
20
-24
32
-5
-47
-81
33
69
2
65
-2
-20
-3
67
11
62
75
-18
6
-7
-36
-16
16
8
55
5
24
46
17
21
16
22
5
-19
-9
-87
68
-17
44
36
-38
63
-8
-55
-59
-4
0
19
0
-17
-46
38
0
1
-30
14
-5
-3
-37
-127
44
56
-8
20
-48
33
-122
-21
79
-9
64
14
15
-7
38
6
54
28
5
-9
-5
-43
-36
17
35
-11
-66
95
31
-37
-29
-32
6
-35
-21
7
-7
4
49
-32
10
-34
84
-76
-73
13
-5
66
-14
34
-127
-34
30
-24
14
-22
17
19
-31
-24
-103
-41
-21
22
80
-11
-24
7
25
-93
-6
102
-86
-61
2
21
-17
-7
-15
49
-72
26
-55
-6
-12
-41
-2
-39
-26
-49
29
-1
15
-14
-9
-9
-33
-12
-8
37
26
-31
-58
37
52
-38
10
-8
-25
14
-16
8
17
8
-10
19
-20
6
-26
33
-7
24
19
7
-37
36
-38
32
47
11
-31
-60
43
-25
27
-25
34
56
-72
-47
-127
2
1
-17
-8
18
-28
-10
-2
-25
-66
55
-59
-31
-9
-20
107
-32
-10
2
38
-2
17
13
6
8
4
8
4
13
21
3
-14
-12
-8
-21
19
-11
39
47
68
20
-47
27
-51
-19
48
-25
-22
-5
14
4
-23
1
10
9
-5
-4
15
-34
17
-28
10
18
-16
61
27
12
5
-12
-6
-11
-5
10
-28
-5
-13
-7
-17
-26
21
-18
-29
47
8
11
-5
-4
-7
-5
24
-17
1
14
-37
-57
22
2
2
-10
-38
-9
2
62
-18
-9
-1
0
-30
1
33
-42
18
2
-6
4
-3
26
26
17
-25
18
-36
33
18
15
32
-36
3
-29
-11
-47
122
-3
10
-32
13
19
-45
-13
-36
40
26
5
-34
12
-12
-7
19
-1
41
22
-36
-20
-67
-44
50
23
8
-14
10
-67
1
4
19
-46
-5
26
-15
2
5
-11
-71
-19
-5
54
-8
-6
-2
31
-19
-3
-2
26
67
0
-10
42
36
-50
3
36
19
18
-72
11
15
55
31
-37
56
8
-7
19
25
5
-15
21
18
-7
37
14
8
0
37
16
-11
11
-3
73
111
-13
49
2
2
-1
10
-21
1
8
-102
45
74
-44
-4
28
82
31
-2
40
-37
-34
10
75
-52
28
-19
86
-9
61
22
36
9
14
-58
12
58
-48
-24
-16
8
-20
-10
-27
-2
-7
-25
1
15
10
-3
2
3
-11
16
-127
19
68
1
10
6
-1
-82
3
37
-5
-9
-104
17
30
17
4
-22
3
2
31
9
0
0
-8
3
3
-34
84
37
-11
5
12
24
20
-16
-10
-4
-23
1
-6
12
-16
10
-6
-12
-5
-5
5
-5
-18
-11
4
-9
15
12
36
-2
-37
30
-9
1
36
1
3
-25
-3
-35
9
-27
-58
-20
-2
-11
-8
16
10
9
2
33
26
5
-10
-14
18
-7
-27
-24
6
47
25
11
2
6
-28
-28
39
46
14
7
-9
-3
9
32
-4
14
-35
-10
76
31
3
14
-8
12
-8
-9
28
-37
-4
-3
17
-10
-6
-23
-59
-24
31
22
11
-39
13
6
28
8
15
-30
43
-39
12
-45
2
6
0
25
-3
-6
25
7
8
8
-28
-3
12
-32
7
-29
-35
23
29
7
-14
-20
-14
-22
28
-8
-2
-6
54
3
30
-66
23
-32
31
-8
-22
19
-9
10
9
-3
-5
31
54
-26
19
-20
-61
11
-9
30
16
-3
62
2
-2
11
16
8
-3
-12
35
-8
7
12
-33
13
12
-4
-9
-8
21
-83
20
-7
7
26
6
-28
9
-35
-3
24
4
-43
18
-10
8
4
9
-12
-15
90
4
47
-26
-6
-11
18
-27
-25
-18
-16
-9
1
-50
1
-6
29
-35
15
-15
16
-40
0
-1
7
44
-23
35
11
16
8
23
17
25
28
0
43
-71
-28
27
8
5
29
-15
21
-46
6
-5
3
6
-7
-1
-4
2
37
-22
-2
-6
9
-16
-19
-6
-38
10
-7
15
-8
2
17
-22
-8
-8
25
-31
-4
19
-13
-22
-12
-9
-5
-9
-14
8
69
27
47
-7
1
-65
7
-27
8
-55
-14
6
-18
6
54
-40
20
20
-17
8
31
-2
38
38
2
45
-127
-10
2
12
47
-9
7
24
17
-25
28
-20
16
69
-75
98
37
2
6
-52
47
6
35
-6
-7
0
-23
-26
30
16
13
2
3
-17
35
-16
-42
-22
40
35
-66
24
-33
-33
-4
19
-35
33
-16
6
13
10
125
72
-8
6
42
-15
-14
-13
12
1
-64
35
-14
2
41
-9
-7
1
-4
-20
-33
26
8
19
47
3
-59
-4
-1
9
-102
15
47
10
-38
-22
-15
-12
43
-16
74
88
-47
-18
-13
98
-48
5
-51
52
12
23
81
27
0
-16
-33
53
-13
64
41
-59
-16
0
14
-9
-16
31
-32
39
23
52
-14
45
33
45
-26
27
-35
43
5
1
1
-15
3
-11
29
21
7
-3
9
-13
-105
0
5
-7
-26
-17
-10
-12
-3
0
31
-2
-3
35
-19
-5
36
3
3
11
40
-1
-38
-34
-58
50
6
17
28
25
90
-12
42
-14
21
2
19
-11
53
35
30
-1
-5
-39
18
30
12
20
30
-24
79
78
76
18
0
7
27
18
-8
43
-42
-11
22
8
-3
9
18
-3
24
5
-83
-26
-91
30
37
-14
9
-6
-52
13
13
-127
-2
18
16
71
4
14
-56
9
13
-9
5
5
-4
-106
49
-2
-17
-1
19
44
-15
29
-36
-5
33
-25
-5
-5
-3
-5
-1
-3
11
0
-15
32
33
-12
3
6
-17
1
52
5
-2
9
-11
-26
14
2
1
-2
-2
2
-15
11
6
7
-34
14
49
0
-14
52
-36
-12
-22
-8
32
49
22
19
-34
-25
-11
-68
28
3
-42
18
-3
14
-22
20
-9
63
-2
-3
2
-18
8
-1
3
-10
12
4
16
-1
-51
25
18
25
16
39
-20
41
-15
-3
3
-14
2
-7
-47
15
18
42
6
-18
32
10
-1
-18
-3
-11
-45
34
-6
-8
-20
27
21
30
61
-3
-4
0
-24
-8
-25
-7
30
-10
0
3
65
4
-3
-6
-2
-7
5
-30
-4
-33
7
15
1
-16
-9
-4
13
-29
28
-11
-55
-3
-4
62
-21
11
-8
8
-32
-1
-12
12
20
29
-14
12
20
1
24
37
6
-10
17
4
6
-32
3
6
24
-24
-8
1
1
0
-11
28
24
8
7
-35
-8
19
-55
-5
-13
-5
-50
-12
16
2
4
-8
0
-6
-2
-25
-41
-27
-1
0
-6
12
-15
-24
42
-6
-19
-9
-5
12
21
-8
-38
18
-5
10
9
-14
-73
8
-11
-32
-45
2
-13
-1
-10
43
60
4
31
23
46
-49
2
8
-20
-7
-2
12
-10
-5
-1
-37
-5
18
-25
32
-26
62
-16
-2
-17
2
-54
-20
24
19
-27
39
0
2
33
16
-23
6
-26
-17
1
19
-22
3
-4
20
-2
14
20
-4
-20
-1
29
38
4
72
21
-24
-5
5
46
-6
-15
-55
-43
12
0
24
-23
-1
-5
35
-34
-23
68
-32
4
47
3
-30
-34
-20
55
-29
-45
-114
-41
-28
-54
38
-1
-33
40
26
39
-26
-14
26
-9
6
-57
-45
-48
82
1
-7
37
34
21
77
80
-4
17
-26
21
-7
-21
51
-9
19
-26
38
35
51
46
-87
23
-24
44
36
55
22
-93
45
16
-19
-2
22
-78
41
-34
3
0
84
-85
24
51
-15
2
46
-51
20
-46
37
-15
2
18
-57
5
-8
24
-15
56
-1
1
23
-76
-33
-20
3
-13
-49
17
-30
-24
-31
-9
-4
10
4
46
36
19
3
32
63
-26
5
3
-15
4
-72
-24
-48
-7
8
-44
-18
1
29
1
5
-1
-24
5
27
101
-27
-11
34
-44
42
84
11
-30
41
27
-17
81
-11
-5
30
29
24
-21
16
-6
-6
37
-65
16
-16
3
10
-14
-26
44
28
-3
35
-3
5
-16
-21
-71
-50
-65
31
-27
43
-31
-22
106
6
-13
-7
25
7
-7
53
14
20
-93
-11
-12
-16
-29
16
-6
16
19
3
39
26
-10
-19
38
-5
-31
1
2
-15
-35
-19
-6
-48
-3
-50
-11
-60
-19
-84
11
4
-28
-27
-41
18
48
-27
-100
-35
5
16
34
127
23
-27
46
25
-4
0
17
-8
49
60
22
4
-76
-44
6
96
51
-15
-58
11
-10
27
-7
-25
56
-10
15
-35
-12
24
-13
9
-123
-28
-9
81
25
-91
-1
5
31
7
-28
-8
15
-41
45
-20
8
-12
12
-20
-48
49
24
53
9
1
-127
-4
102
58
-11
-52
38
-7
-23
-23
34
64
-6
-50
-13
-31
28
15
-36
48
-2
-17
13
-57
68
-9
-28
-17
85
38
2
9
64
-13
7
25
9
0
-50
43
21
58
127
-76
23
-33
-14
39
8
-1
15
-65
-5
-58
52
-8
127
37
53
4
-2
22
29
17
20
0
-60
127
-1
-26
3
-7
21
124
-14
-17
-12
-41
-15
-29
41
29
35
20
-34
-19
-24
-15
-22
16
57
28
-4
-28
1
-13
-8
8
24
-28
23
-2
0
11
12
15
6
9
-11
-19
5
-20
-33
-17
20
6
3
-5
-14
34
-34
-5
33
7
20
6
53
-7
-3
21
27
33
39
-2
-16
-17
71
11
20
3
-2
-60
47
-4
-34
-14
38
-7
9
-80
-12
48
-32
-20
-13
42
9
-8
-40
82
41
-30
14
-14
-17
-17
6
-15
-42
3
6
2
40
38
20
-9
6
-16
-1
35
-39
-11
4
31
-26
-13
31
-7
-40
