66
94
44
91
127
59
39
54
15
-90
-116
-71
-106
-127
-93
-61
-84
-38
-61
-83
-45
-86
-127
-60
-42
-65
-22
72
92
35
96
127
50
43
53
18
60
93
60
81
127
77
32
58
35
67
90
49
94
127
65
39
50
21
73
104
64
86
127
85
50
70
31
-72
-96
-35
-86
-127
-46
-31
-45
12
62
92
49
88
127
64
38
57
21
92
-4
-77
127
1
-111
48
0
-46
66
94
47
95
127
62
41
61
24
65
97
53
86
127
69
35
61
35
-67
-89
-45
-97
-127
-64
-46
-62
-25
-46
-88
-51
-69
-127
-71
-24
-58
-22
69
89
32
97
127
51
54
65
26
75
98
53
98
127
66
49
66
25
-82
-100
-49
-95
-127
-66
-41
-66
-23
69
94
41
93
127
58
47
55
21
63
90
37
90
127
58
39
55
21
68
91
35
100
127
45
46
56
22
74
98
48
94
127
62
42
60
18
71
97
45
95
127
56
36
50
16
-60
-87
-41
-84
-127
-58
-39
-59
-31
-85
-115
-54
-92
-127
-67
-47
-69
-37
-16
-95
-79
-33
-127
-98
7
-54
-41
-116
-127
-77
-108
-113
-82
-63
-50
-24
-58
-89
-46
-83
-127
-65
-33
-59
-16
66
91
43
91
127
60
42
61
24
74
87
28
97
127
47
49
62
19
75
94
43
101
127
54
41
59
20
59
99
61
81
127
79
34
58
38
-74
-92
-45
-100
-127
-66
-41
-61
-20
-54
-91
-59
-87
-127
-72
-22
-58
-37
62
97
56
85
127
68
31
51
29
-62
-115
-95
-98
-127
-109
-37
-81
-72
-70
-95
-46
-90
-127
-62
-38
-58
-18
67
94
48
91
127
64
42
58
26
60
94
51
85
127
69
37
60
30
74
94
35
95
127
50
43
57
22
88
108
51
103
127
59
46
48
2
-72
-103
-53
-87
-127
-83
-41
-70
-27
-47
-83
-52
-67
-127
-71
-30
-61
-39
-65
-102
-57
-90
-127
-75
-46
-72
-22
106
57
-105
-22
-30
57
23
32
127
59
93
51
84
127
62
35
53
28
46
90
66
68
127
91
28
61
42
74
96
47
96
127
61
42
61
26
75
100
48
93
127
65
44
62
24
-72
-91
-43
-96
-127
-62
-45
-66
-16
-57
-94
-59
-80
-127
-76
-31
-49
-25
-59
-98
-52
-90
-127
-73
-36
-64
-25
71
90
35
96
127
49
42
57
22
65
91
49
88
127
65
42
62
25
66
88
41
94
127
52
41
61
25
-47
-85
-50
-69
-127
-71
-29
-58
-34
59
89
58
86
127
79
34
68
49
63
92
45
93
127
62
45
57
21
75
96
46
96
127
64
43
60
17
79
103
41
103
127
55
50
53
12
-69
-98
-63
-89
-127
-89
-43
-72
-33
72
96
40
100
127
56
53
59
16
-59
-90
-44
-86
-127
-59
-39
-59
-26
-85
-106
-71
-110
-127
-84
-53
-72
-16
74
101
52
92
127
64
41
51
25
59
89
46
87
127
63
42
57
29
72
92
44
94
127
57
44
61
20
65
95
37
92
127
52
42
53
21
77
98
45
101
127
59
46
62
22
79
97
47
97
127
60
46
65
28
58
89
52
81
127
71
33
56
32
60
92
53
83
127
70
37
57
26
61
86
36
86
127
62
44
64
30
-63
-91
-44
-83
-127
-68
-38
-62
-24
68
96
58
90
127
74
37
56
31
-104
-87
4
-127
-102
-5
-67
-54
7
65
87
33
92
127
50
42
61
21
-115
-114
-68
-127
-111
-91
-51
-90
-18
-92
-105
-29
-100
-127
-38
-26
-38
8
73
97
44
100
127
54
48
62
17
67
92
48
89
127
65
42
57
27
66
97
45
87
127
65
39
55
22
70
89
48
92
127
64
49
58
28
71
93
48
91
127
62
39
54
25
58
97
58
79
127
78
38
65
33
-66
-87
-41
-88
-127
-54
-31
-56
-15
70
98
47
98
127
59
42
55
24
69
102
51
91
127
66
36
54
28
68
98
48
93
127
70
50
62
25
63
92
44
90
127
60
40
58
25
63
91
43
89
127
56
39
53
17
67
91
44
88
127
60
38
56
21
66
93
44
90
127
58
35
49
21
-67
-90
-40
-92
-127
-60
-44
-61
-22
-79
-103
-49
-100
-127
-65
-40
-63
-24
71
91
40
95
127
57
44
56
17
75
99
46
99
127
54
39
51
17
-61
-92
-47
-82
-127
-66
-33
-58
-31
-53
-96
-48
-81
-127
-67
-42
-61
-25
57
92
48
82
127
68
37
58
24
70
96
40
97
127
53
45
55
21
-96
-121
-70
-112
-127
-98
-62
-98
-48
-90
3
79
-127
13
104
-66
10
43
78
99
47
98
127
59
41
56
27
71
94
41
95
127
59
42
56
19
-73
-100
-48
-99
-127
-64
-47
-58
-36
57
88
41
85
127
55
35
51
19
-68
-90
-41
-79
-127
-69
-33
-64
-27
-56
-96
-50
-86
-127
-71
-29
-54
-27
72
96
47
94
127
62
43
57
19
-56
-91
-47
-89
-127
-58
-42
-67
-21
-49
-82
-39
-81
-127
-62
-40
-60
-24
-43
-108
-58
-59
-127
-87
-22
-47
-31
71
93
40
99
127
55
42
59
19
-86
-101
-45
-105
-127
-67
-51
-58
-14
68
103
49
95
127
57
43
54
21
60
91
43
89
127
61
41
58
23
-73
-105
-41
-106
-127
-79
-45
-72
-16
62
89
44
87
127
59
39
58
31
70
96
39
99
127
52
47
58
21
-60
-94
-69
-89
-127
-93
-38
-77
-37
59
91
51
80
127
68
33
59
32
-58
-91
-50
-89
-127
-78
-42
-76
-35
-61
-119
-68
-74
-127
-82
-28
-76
-63
-13
92
-67
-7
127
-102
-4
55
-48
-58
-84
-37
-90
-127
-59
-43
-65
-30
67
97
45
88
127
57
37
49
17
-63
-101
-52
-86
-127
-65
-33
-50
-21
73
94
46
99
127
63
47
56
19
73
96
46
95
127
59
42
56
16
-64
-84
-38
-84
-127
-60
-35
-54
-14
70
97
46
91
127
60
36
55
26
65
96
45
89
127
63
34
47
20
-65
-93
-53
-89
-127
-68
-38
-59
-22
-59
-90
-51
-82
-127
-66
-37
-58
-31
-57
-50
-7
93
127
52
-61
-67
-23
76
90
45
98
127
58
31
55
19
100
-4
-78
127
-4
-103
61
2
-49
84
101
43
109
127
54
56
61
17
70
92
34
92
127
54
41
57
30
-54
-89
-42
-83
-127
-66
-33
-58
-26
60
94
51
81
127
69
33
55
23
56
90
60
77
127
83
26
57
41
106
127
68
-31
-60
-26
-68
-46
-58
71
95
44
94
127
60
41
53
15
63
95
46
89
127
66
44
62
33
-99
-127
-81
-107
-115
-101
-62
-63
-49
-92
-127
-71
44
36
29
71
80
58
70
93
43
92
127
61
43
58
19
-51
-92
-43
-79
-127
-75
-39
-70
-42
82
98
41
102
127
54
34
49
15
64
96
50
86
127
74
48
64
30
73
96
46
97
127
56
45
53
19
69
93
37
96
127
51
39
52
16
78
90
27
106
127
44
61
60
16
68
98
58
83
127
81
36
57
42
-102
7
86
-127
6
119
-55
5
48
65
92
47
90
127
66
42
61
32
-37
-45
-21
-91
-127
-58
-42
-36
-17
69
89
34
100
127
48
52
60
17
-67
-96
-49
-94
-127
-76
-48
-68
-23
78
98
46
100
127
62
43
52
25
69
96
55
95
127
71
41
59
30
72
93
31
95
127
42
48
53
14
-75
-91
-54
-96
-127
-76
-32
-51
-22
63
90
46
91
127
59
44
60
27
61
88
39
88
127
58
40
60
27
-76
-97
-39
-99
-127
-53
-42
-54
-18
65
88
43
88
127
61
32
54
25
65
89
48
90
127
61
41
58
17
-95
-71
-4
-127
-87
-8
-62
-49
1
68
95
39
98
127
57
52
60
26
72
101
49
92
127
59
46
62
28
65
95
43
86
127
61
36
45
17
81
104
57
96
127
70
52
70
35
63
95
53
88
127
66
38
58
23
74
96
49
92
127
62
42
57
23
65
97
64
82
127
82
34
60
39
-62
-93
-47
-83
-127
-67
-34
-58
-25
61
94
54
90
127
72
37
55
34
-61
-89
-48
-85
-127
-65
-35
-62
-19
-60
-83
-21
-90
-127
-49
-38
-46
-11
-77
-92
-48
-97
-127
-65
-41
-59
-19
69
93
41
91
127
57
38
53
18
68
91
41
92
127
59
44
62
27
-66
-89
-41
-89
-127
-59
-37
-55
-19
-58
-87
-43
-74
-127
-68
-38
-61
-23
-69
-99
-56
-94
-127
-78
-45
-74
-27
76
95
35
101
127
48
50
55
15
-55
-100
-49
-82
-127
-62
-44
-65
-22
-53
-99
-43
-85
-127
-64
-41
-61
-26
75
96
51
96
127
61
42
59
25
-79
-108
-43
-105
-127
-69
-40
-68
-23
-57
-90
-51
-77
-127
-73
-34
-63
-24
-55
-98
-48
-86
-127
-67
-32
-70
-30
-58
-88
-49
-84
-127
-72
-45
-63
-27
-46
-88
-69
-59
-127
-99
-30
-76
-47
64
91
52
90
127
70
47
59
29
64
94
38
91
127
54
41
54
23
62
93
49
85
127
65
36
53
21
86
-20
-88
109
-48
-127
50
2
-46
62
88
31
87
127
49
43
58
21
68
91
41
91
127
58
35
56
27
-60
-81
-39
-87
-127
-66
-42
-64
-24
-61
-88
-42
-88
-127
-60
-43
-54
-25
67
93
37
92
127
50
38
47
19
56
93
65
78
127
85
33
59
43
64
93
48
94
127
58
41
63
25
62
88
38
85
127
56
35
52
14
76
99
45
99
127
54
42
50
17
67
95
50
92
127
61
39
57
21
-58
-99
-50
-90
-127
-69
-41
-69
-25
80
95
40
101
127
50
40
54
12
75
94
38
98
127
47
41
54
15
65
92
44
94
127
63
44
64
25
-55
-98
-57
-84
-127
-75
-43
-71
-40
60
99
52
79
127
71
35
51
23
66
90
40
94
127
51
47
59
24
61
90
48
85
127
59
37
52
26
76
100
55
94
127
69
39
60
29
104
127
88
-62
-95
-47
-120
-124
-82
-64
-94
-48
-87
-127
-61
-39
-55
-18
-61
-89
-44
-88
-127
-62
-36
-56
-16
55
89
58
83
127
78
31
57
42
60
92
46
87
127
61
46
55
23
61
96
53
85
127
74
38
57
30
73
95
44
96
127
60
43
61
18
-60
-93
-43
-77
-127
-67
-37
-51
-33
-63
-94
-55
-91
-127
-76
-44
-70
-36
71
98
46
97
127
58
41
53
22
95
127
55
-10
-12
-2
-89
-117
-54
57
92
45
80
127
60
33
53
25
60
99
55
86
127
67
40
57
29
86
97
25
115
127
31
53
63
14
73
101
47
92
127
64
41
57
25
67
92
46
89
127
62
40
59
24
60
89
45
86
127
64
38
56
25
91
85
16
111
127
27
43
62
20
70
95
52
94
127
68
47
64
27
61
91
44
93
127
59
40
57
23
71
94
40
97
127
55
45
54
20
-49
-80
-37
-71
-127
-59
-27
-47
-19
-61
-89
-61
-81
-127
-77
-34
-59
-24
68
97
52
97
127
69
42
59
32
74
100
47
97
127
59
43
56
22
5
-51
20
-27
-127
8
23
-2
20
75
90
37
99
127
56
52
61
21
67
95
50
91
127
63
47
67
27
68
97
47
90
127
64
41
56
22
-71
-90
-40
-97
-127
-61
-45
-67
-33
-72
-90
-52
-97
-127
-79
-41
-76
-36
-51
-120
-109
-60
-100
-127
-49
-101
-73
76
102
56
94
127
67
44
52
24
76
97
39
101
127
53
49
58
19
59
92
53
85
127
69
39
60
29
77
99
56
95
127
71
45
64
29
-56
-90
-43
-74
-127
-69
-42
-58
-19
72
96
50
91
127
65
35
56
32
75
97
41
99
127
56
56
58
18
59
92
59
76
127
73
38
54
32
76
93
31
105
127
43
52
59
15
68
92
51
91
127
68
42
61
32
77
99
51
98
127
60
42
55
19
66
92
40
89
127
52
43
54
16
-59
-88
-40
-90
-127
-52
-44
-59
-26
-68
-88
-37
-97
-127
-59
-57
-57
-12
70
92
49
97
127
65
45
63
28
76
93
34
102
127
48
46
54
13
-57
-89
-44
-84
-127
-63
-39
-62
-31
59
95
56
84
127
70
37
56
25
-67
-93
-60
-94
-127
-89
-44
-71
-39
80
94
38
107
127
50
52
60
18
-98
-19
79
-127
-25
103
-65
-6
48
76
99
49
98
127
69
45
64
26
61
92
46
88
127
59
39
53
23
71
93
42
93
127
52
38
47
18
-55
-84
-41
-83
-127
-60
-38
-59
-26
71
99
51
92
127
66
43
58
28
63
91
46
84
127
60
32
51
22
71
90
28
94
127
46
39
52
13
77
100
49
98
127
59
37
49
22
-56
-93
-54
-85
-127
-71
-45
-75
-29
57
89
49
81
127
66
34
56
34
85
97
62
-25
-39
-10
-105
-127
-66
-81
-93
-33
-93
-127
-48
-33
-53
-18
-77
-100
-60
-104
-127
-61
-35
-62
-8
48
93
61
67
127
79
28
52
34
81
105
42
105
127
51
32
22
3
67
92
39
89
127
54
33
51
22
68
94
50
94
127
71
43
54
28
66
94
51
86
127
65
41
61
32
-93
-92
-23
-127
-123
-23
-59
-52
-4
64
87
42
91
127
53
37
54
18
71
96
46
97
127
59
48
60
18
109
127
87
-43
-61
-44
-94
-87
-84
-71
-96
-43
-100
-127
-59
-41
-64
-21
55
94
59
74
127
75
30
57
30
-53
-82
-44
-92
-127
-58
-45
-62
-15
65
92
41
87
127
60
39
61
29
64
96
48
86
127
68
40
55
25
-62
-90
-53
-95
-127
-82
-63
-81
-42
-49
-86
-51
-72
-127
-76
-37
-56
-32
70
95
43
94
127
49
39
50
16
-95
43
83
-127
56
115
-61
16
52
-73
-99
-56
-89
-127
-73
-42
-65
-19
-69
-94
-36
-98
-127
-41
-33
-40
-15
-106
-127
-94
34
33
16
53
71
46
64
94
45
87
127
55
39
54
21
71
98
48
94
127
62
44
59
18
-125
-34
-5
-127
-16
19
-31
8
8
-66
-91
-44
-86
-127
-62
-42
-62
-25
-58
-99
-46
-75
-127
-63
-35
-52
-18
70
94
35
95
127
43
38
49
19
62
91
49
89
127
62
38
65
29
77
97
48
94
127
66
37
61
25
72
93
39
90
127
53
33
49
23
66
95
51
88
127
76
34
56
26
71
97
43
89
127
60
42
55
25
59
92
55
78
127
77
35
55
34
-63
-88
-49
-79
-127
-77
-36
-68
-40
51
92
59
72
127
80
29
54
34
67
96
44
91
127
63
39
55
22
-54
-91
-45
-80
-127
-70
-40
-56
-25
73
100
43
100
127
55
42
46
14
-74
-100
-55
-90
-127
-72
-28
-50
-22
68
95
50
91
127
71
42
62
30
-10
-29
-43
91
127
72
-26
-22
-55
63
90
36
89
127
54
43
59
22
77
100
45
102
127
58
41
57
22
64
91
44
89
127
57
35
51
21
65
92
47
91
127
65
41
54
28
-50
-83
-46
-79
-127
-66
-42
-69
-29
-16
-89
-100
-22
-117
-127
-18
-65
-66
76
95
45
99
127
61
41
56
25
71
100
54
92
127
73
41
58
25
7
99
-114
10
127
-108
8
72
-94
-55
-91
-56
-73
-127
-72
-26
-59
-31
-41
-86
-51
-54
-127
-78
-20
-59
-26
66
96
47
90
127
63
42
59
27
-58
-96
-48
-84
-127
-69
-37
-61
-28
68
95
48
88
127
66
38
63
35
77
92
46
97
127
57
42
58
21
74
98
43
94
127
59
42
56
23
65
93
47
90
127
60
37
54
25
-52
-85
-48
-81
-127
-67
-29
-61
-29
-61
-91
-49
-89
-127
-65
-37
-59
-31
-46
-90
-58
-71
-127
-74
-27
-61
-39
-58
-88
-40
-90
-127
-67
-37
-60
-23
62
91
42
85
127
56
39
56
23
61
91
45
89
127
62
41
54
26
69
94
45
89
127
61
39
58
27
66
97
55
90
127
75
37
59
38
-53
-85
-45
-82
-127
-69
-41
-58
-27
-56
-90
-48
-75
-127
-81
-38
-59
-29
74
92
43
99
127
53
38
55
21
98
91
23
127
126
38
57
59
15
64
94
48
87
127
62
39
54
23
-62
-92
-50
-87
-127
-70
-40
-64
-26
64
93
39
88
127
54
41
51
24
-83
-101
-45
-98
-127
-58
-36
-49
-17
-57
-90
-45
-76
-127
-72
-29
-62
-28
64
97
50
83
127
67
37
61
31
-76
-100
-44
-104
-127
-59
-42
-58
-27
78
99
45
100
127
61
44
56
18
71
102
56
98
127
66
45
63
27
-75
-99
-58
-83
-127
-68
-54
-83
-48
-60
-87
-45
-86
-127
-63
-39
-56
-24
64
96
47
88
127
54
35
49
17
67
92
49
92
127
63
39
61
28
92
98
19
124
127
27
57
54
4
80
101
42
104
127
54
52
57
21
-110
-124
-67
-104
-127
-66
-63
-87
-38
-82
-110
-37
-103
-127
-49
-35
-39
2
72
94
42
102
127
60
45
60
18
76
100
51
99
127
64
52
61
21
-62
-92
-44
-92
-127
-66
-35
-65
-25
-64
-90
-41
-93
-127
-64
-32
-62
-20
-48
-83
-40
-72
-127
-56
-35
-50
-19
64
89
43
88
127
58
40
55
30
68
97
51
88
127
64
39
56
23
-62
-101
-59
-77
-127
-76
-50
-74
-28
62
95
49
85
127
68
40
58
27
-66
-94
-49
-87
-127
-69
-40
-64
-18
-64
-95
-59
-88
-127
-79
-41
-60
-25
77
93
35
108
127
51
58
62
23
67
97
42
88
127
53
31
44
16
61
96
51
81
127
70
36
51
22
65
93
43
87
127
68
35
59
31
95
17
-52
127
7
-77
44
6
-28
-65
-91
-39
-88
-127
-61
-46
-61
-19
73
100
46
95
127
60
42
50
21
59
94
46
85
127
65
40
58
28
56
93
61
78
127
79
35
59
34
57
88
46
79
127
58
27
48
25
45
78
-56
41
88
-127
-14
1
-30
-69
-90
-46
-84
-127
-73
-39
-66
-28
54
93
59
72
127
90
37
68
45
-67
-94
-46
-87
-127
-62
-39
-58
-20
58
97
66
78
127
90
37
58
42
67
95
51
86
127
69
28
48
30
72
99
45
91
127
61
40
56
25
71
95
46
94
127
60
38
54
22
60
87
37
85
127
54
38
56
22
62
89
45
80
127
65
33
58
24
67
95
40
95
127
52
38
49
15
63
92
45
84
127
61
36
54
28
65
93
47
93
127
64
42
53
24
-106
-127
-62
-110
-127
-86
-90
-117
-47
60
94
57
81
127
75
36
61
32
68
91
34
91
127
49
41
54
21
67
94
48
91
127
66
42
59
28
60
91
50
87
127
60
35
51
28
-70
-96
-46
-96
-127
-66
-48
-68
-32
-61
-90
-39
-80
-127
-67
-39
-71
-36
-47
-90
-44
-76
-127
-75
-35
-69
-36
69
97
44
92
127
60
42
54
25
60
90
40
84
127
58
33
55
23
51
46
36
-32
-12
-8
-106
-127
-78
-59
-99
-47
-87
-127
-72
-38
-71
-33
68
92
38
92
127
54
43
56
19
-64
-89
-47
-84
-127
-66
-48
-64
-21
71
93
39
101
127
56
48
65
18
47
-52
-98
66
-72
-127
33
-12
-50
78
93
33
106
127
46
44
56
18
62
99
55
85
127
77
46
64
38
-104
-106
-36
-118
-127
-54
-65
-65
-13
-53
-80
-38
-72
-127
-53
-30
-35
-8
64
90
46
84
127
65
45
62
23
68
92
44
89
127
62
36
54
22
-49
-100
-80
-54
-127
-94
-44
-84
-56
64
93
47
81
127
66
36
56
27
-55
-90
-47
-78
-127
-68
-38
-67
-27
83
97
35
111
127
47
40
48
6
-64
-94
-52
-87
-127
-69
-45
-66
-34
73
96
43
92
127
57
40
52
17
75
96
45
97
127
59
42
58
21
63
94
47
89
127
63
40
58
25
68
91
41
83
127
59
38
51
16
-59
-92
-43
-82
-127
-71
-39
-59
-24
71
93
41
91
127
60
40
56
22
-82
-123
-49
-97
-127
-72
-55
-78
-28
-55
-90
-53
-76
-127
-73
-32
-56
-26
69
94
50
93
127
66
35
55
24
-67
-98
-53
-89
-127
-88
-52
-79
-33
68
97
40
91
127
56
36
48
21
89
97
60
112
127
71
0
75
54
-62
-81
-39
-89
-127
-62
-40
-60
-22
71
96
39
96
127
49
41
50
19
-68
-99
-44
-83
-127
-65
-40
-55
-21
-59
-97
-42
-84
-127
-75
-17
-55
-23
65
94
46
87
127
63
35
53
23
5
2
42
-46
-127
28
24
36
40
-60
-91
-48
-81
-127
-67
-37
-56
-25
73
102
46
94
127
57
37
44
23
58
94
52
81
127
66
37
57
26
69
92
40
91
127
55
35
55
21
-108
-127
-83
35
44
38
50
68
33
66
95
38
92
127
50
36
47
18
73
86
39
97
127
49
47
59
18
-77
-87
-17
-104
-127
-32
-43
-50
-4
77
94
41
96
127
62
42
57
24
80
98
39
108
127
48
60
58
10
75
100
53
95
127
69
48
63
30
71
96
51
97
127
67
38
59
30
73
95
36
98
127
52
45
57
22
-60
-90
-54
-87
-127
-77
-41
-67
-30
44
89
62
72
127
79
33
63
36
-46
-119
-106
-61
-126
-127
-47
-81
-62
-68
-89
-43
-91
-127
-70
-45
-62
-25
72
93
46
92
127
61
40
56
13
77
96
54
108
127
64
55
63
31
103
61
-14
127
77
-21
57
36
-11
78
93
29
99
127
47
53
60
11
61
94
46
87
127
61
35
48
22
65
93
52
93
127
64
38
62
29
79
109
52
100
127
61
42
71
18
71
92
48
91
127
67
36
59
29
66
97
59
90
127
73
39
62
32
63
92
45
85
127
64
37
52
25
71
96
44
91
127
57
38
58
25
69
95
44
93
127
56
44
57
24
-56
-85
-42
-78
-127
-60
-33
-55
-26
68
94
51
86
127
73
36
56
27
-81
-95
-48
-97
-127
-72
-58
-80
-25
80
96
43
98
127
56
42
57
19
70
93
39
97
127
53
44
54
15
-57
-90
-49
-81
-127
-62
-33
-51
-21
65
97
41
89
127
55
36
49
23
-65
-111
-61
-81
-127
-78
-36
-67
-39
100
127
56
103
114
22
35
9
-32
75
96
40
100
127
55
52
63
20
76
96
30
103
127
43
45
55
25
-60
-86
-50
-79
-127
-64
-31
-55
-23
79
98
48
95
127
66
44
63
25
66
90
50
92
127
62
43
61
20
-49
-83
-41
-80
-127
-59
-37
-58
-26
73
98
45
96
127
59
31
50
24
62
94
44
88
127
60
36
50
24
68
98
45
88
127
58
29
45
17
71
94
45
89
127
65
41
60
24
72
94
50
101
127
65
49
63
30
-74
-91
-46
-97
-127
-74
-43
-72
-23
78
94
36
102
127
53
51
60
17
67
90
39
93
127
54
41
53
24
-73
-105
-54
-95
-127
-89
-49
-83
-37
103
125
10
124
127
36
24
117
-32
68
94
45
92
127
58
37
46
18
58
90
46
87
127
64
43
63
33
60
91
48
82
127
65
34
55
28
-71
-95
-49
-86
-127
-55
-37
-49
-6
69
90
39
94
127
56
42
60
23
62
93
66
78
127
87
40
62
37
56
83
42
81
127
64
36
57
27
69
95
46
96
127
61
38
56
24
63
96
58
82
127
80
40
63
40
69
95
46
88
127
64
39
57
22
56
86
43
82
127
65
37
59
30
-105
-84
-10
-127
-121
-29
-59
-58
-9
-71
-97
-59
-94
-127
-79
-46
-64
-36
73
101
46
89
127
57
41
59
27
-61
-99
-52
-88
-127
-71
-35
-57
-30
67
87
38
92
127
54
40
60
23
80
97
43
98
127
59
48
56
21
75
97
41
97
127
54
36
49
21
-61
-96
-57
-74
-127
-83
-31
-65
-21
68
92
45
91
127
56
38
65
22
69
93
46
94
127
60
46
56
19
77
92
23
109
127
28
48
49
8
73
-7
-96
96
-9
-127
49
-4
-62
56
95
56
83
127
65
36
53
23
67
93
56
84
127
77
31
60
39
66
91
49
92
127
65
37
57
25
65
96
50
88
127
69
36
57
23
62
91
53
84
127
66
30
55
26
-102
-94
-31
-124
-127
-48
-75
-77
-10
-59
-95
-61
-87
-127
-74
-41
-52
-26
67
98
48
92
127
65
53
67
30
-61
-88
-53
-86
-127
-76
-50
-72
-28
-86
-102
-57
-98
-127
-66
-48
-61
-19
-71
-90
-34
-99
-127
-54
-43
-60
-17
57
90
48
82
127
72
42
61
29
-65
-98
-56
-94
-127
-73
-41
-71
-27
83
94
40
109
127
51
41
52
13
-68
-98
-56
-93
-127
-81
-48
-77
-26
-78
-90
-44
-97
-127
-56
-49
-53
-20
-105
-115
-58
-112
-127
-67
-71
-97
-39
68
101
52
88
127
68
34
56
19
61
96
52
82
127
71
42
59
27
71
96
44
96
127
55
42
53
22
-52
-86
-52
-79
-127
-63
-25
-60
-17
82
109
52
106
127
62
54
53
16
-74
-86
-39
-101
-127
-51
-42
-50
-20
-68
-91
-32
-98
-127
-46
-50
-53
-6
-81
-110
-61
-108
-127
-75
-48
-79
-28
67
95
53
86
127
71
41
63
34
-78
-109
-70
-104
-127
-95
-51
-87
-41
71
96
50
97
127
64
41
58
24
72
92
43
88
127
60
36
55
21
-49
-87
-49
-75
-127
-80
-39
-71
-33
65
97
50
95
127
67
42
59
30
70
92
35
97
127
54
43
55
19
69
95
49
83
127
69
41
59
21
-95
-127
38
58
71
-54
52
63
-54
-41
-80
-30
-73
-127
-47
-28
-52
-19
-108
-127
-75
-112
-118
-78
-78
-101
-58
67
99
55
89
127
73
43
55
26
77
100
45
104
127
55
42
65
20
63
92
44
89
127
60
39
53
22
-68
-93
-46
-93
-127
-67
-42
-65
-23
96
88
0
127
127
1
63
52
-11
-57
-93
-49
-74
-127
-71
-35
-68
-38
70
96
47
93
127
65
41
61
25
54
83
40
83
127
55
39
65
31
68
93
41
90
127
57
42
61
21
85
98
34
112
127
44
51
53
8
56
93
51
78
127
72
37
56
31
60
94
49
87
127
68
34
54
31
67
87
37
91
127
52
42
62
21
63
91
51
88
127
69
42
63
34
82
103
47
105
127
59
54
66
27
-72
-94
-35
-87
-127
-56
-29
-51
-10
73
90
44
102
127
59
51
70
27
65
91
44
87
127
66
39
58
27
-88
-127
-80
32
16
12
80
96
61
77
93
37
99
127
54
43
55
17
-65
-104
-57
-93
-127
-79
-49
-72
-26
66
95
43
91
127
57
31
51
26
90
105
37
107
127
49
37
49
-10
48
90
64
71
127
84
33
64
39
61
94
58
83
127
72
35
62
34
-66
-85
-40
-103
-127
-55
-54
-64
-30
-62
-97
-59
-87
-127
-78
-39
-70
-35
76
103
52
97
127
62
43
58
22
71
95
46
93
127
63
44
63
26
70
98
46
93
127
58
40
49
21
-66
-97
-42
-93
-127
-65
-28
-56
-13
56
91
58
74
127
79
36
58
38
64
92
42
95
127
58
46
65
27
68
95
44
86
127
60
33
49
20
-84
-127
-68
-104
-122
-71
-69
-90
-41
-62
-90
-43
-87
-127
-61
-40
-55
-22
59
88
43
87
127
57
38
61
21
70
96
46
93
127
62
43
58
17
60
94
56
83
127
70
37
63
30
86
95
31
113
127
41
55
57
13
80
99
53
102
127
63
49
67
24
63
88
43
85
127
59
35
51
16
69
94
50
100
127
63
47
66
29
56
94
56
76
127
71
33
51
21
76
100
46
99
127
53
45
51
11
-54
-85
-40
-76
-127
-57
-37
-55
-21
-111
-121
-73
-127
-124
-91
-78
-89
-30
56
90
46
76
127
64
36
56
27
-97
9
78
-127
21
104
-57
16
46
72
97
50
94
127
68
44
58
24
104
23
12
-62
127
-42
16
-51
-16
-75
-106
-62
-97
-127
-81
-54
-83
-34
63
89
40
96
127
57
48
63
25
61
90
47
88
127
61
42
57
22
-69
-105
-57
-105
-127
-71
-49
-83
-36
71
96
47
95
127
63
40
61
22
78
99
53
100
127
84
52
72
29
72
99
47
93
127
55
39
48
21
-85
-101
-43
-96
-127
-56
-31
-48
-4
74
93
32
97
127
48
40
46
13
96
87
12
127
120
31
65
55
8
-64
-92
-46
-89
-127
-72
-47
-75
-38
65
94
41
90
127
56
38
49
19
-56
-84
-40
-79
-127
-68
-33
-58
-24
-67
-90
-42
-88
-127
-62
-44
-62
-22
72
98
47
94
127
63
39
54
20
70
99
39
95
127
51
40
48
20
67
96
51
90
127
64
42
56
28
68
95
43
91
127
58
37
55
22
78
97
42
102
127
64
42
56
28
91
87
13
127
117
16
63
51
3
62
89
37
86
127
58
38
53
23
65
96
51
87
127
66
39
52
32
75
102
59
92
127
72
40
61
32
-60
-98
-50
-88
-127
-66
-36
-59
-11
67
98
45
93
127
54
36
50
19
-11
-90
-107
-24
-114
-127
-13
-48
-58
-60
-90
-45
-85
-127
-66
-44
-66
-29
73
96
51
95
127
68
43
64
29
66
97
52
90
127
72
47
63
26
-65
-97
-48
-93
-127
-67
-37
-66
-26
73
95
45
92
127
62
37
53
19
-66
-92
-30
-95
-127
-47
-30
-51
-9
34
27
28
-80
-127
-64
46
48
39
64
91
47
90
127
64
44
61
30
81
3
-88
114
-7
-127
53
3
-48
63
93
47
85
127
62
33
56
28
67
93
41
89
127
57
44
55
17
66
97
46
92
127
57
39
49
15
4
18
6
-105
-127
-75
10
27
9
-63
-88
-53
-89
-127
-70
-44
-67
-29
67
97
53
86
127
68
46
64
25
74
98
68
100
127
81
65
82
48
62
93
49
76
127
64
26
44
24
84
100
39
105
127
48
57
60
16
59
87
46
87
127
64
46
65
29
-58
-86
-40
-88
-127
-60
-39
-58
-28
-58
-114
-61
-74
-127
-71
-35
-55
-49
73
97
37
98
127
48
46
54
19
-56
-88
-47
-96
-127
-71
-43
-65
-29
69
96
49
96
127
61
43
56
21
-34
-67
-26
-61
-127
-48
-13
-39
-4
65
96
42
90
127
52
35
48
21
66
94
47
90
127
63
41
57
27
62
86
44
90
127
61
40
65
29
59
100
58
81
127
71
36
61
30
-64
-88
-45
-91
-127
-65
-48
-65
-26
-61
-93
-50
-79
-127
-72
-31
-58
-27
