-590
-30635
-2206
-5376
-11381
-7086
7322
-5966
-37743
-42155
3508
602
-25337
-43867
-19330
-2815
-2541
-878
10615
-39535
1300
-7309
-12501
3044
1575
-12386
-27988
-31834
-9813
-21506
-9223
-59233
-29142
15172
4197
-16222
-19395
-26688
-13456
-2177
-12998
-9471
4422
-31025
-323
2478
-19313
-20625
-4535
10723
-43818
-15259
-1632
12477
-23605
-23876
-17165
-43847
-1741
-12133
1752
12622
-2197
-10922
-35772
-5482
8833
-12752
-9836
-34512
-24263
6710
6862
-25560
-14959
-19088
7460
-44578
-18308
-20252
-24741
-2388
-13627
-32701
11836
-1938
-16113
-26956
-28231
-12613
-20414
-21364
-4395
10492
-11055
-12555
-14740
2143
-14426
18522
-32155
-14579
-16156
-2325
10666
-25804
7200
-18147
-15433
-7866
-9114
5782
-16585
-14552
3443
-10551
-28999
-22211
9995
-1582
-2567
-399
-7401
-11631
-4300
-20849
-14112
-2352
-1987
-24363
-812
-23198
-43588
-1965
-14298
-8270
-21473
264
22155
-5822
-2114
-25493
-32232
-15004
-15960
10539
9280
-12698
3865
-677
890
-28376
9275
-29501
8073
-13909
-40932
-22615
-25109
-26810
-3704
-6286
-26079
-23218
-27080
-22675
14644
-28971
-16677
-22899
-3756
-13103
-42093
-23429
-28930
-2766
-8741
-8363
-24727
-1057
-17930
-2549
-24612
4358
-2499
23288
25450
-3167
-17829
2647
19490
-19507
24710
9566
-21649
-13120
-24555
3078
-20329
-2479
12107
-16403
337
-11493
-385
-38914
-8523
-30148
7561
-11435
-9945
3666
-17501
-22016
-28903
-17718
-4675
-9076
-31247
-15400
18141
-17177
3437
15508
17270
-6006
-15638
-18276
-12704
-3339
-37060
-5067
-6836
-13137
-1838
-20835
8665
-16901
2926
1333
-26901
7502
-34827
18211
32930
-4034
-5783
4753
-19123
2783
17986
45951
4460
-16228
-15046
-13255
-35935
-20959
-20271
-7660
-1713
-33782
-13701
-14316
2776
9515
-23569
967
15090
-30449
-4505
4975
250
-21778
2778
-10699
-17414
-20566
3315
21841
-23516
-20936
228
-853
-4487
-11485
-15865
-19918
-47651
-13797
-7760
-40375
-35735
-24816
-24371
-20381
-22900
-15127
-4571
7258
-12229
-34786
4419
-20584
-1561
-16426
-16902
-488
-21280
-19434
10754
15361
-33905
-731
60
-7597
-49767
-11067
-39481
-21630
-21619
-9250
-4692
-16102
-16379
-16838
-30679
-7905
-35945
-14095
-7295
7384
-28151
-33379
-35614
-12075
-20589
15936
-12433
-16677
-8706
-28038
-2095
2194
-1410
-28790
-1782
1099
-20459
-4698
-7402
-5118
-3078
-13925
-4681
-7562
14432
-2566
-34469
-26698
-60377
-30905
-6338
505
14704
-7136
-41724
-12899
-33471
-15992
-29779
-10005
-7219
-11012
16257
-19546
-31248
-17224
-25555
-19423
-9919
-10840
-11902
1198
-16709
-15875
-2956
-47011
-6222
1511
-25808
-9941
-20250
-10687
1303
-5977
-20818
18883
-2342
-3314
16195
-20212
-18031
-28147
-1590
-29204
-30065
-8239
31146
-12625
-4440
7029
-12903
-38451
-3762
-10414
-15328
-4130
-10001
11775
-19516
1812
31441
2371
-26479
-14410
-2908
-15178
-21467
16311
-26320
3346
-10052
-8193
-18906
-19417
-36338
-5135
-23837
11761
-44628
-20313
-2300
-22903
-6493
-26054
-18536
-25058
641
-23960
-8089
-28155
5087
-15787
28361
-36363
713
-11508
-3767
-10936
-11938
13475
-1571
-29298
-5425
-17316
-23591
-465
-1214
-48625
-14300
-21131
-28915
-19264
-29912
-13454
-24998
-13439
-4379
-6424
5808
9979
-25821
-2664
9596
-30072
-11595
-12592
-28379
-14026
-21488
11550
-25395
-8798
-9172
-15598
-22551
-11297
-12142
-23085
-26339
-5069
-9656
-3138
14059
7222
-30124
3590
-12692
-27108
-14142
-12994
-5914
5842
-5755
-40319
-40724
-8665
-29237
-2817
-5855
-9564
-21925
-7658
-13502
-19901
-5953
-8310
-34166
-20399
-18419
-32606
4360
-3867
33340
-15250
5280
-19626
10613
-17159
-11249
-44541
-20119
-17691
9317
-46041
-20654
-2739
-22115
-15954
-16416
-8085
3450
-19084
-23186
-14274
-15504
15493
-20636
-10074
-33868
-19605
-18995
-17333
-23523
-2960
-22563
-10781
-1768
-8243
-19081
4789
-52926
14334
14046
11742
6129
-4726
6101
-10095
33918
-26094
6462
1274
-5463
-20183
-19468
-19846
-34418
-7067
-15184
2261
-906
-16707
-37190
-13132
-11108
-12311
11679
-13469
-4423
-35237
-48295
-10453
-18835
-60019
-7623
-2153
-26767
-30039
-38287
-27275
10906
-23815
-2400
-19315
-26862
5101
-34047
-20137
-14955
-24575
1993
-23842
-13976
-2315
-31862
-34401
19202
-24033
5627
11670
-14538
20660
-38908
-34752
12866
-17010
-12032
-20211
-42625
78
-24655
-4843
-8976
-18847
-32661
-28291
-26597
-36789
-4080
-9981
-19567
-30001
-22629
-22390
6511
-2170
11328
-18375
-47210
4353
-7115
-30496
-10440
-29484
-15411
-11519
-4669
1202
-33601
-1833
-17410
-3920
-10589
-16248
-3246
-18041
-10080
11295
-10806
-4723
-34302
-34710
20228
-29145
-1582
-16904
-21494
-33392
13897
-2980
-4959
-36369
-2736
-54479
-24638
-15444
18061
2921
-20070
-27928
8045
2017
-7124
-28243
6320
-4975
17182
6055
-2226
-3883
-13807
-41981
-14650
-42757
-30733
-1090
2054
-14277
-14779
10232
29556
-10667
-33548
-2563
-30056
18009
-24354
-3362
-33747
-11435
-14369
-2907
-12993
-24589
-8606
-11430
-8313
-8487
9729
-1968
-16497
-11037
-3609
-19743
-24314
-7815
-6421
-11642
1136
3890
-10935
10643
10657
-22578
2185
7519
10591
35093
-1638
-9306
-22251
-2579
-12430
-52731
-10825
-22828
-37700
-26269
6461
1198
7140
6727
33931
9316
19997
-14191
70
-11354
-9644
5855
-3278
-49682
9225
-28003
5501
-14040
-3079
-5486
-31845
-19027
3029
-13090
-2899
-9039
-22027
-16567
-53464
-28851
-15985
-9774
3433
-32814
-6407
-12632
-11329
12553
3423
-17358
-1657
-3915
16703
-33512
10497
-10619
-29494
-8986
-45293
-11959
-24124
-10228
-18167
11026
-15442
-14677
-2741
-22728
-8451
-25477
4607
-30300
-5154
11304
-30276
-7502
5648
23786
10242
-31374
-42848
-4521
-37796
-20723
-19558
-25735
-22285
-885
13908
-8569
13359
-19590
20349
-19776
4942
-11885
-7248
-9361
-26444
-33738
-1356
-37453
-521
-38259
-17534
-20774
-20979
-29881
-3305
-9688
-15536
-35747
-4510
-2394
-6996
-24137
18113
-37333
-11803
-11085
-42683
16803
-27976
-22950
-16993
26538
-37219
39322
-2973
-17865
-4748
-14202
-18645
10489
-36703
-18005
1628
-35597
-26764
-11914
-21907
-27571
-14150
-16828
23761
28166
-1548
-23907
-20062
-28190
-15642
10175
-29623
-9207
-21798
-17953
-26041
-12400
-2711
-35245
-32254
-7496
-9158
-20819
-11140
-408
-27091
-26484
-15791
-25885
-23399
-324
3365
-34928
-68108
-18999
-8321
-41053
-17808
-38057
-15318
26172
-12741
-15109
-1622
-16545
-27355
-16317
7630
-29595
-45194
-25459
2400
-36118
-10392
-14612
-24890
-25847
-24145
-5423
-17294
-40639
6326
-7712
5644
-15975
-24338
-3231
8081
-21751
18760
-17886
-32335
11997
-7503
29213
-25432
-11092
-20952
-9162
-32168
-7169
-26377
10232
-17353
4129
4499
-4033
-13545
-1669
-22608
-27650
-26043
10940
-24498
-1322
-17579
-7858
-30117
-30143
-33865
-21006
569
2698
-29678
3317
-45969
-12958
-2979
-20441
-12144
327
-21451
-3370
-4539
-31958
-15636
-2976
-5292
-15698
-12345
-15184
-17583
3627
-30364
731
-23742
-36974
3936
-15968
-22264
-8517
2352
-23152
-10731
-3073
-12277
-9949
17642
-3029
7081
-5405
-7367
-23068
-22520
-3393
-24489
-15562
-1371
30457
-368
-34342
-34528
-4725
-3581
29161
14898
-20273
4517
-10889
3389
-27642
-6606
5749
-18141
16533
4860
-29649
-21623
-1379
-37105
-33929
-16997
-879
6547
14888
-10062
-13050
15732
-18013
-26613
-12962
19682
-12417
-26174
-21050
-16886
-20052
-217
-36941
-51986
-18381
-11388
-26453
-24243
-14935
-10760
-9009
-19576
-7656
-693
-4547
-2442
-55
-11639
-56364
-31313
-3558
-6746
-15849
-24535
-25617
-38387
-7063
-32960
-19726
-19965
18825
-29820
-81
-23662
-10667
-25337
29519
-22264
-18346
15904
-25493
-10306
-24948
-36354
-17464
-35410
-22945
-24008
-225
-86
-12279
-10043
17395
-7702
-13084
-14416
-23521
-13860
-20121
15698
10370
-3393
3406
-31241
-15401
