-75
-49
-28
31
7
72
17
34
-2
-73
-51
57
25
1
-25
29
-4
14
-5
29
-19
19
-22
57
-74
14
-58
11
22
13
35
-13
17
-44
76
-20
8
53
52
27
-8
-35
-24
-50
-42
8
40
37
-36
-62
15
-15
8
-6
-4
-8
5
8
-77
-60
42
0
4
-11
50
10
-37
1
23
-5
19
-13
44
-10
21
-10
-3
-18
8
24
4
-24
-20
-41
-3
46
-8
-55
-11
-32
42
-17
-15
18
-4
40
-26
6
-48
6
-1
25
-18
-2
28
-17
-15
-10
-20
30
31
5
2
-19
-53
-4
-22
0
33
11
-12
-24
-32
41
31
-17
1
6
54
45
17
-12
-45
6
35
24
22
-33
-6
35
9
47
-19
1
8
30
-60
-14
0
53
-28
-33
34
-62
-20
-10
-17
22
57
-41
21
34
0
23
19
11
27
-49
-1
-94
-12
12
22
2
62
4
-10
-39
16
8
1
-94
-14
-34
-12
20
14
16
-7
18
-21
47
-18
34
50
54
-39
-9
-33
-7
-26
-16
-11
27
-1
-12
24
19
-25
2
4
38
-29
-25
3
-5
-53
24
-14
-31
22
25
12
-25
28
23
30
-32
45
15
44
-77
-43
18
-1
-16
-27
53
76
34
42
52
25
2
-30
-15
28
60
-6
-89
56
-42
-35
25
-7
-11
16
-8
-55
43
4
-24
39
-37
-21
27
1
-4
9
56
63
23
15
-14
-13
-17
-96
-58
127
-22
-51
19
-6
-3
-2
-54
-3
-23
27
2
49
31
-3
54
-11
-33
22
15
66
-7
-13
1
-92
48
-50
77
-10
-54
2
-47
-43
33
-14
9
-10
-16
56
8
-60
18
-15
-34
13
11
-31
-117
-9
19
29
-43
-31
6
0
5
-3
-1
44
5
59
24
16
-79
31
54
24
-3
86
-2
6
-16
-61
-41
3
-77
10
-44
-36
8
70
39
25
65
30
-12
25
-54
-3
2
39
42
14
-9
39
26
3
59
-28
57
5
4
51
-4
-25
-38
17
-1
-39
43
-36
-26
-12
21
-6
36
-16
31
1
-32
7
-15
60
36
-11
-6
-11
1
-7
-8
-12
-7
7
16
23
14
63
16
7
-40
19
26
37
35
34
-38
-26
-28
48
-21
4
20
29
-18
-35
51
-55
15
-15
-42
25
13
23
1
-45
43
-36
-18
-20
6
-20
27
10
29
-26
21
-36
2
8
-61
-2
47
39
0
-28
-4
42
-4
14
26
47
6
-36
-47
46
41
-41
-37
1
-39
-11
24
-11
16
-6
15
-63
22
-7
2
50
-3
-41
34
-12
43
-29
30
-13
-66
36
-21
-54
45
3
-24
16
9
-17
-6
40
-13
-13
35
-20
-23
-2
30
-23
-24
25
11
17
-58
2
-8
-15
-19
36
48
5
-2
-40
-33
-19
35
-36
9
29
-3
-24
22
-10
-29
18
-3
7
-4
29
-16
24
-12
22
-54
12
88
2
-28
22
-49
23
0
37
56
22
35
-23
30
-34
33
9
24
-26
17
5
-18
43
1
20
-103
-40
21
12
13
-12
-32
19
-68
83
-34
8
33
40
-6
-46
77
127
-37
-1
-25
-17
15
49
26
23
68
41
34
-1
-22
-58
-37
-10
-46
-9
5
-2
-52
0
47
16
3
-70
-3
17
7
-3
47
-38
-11
9
-36
37
-68
29
41
14
53
-42
27
-21
-1
5
-7
4
11
-71
11
49
29
-29
-3
15
6
15
52
-35
19
18
44
34
-10
-39
-1
41
-30
1
-5
-8
25
0
1
21
-5
-75
28
-36
14
-28
47
25
82
-97
-62
26
4
3
20
-49
22
-20
5
19
-36
13
1
-14
-31
-3
17
-103
-1
5
-6
0
33
-64
18
-66
-55
16
-77
-22
-36
-25
33
-24
-48
12
37
5
38
47
-8
-11
4
-15
-50
-34
-48
49
39
-12
-9
-58
-15
15
-24
-6
-6
-36
-46
16
24
20
25
-42
-23
-51
28
-14
105
43
3
-21
-68
9
-16
-6
-115
-3
25
55
3
11
-35
23
-25
-28
46
-34
-20
-51
-9
71
63
29
10
43
14
-86
43
-7
12
42
27
-19
-2
5
4
-50
-117
-12
11
5
-21
7
70
25
-20
-54
-97
39
-10
-43
18
0
-30
36
-16
-62
6
90
-27
54
58
-8
-34
0
-65
46
-25
-19
12
-44
-24
22
63
9
-113
6
9
-15
47
-33
24
1
2
-50
48
74
-76
-38
-29
41
16
9
-27
-3
20
1
5
-40
8
-22
-23
14
68
58
18
40
-78
-40
-35
-28
-26
-27
23
-12
8
68
81
78
-26
-45
45
-72
-18
47
-17
43
-99
19
42
31
69
-22
-44
-40
0
27
-13
32
2
52
-66
15
-90
-17
15
-39
41
-24
-1
52
9
-13
-45
9
36
-22
-37
-53
-4
41
10
-15
18
-4
31
0
-5
-4
-33
-63
-4
10
-47
27
10
49
108
35
26
-6
-58
-24
3
-8
-26
16
5
3
-47
2
22
-43
-27
-78
-19
1
66
-88
-45
33
-38
29
28
-48
17
7
48
35
-13
61
63
28
68
12
0
10
-47
-35
34
-10
-1
-21
-12
42
16
-5
-10
22
18
3
26
-55
-41
36
-22
-24
28
-37
-41
10
-29
-6
26
-9
13
2
-89
19
32
-11
50
-28
-56
17
-32
51
-12
-33
59
18
16
16
-25
12
-19
-13
38
-39
17
97
-3
-37
-70
-16
48
-64
53
33
-37
-38
20
-5
1
5
-10
-21
-5
14
-8
-46
32
9
37
49
-53
35
-33
-28
37
-12
-95
-29
61
7
34
105
9
44
38
-38
20
-61
24
-80
35
-35
-28
-30
51
-14
-70
41
-23
50
7
-31
-37
-4
63
-19
-64
40
-12
17
-48
29
-5
-51
-17
9
31
19
12
-9
-31
-37
-19
-26
22
117
-52
-46
61
-19
-17
52
7
-68
60
-16
-29
57
19
27
-5
-49
-13
-13
-90
51
-22
4
-20
86
-19
0
37
-46
-35
2
-9
10
69
24
9
-49
32
4
25
-69
34
21
41
-26
30
-40
13
34
26
24
3
-17
-16
-40
-32
-16
-30
17
31
46
-102
43
-1
37
7
52
-66
-10
-4
-53
35
17
-19
17
-64
-10
-6
45
81
-21
-86
41
-45
27
-43
6
-14
-34
-4
1
14
-51
1
14
51
-33
-2
2
27
-39
26
-34
14
27
94
-32
-36
3
7
50
15
-9
14
75
-40
23
20
34
-41
24
56
22
-2
-1
-8
38
-10
-81
11
10
3
-51
34
6
-15
14
29
47
-44
7
-31
25
50
-30
36
3
-8
34
-76
-19
-28
20
90
-21
24
-33
13
27
-19
-26
-2
33
66
-8
11
11
63
22
-42
-9
2
30
-7
-9
23
11
84
42
63
-98
21
-16
-14
45
20
-5
17
-38
-94
-8
14
88
12
-60
-25
-11
44
93
-38
-10
-75
-4
24
61
-8
-51
-92
27
1
-36
7
26
46
17
-4
11
48
-38
-49
-44
18
2
-20
17
9
65
16
31
54
0
19
22
13
-6
8
5
22
51
-13
1
8
32
-40
92
9
14
-80
-31
7
60
65
-37
4
-16
27
47
-21
-10
3
-38
-26
-50
-51
-3
-77
-70
38
-69
-56
38
85
-30
47
48
50
107
7
16
25
-10
21
15
73
-12
57
9
-5
-59
-20
-12
-15
-3
30
33
-2
32
110
-16
53
-56
41
-13
25
12
6
37
36
-36
42
-93
46
55
-5
-11
1
-6
44
45
-33
36
36
-14
-78
-14
-34
-61
-79
-5
-67
-21
9
-29
42
5
50
-37
-6
-4
-16
-12
0
-2
6
-12
-55
-24
63
-45
-27
-61
7
-1
9
57
-13
-8
32
24
18
34
-85
-34
30
18
5
82
12
1
24
-2
-14
58
-5
-48
4
79
15
-1
-93
-21
-12
-57
25
6
-72
-81
-39
-25
-47
-32
-20
-61
-4
33
35
47
9
13
-15
55
-13
40
-25
4
0
3
50
-5
-75
29
-2
-14
-27
15
-9
19
67
-15
60
-5
-13
-22
-5
-55
-24
-16
-11
-14
32
-48
2
-38
61
-65
71
14
-33
4
26
64
36
-71
-32
14
9
31
0
68
14
-11
-22
-30
-17
-9
-28
23
-70
-25
-36
-25
-16
13
8
-66
15
20
-5
24
-5
-36
-11
3
7
-11
13
-5
10
-39
8
35
-20
-10
-2
33
43
13
55
-8
-32
64
4
-42
52
-33
-60
-106
82
0
20
-63
-3
16
-5
12
-47
2
-56
-1
-60
-22
19
-19
-27
-27
-29
45
0
7
4
-14
-106
-21
37
57
-56
-21
-31
-11
-21
-37
0
77
20
-29
-5
-78
-96
1
7
-20
-12
5
28
46
3
-5
19
-25
-16
-39
40
-16
-13
10
47
-25
48
21
27
-28
91
-30
-18
-89
8
-27
-25
15
35
7
-23
-27
-11
-12
25
-17
44
44
-34
-38
29
-27
43
24
46
5
25
49
19
12
18
12
-26
-15
36
-19
23
-80
-56
-35
26
63
10
-12
-29
-2
0
-30
6
3
42
-8
-19
36
-36
69
-3
-22
36
63
16
12
29
40
30
-30
41
8
-4
-15
5
-34
-28
-84
-16
10
34
12
-12
34
16
-60
58
21
44
1
-33
-36
27
27
-36
4
-2
-35
-45
-36
32
4
-29
-73
13
-10
-7
-23
54
-65
-5
1
0
55
16
-11
-2
-17
-68
-25
-41
-24
52
14
13
-15
1
39
58
-21
-6
-26
2
61
-50
-13
-12
6
-17
-16
-35
23
-50
17
43
56
41
68
-1
51
-52
-51
12
-20
-103
39
-29
3
-50
-62
30
32
20
8
-14
33
-67
44
21
-12
-10
14
-100
27
4
13
8
50
-71
8
21
26
-20
-72
-43
17
9
-32
75
18
9
1
-20
-4
72
-1
16
-1
3
31
52
69
9
22
-19
39
9
-1
-5
-40
20
-19
28
114
30
-1
31
-39
28
-6
11
-22
25
52
-3
-71
-1
-38
2
-51
-15
-64
27
-69
17
3
40
4
8
19
-15
-52
-42
-3
1
-36
57
22
-9
12
-5
-19
71
-14
-3
-46
35
13
3
-20
48
-50
-16
17
35
-22
-50
-23
-29
6
-11
82
-15
40
-88
30
-4
40
20
0
-4
12
-43
-6
32
-14
15
27
36
7
82
27
-6
-46
43
77
26
-6
-11
0
16
-8
29
46
-50
-23
-21
20
10
20
-15
-28
-33
9
34
22
-46
5
-36
1
-12
-6
34
22
-68
22
-25
20
-20
44
-5
76
18
-16
-89
-8
-18
40
-3
-22
-14
26
23
86
-36
5
-84
26
16
-12
-1
64
10
4
74
-48
95
-11
25
80
-12
-30
30
-3
-33
8
5
46
-19
42
-31
-44
14
58
7
-52
10
39
-22
-6
-6
14
-6
-14
58
-12
-12
7
50
0
-19
30
38
-49
0
-27
31
21
17
43
-55
-5
75
2
-24
-87
-12
26
-29
-39
-25
-15
36
8
26
14
-1
-44
-40
-40
3
-5
13
-10
48
1
21
15
-20
-19
-38
-6
-61
20
-17
62
-34
45
14
15
13
-30
8
19
63
15
-34
3
70
60
22
12
-39
-68
13
-17
45
53
20
57
38
5
-2
23
18
-16
-26
-12
31
27
-37
58
-11
-33
-31
7
8
28
-14
-29
2
4
-15
55
3
-21
72
6
-36
19
-18
-19
-6
-75
-7
-19
20
20
-2
3
6
28
-3
11
-16
-34
50
10
5
57
41
41
-114
19
23
-5
12
-27
45
23
-18
39
12
-4
29
0
-71
-11
-18
13
44
10
-21
-30
52
46
-39
72
-42
-41
43
-34
13
-31
-26
-2
10
4
14
-16
-74
-31
19
45
6
1
-10
-41
-39
26
43
53
41
-78
-59
28
34
-24
-11
-18
3
7
-6
-66
-2
-17
59
-32
-4
-26
59
-12
-5
-29
8
35
9
30
9
13
53
11
-15
-4
-16
8
-27
-11
-13
32
-54
-60
-2
38
-86
26
-13
31
-42
-31
-13
5
21
10
28
-12
-13
19
14
-62
51
-7
37
-20
-31
7
-23
-63
30
-17
28
17
6
7
25
30
-42
5
45
-16
-31
-19
4
-7
9
-21
-13
-56
30
-40
3
1
-6
73
-45
-9
14
2
43
12
41
24
0
40
-39
-24
23
13
32
15
-11
-5
-12
-8
17
43
31
-1
46
66
-25
-13
6
43
-75
-29
-1
-28
-32
-6
13
-51
-81
2
-17
12
-15
-29
1
-33
1
-33
66
-46
-8
-42
50
15
4
-5
1
-31
-17
3
14
9
-14
0
4
17
-40
-27
27
53
-52
9
65
43
-28
5
-85
47
4
23
-1
-31
-18
20
-23
6
-11
-3
-61
2
-4
-26
30
62
-51
-6
-5
7
-24
3
-25
53
21
-28
63
-15
-20
-18
-15
-11
-56
-39
-52
-1
-48
41
-20
-65
-20
33
20
21
-20
19
-33
89
18
9
-122
-44
2
-23
-6
-29
-44
-24
-8
25
45
-25
-11
-72
5
-44
-17
-12
-7
24
-19
-76
19
42
6
-22
5
-40
70
40
24
15
1
15
27
26
11
43
-29
-9
9
6
-45
28
22
28
-45
58
-59
-3
45
-32
7
-50
4
24
-33
-14
-9
-12
-20
-41
-2
-2
-65
-13
67
-28
-68
17
1
-17
-36
-9
-16
3
19
-53
-1
-14
4
-23
-44
-10
-32
-50
19
-41
-22
25
-38
-22
4
-11
-4
24
48
3
-58
19
-22
34
-20
5
44
5
18
29
-35
-1
-9
68
20
-33
45
-30
-54
71
13
8
-59
49
17
17
-49
12
57
6
-27
45
23
41
11
33
32
0
-63
8
14
91
-33
-53
44
68
-11
-45
-29
-7
31
7
16
-36
39
21
-3
23
14
23
87
-41
38
70
50
29
0
-47
3
-45
-3
23
-18
-4
25
16
-25
-51
28
17
7
6
-31
-3
-16
21
-19
-24
9
-23
-51
-60
-12
51
-67
12
29
3
10
54
11
6
-26
38
-29
-25
12
62
-50
-18
19
-1
-19
8
-42
-52
10
-7
-10
26
-74
-31
8
6
26
-3
-16
45
-19
-3
20
-36
-22
-35
-14
-7
4
-16
-21
-22
-20
53
-32
24
-45
63
26
-60
-14
10
8
-37
-71
7
4
-1
46
36
67
12
17
50
36
-95
13
54
32
12
-79
-87
-32
-15
-14
18
-73
43
3
39
-63
-38
-14
-1
-21
9
31
26
-5
-21
-9
5
17
-44
-4
43
5
-51
-76
-58
-2
-29
-9
-2
32
-5
87
-21
-71
4
55
-26
7
-61
-15
-17
31
-1
-25
-8
31
28
-45
-20
50
-11
19
-34
-19
3
-21
-27
84
36
-61
25
39
11
17
58
-9
52
25
37
-20
24
5
-41
17
-48
-27
-5
73
52
121
13
33
-16
-3
-5
18
-1
-1
-20
89
-4
6
15
-92
-50
-20
13
18
65
20
6
16
4
26
1
-10
-35
-16
-2
-14
42
-10
-4
-71
-3
-8
-78
-17
-30
-25
-31
37
31
18
-7
-30
-26
-89
18
-37
-12
26
53
10
-77
48
-29
-15
15
55
30
7
-4
13
-5
12
1
46
19
95
-51
-82
19
9
2
12
-36
-48
-47
-71
6
23
-10
-3
4
-16
33
-18
14
54
-87
80
-15
-20
21
-4
29
-15
76
-81
-4
-3
71
-11
58
49
59
-13
51
-1
-9
-36
-52
-74
-22
1
-77
-40
-8
-21
-22
-47
50
68
-60
17
8
-12
3
-6
24
47
47
-2
-73
77
3
7
2
-40
6
-4
-50
7
39
-35
10
-53
-18
-33
37
22
0
70
31
-13
29
2
26
24
69
-24
20
17
25
-36
-61
-10
22
-94
-90
-88
23
-54
24
3
-70
-74
18
-55
54
39
16
25
-1
15
-67
-13
-31
36
-41
-25
35
-44
-9
-17
16
-8
-67
-127
-28
-7
-10
52
-38
-14
34
-44
28
16
13
-70
31
46
30
8
-34
10
7
-62
20
63
34
-23
-102
-21
-49
-69
42
26
13
-8
42
-49
2
-24
-8
10
44
65
5
-5
-23
-30
-39
-55
-40
3
29
-72
1
-36
-53
41
-23
-4
11
-5
6
10
-44
64
-26
-39
-26
-40
28
36
2
-26
-12
-19
37
-40
-36
47
-60
-64
-1
56
-6
-4
-20
-10
-59
-32
15
-34
6
55
-32
-11
-6
95
16
26
62
1
13
2
24
-5
-40
-56
-8
-80
12
-20
-14
16
-49
55
82
2
54
54
-13
-19
28
-110
10
-42
-18
54
-23
-105
-43
-125
-34
-20
-73
4
44
38
-40
-51
8
-6
80
84
3
48
72
24
92
58
21
45
-24
17
-3
2
-21
11
-18
-22
-17
69
14
-45
11
-11
-37
8
-29
10
30
-12
67
-24
29
-5
51
43
-16
37
24
-35
-11
38
-5
-17
-22
-81
-14
15
35
-9
12
58
63
-36
-63
63
8
23
-29
-42
-25
21
16
-30
28
-10
28
24
1
12
-27
-67
-5
-68
20
25
29
-40
15
35
26
11
38
-95
77
-52
-14
-21
-92
1
-15
-1
16
38
-43
-50
12
-10
18
-11
37
22
-13
11
-45
-85
-63
-60
-44
117
-18
10
-24
-41
-39
-7
30
27
21
34
24
-6
-31
3
-2
26
-44
10
15
13
35
-3
-47
-10
-13
18
55
40
17
-65
12
-18
-32
-9
3
-38
-12
14
4
39
14
23
21
-25
47
-28
23
-29
3
-24
-3
-47
-61
6
-5
-19
-26
-4
32
-10
0
10
-19
-34
-23
-21
27
24
-35
58
-27
3
-36
-64
-45
-38
5
6
-28
15
-15
20
68
-26
16
-4
-25
21
11
-22
-8
-39
28
16
4
-9
-29
-69
-27
-16
7
-52
37
41
-15
29
-3
14
-16
-28
-21
16
-48
-31
-99
-39
28
5
46
22
-22
28
-44
1
9
5
-47
-5
-23
0
31
-4
-14
-1
9
20
1
-4
-13
38
-37
10
13
-15
-3
62
-11
-5
3
28
-23
-46
52
42
-21
-15
58
25
-12
-58
-44
-2
-54
-14
-6
-19
15
32
-6
48
-29
-46
-27
2
41
10
11
-34
1
-35
42
-47
-19
-32
-18
6
43
12
28
11
16
27
-53
21
-7
13
-4
43
10
-14
26
-16
-21
50
24
-54
29
33
-22
2
12
18
62
10
23
32
20
-80
-11
-70
-2
26
-12
4
2
-4
9
-9
-8
-40
-11
8
-77
14
-16
17
-27
-36
31
-5
63
-43
-57
-22
16
31
-31
-29
-48
-46
-1
38
48
-14
26
-17
44
-16
0
4
59
29
-92
21
-36
-46
-56
-40
-27
-35
-30
-29
15
-17
15
-18
27
18
-43
-15
-42
30
-55
32
31
-65
-13
11
-16
-26
-27
76
-38
2
0
-6
-13
-40
-14
-21
-24
-65
-5
46
44
-24
-33
-51
38
-18
15
-88
62
-69
-46
-14
16
53
-16
-31
-11
11
4
-26
27
3
32
12
-20
-24
54
-13
5
45
-100
48
-67
21
9
-26
-44
-39
-56
-8
-27
-1
-16
-57
-18
41
8
31
-45
56
-58
-25
-41
-45
-19
46
-23
79
60
-33
47
-18
20
-45
-18
-8
-52
-2
29
49
-42
-42
49
9
97
-39
30
-54
-54
39
30
-6
-9
78
34
-36
-14
-13
39
22
-101
38
-71
-3
24
92
-6
-87
-21
24
-8
-56
-3
-25
14
30
-15
24
33
-41
-46
-42
-2
-79
30
4
-31
-7
-16
-61
-8
-17
-34
-35
18
1
16
-28
-70
-37
-35
62
1
23
-10
9
-95
-60
45
-18
2
22
-31
39
-24
-11
-18
-7
14
39
-46
-37
3
50
-27
-28
22
-5
-5
108
-75
-80
-4
-55
-21
-26
32
1
51
-5
-111
57
-10
33
-70
13
-24
-43
-20
69
15
6
20
27
57
-46
19
-38
-11
-59
-16
11
-54
20
48
18
-21
13
-19
-32
1
3
-37
45
-59
88
15
9
-2
13
-28
-12
-15
-13
21
28
-9
50
-59
-2
-41
47
7
18
-49
20
38
14
-41
-26
-12
-21
-31
-6
60
-82
-15
-59
22
17
21
23
-89
-7
-17
-8
4
13
-1
20
-1
50
30
9
1
37
50
11
22
-55
20
11
-35
-78
23
17
-22
-14
41
16
9
3
-17
49
17
11
12
6
33
19
-11
-58
-28
87
-15
-5
58
38
-15
-17
-2
24
23
-40
-13
-25
-17
-6
-19
21
-71
2
-8
10
-1
0
-8
-6
28
-34
-7
-30
14
28
-13
27
47
-7
-3
-19
-49
7
57
18
11
-8
27
56
39
33
5
-25
-55
-4
33
30
0
-58
18
-17
-18
7
-18
-33
5
18
36
-20
19
-57
-1
36
8
-45
-11
-20
-20
-48
70
0
35
49
39
-56
-9
-13
-2
24
30
25
-23
7
30
29
25
10
-9
-5
33
34
42
-22
37
11
23
58
-5
22
-56
0
-27
9
-42
-39
-28
16
34
-4
27
21
75
-1
30
26
5
-6
-19
32
-32
-10
-6
-45
-24
11
-10
31
15
14
22
-2
-15
-17
37
-46
-42
-10
-5
-9
-28
3
-36
17
62
19
-39
-7
10
9
15
61
-42
8
-58
-11
24
-52
37
-4
-2
-19
-18
21
4
-3
14
-14
-5
-72
-4
-108
-26
3
-35
-3
19
-54
-30
-14
-48
4
-24
29
36
12
26
24
-4
2
54
-28
15
46
55
-20
38
28
4
61
23
-26
-19
30
44
39
3
22
79
19
-45
31
-39
-3
-16
-30
-2
9
-35
33
-30
33
-30
-23
-25
23
-40
18
-18
71
-62
5
-17
-59
2
10
-22
-5
-9
19
-25
-39
52
-19
-21
13
-57
-24
28
9
-65
-30
9
33
27
101
19
-7
33
20
23
-10
-55
-91
-5
7
-6
-20
29
52
16
-76
-1
47
59
13
13
52
39
-58
-19
-13
23
-11
-25
-46
-15
51
-33
-42
38
-30
-10
26
-7
-27
2
-20
12
28
41
22
-19
23
41
56
-13
-13
-72
20
69
-17
14
12
32
-20
39
48
18
22
-16
-45
-24
12
19
26
-9
50
-50
-35
17
-22
-52
-29
2
-17
-8
-25
19
92
-98
9
74
17
7
-83
-30
-32
25
14
-96
30
8
-38
17
11
-1
14
-69
39
-12
10
44
11
52
-8
4
29
-57
36
26
67
-14
-26
-38
52
-17
5
-11
-34
18
7
4
47
-9
19
23
68
14
24
21
-1
-18
39
-18
64
127
28
-12
-10
48
-18
0
61
-24
3
-19
61
-19
-7
-2
14
66
21
41
9
60
32
-21
2
-14
-3
-48
8
-47
-35
53
15
14
-41
-21
-71
-3
24
6
32
-29
41
-51
-3
14
-29
51
70
26
-11
93
1
-46
-58
-34
-35
9
62
-44
-5
6
-81
-91
-113
52
44
18
-56
30
57
-14
37
45
22
-35
38
-24
36
7
67
-9
28
2
67
-42
33
-59
28
1
-17
3
-36
30
2
-87
-4
-43
-31
-73
61
28
1
-13
15
7
10
-61
-31
-50
-67
-4
-81
-4
-59
15
-41
26
-15
46
-46
-58
-5
28
0
-54
-18
-40
56
6
13
-6
15
47
-21
35
32
18
-25
17
-46
-54
7
-28
2
35
14
7
-96
-6
20
72
22
13
-23
-4
-76
-4
73
-14
33
-10
-11
4
-20
-64
-39
106
15
25
-7
-55
18
-22
47
17
-15
17
-16
-72
-101
19
-26
13
59
10
-2
33
31
-1
1
-16
28
-35
55
4
98
45
63
42
8
-31
21
43
-17
15
-24
1
15
-73
5
-17
34
-21
-46
40
-87
35
-38
-7
-40
-52
-32
55
-63
5
-28
9
-68
62
3
83
39
6
34
-9
5
17
42
-16
21
-4
-31
-22
17
14
-28
-14
6
6
58
-16
6
44
33
-71
-37
-23
57
-15
-127
30
-11
-4
10
-44
23
64
-6
10
15
-95
37
-9
21
27
12
-3
70
-41
-33
-50
-32
-6
-10
9
-43
-5
-17
9
18
22
-58
52
6
4
-21
-22
77
22
-49
-33
5
8
-74
43
63
51
64
-24
-32
-18
33
-59
18
17
81
30
-24
53
-41
28
-53
-21
43
-6
-67
64
-11
-31
-18
-14
40
53
16
-7
8
-4
-6
2
15
-5
22
-21
9
9
-86
40
-50
-5
30
-21
55
82
13
21
-15
50
-37
-15
-45
-8
-120
76
19
20
-39
32
8
48
-22
31
-67
37
42
26
-4
-29
56
-12
14
-6
19
-14
32
29
-33
21
-40
-8
-38
-25
5
82
10
1
12
49
15
12
13
9
-15
-17
51
27
34
40
1
7
0
-36
25
87
0
-45
-33
-50
-26
-10
11
-33
2
37
8
8
8
-7
-27
10
53
-18
-29
21
-55
-16
32
33
-72
51
-11
-23
12
55
-18
-50
65
13
84
4
-51
26
86
-37
-119
-16
-31
-23
-1
78
38
43
5
-29
23
33
21
-5
-55
35
-46
51
-59
25
-7
41
-12
-41
-47
26
-6
-74
-24
-27
-5
12
-31
-4
-49
-29
44
45
-22
36
-14
-127
-14
12
-11
-18
-6
8
32
19
41
38
-26
-86
37
15
-32
9
-55
14
-31
27
-35
27
-82
29
-77
-27
-51
-69
39
76
59
-21
-33
4
-1
12
53
7
56
11
-22
29
-34
13
23
43
-55
21
-20
-17
-32
-26
-60
55
-62
27
67
-6
-11
-43
1
-65
-18
-26
2
-50
73
-12
64
-26
22
62
14
-7
-29
-18
5
-83
-24
11
6
-9
29
37
-27
-55
-27
48
-51
-18
-46
-37
38
-21
45
23
-58
30
0
-12
34
17
57
-17
-45
-47
-21
-29
-23
-20
-34
-27
-10
-15
22
76
43
39
14
33
-56
5
43
62
33
-23
29
-13
-17
9
-17
-15
-46
-19
-30
-35
15
38
6
-31
6
-6
-7
-18
4
13
-49
23
-41
2
17
-5
-22
15
36
-1
-1
-7
-15
-1
30
5
50
10
-75
19
8
4
-53
8
-96
17
51
-15
23
-5
-29
-41
-6
-10
-54
22
44
-25
7
54
-28
10
-28
-4
-1
3
0
5
5
7
10
31
37
40
-54
-15
1
-32
17
-43
38
25
26
14
5
-3
54
-33
58
2
47
56
72
63
-46
28
19
58
-19
-51
-14
12
26
-48
54
-71
3
17
-19
-1
51
51
-24
38
-34
34
-12
67
-25
-5
-8
6
-37
7
18
11
-77
36
15
-25
-17
-7
-6
-29
16
-47
-55
3
33
-22
53
38
25
6
-46
-25
4
-8
-12
-21
-46
54
25
22
7
-4
-25
-11
1
-6
12
-5
69
19
31
-47
-16
-52
37
-20
-1
4
28
9
34
19
44
-30
77
2
-10
-8
8
51
-46
73
-64
-14
21
19
-44
10
3
50
14
0
-34
15
6
18
-14
-55
5
-16
-46
-25
-9
-40
37
-30
20
44
26
-16
-18
1
12
19
-18
32
-18
-19
18
13
42
17
51
-39
15
-6
1
-11
-16
3
-18
12
49
-13
-28
-51
50
39
1
29
0
6
-18
58
14
3
2
-28
53
-17
-6
-26
23
6
8
52
55
-16
74
24
10
11
-31
20
-35
8
3
-4
-36
23
0
-40
-8
-33
33
-35
13
37
25
-35
29
-33
8
-29
-33
15
-18
29
6
-24
32
2
14
49
75
21
1
-24
-1
-15
25
29
-2
-12
-48
41
-2
-33
-3
-5
13
-1
-29
9
-38
-38
-1
-40
-59
31
0
9
51
3
-21
21
-19
-3
33
10
-40
40
21
3
53
-17
-62
-20
12
-1
48
-75
-20
-9
-78
-30
28
7
39
22
-2
58
-11
-5
-15
18
22
50
0
33
28
27
-27
-33
2
-4
-6
10
-27
32
11
-95
13
19
46
14
13
-2
0
36
-32
12
34
-1
13
41
15
-30
28
18
6
-21
16
16
37
17
22
20
41
-68
-34
-35
19
-61
13
21
-38
16
40
54
46
-18
66
20
-61
-52
24
-25
-33
10
-74
-10
-27
-2
-1
30
-8
-49
57
-10
-27
31
62
42
2
-45
10
-18
-9
-44
-10
44
-60
16
-68
-22
-38
-12
23
-10
24
13
46
-9
2
14
-15
-74
77
-11
-21
5
81
40
18
-14
30
-19
-25
-15
-23
30
-12
1
-12
-5
-9
33
40
32
-1
-49
13
-19
-22
59
28
36
-18
-6
-58
-52
23
18
13
17
30
9
36
-2
1
-4
-35
4
-42
-8
-23
4
68
36
-2
2
3
28
3
24
8
29
5
22
85
30
-70
-13
-30
-13
6
-15
-25
32
-9
-6
20
-10
25
6
-75
-71
53
6
-27
17
-22
78
-9
15
-80
22
-29
-26
74
-2
17
7
-16
-19
-44
-30
72
-46
15
-16
59
65
14
77
-22
38
21
5
-7
16
-26
-36
-6
52
-19
78
-18
28
-11
24
70
24
-13
35
-29
-18
-1
45
-5
74
7
38
78
27
70
69
30
42
-42
10
37
18
-28
-7
-34
44
-74
36
80
-10
-66
-17
-29
15
64
-22
-64
29
-8
-26
11
-50
43
-3
-3
-23
11
-6
31
25
-32
17
50
54
31
8
-24
26
-40
28
-7
15
13
52
34
-5
-10
38
6
-14
-1
0
-6
13
8
11
-12
33
-63
38
-25
-42
21
-20
21
23
36
-3
-33
-40
20
15
-18
-42
-42
-22
13
22
-25
-28
20
-29
-69
12
67
-3
-24
14
23
-18
23
-72
-2
-32
-18
31
-11
13
45
22
-2
37
-28
-1
-94
17
-10
-7
33
-2
18
18
7
4
-24
-79
58
20
17
8
20
0
22
-25
-2
-11
14
22
31
9
-69
30
-6
31
-2
21
-33
-25
-30
50
-18
-51
43
-64
0
63
13
-42
32
77
-4
-43
20
8
43
23
-18
-48
8
-47
21
4
13
35
20
29
66
11
12
-27
-38
3
-6
49
52
-52
57
-10
-34
26
-72
45
-70
85
-30
-10
-6
-42
37
-33
-37
13
-11
-3
20
51
-22
-35
-79
28
16
-12
-34
74
27
13
-58
31
-41
-32
4
-3
-7
-75
-2
-20
-33
-41
-59
12
-62
-4
29
105
-16
15
-7
-11
9
-2
29
-8
26
-61
37
-47
-21
4
-23
3
40
-11
-18
67
-33
-79
-35
-13
4
27
11
73
-38
-27
62
-14
22
0
-30
-23
-36
92
83
-1
-46
-86
38
-41
29
24
-73
-28
-12
-16
-30
25
-28
42
7
8
-20
-124
28
32
-66
59
68
-58
23
15
-16
-41
-63
33
73
-15
-26
30
57
-44
-25
1
71
-87
-21
23
4
30
5
21
-23
13
12
7
-21
-5
-23
9
31
0
-11
14
18
-36
-67
-32
37
8
33
-5
-20
69
-12
7
-68
4
-46
8
60
8
-9
-41
-39
-28
56
-37
56
20
9
-12
-15
-1
-6
-1
15
27
17
30
66
-28
7
-41
11
-21
6
26
-34
-41
-6
6
4
46
-33
-25
1
-23
-9
23
-12
45
34
15
10
8
27
-27
11
-73
29
4
27
-1
-68
57
-25
9
26
37
-2
6
-28
5
7
-6
0
-27
-21
-8
38
-45
5
-49
-21
0
45
-16
-50
-4
-24
-29
7
-34
-8
-77
-53
27
13
43
-17
-13
-24
-32
13
-33
7
-48
11
41
29
26
30
52
-16
-24
15
-54
65
45
-4
26
-53
4
44
17
-28
-7
19
-11
59
-40
5
-18
4
15
-7
14
-11
6
25
37
63
39
6
68
54
-16
57
-41
-16
41
-69
-62
-34
-37
-55
-27
-74
16
61
-6
54
-3
-19
-49
22
-6
26
14
-1
-27
-39
-1
127
-10
18
47
51
-5
-29
-19
10
-52
28
-45
-43
-40
-47
-10
-9
-10
52
-10
-51
-12
35
5
20
-49
53
-14
-22
82
17
-1
12
-13
-44
32
23
-53
-13
32
-16
-10
-8
9
36
-40
49
27
1
34
64
3
-44
-27
0
50
-73
-51
-5
-31
-23
-11
-8
60
-39
23
-59
18
-21
48
59
33
40
-23
-75
-9
-9
-20
-19
-14
22
41
-76
-21
-7
-8
-17
-2
57
-27
43
13
-5
29
-25
69
9
-50
-51
26
24
9
33
-23
-44
2
-32
23
-43
-18
15
0
5
22
16
-29
-15
25
-57
-9
66
-23
41
25
8
75
7
20
35
-32
-42
-37
-27
-62
12
-10
-13
35
18
-3
4
-67
-96
40
21
-23
-45
16
-25
48
55
-26
1
60
4
-4
30
-78
38
4
-30
2
-43
-58
45
3
-15
5
37
21
5
6
-26
30
-48
-9
-26
14
27
-4
-4
14
44
-18
3
-9
3
-5
-43
52
36
6
15
12
-21
24
19
-2
57
-30
20
-4
0
-16
42
5
-29
14
30
-27
-39
-2
-16
-7
8
10
-10
30
-80
1
-27
-18
7
-37
9
6
10
0
31
33
-1
19
-37
-9
22
41
-13
-19
-16
-8
-46
-13
8
-19
-16
42
37
41
-49
31
-21
15
0
10
31
6
1
32
-66
-55
-7
-21
29
22
30
-34
-16
7
49
-22
-59
-28
-9
53
-23
63
20
-21
18
34
66
20
7
-25
-8
45
7
-36
20
-7
40
-4
7
42
13
-25
0
-8
-14
-12
0
25
45
-45
33
-62
0
44
23
-40
13
30
-75
-6
-15
-29
-15
50
-24
51
-14
26
14
-5
-30
-38
-44
58
-8
-28
-6
8
-19
-15
0
78
23
30
9
-1
-61
-41
9
17
5
-2
-27
19
12
14
3
-4
15
-12
29
22
-4
-38
58
-44
58
29
-22
59
23
4
22
-17
-58
33
23
-17
17
25
30
0
-15
1
-12
-2
9
-3
-9
-14
31
-23
-7
47
-27
16
-68
28
-14
94
22
16
34
22
45
9
-40
25
13
10
-7
82
18
29
-78
-4
-44
48
-36
-15
6
73
-25
22
10
-10
14
-18
-32
-15
-25
-13
54
-26
38
53
-36
-15
32
26
-51
16
-17
-80
-16
77
-30
-2
35
78
48
-4
-48
59
50
43
32
-45
47
12
-2
2
2
-27
-10
-7
21
-2
-13
-13
24
32
26
-25
25
-61
-37
-4
-12
-43
-50
-25
12
-19
21
-84
-16
-1
-5
-73
-58
-47
-9
70
40
51
58
36
50
-29
-58
-29
51
78
-61
-30
-10
-17
18
-1
23
0
4
-36
-15
33
-38
-62
-47
37
9
13
25
40
-12
-23
8
2
56
-33
29
-1
-53
6
-11
-11
-17
-60
-58
19
11
8
-17
-34
-8
-15
-10
34
-28
3
13
3
-22
-9
24
0
-45
15
-95
35
-58
-12
5
-45
-3
31
12
-30
-22
-12
-38
25
-23
-20
9
-4
-6
0
-40
27
1
-30
-4
33
27
36
36
30
-15
-21
-79
-33
-7
48
15
32
-14
-27
-26
-11
19
-66
-50
-9
40
-5
30
12
-39
-56
28
-73
-36
10
31
17
36
26
34
-63
-32
26
-12
47
11
11
-11
48
-12
-9
79
-3
-58
7
34
1
-71
16
-40
-13
-27
1
27
-17
1
-70
7
6
-14
-27
-25
-37
39
18
-31
33
16
17
11
41
-3
-7
53
16
31
-23
-16
49
-52
-23
7
29
66
-25
-6
33
-8
-46
12
-30
-22
-34
-15
18
3
-4
-8
-3
7
-12
42
32
54
-29
42
26
-46
-1
-5
-50
48
-15
31
36
-83
43
27
47
-6
-31
-18
-75
49
73
-57
11
-48
-27
-9
0
-19
-70
6
10
18
76
-28
-57
53
9
-15
-7
-16
-25
16
47
15
-2
32
-53
54
-31
1
14
-39
-43
-29
31
-3
-11
-43
-90
31
1
50
52
39
6
-44
-42
-48
-26
3
8
-26
-6
39
-10
35
-13
67
-15
28
26
-50
-21
-13
-3
-42
32
11
35
11
68
-22
-9
-87
-23
38
38
24
31
40
-106
8
-27
26
-24
-7
37
-39
-77
33
47
1
85
-7
38
-14
-13
-27
6
60
39
21
-67
-10
3
-14
-5
48
-3
37
40
75
3
-26
-11
-22
-14
22
5
-30
19
16
2
11
-40
50
32
13
31
31
34
-22
-43
52
29
-18
15
-34
18
32
-34
-52
18
41
43
-55
-21
-28
0
-88
72
2
-22
24
42
-8
-16
1
24
-23
-36
33
9
-6
17
13
-44
44
-27
15
14
19
-5
-31
9
-48
-7
54
2
16
-40
-4
-59
-69
-68
4
-86
-2
36
8
24
-15
-72
-45
50
-10
-47
27
15
-23
20
-47
-97
-1
-40
-35
-45
3
-16
-19
-37
-1
-16
-12
59
101
-75
42
-28
-30
-36
29
22
-22
-10
45
4
-12
-25
58
36
60
-17
-32
-5
-49
-5
10
9
65
20
5
8
35
-62
-20
-50
-52
67
2
-25
-33
19
31
19
-7
46
-1
-5
-38
-18
-8
-21
40
-28
60
7
-4
23
103
25
-19
-62
-70
-82
-16
-38
-39
6
-36
-13
1
-14
-29
31
-50
8
-21
68
19
0
-32
94
-7
-77
-10
25
30
-72
11
60
70
22
-29
39
-67
-3
-35
15
13
30
33
-4
-37
-1
50
-28
35
5
-32
28
-28
36
-16
7
-16
67
52
8
-32
-30
22
52
-26
15
33
14
17
51
-29
22
6
4
-14
-2
-3
-44
-3
-5
-4
54
-46
22
-19
13
-14
69
-37
20
16
61
-9
-12
39
-36
4
-27
-33
-12
-17
4
-12
14
-57
27
35
-4
-13
-73
10
37
51
5
-18
15
8
-55
12
-24
6
0
-25
-4
4
-17
-3
-16
29
18
46
-65
-35
71
-18
74
24
-39
-67
25
-21
-51
-6
-47
-11
-4
-15
-11
-52
-40
-53
-35
-44
-38
18
-9
48
14
23
-16
-24
42
9
6
24
-30
-33
-3
-17
5
-38
43
13
-18
20
-19
30
-3
-49
50
43
50
-32
23
7
-101
13
-11
14
9
50
-62
23
18
19
21
-21
0
-51
-26
-53
-20
21
42
-39
10
-4
27
7
-20
-43
25
-3
23
26
-34
12
70
-32
10
-8
69
-32
-27
20
32
56
26
-19
30
55
22
-73
-6
25
8
17
57
-24
16
-39
45
-81
31
-12
-33
-14
-3
82
2
-60
-23
-11
50
-1
-51
10
15
27
16
-22
-9
-12
-8
4
-22
-31
-18
31
22
-4
30
-10
-16
-31
28
-14
-16
5
-60
-68
-28
34
21
-20
47
30
30
-14
-59
45
-20
27
-5
16
29
28
7
7
32
-25
68
11
25
22
44
10
-21
-23
-17
-43
-28
-39
-29
6
-20
12
-4
-15
-4
20
-23
18
17
-4
-21
-5
12
-88
56
30
-1
73
5
-5
-22
-19
4
41
49
54
-2
-17
11
-20
-25
70
14
-50
-16
52
25
-6
2
-2
-39
-3
-2
-29
0
3
-12
57
35
-29
-17
0
-26
-1
26
6
12
-1
-24
-17
-39
-6
-4
-3
-5
17
0
-6
-8
-23
-20
-44
0
9
-15
18
37
-15
-51
-8
15
61
26
42
-32
14
31
39
-36
-13
21
-20
11
-34
73
-25
37
42
6
2
20
-3
14
-73
-2
-25
10
39
4
-32
-15
-10
39
-52
1
21
-45
-72
-10
-18
56
-24
28
-12
0
-90
-26
-22
-13
12
26
-25
24
15
-42
-70
-9
28
45
6
12
22
-22
-1
66
-1
25
-36
-5
3
-13
-55
-42
22
57
4
27
-17
-9
48
56
-23
-2
-14
0
25
-1
-5
-14
-33
50
18
77
-9
5
77
-3
-14
67
-1
-1
3
29
20
35
-13
-62
27
-9
-17
44
-44
28
-17
74
-12
-6
9
15
11
-13
57
61
-3
-12
32
-55
-9
2
-24
48
-4
22
36
0
34
21
23
-16
-6
-10
21
-84
-19
23
-29
12
4
-20
-5
7
0
-26
-6
-23
-14
32
-30
-43
-20
-27
38
90
0
-25
15
-15
-48
-16
16
-42
59
-26
-13
-34
-7
-58
1
73
23
-20
66
25
4
-3
2
2
-51
-78
31
-19
31
-94
-14
-61
12
-33
-24
3
52
50
-4
7
-20
14
20
12
-3
-12
51
-92
13
-21
33
20
40
17
20
3
9
15
-26
-13
21
-14
-47
-19
17
4
8
56
-27
-47
3
-17
55
-26
-68
-31
93
-45
12
-6
21
-15
15
-40
79
-9
-5
61
24
24
-59
-27
-90
-25
16
-22
-30
-27
9
-32
-12
33
5
-42
0
-70
3
51
-37
43
-38
-30
-20
13
-22
24
32
17
6
-5
25
32
-12
-68
38
8
1
41
-10
-59
52
51
-20
-36
-3
3
-46
28
-64
31
37
-73
78
-14
-19
33
54
-22
-17
17
89
27
-7
84
-19
-6
-55
-27
-3
37
9
-45
1
-36
18
35
-66
20
20
-48
-7
31
13
-51
0
15
-25
35
45
24
11
-9
18
5
20
31
101
-30
36
42
-25
-63
3
-16
0
-1
-72
-8
-37
24
-9
39
21
-11
14
-28
61
19
42
9
-46
-26
40
-12
-3
-28
37
11
8
-6
54
2
0
-7
40
-4
-52
7
3
16
31
34
-14
29
41
-40
-29
21
29
54
-61
-1
31
-32
-55
0
-20
-52
-65
-7
28
4
110
23
46
7
34
14
39
71
-39
-30
-67
-52
-61
24
-41
42
-28
12
71
12
18
-4
11
33
-93
33
8
-3
-2
-14
-56
-8
20
49
2
-63
1
11
15
-24
49
3
-26
-9
16
-115
-43
8
-103
10
14
-62
-28
-1
-31
-12
0
7
21
-5
-57
17
-9
-38
-78
14
-16
39
-59
-35
13
15
14
-33
-10
55
-15
-77
-9
-18
43
-1
-79
-70
-11
-42
-22
84
-36
0
33
-13
-3
-22
-29
-45
-6
36
-59
-59
-7
-19
-27
-4
46
34
4
40
15
26
-35
23
-4
52
2
-57
-2
-5
84
91
-7
-27
-7
14
6
13
35
38
10
6
-45
37
-12
-29
12
38
14
13
-45
-20
3
37
-35
4
5
3
-21
-4
-2
-18
-22
12
11
8
-8
6
29
-42
16
-19
20
-27
-43
-20
-1
-24
-1
-36
16
-22
-7
20
-82
32
21
21
21
0
-5
-25
-30
14
40
12
-45
-10
-5
31
-6
7
34
-42
-4
15
45
-3
-21
-8
11
16
38
-24
70
13
66
-12
10
30
-27
-12
1
46
-35
9
-28
58
-10
-43
0
-13
-16
-5
-15
39
-22
-26
0
16
13
57
-17
89
11
-4
8
-13
-40
9
-3
18
0
9
37
-18
21
11
-2
38
40
-16
-63
-8
-2
16
-10
23
47
-64
5
14
18
-21
-11
-7
-24
-30
1
13
65
32
22
-37
-17
-9
-48
22
5
1
-50
12
-2
-9
8
-7
-8
24
23
-8
16
-44
-3
15
16
4
-2
40
-37
-15
11
-16
9
-20
13
-62
76
-32
39
-19
-25
15
0
-14
47
0
37
-6
-11
-18
13
14
8
8
-8
5
20
-1
16
11
12
-14
-16
70
4
1
-14
-10
-12
-34
-40
-28
-24
37
-12
-8
34
20
-35
-15
8
15
50
38
-39
31
13
-1
-1
-10
5
-8
1
5
32
6
-30
24
-51
-9
28
35
-26
20
34
-10
-53
22
23
18
52
19
3
-11
32
-23
8
41
1
-12
-32
-11
-11
-26
-57
-7
28
13
14
0
23
33
-47
6
24
42
-78
-62
-27
-22
-1
61
11
-5
-18
-8
-29
-18
-10
-24
-17
16
14
12
47
3
-39
-3
-11
26
16
-39
39
15
-25
3
17
15
-22
23
45
-48
-15
37
-36
-13
10
5
12
-5
45
-4
-22
-7
-22
-47
-10
0
-17
-15
-18
0
7
36
-12
-6
-32
3
12
-17
-1
59
31
22
61
-8
-82
82
-19
-16
30
-22
2
27
-11
4
34
6
-14
9
27
-26
44
-8
13
29
45
13
-64
-10
-9
-3
-42
4
-45
-1
-11
-40
-12
4
26
-30
-29
14
-39
17
-48
37
-6
33
-3
-87
35
85
-13
19
55
-11
77
56
32
-26
11
61
-38
-15
-23
17
-16
9
40
-57
29
-9
40
-29
-46
-80
-7
-23
43
19
8
-19
35
-24
-18
8
-36
-22
33
58
6
-29
-17
-29
30
-25
-35
6
-12
6
98
64
-14
3
-39
53
31
58
-48
-11
-6
-5
-24
43
21
-48
32
-15
-5
-15
-35
22
61
50
21
-51
-18
58
-59
22
-63
-60
-24
1
-62
55
-18
34
37
-22
-9
35
-29
-17
84
74
-6
-34
-17
8
-8
8
-17
13
-36
3
59
9
56
-2
0
77
-35
27
-25
-5
46
49
-7
-2
28
-22
-10
-9
-30
-70
-2
12
-50
-26
-50
28
29
53
-35
14
16
-16
63
-32
-32
40
-6
14
-15
65
7
63
29
-31
-3
41
22
-9
-10
-6
-15
42
-6
-12
-30
17
69
-5
-2
28
6
34
-41
29
-10
19
11
22
-58
34
-24
-27
-33
-9
-26
-14
54
-5
19
-62
15
26
-7
-27
-112
2
-40
-21
4
-5
-39
16
-59
23
-21
20
14
-66
49
46
37
34
12
53
-6
15
5
-48
25
23
-21
21
99
49
-2
-21
16
15
-63
-62
27
52
-16
12
50
-41
-35
-42
-40
-13
-6
4
9
-50
-53
19
-14
114
-19
-7
43
27
20
-55
73
50
-31
39
34
-42
-52
-25
-99
-33
7
-31
59
-1
25
-41
29
6
41
-52
27
28
13
-19
48
9
101
-11
19
108
44
-30
13
-22
33
-33
-23
-1
6
24
-5
-2
16
36
-28
-83
-46
0
-23
56
31
35
-11
-48
-17
6
42
-50
0
-3
5
-63
-45
36
-24
30
-59
17
-70
-42
9
60
5
-20
-37
31
2
-107
-12
30
-30
43
1
66
-58
60
-5
40
-24
-4
-38
3
50
-60
62
-50
-40
-39
2
35
-18
-12
-3
43
-35
-41
7
18
54
-1
-11
-18
-80
-13
6
8
38
19
-10
-43
33
-23
-31
3
-1
-45
-44
-9
46
-37
43
-72
-22
-33
-10
39
-31
-50
6
21
47
-27
-7
15
0
-75
-52
78
1
-22
-66
53
13
0
-43
26
30
-5
-32
5
13
-67
58
23
-33
-24
-59
-40
0
36
19
-62
-33
-33
-34
19
-2
25
7
27
39
46
-14
22
-17
-57
41
1
48
-38
62
-47
-60
6
-74
-8
4
9
31
-24
47
14
-62
6
-42
-12
-32
23
2
13
-29
-29
64
41
-48
-57
-15
-66
18
-18
-29
6
25
2
-10
-2
-10
25
39
24
93
-15
48
-55
65
-6
67
31
-13
11
-56
-41
-22
28
-41
31
50
-68
26
8
-72
76
-5
3
54
60
2
-36
20
-23
-60
28
-8
-19
47
10
5
-18
-17
27
69
58
80
33
44
20
-20
34
79
3
-15
14
20
26
70
-2
-56
16
-6
-61
-14
-55
53
-13
-31
8
42
-16
39
-36
16
58
-28
-16
-16
21
-22
-22
18
-14
28
30
22
-1
-13
-2
-26
6
-26
41
26
21
11
-43
27
13
7
29
-11
13
-5
-22
4
-32
23
-9
32
-39
-48
-23
33
-15
-30
-27
-15
12
3
-26
-66
-77
3
11
19
21
11
39
25
-31
48
-8
18
-4
-21
-66
2
35
27
20
-20
-23
-40
13
5
21
68
-9
6
19
-22
33
-9
24
25
44
41
-33
20
60
-39
8
17
-11
-13
21
22
5
-26
10
24
21
-21
6
20
-39
-2
-3
-24
-39
22
20
6
-33
8
-5
-16
-19
-31
-17
-20
-41
-18
-22
-6
6
-56
-18
15
-11
-1
15
-29
63
-28
-20
17
-12
-25
-18
-5
-15
-35
10
-39
70
0
-12
11
8
-5
59
-62
-10
-38
-18
15
-41
-11
-29
-27
40
48
-13
45
-12
-29
-21
-4
2
-56
-15
32
37
-8
-14
26
16
19
53
21
-13
-70
12
33
-2
36
-66
-44
-41
-9
14
70
-10
3
40
-68
13
-51
11
-6
-1
-49
-39
14
11
25
-11
-36
-29
-23
-56
50
23
-22
-61
14
-24
57
82
50
11
-6
12
-55
30
8
11
-21
24
2
-31
-29
33
-54
-19
14
11
24
-7
-47
-5
9
-35
-3
-23
16
1
18
-48
3
-4
-34
-28
-31
27
20
55
-59
-3
19
24
-1
70
46
28
49
55
47
5
1
-5
15
28
-74
-15
6
10
-4
-56
4
-14
-27
31
-11
28
15
-44
38
71
58
19
-34
-27
-38
84
-75
-39
25
0
-31
62
31
-57
67
45
9
-17
-89
-18
37
98
-31
-6
6
-21
-17
48
21
-61
-8
-37
1
-127
2
-46
-73
-1
-7
-19
31
27
59
-27
21
-67
17
52
-54
35
36
-33
40
24
42
-15
22
-23
9
13
-9
-2
-35
25
31
6
6
50
2
16
-11
-28
-45
-31
-73
-89
10
-39
16
24
60
32
-24
-9
-95
31
44
21
17
2
-18
59
-5
-10
2
-16
53
46
6
28
-21
28
-1
74
33
26
9
11
-12
35
56
7
26
0
24
3
5
-14
-10
-22
-19
-2
35
-4
-38
-3
19
-38
11
30
-14
-18
14
34
-27
35
-2
4
-46
-91
-21
56
25
-40
-21
-38
6
57
-7
-13
-27
15
7
-19
9
1
-42
0
27
88
-77
-7
34
-21
36
35
21
-33
-9
-17
64
22
-70
1
3
11
-48
-74
57
-31
-10
0
20
-26
77
6
37
-26
-17
11
36
-9
-3
73
55
21
11
-3
6
-40
-38
-61
48
27
85
31
15
19
-15
-22
34
-14
-18
-72
1
-41
-10
2
36
14
32
-16
1
22
6
39
-26
-38
50
-29
14
19
-5
-40
-8
12
-16
26
-60
-38
-60
-22
-27
-28
9
38
-49
14
-56
70
-50
-7
-74
6
10
-11
-62
-10
-20
47
-12
3
-23
20
58
-56
-13
12
-26
-7
-8
27
36
-23
-6
-1
18
-32
14
26
24
-2
-6
100
-45
-14
-31
-24
-45
36
10
48
-16
-24
14
0
-106
-24
31
32
-7
-58
-13
28
-5
4
27
39
-76
-14
-23
-20
-6
0
25
6
-28
-39
21
11
-3
-15
-6
-3
22
25
-23
16
41
-44
-26
17
-17
-21
12
-26
51
-75
-14
23
-12
-23
-41
25
-38
30
48
-12
13
-20
33
-17
-27
11
12
-3
14
9
7
-21
9
41
16
18
30
-6
42
16
6
12
-15
39
58
-20
-6
-84
-23
9
33
-17
29
9
-8
72
-10
83
28
44
43
39
42
56
33
20
-25
-5
-30
-8
27
20
30
5
50
-8
-56
28
-22
16
56
-4
-25
-7
33
39
22
19
33
18
53
25
-15
4
31
-6
-21
-10
62
-46
29
46
-6
-18
11
2
-29
-6
4
15
-81
32
9
4
24
55
-13
-11
8
-26
33
-50
-42
40
39
15
-12
-18
-96
23
1
9
-8
42
-24
-5
-19
-34
-8
-32
19
-45
-22
75
-10
70
16
6
-18
45
13
-89
33
92
-54
4
90
5
-18
-36
40
115
-10
24
17
-11
-8
32
-3
-52
8
-51
-32
-16
-17
17
-10
21
16
-13
76
12
-45
37
-54
3
51
10
-9
58
-38
9
-32
-22
-47
9
-17
-82
-24
-3
-2
61
23
62
-7
23
-32
-33
-19
-15
16
-8
-15
6
35
74
-44
-1
43
-18
44
-37
-66
43
-11
15
63
-38
5
46
-8
23
50
4
22
-23
-9
-10
-42
-31
35
48
-24
-12
-20
26
4
31
19
-23
-73
-17
51
-18
25
-10
91
-18
-36
39
51
38
17
-7
24
-1
-32
52
7
11
-25
5
11
-7
-95
53
39
46
-7
-30
9
4
-9
-38
28
-38
17
3
-39
-8
-20
-22
0
-41
-33
-12
-5
-66
-14
0
19
-44
-16
30
-63
47
-7
30
22
16
-54
-35
43
23
-30
20
19
10
-53
32
-5
-35
-53
-4
24
24
19
-9
-93
6
4
-17
61
2
2
-48
18
-9
-14
-8
-3
-11
2
-8
-20
-10
1
73
74
-29
-37
4
81
-24
20
-14
4
17
22
59
13
-31
3
-5
-7
-51
-15
-13
-37
-35
20
-9
-7
-39
29
-18
31
7
25
48
18
73
-29
-9
-23
-8
64
52
-55
74
-56
-92
-7
-60
72
-14
-13
-40
-64
-30
71
-30
12
20
11
40
-2
-15
-3
33
27
-85
-3
-3
-24
9
-28
31
-38
-5
-69
-52
-47
9
-43
-8
84
32
-56
-15
-21
68
-55
-5
41
1
-16
-59
38
-15
-89
4
0
-47
24
-5
59
-48
26
-14
26
-42
6
-22
13
17
27
14
-18
0
16
77
-6
-6
-10
-4
20
-9
-31
32
9
11
-47
-11
32
-2
29
-44
-45
52
-31
-18
9
-19
-11
69
-21
37
58
-54
-53
-2
7
51
-12
20
-68
50
52
35
35
-41
-19
-24
-38
21
-28
7
-7
25
-12
-6
-16
5
-9
-28
-26
14
13
-5
-5
22
-3
-3
68
-16
33
-13
53
-2
36
57
11
22
-1
40
21
-48
47
-15
20
-14
-66
52
54
82
-55
-33
13
16
-13
-18
5
-15
-25
34
-41
-50
-31
-1
68
15
-47
8
-10
26
26
23
-53
-55
-10
-19
7
28
-8
40
-1
-7
-6
12
22
-20
-78
-25
23
65
2
-5
52
-5
-17
18
-17
-27
64
1
-45
-39
-46
-13
6
61
-9
-16
-11
76
-20
35
-51
-2
19
5
56
11
-7
6
-29
3
-45
30
18
33
64
-50
17
-28
-29
45
-14
-20
0
12
-68
-36
4
-13
-43
-69
-90
-22
8
17
71
-49
8
-4
29
18
24
-5
-31
-9
-35
-47
-5
-62
26
-9
-7
-58
16
7
19
-22
49
-39
4
-27
37
-25
28
37
-14
23
-58
9
5
12
60
67
-33
-30
11
8
-2
-24
-5
15
0
7
21
24
17
36
64
-6
-30
26
6
12
-26
17
-7
-42
14
-30
-17
67
-82
-13
10
-1
31
-43
-5
37
-49
-23
-34
20
29
26
4
-49
-3
-17
20
16
-3
-6
-55
-9
-46
26
6
-2
-8
22
-13
8
18
-9
1
-10
22
56
-40
-38
49
58
74
9
9
-19
-31
38
34
45
-10
8
85
-1
60
26
30
-5
-18
13
22
-21
38
-17
-39
-49
-66
27
12
74
41
-9
-1
-13
-9
-20
19
-7
8
-7
56
-2
46
-56
59
4
31
3
10
20
5
-23
48
-59
21
-4
54
-17
33
9
-37
17
-33
35
-80
-26
-24
38
-20
32
-12
48
24
34
73
16
14
80
-15
17
-3
-51
-24
26
27
-13
20
43
19
63
-23
15
48
4
21
-15
-30
18
-25
38
-14
-26
12
-28
34
5
0
36
26
37
110
-32
9
26
7
-37
59
6
2
0
11
-36
49
-7
-17
-21
-91
-26
35
20
4
-47
-19
13
-54
-11
-46
-11
37
-7
-61
-10
18
70
27
-59
20
32
-30
0
-21
-25
-41
-23
-30
-26
-2
-31
-33
-4
45
-26
-59
12
5
0
4
24
55
-44
-39
29
-7
4
-54
63
34
-14
-25
20
55
-32
-32
-17
9
15
12
10
14
-30
-11
0
5
-33
-4
43
42
-82
26
-22
45
-71
-5
24
-60
-14
-26
-37
28
-32
27
-17
-31
-29
23
11
62
15
64
-12
-9
-7
-9
5
22
66
79
-5
30
39
14
-9
-83
28
-16
-15
-27
-30
-1
25
-17
-3
51
41
6
-42
30
-12
-63
-10
32
23
7
50
5
43
-83
35
-51
-35
16
-55
34
24
2
5
-32
28
-16
-8
-92
-10
-46
34
42
72
8
-54
32
-15
-49
5
20
-28
1
17
18
2
-13
0
22
-16
12
-6
91
-27
33
8
12
48
31
60
58
-13
9
30
-37
-18
-43
63
-3
41
10
-14
-58
25
-32
35
-25
10
20
-11
29
20
-21
47
75
8
73
-38
28
-56
7
22
11
-61
-2
-86
14
56
0
-61
32
17
10
32
5
28
-26
-48
4
-11
-54
14
23
-28
-11
-69
27
15
21
24
2
-21
38
-55
-71
-42
4
-21
-44
-15
-20
9
26
2
-47
5
-59
-33
36
-20
20
-16
10
-41
-13
-6
-27
20
-36
6
-1
-2
-5
18
4
-7
-3
4
-16
26
-24
-8
27
1
26
-14
-22
10
14
8
4
-53
16
38
62
24
44
3
8
15
39
28
57
3
11
-45
8
27
31
-9
17
11
-15
6
-29
17
-16
-2
-8
-3
1
24
-27
-23
-20
-25
-21
40
-2
41
34
-18
-30
-7
-50
-4
21
23
31
-21
38
-9
-8
-72
-61
-55
19
6
21
-16
-31
6
-27
-19
6
-14
22
-15
3
13
52
49
-19
21
13
-30
-1
-17
-7
-32
29
-9
-35
-1
14
-41
-14
15
-20
29
7
-18
-32
18
71
-18
-23
27
-21
-26
-41
-24
-45
36
18
-1
-4
-36
2
-10
-26
32
-39
21
-7
-9
-5
-32
65
-4
-14
11
-23
-13
-20
-33
-15
-7
11
-10
-23
4
13
19
28
-13
6
14
-12
-19
72
13
-44
3
-46
-97
0
-21
15
6
9
-2
10
0
73
-21
0
4
39
-32
40
5
-36
2
7
20
-4
27
45
22
10
-15
31
-15
20
16
-24
53
29
-18
30
41
17
34
28
39
-7
35
22
31
-86
-4
-27
11
-69
73
-12
-55
34
5
2
-45
-44
-24
9
8
-26
15
-43
31
-30
28
43
-56
-28
-15
28
-43
-10
27
13
15
-12
-14
33
-35
76
-26
-32
-15
-17
-16
-15
50
16
20
13
24
1
-44
5
8
-44
6
-2
-10
-18
-63
0
-8
-46
19
8
19
39
24
-36
27
-1
-3
4
46
-1
54
-26
14
21
-31
7
28
-47
-5
29
-50
-55
-5
-8
-11
9
-9
4
23
18
-21
7
-76
30
-24
-23
-23
-19
5
3
22
-1
17
-1
49
17
14
38
-21
35
35
-26
4
-35
-70
63
-15
-45
-43
-32
-47
34
-33
-21
-26
4
-49
37
-41
-3
-4
-46
-83
-38
-19
24
-57
40
16
22
-37
24
30
-38
-48
55
-33
-11
-1
-58
5
23
37
40
7
21
-8
-16
-24
-12
-10
-9
19
-21
-12
-26
12
33
-3
43
-11
-22
-12
18
-34
-37
-6
-6
-8
-4
-50
-23
49
-16
-10
-1
-20
0
-3
6
-12
20
42
28
-20
-43
-24
-69
8
8
-71
-3
-12
6
12
-66
25
16
24
63
-19
-39
-8
-40
36
57
0
24
13
5
-22
-4
29
7
-65
12
-11
6
-10
25
20
10
-27
-54
5
26
15
27
-26
-35
6
-27
-3
-37
-7
41
-6
-43
-4
-23
32
-17
17
-20
17
17
63
-29
-25
8
49
24
-16
23
27
-24
33
-13
18
-11
12
-5
-9
-4
-12
6
-26
-22
1
8
27
21
-1
-33
5
-18
41
22
11
29
-5
2
14
-6
43
-33
11
-35
-63
-29
5
-25
37
-23
-20
-15
32
4
21
-34
-23
-8
43
72
15
-41
2
-32
-21
-50
-9
-5
-2
59
-24
-28
-39
21
7
-20
-11
4
33
-1
-29
-11
-37
-47
-5
-37
-1
-30
-23
-16
-43
29
-14
69
4
-9
-43
3
22
18
-83
7
-42
-64
-14
18
-47
-32
-60
-6
-26
-26
16
17
-64
11
1
-53
-37
35
29
1
-22
-46
11
0
-15
41
-44
80
-44
3
32
-24
4
62
39
-8
-65
-42
64
-39
86
23
21
-24
-78
23
-44
62
38
55
-28
-27
65
87
57
-5
-8
25
-20
17
-36
-25
6
6
-42
16
16
-45
6
-70
27
-21
41
24
28
21
-72
-56
-4
15
-2
-11
23
-9
0
17
31
44
-49
-84
20
-56
-8
-9
-20
-28
-14
12
17
34
-38
33
-48
58
-2
19
27
-49
-21
-20
26
61
-10
-11
32
-2
6
33
49
8
-68
-50
18
-3
-1
1
0
-26
44
-33
16
-36
33
-34
-8
-50
-22
7
33
-57
-16
-46
25
54
-19
-19
14
0
45
-53
-53
-51
-9
43
-37
-41
-3
-57
-4
2
29
-38
-80
36
-53
1
18
-15
20
28
-8
-67
-35
-55
3
-17
36
-56
2
16
35
-49
18
2
-18
-4
15
-4
31
23
-18
27
-59
-42
15
-43
-67
11
40
-40
-93
-13
47
-21
-39
-39
-20
15
55
18
-19
28
-3
-54
55
28
-4
65
17
-42
-9
-23
0
-81
-13
17
-23
-17
62
-39
27
28
-10
-22
-12
6
44
5
-2
49
1
-88
25
-14
22
-21
-5
-27
11
5
64
28
-35
40
-48
-5
-41
9
-1
2
11
23
-22
31
27
-50
37
32
11
-60
7
-43
21
-48
-42
26
68
-19
-11
38
-16
32
-24
38
30
19
-4
19
40
6
-54
8
0
-16
-7
-61
-2
16
7
-25
34
29
4
39
-17
-30
38
-30
44
-22
28
64
18
-26
-3
-14
-26
28
-18
-32
42
-37
40
-10
32
14
-17
-7
35
-1
27
-10
5
18
-102
-13
13
3
45
10
-42
47
8
-26
83
-3
-32
21
43
-23
-34
-7
45
8
-58
11
6
1
78
47
35
-9
-45
41
-4
53
29
-59
-36
2
-2
-33
67
-36
-3
-23
30
-2
-16
14
34
15
15
3
39
4
49
48
21
-44
7
-5
-15
28
-43
60
-12
-6
-25
-32
4
-6
-29
-42
37
-6
10
39
14
18
0
-27
-3
36
-4
-19
8
-33
8
22
-8
-38
25
-10
-12
-18
-4
-3
-34
40
-3
36
-4
15
21
-9
19
17
71
15
-73
22
-19
32
15
53
31
-2
14
38
-10
16
-28
-23
-10
-60
-27
7
30
-17
-14
-30
13
32
-21
-67
-15
-47
5
-2
-58
4
-27
25
72
-25
-25
-2
-30
-47
-14
-2
36
3
26
-118
-14
-35
-68
26
25
-67
5
-3
-6
6
-39
-37
34
83
41
2
-7
-15
-8
-32
39
-22
-8
8
28
40
12
11
32
31
76
72
-35
-29
-91
14
37
-9
76
52
-16
54
-40
3
-8
39
69
-8
64
4
43
-7
-12
24
-14
-35
24
34
40
56
-25
-34
-65
47
-7
-12
16
-32
8
-82
-29
30
-32
51
-18
-22
-58
8
-23
38
-26
6
-12
-16
22
42
41
-52
-82
8
37
36
-29
-16
66
-4
17
27
-41
-4
-23
56
80
-17
3
10
64
-25
-43
-31
38
-40
22
27
-3
-5
10
17
-25
70
51
-33
-36
-53
-12
7
-20
54
-18
-20
-44
-24
-65
24
-19
13
46
-19
-10
-2
-12
-3
-57
7
-19
22
22
20
5
19
-25
65
48
-20
71
-60
15
25
46
-19
10
-6
20
76
30
10
49
-8
12
-75
13
-17
73
-23
45
16
74
-57
-54
-19
18
23
9
-11
31
39
5
9
-17
70
-39
33
20
20
8
-54
-34
-10
54
-5
-39
8
57
-59
-19
41
-61
-47
1
43
-7
-15
3
64
-42
-3
37
-61
23
15
-33
29
62
40
35
-67
-29
49
31
30
24
-30
-73
-32
62
-16
-40
-41
-1
-35
83
8
-10
-44
-24
-62
-4
-32
26
6
-4
14
5
22
36
-24
-41
38
-8
7
78
5
18
-66
14
53
-21
-29
-12
58
98
9
-18
-66
-32
-20
-9
-5
15
25
-82
-13
-34
-2
-30
28
51
43
64
4
36
17
-20
-53
-20
47
3
-7
-48
37
15
3
23
-20
-39
-29
-8
3
-34
-54
-11
6
-17
40
56
-61
-45
62
32
10
-30
-30
-11
-8
-11
23
3
0
-12
-80
53
14
71
81
8
4
4
23
-32
-21
32
-23
-2
-74
-54
22
-26
-3
-5
-3
-37
-40
20
-10
18
-63
-45
73
17
-2
9
-14
-32
11
-23
-20
4
-4
24
26
-10
-16
-40
-14
13
45
63
51
-45
20
-3
-50
3
6
59
-1
8
51
5
-127
-16
-34
-80
-24
15
28
34
-61
48
-47
45
-25
-35
16
31
-33
46
26
27
-26
-41
-13
52
37
62
-7
25
-72
-55
1
61
0
-72
-103
-45
-5
77
-7
-34
-10
23
11
9
43
31
12
32
-2
17
57
20
17
7
70
15
54
-33
21
40
-69
33
49
-55
-51
53
-6
-42
32
2
45
-53
5
4
-31
7
23
-29
64
-60
-18
59
35
-48
-21
22
-81
-75
-53
15
39
17
9
-36
-19
13
-13
26
18
59
-23
-44
29
11
-26
7
0
13
11
-24
-31
-20
29
-87
81
-68
3
37
-31
-4
-83
-9
-14
1
-11
-124
12
-36
62
40
-9
42
-27
3
-2
-1
-58
-39
15
38
-27
-5
74
-47
3
-39
-56
-5
20
27
48
-71
76
-30
25
9
-26
-67
26
-13
19
-29
31
32
-6
-32
5
-37
-54
-4
51
10
21
-55
-23
1
-51
-37
27
-31
64
35
30
39
-4
33
-1
-7
34
-4
19
9
-105
18
21
-13
11
53
-55
-32
44
-99
38
43
-10
-14
-15
-47
2
-20
-31
6
-20
-72
48
-6
-21
-25
-4
48
-32
23
34
44
33
6
-59
-57
1
-11
33
55
-16
-2
-27
-16
-30
86
31
57
18
37
28
10
51
23
24
3
38
-4
11
18
-3
-61
-4
13
-63
13
-9
-27
-7
-26
-34
-21
0
-46
6
-7
26
-7
58
1
42
22
35
-4
24
3
-56
15
-45
-10
-27
66
-4
-6
13
-11
-69
-1
-6
0
31
-6
-27
17
54
-23
-81
-39
34
-20
-21
-1
10
15
-7
-16
-38
-23
28
14
8
17
-58
22
12
42
-36
33
-36
-18
-5
30
28
20
39
45
21
14
-45
44
-62
8
52
11
-55
68
-24
-17
18
20
48
-43
33
20
29
-24
22
86
50
45
-47
5
11
21
41
23
-31
30
47
31
-32
-6
-28
17
-11
-2
38
-8
-2
-4
-48
73
13
6
-4
24
-77
4
22
22
-15
34
-60
29
7
-36
15
20
-12
50
-46
70
44
38
20
18
-21
47
64
24
-44
15
-18
-5
-33
42
-16
-13
20
-32
-30
18
18
-10
7
55
-13
-10
12
1
-19
-13
-25
-94
-55
-1
16
-56
36
-12
22
-4
8
-49
27
43
5
-9
-28
23
44
20
15
1
39
-40
11
18
10
-15
-10
-48
-17
-4
14
-27
110
20
-44
21
25
-38
-38
-30
-16
41
0
36
-29
15
-8
22
22
37
8
12
22
72
-24
8
-24
-32
12
-5
-2
-7
-6
-34
-10
13
-6
-23
-17
-16
-32
14
-7
-57
-10
-56
20
9
45
-36
20
24
-2
25
-63
-24
-8
35
-20
11
-4
-13
-9
34
62
2
-19
-27
-8
31
31
-6
38
-45
-42
7
31
1
12
4
17
13
-49
-14
20
-12
-29
17
-10
5
-37
0
-19
-2
-26
9
-26
-5
-27
11
-10
6
-3
17
-29
37
-7
2
-2
25
-20
27
7
7
1
-12
-25
20
17
19
21
-4
13
17
7
17
24
21
-21
35
13
-10
-42
-56
-28
31
-48
3
104
-22
4
55
4
27
20
-4
-5
-9
-39
-9
-27
47
12
-21
-13
45
-20
-25
-21
13
-31
11
22
-25
21
40
-4
-32
-48
25
26
-38
24
11
45
9
-15
8
1
-22
17
-8
39
-2
12
41
-32
-19
-5
-3
-60
30
-29
-2
38
-29
48
-32
7
6
19
-3
5
-77
-13
79
32
-5
-19
27
8
-17
-32
-18
65
-46
47
46
24
9
-25
11
6
-19
35
-1
-9
-31
-17
14
-17
22
-20
9
0
37
50
2
29
-75
-67
5
-66
-26
-8
-49
2
22
-42
6
-20
33
82
14
-20
7
3
-20
42
-34
-26
-44
-24
-1
-41
4
-15
-8
42
-15
98
12
69
50
59
-1
-20
14
-2
-14
52
31
13
12
24
23
-16
-49
-39
6
-60
19
15
-1
27
25
-7
5
-16
-15
-65
-20
61
-37
13
21
-7
33
-10
0
-16
16
34
97
-12
-62
39
43
14
-6
23
-40
42
-16
-50
49
3
64
-12
-29
-49
12
-9
-3
42
12
44
10
-16
-20
25
-20
-3
22
42
-7
-25
-52
88
-74
1
-50
26
-22
35
-6
-19
39
-24
-24
41
-26
-13
21
28
31
15
6
52
37
65
-14
21
-7
-27
-58
-28
-14
25
-45
23
6
11
-34
-53
20
21
29
1
-58
37
-5
55
-67
22
-41
4
-17
33
-47
22
8
-20
-10
-17
4
-17
32
-18
-89
33
-82
-10
13
-32
17
29
21
-71
54
-13
3
55
-18
-32
-14
-11
7
30
-77
-6
-23
-26
-21
23
-8
1
3
35
-19
15
-4
21
0
53
51
-45
-15
-21
14
-11
31
-15
-11
-33
19
-15
-59
53
-5
-39
59
-12
53
-68
-29
-47
-38
-8
-16
1
32
2
18
-33
-4
0
24
29
-7
49
6
-8
-36
52
-38
-8
-39
-72
0
-23
-7
-35
20
22
3
8
82
-70
-49
-12
1
-67
-15
28
3
-24
-61
-4
-12
-45
23
15
-18
27
50
28
20
14
-34
34
39
33
-53
-37
20
73
-4
4
12
-4
53
10
-40
-30
72
28
-36
36
49
9
-7
-38
78
39
61
-44
-53
12
51
1
38
3
10
-16
32
-37
5
-7
-6
22
42
2
5
-15
-16
17
14
34
-41
-44
-33
7
7
14
-11
-107
1
-21
35
20
-20
-36
45
-13
13
-6
-30
3
10
39
2
13
78
27
-39
-31
16
-5
-36
-21
5
-9
-40
57
-14
4
29
-26
17
-33
-19
-60
-5
34
-14
20
-5
23
-59
28
-39
71
-34
5
32
39
-3
16
-11
-54
-15
26
-6
43
-28
-22
-5
54
-57
-32
-46
-33
20
-101
11
-53
-28
20
-24
-6
7
20
4
-45
3
46
7
42
23
-20
30
-86
-17
4
-4
-35
32
18
-77
-30
-4
-59
13
-38
-36
19
19
-55
-17
-12
-25
35
33
33
2
-27
-71
-38
24
-9
-22
-52
28
-18
12
-20
42
45
-12
-15
-14
-10
21
42
-90
42
14
-13
-16
-27
-50
17
29
-17
26
-10
42
-5
61
1
-3
-19
77
90
-21
60
26
3
-69
7
40
29
-69
-4
-5
27
3
-3
58
-23
-10
9
-6
0
16
-59
24
26
10
-19
14
-25
-80
-33
23
-32
35
-31
84
7
6
-62
-54
34
15
-9
11
39
34
49
-10
-6
-28
25
-2
29
-1
-45
-16
-40
54
-61
0
14
33
19
-57
-31
49
-14
11
37
-7
42
-61
17
-30
-56
10
-28
-4
-12
18
83
0
86
15
52
-45
-3
-42
-28
4
-27
-33
-17
26
-11
3
-18
2
26
35
-10
7
-18
19
7
-27
-10
12
29
29
62
-29
1
-73
4
37
1
-67
-66
36
5
-85
-25
8
-16
-28
-60
-3
25
4
-43
-1
-22
6
50
13
-38
20
-36
6
-24
-17
34
9
-27
6
29
2
4
-1
-25
-18
49
7
-65
-56
-34
26
12
-56
3
75
-12
8
-7
4
7
-10
11
-24
-2
-59
24
-10
23
-38
2
-25
60
-62
-37
20
15
-8
-37
-22
2
-9
54
3
-59
4
12
-44
-11
25
44
38
-52
-8
-42
25
17
-3
-4
-3
99
-2
-13
-16
43
85
-18
52
58
26
9
-2
12
86
10
9
-40
-35
-15
-6
5
-28
-58
-6
13
3
-25
-15
13
3
-26
11
62
16
-34
-2
15
-37
-10
44
-5
-21
-11
-20
22
-24
17
38
-17
5
-6
-13
16
20
12
-39
4
-45
0
11
59
-47
6
10
18
72
-22
-7
-11
-53
9
15
61
-71
-4
40
24
22
-9
-39
23
49
-44
-68
-2
-16
38
10
-16
-13
-8
29
-3
20
12
-6
27
-1
-88
-57
103
-26
49
-13
-35
-15
-18
16
-57
12
6
75
-21
16
28
-51
51
-39
-54
-42
-41
-67
-80
-30
40
45
-47
-39
-23
86
-17
39
-30
-21
-34
-17
33
2
-13
-31
-35
28
-9
53
27
11
23
4
24
-64
-5
-9
-16
-24
16
-16
-23
-4
49
-20
-13
27
30
46
-90
41
23
-26
62
-27
19
0
-16
-45
6
-35
-22
28
50
-16
11
7
0
57
8
44
22
38
-37
31
18
20
-17
-28
-72
32
8
-26
19
23
29
-8
-12
52
26
-22
-18
-10
4
3
25
-34
-5
-3
-11
14
11
-31
-39
-30
75
9
-56
36
51
20
-11
2
-46
-34
17
-4
69
43
118
3
27
-17
-7
-1
35
-2
26
-64
41
36
22
10
12
-8
7
-43
-8
-29
25
66
3
56
-12
23
-68
-51
-56
25
15
16
29
12
34
56
79
-49
31
-13
9
11
20
0
25
-88
-43
84
-23
4
29
-47
28
53
56
-28
20
-25
6
-12
64
56
-7
-14
20
72
21
34
-11
-10
11
-25
-4
47
-24
-3
35
-2
12
1
6
-36
14
-10
2
-29
60
-21
2
16
40
-9
31
24
54
41
-7
3
81
24
14
33
15
0
3
15
2
-6
-15
2
16
12
0
4
-17
-20
20
18
-58
-19
-15
-20
14
82
63
22
33
6
42
-17
-35
-57
-38
55
20
-7
21
20
29
32
-98
28
-42
34
57
-12
-32
-54
23
16
-76
-2
-9
-3
11
-38
7
-12
51
25
2
40
41
-16
39
-25
14
-26
-63
-10
-1
-32
9
-29
-4
-13
-13
11
46
-54
-43
0
21
-37
10
35
49
-11
4
-41
-47
36
12
22
-36
-14
-76
26
-3
32
26
28
6
48
25
-42
8
-24
10
-30
-10
36
-5
47
-18
8
3
-33
60
-42
74
53
-11
-28
-41
15
-57
40
19
-8
-52
-12
13
-54
10
-23
3
-20
13
-17
50
25
47
36
-11
23
102
-31
-9
-11
11
-3
7
70
18
20
-22
31
-19
0
34
12
44
56
-15
-20
-6
-51
-21
-6
-61
-15
52
-7
-27
-50
31
-25
75
-77
6
12
6
69
5
-46
1
-5
19
-1
-33
31
-3
-31
-43
57
-9
-40
-26
7
-10
-46
-9
31
27
-11
-3
-9
-36
-57
-6
31
49
-18
17
31
74
11
48
4
27
-67
-80
20
13
-60
15
-6
-12
-60
-39
31
27
15
-47
59
3
-2
41
25
17
-8
18
2
-1
-37
-1
-48
23
-16
-59
-31
-4
58
-38
-64
32
-12
-7
-37
-31
21
4
-3
-34
-9
-10
21
2
38
63
11
-118
38
-30
19
-23
-49
-27
10
-40
-36
-30
1
-5
39
7
-11
-5
-1
-32
-18
-46
9
32
-38
22
25
3
-16
-69
26
30
88
-8
5
35
3
16
1
-6
-12
-12
12
4
-33
-3
1
-31
23
12
-26
-23
-47
31
2
19
-14
-32
34
-48
-22
51
-7
6
-23
-10
33
5
15
72
-60
23
-7
-21
54
9
38
-31
-24
-2
-35
-49
-13
36
20
67
-10
27
-23
1
-17
6
-22
39
-3
50
-31
27
-3
23
-50
18
-42
-26
-20
54
27
11
21
31
42
-5
-56
-16
-44
-51
49
-29
33
26
-44
-39
-39
-1
-5
14
-6
-32
30
-16
16
-19
62
48
3
35
-32
32
23
28
-1
-17
30
28
-57
-50
-27
31
-36
-76
-35
-6
49
-40
-36
-5
-70
17
-11
-20
-4
-9
-3
-18
-22
47
28
0
-3
-66
-4
24
10
24
2
-42
-79
8
-27
38
14
16
17
24
-12
44
-48
-66
15
30
3
-13
8
-12
11
17
-5
-21
10
-24
-39
36
19
-30
19
25
-55
-53
46
42
-18
-11
-12
33
46
8
-45
65
4
7
42
-17
-37
-23
2
-60
-31
24
8
61
43
53
11
-10
-47
-39
72
31
30
14
-35
-32
9
5
0
-32
76
-18
-67
-50
75
-32
48
7
1
35
-26
8
48
65
4
38
38
-18
3
52
-9
42
61
30
87
-19
16
36
-4
-47
-6
13
-12
14
5
-22
-5
100
-31
-38
69
12
46
-2
-28
-24
-22
-3
-43
5
-28
-1
-72
25
-17
-27
-41
-43
-1
35
1
-49
-33
54
36
-67
-10
6
49
-49
68
20
7
-18
-15
13
-28
-6
14
24
57
-15
46
-42
-44
12
-13
14
-80
-56
33
-32
-65
37
-8
-1
47
-72
-6
-48
63
29
39
-53
41
22
9
-46
-52
3
-22
6
-72
-3
16
5
12
-29
-29
-24
-32
-25
-69
-60
-13
-26
-37
-3
-17
-58
-63
39
-35
96
-5
-15
-4
-13
42
39
56
-48
-2
6
-32
-70
-68
1
-66
43
39
-34
-26
30
-29
15
-23
20
-2
-20
14
41
-1
5
-2
34
-73
-31
-50
-7
28
2
-28
16
-6
2
50
-2
-17
21
-14
63
-24
-57
19
-32
-18
37
-29
5
-34
-1
12
-54
34
13
-34
7
-36
-55
8
6
17
25
14
36
37
2
-51
-44
1
-16
-46
-3
10
12
-74
-48
-3
-26
0
-22
-25
22
-24
-30
-14
-44
54
1
-11
-21
-8
-20
18
45
-16
52
47
11
-8
27
-6
17
54
11
-1
-34
50
-4
49
-4
16
-39
-13
-2
16
-27
9
47
63
6
-3
-22
-24
14
-24
-19
-20
23
3
-8
-13
-30
42
12
-8
-32
16
-1
43
-2
45
-28
15
58
-42
-4
5
-18
3
-51
-12
-3
-18
-37
36
-28
3
-8
22
-12
-33
-3
9
-26
-33
-17
17
31
-14
11
-48
-48
-12
23
13
-23
10
16
-6
-2
-5
-2
-23
-6
-7
-28
-22
-14
-35
-18
18
54
-1
56
12
-30
-27
14
41
6
-41
-46
19
0
-62
19
-25
-36
13
-17
-4
9
-4
-23
-10
29
-28
-30
-11
7
-33
21
54
-17
-16
64
-18
33
7
-37
-4
8
97
4
-56
30
4
1
-6
16
34
10
-40
-35
-13
45
-39
-27
10
11
-16
-8
-12
25
-30
4
-68
-3
-119
-5
-33
27
52
-20
-4
-46
-21
35
-5
29
-16
24
-28
-42
15
43
4
-6
33
27
-31
19
39
79
7
39
16
-6
-43
37
47
28
20
51
-4
-39
-51
3
80
10
29
24
34
66
-22
-37
-18
18
48
-44
7
-37
33
-34
2
3
-13
96
-22
0
11
5
-30
33
57
6
-34
20
-22
39
-10
-31
28
-41
-64
11
47
95
-37
-10
15
2
3
-3
-11
72
7
-29
-37
-8
-18
-4
-20
3
-29
-7
-2
-56
-2
-31
-16
0
5
11
7
65
23
12
67
-6
51
-60
71
21
7
-27
3
-37
-4
-36
-13
22
28
22
0
24
17
53
19
-21
-22
18
-9
56
32
42
56
-8
-32
16
42
21
10
-30
-26
-14
32
-30
11
-8
-14
31
-11
-63
-23
58
-23
-3
4
54
-17
-9
-22
-10
59
-45
-19
25
8
-11
-31
100
-19
-27
56
-16
-4
12
-36
42
3
37
12
-9
10
38
20
26
20
34
35
-22
-4
3
-2
-4
-58
1
-25
-10
-8
-28
-30
-26
-35
-19
40
49
40
11
65
-19
12
-4
-32
28
-7
46
42
-81
-26
-15
67
-11
39
19
3
-77
49
13
-2
3
49
3
3
-10
-77
11
-36
-41
48
22
11
-61
-31
24
-66
29
-6
11
36
21
37
12
13
22
18
21
-45
-57
-3
2
31
65
-16
-22
-8
51
90
6
84
-68
34
49
-10
-38
33
-43
15
-29
16
58
-29
-6
-4
-11
-25
24
63
-42
16
0
14
-34
0
25
25
-29
-35
16
74
-49
15
81
-40
-36
-51
-95
-53
80
23
-13
-23
47
-48
33
-3
34
27
73
-31
17
-9
-31
-61
39
41
25
-51
-37
-3
-19
-32
61
17
-37
-16
-29
36
2
8
6
62
-29
18
34
-56
96
-61
34
11
-16
17
65
14
-12
39
20
-6
-1
32
-52
29
7
0
26
41
-113
47
-61
-9
-17
-54
13
-8
19
-35
-76
-52
35
17
17
9
58
30
-75
6
-40
-67
-36
82
40
6
-53
-17
39
-1
-25
-59
10
-5
-66
-42
42
-13
-24
6
19
47
13
-58
104
26
-37
-15
0
-40
-13
-48
56
31
14
81
-30
15
-52
-36
-62
9
21
-22
-30
-17
79
-55
4
-8
-39
-47
73
-71
69
24
35
-8
-37
-49
-36
-82
35
27
15
35
14
-23
99
28
-69
-29
28
3
13
-21
0
-43
-78
30
27
22
-127
74
21
49
16
31
78
51
-1
-22
17
-13
-117
-12
-89
-3
-70
-27
6
1
-22
-16
-24
8
79
4
55
-4
57
4
-44
20
-27
-15
39
66
61
39
54
-19
18
-39
-118
56
-5
20
-10
-13
24
57
90
-3
15
-60
4
-16
-30
-35
2
-48
26
58
17
-30
12
1
-13
24
-35
4
12
-8
41
-34
4
14
59
-37
-30
23
21
3
41
10
21
12
-3
18
6
15
20
-27
1
45
24
94
36
-28
74
6
-17
6
-32
-52
-18
-50
18
49
-21
-16
9
-2
12
-18
8
36
15
-28
-56
19
31
-3
15
0
6
16
-8
19
17
-8
46
-21
-47
-5
-9
53
24
-30
-61
-41
57
-12
-13
-27
8
-30
16
-41
1
-14
-28
-12
8
27
-19
7
23
2
-4
-12
60
-32
-27
-34
69
38
9
19
-7
-4
-52
-9
-6
-5
-22
-20
-14
-1
13
69
-10
-43
-32
92
57
-14
20
-18
18
-37
-20
27
40
35
6
12
-7
0
20
-11
-8
11
-9
5
-24
19
-43
32
6
-27
-21
-8
11
24
1
-84
-70
-3
-21
39
-42
-38
0
4
22
-9
-65
-5
16
2
-47
16
63
8
-1
-25
18
-24
18
3
20
-8
40
-27
-30
-60
-3
-28
-4
37
21
1
-39
22
22
8
2
26
7
25
-4
-22
8
40
-7
11
-52
-39
-22
109
45
-34
-27
-45
15
3
-8
-9
29
-59
-40
-5
-42
18
19
43
-10
-30
-13
-1
11
-20
8
11
-50
23
39
-4
8
10
23
-11
13
40
38
36
27
6
11
-16
-58
-40
53
-22
-39
19
1
-15
36
4
122
-30
10
11
-12
-3
-12
24
-31
-5
-24
32
65
42
1
-30
7
51
-15
0
27
14
-24
-24
-13
39
-20
-12
-45
-5
-9
-20
50
-17
-8
22
37
8
50
-70
-7
21
-16
-11
20
-22
-30
2
15
1
11
6
4
-81
-5
-37
-70
4
-6
-3
14
38
-60
-32
2
18
-61
25
24
-13
-57
38
2
17
14
10
-38
71
-58
-21
-11
9
19
4
-19
-2
7
5
67
11
-45
32
22
-15
-33
27
8
-9
-9
16
-16
-15
-7
11
8
4
-20
18
16
15
4
-24
61
22
15
-49
-114
29
-38
-17
73
-8
55
-8
-27
111
-40
11
48
-6
-37
-12
31
44
-51
-11
-34
20
-6
-46
-43
72
12
-15
5
78
-48
-7
19
34
-73
16
14
-21
22
-70
5
65
16
-39
19
-4
-71
-1
3
9
-19
-29
7
-9
-52
40
-31
48
19
36
-35
66
-6
-5
0
24
-18
3
4
38
-22
36
21
-26
-24
-71
17
5
-25
6
16
-57
92
22
20
2
40
29
-24
5
-27
29
10
49
-35
-76
1
-70
-48
-7
-10
-16
-20
-74
-12
19
24
16
48
43
5
44
34
35
-43
49
7
-52
-43
4
-52
-3
-67
-36
-8
-34
9
33
15
-37
0
39
20
32
-30
24
4
28
2
-71
-11
-30
18
26
-18
48
-55
16
-20
-5
-17
-13
-19
52
-9
-33
21
-11
9
-38
-39
-26
36
-41
16
-30
15
29
42
-31
-20
-8
-33
-10
62
59
-6
-45
-25
13
-8
36
-30
57
22
27
-7
-4
-15
-102
15
42
29
34
0
40
-47
50
-6
-4
12
20
-17
24
-11
-1
29
-21
-15
-1
19
16
-8
-25
15
-4
54
-1
-65
12
37
9
-14
-7
-64
10
-5
5
-52
-11
-14
27
10
-41
-15
-16
29
29
52
4
28
-31
49
-44
-24
-25
-47
-23
-41
-7
-46
-19
-65
31
19
19
2
-38
3
-3
-80
-43
49
13
65
-2
76
16
-46
-37
-54
-22
21
-24
-3
-64
16
-35
-4
9
63
-22
42
2
39
-27
1
40
20
8
54
32
42
-75
4
-16
-11
-56
-22
37
-16
48
-12
21
41
26
-44
79
-25
-53
32
-48
-9
-1
14
-47
-10
-73
-13
-4
-75
-64
-6
18
61
40
9
-15
-26
-27
50
-11
-64
26
24
2
63
-4
-41
-19
16
26
22
27
-12
-20
6
20
16
-14
-28
22
45
-14
0
51
-39
4
4
2
43
-24
-45
15
15
-14
56
43
27
17
-4
-14
25
60
16
10
13
8
-15
-9
34
29
-48
-1
14
-29
67
-6
32
10
42
41
32
40
-100
25
40
27
15
72
8
-21
16
-20
39
66
-5
7
4
43
39
-35
14
-34
51
-35
-14
-10
-65
-41
-54
14
16
-21
48
21
2
7
34
-29
2
11
30
4
-51
1
-83
-34
-30
20
7
-14
7
-22
-18
30
-17
-29
10
39
43
-18
-3
34
87
31
10
-73
-102
8
66
6
41
-5
-56
49
-70
2
16
-30
37
21
-3
4
-35
-61
1
58
44
35
31
-76
37
19
-41
16
3
-1
-22
68
20
34
20
-22
-11
-40
-48
-20
-3
-2
29
3
-10
-17
-2
-37
13
9
-30
45
-48
18
-43
-47
17
19
45
8
41
32
-77
-99
29
12
-15
-29
-25
16
-90
-30
-8
-21
-35
83
-36
26
10
9
-72
-1
1
-27
28
-42
-28
25
-15
86
-9
30
54
57
-33
2
-49
-95
53
50
-36
-7
0
46
31
-27
24
-18
17
5
-1
33
26
-1
23
5
4
32
-31
8
-48
43
-3
-48
-28
-27
44
-14
14
10
13
-3
0
-15
-86
-19
-7
-40
35
10
42
-10
0
0
-15
-92
9
-29
-22
-48
-8
-24
-34
-90
28
5
27
40
-12
-10
-1
41
32
-29
-24
-24
-89
21
-64
17
8
-34
5
-4
70
-77
-27
-12
14
-1
11
-15
21
54
-19
11
-64
82
-71
21
13
-67
-84
-19
-67
-25
-55
-22
-56
-16
-59
-31
24
-19
4
-7
5
-11
33
-36
-97
33
11
4
51
12
81
11
-8
31
16
28
9
86
52
48
40
35
0
-17
-11
-25
-18
4
-5
-13
61
23
14
-14
-50
14
-29
-13
19
11
-36
15
24
-5
37
-43
2
69
-19
-42
9
28
19
-12
-22
45
20
50
-32
-1
-38
93
15
7
-45
5
-34
-27
87
-3
10
1
-22
57
-22
18
5
-24
14
30
-32
10
-35
22
-17
-16
50
6
-27
26
-4
1
-40
-17
-35
21
31
54
-19
15
9
43
-21
-23
-2
-30
101
-40
48
-19
15
47
-19
-30
6
-27
-3
-22
-2
-3
0
-27
22
14
32
-22
7
1
23
10
-7
9
-47
-11
-28
1
44
-12
-24
-10
-17
18
-66
-1
-1
2
0
6
7
6
-23
22
35
-7
-24
-5
5
-4
24
-32
19
7
11
-32
-11
-15
8
-12
14
-7
-31
-7
59
-14
32
26
-35
-18
45
-14
42
-29
33
-11
44
-57
-13
-1
2
-21
33
-6
-22
17
18
19
-18
2
-10
-20
-35
21
-26
14
6
43
5
-38
25
-2
-37
4
30
38
2
65
74
48
-11
26
10
41
25
-18
33
-23
36
13
4
11
-60
-9
1
-50
27
-38
-51
14
-16
53
-38
45
-38
-12
-16
10
23
-12
-19
30
18
-24
19
9
-22
-2
3
-15
57
10
16
-13
-39
34
14
55
18
-44
-7
1
25
-15
14
-38
1
-33
-16
-41
-21
-13
22
10
13
-11
28
12
-46
-27
-10
0
51
-15
65
-33
8
-45
33
-22
-18
-16
22
-7
-30
58
-57
20
-8
49
-7
-14
-25
-20
-7
-60
17
-112
40
7
-55
-40
23
41
-21
36
20
-20
12
50
2
5
-40
-73
24
2
51
26
2
1
-89
12
33
-36
-44
-48
103
-61
76
11
8
42
26
-5
-21
34
-10
-34
100
80
77
-52
5
12
34
-1
-29
7
-78
-46
-37
30
22
22
-4
87
-91
36
0
71
34
-104
-31
111
29
29
-7
18
31
22
-67
13
24
-8
6
27
-111
57
-35
45
-41
-29
-38
66
-52
4
-30
61
-24
-32
-39
41
-45
76
50
6
15
-20
-1
-5
11
5
14
1
-52
9
39
-20
-16
-23
-84
-64
-18
22
49
-4
-36
29
0
-39
-24
-83
-5
11
78
88
14
-51
29
-18
-52
50
4
-30
-73
98
-21
8
11
28
-12
79
-6
-63
-16
-46
52
117
-35
-6
-32
-29
-2
-48
-120
-22
-43
7
-46
13
8
-1
-19
6
25
10
-51
-44
15
23
-4
-13
-8
28
-11
3
-55
18
-53
-47
29
68
-32
-8
-30
5
45
-12
34
16
-29
7
-37
19
3
-6
21
-42
-18
-27
-38
14
-25
17
27
33
-31
-50
12
34
5
14
-18
18
13
-100
30
22
55
65
-6
11
-30
22
19
-12
21
-1
-19
-15
-10
-7
68
-6
-56
-61
-72
9
18
-19
-19
22
-5
-22
1
-2
-10
15
-32
-44
31
45
-16
-45
-35
20
-22
-4
-8
-3
-38
-2
-32
-53
30
46
-9
40
33
34
-27
75
10
-3
-74
20
11
-8
-28
-22
55
-25
28
-5
-30
-65
-31
52
70
-4
-41
0
7
10
1
-22
75
30
33
15
-9
43
48
60
-29
1
-105
-46
22
30
9
-6
12
-28
-41
-56
4
4
5
-34
36
27
-19
-37
10
-24
-1
-4
-28
-21
-1
-29
-1
-14
-19
41
-69
-46
-49
-25
50
-20
-5
1
11
25
-35
19
5
34
-40
38
-9
16
12
2
21
4
1
22
102
12
19
-15
57
51
7
-2
22
5
-36
56
-40
5
-3
-46
-69
32
13
38
19
-3
51
-30
58
22
26
10
-10
12
19
-22
-4
-40
-17
-40
-37
-59
8
-25
22
-3
1
36
9
-9
9
11
20
-38
69
29
20
-4
61
-59
56
-38
-28
43
16
-4
-3
29
33
-63
17
2
-4
-36
30
-29
-13
14
25
0
51
9
78
-3
11
16
-9
7
33
-34
15
-11
-38
39
-71
34
46
-54
-37
-46
-3
-18
54
-4
-31
-21
27
-33
18
-10
-13
34
-13
-42
18
95
10
-9
-36
33
11
24
0
1
-26
0
-24
-38
-60
-8
-27
36
-28
-35
17
-15
-16
24
-3
76
-67
17
39
-23
-2
68
31
-33
-7
10
-44
6
-1
-2
-14
-47
-35
-44
-27
21
-34
-6
17
-5
26
-73
10
2
16
20
9
13
17
12
61
-49
-44
-18
-10
13
-13
-2
13
-4
20
21
-1
5
-57
-21
-50
-14
35
-62
-8
29
41
-10
40
41
-65
23
31
-25
0
-31
-77
10
-5
-29
45
25
27
40
-7
16
12
-5
-1
15
-25
-9
-7
-40
-3
15
24
-13
-26
-17
-10
15
75
17
28
25
-31
-1
0
38
21
-4
24
-23
-1
-29
-2
13
-55
6
52
9
-22
9
35
53
1
4
40
15
-43
59
-13
-24
-78
-24
-26
22
-33
25
-62
1
-45
-36
14
-35
-13
29
-29
6
-2
52
13
34
-6
-11
18
2
28
-79
53
-22
-1
37
80
-58
-2
-20
-31
38
27
78
5
6
27
6
16
-54
62
14
-3
-32
34
32
10
11
28
20
4
-3
-3
-3
14
17
-13
-28
-38
-19
28
22
-29
6
-49
39
-16
-54
-10
9
21
36
-66
-19
-51
-19
34
-1
-78
26
24
11
15
-76
7
1
6
40
101
-34
9
41
33
-47
54
-18
43
-70
-60
47
-91
15
-17
-31
47
-33
-27
-20
2
8
6
19
-62
52
60
7
14
-33
-7
-63
34
45
108
8
-20
-25
7
-28
7
-46
-30
91
-27
39
-4
-33
35
-24
-34
-4
4
-53
48
-18
55
1
46
12
-9
29
-41
36
-4
-5
-4
35
-94
-37
-50
47
29
-52
20
7
25
-22
4
-8
35
-31
-14
-2
-47
45
65
-5
-54
12
78
-18
-16
-22
-36
-3
-48
-22
-43
-12
-60
36
-11
-24
25
8
-11
60
15
-13
-27
-68
-47
-17
18
-7
-1
33
2
20
73
36
43
-22
-45
-61
45
40
-5
31
-2
-1
-26
-1
-8
18
-11
-28
-31
42
5
-57
-6
-39
38
0
-2
-48
0
-67
7
57
37
33
-37
13
12
26
-18
-26
-8
-58
7
24
-9
7
49
-8
-38
-47
-1
-31
-2
24
-2
53
37
11
-18
12
57
38
3
3
-18
18
-38
15
-50
-17
4
-3
29
14
23
2
10
5
22
14
-29
-21
28
18
21
-3
-42
26
0
10
-44
30
91
-39
-54
-5
-4
-13
-25
28
-21
-3
4
-2
-48
31
36
-6
12
-60
18
-12
19
33
-22
-7
-5
11
42
-31
-9
-6
-41
-8
25
-50
25
57
-26
2
16
11
15
-45
10
-45
-43
-15
1
-17
43
-26
22
60
-7
-4
25
24
51
29
-71
48
61
13
31
26
60
-37
22
11
-17
-10
5
21
-4
-28
49
59
2
32
56
28
10
11
34
-20
-71
9
57
-46
13
46
43
-23
2
30
62
-39
38
-35
36
-13
-19
3
42
47
81
-10
-27
-10
10
16
-30
16
32
74
-10
25
-32
21
55
-32
44
-28
-2
7
-70
14
13
-8
55
-39
-6
-17
9
-29
-10
-21
33
-22
-33
62
5
-53
22
24
-15
31
6
-22
18
-21
-18
0
-40
44
-27
18
17
-26
16
-31
-20
27
19
53
-5
-50
15
40
-34
-5
-14
53
-62
22
58
35
-1
-88
-44
-30
-1
37
53
28
43
-10
54
14
22
-21
34
68
-113
0
-30
6
11
-24
19
3
-4
83
67
13
12
18
42
-85
4
-54
1
-1
-10
13
21
17
5
-15
31
57
38
29
3
13
29
37
22
14
91
-16
36
4
-1
21
-52
21
98
8
-57
30
5
-32
33
-55
27
-79
25
-9
-21
10
1
-70
-55
40
-34
42
12
-11
38
-9
77
-2
16
62
2
-66
-20
-26
6
6
-21
64
-46
16
-37
-3
115
31
-26
25
-6
-18
12
-4
-64
16
17
-8
5
38
54
-57
-76
-16
16
-26
53
6
-9
9
-34
18
5
24
38
13
4
-27
-5
14
32
24
-45
-43
9
7
-6
17
15
12
-21
8
-68
5
-67
-3
-53
-25
9
-48
7
-15
-42
-71
37
69
-16
10
21
7
-16
-24
11
-4
-42
14
45
17
40
5
-26
-46
1
-28
-21
-36
-57
57
-67
-12
-29
-21
-20
62
79
-21
46
74
-41
35
25
-127
-4
-39
-3
-70
-27
-7
41
3
4
1
45
28
0
40
-1
-15
63
11
41
56
16
-53
-16
22
37
-37
57
-6
9
16
13
56
32
-20
-23
45
29
35
9
38
35
27
32
3
15
19
7
-3
7
-19
-67
84
2
38
-61
-51
27
6
-17
-4
-30
32
-8
51
10
-15
49
1
-16
25
19
-22
-25
63
36
6
-87
-11
-22
49
8
-29
0
2
51
40
73
-6
-63
2
45
45
18
34
-17
-58
-37
-18
11
-27
-29
-30
101
-36
-32
71
-40
-7
-12
-19
12
5
62
-18
46
-24
-2
-12
-70
14
33
-54
-37
-15
75
-8
-36
67
69
-12
-16
56
37
-6
24
-19
-31
-15
34
39
-34
-27
30
-11
15
22
-52
-40
-16
-23
28
13
-39
-10
6
-123
-48
-4
-6
-42
-5
-8
59
71
14
-8
29
63
-7
15
10
-70
-64
-86
21
22
-15
-23
24
-73
18
10
0
0
-34
44
-1
-10
38
-24
13
44
-12
-24
31
24
60
-28
31
-11
-37
9
43
38
1
-12
-33
-29
-27
-31
47
84
-9
35
21
23
64
-36
-15
-28
-67
-64
58
-1
-2
-2
27
22
-57
-12
13
-38
60
17
-21
-22
49
-26
9
-35
-72
-57
35
121
23
-10
23
37
-90
40
-15
-34
38
95
-38
19
50
39
-9
76
-43
71
2
-37
0
-37
66
-3
19
-42
37
-32
-25
-3
-32
27
-29
-34
92
-79
-49
-50
-45
-19
45
11
-79
17
-42
29
27
2
-16
27
-18
37
-11
-17
1
-27
-47
-26
-10
-28
-17
15
18
-1
19
-5
-26
10
68
7
-8
-52
-25
-33
-37
7
-25
34
13
44
-35
16
5
-22
74
-9
-9
38
-1
4
35
-89
30
-34
81
-27
77
-22
-52
-35
-62
-8
-29
-15
-4
40
14
-5
-54
9
18
-20
18
25
43
27
1
-50
-54
9
90
-36
22
-19
23
28
65
-87
26
-35
48
-11
-39
5
45
-38
3
35
-56
-29
42
-12
8
48
-21
20
9
95
5
-10
-44
60
44
3
1
-17
-40
48
11
25
-6
43
-43
51
1
-12
7
-54
-15
12
25
53
48
37
53
-12
5
17
4
-28
-22
47
28
-1
-30
11
-17
7
-69
26
4
24
-31
-43
-21
54
-4
-14
18
-8
46
-13
16
-22
12
-1
4
-11
31
-29
22
-16
-35
-22
-4
-26
-6
18
-13
40
22
-23
3
25
-16
-48
-17
4
44
-25
-20
-9
-54
11
-21
-2
-16
6
-6
-22
-15
11
19
-42
20
-6
-17
-45
-32
-70
-33
-76
-6
23
-5
-5
14
-2
-14
-1
-18
-61
13
18
50
44
31
-50
6
-39
24
12
49
-29
-44
15
49
-35
18
33
8
26
-18
-1
28
-23
-12
1
15
-13
28
-75
-27
-18
-25
21
-16
-21
-5
1
-16
14
8
-34
-50
6
-19
-45
25
-37
30
-2
-3
-18
35
-42
-12
9
-1
31
-20
18
-11
21
-16
-44
-61
2
-2
18
60
-10
47
7
28
13
0
-15
-30
48
-47
4
-54
31
-9
-21
29
-22
-17
9
17
-15
24
9
-11
-1
-41
-1
-29
73
-6
13
-37
-5
-18
-3
1
-47
-4
38
45
-28
35
120
-47
-32
-23
15
17
-28
11
-11
-49
-6
3
-28
56
40
-48
-15
35
-17
-19
-8
4
52
14
-76
-7
29
44
8
22
-9
-5
41
52
17
-83
-69
13
22
31
1
16
22
-36
29
21
-101
-25
-23
-60
22
-49
31
30
-23
55
-11
-18
-68
31
2
-46
-38
-4
24
-74
-18
4
-30
16
4
13
21
14
21
-45
-10
-19
-10
-35
-26
-31
12
-46
-41
67
-2
-2
31
52
-40
-6
47
-34
-8
45
-86
-5
32
-49
-35
13
-40
26
26
-28
1
-22
-7
24
-25
-31
-21
45
-3
15
56
68
-47
-40
-65
114
27
13
8
-14
41
0
23
-27
38
97
43
24
31
23
-20
-11
-69
-7
48
56
-13
-6
-31
35
25
-80
-18
15
15
-26
-52
-4
19
1
-32
1
0
70
-10
-5
-45
-97
-4
0
-35
-16
37
-38
50
-27
-25
-34
-5
38
-54
-24
5
-61
37
41
27
-4
27
-8
9
-3
-45
-22
-36
41
-7
-6
15
25
36
6
4
-88
-21
69
62
-42
-51
-57
24
47
8
-9
-62
25
43
10
-65
-59
53
-12
44
-31
-24
63
-26
-27
2
6
73
-95
-21
-27
-24
1
-16
9
13
-17
-15
40
-31
22
69
-6
-53
23
-3
-19
-9
31
49
-54
-9
16
25
55
10
40
29
51
20
57
-70
-29
65
28
-23
-22
-36
-48
27
-17
28
-2
34
-4
19
76
65
-58
13
23
19
18
-14
58
-3
52
-2
-23
-19
22
12
-1
5
-79
13
-27
-17
58
21
72
64
-16
33
26
6
-32
29
-28
110
-25
-8
17
6
-53
-71
36
-9
-58
46
-30
-24
-30
32
-12
20
-3
70
-12
86
27
-78
29
13
6
13
-30
-17
-54
46
46
-13
99
29
-62
-28
23
-28
38
-11
-18
-10
-63
1
6
76
9
11
54
-25
-17
-8
-45
-45
50
12
31
49
45
-8
-85
6
1
-23
-13
-24
20
-106
-1
36
2
53
32
-26
-10
26
-34
-20
4
-57
31
22
-103
54
5
-58
11
35
29
69
-53
-1
6
28
-7
26
-29
-66
0
-4
37
-55
13
50
38
6
109
32
-23
-36
-5
-9
27
-4
-2
13
72
24
71
54
-68
13
-12
-35
-3
29
-50
-39
-84
0
-32
-25
58
-21
-4
10
-27
11
2
30
5
12
18
-63
-60
-3
71
5
39
2
-3
40
25
-64
22
-101
45
-84
-5
10
80
18
34
-32
16
11
-9
3
-30
-10
6
-11
-1
-47
-42
26
29
27
-2
15
17
6
18
21
-30
-25
-54
11
-8
57
41
-68
-24
-16
-4
-27
17
3
-8
-36
39
21
-3
-36
0
-50
49
-18
-39
-20
4
48
-28
15
69
-10
-7
-53
1
-48
28
27
-14
-33
77
-24
70
25
10
58
0
18
42
31
63
-32
68
-3
26
-6
19
8
6
-51
70
4
-27
-4
4
33
-46
-26
-38
-20
-21
-60
-14
46
24
34
52
0
-6
-42
-60
-25
-43
-71
75
29
-71
24
27
12
32
-52
12
-17
-3
-57
-3
-40
-21
34
-26
-12
-25
-13
-7
-56
56
22
-39
-52
-45
33
61
-6
9
-16
55
-8
30
30
30
21
51
-16
-60
-11
-12
29
-79
9
25
-18
5
-25
25
9
1
13
4
71
46
-26
-12
22
-27
10
-11
-18
-74
-20
59
-18
17
29
-5
-18
-17
-49
-14
-13
2
-45
-12
-59
38
19
-59
23
-4
0
-7
-7
-74
-12
46
-18
-50
-20
2
-18
57
-7
-9
28
4
32
-16
14
23
-5
64
-9
4
-1
-22
-3
-12
37
-8
-31
-2
19
-66
41
88
16
-35
27
-17
11
-3
1
-7
-3
31
39
-43
32
25
16
54
-25
-54
0
-3
-9
71
12
17
27
-6
-6
37
-4
48
-32
53
-20
16
21
-87
2
49
28
-71
-7
36
-33
85
13
4
-38
-16
-10
-1
-37
-22
-35
-25
4
-62
-14
-10
23
-14
-85
35
12
-33
24
-25
40
-10
-16
3
30
-97
-4
-32
-24
41
-28
10
-33
-3
19
28
46
-18
19
13
-29
21
17
-53
22
-8
25
23
1
-40
-62
-6
6
54
18
4
-28
12
16
31
-26
-15
-3
28
-17
-28
-27
14
-1
-51
34
39
73
33
44
-50
8
14
-13
-21
-17
-35
-51
-17
21
-48
-8
38
67
5
-3
-54
-116
52
-38
-81
-29
-28
-1
16
36
-32
-17
-14
13
3
45
18
-27
-4
-55
28
8
-71
70
-29
3
21
8
-3
-16
-15
-19
18
17
10
-10
18
-65
88
35
-35
36
18
17
-28
-3
12
-1
44
-11
-29
-42
35
-29
1
41
17
-29
-22
-29
-13
-91
50
87
-24
10
35
59
44
51
-45
-127
-62
13
26
-19
-16
21
27
-19
8
-36
-48
-23
60
34
43
-14
-38
33
-16
14
-22
15
31
62
59
-40
-14
30
-30
-3
20
-25
-3
-22
-13
-12
12
-47
-11
16
37
52
-6
32
-45
14
-19
-10
-1
22
-73
4
16
12
-81
-12
-8
43
-10
3
34
-15
-30
2
-10
-23
-34
41
-30
13
1
43
39
-45
-6
-2
-19
-23
18
83
25
8
-39
22
-23
17
-28
64
-64
25
42
-28
8
15
-3
28
-12
-56
34
24
-8
13
-49
-21
30
17
-39
4
46
10
-15
-82
9
-17
-24
-6
-10
-38
16
9
16
-106
-7
44
-22
-18
-33
-17
-21
-17
-23
-20
-15
-25
19
30
23
-24
-10
-16
5
22
-18
-35
49
45
6
5
-11
33
34
8
1
-13
1
-32
13
17
-3
-56
-53
-55
3
-7
20
-1
55
-17
-4
-10
-1
-6
-48
-55
41
24
-24
38
-6
10
12
12
-28
-1
-21
0
-6
-2
-30
-1
-19
-32
-19
25
9
22
-82
79
18
-14
26
-40
1
11
-12
53
-31
29
5
55
63
11
71
-34
47
64
36
24
-38
-55
27
48
3
-4
10
-17
-9
-11
-39
-11
29
6
26
-7
8
-8
-1
-8
-10
-14
6
-5
6
20
-59
-34
1
7
-23
-4
15
18
-32
28
-50
21
42
-29
5
-19
29
3
45
3
-23
27
-88
33
-19
0
4
27
-10
45
16
7
33
33
-23
-2
-7
7
10
6
-10
39
-7
-8
14
43
-30
2
-62
-52
-18
-28
22
17
-12
15
30
-16
-37
34
-74
14
-5
13
-7
-6
-41
18
31
-18
20
-5
-37
-30
23
40
11
6
-44
6
5
67
22
33
-28
-21
5
-2
41
-29
-50
-40
-27
-42
6
6
-31
-26
-23
15
11
-3
9
36
32
4
-33
-55
22
12
-7
-31
-2
69
5
45
22
-16
95
-48
-36
13
6
27
-73
-12
14
-4
15
-55
43
4
34
19
9
-21
-11
25
41
-20
-28
22
11
-41
33
-25
43
-22
-14
-77
-42
-4
20
4
-8
-14
3
25
49
29
-37
-20
45
54
-6
-45
-17
30
25
-10
42
-13
2
11
-6
5
-4
67
-18
-48
2
-9
-17
-45
7
83
64
32
-6
-45
14
123
26
37
48
-1
25
-8
9
11
74
-16
16
-20
14
-7
0
18
3
-69
-16
-4
-54
-77
5
29
7
-31
-49
24
54
24
-21
-73
7
-19
-11
28
11
-41
29
22
-33
-40
-29
-34
2
-56
3
-6
2
20
-37
82
-12
15
-3
-60
42
13
96
4
-38
-17
4
-10
35
4
-33
-18
14
-32
-47
106
7
8
-19
-2
-5
13
-1
-21
27
2
1
-4
-36
-16
-18
-3
-19
31
-29
-5
10
-20
32
-44
-2
2
-15
-8
-26
23
11
19
-65
-30
63
-21
18
-17
16
22
12
32
5
30
-29
-3
-1
-15
-10
-6
16
3
18
-60
17
38
23
97
17
6
14
-36
57
73
-43
-53
-59
34
-44
25
68
-38
-13
-55
43
11
22
36
5
10
-43
-3
-31
13
24
-44
30
14
-94
-3
-41
-28
22
3
63
-18
-11
7
60
-58
-24
34
-16
-21
42
-45
-15
-29
-47
28
6
-13
-7
-3
46
-10
56
45
-28
63
50
41
-17
-28
78
16
1
1
-10
22
-59
18
-3
-5
-40
-35
-10
-8
47
-15
55
-24
27
-41
13
8
8
95
-53
6
-1
-38
-19
-27
11
30
23
-4
-49
26
60
30
34
17
112
30
23
-28
-21
115
1
52
38
-43
-50
-63
7
-3
-19
30
-41
1
49
-38
-8
43
2
-43
21
-6
-15
47
-87
23
-17
43
-15
4
-10
23
-24
11
41
11
7
-40
-37
34
6
-5
-36
16
14
-17
29
16
-13
-15
33
-2
-59
-13
0
-3
-30
29
2
-27
68
-17
33
2
-23
-10
-4
19
46
-11
44
12
-40
35
6
-18
27
15
9
17
-34
15
22
21
-19
-2
42
-11
-17
13
-63
-49
-6
29
-37
-1
40
70
-33
29
53
84
38
-24
75
59
-40
4
-15
-18
21
7
-66
28
-70
0
20
-6
37
12
-71
2
2
-38
6
8
-48
-31
14
-9
-13
43
27
-9
2
5
-21
-22
62
26
7
26
-26
15
-21
-24
-49
65
13
-48
-91
-16
-16
16
-47
13
49
1
3
83
-2
25
80
2
-42
10
-5
30
13
7
24
-43
-35
30
-34
-15
-7
48
64
-22
24
3
7
2
-70
-44
-5
-32
11
28
-5
12
59
-49
-37
-26
-33
-35
19
-35
0
-44
41
10
-63
-4
33
52
50
-4
-45
-4
0
18
-2
-15
54
10
11
37
25
-24
18
-5
9
-34
-27
-37
-17
7
-27
34
9
-25
25
15
34
59
49
-3
-27
-38
-96
-67
-23
-20
4
-41
16
-19
-13
14
-2
27
-71
-41
-41
-38
18
77
17
-26
-13
-42
52
-7
-3
8
-42
-33
-27
12
23
-10
-73
-32
45
-34
-12
-18
19
-30
-9
0
2
-2
52
-17
14
22
-5
-34
-5
-1
-1
-45
18
-18
64
101
5
-20
-26
19
10
-26
20
-12
-29
35
3
32
22
12
5
28
-39
-9
-20
20
-25
18
31
26
42
-64
52
29
8
-2
17
-36
14
-10
7
-44
-40
-63
0
-39
30
8
31
-41
33
-49
18
-14
-96
30
10
2
-14
-25
24
-55
-61
-38
1
-38
-1
0
-10
-4
-47
-41
-19
50
65
-54
70
27
-15
-1
43
5
-45
61
54
35
26
-38
-25
34
8
-28
43
-9
25
-49
-25
52
-4
32
25
-33
84
17
-18
-68
-15
55
45
-34
39
-2
23
-15
5
-42
-26
27
3
25
9
5
-29
-64
-64
25
43
-53
-36
-20
-5
35
-49
3
-16
39
20
39
-59
88
-28
12
-31
-13
1
16
32
-50
86
77
-24
-65
4
-12
19
6
39
-66
8
25
0
-71
-7
122
35
-17
74
-84
13
-25
15
36
-8
-23
-30
-17
-7
48
53
44
53
-37
-7
2
27
-35
64
14
34
14
-29
64
65
-114
-22
15
20
-3
25
-109
-3
56
63
-14
-9
-18
-52
84
-1
53
31
-29
-2
8
-23
-2
-64
-75
5
65
-22
51
38
42
-7
26
15
-52
63
15
-16
58
60
-21
26
-33
51
20
15
8
-36
-10
21
6
-22
-60
-31
0
-9
26
16
18
-20
6
-19
26
-54
14
10
34
10
15
-14
-6
-39
34
14
-22
-28
37
0
35
10
-51
4
1
-5
-25
12
20
34
-42
-13
-13
-22
41
-65
9
-40
50
-38
30
31
-13
-11
-75
-22
-60
37
-67
24
12
-64
-20
-20
1
-31
12
-33
-43
-35
14
-45
22
-5
-71
104
26
-10
1
7
-35
52
-72
-15
81
-6
29
14
6
22
-29
55
-47
37
-9
-5
-57
41
8
62
-17
78
9
19
0
-10
33
-15
7
-21
4
-50
-46
-51
-8
-25
58
-90
-37
46
-59
-40
-14
30
-91
58
-1
-7
-21
-11
22
63
-6
6
71
43
-23
-77
57
33
-27
-5
-98
8
72
-31
-41
7
28
-5
-3
-7
-25
13
20
-7
1
18
-43
-32
-6
53
-41
54
26
11
-127
-20
48
73
-12
6
-28
-57
-3
54
30
-19
38
24
-17
-24
-45
-55
-68
-87
-7
-43
16
88
1
0
20
4
-18
14
-1
25
-22
27
1
29
22
-41
77
31
43
-13
-42
-41
-13
28
-41
-19
5
72
-29
-72
-23
43
-4
-79
-6
-22
68
-64
-14
-20
-6
76
-57
14
20
-68
35
-127
-95
35
-68
-70
-87
-35
30
41
-15
76
12
44
47
22
12
3
44
-36
-36
-44
38
-38
21
-37
-42
70
18
58
-100
18
23
36
11
33
-7
-15
25
-23
54
61
-31
-55
-14
64
-41
19
27
-24
-42
10
7
11
-47
81
15
54
-40
-21
65
-5
-31
40
15
9
66
-45
24
43
48
-11
55
-8
-66
72
-18
0
65
41
-37
-37
69
-4
14
-86
22
-28
60
-18
-44
17
-58
90
-12
-12
18
-4
-4
38
36
-43
60
26
-24
-24
21
89
-30
28
-19
18
-35
7
73
-112
18
-81
61
-35
59
37
45
5
27
-26
-16
-28
-14
-19
21
-45
-16
8
-22
-46
-9
-20
14
3
-37
-45
-5
24
55
-3
20
36
-64
-16
-3
7
4
-1
56
1
-60
-27
40
-40
-36
27
-49
26
-11
13
-5
18
56
-15
10
19
-3
52
-6
12
25
36
17
19
-1
19
62
14
4
49
34
-13
-78
21
-11
-37
-17
13
-11
49
38
-1
8
51
-25
56
-7
-38
1
31
17
-69
12
6
17
38
18
19
38
-29
-52
-10
39
-44
11
-19
8
23
-15
3
21
-6
24
24
44
5
25
-2
-5
12
-2
-2
-46
9
0
9
58
4
-44
-44
11
-13
12
29
15
-51
-37
-7
52
7
0
-16
23
14
-37
-3
37
9
61
42
23
-6
49
-60
-60
-6
-37
-50
-23
-90
-24
-48
74
-12
-38
38
34
60
-38
-37
-6
24
-65
2
53
-7
-9
30
-17
-3
-21
18
-36
-2
-46
11
-18
3
-38
-27
35
-48
2
17
0
-7
30
-34
6
17
-11
45
-75
38
24
-31
-22
-27
53
12
-5
-63
49
1
19
-46
14
-82
-3
14
-76
15
19
8
24
-21
30
59
-21
-5
-21
-71
-6
8
33
32
11
-32
10
-2
21
-8
2
6
18
11
12
-10
-48
-26
-38
14
-41
42
11
27
6
35
18
34
11
-34
16
55
-53
48
-6
42
-9
3
-12
-65
54
21
15
-33
21
-61
-6
-5
-2
17
41
-2
34
-19
-68
-7
5
-8
-40
-32
-26
47
-45
67
-36
-41
22
45
26
50
-43
-73
14
-42
8
-43
-42
12
-1
-6
13
-16
0
-4
2
-28
3
-30
-24
-23
52
35
-14
19
40
29
37
-5
62
16
-18
24
10
17
14
22
-14
-2
8
7
-33
32
-32
-44
-19
25
-4
29
-42
-7
-7
-32
28
-11
-13
-56
44
-1
-25
-26
13
42
-43
-31
-73
15
2
3
35
-56
88
-36
-4
55
7
19
24
23
-19
-14
17
53
-50
51
-55
21
-60
0
26
-16
-117
68
-65
-43
-2
-47
-49
5
-13
-37
-14
41
-71
-32
20
10
-13
-93
22
-27
-8
17
5
5
52
35
4
-27
-4
49
-5
20
30
-44
-3
-52
3
-14
-22
8
24
41
-127
-52
12
47
-70
-18
46
-1
-88
-29
-9
-45
-81
65
39
49
56
-39
20
-35
-11
-31
3
-8
17
31
32
64
-62
51
-43
0
53
-31
-39
-61
38
44
-1
91
-44
-93
5
60
37
39
-44
-45
-89
-111
15
-32
16
62
3
-75
17
-16
21
-8
-20
14
47
21
-20
-15
6
-23
24
-16
64
54
50
65
-14
25
-15
-44
25
12
26
9
-5
20
0
39
21
-47
-84
-42
-47
-8
23
18
-46
-23
8
11
-49
40
27
-33
-58
-22
-52
-6
-52
62
-52
-21
64
-19
-62
-24
-6
-10
28
-21
-23
34
16
-61
-98
28
-31
-54
-46
15
-52
29
9
15
-16
14
-60
5
0
56
-19
-50
10
2
8
27
14
39
-29
54
-15
36
-7
-4
44
47
33
35
26
41
39
15
34
-10
35
-1
-23
-25
0
-32
-4
18
-60
15
-2
14
9
-20
-28
-28
-42
30
29
47
-24
53
-12
26
6
26
15
13
-10
27
37
-60
-45
-12
10
12
-25
-16
56
-21
19
-102
-15
-36
-9
59
-51
-8
7
27
-48
-22
-15
26
-4
4
20
21
22
34
-2
16
7
-29
-10
-13
0
-16
-12
14
26
34
-35
-18
-27
-24
-37
-39
-12
6
5
31
20
-8
-16
14
-11
-7
53
-5
28
11
38
29
-28
-6
-5
5
22
29
43
3
-18
-29
-13
-26
19
13
-10
-64
29
27
-54
-1
17
-25
-19
2
68
-68
-19
3
-32
-8
-22
-23
-5
9
32
-6
9
2
-55
-48
-22
-25
-23
-13
-10
38
37
-11
-28
35
-32
-44
58
-5
21
-11
-13
-26
6
-47
-20
13
-2
27
-11
43
-35
-48
-14
-33
-36
9
51
-30
-1
-72
-1
4
-2
6
-18
-12
12
19
-61
25
-6
31
1
4
-28
-54
36
28
8
31
-19
51
45
-50
-92
-5
-22
53
0
-4
77
-40
29
-5
-1
-54
-95
54
56
11
-60
-1
5
-39
44
-41
-61
-32
-20
-34
-3
-17
-15
40
-86
-57
13
14
21
54
58
-36
-20
-81
-72
-66
-34
7
-75
-45
-47
11
35
46
-27
32
26
-14
15
-16
-94
61
10
-27
8
26
31
-9
57
57
11
-86
19
-4
9
-11
25
-3
-87
-42
-12
-29
52
-39
-75
27
-14
31
2
25
3
25
108
-58
58
96
-72
36
-74
-5
32
20
-59
-31
-8
40
-9
5
29
27
-8
-44
-25
26
-11
22
-15
-101
16
16
19
-8
-78
-21
44
82
-36
4
-45
-41
-69
-27
100
-37
72
-48
-26
28
63
45
41
-49
-12
-47
-65
-9
-37
-53
106
-31
23
-25
20
33
0
62
24
22
-5
33
-4
-17
-21
-70
-5
59
27
-50
7
32
34
-46
-4
40
32
2
17
-15
34
-68
-5
-27
59
-44
1
-6
36
-38
-12
-50
15
-31
-63
17
-12
-21
50
-31
-22
-27
10
-26
5
28
-18
-49
48
8
-28
2
26
36
37
-30
-43
-5
-127
4
-26
-29
10
1
13
16
13
9
16
-113
38
-59
-2
36
64
5
2
-20
-47
24
19
-12
20
-15
14
33
-37
40
5
-41
-23
99
43
-5
10
52
-2
14
26
2
82
30
32
58
31
2
101
-35
32
16
-15
-58
-59
-25
-18
13
-18
30
-25
-37
-37
-31
19
-23
-24
-32
47
85
-50
41
47
29
-5
22
-25
12
-30
58
-18
-49
35
2
65
14
-20
4
38
-7
-19
7
7
16
20
-15
-18
-105
6
-22
17
15
37
30
-18
71
27
-4
-8
66
68
-92
-33
26
21
53
-5
10
24
-46
-31
4
34
-22
8
-6
54
-13
4
-71
1
11
-21
-46
73
84
-15
17
22
16
-55
-51
8
16
6
-1
-14
-51
44
-11
21
-49
47
-12
-56
-4
17
12
88
-5
3
69
16
15
-16
37
24
13
-9
53
25
-23
-17
-1
-34
54
-29
-5
14
-15
-30
9
21
18
-1
-31
54
3
-19
31
-49
-25
23
57
12
13
-24
28
-23
-8
19
-49
-10
35
4
-6
36
-5
13
-66
-14
14
17
22
12
-6
50
-8
-21
31
0
-5
-3
34
2
15
-18
17
-22
-36
24
18
9
59
35
11
40
23
-18
-40
12
19
-7
16
-30
1
-14
-36
-31
43
-53
16
55
-67
-10
-12
28
2
48
-31
9
-2
-19
-22
5
0
-41
-10
10
-22
0
1
29
-58
15
13
72
23
18
-39
-48
-33
20
-27
4
29
-12
6
-1
-10
3
-11
-11
-36
31
-2
18
-28
34
-28
-17
-35
-40
-11
38
33
33
-18
12
-8
-14
18
-14
10
16
-16
20
44
-16
17
-4
-26
4
13
5
-2
-38
-9
4
37
-33
8
-1
1
-23
-2
8
-72
-38
21
-32
11
-21
18
-3
-19
-11
3
-26
6
58
43
-46
34
5
20
54
1
19
34
-5
46
-20
-92
42
0
-29
8
30
-65
-10
-4
-43
-14
27
2
-37
-16
32
-54
70
-19
15
-60
65
33
-79
2
-25
44
75
31
-25
-39
-23
30
19
17
-7
-78
-28
29
-23
15
21
33
-13
66
-6
44
6
80
21
-25
45
20
18
38
14
-35
8
-61
-20
-1
-11
40
-19
-7
-20
8
-23
9
43
23
-59
-54
3
33
13
20
28
-91
-3
-52
0
40
4
-30
-30
-23
8
4
6
73
-8
-12
3
11
26
36
8
16
-6
-41
-28
-47
48
64
0
12
-25
-9
14
-12
-62
33
-13
35
9
8
-38
49
35
27
-2
-30
79
-3
-51
-6
-54
60
-14
10
-38
73
-82
25
11
15
15
-11
-1
6
-50
-3
33
17
-7
-9
-9
23
-20
-13
58
-26
43
56
-27
25
54
-64
-27
14
-31
-5
22
28
38
-18
28
106
-7
18
13
1
3
-13
7
2
-32
63
-15
17
76
2
-36
-10
38
7
20
5
-13
31
-35
-65
-10
21
-39
27
2
13
22
-34
0
-46
-12
-7
-4
-7
-9
21
28
-2
60
36
24
2
6
11
33
-9
35
10
-101
22
-29
-26
20
-18
22
-58
-18
34
20
15
21
-24
18
-64
-34
32
-37
47
-6
2
-76
40
-65
-7
60
-23
8
59
52
4
25
-32
24
24
-22
-61
4
-8
15
-30
-11
38
64
-22
21
10
10
-10
5
11
-36
-47
11
41
-48
-38
9
-24
65
8
51
-22
29
4
-8
-32
-20
48
46
-27
8
35
33
7
-36
-57
8
26
17
-24
26
16
5
13
5
11
-12
26
-11
-82
28
-17
43
-44
-6
39
9
8
-54
48
-12
39
-10
-4
-83
-27
-64
-24
-19
33
43
-23
77
43
-31
7
-16
-47
-17
59
31
-6
-20
-64
66
9
-38
46
-31
-2
70
72
-65
-38
24
-33
12
-34
18
12
-6
-20
40
20
54
-46
-97
58
-6
-23
-15
13
-6
27
35
-11
-1
-62
-12
32
8
40
6
12
5
-40
-40
-39
-98
-7
-3
-70
-61
-3
12
-23
11
16
-13
-16
-57
-6
-12
16
-33
-7
-3
57
-1
32
-13
30
2
-34
-7
28
12
30
20
29
-2
-80
56
55
32
-29
-33
28
6
-7
-21
-40
-8
22
3
-29
31
-16
26
16
-8
7
-37
42
1
-33
49
-47
-15
-74
-42
-25
31
-37
-40
-31
-27
-1
-47
-45
-2
-7
-20
60
-26
-43
-21
17
-2
16
11
50
-12
8
-34
17
-12
-9
41
26
28
37
37
9
1
-8
7
10
15
-50
-5
21
-5
-7
18
-29
14
-4
16
40
-12
-61
-44
-6
-26
19
52
30
15
-18
7
6
7
-42
44
3
19
50
-7
34
2
1
1
-8
-31
-3
92
-39
-17
14
57
-19
20
-3
-18
-12
3
-20
-6
57
24
57
-43
-21
-8
-1
24
-12
-4
5
38
63
18
12
24
14
35
44
-1
31
24
7
-39
-74
-41
-40
6
43
-10
-20
-19
-20
43
-14
30
14
-33
45
19
-26
37
-9
21
8
-55
-40
19
-38
44
-70
18
22
-11
25
-15
28
-7
8
-35
17
36
-32
-28
64
-41
57
-11
18
-15
37
-28
-34
15
-4
8
6
-25
26
-71
35
15
-13
15
44
-19
13
-60
-13
-67
-30
1
105
-55
-22
37
6
-37
-18
50
-36
-30
38
33
11
31
39
27
5
2
14
-62
-23
-14
-22
27
25
35
18
-26
6
39
-8
56
22
37
23
29
-1
21
-14
74
3
-44
22
17
19
-34
-83
65
11
62
14
1
2
-6
-9
-12
-32
19
-21
-36
-34
6
36
48
7
22
22
6
-44
19
15
-22
30
57
-52
-1
10
34
-4
8
-55
-6
43
-36
-30
-3
16
6
41
14
-16
-61
40
32
-9
23
1
-38
41
8
51
32
-46
-9
-47
-10
26
-44
-22
10
-55
24
-17
22
-51
-21
2
12
61
-1
-9
23
-39
-14
-30
-9
27
-43
2
83
-11
26
-56
-42
-8
-23
-20
-24
1
-19
-8
-31
-30
-21
19
2
48
36
-14
-6
7
28
-10
57
65
32
-24
-34
-23
31
14
-5
6
-54
35
-9
-3
-61
32
-6
52
-77
12
-42
4
-14
-12
7
-51
-18
-18
14
88
21
66
-26
30
23
-48
-59
-20
19
-20
-59
-81
-36
-11
-24
38
27
46
7
27
5
-70
18
34
-8
7
-27
19
-3
24
-41
-66
-5
22
-5
6
-29
-50
59
-5
14
8
-18
-6
3
-61
-31
7
4
-28
-77
13
2
32
-31
53
10
-84
-26
8
2
-48
4
-24
-23
17
-7
8
-23
1
103
5
14
-15
8
-49
-39
1
8
-35
-81
-3
55
17
-34
30
-62
33
9
-81
10
31
75
-18
20
-19
69
30
-28
-10
18
-11
22
4
-77
64
-28
-25
-30
-32
14
-49
49
49
19
-35
24
-86
41
75
-2
49
1
-31
31
-11
-13
58
40
12
24
-13
4
-8
7
35
-9
-20
40
28
-26
35
43
27
41
14
-29
-48
-67
-23
9
12
11
-40
70
-18
-53
-10
-1
23
66
29
-73
-55
-68
44
-50
-45
-10
14
-8
17
11
25
-23
-14
-52
-37
-52
-3
-5
-54
-45
81
36
-15
33
18
-42
-7
-20
-19
-56
-33
-44
25
-44
-31
33
9
-28
-23
-40
54
-7
22
-1
-38
17
58
34
-48
-36
5
-50
-43
-65
30
23
60
-10
23
-57
-54
-10
-38
-2
-11
17
-9
25
20
21
70
31
-64
-11
-8
-11
37
8
15
-29
70
52
-7
-29
42
-27
10
-12
-25
-7
-66
47
55
31
-19
-4
5
58
-21
13
1
-5
-63
32
14
-1
-20
-14
-25
64
4
4
-22
-5
-26
-1
-34
45
-36
52
69
18
25
34
87
15
-23
2
16
23
27
21
5
-30
23
33
5
-41
-26
2
7
-18
-10
-27
-29
-15
-57
-41
18
64
-7
-70
-45
3
-15
-28
-26
-10
-10
-26
-17
-59
-15
-3
-21
-21
26
-33
7
21
-5
-12
35
38
-19
12
24
-26
-24
-10
-28
-3
67
13
36
41
32
-49
-7
12
-14
34
-28
20
20
23
33
-78
-24
-38
-89
-8
20
35
18
42
28
-7
-1
-18
-45
-31
8
12
54
3
35
49
-70
13
-20
-53
33
10
-43
-9
37
16
-18
-24
3
-1
-33
20
-13
-33
-52
22
-64
2
37
28
-9
-21
14
32
-4
28
-6
28
-45
10
-2
26
29
-16
-67
24
-11
-13
3
15
24
-18
-7
-25
22
32
-14
-76
-58
-10
-9
-47
35
27
51
-7
13
1
-21
20
-15
-5
-38
-45
12
52
30
4
-9
-54
53
18
-35
38
-57
22
12
0
11
-11
-28
-21
60
-39
52
5
-16
-18
43
-11
-52
67
0
1
-39
-37
-60
-12
76
49
46
-58
16
-32
21
-1
-3
-16
10
19
27
-28
47
18
46
16
-39
-6
70
-26
-19
29
45
13
-12
46
25
-45
29
41
29
-27
-54
-38
-61
19
-33
21
16
0
-2
51
37
53
42
-16
-17
2
0
25
4
-19
-37
-34
49
22
22
-4
-28
-21
24
-33
-5
11
4
32
37
23
-29
-2
0
-65
16
11
-51
-31
2
-55
-26
56
21
-36
-4
-30
-5
46
-13
6
11
-26
33
-37
7
70
39
2
-32
24
35
-4
-4
16
-14
-9
66
10
-36
-53
-2
-4
-27
13
24
10
-14
62
-21
11
63
-7
-7
13
-25
7
7
6
44
-11
-12
0
38
55
-49
59
-6
-23
-42
56
-90
-10
41
-19
-5
46
-20
23
-1
2
6
57
43
22
-40
21
-4
-19
-59
14
5
8
14
69
33
-12
14
-10
13
-49
-15
-9
-29
14
7
31
14
64
9
33
-44
4
-34
8
49
16
-14
12
1
32
-1
-42
-66
0
58
21
36
-21
-3
-2
-24
24
32
14
9
49
-41
-23
-11
29
34
17
-38
18
-7
15
-26
5
-4
-60
-27
5
46
74
-43
-10
3
19
-42
-20
-77
-33
13
13
-24
27
-4
-4
-16
-3
-46
-3
29
-58
14
0
-50
15
-24
-48
46
-11
33
-42
6
-75
104
-64
18
12
-24
36
-87
10
16
16
5
29
-80
15
51
-23
28
11
11
4
-5
21
-25
-50
36
-7
-11
2
23
26
-1
-38
-52
31
27
-21
-14
31
-46
13
22
-11
-5
-9
31
37
-4
-48
34
-60
-18
48
22
39
8
-15
-7
7
39
-14
-89
-44
32
17
10
-24
-22
-49
-4
75
-29
-38
-46
4
-5
-32
21
-50
-37
-38
-2
28
-36
10
33
35
59
0
21
-7
28
16
-13
22
-73
22
-26
10
-13
-50
-17
-26
-35
0
-77
-73
-42
15
-29
8
-48
67
-21
-81
-17
53
-45
65
-30
-13
-21
46
11
75
-61
7
-20
40
-40
2
67
-9
9
4
96
3
-48
-34
-30
26
-54
14
23
-15
-6
4
2
24
8
44
-2
6
-27
-75
20
44
12
22
23
1
-2
39
-15
-1
-21
48
-10
6
-8
4
-7
-7
39
39
0
9
41
58
22
-11
32
7
-83
-31
-45
21
2
-24
-10
35
-49
-49
-53
-19
13
47
1
31
-22
-67
25
9
-36
1
-54
6
113
21
-8
63
22
-2
69
-2
-31
1
17
-11
1
-51
41
-40
0
5
-35
-45
-25
23
-29
13
-34
-21
25
-4
-25
42
-23
21
-1
18
-63
-75
-53
14
-3
-33
-41
17
47
14
-34
4
-15
-5
56
15
-14
-15
33
21
-22
9
66
8
8
15
20
25
-25
26
-64
-49
-7
-38
-47
4
6
8
34
21
-31
26
-1
14
20
-32
59
-30
-6
-10
-10
17
40
12
-24
-22
47
-23
-7
-11
-1
21
-46
2
8
-4
-17
-87
-2
-37
-76
-16
17
73
23
-42
-93
14
-17
45
42
14
-39
32
-28
-26
-36
13
71
17
61
17
81
44
17
-6
-12
14
-72
-6
-94
22
-46
43
46
28
16
-27
24
-19
-35
-1
-34
-26
18
43
-3
-16
-35
-26
23
25
13
11
83
8
-3
2
-27
-1
-14
5
8
34
-10
-16
38
0
-4
-44
-16
62
8
109
23
57
-51
19
21
20
-34
31
43
34
64
42
-40
-5
-66
43
16
-4
1
-53
44
1
29
8
24
-14
-21
8
13
13
16
14
-81
55
14
-8
-37
-25
10
-30
-47
7
22
9
44
-16
-26
23
46
45
-16
36
-36
13
-9
48
-5
-43
7
4
-26
-4
-24
45
10
-39
1
41
13
-29
-52
-19
28
-21
-64
8
-39
-14
21
48
28
49
-61
-18
-83
-23
-64
29
-30
-7
38
-98
74
-15
16
29
36
-19
-21
-46
-4
48
44
-19
-19
-58
-4
25
11
57
-22
32
-6
-12
-49
-17
4
15
-6
17
17
-33
22
44
-32
-59
-17
-3
-3
-19
17
47
34
-15
-1
58
-17
-79
44
-19
-62
-17
72
-27
-87
-31
28
49
-51
-28
-8
-10
-59
-17
39
21
-14
-4
27
10
37
8
5
-3
-4
-22
-40
-5
-4
-7
23
27
22
39
-17
51
-69
-32
59
-28
-17
-10
46
-6
-52
-24
-22
1
-17
-17
-5
5
67
-15
-21
44
0
-6
-11
0
-6
7
19
40
54
-60
-74
23
46
-24
63
27
-27
50
63
-13
-68
-51
3
12
-22
16
4
67
-40
-21
50
36
1
1
-39
6
2
-74
64
24
3
24
-18
21
-68
38
30
-48
-68
48
-25
15
-25
-19
-20
0
-25
113
12
-59
22
-97
17
-13
-38
-54
59
-30
-29
8
13
2
-29
-20
52
29
32
-16
17
32
-17
-43
-48
40
24
12
22
27
57
22
-4
14
27
-70
61
-11
-10
-98
-4
-19
-21
23
51
6
20
-47
2
-27
2
1
41
-21
-30
9
42
15
57
-71
-4
18
-73
1
11
40
18
-40
24
-26
-65
-25
3
-51
-26
9
-43
-41
40
12
-10
2
-36
35
-48
-13
34
7
-15
-34
41
-31
-72
-12
-5
12
-2
-22
-11
-53
56
-3
25
30
22
0
-9
-24
-14
48
59
36
33
8
41
-22
-27
29
70
10
11
-19
-10
71
-3
7
12
46
16
50
-7
9
36
-7
20
1
47
-5
20
7
6
15
5
-13
25
-21
-25
-23
65
14
-27
32
77
-19
-27
7
9
14
-2
15
4
13
-31
-98
-10
15
42
0
30
-42
1
17
37
11
36
47
4
0
40
24
-10
26
11
-17
-34
62
-23
26
4
-5
21
24
17
-33
-14
40
-53
-52
24
26
-10
-29
1
-78
23
-51
-3
-58
0
34
-11
11
-14
-37
48
50
9
-24
19
-19
9
12
35
-5
-10
31
10
-27
-39
-16
-18
42
-40
17
15
22
31
-43
-67
26
-4
-6
33
1
14
25
-27
48
13
24
-11
-22
-12
25
27
-105
33
20
45
-40
-42
-60
-30
-47
-19
-13
-1
29
-87
-1
-12
35
-16
-51
-18
22
-5
20
15
43
9
-6
-66
-12
-12
14
15
-14
22
38
68
9
17
11
-49
41
-59
4
6
-7
-69
-29
70
-17
-14
43
54
13
-15
-25
24
16
-13
8
26
15
4
36
-13
-6
-64
8
22
-22
55
33
-42
-10
-47
61
-8
-35
63
30
39
5
-70
2
-28
37
3
-46
20
5
71
-31
28
38
-68
57
-25
8
26
-2
-46
29
37
11
-24
-14
-7
-39
-14
5
-69
74
-41
-20
-22
27
19
-8
-19
64
12
-4
-18
9
38
24
0
43
-1
38
70
82
49
-55
-17
-61
2
18
-21
-46
4
-29
-43
-31
4
15
81
4
18
49
-21
-6
-47
8
-23
3
0
34
-11
-3
8
-8
-37
-21
19
-39
-41
-50
27
50
20
65
40
22
24
36
3
85
-13
-25
-50
45
-4
-84
-30
32
-19
-39
34
28
6
54
61
-12
-39
-31
20
40
-27
29
-12
9
57
-19
15
23
-10
-2
35
17
61
-33
-50
-43
-27
33
18
35
21
18
-6
40
6
32
60
21
-21
9
4
-37
44
20
-48
29
-26
18
0
15
39
-24
-48
16
8
-37
24
18
-11
-55
24
31
5
47
47
19
25
19
-1
-8
-23
-2
-67
-37
-16
-40
10
33
2
-28
41
3
-53
-22
6
-10
-19
-39
-5
23
69
-30
6
67
25
14
-15
40
-21
11
68
22
-9
39
-21
-98
16
29
-33
39
-51
33
3
10
25
21
-6
-55
-27
-19
27
-21
34
0
-5
-43
-60
26
24
-33
-42
-2
13
-17
-12
45
13
-6
76
27
16
-33
-25
32
5
-46
44
-18
55
-10
43
-24
-26
2
-27
-74
11
21
2
25
-9
66
-18
24
-14
-11
-50
-12
3
24
67
53
-48
3
-63
38
58
-16
63
-30
-19
-11
-2
23
12
18
20
-38
-40
12
1
23
-27
65
27
-26
2
-85
-5
-10
29
18
30
20
12
0
-11
-20
-32
-26
2
-20
-86
-51
69
34
-4
39
25
46
-5
33
26
-19
4
-25
13
-5
25
-67
-38
23
-25
-44
30
-73
29
-3
-16
20
-53
61
-10
14
-8
14
-8
-20
11
-34
-9
-33
40
-3
-5
-20
-88
0
23
-24
-36
-6
3
59
65
2
9
-31
-11
-16
9
-33
-23
-27
4
20
-37
-5
52
43
12
2
-27
2
7
36
-45
19
-59
33
-17
-21
51
4
4
65
55
-100
13
8
56
-21
-92
11
-18
24
-30
15
-15
50
6
10
6
-26
61
-45
-46
24
-15
49
-15
9
30
-18
57
22
29
-49
-6
32
-4
-24
6
-18
-20
-44
27
9
-6
40
35
-17
-12
6
18
-3
-20
-9
26
-12
44
-16
33
-46
-25
5
6
57
-14
-5
-1
-1
9
-13
-33
-47
-29
-57
-29
73
3
25
-14
5
-26
18
-73
-44
1
-31
-41
48
70
54
-49
-42
-26
1
8
22
-21
-31
-14
9
-55
-14
8
10
-7
49
117
-8
-51
-15
-2
-11
-46
34
-21
-32
12
44
18
7
1
-26
13
4
-3
3
-49
20
-44
41
1
-32
-25
15
31
5
-36
-14
-41
21
-10
9
-16
-42
-6
23
67
39
2
-3
12
-38
2
-26
-8
29
84
13
6
-17
-21
-51
-9
-4
-24
-65
-49
-38
-6
5
-19
-5
-6
52
-38
-6
-18
35
77
56
-8
-44
-19
40
-83
41
18
-44
40
20
4
-13
-6
53
5
92
-30
-15
4
47
-44
-15
-50
31
-16
-19
-36
56
14
42
4
20
-12
-50
-44
47
4
5
26
4
-10
-24
36
-12
7
0
-31
75
-46
4
4
-11
2
-46
-40
69
15
-65
-25
55
-10
-5
-9
-3
27
-49
49
30
-53
5
11
-28
71
-3
70
25
-50
3
-109
51
-55
42
-9
-52
31
-34
4
40
-19
22
-88
65
-31
-58
6
-39
33
11
58
38
29
-29
-23
45
-4
-19
-56
-36
-70
-35
-12
48
-16
-9
-26
34
-28
-33
84
-39
-77
-5
50
2
-75
26
47
-28
-45
-30
-42
56
-12
-7
-34
-7
-37
11
16
-46
7
-20
-66
4
3
-7
19
-15
85
-46
-42
-24
23
50
33
-22
-14
-24
5
31
42
57
-44
15
8
73
29
32
52
8
-45
-18
28
-11
5
0
-5
-23
-31
15
-52
25
0
52
6
-1
-9
34
-20
15
-55
-35
-15
0
40
-42
2
-72
5
-4
-15
-22
-33
-15
9
-21
0
15
29
43
-28
98
67
12
-105
37
17
-28
-31
29
-31
-14
-20
54
56
-45
-26
41
16
31
-7
-36
-27
-18
-27
17
4
-18
-26
-25
-44
-48
1
0
-30
-24
-8
29
-30
-9
-83
-32
13
-2
10
37
5
-13
3
-4
3
-1
-22
29
89
25
-64
-61
-42
-5
26
55
11
17
-34
10
-43
-7
17
8
-7
112
-74
-69
40
10
67
-20
-46
-50
-19
-5
0
17
-2
83
56
16
11
-50
11
-12
-24
-12
35
27
-61
-10
32
16
9
1
-53
24
26
-69
40
45
49
26
-64
11
-23
6
-99
30
-21
-58
-15
-20
7
31
2
13
-9
-11
-8
-11
-40
2
14
-10
-57
-50
-45
27
24
24
6
5
51
31
7
-12
13
-2
10
-30
-37
-13
-5
-23
16
35
23
51
45
85
52
13
13
6
-33
25
7
-21
63
-36
-40
8
-4
10
18
-31
35
-28
114
49
29
-9
-26
27
30
12
29
13
-19
-7
-37
3
23
-4
0
30
78
-38
-20
3
-71
-55
46
4
-42
2
5
41
-37
65
-20
-29
-49
0
-2
-19
-32
32
5
-7
-26
12
9
-16
14
-52
-62
21
-47
40
33
-7
-23
8
66
52
56
-27
55
-6
5
21
-104
6
72
47
83
-36
-5
-45
28
-20
22
18
-27
-66
-25
60
3
-46
37
14
-15
-7
-78
61
-30
50
5
-29
14
16
17
7
19
4
-70
44
36
-30
27
20
-35
26
-1
-29
-5
-12
21
-3
35
-3
-31
32
-79
-52
19
-49
53
24
-29
-19
-18
15
77
57
-25
-30
-7
-14
6
29
-38
-5
13
30
-30
-20
-7
6
-5
-32
-69
47
50
-18
21
-10
4
28
33
23
44
-16
65
6
-11
-50
23
-13
-55
-4
17
28
-28
-48
-1
37
-9
33
51
72
-36
25
43
36
-9
-38
59
-48
18
-17
25
-15
24
-75
-65
13
9
-37
17
15
8
1
21
35
-5
31
-22
22
3
-3
37
0
4
62
-46
13
-15
24
-1
-7
-39
-35
27
-29
54
-14
-5
-22
22
-2
-31
-36
-2
-65
-26
-8
3
-5
41
-38
-24
14
-8
23
37
-18
-6
18
-19
32
0
13
-43
68
-4
8
-1
-22
71
2
-3
52
3
-3
11
-14
26
21
-19
-58
48
-26
-15
5
1
21
-41
-50
-24
79
1
0
2
-10
-41
51
72
-1
-30
72
35
27
18
5
0
17
20
67
18
-20
8
-43
-62
9
-10
-22
92
63
39
31
20
42
-17
78
-64
-66
-43
-64
39
-34
-65
32
11
-9
27
-21
32
1
24
29
14
-15
-1
-8
12
-19
-22
50
12
-27
-54
27
56
28
10
27
0
37
27
-13
93
-8
22
-32
-9
-11
-52
-75
26
14
-21
-18
0
-50
-43
10
31
-56
-16
24
-26
-8
-4
0
30
-43
25
50
23
-58
-23
-39
-3
24
-53
-32
-108
-18
32
14
-3
-10
45
16
41
-5
-9
-28
-61
-17
12
1
32
-29
70
-75
3
57
-107
-56
2
53
11
-6
-42
7
-2
14
-53
-48
-17
-7
17
47
-7
-14
36
-12
-45
-12
21
9
-81
-27
0
-11
2
-5
-28
19
-23
-17
50
5
-25
-37
-58
-8
65
-46
38
35
-26
9
19
74
-65
14
-18
-57
23
-55
23
26
1
-47
20
65
52
-44
0
14
2
6
0
-10
-25
-11
-44
59
-64
18
-3
-41
39
-28
56
-12
-52
-14
19
36
16
-1
7
66
-25
15
-27
-47
45
-2
53
26
36
-13
39
39
-48
22
-29
-16
20
12
16
8
-19
-51
14
-70
-17
18
20
49
-4
-5
-45
-59
21
8
51
9
-25
-15
10
-3
20
24
-7
-41
20
13
7
4
-9
-4
-61
-20
-53
22
16
-19
-23
50
46
-18
-28
21
-12
-10
14
61
6
0
30
22
12
-20
-25
55
-26
-21
-2
-9
-27
47
40
-7
3
41
-20
-10
23
-33
26
-15
22
24
-35
-11
30
-33
-1
4
70
-9
-90
-28
-3
19
69
-28
46
28
-26
18
30
-20
-7
-38
20
33
-24
-15
-51
4
-4
43
1
17
-38
-14
12
39
55
-69
14
-48
4
-56
25
43
-12
50
39
-19
5
-31
-35
9
-43
-29
4
13
-6
4
26
15
-31
-56
6
52
-3
-60
11
8
27
20
-5
-38
-11
-7
21
-22
-9
2
-15
-20
78
-18
40
9
-23
9
58
20
-15
-52
-9
40
-27
76
-6
35
-36
-1
-23
-3
5
10
-48
11
4
71
-42
-7
32
-33
25
4
25
-41
23
-23
-7
17
10
24
-22
-18
7
31
23
5
-15
-10
-47
-32
7
54
32
23
-13
-126
-25
-57
-17
-44
-6
0
2
7
70
8
-38
24
-13
38
6
-18
7
-25
2
24
-106
-27
-38
-21
-36
12
-9
43
-40
35
-44
61
21
11
3
51
-37
51
11
20
-43
-58
26
-4
10
-23
-5
-58
-12
14
-40
31
-16
62
27
8
-106
-2
4
33
32
47
36
18
38
50
70
-3
-17
28
24
39
-43
-16
-13
13
-23
21
-6
-47
-48
84
37
-2
-106
4
-61
-23
-3
25
16
17
42
42
-74
-56
-27
-33
72
-38
-40
31
-17
29
17
47
13
20
-41
41
46
13
37
35
-1
-4
-35
12
-52
22
37
71
-3
-35
-28
-46
36
11
-29
20
127
-6
41
37
-25
-2
-25
-3
37
16
-26
45
8
13
21
34
-34
41
57
36
-57
-58
18
24
-27
5
-33
-2
61
-46
46
85
9
3
-12
44
-88
-9
-112
84
-40
-15
-62
-5
52
-10
-39
38
-33
-8
4
41
65
46
38
-97
7
-35
17
-53
-13
-8
24
-33
41
-12
-9
-41
-42
-94
-82
38
38
91
-60
-20
-25
-47
-54
-16
90
12
-8
-51
-52
23
22
39
-15
-80
-26
0
90
35
-37
33
-14
8
5
127
-4
-11
32
-49
14
37
46
-9
-35
-34
-10
11
-2
8
31
-29
-15
54
43
-3
-19
-28
-72
11
37
10
79
-38
-36
-24
20
31
68
-55
-72
-54
-40
14
47
16
-8
48
12
27
39
-16
54
30
-47
-1
55
14
-56
-120
-7
34
-59
-80
5
68
-21
34
-42
43
-34
17
-49
108
15
-28
-8
-31
38
33
24
-29
74
-23
37
-35
7
33
-44
-88
-65
101
42
73
-25
-2
42
11
-58
51
-25
-24
33
13
19
33
41
94
-21
-13
-62
-10
-38
-18
-45
-25
-18
-8
48
-51
14
14
6
-12
23
22
0
-43
-89
-13
-23
45
-31
3
44
51
-86
-52
-13
-3
58
25
-49
30
52
-14
-3
6
30
20
8
-39
54
-31
-122
0
-39
-11
-9
-19
-27
10
-20
-50
-3
35
14
-4
-17
11
56
4
2
2
-67
-19
-33
-65
-3
-17
75
3
-14
56
1
66
5
-83
-38
13
3
-61
18
24
-27
24
-36
21
-43
3
7
-43
17
-27
-11
4
34
48
11
-4
59
45
49
53
-45
51
-47
22
-29
-6
23
-17
-63
30
-41
-4
-48
49
1
8
-75
-36
-59
15
-16
0
-57
5
-27
49
-44
2
-1
-19
85
-68
-14
26
34
13
-71
17
-108
24
-13
6
13
-89
-63
53
30
-19
-7
15
4
-37
16
48
-59
4
-24
-27
17
44
-10
16
29
-24
3
45
-18
26
45
10
-12
20
28
17
46
-18
-20
-46
-3
47
52
-1
-8
-15
-56
47
-29
-20
-58
31
27
50
29
14
-6
-23
-26
10
-43
11
-24
4
11
43
66
10
9
-48
-27
-21
-21
13
34
24
65
-9
20
52
21
-12
100
-17
-24
-5
-10
-21
38
7
8
-74
-2
20
71
-27
27
19
-57
-28
13
38
75
-18
-68
-38
19
-49
-3
21
36
-32
7
17
5
-11
13
-44
-40
-1
20
5
-6
57
-12
34
-111
0
-3
48
7
-21
-30
-7
-49
-12
59
-11
-23
48
30
-18
-1
23
-27
-98
45
-31
45
23
51
-18
-28
18
35
57
-62
25
2
85
-20
21
46
-5
4
24
-2
6
-12
14
-25
19
-13
8
-5
14
-26
23
-2
40
0
-41
-31
19
110
-26
-34
18
-36
-2
-47
-13
-14
-7
-19
30
23
31
-19
-50
-8
37
-28
38
18
-34
18
20
-9
-22
-65
-36
17
-17
9
-8
10
40
0
97
-19
-40
35
-27
27
-9
-17
23
-45
-126
15
31
23
13
20
16
1
2
-8
-13
41
26
-8
4
34
-14
36
17
-7
47
-17
-56
21
-33
44
31
-40
-19
-14
-7
-12
1
-36
43
55
29
-39
-19
-123
-32
70
-5
64
-65
-23
43
-15
-59
17
-41
-23
-20
19
-9
13
55
29
-54
-10
-35
2
34
-10
24
18
25
-10
-19
-20
11
-18
-29
56
32
-11
-61
1
26
21
17
-26
46
-9
17
28
29
7
-47
-40
28
-35
37
43
-9
91
8
52
12
7
-21
70
7
-32
-44
-13
32
-13
5
-18
37
-35
-19
-79
-9
-29
9
-9
-37
1
-12
5
12
-24
-18
48
35
32
32
-1
39
9
17
18
14
9
5
1
11
11
27
48
6
26
3
-2
-16
-20
35
-60
6
-33
20
-10
61
9
7
-11
-40
-1
-17
-6
-6
-45
8
-14
10
5
29
0
9
23
64
27
3
-2
31
-6
26
-11
-42
11
35
-4
49
-4
26
8
6
15
18
52
-62
-79
-53
24
28
70
17
65
23
2
24
-5
7
-17
-6
-23
30
39
34
44
-2
-17
45
-4
15
-18
-40
-23
-17
36
5
17
6
-22
-21
-16
-10
-1
-23
1
22
-26
26
-8
1
6
-21
-15
-20
-13
5
-11
0
-22
42
14
-16
-14
-18
52
-44
30
19
-90
-1
-28
45
-44
25
9
-40
-55
-33
17
-10
22
-14
-7
12
-27
40
36
4
13
28
36
-53
35
10
82
-11
-7
-64
-11
-64
9
15
-15
-56
-25
-16
7
-37
11
-55
-18
15
46
-11
12
-15
43
52
18
36
-18
-4
33
34
-46
-6
-6
1
45
-61
-25
-17
29
44
-70
-52
-65
-35
-56
0
-33
-13
14
0
14
2
12
4
-27
4
34
6
-14
12
58
16
-21
23
33
15
13
-26
-17
16
-10
7
4
30
59
-12
19
-32
-14
44
-16
10
10
-58
-31
-18
37
-48
-1
21
30
21
-11
47
1
8
24
-28
68
-11
-20
16
1
-23
38
70
34
19
-7
29
18
-52
-44
53
-1
-35
33
-64
-52
-33
-23
-32
20
-21
25
43
28
-24
-4
-43
-29
6
11
41
34
-33
-21
5
15
30
11
68
-29
-51
-30
1
48
-14
-29
-30
-15
7
-85
22
60
37
-40
-27
-1
57
-11
91
51
20
-1
20
34
55
-38
-40
3
-38
-2
10
-18
31
7
-20
49
-4
-39
-54
56
-9
29
21
-5
-25
-31
-34
85
-62
53
-30
-7
0
39
-21
-18
-7
-25
-2
-28
-40
-18
35
-51
-29
-32
65
32
-25
12
20
-29
-12
-10
-15
4
-27
-61
21
7
24
-14
22
-12
25
11
51
-7
46
-31
45
69
43
-3
44
49
45
-17
17
-25
1
-6
-21
-55
-47
44
5
-28
-12
46
39
47
27
-55
12
-4
8
-39
34
-29
47
-24
-30
-87
-28
19
18
-18
50
-12
2
-36
22
-54
29
7
27
9
-41
-52
-8
3
-16
-24
-42
-31
8
-43
26
-1
3
-25
1
-8
11
-36
11
-5
-60
15
-17
16
2
-15
-64
30
28
56
44
-10
-22
-31
25
85
-89
-21
29
19
-25
53
38
-40
-49
-11
44
-35
24
-51
46
26
-18
-10
-40
65
-34
31
26
-28
19
12
17
-25
9
62
4
9
-5
-12
8
-21
-16
51
39
-2
-51
31
-11
6
-54
-54
33
58
-14
-38
17
85
0
34
7
23
29
-47
-3
-43
-10
5
-45
-15
32
2
-6
10
-18
15
84
17
-34
-15
1
-59
-46
-62
-37
-17
-13
-6
-30
79
50
-45
15
24
-33
73
-4
-35
-9
-5
51
2
50
-13
-22
-98
-49
47
9
-31
-26
-5
-5
20
43
-28
22
18
-24
-68
7
17
-64
-15
-2
-5
-36
19
37
-12
-21
51
-5
-1
11
38
-12
-37
-20
-15
-6
29
-10
-32
63
-4
91
33
-67
-84
-22
-17
-14
-25
48
-33
-23
9
-1
-27
37
49
-72
-42
29
11
-1
47
72
-23
-26
-41
-14
-6
34
34
-39
25
28
28
47
-52
-4
-58
-28
-21
-25
33
40
-33
66
20
-89
-6
-7
-9
13
59
-26
-10
-20
13
-45
14
12
25
-7
17
40
45
-19
34
-34
12
-30
65
-20
-73
-58
-64
49
18
-8
-105
-2
-85
0
-64
-20
-1
14
-56
-1
-4
39
13
-12
12
4
2
-50
11
-45
-36
-24
-27
39
-32
39
10
-9
49
-86
18
-71
-53
-15
-31
-1
12
-64
6
21
-9
33
-38
41
33
33
53
27
-66
20
24
8
-5
-35
20
-43
25
-15
-14
17
-16
-45
-46
76
-37
-12
9
19
-2
35
2
-22
-22
-33
53
33
-7
24
-21
21
-25
88
-6
-24
-85
33
38
-33
80
38
-36
10
-4
-4
-7
35
20
4
-37
5
-23
22
25
-41
-6
25
-16
61
-24
-8
-38
34
-33
-44
-35
34
-24
-13
-20
-4
-12
29
88
-22
14
-41
7
30
14
-41
-24
4
-35
-52
-12
26
-59
30
-4
13
-33
54
1
0
20
34
16
-40
-5
20
4
8
20
17
36
17
-15
-114
-82
-43
-9
-12
-30
46
-16
45
64
-80
21
20
-20
46
27
22
-63
-56
-32
-42
27
25
-47
25
30
0
-35
-24
18
-15
-10
14
26
9
-34
4
2
-18
-12
-10
-7
-57
-31
20
-36
13
19
-6
-19
-16
37
-8
10
-37
-71
-43
19
7
-10
-33
9
27
-52
63
-16
-10
1
-27
55
13
37
-10
-18
-12
-54
30
20
-15
-51
-18
-17
-10
51
17
-59
-31
25
20
25
22
5
-2
-38
52
-41
-7
-5
-30
-52
-21
76
13
24
-26
8
-27
28
-3
40
51
75
-12
13
-4
17
82
-30
-4
-3
-28
-4
-15
36
46
-13
6
-31
5
38
-28
-33
-8
-12
2
10
71
-39
24
13
35
127
2
-7
-66
-25
-24
-25
-7
58
2
-32
-32
32
11
-36
-30
19
-10
2
21
-51
10
38
41
-10
38
-3
-5
-24
-13
26
-41
-51
-10
12
39
14
-36
-27
19
-2
-53
40
16
68
52
1
-28
-8
-8
15
-3
-17
32
-70
49
12
-37
-44
7
-7
16
-20
-20
-11
-32
30
21
21
-26
32
-14
-52
18
32
22
14
-18
8
21
30
5
3
-16
45
4
-26
14
-3
22
21
29
-21
-27
-46
-8
11
-5
0
30
2
11
-33
-16
-33
13
9
9
35
-13
75
8
-3
-6
45
3
-33
17
-32
14
-42
21
-16
64
40
17
-15
-11
12
-48
4
11
-38
-47
-26
-8
-11
10
26
-56
36
-37
28
-9
14
-55
-6
45
14
10
15
0
-52
-33
-25
-12
54
-46
35
13
8
-3
76
-20
23
5
-1
6
12
39
41
-27
-8
-38
-14
5
8
-63
29
-6
12
72
28
-4
54
-24
-8
-75
34
-11
-2
34
44
-18
57
1
-44
-21
-9
2
-9
19
60
-36
-7
59
2
1
-15
36
-44
-13
33
0
34
-29
-23
-1
-26
-53
19
-59
-2
35
-2
-40
-38
-17
2
6
-53
-2
-43
-13
52
-10
22
26
10
27
5
-32
-15
-17
41
-17
12
27
10
64
-57
-34
30
13
-16
14
-1
58
8
-30
39
-54
15
30
-41
10
-11
68
30
-25
43
4
-28
41
-49
-17
33
-16
17
5
5
12
-60
8
52
1
38
42
3
-13
30
37
-35
85
21
-46
-4
70
6
41
9
-84
-64
-5
38
11
46
-33
-25
25
-40
19
50
-10
-44
36
-28
-54
57
-39
-7
15
-56
14
-49
10
-2
-5
-72
16
40
-20
-49
27
24
-5
37
-29
-71
10
63
11
37
10
-26
-13
45
25
14
-33
27
9
20
-14
29
-4
40
34
17
-48
16
17
-50
-10
33
37
69
9
19
-20
-51
8
-3
13
-36
2
15
41
-88
-15
12
10
33
10
24
-23
-4
6
-18
40
-24
-22
26
2
-49
23
29
-7
45
21
-24
-1
24
-28
-10
-30
-24
5
15
4
-13
-9
11
27
-16
-24
3
-22
-27
-5
-11
-12
55
-53
-18
-28
-2
16
-28
25
0
34
12
30
26
5
-6
59
13
-20
21
-23
13
7
5
-37
-1
-11
21
18
-37
-38
16
-55
29
2
-9
18
-1
58
-19
-5
77
-40
6
-47
19
-33
-4
28
-48
33
41
9
-5
-20
4
24
36
-20
2
-49
47
0
90
-33
-17
23
-90
19
-20
-14
-83
-7
-24
-56
11
-9
-45
9
16
-40
-35
-17
-24
-8
65
25
21
27
-4
53
8
73
-11
25
16
67
19
27
-36
-38
1
72
-8
39
-3
5
-31
-3
77
-26
54
38
-18
0
-41
-29
-32
-27
-13
67
-12
-42
-24
-26
13
49
1
-57
-1
35
54
14
-11
-11
8
-71
-39
52
-79
-72
26
28
-7
-38
-15
42
-36
-7
11
-73
56
-63
16
21
-19
-20
-9
11
59
1
3
-72
47
-43
85
-70
57
-48
-45
-10
28
-36
-54
0
-11
-14
37
-2
42
-42
1
11
-7
-5
37
-19
-13
-47
40
9
56
38
-51
-21
-4
-6
15
-22
63
-25
1
-5
-13
48
95
-31
-66
-77
-49
59
28
3
53
15
-66
21
-8
18
35
21
-44
-8
27
6
-8
59
-44
40
7
-17
40
-63
36
3
2
-20
15
6
-12
27
4
31
48
11
36
-57
41
15
31
-33
61
-46
-24
-39
49
-45
-56
9
-2
-47
-51
-60
-12
-68
-20
27
44
21
31
-16
-6
62
-27
28
31
-28
-37
7
34
37
22
-6
-36
10
-10
-2
7
-68
-67
-2
13
-9
-2
64
0
-17
-28
70
50
18
18
-51
81
-16
-47
0
-71
20
45
33
27
-17
-16
24
2
31
17
-47
43
7
-29
36
-6
23
13
56
-32
-10
-18
-5
-29
-11
17
10
-20
-6
52
-12
-49
-23
34
22
-21
-23
-42
-38
46
17
17
30
-53
-25
33
22
54
14
102
0
4
5
-25
-52
35
37
33
-16
41
-21
34
17
18
-30
-66
11
-5
-39
4
-3
-22
7
-37
1
-31
-5
-7
-28
-28
30
33
15
-44
-16
-29
-38
38
51
5
-54
-5
-7
-20
-54
40
-32
-116
-2
20
-20
-23
-33
-45
-24
-15
-77
29
31
47
44
51
-7
5
-22
-2
97
1
44
-20
49
-36
11
-13
-19
12
28
-37
10
-53
-30
-51
1
31
47
14
-45
-19
-24
22
53
24
-22
-14
-10
-64
-44
16
-25
7
5
-6
-11
15
-21
-11
-27
8
59
6
-22
-31
19
15
48
1
-47
38
-22
-16
-4
7
49
-81
-21
46
-4
4
-47
10
33
-49
15
-16
-11
-42
-10
17
53
-14
49
17
8
9
14
-29
-11
-19
6
-4
-33
16
30
-14
-25
32
73
18
20
-88
-7
47
-17
-33
39
-34
10
63
-16
-57
-26
-20
-4
10
20
-12
33
10
18
17
8
-27
21
-50
-6
26
-10
6
89
17
-36
-19
7
-12
-50
42
32
29
-21
-74
-35
-13
-1
1
42
-24
-34
10
-27
-39
-40
-38
0
-2
69
23
26
-6
35
-53
25
-19
10
9
7
-94
-5
9
12
-12
12
28
22
-18
3
8
3
-28
-37
-7
6
-4
4
-6
9
-7
11
-3
-3
57
-31
-5
-1
25
9
7
10
19
6
-35
48
-15
43
-41
-17
-10
-7
-6
11
-1
-23
13
-15
-46
6
-24
-33
-55
35
11
17
13
78
14
16
-10
-3
-32
-8
-27
37
-9
-18
-10
39
-36
58
-13
17
-1
-20
-7
23
-2
85
48
35
36
-28
30
2
-19
-42
1
76
-16
-8
-37
-18
-90
-27
-23
95
30
-20
-8
28
-6
28
8
36
-14
-1
82
-19
-54
62
-68
89
-51
-33
-29
13
8
-13
-12
48
-76
-26
-3
4
-66
19
43
-27
66
3
60
86
-55
-66
37
-111
29
64
-5
7
-59
5
-31
24
14
70
-113
45
-68
11
21
4
31
11
36
16
83
10
92
-24
28
0
14
-20
-38
12
-7
-3
3
12
32
-31
-70
-8
19
-74
-45
60
-11
-11
54
46
-34
-51
-16
-32
22
-48
86
-6
-62
-22
54
90
15
-5
-75
19
4
-7
7
27
-39
13
86
-106
-9
37
-96
21
-26
-48
26
18
-83
-3
-28
-28
22
-20
-14
-5
-2
-39
62
55
-66
-57
1
-43
-22
19
-80
3
27
46
56
-32
-8
5
-33
-26
0
26
29
-32
40
1
53
41
39
35
1
5
0
40
47
-3
62
21
31
11
33
-28
-10
60
25
-4
15
38
-80
41
-35
3
0
-7
34
-43
30
-11
13
22
0
4
-26
5
-48
7
-19
-24
64
-69
92
-8
-28
17
12
23
73
4
-8
8
39
13
6
-12
-5
11
9
11
-49
23
-19
-15
64
16
0
-25
1
23
5
40
72
53
-2
20
-22
-6
37
-18
-19
45
18
59
-61
-4
35
-48
-43
-24
-27
90
-18
-4
-4
3
-30
33
-18
17
29
-18
28
3
-20
-43
-23
-55
3
27
-24
2
2
32
-1
25
21
26
-13
-7
5
12
-79
34
-6
14
7
-59
7
15
-2
23
-52
-6
-2
-57
-34
-104
-6
30
-1
-48
-10
-18
-14
-21
-62
-47
-5
34
-74
29
-34
-52
-26
-28
105
-54
10
63
56
2
-34
-55
-96
0
-26
-24
-3
-43
-6
14
-35
40
-6
30
-1
-69
-24
24
11
-11
17
22
55
-28
-30
4
-65
-4
35
-11
26
48
-6
-10
-15
-19
31
-18
9
44
42
9
30
14
58
25
2
0
29
14
32
-9
36
-14
9
21
-3
-91
3
3
15
7
10
-29
13
8
-3
-4
-58
-3
30
62
1
2
-24
-11
-18
-10
39
30
-16
-29
-5
-7
4
21
9
-36
-4
2
31
16
-39
1
-23
-2
-25
-15
33
-36
27
-39
49
69
55
-21
13
56
23
-38
10
-8
53
-59
-10
30
-4
-22
-9
0
-42
21
-13
16
3
41
14
3
-24
22
-1
24
-7
-26
-7
0
-30
-11
43
-32
-12
16
-18
29
17
-5
-52
6
-7
34
28
4
-21
-90
-12
6
-21
11
-36
17
-21
-24
-50
-10
-23
10
37
-48
4
-28
1
13
16
12
9
27
-21
-30
9
-7
8
22
6
35
39
-44
7
18
46
17
14
51
-21
-28
-54
-28
-35
-30
48
4
-6
-1
1
-10
-65
2
-6
-38
97
-8
8
-11
-18
-8
-14
13
-29
68
-28
26
-37
21
42
41
41
-17
-20
-52
8
-33
-3
-25
-29
-15
-41
-33
-5
-1
-18
13
-40
-9
-48
-35
98
-43
22
-10
22
21
5
-39
-9
33
-42
81
-36
-64
-26
2
85
-16
20
30
57
18
-14
46
40
-6
-16
-51
90
-6
42
-21
-71
-52
-32
10
6
4
-67
24
46
1
64
38
-16
9
13
-3
-8
-18
63
0
-92
26
-94
-75
-20
1
41
81
-66
22
20
29
2
1
-14
37
40
-13
-3
-37
33
-32
13
-31
-50
-25
34
22
17
13
-53
-17
13
0
-19
28
-16
11
-28
-12
-17
25
65
28
16
0
-49
-45
-11
-11
19
15
38
14
9
-58
1
58
-15
-10
17
-18
-17
46
-5
-47
64
-14
25
-21
8
-6
-46
-33
-13
-21
17
9
79
40
6
-13
35
-42
-67
16
29
21
-39
19
-4
-14
-7
17
-52
33
1
23
4
34
65
-41
-10
26
12
-13
-39
-26
30
-52
-2
-53
-64
-22
26
29
5
-29
20
-7
-10
-50
-26
-13
-43
-41
44
-14
-19
8
-33
18
26
-1
-32
37
13
25
-39
-26
-19
-4
-4
4
21
13
4
-10
-15
10
-20
-10
5
-14
54
-3
-2
-32
10
28
-8
13
-42
-18
-56
41
69
26
-52
8
-21
15
16
-50
55
-36
74
0
-11
40
-15
24
-13
51
90
13
-12
-17
-9
32
-32
15
-59
12
35
-50
-18
-39
-1
5
32
-23
-8
-20
-15
43
-35
18
-51
17
9
28
-6
-25
-1
24
36
-45
-11
73
-17
37
-15
-3
17
0
26
-39
-7
-75
0
-24
-4
43
11
-15
-7
-6
33
-50
34
-4
-48
-9
26
-4
-13
-18
-39
44
68
-25
-38
39
-32
70
-3
-59
-37
5
31
31
29
30
35
44
-26
51
-15
-75
13
-27
-23
17
-64
-49
-17
47
6
-36
-8
17
-1
-9
10
-31
19
56
-43
21
28
1
24
-7
-23
-41
-13
-34
28
50
5
11
6
26
-13
-10
32
91
-3
-4
-10
20
-30
-16
-29
-24
53
6
7
29
-3
32
45
15
26
6
22
17
105
-17
52
29
-6
-30
-27
15
-70
5
-6
54
20
-16
-7
-3
-13
1
-37
39
19
-45
-23
57
13
26
-27
-18
1
19
54
-87
8
-44
24
-7
-92
-13
-68
-4
30
-34
50
47
32
-35
17
37
-20
-27
-15
-36
-8
-30
-14
34
-48
-7
8
-31
6
-48
16
-23
-83
13
51
20
16
31
-13
9
7
-7
-39
0
50
-23
0
-39
-26
-20
-42
-8
-37
-15
3
-36
1
-41
-25
-37
-52
-29
-12
-25
-24
-49
8
40
-15
24
-55
-13
-10
15
-41
-46
-56
-22
31
55
4
-22
-57
12
-22
61
13
-27
-32
-5
-33
22
47
2
21
23
-38
7
-25
32
-88
-11
-50
-56
