34
-9
-91
-8
32
45
65
-48
-27
-13
14
-25
26
-2
-83
-88
-25
-87
4
-5
-84
-51
-26
-43
20
7
126
127
-30
-12
3
-23
-26
-39
0
-34
45
9
-8
-27
-119
35
-56
-35
20
-4
-86
-15
-36
-1
-27
-42
15
-108
77
19
61
108
-7
-89
-40
-72
62
31
47
35
-39
17
-87
0
-56
-17
-26
61
-37
127
63
-39
-43
-79
11
-42
17
84
-38
-16
24
-56
8
-28
-26
-117
-34
-17
-41
-41
-37
-29
-20
4
-55
-34
46
-60
36
-89
5
21
-64
-52
43
54
37
-8
0
82
64
21
79
-32
6
71
-28
34
-63
-11
-5
17
41
33
33
47
-38
-19
-6
16
-49
-33
-42
-25
38
27
-127
-34
-11
-85
-37
-99
-11
-16
23
53
67
84
63
-31
77
-54
98
-91
-6
31
3
14
-101
28
3
-71
20
32
19
50
13
-39
-70
-10
-21
-15
49
35
-4
-49
1
-3
20
38
-36
34
-67
96
18
-19
-37
-34
38
-60
2
-39
-42
13
-106
14
-8
44
-12
-7
25
-27
-89
86
-24
10
-39
-27
30
9
22
-13
11
73
-4
-38
10
29
51
-39
-104
13
21
45
2
-6
25
127
-28
-2
59
-38
-49
-58
-44
5
-4
-48
-61
13
54
8
-34
-62
-16
-36
-17
-106
-87
-23
6
23
-12
5
-4
51
13
-51
-58
27
-25
4
10
5
-12
11
36
1
-52
-60
-32
-89
-51
-35
-48
36
29
-47
23
-14
-27
-74
-18
-65
-7
-32
-20
-60
16
-127
-69
-3
-124
-15
-76
33
-11
8
-63
127
-76
-16
12
-1
-39
12
0
26
3
-20
-68
11
-16
-75
-44
-1
-38
-35
-7
-48
26
-20
90
-3
5
-71
-5
-47
-15
78
-31
-41
-35
-19
17
-6
-45
-30
-127
-42
24
18
-24
37
27
-41
114
3
-26
-30
127
-39
26
-9
54
10
-10
-7
-36
-36
-78
68
83
-62
53
-76
5
-47
-73
-73
-62
17
55
-36
34
52
-13
-27
-38
74
-23
-49
-51
8
-38
-34
21
11
-15
-24
27
37
-4
-50
105
-11
47
69
-36
-30
-18
-3
102
10
-23
-68
6
-35
-29
57
81
-9
32
0
-31
-45
64
22
-50
-15
34
-28
-83
17
121
58
86
8
-100
6
-69
-119
-118
54
104
38
30
4
-7
-48
-48
76
43
-71
-3
42
-29
37
-18
-81
-55
-2
37
-3
14
-72
-30
-29
-17
7
-29
13
-50
-29
28
112
-2
36
-20
-32
0
-49
-4
127
-34
96
19
-45
-16
26
19
18
-34
-8
-7
33
-26
-119
20
-41
-40
-31
-49
51
33
-25
-18
-32
12
-23
39
-103
-13
22
-74
99
-55
-43
-6
54
-4
-62
96
-20
114
72
11
69
-16
-17
40
-28
-69
39
24
-5
4
-117
123
-21
-5
-6
-50
-51
40
91
-56
-21
-3
35
94
36
-24
6
-8
57
127
27
13
-46
22
-101
39
12
2
-34
13
10
-9
-6
31
2
41
-13
-12
44
127
7
-54
-24
59
-40
107
-78
36
-24
-5
94
20
22
23
69
-41
-66
-51
-68
7
-27
68
127
-127
18
17
82
-45
-24
-39
-26
-15
42
-68
27
-127
10
-13
0
-40
28
17
-7
-13
-127
-11
-84
4
-37
-31
-127
-127
-49
81
84
-37
27
82
-18
-18
-59
-10
-39
36
2
-42
-7
-66
-89
-50
0
-30
-67
-72
32
-18
1
56
107
-91
50
44
42
6
21
-110
-45
50
75
-123
39
12
-111
-41
-9
22
25
38
52
-83
22
-100
-50
-29
25
-9
-79
5
-99
-19
-3
-35
-67
-37
-111
78
-69
75
7
19
127
-90
4
106
-50
-124
15
16
71
49
5
-66
9
-18
29
-25
48
-29
-68
9
-22
28
-52
-29
-58
-39
-4
-32
21
-60
38
-59
-82
-31
0
-66
77
32
31
-49
38
18
34
-6
-25
6
-15
24
21
-61
-69
34
-9
-39
-23
-68
68
12
-53
10
17
-4
-25
-31
-2
-19
-57
11
20
-42
-23
-8
-18
-52
19
-1
-20
-10
6
-17
-67
25
-28
-40
-31
17
14
13
91
7
49
-30
67
-41
-46
0
12
5
26
-22
0
14
-29
-127
-35
81
30
-54
94
-2
-27
11
78
8
-31
11
-43
-41
9
127
39
-6
-13
-55
-2
-17
-69
-9
-81
2
-89
4
-13
26
2
-9
-2
-25
-106
25
127
-29
70
6
-90
28
-7
127
-21
9
0
12
38
-112
57
-12
6
-21
-11
-36
-20
-127
-38
-57
3
-58
46
-113
-65
-26
-3
-1
0
49
-39
-21
-6
58
15
-71
30
-33
73
34
17
49
-20
52
71
-69
-7
-38
-77
-21
-32
-104
-46
80
92
11
33
38
-67
-61
-127
127
67
-44
31
9
41
10
53
70
-8
64
9
-110
27
-54
1
17
-26
1
-24
3
-35
6
-80
-7
27
23
90
-57
12
-127
105
47
-53
-8
-16
-17
-127
21
0
-85
-31
0
8
16
19
38
11
16
-86
19
127
-9
-93
47
-69
-19
72
-124
72
-37
0
29
-35
-4
-62
22
-62
19
-16
-61
-80
-121
19
85
-13
10
7
-79
13
-53
-48
3
-78
5
8
22
-5
-38
-34
-4
23
2
-5
26
8
4
3
-127
-7
28
-2
-21
72
-53
-14
-32
-14
-58
59
28
25
-72
-16
55
96
61
-26
23
14
72
8
23
28
-22
37
-13
1
17
15
-69
-7
-15
42
72
-22
-28
-22
-1
-19
3
40
10
25
31
-24
27
-2
37
127
-57
-27
-27
27
31
-21
10
18
14
2
-26
74
-6
33
-57
-55
20
19
-12
127
-37
-54
-6
55
39
-23
35
5
45
56
25
111
38
-36
15
57
35
-58
-57
-30
-27
15
-8
2
-25
50
56
48
-126
-4
8
13
127
-61
44
127
-38
54
18
89
-23
-42
-15
-108
-127
31
-29
-9
-20
-7
-92
-32
-117
1
-18
52
-2
0
-11
19
69
59
-21
36
-59
39
-30
-20
54
25
23
-7
115
33
29
-18
-127
33
89
26
8
57
-17
-116
10
70
30
-5
-13
30
-105
-26
-17
-46
-127
52
53
-80
53
-92
-35
41
-62
2
1
11
2
-45
-64
13
-4
-41
37
9
3
13
-41
30
-5
-16
-1
48
-5
-72
-71
-54
5
-11
-115
-88
22
-7
-36
-35
-9
55
26
15
49
107
-6
5
-2
-6
-3
45
69
-64
-23
3
17
49
-68
-31
-10
-45
7
48
-7
0
7
-120
27
-14
-1
-5
43
71
46
29
85
-19
-29
95
-3
-12
-77
24
101
-127
-6
-14
18
-47
33
-20
20
16
13
18
-27
2
-44
44
4
55
-108
72
-42
-28
-43
-48
58
-29
-8
73
6
-70
2
67
-30
30
7
-21
1
34
-35
48
13
-49
-17
-15
18
33
-6
-44
-49
25
59
-19
8
23
-46
-46
-26
65
10
20
-2
6
-33
12
30
20
-12
63
-31
-48
42
-11
3
-3
24
4
47
-11
44
-19
-28
20
-30
-16
-53
-36
-109
18
79
76
85
-23
-4
21
44
127
15
-57
35
-16
-25
127
73
86
75
6
0
110
42
55
19
22
90
-28
106
-57
-11
18
29
-68
-31
-28
74
-53
93
-4
86
111
61
8
-61
38
7
18
11
34
-64
-65
-110
-21
127
52
127
113
69
34
-75
55
127
127
-59
-17
-83
-3
105
-78
-16
18
0
79
-127
62
32
87
66
66
27
-16
17
70
-61
45
-3
-89
24
98
33
-61
18
53
127
-3
-83
-35
30
26
30
53
-13
12
-13
10
-127
52
58
-56
69
24
55
-79
58
-58
31
-6
9
23
-17
12
61
31
45
127
20
64
29
11
37
127
-50
-3
121
83
-65
-52
36
33
61
-5
55
28
34
127
-30
49
-25
-9
10
15
-44
4
-10
-102
86
127
16
-42
-16
-9
71
38
127
14
29
45
50
4
38
25
127
48
80
16
59
32
32
-74
-11
11
-28
14
22
29
11
27
24
-29
62
6
45
-115
26
20
5
-23
-55
62
-89
53
-35
60
28
49
64
37
110
-53
-60
-27
87
-9
-55
36
67
94
-15
0
68
0
106
-4
-46
5
-49
127
18
16
41
64
111
-21
92
55
14
-13
-100
40
-57
45
-12
23
53
97
82
8
126
-127
127
-39
-39
7
93
62
40
-4
48
16
87
-127
127
52
29
-33
120
-18
-6
56
55
-56
-32
57
8
-84
12
-127
-69
89
71
10
61
81
17
-16
-13
58
-16
54
108
84
61
65
-14
74
28
67
33
-30
-20
-48
52
127
-108
-30
-12
6
27
42
-9
-106
62
-16
-34
31
-82
25
-24
23
95
7
-33
7
-49
60
33
-33
-2
-58
-6
-2
127
3
-127
100
38
-6
32
127
13
97
-16
36
127
-108
-59
43
12
85
-41
36
48
123
127
24
53
75
51
-1
33
-10
2
50
57
-96
26
-99
87
32
-20
81
-3
-1
60
57
52
69
90
25
5
115
76
-15
59
45
47
65
32
124
20
28
127
105
49
74
127
-1
107
23
19
96
121
6
-24
-2
74
-22
73
43
-3
13
80
41
47
24
45
79
127
3
-79
11
-11
-13
61
20
127
-93
8
50
-127
-76
127
92
90
73
-73
14
94
17
38
46
61
18
-13
115
121
37
76
15
29
-40
125
1
36
37
46
9
-4
82
-78
-46
14
-28
36
42
41
34
-22
22
47
6
23
114
19
-19
71
127
23
20
67
-127
63
54
-85
-127
56
22
8
20
-39
29
-55
38
34
-115
61
94
-64
-31
50
21
45
127
68
-38
50
-29
-44
38
86
75
27
-66
40
35
-79
24
-88
31
-48
-28
-46
58
-49
-127
-10
43
73
109
-49
-2
112
-127
10
-29
94
33
-65
126
-101
-6
32
97
-31
34
49
62
-52
20
-4
65
15
17
20
15
127
1
54
42
43
-57
63
67
85
23
28
-20
56
1
-27
38
65
-24
35
-14
69
16
60
13
38
-45
127
-63
-12
127
9
39
92
6
-36
47
127
-42
12
99
43
38
27
106
-4
127
57
-52
40
3
-13
-106
-20
41
54
-22
116
127
80
-33
61
-84
96
12
-41
-78
-63
127
17
-26
0
-116
-74
-44
32
32
-113
9
35
40
16
23
2
39
18
47
-15
0
-40
-34
10
23
77
0
81
67
21
37
-23
31
14
26
-8
55
38
-8
9
-29
-99
0
-38
0
-64
-91
107
13
-19
127
38
78
4
127
29
106
-10
27
70
-66
32
-5
4
38
-35
-51
-58
-2
-24
-25
-21
-8
38
-21
-42
106
45
51
-22
7
-48
12
-34
-20
-39
-17
-76
-14
-19
-75
-62
-15
-14
-53
19
-120
-92
-54
-61
13
-79
8
-44
-10
-51
127
-127
-55
33
-82
44
-86
-41
-61
-14
3
15
-50
-34
54
-7
-59
39
-27
-12
-89
-56
-43
-11
66
-5
-9
-33
-67
8
-23
-31
-47
-52
-14
-60
-49
-66
17
-9
-127
10
-105
18
-38
-65
5
-21
127
49
-4
-82
84
-51
-40
-44
-48
-39
-19
-35
-3
-37
3
-127
-35
-88
25
-90
31
-23
-6
-77
-9
-31
-52
-4
-52
-32
-26
4
-27
49
-2
-17
-40
-55
-36
21
-49
-38
-34
-33
-89
59
-45
-92
-40
43
-98
-44
39
-61
73
75
-41
-26
-127
-73
-75
-29
-127
-33
31
-43
16
-78
7
-24
1
-44
-103
-41
7
-78
-13
-115
16
-2
-22
-67
-75
-13
-24
-3
71
19
-127
-10
-12
-27
48
9
-35
-3
-23
-97
44
5
-36
-62
14
-127
-108
-71
-43
-42
-5
32
3
-21
4
-29
-9
-89
-26
-43
19
44
-82
15
-76
-33
-31
-40
-51
-29
-1
-126
-29
77
-41
-9
-43
-90
-52
8
-26
-36
-62
-1
-4
-66
-18
50
-88
-31
-3
-96
-127
-27
-3
-56
-6
33
-54
-55
-18
24
6
-127
-31
-29
-70
-91
-127
44
-127
9
33
-9
100
-3
-105
-28
2
-74
-10
-58
1
-33
-54
-49
-22
-55
-77
-35
-35
-4
-127
-115
-23
-36
90
-121
-8
-23
-54
-124
100
-48
28
-51
-24
-51
-30
-32
-2
-22
-19
1
-39
-67
-58
-45
3
-25
1
17
-27
-18
-18
1
-38
5
-4
-76
-22
-19
-110
-29
-1
11
-69
24
-127
14
-31
-68
7
46
-7
6
-52
-5
-38
-17
-25
-19
-13
-47
-33
10
1
-59
4
42
-71
-17
-17
-36
-25
-69
-28
-32
-105
-101
-24
-14
-36
15
-75
-127
-89
-15
-48
-43
-50
-36
-41
-20
-54
3
61
-10
-77
18
-19
-69
-33
-66
-78
-26
-79
-45
-51
9
-26
-127
-8
-78
-111
-11
-59
-1
-58
12
-5
-1
-86
-73
-70
-89
-47
-36
-28
-18
44
-12
-51
30
-3
-73
-60
4
1
54
-14
16
28
85
-20
-111
-10
43
64
-13
-4
2
-75
-4
-65
-56
-12
-43
1
-103
-63
-15
-21
-104
-39
-58
-64
-52
15
-66
-37
6
6
-43
-17
27
-64
-54
-55
-77
-71
-38
13
-38
-63
15
-11
-8
6
-74
-19
19
30
-33
-6
-100
-35
-54
-3
-24
-108
-46
-28
-127
-7
-127
5
-11
-127
-69
-34
-57
-94
-127
-127
-60
4
-127
-36
-27
11
8
-16
-12
29
-17
111
-51
-67
66
35
-40
2
-7
-74
8
-76
-5
-61
-35
0
-12
-72
-66
-38
2
-63
-8
-17
-72
-18
17
-34
-5
38
-7
-15
-79
-55
-40
51
-29
12
-4
-67
-54
29
-42
-26
-52
-7
-81
-114
-19
-30
34
-80
-26
-73
-8
-12
-127
-61
-127
-21
-33
-24
-26
-7
-76
-127
-42
-49
29
-63
-90
-66
-62
-66
-75
-16
-9
-57
-25
-32
-55
-18
-21
-54
-13
-93
-127
3
-16
-29
1
-12
-18
-86
-49
-107
-15
-43
10
-94
-64
-18
-51
33
-43
-75
32
-120
-48
-63
2
58
-25
-20
-48
-45
-59
-93
36
-2
69
-57
-44
-10
-23
2
-52
11
-127
-13
-50
-53
-60
-80
-8
-23
21
-61
-16
-15
6
-48
-34
2
-11
-74
-2
2
-3
-32
-11
-66
-62
10
13
-74
-86
-89
-62
-123
-48
-21
-71
-29
-127
-33
-3
-28
-7
-39
1
-15
-93
-4
-17
-66
-20
12
-60
0
-33
-51
-3
-36
41
-51
-32
11
48
14
-38
12
13
48
20
6
-38
-3
88
-46
8
-4
-8
-24
38
-21
23
-26
-18
-78
40
-61
-29
-46
-11
-41
10
-33
37
103
41
127
-10
19
13
-31
7
-50
42
-26
-17
-65
-14
-13
15
29
-18
-6
-11
-1
-10
76
-17
-4
-50
2
-15
-20
-9
-6
-2
39
-20
41
20
-15
55
60
-34
-36
31
-21
46
43
-16
49
-66
-127
-59
27
16
2
-17
-53
-4
50
-3
0
-26
63
-5
-11
33
-12
-32
76
-24
-31
-29
37
-7
-85
80
-37
7
99
-58
-14
-2
-91
-77
-18
47
14
38
14
11
-16
33
58
3
-25
-20
34
-127
48
33
-27
39
1
2
-6
-43
80
12
-18
56
-19
15
3
0
-83
-22
-47
1
-36
-40
-26
-18
9
-36
-35
-11
-7
-10
64
49
-69
-3
-25
-16
-16
-68
-9
16
-12
-31
-28
-22
-51
-5
39
11
127
-39
-10
25
29
31
8
75
5
-21
127
67
16
-53
14
-14
0
-14
-51
-41
-15
-16
-61
-30
19
38
64
-66
-30
17
-5
5
-20
9
-18
19
-58
40
-13
-75
8
-113
-5
-11
-57
2
4
32
11
-30
4
-11
-49
-87
-15
-4
-39
-52
-36
4
-3
-44
10
-22
-10
7
48
7
19
-77
-4
-12
6
-42
-58
29
-15
80
2
-17
-34
127
-50
-15
-12
-18
4
41
10
-55
66
-11
4
-7
-8
2
-127
-6
-8
-8
-35
-15
-29
39
17
-26
-47
35
72
-9
62
3
25
33
3
52
8
-10
-17
27
117
7
4
-21
-25
-2
2
-2
-10
25
-12
48
-6
7
-26
63
27
13
7
17
-16
16
-27
-17
4
10
1
14
3
20
3
19
56
10
64
8
-6
-14
75
25
-25
-17
46
-3
60
-20
-23
-1
-5
-37
14
-38
5
96
-1
-3
22
-12
24
-20
41
-12
-16
-16
44
-46
-46
27
6
-73
-24
16
35
-16
-127
29
-27
-44
-37
21
-78
-1
-40
58
24
-11
-35
-23
-51
66
9
17
-19
31
-10
-1
11
-114
3
12
22
-72
108
-53
14
30
-4
28
-15
-49
-8
-12
40
17
17
66
11
-12
118
10
33
55
-17
-8
4
-10
-10
-3
-18
5
-48
-57
37
-75
27
9
-42
15
-16
88
-10
-52
-34
-53
-15
56
35
34
4
-22
-25
-77
9
-37
-13
76
-65
0
-33
-4
-13
0
-51
-11
-36
-37
12
5
-6
93
-26
-46
-109
3
4
-6
37
-42
-10
9
-37
-18
9
-6
24
-9
-17
41
6
-5
48
0
16
25
3
5
-17
11
5
-6
22
-17
60
33
85
11
-60
5
-19
-1
-85
-39
-10
14
-17
-10
-63
27
43
-8
-7
-20
-10
-1
22
-29
18
-20
-48
-68
17
-110
-40
-20
69
-45
2
-4
23
-5
102
7
0
-20
36
-28
-21
-29
22
66
-6
-13
36
63
-44
-70
-83
28
2
12
-8
-27
-2
4
22
-10
-6
3
22
-17
10
33
5
40
127
43
-4
-47
-42
-59
3
-33
33
-30
-46
-10
-33
-20
-61
-5
41
-28
-127
17
-37
30
-6
74
-24
4
41
34
17
12
34
98
-50
15
-27
9
-13
20
-1
40
-1
-50
36
28
-52
5
-1
-24
48
10
6
-3
-16
4
62
39
-7
26
-21
33
-83
-68
-7
-2
14
13
40
-2
-14
-8
-3
-16
-50
-11
-32
35
40
42
22
2
6
-33
-8
-7
-2
-62
-6
-95
-11
-37
-55
46
42
38
-70
-72
37
4
-31
4
-31
57
-22
-5
44
57
37
18
31
-32
42
25
11
-84
10
-14
-24
31
8
-127
-27
34
25
-64
37
3
63
-19
82
78
-23
25
24
48
6
22
-1
6
-15
49
52
-46
66
13
-8
9
-33
36
-69
39
29
-45
34
-7
22
-6
115
-50
30
52
-40
24
1
2
-54
17
-75
-11
-71
22
17
-28
-84
10
33
18
-24
-17
127
42
8
44
-40
-1
-27
21
14
45
81
-6
-27
-42
38
12
50
3
-27
48
17
-8
-43
-8
-58
30
-8
-13
39
-54
35
-19
47
-49
14
6
32
98
6
-54
49
-37
-17
109
33
-80
25
-54
81
0
-18
-25
40
6
1
-18
-61
42
-10
-24
87
-74
61
54
-40
48
10
-32
-15
-16
-4
-15
-17
-37
48
28
31
107
25
3
72
31
68
-42
-56
16
-33
6
63
-15
-19
-65
-17
-27
31
33
56
30
-4
-4
-85
50
-4
33
19
-9
38
59
-2
-48
-56
27
-78
-97
5
87
12
-22
57
8
-6
34
-63
-4
67
7
-8
-43
17
4
-43
-41
-13
-6
-45
48
-20
-18
-13
-26
-37
-32
-57
13
33
2
23
-13
-16
-34
-8
12
-6
-14
5
-32
65
47
16
27
-30
-53
-10
6
-32
-4
50
-20
-92
-8
21
-29
-24
-61
-46
-82
-29
2
-43
64
66
-36
-46
-20
15
-61
-4
62
-34
54
-40
-16
28
-34
16
61
50
-24
-90
8
-12
-55
-34
127
-29
-6
-34
-13
-18
-6
12
-17
-26
-127
-127
12
-65
-84
-27
84
-71
14
-61
92
31
47
-41
-2
9
-24
33
-49
24
71
-42
5
8
7
-9
105
-21
-35
-4
9
23
18
-85
22
17
-5
13
-83
-12
26
31
25
26
43
127
-9
-37
-15
-9
7
-47
22
54
20
21
-85
61
31
-7
39
5
14
49
-21
-28
-31
12
50
15
55
-20
-71
-81
4
-21
-7
66
-12
49
-48
-38
-12
2
-77
-28
42
-66
-19
-1
17
-8
17
41
61
-6
8
50
105
41
70
-64
63
5
23
4
67
70
-4
38
10
-83
-5
25
49
3
-8
-30
-24
-32
5
10
17
20
-24
27
51
41
-88
-52
75
46
-74
-5
35
0
-30
-9
-12
58
23
-46
26
-49
-8
-38
-25
61
6
-33
-76
102
-71
-30
25
-19
1
-15
1
21
-28
-117
-5
-19
27
-7
19
18
-33
-5
127
-63
-23
58
3
18
27
85
-24
-46
17
8
64
-39
17
39
127
35
-62
27
-42
38
9
-46
16
-19
0
12
43
44
-6
-45
-7
57
10
-108
-26
28
22
10
77
-70
49
73
31
53
31
31
48
7
21
-11
6
-47
4
10
-41
38
44
-35
29
36
25
-48
7
-36
-38
28
-23
-31
-28
92
101
-22
68
42
-4
14
-9
32
22
-21
-38
-10
-5
-9
24
-3
30
91
1
-2
30
-8
42
21
6
-11
-22
-13
9
-24
40
-54
-127
14
-75
36
16
-10
-23
-86
-8
-17
-127
10
-23
-53
-16
-38
-4
50
-12
-19
-49
81
-51
38
24
17
-24
-2
-57
-21
47
-15
9
-50
83
25
-22
6
65
57
45
32
-88
-30
-22
-9
37
-18
-23
106
-12
-12
83
-2
38
35
-8
83
39
-5
-15
64
-48
-30
5
7
41
9
34
30
-4
-47
4
-31
-64
-17
-46
11
-36
-19
46
-29
-13
32
102
-44
-9
-55
-12
1
77
-4
-19
29
-41
-44
-44
33
72
-58
-29
27
-31
66
24
59
-18
-12
12
-34
-20
20
4
127
-38
11
127
36
127
34
96
54
7
-1
78
14
50
37
50
20
72
85
60
1
29
-62
-64
45
-36
-110
-62
50
19
10
52
-24
-37
49
-31
57
39
-19
40
67
26
42
-28
-7
1
-4
-27
40
21
-15
53
23
45
-6
32
127
49
37
50
62
-42
4
34
18
72
72
-83
-43
71
-7
84
-42
45
37
33
-70
-3
-57
26
49
71
24
-7
-127
39
28
6
47
-28
53
42
-7
15
91
-32
-42
88
19
56
-21
50
-35
94
34
-24
54
57
91
53
47
-72
-22
43
33
5
6
-28
44
36
-66
42
-34
-56
28
105
100
124
-8
-33
-4
30
23
12
-19
1
18
40
17
52
71
8
-103
16
25
-46
9
-9
20
-71
-30
20
-7
94
-110
-37
20
16
127
-14
38
-7
101
52
123
43
96
-32
127
37
38
-48
28
-29
13
44
-9
-35
-4
17
54
26
-65
81
-36
-8
13
-10
-127
-103
125
-19
44
27
23
54
-66
102
5
127
-12
52
35
-30
47
-13
-35
113
38
98
-78
-21
5
-41
-5
26
127
49
6
-18
-12
-7
105
-25
-12
37
-17
18
-20
10
-52
-69
43
58
-11
-127
23
74
-71
-8
-35
127
13
64
27
-9
44
-12
-10
-44
75
-9
-39
21
80
14
32
-46
42
72
14
23
1
-12
19
28
109
-88
84
-5
-33
29
-25
71
-22
-4
2
-4
7
53
-34
119
0
-46
-7
12
56
-50
68
-80
-4
114
59
19
-11
14
17
-19
123
5
-19
-43
78
65
-27
-31
6
78
-5
30
20
50
35
-87
33
-2
80
121
69
-48
48
-14
-17
70
-20
-27
-46
41
-40
85
-24
41
56
-15
-86
-31
35
31
27
7
42
76
44
-13
112
19
43
11
-15
-16
41
5
90
13
23
25
-75
17
29
30
-52
8
-66
5
-21
108
47
-28
-37
40
9
43
-80
15
-2
102
29
-27
-27
-30
27
-79
57
-7
-10
46
-36
35
-91
-9
-127
101
54
25
4
-43
42
-74
-39
13
28
11
-11
43
-94
-42
-10
25
4
30
65
109
100
5
3
61
-108
9
38
-32
7
127
29
-93
-53
-12
10
30
22
55
-1
127
67
34
-51
-23
89
-6
39
33
-42
20
73
51
-28
52
127
-69
0
6
9
21
51
-55
74
-26
-15
15
34
-29
55
-75
34
76
-123
41
82
17
88
-7
-10
-58
44
118
-26
-10
-34
59
-3
79
55
-74
-33
57
6
-67
123
-51
2
7
59
109
-14
-126
-39
-15
-44
21
-33
83
-30
-54
-17
4
-63
3
30
-25
-12
55
6
-57
2
-24
38
52
127
-20
7
12
-62
56
-52
127
-55
46
32
38
92
81
3
-44
24
-24
122
28
-43
39
-7
70
89
-40
4
1
-117
87
37
-51
19
79
18
-66
23
-57
0
26
-38
25
-17
30
43
3
26
51
74
89
-43
-57
35
-6
-56
83
14
48
-88
70
55
-28
15
65
50
105
-35
33
89
-6
19
-59
-89
127
80
-26
-93
-52
29
48
29
92
-1
-45
73
-26
-13
60
65
-103
-40
-8
22
-22
-14
38
-51
50
39
-14
75
-62
87
-13
43
31
-47
10
-5
-34
-67
-99
28
13
-57
127
-48
112
-22
-72
40
-15
113
1
26
83
-8
-23
-8
3
11
-14
22
-55
36
28
2
-44
-30
-9
81
89
15
-39
-34
74
50
-11
57
-44
15
-66
-26
47
50
-17
41
60
12
-16
-36
-27
15
-127
9
-12
-10
26
15
-61
23
108
9
1
88
15
34
-36
23
36
46
84
-74
-6
-118
-35
14
96
93
49
-85
-34
29
-57
9
14
-7
61
27
-1
-19
6
32
-84
17
22
-6
-2
-19
13
19
-33
16
1
39
35
-77
-42
-7
23
62
34
-127
-17
3
-75
-12
14
-127
15
-61
-22
-116
60
-15
13
-15
15
55
-29
38
35
-1
35
-7
-9
15
-9
28
12
12
-29
54
90
23
-49
-56
-60
37
42
-110
-54
-7
11
24
-26
-30
-31
-127
74
13
51
13
-43
-61
-50
-46
32
-29
-85
-45
-25
-8
-49
15
19
-68
-21
58
-94
39
-53
-33
33
-127
10
7
-7
-27
4
21
-6
10
-4
-26
45
28
62
113
-45
64
-21
-2
26
-11
-3
-3
-71
-2
-58
10
-1
-7
40
-72
5
-62
26
19
3
-25
-118
-16
28
-3
-70
4
25
10
-18
17
30
10
-97
21
15
20
127
-19
-24
-2
94
14
45
27
6
6
-3
-39
-55
8
-4
-42
-17
15
43
3
19
57
-83
-4
-25
9
-27
-88
-50
-19
24
-10
-80
-3
91
-1
-50
44
-27
3
-40
15
-14
-1
31
-37
-37
40
-7
-55
89
-20
-10
25
13
46
-86
-17
123
-43
-33
16
109
73
-5
-22
-15
29
24
-25
89
14
7
-30
29
-19
-35
-75
-15
-30
22
8
-34
-31
24
42
-37
-35
28
-23
-51
-11
-32
45
-58
9
-12
39
24
-34
-24
82
-1
-19
-66
6
7
-51
22
30
-31
-31
-44
37
18
-65
-27
-46
-65
-13
38
-56
-11
37
-15
44
-1
8
12
-53
-3
46
-2
53
33
-22
57
3
46
9
82
34
26
88
-22
-39
42
64
-55
37
46
-27
85
3
-10
-29
3
-120
-4
36
21
18
27
-18
44
83
-30
-55
-61
91
35
103
-13
-10
111
18
9
-37
37
52
12
-15
10
0
-4
3
36
31
-74
17
32
-12
33
-63
14
-15
-19
-22
69
86
-16
-10
-40
39
-27
27
-32
127
-45
-20
-1
-21
31
57
-41
57
53
18
-15
-78
54
-7
43
62
95
-4
12
5
73
-26
-39
22
-89
-2
127
28
-32
37
-7
-17
108
-29
66
-41
-21
-3
57
12
13
24
21
50
-12
-80
-25
104
79
-73
-31
50
36
56
-87
-51
40
47
-14
9
-63
-18
-17
52
3
-33
-7
39
-42
-122
31
-21
0
-6
-46
18
-26
45
-3
-45
-37
50
-127
-60
-46
26
59
14
19
12
-22
46
-62
-14
13
-5
-84
0
-44
8
7
0
20
127
-105
31
10
73
-1
18
-70
-10
-20
-7
-48
6
-33
-46
-3
4
110
-4
82
41
3
-26
-22
6
-15
-3
-20
-81
12
-127
27
-21
0
-17
40
-78
-18
-35
34
15
-22
-55
-5
-73
68
8
-31
9
42
28
-56
31
-29
-29
27
8
7
9
26
9
-18
-40
90
34
-46
125
-2
29
-42
6
-33
-60
-3
14
-4
3
21
-30
-97
-36
-52
-33
93
83
7
-49
-32
-35
-67
-39
11
-8
-32
-12
-16
59
-61
-47
-47
-23
1
-1
56
32
13
-10
9
25
3
22
-1
7
11
-127
23
127
-38
-44
-19
-49
-13
-13
24
29
-104
62
-8
-36
-9
-17
-38
-27
-24
-17
-26
-75
55
-19
35
-46
-69
-46
-84
-49
19
-25
14
19
4
35
-34
-3
-99
-31
35
-28
12
-27
-6
6
15
-53
127
-48
-42
6
-80
-1
-65
-8
-114
-43
61
76
65
-15
0
15
13
107
-10
-66
38
13
61
-39
27
23
-3
54
41
92
9
106
10
61
-53
-1
-16
1
9
-48
-52
-23
-59
-56
-59
102
-24
58
14
-2
9
29
63
59
32
26
61
-29
-23
127
98
-10
38
-9
37
-55
-3
-26
-63
-18
-38
56
-52
0
-19
-33
-123
-20
83
-90
-18
-69
-49
0
10
-11
-11
-8
-11
32
25
69
99
43
-127
57
24
6
-15
8
17
25
2
19
-37
-39
-37
-35
-107
13
-5
54
75
14
-80
21
-33
-15
4
18
13
29
-43
60
7
-23
30
75
-43
-33
8
-17
1
50
80
-49
-55
11
30
56
-124
27
-7
-8
36
28
75
-11
-17
-16
45
15
-19
-104
7
8
127
-25
-10
-94
114
49
27
19
-6
-36
4
-2
64
26
30
-40
-1
-127
-50
-11
36
6
3
-14
-55
-35
-6
26
0
8
7
-56
-56
27
108
-46
-43
-33
9
56
-62
-21
-87
86
127
-6
127
-79
33
-55
21
38
50
-45
-84
-31
-47
-22
120
5
55
-59
-47
-33
47
-42
-55
23
41
43
-23
-30
-26
-16
48
-52
70
-60
-17
-125
97
-21
-4
127
71
23
96
-9
122
-111
-18
-58
-66
-17
95
-5
44
-34
-21
6
-21
102
-10
1
-13
-108
84
-25
3
60
14
127
-96
-3
20
-45
29
35
93
3
-34
-19
63
-29
68
23
-55
-22
-26
-66
-127
69
70
85
39
-116
43
-51
20
-29
-11
-6
92
-43
-35
40
86
7
-12
127
-59
22
-40
7
-61
-25
27
-6
-24
-56
-19
44
-97
-35
-1
-12
23
-63
34
7
-9
-46
-13
-73
-20
98
-98
-48
-19
-68
36
-120
0
-17
-4
-26
92
31
51
-84
-54
-48
-64
30
-62
-70
47
44
26
20
12
-11
55
-71
-3
42
-69
74
-58
10
-12
31
28
-5
-6
42
-31
-30
37
-40
29
51
-47
32
-2
-1
17
127
14
-127
62
39
-8
-65
-44
21
13
18
81
-21
47
-16
35
0
-73
120
39
-106
9
5
0
-127
-27
-17
-15
27
-29
48
-47
-46
-68
-61
92
-27
41
-61
-4
39
-23
-16
14
37
-15
18
-44
-40
-9
2
-127
4
-15
28
-6
18
-55
82
-101
-7
-42
127
-103
-41
8
-15
81
9
-14
3
-120
-62
97
-38
-99
23
1
-33
29
-6
1
-64
20
14
49
58
-41
17
5
76
36
42
-53
-18
-3
60
86
-17
-15
24
-36
-92
127
-10
-76
-5
33
-3
-26
-13
-12
113
-9
-20
20
-24
-15
-13
14
-114
-66
-55
-61
-95
-29
43
-127
-72
24
-52
-5
-18
-55
-31
-32
4
-13
-3
33
-84
-12
4
-23
-124
-15
-42
15
-15
5
-24
-27
8
127
17
54
19
39
111
78
-15
28
-15
25
41
32
1
21
-1
-10
-13
-61
25
22
-12
-85
6
58
39
-7
4
3
46
-32
-30
20
27
13
-38
-6
32
32
27
1
-107
-11
-3
-127
-57
-24
-12
-2
-90
49
-120
16
-2
-33
-47
3
9
-82
23
-58
90
-9
-3
17
-8
4
19
-78
52
105
-49
6
115
107
22
24
-36
-59
-127
-21
-94
-3
-4
0
127
-13
33
2
24
24
-98
127
-25
10
22
-70
-119
12
-38
35
-45
-28
69
101
2
-19
4
19
23
53
82
127
37
16
-49
81
50
12
-15
-40
-28
28
8
-43
-38
-8
-27
-10
-127
7
-64
39
-11
-50
48
-22
12
54
-55
62
-39
-3
83
119
-80
38
-47
-89
-24
-29
-105
-5
-11
-34
71
12
29
-16
-127
22
-127
35
-9
-59
16
87
-51
-4
11
11
-115
10
-3
-2
-1
30
-12
-14
19
73
-17
10
-77
25
50
127
-29
-31
-29
-8
73
-36
14
-89
2
22
-26
-9
-65
-11
-7
44
-17
-12
-99
-127
64
11
-59
-38
-35
109
121
19
14
35
-28
20
-21
55
-51
6
-4
82
43
10
17
-51
55
-8
6
2
24
-94
-2
-69
-48
13
127
-26
114
-45
31
-39
83
10
127
-42
-54
-50
-1
-5
-127
-34
-26
59
-24
4
58
14
-18
-3
-47
-1
-28
14
10
8
-38
-100
27
10
-2
3
-9
17
69
2
-48
127
-45
34
-83
27
35
-23
-127
-40
-113
-11
-28
28
126
-20
-12
58
13
-21
31
12
-43
44
-7
-50
-19
-4
-76
5
36
-24
-45
7
-8
-62
-63
-86
48
-48
-123
-15
-22
58
92
30
38
-23
-12
-80
16
-62
1
-11
-98
26
-19
-17
127
14
-18
-2
58
-58
-2
-47
12
-107
19
38
2
-29
36
87
-39
65
26
-43
-48
-70
-25
96
16
26
127
-48
13
78
-19
-39
127
26
34
31
-6
-39
-54
-15
-27
-90
-66
-19
33
127
62
-13
-21
6
5
8
-37
9
-6
2
-36
-7
53
-36
-127
-19
-16
-11
32
-10
4
-89
-43
-64
8
-74
-61
-44
-12
35
6
-40
39
-127
3
30
-38
-3
-44
18
-31
-30
-127
-102
-4
-3
-17
-2
85
-42
-29
-98
1
-5
-27
-45
8
-9
-45
-26
-18
-20
-3
4
13
-84
41
-62
8
-17
-17
-95
25
-16
-5
-59
86
-42
-8
-38
27
41
-127
127
71
-10
13
42
-63
4
-14
44
-19
-52
-55
-5
-52
-17
-38
-92
-16
102
-24
127
-85
-15
-18
20
-67
14
72
-70
11
-127
59
108
-48
-8
-4
14
73
29
-28
-24
-74
-69
-7
8
-10
-37
8
-31
-105
3
-3
39
12
-4
-124
-5
127
-61
50
-19
19
-4
106
127
-71
-42
102
-84
-127
9
-119
-24
-10
5
47
-103
8
-121
127
-23
-10
91
-56
-17
-10
83
-66
-71
-84
5
59
4
95
27
-51
6
-23
-89
-106
17
38
17
-113
5
-14
-13
108
-25
-56
-66
-5
32
-28
18
-8
18
23
-62
-108
44
96
-4
-40
6
-3
-40
52
84
13
-15
31
-14
31
-79
-48
20
-38
28
50
-20
33
6
-58
114
-82
39
14
49
19
-43
118
-2
49
-34
-27
-5
127
-60
28
-20
34
-71
-4
0
1
-6
-49
-8
34
33
105
24
117
-44
76
4
64
69
7
-28
127
-13
127
-17
52
-14
-67
15
6
-19
-8
-127
-12
70
0
-32
35
-38
1
4
-34
-4
-41
-24
19
-80
18
-27
-41
-22
43
4
-15
-19
-51
-54
28
-127
-32
10
-13
-34
21
69
60
-82
-11
127
-12
80
-8
117
-33
19
56
-20
95
-15
-34
5
21
-36
-53
-12
19
16
-5
73
24
-10
91
-59
-14
-12
-127
25
-16
18
-6
-13
10
17
59
18
-12
-10
13
4
-24
15
127
36
16
16
-33
-22
-72
112
-27
-37
-57
-24
-3
-73
36
2
25
43
-19
-127
-102
48
-63
-7
-1
127
-89
7
127
-57
-31
42
-20
-48
50
20
-66
-20
23
-33
-27
-30
101
-59
63
-44
11
-11
-2
33
-37
-114
13
-30
-73
19
-1
12
-87
-23
-38
-28
-26
27
13
-86
22
-28
-20
-20
-75
-35
-13
29
30
42
67
-78
49
-36
-10
-16
-30
-30
28
-57
-27
-7
-23
-5
9
-38
-44
58
-3
25
36
-74
-51
-18
16
-21
-65
-3
-112
-74
30
30
-5
-53
113
-2
-39
-5
-15
10
-70
-12
-27
-54
1
29
-26
-24
-73
41
-12
24
28
-26
-2
-20
21
-9
-38
12
17
-7
-9
35
25
-44
11
-30
-84
45
-2
-86
-10
-79
-17
-39
68
10
-20
3
73
6
58
34
-13
-17
-79
-49
68
-72
-16
-32
11
-36
-127
-26
-31
31
19
-7
24
64
-88
-45
-46
-22
27
17
-40
-14
-59
-21
8
-14
-55
-19
-18
13
-35
8
-8
-103
82
-9
63
54
56
-51
-24
-81
25
-8
11
-30
34
0
-22
13
103
-4
38
-107
91
-4
-13
-100
42
119
-35
20
-6
-18
23
20
127
-42
-3
-2
-89
-30
-2
-36
-25
-25
-32
-38
-16
-127
9
10
-45
-41
12
18
76
-24
-24
26
15
82
9
2
-27
11
5
-100
-107
-88
1
41
-4
39
-48
-82
-91
-54
-83
-83
7
-30
-70
23
4
65
23
21
3
36
-29
-20
-58
28
72
-56
-61
98
-55
-10
7
-28
16
-54
20
-12
5
-47
-68
-58
-7
-36
-20
-7
11
12
-55
-69
-72
-33
55
63
-12
-4
68
-24
-72
-68
33
-25
-42
127
-15
25
63
70
-66
93
54
-46
-6
41
-54
67
-61
-63
-127
-127
32
-13
-37
122
-65
-24
7
-3
-86
67
-127
-53
0
-51
-30
-14
-16
83
-60
-76
14
119
10
29
-23
12
3
30
9
0
-10
-46
-5
-43
17
13
-20
-33
3
46
-61
-7
19
13
4
29
17
-1
38
-8
22
-5
30
8
-20
3
-1
22
-14
-26
-127
-4
-63
-55
19
-15
14
-90
-25
15
-127
-19
-43
-15
-28
-38
-59
-69
-46
-17
-53
29
-11
-66
-103
-35
-12
7
-27
-48
-31
-21
91
-25
-17
-50
7
-48
48
-18
-17
6
-89
20
-82
15
-19
11
26
12
-22
-25
-51
-12
-19
9
-50
-24
-101
-38
80
-35
10
13
91
-107
-43
63
13
-37
11
-15
-20
-2
-101
127
20
-52
2
-54
-18
35
-16
-72
-21
-33
12
3
-50
-2
-39
-54
20
-26
-17
-43
-42
6
-10
25
10
-55
-50
17
-15
127
15
-32
33
-52
-75
6
-11
-50
20
127
24
-19
22
26
-18
-45
6
9
21
-2
28
-50
5
-121
-1
-18
13
18
-45
28
-15
-83
-105
-14
30
-68
-27
-39
114
-44
32
-24
-75
-28
-26
-18
-30
-21
-12
1
-1
-14
59
99
45
18
-21
17
-40
-1
-78
-64
-43
-11
44
37
33
-45
-64
-27
8
-44
4
-36
-20
-45
-36
-127
-44
-30
-14
-47
2
38
-54
-5
-43
-16
-54
-17
51
5
-32
24
-46
42
-12
-35
-40
15
-54
1
51
-19
-14
-40
-12
95
-41
-7
60
19
6
7
29
-33
68
62
-37
10
23
-30
-27
23
-13
-16
-8
-29
3
-12
19
-49
-28
38
-4
-25
-15
-86
10
-67
-65
-44
-2
-29
-23
-85
43
-52
-12
-22
-56
62
-66
68
-25
-31
-26
-16
-127
-6
-38
77
43
-5
11
-78
-9
9
95
-8
-64
17
-57
-25
-17
-127
-16
22
-4
-21
5
-22
-37
-8
-9
12
-12
-40
-20
5
127
18
0
-93
-3
-6
51
-68
-1
29
-8
3
-53
-35
-21
47
-45
1
10
-48
-59
16
-16
5
82
72
44
-70
-127
59
94
-2
-13
-68
-20
14
41
15
-126
102
-39
18
12
-17
-108
-35
-7
-116
78
24
-19
-39
-37
-76
30
-18
-52
-49
-22
-88
-108
-1
-58
35
-5
-74
6
31
-21
-43
19
-2
101
27
-73
-84
-58
65
-50
-127
-5
-29
-8
-86
0
-33
-16
-74
-39
23
-26
49
16
-29
-36
13
127
19
-127
127
13
8
-59
20
-58
-1
-6
23
10
29
-77
-31
-37
1
-75
-39
-127
-81
34
19
99
-90
-9
-123
-86
-53
-22
-34
31
-17
-12
-8
103
-41
37
-10
-72
-61
16
-104
29
-112
-11
-78
75
-21
50
12
-87
-55
-105
-48
-52
-27
21
27
37
-53
-3
-66
-41
-5
-48
0
33
-20
-16
-52
51
-45
-127
-61
-43
-22
-21
-32
-59
21
57
-54
-50
-57
45
28
-111
-35
-85
-3
13
-63
-26
-127
9
-11
-127
-10
-42
46
-91
-21
-44
8
41
3
-8
-57
-53
-85
-105
20
55
-100
0
-19
60
-96
-68
-17
18
24
-16
4
37
-5
12
-67
-48
23
-79
-127
-56
-22
-11
-1
-56
-126
-27
-20
-127
-29
28
68
-29
-27
59
13
-3
-34
-77
-127
-82
109
19
41
13
-8
-8
-11
14
10
-77
71
-51
-5
-53
-62
-9
17
10
18
32
2
36
-88
2
20
-115
-90
1
12
23
107
-1
12
16
47
-56
-62
-17
44
-28
30
21
-8
-40
-98
17
-48
25
-61
-35
-100
42
-111
-14
-19
-4
-42
19
-24
-44
-11
-30
-56
74
-18
-72
-21
-43
-126
-35
40
-41
74
-56
8
-30
-27
-5
-19
-41
9
-100
6
-116
-57
-52
-2
19
-33
-12
-62
-15
119
-47
11
31
-19
14
-77
-2
-68
17
4
-9
-8
-48
-34
57
-104
-94
-88
11
0
60
-127
-33
4
-76
-27
18
-8
11
-4
-36
64
-83
-58
-82
-60
-10
12
-22
-99
-14
-26
-3
55
-51
33
-39
-59
-44
11
-20
-55
23
-11
23
11
-28
4
55
-7
-9
-108
27
-81
-72
-27
19
-34
-65
-9
-127
22
-127
73
-25
-49
-127
-20
-15
-22
43
20
1
14
121
-21
-117
27
5
-27
-127
-23
2
-67
-89
40
-90
16
-109
-104
-42
-56
54
30
9
12
35
-18
-19
-65
-9
-43
12
32
-3
-61
-41
-7
-53
-16
-28
-97
-127
-13
-62
10
-25
-50
-23
19
-24
-95
-84
-47
-3
26
-4
-91
24
11
27
-6
44
-30
8
-122
13
-25
-43
1
-37
4
24
11
-58
-80
-35
-63
-9
-80
-86
50
19
-30
-61
-16
36
41
-66
23
-17
-31
-47
22
-59
29
127
14
21
-46
-127
-3
-127
5
-127
-43
87
55
-35
42
-8
75
-127
-127
-29
-3
-87
-2
3
-90
-106
-82
91
-81
-76
-12
-113
48
7
-127
-34
23
-32
-65
-97
42
32
31
97
-121
-22
-127
-2
-37
-87
-7
-74
87
-127
-48
-127
113
-35
58
15
-33
-91
-14
-95
-94
77
-76
22
11
-13
34
-98
3
-74
-56
22
-18
14
-9
-37
-95
-67
-78
36
-100
-17
-127
11
-54
-35
-48
12
9
-48
65
-52
41
33
-31
-50
20
-47
-28
-81
1
16
-2
20
-10
-61
-82
3
-54
-70
72
2
-39
-41
-46
-42
-127
-83
-59
-34
-72
-52
-3
63
-127
11
-20
46
-96
-54
-84
-84
40
28
16
8
-96
-78
13
-25
-38
-127
-46
-7
-59
-112
-127
1
32
-17
47
-73
-26
40
-92
127
-6
-78
-10
-82
-26
-9
26
-5
31
-74
-6
-10
-58
-41
-4
-2
-31
52
65
13
36
-117
127
1
47
-41
-127
49
-71
127
-9
-14
-9
127
-68
-77
33
-49
-13
-127
-53
68
-38
6
-26
127
-35
-16
97
42
-77
-36
62
17
-6
21
18
12
-3
38
-43
-113
28
40
68
-29
22
7
-10
60
7
-50
-36
54
56
4
-35
76
-4
-45
-4
8
-38
-2
-63
-21
-33
41
14
-28
127
7
3
21
127
-68
22
17
-88
27
40
33
33
50
42
-1
-77
-15
-32
0
-29
96
-42
-15
16
-38
-107
96
23
-78
101
75
-54
-53
34
59
83
36
15
5
60
78
11
-6
26
38
-93
3
112
0
18
24
55
-9
-35
-23
26
-41
3
44
19
-92
1
52
18
-17
13
76
-118
-21
-13
-10
48
-68
14
67
-53
-18
-10
16
104
35
61
8
-34
36
40
24
22
7
-29
-12
4
-41
-125
-99
-63
-34
-107
3
39
77
6
22
-106
15
-42
1
98
-5
89
-93
-8
29
37
-24
56
37
-40
119
-1
-22
49
57
-57
26
-4
42
-47
-105
47
-25
13
-33
-28
112
62
-17
12
9
-41
-41
37
92
21
58
-105
81
-38
35
42
-56
9
122
17
8
83
2
-67
76
127
-41
-40
12
91
-74
-83
14
8
37
-13
11
-12
32
-10
49
127
-2
-90
-107
34
15
36
28
73
-38
-44
-77
-11
-33
-31
4
-5
-42
5
89
-75
-22
-25
-8
102
-84
-53
4
-48
89
-72
-6
-6
-18
-90
127
-58
-91
-78
2
-91
14
-40
-16
-52
65
46
-53
-8
12
22
-67
116
16
-40
7
45
-56
-42
92
-75
6
-32
-63
-3
-45
-40
101
-34
6
93
-48
21
-70
-62
-40
-36
25
-4
-35
-15
50
-36
-89
50
127
60
-60
34
110
81
22
50
11
33
-24
17
53
-32
17
-70
-44
37
-52
100
-2
53
-21
42
-70
113
-11
-127
-2
-66
-68
-20
11
-8
-50
-53
55
82
112
1
-57
-6
-13
-30
30
127
19
24
-53
57
-15
-95
17
24
58
-52
-106
19
37
-13
-35
15
-108
45
-48
9
-27
-44
28
24
48
18
57
0
-51
-12
-73
127
-73
19
52
89
-66
-29
-52
79
5
-82
-67
-36
-104
-17
-9
14
-8
-33
-22
28
-16
2
30
-76
-67
25
25
-65
3
30
-55
-73
-57
45
-127
-3
-64
34
4
-83
-68
-29
-116
36
17
-18
-70
28
104
0
-22
-15
47
34
-32
-54
97
31
127
-9
-14
26
-18
71
-96
-56
16
111
37
127
20
11
-34
3
-6
44
-54
-65
-3
20
-119
-13
-114
75
44
-32
17
90
-55
-12
-24
19
-52
-28
-1
-88
-14
-55
29
-24
-9
-19
119
-27
40
-18
47
37
32
-80
75
68
-82
-127
10
-66
78
-65
-78
-30
30
-63
55
-14
-45
-34
93
-46
10
-40
-14
-12
-8
-38
25
-2
-64
-53
-77
-31
-2
77
-52
91
1
66
-26
-66
18
-67
127
-40
-20
53
25
20
14
-49
28
-1
-127
35
-15
-7
49
-12
25
-42
-28
-91
-56
76
-33
4
97
-72
95
-12
50
-7
21
-31
-36
-27
-29
67
-24
-12
28
-59
-9
-76
70
-78
-12
103
-116
107
0
-76
-48
-11
-7
26
16
-41
62
16
13
-31
-18
5
-5
-127
40
-17
79
-37
12
21
99
18
-1
-79
-9
17
-28
39
92
-4
-22
25
-112
-56
-47
1
-37
-20
-6
-13
-68
127
44
9
-66
-57
14
-27
11
36
-18
6
81
4
25
3
-115
-18
87
-67
-78
43
33
-21
76
-54
7
-121
98
7
14
0
-73
-127
28
-3
-5
127
-46
-34
-5
-49
18
-80
-18
16
-88
43
-6
-39
-3
-118
-74
8
73
-20
90
20
-25
-74
3
-11
8
-56
-88
-82
10
-107
17
0
-4
-54
-19
-14
-3
0
-53
-53
9
127
11
11
22
38
9
4
-11
-8
127
73
-67
0
-19
63
-67
-27
-7
-18
-13
39
-92
43
22
6
-61
-63
-70
97
-8
-40
46
-1
-64
5
70
-31
-3
-7
-68
-25
24
-94
-68
-93
-15
40
-75
-127
41
-73
100
-11
29
-30
-127
19
83
-13
-127
70
-19
-127
-18
13
-58
-1
-125
11
1
-62
-27
-57
118
30
19
20
-44
84
28
-7
-52
-22
12
89
-7
6
-97
-59
-29
11
41
23
-41
-73
-80
27
-16
-38
-22
-127
72
-68
26
28
-4
-28
47
3
-2
127
12
-47
-25
46
-33
3
-23
-24
25
94
-26
34
62
-36
47
8
-30
-19
-15
-50
-42
-44
-95
20
35
43
-27
127
-57
-18
-44
65
-30
-44
-35
-8
-13
20
-70
-5
-27
-127
92
-9
-12
-27
25
13
-51
59
72
9
-98
-66
-96
21
-42
36
-6
-29
-71
32
-61
-116
-24
5
-125
56
11
-67
4
-14
-13
21
-68
-26
-43
8
-30
40
18
93
-39
41
-28
-127
-54
-21
-1
21
-90
41
-3
0
-45
-4
18
-19
65
-32
-25
-23
-48
11
-96
12
-32
-41
-103
-62
28
-20
-43
127
-88
-57
-42
-57
-86
33
0
5
-15
21
-74
-78
-6
24
58
23
-10
-90
-12
-67
-127
89
-2
-7
24
49
-12
12
-5
-36
-6
12
-86
-8
38
-1
-80
-117
-48
65
38
32
2
9
-25
8
2
-127
-15
48
-48
11
-28
20
-127
-82
16
32
13
-44
-97
-73
-26
-6
-30
-23
33
-24
82
-127
12
-127
15
-127
-75
-47
107
0
-11
67
69
-28
-18
-13
33
-75
-54
-124
-93
65
-48
68
-13
-26
-46
-13
-26
-10
13
-44
-64
79
26
-9
82
82
1
-1
-15
-16
-41
-33
-21
-32
20
-98
-69
-27
-38
-127
-50
15
-20
-36
78
14
28
-32
-28
-40
-44
42
127
18
58
10
78
-1
127
-8
71
71
46
-91
0
127
0
-20
-21
21
-5
-66
27
-127
127
33
-34
10
16
53
40
-25
33
-23
-13
33
-75
-16
-16
45
-23
-26
-127
-8
92
-63
-28
81
71
17
-102
-71
-28
-79
-37
-21
-121
20
-21
-13
-82
68
-24
13
-19
-44
-61
22
-12
15
-104
-34
-80
-37
90
-9
-66
-4
-38
32
23
24
13
84
39
-23
-21
-16
28
83
10
35
-35
8
0
-40
-5
-7
70
4
-18
-127
-12
113
-14
-38
-127
127
27
-8
-56
-34
6
49
-14
-2
37
6
-1
43
-112
2
37
21
-2
-18
37
44
53
-17
-61
90
-64
8
7
90
14
-7
-25
21
69
-94
-33
-79
-7
127
-7
35
-66
59
-24
-56
-16
-19
-6
-92
78
-13
4
-34
16
-1
-79
-61
25
-26
22
-32
34
-48
13
27
-88
67
-127
28
-18
-16
5
-32
-6
16
3
-70
19
-63
-97
-2
-1
22
-72
7
68
-127
-51
-17
2
-73
-27
22
20
16
-13
11
-79
16
25
-18
53
6
16
1
-1
-21
-67
-31
-23
19
-127
-39
-13
46
3
4
-90
-33
-81
89
-25
-2
-54
-45
60
-68
-43
-30
-14
-9
64
-68
43
-28
-19
-13
-19
-32
-33
-41
-3
-15
-49
-35
-66
-49
30
-19
10
12
71
34
-9
-62
-107
-108
8
-17
-76
-17
10
17
-81
-76
64
-1
-7
18
-55
-90
-17
46
2
-50
-43
-25
-48
-121
-14
-48
-79
-35
65
-43
34
-105
-21
-12
-10
-6
17
3
-27
17
-57
37
4
-45
-5
-16
-20
-127
37
-3
19
-7
68
30
5
19
112
-60
-58
15
-86
-66
46
-20
-14
-11
98
41
13
-13
58
5
-29
17
16
-27
9
-127
9
21
52
31
93
-3
-6
-26
-11
-11
-23
15
14
-16
-25
-27
-12
-11
-7
-83
-28
53
-19
-11
6
-49
-20
11
74
1
91
4
50
-45
-80
36
-8
-108
-22
9
-74
3
-8
81
-5
-29
-11
112
-46
-86
6
85
51
29
94
63
-14
-57
78
-127
23
112
-2
-10
25
29
-105
33
35
-4
-43
14
-52
12
127
23
39
-20
127
17
70
123
-53
43
10
-21
-24
-51
42
110
43
107
8
3
-69
-83
83
7
-38
-106
-28
8
-47
-10
-30
36
23
-34
-26
-66
2
-14
-3
4
22
-83
-26
-39
-46
68
-16
-50
30
-31
38
-7
5
17
-27
40
-63
-35
-22
-110
-19
65
-71
21
-13
-26
-44
-30
47
-76
27
-118
36
88
127
127
-5
77
45
76
-36
23
27
116
-3
17
52
31
10
-45
45
-40
0
-32
-18
-56
-26
-76
5
71
77
105
-3
-60
82
-34
32
29
-8
-29
16
-17
25
27
-127
-51
-21
-38
-39
23
16
-17
-18
-87
-75
-28
-38
-16
16
-28
-98
114
46
-43
-41
26
-41
-19
-30
53
-4
43
-11
-33
-21
-21
19
-40
-35
44
8
26
-99
-51
38
-61
59
-21
1
8
-127
-8
31
-19
-80
9
18
-27
-16
30
56
36
-52
-28
-38
28
-36
-12
19
2
35
31
35
80
-20
-25
16
11
74
31
-24
-18
-99
115
-54
13
31
46
127
-65
-98
-19
95
48
45
-38
-24
17
12
-74
-4
46
-14
-22
-37
16
-41
86
-42
-43
-104
-6
-33
-36
-47
20
-45
-28
64
34
-1
40
-50
-35
-2
-46
-32
-52
-7
54
-22
53
73
28
-19
11
22
-113
6
-9
95
-94
-46
-37
2
8
-127
26
80
48
-2
-33
36
-17
53
40
-92
-7
-7
-20
61
-8
-37
29
8
-7
67
35
9
21
-46
-10
-69
-27
-55
-37
16
-93
-24
-28
12
-75
-49
-39
-35
36
54
-45
127
-17
-6
-15
0
-58
-15
-84
63
-34
-16
-32
0
29
116
43
18
127
66
49
-71
-25
-67
127
47
72
127
-61
-107
-11
51
7
-29
43
-127
-14
-20
6
59
-27
-32
23
-31
-41
-1
31
-43
63
-109
-5
26
44
-1
-9
12
-14
-6
-17
26
-44
-106
-18
-4
12
83
-67
58
-19
107
-127
-57
14
0
-127
-45
90
-122
31
-34
-21
22
8
-81
-59
-124
-88
-2
-26
-31
8
42
1
-5
-21
99
9
-41
16
-9
-65
-79
-12
84
-47
-2
12
-58
-50
-63
-14
-34
83
46
84
66
-34
24
-19
70
-74
44
-123
-63
-22
-32
-27
-53
-104
45
-39
-13
19
63
15
29
16
-41
-25
-35
-42
12
-68
-18
-33
-32
30
19
4
92
-69
6
-5
6
26
113
-30
-20
74
17
18
-51
-41
32
76
29
20
-32
-49
19
22
-28
120
18
34
-19
14
-84
49
-49
-10
127
-51
-61
30
55
31
6
9
73
21
40
-5
-8
33
3
-8
-27
68
-12
-24
11
-77
55
12
33
-21
-62
16
-12
-102
-84
-21
96
105
-33
-92
-127
-81
-11
-58
-13
-52
65
-92
-7
-38
-32
-99
34
-93
-8
61
71
-52
-43
2
-91
-42
3
112
-66
97
-85
53
-35
5
10
31
-35
0
-4
-47
28
-14
-115
-12
34
11
28
-2
29
-54
23
-100
-48
-45
-46
19
-44
42
-5
-39
-96
46
6
-26
-14
-48
30
69
-70
-49
15
15
10
-58
-48
74
-64
-9
0
-8
68
-118
-19
-4
120
-99
45
-64
-28
-46
-122
22
3
-12
-28
-28
-27
70
51
54
-110
-10
17
43
-127
2
-39
15
8
-102
-46
29
-64
-19
57
9
13
10
76
16
15
-46
28
52
2
52
-41
57
12
-4
9
-73
6
-76
42
-75
15
-18
42
43
37
23
-41
127
57
-13
15
-37
-15
-56
0
2
-41
5
-57
19
-80
40
-43
12
-49
-11
-97
-127
19
10
5
-39
-66
58
-14
5
-93
56
-28
26
-10
-30
-35
-8
127
8
-89
18
-77
63
-56
45
110
34
-18
33
26
25
-30
-108
-55
-25
-57
-57
-6
-19
-13
-25
-14
-48
-58
52
-33
-36
127
-6
5
-32
34
-5
10
-26
-22
-7
-6
-67
-7
-17
26
-10
2
-50
-46
-24
-5
-94
91
-53
-29
-1
-108
-19
-60
-26
-58
-127
16
-66
127
31
45
-31
13
-31
23
-65
22
-30
53
14
-32
-87
0
77
-49
-41
-127
37
7
5
15
-46
12
-49
41
63
77
-62
-107
-33
-12
-11
-5
-35
50
36
-54
10
-125
10
-11
-27
-101
-54
13
-7
-56
21
40
87
-12
-57
-24
35
-51
30
-29
7
-37
-63
83
-78
-22
-47
-3
-3
-127
-6
25
-57
89
-34
2
-40
17
2
-5
-35
-9
-116
-61
15
-20
31
-10
27
64
-25
3
10
-41
29
-92
-88
-34
-100
4
-59
49
-47
-16
-31
-7
-19
50
-13
-8
45
56
-63
8
-38
82
37
39
4
127
-10
45
65
-25
-52
-5
-5
-24
-80
-127
43
-127
-70
-36
-70
-116
-25
-32
-69
-36
-127
-78
-2
7
55
24
87
43
-121
60
68
-46
-37
63
-23
26
14
-21
7
-6
-21
118
-43
-8
-2
26
35
88
62
53
-4
31
-19
4
74
3
-14
38
-21
-9
-14
29
-117
-35
-10
-31
-3
-77
-25
-14
-81
-32
-85
-84
22
-55
-9
-12
110
-42
-11
46
41
-50
35
-32
27
98
-27
-11
-36
0
-85
2
-67
61
-5
57
53
-32
-18
-127
-10
-21
-107
40
127
29
127
15
1
-61
-127
-26
17
-36
-84
-123
89
-33
68
18
-67
55
3
-58
-30
80
-52
-83
28
10
53
-97
-3
7
4
-64
-32
-22
34
-8
10
27
53
86
-50
43
45
27
-7
-43
-91
88
-38
25
-55
-65
37
-16
9
-19
-83
59
-44
68
-20
102
-28
-36
81
-101
63
-43
25
18
-27
24
15
-101
-7
-122
37
2
46
-127
60
38
-127
30
-10
-9
-17
47
-9
-127
10
127
44
93
-12
20
-11
-46
3
-33
-10
-7
47
-17
6
36
-48
-1
-25
-70
-43
-27
23
-113
69
-4
-17
127
5
-40
36
-21
61
36
-32
3
-31
-50
127
-6
-36
16
23
12
-48
-61
70
-18
-13
32
10
-56
-38
-18
-15
9
-23
-52
-13
-16
32
8
14
32
74
-28
10
-26
127
-114
-1
-22
36
43
2
43
12
107
-29
27
-91
-6
127
60
1
-127
-61
-10
-42
113
-10
82
85
-41
-87
-117
48
-86
0
-30
103
-49
-11
-13
-59
-22
-10
102
8
9
-89
-8
30
6
89
-71
-36
14
83
-27
-74
-60
-4
-14
62
-14
-89
121
35
-33
-6
49
-6
-33
-5
36
112
4
-25
17
18
23
8
-9
45
-127
-12
13
-19
12
-40
-24
17
117
4
-57
6
6
33
17
4
-6
19
-59
-48
-36
-64
8
7
-10
-27
-16
7
-14
-12
-33
-127
-19
75
46
9
-8
-23
90
-18
-17
4
124
43
-25
0
13
-29
27
-11
69
6
55
-1
-11
32
-2
17
-76
-9
-92
-75
2
10
-33
-8
-22
-65
-24
62
26
-5
-77
-5
75
25
-38
-4
-9
79
53
-58
-21
-81
48
7
-17
3
27
30
30
-22
-29
19
19
-36
-1
5
-51
4
-51
-30
-17
-27
98
45
105
56
-30
-35
-6
30
5
9
18
34
25
59
38
-20
-19
19
9
-17
-101
-24
-16
-76
0
14
-32
-41
-12
-13
8
36
-10
-17
-4
-33
-17
-12
-32
113
-11
11
8
-7
-16
-79
11
92
-24
76
32
-127
-91
-15
-41
-8
-29
7
-7
12
3
13
-8
-21
3
32
-8
59
-16
-13
10
25
-27
6
-9
-18
18
74
-51
27
21
44
5
-26
0
-1
-19
-3
72
-26
-15
24
-21
69
-33
-8
-14
-60
7
48
49
7
-13
-40
-127
85
-65
103
-76
-21
2
-59
-8
-39
2
58
12
53
-7
-16
2
122
-84
47
-14
35
-59
-48
52
-15
51
107
5
-37
-20
-12
-100
3
-19
57
48
23
-127
85
-127
-22
-17
-7
-2
-56
-70
40
0
123
-1
-127
-69
9
-22
38
-10
35
18
8
27
80
-1
127
0
-22
23
10
-19
-5
-109
127
10
10
-20
6
124
82
-25
8
-7
-79
2
25
127
-70
95
-127
56
95
20
-27
-27
-51
-127
0
-3
-55
38
85
7
18
-8
3
-79
-127
18
-27
127
1
-125
33
-127
3
28
-76
19
7
-23
-92
-19
3
-57
-69
28
-39
127
14
57
-14
-124
47
-17
-2
9
48
-28
-63
-68
125
-58
71
46
-8
-30
9
-1
11
51
-24
-38
40
-11
46
61
127
-10
11
-20
13
31
6
-10
-19
91
14
47
-19
-25
10
27
2
73
2
115
1
-23
-31
-7
32
-127
53
116
13
-15
-26
-11
-12
18
-22
-29
127
-10
-123
-29
71
1
62
-70
-68
24
106
8
-70
59
69
-29
-6
0
-5
44
47
63
37
-32
-31
44
-40
-77
22
-11
-31
-104
10
-1
52
-18
113
19
-37
-53
1
15
45
37
3
16
-15
10
59
25
14
27
-32
-53
12
-42
-28
1
-48
-11
-17
-127
-17
92
-38
22
78
17
16
23
40
-51
15
6
26
-34
-13
23
127
-36
82
6
22
45
-17
-4
-7
-66
-31
55
-58
-23
127
81
27
-71
3
90
8
112
-1
65
18
13
-11
43
-60
33
80
-4
-3
42
-18
18
-19
-63
33
20
21
2
28
31
28
-55
127
2
8
-13
36
5
12
34
-9
8
39
36
11
-5
127
-95
-41
-34
13
-1
-10
127
18
-46
-23
2
-46
-70
-92
-10
7
33
39
2
-48
30
18
2
-38
24
112
-19
-7
4
32
44
105
-19
32
-4
-10
-80
11
-5
29
21
3
27
92
0
46
24
-74
26
-15
86
-2
-22
-37
13
9
-4
-8
-50
-14
-6
69
29
14
-28
-3
-17
75
-51
-16
-9
17
-34
-10
4
-61
9
17
-6
-27
-38
-6
-8
-14
-46
-23
-45
-18
24
-44
49
-117
-14
38
-16
14
18
38
5
35
-8
-2
-26
-30
-69
65
8
24
96
24
5
127
66
5
-18
-4
-22
-49
-60
6
-33
34
-9
-98
-86
46
-3
41
127
-20
-14
-29
35
-28
-64
51
-98
127
38
16
-64
59
-22
-28
-106
-32
-13
-64
-22
-16
25
-98
19
-68
-17
-43
-105
-67
21
-28
-65
-69
-50
34
-59
-76
-18
-24
-127
-46
-33
-127
-70
69
-79
61
-70
75
-39
-15
-8
-47
55
21
-47
-42
-13
9
-96
18
-24
-21
-8
-118
-11
-19
56
-58
-32
25
56
-55
-54
-78
-20
5
-9
10
-43
-93
46
-53
-90
-25
13
-20
-94
-7
127
31
42
-58
-53
-51
-62
-7
1
127
-65
-34
-30
54
43
87
-25
-19
127
33
16
-52
86
-127
-53
-11
-9
-39
-5
6
5
83
-35
2
-47
-32
-43
-96
-17
-43
59
-43
22
-4
-66
-74
52
14
-14
-91
-30
5
20
-78
-64
-51
-57
109
12
-40
1
-15
-32
-126
64
-16
-82
-119
-27
-59
-36
59
127
-15
-53
34
53
-47
-13
-56
27
5
2
-95
-71
80
112
-4
-44
-5
-31
61
29
-107
18
23
-22
60
-10
-25
-55
-115
72
45
-90
13
-21
-127
43
-55
-114
15
40
-63
11
-20
-38
-52
35
-33
15
26
2
-2
-6
-53
48
-49
32
-89
-22
-55
-6
-127
91
-3
-58
-14
-1
54
-9
-34
63
-64
-20
20
-12
-1
18
-23
-6
-54
18
-40
57
16
14
-7
6
15
-24
21
-35
-6
-17
85
-13
28
-27
-14
-34
-36
30
-17
-10
21
-17
-9
-105
-9
42
-62
-48
-64
-14
-59
-25
22
-23
-22
-48
-81
49
2
14
-9
-77
13
83
-6
-69
73
-79
-27
13
-12
-35
-11
13
-127
28
15
-127
-45
-37
4
-106
-24
17
-19
-53
-56
39
42
-31
-37
-22
-89
-35
0
-11
-7
-12
-39
-61
43
-4
15
-35
-66
3
7
16
-36
-15
25
-86
-31
-30
114
-14
31
-53
-73
-10
-1
-24
-12
-28
-37
16
32
13
-73
-68
44
-16
-27
-31
-56
14
84
-56
-25
-67
-83
-21
-20
26
46
-32
-2
-13
-67
28
36
-17
-22
-2
0
-22
14
-48
17
-88
44
-60
-81
-116
-56
10
-58
10
-3
-69
-55
-80
-72
35
-94
-71
17
-49
-50
25
23
15
-2
-26
-64
-1
-14
95
127
-66
72
66
-88
41
-2
-6
48
28
105
-9
-57
-83
-31
-74
-91
37
-76
55
11
-21
-6
53
30
-33
-17
53
-1
-12
-30
36
25
-10
42
63
29
11
-17
76
-30
117
-80
28
-29
-2
67
27
-39
4
-36
-87
-22
-79
-5
11
59
-48
-79
44
30
58
-73
-79
5
43
-73
6
-82
-57
-2
-4
1
-36
26
60
63
53
23
-20
-3
12
-16
-10
-2
-30
-38
24
-17
19
1
3
50
71
-16
-11
7
-59
16
5
-10
-8
-18
-28
41
45
-15
15
-38
-50
1
41
2
-72
-30
-23
125
6
-97
-14
-41
24
-25
-127
99
26
-45
-41
49
31
-58
-33
-69
-3
-17
-127
25
-27
-80
113
28
-124
-4
-16
21
-8
-16
-58
-112
-42
41
18
-74
-112
-14
34
-36
-31
-21
-54
-31
-46
-119
-13
0
35
-29
3
26
-74
28
36
-114
16
60
51
-40
-13
24
7
90
-31
63
62
37
-86
76
101
-43
11
67
-67
-18
-52
-19
-77
8
2
-79
-9
87
-2
-125
6
-20
-38
58
-44
-8
-5
9
-54
33
-21
-24
57
-6
-40
-63
-26
17
-20
-29
-47
-30
-3
-21
14
-54
5
41
42
-16
-43
-22
-87
21
22
-76
-55
-65
-56
-78
13
28
-7
127
38
55
-64
25
99
98
14
-12
-17
-106
44
10
18
-19
-6
-85
-31
-46
-27
-37
-21
-12
36
-43
-29
-19
8
19
93
19
38
0
24
5
39
56
-31
16
16
109
6
-80
-11
70
24
-30
19
-51
-78
-100
-36
48
33
-55
-30
7
-46
-67
27
-52
58
-18
127
-9
4
18
2
-28
59
-9
-31
-15
10
14
21
-9
-13
44
53
-127
-15
37
-48
4
-14
0
-49
86
17
11
-17
-3
-8
-29
-22
4
6
6
60
64
-33
4
36
-7
-18
24
-49
38
114
-35
114
-74
5
81
45
36
52
10
27
4
46
-76
127
42
-23
43
-17
-27
33
16
-4
2
14
-10
-19
15
48
26
-70
4
-23
-9
-51
0
-42
47
106
50
-25
23
-6
51
22
-30
-11
23
-2
-41
-36
-58
18
-10
10
38
5
83
-43
-127
-18
-9
27
27
6
15
107
18
17
-11
11
-23
-28
19
28
11
45
-2
34
17
8
43
24
5
-46
11
-4
-5
24
-30
26
15
103
0
-23
33
49
36
-14
2
38
-21
76
61
127
4
52
65
13
-36
14
57
7
5
-38
45
73
-8
69
-25
30
-1
15
42
11
-70
17
-3
-8
96
23
-4
1
14
-1
-14
-5
68
11
-63
53
29
74
-20
33
30
1
-26
-42
-2
-5
-19
-12
84
-19
-56
49
84
64
-52
-35
-51
61
-6
24
-10
57
-36
31
49
20
-56
21
14
-31
59
-24
17
4
79
34
-30
10
-25
32
14
-7
10
75
-79
0
-10
-28
-63
37
-37
-13
9
-30
-127
26
48
-53
27
127
62
5
-50
-127
-17
54
-62
53
15
38
35
3
-14
20
2
-7
8
100
32
17
-15
-61
36
46
0
83
44
-5
-32
21
3
98
14
3
51
40
103
19
106
-37
-20
1
24
93
41
-14
34
13
44
23
35
5
-65
-20
-4
-3
26
13
10
-31
23
44
44
-68
49
-24
-22
44
-12
-10
9
33
-4
70
-6
5
15
20
43
86
8
17
-63
-25
10
-20
13
29
-34
6
107
-18
-1
9
32
-1
74
-24
-37
64
1
74
-5
80
25
20
17
-23
-2
-4
20
-99
-34
-10
54
-22
26
-121
9
-54
-19
23
46
111
48
-5
50
-1
-30
47
-20
-59
81
68
9
58
3
-22
25
17
-28
-11
-24
-37
33
-33
-35
2
-11
35
94
-19
65
-52
60
36
1
127
-37
24
1
-10
8
23
42
73
15
-34
-23
-18
-21
-8
20
23
50
-119
3
-71
65
-34
30
44
21
-22
4
-53
32
8
-73
-50
7
4
25
-6
15
2
-70
78
17
-1
-36
39
17
-1
-16
-9
-59
-46
77
2
-70
-5
28
92
-35
-15
0
-48
-34
-127
-104
0
7
37
15
-8
47
54
46
-28
68
20
22
67
105
72
1
-8
58
-43
13
50
-12
-127
35
-21
8
30
19
9
53
-40
35
26
-73
76
-14
15
34
-4
-53
34
15
-127
17
127
44
2
127
46
-33
-8
24
39
-56
-44
62
26
-61
127
-28
0
-9
-38
15
8
-18
71
-3
33
-13
39
-21
12
-12
33
-60
-17
33
1
31
11
1
17
-29
13
-5
41
59
-44
2
84
-64
-11
4
-88
-26
65
33
68
10
50
-14
-44
28
-14
-21
21
-17
-40
-26
-127
45
-17
-19
-33
-31
-12
10
-5
-37
18
80
49
-64
33
-73
-20
-58
-13
29
83
19
35
24
60
34
20
-31
-51
-72
-51
23
-25
61
8
127
5
-101
106
62
-11
-5
-31
65
21
30
0
21
27
-34
-48
-16
-59
-51
11
-85
-127
-9
-6
23
-4
-105
33
-23
29
-65
-47
-17
122
-89
32
4
-64
62
48
-40
72
-22
-15
-33
-9
-1
18
-22
-3
41
-61
43
-78
-67
-28
-14
10
-21
-18
48
-54
2
52
20
-92
-40
11
4
-29
-31
-9
-1
-4
-2
-53
3
23
-127
-22
-42
-39
-58
-22
16
45
-46
11
-59
-9
-76
-127
-28
42
-74
53
6
-18
-20
80
-98
-84
-47
-52
4
111
7
-18
-127
-16
-33
-25
-37
-51
-11
14
-43
1
-34
-46
-57
-19
-32
-20
6
45
-46
-11
-28
-52
83
-3
-87
7
-51
-5
-45
46
-51
33
-67
11
-22
-9
-13
-2
30
14
-14
-71
-10
-1
-57
14
-24
-77
-80
-20
-50
21
12
-2
4
-14
-14
-2
-24
111
-82
7
-30
-35
-47
18
8
-32
1
-36
100
-12
-127
-11
-62
36
-46
-83
-5
15
-31
16
0
7
-3
-20
-19
4
-46
-39
-33
-80
35
-47
-81
-50
-65
-38
-24
-100
-45
-32
14
-3
-117
20
26
7
-1
-5
8
-8
-16
-85
27
-109
-20
-31
27
45
1
-5
-86
-22
-9
5
-17
-9
-16
-11
-39
-24
-3
-44
-44
-8
11
-107
-79
0
-30
25
-86
12
-16
21
-6
-76
-55
-13
-67
-39
32
-7
-93
-89
-9
-15
-18
-41
-33
-20
-48
8
-61
-105
-12
-27
44
20
-47
-11
-7
22
-29
68
-68
-40
32
-110
-35
15
24
-49
6
-26
40
-12
-7
15
27
0
22
35
-36
22
-52
-85
-8
-27
-52
-31
-6
-20
-56
-6
-23
-31
21
-24
-6
-5
-56
-4
27
-30
-17
-11
-2
-8
20
-45
41
-39
-5
-47
-26
3
-10
-64
-5
-71
-32
-36
-19
-16
-22
-19
2
21
-38
-40
-33
-4
-40
-124
-92
-52
-32
-80
20
-35
-41
-24
-38
-45
-5
-79
17
-52
18
-126
-70
-31
-62
-47
-81
-69
-21
-80
-44
27
25
-7
-6
-30
21
-35
5
-79
-57
-89
28
-36
-29
-57
32
-66
59
-19
-21
29
-5
-84
-37
18
-37
-22
-44
-3
29
-19
45
-41
13
8
-65
-7
-23
6
36
-24
17
-116
-76
-22
-8
61
7
-20
31
6
-4
-42
24
-20
-27
-37
-34
25
-28
-54
-13
-2
-45
-7
-27
60
-50
-27
-31
78
11
7
-13
-47
-14
-25
-93
-20
-76
-5
-14
50
-48
-82
0
-43
9
33
-60
-64
-54
1
-13
-50
29
18
-38
41
-3
-49
-16
-5
7
34
15
-100
-35
-5
-26
-29
-23
-48
47
24
10
45
33
15
-23
-7
-34
-46
11
-79
-127
6
-1
-8
-32
19
1
-55
-67
-127
-28
-103
22
-14
-19
-26
101
-48
-16
56
-46
25
30
-84
2
38
-38
-3
-12
-48
-3
-15
-87
-25
-22
-21
17
-47
14
2
-14
21
10
-16
-75
16
-7
-66
-89
5
-7
-10
-15
33
-23
71
-43
-41
46
-32
-53
50
-12
-55
-7
14
5
-14
10
23
-58
-33
6
1
-60
-55
-37
-29
4
-47
25
-6
-7
-51
-127
13
-25
-15
50
9
-41
91
27
-2
12
-27
-3
-57
1
-108
-127
121
-11
-13
-27
-16
-38
37
-12
4
-109
9
-61
-14
57
8
-69
45
-23
2
19
-22
-30
-60
-43
12
-39
-53
-24
58
-31
-70
-80
8
22
61
-62
-50
17
-5
-1
15
-72
-8
69
-24
-36
-56
-118
-106
-36
-28
38
25
-12
56
-18
73
-75
-64
-84
-66
-120
-127
-127
12
-41
14
-12
-14
59
41
-120
-1
-118
-39
-5
20
-127
-67
-90
-116
15
-27
-58
-82
-104
45
-7
-97
1
-127
12
-127
3
-52
2
53
-81
-47
-103
-2
-17
-2
35
-101
-23
-122
46
7
-7
-10
-82
-89
-25
-84
40
-127
26
-127
-127
-89
-19
-9
-13
-102
10
-75
94
-65
-67
-56
-28
-59
-42
127
-127
-127
-83
-55
-45
-25
-127
127
26
11
-105
36
-26
-18
103
-67
-2
-2
-93
-127
-89
-11
-93
-13
-62
71
-34
-32
15
-121
-84
-59
1
-50
-127
-114
-102
-34
-57
-107
-7
-91
-127
-115
36
17
-127
-72
-106
-36
-79
-97
-25
-98
-81
-41
-31
-43
-1
-19
-74
-127
-113
41
-127
-26
-84
-1
14
72
-127
-57
-97
-61
3
-48
-70
20
-127
-58
-117
-14
-16
36
-48
-127
-22
37
-109
-40
61
-12
-11
-65
61
-127
27
-40
59
-77
-127
-45
-35
-68
-127
-127
-120
-127
54
-26
70
10
-67
64
-88
-65
-7
-12
-127
-127
-127
2
73
-3
14
-127
-127
-120
-119
-77
-66
21
114
-62
34
-24
22
-26
55
-77
-70
8
-52
-127
3
-13
-54
-85
-21
-127
-53
-84
-83
-125
-45
-83
-127
-9
-104
127
56
-68
-127
-115
-127
-47
-70
-20
-27
-102
-112
-67
-37
-77
-125
17
-60
-91
-127
-75
-19
-41
-67
26
-18
59
-48
-111
-91
-12
-77
-22
59
-4
29
-127
-61
-45
-4
-106
-69
-34
-35
-66
-62
-50
-75
40
-20
127
-87
-46
-13
-63
-120
-89
13
6
19
-96
-97
22
-4
-120
13
-62
127
73
-67
1
-41
-42
-18
-31
-43
4
-98
-70
-7
-3
-55
19
85
-94
44
-52
-17
-45
-94
-36
-2
-58
66
-3
64
-109
14
-127
-45
-40
-46
-75
-63
-48
-61
-99
-127
50
-117
-110
-24
-66
-46
13
-93
-18
-37
-40
-44
-11
-127
-24
-127
-61
24
-10
1
-3
-118
-127
48
29
21
-70
-19
-123
-18
-127
-74
-127
-7
-127
-127
-71
-70
-59
-28
-103
-5
-127
-42
-50
-11
-36
-34
-11
-43
-36
-21
-18
-113
-82
-127
-90
-90
-120
-1
-121
-87
-2
37
15
-63
-68
-96
-48
-21
-12
61
-52
-52
-127
32
3
-48
-39
-74
-15
-69
113
115
-70
18
-26
-52
11
-96
127
-72
5
-120
-127
-127
-74
-94
23
3
-127
20
127
-101
9
-81
-52
22
0
-14
22
-87
-127
21
-26
90
-2
5
-86
-28
-75
-106
-88
-127
-45
25
-69
-84
-81
-127
-62
-93
-44
-49
-127
-127
-39
-72
-111
-57
-114
-127
-125
-4
38
-103
-32
-37
50
-32
-93
-87
-72
-23
55
-2
-56
48
-25
-15
71
127
1
35
-99
24
-122
1
-89
-86
-73
-38
31
-32
24
-20
-127
-65
-19
-27
-100
-18
-32
-81
-127
-3
-127
19
-113
127
-12
-33
-35
-15
-34
-72
-96
-31
-56
-19
-85
11
-36
-127
-88
54
-60
-72
93
-57
-38
-119
-65
-9
-36
-75
14
-100
-37
4
-14
-127
22
-96
-17
-24
-81
-16
-66
-118
-54
-111
-127
-103
-3
-127
-104
-67
-25
-111
-101
-18
-94
-44
-114
-67
3
-75
-76
-4
-16
-43
-38
-126
-109
-52
20
0
-70
-127
-40
80
54
-93
-84
-50
-60
98
-127
9
-80
-41
-19
-1
-20
-66
-52
43
0
-51
-99
-8
-42
-52
-35
91
36
19
25
-89
-24
-23
-69
-127
45
91
6
-57
-90
6
-119
-127
-1
-114
-7
2
-127
-60
-47
-49
1
2
-53
58
-94
-80
-65
-102
-81
-10
-88
-81
-71
-8
-127
-41
-39
-28
-26
-42
-18
-89
21
-38
-54
50
11
0
0
-109
-75
-5
-4
24
-3
20
49
21
-39
-16
11
-36
-20
41
60
14
21
-19
-96
4
37
43
2
-55
40
-25
55
-20
-41
3
-18
66
9
-10
-1
-18
4
-7
127
97
29
-65
-88
-6
-18
-24
-54
40
-29
46
-121
16
-16
42
-49
-7
20
14
-36
-7
91
-17
-26
-12
42
25
-11
24
4
60
-24
18
25
35
27
40
-9
8
23
-1
-5
72
-79
14
-13
-2
1
-7
95
-24
53
14
-36
87
-23
12
-47
8
-5
12
-25
-17
-10
-77
57
54
59
51
23
9
106
-5
-62
-21
64
-8
-127
21
67
84
-50
101
57
-3
-9
12
-3
-15
24
23
5
-13
-3
29
15
-14
-18
-67
54
11
-10
-12
-10
90
-119
3
-10
-24
-7
-9
-12
-35
-39
21
9
27
-37
13
78
43
23
34
3
-44
-94
-4
55
-4
-36
9
-47
15
-28
15
0
33
113
2
-23
-24
-46
-33
5
-30
-6
-46
-7
12
7
8
27
11
-7
-26
-24
27
-40
-7
36
-36
5
23
24
-4
-72
-9
49
5
35
-110
-17
-8
29
6
1
-7
13
29
2
-11
16
-51
-17
-64
36
-20
19
-17
-11
-45
10
35
10
-48
6
-37
10
24
-28
-12
-38
0
-2
-72
-16
21
-45
-48
95
-2
23
-61
17
36
56
-65
21
5
19
-18
-42
-25
-32
-53
-84
-17
1
-16
19
8
16
-9
7
-11
26
34
11
62
81
1
2
4
13
-14
20
-31
-32
29
-27
44
31
22
-22
-69
65
5
6
33
39
20
33
-29
38
9
32
-45
18
-33
24
-37
26
49
30
25
14
-49
43
-74
2
11
-86
37
2
-38
-48
51
127
8
-15
62
3
30
-3
9
-83
-10
10
-44
-35
-3
-37
-81
-4
22
-32
-18
-115
-8
56
-18
-16
-14
-78
-4
-21
127
-41
-26
4
41
3
18
11
-40
-31
-7
-22
10
-7
-43
-43
-53
-39
87
-14
29
-10
38
-8
10
-9
17
-109
9
30
-47
-31
-2
-20
-19
-69
4
-18
-24
43
42
37
-6
-86
-2
-30
-32
7
3
109
-24
49
-50
-18
-23
45
-17
-19
28
-127
54
29
-32
-9
-3
86
-85
63
33
-9
11
-47
-41
-6
-19
-38
31
-48
26
14
7
5
-20
-7
-27
17
-31
20
11
-12
-32
77
-19
20
-54
-76
27
18
13
10
-2
19
76
-40
1
45
-63
58
40
-103
-12
61
-29
1
5
-3
-20
-13
75
-6
-42
63
4
-93
-32
17
-52
-57
27
-23
-39
-18
-13
-28
19
30
-90
69
31
-46
46
-112
2
-74
-10
-50
-116
-23
-47
25
64
-16
-14
14
28
-27
13
-58
29
-20
-49
32
10
-35
20
45
-13
25
11
-35
-19
46
11
33
-3
33
13
15
14
-15
3
28
38
-66
-31
28
-46
-69
31
-25
-46
12
113
43
20
-81
-79
4
-56
14
27
-19
-11
-40
127
-2
9
-29
-62
-15
-1
20
28
-9
19
36
-22
63
21
-1
-3
37
-12
-127
-11
-35
67
-1
-25
-47
-15
7
-17
44
95
-16
22
-7
61
-10
71
-20
10
6
83
-38
26
4
12
-14
11
12
44
16
-20
22
-61
-1
-56
-3
-34
-5
18
45
-38
54
14
-20
1
28
-1
16
-22
-33
-1
48
0
-13
-2
-14
43
18
94
21
30
-8
2
40
-15
-2
89
21
-38
-25
16
-63
-27
-33
-30
21
-19
53
7
14
13
-19
27
32
-19
15
-58
-64
5
-88
-19
-21
-53
-127
-8
-5
-30
65
-127
-78
-45
-2
-127
-125
39
-34
-74
-127
11
-43
-20
11
-17
-67
-127
10
-19
-2
-127
-20
-42
-127
-51
-99
-94
-11
-63
-127
-16
-45
-97
-60
-79
3
-17
0
-104
-34
-21
-90
27
-115
-47
-28
-11
-58
12
-74
10
-36
-85
20
5
-82
84
-120
-35
35
56
1
-70
53
-37
-84
-51
-46
-36
-74
48
-60
-44
-52
-103
19
24
-85
-83
-85
-69
-30
-27
15
18
-68
-127
8
15
8
-127
-1
-44
50
-18
39
-42
-12
-36
19
-54
-28
-124
-114
-82
-86
47
22
-20
-52
37
-52
12
-79
-5
-49
-12
-55
15
-11
-72
4
-29
-57
-45
-28
-58
-38
-37
1
-74
-34
-1
-31
-87
-41
-14
-28
61
-127
-91
15
-84
-16
-33
-102
-31
-36
-46
-31
58
-67
4
-127
-28
13
-52
-13
-17
-58
-112
15
14
-50
-21
-35
40
-15
-75
-127
-38
14
-78
-90
27
-127
-93
9
-54
45
-66
-50
8
-18
-127
-17
26
-9
3
127
-97
-34
-95
-64
-34
-23
-65
-51
16
30
29
-18
-16
41
-86
-67
-102
-72
53
2
-86
-83
-54
-111
-25
-26
-34
-63
-54
-30
-94
23
37
-51
17
-27
-13
-13
-41
-38
-83
-23
-28
-67
-86
-23
-62
-77
52
-57
43
-83
-127
32
-12
2
-46
-23
-45
-17
16
-28
-93
-127
-33
-65
-127
-52
-17
-13
-31
-101
38
-103
-127
-73
7
-32
-49
-66
23
-55
10
-74
-35
20
-31
-65
-118
-21
-90
1
-41
1
-5
40
-26
-29
-26
-127
-57
-64
-18
4
-29
-71
-9
-45
29
-24
-67
5
-80
-103
1
16
-5
-65
18
-58
7
-57
82
-127
-127
-10
-99
-24
29
-49
-127
-99
-81
13
-70
-40
-61
-19
-3
-17
-54
-14
6
32
47
102
-46
-77
-18
-28
45
-83
-76
-27
-81
-18
8
-127
80
-24
-45
-80
15
-53
18
-5
26
11
-32
5
-20
-73
-4
-95
-66
127
-22
-62
-33
-98
-38
-28
2
-25
-127
24
-63
-120
23
-127
-72
-78
-48
-29
-127
-7
-51
-54
-20
-101
-127
103
-13
21
-31
-13
-99
-58
-75
18
-38
-48
-31
35
29
-38
-30
8
84
-67
72
23
-4
-81
-56
-105
-42
-75
25
47
-106
9
72
12
4
-77
-37
34
33
-78
-53
-2
-51
-27
-46
-12
-88
1
43
8
0
-127
-53
-55
-5
-94
-9
-117
2
-10
19
-38
16
-42
-4
8
-55
-67
2
5
-26
-47
-35
-3
-90
-17
-72
-127
-125
-67
-63
22
-21
19
-5
-74
-59
-87
-91
-85
-12
-103
-80
18
11
7
-93
-102
-72
-85
30
-44
12
-67
-11
37
63
-27
-56
127
-36
-7
-88
-7
12
-51
-85
12
-84
-57
-48
-23
-23
9
-33
-17
-65
-12
-97
-1
-38
-28
38
-15
-63
-85
54
-17
-102
-20
-16
-31
-105
-97
-123
-127
106
-96
43
-109
-30
-35
-71
-115
-56
-62
-70
-9
-53
88
-72
25
48
-21
-17
-47
7
-76
-22
25
-91
-9
-71
-18
-79
-73
-1
-3
-9
-49
-45
-5
-45
-63
-44
0
-3
16
-55
30
-1
-77
-27
8
19
-87
-63
-127
-124
-31
58
-76
13
71
-79
-20
-23
-51
-40
6
-41
-127
-114
-39
-116
-127
16
-30
-23
-29
21
-3
-63
-83
-22
-94
-127
-105
-83
-110
-23
-121
-61
-62
12
-64
-33
-28
-75
-29
-82
-61
-127
47
-11
-21
14
13
-53
-6
47
-42
-10
-60
58
-107
-66
34
-111
-90
-74
-3
30
38
-25
10
7
11
-29
-11
-32
42
-19
29
-3
29
23
-36
127
103
6
1
21
2
72
-90
69
-34
-7
17
-4
22
7
-24
46
-28
-16
-35
-13
-14
69
127
-92
-14
75
-11
-10
-102
-12
-34
-18
9
-45
-71
-3
31
38
107
26
47
23
39
1
20
-98
-4
28
-32
90
80
-8
-38
-37
50
-56
-14
-49
-29
-15
6
2
-6
-20
21
-41
-25
18
5
1
7
-8
27
9
-40
-127
7
-8
23
-9
-21
-8
61
22
-99
47
-99
-18
23
1
-4
-35
-55
5
-27
-15
-54
71
-3
31
-49
-1
35
-7
11
48
37
-12
19
-32
19
35
27
-22
-17
3
40
-71
10
-50
-86
8
-7
60
1
36
78
1
-112
-127
18
-5
0
11
10
-80
37
-23
7
-9
-44
-44
10
11
-28
-11
-2
80
-18
-7
-5
1
17
11
76
-42
17
-108
-10
-45
-57
66
3
-18
73
-5
-63
69
-121
-7
2
-29
-15
-20
-46
-17
-25
18
25
116
109
58
41
9
43
-15
-127
-6
-11
-11
92
-23
89
127
-7
-68
61
64
32
-5
-109
-14
19
34
-25
-14
-15
23
-9
-45
-1
-1
62
-15
2
-31
-20
-59
17
16
-14
-21
-3
0
0
-8
-18
27
-28
55
127
1
92
26
20
-13
-91
39
-127
53
-1
20
62
-7
7
-72
3
-24
88
79
37
15
-34
75
57
21
-31
127
-44
-5
51
-23
59
42
-41
38
39
102
22
-21
-22
-13
-12
35
60
-32
81
-12
29
127
127
54
-23
73
0
-32
15
21
61
-2
4
-73
-12
-16
-2
13
2
-119
-27
-62
17
18
59
-24
-34
-64
-13
23
-60
-23
-25
27
88
-40
-37
30
31
44
-51
-45
-62
-55
-12
-15
37
33
-3
78
-48
-9
-33
73
21
-9
14
-34
-46
-14
54
37
90
10
41
37
31
13
20
-18
41
-69
-85
62
19
3
-7
2
-72
5
2
-27
23
6
-14
-27
84
15
22
55
-13
31
-50
58
6
127
56
-31
21
-13
25
24
97
5
-7
-19
-58
-17
41
-49
25
11
44
-31
31
-58
-11
12
23
36
-54
-127
-22
-33
-113
-52
-64
23
-35
-24
3
43
12
-28
-77
46
-2
46
6
29
-10
-21
28
127
19
77
49
-1
-4
11
-6
7
8
3
-48
-23
39
-11
39
-14
-7
11
12
23
-21
-14
33
7
-34
-90
32
-5
20
-18
-42
62
-83
-54
-68
-5
-35
-9
12
-81
42
20
3
-8
-117
28
49
60
-29
7
22
-30
4
15
-16
48
60
-27
77
-4
48
-10
-8
-31
-127
26
-38
-101
76
24
24
5
1
30
52
-8
52
31
-16
-54
46
-43
-62
6
48
-53
-37
32
27
59
20
-14
1
-37
10
127
-52
-11
-50
-12
23
15
15
-38
-72
46
63
27
-23
33
5
-70
65
-19
-34
3
-54
-7
52
-15
-19
-18
27
10
-7
-2
-65
61
-1
-51
34
-66
12
22
38
22
14
41
54
36
-8
23
11
4
34
-54
-21
84
-9
-33
-4
127
-51
-23
60
17
34
-5
9
5
72
26
127
-26
-16
3
7
-79
-37
4
-67
127
-37
23
-62
65
-8
0
96
9
-6
1
54
55
47
0
54
-127
33
-7
17
14
-5
15
-42
-22
-33
-15
-14
11
14
67
37
-18
41
-6
24
-37
24
-6
22
27
-66
-40
21
-22
-9
-37
-27
-18
-103
-7
23
-126
-64
44
-34
13
27
49
10
56
-49
-65
-13
-92
19
13
-127
20
-45
-23
23
-10
-1
-23
-42
-30
-41
66
8
-23
49
-106
-20
-20
-6
-5
9
-102
-9
-19
-41
-11
-127
-119
-46
8
-35
18
23
-21
9
-26
71
14
-37
2
26
-24
40
-87
-10
-14
-43
30
-89
95
-11
-45
46
-127
-49
39
-105
-56
48
-12
-126
-127
49
13
-3
-62
18
7
-127
-43
-48
47
-40
-56
-18
-76
78
-33
69
75
37
-54
-49
-15
-60
82
-32
1
-5
-23
17
-127
-15
-62
66
31
42
-127
-64
48
-38
9
-12
-13
-39
-33
50
-49
-107
-28
-22
-57
0
-10
-44
4
25
11
-95
-35
-11
-52
-41
-127
-67
-5
44
-99
-11
-35
-24
-11
-28
-76
1
-47
-38
49
-45
-1
-20
-6
127
-9
-25
61
-37
20
27
-29
-5
-45
10
-92
-16
-51
-17
-38
-57
-95
15
-95
47
-84
6
127
14
82
57
-79
-19
-127
-25
-52
-68
23
-62
11
-102
-12
18
-97
-38
-49
8
-10
36
-52
5
-123
-32
34
-2
-55
-4
-51
42
-52
-44
-101
-79
-43
-6
-52
34
-67
24
7
-31
81
-12
58
-37
17
2
-106
127
-20
-63
-52
-5
-64
-35
78
-22
80
-55
-28
27
68
35
-66
35
-29
-39
22
-46
-65
-11
-46
-37
-6
8
-127
-74
-79
-2
0
-16
-85
-21
47
-105
-95
12
-44
-20
11
18
23
81
-37
-54
-127
37
-48
30
10
-23
-45
63
6
-72
5
-24
-77
-3
15
47
49
-51
-127
11
-51
-12
-127
-34
-30
-59
-56
30
20
3
10
-33
6
1
-36
-11
22
-45
-81
97
-127
2
-9
-1
35
-31
-21
-11
14
-48
62
105
-109
-3
58
-64
-9
28
3
-9
-2
10
-127
-15
74
-11
23
-49
-40
-29
-44
-39
38
-43
7
-22
-61
-68
-3
-19
-83
-80
-49
-11
-111
18
14
-92
52
-22
40
19
33
-127
-36
0
-80
-9
-60
20
97
46
-50
65
-127
-40
18
-86
-45
-81
-8
-109
-117
-23
54
-127
-38
105
-110
-98
-17
-28
-53
-32
10
37
41
-35
-127
-127
14
-7
36
-7
-35
-52
-26
-88
-21
5
-23
4
-31
-5
-91
-96
-64
-28
-30
-58
61
-40
-28
-35
-121
54
-116
-11
-24
4
-23
-56
-44
5
-20
-16
-119
-17
-123
-120
19
-30
49
36
-78
-84
-127
80
-23
-55
-92
-2
-11
-64
-35
22
-19
-55
-34
-62
-127
-110
1
17
37
-57
-36
15
-30
-14
-41
25
-51
-29
4
-75
-30
-2
-54
-73
-11
-35
16
-51
-30
85
-1
-104
83
15
-13
20
-13
-38
-127
-22
-68
47
14
-70
-108
-123
-61
31
-112
-40
-90
16
61
-60
-55
125
-14
-127
44
-3
-58
-127
-42
33
6
-5
-36
-48
9
-26
-48
-115
-21
-23
37
-30
-127
-121
10
-38
-3
-127
-57
67
-124
-36
-48
-69
9
-63
-21
88
-127
30
3
-6
-32
-117
-41
-5
47
15
-5
50
12
-12
-75
67
-30
-14
-54
20
1
-70
36
28
-41
11
-18
36
-21
-37
-63
-53
38
36
-44
21
-91
-36
-31
10
-123
-127
-41
-78
36
43
38
33
4
6
-58
55
-30
-31
-79
-89
-127
-48
34
-34
-56
20
-50
-8
-2
-39
25
-116
-44
-25
13
12
37
-32
-8
-16
-13
36
34
30
-73
-35
-82
-4
-19
-25
5
-7
2
38
-24
40
-49
-57
23
56
27
69
1
46
-38
35
-12
-2
-88
-10
45
-15
0
127
-31
-127
-31
-12
30
-38
23
7
44
-64
-65
-37
5
-85
62
-19
-73
-107
21
-35
-24
44
-12
28
-6
-20
69
9
21
30
119
-61
28
-16
42
31
-29
39
102
7
32
78
80
-25
-65
58
95
38
-22
117
-14
97
-42
-8
-15
12
84
29
14
62
-28
23
67
127
69
26
3
99
-43
42
-18
-6
-26
36
52
127
-59
-1
59
90
44
-30
15
-1
21
6
2
40
83
1
22
-25
-127
14
57
2
-32
3
-72
-64
-8
25
-38
-10
39
5
100
29
-31
-5
89
-10
-106
-89
86
49
-61
-61
113
-35
19
-23
-39
117
10
22
42
-30
28
-50
36
-35
57
-32
-41
-24
41
-26
72
-36
-41
20
-92
-29
-5
42
-10
-24
-127
-42
32
50
-10
33
48
127
-83
69
-10
11
56
-2
-22
18
-39
10
10
-14
18
-32
-37
54
-13
-2
53
27
70
-21
31
-39
120
-104
40
-24
70
49
-41
68
-21
38
-97
12
7
55
100
-16
-6
93
-9
96
-1
34
-39
32
127
-39
-9
-44
-93
-35
36
-1
-10
-58
2
26
24
12
14
40
-27
-28
-62
-25
6
-73
19
-34
75
20
-48
63
-40
41
38
54
-4
5
14
39
-36
-16
35
11
-15
38
-104
-15
74
11
127
23
-9
-14
10
-99
-4
46
16
72
28
-87
-9
-17
51
-52
36
8
72
-19
72
12
-41
56
37
19
-54
32
8
-124
-31
-117
10
56
52
3
-37
-60
6
36
-37
24
115
9
-14
23
77
-12
53
70
90
12
76
-21
44
4
120
49
-55
-23
4
-17
-39
11
18
44
-6
10
19
-71
-58
13
72
-93
-6
-12
8
26
-46
-114
-38
-13
52
-9
-26
29
90
16
-25
47
-20
27
-31
21
47
-4
-15
-10
120
2
-8
27
12
69
-47
-45
-26
31
56
11
-26
127
57
46
38
23
-28
11
-4
8
-44
-33
9
-84
-29
-17
-31
9
26
40
127
85
87
-60
-72
15
88
127
19
127
13
-13
-15
-54
98
16
112
-55
5
73
0
15
-19
62
-5
85
-38
-19
15
4
-71
117
24
20
45
-41
7
85
-29
48
113
22
1
62
-20
65
-1
41
33
-90
-4
82
26
84
7
-95
-11
18
-77
-34
43
57
-25
-8
-10
30
-57
-3
127
127
73
47
127
-88
-50
-42
59
89
27
96
12
127
-89
-14
-127
92
25
54
35
-14
-14
36
9
-9
4
66
-33
58
11
-45
-107
-36
28
-20
39
-2
3
-11
-84
52
21
-3
29
-37
90
31
-55
49
-68
4
53
92
-7
29
-33
-53
-21
-3
13
-70
-5
12
-65
87
82
68
-39
-44
127
-9
47
82
44
91
-70
43
6
18
1
-6
7
-41
-12
-80
-29
-21
50
-107
31
59
124
52
8
61
47
-64
19
69
17
-16
6
11
55
1
-36
59
-1
-19
64
115
-9
-102
-37
-35
-55
-66
57
3
-36
77
-29
26
1
-16
-127
-37
70
-38
-73
127
62
77
94
-40
75
55
67
21
-26
-8
55
1
59
15
-94
-93
-27
15
39
-40
89
-16
48
43
-12
99
-17
0
111
-34
-3
49
-38
-35
5
18
102
1
37
-113
7
127
94
14
56
-8
12
76
-19
-36
-76
65
41
-7
93
48
7
12
114
29
52
-3
-29
127
127
2
61
21
-61
66
29
-72
-13
44
57
84
-19
75
8
34
-4
62
-43
-36
33
5
-3
-42
-5
33
80
-50
-52
42
127
-5
-17
6
-7
-127
127
26
95
76
127
55
81
-20
2
-6
3
29
-1
-5
6
11
-8
-5
-42
-13
-2
-47
106
-13
-3
57
-9
1
48
-62
-34
57
-48
-56
78
90
-32
28
-48
14
119
20
127
-67
53
22
48
-65
-1
-18
-10
10
13
70
-10
-2
16
0
15
26
14
-17
-75
9
-15
56
1
-23
16
-4
41
-11
59
1
88
14
-13
29
-24
65
-54
-3
-15
-31
-5
-19
-5
-10
-34
-9
2
-8
-54
-8
29
-80
23
22
-55
-22
123
21
-91
-15
28
-59
20
-36
-21
-78
23
63
-11
-34
2
-2
26
-4
33
23
48
80
-3
-37
45
-42
24
33
-17
3
68
-4
5
-82
11
-2
-24
6
-39
40
37
15
52
3
127
26
46
-8
-27
35
-23
-80
20
-26
64
5
-27
-18
3
-12
-25
17
25
-40
-2
-10
-36
14
-12
21
38
-30
-38
-45
-2
-18
24
-29
11
-17
-2
-6
-21
-24
16
65
45
64
0
-30
16
-15
45
64
-127
24
-35
45
20
26
22
-18
-3
-23
-39
-49
28
-30
-39
1
-19
33
40
25
14
-2
-26
-10
47
-63
19
-61
-34
-54
21
18
23
-41
69
-35
-40
53
-54
-2
33
-7
-42
44
-36
-16
-17
7
-19
120
1
26
-45
2
-6
49
30
-21
1
-1
-17
50
55
-59
23
-19
-16
40
-45
-29
-10
10
-13
5
-20
4
-6
-36
-12
61
14
2
51
14
8
-9
-46
8
-64
47
-23
-31
113
-38
-35
-16
12
52
-46
0
76
50
20
-33
-1
-15
-1
45
35
-30
34
13
-94
-27
36
10
5
-30
9
37
18
33
-47
44
-16
16
-14
45
127
-48
8
-26
-1
-13
-16
-19
-6
-23
-59
2
-127
17
-59
11
-50
-36
34
47
18
-29
15
3
-1
55
-6
52
-6
-7
-80
7
97
23
15
25
32
-7
54
-21
77
-93
55
-38
-8
20
-1
-33
-52
11
-1
13
43
17
-98
2
-59
-18
39
-11
-3
-9
-13
4
48
-19
34
-78
-92
40
-26
13
-18
-14
127
0
-19
18
-10
26
8
32
11
12
-1
-13
84
21
-12
-13
-26
-2
57
17
-75
-44
-50
-12
47
-11
86
33
97
-6
1
19
4
-4
-29
-61
-57
26
-3
4
70
-2
61
5
46
1
-10
64
-17
-31
14
12
124
-37
10
15
-35
-3
30
37
-95
-16
20
5
44
15
61
-16
-12
-127
18
11
-24
33
127
1
75
12
-23
7
-36
5
-3
71
-21
-54
-35
36
7
-25
-56
3
28
13
1
-40
-25
7
-17
-23
18
-29
-12
-5
2
-31
-47
-5
4
-49
22
41
-10
-34
18
35
-28
33
-51
-62
-9
-21
61
53
-26
26
-11
29
46
-25
9
99
-53
51
-13
55
34
-47
-57
-65
-13
14
-6
84
-29
-24
15
21
-13
-6
13
-8
-20
98
15
-22
53
19
120
1
-29
20
-7
51
5
-83
-2
45
-3
-40
9
-46
14
-59
-64
13
35
-73
-5
-1
-16
-30
3
-6
7
30
-21
-45
-20
-21
-17
3
4
3
49
-22
51
34
-15
1
-32
-2
54
-77
-14
-62
26
-19
-74
2
19
127
-20
-71
9
33
38
-23
-8
54
-111
-29
-18
11
-7
93
-59
86
-49
3
-15
4
10
6
2
-25
40
-30
-14
2
13
7
33
35
-21
-8
29
18
16
69
30
-46
-9
-7
32
-23
-14
27
-17
-4
9
-26
53
-31
-12
39
4
-10
39
-11
-29
127
127
7
127
-13
33
-102
-6
1
-20
-13
5
14
-30
32
-47
-30
7
-58
-39
-72
-5
-68
36
-83
33
-39
6
53
-7
38
-32
44
-44
22
-3
31
-79
-102
3
72
-47
-79
30
-26
25
-16
-4
18
-34
-21
-12
-26
47
-48
31
-49
-68
15
-62
40
-95
-49
42
57
63
82
26
-4
-124
-51
-12
26
-8
-39
42
6
-52
-24
-1
-83
5
-30
-50
-34
-36
-8
-55
-61
-37
-85
21
-28
-20
45
17
-127
-46
-32
25
25
-8
-82
-83
-40
-19
-41
-32
48
30
53
-127
-5
-127
-20
51
10
-63
127
-53
-6
16
-29
-23
-10
-94
1
-16
-47
22
13
-93
-27
-22
8
-3
-127
40
-21
116
-26
10
25
-53
-32
84
-60
-31
-3
27
3
-20
-11
-13
-78
4
36
23
-83
-50
-22
4
127
-94
6
-31
-19
-110
9
-31
-88
81
-20
-44
27
-82
-20
30
-78
31
-34
-44
-61
-69
-78
-15
-18
14
-24
-24
-10
50
-54
-89
46
-16
16
-30
-2
38
-79
5
-119
-20
10
40
37
-22
17
-33
-36
-46
-35
-39
-55
7
-10
9
-32
-64
0
-78
49
-67
43
127
-40
-20
-33
-109
-50
47
-73
-32
59
20
-16
-28
-28
-15
-100
-6
-64
7
82
-74
-34
46
-100
27
-19
-34
-35
-22
-9
14
15
-92
-27
-7
5
-10
40
-39
-11
-14
32
31
-9
-64
-73
-25
12
-26
48
-30
87
-18
-68
16
-67
-34
21
-127
-43
56
54
-80
-40
19
-57
-12
-2
-2
14
-72
-45
-41
-95
36
-35
11
38
-19
-38
127
-9
7
-5
-41
-15
-111
-36
-46
-57
-69
-20
5
32
-20
84
-15
17
108
38
9
-16
-46
-30
-27
-9
28
-30
43
29
-40
-61
-83
45
-5
8
-62
8
49
34
-9
-61
-10
-35
35
2
-68
-63
-9
-85
-20
24
-47
-27
36
-23
17
-24
-42
27
-25
-17
-21
-88
-96
-82
-10
-27
14
67
-53
1
-47
-17
-14
-73
-61
23
45
5
19
-7
-1
6
-59
-74
3
-41
-21
-61
-8
9
-7
-33
47
31
-15
-15
-24
-8
-17
-24
-50
3
-91
5
-127
9
-13
-11
10
-123
26
18
-24
-64
39
41
-47
-64
35
-95
-104
-87
35
4
22
110
-5
9
-4
-45
-51
-8
25
11
-68
-20
40
1
-43
23
-106
100
-6
114
-43
-17
-105
-44
-32
-27
-48
-6
-49
-43
-38
20
-99
-17
-20
-10
0
-27
2
20
-5
51
-42
8
-51
-41
41
-30
1
8
-13
31
-6
48
-39
76
-4
-32
33
-54
11
-13
119
-46
8
77
44
-49
-14
-55
-66
23
-22
-43
-33
42
5
-14
115
-52
-43
-43
-28
-14
-36
22
-16
17
14
127
-68
-72
-46
-52
11
-23
-21
-73
-94
-82
5
-32
-56
-5
59
-99
111
27
-95
18
-7
-45
-16
-112
-1
-22
-22
3
-66
-16
-5
-15
-18
7
-42
127
-4
25
36
12
-57
-79
-54
49
-19
48
-21
-30
31
-43
-36
-55
-5
-6
-8
24
-64
77
-56
-33
-19
-10
25
34
-56
-78
-3
-50
-16
-24
-28
-39
-73
-29
-31
-20
-71
-29
9
18
0
-47
-20
-52
8
-46
-64
-46
-3
-40
64
55
-47
-69
-34
0
-44
41
-43
-22
55
-7
-10
0
15
-76
76
-40
-7
6
25
36
-28
-21
112
17
20
-64
0
-50
16
-44
34
15
-29
-2
17
31
-16
27
-2
-26
18
-52
49
-54
-46
43
-8
35
-1
28
-113
-71
15
-38
-127
23
-18
-14
22
-20
43
-92
-74
45
-41
-124
28
-31
-21
-21
-1
40
