1492
-7865
12513
1014
-6997
-4743
-18186
-23681
-9981
8943
4608
-24870
-19248
24842
14343
-3592
2895
14095
25616
-5089
4248
-17173
2515
13177
-20921
20639
18763
-30854
4223
-19957
-12706
-3023
17982
2635
1360
13477
10772
-14452
3361
-16611
40395
11147
-809
181
-11666
9785
7995
26
-2285
14749
-4999
-17064
2879
11466
-5797
-3312
2548
3303
13052
-4595
24224
-1758
11003
31314
-12428
3591
16064
-11318
-11000
-15670
21598
43322
-18562
-12165
-36860
-12723
-33254
-25915
-9565
16390
-4580
5279
-6024
17926
26732
23152
-2988
18952
-17486
-22567
7984
-7497
12621
-22004
5109
-162
8226
-5822
4157
-3549
2207
-10741
-1714
3244
-4396
-13136
4294
28799
-21106
13106
-3991
-7663
9302
27019
-27997
-4793
-8075
-7564
-2002
7812
16218
-3
-3648
6383
-4859
46705
-17931
-17658
23435
-16276
19584
-4036
3304
16213
20949
-5102
10082
20125
4783
6472
-23396
6145
-1035
5346
10043
8453
23977
-11167
24521
520
7906
19736
-4958
1462
-28859
-25951
-26299
-30801
-4415
1638
-11912
-23166
-6982
-7681
-6886
1609
-8853
-3905
1236
3698
25209
2018
28612
-9857
20139
6764
19104
6893
-13509
-7074
37700
4320
11944
-16900
-10913
3740
-13178
-12357
6426
15957
-13762
9103
