39
91
29
89
-127
58
35
95
41
11
79
23
48
127
86
15
71
36
-45
11
54
-47
-85
127
-36
26
59
-92
-127
-93
-29
-100
13
-80
-120
-115
-8
18
-6
11
127
8
-8
8
-1
9
92
6
-51
-127
-32
5
86
3
46
-34
-62
127
-90
-75
40
-22
-75
50
-4
-5
127
-5
-41
49
-11
1
-23
-60
-20
-39
54
-27
50
127
36
-76
-60
-11
-48
-11
72
-8
88
127
-24
-74
-42
-46
-127
-98
-27
-66
-52
-27
-42
36
-117
16
127
-24
-48
35
66
-41
-38
127
-47
10
61
-36
-36
6
99
10
-47
-127
-61
1
107
8
-50
-127
-69
43
68
-48
50
39
-21
-8
-35
-26
9
114
-127
0
-34
-27
7
-49
17
127
-75
-8
15
-53
13
-1
3
-3
-7
127
8
-3
7
-5
40
13
-6
127
-38
-17
33
13
1
38
127
23
-33
8
-2
-28
-99
-21
-1
109
103
-42
21
127
6
91
92
-24
-34
14
-51
28
75
127
67
8
-20
5
10
-102
127
6
-4
6
10
24
81
27
-77
-127
-71
35
70
33
-122
-116
-104
-106
-64
-127
-125
-126
-97
3
48
23
23
127
53
20
38
25
11
16
18
17
127
4
5
22
15
41
3
-15
127
-17
-53
29
-3
-18
-44
-121
-29
37
127
41
16
10
18
-7
-10
-8
-19
127
4
-6
-9
-15
-52
-118
24
-120
-83
99
-49
-127
8
0
27
6
47
127
22
13
29
7
34
55
11
71
127
86
28
58
21
-32
-30
-23
-48
127
-14
-29
-29
-37
8
28
-1
11
127
33
9
18
-7
12
32
14
46
127
33
7
39
11
10
61
11
54
127
43
15
48
14
-68
-127
-76
-95
-87
-104
-70
-125
-72
-5
2
-3
1
127
-12
0
2
-3
-5
10
22
-22
-89
127
-2
4
25
-11
12
7
-72
127
12
-59
-87
0
20
87
33
13
127
72
16
84
29
-21
-86
-7
27
127
-4
-8
-62
-8
-19
16
24
-55
127
80
-8
7
19
-28
-115
-18
-107
66
-127
-36
-108
-15
25
-37
16
-25
127
-31
-15
-3
-11
-58
-79
-42
61
-75
42
127
108
106
-31
83
12
-103
-127
20
-26
78
13
16
31
-14
42
127
-11
15
27
-6
127
-25
-35
43
-12
-45
-53
-44
13
31
23
-34
127
8
-6
35
22
-28
10
41
-2
21
127
14
20
39
0
-14
40
81
-45
-56
127
-11
50
84
-29
-49
-18
30
127
29
14
15
7
127
56
-37
75
-7
10
119
49
-27
-46
-126
-51
-96
-86
-41
-52
-127
-70
-29
-127
-48
5
67
55
15
58
32
20
-36
19
57
127
55
32
22
28
-48
-29
70
-76
-45
127
-51
-7
65
127
120
-27
85
-55
-47
113
118
-40
2
70
-2
42
127
44
12
52
21
2
14
-1
-127
47
92
3
12
0
49
127
22
-64
-61
70
-114
-78
10
32
53
17
127
-41
-41
39
50
18
21
5
22
-4
-127
15
21
4
22
8
21
10
21
127
26
8
23
10
17
31
17
30
127
26
13
24
13
72
-18
-10
127
-94
-2
56
8
-10
33
-24
-33
127
63
-122
44
-11
-34
13
45
5
37
127
20
8
32
12
-5
-37
-52
42
127
-100
1
-22
-44
-63
-81
83
-37
-127
96
-77
-70
80
0
9
-15
8
127
-4
-6
-11
-9
13
26
21
16
127
31
18
26
32
38
102
49
-2
-26
-5
-22
-127
-27
-49
-42
-39
127
22
108
-43
-33
-33
-4
5
9
-32
127
4
-1
13
6
3
-2
7
2
127
6
2
1
8
-47
63
-9
58
127
47
-1
53
-6
-10
-73
-38
-76
-127
-57
-16
-66
-23
31
88
39
61
46
127
47
69
43
4
-17
4
-14
-127
-10
3
-14
2
40
21
-15
127
37
-28
42
21
-7
20
47
14
54
127
9
25
38
21
41
33
38
60
127
48
33
-12
25
18
70
44
76
127
77
21
72
31
4
-16
-4
127
-42
-13
1
-16
-7
-1
70
1
3
-127
-4
-6
68
2
-17
30
2
-60
127
48
-20
36
5
17
20
1
15
127
30
17
19
6
12
24
9
26
127
14
10
23
9
39
-44
-24
127
-74
-37
27
-40
-23
13
-1
0
71
-127
43
8
-2
4
6
31
2
22
127
21
6
47
8
38
70
19
54
-127
-40
22
-12
-30
-4
-6
-2
-15
-127
-16
-7
-8
0
30
62
34
28
127
31
33
77
30
-4
12
4
7
127
6
0
15
3
11
-19
23
-18
-39
127
9
-28
30
-4
-33
48
-12
-83
127
-2
-35
43
9
89
12
-22
-127
-35
10
80
18
-9
54
-30
13
127
72
4
50
-20
33
75
7
75
127
16
40
91
8
15
70
15
-34
127
-40
21
73
24
-46
-127
-23
3
49
7
45
100
52
-38
33
127
-32
38
-22
-4
-36
-12
-21
-98
-19
-97
-127
-78
-34
-99
-23
23
22
14
40
127
34
11
10
0
22
45
27
53
127
32
23
45
27
-1
6
0
18
127
19
3
10
2
9
26
13
8
127
18
14
22
14
11
51
10
-15
-127
-9
15
52
18
9
19
5
21
127
12
3
16
12
46
50
63
54
127
51
32
70
55
-37
-44
-43
-55
-127
-39
-40
-41
-44
-6
59
-22
46
127
104
3
62
-2
47
127
-65
-23
-17
74
-5
1
9
34
-46
-12
127
-118
-24
28
-44
-17
-14
-22
16
-32
-43
127
-11
-17
27
-3
5
-2
3
127
18
-1
1
-2
36
74
35
12
127
-15
46
70
31
-11
-107
-67
-9
-30
-42
-7
120
127
8
49
0
80
127
27
4
48
0
19
37
20
32
127
34
15
38
23
52
6
58
-10
127
6
64
-5
45
-29
-32
17
-83
13
127
-27
-21
13
-74
-86
-86
-73
-102
-90
-60
-127
-67
-1
13
15
35
127
41
2
17
22
-25
65
56
-35
-25
127
-19
61
52
-80
-127
-27
-2
55
2
49
95
25
5
44
4
2
-127
10
13
46
3
13
35
13
66
127
9
8
19
21
2
-58
-2
-33
-127
-32
2
-56
-7
-10
20
58
9
21
127
5
13
45
9
67
12
-24
-127
-15
9
54
6
30
50
66
85
127
120
22
40
53
13
16
16
8
-127
15
13
17
14
24
12
41
57
-24
127
22
1
51
2
53
49
-37
74
127
-16
67
50
-45
-11
-12
-30
127
7
-46
-10
-14
-12
18
35
-2
127
88
-14
24
25
-55
-127
-49
-2
2
11
47
127
55
-28
94
53
62
81
127
5
109
54
6
4
34
60
127
-53
1
13
24
46
51
0
127
-86
-68
53
53
7
35
54
0
127
-81
-104
38
53
-13
-6
11
12
-64
127
107
-5
15
12
3
28
7
46
127
16
4
24
10
36
57
37
57
127
66
39
50
43
6
33
0
31
127
36
4
28
1
4
54
7
9
-127
12
1
54
2
35
127
57
-11
58
89
28
103
49
26
127
34
-30
-97
-23
-38
-46
-24
7
43
9
29
127
31
14
45
11
-65
-80
-29
-89
-124
-127
-66
-109
-33
19
-3
-46
-59
67
127
23
-2
-26
6
13
10
19
127
26
1
19
17
-29
-85
-22
-36
-53
-31
42
127
41
123
127
22
38
107
-107
7
-63
-122
127
-20
-14
-24
-107
-19
-26
-13
-3
-28
-43
36
-59
-65
127
-22
-44
27
-4
27
15
2
127
45
-1
23
10
20
127
26
-18
-59
-26
-26
-41
-32
122
127
4
69
-84
-74
-37
-49
2
-8
15
27
-25
127
104
-8
12
34
13
55
52
-72
127
125
7
56
43
-38
-70
14
127
-105
-51
-27
-75
16
24
-39
-69
83
-76
-70
127
45
-36
-18
-29
2
-35
127
7
-14
-20
5
73
-28
-10
127
19
-58
54
-10
-16
9
65
-4
66
127
35
13
51
5
-42
-127
-7
19
77
-3
8
54
16
0
43
5
21
127
42
7
35
8
1
1
1
-1
127
-17
7
2
1
-22
26
12
-34
127
32
-20
20
15
17
54
-3
-5
-127
19
10
59
-2
28
78
63
16
127
78
32
78
43
-23
-24
-11
-27
48
37
21
127
-58
20
21
19
30
127
50
5
26
30
-1
23
-15
24
127
30
4
25
-16
82
127
50
-47
40
-32
62
126
46
17
46
13
87
127
40
18
40
10
-11
-19
-1
-27
-127
-17
-16
-25
-5
-33
-36
127
-45
-78
97
-13
-53
-47
17
14
9
16
-127
2
16
4
6
42
127
12
40
-16
-44
4
-8
0
18
43
20
36
127
13
15
34
11
50
127
57
-27
-34
-10
-54
-85
-41
18
-51
3
92
127
29
38
-44
3
21
-23
-13
127
-91
-24
16
-15
-17
-52
14
41
-127
-14
105
-39
18
43
6
31
15
4
127
38
10
33
15
-1
66
18
51
127
71
7
49
13
-47
-36
72
-69
-71
127
-39
-51
74
17
31
13
18
127
35
10
33
4
-70
-127
-23
66
76
-6
31
114
6
6
36
5
6
127
26
-8
41
4
-14
-54
-13
-20
-73
-21
30
127
19
96
107
84
27
74
65
-112
-127
-102
1
16
-3
20
127
39
-1
16
-2
13
-107
-4
-73
-127
-71
16
-102
-3
61
-23
54
-14
-127
-26
63
-23
57
23
127
53
2
34
-28
23
120
54
8
26
5
7
127
21
12
28
6
39
-14
-83
98
40
-127
41
-14
-73
-50
23
29
-113
28
127
-59
25
35
-43
49
57
-44
127
116
-36
48
52
45
127
-4
82
109
51
43
108
13
1
8
5
13
127
4
4
11
3
16
53
5
65
127
40
20
50
9
-20
37
37
-35
-8
127
-11
46
34
-127
69
13
112
-61
-6
45
-50
1
1
4
-12
-2
127
9
4
5
-12
11
-26
-9
127
-102
-6
13
-23
-11
-4
32
60
-20
-72
127
1
50
38
-5
54
-17
30
127
36
11
47
12
26
23
-47
48
127
-22
-31
13
-42
-7
12
14
27
127
35
-8
15
8
12
35
5
17
127
30
23
38
-3
4
94
56
127
97
89
1
93
59
-18
-26
68
63
-127
-2
46
-8
2
-7
29
-3
55
127
28
-3
22
3
101
50
-22
127
71
-39
88
47
-16
20
-18
-12
127
-70
-38
20
-15
-12
-5
44
0
52
-127
-1
5
30
-1
19
46
16
47
127
37
24
33
18
-56
-114
-48
-127
-32
-101
-64
-105
-48
-34
-116
-29
-9
13
-8
26
127
31
-13
12
18
-30
-46
127
-3
10
12
127
29
-15
87
-52
-53
-18
-50
-35
23
127
39
1
-17
25
-55
-121
-36
21
45
28
24
127
30
22
41
24
11
1
1
15
127
2
10
8
3
-19
25
4
-118
127
20
-21
23
3
-18
-127
-27
30
115
39
-1
3
4
37
81
21
90
-69
127
26
94
6
5
43
11
50
127
46
16
53
8
45
-22
-36
127
-32
-122
48
-10
-41
17
27
10
17
127
13
13
18
9
-3
34
-1
-47
127
-29
4
37
-3
49
-3
-31
106
-50
-127
55
-8
-28
-61
-119
-75
-104
-6
-127
-56
-100
-102
4
18
25
-1
-74
127
4
22
24
70
33
84
54
17
127
65
53
72
16
127
20
-27
-106
-6
-4
-40
-19
32
17
22
47
127
41
34
9
21
22
-26
-17
127
-21
-91
22
-25
-17
11
101
-23
50
127
83
-1
118
-25
4
9
7
19
127
20
8
10
8
-30
-35
-18
35
-127
12
69
110
88
18
40
-45
112
47
-127
15
35
-38
-19
121
-35
-113
-13
-97
-13
127
-30
-23
-33
44
-38
-118
127
-27
-24
43
-35
-41
1
-127
32
70
-32
-41
2
-31
-104
-45
-122
-28
-102
-5
-127
-46
16
28
10
36
127
26
7
29
11
25
69
14
71
127
-5
15
79
25
4
29
13
-15
127
43
11
25
15
-78
-104
25
-91
36
73
55
127
31
-1
29
4
10
127
26
-1
28
7
1
21
9
17
127
18
5
22
12
10
6
16
61
127
61
16
4
11
-10
24
-5
20
127
19
2
17
2
13
38
10
27
127
43
21
41
24
61
-18
-52
127
-64
-126
51
-27
-52
64
127
83
14
-94
-28
-41
-45
-30
55
74
62
98
127
33
38
76
66
-12
127
92
-18
-29
-20
-18
-113
-48
-3
36
21
31
127
43
-13
32
13
41
72
59
86
127
94
28
66
63
-98
-116
-49
-118
-62
-55
-97
-127
-37
-127
39
87
14
12
33
91
33
-106
-4
6
-5
5
127
18
-6
7
1
-4
7
-62
52
-70
-77
60
127
50
-5
104
6
6
127
21
-3
87
0
-17
30
-14
-39
127
-21
-16
24
-11
-54
1
40
-127
27
104
-52
-2
39
-5
9
-12
4
127
23
-5
11
-7
12
64
12
51
127
55
5
53
14
-19
-13
19
-43
33
127
-20
-11
15
-84
-127
-51
-121
-127
-99
-68
-106
-41
-10
-40
0
-31
-117
127
-11
-43
9
127
-34
-53
99
58
-114
122
-33
-54
37
62
19
54
127
85
28
56
20
127
0
-71
-13
-8
-23
-47
72
-4
-13
34
-23
52
127
43
-21
48
-18
19
40
31
44
127
25
12
34
26
-56
-122
-59
-30
-65
-33
60
127
54
-7
-2
-6
9
127
-7
-3
-4
-3
16
21
19
-1
127
40
18
25
9
-83
127
63
97
21
-41
3
11
-17
4
55
-7
76
127
82
-13
54
-5
-38
127
63
-19
9
-13
6
-47
-24
-14
0
-10
-11
127
-12
-13
6
-12
-91
43
127
41
101
20
108
34
-88
-87
-115
-74
-95
-37
-127
-80
-115
-64
19
33
28
41
127
62
18
27
29
36
-4
7
71
-21
54
66
52
127
51
112
-15
52
106
-16
7
-127
-78
44
-36
-102
-11
-52
21
-74
52
127
-6
17
3
7
127
22
-4
20
-2
19
-16
-8
127
24
-18
17
-16
-15
-11
-6
-12
5
127
-5
-13
-3
-11
90
61
-15
127
-68
-44
87
53
-31
-9
-46
-9
-50
-127
-57
-13
-46
-6
16
26
11
30
127
29
12
26
10
-70
-127
-59
6
32
6
44
77
36
27
78
-32
66
127
94
31
81
-10
-2
21
3
31
127
31
-16
-119
-64
-1
12
-5
16
127
8
3
18
-5
5
-5
-5
-8
127
2
8
-7
4
52
-19
4
84
-127
5
52
-18
0
-13
-56
-17
-86
-127
-56
-18
-66
-21
-31
-7
-55
-11
127
-15
-34
-9
-42
6
6
1
18
127
-4
4
5
-2
18
10
6
7
127
12
15
4
7
-72
-118
-79
-127
121
-103
-51
-123
-68
-4
26
4
27
-127
36
-1
30
4
-4
63
44
-55
3
127
-10
60
34
-4
-31
-4
-15
-24
127
-8
-27
-8
56
6
-29
127
-125
-85
63
24
-31
2
33
3
29
127
14
7
31
2
21
61
33
39
127
27
27
68
30
-68
-92
-53
-98
-127
-71
-57
-88
-44
55
-5
-73
127
-47
-109
49
-13
-66
12
34
22
18
127
27
22
27
15
6
16
20
7
127
28
-2
24
18
28
127
-3
-108
-123
-31
29
126
-8
43
96
-18
114
127
63
38
101
-13
24
127
21
-5
-25
-8
-20
-111
-18
27
61
-19
26
127
-23
30
65
-13
12
16
6
2
127
43
13
25
0
5
22
-5
26
127
78
2
20
-6
-75
-90
-58
-51
112
-40
8
127
-11
46
-19
-38
127
-43
-79
52
-9
-39
4
-44
-4
-76
-127
-31
-4
-37
-2
-85
-113
-95
-127
-32
-93
-101
-120
-77
-37
-19
54
-47
-73
127
-32
-26
63
41
87
50
48
127
80
45
83
35
-7
41
-8
-2
127
-2
-6
34
-4
13
-9
9
73
-127
69
17
-7
4
24
45
33
23
127
1
30
44
31
108
123
100
78
87
127
102
120
110
15
35
12
29
127
30
6
36
10
-26
-127
-29
27
56
35
6
55
9
40
127
35
-40
-19
25
-39
-112
-21
-71
-108
-73
8
127
39
-61
-92
-62
-88
-62
40
-113
-52
127
-81
-64
29
32
-11
-40
127
1
-50
26
-9
-43
10
25
11
21
127
16
12
24
21
-5
20
13
4
127
43
-7
13
13
-28
17
36
-92
-55
127
-22
21
48
-73
-123
-42
-104
-127
-113
-54
-114
-42
4
-16
-2
-4
127
11
8
-17
-1
-14
-20
-4
-23
-127
-8
-17
-15
-1
44
118
39
3
-23
-3
-45
-127
-35
4
28
4
11
127
19
3
25
14
12
44
21
30
127
48
18
34
26
24
46
-14
38
127
0
20
33
-7
32
111
-23
42
127
-74
50
85
-10
0
5
-1
3
127
6
1
3
1
-37
-16
2
-23
127
31
-34
-23
5
5
4
-6
10
127
-13
4
1
-4
-4
2
-5
-4
127
4
-1
1
-5
-10
-43
-30
18
-127
-8
32
85
37
1
14
-1
-100
127
-23
8
14
1
23
-28
-28
127
-99
-43
24
-28
-22
-127
-110
-98
-86
-62
-122
-103
-99
-86
-67
-109
-95
-100
-127
-98
-84
-106
-85
17
48
20
45
127
51
24
43
26
1
12
-4
7
127
6
-2
14
1
-83
-9
-44
-50
127
11
-80
-9
-58
15
61
4
65
127
40
12
63
-3
-14
24
50
-71
-109
127
-42
-34
39
66
30
-71
127
116
-103
20
-8
-98
20
58
7
87
127
83
15
48
0
6
62
9
-3
-127
6
4
59
10
15
-32
-19
4
102
-45
-79
-127
-55
5
-37
6
18
127
25
7
-28
-2
12
8
6
3
127
9
9
13
8
2
12
7
24
127
30
4
8
7
35
52
31
-39
-127
-27
4
29
3
-1
-12
2
74
-127
80
2
-16
9
-17
-12
14
127
-58
-25
-6
-23
5
59
-11
-5
12
-127
33
6
9
30
-36
72
-8
60
127
59
-20
65
-14
31
127
34
-45
-45
-36
-5
-14
8
-26
19
-2
-82
127
-67
-19
30
-3
-12
23
-2
24
127
7
-9
21
-3
37
72
58
-38
-127
50
-17
-16
33
18
2
-11
127
-11
-70
24
1
-16
-76
-127
-77
-111
-58
-127
-83
-114
-96
0
16
5
10
127
15
-1
15
11
31
127
28
-33
-124
-22
-9
-22
-10
-13
5
21
-36
2
127
-12
2
15
3
25
4
16
127
22
6
27
6
5
10
5
8
127
16
6
12
2
4
15
-21
-27
127
35
2
22
-13
7
5
15
23
127
4
8
7
14
-38
-53
-40
-93
-127
-57
-34
-78
-59
12
46
6
35
127
37
18
44
19
49
16
7
127
-121
-51
25
-18
3
19
-22
27
68
127
84
20
-27
25
68
127
12
0
14
-38
-44
-84
9
-51
-88
27
127
-76
-25
-44
-84
26
66
93
102
81
-42
127
80
109
80
3
9
3
5
127
14
4
13
6
8
-54
41
-13
-120
127
7
-42
41
30
104
65
-59
85
54
-127
-31
6
50
127
45
-71
-52
-32
-45
-76
-44
24
67
28
13
127
101
2
66
19
22
42
19
44
127
10
3
40
24
13
32
12
51
127
19
14
27
11
6
36
72
48
86
127
-2
38
85
39
59
37
62
127
56
36
47
31
9
42
37
-25
127
40
16
36
39
43
127
1
13
15
-47
-26
-73
-12
5
31
6
39
127
48
7
32
7
51
127
31
-16
24
-10
-46
-120
-29
-3
18
4
22
127
3
-1
21
2
77
93
26
127
-58
28
75
83
16
-24
67
-12
-3
-58
4
40
127
37
-14
25
39
-11
95
127
-16
17
39
22
113
46
37
127
-14
25
120
58
6
40
-3
2
127
7
-6
52
5
-23
39
-28
45
127
40
-23
38
-12
-45
-64
-44
-72
-127
-70
-44
-56
-48
0
71
-3
2
-127
7
4
48
-2
-88
9
1
-109
127
48
-89
27
0
-1
-1
-3
13
127
-5
-2
-1
-5
3
15
8
29
127
24
12
18
7
1
46
10
18
127
18
11
24
4
9
-7
8
-5
-127
-16
11
-14
9
127
101
34
-28
-44
51
-23
-9
12
2
-16
-2
-1
-127
-12
1
-17
-5
9
-64
-2
-31
-71
127
15
-71
-2
10
17
6
22
127
5
3
0
2
32
67
20
75
127
41
15
69
31
25
64
32
-40
-127
39
-58
-47
15
40
-44
16
106
127
117
19
-43
9
-68
-86
-79
-102
-97
-127
-49
-70
-59
8
-15
2
127
-77
-13
0
-8
-2
56
44
-4
127
-113
-93
33
42
-15
-27
-48
-21
76
127
0
-3
-26
-22
-109
-127
-103
-119
-78
-123
-100
-124
-93
33
68
36
77
127
-56
20
71
26
4
-22
7
88
-127
105
5
-34
13
-14
23
-26
21
127
-5
-13
24
-35
-48
15
37
-127
38
92
-46
14
41
-56
127
125
-4
26
-32
-3
-1
-70
31
63
28
89
127
35
11
52
34
-14
-19
7
-122
-127
-74
-10
-27
1
-23
49
53
-54
-33
127
-9
46
59
54
96
0
110
-127
-73
55
105
20
-22
-127
-15
8
97
5
7
29
4
-8
59
19
8
127
28
-3
50
13
-67
-116
-51
-127
-70
-127
-80
-101
-61
55
93
34
41
127
68
45
92
47
7
59
12
-13
-127
-11
7
60
13
-48
-102
-49
-87
61
-122
-50
-127
-42
29
22
3
44
127
-11
22
22
2
89
-16
-124
5
77
-23
-127
24
87
23
31
-54
78
50
-127
27
22
-57
-18
36
-16
43
127
20
-22
42
-18
1
0
-2
-2
127
8
0
2
-1
40
-6
8
58
127
64
25
-21
10
50
127
55
-61
-75
-50
-40
-58
-34
2
127
110
-41
-85
89
-37
-41
-17
-2
2
-11
-3
-127
-7
-2
-4
-8
-4
127
-3
-14
-78
-17
11
34
-11
30
-12
11
127
9
18
31
-14
17
-29
-17
-6
-27
-88
-21
127
-24
-16
-57
54
44
-37
77
127
-42
54
42
12
24
10
22
127
8
10
22
10
6
-35
-13
-35
18
30
15
127
8
-63
-90
-27
-98
-18
-127
-54
-109
-29
-27
47
-10
45
127
36
-23
41
-18
-8
9
0
3
127
49
-7
19
-1
13
26
8
18
127
6
11
34
13
4
16
5
11
127
12
1
15
5
5
22
4
17
127
23
13
21
18
-58
-41
25
-47
-127
43
17
55
32
1
32
4
15
127
27
-5
25
6
17
30
15
26
127
-13
14
27
22
4
50
-1
35
127
47
7
41
2
30
47
24
63
127
47
32
42
17
94
48
-49
127
-95
-55
74
24
-49
50
109
72
126
127
-6
59
104
69
-10
-15
9
5
127
-11
-10
-7
8
-1
-2
10
54
127
33
4
-5
10
-21
-32
33
-38
-122
127
-17
-30
36
10
60
5
-20
-127
-19
6
59
9
7
19
2
-61
127
-22
13
16
5
0
0
-9
6
127
-2
0
3
-6
-5
-29
13
-2
-103
127
-8
-28
15
12
40
49
-47
71
127
5
45
37
-11
40
-9
45
127
40
-10
44
-5
-33
-9
39
-105
-66
127
-30
0
35
21
0
21
-4
-127
6
24
9
18
15
25
29
38
127
26
22
32
28
-5
38
10
-36
127
-20
-8
42
14
34
61
90
27
-127
110
21
62
89
19
53
18
39
127
53
10
46
15
25
25
35
48
127
47
22
23
36
-7
-1
-6
0
127
-4
-6
-1
-7
44
-32
-50
127
5
-52
46
-25
-51
-3
-11
-7
10
-127
-1
-5
-12
-10
30
14
-4
56
-127
-4
26
16
-3
-18
-17
23
-50
-9
127
-22
-24
19
10
4
12
91
127
95
28
-5
16
-8
-14
-3
-7
127
-16
-10
-13
0
-16
20
27
8
-31
127
-21
18
30
50
77
16
23
127
57
57
69
40
28
67
17
100
127
85
39
84
48
127
-2
-120
-112
20
103
-52
7
57
43
-75
18
127
-97
-18
41
-68
13
-72
-127
-69
-100
-52
-100
-81
-93
-93
-12
16
22
40
87
127
-12
32
18
12
27
3
23
127
15
20
26
5
31
63
19
51
127
76
18
50
27
-60
-127
-67
-109
-83
-80
-39
-106
-63
-8
-44
-38
-60
-71
74
-37
-14
127
-4
-120
-19
-108
-13
-100
-3
-127
-22
22
-27
-16
127
-59
-26
19
-23
-22
2
-6
42
-41
33
127
3
-6
43
4
75
3
11
26
18
-2
-127
-3
-12
-127
-9
-26
11
-27
-19
-117
-19
-8
-47
-11
-29
-127
-22
-10
-47
-11
9
24
9
20
127
12
10
18
5
-45
-8
-34
-5
-29
-13
57
127
54
23
17
-8
127
7
-23
3
13
-14
-13
7
9
-14
-127
125
-14
9
14
6
-18
6
72
-127
63
9
-19
7
61
102
41
-37
127
-26
47
92
40
-21
-127
-39
-119
-24
-107
-11
-120
-43
15
36
6
23
127
31
15
22
12
-6
15
3
-30
127
-2
-12
20
2
11
31
-18
48
127
-66
-75
-109
10
-9
-21
-2
-31
-37
-32
5
127
37
-1
35
56
-32
127
112
8
41
58
51
60
18
127
-72
65
55
54
13
11
31
-6
34
127
40
19
25
-10
-13
-34
-9
52
-28
-2
42
127
73
48
67
49
56
-127
54
49
65
47
-53
-101
-73
-101
-83
-94
-49
-127
-49
-5
12
-31
10
127
-55
-2
5
-40
-69
-39
84
-127
-1
122
-79
-28
72
-10
-41
-11
91
127
92
-5
-40
-2
-2
11
4
-41
127
-48
4
7
6
-8
-19
4
-14
-127
-11
-5
-19
8
10
-46
-29
-24
5
-26
-53
23
127
32
23
9
127
-116
-5
17
25
9
-75
-118
-55
-127
-112
-116
-67
-123
-60
-4
16
-48
-17
127
-113
-4
16
-46
-1
8
-8
6
127
8
-3
10
-12
-127
-119
-52
-105
-92
-108
-95
-111
-62
38
101
-41
107
95
-80
-93
-127
-42
-22
4
31
4
-127
38
-18
6
23
-8
10
9
0
127
27
-9
16
3
-18
14
40
-43
84
46
-76
-127
-54
43
57
20
-127
-90
-38
57
58
15
-61
-86
-67
-76
-52
-41
57
127
58
5
-33
-1
35
127
27
-2
-38
3
-46
-120
-22
-95
-127
-101
-29
-116
-36
15
19
11
23
127
12
12
17
13
-30
11
55
-37
127
110
-30
3
42
36
5
30
127
77
111
36
9
27
-5
27
-4
32
127
50
6
22
-5
34
87
17
54
127
60
17
60
28
47
127
47
-34
-94
-33
-32
-61
-18
12
36
23
29
127
47
11
31
29
17
111
15
127
6
-80
12
102
21
-110
93
52
127
-102
-83
40
-18
-4
-5
11
-6
23
127
8
-6
17
0
-40
-50
-49
-127
47
-77
-55
-64
-53
15
67
22
74
120
127
11
63
30
-20
-25
29
-14
-32
127
-15
-24
22
-54
28
20
-50
127
6
-57
25
24
22
23
14
31
-127
-1
24
21
12
18
51
-2
52
127
42
23
42
-1
3
42
-17
19
-127
61
-3
10
9
-21
-122
-14
-42
34
-127
-22
-111
-18
-6
7
3
-4
127
12
-7
5
-3
-25
37
-8
31
127
34
-8
28
1
29
41
32
56
127
38
20
28
40
24
32
8
49
127
35
0
26
23
-8
-20
0
-11
127
-17
-7
-18
4
39
74
-33
93
-84
-127
28
72
-19
-15
-45
-15
-41
-127
-46
-10
-42
-12
26
46
13
36
127
48
28
49
17
-38
-57
-43
-40
127
-55
-37
-58
-36
-3
6
-17
-13
-108
-20
58
127
48
14
29
23
18
-127
32
13
35
21
4
15
12
29
127
17
2
20
16
62
108
54
90
127
76
65
111
50
7
52
12
54
127
36
13
44
15
-1
127
27
-12
90
-8
-27
-44
-24
-37
-80
-36
-2
-72
11
19
127
23
15
40
17
40
127
39
14
35
9
-8
8
5
9
127
16
-10
6
6
8
14
11
16
127
6
9
7
9
3
16
9
36
127
26
9
24
11
-16
-127
-5
-63
36
56
-18
57
13
74
-40
-43
115
-88
-76
-127
108
52
6
-2
-5
94
17
-16
-94
127
45
37
127
36
-37
-86
-28
3
-12
-10
-7
13
-1
13
127
8
-7
14
-6
5
9
2
16
127
10
2
10
9
-51
14
14
-127
25
2
-42
16
12
-10
121
-11
-16
48
-18
-5
127
-15
19
35
18
38
127
37
12
32
18
-1
-13
-3
-9
127
-31
1
-8
-9
-88
-102
-80
-127
-52
-98
-87
-84
-54
123
123
127
46
-61
28
-34
-76
-36
-29
-9
127
-10
-108
-36
-7
-18
-14
10
-127
3
1
30
5
-8
91
-7
18
5
-58
31
127
-9
21
4
-56
5
-13
3
-27
-81
-19
28
127
25
0
32
7
11
127
39
6
34
10
-29
-59
-33
28
127
36
-32
-59
-23
-6
27
69
-29
-127
-41
-65
-70
-35
-58
-127
-53
0
38
27
37
90
42
27
110
47
-24
-6
-9
21
127
44
-50
-127
-38
-1
16
-2
42
119
24
0
31
-1
32
127
19
-8
25
6
14
55
-49
40
127
-107
16
56
-42
-68
43
54
-125
56
127
-64
35
57
-70
-125
-49
-87
-97
-104
-68
-127
-69
11
15
4
28
127
22
19
16
8
39
64
34
54
127
32
29
70
19
-58
-122
-72
-74
-127
-113
-61
-117
-56
26
-54
24
70
-127
55
27
-47
14
-6
11
-1
8
127
3
-2
8
-1
4
5
11
3
127
26
3
11
7
17
42
18
59
127
33
19
41
17
55
-27
6
127
-73
15
65
-30
2
19
43
17
102
127
-5
26
34
24
26
-7
0
127
12
-28
23
-4
3
52
127
51
35
-114
26
-29
-82
-34
19
34
-4
53
127
-19
27
32
1
18
29
11
31
-127
24
18
21
8
16
33
9
31
127
25
18
30
2
18
36
14
80
127
71
28
41
16
5
38
13
21
127
38
3
36
15
-84
-89
-108
-127
-79
-119
-85
-79
-114
9
31
24
42
127
23
10
27
21
23
71
28
33
127
39
21
73
16
17
41
8
53
127
56
7
46
17
-6
-124
-84
-1
-127
-27
-2
-127
-65
-10
9
-2
-6
127
-14
-12
7
-4
51
1
-33
127
-101
-18
69
-6
-33
2
11
-2
11
127
9
3
16
1
-13
-14
-21
-23
-121
-28
16
127
43
-35
-106
-33
-127
-6
-41
-53
-102
-25
-15
-84
-25
127
-86
-123
-8
-88
-22
-22
-48
-25
-30
-127
-37
-27
-44
-19
-15
-55
-6
-45
-127
-42
-17
-39
-13
19
79
55
-66
39
127
25
96
71
-47
-90
-12
6
27
-43
69
127
-11
-96
-65
-30
-127
10
-53
-83
-74
-40
1
-3
-7
-2
127
-1
-4
-2
-5
3
32
-3
45
127
49
2
29
-1
11
39
8
9
127
10
8
37
8
42
-39
-16
127
-81
-57
41
-13
-20
-13
-47
-109
29
127
-57
27
12
14
10
38
6
47
127
38
11
37
14
-49
-77
-44
-38
-71
-29
50
127
40
13
2
-16
125
13
-127
2
-4
-13
-45
-51
-40
-93
-127
-69
-52
-59
-39
18
19
18
29
-127
32
19
23
20
7
17
14
16
127
40
12
16
16
7
9
8
6
127
20
4
11
8
