18
-66
10
-43
1
-41
69
-32
-92
34
89
-35
17
-16
-4
-88
32
-15
-38
-29
-25
127
-6
-66
43
-53
30
-4
-11
9
-11
-24
-65
-61
-5
-103
-16
-58
-14
-7
17
85
43
-26
11
7
-55
-37
-36
36
4
-107
-92
14
6
-13
-62
-54
15
-57
117
-123
-18
-5
-31
0
-47
-97
-46
-60
-51
-63
60
-18
-30
42
-27
27
-82
-8
31
-23
60
56
-38
-48
-26
51
-46
-30
33
-75
13
-59
12
-45
22
-42
-11
-17
26
-29
-89
-58
-92
-9
41
-75
12
-12
-68
29
41
2
-30
-8
-6
106
3
-94
-12
-93
127
-71
4
-15
-9
4
-73
15
-22
-73
-111
13
33
-67
21
-80
72
3
65
-34
-11
-17
-32
19
-48
40
-50
-7
-124
-69
33
13
-34
68
-41
24
20
53
-2
-16
-25
-105
-29
42
47
-11
-38
8
56
15
-15
2
59
-53
5
-51
-16
0
-13
30
-18
-59
-9
-49
-11
-98
-59
-127
-91
-40
-23
-64
8
23
8
-33
-19
-45
-41
-10
-5
10
44
-34
-8
-6
-57
-6
-45
-23
13
-13
-99
-13
-59
35
21
32
121
88
30
-14
36
49
-27
-28
-7
59
-1
84
69
-7
39
-52
-39
-4
17
4
31
11
-74
59
-9
1
7
-30
-57
14
4
-59
0
-18
18
36
-60
13
-70
-34
24
4
-61
-89
44
-4
-52
-23
4
-112
32
-96
39
-28
-33
49
-54
-39
-63
-45
61
68
-10
-7
-44
-80
-31
19
-8
-24
-56
17
34
-76
38
-85
-33
-45
-99
54
-13
22
-32
5
120
23
-66
-31
44
24
-2
19
-16
-2
-82
-42
-30
-85
-69
-34
-46
14
-36
1
-71
-45
13
-58
-59
44
-72
-60
-111
-48
34
104
-54
2
103
-30
19
-19
60
-41
-22
-59
16
-93
37
-47
-58
-91
31
-71
17
-7
67
22
5
-76
-91
-6
48
-32
-17
42
-24
-99
-17
74
-76
-5
-18
30
-54
-10
23
-68
-1
-63
20
3
48
2
54
26
3
-74
19
-84
34
17
3
-54
-19
-73
25
-39
-9
-64
-59
-46
3
-10
-30
29
-47
-85
-25
8
74
-48
-17
-65
42
-59
24
74
-31
-13
4
-74
35
13
-9
-26
-74
4
6
-41
27
-54
22
31
-3
-102
76
24
-1
10
-50
28
40
-45
-71
-12
-26
-21
-91
-45
-32
-25
39
27
84
-15
37
-34
-21
24
-8
23
-56
-17
37
-11
-34
-50
3
17
25
-44
-7
-16
6
-17
-36
-45
16
-54
-107
-105
72
7
21
4
-127
-37
-19
-7
27
9
-29
-89
23
-31
-34
-12
78
-19
-18
-53
-64
13
-42
14
45
13
-37
-4
-19
-12
-85
-7
-59
-56
-6
46
-24
86
1
-47
-41
-1
-26
-49
-49
-46
-7
23
-22
-77
-16
27
-10
7
-40
-27
-28
61
-54
-41
66
69
-76
-40
-3
-9
-20
3
-81
-97
-27
-34
64
-50
-44
30
-28
-48
-13
-42
-3
-91
-59
10
8
-40
-23
-87
-39
6
18
3
41
-68
-37
81
-11
-13
45
7
100
98
-43
106
-65
44
-11
8
-21
-24
-34
-26
-41
36
-4
-52
-7
-28
34
-26
21
-14
69
-62
68
36
40
-12
23
-71
-56
7
14
55
-8
-43
-30
-48
-25
29
-45
-48
-19
11
-10
33
-9
-7
-30
-22
-77
-37
-9
-54
10
-9
33
13
-67
-4
120
-40
127
44
-29
-6
1
-21
-31
-19
-56
20
27
32
26
30
-74
-23
47
0
-60
41
-9
-66
-71
34
102
-44
77
-2
-24
-6
-34
-30
-43
18
21
-17
54
-51
56
-58
0
-13
67
-91
-19
-14
-37
-32
-22
-68
127
-87
-18
29
-60
74
23
-1
-32
42
29
5
27
-37
-8
8
-54
-46
43
-17
-90
-10
-55
74
-12
-16
-19
2
14
-24
-87
-63
6
-17
73
-16
81
43
-51
51
69
-37
-101
-13
-38
12
-6
-67
-3
68
-29
-17
28
12
-26
84
-73
-43
-46
-31
-77
9
27
-5
39
32
-23
-40
16
-15
-17
-4
-13
9
2
-119
71
-10
-26
-31
-9
-55
-42
3
0
-17
-34
-89
27
41
-75
-42
-16
-31
56
63
64
65
58
2
14
-56
-63
-18
-43
-41
-49
29
10
-12
-9
-7
-29
-20
26
17
22
38
-51
-31
23
-29
-63
59
-38
-51
2
-30
-115
66
10
16
-5
-34
-29
19
9
-39
-30
11
6
53
-4
-21
-84
-70
-6
1
48
15
-29
-4
70
84
33
30
16
-30
4
-72
-26
47
-21
-14
-54
-58
-10
15
-9
-16
-46
-4
-22
18
8
14
5
-24
-12
58
-84
-28
-24
42
-17
-86
2
12
-1
-5
-80
73
11
10
-25
-5
57
8
-7
-123
39
-35
98
-34
-127
-26
-17
7
-41
-25
29
-86
-19
31
6
-120
92
-40
48
-104
-89
115
-78
-54
28
-51
-40
-28
-4
-21
-3
24
-46
47
-44
27
49
18
-41
-44
9
127
4
53
53
-7
-6
-3
-18
-54
7
-36
-68
0
-127
-33
-37
-16
-92
2
9
104
37
71
-32
0
-4
27
93
-34
-29
28
-1
-36
17
21
-24
1
12
53
-2
-39
-43
13
71
46
13
-6
-95
-42
-14
13
6
93
-42
-15
25
86
21
-1
-55
5
-76
-5
56
36
8
-38
-25
14
-8
-62
37
8
20
3
-26
6
34
-26
43
51
-89
27
127
4
-50
60
-49
-5
-5
2
78
-120
-11
-9
2
-35
14
-12
-56
-15
33
-8
-77
-11
22
-18
3
127
-120
-69
49
49
-5
55
-32
-45
13
-90
-73
-67
11
66
-47
-84
27
23
-45
-6
11
-5
-1
-11
-16
-50
-46
-60
-108
-2
9
8
-9
52
48
-19
13
-115
-12
-19
0
21
-14
-22
-26
-33
-18
55
-10
-9
57
12
-1
0
37
29
64
-117
-37
61
-48
-64
28
-30
-19
47
32
-28
27
116
13
-5
-22
-34
60
-66
-56
-9
-35
12
39
50
-11
-46
6
-44
39
3
20
-84
4
62
24
-23
1
-33
-18
15
-97
-56
31
-14
-103
-11
3
-25
-37
-1
89
62
-77
-127
36
-102
27
-23
13
-16
-6
44
-46
-33
10
7
7
4
-19
24
-55
-48
1
1
-44
71
-14
34
53
26
-12
7
-12
-43
41
3
6
-4
43
-26
-24
-69
-49
8
24
4
-24
-61
53
14
-17
-79
-1
-91
-51
16
-38
-32
-26
11
-92
45
19
3
-127
12
17
-52
29
40
27
9
34
-14
-55
-66
103
-19
-7
-63
-2
-38
55
71
-44
-57
21
-29
-16
-32
-41
-77
-32
-26
-52
-53
34
-11
-23
-42
-27
12
-15
3
42
-16
-29
10
12
-7
5
39
-20
17
26
-34
-101
-65
-29
18
-13
16
1
-40
-26
-76
27
-66
-11
-21
49
3
-22
-20
-11
-15
-64
-13
-52
8
-52
31
-48
-127
26
-65
-22
-54
-39
-113
-44
-18
22
-15
-127
45
24
-31
-18
35
-10
-9
13
29
-27
-16
-104
27
-6
58
127
9
-127
-46
-27
-18
25
-36
-12
10
29
29
36
42
-49
8
32
15
73
21
-12
22
-38
17
-57
4
-24
-31
9
-44
-83
-7
-40
-27
105
-12
52
-47
91
-52
-10
-127
-10
-69
-107
33
-48
6
-62
-47
-54
27
12
24
-29
-46
37
-99
-65
3
-103
0
36
-8
-13
-8
77
-47
26
-81
1
-20
20
-65
-45
-25
-4
34
-6
-127
-9
4
-114
38
-75
96
17
9
-34
-3
-17
-35
18
-21
-45
2
-77
-19
-40
-51
20
-16
-1
29
15
3
-33
-15
-14
-18
62
104
-40
-23
22
-23
-3
42
-86
-72
-71
-37
-20
47
79
-34
-11
-39
40
-6
-28
-127
9
124
-7
-45
-13
1
40
127
41
4
-44
-12
-39
-9
-2
-22
1
-10
21
14
38
15
-70
14
16
0
2
-48
-88
7
-34
-50
-62
-19
-5
-5
82
-37
6
1
33
54
-9
-3
-48
-31
-14
6
-28
15
-42
-15
-16
-15
16
67
-21
30
-94
10
-38
-14
-37
4
-15
-1
-7
-16
61
3
18
31
-52
-68
-1
-70
30
-63
-48
-13
22
17
5
0
-30
-7
-6
-25
-34
-2
-26
-7
-23
-18
-39
-21
-19
-55
74
-19
-20
-27
30
91
36
-84
-81
11
41
-78
-7
-29
-5
15
-39
-79
-15
-35
-61
-9
-32
-20
-21
-28
-19
-19
-46
30
6
13
-19
-127
-17
-22
-109
-28
-54
5
-8
-68
6
-17
-3
-22
-39
-104
-5
24
6
23
0
-89
-39
-54
3
-14
33
-64
20
2
0
-60
-59
-36
-91
-44
-38
23
66
40
-11
40
-127
127
7
18
-26
30
-8
-54
-53
27
-29
-14
31
-8
-30
-18
-77
11
0
-91
3
-67
30
-1
-25
9
0
-40
-7
42
-14
7
-20
1
-2
-25
14
-44
-33
-70
-41
14
-13
-59
-28
-41
-31
16
-30
-9
29
-24
47
-29
-51
-35
23
-95
-24
-2
15
20
-25
-37
-16
-22
-1
40
18
-70
-104
-1
23
-13
-31
26
2
28
3
-4
-6
-8
52
88
24
-40
-27
36
-90
-121
19
-12
-22
-10
-49
-95
-63
4
-89
7
-24
-26
-17
-28
-56
-58
-106
-77
19
-10
-46
46
-60
-11
-34
29
-105
-127
-49
-13
20
16
0
62
-60
-127
48
53
-17
1
-22
8
-44
-34
-108
15
-14
54
-107
-43
56
-91
8
25
0
-63
8
59
-96
-127
-10
-26
-57
4
-25
-32
-35
-117
-99
-5
-29
26
-9
-92
43
-47
-58
52
-33
-3
43
53
-3
4
-127
-41
-6
-49
-8
-14
-48
-63
-42
-11
0
25
-79
13
-54
26
-45
0
-18
13
5
4
-126
127
2
28
-17
-7
-31
20
4
-34
-30
-3
44
-24
-54
-45
36
-11
-16
27
-10
6
4
-55
-78
-5
15
30
46
-10
-50
-4
-80
100
8
-32
44
66
6
-38
24
-1
8
-6
-42
-65
-81
-14
2
-43
-31
-47
6
33
-80
-23
17
25
18
-31
-75
29
-5
-44
-51
-21
26
102
-34
29
63
-8
66
-2
-54
-20
98
-16
8
-100
45
-56
5
87
-7
-27
8
-13
-33
40
6
-83
-60
23
6
117
-29
-47
-21
-64
-10
17
-78
53
-98
-36
-24
-46
-92
-14
-3
-43
-42
92
10
76
-55
13
48
-15
-28
2
-28
-47
-69
-19
-28
36
45
-23
2
4
-10
71
28
-60
-31
-36
-1
-9
-64
20
7
15
7
-16
-1
-44
-43
-11
127
-93
-4
-18
-11
-100
-53
-74
58
7
-35
-39
-22
7
-11
-63
-56
-18
-36
-4
0
-127
-19
-29
77
38
-19
-26
-19
-18
-52
-27
-6
108
-18
-21
21
-9
0
-31
21
87
-41
-31
12
6
-110
41
-17
1
0
-31
-21
-18
-74
13
17
-22
60
-20
54
28
-33
-102
15
-87
-55
12
-45
-27
27
-97
29
41
4
2
-29
9
33
-18
12
-7
2
-11
20
23
-30
-25
-45
-10
-4
-7
30
-116
15
21
-13
-73
-19
74
18
-31
19
-4
-6
7
29
-18
-94
-29
-51
33
35
-4
-32
22
-62
-94
-21
-47
-27
127
17
19
7
-88
-8
29
-26
-17
-32
-66
2
-12
-110
-33
21
9
-53
-32
-17
7
-5
-31
-27
-22
-117
15
-22
2
31
-22
11
-70
-1
63
-72
19
30
2
7
-6
52
-26
38
11
42
17
-36
4
-38
-127
18
4
-33
-68
9
-70
99
-47
-47
34
-28
16
-29
-48
-13
-7
44
1
-5
-127
-34
0
-9
5
-4
25
-84
-28
3
-18
-51
41
55
-68
-47
-58
12
16
18
-26
62
-43
14
41
-38
-69
-3
-22
45
-12
-14
-91
84
-92
37
-50
6
-9
9
-28
10
-127
6
-7
-26
-82
-1
-44
-20
-26
-6
-39
-18
-22
-76
67
34
-58
-50
25
-37
-27
1
-58
16
-9
-45
-5
-55
-72
20
-20
-72
-39
25
127
-51
34
30
7
-22
-34
-31
-42
-28
-28
21
58
17
-55
-22
23
39
-26
-15
9
25
-33
-10
29
-23
22
-33
1
-49
-73
20
-21
-18
-25
-80
-102
-16
-23
-127
-36
-11
-61
-10
-14
-106
-10
24
-17
-9
-47
52
-68
-125
-11
19
-19
-56
23
-48
-40
127
-45
20
-20
42
-36
-33
-39
-76
-32
100
-8
-73
25
-2
-28
-8
15
-25
10
19
-30
4
-26
-32
22
9
-56
-25
-3
33
-92
46
94
13
-62
15
18
-9
1
31
-17
19
-6
-87
19
42
43
48
23
38
28
-71
76
-8
-115
8
-94
-6
-45
-62
6
39
-7
-64
71
-16
-2
-5
68
-17
-77
18
64
-25
32
25
13
-112
-54
27
-54
127
-43
108
-61
8
5
-41
-59
1
-98
-85
-18
66
105
14
-55
22
-32
14
41
-39
21
-66
-65
-14
24
-17
70
38
32
-33
9
-43
-14
68
4
-53
-36
16
-24
7
30
-1
102
-35
4
41
-47
-102
7
-82
55
45
31
-4
18
-103
-75
-49
0
-77
103
-42
13
5
-78
30
-19
60
-19
-30
-127
4
-94
-1
55
9
15
13
-28
-32
-14
-21
-28
-36
93
-64
33
10
-15
59
16
-20
12
-14
-47
-51
18
22
19
-1
-24
32
9
-60
40
-49
37
-64
-60
-64
-91
-12
65
-1
-68
-37
-23
-10
-19
-59
2
-67
-36
-56
27
-64
-25
-90
-74
-39
-74
112
-43
2
-49
-40
15
-23
27
-85
-25
-102
8
-17
-20
12
-2
-22
-83
-32
73
-8
-21
6
-40
-5
62
12
-8
15
5
34
-3
-62
56
-44
-7
20
-46
22
-20
-34
-27
-47
5
-24
69
-27
9
24
4
23
51
57
-5
-11
31
-30
-61
52
-42
-13
-3
66
33
-9
-40
65
32
27
-31
35
-46
14
18
27
100
-74
32
18
-39
-90
-16
29
9
14
-36
63
-62
-14
-86
-67
7
-17
6
7
49
31
-52
118
7
-49
-48
-31
127
-38
-6
16
31
83
38
23
25
-107
110
0
16
16
-36
-83
-35
8
-3
36
-54
17
-46
-21
38
-28
29
-44
9
-86
-41
-1
-30
13
127
-7
8
-11
4
-41
-12
8
50
-23
15
38
-39
-25
5
-28
-13
24
32
-31
32
4
48
-25
-10
17
94
-32
-17
-6
-25
-75
30
-3
-5
41
-29
46
38
11
-37
23
-14
-49
18
51
-83
-45
-127
-43
-61
18
28
-36
27
10
-45
62
32
34
69
51
29
62
-99
50
27
4
-44
-84
6
-23
36
41
-10
-24
6
-35
-14
48
-26
-27
-29
19
35
-45
4
-24
-29
113
-4
11
-28
1
81
43
-45
127
30
-8
-64
33
-84
39
70
-35
-72
15
-47
37
-24
54
-127
15
-33
42
-10
11
-15
-59
-3
-127
1
7
-56
7
-35
-1
-29
-26
4
-62
79
33
-14
-1
-16
0
43
95
-65
-13
-69
-55
-110
-73
26
67
84
-6
-57
13
-40
-27
13
-7
3
0
-28
49
0
58
8
35
22
-23
-26
11
32
7
27
-17
28
-28
40
-24
-9
8
-55
74
-60
12
-31
-10
-46
28
-16
7
42
-76
-43
-8
82
-11
25
3
-22
-31
66
-36
55
-54
-5
37
81
1
57
-8
-41
55
-22
-56
53
38
3
-49
94
-63
-31
3
-78
51
84
-30
3
-73
-14
24
20
15
-9
31
4
-80
-115
-16
-14
30
-19
-50
22
-42
37
-60
7
-33
-43
-51
-77
42
18
-18
7
-66
34
6
33
-55
-5
62
12
88
-23
-23
-57
-14
-6
58
11
19
-80
70
-53
22
55
73
-8
-7
-2
12
-12
-41
13
48
46
-45
9
-30
-42
48
19
56
-18
10
-21
-52
19
-17
50
-61
-8
-11
-41
53
8
24
10
-32
-29
-63
25
-54
-11
-48
-39
56
-17
58
-16
74
0
5
17
-64
-33
127
31
4
14
-21
49
-29
6
31
-24
-127
-34
14
56
-15
-79
-62
-13
12
5
-26
-26
-57
41
-18
-32
-34
37
112
-4
-3
-45
-10
37
-53
-23
-5
13
-10
4
-29
-7
19
25
2
-96
12
-42
-27
24
15
127
-127
57
17
-3
-18
-19
22
-61
-27
60
-46
-69
-11
-22
-32
-61
53
24
-6
63
-22
-1
59
-45
-3
-48
66
-14
-22
-38
27
7
71
-27
41
-30
35
-59
-50
21
31
-3
17
-63
-26
-22
-2
25
27
31
-48
-8
-59
-18
99
-24
-14
69
-26
5
-6
-73
-52
-54
19
27
-6
-66
104
19
52
-23
23
37
62
-2
-1
-33
37
-20
-51
-9
10
127
-47
54
34
-23
-32
-13
25
-27
59
60
-23
-47
90
-52
-24
45
0
65
9
-72
52
4
-56
-25
72
8
10
-58
30
31
37
-5
-26
44
32
33
-33
-26
-11
-47
14
-5
-7
-86
-23
-119
16
127
-13
-44
-65
108
6
9
12
47
39
37
-32
1
16
1
3
34
-11
20
-69
-54
-26
-59
22
-19
41
-17
35
-32
7
56
10
-11
53
94
13
48
90
39
57
45
-38
-55
97
28
-127
52
27
26
-2
-75
-23
-35
4
31
23
-127
32
18
43
34
-24
-8
-26
22
5
-81
5
66
-38
-60
36
-9
-39
25
36
-118
53
-56
-59
-38
-59
-1
10
-45
-20
-25
26
64
28
6
26
-55
-99
-60
-42
-13
-55
-44
67
-39
-29
-21
81
-49
8
3
-2
55
38
94
-35
-23
66
-22
103
105
23
-71
-7
-19
-90
97
-26
25
-16
-14
51
-24
-2
-15
-92
19
-13
-53
-7
-76
11
-4
1
31
1
-62
34
-11
-26
-127
-6
-31
52
-68
-1
-14
-53
26
13
-95
-10
8
95
12
32
54
-29
-61
-5
-24
89
8
34
-4
30
-2
27
-7
-43
6
3
-107
-75
2
74
14
-38
-86
-70
-18
26
-42
65
34
-19
-5
127
-39
-14
-86
4
13
-9
107
-14
-13
-86
-38
-8
-12
-7
-65
41
2
-79
-48
-14
78
-114
3
4
-27
27
33
45
-13
-19
28
53
20
-14
79
16
52
10
-31
62
6
-61
54
-5
-4
24
-35
65
-38
-49
5
-3
70
13
-24
-31
54
-22
55
-48
1
10
7
-8
-83
80
-40
20
66
25
3
-64
108
-25
109
-3
-76
-9
-17
-42
32
-8
3
-79
89
-28
31
33
-15
25
83
-44
-73
-4
37
127
-15
72
-5
23
-46
44
-27
-61
-25
-89
-53
62
-27
36
-66
-28
-28
22
-38
-51
81
1
-24
54
-46
63
39
-58
-38
6
42
-49
25
-31
-60
-66
-9
33
-96
-60
-91
9
-53
-10
-37
-53
37
-86
-26
9
-21
69
-41
-77
9
-58
-25
-19
34
-98
-111
41
-1
-45
-8
-61
-28
27
79
-19
4
-16
-48
-68
-25
27
-59
-14
-36
77
-4
74
-9
-4
4
-10
-22
64
54
16
-123
-26
127
-25
-127
13
-33
49
-51
7
-48
24
-18
12
-9
-23
127
-19
-75
-23
-19
-12
42
30
-98
-78
-23
-34
-127
-2
22
3
-43
41
-57
-28
-52
-27
50
-87
-49
-31
21
-70
-24
-41
8
22
37
58
-127
-66
-57
-78
119
1
-20
42
33
-106
-27
-49
-4
22
14
-12
-61
85
-36
-41
118
-7
110
96
11
-19
-36
-27
45
18
38
98
-59
7
-27
19
-26
-15
-46
39
18
-66
-105
0
-61
-22
-23
-12
-72
-68
95
-42
58
-4
9
13
-17
-1
89
-17
40
-24
73
-20
-23
-37
65
-29
-45
-9
-18
-15
-25
-20
-56
116
-41
-95
17
4
1
-13
-37
-1
-127
-11
27
-11
-56
12
11
-67
-49
-60
27
-46
-50
98
-4
40
-43
126
-39
5
46
-4
-10
50
-10
65
32
-110
-10
-64
19
-50
-42
-8
-38
86
-31
51
112
34
-70
22
54
-118
-55
62
-54
37
-9
-49
-6
-30
-36
34
61
55
21
-83
-44
-20
25
-66
-63
-127
-44
-77
-39
-13
-78
34
-4
30
17
75
28
116
-67
-86
-2
-31
-18
-2
-78
-44
4
-127
-16
-82
19
-73
-9
36
6
-18
-73
64
28
-85
10
54
-127
-11
-26
33
-5
2
-114
-48
30
-8
-13
-38
3
-116
-59
38
-16
-3
-110
-7
-7
-127
8
-66
-21
-6
-104
9
-42
37
-32
-35
-7
-32
77
-32
-14
-76
63
8
43
-20
-30
-51
-39
-49
-18
19
62
10
9
-84
-18
-86
-14
-25
25
23
77
-50
-43
-29
18
6
-5
30
-33
-27
-66
-8
-35
127
-24
-121
36
-3
-20
56
-28
39
-58
38
-11
17
4
-20
-63
73
15
-57
9
37
36
23
19
24
21
32
-6
14
-46
-26
41
-4
-45
47
42
-7
-92
25
-95
-95
-22
-62
-77
46
2
-6
-41
106
2
-25
-61
10
-39
3
-13
19
-55
-33
-46
83
-81
-100
9
5
-59
13
-14
-41
-127
-16
-16
19
-2
-41
-127
-58
10
-54
16
21
-43
-127
-69
-67
-9
-28
2
96
-58
37
-58
-62
-79
-22
-41
-15
54
22
-42
38
19
-69
-54
30
-22
35
82
-9
48
-93
-67
-65
-5
40
58
1
-99
31
-32
7
-16
1
0
49
-21
-81
-38
-23
-44
33
-40
61
29
-30
-43
-64
1
12
34
-25
-44
-32
1
-26
-2
-9
-59
-26
-3
28
-36
-16
-107
-100
-63
-63
-10
31
-69
-90
52
-28
-88
-54
17
-18
53
-109
19
-6
61
-11
-39
-106
32
-75
58
-45
94
6
-41
-17
-58
-68
-52
-2
-65
36
27
-43
-53
-83
19
-6
38
-67
29
-72
-20
-65
-88
-48
-3
-29
-29
-99
-31
-41
-32
-10
-7
-29
-33
38
-90
-38
-12
38
-19
-58
15
14
-67
-60
10
22
-48
-9
-4
-17
-35
-48
-2
-51
-23
19
26
-10
-24
-35
-18
-22
-41
-22
-5
-1
23
-88
-14
11
-44
10
1
-34
-70
79
-71
-73
30
9
20
-46
27
-76
-39
73
-9
21
-6
6
11
-9
14
-17
-34
47
53
14
38
74
-31
-45
3
-23
-6
-28
23
1
-82
-20
-16
87
-29
-56
-66
65
-61
-37
-69
-36
-25
13
52
-45
23
48
36
6
55
-60
-2
92
14
60
-23
-104
-25
-26
13
-22
-33
34
28
-98
-24
-53
33
-60
-76
-58
-11
-2
-11
-54
-5
-5
28
49
-34
-70
71
-68
-89
-28
-6
-26
54
-14
22
58
-57
39
-90
2
-37
-80
38
-103
8
65
-60
32
3
-3
1
-34
-5
4
4
62
-11
65
10
76
-34
1
-44
-10
-127
53
0
-32
-1
25
-8
3
-23
2
-29
59
4
-17
-23
-61
-72
-13
-36
-13
-30
17
-28
20
-91
6
-42
4
5
-123
-50
-14
-13
1
-17
-1
-127
-42
0
14
37
53
-44
-61
81
2
-18
-25
-63
86
54
35
29
-35
-94
-3
71
87
56
-58
-34
41
-1
68
-8
60
-53
10
-5
-11
0
-54
31
40
8
-70
-35
-45
-48
-127
-28
33
-61
3
-4
-66
27
-127
-93
33
-63
-37
-65
7
-47
-88
-24
-24
81
-81
-24
-46
127
21
-4
-34
-19
-96
25
-26
26
12
-58
-19
-50
-91
-19
-8
0
-43
3
-23
-40
11
7
31
37
-81
5
34
20
19
3
-42
61
-1
127
-5
-26
-6
-64
20
16
84
2
-24
18
-54
112
37
-52
-50
-47
0
-64
-19
3
-50
-45
115
-50
-48
6
-126
-92
-28
-110
-5
-69
-18
-127
23
14
-36
5
-14
16
-16
-43
116
23
-14
-50
2
-85
-35
40
-127
1
-46
-115
51
45
16
-10
-16
-60
-25
-33
-7
-36
63
-11
-7
-32
-31
10
20
-38
-52
-37
44
-17
-127
-29
87
-10
-11
-23
-33
-7
-58
-5
-5
60
23
18
17
-52
43
0
-62
-39
-16
-34
-28
7
-64
-20
-13
-2
-34
-93
39
-41
72
-33
-127
-38
-80
-27
31
-57
4
24
43
28
53
-38
-52
28
-6
-8
16
16
-6
-72
-35
-23
16
-31
-56
-79
-9
-29
33
-53
12
-46
-27
-11
-33
56
1
-88
-18
-31
-9
127
-34
-69
-40
26
-25
-30
0
-47
-63
15
-23
17
59
-21
48
-82
-72
33
15
23
-35
-43
-10
-7
-35
-26
19
22
-49
-23
-50
-28
89
47
-20
25
-62
36
-48
35
-67
9
36
-12
10
-11
-27
66
23
18
-46
7
55
-29
18
-36
-61
-53
-72
-42
-3
-14
4
-1
-48
-68
-27
6
-23
-2
22
-19
47
35
-13
-63
-103
19
-47
16
-7
12
51
40
-83
-76
-30
-2
-42
-16
20
-34
66
-32
-127
-67
-1
-55
81
-37
-19
-37
11
-50
-22
-72
30
-82
-65
38
13
57
4
68
14
1
-53
39
-19
-27
-87
-48
-45
-90
10
44
-18
-1
-30
-2
46
-1
30
-33
52
-8
-63
-7
-7
96
-17
-48
7
-23
56
-10
-17
-38
30
-37
-26
30
9
-25
-126
-8
-27
-41
0
-1
-29
15
-17
-25
-80
88
-61
20
-70
-9
44
12
78
-8
66
23
-29
-53
-22
45
-15
-80
-2
-90
-76
-9
-28
16
11
-3
36
-108
-18
-11
-67
-21
-31
-28
13
-41
36
14
-34
-19
-14
2
-7
31
-10
-3
13
-26
-78
-16
23
-33
-68
-12
-74
-15
4
-10
-76
-46
-66
22
32
15
-72
45
20
1
-46
28
-61
-60
-15
7
23
35
-20
-127
16
-7
48
14
-69
-43
29
66
32
-13
18
2
-56
-74
28
-16
-34
66
18
101
-38
-10
-17
11
-8
-36
17
-70
6
-18
26
68
7
1
6
-18
-17
0
-126
-39
43
-3
7
-24
3
-39
-14
38
-8
73
41
11
34
-115
-22
-28
70
22
-25
-14
-104
-53
39
-12
22
35
4
-5
22
-23
-40
6
16
-7
25
-99
-72
-25
-56
-16
-48
55
-71
40
-8
-48
22
-2
-55
20
53
-61
-59
-62
-13
5
-47
-84
-77
46
49
-62
39
0
9
52
-27
9
-38
35
-6
15
-18
83
-14
-51
4
7
-68
13
-58
-41
-6
10
16
53
44
12
5
-108
54
-1
20
-21
-76
-54
-7
2
30
-7
8
-15
-38
10
4
88
-28
80
48
-40
39
7
18
-26
-23
-14
13
-24
17
16
59
35
-32
-42
-41
-79
-25
43
-59
-18
-7
-24
-26
-7
50
-27
-2
-72
27
77
25
-15
17
-116
60
-56
36
6
-101
-19
-45
-38
33
2
25
49
-87
7
-17
0
-10
-30
-4
69
56
2
-86
10
41
-18
-9
-52
-55
-35
1
-34
42
0
-32
-38
34
-16
11
-45
-83
1
-14
-87
39
-7
-54
-12
22
57
-71
-9
-23
-28
35
-45
-58
-51
-64
-38
15
-13
38
-40
-90
-25
-51
-63
-11
-25
31
13
8
-29
-25
-16
21
-20
-1
2
59
-40
-15
127
-25
68
1
-31
-38
127
-61
26
4
-54
1
-34
16
-123
-44
-5
42
5
18
-46
1
41
36
48
25
18
13
75
-14
-47
93
14
6
8
61
9
12
-1
12
-14
-37
-6
-66
-30
103
42
-19
-15
58
-26
-22
4
-16
25
39
-25
0
45
32
-31
-2
-51
-99
-10
-17
21
-116
-60
-15
-17
18
-14
9
32
-9
42
50
-127
6
8
-25
56
-48
5
0
46
52
61
-30
7
10
-63
-71
-48
-1
31
-52
21
15
8
-114
17
-39
32
13
-23
90
58
-1
-19
-103
-25
-72
-3
4
35
7
-27
12
-83
-28
93
5
-10
-2
-34
-67
44
83
-95
30
25
-29
14
19
-35
-23
-75
-24
28
43
64
57
-56
-14
-74
32
50
-19
-24
16
22
-30
-36
44
-37
-40
43
-81
-64
-13
127
30
39
-19
6
-13
83
-5
-3
-40
-109
73
-43
-59
-27
-55
-10
20
63
-70
-77
16
39
-10
2
-2
9
-22
-17
69
18
-20
20
40
6
-69
-85
4
0
45
-98
12
-36
19
1
19
16
56
3
-5
-88
14
21
-36
22
45
-96
127
-77
-46
59
12
-48
-16
-81
4
-74
48
28
-109
53
-8
-13
-15
34
-30
-52
-95
8
35
-45
-112
61
-47
74
45
-8
-32
-23
6
-6
106
-23
-6
32
49
4
107
66
1
-11
-7
-38
-3
25
-33
-38
-31
-28
13
28
-54
-4
-9
11
19
2
13
-4
47
93
-30
48
77
-127
8
-56
-87
-33
-85
-9
16
83
-6
18
-64
-5
-37
-7
37
14
-31
-112
-52
-21
61
-32
-15
96
34
85
-33
-22
-44
9
6
-65
-56
26
-9
32
-116
-39
47
-31
59
-3
8
44
-20
-25
11
46
-7
63
-6
-46
0
-84
24
35
-34
-101
2
1
10
-40
-77
-48
-25
6
-35
-64
1
-54
-3
74
52
24
-39
-72
-66
80
13
1
-4
-4
-14
31
-30
-43
-105
-80
-43
2
32
9
42
8
-24
-28
-88
21
-25
23
127
-5
14
20
5
-96
-24
50
77
14
-23
-50
9
11
9
37
13
0
26
-83
-48
8
-2
-69
83
46
-31
112
-53
21
-92
7
-70
6
-42
-94
-4
-32
127
127
-56
77
-10
-61
-73
-17
-30
13
0
-53
-12
-24
-8
3
53
66
3
21
-75
74
17
-17
37
-7
-22
-13
-97
34
6
22
16
16
-1
-11
29
20
30
-9
-83
-16
-7
-35
-34
5
16
-97
22
-12
-85
-22
-59
-46
-18
-16
-4
58
54
-23
36
-43
-98
-47
11
18
-58
-44
-40
69
45
69
2
-22
-19
8
-21
-30
-84
-17
2
-10
-13
-21
6
-27
-11
-46
-52
-63
-19
-12
-60
-121
114
92
-43
-60
-35
23
34
-16
-56
-70
59
-35
-29
-40
-45
-11
-13
22
-13
-46
-65
-35
15
66
40
-89
-13
-35
-51
22
-68
-59
11
68
26
-32
19
-28
-13
4
70
28
9
-64
-38
-3
50
40
12
-35
48
-14
-7
-57
-59
-19
74
-87
-45
-3
2
-11
-35
16
10
-46
-60
-7
4
-63
22
-10
23
-66
58
63
-31
98
51
-35
-17
-16
50
-39
-9
75
-12
-127
-58
-28
109
48
43
-75
-47
-42
44
-30
-27
23
17
14
-53
-35
57
127
9
28
50
-19
-44
-88
19
-68
-4
-25
62
-120
-31
-24
-12
53
-38
44
-45
-29
-37
-100
38
59
-54
-59
-40
-9
-18
-80
20
-32
-24
-5
-85
-10
-35
-50
21
-60
110
50
-3
9
-11
-11
34
-61
21
27
-35
-14
-50
-84
17
-49
-44
-15
46
-127
-9
-23
53
47
-32
18
-38
10
30
38
5
-36
-61
74
14
18
-84
26
46
54
-92
5
-7
82
8
-47
-10
32
56
30
7
26
-14
14
127
114
-43
54
46
46
-28
87
-24
-32
-62
-27
-19
64
-21
14
-44
-11
47
-1
58
-8
50
-12
-62
-51
127
11
-28
-53
-5
90
-5
-69
-5
12
0
61
-83
-58
-127
-31
5
13
-30
54
19
15
-85
-12
83
69
26
43
-13
127
-10
57
-55
-127
-30
72
25
45
-75
11
15
0
-22
10
1
21
7
-61
-4
-27
-46
17
-45
13
-52
8
-2
-6
72
19
-51
68
31
32
-109
-2
-24
51
55
23
-38
-127
29
-19
2
-54
54
69
-96
-12
12
15
-25
-18
64
-45
-2
-43
-37
14
-14
20
9
24
-52
-57
-40
-12
24
54
5
-37
127
19
-32
-7
18
-9
-13
29
-25
-66
-87
-3
28
86
-17
1
23
3
32
-127
2
33
-10
-71
-46
12
-7
-48
-81
70
19
-23
-32
14
30
-14
-35
-8
-50
-7
-30
23
22
68
-3
127
-21
95
76
-5
13
53
-19
-16
6
117
-47
-8
-14
15
-41
2
44
-13
-10
0
-13
-43
-98
-54
-64
17
42
-48
35
103
-15
-93
-23
-37
-5
-25
11
-85
-8
-16
-20
-127
61
-16
-39
-87
-36
-4
-15
-20
-18
9
94
70
-12
59
-10
35
6
18
76
-35
-36
-23
-84
18
-14
-98
10
-85
77
-127
26
9
-67
34
-39
127
86
-83
14
37
38
-2
11
-127
10
11
91
-127
-28
13
1
45
-80
22
-44
71
-61
35
79
85
-57
-3
3
-14
17
-40
-78
2
-127
-15
-32
-104
-79
-8
92
16
36
81
7
30
32
53
-39
-16
-7
10
-27
39
34
17
4
-42
-12
-5
1
-59
74
52
55
-28
38
11
-35
-58
34
-83
-31
22
71
-47
-46
-79
23
0
124
43
-76
-13
40
-9
77
-5
21
-14
30
-62
11
-118
-47
24
-2
-34
10
-41
68
8
20
-51
46
-4
-7
28
-85
8
9
-14
-92
111
-7
119
-26
-46
10
-5
-33
8
-79
-23
-60
13
19
71
-28
127
43
-20
-32
-17
39
118
31
29
15
78
-81
29
-37
-72
16
12
-26
92
-17
40
4
38
-25
-46
71
-7
7
62
53
13
-91
-64
41
-76
-4
12
-105
-90
65
37
40
50
8
-68
68
99
13
-32
59
29
127
-43
127
46
7
22
-9
15
-34
70
-112
-127
23
-127
-1
-53
-21
-14
52
-14
-8
-127
-17
33
3
-38
19
-31
-29
-18
-16
-11
36
19
-74
-120
-51
42
97
-58
-15
71
-23
-127
53
-33
111
-22
0
58
106
-80
39
7
-72
-1
-27
26
-27
-22
-10
70
-18
-58
4
-14
-103
52
-43
35
10
99
-27
15
-81
90
111
80
-104
-57
121
39
-116
-114
50
-38
4
30
-127
39
18
-4
39
-32
-23
66
-127
40
127
34
50
-53
17
10
24
25
8
-17
-12
-34
-19
-38
-19
-34
66
-37
9
13
-95
-49
127
5
-28
7
-19
23
-14
42
-31
4
-117
-10
89
-10
95
-7
31
28
17
-127
8
-104
-18
50
27
7
-49
-30
-4
96
27
45
-26
-48
41
35
28
2
35
20
13
30
-58
92
11
-39
49
34
37
16
-84
11
-53
82
4
11
-26
90
-35
-35
-4
3
32
46
-21
-1
-11
18
-2
-37
-31
-25
-25
7
-53
-24
107
45
63
-16
-127
-12
-28
56
16
7
1
-9
127
-17
-37
5
15
34
-67
-27
-3
18
-1
-35
18
1
29
8
10
-20
67
6
84
83
-52
121
-2
-5
34
93
-16
1
11
-35
84
-21
21
104
-10
92
-12
38
21
14
66
-76
-75
-95
35
-127
77
86
29
55
6
7
44
17
27
34
-12
10
-39
19
-70
16
41
-86
-12
-11
-2
-21
-79
102
1
47
56
-22
108
9
69
37
5
69
48
95
9
4
127
29
0
29
54
-49
72
3
-77
-3
94
44
126
-54
14
-1
-43
22
-8
2
-5
-49
58
37
65
26
-77
18
-27
17
-29
-53
-65
-23
22
-96
80
-104
0
33
-41
20
-28
1
22
-1
-70
47
-31
-6
-35
-73
127
-19
52
41
66
9
-31
37
40
45
-17
91
-8
-4
-74
15
42
47
-49
-29
-69
-16
-1
-19
-24
-41
-23
4
-14
4
-2
-17
11
46
22
1
-8
-6
4
-127
-85
17
11
65
-5
-6
54
-1
-31
58
9
42
-49
65
10
-72
1
-39
7
3
32
69
-7
-20
-27
63
-38
-36
-29
-65
46
14
-90
-127
-9
0
-48
-17
-46
20
10
25
-8
43
-66
30
39
-29
-11
49
-70
36
16
56
6
-15
9
-70
36
23
20
0
94
-10
-127
35
12
-63
-11
62
36
45
-79
-41
20
2
43
88
-27
-14
15
-47
48
-74
-107
61
-11
29
13
-97
-14
96
-15
3
-1
40
42
-38
-6
6
-99
75
8
16
2
40
18
-25
8
-5
14
-9
56
40
-13
-29
-49
-55
33
-52
-41
-78
79
-64
-49
62
6
-14
-6
-39
62
23
-37
10
-102
34
22
6
-21
9
-38
24
-35
31
-106
-8
-38
-13
30
27
-1
-103
-107
-43
-5
-26
-46
-59
-26
106
26
-100
70
-87
-7
-74
-1
53
-53
23
-74
103
-38
-17
41
37
-34
59
-127
-17
-50
70
40
47
44
-2
52
-13
-4
-38
-88
-127
-27
-94
-16
-39
21
-14
70
63
68
-21
67
21
95
56
-69
37
-23
-35
-9
21
-51
-17
32
-55
83
127
2
-109
-53
87
44
-26
-3
-6
82
8
-28
-85
-11
-50
-127
-40
40
39
-5
-90
-25
13
3
-40
-43
-25
18
-11
86
18
32
-26
55
53
33
-14
9
-12
5
60
-38
116
-4
-38
127
7
-10
-23
85
-7
48
-17
-2
-90
-42
-9
13
-35
114
127
-20
8
92
-17
-12
-11
-49
82
65
15
-13
-10
31
-17
38
-40
49
78
-5
-15
17
80
2
-40
43
41
-4
-9
-38
-26
-36
27
-31
77
23
-26
-55
-6
13
-35
86
-42
12
-2
-32
-16
-42
29
-36
1
33
-51
-7
-37
-1
-127
23
47
22
127
-13
9
-61
-11
39
63
51
97
-24
29
45
-1
52
-37
2
-35
-48
-39
2
87
-10
11
61
14
-37
5
15
37
-27
9
-19
46
-49
-45
-17
18
21
-51
-103
-49
-13
-46
-30
-44
34
83
-20
-32
19
-19
-68
-32
-35
0
30
-38
61
22
-27
-56
-59
-19
-8
-60
-49
-127
-111
-47
-15
90
5
-117
19
-37
-127
-54
-22
7
67
24
4
-8
-37
-67
-90
-14
-21
-7
39
-15
-21
-20
41
53
-99
66
2
-57
-57
69
-58
-2
21
-27
-55
52
-56
-81
-3
-61
-32
-59
-1
24
-16
-8
-24
-40
-22
5
-8
50
-23
-42
-35
-52
-10
-52
-8
-16
-20
-13
0
-30
8
-101
-34
-52
-17
-41
6
-35
-52
-37
30
36
-1
-15
-28
-13
-115
57
60
-59
25
24
127
-19
127
32
-84
-126
-20
-16
-53
36
-7
-44
-83
-37
-58
0
34
-66
-78
-46
-78
56
-41
30
-103
50
-55
21
-66
69
-71
-6
25
-26
29
12
-5
-34
3
10
-20
-25
-9
-22
54
-3
-29
11
37
45
-74
-59
-84
-70
-35
-88
66
-35
91
43
41
-1
84
-62
4
-127
43
67
-55
-23
-35
23
-64
-43
-31
55
29
-3
6
32
-20
8
-7
-25
71
18
-73
-6
35
-28
60
59
-75
-45
-37
1
-38
-77
8
-50
-55
23
-23
-19
-7
-55
-69
-41
-50
5
68
-66
-35
-54
-37
11
-25
-13
-87
1
-43
-119
-72
-26
-58
-2
-112
-69
-114
60
-19
-9
43
-91
-49
-15
-31
107
-79
-25
-118
-80
16
-36
-16
31
-44
-29
74
-80
-120
-60
-9
-84
11
-64
-17
42
-21
-18
84
63
-17
79
77
-4
-33
-67
-62
24
-94
-2
30
28
5
-27
27
17
-37
-8
-101
-45
-2
20
5
-7
26
-45
-26
-13
9
36
-110
-22
-104
1
-25
78
-35
34
-22
-36
-15
-21
66
17
-2
-6
-13
2
-24
-16
-92
-20
37
23
12
16
22
-2
-7
-20
-33
30
13
-33
-89
-19
-39
-73
13
-51
36
-4
-2
-32
81
48
6
-124
-88
-4
124
-127
58
59
127
89
-98
-21
-3
40
28
-30
-67
65
-30
-18
-13
-7
12
-51
98
-29
-12
-90
-66
-87
-8
4
-80
7
-62
15
-29
-81
-27
40
17
-18
-22
-108
-78
81
-32
-34
-23
1
-21
-48
-63
-26
-13
-30
-127
50
5
-1
-1
-26
-55
-59
-39
-51
-22
52
-84
13
-24
-10
-35
5
25
5
-43
-92
4
-80
8
85
46
26
17
-16
22
-86
-78
-5
-44
-73
12
-127
62
-65
-14
-47
-38
3
-53
98
15
-60
-40
-76
-69
24
-25
-43
-61
45
51
-60
32
-24
-53
-21
-8
-54
42
-28
34
-16
49
-109
-50
-47
-31
-12
-45
-30
-42
-16
-29
-127
-111
-79
-74
59
-53
-26
-14
-12
-10
-94
-45
-20
-34
-9
-85
58
71
-10
-1
-24
-17
-35
-51
-48
-6
38
-16
-109
1
8
10
-46
40
62
17
-56
-69
51
-61
2
41
-39
-85
8
24
-60
-57
-64
-3
-30
-6
-30
2
-127
35
37
4
-2
-8
-127
-77
-68
-59
-4
-35
6
-21
-55
-59
-69
-13
-52
12
-13
-88
-38
60
-127
67
-15
-27
-8
-92
106
-48
42
-46
-109
-62
-57
13
4
-26
-20
-99
22
-4
-63
-19
-20
-14
31
-46
-51
-48
56
-90
-54
-73
-37
19
-25
-66
20
22
-37
44
-109
-60
46
102
-59
58
43
20
-5
-28
22
-107
53
42
-33
-42
-7
-95
70
36
-19
-3
-94
-12
-30
0
-109
-8
-54
60
-37
-61
-13
12
-45
37
86
-6
-48
-19
43
0
-76
-37
-107
-25
-82
40
-38
-44
-33
78
-88
-16
-7
30
-18
9
-84
8
-26
-44
-16
17
-42
-36
-67
-15
19
-65
-57
-78
-46
15
-79
44
-15
-38
-48
-26
-80
-12
-65
-3
5
-80
26
-22
87
-44
17
-53
0
24
3
-4
-73
34
-3
-6
-27
3
-1
-77
-80
62
-63
56
6
-11
-127
-74
2
-9
-88
-32
64
-63
85
-51
115
-28
-46
127
-127
-37
94
-11
5
-75
49
-24
-27
-25
-82
-23
-4
-51
-44
6
-19
-8
-29
-37
-52
25
21
50
-44
-85
2
12
-25
-64
-14
29
-127
-11
-52
6
-73
4
-42
-61
-23
-64
-56
-50
-7
-16
-16
-29
-17
-11
-12
67
11
5
6
40
-61
45
94
-29
14
-5
-127
-20
-35
5
-18
-4
-18
37
41
-67
-61
26
-12
-65
-15
-41
-17
-40
20
-63
-11
-60
-11
-68
-61
-35
49
-10
-10
-44
14
-67
-84
-28
-13
-9
101
38
-32
-90
-88
-43
-6
34
-66
24
100
4
-82
-66
-11
63
-38
-42
-61
-79
7
13
-67
-4
6
40
-63
-59
9
-66
-44
-119
39
-69
-25
-102
-7
-14
-100
-42
30
-91
-63
37
35
54
12
33
-66
-19
-27
-3
15
-10
27
-67
-46
24
38
-6
-13
111
-42
-99
-54
-57
-115
-4
127
-10
60
-20
-35
-69
20
-25
38
13
-13
-75
-54
-127
-58
56
-21
-62
-30
-33
18
4
-81
-68
46
-59
-71
-80
44
-44
51
16
86
34
62
-41
36
-127
-7
-71
-61
81
78
-127
-53
-63
-102
-15
8
-38
-39
8
-50
-13
-11
-40
-43
63
88
-85
13
6
-50
-84
41
-10
29
88
-67
56
-2
-19
12
-26
-46
-26
-46
-4
-6
18
-28
12
5
53
-33
-42
40
-14
-42
57
46
-30
-16
-78
-9
-25
27
-18
-31
7
-3
-55
-44
-42
-70
-67
127
-63
-48
-32
3
-12
-24
-7
-93
-93
-61
-26
-31
-4
-53
4
3
-1
9
-61
-34
-87
-56
-16
37
-28
-65
30
-45
-72
-40
57
-18
-11
-12
27
-45
-54
-61
-127
-14
87
21
-5
-58
30
8
-94
-32
-44
-109
-5
-11
-55
-6
89
22
17
-75
15
-94
-5
35
-127
-44
51
-31
-48
30
46
1
-80
20
13
75
9
-89
-127
64
-77
-56
-19
1
7
-29
-28
32
34
-77
23
29
60
-46
127
-8
-66
-24
-7
-78
-75
23
63
-55
-18
-65
-61
-70
75
-1
-4
-21
-57
-4
-23
67
44
3
-127
-59
-3
-34
-44
-33
7
-108
11
-25
32
-31
-33
4
81
7
-2
-64
36
-35
11
-27
-2
-37
-12
-76
-8
22
-13
-41
-73
22
9
-62
95
13
4
13
-28
16
-47
-17
-22
-58
-28
14
-42
-56
-65
-31
-71
-64
-72
13
-38
54
62
18
-19
-39
-38
73
18
-88
-19
25
15
15
-27
-63
-42
73
11
1
-33
79
-59
-18
5
-3
56
-19
31
-43
9
22
-2
-19
-28
33
-45
-95
-20
-87
34
-45
39
-99
56
11
-18
11
38
-39
-43
-94
-8
-23
2
-100
9
-17
-29
-83
-14
8
-40
22
25
-107
-65
9
-47
-31
103
-32
-17
-31
-34
-42
8
-90
21
-19
-15
40
5
-14
119
-35
24
-12
-111
32
-42
24
6
-25
13
-18
-23
56
-14
-69
-62
18
-60
-15
-31
22
-20
-24
-37
19
-42
-43
-4
-1
-12
-11
17
-36
58
-20
12
-11
-31
-12
-22
0
-10
43
-6
53
-51
-28
-51
-51
-78
-82
-2
-35
-7
-60
30
-7
127
-10
28
-117
-80
7
-18
127
4
-19
-15
57
19
-39
-3
-46
16
-56
-39
6
-117
-72
27
-91
-40
30
1
-19
-34
-4
-87
15
-18
19
12
-78
-13
-34
14
13
-7
-32
16
-24
29
-29
-20
-12
-10
46
-52
-3
-34
-18
-47
-34
1
-47
32
31
69
-21
-62
3
-39
-2
-115
9
-10
-19
-38
5
-7
-38
62
27
-56
-21
-83
-13
-4
-3
-15
13
-31
9
-46
-21
5
40
-18
-21
72
-78
-4
-79
-57
-20
15
-23
-23
-48
38
-2
68
-33
-9
4
-15
9
-19
-4
0
53
-41
-31
20
-4
-18
-51
-64
-32
22
17
-6
87
-67
-69
-59
16
-40
-3
-2
-107
-49
-24
44
-96
57
46
-33
-5
-29
-47
-72
-86
-127
-36
23
85
-7
54
-14
9
37
-38
93
-76
-7
-75
-22
0
-12
-7
-9
-11
27
40
-30
-56
-21
-127
11
36
-52
-25
54
1
-49
31
-59
68
-14
71
34
36
57
-25
77
33
60
87
1
60
-59
5
16
-53
1
-37
-45
-58
-35
-11
99
-16
-21
-35
-23
19
20
0
47
3
-31
-58
-5
-22
-57
-18
-99
-42
18
24
30
70
-21
-48
-50
-19
75
-65
-37
22
3
-69
-21
-26
1
68
-77
-12
32
63
-1
14
21
-13
-11
-21
-47
21
-36
-127
-48
44
-66
-14
-4
-29
-36
8
-30
127
25
-25
-84
87
5
-19
-43
-14
-78
-36
-16
-3
-31
-23
30
-29
40
-109
-57
-71
-47
-8
23
-23
12
-29
69
-65
-2
-7
31
-82
-9
-40
27
-48
-111
-74
-43
-42
78
-19
-77
-5
-72
81
-4
-41
-6
79
-58
73
30
8
-61
-37
15
48
18
26
20
-95
-13
14
-45
-78
-45
-30
-23
-55
-16
-53
-52
-26
-23
65
-38
67
-6
48
-45
-20
-17
-7
23
-61
27
15
-40
-37
-37
-31
-5
-22
52
-40
-4
-16
-21
1
26
35
49
-84
-65
-12
52
-17
21
31
-42
28
-22
72
-22
-12
-10
8
3
117
-60
30
-112
-48
25
-45
-33
44
-9
-81
-38
-4
-4
-51
-34
-70
-50
65
17
15
70
-14
-13
-67
73
12
11
3
-25
7
-29
88
-35
5
4
-1
-28
21
-98
-29
-110
35
-10
20
-17
47
-22
-34
21
30
12
-19
-44
10
-58
-87
-48
6
84
7
-84
91
28
-94
1
-25
-20
-46
-56
3
-48
-61
-78
-58
-33
-1
30
48
18
-7
-4
40
5
-64
25
-4
-1
59
-45
19
6
10
-25
-39
-46
-28
-65
-97
-73
-18
-4
-44
-75
-82
-25
-62
-2
3
-36
17
-118
-16
-29
-78
96
34
-7
-36
29
-32
-15
-39
-3
-32
-17
17
-13
-13
-63
-122
-37
40
30
0
-49
21
74
-39
-4
-56
-14
55
61
5
86
-30
-4
36
-35
33
-28
8
23
-31
-64
-38
-14
14
-66
4
106
23
21
14
-32
-31
-49
106
99
51
-104
-22
13
-22
6
-3
-3
24
-77
-78
-12
-91
24
-41
-11
70
-14
11
-9
15
7
30
27
-29
-11
-73
-24
19
-36
13
1
-62
-30
-27
-20
-42
-105
-7
38
-32
-11
-49
-69
88
1
52
-36
43
-18
-56
24
17
-78
17
51
-24
-45
-76
-39
-28
-39
-102
17
39
29
-102
72
65
-127
-127
15
-24
-22
5
-37
-63
-27
-123
-21
14
-69
-37
127
-65
8
-78
38
2
-7
-4
-19
-17
-63
-87
28
-29
-11
5
-33
2
-11
89
3
20
24
-4
-54
50
-26
-51
-28
-55
-127
5
17
-3
20
-4
58
-32
-9
4
-25
-35
41
24
-80
127
-69
68
81
-29
13
-5
19
35
-3
-71
-27
-23
-23
-38
-71
-36
70
-60
68
38
9
-6
-65
-20
-93
-127
3
-63
80
49
-19
-63
16
11
-29
26
-39
1
-40
-51
-87
57
-15
-39
-6
16
38
-72
-33
-60
-3
61
-14
-50
-3
10
4
-42
-63
-32
28
29
13
-112
-114
-102
-59
71
50
24
-9
24
28
-9
-19
-127
-3
26
-42
5
10
-68
66
19
-18
-27
-45
-9
-61
-11
-42
26
50
9
-35
28
-55
-65
-25
-20
-50
-44
-11
75
-3
50
-28
-62
6
39
-69
-19
-23
-10
125
25
14
16
2
0
-109
-24
-10
77
-33
37
-10
-8
-32
-35
11
68
127
38
48
-31
-46
23
40
5
5
-59
-39
-80
-86
11
-30
-58
-3
-23
-18
14
96
38
7
-16
0
8
5
-58
-37
-50
-2
-17
-28
-80
-9
-58
-59
-25
-47
7
-4
-37
-35
-113
-13
-95
30
24
-36
-5
-23
-85
-30
86
12
-7
29
-17
-5
94
20
-48
-2
-9
-81
-27
66
3
-29
-1
27
-35
27
-33
23
-11
-73
-5
5
21
-62
-59
-71
44
40
-6
-28
9
-111
-88
92
-25
15
7
-56
-12
-71
58
-16
75
-10
15
3
-5
-45
-28
-14
-33
-111
45
26
-19
127
-34
-7
-32
-95
38
-36
17
-43
-31
3
-37
-2
-52
4
-29
-35
-16
-3
-10
-35
14
106
21
-26
-23
10
90
-34
3
99
44
-65
-81
-31
-79
-33
13
96
-3
-1
-20
10
32
59
89
-67
-25
-25
-51
13
63
-37
-61
5
27
19
31
-64
47
-48
-105
20
-64
-91
-33
-23
-2
31
94
35
19
1
-58
-37
9
-39
-47
-64
68
3
60
-106
-43
-111
80
-1
-69
-54
-12
-35
-41
-26
-10
-53
-14
-23
-34
-80
0
-26
7
8
-8
-56
-8
-42
-38
-37
38
-46
17
17
-41
-15
-80
28
-28
28
38
126
48
-17
-77
1
-97
-55
-33
20
39
-24
42
-52
-85
9
-4
20
26
55
41
-27
96
-95
-127
1
-29
18
6
-8
0
-84
3
48
-29
91
-72
-62
-57
-47
-12
-59
-38
-37
122
29
-63
15
-76
-58
32
-43
88
-57
-108
24
-92
-127
-41
-51
-32
-76
-2
0
76
35
-41
-4
127
-66
-1
-31
-68
-9
-126
18
-36
-57
-10
6
-26
-23
12
-26
9
80
40
-7
27
-21
11
64
23
-14
-40
-71
-35
91
-23
-65
-38
-57
-4
-44
-44
-85
45
-105
7
-6
-86
7
127
-107
-13
-127
37
107
-36
-127
-9
98
-49
-43
-22
112
14
4
71
-54
15
38
-96
10
-21
10
87
-87
-56
19
25
45
35
94
-4
20
-29
47
18
86
-79
74
43
-50
51
-9
49
-53
-44
-94
6
-40
-40
-21
-41
-61
-9
-55
61
-42
-36
-45
51
42
50
-31
58
-7
-38
127
-100
39
50
7
4
-2
17
-27
-62
-1
-68
-90
28
-40
-30
-21
-104
-89
13
-70
-73
26
-127
-5
-8
15
-33
37
-35
-20
-44
-62
127
32
20
-111
0
-28
35
-8
-69
-74
10
-79
75
-53
32
-49
-40
-15
0
-87
-37
-127
-33
82
-58
72
-27
-127
-63
-31
1
-13
-34
-2
62
-9
-58
26
64
-62
-37
-89
-34
-6
-9
-9
0
-33
-43
25
-11
-63
87
127
-3
-7
27
76
79
-71
-12
-57
-67
18
-34
24
21
38
-122
-25
-10
-66
-46
-49
-27
127
-126
24
51
-9
-34
-69
-68
52
16
-26
-33
-28
-9
127
1
52
-26
9
-35
-74
-124
-61
109
-54
58
23
33
-28
2
-29
-89
46
-53
3
30
-33
-45
-42
-35
-107
-47
-58
-75
-1
127
28
-72
0
58
-29
7
-23
-24
7
20
4
50
0
-66
-97
64
-62
22
-39
9
43
-31
11
-2
-2
32
-10
0
-9
-54
-68
94
-17
122
-27
-49
-15
-119
-6
-21
14
-94
-94
-39
-29
54
-33
-43
11
12
33
-104
58
10
-127
-63
-51
-61
-80
-20
-52
-48
20
34
26
40
19
-110
-44
-111
-16
-116
-57
-19
5
-39
3
-109
-29
-46
36
127
-39
-56
-21
-92
-41
-44
24
-40
-76
-57
4
67
-100
5
37
4
12
-80
-18
8
-18
23
-118
-26
-19
2
42
44
-127
-27
-25
18
-7
8
22
-127
-89
-41
-30
19
-1
99
-4
-38
48
-42
-30
-43
-37
33
29
69
-79
-75
1
6
65
18
7
-56
19
-32
-3
-33
-11
-6
-49
-21
-30
-20
127
68
-56
-13
-7
44
-79
-41
-68
-12
-17
-8
-32
7
15
-8
14
-34
-3
-16
6
66
13
-86
-16
-53
44
-34
10
97
-127
-16
-39
-32
-15
-22
127
-85
26
13
-43
-24
9
-5
-53
-1
2
2
-46
-45
20
-46
-28
-58
-93
-52
-51
-33
-97
-12
9
-43
-75
7
-22
11
-25
38
81
3
-31
-42
82
-43
-12
-47
-127
2
36
-34
-76
-77
-34
10
-65
7
47
52
-14
-2
31
-41
-24
-50
59
-95
-8
-86
-4
-11
-71
34
8
-3
-23
29
-48
-21
-25
-15
-12
-34
59
-92
-34
-9
36
-94
-92
-42
-2
-42
-25
39
13
127
-35
38
-8
-11
45
-91
-30
-63
-49
-83
-33
-10
-45
5
-13
-23
1
-97
29
-79
-58
-46
-35
23
49
-7
-127
-42
8
9
3
-70
-18
-17
-35
-13
68
5
-56
66
-62
-8
-55
43
-10
6
-115
13
-16
-42
-19
-64
37
58
74
-57
127
-20
-59
62
-36
16
-27
-7
7
-41
-42
3
32
4
-92
-79
15
-8
-1
-44
-5
-78
-42
62
45
-37
-70
27
-45
-55
-12
-63
54
-37
-8
-9
30
-84
12
-117
127
-9
-64
16
-12
-31
40
7
18
-93
51
-52
2
-60
-55
-30
-61
-67
-9
-22
-39
-97
-57
31
62
53
-8
-59
-42
-51
-57
-63
37
-2
-52
-27
-50
-59
-16
69
-31
-94
-43
-10
-31
-60
2
9
-23
3
-34
32
-33
-60
-35
43
-51
-39
-26
16
-34
-53
17
-5
22
0
92
5
6
11
-32
-30
31
-26
-28
-127
-50
26
3
-7
78
-61
23
0
-11
-14
-73
-123
-117
10
-16
45
49
43
27
90
32
-32
9
0
-16
5
-50
-31
49
-54
115
19
-48
51
-3
-18
48
127
49
75
-20
-10
0
-43
2
-32
-18
-127
-6
-49
28
-45
-51
12
69
-48
-74
-44
58
-79
18
89
20
-61
10
14
-3
53
28
58
-51
-51
-27
-53
34
-24
14
-9
7
-30
-99
32
-8
-89
50
62
-52
-42
64
-88
-59
95
86
-11
26
-88
43
-85
75
-72
87
-7
-56
46
-107
70
-8
13
-29
-58
-39
49
-57
-27
-27
-17
23
-44
-21
-29
-79
-94
7
-32
47
-59
-67
3
-22
-53
-127
-95
-37
-3
-3
-127
-13
5
-6
-15
37
-22
58
-17
-45
11
5
102
-62
47
-29
19
6
-82
-54
-21
-40
3
-57
-89
-34
-37
41
53
56
-38
20
-5
-41
-2
6
-23
-64
-16
48
68
-11
-77
23
5
28
-64
-26
-20
98
21
9
-109
24
-73
-58
42
-80
-38
-10
-96
-16
-13
-2
-4
-11
-14
-97
-13
44
-127
-59
-25
62
0
8
-6
-82
-3
26
11
-22
-15
-18
25
14
-65
-67
-72
-43
-9
-29
-5
4
63
-13
25
38
-40
24
-89
8
-46
-15
127
-16
-15
31
-16
36
-36
-54
-8
-60
80
34
-25
-35
-54
-55
-15
55
29
-53
-30
-10
-10
26
103
-63
-59
-42
24
-9
-16
-26
-66
-31
72
-36
-19
-42
13
29
127
66
-32
-61
22
54
-38
17
-25
44
-37
65
-82
24
-28
46
23
-38
9
-27
35
-20
-101
-8
-74
-30
3
-97
-18
46
-56
-73
-87
76
-75
53
-127
-63
-15
-15
21
5
-3
-37
-49
-29
-64
-96
30
6
8
-30
-46
-57
-25
30
-24
0
25
93
-29
-48
-8
2
47
-127
3
-42
61
-19
31
-55
2
2
-20
78
-93
-34
-15
35
20
-32
-61
-42
-53
21
29
-42
0
37
-54
121
-36
0
84
-8
-30
-127
-23
39
-89
-39
-44
-69
17
-47
-56
22
-78
112
-93
55
-84
-34
-40
37
-7
-17
-39
49
18
23
-1
-84
-14
83
8
25
-45
14
-27
-25
-54
-49
21
-29
-102
48
-61
108
-31
-69
-85
-21
-17
-96
-17
-26
-14
-57
-13
-52
-75
-40
-66
-28
50
-25
2
-41
-25
62
51
19
10
54
-50
38
14
-59
-65
2
-17
32
-32
7
12
94
5
-5
-74
28
45
44
21
-60
-27
25
-57
-74
-19
9
-15
101
-35
-8
36
-23
21
-19
0
-65
31
-27
4
-89
-67
8
-68
-7
-81
-83
60
16
39
-29
-93
-43
-35
-34
48
21
-8
3
-23
10
4
-38
6
24
46
0
91
-30
-28
-76
-5
60
-17
-42
12
7
-59
36
0
-18
67
1
8
58
-1
-14
-53
23
-42
-91
-36
-64
-14
9
-13
-76
-126
-51
-56
-34
-125
40
-15
-54
-37
-30
-75
-15
-21
-27
-50
-17
-55
54
-12
-72
-23
94
-8
-65
-32
52
0
35
-22
119
1
-65
-21
-54
41
-30
-121
-34
-98
-14
13
57
50
-87
-11
-27
-24
2
-35
-2
-20
50
-127
10
-101
-48
-108
-88
-33
-62
-19
-27
-41
-46
18
49
9
-25
-25
-5
-9
19
9
-11
56
38
-30
-15
-30
23
-35
54
-38
-33
-20
-25
-16
30
-1
-21
-30
-60
-1
1
-2
-54
-9
-31
68
-32
-46
-44
-38
-2
-8
-3
3
7
-46
63
53
-17
-1
11
9
6
-80
-3
-47
1
-18
-29
-26
-31
127
12
106
-22
35
-78
-74
-24
15
-111
-27
11
-46
-28
-11
-39
41
-29
-38
-43
15
10
-32
-72
-19
14
-30
16
-41
8
94
-52
45
-47
13
-15
-1
-4
25
-61
31
67
-35
-103
-33
-44
40
-50
-27
-38
62
-47
-35
-69
-49
27
25
-39
-44
-3
-55
-59
-16
-38
-52
-20
41
-82
-69
-13
23
15
4
-1
-23
-26
-33
-7
-82
-50
-66
-76
64
70
24
-32
0
2
-124
8
-89
34
-21
-10
3
32
-29
-21
-33
-100
-15
-45
0
-83
-44
19
-121
-103
-30
-35
-17
-19
44
19
-50
40
61
-24
20
-15
75
37
26
-69
-13
-127
-91
62
-13
-55
13
-27
-29
10
-29
8
-74
-75
-127
-22
-68
9
14
-34
-61
-29
6
-10
-15
-61
-107
9
38
-76
15
5
23
-47
-55
-127
-61
-41
-28
-23
-55
-58
-4
-60
-3
-121
44
4
-26
-14
-2
-31
70
-62
30
-34
-58
62
-64
-1
0
-41
-23
-56
16
67
-103
-83
-51
-18
-33
-2
-20
-10
84
15
-35
-9
-34
-13
-12
-69
-57
-38
-19
-23
-124
-17
-17
22
-82
20
53
-127
-13
0
-5
-7
9
-29
-58
-4
15
-42
-53
12
-24
-16
-20
106
12
0
-127
-11
-36
-127
-46
5
52
-2
-24
-46
-57
-35
28
-5
-125
36
7
-2
39
-81
-1
-21
-12
-33
6
6
-49
-12
-22
2
52
-11
-34
-80
-11
-26
54
-1
-53
-25
-28
-28
-78
-27
14
-25
-10
0
-80
81
-26
-25
45
19
-48
-67
-12
68
4
-83
56
-8
23
-8
-79
63
26
-55
-6
-56
13
-45
-53
-2
-27
-10
-28
-94
7
-34
-42
-5
-70
-6
19
42
-15
-34
-39
13
-32
-52
-29
-37
-27
-31
-10
3
-39
-1
-21
-33
15
-57
-28
69
-36
27
-17
81
-47
-23
-25
-44
-41
-1
-42
-3
38
-62
-23
-53
16
55
28
-34
-98
1
-49
-23
-11
-127
-15
5
127
68
17
-7
-18
63
-46
55
43
26
-25
10
-113
-83
127
-31
-2
-29
-16
-14
-48
4
-7
-79
-28
-28
-42
82
-3
-30
-127
-47
28
-41
-20
-44
-20
4
1
104
28
48
127
-123
8
-56
-16
-77
-33
-36
-25
63
-38
-40
-90
92
-58
-88
-37
-20
10
-35
-67
-126
-46
35
-49
-102
5
-23
9
-12
-59
-19
-15
-15
-66
15
-36
66
-19
-45
-93
-22
1
-56
2
-57
5
24
-6
41
-9
-26
50
18
-93
-99
-39
-71
-11
-25
-17
-90
-9
-127
-41
48
-112
25
-48
-51
9
-107
29
-52
-31
-55
-21
-19
-29
73
-24
9
-83
-102
-37
-16
-127
-19
28
7
-68
-37
-65
-10
-46
-3
46
28
-20
22
-44
15
-15
-63
11
29
15
-21
13
-13
-35
14
-46
-21
3
29
-37
-8
-44
-45
-55
-8
72
-62
71
-86
-12
-6
-37
31
-8
41
-41
76
-36
-21
-6
-7
5
8
-33
43
-34
-73
-71
-60
1
-7
9
-2
-88
-18
10
25
-27
19
49
-53
-52
26
88
-6
-32
-31
-69
-46
50
-33
-1
-57
127
-29
-101
19
65
-4
-1
-69
2
-1
-30
-36
-38
-22
-24
-7
-100
-13
-30
11
17
0
-82
25
-34
18
-35
-44
5
31
25
50
-66
-25
42
-16
-32
-13
-30
19
-35
19
-29
106
-49
-3
74
-38
-53
-74
-8
23
34
-29
8
-43
-8
-57
-7
-37
37
-7
-21
-6
25
-6
30
-52
-29
9
-127
0
-5
-65
-58
-76
-12
-23
-17
-33
43
127
-22
-127
-63
-16
-11
-6
-9
-99
-112
-9
-17
19
-55
-15
-37
15
-9
127
-9
26
-127
-51
-16
1
8
-66
-32
-90
6
11
-35
-34
-28
14
16
-20
56
8
34
-76
-46
8
-62
7
7
9
78
-27
-51
14
-127
54
-35
-92
75
14
-15
-62
-55
-33
-31
-61
-20
47
94
-65
-114
-31
-25
66
9
-17
-19
-33
0
-47
-2
56
-87
-11
-63
5
-62
9
-56
64
27
13
-43
-31
-4
49
5
-25
1
26
-65
2
-11
-13
0
74
-32
-101
-31
-47
-14
-23
-41
-51
34
98
-127
-99
77
-14
-74
-1
81
-97
-36
-2
-88
-43
-12
0
-15
20
-4
-27
-18
10
-9
-10
23
5
-24
76
7
-11
5
-1
-33
-35
8
127
-66
-1
39
23
35
5
14
-107
-8
-30
-22
17
44
-21
-19
-46
-52
-19
-51
9
-114
-49
-17
-19
55
-15
-45
44
104
12
-22
34
24
-26
47
48
13
7
87
-36
-49
-16
-38
42
12
14
-127
27
-33
33
-4
6
93
0
-94
43
-32
-32
32
-56
-31
-28
81
-40
42
-52
2
47
-20
-93
-24
-61
-23
34
22
11
-5
31
9
14
-9
31
-82
1
17
-6
-41
-42
14
19
13
-8
29
99
-76
-6
14
-19
-70
-25
-42
-57
2
22
-20
-52
-67
104
9
-59
10
48
-39
19
-4
1
3
-19
70
-19
-18
-19
-2
84
-37
-4
-39
-5
7
35
34
52
12
-7
17
-1
9
-7
-31
-75
23
43
36
14
-7
67
3
9
24
-14
82
-56
-17
0
-31
40
-64
-4
-28
-26
-2
-27
-104
-57
-6
64
-32
-16
11
-41
-14
45
-17
17
-104
18
-71
57
-30
12
-64
-25
-50
-12
-39
19
-83
78
-57
-99
-37
29
-86
12
-27
10
1
83
-22
67
-76
-50
87
-36
8
32
-33
6
-46
22
-31
-22
29
29
-36
-28
8
-47
25
30
0
-71
-82
-3
23
-23
-99
-25
-47
-6
23
-40
15
-56
-17
-30
-24
24
-26
48
40
77
-21
8
45
12
-38
49
22
127
-4
-29
-27
-87
30
-52
20
36
33
25
23
-50
-33
68
60
70
-77
81
-5
-1
45
-45
-79
38
-26
-37
-17
28
-51
30
-57
-32
-51
-31
20
-14
-70
21
26
5
-71
-2
-8
-26
-39
-24
7
-68
6
-24
-21
6
51
36
-62
-2
-6
3
17
-40
-9
12
-53
-23
4
-41
-34
-78
66
5
37
1
11
-16
20
94
49
33
-10
-25
-28
48
66
-3
-60
-9
-51
-2
-47
-33
-4
-127
-41
-19
-62
-76
87
-10
24
-60
-21
-20
1
-127
68
-9
-100
-26
19
-46
15
-20
16
-23
-4
-102
-28
-33
23
-45
52
23
-64
-23
-52
-10
50
-61
49
3
-79
-45
24
110
-40
-24
21
30
-48
-41
16
23
-19
-32
-37
45
-37
22
5
-7
26
79
127
-45
10
16
-28
-15
-27
-31
16
-21
-10
-25
-82
32
-20
42
-59
8
28
57
-38
-36
-36
-38
20
-54
-19
25
34
-62
-37
23
6
55
-19
31
74
16
-62
50
-46
-31
58
20
6
18
30
-76
-98
69
11
61
-87
-28
-37
-1
24
-15
-23
14
2
-39
-103
-57
-60
-1
-24
75
-2
-43
-74
-31
64
10
1
-24
-15
-52
44
-114
33
-3
28
-21
41
-127
-33
-56
8
-113
25
-55
0
14
-53
-18
-43
44
10
36
-12
31
-23
-24
-27
-36
-30
-17
127
46
15
-31
-29
-127
-29
-10
107
18
13
59
-3
-5
45
-38
-32
9
42
8
28
-39
27
-6
62
-3
-40
12
20
-23
-92
32
-2
45
23
81
29
-39
-81
-14
-58
33
95
-32
54
-43
2
-127
-14
-45
-68
-53
-47
23
-122
60
39
13
4
0
-52
17
-24
-75
16
13
82
-3
10
-11
-38
-41
-85
-24
72
24
-32
-23
-51
1
20
-37
-12
77
7
-37
-45
-17
-127
46
-15
-10
28
-28
-18
-9
33
-88
86
-23
-50
45
38
-26
3
-6
-17
-62
20
4
23
-16
-28
-14
42
-8
68
20
-29
-61
-28
-24
41
-4
-47
11
20
-14
78
-46
-10
12
32
43
19
-42
-15
-75
-13
3
-47
-72
-34
12
-48
-53
-56
13
30
-28
-4
11
-13
46
-35
5
-67
-75
-9
65
3
30
-19
3
-6
45
-14
73
-35
-57
-30
-21
68
-5
-38
-115
-23
100
101
27
-8
14
-51
12
7
-17
-18
-29
78
21
8
-51
-16
53
-101
4
-52
-69
-27
28
-27
28
-65
14
-34
44
122
-86
-25
-17
-65
8
11
-5
-52
21
48
51
55
-20
63
6
-17
18
16
-45
-7
17
-52
-32
-18
-12
-26
-21
2
-77
-6
-10
12
0
-47
37
13
-77
-9
30
-5
-93
88
2
-3
-25
51
21
8
0
45
76
64
-19
-3
127
25
16
9
-11
-3
127
-40
-38
-17
-18
-2
17
-12
95
-27
69
4
75
-37
48
4
-1
-43
-72
-13
18
-35
-23
-25
14
-8
-19
24
-13
12
127
-34
-14
19
-64
-13
-93
15
-28
-3
-28
-61
-6
-31
-50
-37
4
46
-87
48
4
-36
2
-10
53
17
31
-18
-47
93
10
39
0
-2
-28
-30
-6
3
-18
-54
-51
-119
10
10
-32
-19
-78
-43
-35
9
127
-59
-5
69
56
-24
-62
-20
-24
94
-16
-3
20
49
-40
-127
-23
-87
-20
115
-4
-33
67
9
2
-105
4
-9
81
54
-28
-93
1
-46
-5
-59
-29
-33
-25
-57
3
70
19
46
54
-29
-62
-78
-31
30
30
-12
2
-30
-7
-55
12
-53
-92
45
58
109
50
13
-2
3
-23
-81
-56
74
-81
-79
-64
21
-73
58
8
1
24
-14
12
0
-46
38
-41
63
16
-59
-82
-18
-14
-15
-25
50
-10
-40
70
4
-53
-55
35
45
9
-1
-13
32
22
-52
-127
58
36
-127
-38
-31
-53
-34
18
-101
39
-68
-10
7
9
-12
15
16
-16
59
-12
19
-38
-97
72
-17
7
-7
51
-41
-17
45
-4
30
28
13
0
-25
-5
-22
31
-4
-1
-6
-30
33
-7
-63
19
-18
-15
8
3
-44
20
30
-101
-13
43
-52
6
23
-34
-16
18
8
-79
-16
93
22
-6
6
-50
26
-62
-15
39
93
-23
7
4
-6
-21
9
-44
10
-9
122
-34
-5
-7
43
2
-100
-25
44
126
64
7
-78
9
-20
-21
46
23
26
-42
2
13
4
-14
24
22
-40
-8
-81
96
11
-69
4
-42
-6
-29
16
-25
0
-21
-60
-2
18
20
43
-30
-56
94
5
-46
16
25
-26
-25
-127
-126
-17
-42
10
14
9
23
-65
-49
-33
-2
37
28
-119
10
-58
-3
50
-36
-48
32
-9
47
-47
42
19
3
21
54
26
35
2
-42
46
-65
43
-81
76
9
-41
-10
-92
0
-19
10
-42
-23
26
-55
-14
-27
-8
47
51
-9
-49
42
34
22
29
-61
-18
-49
41
-72
94
-27
-1
-36
7
110
12
21
-17
4
-7
114
-33
68
22
-50
11
13
-78
-60
5
67
61
-33
9
-6
1
-62
-46
2
-96
29
-3
-11
0
-44
44
-46
51
4
8
-36
3
-15
33
-14
-18
-13
-8
36
-9
59
-40
-127
43
14
0
112
44
36
-13
26
33
-42
-16
-5
55
11
6
16
20
8
3
83
-26
56
8
15
50
-52
55
20
35
25
89
99
10
-57
49
-10
-14
-9
-80
11
-7
-10
29
38
-127
-19
-66
36
60
8
5
26
-127
-21
-53
-43
-17
23
-14
-37
33
-66
-23
-53
-89
43
45
-97
-73
-9
-113
-40
-38
5
13
3
-52
-52
-68
-54
-9
9
32
33
-7
-2
16
46
-23
-42
8
-54
-35
80
16
127
-8
-60
-5
-68
2
62
-36
-127
66
6
18
55
8
-105
7
31
29
0
-117
12
34
25
36
-65
-125
-81
-21
-32
6
56
-2
-10
-112
-38
-73
20
89
-21
-15
-22
-15
-17
-16
-46
-19
69
32
-74
-50
-5
-8
86
-35
28
-14
42
3
7
44
-21
-21
-54
-89
-127
11
-8
65
0
-25
43
-4
-92
-37
-35
-7
-48
-2
-49
-30
-30
-15
-26
-19
97
-127
-11
-54
-86
16
-17
-40
-9
-59
-22
40
8
-50
-56
28
0
-16
14
99
25
-71
22
-17
-53
-47
-84
-51
28
-65
-79
46
-34
22
4
3
127
32
-117
-22
10
6
-12
55
102
7
50
-52
36
-42
10
-94
-11
-79
10
33
-6
15
-8
79
9
39
-10
-9
-43
-40
88
-48
-3
2
18
-33
96
31
0
-30
18
28
4
-35
1
-70
-5
-118
-49
51
-33
-16
110
-34
-12
25
-27
4
-5
-6
1
11
94
-21
27
16
-7
127
2
-28
61
24
-13
-5
-57
-17
90
64
-1
-12
-49
57
-1
-12
13
35
-47
-30
39
-4
-20
38
-66
-23
-22
15
-34
-67
47
1
-8
2
35
-40
67
-43
62
13
-17
-13
1
-21
-66
-28
37
-5
35
-33
0
-41
-44
-59
1
-81
-32
25
40
-97
-10
-67
-14
78
36
72
41
-13
-9
-27
-12
-70
-64
-7
-3
61
-93
27
-18
10
-30
19
7
-14
-53
-74
-60
11
-12
-51
60
-4
2
11
26
-28
-42
-24
3
-67
-10
-49
1
19
-31
-67
5
40
13
-32
90
-5
-39
6
-15
63
-22
-9
8
12
-58
29
-62
5
-42
41
-14
-12
12
-48
-19
-12
-83
26
-3
-31
-95
37
-53
-63
46
70
-34
4
-61
8
-6
50
-4
26
18
-16
-7
-47
34
22
44
-15
-20
-24
-40
-17
-30
-12
-58
-47
1
95
54
-38
-1
-33
9
-14
-60
67
81
-12
-57
3
33
-16
-14
-88
-68
-60
-14
19
-43
-21
72
-37
17
-74
23
-21
-57
-32
74
9
-57
-5
55
-8
26
-96
9
-65
-1
8
-57
8
-30
-72
0
-23
-98
-73
-38
2
-66
-52
-55
62
-45
-25
10
-37
7
-8
-12
-7
46
-40
61
79
41
-73
-95
-9
19
-53
92
-27
-46
112
14
-27
3
-73
21
7
-55
-81
8
11
-22
-78
-43
127
-38
11
43
14
4
2
26
-12
-37
3
-21
3
39
-79
-104
20
-22
3
-20
8
-75
-112
-39
-3
-2
-21
-13
40
-48
3
-31
38
-24
18
7
86
-93
-34
-56
-65
-14
40
4
19
-29
-8
-5
-14
-74
53
-19
-29
31
31
5
-16
70
-18
-46
31
-49
40
-16
-62
33
66
-31
35
-7
45
87
-45
18
-15
-79
35
3
-42
-35
-19
-16
-11
44
-32
-114
-96
-64
-72
46
4
-35
-10
-34
20
0
-66
-88
23
-17
-46
-20
30
8
-9
18
-25
-26
-60
-35
-57
-11
-101
33
-25
33
38
28
52
64
25
-96
63
59
11
-43
78
-21
30
-127
-19
4
-64
-7
-27
-51
-25
-53
7
-2
109
-35
71
21
-34
-11
-21
-52
-23
-73
36
-13
-86
-27
46
53
-9
-6
15
50
37
28
-100
23
8
-43
45
-45
4
-57
-19
68
10
28
-7
-51
-81
-27
-7
4
-24
63
-76
30
-20
27
35
-44
-17
-10
88
-77
13
-9
-111
29
13
61
50
16
41
52
-127
-40
-5
3
77
2
-19
9
-27
-10
14
23
-19
-10
31
-57
33
56
24
-10
28
-44
-43
47
127
13
-33
-35
3
-5
101
-1
-11
-43
-42
-113
-19
-51
-13
-113
-34
-8
29
29
-38
18
-35
27
-82
17
-70
-13
31
-10
-5
31
102
28
102
32
-11
-23
68
-5
-7
-100
-51
6
26
-75
41
17
-21
30
98
-10
-51
-46
0
24
-7
-65
21
-17
-47
-15
13
-106
-50
-16
-18
28
-21
26
4
-25
-120
22
-70
-25
-22
1
103
77
31
76
15
-73
-72
-83
-50
-17
97
-10
-34
93
-67
-24
15
-33
64
2
-48
6
22
-63
-2
37
-58
0
-35
-10
43
-3
40
-37
16
75
19
-19
18
-1
19
-42
-54
-8
42
44
-51
45
13
-15
-79
61
-78
19
40
-20
-89
0
13
4
10
-26
12
-41
-57
13
-89
-30
-44
74
12
-127
-17
-60
48
-9
-26
31
-2
5
-40
-7
127
-23
3
-74
-102
-17
-10
-13
16
24
30
89
60
-18
20
-82
40
49
-80
90
-2
2
38
-23
-58
-9
12
-26
-41
-58
-28
70
-70
13
-62
48
-8
35
25
-8
9
24
-50
1
-5
-80
-47
-29
-54
13
-32
35
-23
-34
5
-73
-23
-24
-39
-17
-17
9
75
-51
-40
60
22
-44
19
-69
37
7
-53
22
-7
3
-16
-5
94
-86
22
127
4
-50
4
79
36
-56
53
10
-28
-70
18
-127
13
56
-73
49
-56
-61
54
11
-7
-19
66
91
-28
48
-20
-4
1
-6
-78
-31
37
-49
66
-75
-41
70
-21
-30
12
-64
-13
-24
-39
-72
-32
1
-69
25
40
-26
-56
-88
20
-26
5
27
-124
-18
-48
43
-85
-119
4
-49
-76
-79
-48
-37
0
1
19
0
-15
27
32
-119
-61
-115
-78
1
-123
29
-30
87
-15
-95
43
-97
4
-39
52
44
45
-17
-37
13
15
-89
-21
-34
-63
47
-73
-51
-3
-2
19
-28
77
-39
-50
-94
-22
-89
43
-51
-60
0
8
29
-25
-64
-24
-127
-38
29
15
-41
7
-87
12
100
-48
-12
-10
-102
51
18
-111
-21
-86
-32
37
-64
-41
-49
-30
20
7
-93
-29
-11
21
14
-80
-95
-4
1
28
-78
49
76
9
-62
34
-10
27
-18
29
-89
-55
-6
53
37
-4
-55
-9
44
14
-116
1
-4
-103
-61
-79
-8
91
-3
-69
-73
-12
2
-85
-61
0
-5
-127
-77
-55
-16
-100
-6
2
-12
8
-37
-54
-49
-25
-94
43
25
20
-11
-54
-63
-76
-39
-91
-7
-17
-59
64
12
-36
16
-60
13
-40
79
-36
-29
-54
49
45
-6
22
27
28
-68
-32
14
-5
-41
-83
10
1
-72
20
-26
22
-70
2
7
-60
-25
34
-25
-42
-30
80
-3
1
39
-86
-15
35
-56
29
16
-19
0
-26
-9
-16
-101
-100
60
-16
-127
-26
-101
-57
1
-4
49
-63
-64
-64
-38
-8
-7
-36
24
-68
-45
-5
-22
36
55
-127
40
-69
-87
-56
-38
-127
-15
-11
-35
-40
-87
-84
14
20
38
14
0
-25
-37
-40
-16
7
5
-31
25
-90
-106
0
-17
-27
18
-21
60
-44
-10
3
-4
-48
29
13
-48
11
86
-57
57
13
22
-18
-87
7
3
-56
-34
23
24
-32
-26
-35
1
41
-44
-44
40
-33
-40
-48
-34
-13
-51
-7
105
6
-41
13
-35
87
-20
4
-5
-52
-40
-65
-35
-12
61
0
-55
-49
-29
-63
-19
27
-13
-28
-38
-6
-23
-94
49
-56
-11
76
-114
-44
30
-41
-62
-5
-66
-3
-26
14
-26
-53
-105
22
-22
-22
-9
26
-78
22
-8
30
17
-11
-15
2
-10
-22
-19
16
-39
-35
-24
84
24
-39
-62
-99
-1
-127
-117
-16
-76
-65
-81
-53
-85
3
-34
-46
-102
-11
-78
-60
-4
7
-127
-26
-14
-52
-46
-27
-5
-26
-47
32
45
19
-39
-92
21
9
1
30
22
74
42
-8
-70
-82
-44
-127
-75
-16
-127
3
-18
33
-7
20
4
42
-41
-15
-78
-23
-82
-98
-34
11
0
-45
4
33
19
-26
-3
17
-10
-58
-76
3
-114
20
-78
-127
-23
-108
-40
16
-30
-60
59
109
-47
-61
35
-34
-58
-59
13
28
-50
-127
-55
-5
-46
-39
-41
-85
22
36
-119
-35
-31
-34
-61
-6
-106
-49
-9
-102
-61
-38
-21
14
29
3
15
8
0
61
30
-17
-48
-124
3
8
-51
-98
-11
-26
-37
-9
21
33
33
7
-62
-37
48
-84
-30
10
12
-115
3
-26
-38
-127
22
-86
-11
-87
22
-42
17
-8
-15
-86
-37
-42
-21
30
-46
80
-29
19
-60
2
85
62
-2
-111
-4
-59
5
1
20
21
-14
-5
-8
-95
-7
-62
9
29
23
-43
-67
-2
19
-12
-42
-6
-27
11
25
-19
-64
-14
-15
-30
-50
-121
-7
21
-66
-82
-18
-72
-54
27
-55
19
0
-17
-34
-13
35
-46
-66
-25
6
-52
41
-63
-82
-111
14
-73
-104
25
-54
-55
-86
27
-68
-25
-123
-57
-12
-7
94
-24
-64
-78
-38
-82
-46
6
44
-2
41
-62
55
-96
-30
127
-64
-20
8
60
-2
-27
4
-67
-18
14
-99
50
-30
-5
-98
-73
-10
30
98
-39
-13
66
-16
53
34
40
-25
-25
8
-70
-96
-127
-11
-38
-2
13
-98
55
-28
25
-25
-22
-7
0
-22
-3
-88
4
-14
24
-15
-42
41
-5
68
6
-80
-38
-15
-51
-73
26
-18
32
-4
36
31
58
-66
-47
-40
35
21
16
72
14
-38
15
-127
63
-92
-97
-43
18
-41
-31
-72
-55
20
61
-73
-31
-61
-10
-44
-43
-23
-15
-14
-17
1
-28
9
-22
11
9
8
-28
58
-16
-11
-17
-60
-104
-17
-18
-29
-52
-87
-28
-13
6
52
-23
-21
-38
-47
-3
-22
-25
37
-6
14
-15
23
-126
-17
-39
-69
2
-97
-96
-51
2
-8
6
-35
35
-23
89
-19
-52
-10
-60
-46
35
36
-29
-32
-49
-118
-1
-39
49
-28
-64
-35
42
12
-53
-53
-37
15
-5
22
-4
-24
-75
-40
-33
0
117
-68
-9
-66
-5
17
-17
-101
-7
37
-103
-75
-30
-105
-127
56
-42
-17
-43
28
24
-33
-114
36
0
-22
-32
-40
-12
-127
11
-30
-31
-17
-28
3
-95
18
-6
-10
-127
-127
30
-6
10
-23
-54
8
43
-37
68
-43
-14
-4
29
-15
0
-5
-68
-47
-4
-45
-127
-58
-69
-20
-47
-5
49
8
33
-1
-21
6
-10
-16
22
-79
24
6
108
44
11
20
-34
-22
-124
-42
-46
33
15
-1
-3
-68
-36
-59
-22
21
36
-51
11
5
-56
-120
-5
-14
37
-28
-19
11
-127
41
9
0
-66
37
27
-25
2
-43
-83
-29
-30
-23
-16
13
-31
-105
-36
4
19
-52
-33
8
-6
-91
-52
90
-8
-9
-6
-39
-70
-29
-17
-40
-2
12
-58
-97
-108
-39
-69
-90
61
-27
-44
-27
-55
-22
-7
-66
-64
-8
52
72
-79
-10
33
44
-127
33
-5
-54
-61
37
-57
-36
23
-127
-26
-33
22
-40
-57
30
-63
-63
19
-22
31
-127
-45
6
-34
-119
-83
5
-111
-28
17
-11
-63
14
-34
-18
-39
-53
-5
-5
-36
-56
-22
-13
-23
-95
9
-21
22
-127
29
-87
-54
-127
-9
-127
-11
80
-51
70
-51
-6
-86
16
8
-127
35
-14
-66
-90
-3
-9
3
-54
14
-97
-50
-53
-29
-127
-85
44
31
16
-20
-15
-44
-17
-9
14
-67
0
127
-36
-3
-43
-64
3
-37
14
-36
-41
11
1
95
-5
-37
-48
-51
-35
-4
25
-46
46
-8
24
14
-77
-17
-38
6
24
-28
34
-88
-6
-51
-23
41
-46
0
-37
-46
-56
-75
-28
-50
17
33
-28
36
-80
-114
-28
43
43
-92
21
127
0
-22
79
-29
-2
-81
9
21
22
36
-45
-77
3
-10
-24
-57
56
-4
-86
19
-3
9
8
-38
-16
127
-4
-15
40
24
127
-31
26
-11
26
29
-32
-20
-86
-3
-97
-65
-71
-71
-2
-5
65
-29
-26
-47
42
-46
-38
-4
-81
-54
-38
14
-93
35
60
0
-116
33
0
-119
45
-46
12
11
-69
-13
-82
-17
-49
-35
16
-81
43
0
4
-15
33
-62
-49
-18
-50
-40
-35
-72
10
29
-18
15
-27
-1
-31
36
-21
45
57
-39
-2
-24
-24
-10
68
52
-33
-9
-42
-16
22
-17
87
-63
-49
-108
-44
-46
12
-67
20
-44
-31
-91
-34
-38
3
-41
-24
13
-73
-10
5
-20
-26
76
-10
127
-86
23
23
-33
43
77
17
16
-19
-40
-13
23
-16
-87
36
40
65
-52
-10
-17
33
30
14
-23
-71
16
-31
-24
-34
127
22
-77
30
-23
17
0
-4
-62
-17
-2
-65
-2
-55
-17
-64
29
75
-7
-45
21
-71
-15
-5
-18
-6
-13
-112
-28
-53
2
-4
-109
-53
-57
-70
-30
-37
-8
-1
-16
-98
5
-71
-64
-78
8
-44
-12
-89
6
-65
12
-23
-7
-47
-61
114
-41
3
-1
-57
-21
-45
-111
-99
-9
-27
25
36
4
-18
-62
-80
-25
-37
-34
-4
-7
52
23
-53
-23
37
-41
46
2
-16
-57
30
-7
108
16
-17
5
-42
11
-42
31
-39
4
42
-9
12
-79
-122
28
13
-48
-41
-36
-53
-100
3
-15
-13
-31
14
-70
-47
68
-9
8
-68
-63
-36
-31
-56
18
-34
-103
-13
-79
-43
48
34
-34
-11
-68
5
-47
9
-37
60
-74
25
-73
-65
-10
-28
-55
61
35
31
35
-125
59
-18
-4
-41
-14
-30
-44
103
-30
59
-7
-43
33
-16
-78
59
38
-9
25
75
-40
-63
-34
-37
61
0
46
-73
-13
-3
-61
28
-63
-53
-66
-1
17
-42
11
-55
-30
-98
-1
-61
-57
-29
-42
47
27
-44
-69
-13
-58
14
6
12
-5
100
44
21
12
2
55
62
69
-53
9
-2
-56
-37
-83
46
2
27
-1
-19
30
-42
34
-23
-9
-13
35
40
-3
-32
-33
-10
4
7
-20
-40
-21
-40
13
20
125
-45
22
-5
-11
-34
-11
-21
-17
-19
-55
-23
-30
-24
61
-49
21
-48
-30
-55
-52
-36
20
-58
-69
-92
27
31
70
-28
-32
-55
-22
-21
7
-16
4
-78
-2
-33
-22
-20
27
3
-11
-34
-4
37
-117
-40
-65
-84
-59
11
-80
-28
-53
-20
122
20
-52
-66
126
-9
-5
-29
-58
-93
-14
-21
-65
34
-88
45
-3
100
-75
89
-76
-29
-127
-37
-88
33
15
66
-5
20
16
-53
24
10
-109
-24
-65
2
-62
14
-17
-54
46
-34
18
-40
-11
23
-69
-4
8
-41
-33
-63
-13
-68
-24
9
23
39
14
125
-84
59
38
-32
-40
-38
-21
-28
-47
-76
-16
25
45
-9
42
-5
-8
-6
9
-87
-13
43
65
-26
12
24
-74
52
-27
-34
-50
-95
11
-7
-67
93
-27
-17
-15
-65
28
-71
-7
55
-3
-3
15
-43
84
96
-18
-76
-18
73
43
-44
-32
6
-57
34
57
127
-15
-99
17
11
-32
-64
26
-47
112
5
-66
-69
-24
-22
32
-23
5
-3
127
14
-11
-111
98
-40
-18
-44
-48
-20
12
-21
23
-65
-37
-32
-75
17
-12
-53
-13
87
-14
-9
-25
-127
-47
17
-77
-70
1
-6
10
15
-74
8
-23
-23
-35
-25
37
-47
60
-16
-28
-56
-3
-50
16
-46
-68
-15
-35
-4
-15
35
29
32
-18
-28
-29
-1
-16
-57
-38
-33
-10
-22
-78
26
13
-12
-8
69
-10
-73
-48
27
10
-21
7
-8
-28
-44
-56
-11
-3
-30
127
-38
-64
-55
-29
-32
-3
-12
90
-63
3
-67
-39
1
-11
1
7
-25
42
0
11
-54
-48
36
-58
-12
30
-54
-4
-11
-18
31
44
9
18
-7
-89
-9
-21
-50
-5
-41
-68
-36
33
15
-12
-24
0
1
40
-14
-2
7
-49
-88
45
19
20
-5
-5
48
-81
-37
-39
-39
33
68
-37
-12
-25
19
-40
88
-25
-41
-72
-32
43
40
56
-12
-15
24
-102
-112
-45
-13
-4
-46
-10
-65
20
-8
-92
-4
14
-63
-54
68
-50
-127
-27
-18
100
-29
7
19
-78
-11
48
-49
52
-33
-8
-29
-37
-38
-8
13
4
-66
76
-26
-73
-51
-32
32
30
-19
12
-88
-71
-15
-65
24
-88
-33
-1
-53
41
42
-107
51
-33
-13
22
33
-33
-24
-127
-14
-19
-50
-101
-7
-48
-30
-47
84
-43
-41
-61
18
29
-89
35
-60
-26
20
22
-73
-24
-114
-16
-13
-22
-33
-26
-62
-55
-23
70
-3
40
-127
97
-30
-127
-118
-33
99
40
-21
-37
6
-22
25
6
-40
-127
-30
-23
51
3
-59
-9
-127
-9
-25
-33
31
-39
-69
-1
18
50
-5
-54
11
6
-32
-7
5
12
-5
-56
8
-67
-32
-28
4
89
15
32
-26
-81
51
60
109
-19
-60
-32
-13
-28
-44
-87
20
29
-112
60
6
40
-16
46
86
12
29
-30
-64
20
-39
92
3
0
0
21
-7
-43
-16
5
-37
-38
98
3
-1
-13
4
-88
-8
-26
20
28
-12
-59
6
-2
-100
-35
-50
2
-30
-40
25
-60
37
23
92
-37
-7
-85
-24
70
30
-27
-29
-127
-46
-36
-64
-14
-29
-27
-42
-12
18
-38
60
1
-74
-122
-33
17
-50
127
4
20
-28
55
-4
-3
-9
124
-23
127
-83
127
103
48
81
-59
-27
-34
-10
7
-91
6
23
-42
-50
19
-36
-56
13
-54
-31
-17
-38
-127
13
-15
49
-124
-52
-30
43
-97
-67
-74
-94
-10
-51
-4
53
50
66
4
-121
21
-76
4
64
11
-5
-55
8
68
-28
43
-82
-41
-34
21
127
-21
32
-87
-17
-45
-21
-33
50
-36
108
-39
-107
50
-11
-58
127
-11
20
-90
-79
24
-18
0
-36
-19
-25
11
-35
-13
9
56
-21
127
-127
-94
-6
-44
-47
-11
-27
-51
3
-92
-5
24
-29
25
-56
12
-1
20
83
100
-1
-48
-12
14
18
41
14
1
-46
-61
-3
-19
-56
20
23
-4
-7
4
30
-55
13
27
-48
13
7
-27
1
127
-51
-57
-6
42
24
-127
82
-4
-23
37
-120
-104
-15
-6
-54
-8
15
53
-19
47
31
25
9
-20
-64
-10
-81
49
-39
-2
-86
-32
7
-24
-37
41
71
63
10
-49
-50
-56
-49
-4
7
-115
3
5
-35
63
127
-9
-7
40
-127
-18
24
-70
13
30
-17
-49
-47
7
-51
23
5
127
-47
-55
-19
-18
-66
-114
-32
-127
12
74
-4
-127
46
31
63
-54
-36
8
48
-78
40
-12
-76
-58
-5
18
6
-57
16
-21
38
19
-9
18
76
-9
25
-110
-17
2
-2
-16
-34
-67
61
-72
-31
-68
-27
-70
-30
-12
-29
-6
-40
-38
-64
53
-44
124
50
16
-21
-1
31
-44
-58
4
-88
6
102
29
-45
-69
-26
-46
-37
-87
18
72
-23
-16
-6
-7
40
19
-70
14
-81
-21
-39
44
-105
-65
0
-127
-47
-85
-74
0
-59
18
-14
-22
16
33
-28
56
-3
-12
-112
0
-55
-28
-18
38
-42
36
-95
-16
-115
12
-10
-30
-23
38
-127
-66
-1
-21
-42
7
60
-86
94
36
-81
-106
-87
-2
-79
12
-77
-52
-25
17
21
-32
-52
-29
-26
38
-45
-33
-29
-18
127
-94
66
-11
-88
-26
-57
-54
-96
-8
-68
-62
-15
6
-12
-27
2
-31
-53
110
10
-127
-29
91
127
-19
-37
-64
33
-60
-9
-13
31
-5
-55
-9
26
2
70
1
-66
-57
-96
15
-52
12
-105
-53
-74
127
7
-98
7
127
73
-11
121
-3
-54
127
6
80
7
-47
12
-76
-28
2
-11
-52
-23
27
-37
-43
-28
-12
10
-63
19
127
29
-37
98
-59
-89
-80
-2
-25
16
6
9
14
-26
-38
4
48
81
-1
127
-124
-102
16
17
-26
86
-16
-61
15
-44
127
-91
14
-22
-8
4
-59
-17
-16
21
93
2
-10
-50
29
53
75
76
-27
34
61
-28
-41
-29
63
-12
15
66
-33
0
-8
-7
-68
-65
-116
92
-40
-49
-4
72
53
-6
-9
-63
-16
-54
-127
11
-23
-85
13
-25
26
-85
-14
13
15
127
-41
-16
-81
-54
-86
104
55
38
-62
22
-80
-127
39
0
39
19
6
-37
-30
57
1
-46
-12
-67
-51
51
52
12
2
-28
-42
18
124
-29
-35
-86
-71
127
-11
-25
12
-20
-57
-33
-25
48
-17
-58
87
-95
-39
-27
-127
-36
1
-49
-2
-52
-34
2
-70
-14
-17
87
127
-3
-49
7
12
-64
52
-30
38
26
-12
2
-125
32
-99
-62
15
18
-21
-114
76
-42
-29
-94
-14
-65
73
-30
-81
-25
-53
-93
-21
-34
66
-18
31
-12
-39
41
-68
1
43
-111
0
-50
-82
51
15
79
-26
16
-28
-74
-47
-9
23
-33
20
-98
58
-1
-77
7
-20
-64
69
127
13
-48
5
-33
-72
86
2
25
-82
-19
-50
13
-31
-40
-36
-21
-71
-22
-1
-2
-38
-35
-68
48
26
-127
-38
83
-29
-32
8
-52
-127
-105
19
59
-27
38
-10
127
24
-88
-53
-2
74
-42
63
-23
-65
24
8
-28
-11
-51
127
-127
3
40
-97
-10
-127
-34
-127
-49
-12
-4
-86
66
-42
-69
-29
-76
42
-74
-21
25
-10
-76
12
-112
-13
-24
74
25
-99
-13
-44
-19
75
-18
11
-52
44
-79
3
-20
-41
1
30
-56
-7
5
13
13
-63
48
84
-88
-20
-24
71
51
-74
25
-95
-45
-43
9
-9
-9
127
-87
47
10
-9
-37
56
0
-51
-24
46
8
6
34
-127
-27
12
46
127
61
16
-127
-81
23
87
1
27
-39
-34
6
-74
85
-72
-124
-21
-20
-81
24
-12
127
-33
-75
-5
127
-35
82
-26
-116
-127
-67
27
70
-70
-32
-19
-23
-30
-74
-53
-23
33
-6
-100
11
-22
-26
-37
-36
-69
26
-74
-38
33
-14
-89
27
-24
9
-10
-47
33
79
-14
82
-6
-39
127
-21
-49
-29
-86
-76
92
-53
-15
-126
-28
-40
46
31
-22
-37
-24
-14
2
-18
-6
20
12
-63
61
5
-27
37
-43
-30
3
16
-2
-87
127
9
-34
-43
-19
-21
4
-93
-75
-25
-9
-61
-68
-38
24
7
-28
-65
-37
21
11
-12
-21
2
-22
11
58
-58
3
-9
-84
-13
-17
90
-96
-55
-13
9
28
-44
108
7
-84
-40
33
85
-74
33
-92
-11
-32
-62
-20
-12
-15
10
-25
18
-53
-43
54
79
46
-16
-1
0
85
-79
34
-28
-7
-90
-67
-48
-29
-19
67
-33
51
-49
8
-25
-53
-17
7
-31
-65
-72
-30
7
7
10
-105
23
76
24
-42
-2
27
-79
-27
17
20
127
118
2
23
-26
30
-13
-20
4
29
-45
-69
55
-58
2
73
-71
-76
-35
-51
-1
-57
-17
5
54
44
23
-24
-24
18
-88
-20
-53
-30
21
-22
-5
-71
-64
-112
-25
-1
15
-46
-13
1
-45
3
0
-76
-65
0
-58
1
-14
-13
-49
-28
-19
-79
-100
84
-2
-10
29
27
-45
-18
-25
-13
-5
5
-9
18
-44
-64
-62
-11
-25
-39
-28
-97
-47
-84
-62
71
-21
-50
27
-29
-39
-37
-3
-40
-45
49
-45
0
15
92
-48
9
-17
-60
39
-83
-13
-50
110
-23
-80
51
4
71
-72
-35
-9
27
-36
-27
-14
-24
-36
84
-5
2
-71
3
73
20
-63
12
-67
-77
-28
-3
53
25
18
-23
27
66
-39
-2
13
-2
-48
-77
21
-39
-21
-48
-46
-26
-15
0
-1
-41
-16
-62
12
-20
29
-45
-120
-72
-31
-63
22
-66
10
-3
-3
38
85
-52
-50
65
8
28
-57
-47
113
-86
-55
-28
-75
-35
31
-11
4
-14
-55
11
-61
25
-39
-32
-89
67
-12
63
65
-29
0
-38
-9
-38
-18
51
-101
127
17
21
-50
-28
31
-41
-14
10
34
37
13
86
-3
18
-71
-13
-52
5
-18
127
-9
127
-37
-65
-103
-66
-20
19
-21
-48
-108
-27
-13
-24
-10
80
-19
-56
-23
-16
-102
-52
-33
30
-79
62
2
38
53
-45
-39
-34
18
-45
-7
19
-54
-39
43
-68
-92
-42
-65
-65
62
4
-38
-49
28
10
-55
-28
-36
-87
-21
-5
-38
-62
-37
-19
59
38
-80
46
50
46
-1
5
-40
-77
-96
-26
-33
-31
20
-21
-26
27
-19
24
-27
-11
-13
-26
6
75
33
-46
-8
-21
-13
56
-93
-14
-23
35
-44
15
-11
75
33
28
-50
-11
-26
84
8
-17
69
-10
-16
88
-35
9
-5
-2
-37
10
71
-21
15
-5
15
-32
-41
-82
-32
55
-40
-7
-95
45
-1
37
-8
41
1
55
-21
7
-17
-17
33
16
-118
35
-76
-2
-15
8
-6
-44
127
60
-109
-40
-54
-9
18
10
-44
-14
96
6
-7
11
-73
-40
28
-53
8
-29
-47
8
-68
79
30
-74
50
121
-10
88
-90
-33
-33
-25
-4
33
-47
-1
6
53
12
58
-66
11
-5
-37
-66
10
90
45
12
-125
0
-43
26
-35
17
-24
-109
-47
-13
-8
-30
-106
-2
4
89
-9
-11
-74
62
-42
-6
-46
124
-2
-1
16
31
1
-19
-54
59
-66
7
19
-49
-24
-27
5
-55
42
0
32
-64
-65
-64
-30
-56
-53
29
-30
96
-73
-55
16
8
5
-43
15
52
-32
23
-12
-13
-38
-3
-25
-75
-49
36
33
-19
-10
-108
-43
-35
-18
-25
-42
-54
94
7
14
-49
-21
-51
36
46
64
-48
-7
-41
-48
-39
-82
1
46
-19
104
93
12
43
-41
-67
21
8
-32
10
16
-15
-14
-15
44
-125
-27
-10
-42
-25
48
-23
-62
3
42
55
99
-17
5
2
-10
127
112
36
-39
16
96
-9
-18
24
-4
-48
-26
9
-35
37
13
62
-11
-28
-16
6
127
-92
-30
40
-107
-17
-5
3
16
-19
-26
-60
-3
-33
5
-127
-61
-22
-49
-5
2
33
-8
-68
-80
-57
-25
40
52
-66
-60
12
-8
23
-4
-31
14
27
-114
-45
27
18
-25
26
31
-8
-18
10
-14
-77
-31
5
7
-4
88
-52
45
-52
-15
-63
-55
29
-4
22
-3
-27
111
32
-22
45
-36
-28
-50
8
-51
127
-17
83
-2
50
24
-35
-16
-68
17
-21
-8
-54
-1
-24
10
67
-104
-30
-18
-10
-11
-3
-37
-105
60
-20
-20
-12
-32
-23
111
22
-21
-60
2
-27
1
-13
-121
45
-27
-64
-91
66
7
-17
33
20
32
-7
8
111
32
40
-2
25
-47
-104
49
-127
5
9
-49
-87
78
-19
48
-25
-21
-13
-2
-31
-36
-1
-44
-3
34
-13
-30
-89
-38
-91
7
-37
-16
-127
-78
-106
-19
8
-21
-28
-95
-17
-30
-73
-112
-21
26
-48
-10
-52
-41
92
16
-27
7
-37
-17
-14
-33
-26
-5
9
58
-36
-30
-44
-8
88
22
-20
-43
-15
-35
-61
0
22
-7
127
14
10
-1
-32
-73
-6
4
25
-26
24
27
-48
-50
-4
-36
10
26
110
76
38
-2
56
-58
-30
-12
-3
-46
-13
-60
-46
-104
5
-68
-96
-54
-20
2
-68
127
-8
-17
-69
39
-3
-57
50
-20
-40
-29
18
0
-59
-32
-16
-57
8
84
97
2
-84
-28
-4
127
-53
-66
-34
38
-101
15
45
7
29
-48
-7
53
31
7
-49
-28
-18
-69
-36
-52
-13
-48
-35
-70
-16
15
41
1
-9
20
-16
43
62
37
-41
-49
102
-26
-29
-109
19
87
24
-63
-39
-55
-29
47
-127
-37
95
74
6
-57
-61
-74
-13
22
37
-41
-29
25
-81
-15
12
-31
12
-31
4
-6
18
-3
-19
10
-48
55
25
-85
-93
-26
-29
23
-19
-44
54
-57
-47
8
71
-74
7
-127
38
10
15
127
-22
29
-59
16
6
17
-4
6
-18
-34
-15
-38
7
-57
-12
-20
-108
-85
-45
-37
7
26
31
-39
56
-19
-28
-14
-35
26
-28
41
-20
-61
-61
36
-53
-70
-108
76
-32
-41
-10
34
56
-29
1
76
-44
28
-28
32
-18
-22
18
61
20
1
-53
11
-98
10
18
29
-50
15
4
-58
-2
-79
-50
-64
-45
88
-4
21
-56
43
-127
-36
-27
-4
122
-9
4
-9
57
10
-9
1
11
-68
-127
-9
-32
-3
112
0
121
-48
-16
-26
-45
-103
-17
-43
-14
21
13
-17
-84
-24
-31
-52
38
8
-20
-9
14
-29
-6
-39
-38
3
-7
45
-68
-9
-20
-5
2
24
-90
-99
-91
44
-94
-6
46
20
58
32
14
-39
-23
-50
14
-27
-22
-98
-68
-17
-3
-73
40
10
18
-41
-22
-92
32
29
-37
71
-37
28
14
-23
14
-23
-75
-80
-10
-60
-46
-63
2
1
-95
1
-54
-1
-54
10
-41
-44
-18
-14
-25
15
-45
61
-13
104
3
19
-31
36
-89
0
-5
9
16
104
-124
15
18
-11
1
-26
-3
1
-53
-69
24
-2
25
-5
-18
-32
-25
12
4
75
-24
51
-127
-13
-86
-44
-47
14
-47
-53
-95
-61
69
-32
20
-77
-31
91
-54
-26
-3
127
20
41
3
74
55
-75
-100
-2
16
-10
51
-65
-20
-17
-41
50
50
17
-24
33
-40
8
-38
-127
-1
26
58
-8
-17
85
15
71
-45
-127
-47
29
-17
-84
-6
-32
-17
-51
15
-28
-63
-53
-21
18
32
127
43
51
28
25
-82
-99
-84
-25
73
30
-34
1
-81
-14
92
61
-51
-14
5
57
0
-60
-34
29
-1
-41
33
70
-26
46
-4
10
-19
-2
-26
6
-30
-44
1
-70
-11
-80
-38
-116
-73
-15
-24
40
1
-54
38
0
-5
-17
16
-61
-113
36
-34
32
19
21
-53
5
-76
-13
-27
-12
-26
-42
43
80
-12
-85
-2
14
-21
-4
-16
-2
15
-9
-30
64
58
-54
6
24
91
57
13
-23
2
58
-37
13
-5
-6
-32
-14
-31
127
-38
-24
-30
54
-44
54
-18
-1
16
-55
42
-93
-10
25
35
82
-75
-27
-22
-16
-55
43
6
-47
-39
127
-37
-25
-4
21
-42
-23
2
-31
-73
14
9
97
85
-62
26
-74
-99
1
26
-42
-23
-33
37
-79
-55
-77
23
-6
-40
-111
-11
-24
-54
33
63
6
23
-62
10
-36
12
127
39
-10
-71
-45
-82
-29
-9
7
-22
-30
-24
-13
32
-48
30
-83
81
-64
-43
-48
-7
-31
-27
51
2
-61
-1
15
69
3
-19
127
-59
17
-9
30
43
-24
85
-26
-57
4
1
77
-56
-60
-3
-8
-11
35
-43
19
-24
11
43
44
32
55
-106
49
88
-22
-13
92
-19
-63
-49
36
-50
-19
-47
-28
-113
-75
72
-14
42
-12
-51
32
-17
52
-25
40
2
0
-29
16
4
84
-16
-98
-40
-51
-115
-9
7
19
-45
-66
-127
20
30
36
17
-78
-42
60
1
-17
59
53
-100
16
-42
20
15
-20
-45
-68
6
54
52
-13
47
-76
4
-35
-26
-38
-43
-1
-8
-46
59
-57
-50
-41
-47
-33
-42
44
44
-64
101
35
-88
-53
-5
-116
-31
-7
22
-39
-26
-44
-17
-8
29
57
-127
95
-49
-43
-59
43
-88
-20
13
39
-23
-5
-73
16
47
21
-46
-26
4
-9
-48
14
-57
56
-22
-25
62
-19
-116
15
42
-20
-41
16
42
-11
18
57
-49
127
32
9
-5
101
28
50
-50
-17
21
-10
-41
74
29
-66
-71
-49
18
78
46
16
34
11
-1
-61
12
-52
-28
-64
-43
1
-24
-112
-19
-24
-42
32
5
-127
-55
-33
35
-127
-7
-36
-7
-48
0
-4
-23
-49
-52
-20
-21
-71
-1
-8
-68
-127
64
-60
-44
-28
26
-65
40
-127
15
-18
-41
18
13
58
-1
40
13
0
17
-15
-34
6
-112
3
34
41
-77
-40
-5
-36
-5
34
28
38
-92
-44
-34
60
127
-37
14
65
-63
-20
-29
-49
-27
55
-59
85
-5
-11
53
-23
9
-10
20
-60
8
8
-27
-52
-32
-68
-99
-34
51
33
8
-24
-26
-38
15
20
-28
9
38
37
-30
-6
-68
-29
-15
-43
103
-13
-34
7
46
38
5
37
-127
-32
-69
-20
-5
0
51
52
19
3
-30
34
31
3
-37
78
-42
-16
-50
-36
30
15
-21
-2
-9
77
-42
14
-49
27
-71
-9
49
-44
-5
-56
61
-45
-78
-12
64
-70
-33
-114
-92
11
-47
90
-12
38
9
-11
-48
-25
-41
-4
-127
49
-47
39
-15
-37
-46
-51
5
-10
-5
-21
-40
-49
-121
-53
-8
-48
-82
-55
-6
50
-38
-10
-41
17
-1
-73
-65
-12
94
65
16
-58
-21
11
-44
45
9
5
18
6
-27
-59
24
36
-84
96
-22
-58
-54
-36
-17
-17
-7
-95
13
-34
7
39
-13
-82
127
124
9
-24
-50
-16
-27
5
-53
-11
-3
-127
-18
-68
-61
-45
-60
0
-97
-43
-34
-41
-15
-23
2
-4
-20
25
-33
11
15
97
-26
-39
-39
121
-3
28
-18
-65
6
41
-76
-34
9
-7
-12
-89
8
-28
19
-31
-18
-31
-32
-74
28
-13
-55
16
41
-24
-66
-103
-27
-24
10
-26
4
-68
127
-7
-25
-46
127
54
114
-127
6
-26
-11
-42
-16
15
51
75
-7
-5
-28
-1
-39
-26
48
14
-42
-17
-17
-43
-52
-96
-2
-25
-66
-17
-21
-13
11
-22
23
-2
-60
-119
-92
12
-5
33
-9
-40
-26
-70
0
45
-104
11
-32
-40
-114
15
58
-34
-65
-11
-105
31
-25
18
-79
-45
-3
20
19
-12
-12
1
-82
-17
-127
-24
22
85
-3
-27
-12
-8
-27
41
-6
-33
108
-39
-19
-58
-60
-127
0
75
36
37
-73
34
-30
8
-6
-8
10
-28
-25
-69
1
-85
13
29
-127
-67
32
-12
-50
-78
23
-61
-48
33
-127
-86
-32
25
3
43
-75
-3
-1
-5
-72
33
22
-21
-10
13
28
18
-127
-66
-10
28
-24
-40
53
-44
-15
-99
-55
-59
19
127
5
-45
31
-9
0
36
-41
28
-32
-31
-48
-31
49
-31
-24
-36
-35
110
-7
11
-109
-70
53
-49
-5
66
61
-24
-6
63
-74
-38
-35
-36
1
12
-31
-10
24
25
37
-38
24
-93
-19
-24
-3
84
-35
39
2
-33
-65
28
-112
-36
20
28
-119
-8
-3
-40
-49
-93
-73
-59
-50
-15
-31
-63
0
-30
-30
0
25
3
-19
-42
-12
5
44
28
25
-53
-11
-51
57
5
-73
17
-64
11
43
-5
-3
-74
15
-62
-43
55
-47
-69
-35
12
-127
-17
32
5
28
-9
28
14
-22
2
-6
-33
-49
43
-24
-27
-57
-91
-57
9
-12
28
-7
-94
-81
70
56
121
-46
-120
-7
4
-65
9
87
-71
-1
-81
-35
-127
-98
-21
-109
-61
-12
-29
39
-10
30
-63
110
46
-21
34
34
16
-18
5
-127
42
-73
-125
-29
19
25
21
-25
-66
-61
-14
49
-65
46
-9
-23
12
-117
-80
-19
-20
-3
16
14
-28
40
26
-25
31
11
8
-19
4
74
127
-7
27
-17
6
-17
-30
15
16
-68
-18
66
-127
59
30
-76
39
70
2
71
-22
-6
66
50
-112
-53
-76
-11
-40
-66
-61
63
34
13
48
-21
-8
24
-38
29
-41
-127
-96
-83
9
0
69
-99
-4
66
-64
-27
5
26
8
-5
-49
-45
-29
-30
65
-19
-46
-20
6
-65
68
10
49
-8
67
43
17
-21
26
22
-12
-27
34
-8
-30
4
-45
10
-13
-82
-64
40
-57
-41
23
26
-5
-55
-7
-9
-15
-36
32
-108
-127
63
-28
37
-47
-67
-83
-114
-16
-20
-7
17
63
-55
-57
-3
-22
-31
-19
-56
56
41
-1
18
-30
-19
17
-127
-51
-81
-10
-73
20
10
5
-5
-125
127
-33
83
21
5
11
-19
-7
-124
-59
48
-12
50
-30
91
96
82
-33
-34
-30
13
43
-34
-37
59
-34
-102
-19
-50
-37
63
-70
26
-9
14
65
70
-32
3
68
-35
-45
3
-54
33
17
-21
46
-80
-22
-74
38
25
-8
-66
-55
-24
-13
-49
13
-58
-53
-33
-72
24
-21
-15
-36
16
-51
-10
-18
-93
66
36
-28
-76
-48
-12
-4
-78
-14
-55
-9
46
-23
33
10
-75
47
-41
-50
-36
-22
32
4
-25
-24
6
-3
30
47
-41
-32
-82
-12
-51
-83
-12
-115
-33
9
2
-61
-99
-29
-14
27
-33
11
17
-61
63
24
16
-93
40
24
-55
-57
-83
-69
40
-52
-53
-6
-6
26
-52
-102
-47
41
42
48
-5
1
31
42
-34
-37
8
-40
-18
-50
-49
-71
19
-29
-10
-29
-15
-11
-55
-53
-68
-34
-5
67
-127
-24
-47
-1
-7
22
7
16
-22
-64
9
12
18
5
3
-48
67
79
-82
-40
31
26
4
-45
-46
-20
60
30
32
9
22
-61
-61
-64
-25
7
-35
12
-54
-11
-48
23
-31
-34
19
-127
5
-16
17
-2
-41
10
58
-89
-42
-27
-43
-29
10
7
24
127
-30
88
-68
-95
-4
-56
-123
42
-16
17
-127
-127
-47
0
39
-23
-3
32
55
29
-62
-12
0
-22
-97
-43
57
-9
7
-1
28
-34
-127
-57
-15
-44
-127
11
-13
67
-4
-28
-34
-27
45
86
32
-15
4
-36
-13
-22
12
24
8
35
38
-69
18
-7
-77
24
9
15
4
9
6
-47
-12
-40
-11
-62
-40
2
34
-31
-35
30
-23
27
-6
23
-34
-42
-36
35
-54
-26
36
86
-38
3
14
26
-48
-6
-50
-12
-40
-32
-88
-14
-127
9
-22
17
-53
97
9
5
1
28
-8
28
30
43
39
-54
7
83
-55
3
15
-11
21
-12
-34
-81
-44
3
8
-23
-8
-24
11
-8
3
-14
-2
-70
-22
-38
-53
42
31
-22
127
-77
58
26
-6
-25
29
27
-42
-30
18
-24
-24
18
-12
17
-28
7
-29
29
21
74
43
19
-10
-73
43
-81
-25
67
-1
21
31
-6
-38
7
-2
7
30
-57
-28
-62
-8
16
-19
-28
-55
36
-19
16
-39
-127
112
-20
89
-5
11
-33
32
27
-67
42
6
-16
-127
42
-32
-20
-32
-35
-63
-23
6
-106
-37
-1
-23
1
-127
46
49
-54
23
18
-47
-8
15
-3
-12
72
-35
-24
-41
-40
4
17
48
-7
7
-54
-78
-27
-43
-17
1
36
-71
-39
19
4
-4
8
-58
-62
-21
-14
-3
9
3
-24
-37
30
-108
-41
12
-78
-3
12
-3
127
-62
-3
23
-9
44
23
-14
24
-127
8
12
-39
-7
71
-46
-10
-98
-49
-32
-14
-34
-1
-54
-8
-63
-36
-14
-21
32
21
-27
-11
-38
64
-53
40
74
-29
5
20
46
-20
-24
-38
-3
20
-87
-86
7
-21
-20
-26
-59
2
-32
-28
14
-24
21
16
-28
7
-8
-78
0
-58
-18
52
-87
-12
-60
-2
-20
-6
-62
-2
-75
9
90
-1
-13
19
-108
48
22
-55
-41
10
15
-71
1
-3
-29
53
6
0
-63
2
-7
-70
-2
4
2
-46
127
-20
46
-55
54
-3
-21
-35
-94
28
63
6
21
56
-12
-12
24
8
32
0
-22
0
19
-3
-6
-34
8
-34
-50
-8
-60
-69
74
7
-19
5
-28
-51
-42
75
-19
-14
20
-2
69
12
-127
-17
-30
19
-19
127
13
-102
32
-28
0
-10
-54
-49
17
2
2
7
-9
19
-88
-41
-54
-34
-86
-68
2
-80
-92
12
0
-7
35
-7
-33
40
-24
71
23
-17
-27
-2
61
27
33
-41
9
-24
-8
37
-43
-43
4
-23
19
-32
-49
35
-37
68
-14
-46
-51
-2
31
-16
-42
10
-79
0
0
-73
-22
4
-96
-87
-15
50
-7
-43
10
2
34
-8
-34
-71
36
19
-59
19
-18
10
-8
-44
-40
-38
49
2
-23
33
47
-13
49
2
14
55
-2
-11
92
-44
-100
30
21
-47
11
-15
-22
-33
-35
-83
-40
4
-5
-29
31
-24
-30
-14
-61
-56
62
50
-42
-14
23
-11
-59
127
8
38
-1
-27
25
-10
115
-41
-54
7
-43
102
-15
23
20
-61
28
-30
-66
-4
-67
1
40
-34
-34
18
-40
9
58
-54
-16
-31
32
-68
-60
13
-31
49
-64
-85
34
60
21
-8
26
-18
-6
-31
-57
-36
53
-57
-29
-47
21
-28
-27
-20
-11
0
11
-46
-4
64
37
38
-54
71
13
71
-13
-74
-37
39
-22
-26
-23
4
49
-63
88
-14
-48
-17
-23
-5
-27
3
40
35
-60
41
-6
-62
-79
-30
95
3
-40
-40
-23
-50
0
-13
21
31
-14
43
-63
-5
-73
43
11
-30
1
-10
-109
-30
-52
-49
-40
9
-77
-46
-38
-53
4
97
77
1
-26
-66
37
20
45
-24
-58
44
7
-10
-105
61
23
-24
12
-23
3
51
38
4
24
-100
-71
13
1
-46
91
-34
10
-3
16
-27
-71
1
-26
-56
26
-82
11
-33
-68
-36
54
43
20
21
-41
-2
27
-4
-5
-101
-3
39
-62
30
12
10
101
-18
-77
-12
18
-9
7
31
-42
12
-44
8
-39
-21
-49
-25
44
8
-28
-14
30
-45
-30
-82
-90
-60
-45
-14
-58
15
7
-54
-37
7
-18
-7
16
-39
-12
-10
30
-73
-5
-73
19
-41
-93
-32
-71
-47
-108
30
-8
90
1
26
-103
-51
76
-23
-30
-87
40
40
65
-33
-17
-83
-24
-17
92
54
-45
19
-8
38
35
14
-60
5
21
-32
5
-37
62
-11
-95
16
-3
8
-23
39
-72
-104
4
-76
-18
51
-11
-19
11
-37
6
-1
-53
13
-2
-9
32
-56
11
-1
10
41
39
-74
-8
-24
-127
2
82
-87
-17
-127
-35
-16
-27
-21
-30
-15
20
48
-88
-40
-23
-10
-88
-14
44
-10
-103
-70
-40
-41
-24
-85
27
-13
-12
41
-24
-50
7
0
15
-48
-45
-37
31
-5
-9
14
-93
-126
-31
-20
-32
-19
11
-19
-26
6
-27
44
-43
-1
-20
-67
54
4
-16
-21
-111
-21
9
-2
-21
-65
-24
20
3
-59
3
48
-31
-20
56
25
20
25
-22
-40
1
-28
111
-16
20
-5
-7
73
-7
50
62
-86
-13
-40
2
-53
21
45
-19
-71
32
-17
24
15
-17
-29
-45
-57
-46
-21
-12
-91
-101
-3
12
127
-17
-22
-1
-5
-27
-50
-71
-13
30
-21
-51
41
2
-14
-31
3
-7
-63
-48
-114
113
-45
-98
-9
-24
-48
-4
-36
-54
-97
28
-48
36
-56
127
-13
-16
-38
-47
21
12
-52
-27
-20
28
52
36
34
-11
-9
-9
30
-21
34
-25
-21
71
-5
-105
-96
78
60
-51
116
65
-43
32
32
39
14
-42
49
-46
30
-11
-72
29
24
113
-48
-11
-17
-52
84
69
-30
-78
73
17
-52
-77
91
-2
-40
-6
127
9
-25
-12
25
-57
-51
13
-16
124
-89
115
-40
44
-13
-33
46
-20
-126
-39
-36
-10
-65
-100
-71
49
-15
127
-10
64
27
-19
1
4
49
-83
-26
-10
-43
-97
31
-18
22
-53
69
-36
-27
41
-9
-117
59
-62
26
67
91
122
6
-47
-2
37
2
71
-83
-91
33
-33
-32
-103
43
45
-35
-34
-53
-97
19
-21
35
15
28
-38
26
-7
-1
-11
-67
-92
-72
-23
113
-39
18
32
12
-16
-60
-3
64
-47
-39
17
-32
-21
-46
-73
-6
-13
-71
11
-127
-29
-43
16
-74
91
-47
-7
4
-45
6
-49
-17
-110
81
5
39
3
90
-5
-49
-40
29
32
-101
-31
-99
22
127
0
7
-9
-25
-25
-32
30
17
-108
-74
8
-90
-9
-22
6
-20
-56
29
127
-58
-14
3
-33
27
-81
-84
-65
3
-90
20
18
-31
-7
-6
77
-3
24
53
20
9
59
-8
-119
-57
-1
-64
3
38
-26
-5
25
127
127
-92
108
34
33
-19
15
-32
53
-2
-11
38
-103
17
87
-1
-23
-29
2
-49
-65
-41
-61
13
10
-62
-90
-72
-24
20
11
33
-6
46
12
127
-37
-70
-44
114
59
-6
-15
-71
-64
-87
-75
-9
-22
-11
-44
-28
121
60
16
20
-61
-18
-10
-41
13
72
23
-7
-20
79
-7
-11
-4
-84
-55
47
-10
-32
-12
-92
98
-127
-62
-39
-45
-117
-26
-41
-66
-24
53
-26
-62
-26
-1
-53
34
2
-49
-53
-54
-31
-52
-57
36
-13
-5
-53
-89
75
127
-43
33
6
-64
-88
2
127
30
44
38
-31
-42
-56
-19
5
-16
-45
-38
45
-44
-26
13
-13
4
-10
-54
57
5
-10
-10
39
-58
-73
-62
-15
-15
33
-26
6
44
47
-34
-36
53
75
10
33
-49
11
25
14
10
-18
-28
-106
20
-79
-56
-82
-23
75
-9
-6
12
-60
6
37
-39
-24
-16
0
69
21
-37
-37
1
24
-9
118
-22
28
29
-2
91
-28
-57
5
60
-60
-15
32
-11
94
-42
-64
-19
-18
85
7
7
-62
1
-73
-25
49
-76
16
-117
-36
43
-20
25
-42
21
-34
-127
-4
-24
-21
75
-127
-50
-3
-10
-4
119
-109
-50
-55
-66
-75
-30
2
2
-33
-9
98
-64
43
-32
12
-69
26
-15
-59
-16
1
25
-7
66
68
-11
-25
29
50
127
33
-36
-56
-36
-24
-16
-100
-2
-96
-37
42
51
-93
21
-17
57
-30
-12
-4
54
-7
25
-37
-31
71
13
67
-45
-5
-54
0
68
-48
-86
8
3
51
-9
40
39
12
-44
61
42
-9
-5
17
-27
22
-118
-9
-40
10
-41
-12
0
45
-80
15
21
127
-14
76
15
4
32
-76
6
20
25
6
-40
-71
-55
3
32
23
105
-12
15
-36
-50
-4
27
-21
8
26
-30
33
1
-127
32
4
12
-2
-29
-18
-12
-34
21
-32
126
-34
127
0
-31
-23
-23
-52
45
9
-10
11
65
-44
91
-11
-54
-14
-92
80
38
-16
-104
17
116
127
-17
-6
-7
-28
1
-8
12
112
58
47
-1
89
-25
43
38
102
30
-16
-44
-5
-49
-52
-59
-20
-47
23
21
32
-22
-9
0
-67
4
25
-9
-40
-9
-37
52
6
12
-59
-30
1
-79
-28
-4
44
10
-19
-4
30
5
-54
57
-33
-15
-11
-69
18
-44
21
-17
64
27
1
-83
-1
-63
-37
25
9
-93
-68
-55
-53
84
6
-24
-23
-23
-70
-62
-27
-15
-61
-67
19
-53
-57
-16
-18
-7
-110
-20
71
126
-8
5
55
-25
-97
72
21
-4
6
37
-21
0
47
48
18
-10
-20
-127
5
44
-82
-42
97
21
23
29
78
38
-70
-91
-14
40
61
-12
45
-30
31
0
-11
-34
-60
-50
3
127
92
-8
-61
13
39
-127
-11
39
10
38
-34
-28
-20
-25
37
46
63
-56
-40
-30
-8
-98
44
117
-10
106
-108
-55
-24
1
86
45
-27
127
27
-27
-36
-32
-26
-4
-9
25
79
-107
-7
-39
24
14
58
6
-87
-5
-1
-14
-14
-34
87
-35
-81
-5
127
105
-52
-57
60
16
-119
27
8
4
8
-37
12
-1
-30
-43
-106
57
-31
-62
24
23
-73
127
32
62
54
127
-57
-38
3
-43
-85
-61
-23
-27
-50
-84
-11
-24
-127
70
68
28
-37
44
-66
88
-3
-30
-21
-64
-82
7
-30
-19
29
-5
-52
-45
-60
-45
-34
-37
19
39
-15
-65
-65
31
-40
-52
-9
-9
118
-16
-16
16
32
26
-127
20
-45
-57
-44
-8
26
44
79
-121
-49
18
-76
-61
-6
-64
0
-23
-12
31
42
23
-49
26
-23
-28
6
-38
30
64
65
50
-9
10
-46
4
-111
31
78
1
127
54
-50
50
-42
-27
-2
51
-5
-8
106
-43
73
57
-6
17
42
86
-56
8
2
-89
-37
-18
30
-44
-42
-31
2
30
-18
13
58
-68
-38
-39
-73
-30
38
52
-86
14
-4
12
16
24
92
6
25
17
-58
27
37
-96
-21
-18
-38
-25
121
-33
-22
127
-83
22
19
-49
-3
-32
-69
-1
-30
-57
-11
-57
-55
10
-9
40
-56
55
127
15
43
-73
-18
4
44
46
36
-40
36
-69
-45
-75
47
-29
49
-123
56
9
-51
-50
-45
-13
-48
3
25
-84
-5
-5
-4
50
-51
-11
-12
-113
91
4
4
-16
-20
-33
-14
-112
-72
20
-63
30
44
-109
-74
68
-72
-29
-34
-28
90
-86
3
54
102
-20
5
51
30
-31
-61
-56
67
44
-127
115
46
-31
-10
35
46
-32
31
19
-55
-66
16
20
0
36
13
-50
33
3
36
81
-17
1
28
-63
36
-4
-14
-6
39
-5
8
12
-44
-54
41
-3
0
-47
-65
-55
6
-95
-4
-13
-18
7
-32
-14
49
-19
39
-63
27
-22
-26
48
7
-17
-27
-15
32
7
41
34
103
-22
-38
-79
-21
56
-22
-30
-16
51
-35
-72
44
-5
-29
-106
-92
29
-74
-40
-1
-8
-1
-47
-17
42
25
36
-36
-20
-86
-71
-49
-81
12
19
-14
57
43
46
-35
-49
-11
-19
23
66
43
-31
-28
11
8
-40
-20
6
4
6
-75
13
3
15
-54
-57
-25
-79
127
37
-76
67
0
-69
22
-83
12
-35
-52
-48
-37
-14
-44
7
0
75
55
-43
24
-80
-13
-3
-21
-3
45
-85
-27
-74
7
2
74
-52
-30
80
-48
-1
24
127
-35
-78
2
17
69
73
29
-5
-45
-1
-47
32
-66
-20
19
-25
-97
33
35
-22
-90
-18
-47
-29
14
-25
22
-20
-51
-23
-21
2
0
-64
16
0
17
37
-53
13
-4
0
12
-42
-78
30
7
29
-2
69
-15
-64
-25
86
53
-37
-10
-42
-19
-1
-14
-5
6
17
-52
-46
-107
-5
-10
-48
-14
-74
9
-43
66
-39
-37
-4
-43
9
36
17
35
-12
7
-52
26
-28
-75
6
11
43
7
-61
-33
-3
39
-45
-84
-72
-21
-3
-21
96
-11
-106
9
-54
-4
-19
-38
-80
-29
-10
96
0
23
50
-58
-69
-6
-49
-37
49
27
-37
11
-79
-36
-10
38
8
-58
26
56
-39
127
-33
5
5
-3
116
-37
50
-16
89
-111
-11
-14
-74
38
-10
26
-24
107
-25
-53
-35
-30
38
-81
-3
2
-5
-16
15
-51
15
-12
37
-105
3
3
-16
-20
-35
11
37
-9
-81
-28
-8
-24
-25
-11
-60
69
-9
7
14
66
-11
-26
0
12
61
-30
-65
-9
8
-52
-67
94
-14
-1
22
-9
-38
-53
-93
-32
4
-23
-7
-40
-27
-5
-89
-55
-102
-48
-18
-19
-6
59
-50
19
6
17
-64
-3
39
-38
27
50
-8
-8
-94
-33
-35
-69
-33
-14
-23
-49
61
-1
-9
16
-7
29
-46
-38
-28
22
-18
-55
-3
-17
-118
1
-58
-15
32
-34
-6
14
82
31
-20
-28
31
52
29
59
-9
-21
15
-19
-13
-37
7
-44
7
-59
-1
11
-55
8
-60
-18
31
-9
-7
-5
-63
-28
-30
-28
-16
-16
-13
-42
-50
21
4
-76
-32
127
6
-17
-14
74
55
24
70
-47
-6
-2
-28
-91
-57
-84
-120
-60
25
-68
-45
3
-14
-26
-69
-5
46
0
-36
-77
-87
-67
17
15
2
-30
35
14
10
-11
30
25
-59
-45
33
-8
-98
-22
-59
-1
-78
6
33
15
-12
16
18
-4
4
-15
-39
17
88
22
-9
-72
-47
-83
18
-19
-27
1
42
33
-119
-1
-30
-42
-48
-43
-63
-70
65
-30
-37
3
43
36
-21
24
-51
-80
19
-47
26
4
-77
-7
15
-23
-63
-7
54
21
-12
7
-5
41
-2
-32
-27
-43
-12
20
-79
-47
27
-13
-33
-56
21
60
-26
-26
-30
28
-26
-6
7
-73
-39
-37
-42
23
-108
17
9
-85
93
50
7
-21
0
-103
12
76
-59
42
16
-76
15
-7
-1
-96
67
-8
-55
-30
39
-30
-19
10
18
-8
-69
-4
-53
9
91
7
94
21
83
44
-89
59
16
-16
26
2
-11
-84
-79
-45
-2
-13
-76
-38
32
-85
8
-60
-55
-57
127
-40
51
-85
-24
-45
-33
24
-76
18
62
89
-9
-34
8
-14
-87
-17
-55
35
-127
6
-72
-55
20
-31
84
9
-19
98
-32
6
26
39
-6
8
-127
-40
-45
3
26
57
-10
-14
-29
-33
-82
28
-2
-14
-5
-23
-7
-71
-84
-45
10
-19
-23
0
10
5
42
14
11
31
112
-21
18
1
-12
21
17
-41
-1
79
46
44
-10
15
22
-127
36
-1
-3
-13
-25
73
22
-13
-69
114
49
-12
-46
-54
34
33
16
41
-81
88
-31
-15
-62
-6
104
-46
0
6
-50
-51
-66
-35
-14
46
-6
25
-44
69
25
-127
97
-13
-13
-29
-28
-118
-35
-127
-11
-121
-5
-3
31
-5
0
-60
6
-62
-33
-7
-53
-53
-33
-23
-23
-11
62
-45
25
-65
-18
-99
-35
43
-45
36
66
-16
-14
-23
8
-15
-44
-13
-20
13
51
-7
-19
-69
-64
48
17
1
-16
-44
-83
-21
-18
-41
-35
70
-35
20
-76
-24
-14
26
-52
-88
47
4
-4
21
-57
-47
-19
10
-12
-3
37
-17
-17
31
-39
27
-58
45
-78
20
2
4
-12
34
-21
-2
-33
-18
-48
-6
-74
-10
26
70
-16
-20
37
-52
47
-20
52
-15
28
-47
-23
5
9
-3
-59
-16
-31
-33
83
31
17
-107
-32
40
-5
67
45
58
-45
1
-21
0
-45
29
-11
47
-45
-43
17
-43
36
-90
17
-41
1
-15
-21
-95
49
-20
-4
0
10
-11
-127
-34
-45
-70
55
-118
30
0
13
-28
6
-4
22
-18
-1
-14
-35
51
35
32
-68
30
-32
-52
-47
6
18
21
-29
46
-36
-40
-57
36
-21
-18
83
-9
-37
-5
-56
-13
-36
24
48
60
31
-72
49
-127
-23
-3
-81
-12
-22
19
33
-10
1
-19
69
-8
-44
-14
-16
7
46
-6
-59
-79
1
-18
40
0
27
36
-16
-85
5
-35
-3
-60
7
40
20
-13
-52
11
-45
-48
-33
-29
-11
33
-27
-50
-50
-34
-27
29
23
-73
-18
-30
-39
-1
-48
2
-15
-23
81
-63
-24
-64
-23
8
24
-18
38
42
127
-19
-8
-22
49
13
-27
10
-19
-30
16
-6
-16
-56
-92
-101
-50
-35
22
64
16
-23
-25
-7
59
-44
-15
-15
-127
-87
-7
75
-116
22
34
-21
-30
-68
-124
-1
-7
-56
27
-14
-46
21
-89
-76
-41
16
-45
-17
17
3
-17
-20
-33
-30
-4
-127
-4
91
54
18
-17
-65
-37
26
-86
127
-51
-11
-37
-48
-59
33
-20
-42
33
-108
8
7
-22
-98
-15
-71
65
11
-1
-14
44
0
20
-30
17
-74
18
-24
5
-36
-8
-32
-26
-8
-88
0
-59
2
32
-99
-13
-18
-11
-32
2
104
23
-35
-22
-55
-29
-63
-90
-44
46
-40
-25
-30
-1
0
-18
-66
28
60
-16
-12
30
11
2
22
-51
27
-48
-10
7
-27
28
6
63
0
24
-29
27
-18
-21
-11
-14
-28
38
27
-62
-54
-60
-63
-38
52
-51
-32
-8
-83
-30
91
-29
-14
7
-2
70
-23
21
37
16
-43
-51
-11
-21
-6
-9
-32
5
8
-61
-11
-35
-25
85
-34
20
28
-49
2
-18
-30
-77
-11
-33
60
-127
-89
25
16
64
34
-80
30
-25
5
-49
23
-68
21
0
-43
-20
-47
-55
-28
-1
31
-55
59
-30
14
-36
-1
54
45
2
-26
30
-20
49
-84
-32
-20
12
58
44
-1
-41
14
9
24
52
-47
-41
-18
-43
-31
44
-6
68
-91
35
-29
-12
-27
-1
60
48
0
-43
11
-17
8
-45
-38
-35
-22
29
127
-36
-14
15
-68
-3
18
-62
37
-48
-124
-10
-44
-43
23
-58
68
-2
-14
10
47
3
-108
0
-34
-52
-43
55
69
-50
38
9
107
-92
39
-62
78
-107
127
93
88
66
3
24
9
67
-31
60
62
-41
-49
-17
-20
64
21
38
-14
-46
20
60
11
53
12
26
15
-7
36
-50
17
-70
12
86
59
-38
-25
0
13
-55
24
-26
-8
27
-23
-2
3
-1
17
-25
-8
-35
108
-5
54
-1
-127
-36
-14
-4
-95
-49
-4
18
1
22
13
-68
13
-8
-59
-16
-3
-45
-55
-34
-31
-50
-39
-58
49
-56
-14
0
-64
-49
-40
-47
61
-26
99
-127
-34
73
-9
-22
-22
-7
-40
-48
-84
-65
-7
-10
-92
-14
14
-27
48
-46
-68
-22
-7
1
-18
127
63
-60
-48
-3
37
-23
-18
33
-105
-55
127
-23
-11
-89
-30
46
-16
-29
-34
-45
-62
-8
-39
-16
5
-23
-12
3
-94
-10
-62
-8
63
21
31
42
15
42
-28
35
-45
19
-73
-39
-97
-1
-24
-8
17
-72
41
-2
-72
14
-81
-59
4
-14
-27
-121
-16
9
-63
-96
-12
-66
-2
-95
77
-47
-8
-16
74
4
52
-3
-27
66
-32
39
-6
31
-8
-2
-13
50
-6
-16
127
27
-3
-31
-7
33
-29
-106
-7
-35
-8
-42
-60
35
3
22
11
5
-106
-18
-36
-19
-6
35
84
87
-8
-13
39
-9
-37
-35
-95
-7
-25
12
74
-11
-20
-34
-101
9
11
-36
28
46
-75
2
-16
-24
45
-57
-31
25
25
-15
-82
-61
-12
11
-27
-123
-20
-16
-102
40
48
25
-48
-18
-2
0
-74
-1
-50
14
-40
74
88
-50
-5
9
-40
-79
-46
-10
-80
4
-11
-72
-29
-53
-50
35
34
-39
-20
-76
-127
-8
-12
-65
-61
-18
-24
-40
-25
4
-7
23
-84
-96
24
-53
127
-16
77
-29
-47
4
-11
6
-51
43
15
-40
-35
18
-25
-25
-4
4
-107
41
-127
44
33
-64
-49
-44
15
68
18
-40
19
29
8
0
-70
17
26
-15
-24
11
-38
23
2
-46
47
-3
-43
-107
21
-33
62
-56
5
12
-11
74
-24
7
11
-8
-8
70
-9
-58
-31
-37
14
-10
-64
-63
14
-22
-67
-67
7
-13
3
24
68
71
12
-7
12
74
-39
-23
32
-19
-30
-19
-63
9
24
-10
52
-40
-9
58
-57
7
-112
-41
-12
-20
34
3
-28
-30
-32
45
30
-40
-19
-127
-3
-60
-58
1
65
-32
71
-41
-45
20
-72
123
-60
-21
-64
22
-25
-7
-31
23
47
-5
-60
67
25
-8
34
-20
20
40
-6
-17
-35
-54
-89
64
-30
-1
11
-7
47
-27
12
6
-17
127
-48
-47
-23
8
-40
18
-17
-2
-44
-27
-17
0
-31
-18
-7
-10
-62
-38
-10
-53
-9
-67
-3
8
-48
-127
-38
-56
15
74
8
-12
71
-16
-2
25
-18
30
-61
-8
-31
48
0
21
-30
49
-25
-40
-72
-4
-1
16
-23
33
29
-41
-22
3
84
-71
-38
19
-31
5
27
-16
68
-77
-63
81
-22
28
1
-49
-49
-69
31
17
-57
10
11
-15
49
-60
-59
-30
-65
-2
103
6
-2
-69
-1
-66
-69
-23
20
-86
105
-29
115
-23
10
-22
-35
5
-80
30
26
5
82
-29
8
-51
20
62
-3
42
-4
-16
-35
5
-21
81
36
-7
-34
-9
38
23
36
-45
7
15
35
-26
-32
-10
22
19
8
84
28
-22
-27
-15
-4
29
-53
-52
48
58
13
70
-62
26
-21
-19
3
-11
43
-9
-2
-38
8
-17
25
55
21
-45
-8
-68
-9
-77
33
-109
30
17
113
28
-1
64
32
-8
-32
76
34
-14
-19
45
105
3
-30
48
43
-27
43
-6
42
-11
3
-116
-43
8
-18
-64
-11
44
-29
-14
-9
-45
73
32
-20
-80
-50
53
-13
-4
-12
-28
-16
-23
-40
-39
-77
-18
7
-22
-21
5
92
-18
-9
48
-48
-13
-77
-35
-53
16
-19
-30
-43
3
26
106
0
-47
-67
-50
-24
68
96
-29
127
-29
4
-75
-20
-65
15
-107
6
-58
2
2
42
-40
-76
1
-55
127
-14
58
-12
57
-26
76
-48
3
-62
32
45
41
71
-9
15
0
31
71
12
-34
-17
40
2
-24
51
-5
-33
-27
-127
-59
127
-43
11
-19
-24
57
-49
-121
27
-8
50
63
6
-7
93
-34
71
-57
7
-6
-42
12
-85
107
29
23
56
36
-38
-14
37
58
-18
-9
-6
-33
-51
-25
-103
-48
-72
45
-73
-24
-44
-18
-2
-28
38
-36
-31
-15
-66
-11
-71
-2
-2
-44
-15
34
10
-38
-42
6
-8
28
73
-40
19
-22
-77
25
40
-55
-72
-15
12
-1
32
-67
-28
-29
-50
-4
61
-10
14
11
24
39
13
72
-39
-39
-36
-45
-37
74
12
49
65
-38
5
2
-9
-8
1
-44
-76
-54
-5
-28
60
-12
-34
79
73
-36
-47
-17
-48
-7
19
-2
-127
72
-31
23
-20
2
-42
40
-14
26
-68
-1
0
-59
8
69
28
-62
31
-67
105
-41
37
-50
46
38
-26
-6
-4
66
127
-31
-31
34
8
16
-40
-28
106
-91
-1
20
-22
15
11
-73
-22
-33
-40
48
29
-4
-36
-4
-6
28
-26
53
-8
2
-13
-127
-18
-72
34
-23
-5
15
18
-26
-78
47
-4
-35
-5
-39
-86
-17
-35
-46
-24
-72
-43
-64
-19
-27
3
-30
7
-83
-108
38
127
-26
-49
-50
40
-79
-9
-44
77
-9
46
-75
-2
47
-17
33
-23
-127
5
9
17
2
-34
-103
-20
-13
-2
-19
-14
-29
-10
66
-27
50
-1
22
-22
20
60
-18
12
-34
17
80
51
-21
-65
-13
-5
-10
-11
-9
-15
43
32
37
-67
-10
62
-7
-8
30
-11
6
-15
43
60
-35
-35
-127
-47
-27
3
-31
2
-58
-50
-24
-8
37
114
17
13
-17
43
14
-58
-71
2
-7
2
14
4
96
-8
-3
-22
-29
-19
-22
-33
-78
2
-11
-111
127
-3
9
7
7
6
-3
-1
-88
-2
52
-48
0
-44
51
-58
-2
-4
-7
0
-23
35
0
-17
-48
-91
48
56
-58
-5
-5
14
-18
-36
-35
-34
-37
73
-20
-80
-28
-29
-14
-22
-32
44
26
-16
-22
-21
-2
23
-9
-29
-54
-39
2
34
5
-90
-46
-18
-127
-41
9
-10
28
-62
19
-23
11
-5
-87
15
23
-8
-35
-22
-17
-22
-46
6
-27
-11
-15
43
-19
-6
-79
-111
12
19
13
33
-71
-19
-4
-35
-44
-52
3
2
4
-2
33
-64
-54
4
-16
-30
-127
-18
-14
-16
-28
-43
34
-33
23
-24
-56
-25
21
-44
7
7
18
-28
-4
-71
-25
91
45
-43
35
-24
-38
32
-77
-3
-2
-10
-109
28
27
-19
24
19
-61
23
86
-26
-31
9
44
21
18
33
8
-28
-9
20
-50
3
-20
-127
-33
-74
-41
-35
13
73
-5
-40
-39
-86
-1
-27
16
36
-45
-10
-65
-9
50
-26
-2
3
-39
2
-47
32
7
70
-3
-9
-45
-12
31
-8
-71
58
-36
-7
5
-39
-10
-21
-68
-52
-24
-19
2
127
-32
-62
-2
-29
-10
-127
-40
38
-7
-79
-20
28
-13
-57
62
-44
28
12
20
29
-28
84
-8
-97
-22
-27
-10
-49
27
14
-19
-60
31
9
-80
-127
45
-55
-48
-82
-62
26
-32
-37
-127
-17
7
36
2
-50
-51
-31
96
49
-58
-29
-3
0
-30
18
16
-99
16
-7
-17
7
-29
22
-8
-66
-5
27
-59
-15
-8
-39
-49
22
-1
-17
-21
-48
-26
-39
57
-24
-21
-1
42
-27
-41
14
16
-28
-23
36
-80
-34
9
14
53
35
-105
18
40
38
-18
-12
-8
-13
10
6
-63
-54
-43
50
-35
2
1
37
25
-8
-74
-23
-6
15
9
9
-14
-2
68
-83
20
-12
7
18
-22
-29
-109
-17
95
-57
-30
7
18
-33
-29
46
-12
-56
-39
-28
-77
-122
20
-35
-56
-27
-7
4
25
-25
-12
18
8
-18
7
-126
-13
29
4
-78
18
-20
-47
-46
3
-16
-34
18
53
-11
-127
-46
-9
-51
-38
-25
2
0
1
-12
-92
-15
-63
-10
22
-72
-6
-5
25
-75
29
-14
127
-71
14
-50
14
-25
-34
-12
17
-55
2
-35
-7
-1
-53
-3
-13
20
27
28
16
-43
28
-1
14
22
-27
24
-11
9
-48
5
-18
-54
4
-14
-23
19
2
-15
-40
20
-29
4
-6
9
21
-44
3
3
-27
8
24
23
-46
13
-54
-52
-93
0
-73
61
69
-14
-95
-7
-41
60
48
-26
0
14
-11
25
47
-51
76
-55
11
2
38
-30
-46
-127
53
-7
-73
36
-4
-22
-8
-63
-90
-31
-10
6
8
-8
-47
-83
44
-2
-64
-3
-8
-43
17
29
-17
39
-16
15
-84
-10
6
-18
41
-26
-37
-41
13
-41
11
-42
59
-43
30
9
-68
-49
-5
22
-20
-20
-54
1
25
-126
48
-80
-20
-55
-19
-2
-43
-17
-28
-11
-37
-45
28
-47
-22
28
-36
-73
-8
-127
4
-20
5
-60
92
-19
-73
76
-83
44
18
48
42
-13
-51
44
42
38
-94
40
51
-45
-42
95
-40
39
-20
-36
8
-31
-50
42
-58
23
-14
58
44
64
-14
5
12
24
5
-40
-93
78
-32
-14
72
17
-33
-70
-1
8
-1
-16
19
-37
-50
31
-14
55
23
-72
-10
-2
25
-14
19
-20
-50
-13
-26
6
50
-30
3
-27
64
-42
0
-49
62
71
3
11
-2
25
12
-38
-15
45
-22
-30
-8
70
-55
18
-74
39
-17
-32
-67
1
-7
-57
-24
-22
4
0
2
3
39
-24
-11
35
-36
20
42
-18
82
59
-40
2
-23
-79
46
-43
-35
6
-6
-12
21
-83
-29
-37
0
69
-8
7
-38
22
-64
-69
-24
-32
36
35
-90
-18
-44
-6
8
42
-23
31
5
-46
-46
-57
-47
26
4
-72
9
-50
-31
-117
10
-40
26
8
21
22
31
61
9
18
-6
-24
-43
-79
-23
11
3
27
35
4
-2
3
-36
-54
26
-7
5
-16
11
-11
22
-11
-60
8
87
-21
18
54
-10
-2
-16
0
-29
-19
-25
66
23
-19
24
-6
-23
9
-26
-24
-72
-55
-4
-21
-11
18
-4
-121
9
-6
-34
-66
18
42
-19
46
-5
-14
-110
-97
-12
8
12
50
-15
-13
33
-11
29
10
-9
78
-2
2
15
22
-7
-13
49
23
18
-26
-11
-12
15
-1
-11
-8
-5
-32
-35
-65
-41
-54
-1
-44
-1
-74
-127
13
40
25
-20
-12
-40
-3
-32
-27
-33
20
-57
24
-72
16
15
13
-26
23
-88
-67
-35
10
-25
-12
-8
47
-1
-19
-38
-40
-26
-26
1
-10
-50
25
-12
-65
4
-10
13
21
-41
33
-10
10
-30
-31
-26
-18
-62
34
-34
-7
51
8
53
-59
-5
-9
-35
-108
-34
-14
-5
-7
-15
-57
0
7
34
-49
-86
-28
-22
127
-21
-27
5
9
-25
28
-44
11
14
-15
-64
25
-1
31
-34
40
-50
-15
-28
-61
-15
4
-127
-7
-35
12
-1
39
22
-78
-24
-49
-23
-32
36
-33
-34
30
-27
15
11
19
-7
-3
-14
44
-127
53
25
-24
-43
-10
1
12
11
2
-6
-17
15
28
-92
-2
-53
-33
-35
-53
46
54
-15
6
18
76
-44
-104
12
10
-31
22
39
-48
-33
51
-19
22
-127
39
-62
74
44
-34
18
127
0
-75
-27
21
20
-37
-8
48
18
12
82
10
18
-10
18
-4
-76
24
-7
11
1
57
50
-44
-56
56
-5
-50
50
-100
-33
7
-57
26
127
-34
-1
-91
19
17
22
13
-11
-19
38
-34
20
18
-19
14
-127
61
-107
-26
-23
23
63
-4
56
59
47
27
5
-69
-56
51
-47
-127
29
-45
61
37
9
11
-44
30
-73
3
-60
12
-39
-18
5
-47
48
5
-71
96
-2
-7
-63
14
15
77
65
17
-7
59
28
50
2
-61
18
14
43
57
-29
17
23
-4
-9
-45
-55
-21
-45
87
-28
-15
-61
30
7
-7
-66
-10
-22
-90
-32
-40
16
-54
1
55
45
-25
-61
67
9
39
23
23
-31
-20
-17
16
39
-16
4
-77
-20
-19
-10
-8
-13
-26
-61
59
20
12
-20
-30
-8
-35
26
-81
-45
2
32
33
-40
-42
62
6
47
-106
-77
4
-75
15
-14
45
13
28
71
96
5
-27
53
-95
9
-19
16
40
-98
19
36
-71
-66
-51
24
-33
-79
-13
-110
31
-82
127
-94
-41
-58
12
-67
-97
-94
-38
3
-100
-40
-4
6
-1
38
-31
-54
-4
0
72
38
59
127
-48
65
74
-12
-4
20
0
-11
37
36
47
35
65
47
-68
-23
-64
-98
81
95
37
49
37
-46
-2
-48
46
-26
-45
-98
28
-46
-63
-70
55
4
-32
-73
21
55
-76
97
-14
-11
-71
-19
-81
-32
-21
-57
-15
5
-6
12
15
54
31
28
-66
-45
19
15
31
26
-14
-15
49
14
-28
-78
-7
-9
-23
2
-9
-43
122
-90
-39
-22
4
4
-29
-41
14
90
-32
37
24
84
-30
-20
52
26
16
-5
4
-87
8
-15
18
-4
-2
6
32
19
26
29
-49
-21
106
-44
21
-43
-22
30
-39
-21
127
-25
41
17
-16
-8
46
-88
-42
-6
-44
22
-82
-20
-72
-81
-66
-10
-14
14
61
39
-46
-3
-77
-41
4
-15
57
-27
55
6
-5
16
79
44
-4
-44
-31
73
-97
-7
-3
-6
-40
-36
-75
-67
-7
11
-98
99
12
0
125
-71
18
-5
-71
-29
12
-72
-27
15
29
63
12
8
-12
-21
-86
22
-41
-25
9
-26
16
-7
-78
-4
47
45
4
-23
12
-23
36
4
-119
45
-48
-6
-62
4
-2
-83
29
2
-57
42
6
-8
-29
18
-28
-59
39
-24
-2
15
-89
40
127
4
23
-22
67
-16
-43
-31
-33
52
-31
-25
6
-6
-32
21
50
68
-49
-97
-12
-127
-13
-4
-5
3
-45
15
1
-35
13
-96
-6
-53
89
-17
-13
3
-13
40
30
9
-127
-39
-1
-87
58
2
-89
-3
51
21
74
27
6
24
15
-79
31
102
-53
-101
-30
-42
-47
-57
-43
-21
-63
-60
-48
-3
-48
37
-42
-29
-72
23
-24
-5
28
-2
-30
-26
58
-20
-62
-41
-38
-2
13
29
27
36
-77
38
8
-10
-76
54
-60
35
-7
-22
46
38
-88
-21
27
29
45
-47
28
34
6
50
119
-87
18
5
34
0
-9
-32
-17
80
-16
-17
-45
-42
-44
-38
23
127
-26
-39
58
-30
-71
-20
-40
27
23
-68
2
20
-46
-32
87
84
91
-35
63
-37
100
-2
-4
-55
1
36
-29
27
104
-109
3
15
-98
-6
-27
48
41
-52
-46
23
-32
-53
-45
34
-23
114
-20
-2
-27
-61
-25
-46
50
51
-61
45
-8
27
43
3
40
-18
-28
44
-11
-5
7
38
22
31
-73
-33
-42
4
7
-43
12
27
-86
64
22
-63
-42
98
53
57
58
-22
4
28
42
26
-52
21
-26
60
12
-83
-17
79
-56
-2
-17
-59
16
-14
-68
-78
-8
16
-40
44
53
-64
-17
-27
50
-32
-9
42
-47
11
19
-57
-27
-25
35
33
-60
32
-15
-38
62
-17
-67
66
60
-9
-72
-43
-7
-102
-34
3
-127
48
-69
28
38
5
-21
3
-13
-18
27
-127
15
-6
-12
-8
-64
3
5
20
25
17
66
-2
-112
-96
90
-7
50
15
-4
61
-77
10
-21
88
19
1
0
-18
57
5
1
-48
82
-32
-18
-26
50
-77
-17
-90
-24
127
-34
-42
-69
-47
-94
-4
-75
-92
52
-57
42
5
27
-31
20
-67
-15
-12
13
-8
18
127
-21
-32
-111
5
-11
127
-63
-43
-1
62
-93
-1
-11
56
-126
-44
-66
-5
11
-50
24
-127
0
5
-34
-12
-14
-29
-8
-56
-25
48
64
16
-40
-20
-71
61
-35
12
39
29
39
13
-73
-15
26
26
41
-127
28
-31
-7
32
34
-24
-9
-41
38
3
-106
-50
-58
-21
-40
-12
-17
-17
-10
-8
74
33
-122
16
17
64
-23
12
56
-23
-41
-32
91
-13
-23
-4
5
-15
43
-22
100
4
51
27
119
41
1
-120
-39
-66
-7
35
-33
93
-16
4
95
46
22
21
-49
-119
-5
11
-36
-31
-69
29
2
-16
-32
56
-3
-39
-8
-5
-60
0
-81
-92
43
34
127
-19
-27
-12
-53
-16
-54
108
69
40
37
33
16
-127
-62
0
-34
-101
1
14
-35
-31
-3
41
-52
8
-49
-2
-37
-6
-59
-76
-18
-71
-57
22
-16
2
-53
-50
-5
-10
-10
28
1
80
-47
-13
-25
-33
-37
-86
-127
-35
-44
5
-56
-20
-19
39
-37
-36
5
-7
-23
33
-46
-24
-12
57
40
46
-19
-18
-11
40
-1
88
49
73
23
-20
-24
44
76
9
-11
-22
57
-33
-35
9
19
-114
-67
-15
-13
11
-38
23
70
-61
32
18
-5
-52
44
4
-32
65
62
-118
-60
23
-48
-11
55
13
-4
-18
-47
-21
20
-66
95
-19
-74
-102
9
-33
-30
6
-35
-76
16
-24
-9
-21
-22
-11
10
-5
35
-92
-83
-6
-13
-49
20
89
-14
-33
-55
-51
-81
68
-16
-21
-12
73
-26
-74
-35
21
-80
-36
-39
16
-49
10
-101
-59
-1
-42
-66
-33
6
4
29
9
-33
-3
21
116
-29
-84
-54
27
-29
8
-63
-62
-55
-104
-61
-56
12
-8
6
-49
-66
-8
-24
-92
-57
-29
40
-68
-41
-1
3
18
-42
-44
-30
-71
55
-85
31
112
65
-3
-7
-53
-87
25
15
127
-105
1
-31
-46
-108
-32
-38
-76
127
61
-22
-57
-127
2
-25
-36
-23
-4
-19
52
-54
-73
-26
89
-43
-103
21
-91
38
-90
68
-67
-24
10
76
-1
-7
-30
96
4
65
-23
46
-116
-63
-59
83
98
-36
-90
-4
69
20
-22
-27
-45
15
-86
-44
116
15
-57
-59
-5
60
50
-25
55
25
6
31
121
-48
8
43
46
73
-13
-16
13
77
-67
-66
-114
3
-21
-64
-4
-79
-19
51
-6
-98
14
63
19
-16
2
66
-8
-123
-46
-18
-23
-111
-67
6
33
-32
11
-53
8
49
-17
-95
7
-41
74
90
75
-13
27
-50
-67
-39
88
-10
61
15
-77
-50
-11
37
52
40
61
70
-13
-27
-57
45
-70
111
-15
-29
36
86
60
-19
-35
-2
-32
-127
6
21
54
16
-27
80
1
-21
-123
-18
27
-12
-57
-122
-1
62
49
39
-49
14
-97
-7
-69
-92
-45
-77
-28
31
101
-22
-23
23
-109
-22
-71
6
-1
17
-4
-86
10
83
-13
-90
94
-57
60
-51
-3
4
-9
103
-127
-12
-65
-43
78
-49
-45
17
-39
-89
-103
-33
1
16
25
-57
-55
40
-6
-27
-25
-46
19
37
-57
-11
-86
30
25
-51
42
-32
-62
36
-77
36
53
-116
0
-57
-9
-95
-63
62
-50
-12
-2
-48
-105
-32
-127
7
-19
-71
-62
102
4
127
-54
-28
47
-72
-52
-35
-71
14
25
-93
4
51
3
38
75
-67
17
-40
8
-37
-74
-50
83
-46
-30
-33
-84
17
9
-59
-1
-42
-127
-12
-20
-9
16
18
-5
-60
-35
-36
-100
-92
-19
-52
-7
9
-66
14
-28
-57
26
34
-23
-36
43
-18
-12
-72
-21
67
-40
23
-12
-74
-62
-13
-27
-120
-14
19
19
-57
7
-32
9
62
-16
-36
-35
-85
-56
21
0
-60
-24
-38
-25
7
-60
-43
-17
9
6
-66
55
17
42
-65
32
71
-19
-44
16
39
16
46
-24
112
-54
-30
-13
19
-56
11
-25
-121
-75
-1
-97
-1
-16
-28
-27
-65
-41
-69
-1
-54
2
-90
-32
-16
-7
74
-2
77
-24
16
102
-68
-37
5
-44
19
-27
-74
-6
-4
-6
-10
58
-50
37
-77
-112
99
24
-64
-73
-95
-16
-23
6
-23
37
-37
-78
28
-12
-70
-19
-21
-88
-12
-71
-8
26
41
-33
-51
-97
-83
-12
-57
-47
-12
45
115
-55
-19
-105
0
-55
-9
-60
-55
-65
-41
45
-37
12
-23
99
-88
-127
-14
-43
-8
-26
-36
-14
-44
73
-26
-35
-5
14
52
-127
-2
87
52
37
-12
8
-101
24
-33
-33
-106
-43
11
-12
-32
1
-29
45
-1
-25
-82
-32
-77
-34
1
-47
39
13
-32
20
-27
64
-5
-50
-59
71
21
-20
-32
69
-79
-32
-20
-30
77
-52
28
17
-53
-28
32
-66
44
-40
41
-1
95
-29
-58
-43
-30
-102
2
-22
-6
41
-12
32
-3
-46
31
67
-35
47
-16
-101
49
0
83
50
30
2
7
38
-15
-48
-127
14
-54
64
47
-35
-127
-5
-17
1
-58
-62
-95
-6
20
27
-102
-26
-106
-11
-68
-94
95
18
-89
-47
48
-60
-44
41
-2
-66
-48
2
-86
10
-83
-71
5
42
-22
-24
20
-5
-11
-42
-52
-55
-60
-108
-2
-42
85
38
-2
37
23
-33
-10
11
-127
-3
-15
-48
-127
-96
123
-66
-32
26
-105
-55
-16
-83
-33
11
-36
9
-71
-30
5
63
104
-101
-58
-55
17
-58
-66
32
29
-28
-12
2
60
0
47
-74
-27
-19
13
122
-84
-20
38
44
-25
-5
-15
-89
-11
-106
19
-14
38
-97
42
-79
-98
9
-12
-32
-22
-67
11
-39
-108
-62
-90
-61
38
65
-18
5
-19
21
-3
24
4
11
-104
6
-12
-84
71
-24
-31
-56
-67
-4
97
13
-42
11
-37
-21
11
-44
28
-6
-44
-96
64
-61
-21
-13
-55
-28
-127
114
-56
-34
-82
-25
5
-6
-89
-74
12
-101
-26
-21
-22
26
-22
-13
-127
41
-69
26
-38
-8
2
2
-100
-38
106
127
-21
-30
101
42
26
-45
57
-58
-55
84
95
-33
-23
69
13
42
3
-17
-44
-38
-14
-17
61
1
-39
-7
-20
-14
-39
-33
-72
127
-34
-42
55
-95
6
-39
-46
-65
-53
-65
-90
26
-28
-117
-19
-42
-40
-13
-57
37
26
-76
9
103
45
-32
-5
-76
-38
4
-14
-26
22
-10
-4
3
-53
-118
18
-127
-11
14
17
-21
-42
79
18
0
13
-33
-47
-53
-53
-14
-93
-75
7
3
-14
-71
-41
-27
-102
23
-44
2
-11
-66
-7
21
25
-104
-123
-9
116
-22
-44
6
34
13
-57
10
-40
-127
-75
-107
-127
-113
12
-19
-30
-87
-48
-47
10
26
-27
66
9
70
-37
-51
120
-56
48
-56
-25
-6
56
24
-92
27
68
-17
-94
8
52
-102
-19
-107
77
-20
-66
43
-2
26
-21
24
-61
31
-127
-64
13
68
-7
-6
-1
51
-62
3
-25
52
29
7
-26
-15
36
-68
-34
8
-3
24
37
56
-47
6
67
-9
127
-127
-127
-28
65
11
-16
23
-73
-5
27
-114
-66
-113
-17
-34
-41
-27
-73
-18
48
-101
-26
-51
-70
9
-48
41
-10
3
-106
-39
-26
-73
-74
-1
-49
-3
-57
-12
-82
-26
29
-86
-28
-41
-46
-79
-93
-42
-79
-65
19
-55
-81
-84
-15
-31
57
-89
-80
-46
-10
21
-21
-29
27
-34
90
-111
37
-22
-21
34
-55
-59
17
-33
-5
41
-57
-42
-46
-38
-21
-48
-76
6
-37
-100
36
-88
-37
-122
-62
-127
-56
-7
-2
-89
14
-8
-13
-35
35
3
-127
-15
-32
-4
36
-100
-16
92
-5
-23
50
8
-68
18
-9
57
-45
-103
-20
-46
-21
-45
-26
-43
-88
38
-106
-42
-36
-12
-16
-11
22
92
-21
39
9
20
-51
46
29
81
115
38
-3
-84
-26
-20
-4
4
-2
-52
-1
-34
-19
-40
-18
-33
-46
-21
-101
-40
-21
-40
-64
-28
-71
127
-5
-59
-79
-9
5
-109
-15
-76
33
-114
43
-54
-15
6
-33
-27
-41
-57
37
84
-5
-51
-74
-28
-40
-68
-56
-29
-37
12
37
-64
-80
-39
-9
29
-127
-22
-43
17
-28
-127
-90
7
17
-109
-8
17
-30
34
29
-5
11
7
-58
-123
-22
26
59
-88
0
-37
-34
92
-33
-2
-48
-34
-26
-22
-55
-42
-5
-10
-14
16
-42
-113
9
-45
-6
-1
18
-55
-67
-84
-3
-67
-19
126
-20
-9
-74
-100
-24
78
-35
48
-95
-47
-5
26
6
-103
17
-27
-40
-108
-33
27
-113
-124
-39
16
-41
13
44
-31
-40
-50
82
-14
-6
0
21
46
27
34
-33
23
33
-39
-24
-15
-46
-18
-16
7
-24
26
26
76
-39
-64
9
43
19
9
22
53
-44
-3
-55
-54
-52
-88
39
-21
-22
-45
127
62
48
-5
-58
-58
-47
-89
-11
-35
23
-3
-70
19
60
-22
-50
-34
-52
12
2
127
51
-4
-66
13
28
7
-13
-52
-21
44
-20
-61
33
-54
-69
-49
-107
-21
6
67
38
13
-50
-80
119
-11
38
-17
-38
-69
127
-55
-87
42
-2
51
5
-55
127
34
0
-4
-40
16
-26
-98
-36
-33
-29
-112
-35
-64
-54
47
-53
-58
-46
-48
-32
-96
-33
0
2
-61
-21
-33
25
45
-70
40
-40
26
-27
-37
-109
-10
-71
9
-39
21
-10
8
-31
-34
-54
-71
-43
-12
8
-29
5
21
-30
-8
-36
-71
15
28
-60
-24
31
-68
-13
-60
16
-52
-1
-91
-3
36
0
-59
-49
-16
2
-35
-17
-15
9
-10
-2
-40
-48
-56
-112
-50
-33
-127
84
24
21
-46
26
9
8
-14
43
2
14
-40
-42
-16
-44
-44
-74
-91
-32
-50
-37
-15
-57
4
19
-4
-81
-13
-11
-49
-29
-29
-59
-24
46
-56
-27
26
8
21
-13
-15
-28
80
2
-18
-30
-26
1
62
-63
22
-42
-1
-1
-5
-6
-63
-127
127
-40
-55
-14
22
-1
-54
-51
-35
-46
-30
-58
-67
-3
-16
4
-23
-47
-21
-66
-41
-37
11
53
-6
1
-4
-60
78
27
-31
27
-29
55
-57
-18
-39
31
-64
-51
18
-73
62
4
-38
-41
-32
26
-10
2
-1
-89
-23
-64
-47
18
-38
-84
-50
-80
-24
-16
56
54
-50
20
-78
-34
5
-75
-127
8
53
7
-121
30
42
-54
-37
18
7
-4
66
-11
9
-30
-67
66
67
31
-25
32
-35
-2
13
20
-1
60
22
-68
-23
-76
-3
-57
-15
18
-28
-58
-51
-30
-8
105
-119
22
36
-95
11
-50
-20
-33
-8
-74
-96
-84
-31
-61
2
-69
-77
-52
14
12
24
50
-29
37
12
14
-21
-124
-18
-55
-63
1
-19
-127
4
1
-56
18
-89
87
-17
-12
-34
51
-15
31
-35
-14
46
-48
-90
-44
-38
33
-49
-12
-69
-26
16
-42
17
1
9
-102
36
9
-106
19
16
25
27
-106
-58
6
23
-32
-63
53
-20
-74
-74
-65
-63
16
4
-27
-36
-100
-35
29
-55
2
-95
2
-11
58
-46
-17
50
9
31
-1
4
-35
20
-41
-14
66
-25
-10
5
-13
-90
14
-24
-56
-13
2
3
-25
-8
-12
-21
-38
-25
-4
-76
-79
-51
-114
-63
17
-31
-48
-52
-20
-4
-40
-48
-62
-111
15
35
-45
-8
3
2
4
-21
-10
-38
-37
-127
45
17
0
-10
-18
3
-33
2
7
-17
17
58
-4
-9
-52
-26
-8
13
-8
-26
-34
-127
-70
44
-69
19
34
-16
-85
7
54
-57
-45
5
-51
31
14
-107
-59
-67
-82
19
-32
-73
40
-48
-38
-77
-4
-29
37
-43
-11
-53
-12
-51
63
-21
-2
6
6
10
-12
-32
-24
1
77
24
-43
-3
-55
-43
-64
31
20
-7
13
16
63
31
-19
-3
-40
13
35
0
-27
-69
3
-69
-34
-44
-45
1
2
-8
-92
0
-53
-92
7
-14
-59
92
46
-6
78
-29
94
-58
14
33
-30
16
21
11
-51
4
-31
-34
12
-3
13
19
2
-20
1
-66
75
41
-59
-2
28
-33
-43
5
-66
-84
2
-18
11
-19
-42
3
-11
5
16
-23
-3
-108
12
-9
127
-14
13
-6
-58
-89
-3
-2
19
6
56
-20
-12
87
-56
3
-108
34
1
83
3
-42
-24
-127
37
-23
-11
1
-71
-61
-22
-60
-28
-75
-58
11
5
18
24
-2
-84
-112
8
-8
-56
30
-94
-20
-30
-27
2
-55
-29
-31
-48
52
-58
69
-35
-24
-27
-47
-102
-127
17
-22
-38
-34
-7
-25
24
-54
-11
52
-22
-59
15
-44
34
5
-15
-124
22
-5
-44
85
-76
-52
-120
-41
-4
-18
-33
-127
109
-42
63
-22
-97
-127
-17
26
-46
-72
15
-5
-16
-39
-39
-39
-5
20
2
-44
4
-36
-53
-21
39
-64
-79
-112
-30
2
-89
-11
-48
-2
21
-25
8
44
52
4
-76
-69
123
-25
-20
-57
-31
-41
49
-27
84
-13
-126
-51
54
26
65
-125
-88
-1
-50
-39
-19
-29
12
-6
-31
-26
36
21
16
14
-79
48
-93
-72
-31
-71
-30
2
-127
-79
29
-113
-65
8
15
-31
20
-32
-92
-27
-32
18
-25
-83
78
17
42
24
6
-38
-24
127
60
-4
-37
-85
-25
-68
-8
-63
54
-63
-34
7
-9
-45
-23
43
-77
-29
-29
-11
-44
-61
-33
-19
22
-55
47
2
-17
-31
19
45
-127
-32
13
-28
-36
-115
-75
-33
-127
-127
-14
11
5
6
-30
-11
23
-33
