-8
-91
1
-34
-16
62
12
-49
-52
51
-12
-11
-7
-29
8
23
94
35
-5
68
2
-39
-4
31
-4
23
6
1
-95
6
-11
-27
45
-22
6
29
68
-34
17
30
2
20
17
9
2
-1
-19
-46
-57
6
-1
26
49
-95
-32
-34
24
-7
-6
9
0
47
41
-17
-35
8
-33
31
-84
20
41
-61
0
-6
-74
10
-9
22
3
-78
12
57
-12
-62
-15
-53
-1
-59
-5
33
23
22
-62
-22
8
-61
43
24
-5
-45
-2
52
2
3
-95
-22
14
-108
5
18
18
-18
-29
-14
-3
33
-30
10
-7
21
-14
-8
14
-61
-7
11
-9
-1
23
58
13
-8
61
53
30
39
-46
-13
-20
-5
10
76
-4
-31
91
20
1
-31
-33
50
4
-6
35
11
31
-20
23
-107
-2
2
-21
27
-77
-9
-40
13
16
21
34
45
-22
-9
27
-4
23
-20
11
92
30
65
22
-32
16
35
64
28
-29
48
117
0
28
24
37
31
23
-16
23
67
-49
-16
0
-25
-63
2
15
-27
42
-17
6
37
-28
-2
15
-8
-47
46
-2
46
53
25
9
-31
26
-26
-26
-26
34
14
56
45
12
-38
6
-53
-127
12
-52
3
-34
21
-79
-58
-31
39
-20
-76
24
-24
-34
-36
-7
71
-44
-16
16
46
6
-18
-13
16
-15
-35
1
38
104
28
60
-58
7
-44
-32
-48
6
1
3
-25
7
60
-16
-7
25
-43
-17
-74
25
-51
31
-72
-67
-7
-19
-26
78
-127
20
-22
-17
-8
29
76
17
63
-4
-28
-1
-69
-6
11
56
-16
52
-48
79
25
55
-43
-5
12
25
-6
-5
37
-72
2
-1
-43
40
14
-126
-19
-16
-2
-8
0
55
1
2
-48
3
-30
10
41
-15
6
0
22
61
-1
36
-7
-52
10
21
53
-63
-16
-44
-29
12
29
52
-28
-28
68
-3
40
-40
-15
-6
11
18
9
-66
2
14
-36
69
-12
-77
40
30
-39
-53
-12
-5
-17
-44
29
2
-43
32
-28
-20
66
6
-16
-19
0
-7
-11
44
70
-1
6
59
34
-38
-10
18
26
-8
-33
46
-24
6
-9
32
29
-15
-61
34
-9
35
-26
53
-28
-12
22
-11
28
-37
70
6
18
-10
-52
33
-29
5
5
22
-6
37
29
-10
31
28
-11
12
-33
38
-58
-23
59
-26
-14
-71
-17
98
64
4
-44
-30
12
-36
-24
-6
-5
21
53
29
-50
86
7
-39
21
18
-12
-2
9
-10
25
-6
12
-9
62
15
51
-26
22
-43
-58
-9
-13
20
-3
-30
-34
1
-69
1
51
-31
19
-18
51
-12
17
-27
93
5
8
-41
-35
-45
-23
75
-8
30
14
24
41
-58
-21
-18
55
-6
-15
-118
-14
11
51
-29
50
-19
-17
-22
-3
-9
-17
60
-127
27
-43
124
-66
-41
-34
9
54
22
11
-31
-24
-32
34
-15
54
-25
-21
30
69
5
52
-38
25
21
28
21
-15
33
28
-79
5
5
8
14
15
-114
-12
-55
-3
-2
20
-10
-27
-8
21
40
-7
-1
-11
19
53
35
49
4
-10
19
1
72
-22
-44
49
127
1
-10
20
-28
102
-9
59
1
-3
38
14
-75
13
13
-33
-17
20
-31
21
-32
-9
3
84
0
-43
-20
-25
-9
-7
-13
-55
-41
35
-29
-10
-126
-30
63
-51
14
48
30
17
-16
24
31
-5
22
-15
17
43
70
-34
4
-19
31
-58
-28
2
-73
1
-54
36
-27
-14
-12
18
-4
1
-68
-1
-16
-49
24
10
29
-28
-56
72
-12
8
-24
-15
-5
63
13
-8
47
-19
38
-43
90
12
-80
40
-36
53
29
-14
31
-84
-23
-17
-46
60
-29
-15
-5
31
46
-19
-2
-36
-4
5
-56
42
7
85
-27
-6
27
33
56
-6
43
-5
-103
32
5
8
-20
-84
-36
3
-64
-61
54
17
0
-30
29
-23
11
36
-12
26
-16
79
21
-67
27
62
-41
-6
22
43
21
-45
-54
-12
-31
9
-19
7
-47
28
91
-6
50
-3
-28
-34
36
46
8
-4
127
-115
4
-80
-19
14
49
11
-10
70
90
3
3
24
-9
13
79
-7
-68
122
21
12
30
61
14
0
-44
-10
19
8
14
-16
14
-24
-15
1
27
-55
14
37
-34
20
11
10
3
22
3
-40
-10
-8
-12
19
-8
-53
-63
47
-14
-53
22
-7
27
-29
-10
72
-16
51
-14
-6
-5
-63
0
21
15
10
35
-7
21
20
15
48
20
6
0
12
-34
-12
-19
19
-7
-4
53
60
55
-14
52
-10
15
-16
17
64
32
63
-14
16
-20
31
5
15
-10
7
110
-14
-4
-2
57
23
57
1
31
3
7
-30
-26
7
87
43
11
16
-55
20
-74
-18
-3
22
40
-3
10
-80
19
52
-40
66
50
-13
15
-15
-7
-12
24
-9
19
15
-4
66
44
87
-14
31
-10
7
-24
-13
-3
-30
-64
45
-22
9
15
-14
27
-121
-25
15
45
1
32
39
19
-76
14
7
15
-41
25
-70
-2
25
-15
12
-17
-41
-12
2
8
-15
-4
7
-5
-76
19
-10
-5
-16
0
23
-116
46
-6
-31
12
-9
33
10
11
-65
64
15
32
-69
-9
31
19
-36
-16
25
-18
55
-14
-9
103
-28
55
-39
-12
26
-1
41
-16
-11
78
-20
-28
-41
-20
20
-48
17
15
-21
-13
-3
64
-26
14
54
4
-11
-50
28
45
-80
-5
16
10
-11
6
-25
2
7
-45
21
5
16
16
-38
6
-18
-17
-35
32
3
-40
-9
-31
8
-14
21
-35
0
-12
30
2
-19
26
74
-3
-38
65
19
20
-103
59
-10
-8
14
9
-5
-42
-46
-8
54
-47
-10
-52
0
-23
-86
-15
-20
4
-11
22
-2
11
6
-22
-12
-37
19
-23
-18
33
-29
-36
116
-22
9
-12
9
12
21
20
48
36
12
-69
6
1
1
32
67
14
17
-90
18
39
-8
17
51
13
1
12
-26
-9
31
41
-45
1
38
38
11
-38
71
-4
-74
44
3
-36
8
19
-80
13
60
20
-25
-2
-27
6
27
7
-67
-22
9
-55
1
-63
-12
33
63
-8
-5
-6
34
-7
-38
-62
62
32
-94
-91
-27
-10
-78
30
-6
43
-1
57
6
-13
32
-14
115
38
57
-15
-2
-48
35
63
55
-11
0
-2
-35
38
45
-8
51
18
-21
-32
85
27
-21
40
-18
-1
27
-35
27
15
67
52
-4
-10
10
24
27
4
77
43
-33
23
13
-5
43
-57
80
25
-53
97
52
-17
24
-9
-14
7
22
-11
11
7
-39
10
43
-4
-50
-30
-13
-84
21
-33
-30
34
79
-24
14
-100
-15
-14
35
-82
62
27
-4
-42
19
18
19
-11
7
-14
-118
-28
49
-8
5
-61
-24
25
-108
-1
0
22
-35
108
18
17
-9
62
-25
22
-28
16
-41
12
104
-6
55
83
15
1
0
-13
-26
46
29
-24
-4
37
100
-15
-18
5
-127
-6
23
37
47
22
-43
-94
9
63
-47
16
-17
1
-40
95
21
12
43
-14
19
-68
-115
5
-55
5
-58
-48
18
-46
127
-25
-27
-30
-4
-63
-6
2
3
7
-64
-17
62
49
-40
3
91
10
-36
49
127
13
-45
-59
2
35
43
-6
-46
32
-127
-43
-57
77
-29
85
-70
-6
-35
-16
25
-3
44
-101
1
-61
18
-37
18
-4
0
-74
-44
6
-16
21
-23
101
84
20
21
5
-8
-12
39
63
8
5
10
56
8
-4
-13
-35
20
34
16
-11
9
-4
-42
-19
-26
-24
6
6
-78
26
11
-3
-18
9
-66
2
-13
-34
-26
11
-42
-26
11
-8
57
-45
-18
-12
25
-8
-1
-41
-11
18
-27
5
-9
12
51
2
40
-68
53
16
-24
-3
-16
15
-21
26
-67
58
-7
-16
-38
38
29
4
18
12
-10
-9
33
-14
5
9
-49
-60
-33
-30
24
-13
-2
-14
-2
4
15
31
29
21
21
-22
-23
50
19
-28
65
-76
-19
-31
-63
-3
-38
-7
51
4
20
22
44
37
-25
7
-40
-32
-78
62
31
64
100
-23
-78
83
-8
-6
68
-127
-49
47
96
-49
-31
82
21
47
14
-6
3
-1
-5
26
10
-24
5
-47
-21
-8
-5
-1
4
7
12
-1
-33
13
49
-54
-2
-23
37
15
-25
88
56
-21
-5
17
-15
-12
13
23
-34
7
-18
-43
-22
-52
3
13
10
1
63
-34
27
16
-58
-1
9
-8
13
33
-9
-25
22
-124
-3
39
-25
28
1
-27
-10
40
-18
9
-33
36
-15
7
103
102
23
7
-35
-29
86
-17
0
16
-29
-54
3
21
-52
17
-30
41
11
1
-21
-7
28
-61
47
-71
34
2
-29
-13
-12
14
80
28
-11
34
-6
37
-28
-15
-64
-63
-5
-11
50
56
23
-47
-34
3
-43
-58
41
-34
-89
-15
38
-43
24
-44
34
-8
-85
80
-32
22
-29
-17
38
-65
27
-2
-91
13
44
51
-13
-23
-48
-49
50
-36
28
9
71
-38
98
-39
-57
20
112
-12
46
14
-11
-38
17
10
-22
-16
5
-6
47
-1
-11
-24
32
-17
9
40
29
64
-32
-24
51
10
-3
-37
-24
-11
32
-19
11
-50
-72
83
-55
64
-47
1
-74
1
-13
10
-19
0
-15
-31
-116
20
13
-19
67
-21
-105
15
-25
28
76
34
-9
38
22
4
73
6
5
-8
17
33
7
5
-62
-9
7
-15
-37
-18
-20
22
4
-16
-11
39
64
16
56
-83
40
31
-30
-15
-106
58
33
12
4
26
-37
-67
54
-3
27
1
-59
-18
-19
-43
-11
27
-65
58
-13
-32
1
17
-49
-47
61
-4
25
5
2
37
-12
-6
-16
-53
-4
-4
57
-12
-24
111
-19
-127
-33
-16
20
43
-70
37
84
-10
21
-6
-12
29
2
-16
46
69
4
-23
10
12
-58
33
-4
8
54
-35
-20
-25
37
47
-32
-4
-28
16
-14
-58
-24
-7
32
13
-11
-32
14
20
40
-8
25
-79
124
14
-7
30
97
98
79
78
62
37
37
33
-37
9
-7
23
31
-32
-22
68
-54
-2
-62
-74
53
9
-38
40
25
48
12
35
-15
3
-1
-11
31
-67
14
-12
-28
-9
38
54
-36
-86
10
4
12
23
-41
49
127
25
21
54
4
15
8
72
-2
-17
63
14
9
51
-11
25
-23
80
1
24
52
25
2
-68
-2
-6
-19
15
13
2
-3
6
-3
35
-38
-21
18
23
-6
39
-20
22
-32
51
9
-9
16
8
5
-37
-3
-77
14
-34
-18
35
1
27
1
-16
39
19
42
31
4
-13
-54
68
-29
3
46
73
-14
6
3
-14
28
38
16
-32
-62
-28
-22
93
74
16
-7
-19
0
-21
38
12
20
-9
26
110
-8
4
-1
-4
-29
18
-30
-105
16
-68
4
-1
-9
27
6
-16
4
-67
11
-42
36
-39
74
-19
-25
-63
-34
18
6
13
17
1
68
63
42
6
3
-25
19
23
-27
18
-1
71
7
-14
12
37
78
-30
11
-3
2
3
-37
-3
34
-44
23
-5
10
24
-22
57
40
3
32
21
-31
-15
14
38
52
-4
10
41
-72
10
-27
44
39
-14
-2
44
-21
18
-54
39
14
-101
21
-1
-12
-3
12
67
-2
-3
-10
80
-9
-19
17
-8
40
5
2
-99
-30
-48
-39
65
2
51
-8
3
-8
23
-32
-18
-24
69
31
18
18
-34
39
-100
-12
-8
28
59
-8
-4
-57
-5
44
-29
82
5
-26
25
-45
-6
-47
5
23
28
-15
-8
-71
-64
50
69
-7
-7
-37
-6
-8
41
25
15
34
28
-47
4
-11
0
-30
12
-6
2
23
-14
7
-6
-15
-29
-24
24
-65
109
-15
29
17
54
57
1
-33
-18
-9
-20
-54
-20
-3
-7
-61
33
-23
-23
15
-32
-20
-22
83
2
6
55
-4
2
28
31
38
1
127
-10
-24
6
98
-43
3
17
-4
-26
31
32
22
12
-70
-92
2
40
3
49
8
24
-4
-25
18
12
50
7
-27
7
-27
93
5
-16
-9
-62
-5
-6
-29
0
-21
-28
-6
11
-112
30
4
-1
0
7
-25
18
20
86
-61
17
4
51
29
-5
127
-20
-16
-19
39
-105
33
29
14
-24
28
6
-16
40
-29
-13
8
-9
-45
-40
3
22
37
-51
-22
26
-16
-63
3
21
-56
-7
-108
4
46
26
65
36
-4
5
27
11
23
-2
-14
29
35
-10
64
-22
-20
48
23
73
38
48
-29
-50
10
45
-8
-77
75
-9
-54
48
12
43
26
34
9
-24
50
-10
-101
-29
6
-57
-2
0
-52
35
4
9
-49
32
6
33
-24
22
34
29
-5
49
12
-18
-38
25
9
-34
-95
-1
-24
-10
7
127
4
-23
-56
-34
43
-37
2
10
-9
-53
-31
55
-22
-4
-29
25
38
8
-56
-127
127
-85
8
13
-4
75
37
-56
-4
11
-44
11
-10
-22
52
-37
22
2
30
36
-12
13
-29
-90
-16
-28
-45
-64
33
3
6
-18
11
-12
-101
12
88
40
22
4
12
-44
14
-1
-48
-5
-9
-13
-5
7
37
-31
64
40
9
47
36
40
-13
38
79
23
17
-29
-7
-22
120
-103
67
-84
-41
-88
-16
-13
61
18
-3
-14
19
52
6
-31
-2
-77
43
-29
-4
73
-34
-127
-61
-28
-29
-118
43
-52
3
-32
-8
-34
-37
18
-88
-90
-18
7
-96
-19
-60
-32
-9
114
-11
-33
5
58
62
127
-36
32
-18
-61
39
25
-4
42
26
-109
77
-9
-75
22
88
5
38
-49
-16
20
17
5
-12
-45
30
3
14
8
37
-3
30
37
-48
55
7
-10
-84
-54
24
10
-2
54
29
-9
-66
5
-24
-27
-80
-30
-53
69
-19
41
4
24
-32
-23
-2
10
99
10
-20
-25
-2
-20
10
-26
-59
61
47
0
-59
-12
-4
81
22
40
12
-25
-7
17
3
-8
67
-2
-6
31
-33
-16
6
4
104
0
17
14
18
15
-33
-52
-44
42
-43
27
8
60
-4
-14
28
19
-49
73
-1
-51
-2
-30
-82
5
12
2
-29
-12
-32
13
-85
24
-14
-1
-6
-61
-5
-27
-17
73
3
19
9
-4
-46
-6
18
-13
35
15
9
24
3
37
-20
17
25
7
-27
-81
14
35
-62
78
8
25
-13
27
-18
-8
2
-66
11
-59
11
40
-34
26
57
58
-48
28
26
-57
14
-39
-27
-15
53
6
-31
85
-32
14
-5
14
-46
-22
-31
-21
5
-65
-44
57
46
-5
-15
0
5
-17
19
-23
-8
22
-20
-54
-45
13
-71
26
17
48
-6
-6
34
2
17
40
40
8
42
-43
-46
-21
69
17
31
24
0
104
-12
56
-42
6
43
-28
-37
-38
13
-14
-23
-13
-39
18
-71
4
13
0
-43
4
-38
-17
10
52
-19
-8
-1
53
39
22
-2
25
37
-7
6
-46
3
-5
-29
25
-7
31
23
-17
83
-39
46
28
11
-6
-59
16
-45
-41
-28
11
-6
34
6
7
40
5
7
-12
76
-25
80
-86
-90
14
-50
61
21
-15
14
-13
-76
8
4
-55
24
-6
47
-2
23
16
3
59
-28
36
10
-17
-17
-27
11
17
9
-39
47
-51
-31
-40
-2
31
-24
-12
20
-10
-67
-20
25
127
72
-67
25
53
-85
-4
-18
16
19
-35
45
36
-11
18
-4
-44
84
-28
49
-4
36
22
26
19
54
37
-12
-1
-8
-14
12
120
53
5
0
-15
14
9
-13
66
30
6
-17
-29
-15
-4
-23
-4
-42
-1
-48
108
26
15
-31
122
25
-2
18
-14
97
87
-19
16
-21
15
13
-104
19
-14
-31
-7
6
12
2
-78
-45
-11
4
-60
-22
-80
11
33
-32
-127
-13
69
-24
10
-18
3
14
-88
9
34
-6
-22
-11
13
-15
-24
-75
19
-12
30
94
5
23
-2
23
30
-13
44
70
-18
-34
14
-105
-14
55
-34
9
-20
-127
-15
-9
31
-21
1
-51
28
-27
-4
-25
22
-9
1
49
-21
20
-12
-22
7
12
-9
-15
-44
-42
-1
-32
-58
-22
19
24
-10
20
-24
58
12
37
-18
-43
-58
-32
-9
-33
28
-10
-3
20
-14
34
127
7
126
-35
104
29
24
9
-42
-12
50
-1
-72
-3
-13
-30
10
-83
32
-35
19
-85
-21
3
20
15
69
8
17
52
118
-31
45
6
44
32
-49
-61
14
63
-67
45
-1
23
84
10
-89
-24
-18
-54
10
-14
28
55
-16
-26
-27
-21
108
35
-17
52
88
0
-3
32
3
60
-46
-26
38
24
-15
40
-36
38
-53
-23
-54
61
56
-85
-113
30
4
-16
28
-10
21
28
44
-10
-93
88
-33
-23
49
15
109
-5
-95
38
-62
-52
2
-23
53
30
42
-5
-4
-47
-26
25
-51
52
-4
43
-28
6
6
13
-67
-16
67
-3
-22
16
-14
26
-25
29
-22
21
-1
5
72
23
-17
-28
-24
18
6
37
-62
85
21
56
-4
-45
22
125
-56
-55
-36
47
48
-32
53
-43
-44
19
33
41
-52
-101
-46
-17
58
6
8
127
-57
-31
39
34
-23
65
-24
-6
127
11
-23
32
-1
-25
-5
39
-12
-12
-8
57
-10
-127
9
8
-2
80
4
-73
72
31
-23
2
-54
-24
-3
37
25
-26
-8
-39
-6
20
10
6
14
4
-25
23
-77
-23
-11
98
4
-4
21
19
10
10
-14
-52
-10
-55
127
49
2
-5
-11
26
81
-28
-70
4
-6
-17
-86
29
-8
-36
70
-33
37
27
-49
-25
-46
12
5
10
-21
-8
-45
-2
-3
-3
-37
57
90
1
-11
3
7
39
36
31
16
-20
-34
-13
-3
2
46
8
2
-10
36
5
71
31
7
-22
-1
4
-2
22
20
-14
13
-53
-43
24
5
12
41
-9
-42
7
37
38
-23
44
-17
36
-13
-21
-18
47
-47
-14
-12
-48
12
58
-38
-83
15
80
21
-20
-63
8
-9
5
-21
-41
-3
9
0
48
-6
39
20
-25
-26
10
-14
4
28
-34
-32
-19
11
-13
29
10
-19
10
-2
1
25
-1
-20
-1
-82
44
-15
29
-26
0
-14
74
16
7
39
49
-28
-32
63
-12
-35
127
-55
7
-9
-69
26
47
-1
-9
-18
1
-9
-47
-20
95
2
13
-7
-29
-12
29
111
17
13
33
18
0
-20
-1
-5
44
28
-12
1
-43
-15
-8
-74
56
-127
-8
14
40
54
1
-89
-22
28
-13
6
-9
-14
48
-51
58
10
-4
49
-16
1
-25
-63
-39
-37
-23
-126
-2
4
1
-35
-40
68
-10
-87
-25
51
16
2
-14
-6
-26
8
54
14
17
15
12
2
111
-27
6
-3
44
69
-38
34
46
-101
7
-38
-5
-25
-17
-36
-71
15
-20
47
-42
42
24
46
56
25
-43
-30
8
-37
-39
7
55
-12
-36
35
-38
11
17
-29
-32
32
68
8
-3
37
19
39
-16
14
3
-7
-32
-25
-7
79
7
11
48
-30
29
-111
-14
-8
30
41
5
-21
-53
-18
50
-33
52
7
-51
7
-26
3
57
0
-32
45
-51
25
1
115
-7
-3
23
12
60
25
-31
-7
82
16
21
18
18
21
19
-42
-7
7
31
62
-31
54
1
-18
-57
-14
24
34
-7
19
18
-13
-3
56
-28
12
17
9
16
-64
30
41
-58
11
15
12
34
34
-34
-17
7
-64
12
5
24
44
-28
3
-83
8
-32
39
-11
23
8
-46
44
-4
-44
-23
-31
-28
-11
9
9
3
-10
68
-43
66
8
-31
3
67
65
31
-11
58
58
58
54
34
-10
8
9
-96
-17
-30
-22
-24
61
-24
-39
3
28
-2
8
-1
-16
4
-40
82
-1
-4
-119
20
-11
-4
-10
-18
32
15
100
79
61
17
26
28
-19
61
-13
33
-26
-33
-2
41
-16
45
-127
-29
57
9
-53
12
7
31
-4
-18
-15
11
-1
92
61
-13
-34
127
-65
-6
-6
-11
33
32
11
5
-5
-54
127
51
0
5
22
74
9
-15
34
38
-3
-45
-43
-16
4
-16
40
55
-31
-30
50
-65
-55
44
45
-30
-5
-4
-104
13
83
31
-16
16
13
1
83
-23
-39
32
60
5
7
-1
-28
-43
25
-2
6
34
17
-10
-5
-23
25
-3
-4
81
-4
27
8
-17
17
-10
-55
8
-15
-15
-13
127
-37
33
-21
19
-12
-11
8
5
24
-63
4
22
-76
23
-49
9
-33
36
58
53
11
-74
64
-2
-33
-2
-28
-11
-4
1
-26
-1
-6
48
-14
73
28
5
-25
-3
67
22
-16
25
72
-24
-79
6
25
96
4
-48
-12
2
-29
-4
-11
-7
11
-23
-13
-4
-34
13
-26
-7
1
-11
-1
56
8
34
-63
12
-3
-18
36
23
-42
5
56
18
-10
-88
10
-5
13
1
20
-28
9
-48
64
11
18
9
29
19
-20
58
-24
9
-82
3
-11
-2
15
80
2
11
-22
-6
-17
98
11
-13
-15
-14
-53
25
26
-4
15
34
-34
4
-49
-30
-24
37
10
-9
3
77
4
34
-31
7
-8
-2
5
79
32
61
-12
8
-12
11
-42
67
-14
-50
11
80
-10
45
73
27
60
96
25
-16
57
-66
10
63
0
50
40
87
0
11
-19
-10
14
-44
18
-97
-22
10
-26
-31
-27
-10
-30
-6
29
69
0
-9
-50
-38
-22
-13
19
-78
-81
49
-21
-2
-24
-39
40
