-9
-16
-21
-37
55
37
15
0
35
1
-36
-120
41
-69
-127
17
-20
-46
-19
42
20
-70
42
-8
26
-70
13
-2
-85
12
4
-5
-80
-62
46
19
40
66
2
-5
20
-13
-75
-61
-6
22
59
4
6
1
11
-11
20
13
23
4
-13
10
-33
23
85
-21
30
69
-18
11
-2
-41
-6
27
-14
-4
19
-1
12
19
-2
10
24
8
26
2
28
5
-55
0
-5
14
-45
-31
76
-16
14
26
18
44
-5
-9
8
2
-34
4
23
2
-5
12
-3
20
-40
14
51
-78
21
22
-10
38
3
-24
9
-14
-13
-41
-15
20
3
21
17
-2
20
37
-2
24
10
63
-11
-29
-30
-40
28
-51
7
9
22
-6
-38
41
-10
-7
26
1
21
-29
11
19
-36
-31
95
17
-20
-55
1
9
-18
54
0
-17
-28
-9
-17
-24
19
-24
27
0
-14
6
-3
-1
-30
-40
53
-54
-6
-14
-8
17
28
85
1
22
-27
22
-33
35
-7
-4
15
10
15
-26
21
24
-26
-25
88
13
-15
-37
2
11
-15
46
-6
-2
-18
0
-15
-17
13
-17
20
3
-17
-6
-4
-5
-19
-38
43
-40
-7
-22
0
8
29
68
3
20
-22
27
20
-37
18
8
-36
-3
-8
26
-36
9
-28
14
43
-40
23
-20
-5
-5
-36
82
-19
25
29
-13
5
-27
-18
-16
10
9
-18
9
12
-44
18
35
76
-34
42
37
-10
-36
-18
-49
2
3
12
56
12
3
-27
-59
8
7
5
-6
33
27
34
-103
9
36
-15
37
127
35
-8
9
-10
36
-24
-62
18
90
-62
127
27
-9
65
-37
8
47
35
-27
-19
-19
-18
-62
62
-66
-49
-45
22
8
41
70
1
-2
3
-42
-4
11
34
5
14
19
-13
50
-32
-64
61
-31
38
-10
41
2
19
-42
-21
-19
-1
42
4
55
40
2
83
15
-79
27
-38
5
121
38
-127
-20
-25
-35
19
-66
-9
13
-24
127
-9
29
50
-35
17
5
20
14
34
7
-9
-13
-48
-5
40
-28
26
-22
-12
-14
27
-9
-4
8
29
-16
-28
37
-14
20
31
68
-7
18
0
-32
-28
-29
-39
127
20
30
-13
41
-9
14
-2
7
32
49
5
46
25
-34
111
49
-14
-49
71
-101
45
-4
23
85
-41
-14
18
90
25
-58
-6
1
34
13
66
-64
-9
-11
48
-15
-20
20
-61
49
-56
6
-23
59
-34
-44
-40
13
57
35
-64
59
6
-46
-15
-14
-7
-84
92
-8
40
7
-28
3
-13
33
-54
-67
-21
-46
-19
-22
-45
-16
44
20
-33
69
-21
-26
-19
9
-23
-81
-4
-82
-6
-34
-8
-36
50
20
63
9
104
84
71
4
41
59
10
-59
5
-4
-7
6
-26
5
3
7
-12
-112
76
-74
8
-2
-26
35
-6
64
-22
-72
6
-29
-29
73
8
43
11
-16
-27
2
-96
-102
4
52
13
-7
16
45
-22
-18
0
-32
0
-11
4
8
42
-14
0
-47
-25
11
34
47
9
4
-14
-42
-7
39
6
-16
20
30
-57
9
25
-78
-54
42
3
12
52
50
-22
-10
10
-43
45
-2
22
38
27
-33
24
-64
-48
44
-22
18
15
22
49
25
26
-1
-6
19
16
-1
48
-11
6
24
-18
52
75
-6
39
-2
2
38
23
9
23
14
-18
-27
-11
-44
25
8
14
15
30
-5
72
35
11
3
-28
91
3
-23
-31
-12
-15
-17
7
4
-1
20
94
47
4
-38
15
31
-72
15
127
-38
-24
-48
7
-19
-12
-62
-64
-77
41
-13
-32
-24
16
-2
35
-25
-26
39
106
-9
4
-19
24
22
40
10
-10
29
64
-36
-49
-31
1
50
58
-35
42
13
-4
-7
-11
-22
-39
7
10
9
10
11
8
-24
-38
36
15
-107
26
10
-12
44
7
-19
8
-21
-3
-13
31
-25
-14
4
-38
28
34
15
0
25
-32
68
42
-30
-14
-8
14
-3
4
5
12
-58
52
-7
45
-8
15
-21
5
11
-37
7
-8
-105
28
-66
-35
-53
-60
2
-69
-11
-3
-4
-23
-38
-27
52
-20
-69
-5
-32
-73
106
104
66
-6
21
-66
-59
48
18
-47
64
-16
-17
-8
-14
-49
-49
-7
23
5
60
26
-12
7
10
4
-14
6
9
35
-12
21
6
52
-29
-41
23
7
42
39
-6
9
21
13
-23
0
-16
57
19
-19
-6
14
-38
28
29
31
-51
0
-34
36
-48
6
-6
-40
-32
-6
15
14
25
-25
-20
-55
-28
-29
-42
-71
-77
-114
3
14
27
-41
-53
48
11
-20
-14
5
-6
-21
60
-1
8
-23
-8
-23
-10
-49
22
-16
-73
58
14
44
107
-34
-8
7
35
14
16
121
17
-5
-2
2
-13
-44
5
25
0
12
20
-2
17
-41
21
32
-97
5
30
-34
53
12
-9
18
-4
-6
-41
-2
-17
-11
8
-20
5
31
41
-8
15
-47
103
8
-40
-22
-25
15
-14
2
7
22
-34
-14
-20
-39
-4
5
-3
-6
12
25
32
-19
35
14
-5
39
40
-75
-17
-17
69
3
67
43
-26
11
53
-6
11
21
-35
-14
-18
43
-20
34
-5
50
37
-68
-36
67
-11
-71
113
-28
6
27
-2
-35
35
-64
-3
-47
32
12
0
35
23
-47
-88
48
17
47
104
-12
12
-1
-90
14
-17
-30
6
10
43
-23
16
-127
10
16
91
3
39
101
29
2
63
62
-9
10
72
85
31
3
-91
-87
77
2
26
-59
-18
-13
-20
8
-2
-2
-24
12
-38
-94
5
40
-52
-5
16
-27
7
11
-85
3
-6
-28
-8
26
-43
5
17
11
87
64
-63
30
-35
-4
-48
-9
-45
4
-41
9
-11
5
-11
40
41
-24
31
5
-37
-44
8
19
11
-52
30
-44
-31
-27
26
-73
-71
-74
8
52
-31
65
-14
26
6
-41
70
71
-91
17
-15
127
-51
-51
77
1
-40
31
40
47
45
25
-16
46
-30
48
-21
18
-11
-7
-9
21
0
-88
7
7
19
13
30
-31
-51
-75
-16
-24
7
-3
12
-23
25
-5
85
1
46
25
-43
-4
19
11
28
-4
56
38
19
4
-8
-6
-9
-7
5
8
-7
27
-28
-12
9
-13
60
9
-32
47
-26
79
22
18
18
15
-2
22
32
48
-58
79
-5
-23
31
-83
23
16
-31
24
-41
-24
84
-48
-114
34
-78
-28
94
4
108
49
4
-15
-42
-16
24
45
44
7
-9
-10
16
58
-30
-3
-13
-71
31
81
127
91
-7
20
-34
79
-46
-7
6
3
-38
-5
-24
30
-36
-1
55
9
5
-13
-2
-31
73
5
29
33
47
-31
9
-115
-4
-27
42
-24
-65
62
34
1
10
44
24
48
-51
-127
14
-6
19
-12
-24
-16
47
6
-59
-28
32
39
-93
41
-57
-55
-95
-31
16
26
50
-34
-6
-21
22
-26
23
-27
-2
-15
-92
86
-25
44
66
-39
75
-59
-68
-16
-25
8
90
1
2
97
-9
8
45
15
-8
-5
42
127
14
-28
-17
-19
-28
48
-5
-12
45
-40
28
30
21
-65
-83
3
-12
25
10
-30
63
47
8
-33
-38
24
-40
0
10
-59
26
43
-50
0
-5
-34
-1
-41
-79
15
51
40
-1
20
-33
68
10
-6
-17
-22
-1
-23
17
-39
-32
3
-23
21
-8
-64
46
13
48
-21
101
-2
61
4
-21
-20
15
42
-59
-12
11
51
10
17
-41
33
-22
10
-10
8
-4
24
-16
23
-27
-32
23
-26
-83
28
-19
-14
-11
-30
-3
30
11
-25
-26
-20
30
9
13
37
-44
0
38
4
-28
32
-11
-19
-36
4
3
-15
75
121
-92
13
-2
118
-10
14
2
19
-54
53
-17
7
3
-3
-52
0
19
127
-2
15
1
21
-12
5
-6
21
36
31
71
-36
47
-21
-6
-5
14
35
10
127
-16
-24
15
-19
91
27
19
-72
52
116
-101
7
-19
65
26
-5
-42
0
-9
22
41
-29
-8
-36
76
-4
60
22
0
-2
31
28
-30
69
54
-10
-103
-27
-11
14
43
-41
17
-35
-13
-54
28
28
-25
-23
33
-7
15
-45
-11
13
51
21
10
69
-26
-22
54
-1
9
-29
-27
8
45
-18
-25
-27
-33
-20
-101
-18
-42
6
-38
43
-14
12
72
102
-16
47
-10
-5
-58
-41
-79
12
-27
14
23
-2
10
19
-11
10
-7
8
-6
41
-34
-28
33
5
-76
6
-28
47
17
-69
-7
33
-31
-22
-65
127
2
-44
5
4
-23
53
9
-62
-11
15
30
18
-32
24
7
73
-81
-77
-3
3
-14
-44
-9
22
-17
15
22
-24
60
-48
-43
15
31
11
-7
-127
25
-42
4
9
-59
-5
-13
-52
23
64
-7
-36
-52
13
-56
-28
29
127
6
12
28
-10
2
-50
-44
-40
-15
14
-39
8
-14
-15
-13
10
32
25
-74
-37
70
10
32
34
-7
26
29
-18
-46
8
22
45
-15
-6
45
-10
17
15
42
-29
4
-9
-84
15
25
16
-13
-37
4
15
-15
45
2
24
-22
-54
-31
-6
-38
-21
17
-25
-4
27
53
2
-21
29
9
75
72
-19
-30
-45
44
-70
2
13
-15
14
-40
-43
50
15
18
-9
-41
-5
1
-14
19
16
-17
23
49
-23
29
34
-5
28
36
-19
75
-32
-45
22
-25
-50
13
-76
32
2
54
-22
18
39
-23
-32
-106
-4
-86
-74
-45
109
-85
-2
-38
-84
52
62
-17
34
-13
13
-23
4
26
-16
-35
10
9
-16
44
-6
9
37
-8
0
-10
-16
78
56
-11
29
23
-91
8
-18
36
23
79
-14
-28
13
-5
44
-43
-14
-7
-79
-44
76
-9
8
15
-75
37
48
21
-48
-9
31
-13
6
21
35
-33
17
15
11
-5
13
10
11
-1
-13
-7
-11
11
66
-38
-8
83
-42
-3
-13
-58
4
74
-18
14
33
-9
11
-5
-22
4
2
-3
44
-22
12
-6
-49
-6
-7
33
-38
-20
47
29
11
23
17
19
1
5
24
-32
-34
11
-3
-1
44
7
27
-36
-62
79
38
3
31
0
-6
29
22
127
-14
7
20
-19
23
9
-12
-28
31
-10
48
-12
5
-4
27
-18
-35
121
42
-23
-40
117
-10
0
-14
-17
4
10
28
1
16
-19
-19
14
-42
27
-49
-64
-70
-14
25
0
-42
38
-23
-16
-50
-43
24
-18
4
-2
9
103
-27
-17
-15
-55
7
27
-20
-27
13
-24
76
-52
-28
-43
-27
37
31
17
101
20
-22
-17
7
-51
-43
9
-10
24
8
0
-25
-10
-54
-23
-28
-43
27
-22
-48
26
-2
63
-2
34
6
-53
-31
22
-19
-9
1
33
78
2
-16
12
-45
-21
37
7
-18
16
33
-38
0
2
-37
42
-44
-46
63
-22
-38
11
55
-46
44
-25
-68
10
-115
-74
-11
103
-12
127
-24
-55
53
-9
10
-58
-2
-23
23
26
41
-29
48
-6
56
15
-13
17
52
-60
32
44
35
-29
-59
14
82
-37
83
-15
-12
-13
10
58
27
2
-15
-32
-9
-16
-7
-25
-9
46
31
5
-104
-36
-25
46
5
65
-10
18
16
1
-39
66
-11
7
-17
-50
-33
20
12
22
30
-77
-19
6
2
-8
6
-83
-2
-1
-19
-14
38
-43
-36
30
-97
-1
-30
-35
-23
-43
27
67
4
-54
27
-74
-7
81
60
-17
1
50
-5
-18
-5
109
9
95
14
9
-7
-49
42
9
-104
16
27
17
-26
-64
-80
8
127
67
17
-16
-55
-1
5
11
-23
-8
11
-22
-20
-7
-10
-19
16
15
66
-101
-23
-34
116
-1
21
-1
1
30
75
11
11
11
33
32
-19
-38
15
37
-85
-7
17
-14
-78
-43
24
6
11
-5
-10
91
-5
-17
-8
26
-82
-24
4
-76
65
-32
35
-85
-12
-3
53
-27
-105
3
4
-17
18
37
17
32
-56
11
-37
33
127
69
44
-22
45
-3
6
44
-20
35
107
107
98
127
110
-13
-3
127
35
7
0
66
-44
26
27
3
61
-76
-14
8
-17
33
3
-2
-29
22
33
19
-57
7
-11
-5
13
33
18
-9
-5
57
-15
25
27
52
-18
-12
25
31
66
-10
0
-31
4
-17
-89
-26
20
-7
12
-96
2
-40
3
-107
23
-16
-54
-56
29
3
34
-35
39
-38
2
-21
-13
-48
-6
1
15
-6
31
5
-3
5
-37
27
-39
-46
15
-4
4
-16
4
47
13
12
29
-33
-29
-97
-69
-39
-27
-63
-32
-29
-11
23
0
-82
-24
-11
-36
-38
-114
-29
9
127
54
-44
-4
-28
95
67
-7
73
-23
-9
-15
-127
-52
-21
-44
-127
-6
-42
-19
-9
-29
-7
-34
37
-54
-11
-83
-127
56
71
-39
28
-21
27
-5
-54
-18
50
-64
-52
-1
-23
79
29
-28
10
-3
18
2
9
-20
33
51
-7
-62
46
-18
-24
18
-3
-2
47
-20
4
11
30
-19
66
12
-33
59
-78
-125
69
-8
31
-23
20
32
21
3
42
-12
-23
2
1
-16
-36
30
53
8
-7
6
82
90
-10
-44
-26
57
-25
-68
-45
-8
-35
-8
-48
8
9
-21
21
0
-40
39
-18
37
33
28
6
27
-18
31
42
-55
-55
4
1
2
23
65
1
-13
42
-18
54
109
29
4
16
-30
-78
-3
-86
106
-20
8
5
-8
-4
86
-12
-13
-127
-104
10
10
-28
-32
42
30
11
-32
-5
-8
-29
-35
-10
87
-64
-54
27
-24
4
30
-12
68
50
126
-17
75
-38
5
-13
32
16
-7
3
-6
-36
-24
0
1
-2
-2
0
-1
-111
4
-34
96
3
31
16
21
-30
8
34
80
2
3
-7
3
-47
-3
18
-14
-111
36
-29
9
-4
-4
-28
-42
-21
-14
74
-1
-97
7
5
10
-11
17
32
-35
48
16
56
-65
21
14
-40
-47
62
-22
-2
6
15
25
21
4
-42
-20
-23
46
39
11
38
12
-54
50
8
-86
9
-71
-50
64
-39
-69
16
-36
-32
-24
25
-17
24
74
23
-82
36
9
6
15
-1
9
-3
3
-4
-16
-5
1
3
-6
9
-22
16
-8
-40
-23
-12
-17
13
59
13
-4
40
14
0
9
6
44
21
-7
4
15
-31
27
32
17
-15
-3
-10
-2
1
29
5
15
-6
65
55
-4
-46
36
11
-68
32
96
-10
24
-57
29
29
10
-78
-107
-27
36
-46
-52
26
93
26
39
-44
-15
-6
105
-14
57
-28
27
43
14
39
34
21
41
9
-12
-82
34
-4
-6
-14
41
-15
-35
-23
25
20
-25
14
-37
-24
15
2
-29
7
26
10
-13
31
13
-87
-1
51
-6
43
37
-29
13
49
23
-22
4
18
10
15
11
-10
-36
10
-23
-10
0
-23
9
-43
11
-70
-2
-1
-75
0
11
17
3
16
-46
3
19
-1
-9
8
-3
-5
-10
-26
-8
60
-19
18
-7
-31
3
94
-12
27
33
-39
6
21
-1
1
11
26
38
-23
20
-9
9
-11
-15
23
-12
-10
47
7
3
18
12
48
14
-14
8
-16
5
14
-7
6
38
-2
19
-39
-44
67
25
-7
45
-11
5
7
17
94
-53
1
-3
-9
38
-2
-22
-17
29
-54
65
-41
-4
8
34
-2
6
90
29
-12
-52
103
-12
-8
-23
2
5
15
15
-18
15
8
27
-9
-8
6
-32
20
88
-16
14
104
-40
9
-18
-40
-1
52
-19
0
26
-8
7
1
1
-3
13
-8
32
-3
28
-15
-88
20
-23
9
-45
-35
77
-21
10
29
19
31
15
-30
61
26
6
6
-22
-8
-9
5
2
-127
10
-81
-2
7
46
5
-37
-56
-10
-39
-88
19
4
10
-71
-71
7
32
104
-27
32
-3
-36
-12
39
27
-3
-20
10
-33
12
-10
-1
4
-34
65
10
-40
18
-33
12
-54
-16
13
12
-45
-32
-58
-24
-7
-30
56
-23
43
16
20
63
-28
7
-5
-6
1
26
18
27
-5
2
-16
35
27
8
-27
26
18
50
-16
13
-11
-41
37
-10
-29
14
32
-1
-4
-20
61
35
-15
-8
-73
-14
-17
2
-61
-73
-33
16
6
-43
-29
79
73
-4
4
-16
14
-10
4
-16
-6
17
7
-38
18
-7
8
11
0
-103
-36
-71
68
-6
-16
-28
-6
2
0
10
52
-14
9
-9
-62
24
-8
-10
14
-1
-35
-1
-11
-78
-20
-55
-68
37
-45
-23
-30
24
84
-8
10
-13
-41
4
79
-16
-26
7
-22
29
-18
-41
-4
-78
-3
13
19
-21
33
20
7
-9
-7
-39
24
-10
-64
-14
12
-13
22
-41
6
43
-2
-1
9
-44
-25
6
-13
-44
44
13
15
20
-46
11
-7
28
53
-34
84
7
20
-10
-3
20
-22
3
-59
-60
6
1
-9
85
28
66
-9
-28
27
23
26
-10
-52
34
71
-46
15
-20
21
17
32
-42
30
102
-24
57
-30
-35
31
127
56
-41
-56
-1
-4
34
26
40
-20
-1
-10
38
53
127
-26
36
-25
-20
0
19
81
51
13
-4
8
8
6
17
-26
-22
-18
11
-19
18
7
0
28
6
-16
-33
62
-90
-62
2
-112
-7
-55
25
-20
13
20
-12
24
-25
-70
22
34
-9
-25
23
27
56
-38
-41
-2
-7
21
1
49
-18
64
32
-16
-18
-7
-64
48
-5
-47
-77
-17
-55
1
-50
33
-26
18
55
-51
3
17
8
93
13
-17
17
10
-60
-44
-30
15
-55
-127
7
36
51
12
28
17
-72
30
84
74
-1
-99
27
-14
46
-10
76
-52
61
11
-45
-43
7
21
29
-22
16
-24
12
18
-12
-6
4
-59
-24
-34
17
47
-46
56
11
-43
3
19
-6
-19
-16
-12
1
81
20
-45
-14
-4
13
-28
-4
-23
18
3
8
36
-4
-12
-18
47
3
-20
40
1
4
-5
6
-44
10
8
35
10
8
15
-16
46
-19
-39
61
-51
24
-1
21
-6
19
-28
-3
-15
-8
54
2
41
46
-10
60
36
-99
39
-34
11
107
19
-118
-24
-27
-28
19
-69
-13
10
-13
121
-25
-23
34
-15
-26
-2
-62
11
-33
-12
18
-47
-53
-53
37
-1
0
-5
-32
10
-19
-40
21
-17
-5
56
22
49
-84
-54
27
-25
74
14
-12
3
-6
-23
21
-51
-9
5
73
76
-61
25
19
31
-14
-19
-4
19
-30
25
-17
-22
0
-11
-31
15
16
25
-8
5
-4
-89
-21
-11
4
21
25
-13
39
23
18
-26
-7
6
74
35
60
6
-17
21
-1
-49
-5
-46
-2
-3
7
-36
13
14
-39
-22
-4
8
-20
127
13
-23
-4
23
4
-4
11
-30
-52
-42
-5
-44
30
25
49
-12
-7
33
-3
-35
10
-40
-65
-39
-24
3
-72
-52
-55
67
0
-12
23
43
41
46
4
-11
1
29
-13
-5
22
62
23
1
11
-15
-35
-22
-39
14
-68
16
65
-24
42
-18
-1
19
10
-30
32
5
2
-36
-34
9
-89
-33
1
23
31
6
3
-39
23
22
40
37
10
9
37
-19
-16
7
74
39
-65
37
39
20
-6
-46
4
2
47
-12
-25
0
-75
-15
-48
-77
63
-26
-22
24
9
16
15
-9
-31
18
1
-26
-53
-43
-11
-4
22
-31
90
-2
117
25
-35
32
-60
84
-14
-30
-68
-8
46
73
5
-11
34
-28
-3
-22
7
8
-7
11
19
34
15
17
-37
60
-53
-11
25
-104
8
-16
-3
41
6
-5
32
-29
-21
-36
-15
21
2
14
7
64
59
56
17
17
18
-15
13
44
-3
41
-12
-37
-11
2
2
-13
20
21
1
22
5
-19
25
2
-19
-3
-84
-26
-64
-43
19
-34
-3
-48
-15
23
18
29
29
-18
42
20
-12
-6
-21
-3
-22
0
-19
27
-16
-23
52
2
-4
-7
-52
-32
2
75
-25
10
9
-8
51
-23
27
45
54
-15
18
-55
76
-17
-1
47
-25
-78
-17
-20
-19
32
30
7
-37
19
0
98
-119
38
-1
43
-108
-9
58
-41
95
56
94
-47
-78
-79
-63
-53
-53
-89
-57
-62
-44
57
-48
-51
-14
-19
-10
-38
-9
11
-25
-2
-5
-4
-40
94
-17
16
29
72
9
-81
-28
64
-5
15
34
-25
18
35
15
-58
6
33
44
-10
46
55
-39
-12
-32
-20
19
-16
-7
-21
25
15
1
3
-72
12
-25
-59
11
-2
29
-18
41
-43
4
-37
21
4
-42
-11
39
-3
-15
37
26
-10
-23
54
75
54
11
19
-39
3
29
23
21
-17
-2
29
58
48
28
-32
81
15
-28
-13
-18
81
-39
40
-39
106
-1
-15
-21
-51
26
-16
-20
51
-22
0
-22
11
-35
-75
-16
57
-71
-26
-31
50
-17
-67
21
-22
-16
-11
-67
22
14
19
37
11
57
24
3
10
40
-22
-24
65
22
90
-82
127
-6
-16
23
-15
-2
8
-28
11
-22
-4
20
-4
23
19
-12
91
-29
-66
45
-25
-35
24
54
-6
8
2
14
-26
-10
20
63
78
22
32
41
24
-64
41
1
1
76
31
-89
-7
-28
8
26
-37
-6
1
-10
49
16
-23
-20
3
-81
-10
-5
17
-27
17
-11
-56
-55
-127
-119
0
-68
21
-1
20
-19
15
18
33
8
-35
0
39
13
9
-6
-5
20
-42
-35
28
60
-1
-43
-40
-9
39
-33
69
4
-6
-13
5
8
103
-5
-28
-14
-9
0
13
-37
-60
-77
-3
-29
18
-13
-72
-43
88
-2
-13
-9
12
7
-4
-36
29
-22
18
-17
1
42
-68
-12
-16
18
35
-31
3
37
20
107
-19
-18
-9
14
47
-91
11
-8
-46
-6
23
7
27
-11
-1
37
-9
-92
-17
-62
-14
10
9
-11
15
9
9
-8
6
23
-4
36
34
-15
37
-27
-30
19
39
46
23
23
-65
5
21
22
-20
17
-7
78
-26
-23
5
19
9
3
-30
-27
15
-35
10
4
26
18
4
-33
62
-8
8
-6
-53
-1
22
-12
52
-1
32
41
-31
-14
-10
-16
-8
-9
17
32
46
96
51
43
33
38
-37
20
52
-19
37
3
-16
-8
3
30
-7
-51
-22
-32
-40
-3
73
-99
10
-48
21
70
-11
22
-2
-31
-109
-53
38
8
-32
49
10
-5
7
17
9
-5
-14
56
-7
51
-77
-17
9
93
-83
-2
-16
52
35
-127
-31
-94
-5
-16
-17
-24
-1
13
34
-39
32
22
-53
-38
44
-34
-11
8
-97
-21
13
1
-39
-22
27
25
64
-15
-59
-6
13
12
39
30
-5
-37
-17
30
-5
-9
53
-3
-60
5
59
28
-16
-15
-3
23
-26
-13
-1
32
-11
-10
-33
-28
-67
-34
-3
-38
-3
4
7
5
-16
0
-9
73
116
-24
17
-19
119
-23
-53
-15
12
-23
-4
-31
49
19
-34
12
-98
-58
-94
-8
1
-16
61
-1
51
17
-37
-7
84
-12
-16
6
26
-18
-3
11
-17
3
27
31
53
27
17
-30
-8
-86
-55
43
2
43
-15
78
-24
29
-18
-5
-2
33
-31
-2
-22
-12
-52
-54
-16
-4
85
-32
21
29
-86
51
5
-17
-63
52
74
-19
8
-47
-106
13
18
-4
15
46
1
31
11
-15
-6
-24
41
68
-25
25
55
-39
-8
-10
-31
6
64
7
-21
16
1
3
14
-5
14
15
40
62
-2
50
-1
-10
-36
0
62
-37
17
34
25
4
25
35
16
9
49
-23
-24
-67
-30
23
-15
5
36
-6
-62
-27
75
-127
-11
39
0
10
2
12
-12
1
-35
50
37
-127
-5
10
-64
29
-15
106
31
11
9
-53
-26
-81
22
-14
1
-56
-10
11
18
28
11
-20
-5
35
-58
-21
-10
-34
-14
-25
-2
-6
60
-20
38
-53
95
17
-90
-49
60
-15
-9
61
-11
-11
85
74
-21
27
32
97
7
37
-22
-9
-12
-46
3
-13
-9
17
-19
14
-48
59
-4
-32
-59
-57
-71
9
-3
-13
30
118
44
-77
65
55
-4
-89
4
-57
-24
-66
2
15
4
18
-86
27
1
-36
63
-31
31
-45
19
-57
-75
-26
-50
79
-69
-30
-16
12
18
-42
-5
-4
59
113
23
-114
53
-11
-20
0
5
-63
3
-5
-4
-16
-10
-9
-19
24
51
3
1
-6
-8
-12
91
0
49
25
-16
22
-29
5
-33
-7
-29
-31
-1
-2
-5
6
49
-29
-26
6
76
-34
-46
36
-18
6
9
9
-19
9
-9
37
105
2
-28
-47
-10
0
-44
25
-53
-25
6
-5
-34
52
-7
4
53
20
92
40
-16
-35
-35
-40
11
-45
-29
26
40
86
127
25
-62
127
80
30
-28
-22
-17
6
-6
127
7
14
7
83
-10
-50
-103
56
37
13
-59
18
19
-18
10
-45
-6
-52
72
-24
20
-28
52
13
-104
44
-22
20
-72
-26
10
-69
12
68
-23
-49
-35
-51
-46
5
55
41
78
-40
26
-2
-21
-10
11
-73
-34
4
-49
11
7
-51
15
3
-28
17
2
-25
-60
-47
52
-15
-40
-31
-10
-56
-34
-18
-84
58
7
-40
16
66
-4
31
-18
95
21
-54
-22
13
2
-71
51
6
-1
-9
48
-64
61
8
18
29
37
-53
-12
16
48
95
-27
18
5
34
6
-38
-13
-19
51
-12
-4
12
59
5
-83
36
-82
22
-17
39
-15
40
29
11
27
-4
-57
15
25
-69
4
-119
-35
53
-125
-9
-32
-9
15
39
-14
-57
-1
-27
-1
66
-8
-28
5
-2
-15
15
-25
-5
-96
-3
-14
43
-53
25
34
-37
-12
19
-17
-7
29
29
-4
-17
32
-27
70
26
20
-100
-49
4
16
-43
19
-38
107
-40
-47
88
73
5
11
36
-95
7
27
-1
-16
52
-3
16
11
-18
-9
-18
6
62
-17
-4
85
-15
-19
-9
-36
9
69
-14
-10
18
7
18
40
-7
11
14
3
33
-5
23
-5
-52
-29
-12
46
-36
7
43
19
9
20
21
20
37
48
15
-12
19
14
-105
-21
33
127
63
53
-10
-41
13
1
-10
-59
27
-82
40
-10
-15
-43
-25
2
22
-13
-15
-18
-37
-6
3
-1
-18
38
-2
27
-29
-6
51
9
56
18
42
127
46
23
-38
60
-16
-67
-5
38
-69
-7
-36
-34
-30
-18
44
-5
-21
-101
-82
73
17
-12
9
32
2
8
-20
-5
-5
-4
34
-10
67
-25
-20
24
41
-36
36
-12
69
29
-6
-41
-67
-7
-26
21
-69
-7
-28
-49
-7
18
-2
6
33
7
-74
72
-11
14
-24
89
-13
9
-15
45
44
-46
45
29
50
-7
-10
1
-2
-11
-54
41
-18
-22
-8
25
-10
22
-17
-26
12
14
35
-39
-38
-22
-100
54
-3
26
15
-52
4
-47
-24
16
-9
-51
-12
-1
-127
-52
-6
11
2
1
-38
-34
50
-63
8
-48
-61
-29
-1
-10
-8
29
32
-3
-39
-58
-8
42
16
1
-31
-4
38
-10
1
-18
-23
20
-16
18
85
7
9
-28
-18
-25
-26
6
-23
11
28
-20
-13
-5
-14
-66
-32
27
-24
19
13
1
-12
67
0
-29
-46
13
-7
-56
-17
77
-82
-1
0
29
-8
-17
-59
-4
-12
45
-14
-31
-35
52
14
-6
30
35
7
-11
-2
11
50
-77
-23
-14
65
49
-33
-47
0
65
-17
50
-45
6
-16
-39
78
42
38
12
-17
-16
-9
-42
11
8
-12
53
-33
-13
-3
35
21
63
-27
-24
-58
-12
-57
26
34
-7
-99
-77
-18
-2
23
-101
27
-18
-22
15
12
17
-3
4
-69
-41
-72
-2
24
45
41
62
-5
25
-18
1
-20
26
16
-6
20
69
-111
-14
-32
66
16
-8
-28
98
8
16
25
21
31
-27
5
-25
12
-26
-7
33
33
65
-38
37
51
-40
4
-46
81
-35
8
-28
-30
-17
21
-99
-1
-6
29
-61
-16
-78
-24
-4
-47
-30
11
-17
-16
-93
86
30
72
30
22
-33
-19
-33
35
-15
97
80
-85
-13
-114
-27
20
7
55
-39
-14
-3
7
18
-4
-11
16
12
-72
13
19
9
-28
18
65
45
12
79
-40
-49
3
-21
-38
-34
-44
9
74
30
-111
-72
35
4
-62
-40
18
-122
-28
52
9
1
10
1
39
-1
-10
-32
-42
21
13
1
3
4
-9
18
-35
-63
-127
-21
-24
42
12
-6
-35
-10
1
107
-7
23
-7
-38
21
17
29
-37
34
-53
-32
-77
-38
-15
25
68
-42
-50
11
-45
31
98
-24
0
-33
-56
-4
28
39
-9
-89
-9
-7
-14
7
35
51
-71
8
-67
26
58
-47
15
-21
26
-8
36
-26
54
41
-46
7
-60
-6
-44
-17
29
45
67
-7
-52
-49
37
-1
-70
87
-9
-64
92
-1
-5
-18
-9
-18
-6
-43
38
-9
-4
-2
-12
-8
3
22
17
28
-27
-18
0
10
-19
-57
-47
-2
-62
8
33
3
19
20
36
8
4
-50
13
66
45
-21
5
22
29
1
88
18
-44
-14
-38
0
-1
-19
0
14
-5
49
34
-12
0
10
11
22
20
3
-78
-75
8
42
-53
13
-16
-56
31
12
97
-21
-35
5
14
56
19
14
-15
-44
42
-15
-12
10
7
-3
-65
36
92
23
-3
-28
-80
-12
1
-40
19
-16
6
0
28
11
0
6
-9
6
8
-2
101
51
13
-97
-56
-36
6
-25
47
-5
-23
-113
-9
-10
2
3
28
-2
-3
13
127
-53
4
-11
-1
17
-20
47
-1
1
-61
12
102
4
6
-25
32
66
-12
-25
39
-33
-11
3
-17
14
42
14
-24
-18
-70
-20
22
-69
52
-35
7
7
32
10
-38
18
110
-21
6
40
-19
-43
30
-21
-56
-17
-22
50
-13
-10
-41
26
26
-28
-17
-29
5
-34
-30
-42
31
-14
-19
17
8
9
-34
23
18
-40
-35
101
18
-22
-48
8
26
-19
66
-6
-17
-34
-6
-24
-27
18
-6
20
3
-17
1
-4
-8
-11
-51
45
-42
-3
-14
-6
18
50
72
-2
16
-25
31
30
-12
35
27
29
1
16
9
12
12
-4
-107
-45
47
35
-45
33
-15
-8
5
12
60
-56
-37
-3
21
48
3
3
-16
-18
23
31
-5
10
16
-39
-38
33
106
-2
-1
-23
-48
-8
1
-32
11
17
72
-5
53
-42
-56
12
-5
18
59
-13
35
-5
-73
77
-48
23
-32
36
-10
9
-17
-16
-27
40
10
28
121
6
127
54
-6
19
5
35
-38
-21
-13
29
-3
28
7
-99
71
2
7
-44
-83
1
127
31
-11
-7
31
86
-34
-17
69
-29
-2
-45
-45
2
6
17
-55
5
-61
-127
29
16
-27
-51
-7
-14
-51
-24
-33
-38
14
-14
-9
24
42
75
22
-12
0
-94
-25
-88
31
3
-53
-3
-89
46
-62
-19
-98
-17
-13
64
-34
-81
-43
-57
34
116
39
71
-28
47
-88
49
-47
68
11
-49
38
-15
-8
-29
12
8
-9
-83
26
-72
-3
22
-18
27
43
45
-61
43
-9
-73
-35
35
7
-2
-32
-26
-1
26
-33
-28
-2
-1
-23
12
-26
-2
-78
-23
23
-18
-57
28
42
-43
5
21
-5
14
-3
17
6
-41
24
-24
-11
9
2
-71
-47
5
34
-50
31
-65
105
-61
-50
88
25
6
10
46
-71
-10
30
-14
82
27
-17
16
5
-10
-22
7
10
-15
11
-13
5
33
-33
-15
34
10
21
56
3
27
-3
-5
-7
4
-26
96
35
31
9
12
-42
31
0
4
-26
-5
4
53
-32
5
6
-28
-53
10
-1
7
40
19
-5
46
1
-7
27
-12
34
43
-38
9
-2
1
24
4
4
15
6
-3
-24
-14
-52
18
-18
40
21
31
29
59
56
4
1
-30
67
-11
-45
-10
0
-1
-47
10
7
-6
16
22
36
19
10
-41
-55
2
-10
8
43
-34
-29
-20
-26
31
-15
-16
-41
-2
17
34
-56
25
-25
34
30
-40
6
-38
-6
-52
-36
-18
-24
42
0
15
-1
15
10
-28
-34
-39
94
-45
4
-64
-25
-7
-41
22
-60
-102
6
36
60
16
-30
-5
-5
29
7
-24
0
-29
-28
-20
-123
-4
-4
65
-43
-37
29
9
-47
23
-5
37
-25
-52
-8
-11
-37
-1
12
69
42
-7
-43
-30
81
-17
40
-11
25
