0
-24
20
-10
-127
116
-2
-7
23
2
10
0
10
-127
10
1
17
-1
-1
-12
-3
-10
127
-17
-2
-16
-1
1
11
4
4
127
3
1
25
2
-3
11
-4
11
127
-3
-8
-2
-2
-1
-1
-4
-6
-127
4
-1
6
-4
4
-36
2
-13
-127
-6
3
-24
-1
-7
-5
-6
-3
127
-19
-5
-21
-6
31
121
28
-3
-6
-3
-30
-127
-27
5
-7
3
-5
-127
8
4
9
0
15
72
8
-30
-127
-16
9
48
3
6
-92
2
-63
-127
-51
5
-69
10
26
-24
-6
127
-122
-1
16
-9
-7
-1
6
-3
27
-127
46
-1
10
-6
-2
5
9
53
-127
30
8
2
2
-8
-3
-8
-8
127
-19
-7
-14
-7
-13
-53
-7
-45
-127
-25
-3
-34
2
-38
-8
33
-125
0
127
-28
-8
26
-13
19
-14
15
127
5
-13
6
-13
-7
9
-6
3
127
-10
-6
-10
-4
32
111
25
94
127
39
34
66
21
25
120
20
2
-1
0
-26
-127
-24
-10
0
-10
6
127
-7
-11
-14
-12
-7
0
-7
7
127
-9
-10
-22
-8
19
62
4
-36
-127
-15
13
53
2
13
58
2
-13
-127
5
7
43
3
7
-20
-10
-18
127
-12
-7
-15
1
9
-65
1
-9
-127
-33
6
-67
-1
1
-19
-4
-23
-127
-16
5
-4
2
-7
-6
-10
-7
127
-18
-7
-18
-10
4
36
3
-4
-127
-1
2
23
2
1
17
-17
-22
127
-106
6
-3
-10
-10
-20
31
-91
-44
127
-18
-7
17
3
10
1
6
-127
15
3
17
-3
6
14
6
7
-127
20
4
24
5
-2
21
-2
24
127
7
-4
-4
-2
2
-30
14
-12
-114
127
2
-28
12
41
-22
-52
125
53
-127
29
-21
-52
0
24
2
-21
-127
-6
3
30
4
-127
-31
27
36
15
-5
93
5
-13
-12
-30
-6
-30
127
-35
-7
-41
-3
13
127
0
12
20
-15
-37
-90
-26
-21
-80
0
-53
-127
-64
-8
-59
-1
1
-4
-2
30
127
8
-6
-14
-3
-6
9
-7
7
127
-12
-6
-12
-5
2
-2
3
0
-127
-2
3
7
1
-21
-45
0
20
127
13
-12
-31
2
-22
-25
26
-41
-127
114
46
117
7
4
-3
6
-2
-127
3
4
2
3
-4
10
-9
9
127
-3
-8
0
-9
-2
15
-3
9
127
-3
-2
-6
-4
-7
6
-6
9
127
-5
-7
-16
-5
-44
-53
-25
-82
-127
-65
-31
-63
-15
-17
50
127
-44
-12
-8
-23
-5
-30
2
11
-22
11
127
-8
-2
-10
0
-6
4
-8
5
127
4
-4
1
-2
-9
127
-7
-15
-33
-12
-7
-7
-1
-9
-1
-5
-4
127
-16
-3
-10
-5
-5
12
-5
-3
127
-1
-5
-5
-8
-8
2
-11
-5
127
-21
-5
-15
-7
-8
0
-5
-3
127
-20
-7
-13
-4
-30
7
1
127
-23
-32
-29
12
-1
-73
-127
-88
-111
-85
-96
-76
-109
-61
-31
-18
31
-23
-9
127
-18
-19
-16
5
8
-8
22
70
-127
8
-4
-3
-33
-103
-49
-127
30
85
1
42
-22
-5
0
-4
2
127
-5
-4
-10
-4
-6
0
-10
1
127
-3
-10
-11
-5
2
-9
-1
-8
127
-13
0
-17
-2
1
-11
-12
-18
-127
-17
0
-2
-8
-4
-5
-4
-5
127
-11
-3
-14
-4
-14
-11
-4
-21
127
-15
-11
-26
-3
0
24
5
-12
-127
2
4
21
2
3
-115
5
52
32
50
-9
-127
3
6
-13
3
-23
-127
-5
9
-2
5
-37
-9
-36
-64
-4
19
-12
53
127
-1
8
-7
18
127
3
-3
-4
-5
-4
2
-5
1
127
-12
-5
-11
-6
-21
1
0
-40
127
12
-19
-24
-12
0
-21
-5
-1
127
-3
-4
-22
-4
-6
6
-2
1
127
-9
-3
-9
0
-4
32
-13
36
127
13
-13
11
-10
-8
-11
-5
-28
-25
-24
-10
127
-7
-26
-73
-15
-61
-127
-59
-23
-53
-16
-6
10
-8
6
127
-5
-5
-7
-5
3
6
-4
2
127
-5
-1
-9
-2
-1
10
-3
6
127
-5
-1
0
-1
-25
-65
-10
-71
-127
-34
-11
-55
-11
-5
-3
0
2
127
-16
-4
-19
3
-9
-30
-6
-20
-127
-19
-8
-11
2
-10
18
-3
13
127
9
-4
12
-3
-42
-127
-38
2
14
6
44
100
39
-32
-111
-67
-127
-102
-93
-35
-123
-40
-6
9
-10
4
127
-15
-6
-4
-9
-6
20
-10
5
127
5
-4
-2
-1
1
-17
10
-47
127
-16
6
-28
14
-1
-26
-18
9
127
4
-4
-22
5
-1
2
-6
-25
127
-39
2
-12
-1
7
-24
21
-45
-92
127
10
-16
11
-4
13
-3
17
127
-3
-2
3
0
12
-16
1
127
-87
-3
6
-5
-2
-9
5
-7
6
127
-10
-8
-3
-6
0
24
-7
20
127
-3
-5
3
-9
-34
42
-25
-15
127
58
-16
-9
-20
-11
-4
-7
-17
-102
-10
52
127
41
1
6
-8
8
127
-4
-1
-13
-5
-10
11
-12
5
127
-10
-11
-11
-11
-14
-5
-2
11
127
-6
-15
-16
-4
-36
-127
-30
-77
-60
-90
-23
-77
-27
-34
-74
-32
-110
68
82
-27
37
127
1
-21
-17
-6
-58
-52
-11
127
19
-7
-2
-8
3
127
0
-5
-2
-1
5
1
8
-1
-127
21
7
19
5
32
80
18
-29
-127
-21
-3
-4
-4
-48
-121
-34
11
60
-23
19
127
10
-7
-1
-7
-2
127
-18
-7
-20
-3
-4
-16
-6
-16
127
-17
-3
-21
-6
-12
-53
-7
-59
-127
-36
-11
-29
-9
-5
-2
-7
0
127
-14
-7
-14
-5
5
-22
13
32
-127
51
1
-10
9
-6
3
-2
4
127
-16
-7
-17
-1
5
2
-1
-6
127
-5
-12
-11
3
-1
0
-2
0
127
-5
-6
-6
-5
-7
-15
-13
-16
-127
-11
-8
-8
-8
-10
-6
-11
-31
127
-8
-14
-33
-11
-34
-127
-30
-1
1
1
32
114
27
-2
10
-5
2
127
-7
-6
-8
-2
14
30
-5
7
127
-7
-1
3
12
-29
-127
-23
2
12
-4
30
107
23
-17
-41
-30
-52
127
30
-15
-1
-2
-4
12
-4
11
127
5
-5
-8
-7
-18
6
15
-27
127
12
5
-35
2
0
127
7
-16
-52
-32
-2
-30
-15
-7
27
1
27
127
17
7
24
-10
-7
-5
-7
-6
127
-20
-8
-19
-6
-29
-74
-27
-16
-49
-7
49
127
51
-3
-1
-9
-2
127
-11
0
-18
-1
-16
-4
127
-36
-21
21
-4
-33
-8
-4
27
-11
22
127
-5
-12
1
-11
12
50
6
-1
-127
-7
10
25
10
20
-38
9
69
-127
38
11
-19
4
-7
-50
-4
18
127
8
-4
-32
-4
5
-1
9
3
-127
5
4
9
6
-1
9
4
2
-127
13
0
15
2
6
4
9
4
-127
20
7
14
9
-15
-48
-18
-51
-127
-44
-15
-6
-14
-5
10
-4
8
127
-7
-6
-5
-2
2
-6
-8
127
-42
-18
-9
-1
-9
-6
-82
-9
-60
-127
-65
3
-73
-8
12
40
-7
48
127
31
0
20
-3
-34
-74
-45
-71
-127
-73
-16
-35
-23
14
108
4
-21
-127
-13
3
10
1
-51
-3
37
-109
18
127
-44
6
34
36
-16
-10
127
-16
-2
5
-7
-11
1
14
0
21
127
-12
-6
-5
-3
47
-61
-7
-9
127
-40
-6
6
9
2
44
-4
55
127
40
-1
31
-2
-7
2
-10
3
127
-18
-8
-14
-6
-7
18
-6
22
127
-25
-17
-20
2
1
-4
-3
-3
127
-12
-3
-10
0
-5
-17
3
-7
127
20
1
-39
-12
-3
2
0
11
-127
14
-2
13
0
-33
-127
-32
0
9
-2
32
113
30
-7
28
-13
16
127
4
-4
2
-8
-8
-9
-9
-7
127
-12
-7
-15
-7
-17
-97
-13
-17
-38
-15
29
127
22
-9
-16
-5
-20
127
-21
-7
-24
-3
-4
-21
2
-14
-127
3
-3
-3
-1
-28
-58
-10
-50
-127
-12
-4
-24
-5
9
29
-50
29
127
-27
-37
-38
50
-59
-83
8
0
29
-34
27
127
-14
-7
-29
-12
-18
-3
127
-15
-30
7
-11
11
-6
7
127
-13
-3
-6
-5
20
-21
-2
127
-68
-79
22
-24
3
-4
4
-5
10
127
-13
-5
-12
-2
-2
-17
1
16
127
-8
-3
-19
3
5
30
7
-5
-127
-2
12
44
-1
3
-3
1
13
-127
13
4
4
5
2
24
-3
10
127
-11
-1
3
-5
1
9
-3
-29
-127
-13
20
108
4
24
10
-32
95
24
-127
12
5
-24
-3
1
-3
8
127
-11
-4
-16
-3
-127
19
89
14
5
-14
95
-17
-76
-31
-28
21
49
127
-32
-5
31
-31
-3
9
-7
-11
127
-5
-14
-3
7
-33
32
-1
-34
127
31
-27
-53
-26
0
32
-4
32
127
11
-4
21
-15
15
-34
13
-23
-127
-9
13
-15
15
14
127
11
-21
-94
-20
2
-27
-1
-28
-8
28
-127
1
125
-24
-6
24
39
-12
-33
127
-22
-120
34
-9
-26
-3
44
-7
43
127
22
-12
24
-12
-9
4
-11
3
127
-14
-10
-14
-6
-41
42
-23
-74
127
56
35
-67
-38
5
-7
4
35
-127
30
0
2
2
-98
-127
-98
-101
-46
-108
-73
-106
-42
-6
-15
-4
-14
-127
-5
-4
4
0
-2
28
-13
36
127
15
-4
7
-18
-33
-127
-33
1
13
-1
32
108
30
16
104
29
127
50
88
-53
105
31
-25
-19
-21
-32
-127
-20
-19
-24
-26
-11
-20
-8
-24
127
-17
-7
-17
-6
-7
127
-3
-13
-92
-13
-8
-5
-12
30
127
11
-6
-8
5
-26
-124
-12
-3
10
-4
8
127
-3
-5
-5
-2
-6
23
-7
100
-127
-6
-13
25
-10
2
-20
7
2
-127
4
2
-8
7
121
-18
-113
-21
2
29
-127
20
75
2
14
2
11
-127
16
1
21
0
5
53
-22
-127
5
101
-24
-103
-52
1
10
0
-40
127
-34
6
-2
0
-11
-25
-13
-22
127
-25
-9
-25
-7
10
39
5
27
127
21
0
24
2
-42
-98
-24
-72
-127
-56
-25
-75
-18
-3
-3
-7
-3
127
-2
-3
-14
-7
-1
-33
0
29
127
5
-5
-48
0
5
42
4
-7
-127
-6
-2
16
1
-2
48
-6
24
127
14
-14
14
-11
27
127
34
-14
-34
-11
-9
-41
-18
-10
-18
-11
-16
127
-18
-8
-22
-10
7
2
7
-2
-127
13
7
8
7
-8
22
-4
14
127
-6
-14
0
-8
-41
-89
-27
-72
-127
-54
-24
-83
-8
3
-24
7
12
127
16
1
-40
2
12
28
5
22
127
17
5
19
9
0
24
8
28
127
10
4
9
-4
-12
11
-14
7
127
-8
-12
-14
-9
-18
-59
-6
27
127
17
-1
-13
-9
-7
-4
-6
-3
127
-11
-5
-12
-6
31
1
-41
120
-5
-127
27
4
-32
5
127
-9
-5
20
-15
-6
-39
-1
-33
-83
-19
-88
-127
-48
-14
-55
-3
-45
-101
-4
-42
21
-4
-9
127
58
10
-27
8
2
-127
-3
9
-14
6
-10
22
-4
27
127
18
-5
21
-1
-5
-2
-3
-17
127
-14
-4
-16
-1
-2
4
-2
9
127
-6
-1
-16
1
-6
7
-8
12
127
-8
-8
-9
-7
105
-10
-2
127
9
-98
-5
-28
-52
43
49
32
42
127
44
39
21
30
10
7
9
14
127
-9
10
-10
11
-4
-8
-4
-10
127
-19
-4
-21
0
-11
22
-16
28
127
26
-22
20
-18
13
29
-13
17
127
12
-14
21
7
22
-26
-6
127
-91
-16
13
-22
-5
6
-77
18
-26
-127
-13
6
-46
16
27
119
28
-4
-3
-1
-24
-127
-24
-31
-15
39
-120
-20
127
-23
-18
26
6
15
9
11
-127
22
6
21
6
-3
7
-7
11
127
-1
4
9
-13
47
120
4
-36
-127
113
-34
-34
17
127
-16
-8
-5
-28
-12
-8
-19
-1
8
5
5
18
-127
24
2
17
2
-6
-2
-9
-6
127
-11
-7
-15
-10
40
0
-39
121
-16
-127
32
4
-34
-8
-5
-12
-7
127
-19
-8
-17
-9
-9
-14
-10
-19
127
-24
-6
-26
-5
-2
-6
2
-22
-62
127
0
2
-6
92
96
86
127
118
72
92
102
86
8
-31
9
52
-127
38
19
-38
9
-1
0
0
-3
-127
3
-3
13
1
30
104
24
5
2
-1
-32
-127
-26
-4
6
-5
2
127
-9
-5
-15
-3
-33
-127
-22
-2
10
-9
38
101
28
-35
-5
30
-127
18
115
-26
-7
26
7
29
6
25
-127
28
3
33
4
-3
6
-8
3
127
-3
-3
-5
-8
-7
2
-6
3
127
-1
-8
-9
0
2
0
8
4
-127
10
3
10
5
-33
-41
-27
-44
-127
-64
-25
-34
-21
-3
-39
-2
12
127
3
-6
-33
-1
32
113
26
-1
-5
6
-37
-127
-30
5
36
5
5
-127
5
5
34
4
-42
-8
38
-127
7
126
-29
-9
31
-42
-96
-70
-90
-127
-63
-42
-63
-58
46
-33
23
4
127
12
-43
41
14
4
19
-2
11
127
-4
-3
-4
-1
-8
19
-8
9
127
-9
-12
-6
-6
3
3
2
-8
-127
3
5
10
5
-12
-47
-12
-45
-127
-30
-14
-27
-8
45
-33
-37
127
-44
-78
36
-25
-16
-4
11
-17
20
127
-25
-5
-5
-15
-19
29
-24
8
127
9
-20
17
-26
26
-35
-9
127
-120
-6
6
-23
-4
4
10
5
16
-127
20
2
21
2
-11
-6
-11
-7
127
-9
-9
-9
-10
0
2
-4
-40
127
-21
4
-2
-4
-8
18
-8
15
127
-5
-11
-2
-8
-5
18
5
24
127
11
5
14
-7
5
-4
7
-4
-127
4
4
3
5
-46
-1
38
-127
10
111
-39
-5
30
22
127
18
-18
-82
-12
-8
-8
-14
6
-43
12
-2
-42
5
-5
127
-11
-10
-8
-13
-36
-100
-1
33
127
25
-4
7
-6
9
127
-10
-4
-8
-4
-4
-27
-5
-16
-30
-1
-16
5
127
-2
11
-7
5
127
0
-5
1
-7
6
123
-2
-13
-127
-18
0
14
3
-13
43
-30
46
127
26
-18
12
10
20
127
14
-27
-80
-15
-9
-5
-12
-19
-13
17
-94
-40
127
-10
-13
25
-4
-4
-6
-2
127
-3
-3
-10
-6
-5
18
4
6
127
-2
-1
0
2
-6
5
-10
1
127
-14
-8
-12
-11
4
46
7
26
127
21
-4
24
4
-7
-40
-6
-31
127
-43
-8
-42
-7
13
57
20
-37
-127
-56
19
62
17
-9
-19
-6
-13
127
-18
-8
-29
-5
48
-23
-35
127
-43
-87
33
-8
-43
-8
-24
-1
8
127
-4
-8
-28
-1
-9
0
-12
-4
127
-13
-9
-18
-10
-27
86
-6
-85
127
-39
26
17
7
-6
-20
-47
28
127
-67
-2
13
-29
-13
127
59
-43
17
-1
-44
-115
6
-4
-1
-2
2
127
-5
-4
-14
-7
-99
-127
-86
-115
-97
-83
-55
-117
-44
-30
-10
33
-122
-7
127
-23
-9
28
-7
127
-2
19
-48
-7
-3
2
-5
-13
27
-9
-71
127
-3
-7
8
-7
5
127
-12
-13
39
-10
11
-27
15
15
94
9
-7
-127
-4
-7
5
-8
-29
-120
-9
17
127
-16
6
20
-5
-3
-32
-4
13
127
5
-5
-18
-5
-5
19
-9
18
127
-9
-9
-6
-5
4
29
1
16
-127
25
5
33
0
7
-11
5
28
-127
22
5
0
2
48
127
35
-25
-117
5
-2
-13
3
-8
4
-7
-3
127
-10
-6
-14
-4
28
-31
2
127
-35
-95
12
-17
7
-5
-29
4
-25
-127
-3
6
-12
9
-12
-72
-11
-37
-127
-37
-11
-55
-10
49
-36
-55
-22
127
60
-66
48
8
-5
-4
-11
-8
127
-16
-6
-19
-13
-7
-12
-9
-16
127
-21
-4
-16
-9
-1
14
6
-29
127
22
2
-1
6
1
3
-4
3
127
5
-5
1
-6
-47
127
-11
-14
60
-50
4
1
9
18
-17
-3
127
-95
2
4
-12
-5
1
3
-1
5
-127
20
-3
18
1
6
-97
18
-37
-127
-32
8
-89
20
-8
-5
-13
1
127
-14
-12
-18
-8
3
-2
5
-1
-127
3
7
-3
6
-52
-127
-29
-106
-99
-126
-61
-122
2
-4
14
-5
-31
127
-36
-3
4
-3
-8
-23
-8
-24
127
-21
-7
-28
-6
-3
11
-5
3
127
-6
2
0
-4
-5
2
-8
4
127
-23
-5
-17
-5
31
7
-34
108
-4
-127
21
-5
-23
37
-49
6
87
-127
26
32
-36
2
-10
1
-12
0
127
-10
-8
-9
-13
-8
5
-11
6
127
-11
-8
-15
-5
11
16
-17
20
127
15
-9
11
3
-11
2
-7
5
127
-5
-14
-16
-6
-6
-9
-20
-78
127
16
15
-53
-3
32
127
29
-10
-16
-7
-33
-120
-33
14
78
10
-18
-127
-13
10
49
7
-1
1
-7
-2
127
-3
-5
-6
-8
-10
-34
2
127
-10
-20
-11
-35
1
-4
12
-4
11
127
-5
-6
-8
-3
10
-10
-3
127
-96
-6
4
-3
-2
3
11
4
16
127
14
5
5
6
-23
-4
34
-119
-5
127
-11
-5
18
2
-16
11
-7
-127
-17
1
-9
8
-5
-6
-4
-4
127
-18
-3
-17
-3
-10
9
-11
6
127
-11
-9
-9
-10
34
122
20
-3
-15
9
-34
-127
-28
-4
4
-6
-5
127
0
0
-10
-7
-112
-127
-126
-117
-123
-126
-109
-121
-117
-26
-25
47
-73
-64
127
-5
-20
21
-25
-127
-26
-3
6
0
29
116
25
5
-23
6
-19
-127
-19
1
-11
2
-58
-88
-50
-81
-127
-67
-58
-88
-42
-3
-29
-46
127
12
-85
74
-2
-7
-15
-3
-11
-39
127
13
-13
-36
-6
-14
-95
-20
-112
-127
-99
-8
-67
6
-6
-11
-6
0
127
-15
-6
-19
-8
14
127
-4
4
-7
-6
-31
-98
-3
30
127
26
-11
-14
-12
-27
-121
-23
30
85
26
72
127
66
17
70
35
-3
-18
-34
32
127
-69
-6
2
-23
-2
-41
-7
-68
-127
-36
0
-38
-10
4
14
3
6
127
-10
1
-6
1
-84
-127
-47
-107
-119
-102
-45
-109
-49
5
-39
4
-29
-127
-39
7
-26
10
17
-13
-8
127
-61
4
3
-3
-10
6
22
-8
19
127
11
-5
16
5
-4
2
-5
2
127
-10
-4
-10
-2
1
127
17
-3
-17
-14
-22
-74
-24
-61
-113
-37
-127
-98
-102
-36
-109
-28
0
-27
16
11
-127
107
-3
-15
11
-14
7
-8
-3
127
-10
-9
-1
-9
-4
3
-1
0
127
-6
-1
-6
-4
-7
-17
23
-22
-104
127
-9
-11
19
-1
7
-3
5
127
-14
-4
-12
0
28
126
18
4
-10
-1
-34
-127
-25
-39
47
-19
-35
127
78
43
-17
-14
-3
-22
-8
-27
127
-35
-5
-25
-12
-4
10
3
14
127
0
4
25
-5
-8
-15
-11
-11
127
-20
-8
-16
-3
-4
25
-11
11
127
22
3
5
-8
7
-5
3
25
-127
18
5
11
1
-16
-58
-13
-24
-63
-19
35
127
18
-6
-10
-12
-6
127
-29
-6
-29
-8
-6
23
4
28
127
13
3
14
0
3
-27
-1
-24
-127
-6
6
-10
-1
-57
-115
-5
6
-9
0
45
127
5
5
-11
-2
38
-127
29
1
0
-6
-6
-3
-5
-10
127
-14
-9
-12
0
-1
-27
24
-21
-108
127
-5
-15
16
8
6
5
-2
-127
11
4
13
6
-19
60
-62
54
127
52
-61
36
18
1
-37
-4
19
127
3
-1
-47
2
14
72
22
41
127
33
10
70
15
2
-14
18
-23
-126
127
3
-8
16
12
16
7
31
127
10
6
4
7
-6
-12
13
17
-127
81
-7
0
7
56
-21
-58
26
127
48
-54
86
-70
13
-18
1
127
-110
-26
6
-14
1
4
20
-2
29
127
12
-3
14
9
-11
1
-11
0
127
-4
-9
-14
-8
-21
-55
-11
-35
-127
-15
-11
-26
-10
-4
127
5
90
105
50
31
102
-43
-6
-1
-6
-3
127
-16
-4
-22
-4
-9
-42
-3
-41
-127
-24
-4
-28
-4
-2
14
-5
-13
-127
-15
7
81
5
-32
-127
-50
-90
-117
-64
-42
-103
-30
-9
-24
1
-59
-127
-6
4
-7
0
-11
-90
-3
14
118
-23
13
127
13
6
-18
4
-90
-127
-84
13
-24
9
4
6
6
13
-127
15
6
18
6
-3
-8
-6
-36
127
-33
0
-17
-3
-6
-9
-9
-13
127
-9
-6
-13
-7
-62
-119
-54
-112
-109
-117
-54
-127
-55
-11
14
-4
-45
127
-24
0
-7
-1
-37
57
-33
-25
127
47
53
-50
15
-28
-7
-17
-94
127
-97
-13
-19
-9
10
16
10
12
-127
16
8
22
7
-116
-115
-118
-127
-114
-97
-103
-89
-78
-6
-2
-11
0
127
-14
-9
-12
-7
-13
-6
-9
-10
127
-18
-11
-16
-11
7
120
-7
117
-127
-13
-5
-22
-27
-12
26
2
28
127
11
7
2
-12
-44
-102
-45
-127
-99
-90
-23
-72
-30
-14
-57
-10
-49
-127
-43
-2
-38
-6
-8
12
-8
4
127
8
-8
-4
-7
-18
-28
-2
44
127
-48
-23
26
-33
-24
-5
-25
127
-102
-37
15
110
35
-53
-52
-32
-5
104
-127
-54
-50
-32
-7
1
-6
6
127
-18
-5
-9
-6
35
124
31
-1
-13
-4
-33
-127
-33
1
-39
1
-10
127
-7
2
-25
-6
36
-2
-38
125
-14
-127
28
2
-27
-2
-13
8
-19
127
-32
25
-45
0
0
-24
17
0
-108
127
-2
-11
9
17
-31
0
127
-90
-21
17
-16
1
-2
-25
-1
-12
127
-22
-3
-29
-1
-2
-12
-5
-4
127
-9
-6
-17
-2
-1
24
-8
0
127
2
-4
27
10
4
6
2
7
-127
15
2
18
3
3
-4
1
-1
-127
1
2
10
1
8
26
-1
23
127
4
-1
-3
4
-24
-3
-4
-39
127
24
-23
0
-4
-1
1
-3
0
127
-11
-1
-13
-3
7
-46
3
-30
-127
-28
4
-25
-4
-9
-3
-17
4
127
-100
-8
-15
-13
5
-17
0
127
-85
-7
0
-11
-2
4
56
4
-39
-127
-14
8
40
0
5
28
0
22
-127
48
0
48
-5
-5
2
-3
8
127
-10
-7
-11
-2
-4
18
2
6
127
-2
0
7
2
-4
-1
-4
-4
127
-12
-3
-13
-2
3
-72
5
11
127
6
-4
-24
9
-6
26
-16
-18
127
-28
-12
15
-16
3
-8
5
-5
-127
15
4
12
3
-10
19
-10
15
127
-8
-16
-1
-9
4
6
3
7
-127
25
4
20
-2
32
127
29
-18
-24
-13
-28
-110
-24
-3
-9
-4
-9
127
-24
0
-24
0
-41
-98
-38
-107
-127
-84
-35
-82
-25
24
-41
-3
127
-69
-10
13
-31
-5
39
-24
-16
127
-115
-35
28
-26
-16
7
21
2
-13
-127
3
2
29
2
-23
21
-1
-48
127
63
-13
-7
-21
2
-55
9
-50
-127
-43
5
-40
9
16
104
1
3
-127
1
-15
4
-6
-7
8
-1
7
127
-9
-6
-9
0
-1
7
-1
4
-127
10
-1
7
1
7
21
5
25
-127
25
6
29
4
-16
23
-5
-114
127
-9
-13
9
4
34
127
4
-16
-50
-2
-9
-11
-14
-4
-2
-12
-48
127
-48
-1
-5
-8
-8
-10
-4
8
127
-7
-7
-21
-4
-123
-127
-115
-111
-118
-120
-120
-124
-109
-11
-73
-22
-15
-11
-25
4
127
9
-11
-18
-8
-22
-54
36
11
127
1
26
-28
-3
127
-51
-86
22
-24
0
-3
-35
2
-29
-127
-31
-2
-27
-1
-6
0
-5
-1
127
-8
-5
-11
-5
12
20
-4
27
127
2
8
3
0
-6
3
-5
5
127
-7
-7
-11
-3
-6
-31
-4
-16
-127
-2
-12
-14
-12
8
26
6
25
-127
22
6
31
5
-40
-11
30
-127
61
98
-31
-3
24
-33
17
18
-127
81
44
-37
10
22
-6
9
-6
3
127
-5
-7
-9
-8
1
40
2
30
127
1
3
13
1
-5
-9
-4
-10
127
-12
-6
-16
-3
2
24
-2
14
127
-3
3
5
4
11
-20
-10
127
-97
1
-3
-9
-12
-16
-3
-6
-16
127
6
-7
-9
-7
-13
-17
3
-3
-26
-12
127
-19
-11
21
-13
-11
127
-59
-18
7
-8
-9
6
27
6
11
-127
34
6
33
3
-39
14
-15
-84
127
15
-39
9
-5
-3
6
-5
-2
127
-11
-2
-12
-3
-4
-14
-9
-61
-127
-52
2
-2
-1
7
3
1
-3
-127
7
5
12
1
-37
-82
-68
-108
-69
-127
-27
-69
-65
-34
38
0
-107
127
17
-29
10
-8
-2
-4
-5
-4
127
-15
0
-13
-5
-4
-5
-7
-8
127
-15
-3
-17
-4
-4
21
-16
21
127
-4
-10
-5
-17
3
-49
4
-27
-86
-24
23
127
16
-8
-17
-5
-18
-127
-11
-10
-2
-5
-2
36
-8
24
127
11
-10
12
-16
-20
4
-2
-42
127
23
-35
-25
-5
-12
-8
-12
-6
127
-15
-10
-23
-9
2
-14
9
-12
-127
121
-5
5
12
-3
6
-1
-48
127
-24
2
-5
-2
-53
-127
-84
-114
-81
-81
-52
-79
-52
4
-20
9
-19
-127
-5
7
-7
3
6
46
-7
35
127
-13
-6
10
-6
35
-2
-34
125
-14
-127
26
1
-27
-91
-127
-45
-85
-78
-50
-69
-91
-37
-7
-116
-5
39
-2
52
-9
-127
-6
2
-72
16
-74
-127
-57
12
-64
17
-6
14
-3
-9
-127
0
9
95
4
-7
30
-5
97
-127
-14
-86
73
13
-32
38
-40
-14
127
24
50
-16
-33
6
22
-1
26
127
11
-6
17
5
39
-33
-1
127
-117
-31
23
-23
3
-8
-29
-2
-31
-127
-7
1
4
3
1
-15
0
-15
-127
-9
0
-13
1
-17
-105
-17
-17
19
-9
5
127
12
7
25
4
22
-127
33
5
29
0
16
36
3
65
127
52
10
25
12
-11
-22
-11
-2
127
-17
-10
-30
-8
-2
-33
22
-9
-116
127
0
-16
7
-7
-30
1
25
-127
16
-7
-15
-5
-6
-4
-4
-7
127
-20
-5
-21
-2
-1
32
-9
-4
127
-15
-1
6
-6
1
-40
-2
-62
-127
-46
9
-17
3
8
81
4
-14
-127
-3
6
44
-1
-7
21
-7
3
127
-15
-3
-1
-4
-9
12
-11
-17
127
-10
-6
4
-7
1
-50
8
-7
-127
4
2
-41
8
1
-16
12
-9
-65
127
4
-12
-8
8
4
8
7
-127
14
6
14
5
-2
-9
-2
-12
127
-14
-1
-13
-1
5
27
0
16
127
1
6
4
0
-23
56
-45
54
127
35
-40
20
24
-4
127
-5
-9
-41
-8
2
-28
13
1
38
1
29
-127
29
-2
41
0
-7
0
-7
-2
127
-4
-7
-9
-4
10
-10
7
59
-127
46
-2
7
-3
10
48
8
12
-127
-15
6
40
6
1
11
-5
10
127
5
0
-5
-9
-6
3
-6
-3
127
-14
-4
-13
-3
4
18
2
17
-127
27
1
28
-1
-3
-1
-6
-32
-127
-26
27
71
22
1
-49
7
-44
-127
-64
5
-36
7
-4
-64
-2
24
127
13
-1
-29
-4
2
5
6
3
-127
13
-1
14
5
39
-1
-40
116
-7
-127
30
1
-33
-7
9
-8
6
127
-5
-8
1
-13
-9
4
-9
1
127
-12
-8
-15
-5
