5
-4
3
16
-6
9
6
-10
19
0
-16
18
17
21
-2
-3
-94
-8
6
2
-13
3
2
-26
5
-15
-13
1
5
16
6
22
-2
0
4
-12
2
8
4
4
9
-1
-5
2
8
-1
-9
-23
-13
-21
19
14
-1
-85
7
-25
14
-32
5
8
-53
-50
36
22
8
-22
-12
3
-7
-8
2
-1
12
8
-43
-2
9
40
0
-5
-45
-35
-3
-10
-1
-10
3
37
-4
-27
5
1
-1
18
0
-18
-7
-3
8
0
1
0
-10
1
10
-1
-24
9
-10
12
2
19
-9
9
19
21
1
-63
-2
-2
-24
-9
3
-9
16
-56
12
9
5
-2
3
8
-8
-12
3
-5
-1
1
-24
10
-2
10
7
0
-7
-11
3
7
-5
5
1
-3
0
-7
-3
-3
-5
5
-2
-5
-1
-1
-3
-2
-2
-5
-10
-12
0
1
25
-3
-3
5
4
6
-2
4
1
-13
2
-2
-4
4
7
-3
4
-3
-7
-16
3
-4
21
-40
-20
0
-3
-22
-1
5
-38
-4
25
3
29
-27
-16
-10
-127
37
19
12
-13
-12
-3
-50
-31
22
27
2
1
19
-8
-41
1
4
1
33
0
32
-2
-39
-6
0
-9
8
1
-37
-3
34
10
5
8
-49
-18
-102
8
-110
-5
-3
-5
1
-81
-34
10
70
12
-127
19
-62
27
-8
-4
-9
-37
-15
23
-88
-3
-19
-24
-13
-82
33
-13
-23
27
9
1
44
-19
18
-3
1
-1
27
-6
-60
-10
32
1
-1
1
6
-42
-19
-12
0
-40
-23
-5
-48
-20
-20
17
-26
23
-18
-22
-75
9
-119
-2
-7
-13
-7
58
-64
-58
28
2
-54
-13
-23
-25
4
-3
-9
-21
-24
17
-53
-8
-8
-21
1
-7
-1
-6
-5
-2
0
-1
-6
10
-5
-8
0
-2
9
-3
57
0
11
-1
-16
-1
-8
14
19
-9
1
45
-11
-11
-24
-5
-13
3
-17
11
9
4
-9
11
-49
-10
5
7
-1
10
-4
-24
-5
13
-38
-1
2
-8
-6
-1
-4
-7
7
27
0
0
-35
11
-23
-19
-40
9
7
17
-3
-4
-29
-3
-11
-22
2
-2
25
-8
-41
-1
8
-6
-2
-2
-5
-1
11
-13
1
-6
-5
-7
-26
10
-21
-12
11
-3
-2
21
8
3
-95
-14
27
-6
-9
-7
16
-2
30
14
-122
-13
5
27
2
-2
-6
-12
16
-2
-104
-17
-20
14
-22
-12
-5
-15
-8
-34
20
-1
20
18
5
-14
2
3
24
0
-13
9
43
-9
-31
0
-31
4
-15
-14
2
-16
-6
-6
-37
-19
-18
-24
-7
13
-24
-12
14
2
-117
12
-11
-11
5
17
-1
-30
-3
1
-52
-1
10
-8
-1
-4
-6
6
4
0
-69
10
-2
-5
0
4
5
-2
-9
-11
-21
-1
2
21
1
-8
-1
-4
1
1
61
8
22
1
-9
0
-27
-7
-17
-2
1
18
3
4
-15
-5
-10
-18
-3
9
-8
-18
3
7
-43
-7
-11
14
-6
-13
5
-9
-15
-5
18
-1
17
-42
105
-37
47
72
6
-13
27
35
11
53
27
-18
-3
28
-20
96
-7
4
-10
12
-24
-42
4
4
10
6
-3
-40
-4
14
-127
11
5
109
-127
0
-2
0
-32
-27
-14
-36
-14
-60
28
1
-51
4
-48
-5
17
-2
0
2
41
-38
-19
12
7
4
7
-8
25
-8
43
-56
-93
-27
4
-21
-5
22
36
62
31
-12
-18
20
26
-27
16
3
23
9
-14
-96
2
5
0
3
-23
-70
-2
15
-1
7
-22
-91
-3
6
-2
-10
36
88
-5
54
49
-122
-53
14
39
97
-52
-16
39
14
-36
-4
-68
13
-39
-18
3
-3
8
13
12
31
3
-14
42
-23
-1
-19
0
-18
11
31
-10
5
-7
12
0
-68
-1
4
-10
4
15
-35
-1
7
-13
0
13
-21
0
10
49
3
-9
-45
83
1
2
0
4
-58
4
-25
-24
-46
33
6
28
14
-9
-16
13
-4
-47
4
28
5
-5
-16
-4
20
10
-41
19
-84
95
-86
64
-127
-83
21
15
47
-32
14
80
-21
16
68
-8
-118
-5
1
-29
-4
-40
59
15
-5
-14
6
-24
-64
-10
11
-49
14
15
53
50
-5
-3
-2
-58
50
-6
7
64
90
-56
-10
123
-62
-36
-7
8
-3
127
2
96
-47
9
-4
40
12
-21
73
-10
54
71
-127
-106
41
-127
-4
-56
-11
-27
-12
99
-21
40
28
30
-68
85
2
43
-4
-98
110
10
-9
-22
1
-66
-106
9
23
81
12
-19
100
-97
0
-6
-32
32
-32
-13
-2
-127
121
119
4
-112
24
-42
-28
-8
-6
105
-3
-127
43
-28
-67
16
6
-6
-48
-12
33
8
-40
54
55
-46
5
-72
-47
0
-19
8
7
8
11
-22
68
-39
-1
-6
11
-38
45
2
-9
-13
0
93
-40
13
5
27
-2
-23
-101
-65
5
-3
32
12
-15
10
-6
31
37
-74
16
-32
43
-21
-8
25
1
31
5
30
21
1
-50
-7
19
7
13
11
-52
28
-54
9
43
74
27
15
-4
-8
-78
46
2
-22
42
6
-4
9
-1
-12
-7
32
5
3
-6
-8
-1
-38
-22
6
-17
14
-5
-26
-87
95
-5
-1
-4
-53
59
5
29
-41
-37
17
-3
-83
-55
10
-2
-3
-14
75
-2
38
-5
20
-4
18
17
-12
-32
6
34
21
-74
-34
-9
100
11
-61
-47
-14
-127
66
8
-20
12
28
92
63
-2
9
6
37
-32
3
-10
2
0
-14
-31
15
-18
28
-5
-43
84
24
-3
-2
-8
8
-79
1
-86
77
-20
-50
5
49
-81
9
-17
13
4
83
-3
-38
12
25
-44
12
11
-10
21
2
28
-6
-26
13
-63
53
0
-73
-24
-9
-42
9
8
1
1
-35
-3
-108
-3
-2
25
19
-24
1
-11
13
1
91
-1
29
-9
-10
-5
-40
5
-23
-1
0
15
27
15
-9
55
-18
14
31
16
20
2
5
4
-8
4
19
3
-16
2
-2
-23
-1
14
13
12
22
-18
-8
9
-5
3
13
-8
-10
12
13
3
-2
-30
4
1
9
4
11
-1
-19
-55
2
-10
2
-1
36
-1
11
-3
2
-1
-11
1
17
-20
-17
0
0
-4
-16
-35
-14
-23
-4
-14
16
10
-4
-7
3
-3
17
-3
-6
-23
-22
-44
45
21
-70
9
4
-20
8
37
-8
8
-16
-22
35
-88
38
24
44
5
8
-5
40
-16
-24
-10
-94
3
-6
-96
-32
-1
1
5
30
6
-76
-24
-45
10
39
14
41
-20
-16
-27
0
-30
15
42
-11
9
3
0
-18
40
0
-29
20
-7
13
-21
41
-82
21
-14
78
2
-80
14
4
-1
-24
-39
-5
10
15
-1
28
-79
42
1
53
-4
8
12
-35
-36
-7
2
57
5
41
-32
-38
3
7
13
-5
10
-21
-11
-46
-1
-12
7
3
35
27
-25
0
12
-3
-22
-8
12
-9
3
-9
34
-16
9
8
9
-2
8
26
-65
-14
23
48
7
8
9
5
-23
17
-25
-7
0
20
-16
-32
41
0
5
-39
3
2
-18
-17
7
2
-11
9
-1
-28
-27
6
-2
0
-1
29
-2
-13
-11
-22
2
8
-1
11
6
-7
5
0
-3
-18
-12
-4
-16
4
0
-17
18
1
11
12
-7
22
7
21
-49
1
-25
2
4
-51
8
-5
-4
-23
38
-12
6
-58
1
-58
32
80
6
-70
-3
2
-8
44
-10
-7
8
-52
6
-52
-70
67
-7
1
-2
33
6
-86
-20
-112
2
11
8
9
-31
-25
-23
-1
-44
28
11
-21
31
-32
-5
25
43
-25
-14
25
-16
38
7
2
-127
-14
37
12
-36
-76
12
-4
18
-63
-21
3
10
7
3
-36
-18
84
-35
-5
3
7
13
13
-25
3
11
39
3
21
-15
45
9
9
5
-4
7
80
-6
-107
-2
-28
6
-11
-29
-38
-23
0
-17
-17
-6
-20
-42
21
-16
-34
24
6
-10
1
-1
11
-31
-17
-107
18
35
14
-11
11
2
9
0
5
-18
-5
-4
-4
5
4
28
8
2
-7
-3
9
3
-25
-2
-5
3
-9
-1
-4
15
-15
-3
-2
0
6
-1
-13
0
-4
0
9
-1
-13
13
31
2
1
2
-2
2
-3
11
-8
1
-3
4
-3
-3
8
-5
-6
-13
-1
-10
4
-3
0
18
-8
-4
-1
2
12
-9
-5
8
-4
-12
17
41
50
-11
-31
-8
5
8
-28
0
-14
-11
10
3
-14
3
-24
6
-1
1
3
0
-42
-2
-48
5
-23
3
-24
-10
-10
-6
2
-6
-1
-21
-24
-29
10
5
-7
6
-4
13
12
-10
17
2
-14
-61
-40
8
-1
-4
-16
-1
5
-15
7
-18
11
-1
-20
-11
11
8
46
-13
-13
-6
7
12
-2
-7
-6
-17
-45
5
3
10
-10
-6
0
1
-5
3
51
3
-58
-4
-5
1
-31
-22
-21
-5
0
-3
-12
-2
-21
-7
-19
4
6
1
-10
4
1
-3
2
9
0
-46
10
-6
3
-9
8
11
4
2
11
-72
-107
2
-54
30
21
-8
16
-5
7
-36
-6
-18
2
43
-41
-97
25
-1
12
-57
-20
28
5
-1
17
5
31
50
18
2
86
3
-6
92
-104
-6
-1
-6
47
49
-23
-49
-9
-66
-46
2
19
40
4
-44
-12
-7
38
9
49
-18
5
14
-36
5
5
-38
1
-44
-112
-10
86
3
27
-58
7
50
37
-44
10
-2
10
68
69
23
-1
3
52
-67
-48
59
1
4
-13
8
3
97
27
8
51
6
10
-52
-20
-4
-2
-4
-4
-127
7
93
45
-71
61
-2
-70
116
21
-84
-16
-17
83
2
-81
-14
2
-5
-32
-3
-5
26
-7
71
-31
-6
-20
-7
-3
-44
25
7
31
-36
8
12
-17
39
-51
62
-36
5
-28
-20
-28
39
-1
10
-7
1
-33
57
6
-7
-36
-4
-17
-91
61
-10
1
23
-58
56
-12
-49
-6
-19
-37
14
-37
58
4
-58
-11
2
-15
-3
14
-3
31
-2
5
16
3
-31
6
-70
-94
-20
-89
-77
-37
34
8
38
-29
42
-5
-11
-18
60
-66
125
3
-1
-3
-57
-7
-82
4
-4
18
3
28
43
19
8
10
5
-9
14
49
6
0
-8
89
-39
-2
54
15
50
39
-6
-90
-79
17
-53
9
-9
41
7
68
-27
-6
12
-41
0
6
100
-72
-81
-87
-31
118
-60
-32
-15
15
105
-36
34
-9
-7
28
98
126
64
-106
2
57
-73
18
-100
0
-7
-10
6
-64
97
-9
26
-55
14
1
89
-69
7
-3
-15
-57
16
25
-102
-75
83
-118
-19
103
-24
17
-127
5
15
90
-4
-33
-9
-32
-25
-23
-12
3
-58
-27
106
-16
-12
-81
40
0
-27
34
41
6
8
3
11
-3
57
-58
-54
45
1
-25
-26
2
-46
-9
-9
-7
-1
-86
67
-24
-9
-42
-6
-21
5
-67
-3
-3
48
-73
24
5
64
-23
42
70
-1
64
20
4
-96
1
-1
-3
-1
0
14
8
-18
20
11
7
31
11
-10
-35
-18
-3
50
-8
18
11
20
-10
12
11
5
-4
8
-38
-24
-21
-3
-2
-13
14
45
1
0
2
0
8
2
5
-2
-49
-2
-22
-85
83
8
2
-4
68
-52
13
11
-13
-6
-5
-4
78
-34
2
-11
26
7
31
9
-7
-13
-13
-3
-5
-4
3
-76
-15
-48
-5
-13
25
42
-1
27
40
49
-21
19
6
4
-1
21
55
-78
-57
2
16
-3
29
41
-4
-1
-5
-1
-34
11
-22
7
-31
0
-37
49
75
15
2
-10
-48
53
43
-45
26
-20
52
-12
-50
-60
13
-47
10
-9
11
1
29
19
-31
-20
5
-18
2
39
-4
47
27
4
-16
-38
10
1
35
1
-20
8
-8
6
-6
26
-35
-14
78
3
-10
-3
25
13
-6
-4
8
-3
-6
8
-32
-1
9
-1
-27
34
-6
-5
-1
22
-16
-16
-11
22
29
-15
-28
-5
-24
-37
1
-35
1
7
-3
-2
-51
5
-7
-6
13
23
5
6
3
-50
-5
2
-17
1
20
-30
-3
-38
30
0
11
-22
15
4
20
-20
26
-21
-2
-64
-8
5
-9
-25
31
-30
16
18
21
4
1
12
37
-16
-29
6
0
-9
20
14
-20
-32
1
-24
-33
-6
0
0
-8
-7
10
18
-10
4
-27
-55
52
38
-39
-66
6
-4
-17
49
-4
15
23
-43
29
-63
-2
81
63
-15
5
-3
-51
-19
-39
11
-27
-80
25
-38
-22
7
37
6
34
-51
-29
-8
26
-26
-5
1
9
-78
65
11
-25
3
-47
-37
7
-3
8
1
33
4
-16
9
-9
-6
10
7
6
4
18
21
104
-2
13
-61
1
-4
13
-18
3
15
-21
7
11
-13
6
15
-4
-3
-7
11
-2
-11
5
3
10
-57
-8
-10
5
-8
22
17
15
-35
10
-2
17
-18
-12
-5
-5
72
16
11
-26
13
-1
12
11
30
-13
12
1
2
8
-33
4
11
-6
-24
-11
-2
-20
-15
41
2
5
-35
0
-24
22
-71
-24
-6
-8
-38
-42
43
16
67
-59
3
-11
-1
-2
23
-14
27
-12
-62
-45
-55
19
-12
65
-22
71
-49
12
-8
-4
-16
8
7
24
72
-65
29
9
-7
36
-24
0
-7
1
13
42
-8
-9
5
3
-4
19
-42
45
-4
54
-46
-1
-10
-31
-127
-15
1
-61
63
10
-5
17
54
-73
-28
13
96
-2
11
0
-5
15
-8
7
-7
-25
-127
34
-10
32
-13
127
-45
66
-97
-40
-10
-23
-78
-42
32
-30
-24
-78
27
7
-18
-30
47
20
82
-39
3
-64
-3
14
19
-12
-2
3
11
70
-3
-67
80
-4
-76
37
-65
-2
18
7
-21
30
3
-6
7
-43
12
-19
-87
-7
22
-4
1
-19
-2
16
-39
28
-77
-10
28
-6
0
60
-57
24
-58
59
11
5
-29
9
15
-32
-58
-1
18
-14
19
14
-26
11
-75
29
-27
21
-1
1
4
2
15
9
25
21
7
33
4
-32
-16
9
-17
7
6
2
-44
-24
2
12
33
22
35
12
66
-30
-2
-1
-1
-22
19
-16
3
-15
-42
2
-24
-20
-1
36
42
42
-38
-29
-13
-4
-17
6
-1
-12
-21
75
16
-11
-1
14
-41
-15
24
-21
-5
0
-8
14
-12
5
-8
15
25
-5
-8
31
-8
-3
-19
-10
-51
-17
12
-9
43
6
-15
-39
-19
41
3
9
-30
-24
-11
10
-17
4
-10
28
-19
17
-83
6
3
-4
0
43
-8
29
-70
-28
-1
-25
-36
4
11
-13
41
0
15
16
0
-22
45
-3
-46
37
-3
20
-32
-35
-16
-4
-15
7
-17
-47
-12
-48
35
-1
-59
27
-22
-5
-23
14
-7
12
-16
29
-20
18
1
-6
-127
3
-19
6
-16
27
-6
-18
25
-21
-44
-9
3
-5
-2
19
-50
4
-46
31
13
0
-10
19
-1
0
-17
-20
5
26
-2
6
-14
9
14
-17
5
-31
-12
-1
-2
3
7
-11
-12
-28
6
16
-18
-16
-17
6
0
7
-5
15
67
90
6
41
-37
7
-28
9
69
18
19
-1
4
12
-38
23
87
-26
3
-25
-49
-3
-26
2
3
0
9
-26
-57
13
19
-111
18
13
-127
126
-1
0
5
-85
-62
20
59
11
47
43
-6
-22
-46
15
35
-9
3
-8
16
-61
-32
13
15
-49
11
12
53
8
17
83
18
-97
-19
41
-51
17
15
47
28
-5
5
-31
-109
-55
-15
21
1
-28
-53
-13
-62
7
4
-1
6
-39
-111
30
5
-53
11
-1
67
85
2
1
-2
51
116
20
-127
-58
71
-57
-2
60
-101
7
86
-13
8
72
12
82
27
52
-5
-7
5
11
-24
6
-75
23
9
35
6
30
-5
-3
-7
14
34
-7
0
-11
-57
30
-69
27
-1
31
-13
-1
-46
-6
-6
-3
-4
38
-60
35
-11
34
-8
-19
102
-49
10
2
-19
46
-56
20
59
3
26
38
-2
19
-71
8
54
0
5
37
13
-26
-7
22
1
19
11
0
36
12
75
49
9
62
74
-5
17
20
56
-26
-29
-8
-9
26
-42
51
-127
-11
2
-44
-54
36
66
9
3
-11
11
-15
-81
4
20
1
18
-4
11
-76
3
1
2
-127
47
20
-42
-28
-50
-57
0
96
80
17
43
1
7
5
0
-105
-23
-28
5
-47
20
-7
-127
-29
54
67
11
-127
70
-40
-15
10
-28
-24
7
-7
-6
27
-127
-127
-76
122
1
-85
-47
36
84
12
4
-13
5
4
-127
-12
13
54
11
-19
-120
48
9
1
-22
92
-35
12
99
74
-89
114
-1
-113
42
4
106
1
-17
68
-21
76
60
-16
-28
-6
8
7
52
-10
-127
3
6
77
-34
-46
-7
-18
-45
-1
6
-1
-7
-6
-74
52
51
-79
-4
12
5
1
41
-7
-6
15
-8
106
-60
13
-19
37
-14
-46
45
96
11
-3
-57
42
-18
6
-69
18
-69
-69
-1
-51
-19
14
79
5
-6
-4
4
-5
-8
-19
6
25
-7
-3
-33
3
11
15
7
-18
-51
12
35
26
7
-26
-14
-19
1
-22
10
30
31
6
5
-9
-9
-8
-31
1
7
-5
2
-7
-25
6
13
45
6
-10
89
-66
-1
1
8
-81
53
-1
-23
20
19
14
5
-83
39
12
7
-12
-12
-35
7
7
-4
-16
9
-3
5
-1
76
0
21
17
1
8
-40
-2
27
4
-21
-14
-34
1
1
-2
-37
-60
81
64
1
-16
17
-21
-36
0
5
4
-2
32
-32
-9
2
24
0
-30
-52
-76
-1
1
-4
37
-78
-24
58
-37
32
-62
5
51
67
13
24
-6
9
18
3
-12
11
-35
4
4
1
2
-36
9
-64
-8
-10
2
35
-10
7
-6
-13
-7
-19
11
-2
9
-29
44
20
-127
-3
8
13
-13
-5
-5
0
7
-3
41
7
-9
-12
-4
-8
-17
-37
-4
8
0
-7
2
15
10
-18
-20
27
33
-4
27
39
12
29
9
-2
-16
10
48
-4
-22
11
9
43
-5
15
1
41
-31
-1
4
26
-27
-17
28
-55
-7
-2
-10
-10
65
-9
7
-14
12
21
-30
-24
2
-2
-18
37
25
-23
-21
-28
-19
-2
20
18
27
-33
3
30
-60
-13
-15
8
-27
13
1
8
-18
-32
32
-2
-36
-21
6
-26
23
-14
6
-46
-64
-31
-9
35
-3
-11
-11
-40
-20
0
-5
-20
-2
-37
11
0
41
6
-8
-1
-49
-8
15
16
-34
25
22
-1
0
12
-34
64
1
-9
-8
-18
-6
-6
1
18
1
42
6
7
-76
-1
20
-30
-6
-37
3
4
32
-10
-41
-7
6
-4
23
40
-8
0
15
44
-51
-69
8
-9
3
-5
10
15
1
0
-3
-2
3
14
-23
36
-4
-2
9
4
5
11
-13
0
12
-5
-8
11
12
-1
-25
1
-14
-1
-2
9
5
-6
-7
-2
-14
1
-25
-12
-14
4
-9
20
23
28
-8
-5
-13
13
17
-2
3
12
0
-17
-23
13
-15
-14
8
35
-6
-28
1
-5
22
28
-20
-5
-13
-18
43
63
17
57
-47
3
8
-13
16
-10
5
35
-43
-23
-23
-37
-12
9
45
47
18
1
-41
-29
-4
1
18
-16
34
11
15
7
-40
-10
3
-9
-46
-1
16
-2
10
-17
-26
24
-15
-3
2
41
61
-15
-17
-20
25
-70
26
-20
3
5
-16
-42
-7
-1
2
19
21
14
-18
19
-23
-13
-8
-16
18
-8
-6
-6
19
-12
29
-29
-1
-2
0
127
3
-5
1
-12
9
-6
-29
-1
8
-36
15
-2
-127
-5
15
7
-11
19
-22
3
-11
-5
51
-11
22
-7
-6
-59
13
-2
32
49
27
-127
10
9
17
2
10
15
7
4
0
-3
-5
-4
-19
-28
13
0
-2
2
-12
9
-1
-16
9
2
0
19
-1
-1
-34
42
-16
-10
31
20
3
1
0
13
-9
12
-1
-9
-65
14
-10
-8
14
-24
13
9
-7
7
-29
-9
2
4
0
21
17
5
-18
-12
14
-12
2
-42
12
-9
-6
17
3
7
5
-12
-7
4
0
29
16
2
6
5
-5
-1
4
-6
-12
-47
2
25
2
4
30
-29
3
13
-15
0
8
2
-2
-20
-34
19
7
-5
2
-7
3
18
23
-10
-12
4
6
19
12
-2
-1
8
6
-16
3
2
-15
10
9
22
12
-36
-6
4
16
-26
8
8
1
7
3
3
-9
-23
-3
6
8
4
-17
8
-8
-13
45
-32
1
5
-3
4
10
-6
-1
10
31
9
12
-3
-2
-6
9
0
-9
-6
-29
8
10
-28
2
9
10
3
-19
7
-18
19
14
-4
11
27
-14
6
24
-4
3
8
-26
11
-1
6
-7
12
3
0
-1
9
-5
-7
2
-44
6
3
3
8
7
9
6
15
-24
7
3
12
3
-1
-22
21
-7
-1
-4
12
-7
-1
3
5
-12
-18
-5
3
-30
0
-10
19
15
7
0
-5
17
3
12
-17
-9
1
-6
-12
-15
7
-5
-2
14
13
-7
-15
10
18
12
-19
21
-5
-17
30
8
-38
10
33
32
12
11
-27
50
9
20
-31
14
-1
-22
-72
-32
-32
15
12
68
1
24
7
14
9
-37
-22
40
-10
-21
28
-1
-12
7
14
-35
-31
-3
-12
-71
-14
1
-4
-19
-10
6
49
-13
-7
-16
-99
3
3
-31
17
-3
0
-10
43
11
-8
7
-50
30
-111
36
-72
92
5
-6
-6
-22
-37
-39
-19
-27
33
26
-83
-50
3
-36
-34
64
-9
-87
-16
19
24
31
-21
54
-37
45
43
21
-19
-20
-34
-39
-39
16
-12
46
-14
28
35
-45
-13
24
-46
-4
-11
30
17
45
-54
23
14
-1
-30
12
-41
-22
-2
-13
13
16
-39
-4
-52
16
17
-6
-4
-15
-17
14
16
-3
29
-4
-22
-15
23
-37
-53
9
-7
-19
-19
11
8
11
-11
-8
77
14
21
25
19
-1
6
1
65
-26
-6
18
-7
-15
-21
2
5
9
-4
-50
-6
-40
-2
0
-38
18
43
5
-43
46
-76
10
7
-25
-88
-21
70
19
-34
-77
-26
-3
6
-38
41
-1
7
-16
37
-54
-56
49
33
-36
-12
56
4
-6
24
1
24
15
-7
62
38
-46
42
-18
10
38
1
2
-15
36
12
73
15
-32
-2
23
-6
11
-83
72
-4
68
-54
50
33
-47
86
-7
-7
-94
90
14
-7
33
61
-44
37
19
-108
-58
2
5
-15
29
5
-7
39
12
82
47
-28
45
-1
-104
-33
59
1
-96
7
-3
49
-17
-16
35
-6
-34
46
-10
-46
-40
44
7
122
-76
29
-93
-9
-17
-21
-11
0
-21
66
80
5
-74
115
90
-85
64
37
2
49
9
-30
-3
-4
-5
9
-14
29
-58
17
-18
-9
-3
-12
5
-12
13
-12
2
44
0
13
5
-12
-61
-18
22
2
127
-14
14
8
-27
-16
-11
-63
-12
14
7
41
13
-52
9
-121
46
7
16
-17
38
13
-3
9
9
6
32
1
31
12
1
-58
18
4
-1
16
-4
-47
-4
14
19
53
5
27
18
-64
-14
5
-8
1
-54
24
-24
17
26
16
-16
-1
-19
-8
-46
-35
12
-2
-17
6
-9
1
4
-10
-31
-13
35
-3
7
13
28
-58
14
48
-54
-18
-3
13
43
-6
20
-1
17
34
-19
7
10
-4
-6
26
-24
25
-13
17
-6
44
1
0
-28
-32
3
-11
17
7
-14
-2
9
-5
-15
-3
27
-21
-24
36
15
31
-6
-15
-76
-19
15
-2
-11
11
-24
11
-20
-20
-47
-15
-21
5
-17
-17
-19
55
35
-72
71
-20
49
-11
-36
-2
1
4
23
-26
-10
5
-31
30
8
-14
32
0
-10
-36
16
-16
3
-6
21
-19
-4
3
-12
85
1
-14
9
-6
12
-6
-13
-24
-4
10
1
6
-2
-18
-42
16
19
1
70
-6
-4
0
11
-14
-14
-7
4
11
-17
-2
-9
-2
20
33
-28
-3
-48
-19
-32
-9
-8
4
-8
-8
-24
1
22
-33
-9
-7
6
43
-1
3
17
-1
9
-3
4
-12
5
-16
10
9
24
8
14
-10
-9
-9
0
-1
6
-5
14
-21
-12
8
-33
-15
-9
-4
-5
-15
5
-7
-8
-9
25
-1
-3
-2
-1
2
5
1
-4
-14
1
-4
-8
-5
-3
-10
-12
14
-9
6
-27
3
-3
-20
45
26
-29
-6
8
-3
6
-24
12
-8
-13
1
9
4
-5
39
-11
4
16
-2
-3
-2
-14
0
-24
-26
16
-8
-19
4
0
57
-1
30
5
-8
5
16
9
-47
8
8
1
-14
-41
6
3
12
21
4
-2
10
20
5
7
-6
-1
-6
-1
12
-25
7
-4
3
70
18
8
-26
6
-1
-2
0
26
-4
3
13
6
21
0
32
3
-6
2
9
13
4
-7
-16
27
-19
2
-4
-23
-6
9
83
9
28
7
6
0
13
-8
-34
-10
-19
-10
-8
-39
-2
-17
-6
11
12
2
4
-13
6
-3
-4
-13
-5
-13
-10
-4
6
-13
1
37
4
-3
1
-7
-8
0
3
-20
-13
-1
9
-16
-15
34
41
-10
-14
-10
-5
13
-9
3
-5
-28
-40
-39
-34
22
2
27
-29
21
47
-4
-33
0
30
29
-60
15
-17
-22
10
22
-6
26
18
9
9
-7
3
15
-16
21
4
-1
10
-8
-10
18
-1
15
-3
-1
-53
-12
-20
-10
-1
-38
1
-1
-6
10
0
-23
-6
-22
19
28
-8
-3
-9
-45
-1
0
-18
39
-53
14
6
22
-6
75
-25
17
127
37
15
-15
95
-17
-99
-31
10
0
-1
-4
-20
-13
-18
9
-10
-4
-3
-7
-7
-16
-3
4
-1
8
-1
47
-9
2
25
0
-28
32
5
-2
3
5
13
3
3
-1
-17
-15
15
-4
-19
-17
4
-1
4
-10
8
3
-2
-6
-30
2
20
7
-6
31
-17
21
58
4
18
0
48
-1
-52
-22
22
-10
15
-19
5
-15
-2
7
-1
6
-12
-11
-3
-13
-11
4
-10
10
2
45
-3
-12
-12
-26
44
-10
-12
-4
8
10
8
-15
6
-5
5
13
7
21
43
-25
3
-11
4
28
3
10
1
-4
-17
-19
-18
-9
-10
19
32
45
34
-28
-20
-7
20
1
-43
-7
-11
18
15
-1
2
17
-6
-16
4
7
3
-1
-11
-22
4
-1
-4
-13
11
11
-10
0
5
14
-49
-3
-2
0
-1
-14
-1
-6
-1
-1
0
10
-22
-23
-18
1
1
-16
-4
15
-12
-1
14
23
-35
4
-4
6
3
29
-33
30
50
26
12
-2
45
-9
-54
-6
-8
-1
17
39
-3
-18
-9
-25
4
4
-7
-22
-19
8
8
-7
-11
10
-13
36
-14
1
-12
2
-6
23
20
-3
-6
-1
1
-3
2
-3
-4
1
8
11
-31
10
5
0
-6
-5
-4
-5
11
-35
-20
3
-12
12
1
2
-56
-3
29
-57
-6
16
19
2
-21
6
1
10
11
40
-2
3
4
-9
-12
-12
0
12
-9
10
10
-2
2
15
-1
-17
3
0
0
-24
37
5
4
11
9
12
-45
-19
19
-28
44
20
-22
-12
6
30
24
12
1
7
42
26
16
29
1
27
-24
-8
-16
15
9
-29
13
8
49
8
14
17
-2
48
35
-23
38
1
-12
4
23
-28
-54
-42
18
5
31
59
-23
12
-18
16
-91
-31
-15
19
-55
24
28
-12
-1
22
-40
21
9
4
28
36
52
32
-44
-11
31
58
44
4
-8
-67
-10
6
34
-29
-6
3
37
-21
-45
6
7
-68
14
-32
0
27
23
-23
-6
9
4
14
74
-10
23
-30
-1
-96
41
34
-58
-24
68
-90
29
-15
7
7
111
-54
8
-33
13
15
0
48
-10
-12
18
18
28
-18
10
-45
-9
-8
5
4
-3
-7
8
3
-7
-32
3
-13
5
26
-5
-47
40
7
-28
-1
5
-38
1
-2
6
1
21
10
1
11
-40
21
38
-9
-21
12
-3
-46
-13
6
-60
30
24
58
26
-9
-10
8
-20
-58
-3
-2
7
-11
-8
25
1
-4
-47
28
-30
-12
-10
-8
22
-22
46
11
45
-43
-10
-1
10
8
54
19
-42
-39
10
2
-44
43
12
13
-8
-59
24
-33
21
-20
22
7
1
51
3
58
71
-4
9
-6
-82
-63
43
29
-1
25
67
5
-51
10
-21
23
80
-37
-8
-1
-52
21
33
-31
-31
-5
70
-45
16
36
-5
-3
-97
-16
-5
-5
78
-12
-23
10
8
60
-18
-18
-33
-35
-4
22
9
1
32
20
-19
-127
24
-57
-20
21
33
-7
-13
36
4
-35
127
0
11
-4
81
-127
-50
8
40
51
127
32
-26
-15
40
-20
-127
-108
23
12
49
6
-31
71
-36
-15
-19
13
8
5
-10
20
-4
19
13
-16
10
-12
-49
6
-5
2
11
-17
33
85
-11
-22
-4
-26
16
22
-11
-66
5
93
10
16
28
5
-4
9
1
-10
59
-5
-8
20
-29
-72
18
-36
47
-90
47
-71
18
-3
-8
-6
49
-48
4
7
23
-18
-11
20
-11
-15
33
-7
-10
-36
-11
43
-46
11
22
11
8
-16
3
-13
-9
-13
5
2
5
-32
-1
3
-30
-12
19
2
27
-41
4
-41
-16
-20
13
8
2
45
33
-42
34
2
15
4
-14
-15
10
4
-7
-20
16
-33
22
6
-13
24
8
-45
-18
-32
3
-10
21
-32
-29
9
-25
5
0
-5
-7
-34
45
-26
6
-1
22
-12
4
-16
9
6
-43
-2
4
48
-11
9
7
-9
8
6
13
-65
2
6
11
-7
23
3
-5
24
-6
37
57
8
-6
29
-42
-86
1
-37
10
-36
38
29
-5
6
15
-3
18
-77
9
30
7
-1
-4
9
-29
9
-2
-19
20
2
-3
11
-2
-8
-1
-16
7
5
10
-10
-3
29
-3
-3
-23
-43
-14
3
-18
12
8
15
-4
-35
3
59
5
4
23
-3
-1
20
-16
-13
35
12
-15
-3
51
-58
-6
26
22
46
4
3
-2
-8
-7
-6
-35
-69
8
19
5
-15
-15
0
-2
0
3
12
20
3
-6
-4
7
-1
-8
28
13
5
-3
3
-7
18
-9
10
-8
-11
-19
-2
-34
8
7
5
9
6
-60
-16
-11
5
-11
25
-30
28
-10
1
8
-3
8
11
3
-21
7
0
-3
4
-16
5
-11
-15
4
1
0
-8
-5
-5
-19
21
-39
8
19
-2
-4
-6
-22
-6
3
13
-1
-3
32
-8
-53
-20
-13
9
-14
31
-19
-10
27
24
-1
-8
-51
-3
10
-7
-57
8
-60
-6
7
0
-53
9
13
12
-10
-9
21
25
-11
1
-1
-22
-11
1
7
-7
-20
0
1
-19
-20
11
-6
17
-4
3
11
14
-24
18
11
-5
3
-9
2
-15
-1
-13
-3
0
32
-24
-15
3
-6
6
-4
12
0
1
6
-4
15
4
-15
0
-1
-14
-61
5
-42
-1
-3
-13
-29
-18
6
1
5
-6
18
36
-9
-9
0
-23
2
-2
7
2
-14
3
-14
-13
-5
4
1
17
-3
-4
1
-9
-8
7
18
-3
1
0
6
-5
-12
17
-9
8
-20
28
-21
2
5
-10
-12
-18
6
17
32
4
-3
4
0
-9
2
-10
18
-2
-66
-19
8
-1
-52
-2
44
-11
2
1
22
-19
6
20
-5
-6
-7
0
6
3
-15
-12
-2
7
-1
-10
16
19
3
7
33
57
-43
3
36
6
-6
17
-5
0
0
-5
10
22
23
-20
-33
-4
9
-11
-7
-39
-3
-13
-12
-1
16
4
19
-6
-18
-6
4
1
-83
38
8
-4
-127
-22
127
-69
9
19
27
-16
8
-18
7
-19
5
-7
-11
-3
-11
17
13
13
-9
-18
-10
32
-12
-16
1
52
26
4
6
7
3
-5
1
1
4
-11
-4
14
26
-10
24
-21
7
-3
3
5
-7
-9
-32
-28
6
11
20
-7
-9
-17
-19
26
-49
-5
3
12
-35
8
45
-21
-17
14
21
6
-16
-5
-13
-18
-1
9
-19
2
-16
-4
4
-3
-2
-8
0
3
-2
8
-22
12
27
-18
5
-14
-2
-6
-3
8
-4
20
2
-12
-35
13
-25
6
-8
-6
7
15
10
9
-14
12
-9
-12
21
4
0
-13
-29
3
-41
14
9
-1
-30
-15
24
-9
5
-7
10
15
4
4
10
7
7
2
-2
-12
-2
1
-9
6
7
-21
-23
-5
11
12
12
10
10
-16
13
-4
3
-5
-1
8
-4
-23
-9
-19
-50
-7
11
24
0
0
13
-3
5
4
-16
-6
0
2
9
13
-2
-8
44
4
-44
25
-1
-10
-45
6
49
-38
14
-12
15
-23
10
-16
-6
-5
-5
3
6
5
-4
-17
-5
-4
-2
-3
16
9
-3
-1
-33
-5
52
2
-14
-3
-6
-11
4
1
0
4
1
-11
-1
27
63
14
-1
0
5
-12
2
-15
12
3
-2
5
-8
7
5
-3
83
8
-26
-50
-15
2
1
9
25
-5
-8
-8
10
-17
-9
10
-1
8
-2
-12
7
-6
-10
-4
12
-8
2
3
1
-23
-2
-15
-5
4
29
-11
15
7
3
6
23
-116
40
-48
-73
-8
-18
11
-32
21
-81
-36
-27
10
-28
36
-114
13
-2
-30
-2
30
44
6
0
-5
3
11
49
6
-1
121
3
-15
-126
94
-8
-2
-2
23
14
1
32
20
64
-26
-8
48
-3
-49
-9
7
-9
47
4
-52
-18
0
-4
10
17
6
7
-6
30
-88
50
86
16
-10
-15
-24
9
31
-125
-50
-8
-24
-60
-46
23
-27
0
10
5
1
91
4
0
-1
5
-2
65
1
-7
14
3
-13
81
22
-10
-2
-21
-69
-84
-8
-64
-53
109
46
-10
-62
-127
-36
4
38
-4
32
-6
58
5
-21
-44
-1
13
7
-12
2
-26
-10
9
-44
26
-3
-3
-25
7
10
-65
-7
5
-6
-30
7
70
8
-3
12
20
-19
36
2
4
12
-1
-13
22
9
-5
-63
-3
-18
58
-96
-4
1
20
-8
59
-13
25
19
46
-35
6
-24
-31
-14
16
33
3
2
2
-17
0
2
-18
-4
9
3
48
8
32
-127
73
-51
99
62
12
33
12
-32
-7
-83
7
21
-40
30
123
0
0
-60
-18
38
-54
5
-7
-14
5
9
51
-1
10
67
9
15
-20
-17
-3
0
10
73
-66
11
-2
-58
-96
55
-7
-123
77
-23
11
8
5
88
8
-93
-37
29
-7
19
2
-7
-91
-18
2
-83
92
98
-21
107
-13
-40
52
-32
10
-127
1
31
-76
-50
72
-96
1
16
-7
81
-127
2
-26
-9
3
-36
83
-8
27
-80
13
-14
-92
79
6
-6
-41
-46
53
20
9
107
-127
-127
-19
111
-4
-18
1
27
-3
88
-1
104
26
18
-59
-11
-1
5
43
-5
-35
0
17
-49
-59
44
-7
-67
24
5
17
-35
17
4
-38
30
-74
71
0
25
10
46
-44
-1
-12
5
-3
-9
45
6
1
-50
-1
-13
81
65
-2
-3
27
-3
12
-11
-11
-20
-22
71
-9
31
-44
3
5
28
-3
4
3
-18
7
-2
-33
-10
-4
10
-18
7
21
-33
46
3
-39
-53
19
22
-7
-2
65
-46
4
-14
-15
-7
17
-23
3
-22
0
-58
10
0
3
-7
0
4
23
-2
3
-28
-2
-18
97
-83
6
1
3
57
-54
12
-20
40
28
-12
9
77
53
2
2
23
10
-5
5
-46
-11
39
5
19
0
1
39
25
-22
-10
60
30
-1
-72
23
-36
33
-10
83
-81
7
-4
-18
-29
-103
-23
0
-6
-8
-90
26
-4
-9
1
-4
-30
49
7
2
-44
-4
-29
-87
-44
8
0
-10
-12
77
4
77
-78
17
37
1
-46
73
8
8
21
-8
-33
-7
29
5
14
-29
8
-13
7
-23
11
-26
31
17
-8
51
-42
3
-47
-15
0
33
-27
9
8
-3
36
-7
72
0
15
3
-34
13
-5
-8
4
-4
-10
24
-3
5
22
1
-15
-13
23
2
-2
-4
-20
-15
1
-55
21
-6
-20
-4
-14
10
0
-10
26
3
-25
-2
25
0
20
-25
1
-7
-2
-27
-22
50
59
12
45
-5
-13
46
4
-41
-40
-8
26
98
-77
4
-11
-16
-10
0
45
98
26
15
8
-7
15
-4
12
1
-4
-4
-18
-4
-26
-40
40
-9
0
10
-36
32
-71
53
24
2
-40
-18
44
0
67
36
31
61
98
6
-14
108
-69
-46
37
-14
41
37
31
-56
36
3
-63
-62
-25
92
-3
17
-100
-2
6
21
60
33
6
-19
66
5
-58
58
54
19
8
-13
35
8
81
12
14
4
-33
1
-14
-4
11
-2
-5
34
32
-23
-81
-91
19
11
70
-15
16
-4
35
17
14
-61
40
10
52
-80
-84
12
-33
-1
-2
-3
-10
17
-1
2
36
-2
-9
22
16
-4
-22
2
-6
7
46
-8
8
1
-39
-1
22
-26
21
3
4
-10
6
0
-39
-9
-8
-3
11
-4
18
59
5
-2
-3
-40
0
-7
-29
64
-28
8
-18
-2
-41
-11
-24
-6
14
14
-11
-12
-27
11
-24
-34
0
-27
-14
51
-7
78
26
29
-14
-4
45
-80
16
-26
99
-1
15
58
-32
-28
6
-5
0
3
51
56
-49
-4
1
-17
7
5
49
6
13
4
-4
3
-69
-7
-35
-13
-3
15
-40
59
-82
-8
-27
5
25
-29
-51
11
19
33
24
-56
33
43
-39
55
-40
-18
20
-26
54
-57
127
-78
-13
24
5
69
54
-16
19
28
44
-3
5
3
-92
14
-15
-2
34
6
-56
16
-79
-2
0
-16
42
8
55
-4
24
12
14
9
-44
-19
6
-11
-4
30
53
-87
-110
56
-28
2
-46
-13
-9
5
22
17
-1
83
79
42
36
-127
-51
23
-37
-7
-2
27
13
19
-31
2
9
23
7
-9
45
13
-4
11
-2
-3
-20
-11
11
24
-47
-3
28
-35
-44
7
-6
-9
26
-4
-114
-11
-5
-3
3
-2
16
-20
3
-5
-3
-55
-9
36
-47
-38
52
-19
38
7
53
-6
-17
-16
10
-30
43
-4
-2
16
-7
-43
6
-10
-21
-10
-34
44
3
-3
-54
25
-30
-69
-10
-1
33
14
-9
10
105
-16
12
13
-2
4
9
-56
44
-10
-2
13
-16
0
2
-6
-8
-3
10
1
14
25
6
-16
2
-10
-17
-6
-54
-22
19
5
6
-6
22
-17
-9
9
1
9
-39
11
-4
-9
2
-21
3
-5
35
25
-39
-36
-23
-1
42
-25
-15
-29
10
46
36
-3
-5
-2
52
-11
-18
24
-37
3
-18
-62
41
21
-11
10
15
-4
3
-32
20
-4
6
0
16
-2
-41
-11
-2
13
26
5
-53
15
22
-1
7
3
15
-9
-6
7
-6
-26
-26
11
-8
-26
-6
-16
-16
0
-3
-8
-46
-11
-32
-4
-6
-13
3
-18
16
19
-16
-14
2
0
-3
-12
10
7
75
-4
-11
-42
12
-4
-13
7
18
-11
-70
-12
4
-19
-3
-8
39
-15
-1
-12
1
-2
-13
2
-21
6
-15
2
4
6
-11
11
-16
-3
-13
23
-48
1
9
47
10
-35
4
13
-14
-9
17
-2
-23
15
1
-87
18
-34
25
9
31
-51
-15
-116
16
6
7
-20
6
-1
-39
0
8
51
3
1
32
3
6
18
-3
5
8
3
13
-34
22
1
-3
-6
2
9
-8
12
23
-9
5
6
8
0
-121
8
-53
-55
5
9
1
-87
-87
33
52
17
-55
20
7
3
-29
9
4
-32
37
-60
-33
7
65
-42
-19
-64
-48
-27
-11
26
-27
3
68
4
-22
29
3
-1
34
3
-56
4
6
5
-7
2
-11
3
66
-3
-3
-30
3
-25
-20
-34
-62
40
4
23
-92
-15
-90
0
-41
45
19
-7
-5
35
-127
-13
14
7
-20
-18
12
-14
-4
2
-15
29
8
-24
-16
-4
7
-25
0
-4
-23
-1
-4
29
-8
1
-3
16
-14
-17
2
-2
3
0
11
4
0
-1
-13
-3
-20
7
-20
-2
-1
42
-7
13
-12
13
9
30
-18
12
-1
-7
-12
3
-2
-7
-18
2
-2
-3
-26
-2
-9
18
-42
17
17
-7
-9
-2
-12
42
-23
42
2
40
-68
46
-13
-65
35
22
14
23
-15
-4
-77
-25
10
-62
2
-5
25
-1
-47
-11
8
-12
26
-1
51
22
-47
-21
-1
-9
7
-19
-57
-4
-69
15
-29
12
24
27
-39
11
-120
34
50
-6
-7
-63
6
-4
80
19
-119
-56
-68
33
-5
-8
-2
80
-41
22
-127
-9
-38
57
-21
-31
68
-20
-15
-23
-24
0
58
-19
22
6
2
2
19
1
-79
-8
44
0
-14
1
0
-42
-65
-17
0
-53
-1
6
-43
-14
32
-24
18
29
102
-29
-33
4
-127
-75
38
-16
9
70
-23
-78
28
-1
-51
23
-22
-16
-9
-7
6
-12
-15
16
-95
-12
-2
26
-5
7
0
-4
-2
-58
36
-1
7
12
2
16
-1
-6
2
-1
80
3
34
2
-23
-2
-23
-9
-14
-10
0
63
1
-4
-38
-15
24
-40
5
12
-40
-11
-5
6
-52
25
6
9
-3
11
-1
-43
-17
2
-14
-23
17
-16
-1
-15
8
24
20
29
-2
-2
-23
-19
4
-4
-69
22
0
-12
-4
3
-14
19
-6
28
4
-1
-4
1
-27
0
0
2
-17
1
-15
16
51
2
2
1
5
12
-4
-4
7
-8
15
1
-46
-22
11
1
-27
-6
29
3
-11
-1
21
8
16
11
-72
20
21
14
15
-15
-13
-63
34
1
-81
-23
-21
-43
5
4
-26
-7
0
17
54
2
6
12
-5
-14
6
1
8
3
-2
-2
30
0
-4
3
-47
-14
-42
-8
2
-11
-11
-17
-36
-2
38
3
-35
7
-29
-12
16
-1
-45
16
6
-5
-1
23
2
-12
-4
3
-27
-2
1
0
8
-3
-12
-26
5
0
-63
-5
-3
-26
-3
4
11
-7
-7
11
-65
0
4
22
-1
-18
-2
-6
12
0
78
4
14
-2
3
-2
-37
-2
-10
-5
0
11
-2
-4
-12
4
-30
7
11
8
34
-5
2
6
-19
-14
-7
7
-1
-12
10
-4
-10
1
8
1
32
35
30
3
40
6
3
-25
39
2
32
27
5
-8
36
14
-4
-10
14
4
-64
-6
-36
-44
2
7
57
13
62
3
13
9
-36
15
38
-11
-43
-12
-3
18
-37
-25
53
33
-14
25
23
15
-67
-13
-97
9
-17
43
34
9
35
-115
-67
66
32
13
-13
-25
42
-27
-17
-10
-58
63
6
-127
5
20
127
35
19
15
-34
-11
6
-65
-52
7
92
-14
-113
-25
11
3
57
17
-64
4
-13
22
77
27
36
38
-65
-23
-1
-75
45
32
95
23
29
-13
-21
53
116
-17
-127
14
27
-44
93
12
-38
-2
-102
14
11
16
-2
30
33
20
-13
-9
52
-36
18
-73
3
5
50
31
4
-8
-63
-2
-8
-27
13
6
42
-6
-49
18
16
4
-4
10
-40
-8
-9
-1
10
9
5
-24
11
-18
-3
65
-12
-19
31
-61
8
-32
8
25
-20
53
-14
-3
35
18
58
-2
17
23
-34
-18
16
-6
15
17
49
33
11
24
4
53
1
71
64
24
-80
-39
6
29
13
24
1
-10
-47
4
-127
-40
65
38
3
1
15
15
7
6
11
5
40
17
104
-37
70
-14
3
16
-51
70
88
28
-4
-37
-33
22
53
-25
-25
30
-35
-59
53
8
-77
-87
56
44
33
-15
-19
43
-112
-45
-42
15
-5
-119
6
47
-68
47
-74
-50
19
38
127
-2
-2
76
80
8
49
-74
127
22
4
-5
9
14
-103
5
5
7
20
29
127
3
-4
-34
9
-127
64
-94
99
-103
47
11
22
31
-127
-29
-41
7
-34
84
73
12
97
67
26
-74
13
-8
-4
-57
-104
13
-6
2
-7
10
-8
-1
-69
-3
3
-31
5
-2
29
-13
-6
60
-19
10
36
-43
46
-23
15
12
-20
9
54
-8
-4
2
-47
12
50
45
23
-21
5
78
-18
51
37
92
-65
26
-18
7
32
-7
7
-25
5
-52
31
-23
-47
60
34
-57
22
-8
15
-10
21
32
15
7
-38
-64
-11
34
39
-1
-22
18
-13
-1
-69
1
18
29
-23
14
-31
18
-31
-24
1
11
-9
8
-21
-1
1
-3
7
5
-10
32
-15
0
1
26
-13
10
40
-61
28
24
4
18
-7
66
21
11
12
25
12
9
-39
-7
19
26
15
-4
-24
-40
56
-48
14
10
37
58
-37
41
-35
-8
-55
13
-22
-7
-60
23
-29
-24
37
19
-3
13
-25
-6
10
8
-8
10
6
3
-9
2
-42
11
-5
-31
14
10
2
-37
13
-14
55
69
-86
-3
-15
6
58
-3
24
0
12
-64
17
15
39
25
-6
-7
-9
4
-6
33
5
11
9
-6
-26
25
-15
3
-46
14
-15
16
-8
-10
5
-2
17
-52
-2
8
18
6
-2
23
13
7
-2
6
47
0
-23
6
-20
7
-10
-17
-19
1
2
12
-5
-13
-14
-42
46
-18
8
-10
-51
-21
7
-8
29
35
-9
-2
-13
12
-3
-12
-5
14
12
-1
43
37
-4
13
33
-13
39
-45
-15
34
27
-1
0
-31
39
-6
-1
-8
-7
3
-34
-127
-15
1
5
7
37
6
-17
-17
-12
10
-3
11
22
-51
-18
-18
-2
-20
-35
2
-41
46
5
-20
-15
30
-3
-29
28
4
20
14
4
-52
-4
-80
49
28
-127
21
4
27
-44
-36
-18
12
-18
-5
55
-111
65
29
76
5
8
-2
-22
-35
18
-5
-12
4
58
-90
-47
-8
5
4
17
5
-65
-12
-46
6
21
9
20
20
29
-28
-1
-25
50
-26
-38
-81
-8
2
43
33
1
-9
22
6
11
-11
60
-72
21
27
90
-12
-21
5
3
-16
-11
15
-7
0
-4
8
8
-32
16
-10
22
-1
4
10
-25
4
-35
19
-16
0
1
-1
-26
10
-3
0
6
2
10
13
-13
-5
-6
0
-15
-1
8
-14
0
42
-28
23
-8
8
2
5
-30
15
-15
18
3
-18
-6
-5
13
-19
-2
-7
25
1
0
12
7
33
26
43
-20
0
-3
9
-57
51
14
16
-77
19
-4
-22
16
2
21
1
-30
3
-63
-88
38
-5
4
7
37
2
-28
-30
-60
10
22
6
20
-40
-35
-8
1
-26
-2
52
-23
-38
-17
10
-16
35
-6
-14
27
-9
40
-40
22
-95
-54
-32
-5
9
-104
15
-19
-50
-104
-15
-8
3
45
13
-63
-22
124
-23
-35
11
6
3
44
-20
16
5
70
2
23
-58
61
0
4
4
13
4
-37
-10
-127
-2
-6
4
-13
-27
-51
-23
1
-36
24
-89
-30
-1
11
-6
-29
33
-16
-11
13
-6
21
25
-21
-114
68
71
8
-41
-18
6
1
6
-23
13
2
3
-55
-13
-12
-12
35
0
-3
-8
2
10
-7
2
-25
-7
-33
-2
0
5
20
-11
0
-2
7
3
60
18
-57
-8
-29
0
-33
24
-7
-16
-2
30
-34
17
-27
33
-5
-9
30
7
17
-14
3
-16
-4
0
-3
-33
-21
3
0
-1
6
0
7
-28
8
-6
-2
-1
-47
1
12
56
29
-15
-27
-14
7
6
-44
-4
3
-11
-27
1
-19
8
-20
-1
-2
2
10
2
-37
-3
-26
4
-9
3
-16
16
31
-3
1
3
6
11
-8
-16
6
3
15
8
-20
5
6
-8
5
13
14
-41
-16
4
2
10
-17
-4
0
1
5
-23
0
-1
36
-17
12
27
56
-20
-32
-8
9
17
-8
-5
-18
1
21
3
2
9
-18
12
0
1
-5
0
10
0
-68
0
-26
1
-36
-12
-13
-4
1
-10
2
-11
-16
14
-15
-4
-30
1
2
-3
5
-7
-3
-27
13
-50
2
19
-6
-11
6
-5
5
7
4
-2
9
0
-23
-4
3
2
21
0
1
-3
3
8
7
-3
-5
-16
12
2
-1
0
0
-3
1
0
-5
0
45
6
-28
3
-5
0
-28
-11
-13
0
2
2
-12
-1
-20
-16
3
2
1
-2
-9
-2
0
-2
4
7
-11
-9
-17
-20
-1
5
6
