-6102
-5121
12028
-5669
-2161
-2239
-972
-2799
5002
11516
887
3620
-6340
2641
152
-3017
-6847
-7
11039
4541
8519
-1201
8439
2194
8947
3611
315
5023
-2080
-12275
-994
2841
-3532
-1109
1325
21760
-11727
-14838
-6529
-185
12182
9328
-4162
-10634
-1423
17602
-2357
-1886
-2045
4610
80
-9002
6057
-9046
-966
4899
3501
4225
-7065
-7520
6442
6391
2046
6584
-5468
-3732
10149
-3599
-8205
-2955
483
9398
-7718
-3718
674
-1177
-4546
-9773
-4976
1536
-5983
2274
-346
7060
8486
8651
2136
716
-4637
-6084
924
-1980
1009
-6164
9372
-8882
-73
-4498
-1167
4054
1006
4982
905
4067
1934
6943
3061
2328
771
1687
13750
1672
-5272
13433
-3529
563
-4717
-5047
-6653
6537
5164
-115
-6338
-8149
-2233
18850
-5213
-8214
-900
-1401
-7265
-2828
-5894
11397
11771
-4191
3141
6256
-6434
-7739
-6746
1223
-2241
1060
-6200
1727
443
-5840
20990
-233
2015
2201
-696
4708
-9094
-20217
-6035
1350
-1642
-8277
-1321
-11398
-3919
-1953
-1789
-1161
-693
-1808
4642
-8951
14458
2552
14200
-2443
7025
7765
2903
965
-11719
-11967
4412
-8008
6566
-5743
-2815
-3512
2553
-7116
-4772
300
-8189
298
