-76
-37
-61
53
-23
49
62
-31
-84
-43
-60
-18
-4
80
-70
5
-50
-72
39
30
19
-27
6
-4
-17
18
27
4
-31
3
41
-34
26
-39
4
-13
-6
12
30
21
-54
-1
-58
32
-34
6
-3
-53
-7
-6
-13
-49
41
15
24
-7
15
55
17
13
-52
-47
23
42
-2
32
-41
-7
51
2
20
-38
8
-20
-37
-13
-48
66
-3
-34
38
-53
-5
13
-30
-6
-24
-79
-33
-33
-19
-18
-4
13
-32
24
-31
25
4
6
31
-46
40
10
-11
10
5
-2
37
0
63
-26
-22
6
13
-17
14
-48
48
-20
-21
48
-38
-45
-51
-43
-8
5
35
-17
-52
2
-15
6
22
2
45
-73
-19
-26
63
-20
13
-68
6
51
-8
4
-22
-23
35
-30
78
-25
3
-70
50
13
24
-8
71
-21
22
-24
59
4
5
-16
-34
-14
-23
6
8
-43
-31
2
-35
20
-16
64
-36
-71
72
83
64
10
45
-2
-6
-22
-7
-47
-53
-17
-16
-11
-7
-30
-20
-7
-26
66
64
-40
38
-35
91
40
2
14
-24
16
10
-26
-23
-120
-14
14
19
57
-31
29
-11
13
-49
-17
-47
10
-2
38
-43
-17
-23
-55
-2
-42
-22
23
22
-32
12
-9
-86
49
19
-11
-85
13
52
57
-15
-56
27
-61
-14
-3
-8
54
-24
35
-18
1
61
-25
-27
-20
-3
-7
19
51
-95
66
-33
-3
57
78
-17
-7
-28
-5
-22
11
-59
-27
-69
16
-44
0
19
-11
20
47
-41
43
74
-6
22
-14
32
4
-27
-54
88
31
-1
50
-95
-80
-21
-8
-38
-36
-19
53
-27
27
-66
-3
-37
-9
60
35
-27
-12
-15
7
-30
2
-49
-9
-9
86
-56
61
38
23
-6
-23
-16
-33
1
95
23
-6
-88
6
-9
-12
26
32
-1
-9
-52
6
-4
18
-67
52
61
-59
-6
12
-24
33
6
-69
-29
-10
98
-47
47
21
6
78
-3
59
14
60
55
9
-24
-31
26
-13
68
-77
22
-36
-17
-19
55
-52
-38
13
38
48
3
-47
-60
4
9
40
62
-38
18
11
-42
-68
74
6
14
21
22
19
-24
-52
2
26
-5
10
-19
-92
22
19
27
36
76
4
18
35
58
50
22
5
13
-53
-21
-26
-33
-21
13
13
-6
-35
58
2
-60
-13
-8
-29
30
16
-77
54
-64
-18
-26
-38
15
42
-32
-54
35
-11
-41
-27
-3
-15
18
-32
43
-33
-30
47
37
36
52
-48
53
57
69
48
-32
-35
32
47
-12
39
-4
-32
-23
3
-6
4
4
33
-120
30
43
-11
-4
-33
32
35
29
-17
9
33
-26
-60
-2
54
-13
20
0
11
-3
-65
59
-31
-38
-44
44
-3
90
33
52
19
45
33
6
73
-24
-25
-61
5
-19
-12
22
127
-4
43
2
41
44
14
-31
-32
76
-40
-24
73
35
66
32
-7
-13
83
0
17
-78
-83
17
-46
-61
4
-28
15
8
-34
-81
-55
-44
-30
13
-50
28
61
-13
-24
14
-35
12
0
23
-13
31
-38
33
-4
-45
9
-28
-49
29
48
28
67
-23
17
9
-12
-85
4
-6
-3
43
1
30
-9
-26
13
13
-14
-34
76
-50
77
28
-26
86
-21
11
-53
-8
8
4
-40
-40
-51
20
-3
19
4
-35
32
-26
-55
5
-22
-31
-2
3
52
41
-2
-6
-28
40
40
46
-28
-3
-7
81
-1
18
-7
-42
6
-47
-50
6
-56
-1
-36
-7
-23
-1
15
-8
80
-14
-6
83
11
-49
-9
-51
-62
19
-12
24
-21
5
-20
-70
2
54
-14
-3
-38
-47
44
-26
-5
-77
-45
-10
-7
-56
-17
-34
-9
-77
6
14
-30
27
16
-50
-59
101
22
-25
-38
-30
21
-17
-18
-9
-4
-20
45
88
7
20
24
-24
-40
-60
-52
15
-42
-82
78
18
-28
-52
-45
29
34
8
-1
-48
11
-45
8
20
-21
11
-25
48
-42
21
-39
4
5
1
46
52
-49
27
35
19
34
44
-8
-64
-15
-13
114
0
-26
-22
-11
-3
32
15
42
1
-1
3
20
46
13
33
-5
-10
16
-52
-75
-9
-24
-35
49
57
76
-127
-26
-67
33
49
54
-38
-27
72
-44
18
-9
53
24
64
38
-75
-45
-11
8
3
30
-11
9
-31
0
96
64
63
-15
-3
0
-17
18
-6
2
-2
-14
-72
-11
-20
74
-32
11
18
-9
-16
18
-108
-30
103
-20
3
-13
-93
8
-21
42
-34
5
7
1
-46
-72
0
-34
14
-8
18
-10
-54
-21
-33
30
-3
-28
-63
11
53
-61
-4
10
21
-14
-37
-5
14
62
-33
18
-14
7
23
38
49
-53
-31
-1
-24
-16
-70
58
14
-43
43
-19
15
17
18
6
58
18
-62
-93
20
-39
2
68
-45
-16
-62
-39
-13
11
-2
34
26
27
38
-10
-11
-26
-12
16
-6
37
-17
-9
6
-10
-39
24
1
-42
-25
-22
-49
-27
-11
74
-13
-9
-2
29
19
21
14
21
115
57
26
7
-20
-6
-2
-28
-9
-80
7
-25
24
-19
36
-28
64
-62
6
-38
-41
-5
42
-1
38
-59
55
5
30
-12
-36
-14
4
0
33
-33
-2
-38
34
-22
-52
-36
9
11
28
-2
-25
-30
-64
8
37
-23
7
-43
-7
-17
23
113
12
25
-32
1
-43
47
2
-62
15
84
-53
-84
-13
-18
-22
3
-32
-7
-43
16
-24
4
17
21
-75
11
11
26
1
14
-39
27
-22
37
-27
-9
51
47
15
16
37
21
-91
-48
-55
-5
37
-25
-47
87
19
-22
-9
49
27
8
-47
40
37
-31
-28
89
15
46
40
25
8
-44
22
-42
18
-72
-16
25
36
-22
1
-50
-12
-43
-16
-17
9
-51
-30
4
-35
-3
48
40
6
41
-4
0
10
54
11
15
-47
113
-14
-13
7
-60
-2
-16
45
30
6
-30
-21
-61
15
-23
-19
10
-5
16
-41
1
-24
-12
7
-10
8
31
13
-40
35
44
20
81
3
-65
-12
8
30
30
37
32
-47
-58
3
-27
-24
-44
87
-79
26
18
62
99
-41
-21
15
-12
19
-7
26
12
-8
-21
15
-5
17
-13
21
52
-7
29
-15
19
-9
4
54
-1
-20
47
-6
38
-51
-38
-36
13
-40
-71
19
77
-96
-13
39
25
25
25
-44
-8
-79
53
-17
-19
-31
2
-25
-20
-2
58
13
25
-53
26
20
-81
11
19
-22
-11
-54
69
56
-21
-13
15
31
113
46
-33
25
10
-52
-57
55
62
-19
80
-23
-3
62
-8
117
-22
4
-81
-29
7
-37
-24
61
13
4
16
-26
-47
31
26
-29
28
72
-15
-59
-27
-18
-106
24
19
-12
10
5
6
-4
3
-62
-20
-43
-33
-17
34
-43
-31
61
2
-17
-3
-48
31
46
105
-60
30
-65
-25
-20
-55
52
-25
5
-4
-47
-8
19
-8
49
-17
-40
-43
16
33
0
-80
1
-61
-28
19
-23
1
3
75
-19
-43
3
64
28
-9
-30
37
-39
-38
-14
-38
23
51
-11
-54
37
6
44
-64
21
-39
17
-61
10
-9
18
69
8
27
10
22
-127
-5
-27
26
33
57
17
44
-23
-45
-23
3
24
-25
20
-7
115
-7
-13
-64
2
-16
-64
-45
-47
-32
-4
-73
24
52
-10
26
-75
2
64
-8
33
23
48
90
-18
40
2
74
23
27
63
-30
-46
19
-21
47
-29
-18
-36
19
-53
-97
32
-26
-1
-32
51
12
2
-55
-13
-57
-48
3
5
25
31
70
-6
24
-12
-7
55
77
-64
49
-28
40
-18
39
16
-16
-16
66
41
3
27
-60
-3
-7
7
67
1
47
-4
9
-22
30
-9
39
-63
-8
-20
-7
-35
-54
-45
8
-34
-70
-69
22
21
-1
-20
59
-67
-5
-17
-18
29
-48
-64
-25
-65
27
41
-21
20
35
59
7
-74
19
-81
-81
14
-5
2
61
41
66
-31
15
29
47
84
49
-36
-47
-71
-46
-59
12
9
-14
-37
41
14
3
-15
91
12
3
8
-28
49
103
-71
48
23
-30
63
-10
-1
74
56
64
28
-7
-12
44
4
41
-4
42
27
-62
-78
-3
-25
32
-15
-24
-40
33
-32
12
-7
-46
29
70
58
54
50
12
-87
-59
-8
-42
-40
-13
-21
3
61
-8
-55
0
26
-100
28
3
30
-34
6
-1
77
-19
52
-50
63
-18
-24
-55
35
-25
51
-42
-67
1
-15
7
-41
57
-44
-97
8
-5
-26
27
-46
-19
-31
-2
-17
-25
76
48
28
-2
50
13
28
22
106
-5
-25
-55
-33
-2
7
1
-22
-76
16
26
-54
-13
95
126
0
-58
41
26
-32
17
10
2
68
36
3
1
11
-19
-21
41
-1
40
-18
-35
-6
-20
-77
-62
30
-26
-46
38
-101
-27
3
29
-69
-10
-30
11
50
16
71
-9
-14
24
-72
-89
41
42
-27
-33
-74
66
42
66
8
-87
2
8
109
35
-23
-40
60
13
-13
-15
-31
1
-12
-77
-5
-54
-4
64
30
39
-10
37
-36
1
43
0
61
-4
-37
-28
-40
-43
36
-76
14
-38
32
-35
-87
-21
-46
35
-17
18
-17
-87
-25
13
1
-46
22
95
1
16
42
53
31
44
64
-37
-23
-56
0
49
11
-52
82
55
-118
-18
-127
80
-9
14
-25
-25
19
-38
53
21
15
-22
-36
-127
75
-6
-23
76
51
-21
7
2
-80
53
-7
-23
12
56
-42
-50
38
-42
-69
9
-2
-26
38
-12
-9
14
-9
20
64
-35
34
1
11
1
45
17
-22
21
4
24
40
-71
88
-26
75
-18
-15
-45
18
-57
14
-7
-37
85
-41
8
-27
33
57
-33
-19
63
-67
42
30
32
121
-29
-28
10
55
4
-1
-1
-60
-14
-21
62
21
-40
64
-3
-37
58
-36
67
-28
-32
42
16
-83
-24
-79
15
0
-100
-49
-46
28
53
11
-3
-6
14
-3
1
63
101
44
-17
-20
-25
-30
47
12
53
27
-43
-14
38
-5
-16
-17
-57
46
32
-14
25
30
4
-12
23
33
4
-41
-26
14
-75
-55
22
-66
-49
76
-11
47
-33
3
13
-62
8
52
4
47
-15
36
48
-2
-70
19
-14
32
-15
-22
-69
-48
18
119
15
-74
13
-17
-35
5
49
39
-83
-8
10
-36
82
15
45
-72
-43
-48
-25
-55
-31
1
-18
-31
14
-34
12
8
10
87
25
-29
-25
-7
-11
-1
24
62
3
100
-67
-62
33
26
48
-7
103
22
-7
18
-26
-1
33
-8
-25
-55
97
-18
-5
-7
2
-6
-69
1
37
-14
17
37
-24
-22
-55
-29
-34
2
41
21
4
24
19
-1
14
77
-72
-9
0
67
-5
-6
10
-34
17
46
41
41
-58
-5
-16
-14
46
99
7
53
-5
36
36
22
0
30
55
9
-6
59
45
1
33
26
-62
-80
2
-29
-19
-61
13
38
19
-2
-18
79
-9
10
-7
-53
76
24
71
-3
1
-35
-12
-58
20
49
29
-17
19
-32
-7
44
-67
17
9
40
-49
0
77
-10
-32
41
43
1
19
-15
-23
22
-42
73
-10
11
2
4
-8
-40
-28
-8
-16
0
25
47
7
-22
41
118
82
-2
51
23
0
-30
-7
-27
-1
-39
-41
-28
-70
61
-44
-5
-10
77
-17
-27
-5
50
-3
-27
-15
22
68
8
18
-65
-57
6
32
1
4
14
-19
-34
-19
33
-15
-31
-95
-17
6
10
-37
9
-47
-4
7
-33
75
-11
-84
48
10
0
-8
72
43
-31
-1
28
52
1
-46
64
-17
-12
26
-40
32
-84
51
-46
19
-84
3
-39
17
-47
23
-38
22
-82
72
2
43
-97
2
73
2
-6
69
36
89
-1
-13
-57
-26
-20
-3
63
-3
36
-44
47
-36
-45
-46
-2
-18
-64
24
-33
102
-29
-38
43
-16
-8
41
-19
-13
-62
-11
-48
-72
-15
47
-14
-18
6
-15
-35
-16
-15
23
20
-22
29
-82
14
47
-126
41
21
-34
5
127
-60
-59
73
35
-65
-81
69
19
34
-65
21
12
12
-32
-26
40
75
47
-34
61
-2
-2
13
-60
53
-94
54
65
8
28
-53
3
33
37
56
66
7
-101
-19
2
-53
8
17
-113
20
39
49
-46
-36
-36
-56
-63
-35
22
-19
93
-8
28
-8
26
-16
-55
3
-2
23
4
10
-66
12
-10
-11
19
-8
-18
32
-11
11
0
44
91
38
15
-95
-3
20
37
98
52
101
-39
6
-25
-4
63
-14
-35
46
-27
39
6
-16
25
-38
107
-39
8
-56
69
-2
45
-18
13
-6
-11
-34
-35
-35
16
29
10
-31
3
-24
-13
41
35
19
-18
76
51
-42
-19
33
-30
5
-52
-47
2
45
-6
-28
32
6
-30
-17
-9
-11
0
-34
70
-73
43
-24
-23
-85
68
-77
39
-27
65
4
43
23
-13
-8
96
16
29
-80
-24
81
88
46
34
-6
68
-42
-13
12
53
11
1
-27
5
-18
23
12
22
55
56
3
39
-7
18
-8
-28
68
-75
-5
-30
47
26
15
6
-27
51
-40
74
-4
35
31
11
-24
-17
28
-14
12
-11
61
-50
44
7
-13
2
-19
76
53
80
97
58
-4
-1
56
20
43
-33
-4
93
40
38
11
-13
27
23
20
-21
-4
-31
-19
10
16
16
-57
-8
-61
79
17
82
25
35
22
-57
-23
-47
-67
-34
-127
74
0
42
22
-68
38
58
26
-65
-6
17
5
-10
-76
35
68
50
-47
-24
15
49
5
29
26
15
-38
-17
26
97
-18
-45
19
-72
-11
-7
-29
18
11
15
-55
22
45
-8
-17
-99
57
9
8
7
-24
42
127
-39
105
58
37
-40
36
-23
8
61
39
-8
77
-45
-7
14
-8
-21
-13
10
-37
2
15
12
-8
-15
-17
-29
-50
8
5
18
18
50
15
-3
-98
82
81
45
127
-41
-15
17
-3
20
-33
38
13
-8
-11
16
1
16
4
39
101
-19
24
13
-19
-13
90
13
21
-32
32
69
-25
3
-11
31
35
43
49
44
37
-37
-23
-1
63
3
22
-23
-24
18
83
7
69
18
-47
-7
26
9
36
-3
8
-38
-20
17
-7
28
-5
87
22
-43
-1
30
-4
-3
1
-41
24
46
-33
5
5
-14
-28
-12
7
36
-49
-74
52
-13
17
7
-14
37
-55
69
-97
44
-67
-8
-13
-27
52
16
16
-34
21
12
-5
4
27
15
5
-69
37
60
73
-4
-80
48
1
44
-18
-25
53
-37
-22
-9
12
-29
23
-33
18
-8
79
-35
33
23
10
-76
18
12
-22
66
-7
-24
5
34
-85
-12
-11
3
-7
28
16
-35
-51
-6
-24
-52
-83
40
-43
16
-57
89
-95
-24
99
-19
-25
32
-5
55
43
-50
9
-67
-63
71
25
29
-16
-17
-26
3
-27
67
22
-10
-69
66
-20
30
42
-36
-21
-85
44
20
28
-26
34
-23
-27
-34
7
52
-21
7
52
63
-50
48
72
-51
8
17
29
5
24
23
16
8
-75
-38
17
-9
101
0
66
-6
28
-87
66
-82
37
-30
29
27
27
24
14
47
-25
-5
77
-17
-1
-80
-26
3
67
31
-6
-5
26
9
1
-45
-50
-4
63
31
-29
-10
25
-45
-19
26
20
32
-17
-14
28
78
18
88
0
59
25
0
-39
19
44
16
27
41
-18
-31
-22
50
43
-36
0
23
-32
45
17
-1
33
-26
18
60
27
39
-14
30
-49
27
11
105
32
19
30
-44
-3
4
-69
44
12
-60
32
-12
33
-4
-29
5
-60
26
27
49
25
8
-16
-51
12
-30
-20
49
-19
24
43
-14
75
38
-35
-19
-40
37
10
-44
90
-17
34
-9
-41
16
41
8
69
36
-12
14
34
-29
16
72
-18
-37
-49
29
38
35
-38
52
-14
-59
-19
-43
1
-2
86
-10
7
-56
-7
35
-77
-19
16
2
-35
-6
29
64
53
-47
29
24
24
-48
87
25
6
12
-14
-36
-5
-31
35
22
73
-18
19
-46
6
6
-1
54
-9
-45
50
26
34
-24
-5
13
-11
-30
-6
17
5
-20
9
20
14
57
-2
-2
-44
15
42
55
-24
-9
39
52
30
-73
-87
8
-51
-37
86
-32
-29
30
-45
-12
-41
71
-72
34
82
2
42
67
-11
-41
-8
56
3
-39
12
-16
-21
8
28
-3
-48
-33
1
-2
70
1
49
-20
17
-9
-27
19
-71
43
36
20
-82
0
-12
74
92
-29
-61
-2
-20
8
60
15
3
-11
18
62
5
-7
28
72
-3
26
16
31
39
-28
29
71
36
46
2
-101
19
-32
-7
70
7
14
-86
-35
70
28
-20
44
29
-2
-9
-31
2
-11
15
-17
8
-56
41
-16
-60
-5
17
-55
61
17
-113
-11
10
45
8
16
15
-43
-8
64
-57
-66
52
8
12
10
-23
-12
-45
25
49
44
-13
25
49
59
12
-17
44
5
-38
-45
62
26
51
-4
-3
54
-53
-15
-79
12
47
-21
61
-44
-83
0
86
-30
35
76
-43
24
26
36
24
-31
11
37
-67
-68
-17
40
-53
68
-56
76
17
29
-79
-35
-3
48
14
-13
-35
-47
-6
70
0
-20
-86
22
76
-67
69
77
-76
-65
49
-21
67
5
-13
12
68
-12
60
-21
-58
26
-43
40
13
4
-65
-13
8
-19
-14
1
6
-21
49
-26
29
-44
105
-87
-10
7
31
-68
-7
-6
-23
-31
-61
-32
23
-26
8
-7
-28
19
-17
35
-28
-49
-9
18
-12
-34
-5
-16
-7
8
-8
-8
15
43
60
9
6
16
-69
-36
49
33
12
36
-58
-15
20
-45
12
-10
66
-17
-71
-19
33
-16
36
24
59
-3
46
32
-15
48
-9
28
38
70
-17
-51
-17
-28
50
7
-10
8
18
48
-60
-1
-28
-37
-83
3
-15
11
-49
29
-67
59
80
15
-49
-32
10
9
-22
3
-64
-11
-47
23
-74
-29
73
28
-7
-7
-1
8
-37
1
8
-6
-33
-3
-65
-49
-13
22
-8
9
1
-31
-4
3
23
-42
-37
-57
-18
6
0
7
-8
72
21
-10
-23
-19
14
33
38
-39
-55
2
12
19
52
18
4
-46
26
26
-39
-29
-26
-43
29
-56
-25
22
-2
20
-6
43
34
-12
1
50
-19
25
-23
59
56
-24
44
-42
-10
-16
-17
25
-52
5
-21
14
18
-26
16
4
9
-32
-6
-38
-26
27
-64
-78
-63
-16
-50
86
-99
12
18
-5
-41
-22
27
2
6
-44
29
107
-75
-38
-27
-11
21
-23
7
96
-25
-30
-8
28
6
29
-55
-67
-5
17
-8
34
-35
47
0
2
-104
28
14
-28
-23
-15
-2
-17
-35
-26
43
-61
4
-12
20
9
51
44
25
9
-60
19
26
8
15
-33
48
42
44
-21
-4
18
-82
-40
-33
13
-23
57
-17
49
-59
49
-6
6
-29
124
1
-2
14
-19
1
-67
-75
37
-35
-8
68
-30
29
-70
-4
4
-19
-51
-24
13
13
11
-46
43
16
20
-3
87
31
-23
20
-21
3
-49
-29
23
31
1
-48
3
-43
-18
11
-36
25
-27
-23
50
21
56
34
42
127
89
-27
37
-58
29
40
31
39
10
-115
20
35
53
-43
-25
-20
-44
33
0
34
-50
11
-1
73
29
-20
17
35
16
-69
50
-12
-61
-16
-31
21
-55
-30
18
12
25
40
-48
4
19
16
26
-15
-13
50
-82
-35
-86
23
-30
-36
-94
-7
-16
-7
5
-35
8
45
14
27
44
-5
-31
19
-25
14
-14
65
-6
-49
72
-2
10
-33
-26
-10
-42
2
-83
34
37
48
13
45
-33
1
-41
5
51
58
-33
-36
1
-64
19
-6
43
-48
11
92
-35
-87
-1
-67
-8
-20
7
64
108
-59
27
-2
-5
0
-18
-6
-90
-40
-45
-43
-20
49
-23
48
-63
-12
-41
-20
19
-59
32
-40
-48
69
19
-31
12
-58
-1
26
22
24
-3
6
-26
13
15
-50
-15
-11
18
-5
-16
8
57
30
42
84
25
-54
-28
9
-29
46
-83
14
-21
-7
22
-20
39
79
-48
10
-23
24
38
6
-13
17
37
2
6
-6
0
0
-48
-5
-69
-15
-26
7
-108
21
33
27
-21
-4
-10
14
7
81
9
-25
31
77
-20
-69
16
37
12
31
10
10
22
20
-70
-18
-23
-44
-3
11
47
-19
-5
-14
-63
-34
8
67
-13
12
-7
-11
49
65
-55
-5
53
-20
-68
4
-4
15
-20
24
-3
35
-29
-93
-4
7
7
8
28
-25
57
44
-92
9
-13
44
-53
9
-9
16
-5
5
-26
0
10
65
-16
-30
-16
0
40
-31
102
-22
12
-74
39
-17
30
78
-12
-25
-10
-19
4
-6
24
-11
-25
-36
46
-5
8
-45
34
103
-58
21
28
-46
-23
3
14
9
-106
-11
-7
-34
14
-25
-113
8
24
39
-53
50
29
-77
-50
-59
33
-46
58
48
26
-10
-13
-1
-38
2
73
45
-47
51
-37
4
10
30
-46
107
2
9
50
-10
40
39
16
96
-41
-24
-36
-5
-8
0
-7
1
50
-50
99
5
52
-21
-37
-24
12
-59
21
-118
-49
-28
35
-27
21
-65
-10
24
36
90
-6
-45
-16
0
103
-26
32
-17
12
10
21
-3
-18
14
-12
-54
49
-5
-20
-20
12
2
58
-36
0
-12
25
-52
-44
-43
-10
-30
25
-98
-24
-39
-8
-42
-36
57
10
28
0
4
-37
22
68
-5
-22
29
-78
33
39
-54
24
42
19
-26
-49
-6
50
-75
45
-4
-55
-19
-23
-34
14
9
-7
-99
-27
-4
-19
9
54
-18
-58
37
23
82
5
13
-2
-1
-24
-32
-93
27
-30
-4
31
-37
-23
50
25
1
-6
-27
36
-34
25
-27
60
0
2
-19
-52
-46
-53
59
22
-12
-21
25
-12
-4
-9
64
-67
-44
15
-88
56
37
73
-22
-20
31
-2
-15
9
-7
-20
-34
3
37
-88
0
-19
13
-76
7
3
-64
-7
54
9
71
-10
25
57
1
-50
-1
-13
11
-16
-19
-16
66
-14
60
32
-99
-4
8
46
34
-22
-63
-41
-19
1
17
-17
-42
-13
32
-12
18
37
36
-45
23
44
-18
-1
-5
-46
-12
23
13
-18
13
-91
39
4
-11
80
24
-17
-28
18
52
36
7
-33
-3
17
20
-1
-62
-21
-20
98
-14
13
25
6
-8
77
-22
11
22
43
4
30
25
-66
-56
-13
5
-16
13
14
-27
27
10
-15
-47
-37
-19
-36
-24
26
-5
-31
12
20
-17
0
-49
49
17
45
78
-22
-7
-12
-59
85
-21
-44
-13
-1
38
3
-9
-22
-11
-14
-16
-27
-38
-34
7
-29
21
-19
38
15
1
-25
25
12
12
-20
15
25
41
-11
33
44
12
-16
-82
-15
-2
-28
82
32
-21
16
45
-30
-23
-38
42
25
-3
0
-15
-8
24
39
-36
-41
-3
-39
-24
40
41
-32
-33
-6
-15
30
20
-31
13
-46
56
-34
9
-21
-9
38
-56
-45
-74
2
-18
19
89
2
41
46
-11
-6
-8
-95
-17
-31
-25
22
21
0
16
22
-32
-77
-29
26
-7
-48
-12
-36
-49
-55
-19
39
-36
33
-14
9
27
9
-1
-12
-5
13
-23
-23
-30
-7
10
-25
-24
-20
-71
-14
-14
-46
33
45
2
-22
-35
-29
59
-32
-1
31
30
-31
-33
-19
-11
-18
38
6
-1
28
-19
-8
-25
-12
-11
13
40
39
48
20
28
37
42
5
-46
-6
-14
20
61
16
-1
-25
-6
19
0
10
13
-36
-23
17
-16
-30
-5
11
42
85
45
-17
-41
-33
15
-48
9
-37
-20
42
-6
-46
6
1
80
-60
-12
-44
-2
53
3
29
16
8
15
52
14
-57
5
-13
9
-81
78
-45
19
44
-11
8
27
-80
-21
4
-12
-49
-5
-63
34
-29
-27
-31
-67
-44
-98
-39
-127
-25
-16
31
5
-3
19
35
53
19
16
-10
-57
38
-16
3
-7
29
-28
-106
-39
-26
36
29
-55
29
36
27
-39
66
-21
8
-19
1
20
-73
-39
-5
-64
-72
55
14
28
3
12
-25
-6
-27
-54
-21
34
20
-2
-3
-22
-43
-8
68
-10
23
69
-63
34
-76
53
49
-51
127
78
-47
-1
-40
-10
39
-77
72
1
-9
33
-73
106
57
2
52
-26
11
45
14
21
29
-82
55
-24
-7
-16
14
-77
-14
16
-33
0
15
-69
15
-25
21
-29
-77
11
-12
-35
1
34
-33
-16
14
0
-1
-56
-21
-40
83
34
-13
-26
124
92
-10
-11
78
-24
-63
23
-38
-11
11
-26
3
82
-4
-36
58
16
-71
-22
-57
13
-6
-70
-51
29
-31
20
-43
-9
61
-14
35
35
1
-8
11
-22
-51
-19
-34
6
-8
-42
-90
-3
56
-48
-53
-52
50
0
2
17
-1
-41
-38
-17
13
-47
47
-49
15
-23
-43
8
-26
-72
22
-19
37
27
-42
-5
-43
26
18
13
-26
-51
2
-26
98
32
5
59
-25
-55
-3
-16
3
60
-39
-4
-39
-7
-19
-31
24
2
21
-73
-56
33
-73
-127
41
-9
34
-32
-26
-9
-42
65
42
79
-45
51
15
63
48
-34
-11
-79
-63
39
-68
-25
-13
1
54
-3
-31
-6
68
-7
18
-34
-55
-4
63
94
-1
3
21
-53
70
4
62
-19
11
-1
16
-45
-14
-36
13
-11
3
1
-38
54
-48
42
36
-88
-10
-34
20
-22
-39
37
-61
60
-49
-3
38
11
28
-6
31
-30
36
-14
-16
19
-11
68
24
-93
6
-53
-69
2
3
1
40
-57
-33
-41
2
-75
51
0
-36
74
-5
-29
-6
77
-40
-30
16
22
-95
-28
72
1
21
18
12
-27
-38
-35
47
-38
-1
-57
-45
-9
-69
-2
12
-35
9
-27
58
-45
8
-9
24
58
-55
-45
24
23
55
5
17
-23
-6
5
1
32
26
-16
-70
-27
0
48
-10
-23
-72
2
-29
25
31
20
-18
14
-24
81
48
0
13
34
-18
-4
20
36
-56
40
-16
3
-47
-37
47
6
-36
-25
-53
19
-27
25
53
-23
-11
74
16
25
-21
14
48
51
48
7
15
28
2
-38
-73
21
84
-72
-21
-18
-7
-50
-38
-9
-81
38
56
-8
-20
-41
2
-53
-26
59
-17
-35
-33
-21
33
48
-49
6
-14
-34
-28
33
-31
42
-39
5
-18
-13
-5
72
47
-30
-33
-68
27
47
-47
-23
-53
82
30
24
-45
-41
-26
-21
66
-13
-35
8
29
5
-41
-51
103
-11
-68
-9
18
-6
-51
98
-38
-9
-12
-66
-83
23
44
37
83
-9
30
17
-26
-55
-31
73
16
17
45
-89
-3
28
15
-49
-25
1
61
13
53
39
13
-43
-7
33
-11
11
7
26
-52
-17
1
-24
-50
-36
23
-11
-74
-10
10
-40
11
51
-48
5
-22
-51
-32
-35
41
6
45
-9
90
-5
-32
-8
-47
-15
11
-42
-4
-11
41
-22
15
53
-3
14
-4
-18
20
0
-13
-12
4
2
97
-11
49
37
-17
-23
14
-19
-22
-12
17
-30
-25
-62
87
31
-15
-55
24
62
-47
10
7
0
12
3
-20
50
-17
7
17
33
2
45
-127
-57
-34
4
50
7
-5
91
20
-14
-2
46
85
5
-50
0
36
21
53
-4
51
-46
53
3
-9
-21
-47
-44
27
-31
-1
-28
-29
-50
43
10
-41
-38
28
9
-14
30
41
3
17
-37
-14
13
40
-46
20
-39
-34
-50
32
35
44
-96
-8
-19
-27
11
-41
38
15
44
21
-41
10
-9
-28
-21
8
-31
53
-31
-74
49
75
-58
-10
-26
55
31
39
20
-50
-36
-9
-49
-46
18
24
24
29
32
46
-42
-44
1
3
7
42
41
-108
-17
2
-4
31
43
23
5
21
-4
39
-24
-45
-11
92
36
32
-19
-60
15
54
20
-52
3
-14
-25
33
19
-34
-23
14
-25
5
-27
-8
13
50
-52
-29
22
19
66
-3
13
-34
10
-22
-45
8
-60
25
-8
9
21
13
2
22
-1
43
38
-16
-66
30
-25
10
33
22
-86
-27
-43
83
-28
55
-46
18
-17
23
-7
32
38
-80
101
-9
21
-85
-38
27
24
2
-37
-7
-62
-16
-42
34
-18
-33
8
68
22
45
-5
-31
0
-42
-62
20
-51
-13
-27
34
-33
-44
-38
-4
-9
-46
28
-88
8
-48
50
-22
-3
12
-19
3
36
17
38
67
27
20
20
-13
-1
106
-29
18
-61
21
-8
83
24
-47
29
43
-45
-8
13
31
-52
11
-6
95
-63
-42
19
-3
33
2
-22
39
-42
-45
39
60
29
-31
-5
-103
39
-19
-35
50
-22
-53
39
-37
99
19
-28
-4
11
-1
12
39
33
-24
1
-20
8
-24
-32
14
-1
-53
-34
-80
-43
-53
-51
61
13
36
14
-31
-31
26
-6
-47
-66
-36
-29
-36
76
2
-37
-42
-24
12
-41
-3
-22
-23
37
93
-67
17
23
35
5
7
71
64
-35
-6
36
-30
-3
38
-34
-20
6
-66
10
-20
-28
33
-67
48
8
12
-59
-16
-23
-56
-24
-45
35
-121
20
44
-32
-45
-4
-30
25
-96
7
-40
31
-44
13
26
50
-13
66
-89
-25
-30
-17
-12
21
10
11
-53
-100
25
-24
0
-13
-22
-8
-63
-35
40
37
43
36
-7
-74
-25
-51
53
-12
-20
-11
-23
3
29
36
61
22
-39
-87
-7
-26
-2
-39
-38
12
10
-16
-66
66
-42
17
53
-32
9
-17
-23
-32
-31
65
-28
-1
9
14
21
12
6
-3
-10
-27
14
29
-48
23
-62
34
37
-31
-74
-32
-14
-77
21
24
-50
-44
-41
-94
-14
-17
7
16
-60
-88
-1
-23
24
-46
3
-72
16
-8
-48
-74
-53
-25
12
44
-53
-7
51
2
10
6
-15
12
73
2
-56
49
-32
-53
33
46
-74
21
24
-95
-19
-25
-44
-62
-26
55
-48
-50
-16
58
-38
-10
-9
-30
3
-68
-95
15
26
26
66
3
66
1
-5
-4
-59
-55
-21
48
-43
20
-4
-42
8
-35
-52
-23
8
107
-28
16
65
-35
-17
-26
-14
8
25
2
-24
-13
34
48
9
-29
45
20
64
-27
12
-34
10
-68
-32
16
-37
1
26
-74
36
26
60
12
-51
47
55
40
30
18
-29
22
-44
52
-23
-41
-50
-47
68
-26
-58
-9
30
20
-45
-96
-1
-20
-89
-8
-30
89
83
10
-47
4
66
10
-49
15
18
-5
28
21
9
3
-28
127
31
74
21
44
-27
26
-24
-43
-8
17
7
30
-20
31
14
89
-18
79
9
38
22
89
-9
-2
33
90
-4
16
-38
-5
55
12
10
-105
-15
-44
-9
100
7
-13
-15
16
-33
-15
48
37
15
35
42
9
40
1
34
80
-6
13
88
-1
13
7
3
40
33
16
50
29
101
-1
-13
-6
20
31
21
-58
1
-18
57
67
8
67
-21
20
48
-31
-9
-40
69
33
23
-20
42
-15
32
22
2
-15
-61
-41
60
7
24
33
-11
62
21
6
-5
14
35
-49
4
-16
58
-64
18
3
-78
21
54
-11
-28
-9
40
-46
-4
-64
-15
-57
81
-25
22
-50
26
-10
-27
35
-12
4
41
-8
-59
27
62
59
-47
-19
34
-59
20
-45
-2
-18
29
16
57
-21
-63
37
109
57
12
-38
9
15
-86
-3
9
-4
-11
44
14
49
53
-11
-12
87
15
63
-29
-86
-7
62
-13
38
69
-64
-79
-6
13
-70
63
34
42
-7
-21
35
25
22
83
2
22
44
29
37
37
6
23
48
-40
10
-24
4
-48
14
-27
-11
81
-12
34
117
56
-19
-13
-43
-1
34
38
14
31
-3
-51
-57
24
22
-25
36
15
-50
41
25
-2
-13
34
-29
-34
-22
46
16
2
22
-19
84
-44
51
45
-4
-54
15
-16
-39
-10
33
72
27
26
51
87
-12
44
30
-117
67
55
-21
-58
1
17
13
16
54
-23
-15
0
-67
-57
5
40
62
16
27
77
-41
37
-17
24
-3
54
13
-22
-2
-29
25
66
6
-5
16
-4
-92
42
14
22
-26
41
-7
59
33
22
0
96
41
87
-23
47
-4
41
45
52
23
-12
67
-31
-19
89
4
-39
18
-29
50
-5
-2
-35
5
-12
31
-5
14
18
-8
-10
-18
30
-15
82
-2
-4
-21
-7
36
-13
-20
-2
21
86
-55
42
-4
23
5
44
1
-28
-11
-18
2
-25
48
-12
14
10
18
-39
12
-17
13
30
-26
76
10
20
56
-23
91
2
-6
-9
-25
6
18
-49
6
2
29
-45
53
-102
5
-7
3
-12
-52
76
19
65
-3
9
20
37
18
9
76
27
-30
33
-17
26
-19
31
73
2
19
68
-9
20
88
-10
21
47
-9
37
17
9
80
-19
-4
26
25
-26
46
77
-5
25
-10
2
14
-15
-25
46
-3
8
3
82
94
28
-14
-30
46
-3
19
-1
-10
-9
-18
117
-21
37
21
-16
21
-27
-18
24
78
65
35
-52
-70
-17
37
-48
-10
1
-4
-4
-1
30
108
70
-14
53
20
-11
5
-37
-53
58
-29
-71
68
45
-2
-72
58
4
-30
-2
-8
36
9
-12
-49
-36
-6
-27
-21
34
89
3
12
28
30
-27
12
13
44
-12
4
-4
11
36
-62
-1
16
-5
30
-36
18
34
-48
54
49
-7
-21
11
13
14
-9
53
36
42
94
-17
103
23
43
-32
-8
-8
33
74
9
-58
7
61
37
52
71
-31
5
21
35
34
35
-56
3
18
13
11
-70
66
-91
3
47
-29
13
-25
-14
32
4
23
-61
-11
37
-54
60
31
57
8
112
-44
-43
57
-15
-63
-47
15
61
12
92
-31
-43
-49
25
-38
-21
24
-32
-32
74
37
-2
75
29
3
31
50
-10
-33
-3
14
69
-24
-3
-3
27
5
-50
-37
73
1
12
37
12
22
47
38
19
20
-3
-32
-32
-9
-38
36
51
13
28
20
-14
5
-12
-21
60
33
-3
-21
10
21
-82
6
-30
-37
37
16
-51
-72
14
-4
5
63
-3
59
19
-40
91
20
4
47
40
3
38
-5
18
28
-20
8
-49
-23
94
55
-94
-56
54
-37
3
-43
3
-8
-64
-31
-60
32
20
-37
62
-73
-26
-14
35
-3
10
39
36
46
-19
17
-6
1
54
-84
-12
-6
-40
20
8
-1
46
-28
47
37
33
21
29
21
-16
3
19
-18
9
-31
-13
-28
-30
21
-30
15
-11
-52
-72
63
50
72
49
47
3
53
-23
-24
-55
15
4
21
-53
49
49
73
-13
-9
-3
-100
15
-18
-5
10
-24
52
23
-43
-15
35
-27
60
47
20
36
-14
15
-49
-47
9
44
72
-7
-30
-6
-20
35
61
103
-34
-33
28
26
-23
25
20
-23
42
-1
93
35
-48
23
-22
-17
5
43
74
35
-18
-1
24
30
-5
79
21
45
-31
26
-20
-12
-78
29
48
68
33
12
-34
-18
39
16
1
-65
-75
11
-52
-8
53
30
59
24
95
21
40
-10
-46
44
-36
-24
-19
10
-2
76
-43
32
5
61
34
-10
31
-32
29
-12
-54
-4
1
17
36
37
10
6
7
-1
27
13
-14
-23
31
-7
74
26
-31
0
-58
55
-27
9
6
10
113
-10
4
-24
82
-51
33
-30
17
-25
8
43
-16
20
34
54
-33
-16
22
127
5
-39
72
-88
-53
69
-32
55
33
-52
69
41
-11
60
26
-66
20
22
103
-2
-5
4
28
-14
78
5
-43
39
42
-11
81
8
-21
-19
-48
-59
28
35
-9
-3
-104
22
30
13
80
19
-34
59
-28
-38
6
-75
48
20
-13
26
-8
43
-54
39
36
-40
68
-23
52
32
-16
24
-5
25
-8
57
33
-23
-34
-56
78
-10
51
5
-16
8
25
55
-65
-40
-37
68
45
-16
-18
-48
61
72
-48
114
8
-15
-8
36
-55
-46
-18
55
-13
123
-21
-30
-23
39
37
-12
-11
-42
10
-13
-34
15
22
64
22
-2
75
-66
12
-5
31
12
13
-3
-8
32
-41
71
6
44
-23
-15
23
20
73
33
-82
23
42
-73
14
-41
3
-15
55
-30
-40
36
85
-53
-33
18
64
-2
-10
-66
0
-15
69
10
-36
-17
-4
-2
-25
-22
9
-33
-27
46
-46
47
37
-17
-9
85
39
-45
-2
-66
55
-34
19
8
8
24
-11
11
32
9
-9
-7
-64
5
27
-21
-27
-48
32
44
-23
-102
-25
40
-15
38
14
-56
70
40
-57
-22
-19
38
40
-38
-60
15
9
9
-19
-53
-88
-51
-112
22
14
-2
-51
23
4
3
0
-16
-66
-43
40
12
-36
19
-7
-11
-28
15
-23
55
-45
26
28
-7
-28
-53
-18
-12
9
57
4
23
-27
59
-10
-12
49
10
32
-79
-48
-19
33
16
34
35
27
-33
-60
32
22
11
-42
-72
-18
-36
-12
-5
-29
59
23
17
27
15
22
-18
-51
-48
-120
-39
-65
43
-54
-48
127
-11
6
49
19
33
39
-2
-31
-54
-56
-60
-52
38
5
-83
23
-77
19
-36
-40
82
22
-27
41
76
33
-2
1
10
-33
43
49
-42
-10
-45
60
10
-19
26
-18
-6
-10
-19
22
53
-89
12
53
30
-60
-7
-26
-29
-6
-19
-10
-19
9
85
-53
14
-38
-34
22
-84
69
-43
65
77
-8
1
-103
90
13
87
-69
-73
51
-26
18
-51
37
-60
-43
2
-33
12
8
-27
9
13
121
-18
-46
-38
-1
-24
3
-20
27
24
21
38
-13
49
-55
30
-4
46
-127
-51
-22
15
20
-61
-61
-21
-2
-19
-54
-10
0
-9
56
-26
-34
-48
-10
20
34
9
19
-6
-42
-3
-47
-53
-9
90
106
76
-19
35
20
29
-52
-59
6
36
-81
-38
66
-91
-80
-49
31
-62
-82
47
55
-73
-37
-98
-23
14
-80
-31
40
28
22
-77
-1
104
72
-52
6
-64
-22
0
5
45
28
2
9
18
14
-4
28
8
-3
-35
-83
1
3
76
44
-84
-34
-57
13
33
34
-22
19
49
35
-74
-14
-49
39
7
9
-72
0
-29
42
-8
29
-33
-19
-10
16
-28
24
-2
-43
-33
-11
105
25
49
-41
-3
-33
-62
-31
-35
50
-24
-70
53
-22
-17
-47
-33
27
-28
-37
34
-48
7
-45
-14
-20
-33
-14
-27
-44
13
-34
-43
-35
49
25
10
-67
69
-112
-18
10
-94
-4
10
-31
-69
-59
-33
-57
-77
10
40
-7
-52
-9
29
3
21
50
121
17
-75
-40
5
-7
17
14
-32
-77
6
-20
-10
-27
-2
45
5
-20
-26
-10
32
7
48
-73
46
10
20
22
19
-50
-15
5
52
17
27
-20
41
-1
-89
-39
35
94
32
0
3
-6
-65
20
5
8
61
-33
-18
-54
33
-55
-41
79
9
10
15
6
3
62
51
76
28
14
-34
-20
41
53
-56
-4
-69
-30
-65
37
-41
51
-86
18
6
-127
34
46
91
-37
28
1
79
105
34
11
-72
-6
11
28
-19
-6
-112
19
7
-4
2
38
-44
51
38
35
12
17
-40
-24
36
0
-18
-53
11
-16
27
16
-86
1
-5
-20
-2
20
-26
69
-10
-107
-39
36
-54
35
31
-61
-64
-127
-45
4
-8
28
-15
-15
-109
-11
0
-64
8
-26
-101
-16
-45
-57
-1
-80
19
-1
-127
23
25
9
57
14
-1
-45
9
-36
57
-12
-68
9
-23
-20
-82
-22
2
-20
-49
-28
85
7
48
-36
9
-25
-118
-44
2
56
-5
-48
-5
-57
27
31
33
-6
52
48
-23
57
37
-16
-16
-56
-2
4
24
-30
46
-6
-9
-89
-26
-5
-9
-37
-19
-79
22
-73
80
-127
54
12
40
-4
-43
8
-88
51
24
-21
27
20
5
-37
6
-37
-105
-34
102
-20
29
29
1
-17
40
-21
79
4
-42
68
69
10
22
12
-2
30
-58
-34
16
-92
-47
47
-25
-127
-52
-61
-3
23
68
13
45
46
79
28
-60
36
-18
-47
-15
-24
-10
-13
-64
18
-15
-52
11
-48
5
-11
31
-76
48
-29
12
-27
58
23
-42
-55
-35
-2
-30
-66
-60
59
-16
18
6
-6
-87
-21
7
-13
-12
17
-5
-27
-26
43
-3
-45
-81
-90
-54
-55
-58
6
7
38
-92
12
-36
5
-15
-13
-19
48
75
-122
-106
-9
33
15
25
-5
-18
13
-11
-45
-46
0
12
12
-13
39
25
-41
-97
102
-30
48
-101
53
27
13
-48
-66
-47
27
44
-45
55
-20
-2
-77
33
-16
-11
0
86
34
-41
26
-1
-8
-39
-75
22
-17
-20
-59
-2
46
6
31
-62
-34
-10
-4
-23
-50
-40
3
-4
99
54
-47
-57
26
59
44
-34
3
16
4
-22
-50
-13
-62
-53
-8
3
-6
19
-19
-23
26
50
-5
100
-95
-72
28
-19
-25
-43
46
-11
56
3
117
-18
-7
-91
21
8
-49
-54
-53
-50
-45
-4
31
-96
72
-26
-2
-51
18
-78
-45
16
-63
-2
-89
0
6
16
-30
-67
-21
20
63
116
73
37
-69
-78
-28
49
1
-15
36
-64
-31
47
29
4
-27
-20
-14
-61
-2
30
22
97
-21
-47
6
-81
-33
26
-62
-15
6
-14
-121
-13
10
-20
-43
-27
-9
53
71
53
-45
22
27
16
-43
6
-40
38
-10
-42
-38
32
-78
-31
98
-67
-54
-63
14
62
73
-7
41
-27
-17
35
-86
-114
-2
18
3
-31
-46
-26
-38
-20
1
57
-25
10
55
-72
-9
-43
52
-14
33
-3
10
66
-38
-51
9
111
63
-50
-63
127
-4
-54
2
55
-38
-2
-41
16
38
-47
87
34
44
46
-11
10
-72
14
84
7
-6
-39
73
11
-50
10
5
12
-18
-1
-8
-33
14
24
23
8
7
0
-61
36
-43
-44
-19
-91
-22
-35
-28
-13
-19
-46
-56
-66
-13
-18
-28
61
-113
35
-18
-3
64
0
-14
19
44
43
-60
47
19
81
35
-9
49
19
14
24
-90
63
35
-61
-32
-10
11
-64
96
51
-10
0
-16
-40
-18
54
-30
-15
-18
-34
72
3
-15
13
-16
-30
-15
-9
-1
38
-25
23
-88
-50
-27
29
-26
3
-34
-68
112
36
-37
-73
-47
-41
45
99
-29
-66
-26
-37
38
44
-17
-73
-33
37
-17
-72
82
21
16
-11
31
-24
1
14
-58
9
21
72
-40
39
-4
-1
-50
-35
69
15
-25
-6
43
15
33
-85
27
-58
44
-19
52
24
-48
30
-59
-61
67
32
-94
3
2
-33
-62
33
3
12
12
-84
10
27
51
54
-32
17
33
-8
-34
-11
-17
-8
44
9
21
-17
34
86
119
44
-1
-35
22
30
8
-25
-42
19
-72
19
-31
35
23
80
87
30
-24
49
19
-8
27
25
43
6
7
-4
28
20
21
8
-29
-56
22
16
-82
37
4
49
49
21
101
13
-57
-34
-17
40
-30
-36
-51
-11
-18
-11
5
5
44
-5
27
1
-42
67
83
-24
-78
29
-16
-46
-71
52
11
-9
42
31
12
-23
46
-8
-1
42
17
22
45
51
-1
24
62
6
13
31
-19
-12
35
7
11
15
-4
-28
37
59
-38
43
-24
5
28
-26
-54
0
-39
-36
8
-23
15
-49
127
-56
98
-1
-46
52
-12
43
-34
-33
-19
-35
-34
90
47
-58
-60
-33
-38
5
61
-43
-2
49
-41
21
-20
9
60
81
1
11
71
-20
9
13
28
-17
-45
31
51
-53
-3
75
75
30
61
-11
7
21
-22
-62
27
31
38
23
7
-86
24
-46
-100
25
6
-74
15
25
-30
37
24
-7
32
-19
58
-22
-5
-40
-36
33
19
-57
-34
-1
-47
33
-45
-12
-15
26
11
23
-13
36
17
48
64
-40
-28
28
-18
-7
23
-20
43
-42
10
33
-58
7
-6
27
65
26
51
-13
-22
-27
10
-29
25
-61
17
10
36
-38
-54
-86
40
44
22
70
-10
49
-43
12
42
-27
2
70
-9
119
11
33
14
18
18
16
60
25
-45
40
-1
46
19
-45
-1
43
-26
33
36
-31
54
58
42
-14
27
-62
14
15
-10
-40
-11
27
2
-3
13
4
9
10
-44
-24
26
-5
32
22
-48
20
-69
-20
-2
62
46
64
-18
-33
45
-16
-24
68
30
-5
-69
4
3
-32
36
32
-42
-11
-38
42
12
6
-3
-11
73
8
-48
-5
39
-25
62
-1
-58
-63
-26
51
-40
-29
53
-7
26
2
-4
59
-43
-9
-49
6
-26
-35
3
22
-42
62
78
-9
17
-19
-20
-11
25
-51
-39
-47
46
31
8
-18
-32
-55
-9
26
32
-40
-37
-13
17
79
-7
-6
-17
-54
79
16
-28
9
53
-28
-80
-14
15
29
30
-55
34
-66
19
39
5
29
7
-4
-31
-10
-41
18
-40
66
38
65
20
19
21
-62
-32
2
22
42
36
-59
23
14
-16
-11
37
-15
-28
57
-32
-24
9
-17
15
56
85
5
3
2
43
59
19
9
46
75
38
10
-40
-90
-23
-9
-21
1
50
3
73
19
-69
19
-3
-15
55
67
-22
-30
35
27
-23
39
0
127
19
20
24
-96
-18
-9
-35
59
36
-27
53
32
-38
0
10
40
-15
23
23
67
-23
-34
20
64
-43
20
62
-1
-3
-35
64
-46
-18
-13
-16
-34
51
-62
12
-33
79
53
-26
-3
64
-35
27
-46
32
39
38
33
49
-6
-1
5
-6
11
24
-2
-13
-20
-52
66
25
-54
25
11
28
-45
-67
28
5
-46
57
-25
-59
43
14
23
-76
72
8
23
41
-75
-35
-9
-21
23
54
29
-38
30
62
-11
74
2
-2
21
22
9
-3
30
25
-37
13
118
19
33
15
-40
-57
63
-99
27
-15
10
7
-51
4
-24
65
86
-19
33
-45
17
13
-28
-46
51
8
12
27
-48
18
62
7
37
18
6
-40
3
-53
-49
25
60
-16
-48
12
47
-41
-30
45
-8
-31
52
-54
-27
-13
96
13
22
-14
-14
-35
-71
-15
-14
-8
-4
-24
7
4
20
57
-18
-11
-14
21
-9
-11
79
39
8
33
33
-11
-3
-65
-11
0
-36
85
7
-22
-26
-9
-56
-26
-5
-30
-32
38
43
10
45
-73
22
28
117
24
0
60
21
-20
-36
50
8
14
79
39
5
-7
4
14
-24
1
-6
-53
19
-98
57
-6
-60
2
0
45
48
28
20
8
-6
-45
-64
62
-77
19
78
37
11
-3
23
1
6
-39
-20
-10
-15
106
7
-36
41
-10
-22
-11
-51
7
40
107
57
29
4
-51
-15
16
26
-25
-39
-57
-111
-65
34
1
-44
28
30
59
-35
-31
-62
-6
-31
-32
40
9
-2
43
-10
-43
6
13
107
6
15
-8
-9
68
16
-11
-11
54
10
46
-11
-54
26
-10
26
3
18
26
-18
22
12
29
-2
-7
21
-42
-9
34
-41
-32
-100
32
-34
22
-21
-33
-43
0
-65
-34
8
93
10
-65
3
122
4
38
39
-15
36
-23
21
38
18
59
32
-93
-58
-10
22
28
70
30
74
59
-34
46
33
-44
35
-56
-82
0
-46
-4
-13
-50
-33
69
26
-24
-13
6
46
20
-92
-10
23
-35
-37
14
26
-79
-19
-73
33
-49
31
7
64
22
-7
-30
21
-9
-11
-83
-70
-48
-6
-3
29
-6
19
-20
21
-4
-58
-18
26
-78
3
15
-2
-62
41
-18
15
-87
-18
44
82
-5
-72
-21
34
9
44
63
-61
55
-30
109
63
39
82
13
-18
36
81
27
-85
-29
-33
-16
4
20
17
30
14
-30
96
61
64
10
-82
51
46
-9
-21
-16
-17
25
74
32
-39
89
-15
11
-23
-1
29
-41
47
25
35
-76
-10
-45
-20
3
-35
33
43
127
-20
-22
1
66
20
32
-37
-56
-28
34
-79
-34
-43
-17
19
33
15
3
35
-8
-7
41
65
-19
-35
50
-42
-42
-24
64
23
-2
-42
39
8
32
-25
3
-55
-50
57
-9
8
-26
50
59
7
77
-7
31
70
-13
-5
-35
-50
-47
44
0
40
-74
-32
58
-13
36
80
15
49
84
29
16
-5
-49
2
22
24
-13
-51
15
-47
14
-16
70
-44
76
43
33
69
-1
21
-36
67
36
-24
32
-7
5
41
-63
-39
-8
-14
-31
-28
-15
-9
2
40
15
-16
26
-37
26
32
8
-24
68
14
-58
-23
124
53
31
-27
46
41
-31
-57
-63
75
-3
-20
-98
-86
43
-23
-53
78
99
95
11
-28
47
22
-14
7
42
15
-2
52
34
17
13
18
26
3
-19
-10
-25
-16
6
68
-3
3
-9
-33
0
-30
18
-32
-15
-81
-12
-13
-52
-8
47
24
-46
-10
22
-97
81
38
5
-121
10
20
24
-3
34
44
-16
-29
-93
20
0
-1
44
47
51
1
-75
-38
-29
17
12
-14
21
-12
0
-73
10
-8
19
19
-76
-16
34
31
-7
39
-70
36
-4
15
17
40
15
-11
-7
14
14
15
-43
-4
54
38
59
62
-31
21
29
42
25
4
-45
4
-5
-42
14
26
-59
-23
27
4
-40
11
-60
-36
-30
-14
43
18
30
0
4
-17
18
-9
-84
14
51
79
-51
-47
35
8
-36
55
41
0
54
39
-62
-8
-37
-48
9
-11
53
-5
75
-8
23
-78
-22
91
-12
-76
-1
34
-12
-36
-36
-18
-77
9
-25
52
42
25
56
-51
22
60
-16
14
60
-44
-18
25
-9
17
7
-40
-28
-74
28
15
-10
87
-2
-40
0
24
37
-26
-8
34
72
-93
-33
-1
-44
-14
-12
-7
-6
7
-19
27
54
-38
-27
-24
-6
27
-32
-3
-38
-22
-59
-20
90
-2
53
-19
13
-63
2
-68
-59
12
-10
-27
-7
-34
-40
19
15
-47
-4
-14
-37
9
0
-23
17
-8
-57
-65
-11
-7
65
13
-12
16
-11
32
40
-3
56
-32
6
-42
-58
-63
52
8
54
-82
-36
17
-11
4
-67
-69
127
44
-21
125
-10
-61
-21
25
21
-20
8
-19
64
68
-51
5
-19
-75
88
-12
-26
-47
21
-20
20
-53
6
-88
21
18
1
-1
17
-57
-34
-65
-6
-50
70
-33
-67
-33
-66
20
-11
-2
15
18
-6
81
-37
-13
-43
44
-6
-51
-10
-10
44
29
-8
24
4
28
59
-37
-11
24
127
-53
73
-26
41
-21
-20
-28
74
10
32
-18
1
-10
-26
1
115
12
-26
40
44
-25
8
-36
69
-11
-12
35
7
18
16
95
26
27
36
8
7
8
56
8
4
1
-14
-27
-15
22
-1
6
-14
-21
44
-49
-46
73
43
37
-49
-15
44
66
81
-8
18
65
-35
43
9
12
-19
-6
4
1
3
45
-12
64
41
-23
51
-18
6
-74
42
-56
-13
14
17
9
-14
-68
9
64
33
9
-29
3
28
-13
31
-7
64
24
-15
-21
23
-75
17
-72
71
-35
2
32
2
50
-78
16
-73
29
-45
10
-70
-52
16
21
-23
-51
-57
20
51
-30
-32
4
21
-1
-24
30
6
36
52
28
16
10
-19
27
15
-56
-72
29
82
-43
-46
14
-53
9
10
-24
0
-18
51
47
41
-22
-25
-60
112
47
43
41
-11
-4
-42
36
-57
65
-10
-14
9
45
-11
56
-37
-70
-23
62
6
30
-39
18
90
-47
-9
16
-28
33
-47
-54
-3
-11
27
-35
-40
5
-9
-55
-27
-41
-31
-30
-19
48
-20
27
-35
0
-29
-24
28
33
46
3
-12
12
7
10
43
-37
-10
-48
39
-13
43
19
-36
70
95
-15
-47
45
3
5
28
-49
-17
-35
3
8
25
-28
43
-31
23
-1
-51
127
37
30
48
28
33
12
72
19
26
9
4
-20
39
13
16
20
6
-20
29
-45
-29
14
84
-17
-31
-65
13
6
16
38
-23
-19
-7
44
9
-18
14
68
8
-77
17
-71
99
28
32
-31
1
-59
38
-6
-20
0
42
-9
28
1
81
11
41
-26
97
-10
-3
23
14
26
70
23
85
55
72
30
16
52
-25
3
21
55
-36
-50
10
-24
-16
29
-12
4
-22
-47
-23
-51
-3
-10
24
-3
1
88
-36
-67
32
0
14
24
-64
50
-23
-26
31
37
4
72
-8
-10
-42
-30
-4
-39
27
4
34
-56
12
27
-60
20
0
-1
-38
17
69
-116
25
68
-5
-35
70
-80
-30
-10
27
7
-35
-5
53
-100
-17
8
-45
33
-2
-31
6
-40
3
-15
-19
-32
1
38
116
-89
28
-7
-4
-29
-49
-87
50
-42
-39
-69
10
-3
-88
27
29
63
-17
12
-13
19
-84
-12
-74
-3
-16
16
34
-59
-31
-21
-7
54
39
74
11
-6
-8
5
-4
-13
17
-92
10
-25
58
-28
37
-15
-31
1
-62
14
18
-63
17
-49
-17
52
-32
-15
12
29
19
46
8
-57
-26
-27
-30
-1
21
41
-12
24
15
-18
28
-56
10
-3
46
-4
-25
20
-39
32
-17
-32
-7
5
-16
24
3
23
-6
-5
30
-4
-14
-13
-99
-10
-12
29
2
-40
76
53
-22
27
-25
53
-38
-10
24
-8
-24
46
-5
48
3
5
39
-36
-7
-1
-70
78
20
17
-7
5
24
40
-11
-21
-17
-17
-32
-3
-24
-27
-52
-100
-17
27
33
-55
-80
36
33
7
-29
-12
-5
-26
66
-98
15
-4
-18
-10
30
14
93
19
4
-10
0
46
-62
19
-76
27
-62
28
14
39
-13
-103
-17
-6
21
4
-1
20
46
48
-60
13
15
29
32
-8
29
30
5
69
45
41
-48
24
-38
26
-21
-29
16
9
-47
29
-31
43
1
-50
-8
-15
17
-18
-38
-17
-18
51
-17
-47
20
-7
-10
46
37
-1
23
50
0
-51
-9
7
-44
-18
-43
-5
40
-54
75
-47
2
-12
-12
14
31
29
-3
-10
-6
-33
1
-32
3
-29
-38
19
-55
47
6
25
13
-49
58
2
-30
27
-4
45
36
23
-4
71
-12
-113
-70
-3
38
7
23
-18
-53
13
-53
36
-57
39
1
-29
81
3
12
-3
-62
32
-127
0
-49
44
-12
-31
79
24
-6
-20
-35
100
-3
53
22
43
-31
-84
-2
-28
1
28
12
-22
55
4
25
-59
-19
30
0
4
58
9
-46
44
-14
2
-61
82
-39
-54
24
39
-21
52
104
6
49
-61
18
-13
43
-4
18
-35
29
2
-48
-51
4
-8
-50
-11
-8
-62
-24
-8
12
8
-2
7
-1
18
4
-6
-6
63
21
2
30
69
18
35
-5
-58
42
-17
-13
-13
1
-94
4
21
-34
-60
127
-20
49
63
-5
-53
-20
-97
-7
42
119
47
-9
49
103
-5
-44
44
-7
50
-18
1
27
81
-42
-19
-54
1
-66
-22
-2
15
32
-10
-25
-62
44
60
20
11
-55
-39
-19
-9
-97
9
9
71
47
-18
-46
76
39
39
-23
13
-85
-6
45
-56
15
13
58
11
-119
4
20
-87
113
34
58
-22
124
-34
-5
13
53
14
18
-35
44
88
1
-27
-43
-58
15
-3
-22
-18
32
78
22
-46
-74
-19
27
-53
-2
69
56
-73
75
12
36
3
8
3
-44
-1
106
17
-12
-46
30
-34
-27
-68
56
30
-42
12
-39
-32
-102
54
-25
-17
-19
-54
54
15
-23
44
-6
-112
-23
5
-7
18
-56
20
-13
-8
12
47
20
2
4
77
71
78
52
-30
47
-20
-11
-24
-65
-2
-39
-8
-28
68
50
-35
-18
25
-60
85
-73
-20
40
-78
-8
48
-81
-31
-32
23
6
-56
-73
0
-5
36
46
0
97
51
0
-127
-13
-2
73
-7
-36
89
79
4
-52
-35
32
-33
-22
-22
-7
-67
81
-29
-81
-49
-65
-34
49
-4
-22
79
8
53
-4
33
53
-47
-19
47
-73
38
-27
-11
-36
-22
21
-13
-84
-81
31
-24
-17
12
76
-14
20
70
-5
37
60
-127
-77
36
81
33
10
81
-64
-19
19
45
-32
-100
52
21
21
31
-41
-9
55
-64
-51
-56
-82
28
-49
-55
-16
-49
-12
-48
-72
-64
57
54
-10
-52
-102
-3
-30
-67
29
26
19
-6
124
-8
21
20
44
24
5
22
45
6
50
-59
17
-17
13
43
5
-15
-16
-114
-2
43
19
-17
5
64
20
12
33
20
-44
-47
1
15
-26
33
-25
24
-14
40
-2
-42
-4
-69
23
46
-63
32
39
-39
67
83
-4
42
11
68
0
-28
77
-15
-67
28
-4
3
-14
21
-45
-17
38
-61
-35
-51
14
47
-91
24
-92
24
-31
-32
-63
-49
13
-109
24
11
-20
-82
-8
-36
-36
-51
29
-39
-80
-32
-76
-23
27
71
20
-79
-5
31
21
38
8
-13
16
-29
-9
9
83
-26
-46
-24
30
17
12
-67
-84
20
-28
-49
87
-15
-36
-31
-19
-70
7
-110
-84
-28
29
96
-34
-5
-32
20
-76
-1
4
99
14
-40
-11
-58
-21
13
-77
-22
-41
56
17
85
127
22
-9
-33
-57
18
49
15
39
35
-40
-13
-16
38
-64
-8
-36
-38
38
30
56
53
24
-39
-29
24
-65
9
93
33
25
-24
-55
-26
-14
6
-62
77
-127
-40
32
-17
-99
-9
-5
72
34
36
-106
-42
-57
-39
40
-59
127
-52
-51
-13
-23
-127
-127
101
39
-20
26
38
79
21
9
53
10
-15
-16
-14
-30
42
-25
80
-10
53
-16
67
-41
-3
-76
-12
16
-55
-17
-27
1
50
-25
2
-29
22
-30
-64
-19
-27
61
48
45
-71
-50
-23
-36
5
-18
46
22
-31
38
8
45
42
20
21
18
-41
-60
11
-25
-42
7
-40
-9
-2
-51
-46
-72
-54
2
-8
29
-14
-76
57
-15
73
73
-14
-70
38
33
-65
24
30
-56
33
25
35
-34
-73
-74
-24
28
104
-48
6
-7
15
-38
17
29
-48
-48
42
-46
27
26
-67
37
29
-28
-40
45
22
97
40
0
-33
-33
-5
-72
-52
-29
66
103
-85
0
-93
127
-21
-49
-37
8
8
-29
26
53
-127
28
-39
-38
-5
85
66
76
-22
51
88
38
-17
15
-20
-31
53
-63
-8
-89
-5
35
-33
22
-46
107
90
-5
-6
-27
-13
37
8
-82
52
-3
-32
35
-78
47
39
46
-46
-28
-29
4
-5
18
-21
-2
-44
67
60
-18
-4
101
71
-121
36
-67
17
-71
37
8
19
-55
11
-62
21
27
43
19
70
56
-50
-15
84
8
-114
-23
32
25
-5
-33
-32
-51
-83
-4
-45
-35
-66
-26
63
34
-8
2
-87
-26
124
2
-42
-94
-92
-19
-58
-20
-21
6
10
63
-12
1
-6
-60
80
-56
11
36
-89
-92
-21
-11
11
44
-120
51
26
19
-46
27
47
53
10
41
14
-33
-15
28
39
35
56
52
-2
-67
47
-7
46
-28
69
-77
15
-19
-77
44
1
-38
53
-67
-34
-61
-37
-19
39
-22
-60
-46
-40
-85
-40
-25
-16
-19
20
49
-35
-3
-19
-44
15
1
-25
37
-33
22
34
-41
47
-15
14
25
-21
-35
13
-61
75
25
2
43
22
-122
60
-20
51
23
-27
-6
49
42
36
-48
-53
-15
6
-34
-26
-103
16
5
34
-46
-83
34
-79
-41
-47
5
-19
-37
27
0
34
-14
11
34
-9
-3
-20
2
74
-51
13
-3
-65
-9
-62
-2
7
-25
-127
47
15
118
-59
-19
52
11
-90
13
-82
33
22
45
-13
-55
-15
-23
-23
45
2
14
7
75
-13
-41
22
8
-39
-24
95
-47
-7
110
-43
76
45
70
-27
-67
-21
-54
-36
-55
11
-12
12
-16
-92
-20
11
-51
-9
27
64
-1
-37
-13
14
-26
31
76
-91
-66
-37
-7
-39
-19
45
-16
22
-14
-8
57
-42
127
-9
-31
-1
28
-1
12
55
19
-55
-19
105
28
68
-3
-19
-83
-11
13
7
48
102
-18
20
-48
-20
10
-38
-11
-74
-11
36
72
-7
57
127
-21
-36
11
34
28
48
49
-13
52
13
-54
82
-66
63
-46
-27
-64
67
-19
-11
-32
43
73
-29
-47
27
1
-17
-47
-43
-59
24
-52
8
-63
-33
22
-62
-58
6
34
-71
0
-93
34
60
-112
70
-1
-33
68
-36
-29
-35
-4
-21
56
35
-6
2
-26
-58
-49
-14
-8
-1
54
72
-87
60
49
66
-23
-12
67
-21
-2
37
0
-4
-25
-53
3
-21
-21
-21
-46
-10
-33
-55
-58
-3
-33
26
59
-62
89
23
-11
32
-2
55
15
81
-26
43
-57
-22
-57
-35
-17
-6
-69
-59
23
39
-6
-1
-127
-50
26
-21
55
-5
-17
4
-36
-10
12
15
6
12
47
-41
42
21
-7
10
-19
-3
0
5
2
70
-9
-20
-127
16
-45
-14
14
-16
15
7
-19
93
84
10
-25
17
-30
-85
4
22
-25
27
6
-15
4
-43
-19
28
77
-25
25
-3
-61
11
-24
-19
-29
21
-58
-44
47
-25
-52
-68
28
46
3
29
-37
-3
-10
4
-15
-86
30
-32
19
-70
28
-55
-23
-4
-18
-9
-66
-14
-5
-12
-63
-29
22
-21
-27
9
-61
9
-4
-34
-40
32
17
28
-69
39
-75
-55
-20
-20
1
-1
-44
19
-51
-56
-55
6
-33
-62
49
-60
-42
-29
23
9
10
36
-1
83
8
-4
-26
21
18
-12
24
-10
-31
14
21
9
-13
40
1
5
24
-20
-48
-22
23
18
22
-24
43
-68
-59
-52
10
33
11
-47
-40
3
-7
17
-13
-32
15
112
8
49
66
47
-63
-33
-1
39
-28
28
19
-47
1
27
-126
27
-4
-1
10
-24
59
-49
20
-46
23
10
-83
-61
-70
3
13
8
43
28
-64
35
61
17
27
-11
-34
-54
9
-30
-19
-24
56
-17
40
-71
-24
14
-41
-31
4
47
14
4
-5
-32
-54
77
24
-45
26
39
-39
71
-22
7
1
3
-7
83
34
23
92
86
-5
12
-68
-46
-8
-64
-94
14
-19
57
-39
-27
-23
-55
-27
-25
-26
-8
-47
7
-48
54
20
-38
12
-32
18
49
0
-29
20
47
-13
-46
-25
-62
-21
6
-46
-54
-80
-89
-45
-94
0
2
30
28
-54
-34
9
-45
27
41
-13
-25
15
36
-2
-36
9
12
-23
-13
-19
0
50
23
-82
-73
-52
25
-5
-14
-6
19
1
-45
-26
-13
4
75
-36
8
27
-39
-73
-23
127
22
24
25
-10
68
-64
27
-49
-11
-5
31
51
3
-16
-48
-19
66
-22
44
17
12
-13
-5
54
107
-49
36
-11
-43
-4
-38
10
-12
56
-47
1
40
13
-20
11
40
-28
-28
30
-16
16
0
62
28
48
23
25
94
-33
10
-3
-5
-70
-56
12
63
-20
19
24
0
-42
5
-20
-7
-25
-40
-16
-80
39
4
-57
31
80
6
-17
7
24
3
19
35
85
40
-5
-16
-124
-22
-22
-20
26
-67
2
-37
-30
23
-83
16
31
3
1
-43
-39
6
-57
-18
-76
-30
-41
49
65
73
16
10
-67
53
19
-54
6
-9
-35
26
35
-9
-10
21
5
26
15
25
7
-48
5
-7
-56
-32
48
-41
27
-16
-20
23
-62
3
-119
-45
-75
46
-84
-11
-18
16
-6
39
1
-30
70
64
3
-7
22
-25
35
-73
-20
18
-19
-47
38
30
-19
16
41
-57
46
24
31
-27
41
32
41
-54
-47
18
17
12
3
-21
-6
-24
-8
10
-17
2
-7
-28
42
-38
-94
31
-3
-10
-22
-43
-43
44
24
4
-10
-60
5
79
-37
13
28
6
-19
16
0
-6
-22
-58
1
-54
-43
23
-13
-5
-4
91
-10
34
-104
-30
-19
-69
10
23
3
14
-48
-47
-2
-30
-14
45
21
-5
-39
8
-49
31
-36
5
-79
-11
-23
14
-64
34
-64
2
-96
-33
0
11
-43
-24
38
-21
0
-28
45
7
25
53
50
-5
-34
9
-17
26
27
-54
55
-35
-42
-20
41
44
-3
4
37
44
-27
17
3
81
53
-35
-21
-5
61
-52
50
32
-35
-44
97
-7
52
-90
-5
16
1
24
-8
-14
-50
1
24
14
-54
74
-22
-48
21
28
-4
-23
-21
8
13
-6
16
17
-71
-42
-2
36
31
-3
-53
66
19
0
-17
-45
-58
-46
13
38
-25
-105
-19
-5
-33
-11
-19
24
-25
5
12
25
-72
-36
-53
13
-85
10
3
58
7
-44
15
66
-36
-8
-3
40
-39
42
-16
-53
-9
42
-1
-7
45
65
36
-12
28
-44
30
-84
34
17
-5
52
-27
17
-16
-35
-3
33
-14
13
-39
-24
8
8
28
31
62
-15
1
-15
38
5
27
21
-28
-6
28
36
-29
15
31
71
-65
-29
38
33
-65
-34
79
35
-30
-47
-18
-13
-77
-24
-53
-36
-38
23
9
-38
16
-49
36
19
-44
42
2
-30
-32
-72
-15
-4
35
-3
-52
-17
-18
-95
64
55
12
45
-18
71
3
-40
-52
-15
-59
28
-51
-15
-79
55
23
-18
-36
-53
3
62
-38
33
59
-42
-4
-99
-11
7
-23
-42
-13
12
-3
71
27
-68
15
30
-36
6
81
-30
-34
18
1
-18
-32
15
-23
23
-25
12
-66
66
37
-41
18
-66
43
27
-11
41
23
-10
17
3
-4
53
49
32
54
-22
36
56
17
41
-13
34
-18
-38
12
35
42
16
-20
-6
43
-88
19
-76
36
-27
25
13
-7
-32
28
-15
16
1
-17
3
-1
37
-32
-2
51
26
-31
-2
-47
-127
-54
32
-10
-68
-65
34
89
-14
-29
-31
46
-13
-12
31
28
33
-9
26
8
-11
-26
-16
-61
-53
10
-13
-60
7
-48
-18
-40
5
-42
-28
-42
-78
14
16
-37
28
31
-66
27
-23
25
61
38
-4
43
8
-28
-35
-2
41
-91
-37
22
49
-42
3
-10
-5
51
-33
-68
22
-28
-5
-21
60
-78
-51
15
-50
19
2
30
-21
-52
-2
-11
9
-11
-3
45
-25
6
-23
-29
9
-45
-8
-12
14
45
7
4
8
69
50
25
-36
29
43
4
-26
-32
54
-29
-105
52
58
2
-7
26
20
-85
-85
-39
15
-12
8
32
6
-62
-9
30
-51
36
-75
18
78
-77
-32
3
-38
-2
-21
-3
-46
-108
9
-28
34
45
54
29
47
69
-32
45
5
5
-3
-6
-37
-27
43
25
-32
40
-31
-39
-18
55
39
-4
-19
-10
-38
16
45
19
-2
20
-27
-45
-29
35
16
-36
1
-31
-32
35
-14
-24
-25
-21
41
127
-52
-37
53
43
-31
-11
31
-2
-47
32
68
-49
65
27
11
38
-58
24
-13
24
-13
50
61
-12
-62
-91
42
-21
10
-22
-10
7
-59
11
-2
31
63
40
44
-118
-14
-21
-12
-45
12
7
-16
-62
-82
-40
32
-6
-30
21
68
79
15
91
22
43
-5
2
-35
-4
53
19
-27
-5
-38
10
-46
-8
-90
57
57
77
3
27
-28
37
-54
34
18
3
28
23
-57
76
-34
-62
33
-71
-17
-32
-5
-20
42
8
-6
16
38
-20
56
-33
-97
-32
-42
-8
44
-35
25
0
-15
8
33
-19
25
-65
-7
-10
23
-9
-11
11
35
-48
38
-8
6
-28
1
-29
7
-5
-10
-34
-42
40
-38
38
10
34
-31
22
-2
-2
34
22
12
-16
0
-59
19
25
-8
-51
15
-7
15
-36
-17
-96
55
5
26
-42
25
17
-37
-17
4
-24
-12
-15
6
-18
-1
61
-37
22
66
13
7
-15
52
-8
-36
28
52
21
-36
73
17
34
0
15
33
49
12
-33
28
12
-29
-1
-19
-6
113
-109
-43
42
11
-16
101
-107
-54
54
61
24
-49
-16
7
-67
-49
67
-3
58
-10
55
21
-58
-27
-70
2
0
-22
12
-32
-16
35
-77
4
17
-26
-41
4
-5
31
63
12
-37
-11
-24
-30
-45
85
-15
30
-31
33
-12
53
-99
4
46
-32
52
2
-5
-50
10
28
-3
5
111
38
-47
15
41
-10
-55
-37
-2
64
22
16
-29
-7
-19
-5
-3
20
-43
56
76
47
90
-13
40
40
-7
25
14
98
-7
3
-37
-73
29
12
-41
67
115
18
30
-19
31
2
0
-106
6
-26
29
48
-19
-10
-3
38
-26
46
-15
-23
-5
-52
19
-18
21
-48
67
5
49
0
49
22
49
30
125
-25
26
63
-11
4
62
-60
-27
-58
3
-31
-1
-22
31
-2
-11
-64
28
-7
-25
61
-33
21
49
2
-15
62
-53
43
6
47
-64
-5
-21
13
-39
-25
26
101
48
-32
12
-20
-45
-15
-22
88
80
86
32
57
-44
19
-25
-125
39
31
-9
75
46
-58
-15
9
89
-27
33
-28
-69
56
44
-71
-66
-86
-30
35
4
-2
53
28
36
-50
35
23
20
51
-45
21
94
76
16
-20
8
-17
44
5
-33
-74
34
43
-74
-43
61
24
-7
19
12
-23
-4
-11
68
38
-40
-40
12
17
7
37
57
-5
-58
27
10
-19
-79
9
-4
23
65
14
-65
-63
6
4
29
-24
-25
-72
1
87
-33
7
25
118
-88
-6
3
13
55
-14
-51
-26
50
-19
-27
-20
39
10
-29
56
-8
-3
-11
4
13
-43
0
41
-6
71
43
59
68
16
-28
23
-10
21
-15
-66
4
-10
119
-88
-54
-14
-63
-7
26
-28
-51
-60
39
-13
-36
-52
-79
-39
11
-14
26
49
36
-40
-43
-33
43
-49
37
94
80
72
-35
91
46
19
10
-42
-26
0
-49
62
-49
1
-47
-75
-12
-41
72
-10
-68
35
-81
-1
-24
61
-23
78
-20
21
-32
-23
80
38
78
38
-28
36
-25
-6
-56
86
25
-46
65
-26
25
-42
20
46
-19
33
-22
28
-12
-79
48
-4
-4
31
95
15
4
52
12
-4
28
31
15
-26
-75
52
-45
-41
25
43
-30
27
49
-23
33
-7
-14
50
22
37
41
-20
5
13
9
72
-17
74
34
19
-10
-34
25
-88
82
78
42
49
33
-46
84
34
-4
-16
23
-41
55
-66
65
37
-14
33
1
-75
13
-33
-53
-4
-44
23
-109
25
-38
21
-2
-12
-8
42
-17
-81
52
-2
82
55
-66
26
47
-56
37
-53
-22
3
13
14
20
26
-50
-24
-28
-9
123
59
16
15
-27
-8
16
-66
-16
-45
-30
6
-4
2
10
-1
15
-5
14
2
-51
3
14
18
-53
27
29
45
-5
36
-18
17
-2
70
-3
38
37
20
28
25
-64
48
-61
27
-79
-75
21
-42
-8
42
-24
12
5
-44
110
-31
-6
22
-1
12
40
-16
11
-39
-11
-25
-26
-61
-17
-39
46
-19
49
22
-24
2
-10
-42
25
15
13
-14
33
0
52
-21
-7
104
75
3
-10
26
33
-13
9
-2
87
-54
-84
42
39
-16
-76
36
-19
-22
48
1
-26
12
-78
-23
-23
-69
-54
29
-22
66
3
-23
24
75
-44
73
15
-15
-56
34
12
-11
-43
18
-40
-9
-29
-41
-15
-70
-40
-22
38
45
-39
82
-8
22
37
85
40
48
-5
82
-21
-37
-46
-34
-13
19
91
-39
-24
-29
-40
-45
40
97
83
-20
-11
-21
3
-42
-9
14
3
64
23
-30
71
-16
43
14
44
4
-10
-27
-6
-2
55
54
-71
83
83
25
22
-12
-28
-25
-36
-55
58
-33
48
-64
-12
-52
-31
2
-2
12
-8
36
43
36
-30
23
34
-13
72
-44
-13
-25
-59
-7
-15
42
-51
-62
-19
-21
-31
12
32
33
-1
-2
-14
82
-21
-49
19
-51
-9
-34
31
-92
57
30
29
3
10
-36
34
-25
28
2
-9
-47
18
-13
4
3
44
52
53
-6
1
-16
-21
-54
36
16
35
-24
-56
-36
77
13
-41
13
-50
10
16
-69
15
-1
-24
-15
1
-7
71
24
-92
-18
-74
-37
-8
0
-16
-46
-9
121
5
2
12
41
-66
6
-3
-19
-30
-13
-5
-30
10
-17
-1
-18
71
-44
30
39
-7
-29
43
19
23
29
-50
-63
-22
0
31
26
-28
1
-17
-26
23
40
20
-25
0
31
-25
79
-12
-21
56
-37
-64
110
-29
11
5
-38
3
12
33
30
56
41
20
-37
-51
-39
15
29
35
43
-10
-58
-12
12
-124
34
-89
79
-2
-57
-6
-37
5
55
-127
110
30
-27
-6
36
15
47
11
28
-25
-90
-21
3
-72
-1
1
0
-11
-45
-36
14
-52
-57
43
15
91
-25
9
23
-55
10
-67
-107
-47
-20
44
71
-86
-32
5
-1
-46
60
40
21
-26
3
47
-58
8
-33
-12
19
-12
-13
-36
-54
-69
31
46
97
-9
27
8
-12
24
-57
-127
-15
-52
10
60
24
2
11
-9
2
20
-29
73
16
19
-53
-25
40
-33
52
5
58
-48
-6
15
-96
-3
4
6
-13
-12
-23
38
25
75
28
12
48
-30
-8
-9
-55
-10
-22
-51
-30
-83
60
-99
73
5
90
-41
-40
-67
7
7
6
127
-13
39
-11
30
121
-20
22
-8
89
26
108
-26
34
-10
15
-25
-15
18
-53
-112
-2
10
-14
47
12
-4
1
-32
-3
-15
95
-22
-34
37
-52
21
-19
-105
-73
36
0
-35
79
39
-2
94
-55
38
-15
-19
98
39
35
32
-9
46
32
-18
24
-33
27
116
18
39
-19
65
-69
-31
25
6
-34
-27
-55
89
43
-21
20
-13
15
14
-15
-33
3
57
10
-38
-22
-26
57
41
-13
-90
21
23
2
6
12
3
-31
-40
-26
5
-17
47
-16
-31
-26
-29
-39
37
-48
62
15
-10
38
2
-17
-96
8
11
-15
-1
-27
80
-52
22
7
-50
-4
-16
-35
2
-18
80
14
-62
27
70
44
53
-70
-35
-40
-81
-12
-45
-75
22
8
67
31
31
-77
22
-2
28
-10
45
13
28
44
16
-127
-8
-35
-8
37
76
40
27
12
1
-32
-2
22
-46
-57
30
-12
-4
-32
-15
55
-10
32
57
-21
59
-55
77
41
30
-21
-127
21
-1
5
5
-9
27
-60
-29
100
-44
45
-1
-15
-51
9
52
-2
32
5
-90
-41
87
73
-25
-54
56
-60
75
27
70
43
-19
-10
-54
76
-99
-5
85
85
32
-11
24
-37
-32
60
14
28
37
12
31
-127
-4
-29
3
19
-49
-32
72
2
-42
-66
-29
58
77
-63
-32
7
37
-95
-45
24
-52
-11
-5
40
20
9
6
4
-44
61
95
92
4
10
-39
-50
-14
-18
33
-93
31
-60
20
-6
40
31
-28
104
30
-42
12
-90
-21
-3
121
19
-32
-28
69
3
-43
21
25
-102
12
4
31
-44
-19
42
18
-4
-11
4
26
-12
-20
16
63
-28
6
-22
-64
-8
55
-19
-43
-78
-14
30
71
46
29
127
-28
-48
-42
-18
-45
-21
127
73
-39
-46
127
-18
-39
35
64
35
6
6
-17
-34
1
5
5
-19
-32
84
51
20
-48
-12
19
9
16
-21
25
43
11
-33
-26
39
-7
-19
-67
-29
-26
17
38
51
-86
17
7
-9
9
100
42
57
54
-23
106
27
-39
68
-61
18
-12
74
66
-26
-17
4
-17
0
32
71
62
-102
40
-24
-37
-10
70
-3
23
5
49
40
5
41
46
-28
2
82
-37
106
-48
11
-47
-12
50
1
-61
-48
43
33
-95
36
7
76
-80
1
32
3
7
0
-2
13
-29
-58
-30
73
88
-36
39
-21
60
75
-22
11
-15
1
-22
4
33
1
45
26
-33
17
-3
46
6
70
11
25
13
6
-21
2
43
-16
5
-20
18
-79
40
21
38
-22
72
4
-7
-8
36
36
27
6
7
-18
-89
20
-49
52
40
39
-35
5
13
64
-5
-72
-24
3
-23
-24
-24
21
41
22
0
-26
51
16
-20
-26
87
48
-6
28
-67
78
-42
-5
61
39
94
-21
-57
82
6
63
22
17
-2
34
-94
119
68
-14
21
82
-10
-30
13
-14
21
58
-97
-41
-14
1
-35
-26
-35
-18
4
44
-31
66
87
-44
-77
-26
-16
-10
80
-43
-71
-21
59
-6
14
11
45
115
-42
-26
-2
-58
41
-66
36
41
-72
-79
-96
32
-34
22
48
39
6
-15
58
-43
19
41
-33
14
22
-22
-36
-45
89
3
-6
37
42
7
121
-29
4
10
15
90
29
-46
-50
-92
-54
12
49
78
-19
6
0
-65
-50
-70
2
22
34
-26
-18
-77
39
-51
-21
-54
23
58
28
33
17
14
2
-38
-43
-23
-15
18
17
6
-39
18
60
-22
25
12
-43
-36
48
-9
-5
-33
-7
-10
26
27
8
-61
-14
-81
55
17
9
99
-44
-44
-43
51
48
16
5
30
-25
44
38
20
-43
-60
38
33
-6
100
31
-55
42
-28
46
84
72
-6
-20
6
-54
40
9
46
-54
-34
56
34
6
8
-71
-22
-1
-44
29
20
50
4
48
-24
30
-69
36
37
69
31
-1
-87
-12
-19
1
36
1
-23
-64
-72
-26
-1
41
33
37
5
-28
15
48
-17
-68
32
8
29
-28
31
64
30
-10
43
15
44
-47
18
-93
-10
41
30
-20
43
86
63
-86
-9
-34
-44
22
30
-39
-9
5
69
-51
8
-19
2
-22
1
-8
-44
-41
-21
73
-77
-8
-18
-12
-4
-20
-31
-22
59
98
-27
0
17
1
-3
3
23
-17
23
-45
-70
-6
-34
43
-28
7
-53
38
71
-33
64
29
-1
66
39
-49
9
-12
-13
35
24
8
-40
86
-28
-27
-70
54
41
-63
59
-11
26
-17
-31
-15
-31
33
-74
-27
49
10
-68
38
-35
29
72
29
-40
7
-4
-12
90
53
36
-55
86
-28
-11
36
-67
9
-12
-58
3
-7
-5
-4
-22
48
0
22
23
39
9
-8
-51
-58
21
31
-3
111
-12
27
-5
-24
-52
1
28
-28
38
-50
30
4
37
-80
-31
-54
-2
26
-81
-11
45
-46
65
50
-24
-20
-8
-13
-73
37
-61
-14
-27
13
-36
3
31
-23
-17
18
-73
21
37
56
26
-18
-16
-11
37
8
12
-42
-46
-31
22
12
29
30
-3
16
21
80
0
4
-23
95
12
2
-19
88
38
22
1
6
26
-11
6
64
33
-28
35
-19
-17
31
26
67
-20
24
49
-33
7
23
14
-19
-9
8
36
25
13
60
-1
-93
7
21
59
26
38
-23
-36
-52
-82
-67
40
61
42
-25
-13
21
75
-39
-62
-18
36
-22
3
-30
-19
-27
-7
-15
39
26
-7
87
72
22
-79
-17
27
13
39
-18
22
24
36
27
2
79
-3
4
-52
1
9
27
-41
-4
-4
18
53
-25
46
60
-30
-11
49
5
84
33
-13
-44
16
-23
-82
13
88
60
-30
21
7
-22
-57
-15
26
30
2
-32
-37
52
7
32
4
-12
96
71
-6
33
-55
23
-20
47
25
-42
46
4
53
28
45
48
13
-23
16
-25
-17
-65
-63
11
65
-18
26
46
14
-15
30
27
-8
-12
-53
-11
-54
-32
71
68
-7
35
63
54
14
61
-92
21
-53
-12
1
-33
-32
37
-32
0
-73
1
-26
-31
29
5
35
28
-49
22
-77
-26
-17
-33
-15
-3
-55
9
33
33
-29
-12
-47
-49
-34
-37
-5
27
39
2
38
-43
27
-24
23
25
3
27
-19
-14
-61
62
-5
-28
-55
-16
-5
10
7
-3
15
-36
17
-13
-9
4
3
-100
7
16
10
21
-31
-88
-12
-61
34
-27
22
16
50
-28
19
25
20
-53
-32
45
52
-10
-60
-21
24
-24
16
1
-49
-41
6
-33
-86
-78
42
-31
-106
-19
2
-53
13
-16
38
-11
-10
61
-2
-72
-62
-3
27
-51
19
40
-77
-8
-29
-122
-50
-5
47
23
-3
67
4
-55
-32
-32
34
-30
10
21
29
-4
-78
-71
-45
1
37
14
-59
-1
-6
55
-11
-44
81
-43
-10
-61
6
-74
-2
-21
63
-30
-60
-92
-11
10
24
-29
-47
-76
-26
60
29
-13
-35
9
3
-10
34
-16
-37
-52
-61
1
-15
-102
-56
-48
-27
-36
23
-38
-9
-38
63
20
-10
-69
-26
-32
26
75
5
27
-12
5
-71
-87
-48
61
5
-28
15
-83
19
2
11
46
24
-69
-26
49
4
-6
97
-21
86
63
4
-37
58
18
-45
-34
44
69
-8
42
11
-73
-10
14
-35
3
-67
-66
10
34
-9
-67
-3
20
-11
11
-89
-30
-37
16
4
8
38
-24
-6
-21
-16
0
-19
-26
-19
-28
-23
-43
-44
-37
-68
40
-30
-21
21
7
23
-76
-89
29
-18
-8
-1
9
-90
-24
17
-19
-21
-17
-11
15
-22
-22
-84
-16
-49
11
-11
-15
78
11
-10
-8
-7
17
-12
3
6
-16
25
-60
-15
-5
30
-11
10
-4
-5
-59
-18
-25
10
-36
-68
-47
-104
73
-58
-5
-6
1
-17
-12
13
92
-77
22
-14
65
-80
6
-9
13
-10
-11
30
35
-51
-37
0
-28
-33
56
-61
-15
-66
-62
-9
67
14
-37
-95
-6
-23
-39
43
4
6
-8
-34
-82
4
-4
0
-1
-6
15
-91
-60
-70
-30
-20
-4
34
8
-43
-106
-62
-47
-12
11
-17
12
-43
31
20
11
-31
-7
-54
-15
-41
18
-28
-27
-16
39
-77
32
0
-42
62
49
-52
21
-23
-5
18
-70
1
10
-33
-48
31
-53
-16
-24
5
-42
0
6
-4
-14
-61
-53
40
66
-61
-47
7
3
-14
-62
78
-24
8
-101
-1
-32
4
-31
-3
-92
9
-40
-4
64
-15
-65
10
29
4
-4
-45
4
-6
-59
-5
20
47
3
-10
-8
-37
-21
-51
24
5
-20
-7
51
-27
-1
-2
-72
11
-41
-1
65
-9
12
-26
-93
-33
5
-12
22
-14
-57
1
56
14
-25
2
-40
72
-64
-44
27
-13
-52
-7
-7
-49
-32
-34
15
-51
67
-45
-42
1
5
11
-25
4
-78
-2
-59
39
-61
54
-4
16
-23
-14
41
-37
13
17
-20
15
42
-92
-73
6
29
4
11
-49
-2
3
24
-21
68
-11
-35
-47
64
30
52
-38
-1
14
113
-8
41
-59
30
49
62
-57
11
-7
1
11
-54
-17
-8
-17
-5
43
72
-13
86
-35
-87
-95
50
-2
-22
24
11
-57
39
-37
43
50
-28
-49
9
65
19
-28
-34
-62
26
5
56
18
-62
-8
-18
-55
7
-83
33
5
85
-52
3
-42
59
30
-40
-88
49
52
-41
46
19
22
-10
-35
4
-23
15
-11
-24
-4
-111
-38
23
-80
-27
35
7
-64
17
-22
-6
-48
-47
18
23
-59
0
-9
61
14
-25
26
-20
-71
17
-61
-30
20
-58
-80
-28
103
-57
-93
-24
-49
22
-65
-17
-64
95
51
-27
-5
30
-25
-60
8
-38
15
-8
-49
-66
24
-30
11
-54
-2
-43
-66
-39
-125
-14
39
-42
-67
-20
-40
-64
-19
-27
-24
-25
-18
29
-58
31
9
-2
-87
-25
-38
10
-34
38
28
-74
-20
-7
-17
-10
-82
46
-9
25
-13
-23
-23
88
-80
-12
-25
43
-4
-21
-6
7
89
-39
25
0
-127
36
-9
19
-81
-70
-54
-42
5
-22
-76
18
2
-89
-43
-65
-11
-26
-66
-20
39
35
27
-12
-101
-40
21
-4
-37
-53
13
24
-49
-24
-21
-95
-18
64
-43
23
9
25
-35
25
-71
-59
-4
-19
-8
-36
0
20
-47
21
-50
-2
-37
-86
-22
-42
-26
-12
30
-35
-52
-42
26
-59
-56
-19
-38
2
16
-22
69
-114
-29
-10
-40
-11
4
-18
33
-12
6
-41
-52
14
53
6
-35
-20
-28
-70
-1
-18
9
33
-45
3
25
27
25
-3
-47
-6
-37
23
17
-64
-39
-91
-69
-54
-71
-44
20
-32
6
2
-69
-6
22
-58
15
4
-57
-25
-127
6
-77
-13
-11
-17
102
-21
-19
-95
9
-52
22
48
-71
-65
-15
41
19
-40
39
13
31
-79
-55
-22
-6
7
68
-49
24
-67
-33
-3
51
-111
34
12
39
-18
-33
-21
-43
20
-43
7
20
5
-5
-26
51
83
16
49
4
-38
83
-21
2
-69
35
-39
14
7
-76
11
-91
24
-22
-10
-42
-47
-10
-48
-25
21
25
-21
26
20
25
-11
-30
-30
-57
-24
-25
-50
-46
4
-47
15
39
-18
-1
-25
-48
11
-91
-56
-82
-114
-13
-42
-47
-56
55
14
-49
-67
-9
65
-45
-39
13
-1
18
7
-32
-46
-6
13
-2
-69
-24
-1
-97
33
2
63
18
-36
1
2
-15
-10
12
-23
43
13
0
-53
-22
31
-22
7
-36
-93
-97
35
108
-92
0
25
-10
53
26
-48
-55
-33
44
-54
-1
-5
-4
-9
-54
-4
39
-78
30
9
59
-11
-10
-40
34
-61
11
-127
39
17
34
-30
-80
-1
-23
-2
8
-20
-16
44
22
-65
15
-6
-23
-16
14
18
-51
-4
34
-55
-91
-9
-65
-76
29
-43
-23
-12
13
-23
9
-14
-16
-13
5
-30
-5
-26
-42
-50
-5
-85
-3
34
14
-64
-48
34
-66
12
-52
32
-65
-46
-49
-38
-11
-80
-71
-38
-91
-38
30
11
-19
-16
-35
-48
-50
-19
50
37
-1
-23
-3
-9
57
47
40
87
-3
63
27
-26
114
-33
54
-46
-8
-54
-15
4
-96
29
-72
-16
123
-21
23
-36
-33
-74
-9
44
-33
-60
10
10
-2
-10
66
8
109
-2
16
5
-49
-28
64
48
17
78
21
36
35
-22
-64
28
-19
4
-42
46
14
-62
14
40
-48
-69
35
82
15
-12
100
-86
-10
22
23
29
-19
-40
-16
-26
-60
-15
-29
-19
-7
64
-12
-33
-9
45
-8
8
21
-27
-14
-12
53
29
-17
-73
21
16
17
-12
76
14
-10
-9
-18
10
1
15
127
-41
51
11
65
-46
72
-14
35
-2
27
-15
1
9
48
-62
41
41
13
-13
-18
-32
65
-13
5
-71
48
53
-25
3
34
41
48
25
-7
-39
-51
-15
-22
-12
36
-20
25
73
-14
-16
87
-10
-28
17
-9
-63
-42
26
-2
49
-32
73
13
38
92
11
36
81
10
73
-29
-1
46
9
55
14
58
-47
-34
11
-8
13
-7
15
8
-32
-59
20
64
-14
75
-7
65
11
35
9
-64
-8
7
2
-11
63
55
56
9
-76
4
20
30
-54
49
100
17
2
127
-9
42
13
-2
-1
-27
-99
-22
42
-38
-121
12
-47
-2
47
-22
18
15
79
53
-88
83
-35
23
-24
13
60
-28
-5
15
-21
-52
24
-1
60
-3
-10
53
58
-37
-13
39
-74
-100
15
-44
5
-3
74
-71
12
-23
-20
21
5
96
-28
24
10
50
94
-6
-5
43
66
-18
4
13
-39
-20
-48
7
12
-26
42
-22
-1
-10
-61
89
-9
35
-38
93
-19
-41
-72
32
26
-39
-25
-11
37
89
10
37
12
-27
-116
12
11
-74
58
25
-29
12
-3
-20
-12
68
60
19
4
27
103
19
-52
-3
-17
14
30
94
59
67
-8
-117
-45
1
-11
-5
7
2
7
28
98
-59
23
24
0
60
-88
-21
29
-1
1
22
10
-34
52
20
-47
-54
26
22
17
-40
61
-92
-15
-6
-25
2
-45
9
45
-6
47
-14
-29
13
4
76
-11
-7
46
33
44
29
-14
-43
52
-1
118
-46
-56
1
3
-57
48
31
86
3
-34
42
-18
-100
-2
60
-57
26
59
63
14
73
47
94
-103
-30
3
19
-18
-6
-100
-22
14
-14
81
94
28
46
-80
37
78
-15
8
0
5
7
-3
-1
55
-13
75
-26
14
1
64
20
-17
65
93
110
-18
-18
-16
-26
51
41
-62
1
23
-52
27
75
-3
43
5
-28
-20
22
45
31
-29
-18
-3
-48
8
39
27
14
65
76
99
56
-8
16
11
-2
-22
-50
68
-15
8
-7
-100
67
7
-88
35
-18
-65
9
59
67
71
127
92
22
59
50
4
-27
10
48
-14
14
-14
55
13
47
10
38
-70
70
47
12
52
-6
-53
-1
36
-1
-76
-69
7
18
58
-23
84
-36
9
32
-58
-4
8
54
72
25
-13
-79
57
-30
69
-7
36
-41
-28
-79
-7
-47
-29
-57
-6
20
29
22
61
-33
13
-14
-51
-3
-25
5
2
48
-22
20
-14
-13
38
34
21
63
7
-25
86
53
42
20
19
1
127
25
-21
12
39
-32
60
-5
43
1
-17
20
-48
22
-33
13
12
-47
17
37
47
15
5
127
7
32
31
34
36
23
40
8
19
-29
-38
33
-10
-11
12
66
30
9
39
-23
3
-32
-40
41
29
45
31
5
-7
27
-39
-10
7
7
88
-30
52
2
10
-27
14
-13
12
44
35
-1
33
28
51
59
-20
44
53
-36
37
29
-46
19
-10
-58
12
19
36
-28
30
1
85
-40
-9
51
22
12
47
-22
57
-1
-15
76
-2
27
11
21
40
-58
28
-40
-74
36
-77
41
64
-27
9
39
-2
49
64
7
-41
-93
-12
-9
47
-9
51
26
0
88
19
41
-1
32
-2
3
5
8
-20
-5
29
6
-40
-52
-29
-37
-10
-12
38
42
21
31
42
33
-35
-34
0
28
-62
0
25
-79
-9
49
-16
-6
24
98
43
-27
-68
10
24
3
61
56
89
8
3
9
-15
29
6
-52
57
68
9
73
126
-71
79
25
40
62
-58
23
-7
7
-28
-41
7
4
-67
38
16
49
-25
0
-7
105
-12
59
7
44
-45
-14
-5
84
-12
48
71
-43
-33
14
3
-28
65
10
43
-56
-32
-23
86
12
33
-16
20
-30
-35
-28
-28
48
1
-70
21
-47
6
34
-17
-26
-20
29
68
52
-70
-9
31
19
28
-9
47
76
-22
18
16
20
11
-26
91
-27
100
1
123
-41
-19
-95
-54
20
56
-16
32
83
-33
88
-50
-42
-57
68
47
0
10
-51
19
36
-24
-96
25
49
50
35
-17
4
-44
19
-20
17
29
-29
125
31
-52
11
11
-16
16
-14
79
14
15
1
23
-41
-62
-67
-11
-63
16
-59
-1
-54
-69
2
39
-115
127
45
-34
-18
31
-66
54
-28
22
50
0
-18
-1
28
22
-26
-84
98
46
77
-23
-6
1
78
-38
-9
10
25
61
75
-26
-4
28
-27
-11
-7
118
55
36
57
15
-42
21
38
38
25
-74
-4
114
21
-20
-42
-2
31
21
7
-41
43
-115
12
80
-73
20
-53
51
-1
32
-10
76
31
3
-37
29
-7
12
78
-34
40
66
43
58
-8
-33
45
23
52
5
34
80
8
8
8
13
18
-49
75
-34
-39
-27
71
-18
-9
78
12
23
0
15
15
80
3
68
32
15
11
-9
-33
29
-90
20
2
1
-43
-1
-46
-25
21
30
-28
50
-18
16
9
77
40
3
46
8
127
-83
-21
14
-44
5
75
14
11
29
-72
11
-14
20
24
35
56
38
7
25
53
-3
25
26
-2
59
-29
33
18
-98
-4
30
58
-27
32
-25
-12
24
23
2
-15
35
-7
-1
37
9
28
37
-1
77
60
36
49
0
46
28
56
33
-8
0
75
35
0
8
64
-69
-2
-4
-15
47
-35
-34
10
24
-16
2
-43
12
-29
-97
56
-42
66
51
-12
8
68
-20
33
-24
-5
44
63
-58
-2
-37
-16
26
-38
71
4
36
28
-35
54
27
-5
59
-54
-42
-44
13
-22
-36
67
-32
30
-34
-37
0
127
40
28
85
-66
39
-25
-10
-22
-17
34
98
64
61
27
-49
-34
1
11
34
44
-33
-8
-27
22
-14
-21
73
35
-12
-41
44
-15
74
28
-59
58
15
17
-49
1
3
-39
5
6
26
68
16
-13
-64
55
34
-13
53
68
15
31
19
74
18
20
-6
22
50
-24
-42
-25
32
32
16
-53
5
-12
57
-14
32
7
28
-30
-8
31
-17
-26
-61
69
-74
-80
-3
7
58
62
11
29
34
43
72
-1
27
7
14
-23
23
9
-67
-25
75
-100
-26
2
-71
65
-39
-78
72
-11
3
-6
-17
-65
16
-37
30
-41
24
30
-65
-103
3
55
-15
-27
-47
32
71
38
-35
32
84
43
3
12
-23
43
62
4
23
26
-35
27
-18
127
-37
20
9
-10
1
4
-18
-26
15
-7
-47
5
-29
-25
6
-9
-65
-10
-8
11
-51
-15
3
21
-58
29
2
11
-1
-67
-8
-17
35
-20
39
43
-19
1
-17
-28
17
-83
44
37
10
-32
-3
49
-55
-27
32
-11
-46
-51
127
29
8
43
-9
-19
-3
-45
-1
-53
-17
74
41
32
20
-36
17
11
-5
-25
39
28
-11
-2
25
-15
-20
24
-26
97
35
12
-23
62
37
18
11
14
20
24
-32
-13
-9
22
-12
-58
-23
-40
56
-34
-3
-10
-28
-62
55
-16
-6
-6
-49
36
31
-17
38
20
-12
66
-38
-70
-6
-43
35
-16
24
-2
108
8
-3
-2
-3
5
28
23
-16
62
-27
-35
15
17
65
11
-2
26
-5
-54
-18
-7
-14
9
-13
22
11
38
24
-67
-24
-6
11
-11
-95
47
-29
59
74
77
-3
-19
-70
61
-19
-29
-35
-91
-69
-45
66
-107
-28
-43
-20
-37
-2
-46
-16
-19
18
77
6
-40
2
-127
48
-51
24
-48
-35
18
-4
-34
-49
-4
-45
27
79
-55
29
-50
6
56
-6
1
19
4
56
82
-11
30
-67
-9
59
-36
4
-46
20
9
-33
11
21
40
-6
83
5
-35
110
8
15
56
-69
14
-20
-107
73
-19
-28
11
62
-38
45
20
6
-19
16
22
8
-49
11
-18
49
-27
58
82
48
5
-30
42
-12
-21
7
90
-12
-33
25
13
-12
-14
-25
-42
-1
-11
-62
-45
-3
-10
-30
20
-47
-28
30
3
-23
-18
-5
-31
13
66
-48
-12
5
6
47
33
-60
-12
-16
-26
-97
-9
-1
57
-37
-9
18
-16
56
1
-14
4
18
20
33
-4
-27
14
48
8
70
31
-3
-79
-38
84
-7
-56
6
-16
-9
13
34
77
-12
-33
-47
-68
51
-77
-32
10
-17
24
-2
25
-27
62
-12
-3
-30
-71
32
-30
-115
50
40
1
-2
-68
23
65
27
23
19
-21
22
-66
-19
63
-28
-2
-11
-32
-24
-56
-126
-2
-40
19
-33
38
35
-8
29
-16
-22
-19
-116
123
18
-21
26
1
-29
-26
-17
45
12
-88
6
-37
-10
-31
-21
-47
-42
57
-24
-52
105
20
-33
-28
24
2
-20
19
-34
6
-24
14
55
28
-58
10
2
14
-10
-36
32
-8
7
35
36
39
-15
-83
-39
15
22
2
19
21
10
-12
-14
79
14
14
66
-59
71
3
-75
6
39
-19
-83
22
-100
-19
-96
64
49
-8
21
61
9
2
-8
18
2
17
-34
-2
34
86
0
30
-16
41
55
46
15
69
15
-23
-4
49
-51
-55
11
-5
23
127
124
22
-31
13
4
26
-17
7
14
40
9
-12
21
-25
59
60
0
38
78
8
-28
-42
-32
95
50
-19
-53
-36
-85
-4
-25
22
60
66
25
35
-127
47
62
27
18
70
-8
0
-107
11
20
4
18
18
-6
15
-16
-56
-28
-16
19
10
-38
7
-81
-40
49
0
40
26
3
57
33
13
88
45
0
75
-21
-78
-37
52
57
-84
-31
7
4
29
52
-39
12
-23
-36
-35
39
-18
-18
-34
23
67
-80
4
-1
-68
37
46
27
-10
36
75
-41
-25
-55
38
20
-13
8
-23
11
-16
66
10
58
94
-2
60
9
33
78
16
-8
-27
44
11
75
36
31
-60
-40
68
-16
1
-31
12
-59
52
80
10
-14
22
125
13
-61
-70
-15
43
-46
30
26
29
74
-17
-21
3
34
20
30
97
-16
29
-45
69
30
-10
-20
-27
-4
-20
-42
53
5
15
0
-17
-16
-20
28
31
40
127
-20
19
15
-7
-31
1
-1
21
-8
-60
-23
10
7
-40
-35
20
-31
-13
9
-14
0
1
-29
-25
-73
-42
-54
-7
1
34
-30
-60
-4
5
88
-11
74
-23
23
34
-4
-5
17
-92
62
19
1
-44
-8
-58
-5
31
51
-49
53
67
-41
-8
-45
-35
6
19
23
19
-45
-4
-67
-12
85
84
8
24
65
57
43
-92
-32
-108
-14
7
4
34
7
-88
-31
28
7
-8
10
1
-41
34
-27
48
65
-46
-3
63
3
27
81
31
14
-11
-28
-42
-41
27
56
27
69
5
102
15
19
69
-6
37
24
32
-74
-76
34
41
-11
8
33
3
-66
-42
5
64
21
-24
46
-21
42
9
37
-18
-16
-48
22
41
-21
-65
-18
38
24
-5
7
13
-76
-12
91
-6
-61
-22
-29
127
31
-51
28
-8
13
-3
6
85
0
0
14
23
4
17
-31
-45
-10
-18
13
67
-37
-5
3
-87
68
29
-43
-12
9
-32
-31
-68
-2
5
-4
5
-20
62
-21
23
-14
-2
60
7
4
-45
-7
-8
-34
-25
-33
-48
-46
87
-53
12
-45
-44
-85
0
7
-34
-29
29
-8
-52
-34
-27
-14
-19
46
-22
15
-10
3
14
50
91
47
18
-5
43
21
9
2
70
12
-38
65
55
-51
-28
-65
-40
6
14
-40
13
18
62
32
-38
32
24
-2
45
-97
-7
-14
-48
-6
-36
37
41
-11
34
-35
68
-27
48
-39
15
32
-10
-16
29
11
6
-84
-72
-28
-39
15
-4
-61
-21
-8
-14
-28
-7
-27
49
-38
-68
52
-65
51
-23
48
-37
40
-4
6
46
7
-26
-23
12
-127
-50
0
-21
55
10
13
50
-38
-33
-24
-76
-4
32
0
-76
50
-29
37
59
17
5
-19
-62
4
27
-6
-107
4
0
0
34
-9
5
50
8
-8
2
-7
13
-8
-42
-76
-7
-92
30
-51
0
55
-79
-25
-39
31
-3
3
-27
-63
-48
-9
18
0
29
-22
-46
23
49
-28
28
73
-21
23
-29
69
27
-33
-9
-76
-14
24
44
-13
-108
-23
18
-1
-53
19
71
61
-85
74
57
36
-102
-9
-25
17
-35
-37
12
42
-14
32
-31
-20
11
-51
-15
-26
-71
14
-41
9
-31
-43
-72
-19
33
62
12
-19
-39
-9
1
-26
26
-53
-52
7
-23
67
-22
-26
-2
-67
-15
-43
37
-68
-21
14
34
-14
-24
-2
-69
59
4
23
-11
-15
31
-56
23
17
13
-16
-38
-33
-12
-8
-65
43
47
-3
-25
4
-61
-5
22
77
5
-34
-8
-55
-63
-101
0
17
-31
-107
-2
-110
-70
-17
15
-68
-3
-37
-1
-15
-44
-1
12
60
-27
43
-8
39
-17
-15
-45
20
-89
9
31
35
-28
-54
25
-8
-18
-29
11
-21
21
29
-1
1
8
-26
-39
-65
23
48
-51
-5
-12
-5
-11
6
-14
-104
-11
-9
84
8
-28
20
-54
12
10
6
-47
-11
-51
37
40
21
3
-53
-80
-4
13
-10
5
62
-35
-37
-5
-46
-13
6
-35
-19
-64
-20
-14
-60
49
11
-23
115
38
36
21
-15
-34
-19
57
58
-117
32
-15
-27
-6
-27
58
-88
-68
39
22
6
-36
-59
39
-13
12
-22
-47
22
59
32
-12
18
-4
-20
26
-57
10
-105
36
-4
-19
49
-56
-8
16
19
15
-15
-75
-14
24
6
19
-34
-46
-33
48
4
50
50
27
80
66
-63
16
-18
-30
22
15
15
10
-13
5
-71
-13
6
28
68
-29
-35
21
-45
35
-30
24
-16
-12
-32
-13
-37
-72
-13
38
-4
25
-12
16
9
-3
12
-23
-35
38
-57
-46
10
-1
80
10
-36
-46
-23
-29
-14
13
-29
-41
-23
-69
127
-77
-35
69
15
10
16
-9
5
18
-40
-85
1
-7
-55
-31
31
-67
-24
-6
57
-11
14
60
-31
-46
-45
-88
33
-36
-11
14
-26
-59
-68
34
-44
-36
-68
-59
-23
-28
-7
-50
-29
-5
-49
3
-6
-45
-10
4
18
-6
-49
36
3
-24
10
29
-21
-34
-6
-64
25
-32
27
-6
44
-14
1
45
-23
-5
3
22
-77
17
30
-28
58
-7
8
9
50
23
8
-8
-17
-7
-26
75
-34
-50
7
-29
46
-6
-61
24
4
4
50
-9
6
15
-65
-6
-51
-24
44
-49
-44
-3
43
1
79
-38
61
-95
-43
7
3
12
-30
-31
-12
-8
-6
-6
-60
16
-43
19
7
-39
-15
-23
-33
59
43
-19
-30
60
-16
74
34
0
36
20
8
27
-19
-37
5
-69
-25
34
-13
50
-65
52
4
-19
14
52
33
11
22
101
-27
-37
-4
-28
-29
-22
31
-53
-51
32
-6
-23
-59
53
-25
40
8
-20
-81
-64
35
-52
2
1
47
-71
-48
-22
13
28
-1
-14
8
26
17
1
-15
36
18
-23
21
27
59
79
20
4
4
-38
20
91
22
11
-42
-11
-29
-17
-50
-77
41
-7
-15
-67
10
-58
-25
-20
12
-60
22
15
-15
-18
5
28
-80
-46
-19
16
18
3
-47
-30
30
86
8
49
-31
-52
-2
-20
-46
-66
23
-30
-1
-2
-5
20
5
-8
-18
-1
31
44
-42
41
-27
-42
-18
38
-32
-3
-5
-43
47
-20
-40
-52
-14
-7
23
6
28
61
11
-69
-23
78
-9
-32
7
-98
6
37
-32
32
59
-18
40
-29
-25
-14
-57
26
11
-3
-23
-79
-31
-54
77
-7
0
-11
67
-8
-42
-70
-103
-4
7
7
-89
-71
19
15
19
30
-51
-35
13
3
84
26
-33
-42
6
-44
-96
-45
-20
14
-36
-1
-54
49
18
-41
51
-31
63
-7
20
-21
35
11
-13
68
-13
-12
-19
64
30
-25
93
-57
3
-8
-10
-42
-50
61
-27
72
15
-62
40
-46
-42
-7
5
-7
-13
-14
12
23
-6
-31
-30
-20
46
15
-39
-2
-33
-49
17
-46
-53
-33
62
-5
45
13
-20
24
-10
18
-11
-21
39
-73
-45
-92
57
-13
-78
-7
-1
38
54
-32
67
-10
11
-28
26
-19
-4
37
-32
-61
-51
-52
-49
12
-43
-57
53
-50
-68
7
-17
44
-4
-18
10
-72
-75
-44
-13
-41
-18
-45
-25
80
-20
-41
-46
-15
57
-26
18
62
-35
-44
60
11
8
19
-15
8
-7
106
10
45
-44
-56
-4
-65
-12
-17
4
46
-18
-1
24
24
6
-60
-45
2
-35
36
6
62
-34
20
69
64
11
4
-69
-45
-37
8
-36
-42
5
-11
10
-51
40
12
42
11
41
15
-12
40
14
-30
15
-9
-42
-33
36
24
-51
-32
-101
-1
6
-28
-64
-2
-37
-1
121
7
28
41
-2
-42
51
4
-98
21
8
-52
-62
-23
11
18
7
-10
-34
32
3
47
7
-26
43
-39
5
-27
54
9
30
-22
29
55
-37
-36
33
12
-6
-1
7
-40
7
32
32
-1
-50
3
-4
-38
-39
-41
31
2
-29
34
-71
-4
11
38
-12
-76
16
18
-84
-14
7
15
-12
-68
-6
10
-87
12
-8
-27
-43
-17
-23
29
-39
-3
19
-39
-53
-5
-14
-56
-18
-37
4
-47
-47
-12
20
-11
-2
11
10
-60
-33
82
21
20
40
-50
-7
-59
-18
-33
-35
26
22
6
-84
8
23
-25
34
26
35
1
-62
-95
-78
-24
16
-30
-63
13
-6
9
-5
39
-51
45
-42
14
22
-86
-41
-49
-15
-50
-4
50
-79
114
-5
-45
21
-78
-30
-29
-13
-77
2
-34
-5
32
29
-32
28
56
85
5
26
11
-15
23
4
-12
-92
-68
-64
-1
16
-45
21
3
48
2
-62
-25
-60
-56
51
70
3
32
16
4
-13
30
-27
37
3
22
-2
-34
-25
-48
-6
-32
-40
32
-28
-18
10
31
9
1
-20
24
-67
87
-24
-77
-30
-11
-15
-7
17
-17
4
-40
20
15
20
-15
55
-31
-21
-31
-16
61
-7
-33
62
-8
-75
69
-127
-30
-17
-8
33
-19
28
-38
-2
30
31
39
-27
-28
38
-93
-21
31
59
-79
24
-3
-20
36
-2
-25
-20
-33
-8
-52
26
-3
-25
-7
18
21
-10
-62
-46
-45
87
-47
-116
29
3
77
-86
-20
-59
-16
-35
-10
-26
-56
-26
69
-37
41
30
39
-64
-75
-57
3
-43
-3
37
45
-41
-49
11
-51
-28
6
-20
-127
-64
-12
-51
11
-42
-5
-1
8
-43
-37
62
-80
38
-15
9
46
-20
-22
20
19
-21
-9
-10
2
-33
22
1
30
-62
-32
3
-87
-45
46
5
-25
23
3
23
-28
47
-11
-9
-42
-6
-65
2
39
7
17
-52
-33
-26
12
11
58
-8
46
-1
-28
-18
6
-53
12
5
-57
-17
-17
1
-31
0
-65
61
-6
-75
9
-74
0
-34
48
-22
-23
2
17
-34
45
17
12
-39
-14
-27
-27
61
18
-16
57
-6
20
-28
51
7
8
57
-17
40
-41
110
-46
119
-5
-13
42
-5
-45
-48
-87
17
-51
34
-86
-28
20
-6
4
-18
-36
13
-35
-52
107
74
7
-43
-20
38
5
25
-21
-37
5
7
-21
15
-9
-28
96
4
14
-28
-51
58
11
-48
51
-3
-2
-46
-57
-47
37
10
0
-28
-2
-7
-10
21
9
33
-35
-9
25
0
47
-95
-50
-39
-25
20
8
25
-92
-22
-15
-69
-85
-35
27
-100
-54
-1
9
-29
-29
6
14
-19
-98
16
-18
-45
-60
31
21
-24
11
1
78
3
-14
11
47
26
-13
-10
2
-33
-40
41
-24
0
-40
-47
-68
-17
-38
-95
28
-46
-14
27
88
-59
42
4
50
-19
42
-59
-15
-35
-31
51
2
-15
-1
-3
-66
-32
-16
-36
0
10
16
11
-29
42
-27
-59
25
-45
-60
9
14
19
-7
84
27
-38
-65
14
19
-17
-31
-94
-1
6
-39
-50
66
-24
-40
-13
-19
3
-15
-48
-14
46
67
-20
28
4
-29
-9
42
-6
81
33
8
7
-39
-31
18
-42
-39
-21
9
-36
-10
26
23
-62
-56
-56
-52
-77
26
7
-25
-41
1
22
34
-23
-4
24
-17
10
-68
-48
-29
-43
-40
-1
-35
6
58
13
-18
-37
8
2
-8
-55
4
-28
25
-21
-44
90
-12
24
-4
11
25
3
28
8
27
98
40
-40
-7
-14
-15
46
-22
-18
20
1
-53
-49
-1
24
-21
24
25
-34
-25
-16
32
19
38
-36
-17
-35
51
54
-28
-12
-25
3
-26
-22
-53
2
-81
8
-38
75
-24
-41
-1
21
-20
1
-7
28
-15
-25
34
39
75
-16
18
2
-20
-9
-42
-20
7
44
-2
40
-19
0
58
-108
19
19
-12
-6
-1
-33
74
19
2
2
9
32
39
-44
20
-5
-8
-36
40
92
2
7
-17
42
-38
60
53
7
-32
-39
29
28
58
-124
-27
-41
-9
87
18
65
42
0
90
10
68
28
-21
46
-37
13
-17
-11
-15
-6
-30
33
-18
-21
-92
25
26
-23
6
-3
96
23
-4
23
19
-50
79
-50
-9
17
2
-6
4
19
13
-24
-49
-48
-12
-12
-18
27
5
-39
-1
-19
-26
20
13
-29
-7
5
28
25
-37
40
-12
-13
49
29
15
4
-32
-98
-1
-40
-42
-15
7
31
-56
-9
5
-33
-32
-2
-28
-15
-49
-13
-23
0
-14
-29
-90
-39
-59
56
-53
22
-30
-19
-37
20
-29
-22
5
59
1
12
-12
26
40
-96
15
-8
-39
77
-31
-42
-6
-62
2
-30
5
20
-25
0
5
-15
-12
29
-60
-91
11
27
-4
43
-44
-42
-40
4
-80
31
-29
43
-21
16
-4
34
46
-3
-25
-16
8
53
-48
21
-44
-24
36
41
-10
25
-42
-69
-50
-11
-8
103
-65
24
76
-17
33
-51
14
-3
-28
-29
-31
-25
-48
-64
-83
-60
34
28
14
26
20
-15
31
-12
57
-41
13
21
-28
-21
-41
-90
22
-76
-47
28
119
-15
19
5
-33
32
17
-16
-5
43
-23
16
14
-6
7
-15
10
-41
54
16
2
-9
-49
-38
12
58
11
90
67
-32
-57
35
8
-2
-6
-55
-18
-61
12
-77
-18
-13
-4
-36
18
-124
46
-8
-31
-11
-67
-88
-18
14
-19
42
-7
-42
-63
2
-36
10
11
-11
-52
-45
12
-42
-18
6
-16
47
0
3
-9
18
-11
-2
-6
-28
-41
26
-54
41
27
54
36
-103
2
-69
-28
-14
-24
-32
-1
36
15
-79
7
37
-46
16
42
-22
2
36
-22
-1
-37
29
15
-69
63
68
14
-64
22
-14
17
-9
-24
2
28
26
12
-57
-2
-15
27
-4
37
-17
10
16
-3
-13
-46
-59
-44
20
-11
-71
-40
-38
13
-17
-27
-6
-22
26
-8
16
-14
-44
-35
-66
-10
34
-8
26
23
-4
23
6
-16
-4
-67
-54
-70
32
-40
-41
-29
-16
17
-57
5
-17
-16
-39
44
40
-47
-7
-29
21
-17
-55
35
29
-18
13
11
62
-46
34
15
-28
-5
7
27
-26
-5
4
-8
-67
-5
-21
-59
22
39
-26
-33
18
53
23
-27
-42
-20
-62
58
22
-5
-65
56
-1
-57
-36
-2
-66
34
62
49
4
13
59
32
44
-22
33
8
82
21
48
22
-87
-23
59
-23
40
-83
-58
-7
-27
-45
7
49
-5
-16
22
-24
22
-71
-34
25
9
0
-15
12
3
-42
28
-37
-11
35
18
-5
4
-30
-21
47
-13
53
27
11
49
-18
-33
-51
31
52
15
51
-23
-37
-16
-45
-38
12
-10
-48
4
25
-69
-6
-23
-4
-7
39
-48
10
42
-13
19
49
-65
-28
-1
-2
-86
31
-5
7
7
-42
13
-26
12
8
-76
-18
61
-5
-44
53
20
-78
-21
30
-48
-21
-33
-35
-18
-56
2
-84
-14
-69
43
-47
39
-55
18
-46
-92
-10
-67
-6
86
-17
-84
4
4
-32
-59
4
-16
-17
-90
-54
40
-19
-30
-5
-27
-34
24
-60
-11
-45
-18
-10
48
46
-72
31
-27
-37
56
34
-48
12
-22
-5
-24
-8
-36
-24
-68
14
55
-26
-19
-60
-31
-47
-1
62
-41
50
-122
29
34
-16
-43
58
-31
39
-63
-42
13
-88
64
16
38
-66
-13
-20
29
25
-98
-24
-55
-32
-3
-44
-5
-46
-32
4
-19
-41
6
6
-4
-18
1
25
35
14
-12
-66
49
-38
-38
-16
-20
-62
10
23
34
-13
-31
-14
85
74
16
-19
-44
-62
-11
9
6
25
-39
-72
7
15
98
-18
11
19
-32
14
44
-55
-117
-83
-27
70
74
19
-64
-2
5
-85
-40
55
-30
-85
63
3
66
-50
22
37
15
-7
-59
-19
-12
-52
3
-81
-61
26
-23
-108
15
4
-53
0
3
96
34
-29
48
-16
-63
7
-24
-27
-9
16
-32
-41
10
30
45
55
-84
-3
-45
-63
26
-65
-9
-50
-55
31
28
91
-85
-8
-59
-4
-2
51
20
-68
-49
-24
-38
-19
-61
80
28
23
7
22
-1
44
-42
37
-39
-33
4
-59
-39
-49
-41
58
61
39
8
-68
28
24
24
-41
-13
-29
-33
-3
-1
-17
66
-13
24
37
4
6
22
-33
-18
-25
-68
-55
-20
33
62
15
30
-17
32
33
41
95
-61
29
5
-30
-38
-45
-29
-15
6
-37
-71
-14
2
-64
9
-15
-80
12
-78
-43
-7
16
15
29
-51
-9
-6
58
-81
-20
-15
14
-55
7
-5
51
15
-21
22
5
43
-58
-35
5
-5
-12
53
4
28
-39
-31
26
-11
-52
7
49
-38
-23
57
-2
12
-3
8
-54
-45
-40
44
-21
30
-56
14
6
41
-46
-63
47
-48
-43
-58
-59
39
-22
-6
-78
-65
-29
-55
-69
62
-63
-2
10
-1
66
-31
40
-15
-46
22
-16
0
-22
-14
-14
16
-23
-73
-5
40
-8
-117
-49
-55
1
-68
49
-9
36
-24
-24
-19
-16
-68
-36
-46
-22
12
-76
12
-85
-18
-86
0
54
6
-4
-3
-45
4
24
14
23
-12
8
-18
-30
-6
-43
8
-5
77
-44
-10
-82
11
28
-9
66
47
2
-48
-42
-26
-42
-3
72
-63
-16
-21
57
-29
8
1
-37
-31
22
-14
-43
-57
-10
-11
-42
-51
-40
-39
-36
12
22
-10
-30
11
-34
-19
-77
9
-10
-76
-36
-20
-23
-5
-15
6
-28
-46
6
-11
-42
96
-16
-31
9
-8
-29
3
3
12
-24
-51
-20
-20
-30
-48
-15
26
13
-61
-27
-45
14
15
-22
-20
27
1
4
-56
31
64
-42
-6
-105
-30
-3
15
-18
1
13
-72
-84
18
-6
-4
-27
8
49
70
-17
-55
-26
0
-47
-32
-32
-60
-60
-3
13
12
13
9
-14
-43
-26
40
-40
-4
-41
-20
50
47
21
-17
-51
30
13
25
-19
27
-37
26
-91
-23
-29
-46
30
-4
-13
-16
3
14
-35
45
39
5
54
-16
-16
-30
-101
-39
-84
-45
70
-57
-28
22
-51
119
32
21
18
26
-15
29
32
-58
-38
-43
-14
30
-32
-22
21
12
9
-41
-99
-28
71
-7
-28
-54
59
-52
-56
40
66
28
-27
-38
-38
-17
32
-4
-17
-4
53
13
-4
-60
17
-55
110
0
12
-25
-42
15
-7
17
-9
39
8
-74
-12
-50
-22
14
12
-79
60
13
12
-57
-100
-30
-60
59
-36
19
-37
-43
-47
-63
-58
20
-52
-7
24
68
-113
-47
11
56
23
-8
-11
-13
-66
-47
-35
-77
-16
-16
24
-36
22
41
56
-66
18
20
-56
83
-32
24
24
5
-68
97
-3
-19
66
3
-57
7
14
-23
88
39
-26
-66
25
45
3
-71
-47
51
15
82
-84
14
34
-4
-6
2
-53
-60
54
-10
-37
11
-38
-26
-5
-22
23
-98
23
90
-17
-12
-21
-7
37
21
28
2
27
-46
8
61
46
21
7
-20
-45
23
-105
-46
-60
-19
91
-39
15
32
5
67
32
-10
82
-100
-53
-57
20
0
-21
-3
-63
0
29
-64
57
1
10
-51
-20
-33
-2
20
-24
-11
-23
-5
-53
-50
2
53
-30
18
50
-6
-2
14
-34
-125
30
-6
26
9
-60
-7
-45
8
26
-17
-38
-33
-14
-20
-69
-7
38
31
41
21
89
2
-58
52
-73
38
52
0
31
-63
36
-57
7
-49
14
23
54
79
-70
28
5
62
-16
2
-69
35
6
-56
-19
52
56
-20
-7
-63
-4
35
-30
-46
76
-44
-8
20
-35
13
-8
3
-5
101
-57
-23
-53
39
-12
-63
-40
-8
-62
72
10
-41
-38
-20
-26
-21
-35
-42
75
-54
-22
-31
6
18
-9
-1
-17
54
-33
10
-47
-12
32
7
3
-15
-12
20
2
106
10
-48
2
-3
45
56
40
-91
-12
39
-65
17
74
-23
-30
-75
5
-20
12
17
8
-95
-8
3
-101
46
63
104
21
-33
34
-27
5
-11
-33
50
49
-12
24
-4
16
-48
-62
17
27
-44
5
-47
-5
4
15
-9
-12
15
75
-40
-33
-35
29
-71
-3
75
-14
127
-15
26
81
-26
16
7
17
45
-62
42
39
-23
-38
36
-19
-29
-3
20
-11
-48
-9
-83
-14
52
-25
-24
127
-43
18
-91
-21
-89
-90
-1
-44
17
22
6
16
-66
-10
21
8
-56
-24
-30
9
-15
-49
15
5
-20
-70
63
14
-16
-10
89
30
-46
40
33
-21
43
-20
79
-11
-47
-60
19
25
-66
23
11
14
-24
8
23
-47
-23
76
12
17
61
29
-40
-88
-30
-37
-57
56
-62
34
3
66
-42
28
-14
-72
-10
-4
-18
-35
-71
-17
82
-25
1
-92
4
38
-64
14
8
-69
22
-34
-123
-14
51
24
-1
19
-8
-16
31
-2
7
-18
28
-49
-25
-37
-3
-57
-32
-65
-2
53
17
-110
-32
-8
25
-6
-52
56
-28
-8
52
14
-26
-39
39
-37
21
-22
5
-4
9
-92
-59
38
-4
47
-10
9
-18
-34
38
-4
-2
-32
2
17
40
-6
-3
-16
39
22
8
22
-14
-48
-27
3
-1
-15
-20
11
2
-15
-70
34
-27
-14
15
17
28
-123
-12
2
-33
-38
-4
-58
-14
-65
24
12
-7
-88
-1
-30
-20
-49
-14
-44
15
-115
4
-56
-46
-45
-36
17
-21
21
53
-8
-22
-44
20
-36
-104
8
-12
-4
3
-22
-45
30
-80
27
28
-31
-59
-43
32
-51
19
-27
10
27
56
-29
18
23
48
-28
-26
-14
15
-7
11
-41
42
56
-17
-27
31
-80
4
60
-42
66
-41
53
-26
-46
-14
-82
6
6
29
-82
-29
-65
-12
79
-36
-46
-59
13
29
-55
-4
44
-40
4
-19
-20
-25
-86
-23
-30
54
10
12
59
53
5
-19
52
-51
37
-24
15
56
10
5
30
-71
-94
54
-20
-93
-7
26
-41
44
49
86
-49
20
57
22
-19
60
-62
47
46
-44
14
-21
27
-38
5
-18
-17
-36
-23
19
-3
-24
-2
-35
100
30
127
-127
42
-10
-22
-2
6
18
-50
-103
32
35
10
21
-127
39
0
6
23
-24
-2
0
17
-43
-15
-37
35
-29
12
-43
-16
-17
-21
57
119
-64
-18
0
39
25
2
18
17
-24
-47
4
85
-33
-10
58
-29
-36
-25
85
47
-30
-19
79
35
-52
4
-1
-91
29
-35
2
-12
-11
2
-1
48
57
32
-76
1
-23
9
22
-87
-45
-70
44
1
2
69
-2
5
21
25
39
-42
-10
25
-84
-54
8
71
-6
-44
-25
63
-15
-5
-21
-7
-28
-17
10
-56
16
-4
3
-34
33
19
-14
-41
30
27
-12
-43
-13
64
3
43
43
-9
-75
19
-68
-37
-15
-81
-23
23
-25
-28
-29
-10
-78
-37
-65
8
-13
29
-81
30
-2
-7
75
82
40
6
-18
-69
-10
-80
24
-1
-40
8
-29
-10
-68
-18
-14
1
31
1
28
31
22
68
-12
19
-53
-51
31
-2
-42
12
16
-18
49
38
-38
-7
44
-54
33
-61
56
6
-50
-24
1
39
-21
-43
-26
-12
-10
48
-14
-15
-47
-16
-50
4
0
5
46
-1
76
-40
-46
-76
31
0
-4
-32
-27
-28
35
1
31
-8
-84
33
34
37
46
53
38
-39
27
27
-14
-24
-41
-39
-62
-40
-66
-32
11
19
1
38
26
21
71
10
-1
-64
-88
-121
-70
22
-6
-40
21
-2
-29
-27
56
-76
-47
-12
-1
-10
-28
23
-3
-17
20
-21
20
10
29
9
11
4
111
-4
28
18
9
-4
4
-60
-25
56
-43
-32
-51
-64
63
33
-52
-35
3
-49
0
-58
-92
-3
-43
9
-20
14
-115
29
1
16
-11
-59
-26
-26
41
41
-40
-28
-17
15
-14
-1
-77
-33
27
47
-60
-1
64
35
60
-36
22
-54
29
8
-6
-13
81
21
31
31
-35
-31
-73
19
-26
2
74
-43
-11
-25
-72
-3
39
-4
-45
48
-35
8
-13
-3
10
7
-5
29
-44
-37
-43
-45
14
40
-38
-33
-34
-8
-46
5
52
-13
-30
-55
-28
-44
-1
-17
12
-26
-37
-10
51
-1
51
15
-18
17
11
35
45
5
35
-108
31
-26
26
-43
-24
27
-11
-44
75
-23
-27
-43
-39
20
57
17
15
-30
37
14
28
31
-14
99
16
41
-53
-21
53
-49
21
-91
-87
26
-4
-36
4
-21
44
-42
-7
-37
24
1
-34
-19
14
-46
-28
-57
20
18
22
-114
-85
-35
-38
91
-37
-19
37
34
-14
30
9
-60
17
-28
-15
-52
-19
12
61
-14
21
-13
-2
-11
-32
-16
46
-6
-20
-5
48
-123
63
-22
-47
42
-37
0
45
-38
52
-3
31
0
-74
-50
24
-21
64
4
-6
21
-37
71
33
5
-57
24
-2
-4
-23
-7
26
96
-5
45
11
19
-7
-73
-10
-5
-24
29
45
-17
4
-5
2
-23
-8
-3
-65
15
36
49
-19
-20
-22
-34
-19
20
-34
20
-14
2
-17
12
70
-30
127
52
29
-4
23
24
44
-63
25
52
21
27
-53
8
31
52
-28
-31
69
59
32
14
-68
-20
70
-18
-26
-24
-31
42
13
9
-59
56
-4
-35
-45
-36
-88
17
-42
-9
17
79
54
-28
-40
19
7
6
29
54
107
-57
24
9
-21
-13
-13
26
-27
-71
-21
29
26
28
-29
-29
24
70
14
-60
-15
-29
-98
5
-2
55
-6
34
-31
-92
-7
43
-22
-26
-43
-51
13
-38
-13
1
-6
-32
-25
9
-5
3
53
32
-46
17
21
43
71
26
-51
-2
-127
-115
35
-32
32
32
22
40
-34
-10
-65
-75
-27
4
-14
-77
-22
-44
85
12
10
-25
24
-64
59
-17
-71
-56
-10
-37
-1
0
-42
14
25
-106
-33
30
-35
-8
-42
10
-48
-35
-84
29
-38
-39
70
40
17
-25
44
18
-29
-18
-23
28
27
-62
18
63
31
-2
-51
56
9
-39
8
-75
-36
-48
-18
-53
-29
0
6
-20
-43
50
-29
-25
2
-33
9
76
11
-41
-24
-1
18
60
14
-11
4
-41
-33
17
-44
-28
-32
2
-17
32
24
10
-54
-32
-81
-61
9
-24
9
19
-72
-5
5
-27
-24
-53
10
63
-41
-7
22
-48
39
18
-1
-47
-18
-57
5
-6
11
3
2
-72
-22
-20
-38
-39
1
70
12
9
78
16
-30
16
6
-29
6
40
14
87
-8
-35
-6
-30
34
17
27
-53
-11
-12
73
2
0
-56
-26
-50
1
-17
-30
6
5
-47
-14
1
6
-80
-55
10
63
-11
-62
26
-52
-13
1
-64
-45
57
-36
-28
-3
5
17
-30
-32
60
-58
18
41
-20
-24
-27
45
38
-47
22
-12
-30
-40
-77
9
103
5
95
8
34
-107
32
-72
-41
12
52
-31
6
-25
22
-8
2
-9
7
-28
-4
9
-40
1
-28
-32
47
9
-16
-50
30
5
-3
6
39
-65
-12
48
34
-29
68
-1
45
-35
-38
22
-3
48
45
0
19
-1
-37
-63
-19
-97
5
-1
76
-18
7
33
-1
-47
109
-14
51
-8
-20
-22
-45
-12
-23
20
51
32
-33
-66
-30
13
18
-24
-4
-27
29
16
8
-7
13
-46
18
-28
-14
21
-25
54
-10
-60
-108
-14
-38
-65
-9
-45
10
-8
-26
-15
-18
43
11
44
-8
22
-74
12
-39
24
34
-34
5
-24
24
-49
0
44
-12
67
0
1
-15
-11
7
23
-33
-21
64
-69
-43
13
-57
29
-12
-18
-31
17
11
-34
-47
14
78
-10
-36
-26
59
-71
6
23
17
-46
24
-59
13
41
5
-25
28
-1
32
-49
-28
41
-18
57
32
27
-99
46
36
127
69
34
-14
-5
-11
-4
-25
-41
42
1
44
10
-13
-52
12
-12
62
-8
22
127
-35
-11
1
-38
-29
-21
-6
46
-32
7
-26
-15
67
31
4
-61
51
54
-2
-21
-12
57
-40
-28
3
-27
-33
-18
25
-37
-55
-13
39
-20
-68
63
-44
-4
-10
-39
11
27
-23
-20
58
7
63
64
107
-41
80
62
-12
29
-12
25
-15
-43
-89
-1
8
23
-18
21
-5
3
15
41
4
-11
29
-42
-22
56
-68
0
31
-91
-58
73
28
-69
21
19
-24
-56
55
12
-16
-118
77
-72
-5
-10
7
48
-71
2
3
97
27
-7
-20
-43
-10
-10
5
-5
35
35
-2
47
27
12
-87
-80
27
35
-40
64
42
23
28
-27
81
-39
-25
5
5
-25
41
-5
-37
-99
7
25
-23
-39
10
43
36
-5
45
46
71
-15
6
-19
-7
-15
-28
0
-16
-38
25
-61
-51
-98
47
22
84
7
81
3
-19
-25
44
24
-24
1
-33
-38
51
31
35
54
-67
-21
-20
-80
8
5
-44
59
-26
-11
62
28
16
-2
-14
-57
6
4
80
-61
-8
-12
-49
-56
-3
-19
10
-85
-20
-6
-84
14
-29
-8
15
-64
7
-71
27
-6
45
57
1
-29
-3
13
-74
51
34
14
-27
12
-26
-18
-76
-4
-9
-19
-16
8
-4
11
38
41
-28
-54
53
-7
-24
35
-23
-70
-110
48
-55
-9
20
-36
21
60
11
-74
38
63
5
14
27
29
21
3
-8
-14
40
47
38
5
45
44
-2
2
31
8
-42
-11
-53
0
-50
38
80
-27
35
13
6
-18
3
-13
2
36
-24
-98
49
3
19
-57
61
-52
-41
-40
-87
36
33
17
-33
0
34
-27
43
5
-71
45
-75
-22
-4
55
-5
-3
127
47
-17
23
26
29
45
7
-16
27
32
21
1
-32
-4
21
1
6
-26
27
-75
-18
22
-70
57
-24
-35
25
25
-21
-20
-66
-1
-42
35
-32
8
81
-4
59
72
23
54
9
-67
-12
4
-78
21
45
15
-47
-28
21
0
-52
0
-105
0
-34
-54
-17
-7
44
-20
-62
-26
-17
-22
-73
4
27
-6
60
-57
-69
-48
-18
71
-116
-62
-30
-29
15
-33
-10
-23
-16
13
17
22
-40
-56
-33
-12
-49
-33
-16
-6
-35
45
-33
-11
-25
-28
43
-12
-1
-32
39
-24
-5
2
-9
13
-9
-80
39
-15
53
-52
-5
-15
-20
33
66
-9
-53
-45
5
-19
-24
1
-23
-66
-25
17
3
39
9
43
43
-46
-18
-62
-29
24
8
32
10
59
-39
-80
-22
-78
28
-11
-86
8
-52
26
-21
-12
-48
-4
-22
20
36
-68
10
28
-28
6
-36
-28
36
-28
-8
1
27
-36
44
-3
-22
-39
8
-16
28
2
29
-12
74
-9
-24
-26
-38
-17
32
-25
-41
-72
-6
-28
46
-24
-11
36
-14
-2
15
-41
45
4
32
-24
0
32
30
36
34
-104
25
-1
29
38
-15
-33
-13
6
-58
4
-34
-72
-17
-35
60
-19
44
-74
-38
-75
-95
-24
-8
4
39
-82
-36
107
23
-62
46
-4
16
9
64
-7
-41
-102
-1
10
46
-71
17
35
-89
-20
-40
-9
-1
-34
6
5
12
13
110
-52
-36
-45
52
28
65
11
-60
32
63
-35
-42
-29
32
12
-31
40
26
-27
22
-22
66
24
-21
-40
-36
-54
3
127
30
58
-27
3
50
14
23
84
19
45
0
79
-47
-4
-21
-5
-21
19
8
-124
12
7
-91
-21
36
20
-1
-66
6
54
-21
-76
30
8
41
94
-18
50
-39
-6
36
-50
47
-10
63
4
-4
-86
37
-46
13
5
-11
-23
-39
42
-53
-16
3
22
-10
-67
-17
2
12
5
8
-23
-63
-38
76
14
-27
-85
1
-32
13
72
-52
68
5
1
25
-41
-24
-26
-36
-12
17
27
-30
-44
16
-37
-27
-10
-37
-41
-47
-52
17
65
-115
53
-8
60
3
-49
-39
1
8
-20
2
-28
6
53
-60
-28
-32
-3
3
-31
14
20
-42
-50
-19
41
-46
-8
-14
6
-10
3
-16
-35
-31
15
-19
-43
22
23
-26
-7
-45
12
-30
4
47
-25
-35
-20
48
-5
-111
-3
4
51
-66
25
-12
-50
-19
10
17
2
-7
-50
-1
-11
39
-86
16
9
18
-10
-2
-16
35
78
-4
-42
-33
-40
-3
-21
-64
-39
-25
46
28
-3
1
-62
62
-56
-3
-32
-30
-22
23
-48
-24
-23
-4
26
-7
-4
-15
-24
-71
3
13
-12
-27
-32
-11
-17
-33
18
-12
-13
-42
29
-72
-19
-1
18
16
69
-54
-40
-70
-12
-1
45
4
65
16
12
63
74
78
-5
30
35
-6
-21
-25
8
42
21
-45
-32
-103
-49
27
18
-4
76
-1
-14
-78
-29
-65
33
-6
45
45
61
70
8
-15
0
16
-18
-93
62
-21
40
-5
10
-80
16
2
-20
36
-31
-47
-4
45
38
1
58
39
-2
-7
18
13
-25
-26
-47
11
49
-12
33
63
-21
19
-17
-29
5
-11
-47
5
89
-71
-35
-35
-16
-11
-17
18
-37
38
10
23
43
-28
-6
-9
-12
45
-11
-55
8
8
36
78
80
3
-26
59
8
-40
-2
-31
-25
-10
-21
-22
5
-6
-4
-30
53
14
48
-48
-25
-37
37
63
61
3
-12
-15
-38
-51
12
-12
5
38
3
-87
-9
-9
-11
85
55
42
-36
-65
72
-10
78
16
19
9
24
3
-48
-50
-11
31
27
29
30
11
-25
2
-19
65
14
3
17
6
58
43
2
-66
-4
-6
25
12
-51
-18
-11
-20
12
75
4
-5
20
-44
-58
-21
39
38
-61
-27
-57
-7
95
-3
28
-81
41
-7
16
23
-6
52
75
-9
28
-44
45
18
63
-21
57
29
15
5
5
-15
29
72
3
69
-14
-3
24
-34
46
14
6
-23
26
47
-20
11
3
-37
22
-41
127
28
-25
32
44
-20
12
7
-4
-6
47
-37
-10
28
78
29
-12
-8
7
-53
37
-15
57
4
0
-6
-49
-18
-35
23
51
47
14
70
46
-42
21
-22
-45
17
-24
-17
-5
11
-72
-38
1
-30
26
-15
35
10
7
1
-18
68
45
57
-32
5
4
-24
1
61
-7
3
5
44
3
5
38
49
-36
21
43
-24
-13
30
70
-5
68
-12
45
-63
10
70
20
45
41
40
25
32
9
-14
65
-22
17
-18
-8
-65
0
-11
51
55
11
-19
53
28
-39
-6
0
35
-47
-80
-8
44
-36
-12
38
48
59
-36
86
30
-77
14
-46
-23
-38
19
-36
25
80
7
4
-56
65
26
67
31
17
1
19
-49
-35
-14
4
25
-4
-34
65
19
-27
43
61
32
-65
61
49
8
15
-47
-31
-26
15
-110
-19
52
79
3
-7
-6
15
18
7
-12
-77
72
40
55
-4
70
-35
41
30
32
64
-45
-61
116
7
22
-16
-13
49
33
-51
-14
0
-15
-34
10
84
17
-22
48
-47
10
36
18
-11
50
-7
-8
42
-3
65
33
-15
10
-31
-43
37
-69
-85
56
12
-11
36
-38
-10
-23
71
2
55
-16
-21
-2
-59
-102
6
21
127
6
-67
-2
31
35
-41
60
-63
-22
70
-3
96
-10
-54
-3
12
8
-78
-40
29
41
15
65
3
-7
13
30
17
-51
-69
17
52
-78
-39
-36
17
26
23
-5
13
3
-15
36
-12
-49
-30
3
67
-10
64
-23
-27
6
63
22
43
15
-5
-13
-28
14
70
-10
-56
72
-10
1
28
6
-62
-9
-30
72
57
-5
29
-29
-51
25
-34
-8
27
25
-62
36
16
-2
41
-8
33
23
29
30
1
-31
-7
-127
32
-11
72
-28
-73
37
107
-10
10
-6
60
-32
-29
-10
-48
10
38
21
62
26
-44
48
4
58
-67
-8
70
36
-1
-18
-33
26
-15
47
44
16
6
49
-17
45
-16
-61
8
5
28
44
46
-47
21
-2
-9
31
33
-44
54
-47
-11
45
13
-28
-6
73
27
-5
44
30
-85
-18
-5
22
46
40
43
24
-13
-15
-41
-80
-11
29
-36
-7
65
11
58
-19
68
-39
-32
-28
22
-36
53
109
-2
48
72
-6
12
50
-8
15
-24
43
82
10
-24
41
-15
31
8
71
-30
-18
-14
-4
-7
1
-25
16
44
0
40
-23
44
-55
68
-13
-4
-35
-48
43
1
45
-18
120
-28
17
10
-15
11
-28
-23
-42
14
17
-10
-39
38
42
54
4
-9
36
12
-5
96
-14
24
33
-66
40
16
17
71
23
5
117
39
33
-13
-38
44
-29
60
25
28
-8
47
-34
-80
17
24
25
9
12
-29
-12
-20
-59
-25
26
8
-35
-68
2
-65
0
-2
69
26
42
-30
-20
-13
5
-29
-14
7
19
1
7
28
-94
-31
3
5
-21
-5
14
-75
-86
42
67
8
-73
-36
16
12
-53
2
36
50
36
-21
-40
-49
48
-14
-23
-30
-8
44
11
37
23
-10
15
6
84
-3
19
7
-47
25
35
-73
23
-39
5
-73
-91
20
-62
8
35
11
-66
31
47
45
-37
-3
-5
-44
16
51
-30
-26
-43
7
68
46
60
-41
52
1
33
-14
-35
-2
2
39
-10
19
63
-42
-36
65
-17
55
10
-59
-12
-10
62
12
20
21
41
-2
-14
-2
35
-89
18
0
-16
-75
44
-6
56
-21
-46
-2
-19
-21
31
24
25
50
-72
48
-4
-39
36
-57
77
4
19
46
-28
-60
-56
26
21
0
-4
2
-46
-55
-22
-74
-3
37
23
71
67
48
68
73
88
-56
-8
82
30
-17
43
79
-34
-29
50
13
-37
-56
-27
29
29
-3
47
-25
-48
-30
23
-42
-63
-66
-31
-16
-68
3
51
47
4
86
63
22
-44
39
36
25
2
-60
-14
36
-80
-30
-20
5
3
-9
15
-28
-68
4
-23
1
-9
-17
13
-12
81
30
50
0
30
-40
-17
-30
-5
-19
-4
-8
47
38
-54
36
-42
-38
76
42
22
26
54
-35
35
15
-29
23
37
15
-2
-40
-3
44
-31
60
-25
10
8
23
4
-12
-62
41
-16
1
-12
21
-7
-22
-5
3
-46
89
-16
-69
66
-18
4
-11
-16
19
29
-2
-40
-7
3
14
-3
-23
47
5
-5
67
1
57
23
-24
-31
-19
0
-20
88
-90
7
32
31
13
64
84
-49
-18
-28
-2
-4
51
5
-12
-57
-32
42
-90
-12
-41
70
-26
9
0
25
-25
-85
33
-4
22
-46
-19
24
35
48
-37
47
5
59
52
22
-56
0
19
-12
47
-66
-52
26
-57
45
-19
34
61
-54
11
-16
44
19
108
-18
-6
-32
14
18
-6
46
36
-63
22
10
-54
56
5
-8
-44
16
-32
-79
24
12
52
21
9
-5
-7
2
-36
-31
25
65
53
-54
34
-53
23
-11
-3
42
25
-46
18
0
-60
33
44
30
-3
-17
-75
72
-59
33
-14
73
26
-48
-21
-50
119
-16
-40
52
36
46
-24
127
34
30
65
91
-13
-27
-35
-2
-33
32
87
24
-1
14
-6
14
1
-15
-25
-11
-34
-101
32
-1
6
100
-15
49
15
-24
28
25
-20
-39
23
-37
-7
-90
1
107
-9
36
22
-4
5
87
0
13
3
-11
-14
21
11
12
-45
25
29
0
-14
-7
25
-109
32
21
-17
84
-69
-23
-15
127
25
47
60
-13
106
-28
17
-18
-10
-17
102
-21
-73
-52
-71
-38
28
-106
-32
62
12
-13
10
-16
63
5
-66
-4
46
39
93
42
32
13
-2
34
-27
99
-13
95
49
75
22
-27
27
-77
-31
34
16
-24
-9
-6
-76
84
-26
-46
-31
32
-14
32
-40
16
37
57
-20
18
-20
-107
-96
-78
-15
16
-4
-40
-12
-127
-82
31
72
-14
32
57
52
-50
86
-25
127
-44
127
-72
-49
-43
-19
10
-5
-41
-59
24
-31
-54
127
-1
-39
17
-29
30
-111
0
-1
-75
41
-11
-53
-37
-28
25
-62
-55
-2
-29
-47
105
-14
-66
-8
16
-25
24
69
46
46
-45
-50
102
-67
9
-14
-4
-25
-16
-92
57
53
-62
85
-56
-12
25
-57
-45
-31
45
-22
-18
-111
-18
-96
-107
-127
4
11
-20
11
-4
45
3
25
-101
-16
-18
20
48
-3
-3
62
35
32
-29
26
3
-30
72
-12
114
88
-41
63
21
-71
83
-8
50
43
-35
-24
-1
23
-61
38
23
56
-18
-63
28
-50
-21
1
-89
38
-55
57
-64
38
2
-21
-4
68
-29
6
40
-32
-105
22
76
-110
-74
42
-66
-62
-49
-40
16
-88
-103
18
-51
-3
-12
-54
-36
-5
24
49
-13
46
74
15
12
76
-44
-55
33
84
-73
51
13
-68
-39
-22
-84
-109
127
34
-33
-33
-15
-4
28
-22
70
-80
-24
-25
95
20
-62
57
-58
-39
-64
108
-89
1
-13
-107
-29
-32
2
-48
-1
-41
-26
-20
-60
-28
45
-14
3
97
-45
-56
-62
-107
-54
6
7
16
66
-5
16
-16
13
-19
-2
-57
70
47
67
-13
-5
27
54
-14
-35
64
24
6
-4
37
6
2
53
-4
-26
-25
10
49
-4
4
-21
-60
-18
23
127
-36
2
-93
6
127
-24
20
-35
11
67
-80
23
-67
-6
41
23
20
16
-68
-49
-18
12
-87
-47
6
-4
-48
-5
-41
-10
-19
-51
-53
29
56
-43
-35
-11
45
-12
-43
51
-2
-95
44
26
35
14
57
39
46
-31
26
-58
15
38
78
-51
-10
13
44
-14
51
-31
-14
-46
29
-55
7
-77
-13
88
-51
108
11
-2
-64
-19
-3
36
-4
15
-12
-18
13
-75
-4
-28
-21
-89
-113
-29
88
15
7
48
-24
24
-29
-24
-127
-107
-25
16
-66
18
-26
-61
-103
-5
-77
-54
-90
87
62
-127
-22
54
-18
-34
64
-12
50
-39
-1
1
34
47
-39
29
-11
-20
18
-92
39
-14
82
-28
-21
-26
-7
79
41
66
-40
-36
51
-69
-36
-3
-60
84
82
-69
-88
-46
30
14
9
23
-25
51
-37
-11
19
-30
31
-1
-8
90
-22
-87
11
56
122
-25
41
9
20
61
40
-45
-69
-31
-71
-66
74
1
-23
7
85
2
71
-34
-127
-76
23
42
-64
-27
-22
11
36
29
-3
-59
-27
-55
-25
-25
-34
-97
-77
-5
-86
-46
21
43
-60
-55
-2
37
36
59
72
127
64
-81
-6
127
22
127
-12
-1
-39
-7
-87
-10
50
127
-78
13
34
-46
-6
-66
-10
-49
-31
-31
-109
-13
-5
4
16
5
39
-2
-127
-15
-61
-43
-22
-74
89
-62
91
54
26
18
69
54
53
-50
-46
-16
19
-127
-74
-71
-10
69
-58
14
-16
65
102
127
14
54
-22
40
26
127
-65
64
7
-87
127
86
33
8
-37
127
-73
1
68
24
80
-45
111
7
-32
-12
-75
5
102
37
-15
-36
-83
52
25
119
102
-14
21
65
57
-27
21
17
12
-8
14
-115
-71
-1
11
28
7
21
15
-46
3
1
-6
-15
-127
83
-69
-78
3
-58
-36
-116
34
-8
60
4
-46
22
17
-18
63
-75
10
-21
20
127
-73
-33
17
-102
26
73
-66
-6
3
5
-11
-13
111
-12
7
-4
85
-72
43
-127
52
34
75
89
11
43
-79
56
62
25
-100
-22
27
-11
9
3
17
-7
-2
29
16
37
75
-70
78
86
20
121
127
-6
-7
-22
-19
-60
-15
-3
-48
-127
60
43
34
124
23
-32
-13
-113
-69
2
107
-40
-57
-101
87
17
-76
35
35
-16
-46
11
73
-86
106
31
-108
-21
-13
0
93
-100
-15
60
2
39
127
-4
-37
83
7
56
61
-57
-30
9
50
2
-39
2
-34
71
-30
38
7
-10
-51
-24
11
33
25
-11
-100
57
-127
85
-7
-18
-3
23
43
32
-25
3
-19
-58
61
-10
-22
127
8
23
29
-123
-36
8
-4
-49
2
2
-52
-24
19
26
-69
-53
39
-27
-23
80
-53
23
-127
34
86
-127
-16
15
-11
26
65
-12
-21
-74
-9
-65
-23
36
71
78
-17
28
67
-20
-15
71
-8
25
-52
-43
18
35
40
-29
84
-54
-26
-8
97
-86
-25
-22
-27
-5
-47
-28
65
-62
5
-40
-21
63
60
24
-30
-51
22
-127
-36
-18
27
39
56
-51
-26
13
4
-60
54
38
-70
28
-61
80
-27
46
54
57
0
70
-10
88
-33
78
39
-2
-1
-88
-48
29
35
-9
-97
1
-3
42
-83
55
-49
-120
8
19
70
-26
15
-6
-16
24
-49
16
-40
-18
52
-91
-20
-34
-63
17
13
-15
2
-26
86
15
91
-8
28
-49
-79
9
-22
-59
33
7
-39
-27
-40
-52
56
13
-32
-26
-67
48
33
112
3
-46
-32
-18
5
-8
7
127
-10
18
85
-62
26
-83
-7
-18
-19
8
-11
28
-16
127
-84
-27
-5
52
-127
93
47
19
-21
-7
52
-27
-5
-73
32
-127
41
17
-6
-4
-67
28
8
-93
-40
43
-106
-44
-32
19
-57
14
36
-54
25
127
37
127
56
27
109
95
-36
-68
-4
-15
-70
-17
9
124
24
-30
105
33
-39
-90
-13
-54
46
1
102
-63
-49
17
-51
-25
26
-26
-76
32
38
-57
106
-82
8
-96
127
-19
-49
11
-83
57
-59
79
-31
-118
-34
60
12
83
-26
0
85
-109
81
24
-53
41
-12
30
-39
-90
-4
73
38
85
-35
-20
-23
-34
8
-39
6
51
-14
20
-101
-17
-16
-100
-19
-42
-42
47
-8
32
-9
-12
-63
31
29
-60
53
-109
-21
-9
-59
0
-29
-27
-15
-20
5
6
8
-34
20
-38
-65
0
-14
32
-5
72
-34
35
17
-40
-16
-57
-8
-51
-23
-54
6
-55
28
0
40
-12
-113
-14
10
-20
-13
10
-13
-21
18
-83
-20
-42
-56
-46
-29
-4
-22
-1
-43
6
-29
68
-49
17
-91
-8
-4
58
-16
-68
14
15
37
27
-44
-59
-43
-43
17
-20
-78
74
-20
5
-11
-6
19
18
68
5
-7
-34
-30
19
13
-27
-58
7
-72
-3
-37
-32
-10
52
-2
-11
-36
38
43
-8
-16
14
8
16
-23
2
-57
-14
30
-8
-29
-80
35
18
-20
20
-62
21
-62
-14
30
-21
-20
-33
6
-41
23
-25
-50
-71
-6
-8
55
9
-77
10
-109
26
28
-29
-50
42
30
-49
17
-15
-44
-1
13
-65
-22
-43
13
53
30
15
26
25
15
-112
19
19
-34
19
-1
-29
22
-86
19
-19
-33
12
6
61
-73
-29
-89
-94
-3
-29
-39
-93
31
-45
28
-55
4
-49
-68
-11
-72
0
-2
-47
56
-61
-48
-82
-76
22
-20
40
5
-31
-75
-7
24
29
5
-54
-38
-15
-28
-14
-49
22
-36
-26
-48
82
-25
8
-27
70
36
-12
-23
9
50
-56
-65
35
-21
17
-117
-59
-48
-12
-37
-72
-57
-2
-17
-39
-17
-127
-19
-16
42
25
-47
-26
-21
-49
18
-15
-26
9
23
1
-42
-18
11
-53
-18
1
96
-12
-44
2
12
-127
3
4
-9
16
-73
-42
-91
-19
38
14
-10
59
21
-10
-5
-20
25
-29
-12
-7
6
66
10
35
-62
33
20
-77
72
9
-78
-16
-77
-44
49
43
16
-62
-51
-2
-14
16
47
-10
-71
56
-43
-15
-31
-97
3
-95
-21
-66
-34
-18
17
34
2
-48
-16
-90
22
-38
-54
-30
20
-31
-88
-34
-62
-69
48
38
9
-76
-17
-2
-16
-29
23
30
0
42
-7
-16
-51
-52
-42
-75
13
-45
-19
11
25
14
-17
-81
12
-12
38
32
17
-39
-6
-41
-124
-39
15
-24
12
49
-13
-14
-2
-8
-27
-2
27
13
20
-15
52
-10
-37
-81
-99
-33
-27
12
24
14
-35
-43
53
-51
-65
-24
21
6
-32
-5
-45
-65
-6
18
-7
-83
-41
5
-22
-24
11
17
-37
22
21
56
-62
10
79
-50
-81
22
18
29
36
-25
-48
-50
-26
-12
-11
30
38
-4
-58
24
36
-35
-41
-101
11
-26
-18
-21
-28
5
39
-60
28
71
-82
-24
6
-54
5
19
-30
-48
33
-20
-10
-53
79
-10
-2
-35
-21
33
-35
3
-8
-6
-58
55
47
22
-35
27
-10
-4
70
16
45
56
-20
-43
102
-26
-65
22
-58
78
23
-17
-111
-90
-11
-29
-36
-29
26
16
20
-16
-57
-54
26
3
-57
19
73
-59
-9
-42
-9
16
-36
-21
65
-23
23
36
-28
34
-63
5
44
13
-55
-46
23
79
5
-67
-22
-11
33
26
-34
-91
9
-30
-19
-5
32
-14
6
-9
3
-51
16
-6
-39
21
-51
-55
-4
-19
-95
-2
6
21
-18
-22
-28
20
40
-14
-40
36
-1
-101
-31
-51
-60
-41
-47
41
-84
-24
-48
-74
90
22
70
18
-49
-9
48
-85
30
29
28
5
-60
-24
8
-30
-8
-40
-73
-30
-14
28
-33
-26
30
-2
-31
-61
-8
31
-6
-50
-13
50
-28
27
-33
-31
-40
92
-43
-20
8
42
-28
-9
-74
3
-33
-21
-19
-12
-50
-54
38
-89
-55
18
-72
41
23
-79
21
23
47
50
-37
-37
-30
-26
-16
-28
-50
-43
20
-77
19
-76
38
-3
-90
-6
-34
50
15
-111
48
-12
41
-27
-96
6
-26
-46
-46
-47
116
11
-61
-16
-7
-51
-11
-41
-2
33
-27
-56
36
-38
-76
44
-64
-80
-15
-31
36
3
41
22
-51
-7
-67
-82
-26
18
53
-52
-1
-5
-58
-11
-26
38
24
-28
-19
77
-36
-6
11
-42
-43
-111
8
4
-3
-31
-18
5
4
-24
-22
-3
26
-18
21
-57
-42
44
21
-13
-63
-16
8
3
-10
-85
-10
-29
-29
-10
25
-36
-30
-40
-116
-27
-13
-4
-117
-7
-2
-31
-59
45
-7
-37
106
9
-15
3
7
-110
-33
-8
-5
-57
-35
-30
29
7
-96
-13
16
4
-9
-35
-43
25
-54
-66
-3
14
-6
-70
27
-10
-73
-3
-84
-54
-22
45
-10
3
14
-35
-10
9
-76
-23
-2
-36
-101
-88
0
17
-8
-79
-61
-14
-69
54
5
-21
-4
-67
12
43
-62
-38
-26
-12
13
-27
-19
-98
-47
-28
28
-17
-25
45
-40
8
-53
-24
-32
26
-10
-38
-23
64
30
-10
-7
-56
-15
-31
-7
-10
-41
31
-1
9
59
-4
-27
-55
-74
-28
-83
42
38
81
-20
-13
-50
-12
-4
-18
14
-7
-10
-1
26
14
-17
0
-38
0
-92
-38
2
-40
-25
8
28
-17
-8
44
-38
-44
-53
18
-67
13
67
-64
8
-35
5
5
-8
-49
-12
-41
-61
-4
-20
9
-14
79
-62
-74
-3
-75
34
-23
-8
18
-8
12
88
34
-23
-8
26
14
44
-28
13
-22
-20
-51
23
-66
-17
22
-40
-6
47
-72
26
-12
27
41
12
-4
-21
35
-43
-26
-14
-87
-77
-19
-5
29
-28
32
-53
17
-1
51
11
4
-110
-39
27
23
35
31
-23
-12
13
26
-7
-76
-20
-30
11
19
-23
34
17
47
-45
12
-16
-21
-36
-75
-77
17
-1
66
-3
57
-36
-68
-79
-70
-107
2
-13
76
7
-31
4
35
-33
5
13
-52
-54
4
-14
-94
27
-64
-26
7
-86
-38
-18
-85
-47
-14
-20
17
-33
14
8
2
6
-13
16
-51
-36
-21
-53
-20
11
-27
0
-31
52
-44
-9
-74
-60
33
20
30
37
0
-52
-15
-19
-25
5
-47
76
32
20
-12
-18
-57
-43
-37
-19
-100
17
-57
-16
-26
57
-2
-12
16
61
-14
-54
-1
-52
-48
3
7
47
-24
57
6
-1
11
-5
32
-28
-8
-44
71
5
-15
5
-29
-1
4
-17
23
-57
-41
-23
34
14
107
-40
19
-62
47
-12
-16
-46
45
40
50
-9
-20
-73
3
-55
-23
-30
37
-12
16
17
-21
17
-63
-20
-48
-31
33
53
1
-87
-18
-75
-14
-40
-23
-19
-10
-14
64
108
-58
-4
-22
4
32
16
7
23
-127
9
-8
-18
24
-30
-20
-43
-24
-27
-72
37
57
-45
-35
-14
42
0
-45
-25
-3
-16
15
13
-22
8
6
72
24
47
15
45
-38
-59
34
25
-40
-54
-10
-36
-40
44
37
-71
-20
-57
-44
-33
-6
-11
-64
21
-73
-25
-4
-79
-40
22
36
0
8
-71
-34
-21
-58
-9
-24
-18
5
-35
-39
26
-26
-15
4
4
29
-77
25
20
-52
-18
-37
10
21
-8
-1
51
-39
14
-50
-57
-54
-37
34
-47
31
84
-3
-38
56
12
7
-53
-88
-18
-36
11
-92
-77
-76
48
6
-91
-26
-49
-10
-13
50
-22
-18
60
2
-5
25
-10
63
-25
4
15
52
22
-15
55
-21
37
52
10
-127
-9
-31
31
-39
-8
60
-15
49
-16
-34
11
-38
38
12
-33
19
53
47
-9
0
-11
-15
-21
-1
-68
-102
-38
-24
18
-37
-66
-18
-43
-2
19
33
-27
21
-2
50
50
-7
8
-75
4
7
-16
46
24
-18
12
-35
55
-20
34
-55
51
55
17
-67
-59
26
-4
28
-18
-34
-36
-53
-8
40
-7
34
-127
-29
-31
-101
10
17
-68
-28
21
19
-22
-26
13
-13
-127
21
20
-7
-37
-27
-57
44
-5
117
60
5
-13
-53
-46
-10
-127
-10
11
-38
-18
-70
19
-22
38
-44
-45
-6
-50
-20
58
32
-22
67
1
53
-109
20
-18
-10
-45
-39
30
3
7
40
69
-74
-1
-43
-27
-46
18
5
-68
-48
19
22
-15
-69
58
-34
57
7
79
45
-19
-105
-1
-29
-24
8
-11
-13
-67
13
-32
-5
-7
-13
-33
-12
49
-60
44
2
76
14
28
-113
-23
-40
-49
23
1
38
-36
16
-22
66
16
0
7
-15
25
0
51
49
-30
-58
-20
33
-22
-68
-86
75
-4
3
-10
-12
32
-41
8
60
2
40
26
23
11
-19
19
-7
1
-12
7
-68
-82
-33
-118
-17
0
1
-24
-52
15
11
29
-95
-91
24
48
-29
-8
21
57
29
49
23
0
13
54
63
42
18
-71
-51
18
53
-53
5
-37
-19
7
-67
6
28
-67
51
21
33
-12
-72
-19
-60
-106
-60
-48
-54
-65
-92
5
-23
-33
-24
33
-49
11
-73
7
16
-26
-35
-11
-40
-60
5
-13
-4
-19
9
-25
-20
-44
-15
22
-38
-4
-77
4
-36
6
-46
6
-53
5
39
8
23
-5
20
-38
22
-37
-30
8
40
-16
38
38
-7
-86
42
6
100
-95
-3
17
-79
-20
-50
58
40
28
-6
48
13
30
-21
-1
21
-10
7
-6
34
18
10
-29
10
-46
34
-127
34
-19
18
-44
-53
-39
-38
-32
-12
83
67
-54
27
-31
59
10
-28
-17
-62
41
3
-67
-47
43
-21
16
-41
-44
-13
1
-37
-14
5
1
-22
28
-40
-16
23
50
-13
-53
60
-8
5
-74
-33
-68
25
31
-20
-17
-33
-30
-69
-5
32
9
43
45
-3
2
7
-41
20
-48
-41
0
-12
-16
12
-1
20
3
-18
49
15
35
-21
10
51
16
8
22
-7
-4
-28
-9
8
-14
-37
-109
-25
50
-28
-48
35
-38
10
-31
-18
16
29
2
-28
-23
23
-12
-62
-31
10
-19
-89
-97
0
-15
17
37
-52
-30
-24
-94
-27
-16
-44
3
46
-34
-43
-15
5
17
-20
-9
-9
-1
49
25
-74
71
41
-36
-47
37
4
12
-62
6
32
-6
-58
46
32
-61
7
-87
-13
-7
7
-56
32
-13
-15
-5
28
8
43
-119
-37
-51
-20
-12
-88
42
35
5
-48
-46
-9
-34
8
-7
-31
3
18
-7
-29
-27
32
-28
22
-48
2
-10
-53
-23
-20
-39
-4
-18
39
-23
-78
-70
15
10
26
-46
5
-16
60
15
21
28
-23
40
3
-32
26
51
42
-42
36
-12
58
-22
1
52
37
28
-99
-24
-71
4
-52
-35
71
55
22
-54
-110
34
76
-37
25
-23
-5
34
-40
-26
13
-52
-1
-12
-47
-20
44
-32
-27
13
-11
-50
-20
-50
-2
17
-20
57
6
23
-23
-40
-8
-95
-93
-16
98
51
43
-108
50
-3
-49
7
-1
14
2
22
-73
22
-6
52
-22
4
21
62
88
1
-42
-51
53
7
46
22
-8
98
-3
7
-62
-5
-18
-15
-29
-46
56
4
-24
6
-18
29
1
44
12
-11
-18
-59
-56
-41
101
-9
16
-72
33
61
44
-49
17
60
-30
-49
2
-55
-22
-72
85
40
65
14
-5
-38
-111
-8
3
1
-80
-29
-66
-49
-24
-30
-35
-69
-37
-24
-7
-74
-18
41
20
0
42
-4
18
-13
-25
-23
-17
-55
-57
-24
-24
36
-75
-72
-62
-59
12
31
15
28
62
30
-11
-42
3
15
49
100
14
14
-35
-20
29
-40
-59
67
-95
22
2
-45
-30
-2
6
-3
28
-62
-42
-20
-12
-12
-43
-29
9
-5
-35
-10
-23
37
59
-29
-26
-7
-20
3
-62
-59
26
-19
-22
7
-12
-56
3
-23
-6
-25
-100
46
-78
10
1
-32
27
2
49
31
-23
-12
8
-53
-86
-113
1
21
-18
48
69
-28
42
-51
-51
4
57
-3
-55
-41
29
27
-2
18
-54
51
-35
82
-34
23
-13
25
-52
-7
45
-33
-73
-57
-35
-47
-8
25
-95
7
27
10
-15
39
40
-58
-71
-33
46
-53
-31
-37
-32
-33
3
-20
23
-4
-39
14
21
4
-53
-25
-101
-6
-66
24
-33
13
-73
-28
-17
38
-13
19
-34
-12
42
14
-48
6
23
-16
-84
-61
-37
69
-16
-26
50
-31
123
9
35
45
-21
-38
67
-36
22
-27
-3
-53
-118
-73
-63
30
13
-26
-36
1
10
4
-27
-42
-29
-44
-78
23
-26
-46
18
-61
-39
50
-46
-17
-8
-7
11
-46
115
-27
-8
-45
103
-15
102
-59
-69
43
-11
-2
-29
6
104
16
74
127
-47
-18
127
36
0
-127
-14
27
65
-97
3
-89
77
-3
90
-30
74
71
-16
-66
4
-3
9
-6
-44
-44
-6
-26
104
61
10
4
32
-83
-35
39
-99
61
-2
41
46
-61
-12
65
-21
-2
49
-33
-34
48
-32
-6
-36
-57
-47
30
-43
43
60
29
67
31
72
122
-71
72
-53
46
50
-64
5
-45
52
-19
-59
-26
-23
12
-52
80
-5
-47
-64
-14
-64
8
-22
-15
28
-34
-71
66
35
-37
37
58
45
8
63
87
-3
27
47
-10
22
-10
-8
-4
49
64
-5
19
-29
-9
5
-99
-83
-4
35
-46
14
-46
87
-54
14
-1
57
24
-38
13
-32
-44
7
50
23
8
44
42
-127
-18
27
127
14
-1
105
-88
52
-41
-63
17
3
-28
5
37
3
-10
-66
9
-58
107
-12
15
-89
93
1
-51
-40
20
31
12
-31
65
-66
50
67
-44
-27
12
-24
97
-63
-21
31
-22
-4
-54
-8
14
67
-6
78
-23
-97
10
1
-3
56
-104
72
-5
32
-24
48
5
-91
40
-13
18
-8
49
3
-37
-19
-77
-20
26
-61
73
-4
-28
24
-5
0
7
-17
-42
5
59
-40
88
86
45
-40
15
-10
-31
-44
4
-13
75
38
-111
9
-20
30
-92
-83
20
-17
8
-24
-54
-57
-64
50
72
17
70
18
56
47
-37
46
3
76
26
16
29
-17
-19
-77
-32
-61
-5
71
3
117
6
-65
27
-53
-21
43
38
-13
-75
-48
1
-4
-127
52
-28
39
-72
-47
-13
-59
127
-4
33
78
-33
37
-68
63
20
-53
-56
-29
-20
82
7
102
-64
127
-19
-1
13
25
44
-6
-2
-80
-99
24
54
40
28
10
10
-11
14
5
36
-6
-54
20
-44
-1
-74
8
-88
2
81
-62
-16
-26
32
100
17
1
1
-23
18
8
4
12
-127
-32
95
-30
35
-28
-30
24
-5
-51
42
-11
32
121
14
1
-93
-24
-57
4
-9
127
-77
-16
57
-3
56
41
-84
-6
59
2
57
-25
-84
-36
-63
-18
27
-66
27
-23
-73
-9
-127
-27
5
24
-68
62
35
-20
-71
51
43
12
49
116
-43
14
8
-9
-103
14
-22
-23
28
-15
-33
89
-36
11
-22
16
-35
-1
33
-52
-18
-85
-69
-21
26
-60
76
-18
76
51
-6
-49
61
-37
-36
89
-12
-55
1
-56
32
-82
-54
-17
-6
-12
-70
34
-12
29
32
-30
-83
-34
-13
-5
-58
-52
-48
36
-17
-8
-31
-42
21
-42
-68
-112
61
-81
29
-9
7
-37
-10
36
97
98
-25
-11
-8
28
66
-18
36
-18
-44
-24
-45
-21
45
49
-56
127
-46
-28
-11
-60
-29
27
-51
82
-34
19
127
-28
4
46
-10
46
18
39
-39
-109
-5
113
123
26
-15
37
-39
-11
-11
48
-19
-96
-31
68
43
7
-22
-69
86
15
-76
-3
31
-122
-21
-33
-47
81
32
-59
62
7
28
1
-37
60
33
12
-106
57
19
-3
-91
38
-124
-40
-38
33
-19
-4
-17
-71
21
-23
82
10
123
110
93
-37
24
-13
-4
12
33
-13
-16
-75
-63
-9
90
10
28
-13
-11
26
-9
-31
-30
-12
32
-7
-3
24
-50
15
-27
-2
43
49
21
34
39
56
-42
54
80
-45
-9
60
0
-76
81
71
-15
-7
-4
-24
-45
67
-22
-13
-51
59
48
-4
-25
86
-76
23
72
24
65
-5
-91
12
-59
-71
11
47
65
6
-53
-7
-66
-18
-5
-52
4
2
35
-49
9
33
-69
29
-47
127
83
-52
33
50
52
14
-3
-37
29
-11
44
-5
54
1
-30
80
21
32
-9
-69
-10
6
-3
74
-37
-42
9
9
71
-4
7
-7
17
-80
-81
25
42
22
-18
54
43
-41
-26
29
35
-36
2
-44
-13
-24
43
26
127
46
29
-40
11
-16
-20
-41
9
4
40
-84
-10
37
16
66
14
5
1
-59
-25
75
54
-15
34
-1
-67
-65
9
-127
-75
25
-24
2
20
-19
-41
35
-16
27
81
-12
37
107
4
-53
-22
31
-69
-17
-39
-31
-92
21
-73
0
-15
-32
46
-45
-17
65
-9
-6
69
-52
-19
-34
14
-40
-65
-28
29
84
52
18
-52
42
55
127
2
-21
-35
-36
-13
-6
-58
-44
-16
19
12
-56
-81
3
-45
9
-22
-5
-31
-49
4
24
9
-8
-79
2
-40
39
-43
-72
32
48
127
-22
-31
2
31
60
47
68
-12
79
-71
4
-29
-29
-100
-5
71
-12
-55
25
24
-49
43
-42
-9
-86
-40
-127
88
10
20
10
19
-59
21
38
17
56
127
-38
39
-12
-8
74
-44
-56
-35
9
-79
-59
-22
-81
4
54
-23
-37
63
-29
-13
1
-9
-8
-46
-40
31
-31
-17
94
15
-62
-5
37
-75
-20
51
-51
11
-92
25
-57
82
-15
45
-10
47
-11
-21
-52
75
-15
12
-15
-3
14
48
-57
-24
-107
4
-34
50
24
-12
-99
-26
-8
-7
49
24
44
-4
66
33
-44
-2
-24
-15
-25
-30
55
68
72
50
32
91
25
-46
104
45
2
20
67
39
5
-24
62
-25
-14
-10
13
73
-9
4
-107
46
9
-77
23
-17
41
-90
-45
-48
1
-37
-23
45
-45
-7
-30
-29
-50
-85
