-1346
5693
-176
-1097
582
12386
17316
831
-111
313
-151
5865
-301
-19
-113
679
4112
-1903
-710
-2248
577
-101
-2390
-232
-200
-71
-5515
4256
5650
336
-154
-244
-1971
6439
4401
-2853
665
429
-114
1062
4284
3070
14684
290
-643
2762
-366
-1169
7306
856
-764
1141
22238
3012
-1107
-581
539
-234
714
-733
92
350
1935
-316
-9
8215
-40
1044
2055
10
-2061
1613
103
-144
2200
4259
-525
216
-654
-2252
-1624
-552
545
10147
-1936
433
837
-539
586
13977
-14122
1307
141
-1998
-685
-3612
-4887
-198
-942
-728
-317
-2006
-429
454
146
-1666
18
204
11295
5166
2494
-2557
7668
723
957
1231
586
2572
327
2184
-102
-293
15
12434
-286
-105
-455
2695
-94
-498
-5075
3434
1302
-19727
696
3128
-883
3390
-572
-198
-136
-414
7527
5509
42
25469
-2343
187
16896
2590
16415
-621
-392
-223
739
-6063
-411
1267
-106
-1565
-524
325
-142
1386
475
-2053
1030
10220
27949
591
5533
2792
-2341
-2102
294
1462
-173
10177
238
218
-106
595
241
387
-1456
-648
-293
8996
-793
-123
-668
-880
192
-427
-190
17853
6161
-2507
-148
3194
1105
488
142
198
-2189
148
7441
577
4658
7000
-207
6563
2546
8468
-714
-3948
-15
-2422
2307
457
133
-758
2205
-305
2123
-1471
-42
-472
-448
-138
-794
23721
5437
8003
-1113
1129
-1663
-1414
1276
3417
-1145
-73
550
-9179
1730
12076
-129
-2097
333
-1249
2064
3000
299
-429
-165
3233
2022
607
6709
-213
8241
-244
-567
-257
-84
456
502
-284
4102
-27
-3675
-212
170
-101
19922
1212
466
-185
14883
678
-3451
-443
434
496
676
700
-930
-336
-21760
325
-171
-323
205
-554
-141
494
1332
-267
1428
-216
-1824
18
-582
-1116
-1262
-1104
-144
3767
-3042
-288
1684
-9866
-632
5605
-2055
30112
-102
-2561
-5571
-1041
87
3968
-148
-363
191
-142
222
-1232
-603
-196
12897
658
-275
-810
-1135
-7598
-3464
-755
220
17554
389
318
945
-390
749
1239
-771
-347
-316
-2559
-889
-1033
-728
-637
-1877
-2347
-207
3183
-17
304
147
-349
3501
238
-3094
-339
-2647
19561
-3241
-94
5251
13315
2111
-115
15514
-102
355
-1734
4276
-670
10098
-5625
14572
13468
-73
-23605
-1727
2585
12379
1212
-2769
-636
-2267
375
-148
882
-1940
-3547
-247
1216
242
-1200
-201
-17763
273
325
-258
-69
-447
8791
1333
-112
1169
-1104
-10438
64
528
-974
-1868
205
16655
2988
60
11557
-60
5174
15894
1653
8302
579
-788
-167
18467
-2423
774
2344
280
32556
-190
-360
-2988
-659
30170
11474
-4293
-92
-523
55226
-242
-134
-4603
-175
-5739
-49
490
578
392
-1852
9109
3811
-558
-305
243
1091
-471
-806
1499
309
-1364
1410
-626
-2338
-3072
1163
-557
364
-2749
175
13956
161
-1070
-54
334
6090
-633
-3233
7530
22
-4837
176
951
-2008
29338
1054
336
-1344
9912
43
813
208
15872
22
-222
-196
-446
-229
-1830
-3016
-1635
-502
3535
137
525
-10239
-878
8820
972
21875
-503
636
49
339
-1128
11
-645
-1160
607
-767
-2937
6892
8829
-61
-92
-1270
-840
3103
154
990
233
-19436
-196
7265
13159
4452
190
108
1143
-349
12578
8
-723
17021
-898
567
-3488
254
-1667
151
-1232
-3411
1422
700
1125
-1582
-119
92
287
-535
3389
513
2094
-778
262
-166
-19
-2916
