3113
2335
4096
-13085
2533
-7172
2766
-10298
-4221
8470
2005
-10403
-6391
6318
-11229
1937
-1499
1759
20228
3374
4292
1429
-3613
10198
12305
-2069
14767
-5071
5131
-10054
1229
-11584
1077
-8607
-11543
10532
1616
-3390
-8707
-3046
8953
7066
6100
-24080
-18685
12342
-3513
-179
14395
17574
4175
-9228
5643
-3537
1494
514
9748
-415
15729
-3668
3244
-7852
-6586
17027
-14489
-848
3350
-14659
-3029
583
9029
8922
-18600
6682
-1712
-11070
-6091
-12396
5143
7351
-10840
14556
-7875
2648
1081
1889
-3796
-13584
-7022
-9777
-6020
-6925
1854
-7805
11723
-8120
464
-10612
8117
-1258
4065
-1238
-650
4195
-5029
1383
-5193
5804
-2846
5415
11925
1513
3046
7875
-11036
-10011
7282
-11755
-329
3760
4793
-21819
1287
-8503
3524
24954
-3431
12166
9052
-331
9729
-32399
-6538
-1744
14120
-1959
-5901
12138
-1322
-380
-9025
7546
-5394
9750
-1848
-551
-7159
4405
1537
-4230
-544
1769
1106
-16515
-5974
-10369
-24054
2210
-3295
-1864
-12508
-13152
184
2367
850
-670
-2212
3802
735
2540
17816
3589
11645
1656
15450
-14277
9649
-9368
4268
-35088
6316
5399
-14632
-9666
-4802
8130
1850
-26004
7527
8373
1964
1277
