9
84
45
81
-56
-14
42
5
0
54
-9
-27
-8
28
31
49
-56
-37
26
29
21
17
2
-34
9
-2
-1
-8
4
7
15
39
17
18
23
22
33
-15
6
8
24
-7
-28
66
-30
78
34
6
17
-71
-49
-11
-8
-2
20
40
4
-94
-5
119
-51
16
-50
-5
14
8
-14
-37
8
-89
13
-5
-6
-24
0
22
-11
-74
-26
17
-28
-11
-3
50
-37
-86
-44
-44
-52
-7
32
-2
3
-5
41
-7
6
4
-31
-7
57
-17
1
22
3
3
-54
118
17
25
27
-60
66
29
28
-9
39
-40
0
-9
-29
3
-81
-29
2
-54
2
24
-19
26
18
35
-13
-6
-7
14
-24
37
-26
35
42
15
-3
-41
-32
2
-24
-17
0
-25
-11
71
24
37
-8
9
-22
79
-21
-6
25
-15
-94
28
-9
21
-20
5
45
-64
-14
-9
15
127
114
14
29
-91
29
43
2
14
-4
22
40
1
13
-2
-2
-21
25
8
-5
-22
-24
16
14
9
-59
-10
-91
-14
-16
21
-7
-32
21
-68
-55
-68
21
-3
-100
-95
89
-14
-57
-39
60
-86
7
37
-12
23
5
22
-7
-46
-19
14
21
41
-16
31
-5
-15
-21
-30
-9
-127
5
-18
-17
7
2
80
-32
-127
41
46
-8
49
9
-3
-82
-1
16
-18
-22
57
24
-14
4
-4
-80
5
-62
98
-7
-127
4
-46
-11
-7
14
-73
3
-54
127
0
8
-6
-63
3
9
-51
33
3
24
-127
-30
37
20
63
72
11
93
5
-127
8
-1
-1
77
-44
-63
-5
76
13
5
15
24
-32
5
-5
-21
-29
52
26
56
3
16
-8
-4
-4
15
51
33
-53
-16
-14
44
-23
-64
-37
-32
-37
26
-14
-127
-7
10
5
117
1
-40
-19
-15
-48
16
25
-20
36
-3
-15
-34
-20
14
5
-33
32
10
14
105
50
-6
-16
-22
-23
-8
8
45
-21
75
-72
44
-14
13
80
-5
18
8
40
62
-3
5
37
-8
11
-38
33
6
-57
-29
3
6
127
34
81
-40
26
-22
-9
3
10
-17
-6
-56
-14
-1
15
-105
8
-18
-9
37
-24
-32
-15
20
46
16
-8
-69
11
32
-52
36
7
19
-51
-16
-33
-12
1
-18
13
-55
7
-54
11
40
58
17
9
-34
-16
36
4
20
-19
35
-11
7
-10
-23
43
2
-1
-3
-16
3
-6
-44
-10
8
18
-6
12
-16
-4
-14
4
-11
7
-4
2
-19
-47
-2
-19
10
13
-41
4
22
2
89
-5
43
-4
3
2
-25
-5
68
-10
-49
-20
27
-58
29
-21
3
16
-81
4
-103
44
39
-12
42
4
43
4
2
14
-13
62
-85
36
72
17
17
8
-57
4
23
-57
1
5
8
41
-66
3
-7
2
-15
14
-74
8
11
29
-95
21
2
-49
53
-30
-14
-8
20
44
-3
-11
-44
19
-60
0
-22
66
-15
15
-75
-39
37
40
-40
-43
-38
41
19
-17
-70
-43
-14
-13
-48
29
-2
10
6
-6
-7
-2
-4
-6
-14
-5
-6
-5
-54
-65
-52
36
-17
-4
-35
-37
-9
-18
-22
-43
-24
24
-28
41
44
-53
-19
-67
3
-21
-62
5
-11
0
13
-61
-47
-31
12
107
-19
19
-29
-22
3
-2
43
3
-70
90
4
24
35
-6
26
9
127
23
-33
20
-6
6
-12
-89
-15
-12
-39
26
-4
-23
3
4
-8
-6
-3
-7
15
-44
3
-27
-36
-54
21
3
-127
11
0
10
-54
-10
-27
-16
22
26
-30
12
-19
-14
-11
-52
-6
-69
-15
-28
-33
-17
1
67
-42
4
-111
-6
2
-10
6
-25
19
-29
-8
72
5
-34
26
-90
-29
-21
-15
-28
6
-25
35
-42
-9
-19
-68
-32
-49
32
-7
-63
-14
36
24
-34
-32
-25
-26
-46
19
-10
-38
-123
9
-127
-21
22
95
-39
45
-18
26
9
-31
-34
-24
-27
-3
27
-13
-17
-43
-127
-22
-4
10
-7
32
127
-34
-31
21
-5
-48
-44
-50
-57
2
-44
-6
-18
67
-4
59
-23
-26
2
-11
-27
-3
-24
-29
34
5
-19
-9
70
-31
-1
7
-5
-34
9
2
-9
-9
54
25
-15
-74
-33
-16
5
-15
-10
-65
2
-35
-26
-2
16
-9
18
-34
-64
-17
9
-50
-34
-3
9
-12
-38
24
-61
58
-25
-11
-16
74
19
6
7
53
-17
71
45
0
6
25
2
31
-13
23
-26
-32
16
-6
-14
22
-27
-1
-33
54
-25
-49
-28
15
-49
-21
-59
-17
-29
-42
-7
26
-52
8
-25
-36
-36
41
7
1
20
-22
-26
20
-12
-82
-19
-54
-75
-31
-31
19
-25
-18
-37
127
-4
-38
-1
-75
-35
-9
-8
-41
-16
-14
34
-11
58
3
-34
-2
-60
-48
123
-11
-6
-50
0
-100
8
20
6
-123
10
16
-33
8
52
-22
-15
-3
-21
20
-26
-23
-64
-31
34
19
-20
4
-19
-111
22
-12
-6
-10
-1
-14
-35
77
5
-46
7
42
-5
14
-4
12
0
-9
-19
-11
-16
-16
-47
-2
-38
23
-36
-5
-25
-13
-7
18
31
-57
-40
-127
-4
-1
-19
8
-25
33
-4
56
-6
-3
3
-127
28
-17
-4
12
13
-54
-2
-42
-11
-39
-3
13
-6
66
-127
-4
-34
-27
-1
7
-10
10
-9
-11
-22
17
-4
69
-13
-60
-30
6
51
60
-50
-80
42
-7
7
19
-28
-20
-29
21
-72
-1
-59
25
-45
8
-25
64
-123
-13
-11
-22
-60
-16
-5
-3
-7
11
6
2
-16
-29
61
-15
7
-13
-22
3
45
17
-86
-20
3
-49
-45
-12
-3
22
-25
70
-18
-53
-25
9
1
16
12
-14
-12
74
10
45
-39
-39
-22
-19
-72
35
11
-6
-50
-4
-29
21
45
44
17
-31
15
-70
-9
-85
4
-17
-2
-7
26
56
-36
-9
-45
-18
-14
-15
-25
-3
-9
76
-16
-13
-20
-28
17
6
-6
2
-60
-18
-4
-34
-17
31
-2
40
-7
-40
-10
22
-18
-36
37
5
13
-41
23
-94
60
-29
33
-36
-7
18
-120
-32
4
-73
1
35
-24
-41
19
-28
-35
1
-39
41
60
-126
-60
6
10
69
-19
1
-34
10
6
23
-55
0
11
-80
-62
-18
7
-5
1
51
-30
4
15
8
51
57
-26
-81
-62
6
1
-1
-106
10
-21
-9
20
-9
-74
-30
-31
-111
63
-30
19
76
-45
11
77
4
-127
-13
127
-127
-6
-27
-25
-58
-3
2
-34
-8
-32
-34
-62
-21
-60
-56
89
-1
-97
-52
-5
32
-11
4
-3
18
16
-2
-45
-47
-82
74
-7
-11
-18
21
-75
-44
63
-3
7
53
-48
-10
27
32
-28
21
20
-39
5
-29
25
-17
-17
8
-50
-12
-25
-11
20
-42
-35
-9
-36
5
-39
90
56
-34
5
-17
-13
6
-18
-36
-27
0
-33
51
-43
26
-27
-78
23
-16
-12
-127
-43
-4
-22
4
-18
-117
-2
-4
-4
-75
7
7
35
-5
24
-57
-41
11
4
-24
-27
-15
-28
-30
-35
-31
10
-41
3
-6
5
42
-50
-84
9
16
-5
-34
-4
51
-4
-55
6
-127
3
-5
2
-1
-52
-70
-4
-62
-4
-40
-46
-33
-11
-127
-25
-72
-37
-38
2
14
-12
-3
-23
-27
-18
-4
-40
3
-14
15
-49
-67
3
0
9
4
3
-40
-61
-12
-120
36
-38
-73
-19
-42
-101
81
-11
55
-19
1
-3
-93
-3
-3
6
-15
19
-22
-23
-9
-10
-63
18
-60
-127
2
-19
-14
-3
20
-39
6
-13
-6
-17
-3
-5
29
7
-72
-35
-1
2
3
9
-20
100
-72
3
16
-31
-127
22
127
-5
-90
11
-7
-4
-10
4
-14
11
-35
0
9
-1
15
9
-26
-24
-16
-6
-28
9
-55
-7
-34
-10
-34
-81
-9
-127
-7
-8
-19
-15
-58
-127
-22
-41
-44
127
9
2
5
-31
11
6
2
-44
-21
-26
-12
-47
-21
-14
-39
-55
-39
-23
-48
-6
-64
10
-36
1
-55
-10
-98
-30
-6
-23
7
-5
-25
-36
127
-34
-9
-7
30
-17
-17
-25
14
7
9
9
23
-10
-1
-27
-11
0
-54
-30
1
-76
0
-2
-7
0
-75
28
-40
-127
-19
-16
-16
-29
-54
-34
-47
-1
43
-9
118
-39
-18
-33
-46
-4
-12
1
-19
-26
6
5
-127
-38
-20
67
32
5
-10
-70
-19
22
16
-22
7
-3
-30
7
91
-26
44
-36
-7
19
-29
-127
29
14
9
-14
-3
-57
6
-5
-3
30
-20
-25
9
-3
-22
-47
83
-10
27
5
-22
50
2
15
8
-86
-43
-16
11
-6
-85
44
32
-4
-26
0
-12
21
20
20
-127
-5
12
14
33
-3
-1
-7
-89
-48
-114
4
-46
-1
-8
15
14
-42
-71
-21
-42
28
-52
54
4
2
28
15
14
-9
26
127
6
-5
11
-30
20
12
-127
7
16
-16
14
-5
-2
-30
-15
15
-40
52
-62
-4
3
-22
-10
-66
125
10
-3
-32
-67
35
0
8
4
-43
3
-25
-78
-26
-48
-6
40
-32
8
-14
-14
-9
20
73
-11
12
-37
24
-8
-87
-127
-46
13
-17
7
7
-5
46
37
-2
10
-33
-4
8
-4
-6
-30
-78
16
52
-44
-22
18
-7
53
10
14
-45
29
-14
-68
-6
-58
-2
-81
-117
14
-4
7
56
5
-70
-60
4
-33
96
-6
47
-56
2
26
54
17
-7
-17
103
41
23
51
-6
-13
-36
-18
109
-41
-42
16
23
-45
16
3
2
-15
92
-15
-57
-47
12
127
1
-116
-43
-2
-13
-127
-12
19
27
-51
-127
96
-108
-5
4
2
0
5
-4
-14
-8
-20
-32
11
-1
-66
-1
-10
0
64
4
-4
-14
28
-23
8
4
-72
41
48
-127
4
4
-11
-111
15
-29
44
29
-127
-7
16
-8
-15
14
-41
-5
24
-21
-5
102
-4
3
-30
29
-16
-5
-6
-127
47
-11
2
-21
-24
127
73
-3
4
0
-13
-25
93
-95
-51
6
-43
-2
4
-68
-11
-3
19
3
49
1
23
-20
86
-29
-127
-5
23
2
69
19
-22
80
-21
-9
31
3
-1
-24
-52
-30
-37
-107
-29
-19
-81
66
-19
-29
25
42
45
-5
5
62
-12
-53
-127
4
12
73
26
0
36
-47
7
-23
-63
-102
57
10
77
-53
-95
-106
-43
-17
-18
-93
3
14
11
127
94
-73
12
-8
-25
-45
66
-9
-127
-112
34
-17
-127
13
6
5
77
-3
34
-29
-31
14
-8
4
32
-16
-108
-64
57
40
-114
-58
6
-34
-48
-27
-8
-26
-36
8
-31
-12
-32
-13
-35
-55
-80
85
17
127
15
-51
76
0
-30
-109
-17
-12
-6
-21
0
80
-8
-20
-8
0
-19
-67
17
1
4
5
-46
8
-57
-13
1
-11
14
-22
1
67
-2
99
1
-10
-127
-47
-56
-44
-32
51
-60
-18
-48
-46
10
77
124
12
12
-13
-5
-26
-81
-3
-36
30
-9
-16
26
0
-32
68
-2
-53
27
-5
-14
-50
51
-38
-13
27
-21
-53
-53
35
5
11
-37
-9
-4
56
3
127
23
16
64
-28
67
-11
-118
-6
-2
27
-27
6
46
-13
65
-1
-51
-26
-1
-13
44
-118
-21
-1
-17
-39
-28
-51
-95
2
3
-4
-31
-18
44
-1
42
-14
-127
-3
-104
0
25
-81
-12
-8
-22
12
-5
-86
-12
-4
-32
-55
-13
61
-62
-32
-16
3
-55
-34
-15
1
-13
-22
-37
-28
11
-127
2
-3
-58
-82
-127
-25
-8
30
-57
8
54
2
-127
17
1
5
-15
-82
11
-55
0
-17
4
-10
-10
-10
-10
-67
-40
-70
-2
-27
-6
-80
-127
15
-41
-127
-41
38
-11
7
18
-40
-21
-9
87
-6
6
-10
-15
-53
24
-4
-4
15
-19
-54
-27
-1
7
-16
-26
-17
23
27
-32
9
-31
21
25
0
-49
50
-26
-6
11
7
-42
-55
-78
-17
-5
127
-38
32
-32
7
-9
-3
-65
-127
6
-10
2
6
-3
-4
5
-39
4
-15
31
-7
16
-14
-48
6
11
-69
13
-23
44
-17
23
-36
66
40
-67
-127
28
51
-38
14
-53
-1
-26
4
47
-2
11
-14
-1
-77
3
26
-3
-127
-15
-10
14
50
9
-29
21
-17
-73
14
-3
20
32
-8
11
-32
22
19
-22
0
-56
-12
-9
-15
-18
-9
-40
-10
3
-24
47
-29
-66
43
11
0
9
33
-3
-1
30
18
-127
-33
-13
-22
12
0
8
-17
30
17
-63
-18
-26
-30
20
12
-27
-19
18
18
-55
-24
-10
-50
-43
42
13
-46
-30
-2
18
-35
38
-11
-3
-4
38
13
13
-18
-26
18
2
-34
-53
5
10
-9
37
-2
-59
14
-5
-6
-17
-27
-16
-25
-27
4
-21
21
6
-43
-86
16
-9
18
-48
-72
8
-72
2
3
4
8
-20
-15
21
-6
-30
11
-6
29
-3
12
19
25
62
-14
-6
-21
9
-26
2
15
-20
24
-20
1
127
-7
-7
-55
4
10
-65
-6
-40
15
-20
-2
-6
-17
-31
-33
7
71
-16
27
117
-22
-65
-24
-38
-8
-20
5
-16
-18
-2
-7
-103
-12
52
32
-2
32
20
18
38
28
21
-27
-82
2
21
-53
-90
-23
0
-98
12
-45
9
-12
127
-27
-11
-10
0
12
-6
-45
-30
28
9
-39
3
-40
-36
2
5
-30
33
9
-94
16
13
11
12
-34
-46
-5
-9
11
-9
17
6
-21
30
-25
4
-2
-11
8
-6
-95
-3
-70
-19
-19
30
-37
8
-22
-6
-35
-53
-39
2
-6
18
-9
3
-37
51
-3
-24
49
-33
9
69
-3
-35
-6
-75
31
-10
14
16
-74
13
-30
-3
16
57
-30
-16
-24
127
-24
-41
-19
18
-7
-23
-3
-83
-23
-25
-71
10
-10
-10
-14
3
32
-49
12
8
-65
-66
18
-34
-127
-13
-8
21
-5
19
19
-40
-19
113
15
-90
4
4
-12
12
-28
12
21
4
13
-20
-59
-14
-51
-127
-6
-43
-14
0
28
-41
-16
-3
-2
-3
40
47
-35
0
-34
-6
-127
-23
29
-1
-22
-52
-2
-9
-5
-4
-18
-41
17
-30
35
-8
-9
13
-29
-33
2
-73
-34
24
13
67
13
-11
98
-31
6
24
-29
-2
-23
0
-7
3
-37
47
-3
10
5
-40
-24
13
43
-44
14
-49
-22
-13
13
12
-24
-19
10
113
-11
88
11
-33
-53
0
-45
-15
42
46
4
-11
-15
-24
-3
-5
16
-2
-27
-26
12
-48
-99
5
-24
-85
14
-40
-14
22
-2
-95
-26
-47
39
14
-127
0
-50
-55
46
-8
9
-27
1
-26
-42
36
-13
13
-67
10
-7
2
10
3
-22
127
45
-43
5
0
-22
60
-20
-12
-10
-8
-4
93
16
-19
-35
-35
11
-15
-32
-29
10
8
-6
-25
27
-30
5
20
-22
-127
-51
22
-1
-74
2
18
-5
5
19
74
-57
18
18
-30
74
-3
-10
-10
-20
-9
-78
35
34
18
61
17
-35
25
-24
-41
15
-20
24
-17
-5
-8
-10
-10
-22
1
-28
18
-13
-60
-20
0
-91
100
-8
-7
8
10
11
-9
5
-4
-17
-16
1
-7
-39
-6
8
-3
-69
27
-4
-21
-18
-5
107
-65
-8
2
-127
22
-33
-46
106
60
-8
-127
-9
1
-19
95
-69
40
44
-63
23
9
-7
67
32
20
38
35
-121
22
-2
41
5
17
2
4
49
5
3
28
-48
-21
45
-24
-113
-127
42
2
24
57
52
-52
45
-22
57
-14
-69
-8
32
-127
-114
5
18
22
7
23
-100
23
2
-120
73
34
20
-75
35
-7
14
6
9
-5
-68
-13
-3
34
-41
-46
7
-15
9
-23
31
20
10
8
-48
17
78
67
2
-21
-68
-57
-3
-56
2
64
16
3
10
-16
-30
-47
8
-10
10
63
104
-120
-7
34
35
45
-127
-16
44
24
29
-69
53
-10
0
-13
22
52
3
-10
-72
0
-23
29
-66
6
-3
-5
30
-4
35
-32
12
-25
59
12
-7
-23
7
-127
9
4
22
-92
0
24
59
5
22
2
23
45
-77
-2
-18
-40
10
-127
13
-127
4
-16
-8
62
-11
4
45
4
1
103
17
16
-111
11
65
25
41
-12
53
73
1
-127
37
55
0
-21
19
-15
127
-47
-19
-55
-1
-126
-1
50
7
57
-7
-29
13
-25
49
13
23
37
-69
-39
-58
6
14
40
-2
83
35
-6
-74
5
85
-127
3
6
43
-5
26
62
-37
-82
43
3
17
24
-32
-72
-85
18
16
18
37
5
21
11
86
19
0
11
11
-2
-55
-60
20
6
-24
-11
-35
-23
76
45
15
-29
9
-127
-28
-127
83
-21
69
26
-56
39
12
-11
34
26
-53
25
-25
-100
68
-25
-51
-4
-6
20
17
-71
17
21
48
35
0
16
3
-111
28
-25
-4
79
-96
-13
-21
30
-44
36
2
-12
29
13
-45
-17
15
-14
8
46
-8
21
-20
9
19
-15
70
45
-71
-12
-17
15
2
-77
-57
-2
-18
11
9
7
7
-117
-8
-127
-9
9
3
-2
52
-19
-37
-49
110
69
-18
-34
-55
9
63
9
26
-15
19
-14
-23
-11
28
-1
-5
-37
21
13
74
-47
3
1
1
10
-103
-124
-47
6
43
-1
-127
24
14
5
8
-15
24
24
-61
-2
13
34
-33
-68
65
-67
-27
17
43
22
1
-5
-2
-9
-13
78
-93
-11
53
4
-39
25
-13
-1
70
13
-53
-32
59
-20
4
-41
-7
23
9
29
-127
-4
3
-127
-14
13
-13
22
10
-45
-76
45
111
5
-102
-51
-71
23
-9
16
-50
22
-50
17
-7
8
-25
-7
29
-7
32
24
-127
-40
-15
-52
-30
1
29
3
18
24
80
81
10
1
-3
-35
-22
49
24
-10
52
98
-127
24
9
-3
-1
6
94
-2
-18
127
13
32
11
-14
3
-10
17
22
-6
-5
22
51
-29
6
45
-17
-57
-14
59
-13
16
19
68
7
23
4
26
4
-48
46
-53
-20
-56
-59
-127
35
-3
2
80
66
-42
-30
-41
-13
2
-12
6
27
45
12
2
0
-11
37
41
5
6
-17
71
-8
-1
27
63
-16
-2
-25
-12
-8
22
28
2
-71
-47
-33
7
-112
66
54
-6
-2
-119
-25
4
39
8
1
127
27
-4
127
1
26
51
6
-10
44
31
126
57
-45
-13
37
-2
18
-16
4
-127
52
-9
-46
14
-8
4
61
56
75
-17
25
68
-17
54
74
127
16
21
-22
127
-127
-9
107
28
-13
10
18
-38
-73
12
26
-7
127
-1
15
106
-125
67
-13
-10
38
-37
0
-16
-2
-78
-45
-65
57
77
49
18
-104
-43
4
-93
-58
33
127
12
10
61
53
-60
-39
13
-15
-8
-18
-12
42
87
13
-21
6
22
98
-9
42
-12
127
49
19
75
-54
44
100
-23
3
127
54
114
-4
-68
11
-44
19
24
106
19
9
44
-4
78
95
-13
-125
-40
73
-10
-93
-29
3
44
-103
77
82
47
-5
-71
39
-25
-1
-8
-42
-68
-16
127
5
21
-24
51
41
97
-51
-8
11
-23
38
11
-8
-10
-7
6
-127
20
-23
89
127
-17
115
-62
127
-1
-3
127
14
21
59
-108
-57
17
-57
-86
118
26
39
7
48
-3
58
-66
-22
-41
9
-42
58
-9
59
84
-127
38
-127
75
-5
41
4
-13
25
-7
6
5
40
16
-58
-4
104
-52
-127
-78
-4
-44
-127
-92
1
-41
20
-30
127
43
14
1
-40
-36
77
102
-9
-18
86
-18
126
67
-18
-72
91
47
127
51
-101
39
36
9
-18
30
-70
-5
71
0
-112
16
12
-82
-100
-94
3
-50
94
-50
56
38
-105
-94
-11
30
-52
-42
127
-52
2
-34
-123
5
2
-25
-39
-12
40
127
68
120
27
61
-98
37
66
127
30
-3
127
20
127
51
-53
2
127
-20
114
-54
4
72
-1
-6
-17
-7
-8
115
78
127
55
-127
9
2
34
-48
47
127
2
-33
-3
-9
-31
-28
-62
16
35
50
4
23
-45
127
-2
-40
10
-46
-10
33
17
-77
9
-16
7
63
5
14
-32
110
6
69
-15
15
-29
78
0
-39
96
-18
13
5
39
24
-30
16
96
-46
-29
31
127
-53
5
-17
27
-39
0
32
-42
30
44
19
17
-94
105
-27
-81
97
-3
41
-23
29
46
26
25
36
29
2
127
5
-100
-15
-3
26
51
50
-5
100
-47
5
47
67
-25
70
75
-104
51
22
21
-20
6
6
-6
-23
3
127
-24
35
8
22
83
-74
-8
5
-5
7
127
-50
40
36
-93
23
20
63
5
104
9
-21
2
24
3
-17
1
3
-20
127
11
2
0
9
31
-90
-64
-1
-127
32
-85
28
-127
88
87
45
104
-26
127
103
17
-7
41
127
29
1
10
22
109
12
52
2
-6
-74
-14
15
69
95
-30
35
28
101
104
25
36
34
76
-47
-6
71
45
53
20
32
2
80
127
0
-10
15
-35
48
0
-39
23
-61
74
24
0
-36
74
27
-29
26
11
-79
45
39
127
30
127
4
43
-115
-99
-114
40
-42
14
-42
39
-6
-21
-8
-88
16
127
13
-54
-21
-63
-11
23
68
-15
-1
29
7
-4
-14
45
3
-4
-30
21
5
10
68
14
3
-5
-18
9
35
-26
54
-47
47
-127
2
99
-1
-127
-49
-82
36
25
48
3
5
64
26
-127
9
-2
20
55
62
76
43
-3
-35
18
54
14
-2
87
-127
-22
13
1
16
-44
127
-25
20
26
-5
-5
56
10
-110
-26
-26
18
-23
10
-29
-43
-21
-8
-13
-10
-9
7
127
-7
5
4
42
-21
-8
7
6
-6
-52
16
-10
70
2
0
-1
-4
127
12
31
-28
37
-127
-3
-127
127
-15
8
108
60
50
-39
-9
-11
8
13
-36
39
-71
-12
-16
-1
4
127
18
-101
35
24
3
49
-5
-50
46
-19
-74
-66
-25
-127
-8
-18
-2
67
43
-3
-122
-61
-13
27
25
-21
1
29
43
-92
-29
16
22
96
-127
-127
12
-53
23
-16
-127
-8
60
31
4
3
31
-127
22
42
-50
-1
0
4
93
10
83
14
32
24
-29
1
13
21
97
-6
-3
127
33
5
17
-127
30
-8
40
-17
-2
18
60
18
-25
0
-18
2
-17
-64
-46
101
12
9
56
6
3
6
0
59
63
-43
-10
3
18
53
7
-43
28
-116
18
-127
6
-10
-27
4
73
127
-6
-1
57
38
-54
81
41
28
-18
-98
-1
63
-1
76
11
13
-104
6
40
-5
60
127
15
-127
-19
-78
29
59
1
25
-4
11
-46
-16
19
-26
-52
3
43
35
-70
-6
-8
23
47
-65
-18
1
-12
-127
0
2
22
20
-122
3
27
18
-91
77
33
71
-11
-127
20
-5
-102
1
35
17
-90
-23
29
3
-45
58
19
-83
1
80
-12
4
-3
-13
50
-62
127
53
-94
56
-20
35
127
-2
-68
-10
27
1
9
28
-13
-4
-86
22
7
-6
20
6
-68
52
26
44
5
49
35
1
3
-45
-39
-38
16
109
21
-127
43
87
1
-25
-10
14
33
85
11
1
-37
0
-21
127
-38
9
-6
6
-70
-30
4
19
-27
-31
10
12
9
-127
54
-86
39
-78
-127
2
127
-9
43
-19
-4
32
15
-15
-14
14
-7
-127
76
-66
-46
6
24
17
6
56
63
22
-127
41
15
92
-113
-1
-27
2
-6
32
-22
-1
48
-50
75
5
11
8
-20
-38
-4
35
7
3
15
7
3
-68
-1
-4
16
-12
-26
127
-11
36
-58
-10
-119
35
0
-4
3
-119
1
28
-8
18
35
-24
-6
-50
-126
49
7
-52
3
-78
-47
-50
-30
-1
-17
36
-77
2
-83
-26
0
21
-90
-5
9
-127
-93
84
-5
-10
-7
-68
83
-16
40
4
15
-37
-15
11
65
-127
-37
70
9
45
37
-2
-13
-48
47
-62
-7
-64
127
2
12
85
0
4
34
10
44
11
37
-4
-35
-22
-127
1
57
-48
-56
-25
-2
-127
17
-127
14
30
40
-56
11
66
4
20
-5
3
45
103
74
-27
16
69
-18
-1
2
22
3
-74
-10
10
-50
31
-22
2
-9
15
-14
-20
14
60
3
-18
-27
-7
-8
-68
-62
1
21
127
-8
127
52
0
-61
105
65
-1
-101
-34
-78
63
24
-22
-69
74
-14
23
-70
72
-14
1
48
123
-32
-4
-2
-14
-59
-20
127
83
-9
56
-9
72
4
-13
0
78
23
0
3
-29
55
81
13
-15
98
-70
26
33
-30
94
4
-6
-11
52
-5
2
2
2
9
20
45
-96
122
112
23
-16
-2
127
10
-10
-13
-9
30
62
-14
80
-127
-7
-12
4
-11
84
100
127
127
95
-63
17
46
111
127
-22
-52
91
-7
61
6
127
17
0
-78
-87
32
-84
14
-34
3
30
32
91
-27
-39
44
-29
38
-76
-71
13
49
117
-98
-122
24
-69
-21
125
65
-1
13
61
6
-12
4
-31
-5
92
15
122
34
-34
-15
-20
-29
-3
-43
-38
-42
0
50
41
-29
40
-3
-24
-48
-78
-24
-47
-46
127
-5
-17
-18
-13
108
12
22
40
7
-64
-127
-43
76
9
-10
8
-44
-15
-26
42
1
30
22
67
37
33
-40
-25
25
7
23
-11
-1
45
54
-79
-2
13
-127
26
63
27
29
-44
97
-39
-96
-11
-12
-52
-20
127
-3
-7
-58
-37
-4
30
72
7
77
-17
-10
12
-127
-17
-53
-5
49
105
-55
-127
-39
-11
-22
-28
-12
60
76
127
-2
-1
-34
84
-16
-7
-1
23
64
-127
48
-21
9
10
32
1
2
32
-29
-17
-15
-15
-127
14
-56
-3
-51
127
10
-3
9
-19
-21
-6
24
-2
-75
-2
-20
-44
-3
-19
21
127
-46
35
-1
41
-47
0
-38
-8
3
43
-54
6
-51
127
-20
-83
5
60
-5
-22
-15
-8
83
92
82
-52
127
-86
99
10
-37
-18
22
117
-7
-3
0
-11
16
-41
8
-20
27
-34
0
20
16
-77
1
30
12
-14
1
0
3
-103
41
-127
-18
-35
-2
47
-5
-43
-3
-43
-25
49
-46
-15
-9
-16
15
-22
-38
1
23
-6
-10
6
-24
-8
17
-13
-56
127
-39
-13
-29
-81
127
-12
39
71
69
14
67
66
-51
-17
-21
110
-3
21
127
-14
74
-61
-70
-19
-36
3
-51
-8
40
-19
42
-25
75
-4
-6
-82
-9
2
-6
17
62
112
4
-25
-18
7
32
34
5
-10
-32
127
1
10
-14
-12
-7
2
59
-84
0
-16
-8
-2
43
77
68
-15
-42
11
-33
-29
-17
-65
11
120
6
-15
127
-22
-24
19
9
3
-11
-8
-10
82
0
-47
-45
42
-21
-12
-31
60
-88
-30
-2
9
-29
-3
1
-14
-23
21
-51
-15
109
8
-10
-13
-94
-31
2
-5
-34
39
43
3
1
-60
34
14
4
69
-60
0
127
41
-61
-60
127
81
33
1
7
-72
-10
105
-45
-14
3
-9
-19
-10
127
38
-27
85
-30
-78
-127
5
89
-6
-3
-60
7
-19
-31
20
-12
127
-22
-18
7
-17
23
-56
-25
-4
127
12
-32
7
-7
-127
-5
43
-10
-4
122
-43
-8
10
14
-34
8
16
25
-32
-10
29
27
-15
-31
-2
-127
17
-66
4
5
16
-30
-45
-53
-22
53
127
-8
35
17
112
-127
8
-10
-52
-4
16
0
-50
9
42
36
51
-1
8
43
-8
44
-19
55
2
-14
64
17
16
-37
-70
19
-3
25
-54
-10
7
26
-26
0
27
-41
23
-40
58
43
20
47
8
-10
-39
-21
20
13
60
-67
-14
25
-15
46
-26
40
-127
-5
-49
-65
-15
-27
5
11
13
-127
-127
-23
20
11
30
11
-11
5
-11
-12
40
-27
-62
-13
-1
-4
-18
26
84
20
9
25
-24
15
22
46
-35
36
-13
-3
60
37
11
-6
6
-111
34
12
23
-27
-14
-40
-23
-18
-33
7
-16
9
27
-13
7
65
2
28
-1
-4
-5
22
19
-36
-52
-41
67
-23
-12
-4
78
7
59
73
68
-46
-41
-19
-61
25
21
11
44
-127
14
-45
-12
-5
-14
106
32
-91
-50
-19
53
41
-36
-1
47
29
-89
-67
-10
58
14
-8
-8
-7
-5
-127
-10
-63
69
-127
32
-13
17
104
33
2
10
8
6
53
65
-127
12
-70
52
-64
-127
-4
-65
-1
-33
76
8
9
-6
-8
-54
-90
-6
9
-5
-20
25
14
-38
-2
21
-127
-127
13
-69
-15
62
-17
-8
-32
-21
-47
-40
-9
-61
-127
-1
12
9
25
95
-7
10
-13
-18
60
-8
127
-52
-32
-21
-22
-6
-61
-88
35
114
20
-94
22
-5
61
-13
1
-57
-87
108
35
29
2
14
24
5
43
-25
-27
51
-11
4
-21
63
-22
19
17
-22
-75
-16
16
-23
-5
36
-39
-29
27
-8
17
-30
-9
25
2
-7
-13
44
-10
-26
-7
80
0
3
-34
27
-36
17
-17
-21
13
14
17
14
42
1
10
-29
32
17
84
22
11
15
13
-2
-9
44
57
-8
5
1
-14
95
40
-26
11
45
26
-6
-42
34
-44
27
-50
-26
10
64
-16
27
5
-2
26
-23
-20
21
86
90
-6
18
30
28
87
-15
68
22
10
-25
-16
-10
45
-96
-10
66
14
17
0
-45
-96
-24
1
-29
9
9
12
-19
52
-10
-106
14
-46
15
-35
19
-127
15
16
-127
-7
-51
-4
-62
2
-16
-111
-13
-127
87
-90
-1
51
-35
-8
-19
-18
-9
-13
-4
-22
-7
18
7
9
50
-20
7
3
23
10
34
15
12
-19
-31
8
-16
6
-89
5
22
20
-127
-29
2
-48
-49
6
-81
-9
-38
-32
-58
59
-6
-27
35
-30
-18
45
5
-92
-7
-9
-1
69
-49
-3
86
-78
-13
-34
60
-34
68
8
-10
28
4
-49
-35
5
37
-19
-12
28
-3
13
-123
-94
-15
-7
-5
-9
67
32
1
21
86
-5
-78
51
-49
127
116
-66
-33
-40
23
-34
38
20
14
-1
-29
-83
48
-26
-10
-19
4
32
-4
0
20
71
15
48
-61
37
-20
7
-29
22
-13
49
-16
46
56
-40
-7
-127
11
-49
9
-71
10
-68
32
-30
-24
-10
51
25
-127
30
-46
-14
-6
100
-24
-17
22
25
-127
25
-16
18
-13
-17
-19
-36
7
8
10
20
-45
19
-1
-25
0
6
-38
-14
40
-18
17
-5
1
61
57
22
13
31
-5
-11
-25
-9
-9
-54
37
16
36
-39
52
12
3
2
22
-20
6
-14
21
33
82
30
24
50
30
64
43
-25
11
-19
-19
-13
62
17
-24
-5
2
12
-49
-48
-2
-8
4
24
18
0
11
26
10
5
-99
-68
-68
-5
-127
51
-4
10
-11
127
-21
-14
-10
-3
33
0
-1
3
8
-26
40
8
-61
-12
-45
43
112
11
-7
-9
14
-10
-127
1
32
-12
7
8
21
-14
-26
10
17
10
23
-40
-2
16
10
-3
-4
35
7
-10
25
29
-31
-9
-10
-43
-2
-11
3
-127
25
11
17
-15
32
-3
11
44
1
17
36
-7
17
62
-26
31
-13
3
13
9
42
-8
-14
-1
-21
16
2
59
-15
-5
40
-3
-2
-1
7
58
1
66
-19
-28
1
76
40
11
-103
-8
-10
-19
2
63
-22
31
-4
-38
-17
-10
24
54
0
9
-2
44
-9
-20
-15
-7
13
21
-2
38
-4
3
-26
8
31
113
-4
-1
5
-27
6
4
-38
11
12
-20
-6
-1
-6
-29
26
16
-56
-13
9
10
8
-8
-36
9
28
-32
-40
-3
65
50
4
1
-11
48
-21
7
26
24
5
2
5
6
5
29
-40
-12
29
-12
14
20
-12
18
-8
-26
-20
-15
7
14
8
-8
-23
-16
-15
23
-12
41
11
10
34
-26
-23
3
14
-49
-9
28
-3
89
18
1
-8
-33
3
-4
14
-34
-26
2
-16
66
6
-2
7
18
5
20
-60
-10
2
-21
25
-2
6
-6
0
24
-29
80
32
-15
27
-3
-3
25
17
6
2
54
37
-6
1
8
2
-15
40
27
-1
15
15
33
86
-7
-23
-20
32
-6
23
1
8
-6
-2
-5
-7
17
2
11
-6
-45
-4
-9
-8
-6
54
-127
20
30
-2
26
32
19
23
1
20
19
31
-10
-11
1
-21
10
-3
-26
26
56
9
-6
15
-1
12
2
21
40
-127
30
19
-29
21
22
13
9
9
-29
40
5
34
-9
34
-21
-31
-8
6
54
9
14
24
-2
-7
41
-12
-11
8
-11
3
5
29
-19
-42
9
1
-15
52
-54
-44
3
17
-6
41
13
9
-1
19
3
-21
16
12
-12
-19
-4
58
4
-12
10
-18
-3
36
-23
-5
-18
8
1
-6
-22
20
-33
7
12
11
33
-75
19
-16
-19
0
-23
20
1
3
-26
-6
-81
-20
127
-11
8
21
7
-21
-6
-9
-18
10
-4
-6
-35
11
-33
0
-6
-41
1
-2
-30
-15
-6
-26
-8
-9
-5
68
2
29
13
18
1
-4
15
-9
28
-1
24
-6
25
-5
-28
8
-1
7
1
29
4
52
-17
6
-2
11
-26
-1
-20
5
-19
-9
14
-3
-3
12
27
-14
22
-16
8
8
-5
1
-3
41
-28
51
-8
44
-2
2
-1
9
-5
-13
-31
-3
24
-31
71
-17
127
13
5
24
17
39
34
-8
-18
6
-67
127
45
81
127
127
127
23
4
15
-11
53
-10
5
-3
-47
-51
32
79
11
44
127
-4
-25
53
8
60
89
-17
-15
4
100
-101
22
60
1
78
2
-7
-97
29
94
-74
-42
6
-15
6
-12
-9
-36
4
35
-17
127
-1
-35
-31
16
-5
7
38
-74
116
-5
19
3
-47
85
54
-4
5
25
-11
8
-22
2
78
33
16
-38
25
-1
0
-35
-74
-1
23
5
-8
22
127
-28
35
11
126
-82
21
25
5
-46
-3
127
-48
-4
26
65
38
-9
55
0
12
127
127
19
25
-23
12
-26
-105
127
108
26
4
17
18
-16
3
127
-26
78
4
80
-27
-34
27
64
-122
36
-7
-17
50
12
6
-38
15
127
25
-6
34
-35
127
0
-32
1
-34
-69
64
3
-64
64
-25
-50
6
-80
43
1
36
-48
105
31
7
-12
-14
26
74
-122
-28
12
29
4
57
14
127
121
50
65
4
25
-15
29
33
52
-82
-50
-20
-127
127
-36
127
19
-6
29
23
53
13
24
24
4
7
-33
127
-46
42
-83
52
-22
58
29
62
35
-25
79
-39
21
-26
90
127
-29
-40
30
-12
55
4
2
-28
-57
-13
17
5
76
0
118
-6
34
-1
46
3
15
-1
10
63
127
5
4
-27
30
17
44
5
55
-7
-11
-22
96
127
-2
15
23
37
13
-20
-61
127
-26
29
-3
-37
115
-21
61
-26
1
1
-11
-54
17
115
15
-28
36
-1
127
1
-11
-2
-15
20
127
-119
127
-67
-26
111
53
-30
-35
-74
-19
-55
61
-127
-3
8
-18
44
9
100
-1
10
-127
16
-127
-50
-108
39
41
-5
63
-27
3
19
-36
-110
5
27
55
27
126
29
-65
-2
-127
14
44
-9
14
12
-40
-11
127
-14
-72
62
8
-91
-7
127
94
5
-29
-55
88
-6
-9
-66
78
19
127
-24
17
119
-22
-28
-13
60
-13
77
9
13
5
-2
127
-36
-22
36
127
68
0
7
13
-10
-127
10
11
-63
32
-14
-127
23
-1
23
6
16
24
70
33
-45
127
-127
21
44
9
-33
71
20
32
23
-3
28
1
-36
-56
-4
13
7
6
10
30
27
71
99
-13
70
-49
10
29
2
127
1
-4
-19
25
-6
-6
-16
29
127
127
7
-35
-10
34
-71
-18
38
5
16
-5
-61
-54
120
1
-26
-7
79
27
-5
63
86
-63
58
25
5
127
56
24
28
7
-18
0
-127
56
-36
121
87
33
3
-127
36
2
70
41
127
17
30
91
-92
97
45
-34
-1
23
114
-16
37
2
1
9
101
20
-28
81
-49
-39
-6
-1
127
23
-18
-10
31
-104
14
127
-4
25
34
-13
-15
47
-9
23
81
-30
83
-127
40
22
17
-20
16
127
-37
9
120
107
-2
12
13
55
19
45
35
-5
9
-16
36
9
14
91
-29
13
46
113
76
82
88
16
127
127
99
-3
79
113
92
20
19
84
25
106
52
57
54
-19
3
15
102
127
46
8
34
35
82
18
41
117
-19
91
-29
-21
48
13
127
83
-15
32
30
52
-127
10
127
14
111
1
32
-127
39
127
-34
-18
127
-127
1
4
127
-76
4
-7
127
27
47
31
86
17
11
106
57
-13
67
2
57
-95
48
41
-3
9
-23
12
-63
-21
34
86
52
127
-11
-29
1
-31
38
-4
79
30
39
17
15
31
102
25
121
76
127
-11
-8
-106
2
126
5
90
-97
-16
11
127
7
127
127
-34
60
41
-23
81
40
-66
29
19
115
120
127
127
-1
-17
7
-8
-1
55
5
68
-54
42
38
-43
36
95
86
11
39
-20
86
-49
90
84
5
27
-75
24
17
-1
-12
28
7
55
38
123
127
18
12
100
127
104
50
21
70
4
11
28
127
127
69
49
30
-8
127
8
-78
-26
59
-12
59
13
60
127
51
71
62
-39
-1
-106
33
20
78
-51
-33
121
96
-26
-32
46
-12
61
-14
21
76
127
20
71
-6
127
64
-76
104
77
-13
10
-22
41
80
88
-30
40
-13
58
40
127
71
73
63
127
104
84
0
4
61
31
10
120
-28
127
61
98
44
76
127
113
1
13
0
52
127
103
125
62
94
-8
6
29
84
-51
113
13
14
117
98
2
27
20
127
40
93
126
34
127
52
87
-26
62
-59
117
29
-5
-73
12
-33
17
77
14
112
67
3
73
6
34
18
17
76
33
111
44
57
-66
52
100
127
43
47
36
3
41
52
-5
49
32
6
23
81
63
41
33
8
63
-93
40
79
59
15
102
32
8
32
127
122
-46
29
69
25
83
-14
127
1
104
-6
127
37
119
-4
11
3
92
-24
-3
90
19
108
46
28
74
-11
11
23
19
-19
8
127
95
-27
26
-127
58
-25
-23
-24
99
127
27
92
127
20
-20
-12
-5
56
84
77
30
66
8
126
3
11
107
-11
44
123
112
-30
65
127
0
25
-29
-27
8
8
58
-43
49
13
23
44
-1
7
50
-28
101
17
10
18
16
127
127
26
-18
20
21
84
15
52
65
62
113
57
127
42
39
-8
86
15
-13
33
0
63
-22
33
-10
57
105
-5
42
48
127
110
49
61
-7
18
74
0
27
38
127
-36
-10
41
30
0
12
127
75
95
25
-6
-11
7
127
37
-3
-24
-46
79
35
127
51
-74
-43
19
119
99
7
58
99
-19
-39
-5
39
74
-16
127
84
5
-82
121
-29
60
-13
66
44
63
15
55
127
127
-96
103
-29
102
47
11
81
127
53
33
36
63
10
-32
127
-14
29
30
74
51
-2
-14
14
127
6
12
64
27
-1
-108
6
127
21
-3
-3
-23
68
-21
4
41
62
11
19
34
-94
-39
53
-88
3
24
46
-8
43
5
-54
-23
-22
61
117
32
-20
24
-112
-41
6
-7
-6
5
3
-5
127
18
68
58
57
22
6
78
-20
58
-17
40
38
6
66
8
32
-54
-48
29
33
-31
-40
-38
32
22
11
32
-25
42
80
93
5
-58
68
-12
-56
-6
-56
-56
-3
26
-38
-56
-17
13
39
26
22
59
-70
14
-32
-49
10
31
-127
27
46
-51
64
-6
1
1
-51
24
-14
9
26
15
15
-5
6
67
-8
22
-18
69
77
-99
-15
7
98
46
-79
18
14
32
24
63
5
-127
-25
3
0
-127
27
0
12
-16
36
2
-8
31
-11
24
43
-15
-27
-29
123
50
27
44
-3
6
-39
2
67
64
37
-54
39
-2
39
-11
54
1
41
83
58
-13
-20
44
-29
0
17
11
13
-47
6
-46
-22
22
19
104
-66
22
-43
10
38
44
-16
7
8
26
-50
-47
2
-18
19
0
40
-4
24
-42
-4
-69
69
-30
11
29
-18
99
-36
35
24
63
-15
30
63
-56
-6
19
40
101
-35
-85
-8
9
26
-49
-127
7
15
16
-16
-11
65
3
24
-53
0
41
-25
72
-2
-80
-71
33
-34
35
13
17
127
-71
28
-22
19
8
-82
-90
32
113
59
40
46
27
8
-12
29
-35
5
16
-12
-42
-19
-26
-17
52
-30
74
72
17
11
1
4
15
-24
15
-51
-8
90
23
-9
-9
31
35
-67
-98
-2
90
82
34
27
18
45
-22
22
50
2
-59
34
34
-54
-63
-21
78
-80
36
55
39
-19
-28
54
8
47
-34
25
-2
-25
99
63
1
-14
14
-29
50
-11
21
-24
-12
50
-56
-5
22
37
-44
-14
38
-54
7
18
12
7
66
41
85
41
-43
-10
23
-16
-127
114
51
-13
12
24
19
6
38
3
-28
-13
-89
-1
7
33
54
2
22
-13
-59
-3
41
-127
89
-104
22
-5
36
0
49
8
23
3
44
68
-8
31
58
-45
8
-127
9
85
-2
-13
-127
48
-77
-21
-6
-4
41
28
69
31
-95
-15
-55
82
-110
54
-77
-19
50
-71
-11
-72
52
0
53
-26
-99
-127
-62
68
-16
25
63
-10
-51
-59
38
-6
12
21
-127
-1
-52
25
56
70
-9
41
-46
29
61
95
4
-18
5
-63
33
6
15
127
104
48
69
-64
10
44
-78
27
26
14
8
-27
56
28
-71
-40
18
28
-9
4
-21
40
-1
3
55
39
40
45
17
-89
-21
0
-23
64
-9
-63
-5
15
17
-1
-66
45
-55
18
0
101
22
39
51
-48
-57
30
0
-40
59
127
23
16
10
127
20
92
-24
-37
67
35
-16
-127
-17
12
100
0
15
17
2
-26
-2
46
-63
27
-15
19
-2
27
-12
17
127
31
-21
-51
49
2
2
7
27
61
-33
1
37
28
15
2
-80
47
-49
30
-46
24
-37
110
-68
-38
-127
28
3
-50
-110
12
14
14
-16
-127
-127
-31
-13
25
-34
21
7
13
28
-127
25
39
31
-22
32
7
10
-127
-23
5
3
72
-9
8
17
-2
-3
-91
127
8
-10
25
-125
2
-127
22
18
-6
-8
25
-5
29
24
11
-3
0
32
31
-84
-8
7
-2
27
8
70
11
-77
15
17
26
-15
-127
-8
-17
123
-7
12
66
12
2
20
37
9
0
8
2
-8
6
5
18
42
-110
0
1
-14
-39
9
8
19
-127
21
-9
8
1
2
17
-22
5
14
-9
10
-127
21
12
45
-2
8
-45
21
34
33
36
7
10
-90
-11
8
11
35
-19
-27
-11
4
13
10
7
1
-24
85
5
1
1
8
-11
45
26
-3
16
3
12
0
5
21
3
122
-10
44
-8
23
-11
-64
19
3
4
-32
76
2
-22
38
-14
9
2
-61
-11
0
6
6
-16
-6
-9
3
48
24
0
23
-71
6
12
8
33
8
63
9
-3
1
-1
-1
-22
-12
-1
2
-40
-33
-18
-29
1
4
10
40
-127
-11
3
-1
55
36
59
7
-32
36
-96
15
5
-102
20
3
11
-73
25
2
18
6
2
34
15
2
10
127
7
0
-9
8
13
-9
-2
-2
9
-13
-87
7
97
-60
9
38
6
-1
-83
-6
17
1
-23
-5
20
-8
6
4
-2
-2
10
17
16
48
6
7
5
35
-41
-97
-76
18
-34
12
-9
-1
-127
-7
-127
34
9
-2
-2
2
32
15
127
-100
2
-2
-36
10
9
-23
12
-33
1
-23
6
-84
-6
-17
125
-21
21
-7
-118
-34
6
19
8
6
4
-12
-38
-43
5
-9
14
19
5
30
-27
1
22
8
28
-10
32
-2
-58
30
-4
11
-81
-127
-55
30
-127
5
4
-67
-5
-27
53
-127
-3
-127
9
-24
-5
-110
78
-32
3
2
-29
-113
-44
15
14
-127
10
-2
-1
1
-1
127
-2
-12
6
55
16
-25
-15
-19
-127
12
-1
-19
16
25
0
22
20
11
15
-11
-24
3
64
1
22
2
8
12
-1
-28
-24
73
-9
-5
16
1
3
56
-12
44
15
10
-127
-67
62
-35
2
-9
-2
16
0
13
8
13
-27
24
31
-2
71
-43
2
-13
39
-127
127
-7
6
-70
20
68
4
-41
-64
-3
53
3
-2
-35
-113
9
21
0
12
6
32
20
-7
-127
38
-127
-13
-127
-37
12
-18
15
-50
-42
11
-11
46
122
14
-118
28
16
4
-8
-1
-13
127
-9
5
-1
20
8
5
-4
-127
-15
4
24
12
-1
-127
0
-12
-123
7
90
119
-127
-2
-6
-127
13
-4
-9
34
-127
-5
13
-27
-4
-45
2
-19
3
16
-3
-50
4
6
12
4
18
-4
32
-5
-32
7
14
-6
-1
38
9
12
27
-29
8
-6
-58
0
6
50
-95
1
18
-26
19
-2
-1
4
18
3
2
5
15
22
17
2
-2
-9
-127
-19
-1
35
20
-127
-2
-127
14
37
-15
43
77
24
4
0
-112
6
-41
-32
8
10
14
-22
5
17
-18
-56
-36
-3
10
26
19
33
5
79
20
-18
2
-15
-4
6
27
-67
-4
-127
69
-2
0
-18
-120
3
94
-13
-3
23
-22
21
-17
8
-14
19
28
28
53
32
127
7
-9
9
29
-127
-52
-127
-127
-5
-20
39
6
46
7
-43
127
0
-3
-1
52
-9
11
-35
12
9
-12
1
4
-43
-5
15
1
-108
-19
-118
85
2
15
15
-37
-64
-28
-2
-4
9
3
-4
-1
55
33
-1
5
54
74
6
-6
-2
16
-6
27
-46
6
-16
0
101
-80
22
-63
-17
-7
18
35
1
-14
15
-3
6
14
-31
127
23
-18
6
-7
21
127
15
6
61
29
2
37
-9
-24
16
127
-10
12
5
42
33
-11
11
2
28
45
-19
-10
-36
20
5
-5
12
-62
37
-15
-4
19
13
8
-1
-66
18
41
17
17
34
13
-21
14
23
-16
-109
-13
-3
12
11
-4
6
39
31
20
-22
-35
-2
-19
4
0
-2
-17
-57
-52
4
-3
-10
-14
45
0
-31
18
92
127
-15
91
14
-57
17
-39
-32
-3
-65
1
-7
5
10
8
-20
118
29
-6
0
-40
6
-12
10
3
-29
18
26
15
54
-127
4
16
7
-11
31
4
4
16
28
0
-127
24
1
2
10
22
36
12
28
23
6
-4
13
16
10
58
37
-11
29
-14
-8
-1
73
-8
-35
-35
9
4
9
-15
25
-19
69
127
-9
0
97
12
-5
7
7
116
0
0
10
99
-4
13
127
-34
6
-23
-127
-9
18
-3
-22
-1
15
-1
-14
-23
0
9
-8
51
73
-2
-47
7
-30
-6
61
60
2
9
73
9
11
-34
-59
66
-52
-9
43
17
8
28
8
-51
7
112
24
-86
-5
-26
-2
15
43
-10
-18
28
-15
-127
5
2
1
-53
-9
127
-6
9
2
126
3
11
6
42
-2
60
23
11
60
3
-35
8
-12
26
-20
12
-2
-19
2
1
-2
32
39
14
-6
14
-6
11
-57
4
33
41
21
-10
-10
-20
5
-28
1
37
9
3
-73
91
-29
24
-4
23
38
39
5
14
6
-5
-20
-21
13
17
64
-3
30
19
17
-10
76
3
-4
127
-9
-88
0
34
-32
1
13
-4
18
127
-87
-53
-6
4
11
-4
-24
16
0
-30
-10
-72
-10
-118
-86
7
12
3
64
16
-6
-7
1
127
-1
127
-20
-8
1
-9
-5
125
23
-22
-4
3
13
-15
-24
7
86
86
-8
-30
21
1
-87
6
1
80
15
124
127
-6
1
19
91
0
9
-51
-8
-16
62
-2
-7
37
4
24
8
7
5
0
-13
-12
-3
-36
11
-21
-58
-32
20
96
68
1
11
1
28
11
32
-34
11
-19
-4
-59
4
6
14
21
-8
0
-12
17
-33
-4
-7
22
12
-19
6
-17
24
-30
-2
8
16
-98
12
-3
127
19
68
29
-111
6
21
14
11
-26
-20
36
-4
-124
20
-32
58
-68
1
-28
-14
-127
2
-40
-45
14
-26
-72
41
-12
-48
15
8
-27
16
-5
-2
-30
-18
16
19
7
-3
12
11
-64
-58
-30
12
57
-17
-17
-4
44
-10
43
-34
-2
20
23
-44
-33
-127
-5
20
50
1
-47
1
-10
21
-68
-33
-45
-28
-104
22
-40
10
30
-92
16
36
5
0
-1
-23
-3
6
-17
15
0
-5
28
19
-26
-21
-11
31
24
-29
-2
4
-53
-7
-13
2
43
-14
-27
-15
-38
-43
-26
-4
-16
-43
58
-20
41
-46
9
49
32
-78
4
-20
5
54
-54
7
-9
-31
-27
-20
2
-71
4
-65
-17
-15
-35
-101
-14
3
-7
10
-4
30
-4
0
-42
-29
2
-3
-66
-8
80
26
8
19
-1
-5
-113
-50
-2
-6
-5
-27
10
-26
-4
-34
-28
6
-10
0
-78
-41
-47
-5
-16
-127
4
-17
-10
-26
-54
19
-20
-11
23
-8
25
27
-35
-50
-31
37
2
-1
-21
-20
-53
32
-17
-21
53
-56
15
-19
15
-21
-27
-3
41
-19
-13
39
26
-59
-6
-27
-11
-20
-20
57
16
19
55
27
36
38
-4
-14
20
13
24
3
18
25
6
-19
5
-3
78
6
-2
19
9
-49
-2
27
20
-17
13
10
-24
26
-1
-91
-13
-14
-51
29
-19
-16
13
9
3
-69
-35
3
-7
40
8
-20
-22
-10
-22
-9
24
25
-22
24
-6
-127
-20
19
-26
16
42
-22
-19
0
25
-7
-8
-23
5
2
1
-30
-127
-19
-21
-59
38
-9
-18
-13
-31
29
-50
-6
-37
-127
41
19
13
4
-46
-21
9
65
25
8
11
-30
63
6
-57
-29
-7
-34
-28
24
9
25
13
-31
-61
13
-7
48
-46
-8
21
-17
9
2
-15
6
9
-10
-100
-46
-23
-8
-3
-62
-20
-90
9
24
111
-6
-127
-127
2
46
8
-47
34
-18
-35
-5
6
-19
2
-35
-27
27
-97
-24
10
-48
34
21
-2
76
12
-36
24
1
24
9
14
8
8
-17
4
-15
25
7
-50
9
-35
20
40
-47
-19
-32
-19
-6
21
6
4
4
28
-1
6
4
-2
-30
-10
-127
25
-17
-15
-44
33
-127
6
-29
-7
11
-19
-55
-76
-8
1
-50
11
4
-2
-18
17
-11
14
-5
66
-127
-51
-45
20
-78
-54
-116
-17
51
18
-127
6
-52
-1
8
-11
-16
41
-25
-4
8
-25
47
-47
-127
33
-14
12
-22
6
43
-18
42
7
-3
8
4
96
62
-27
-29
-72
22
-23
-29
-68
12
-26
-12
-45
-4
3
-10
-27
-3
60
-84
20
-5
-19
-7
-14
-32
1
-36
-84
-35
-15
-19
-3
6
12
8
-33
2
-6
17
-25
5
5
-8
10
-46
12
-3
45
-20
127
-65
51
-9
-3
-68
-42
-30
-65
-12
24
25
50
5
-17
51
-15
21
-9
8
-16
-8
6
8
7
28
-127
-7
0
12
-10
9
-8
-106
75
3
5
-1
-51
43
-54
12
-17
-19
26
17
7
-23
-17
2
-72
2
8
-11
-73
-5
-61
-13
-12
-53
-21
-37
-63
59
6
5
-122
1
25
14
7
4
0
-119
-34
-9
38
-69
-127
13
72
25
-17
-1
-7
15
21
-40
34
19
-23
-14
-6
14
-39
11
3
-20
-7
16
10
14
3
3
-29
-24
-38
13
-13
10
-83
47
-45
24
73
13
-4
-20
4
114
-21
10
59
-10
30
-7
-32
-60
-16
30
-2
43
-22
48
-127
-26
-70
-69
-4
7
-15
-1
38
-15
42
-64
-11
2
-14
0
-11
-23
0
-28
-53
-89
-17
-40
-94
-9
5
-21
127
47
2
32
-9
-5
-10
104
-14
-81
-80
100
36
-6
30
23
-70
10
-10
-84
-12
-32
49
-7
6
-61
-127
-29
-19
24
3
-82
34
92
-6
-59
-33
-35
-9
11
-4
0
-31
-32
36
66
-127
-11
61
2
-29
-127
-11
41
-85
10
51
35
-7
4
-41
36
84
-5
-22
-8
-23
18
-23
0
88
14
-75
11
-33
-78
-48
19
-81
5
-19
-31
-91
-87
0
-12
-77
-127
65
7
15
47
71
85
12
-45
-14
38
-9
-24
22
-7
-57
45
-38
23
37
30
-127
-58
-87
-72
40
29
-5
12
-1
41
-71
42
-6
60
-4
-7
-30
-100
-53
23
38
79
21
-19
46
90
2
-27
8
-21
-36
-14
-74
15
-37
-6
55
-49
-127
22
10
-60
-25
-11
4
15
-94
-16
-15
34
-27
-4
-69
-4
-85
-29
67
36
-34
-43
-10
-17
12
15
51
-5
6
-32
9
27
-6
23
-40
26
-28
19
-65
-48
30
-26
-22
6
16
33
20
-51
-8
45
-42
20
-127
12
0
-63
1
-127
-1
-31
-99
-5
69
-38
-26
-35
20
51
5
-124
22
-70
52
-2
5
-13
-18
39
62
24
-63
-23
7
6
-16
10
46
-127
8
-52
4
4
19
-35
45
-28
-42
-37
-22
34
-67
6
-2
30
-36
-5
-3
-41
0
-118
-6
3
27
-31
23
-14
-39
-5
-5
-20
-61
30
126
-23
20
-7
16
26
-21
1
-12
45
-45
4
-8
-127
3
-6
-10
-60
-12
-28
-28
-30
-127
-21
-26
32
-5
-8
-116
15
-45
45
-13
8
-15
-27
14
-62
5
8
60
-24
-34
10
-79
50
-14
-43
0
-35
11
5
0
3
0
38
3
-38
-10
8
14
-57
24
-19
-6
-9
23
-56
-42
-9
33
18
6
12
14
9
-7
-28
6
4
-69
-75
82
1
-15
-32
-10
50
0
-74
-16
58
-18
-47
-14
33
-24
-95
-73
-2
37
58
-127
-22
-39
-18
10
-19
-10
39
-22
13
-17
-28
-100
32
-67
2
2
-19
18
17
-39
31
10
-57
-9
14
-1
-6
14
12
13
9
-38
-49
-2
1
-24
-101
9
113
-125
29
-6
24
0
-24
-19
-22
10
-56
0
32
15
-7
-35
-24
-44
-26
9
96
-3
-43
15
-16
-65
-9
-19
-127
-39
127
0
16
32
47
42
-3
21
-39
86
-48
-25
-6
23
-1
60
7
47
68
32
4
-1
-45
-15
-30
-2
-1
-15
-69
13
-8
-89
4
29
-47
-68
-23
2
-15
-63
-4
-18
0
-21
3
-8
-27
-16
-67
-44
6
-17
-9
-2
21
48
27
-85
8
9
7
-18
-1
-57
-5
-39
81
-31
10
39
34
29
26
58
68
3
-9
83
-7
-14
-10
-19
23
64
-82
45
10
-55
-30
-37
-70
-4
-62
-7
57
-18
-11
23
-28
-39
5
31
21
-127
-12
25
-11
-18
-49
23
127
-25
49
25
-1
-79
-6
-31
7
43
-32
-21
-24
-92
-16
-100
0
-12
-4
-44
-55
41
6
47
86
-31
11
16
-25
25
31
127
9
3
-23
11
31
-68
-45
-12
1
-8
-47
-14
55
-89
-22
-81
-29
11
73
46
65
20
-42
-60
-12
-1
14
7
-36
-9
22
-48
15
-127
-84
-77
-38
-10
-26
-38
-51
11
-56
-6
12
-90
10
4
-37
-34
-3
-16
46
-36
-38
-24
-87
-30
3
-23
1
-12
-29
-18
34
-36
78
-48
24
-39
-27
-1
-21
53
16
-4
-24
52
-127
-127
-15
-108
-2
13
4
24
-4
3
-18
-19
-127
16
-127
14
127
-69
21
3
-16
16
15
46
13
3
67
21
6
-40
-35
15
11
-10
2
3
-54
37
27
-3
2
9
27
-11
-50
17
-22
1
-35
-64
-48
-32
-24
-15
-21
13
29
15
-6
-127
23
8
-6
-15
-20
5
-16
46
-13
-18
14
11
-25
-13
35
-25
-43
15
1
16
13
-19
32
-23
-41
-30
-4
44
-22
-1
-24
27
7
-20
20
25
2
-39
-65
8
-8
-25
-93
28
1
-53
-1
-25
21
35
-57
-58
18
-44
-32
27
2
6
2
-23
-9
-63
-25
-37
-2
-47
-18
-80
-3
-22
13
-51
127
-82
30
-2
25
13
-127
6
6
-4
-14
-32
1
127
0
-39
25
5
-28
4
-1
-94
20
34
9
-48
-55
8
-51
0
-94
12
-5
23
-3
-38
54
7
-59
-7
-24
-118
-46
-38
-114
-69
-51
-26
23
-26
13
-35
-127
3
-29
36
-17
15
-11
-8
-77
20
-50
5
19
-38
14
-28
0
4
67
-11
6
-15
-36
8
-26
-43
-71
40
-3
84
-57
58
-80
-5
3
-60
2
-55
-1
-28
70
-15
-33
10
-80
15
-59
-79
-24
38
-1
24
-10
26
-28
-32
-35
-2
5
32
40
-9
36
5
56
-7
38
59
-35
-18
40
-27
-84
-23
-23
2
-59
-7
-114
17
32
-27
15
29
17
-3
-8
1
-35
-5
44
-4
57
29
-2
6
4
-69
30
-82
-39
-127
15
-5
-94
-81
-19
-19
-13
34
-43
-14
0
-18
-32
2
-45
-1
-12
-17
-12
-5
21
10
-123
-119
-30
44
104
35
6
48
42
-40
-19
-3
-86
34
9
93
21
-2
-47
10
-2
-18
-97
1
24
-16
-13
-2
-29
-37
41
-8
-127
37
-41
-22
-35
1
81
14
-70
-9
-7
-16
23
-8
23
-5
-60
-21
-3
32
29
-8
10
-10
-17
-26
-12
55
-16
-120
-40
3
4
3
36
-15
7
13
-127
-127
9
-71
-25
-4
66
-21
5
26
-14
25
4
9
-100
-17
-84
-6
-24
-82
-38
-10
-9
36
-44
-1
-12
11
-12
14
16
-11
-67
-9
14
-1
-127
-44
-12
-95
1
30
84
36
5
36
1
-33
-127
23
25
-84
4
-15
12
28
4
3
-23
32
-17
14
4
12
-7
-33
-23
-6
97
0
27
-13
27
-45
-3
-21
36
-30
-18
3
-9
-17
-35
-42
-29
41
-79
2
32
-15
-38
-6
-10
-91
-8
-20
-4
11
-37
-3
-27
10
-127
61
-21
-7
4
46
18
-127
9
-20
-65
47
-58
-50
-4
25
8
-103
-61
-20
-53
-6
-13
61
19
-5
-1
-17
-22
14
-127
-20
-22
33
-5
2
127
-49
-27
-24
48
-4
-30
-24
-23
-3
-35
13
-2
-27
-30
-48
1
-8
-1
2
18
-87
-127
-16
102
-22
8
-32
-12
-45
-8
-13
-2
-10
108
0
36
6
-37
45
19
-28
34
-15
-8
-37
-21
27
-41
-11
41
-79
-24
-19
-61
31
-26
18
-97
-24
-45
35
-21
-42
-34
-62
-20
27
30
-13
4
-59
16
-28
97
-4
-85
-1
-8
-52
-55
-24
-7
90
-20
7
-23
6
-3
-65
-18
-4
-31
-10
-25
-36
14
31
1
1
14
-5
-1
-28
35
9
-41
-4
-5
-21
-9
-18
15
8
17
87
30
-8
1
-51
-5
-1
-6
8
9
-34
15
-15
-4
-35
-3
-59
22
-86
-55
-13
12
-7
-7
-7
-5
32
-61
54
-16
-2
-16
25
6
-9
19
-23
5
12
-24
-39
-7
71
-8
-17
7
77
-4
-78
41
-29
17
34
12
17
6
-35
-39
9
-29
23
15
39
39
83
-14
-66
27
24
81
-6
-1
10
-30
-11
-34
-3
-21
17
46
22
-66
-10
8
-9
24
10
-45
5
-19
-65
-14
-54
-82
-21
-20
-9
39
10
8
-38
-60
-15
9
43
-6
-26
47
-17
-83
-31
-35
44
-7
-7
-38
10
13
44
-41
25
16
20
-14
11
-28
17
-90
-15
-64
-2
5
35
-56
8
17
4
62
-13
-49
17
-12
-21
-6
17
33
-2
16
-28
-25
-4
-8
-15
5
-49
31
-59
-7
-20
-24
-86
-64
-9
8
-37
-20
-39
-6
-23
-68
-16
11
-43
-85
17
35
9
-21
-6
-5
-41
11
4
14
22
-27
-29
4
-127
4
21
-38
13
26
-18
102
-18
116
3
-19
28
-127
13
-22
-39
11
9
2
-17
14
-28
76
5
-61
-49
-9
16
54
12
17
-4
-50
-27
3
20
6
-28
-9
-15
-20
-1
-32
-28
-30
41
-14
34
-1
-1
-54
14
-27
-8
14
98
30
-110
12
-1
-18
-3
19
-22
38
-18
-14
-48
-2
-29
-127
-1
36
21
47
-3
50
-26
36
-35
17
2
-8
7
-48
-46
-34
-95
-58
2
4
-7
-24
-21
25
-7
-77
12
8
-19
3
6
-7
-26
61
-4
-10
-27
-26
2
-4
11
31
24
-8
22
-1
-17
1
1
51
85
22
2
-6
33
-42
15
-30
-40
30
36
-20
-59
-91
-56
-10
-8
15
17
8
16
10
-11
3
3
48
13
17
-91
-111
55
73
-127
58
-43
6
22
72
9
45
-2
51
115
63
-48
4
-28
65
80
0
9
-127
75
-93
33
28
-127
-3
36
35
-113
28
42
52
-41
-54
13
-127
59
12
-34
11
-45
-59
-54
-9
-127
103
78
-24
95
-33
-5
28
-1
92
14
-60
40
65
57
29
-127
-79
-20
-108
-120
-127
17
27
-39
-26
34
48
-91
1
-2
20
-2
7
56
40
31
-7
-78
-38
59
11
-11
1
-17
-127
-86
79
-127
12
122
34
69
14
8
-86
-13
32
6
74
-127
-4
-59
84
-17
-15
-127
50
-55
-35
68
37
60
47
-127
8
-10
54
-124
-11
49
3
-1
-89
25
53
-12
1
-27
6
45
71
40
50
-30
89
85
-33
-57
10
50
-127
-110
87
-1
52
-53
-2
-49
7
52
46
67
124
-37
9
-53
-3
-127
56
-18
-127
-3
-99
-127
17
-5
-61
-22
53
-41
-51
-46
-51
-90
78
-104
47
-103
41
22
12
47
-106
-127
3
-12
27
17
-8
44
33
39
3
-21
-12
-78
-127
-74
-18
24
-127
-95
-14
-122
105
-56
-23
-9
-34
52
-88
81
16
-1
16
-81
-127
48
-96
-79
-22
11
34
-33
100
74
-16
-18
12
53
24
-34
34
-126
-5
-127
66
-14
46
100
-124
-2
-127
19
-127
-113
16
6
76
48
14
-93
-1
-79
-17
-127
-34
20
48
-81
34
13
-29
-35
3
0
-127
69
18
-21
-32
60
-79
-56
22
25
27
-36
-43
127
-4
-90
-57
-73
-41
127
9
-26
-111
-8
118
-9
39
16
65
37
-39
75
-20
88
-27
-97
-61
-27
9
1
-65
-26
73
25
11
45
-28
-39
32
127
10
9
-30
-10
8
16
-39
21
-75
-5
-127
76
1
-36
96
-127
-8
-12
2
-61
107
-127
70
-6
60
21
79
-50
-127
-9
50
18
83
107
-1
66
-7
-127
20
54
-8
-48
15
42
-75
-102
13
10
93
-5
69
56
55
-24
-2
-39
-37
-26
-14
-116
11
3
-32
27
-45
-74
24
56
75
-108
2
-106
4
-41
-35
-8
19
22
-106
17
-106
115
14
36
127
-36
51
-88
14
10
35
-5
-2
-3
2
80
-13
-16
25
47
-67
-5
-10
88
-17
-115
-73
19
-34
63
11
-14
-22
102
-11
125
-23
26
108
3
-92
6
-1
-9
-31
-127
29
6
-38
46
97
-3
-127
-17
-63
12
-127
-48
-110
-11
-40
-53
8
101
49
48
-39
12
-18
23
-3
99
28
-127
16
-10
54
-20
92
-109
-17
-42
-127
54
12
-85
72
-33
127
-58
24
33
-24
54
28
87
84
-71
-5
33
65
-50
-127
16
41
-28
37
-83
0
-9
28
19
-8
11
-61
-125
-15
-45
29
-3
55
3
47
-17
26
-2
85
46
-13
-8
21
32
-115
-127
82
27
-26
74
42
30
-37
22
31
-11
24
-64
2
-117
46
-127
-8
6
-13
23
-67
28
-114
-10
-109
22
1
9
26
19
5
28
-30
35
8
15
-30
-35
-103
33
-94
-53
53
-29
-24
31
52
-24
-25
-8
-8
-105
-37
9
-14
-104
-107
82
-69
-2
-78
54
32
33
65
13
-46
-43
-51
-43
26
-53
9
29
-32
4
9
-93
-1
67
-21
10
-8
-76
112
52
-41
-60
-28
4
46
3
-30
-31
-83
-31
-4
13
107
95
4
12
-8
4
-4
-62
-10
26
34
-33
15
6
-19
-27
-25
-65
3
-127
2
-80
-69
7
22
52
63
111
1
-17
-28
-25
-20
-20
-127
-86
-1
63
25
-48
8
-66
-8
4
-65
-6
-39
-16
-6
-47
127
34
5
-10
-1
-54
25
17
49
-10
-27
-3
28
9
52
41
23
-1
-30
2
3
-67
-6
8
-38
-27
-6
86
-37
127
-28
4
-102
-58
-56
11
0
0
22
-7
-83
-46
65
56
6
-57
-56
6
81
-10
91
-57
-9
59
-22
17
-56
-23
-89
-8
-25
87
80
-27
41
37
88
127
-92
-30
-75
-98
1
31
17
11
-37
-13
-2
-64
-40
10
-127
-49
115
9
115
-81
-64
-47
-46
-48
-64
15
-41
87
-52
-22
-108
-42
-16
-20
-39
-30
-76
2
-47
-27
-9
49
-31
-12
-3
4
-67
75
-113
-18
-101
21
-33
-12
-33
48
-66
-36
42
-60
71
54
12
-12
-53
-24
70
64
-7
-68
-82
-127
17
92
27
-34
19
-43
16
-33
6
-10
74
1
15
19
-113
-104
36
-52
-18
69
-44
54
3
-15
-10
-7
-26
88
24
52
45
-23
63
11
11
-13
11
79
11
-58
-79
63
80
15
-84
-41
16
-17
-52
28
127
24
-23
127
-44
-54
-29
45
48
3
-31
-8
-55
-23
4
107
-31
-63
3
-12
-65
-34
-10
-11
17
-25
-19
-108
24
-56
-69
3
-16
-21
-29
127
31
-27
-35
32
50
22
31
-15
-22
-41
-34
-22
18
-24
-82
-21
47
10
-15
127
74
-76
28
127
-3
-55
10
-6
127
16
-45
-53
-10
-127
-56
-12
-34
-20
41
9
38
-83
-10
-1
-45
-56
-22
19
39
-26
-20
-3
34
-35
-2
-127
43
-27
11
-36
-61
25
-115
14
-1
-91
-3
-20
4
-36
0
-15
103
-2
22
-31
-87
87
-9
-58
-49
-62
3
0
-32
50
28
40
-6
14
-30
-10
-21
-18
-85
-60
73
2
36
-41
-1
-40
96
-127
-32
-29
98
-4
-18
-9
-14
-50
-58
24
-15
43
22
-21
88
9
-81
-42
-65
-87
6
5
3
127
-58
-23
23
117
6
78
-82
8
15
-7
0
15
-27
5
-8
24
-10
-85
31
22
10
-63
61
-15
-3
-43
60
-42
-60
-36
9
-45
38
35
45
7
-2
-32
-2
66
59
-121
-55
2
76
-39
-76
-9
-53
-16
12
-6
25
1
-19
-39
-19
13
-19
-55
41
-26
-16
-23
-127
-57
36
-34
3
-10
23
-3
-31
30
54
-37
-4
-21
37
3
7
-3
-37
-89
33
27
-4
102
70
-94
-19
-16
-40
-48
-68
27
-9
-4
-30
-85
6
3
29
-27
0
11
-4
6
5
-12
-14
-42
-90
-56
-32
-13
-127
20
-7
-4
2
3
-35
-21
-44
-28
49
-2
-7
9
13
-10
23
17
-12
-22
-25
10
18
19
-10
-55
23
23
-43
22
-12
39
-15
-4
-1
22
11
-19
-5
-16
-10
12
-64
-3
-8
-116
7
-51
67
-11
-105
-8
-86
-36
2
2
-8
-28
-20
-1
2
-1
21
4
-19
-68
-4
12
27
5
-48
2
14
-48
5
-53
3
-67
-6
12
0
-43
-8
-92
5
-24
12
22
-10
9
6
-4
20
-14
-25
1
4
-32
-10
-25
17
-9
-34
19
-14
-8
-57
-1
-80
-29
20
-13
-8
55
22
17
-12
4
23
-54
-45
4
-3
-24
-7
-26
-2
48
1
-6
5
38
-4
-68
-115
29
-51
-7
19
7
0
4
19
29
-10
-96
-21
-7
-30
-39
1
10
24
-9
-11
4
-21
23
-42
-60
6
-22
-103
-44
24
27
-31
-45
-127
15
-9
-15
-4
-91
-20
-30
-21
-32
-56
-41
-12
-15
-26
22
5
-42
4
3
-20
-5
-96
-6
48
-35
-106
-31
30
3
-4
53
-1
72
9
-3
-95
-22
33
20
14
-12
32
-6
-36
-2
-15
24
-11
2
4
-8
-32
10
-79
7
-9
17
-3
12
-12
13
6
-16
-50
-17
10
-3
-21
5
-19
-3
-52
13
-12
-45
-31
-17
-10
33
7
-4
29
16
17
-38
28
-6
8
-3
-2
5
12
33
-3
-67
-7
45
-26
11
-16
-21
18
-12
-17
19
-10
-25
-50
-12
-31
3
-12
5
-63
-6
-12
-44
4
42
29
21
-49
-81
-9
1
17
-127
4
-16
-13
-29
-11
73
-16
10
-21
-18
50
8
3
51
-9
-18
43
-14
30
-6
-5
-4
-3
19
-6
-12
7
-124
-13
-95
-44
6
-14
-5
25
-14
47
-97
14
52
-11
34
-12
-5
64
-4
-37
-3
-24
-1
-26
-7
-6
-14
-31
14
50
-44
-35
36
6
-30
24
-10
-37
-21
-21
-8
-8
-31
-36
-1
-4
9
-24
27
-127
10
-5
-51
-11
-50
5
73
-39
-63
5
4
-11
-10
-19
73
7
39
2
-63
-13
34
15
0
-21
11
-55
-127
-95
13
-16
-15
-10
-4
-26
-8
-39
-30
-2
1
99
-11
-5
-57
-14
-21
-12
4
-10
-8
-25
-18
-18
14
16
-34
-30
-45
51
-10
0
-2
8
-3
-12
-15
15
-3
-88
-1
-10
4
19
2
-6
-11
-52
-6
-2
-10
-4
-4
-30
15
3
1
9
37
52
0
-14
-27
-10
-15
-9
-21
-18
0
-6
7
-66
14
-2
-29
0
-59
12
-42
-12
1
5
-11
-4
-24
2
-127
7
-15
-57
-90
-104
12
-63
-40
31
-9
19
-25
-22
45
-15
5
-12
10
-32
-46
-127
-37
-69
29
2
-2
-36
-24
-4
-8
-4
-37
11
-127
-9
-34
10
-30
11
-19
8
-34
34
5
-5
-13
-37
-24
-5
54
36
-32
4
0
-62
2
-9
19
-17
-22
-9
-1
7
16
5
-127
-20
4
-14
12
-4
56
1
-6
92
45
0
-63
6
-3
-27
-18
-28
84
-57
127
47
-22
29
-7
1
13
-27
-19
-63
-7
50
49
5
-13
2
105
-97
97
-1
14
-80
2
127
113
29
15
74
6
-62
-56
-10
-110
59
-16
18
-10
-123
89
3
35
-1
-45
-4
-16
-93
-45
-27
-1
52
30
-71
3
-25
-86
-2
-40
127
40
-104
-10
-8
-28
-3
0
31
-22
-1
-67
3
14
35
31
-30
-27
3
4
0
-26
-19
-23
-10
12
-37
46
2
41
4
24
-5
3
-100
5
-11
-4
76
-13
-37
-50
75
59
-77
-4
18
1
122
25
15
109
-38
-31
34
9
54
38
-11
58
11
-32
12
-65
-47
8
127
-49
5
114
-52
-2
-50
6
127
-2
7
-14
-60
-62
20
15
127
-9
-3
101
-21
-14
-1
20
-13
39
-17
-4
-7
-35
17
-65
30
-19
42
46
5
6
127
26
-1
82
11
36
44
7
-74
-55
3
-22
-79
34
18
-36
-20
10
-20
15
-31
-32
127
10
5
-3
4
-61
28
-49
-23
122
-33
1
-18
-54
0
-21
-7
1
23
36
-60
-29
23
64
-7
-59
-27
17
-32
15
16
6
13
14
-7
-15
-96
20
6
-13
54
127
23
-39
-71
28
4
126
38
-27
45
59
14
82
63
127
17
49
15
2
15
-49
52
28
26
-32
-7
9
-11
-41
-35
6
-14
-20
-8
-127
14
-13
-31
-7
4
15
-31
116
2
-14
-43
-28
-1
-34
-31
-49
3
10
95
24
92
25
53
-41
-21
11
-5
110
0
15
11
-108
24
-9
-1
73
15
58
-65
0
3
-1
14
-12
-13
-98
13
-17
-1
-24
69
120
36
101
-24
127
42
-18
-4
-5
-5
-7
-6
21
-13
10
19
7
50
-33
5
-4
-8
6
97
37
3
-4
-38
49
-2
-20
-48
-12
18
-34
-41
1
50
-21
12
-127
-86
3
6
20
-35
2
-12
104
11
13
-6
-70
-50
-3
18
6
-2
-75
-7
-31
-44
-16
-20
-45
48
23
10
15
-85
46
-16
6
-3
5
7
38
5
63
-62
70
-2
-39
3
31
4
-3
73
15
39
-65
-22
16
113
-67
-11
-127
-5
-30
-24
29
-55
127
18
21
-21
4
5
-47
-27
-19
39
-11
-10
6
1
10
-21
-13
-2
3
-33
33
-65
-127
9
78
5
-5
96
16
19
-3
-46
4
17
38
15
-6
-19
-26
97
-2
-5
2
6
7
78
2
-11
-50
-11
-102
31
-21
127
116
28
41
-1
-32
20
-1
-4
60
11
-74
-8
-3
-28
-63
13
22
1
25
-28
53
21
-69
-12
-35
61
2
-9
127
4
10
37
-3
-127
19
-91
-75
-1
2
64
12
11
38
18
-13
0
2
74
-17
-32
-6
63
100
-127
31
-23
51
61
32
-43
58
13
26
-41
40
-33
21
39
-127
-22
-2
-54
-20
127
-49
-63
73
-30
-5
55
-80
-6
-4
3
62
17
-36
-1
-3
48
-4
16
-6
11
-7
-17
