-1472
5262
-411
-759
-174
-452
-227
-6763
1325
99
-1857
-1534
1182
1133
-6845
-1060
-2116
4707
11711
1649
560
300
-3460
-1069
-1093
-1206
6285
-136
-1531
-11496
5263
-1153
1613
-3438
-1786
2459
44
623
-773
1053
474
599
-1988
-1098
-1080
405
-530
-3658
-1003
85
-1041
-53
-186
-1391
751
3744
-411
-23712
125
1971
-5997
-85
-337
-3577
1723
971
3330
1512
-334
-1034
986
-325
-1226
1518
834
2708
-222
4750
-680
726
-668
-580
1381
-230
-1104
2055
911
-688
-7843
1570
563
-7182
-1025
-582
-2817
206
1091
-1041
2507
-3817
-1978
2504
2192
-4925
-1117
2883
-478
-1118
783
-337
2603
-623
-5252
1035
-240
-234
-5813
1751
-1074
3868
676
-442
234
-669
-1040
27
-258
-553
-3159
-2400
-670
-698
-1710
-399
-5017
-683
2353
-309
1889
7
-12291
1675
345
-664
5062
38
-5723
1018
588
-91
964
3955
-1095
-1458
-670
-196
-1254
5353
3877
103
-1007
1172
-338
-977
995
1267
-1205
-5061
11988
-2161
-529
-2
787
529
255
-2286
2136
-2089
2225
2148
-287
-1275
1174
-1281
-768
-807
-1191
6260
-3557
-651
-1806
2623
-6024
464
1258
19142
-3016
328
-656
1111
-3793
-4653
-395
-1068
-690
111
-1949
717
3994
-1057
-1629
-365
2356
-17
140
-628
1798
-933
1206
797
-999
779
-869
-507
-1416
531
-874
8228
-425
-2004
-7844
-388
23610
-1660
1353
1725
-1192
2576
-690
-820
1470
2296
-223
-1076
-1409
2906
-449
-4164
-1014
-213
85
-720
4959
-2772
530
2240
-227
1025
1311
347
-1147
-2550
-3033
-2439
-4140
-13957
-1503
-96
353
3263
95
-914
3964
979
172
1049
-1268
4166
-542
-327
1332
-987
-1177
1218
-2744
41
-1617
1958
-1331
-482
3208
-7726
-3169
-4100
-490
2886
-2687
-608
854
-974
14222
2176
-310
5425
-1212
-3950
3234
-363
2476
1561
2625
2001
1443
3883
3
51
-1886
-1208
484
1741
2335
-2245
655
1738
-1051
979
3569
-1130
-2975
-128
-6078
7618
1480
763
1440
-13328
10549
-517
-914
-3671
-2417
-2347
-494
-6298
-982
-1068
-107
-1137
-569
-1500
-1217
-4
214
-2933
-1129
17524
-1255
6880
-4649
-7562
-5908
-2514
2462
-1323
3021
220
1842
219
21240
332
-6656
-660
-706
565
3489
3087
-3521
-130
-541
-1176
1163
1969
-693
-1079
3201
-4766
4226
3312
-887
-706
420
157
-56
-2240
790
4378
-514
120
848
-1489
-878
20650
591
2283
3739
2079
-678
1532
-1043
-283
-814
1057
2323
-2259
-677
-788
200
-561
6968
-1369
-144
-282
2083
-1210
237
-1218
-2220
-12463
-1611
-1363
1777
-665
4052
-824
4015
18977
-3179
-1255
-5169
-1056
-270
-310
-519
626
1889
441
2884
-74
-234
2088
715
-3262
-4256
-533
-1441
1181
-4869
-1677
-5037
-337
-521
-853
-1584
-344
-121
662
-1773
-4852
-691
3611
2537
-4456
2640
1580
544
1217
-1084
-645
10781
-2216
-3342
-1800
1180
-1029
-1008
-17741
2357
95
2289
1068
-10240
368
-3333
2638
2294
-5959
-993
-289
2721
-1763
-295
-371
-678
-1144
-745
551
-296
1355
-202
2112
-1121
947
-1028
-1131
5436
-5266
1308
-1250
-54
1969
683
696
4835
-2382
-3919
-942
-1093
-1524
-1975
2423
-1705
222
-513
-1504
-670
1981
-1966
4069
-1145
1671
5029
-185
3164
-118
-133
2884
1467
-453
-215
3037
-786
-8775
-885
-401
648
-3409
4814
-1203
1045
-832
713
2255
-748
3224
1258
56
9
-8765
655
-965
1668
-1590
-1388
-4300
-1387
-806
-122
3261
-1245
-791
3257
4577
1134
-1621
-1349
2941
-3130
-2835
1524
1660
25
-1455
-546
4108
2323
-1775
12030
-956
-330
1055
2403
-2107
1539
-5130
-2996
4667
-613
-820
920
4425
1015
-3974
-959
31058
5494
-472
972
-977
-2789
2242
743
-340
-957
3572
-1771
-843
-2679
-2171
3327
-681
-1695
-1088
1575
-757
-161
-727
-1486
-3111
444
4381
-486
-1358
-1593
3669
-3526
1789
-1615
2502
3400
3910
24104
472
-1363
1462
2101
2245
922
-391
-14795
-3261
-37
17153
-910
-1600
-249
4789
-1163
-783
509
-690
3690
-350
-994
-5011
-1778
-715
100
1947
-279
-999
7747
-225
-4788
-1990
-854
-492
8425
-772
-283
1843
-937
-2686
2766
-779
-802
-4281
-22322
3258
-1409
-1448
-3397
-1863
-1021
-1154
-17
975
2447
-383
-1451
1442
3531
-3030
-734
914
-9603
1548
-390
17793
-814
-200
600
-276
-896
-1591
-4832
-483
-1036
2467
-3423
-1475
-335
-7835
782
1202
-724
-1464
-3424
4655
-734
6050
708
-3339
-2477
4319
-3476
1312
1768
-2633
-3082
-4523
-1089
-565
4877
-682
-1153
6486
-868
-881
-795
-1727
-4960
-252
-133
-1456
-7532
2338
1323
228
-256
-3781
-2347
-1667
-959
-1315
-1333
-666
173
-2495
-2
-1119
-544
-2947
-3181
-7675
-505
1781
-4628
-682
40
-232
2134
-1318
5219
-3100
1067
-535
1311
-1952
-1179
-3775
-748
147
373
-4094
-2174
-374
370
1282
-330
-1025
-1153
1327
-1103
-3018
-471
-1158
1181
-1078
-4351
-2026
-2440
119
2984
-1032
-1285
-960
-64
-1234
2875
27
-1054
-1223
-1414
-984
-433
-1649
-306
-923
-1019
944
-2209
-2021
521
1255
987
1029
69
1229
-1402
1008
-1298
-2183
-1364
3550
990
1614
-895
-15946
1165
-343
80
-1010
-241
1841
-865
-2756
-3392
-912
799
-333
2737
-63
-1120
-1998
-1008
-7465
-1105
-2735
-735
4292
3364
-1476
3359
3384
2644
-10800
5307
-5034
-909
-3345
1991
2181
112
-1638
-67
-1355
1585
1277
2191
279
5585
1635
-1788
-2242
-1816
-794
-2633
-1731
388
-860
-37547
784
1728
-518
663
-4964
1917
405
-1652
-1122
-2054
-1396
-501
534
1764
2457
590
-3121
6978
24189
-65
459
-831
-7435
-470
2408
-1545
1275
-3989
-130
-2527
-1339
-2041
-4918
2386
445
-1057
-6541
-21
-1669
2621
-2555
3974
358
2614
947
1029
2096
-63
-1018
3884
3883
-448
-427
4730
799
-3247
657
-2169
-416
10787
604
-565
-1846
-1680
-827
297
-3303
-1326
-4748
-297
-1225
-383
4604
-1637
-2028
-27
1471
1562
2219
710
1942
2613
-7709
1747
4185
-1461
-78
-2509
-2283
-4366
9080
-208
-5756
-2262
-27916
-1378
413
-4016
2337
-1627
-6197
-819
-1041
-1668
1630
-5389
589
-2728
597
-1831
-2182
1864
-779
-1401
-1352
-128
2073
-689
-1234
13162
1295
-462
1137
2634
-1117
-249
1757
-2198
-534
-1285
4830
5636
576
-157
-379
1419
-2308
-1535
-1354
303
3021
-1871
1202
6086
-1139
-742
2199
1920
-740
-3224
1509
1503
-20734
-313
-1065
9
-955
2036
3962
435
-3834
4232
-772
-1134
-1525
-4818
-1321
-3606
1678
-1115
2672
-27
500
-11886
-686
-1611
258
-166
-9783
-4564
2208
-10195
-9589
1548
-11463
822
-1348
-2033
2694
-765
-906
-994
-592
-658
-2991
2463
-145
-905
2258
964
1189
-7633
-1933
-827
-2717
1017
2517
597
-723
4645
855
-2521
725
610
223
654
27
-208
1415
-1081
588
1253
-2055
-4959
-5673
795
448
2695
3395
-962
1041
6098
15316
-849
430
-2196
-1762
-1835
434
2555
-687
