-8
-2
5
10
5
-9
-1
25
-38
-22
-14
-15
11
31
-13
-21
20
20
14
-21
-5
-19
-19
-9
-2
-31
-3
0
-3
22
21
-13
-2
21
-27
-6
5
-9
0
5
1
55
23
28
15
14
-15
-15
-7
2
10
6
-25
3
4
-26
-12
-24
35
-6
-4
-20
36
6
-5
3
-19
-20
5
-36
6
-18
23
4
-8
23
1
9
26
-28
6
4
61
-41
13
45
-37
-5
-22
33
9
-20
-33
10
-2
10
14
-3
20
29
12
-30
11
-2
-18
-11
7
-28
-9
42
21
1
9
26
-21
15
-7
7
8
29
5
19
-5
8
1
-21
-10
35
18
-4
-31
6
20
-26
7
41
54
-46
14
46
11
6
11
9
-19
12
1
4
5
0
-19
-22
-1
85
8
10
-22
-1
-2
-17
8
0
-24
-10
93
38
4
1
-13
1
-1
-25
-5
4
-14
-18
-9
37
26
-3
24
-11
-31
18
25
8
15
-11
-15
-61
-7
0
29
5
13
-20
11
-12
1
-21
-9
-1
-32
15
-8
2
-30
-5
-11
23
-9
0
12
28
14
-23
-22
-12
-21
0
-5
19
30
-19
38
-4
-72
29
8
-29
-16
49
33
21
20
-21
18
-50
5
0
-17
15
-42
-56
-34
8
-8
-22
9
-4
-11
0
-18
-52
-15
38
-41
109
23
20
-8
5
-21
-15
46
-25
-18
-21
8
19
-27
-30
-30
32
-2
13
31
19
-4
34
-10
10
-12
-11
-27
-28
-11
-7
-13
-14
-10
36
-35
17
-8
12
20
50
-58
-10
-14
29
-12
-20
-3
-3
4
3
-15
3
-8
-13
2
19
0
-10
8
21
32
3
77
26
62
-5
37
-25
48
36
-9
7
-7
-34
-10
2
-26
-24
-24
4
9
-24
-9
12
4
-12
15
-4
-3
8
2
0
1
-11
-35
16
-1
6
-13
18
11
-14
2
6
2
3
-19
-25
-18
23
-27
13
-28
6
9
-24
1
13
36
51
12
-27
-3
1
-9
8
27
-12
32
-15
-33
-36
3
-20
58
-27
3
14
-21
-18
17
8
-17
-20
-10
23
42
14
-19
-2
-17
-8
9
-18
21
-36
2
-38
-36
-12
-19
-15
14
13
-7
-26
-32
-11
-22
3
-2
29
-4
24
-4
5
-19
-10
4
-18
-1
-17
26
-4
-3
-10
-9
25
-28
1
0
-21
-2
13
-52
32
-5
-2
13
42
-1
44
-5
-5
-24
24
28
4
59
0
-1
-11
9
29
-9
-2
22
-6
23
-31
-4
-17
14
7
-20
1
14
28
-5
-2
-19
-1
-11
-4
8
6
25
1
-1
-12
27
4
-9
-12
5
-1
-21
3
12
4
17
-3
-6
11
39
-4
23
51
-5
1
-4
-23
14
13
14
5
25
-15
15
7
-4
28
14
-14
-8
-6
-4
21
23
2
1
-10
13
-36
5
-13
-33
-4
9
-19
47
-11
6
-6
13
-19
16
-15
8
3
28
14
-25
12
-17
-26
5
-50
-12
32
-37
24
3
-17
-24
6
-19
-6
5
5
-10
7
15
2
-5
7
24
-3
17
-16
6
22
-27
18
12
33
28
-7
62
-10
7
-12
-44
1
-12
-11
-1
-26
-32
-13
-18
-13
39
6
17
9
6
12
-5
-3
26
-27
-8
-34
11
-2
34
-30
-3
5
-3
-11
-4
-52
28
-9
-16
12
12
-5
17
-17
-40
-9
-11
-13
45
-18
5
20
8
-15
33
1
4
0
-95
19
5
-26
2
80
9
-18
35
63
-26
25
-60
-3
20
-32
-7
-3
-7
7
4
-25
9
-6
-12
73
118
-8
40
-5
-8
25
14
44
29
-5
17
2
-3
-39
-12
-18
6
27
-23
16
20
-11
56
-17
-15
25
71
-24
-23
11
24
-36
-33
24
23
-31
-5
24
-20
3
-9
12
17
17
17
-11
18
21
-10
-17
54
11
0
-15
-15
-23
-32
6
-27
-13
-2
-6
-7
16
-22
-40
13
-19
5
17
-1
13
82
-10
2
-22
-8
9
-23
-38
5
-19
-6
2
2
16
-20
-15
-7
8
-1
-35
-17
-7
-16
24
-27
4
-16
-15
1
-7
-5
19
19
16
18
3
65
-9
24
-2
20
-19
-20
1
-8
-12
36
-2
49
8
-26
2
-13
22
-3
-21
-6
-4
29
-16
9
29
13
-15
-8
2
-7
11
1
5
-2
2
-3
-6
6
4
0
-1
15
1
-12
1
-20
-6
2
-6
-7
4
11
1
-11
-13
10
10
21
-27
20
3
12
7
6
7
-1
-5
-19
-10
-11
11
3
19
9
-1
2
1
-9
7
13
2
-28
10
-27
19
-24
-20
-12
-1
-15
3
-9
4
-2
1
-7
-7
48
-11
27
-5
4
30
-12
-29
-7
-9
-30
34
-40
5
18
-3
-10
0
1
21
7
26
34
-8
10
-13
10
-8
5
-25
2
-4
20
4
-14
-45
39
24
14
-36
-16
-3
29
23
-7
-4
-15
7
9
-5
48
14
-5
-13
-15
11
-12
21
55
-16
-21
-7
-21
6
-22
9
1
-8
-26
-27
15
10
-15
-13
-11
-4
-5
-1
5
-14
-6
6
-51
-7
2
1
9
13
-6
-5
-15
-7
-1
-6
26
63
11
10
21
2
6
28
-5
13
13
-3
-21
6
21
-2
-30
11
21
-1
-8
-26
12
-21
15
55
-3
1
-2
-9
-11
4
-54
-28
27
-5
2
21
2
-1
9
-11
-12
8
5
-12
-15
-10
-34
56
-17
-15
41
19
11
-5
0
3
33
-4
51
-6
-21
46
-33
-21
8
29
-22
27
0
8
-13
-12
9
-8
-9
10
6
-13
-14
9
0
-6
11
13
15
-11
-18
-10
9
-7
-12
-7
13
-7
3
19
-3
-18
-1
5
-4
-15
1
-8
-27
-20
2
-5
1
19
3
20
-6
-9
-27
8
-20
-4
8
-8
-10
11
-6
-4
-25
8
-19
1
-17
58
-12
25
11
28
-4
-30
-11
-5
23
-24
25
-13
29
-6
11
-23
27
-8
-4
10
17
-12
9
-33
3
46
-31
28
0
-5
-10
-3
-7
-4
25
11
16
59
16
9
18
26
5
-38
-21
-14
-19
-7
-21
-19
-60
-11
-26
8
80
1
19
-12
-14
-6
-22
7
-8
38
-22
-2
20
-4
10
32
-14
13
1
-37
18
42
9
-40
-10
1
-12
53
59
40
60
-13
4
-1
2
9
-22
14
6
-21
-22
5
9
12
-9
30
-12
-35
30
-10
21
6
-13
2
-3
21
-13
22
-8
-23
1
-18
-9
-15
-14
7
9
-6
2
21
7
-22
14
-14
-16
13
18
18
-14
-16
0
16
-3
50
-41
-27
-37
1
-4
23
23
-33
9
-3
35
21
-24
2
33
5
-28
32
-16
62
5
-10
4
-31
-3
-12
5
-7
25
81
-2
29
-18
40
13
-21
-19
-46
14
-33
-23
-15
13
-64
-5
1
-6
20
-3
-16
1
3
6
-1
-26
-5
-10
-27
1
-47
-9
3
1
13
23
-3
25
20
15
-9
17
21
-14
20
-6
-25
-1
3
-7
26
44
23
1
20
2
7
14
41
18
9
4
8
2
6
11
2
22
-6
-18
2
3
-37
-2
-18
-28
62
1
-3
-31
-9
-44
-12
10
7
-5
-20
-7
62
49
-24
-8
-6
-15
-17
30
-3
-23
-2
19
-58
2
-20
-2
-7
22
14
4
-10
-26
4
-14
-18
23
34
1
2
-23
29
-12
-9
-42
35
5
2
-9
-4
16
-10
0
-20
-2
-29
0
-24
7
-9
-2
-12
1
-9
7
-24
30
-22
-9
-18
5
-22
-13
9
13
44
-15
22
44
-18
24
24
13
6
29
-2
5
3
-6
-1
-3
4
-7
-4
3
-18
23
17
-1
-3
-30
-3
-5
8
28
3
-27
4
4
2
-10
2
9
17
45
23
34
-5
-29
30
-25
-1
3
20
-7
-19
-24
-9
5
5
-9
-1
-14
-14
-15
12
-36
3
-3
-7
51
-5
4
8
1
26
-22
4
25
1
16
17
19
18
7
12
-15
-17
0
-9
5
-45
-25
-1
-23
12
33
2
-9
27
-12
18
-20
12
3
-5
-18
-38
-22
3
-13
-7
-3
-3
-4
-35
29
-18
-32
11
-15
28
-6
25
-12
12
21
-22
-16
-21
12
64
8
5
10
-10
-18
40
6
63
1
-12
18
-1
6
39
2
-33
8
-25
34
-5
4
35
20
-23
24
-6
-12
-3
-19
-2
-9
11
12
40
-13
-4
43
11
-29
3
-23
13
-17
-24
32
14
4
-8
-11
5
0
26
-13
4
10
36
-10
15
-29
10
72
-14
16
-8
4
-38
29
-39
18
-20
-1
-19
-29
-8
-11
2
-8
2
-18
-11
-5
-14
4
-8
-3
-8
0
-7
-3
0
7
5
-14
0
7
-7
12
-11
-18
-4
13
-6
4
3
10
15
-36
-3
3
18
2
13
5
8
24
32
15
8
-8
0
14
1
1
-1
13
21
5
-31
2
31
-17
-11
1
-7
-11
-54
7
7
3
6
-15
-12
44
1
-19
-8
-23
24
-9
-6
-9
-21
-18
-18
2
11
74
-15
1
29
-6
0
-4
-5
19
0
-4
6
-3
-9
-2
3
28
-7
-13
-7
6
-25
-16
14
3
11
-7
-51
-2
-8
1
21
13
-15
69
-16
11
2
33
-33
-11
-2
-12
-30
23
16
2
-19
11
6
7
8
2
5
8
27
32
-8
14
25
-8
-7
-17
36
30
-7
-6
27
34
23
-5
5
-23
8
0
9
-7
-20
-6
4
1
1
-13
-12
-26
-12
14
-18
9
-28
9
41
40
23
0
46
89
-43
-3
-5
7
-11
-2
38
22
-19
2
-7
33
-6
-11
-1
12
11
14
18
9
-19
24
-8
30
3
5
22
-2
4
-9
0
-1
7
1
10
5
5
-1
3
-4
-10
5
-5
-4
28
1
5
-2
-4
0
-2
-2
0
11
-1
-8
-1
15
-27
-8
9
5
-9
25
-14
5
10
-5
22
10
15
22
32
6
-17
54
-8
-21
-7
20
-7
-18
-22
-12
-38
8
3
-18
1
1
2
0
-5
8
2
-32
3
-4
-9
15
27
15
5
24
-7
18
23
-7
3
5
-6
16
20
-41
3
7
-14
-61
-20
-12
-25
5
-28
18
-16
10
12
28
-18
59
20
-2
38
-34
86
-18
26
12
-33
-20
54
-43
13
-18
-7
4
18
-41
11
36
-21
-29
-8
-7
-36
-1
-16
17
-5
9
-6
1
-15
25
15
2
-20
20
0
-20
86
-20
-3
21
31
12
-9
3
-15
0
-17
28
-38
-11
-11
-14
66
-48
12
25
-28
5
-16
42
12
-31
14
29
31
-10
4
-17
-1
-3
-17
-10
37
0
-29
-31
-7
2
6
2
-26
16
-24
-16
-42
25
20
32
-16
-15
-2
20
51
-3
1
1
22
-8
-6
6
-10
14
15
-41
33
-20
-19
-15
2
1
-23
-3
61
19
6
-22
-18
-11
-3
0
-16
-3
36
-33
-4
-7
-2
19
-11
-9
14
10
-56
-14
3
13
-7
25
-7
3
14
2
-7
3
4
11
6
-13
21
19
13
30
9
30
-23
-13
15
-26
62
14
-12
-19
19
-10
-13
-12
-24
18
-35
3
-9
4
50
1
-11
-25
-31
47
48
2
-2
-19
4
-4
8
76
-30
12
-12
-8
-26
0
1
-18
-6
3
1
51
-43
-71
-47
57
-29
44
-10
-27
24
-15
-45
-19
3
-31
-54
-28
33
-11
10
-24
10
6
3
13
-8
22
-3
-8
-2
-4
-17
-19
13
-19
-16
1
2
45
17
-8
7
9
27
-8
-12
5
-5
7
-19
-4
45
9
13
-10
-12
-7
0
-5
10
-15
46
3
-45
32
-7
1
-9
38
32
35
-19
25
0
0
-22
-14
-25
-8
-28
-12
-6
-15
-14
-23
3
-15
28
-12
-14
-1
-4
-5
-31
6
16
3
12
-8
1
37
-4
25
4
12
23
-5
32
24
-11
-11
-14
-27
-13
-3
0
10
19
-1
1
6
-8
6
-18
-20
-5
-7
-8
-5
2
-7
2
-7
23
-7
-10
-6
-1
-13
7
-10
3
-7
10
-7
18
-5
0
-10
4
4
-6
2
-18
-7
-8
-6
-7
6
-3
-13
7
9
-20
3
-11
-16
-11
1
-7
-38
-21
23
-3
-1
7
-13
8
-7
-5
-6
-6
7
6
1
17
6
-7
-3
6
-4
-21
-17
-20
-23
6
-6
11
10
30
-6
-4
16
-12
-15
-14
-2
-12
-4
16
2
3
-2
9
6
-1
-6
-15
16
6
2
5
30
-18
2
-1
5
6
-7
0
-28
0
-5
3
-9
6
0
-13
2
0
0
-3
-7
14
5
-19
-6
-7
-8
-6
-18
-1
20
-6
-7
0
2
0
-10
-1
-5
8
-5
9
14
13
36
9
-15
7
5
4
6
11
43
5
-31
4
20
-10
-6
-1
10
-3
-12
-5
-2
4
9
11
9
15
-29
-15
3
10
3
11
-10
22
-2
30
-4
11
13
-1
3
0
-8
33
-2
1
-13
-13
7
17
-2
6
-7
3
11
-5
-11
18
-21
4
22
5
7
9
-23
36
3
9
21
7
19
6
-42
15
11
3
8
-30
-5
-19
8
32
-20
3
17
-11
1
-8
-5
6
-5
25
-28
-7
-1
-27
-26
-2
15
30
2
-18
23
10
-6
-14
-12
-9
15
6
-17
16
10
-8
-9
5
-12
-3
7
19
2
13
-42
17
-2
-19
-3
-12
17
-8
-29
6
3
29
12
8
16
0
-13
3
-27
14
-14
6
10
-14
-3
30
20
-10
4
-8
-25
8
-3
7
-26
-9
23
14
-28
-19
-5
9
12
-7
-5
-13
1
9
28
-48
-18
-2
-9
2
6
18
15
12
-5
-23
6
-10
-30
2
29
8
-35
-23
2
6
-37
-35
46
5
34
-7
21
-9
39
58
-2
17
4
0
-18
-35
-64
13
8
30
-17
11
-10
118
-37
12
-54
-7
25
-44
3
13
17
1
-12
62
-39
-29
-6
-26
14
-10
3
6
2
-6
4
-3
-9
-5
-19
-4
-20
85
3
-4
19
-6
5
18
32
-5
-16
-1
-9
26
1
-4
-8
-2
6
-41
32
25
-54
-19
-4
-29
4
-25
-24
-32
37
21
4
-6
-9
-9
15
-44
-6
-19
-33
48
8
-28
-43
-10
12
16
12
22
2
8
21
13
35
4
-36
-14
-7
5
-28
7
-1
20
127
3
38
15
5
8
100
-15
11
-57
17
-11
48
-12
-2
-3
9
-103
16
-8
-14
-23
12
-80
33
-14
9
-50
-9
1
-27
5
-14
-38
-11
-15
-31
-25
-56
22
18
42
18
4
24
-9
-36
-14
-10
-36
109
13
19
-31
-3
30
33
18
10
58
37
7
-40
29
14
-42
95
-29
12
-16
-2
39
39
-6
9
22
-30
-19
4
-9
21
29
10
-7
-21
-3
-21
2
-25
15
-28
1
-27
-19
-6
-5
6
54
1
-4
-24
2
4
20
-9
-2
5
4
19
9
-3
-5
-5
18
7
2
3
23
-4
-14
1
-40
-7
3
-40
-13
16
-7
-12
-24
-17
-9
27
-12
-4
-11
8
-1
24
1
-1
-23
40
30
-13
-34
37
-8
-27
20
48
-4
-24
-18
-22
70
-19
-23
-7
50
-14
-19
1
-18
3
2
-7
8
-10
-9
7
-7
-25
-27
48
48
-18
-6
35
0
12
-11
6
11
-3
-6
-15
5
38
18
-12
-7
6
-25
-13
-29
-50
-4
-7
34
32
-28
15
-22
-7
6
11
-9
-3
28
-10
1
-8
-9
5
-20
9
20
3
19
-11
-24
-64
4
-1
-10
-20
-2
-48
-21
9
-9
24
6
-38
15
4
-11
20
-3
9
22
-5
-39
32
32
18
-19
36
2
5
-9
-6
19
7
-22
-15
39
9
-19
-12
7
6
-19
7
-4
25
15
-9
-2
-21
11
0
-18
-7
53
11
-7
3
-4
11
24
-13
-9
-8
13
10
-15
-6
33
-9
-14
16
42
-12
16
-14
-10
-4
-23
5
11
-13
-1
-14
-10
-7
6
-10
21
-2
34
34
16
6
2
-14
0
-67
26
2
7
15
0
21
-5
11
-3
-1
-20
2
9
12
-27
-10
5
-3
27
26
30
19
11
18
-8
-6
33
-36
-6
12
-26
-7
1
-9
5
-4
2
0
2
-4
-1
-26
-5
5
-10
-18
0
-55
2
6
3
-1
-4
10
-28
-3
8
-32
-15
1
7
-24
-22
0
3
-3
-7
24
0
22
-10
-1
-17
-8
-3
-3
-8
-8
2
-18
-4
15
-6
-1
1
0
-10
37
-15
-21
9
-12
-10
11
-5
-44
16
0
-13
16
-21
15
-10
-6
13
-27
4
14
22
26
3
-18
-3
-1
10
-40
-16
13
-9
11
-3
-18
-17
19
-8
32
-2
19
-7
-11
-19
0
14
-14
16
8
7
-4
-2
-4
-1
-18
3
-22
-43
20
-12
-11
-3
24
-4
-2
-3
41
-10
-2
-11
-3
10
-9
-14
-13
-21
0
-14
7
20
-3
-3
21
1
-1
2
0
12
12
-17
5
-12
20
2
-23
-12
2
-13
-27
-49
40
57
-21
-85
-41
-5
-9
-27
33
17
11
5
-15
-19
10
14
-43
-12
48
4
24
7
0
-13
4
-43
-74
-26
-6
25
-3
33
-35
-54
26
-38
5
7
6
-19
-11
16
25
20
-14
-22
2
7
-9
-11
14
9
-36
5
-2
-15
43
-16
-14
-20
-12
-11
24
10
4
13
-29
11
2
-20
-2
-25
18
14
-25
19
-24
-8
26
-3
-5
-36
-5
8
61
-4
8
5
-12
-1
-8
-11
-1
-9
10
-16
10
-28
12
3
1
43
-2
67
-15
-2
12
-15
13
-13
3
32
-12
-14
37
-22
-8
-8
4
-6
-18
-16
29
0
-38
-24
-14
-10
-21
1
0
1
-19
11
-14
37
6
-12
-16
11
-3
-25
-12
-13
13
-31
-11
4
-14
54
-14
-84
-33
-7
-29
13
34
-1
33
-9
-10
7
65
8
-4
4
-7
-35
32
12
-43
31
13
-24
40
44
16
-24
-14
35
-23
-51
17
10
2
-3
-12
4
-16
60
4
-6
-19
-21
-2
36
-40
2
13
-61
-11
21
11
-3
-30
-20
-25
20
0
22
34
-20
-7
-9
18
29
6
-7
52
-7
-81
19
-28
-2
31
39
25
8
-16
0
-1
28
26
-22
-11
-12
-1
-25
-13
-1
-6
12
68
2
5
8
16
-10
-4
8
11
5
-24
-10
-20
7
13
-22
9
-28
6
-8
-1
-31
-34
-11
31
-39
95
-16
12
-28
-29
-25
9
-34
-13
10
-1
-18
45
-19
12
-11
-14
4
38
27
-3
27
-47
-14
-41
-19
-2
-13
-33
-6
-7
6
31
-20
-19
19
-10
-8
-47
-1
-12
8
-8
66
-9
-4
-11
-40
-62
4
-9
-19
15
2
21
2
-12
0
-4
12
-9
4
-14
-11
-15
-11
27
-5
25
-6
12
-7
32
21
2
46
-30
-20
3
-6
-9
7
-5
7
19
-3
30
-2
-13
15
-12
10
-9
0
-14
17
13
11
4
3
5
55
4
7
1
6
-24
-22
-31
2
11
-1
1
2
2
7
-1
-1
10
17
10
-24
-7
-21
-27
7
-3
0
-2
1
-16
8
-6
9
2
6
-23
-8
5
7
37
5
50
-19
14
-18
6
8
-1
-18
20
-11
-15
33
-11
-51
9
-26
8
-9
20
2
-8
-22
-1
18
-87
-26
50
16
-16
53
-29
-1
-8
11
-6
-11
-30
-1
2
8
2
26
1
-10
-7
-2
-35
-3
-6
26
1
-36
-6
25
-12
-12
-17
2
56
5
2
-1
8
-5
18
9
22
20
-50
-16
-29
-7
53
3
-3
-14
23
-36
-30
11
-15
23
-16
22
30
6
20
-18
2
8
-1
5
7
-48
-21
88
-26
-1
68
-27
-30
0
-9
7
23
8
-28
-17
-17
38
5
4
7
7
-18
-3
23
-9
-29
-31
-71
17
-15
6
-15
-27
-4
26
42
-16
-16
-17
24
-16
127
17
-28
1
-3
-26
-17
27
-12
52
27
17
-32
4
20
-27
-8
-1
-23
5
52
-40
-19
3
-10
-11
17
14
-12
-9
-21
25
-2
-2
-28
24
0
-20
4
52
-27
-3
18
1
7
15
22
11
-8
4
-9
-11
-17
3
24
-6
-22
-5
0
3
-9
7
36
22
-16
-9
-17
0
-1
12
4
-29
-16
8
31
18
9
-42
-15
-36
11
-21
12
7
-5
2
-4
25
-22
-4
-17
-19
-7
14
7
-17
6
13
-36
-17
18
15
-31
14
-22
4
-18
5
57
3
-21
-4
2
-1
-33
8
-34
-6
10
-22
2
-27
-4
-4
28
-17
-16
-15
-4
-10
66
-15
-13
-27
7
57
-17
-14
45
-3
30
-2
-27
-23
3
13
30
17
10
2
-8
-29
4
14
17
-19
13
-12
-25
13
5
17
-10
-10
-19
4
-6
3
13
-12
13
-10
9
-7
4
-11
-3
-15
-14
-5
8
-17
8
-10
-29
-2
-4
10
-4
-15
-2
-1
6
6
-21
-5
2
10
0
-9
-13
-1
11
6
-3
-22
-5
32
3
-9
22
-5
6
-5
-10
-6
-4
1
1
-4
27
37
14
-15
-15
-14
-17
-4
5
-2
-8
-12
-15
-27
12
0
13
24
32
47
-16
6
-14
11
-3
-23
18
-56
6
25
4
13
-64
-35
-17
-4
25
-6
61
-21
8
-26
9
-39
11
-14
4
-5
13
-12
-32
16
6
2
-25
35
49
18
10
-23
-30
-2
19
30
2
22
-24
-10
-25
5
8
11
-14
30
4
-40
59
1
-26
1
-14
-1
-13
-5
14
-7
-22
-7
31
-2
14
17
1
5
-9
-21
12
53
-15
-5
-6
2
23
-32
70
-22
1
-5
-31
-3
-6
18
20
-11
15
0
22
25
17
-26
-2
-13
-10
-13
-54
67
-22
-3
-84
75
9
5
-26
83
5
-4
36
29
-39
-34
-20
18
3
-7
-4
-22
19
-12
-2
14
-33
127
36
14
-5
78
-10
2
4
-13
24
-13
17
3
-13
-28
-19
-3
6
-14
16
3
-42
-1
54
-14
14
36
-5
14
13
12
-17
11
3
-37
-5
-22
-2
1
-10
-39
-47
1
-13
-111
13
-34
-73
-23
9
33
-10
0
-6
0
14
-20
36
-10
-25
-11
-37
-15
-14
8
-5
-31
-8
-14
-20
1
4
9
113
36
-5
-50
-41
22
-26
-42
9
7
79
34
3
-32
9
-9
7
18
27
-14
-6
-3
20
16
-6
-6
-16
60
6
-7
23
-7
-4
-10
-8
4
-12
0
3
-8
-2
-15
-7
-34
-19
-26
63
3
-7
2
-1
-21
-13
-12
-18
-8
7
28
3
7
7
-5
9
16
-15
-21
9
3
0
-35
-42
-7
28
42
9
44
3
-12
-23
-3
6
3
7
32
12
-19
-32
8
-1
-20
17
-37
13
-21
67
-1
42
-8
13
-19
4
-22
-13
-15
9
-16
8
-5
38
-6
-18
-10
-13
15
-19
3
17
1
2
0
23
-4
-6
27
-18
17
19
7
15
0
-49
27
-13
-3
10
19
5
-18
-7
-30
56
4
34
-15
-24
17
6
15
-13
-4
-23
17
7
3
-8
-2
-1
15
16
43
10
-14
-20
33
-12
-22
-3
-16
64
-25
2
40
-36
-22
-66
-43
-23
-24
101
-17
49
26
9
-16
12
-1
3
-34
-67
-23
-54
80
22
-95
36
-20
12
-39
-45
-1
-17
92
16
11
-15
-13
7
-21
10
-32
-8
-10
-9
-38
-28
23
15
10
4
-8
26
-5
2
-5
-10
-4
10
-4
37
4
-14
6
-4
-17
9
-4
-41
1
42
16
-16
3
-4
49
0
-12
64
-2
-2
-13
-7
6
0
1
13
22
28
-25
-42
22
-4
-22
-14
-25
1
-6
26
0
13
-14
0
11
7
23
24
-12
-9
-7
28
9
6
17
3
14
-24
19
11
5
21
-51
-20
36
2
27
24
-15
-20
4
7
-5
-8
20
4
7
2
-5
2
2
-4
-5
-1
18
16
24
0
13
13
-3
9
-2
0
-6
38
-5
-14
-10
3
1
3
-2
2
20
-2
-7
6
22
-30
5
-3
21
8
31
28
22
-7
24
6
10
-11
11
-26
-2
4
29
-10
16
7
-12
7
59
31
-23
16
-28
-20
-27
-21
-11
0
20
17
16
10
-30
25
3
5
9
-19
-26
-1
-11
-5
-15
60
15
8
-3
-10
71
43
7
62
23
17
-5
-16
0
-11
-13
-21
31
7
-10
2
-8
29
-4
14
-2
-3
127
6
-5
40
2
9
12
14
-3
-31
3
6
1
-5
-4
18
-19
-80
-14
90
18
-4
12
-2
-1
2
13
-27
-2
-16
1
5
1
-2
-6
3
14
26
41
9
20
21
-24
102
-25
-11
6
-24
7
-23
-5
-7
1
18
-2
-40
34
10
13
35
-40
3
23
0
21
-2
15
11
43
42
-4
3
3
-9
7
36
-21
18
6
41
-14
-15
12
14
-2
11
15
15
-10
-5
-15
45
15
-3
24
-13
10
-5
-11
6
-4
-19
0
48
15
3
1
4
25
-1
-11
-4
4
-15
-1
31
6
12
-22
-1
-5
8
-18
-4
-27
5
-30
3
-32
-23
-7
-18
-21
-15
-7
-1
8
-21
33
21
1
8
-7
18
0
38
16
25
0
3
-8
1
-25
-22
3
-13
22
21
7
20
19
41
-12
9
-29
55
30
0
1
4
24
-23
17
17
-2
7
-21
15
-12
-9
-23
-25
-43
-14
59
-45
-14
-56
-22
34
-2
-43
-13
2
1
33
-28
-30
-23
-32
-42
-22
5
21
-7
11
51
-7
61
6
5
35
10
-45
-5
4
-49
69
2
1
1
13
0
32
101
6
-6
-12
2
-15
1
-6
12
8
-2
-16
-15
-32
17
20
0
-6
-25
-17
5
28
-7
-10
8
-25
11
21
-9
6
5
-5
-1
-24
-3
0
8
-26
-10
7
15
2
-24
3
9
8
9
18
45
9
-5
9
-17
55
-45
-3
0
24
-7
5
3
-17
-17
-7
37
-2
-6
-1
-15
-26
10
22
-5
12
5
1
27
-6
29
5
-22
0
-32
12
1
43
-14
-41
23
-6
0
7
-5
-37
-35
51
25
18
4
0
-3
-6
10
-11
12
1
2
-10
-13
-20
10
-5
-10
-5
-2
-11
-12
6
12
-17
-17
4
-3
-13
2
-2
1
-1
6
7
-10
3
19
13
-19
-5
10
-16
-29
2
-3
8
9
-11
3
5
12
22
-3
3
1
-3
-1
15
-21
-35
-38
30
33
-3
33
-3
0
29
-19
14
3
10
-3
26
-7
30
6
-9
25
13
-17
26
-21
-5
6
-30
-25
9
14
-19
10
-21
4
-1
14
-7
-12
-4
-13
0
22
10
-26
3
0
-2
-11
-19
0
27
8
-4
-21
-9
2
-6
21
-10
-14
0
27
2
-1
-3
22
-5
-19
18
0
-1
26
14
5
-4
-5
0
7
3
11
11
19
16
6
6
-16
6
-1
5
2
0
44
-23
-31
-5
35
15
-5
-57
-5
2
-18
-16
12
12
2
2
-17
23
14
-10
-19
52
-16
-8
1
3
18
-20
17
-64
-28
-16
16
-13
-29
-14
26
25
-35
-30
-24
-2
36
13
-3
14
-4
39
-16
5
-22
-2
6
-28
14
-12
-9
-24
9
-11
1
-37
-4
-8
-6
3
-19
-18
12
10
-38
6
-49
5
23
4
12
16
-22
26
-28
-14
-16
23
-28
-29
15
8
-13
-17
15
9
-1
0
4
-13
-1
25
1
-10
40
35
4
7
33
8
-8
20
-17
10
5
-17
-2
11
-2
-7
-21
2
-19
13
-4
14
-18
81
29
2
-4
-8
25
23
-13
-17
-12
-3
-3
17
-7
-8
-5
17
3
-9
-14
10
-28
-2
-21
-21
28
-15
26
-27
11
-11
15
-19
-12
-29
-5
7
-4
-33
-19
-12
-29
6
9
-8
10
-7
36
-4
22
-11
-3
17
-25
16
-2
-6
-10
13
-23
-4
-15
-35
-20
30
23
-5
-30
9
12
-5
31
-29
-30
-19
17
43
2
-26
17
-46
7
15
22
-21
10
-1
-40
20
5
-12
-24
-3
-15
61
-9
1
-22
26
13
3
13
15
-11
-25
18
-9
-28
-13
3
-15
-56
-17
9
-1
8
-3
7
-9
10
12
18
-2
11
30
13
-12
-16
-2
-11
44
15
14
-3
16
15
-17
-24
4
-20
-6
-4
26
-76
-14
-24
38
0
-37
-10
30
-33
-16
31
15
-41
36
-7
9
6
10
16
-4
-12
11
-33
13
12
-4
35
14
7
-1
-19
3
13
8
5
19
24
1
-2
-4
-26
6
-4
7
48
9
18
-27
-18
50
-6
-8
20
-4
-4
-30
-5
0
26
-11
14
4
4
-18
9
10
-27
-11
-4
-18
-10
18
-15
-16
-16
-28
-16
-40
-15
-21
32
12
-16
22
-6
-8
55
18
16
9
0
24
-4
-7
-18
0
-20
32
-17
61
-8
9
34
22
-10
-4
2
-4
-13
-16
28
-7
-16
1
23
3
65
12
-36
-28
-33
16
-22
9
8
-17
-24
15
3
10
-13
-23
-5
26
-1
-21
-21
0
20
-12
-8
-6
-13
6
-32
-8
-11
-43
-27
71
-32
1
16
-4
5
-19
28
-3
20
-9
-32
2
-31
-5
-3
19
4
-28
7
-4
4
-35
37
7
26
-24
35
-11
1
-5
-7
0
10
25
1
-3
24
-29
1
16
2
31
29
-52
-19
64
-17
40
6
-32
-9
12
4
-11
-18
-5
6
24
33
-32
-10
31
68
-23
-2
-23
-2
4
6
-75
-40
-33
-73
3
-18
6
-15
5
-27
-38
-21
-51
-43
-21
52
82
-23
-3
-4
11
-51
-8
-35
-24
41
-86
-5
10
-47
4
23
-16
-100
-21
40
9
-7
-6
-19
-4
-12
14
-14
-8
-17
1
4
43
6
58
2
8
30
-7
18
-6
1
-9
1
21
15
45
-24
1
-16
31
-31
-9
24
49
-15
-20
-14
-41
22
9
-28
4
10
-25
-56
34
17
22
24
-17
-23
14
1
-11
-17
12
-31
2
3
12
2
-6
18
11
18
6
7
28
-8
-10
-2
-4
16
-20
29
24
-16
-14
-1
4
9
-3
-3
-14
-10
9
-12
2
25
-6
-31
-6
10
-9
-4
5
-20
-8
-4
9
26
-36
-27
72
-45
-30
-35
-43
-53
-17
-3
0
-19
-28
-30
-26
12
13
-1
-2
47
74
-6
-11
-15
9
5
-24
3
-64
28
-16
-4
-40
-24
3
-31
-37
17
-18
36
13
3
29
31
-11
-11
3
-8
-4
-8
-14
21
-8
-29
0
5
-40
-9
8
-22
-14
-2
-17
-10
7
3
-25
-3
9
-14
-23
-7
-3
-1
1
-12
44
-5
12
-2
22
-16
-5
-7
-7
0
-1
2
-11
17
-5
-2
-9
15
2
8
7
5
-14
33
-24
11
17
0
-2
-8
-15
-14
-61
7
2
-3
44
-24
14
50
-4
-15
26
-7
17
8
-17
26
-32
-16
10
3
-39
1
-3
-2
-20
15
-15
29
-4
25
1
-34
8
8
0
-5
40
-30
30
-13
-17
5
-33
24
-19
14
19
34
-27
-25
13
7
-16
1
47
1
13
-21
-9
17
1
-10
41
68
-24
28
127
-24
-27
-13
-6
-16
-1
74
7
11
-61
-23
-10
21
-41
-12
26
-31
2
0
5
-24
-4
-42
8
-42
-57
-23
-23
-14
21
4
36
14
-5
-2
47
4
22
-17
-17
19
62
-2
11
-12
-32
31
-1
-33
15
45
6
3
29
51
-18
8
9
-23
-1
-39
14
-10
-13
-26
8
-9
5
-8
-1
34
-3
14
30
7
3
-2
-4
-8
16
-6
-10
-1
45
-15
-14
5
44
-22
-17
-9
-7
23
11
-22
-29
3
18
-22
-25
-19
3
33
-23
74
-8
7
-3
0
-4
-9
-4
5
15
6
-48
6
0
9
-18
-16
-12
3
26
-32
10
-5
16
23
-3
-10
-21
-16
24
-17
6
-3
-2
-8
-10
-2
-10
50
-24
-19
3
-8
-29
37
-8
-19
-30
16
-20
-14
14
-15
-10
13
7
5
9
6
5
-10
3
0
15
1
-7
23
1
-29
2
4
19
-2
7
6
-3
1
4
6
21
5
11
4
0
-11
8
-4
-19
25
7
-12
22
38
5
18
0
13
9
6
7
12
4
-2
-18
8
2
9
20
22
-13
9
32
5
-31
43
19
-12
3
-3
-73
7
-3
-17
21
22
-6
3
42
-23
11
1
1
55
28
5
-19
4
43
-11
24
-15
7
13
19
27
24
2
11
27
12
-17
-19
10
-2
-51
17
-40
-5
-11
113
-22
-7
-18
29
-39
-13
-13
4
-32
-23
-5
-21
-9
38
-12
-8
-4
9
2
13
19
57
1
33
2
-7
-28
20
-21
-13
-8
16
36
25
5
0
7
8
22
-27
-16
0
19
-8
15
31
49
-13
-17
-56
-4
-4
10
-20
4
-23
3
-2
2
9
3
5
-6
-1
4
3
20
-5
-17
-39
-43
-4
2
-46
3
18
2
127
38
-33
9
9
44
6
-46
-8
18
-8
4
-17
-17
1
15
13
16
-32
22
13
-11
-10
-16
-12
-8
12
9
-7
-18
-20
1
-4
6
6
5
4
7
21
7
-15
10
11
44
-8
4
9
15
5
24
13
20
22
6
-41
-18
29
1
-2
56
14
-20
35
1
4
4
-27
16
-41
28
-22
9
-32
18
5
6
16
8
-28
1
6
1
-5
-4
-12
-24
22
15
25
7
27
14
-3
6
-18
-13
3
-18
1
-15
23
-40
5
9
28
7
16
22
-5
-15
-8
17
23
14
31
-11
-2
-31
4
-2
-22
1
71
-19
-10
6
12
-3
-8
-7
-11
24
0
-13
-15
-16
14
-25
-33
-21
-2
-3
2
-14
-16
11
-18
21
-8
7
-11
-7
2
-6
-7
-8
-20
13
11
19
-3
-13
61
30
-4
-1
-36
53
6
-7
13
-36
-26
0
44
-1
-36
9
-23
-4
-16
27
-8
-9
47
-30
7
28
-2
31
16
-4
-3
10
5
-19
-3
66
11
30
10
15
-7
18
3
5
0
-37
-3
-6
34
12
-3
38
17
-8
6
7
0
7
-47
0
6
-6
36
1
3
-2
14
-26
37
19
28
27
-18
62
-1
-31
25
-9
-19
25
-14
-23
8
22
-11
-24
-11
-8
3
13
3
-42
-17
14
-5
-28
-4
-31
127
30
7
13
18
-11
-53
25
-11
-10
62
21
1
0
63
-16
2
9
7
-7
25
-8
-24
-16
-37
0
41
-22
-5
39
9
26
-21
-11
-45
-8
-19
12
5
127
16
-38
-43
-16
-2
-16
-33
-24
-62
80
-11
64
68
-31
-2
1
-7
2
-8
-13
4
7
-47
-7
-36
-12
4
8
-30
-16
-27
-82
-20
50
1
12
11
36
-11
-16
-30
-19
-12
-16
-11
-7
7
-7
16
19
-4
8
-3
6
52
11
-4
4
11
-12
25
22
-8
-19
12
27
70
-14
-6
10
-26
3
10
9
7
-2
-6
-12
-7
-16
14
-1
-8
-26
-2
20
-10
21
-11
8
-3
14
1
4
8
5
4
2
-8
38
-10
-38
43
15
95
39
-17
-53
-52
32
-47
-23
51
-9
-38
18
48
-6
-7
52
-10
-44
-1
1
3
-18
12
5
-3
-2
-5
-10
66
18
25
12
-32
-11
-14
48
19
-1
4
11
-7
-35
3
22
-3
4
-10
-18
4
36
25
34
24
-6
14
0
1
-9
11
2
-8
-7
-51
18
-3
15
-3
48
5
-7
-13
-1
-8
9
-21
-25
18
23
-7
15
-24
-3
-7
-26
-10
-25
1
27
1
-28
3
6
-12
33
-29
12
29
10
16
7
7
-17
-2
8
-13
-9
25
-16
21
-46
0
-6
3
10
1
9
15
5
17
-10
-37
14
5
-20
12
-12
25
7
29
8
7
-2
4
-3
-11
-27
2
5
-18
27
-8
9
-7
-19
4
-14
15
-44
-20
1
-8
12
13
-11
-6
-14
-17
-7
25
0
5
-11
30
59
-18
-4
-10
22
-1
-4
7
3
-17
-11
24
-27
-10
13
24
-31
-19
22
10
-6
55
-64
50
-9
-4
-59
-20
55
-15
-3
1
54
9
-28
25
-1
-18
1
50
-14
13
32
33
3
1
-19
12
-31
-32
13
97
-25
34
-29
15
-9
44
6
-7
48
-15
27
-16
0
-47
-3
43
-19
0
21
-11
4
13
-13
-53
-28
-72
-4
14
13
-11
-2
-1
-18
22
55
17
-47
-2
-3
13
-20
2
5
1
-51
36
-25
15
-23
-3
-44
-26
12
-21
4
-18
-41
-24
-9
10
20
1
-18
4
-1
17
-21
-13
-13
-3
-29
-31
-5
-15
20
-2
-35
-30
-11
27
-17
-4
12
8
1
-6
19
6
-22
-6
-23
-7
50
83
-4
-2
-10
49
-9
-2
-21
-11
-24
17
0
52
-2
-6
8
-12
-5
-7
3
-15
-5
-8
16
-10
18
16
-3
-32
4
-23
15
2
-1
9
-10
-14
-8
-21
6
-15
-16
-17
-6
-6
-21
0
5
22
-11
-4
-4
-57
20
7
-3
11
27
-29
7
21
31
-23
2
40
-17
-20
-7
-33
26
-4
-40
-16
24
63
-1
11
56
30
80
-33
5
34
-9
-18
-5
-43
-9
-37
-12
-14
-50
6
21
-4
7
-21
-5
62
-5
-1
15
-12
8
-18
-21
-14
4
-6
47
-10
-10
14
-14
-4
-4
12
5
6
-4
9
1
21
4
7
-7
4
-14
7
5
21
-3
-11
1
-51
-1
-2
-16
-12
-20
3
-7
3
-4
-28
8
7
-1
5
-14
-12
-10
-1
8
14
-8
-2
3
-1
2
2
-6
-16
-2
13
-8
15
-5
-9
-4
-43
18
-2
32
9
-14
-39
2
-13
7
-1
-16
-13
9
9
-9
-9
-4
-18
-5
17
-15
-43
2
-26
-6
32
19
-19
23
5
2
21
64
-13
4
-33
36
-15
18
11
-7
11
1
3
9
5
-15
-16
-12
-9
1
0
7
-1
-3
-9
13
-6
0
17
-14
1
2
5
0
-4
19
-1
5
28
4
3
-20
-8
-7
-7
3
-10
18
19
9
2
9
12
-2
4
8
-5
12
0
-16
-4
35
13
-10
-7
-4
40
2
-9
-16
-9
5
-3
4
15
-2
-12
47
-11
-20
42
11
-10
-26
20
13
20
-11
35
34
12
15
10
3
7
-22
-30
34
41
8
-5
46
0
4
-2
-17
30
-5
-20
-11
7
-5
6
13
-39
-12
1
31
2
4
-5
-24
9
-21
36
-13
-7
9
8
-15
6
-7
-3
-1
15
4
62
-19
-35
-1
1
13
-12
-5
-20
-8
-1
7
-6
-13
-20
24
-7
-2
3
-10
-17
-51
-17
-1
-32
-24
4
17
-2
4
-15
20
13
-5
42
-8
5
18
29
-8
3
-1
-3
-1
-14
65
20
4
-27
26
15
-36
1
3
-6
20
26
0
-20
8
4
1
5
-7
-14
11
-16
-19
17
10
-23
91
-19
-24
-114
6
-16
-60
16
-9
90
-32
5
-32
92
3
-9
-15
7
-23
60
-5
5
10
-11
13
-22
2
1
112
26
-60
33
-29
16
11
43
-1
65
30
-29
6
0
11
38
-38
5
12
0
-25
-8
-46
20
20
0
-25
7
11
61
6
10
8
18
22
51
23
-3
-53
-5
9
-1
22
8
-3
-42
-28
-24
-12
11
-19
-37
0
16
-28
0
-3
77
-4
-11
-7
18
-120
7
-60
-15
27
11
24
-39
-2
1
-122
-18
-20
28
-28
-17
23
-23
7
-50
-8
21
26
19
-14
40
-11
4
-10
14
0
-23
104
34
10
-22
-19
34
12
49
-15
-9
41
38
-25
-42
-1
-4
3
-6
-3
-22
14
1
17
-6
0
11
15
-25
-4
-18
-6
-32
-12
-11
-4
-18
2
-1
-4
32
-26
8
14
-5
-8
-1
-3
-5
1
-10
7
59
38
11
25
12
-11
19
-5
-3
1
-30
27
-2
8
18
0
-19
-25
9
-22
-42
-19
-17
-19
22
-23
-7
-11
-26
-7
-7
-8
26
24
-4
4
15
-25
0
3
7
-19
-31
2
19
23
-2
-57
-5
31
-20
28
9
14
-5
8
-15
-9
-20
-5
-2
9
6
-1
-6
-1
-3
66
51
3
-19
-15
8
-33
-5
3
22
-2
-9
-5
27
-16
34
-4
14
-8
-2
0
6
15
-6
-4
44
-22
14
0
24
15
-21
-25
-20
20
14
17
-4
-15
-1
-7
-1
11
-12
-1
-29
-11
16
-12
31
18
-15
-32
47
12
31
-12
-36
6
-2
-29
26
10
22
-5
10
-15
-1
-2
-2
16
-40
32
-36
8
25
-9
-12
1
-29
-35
9
25
14
36
-3
21
-11
-18
2
-6
-3
-22
-4
2
0
26
1
-8
-40
-10
7
-4
5
0
11
-11
-27
-20
-14
-3
5
25
-42
2
10
22
-11
45
6
-9
-3
-7
-16
-10
3
8
21
-26
-3
-19
19
-4
20
3
18
4
-10
9
-12
-14
-16
45
5
4
7
-19
-9
-22
-14
-24
0
15
8
-16
6
12
18
29
11
-17
35
24
-3
2
0
13
44
-38
35
13
-24
-4
9
24
-9
-68
-27
0
-1
-12
8
-16
-27
-5
-4
-20
-11
4
-22
-16
-12
-9
-32
40
-6
42
0
55
8
8
8
-11
21
7
57
2
18
-6
-14
13
-19
13
-13
36
-25
-3
50
13
-14
24
0
-43
-2
49
11
-34
8
-1
-28
2
8
-9
6
21
4
-5
-1
7
-5
-6
8
4
24
-2
1
-11
16
-2
-5
17
-9
8
-7
17
-11
12
2
12
6
2
0
3
2
14
-8
5
-5
18
14
20
19
6
37
-13
22
13
18
-7
5
5
0
15
10
27
10
-9
1
11
16
1
-26
20
-1
-6
4
10
20
6
-18
18
-13
-21
4
-10
-24
-12
6
-11
8
53
2
18
-15
29
-58
9
-5
-7
-5
0
-13
-11
-15
0
-34
29
-14
26
-9
-16
0
11
35
43
-11
-40
-21
-21
21
9
0
11
14
3
7
-12
-9
30
-29
-21
3
-13
-14
-24
25
-1
4
33
7
-24
-4
-21
17
1
17
-4
-32
-3
-18
-11
9
35
-9
0
-14
14
9
2
-24
4
-4
-7
-29
10
-53
-11
-13
-24
65
-31
18
-11
-12
21
4
-9
5
-39
-1
89
11
4
-6
-16
0
-81
-39
-39
-44
1
-51
-11
1
-2
-10
9
3
-21
-8
-32
50
-5
2
-8
12
-6
-1
13
-12
-8
-3
-8
-3
-10
-17
-14
-15
-30
-13
-11
-8
3
-12
0
55
-2
-6
-15
-31
-2
-31
-3
17
8
-12
-7
-12
24
13
-8
-3
16
-3
18
-19
12
27
0
-20
30
-19
6
-18
-24
-5
19
19
3
-9
-9
-43
21
23
30
-10
-7
-6
-2
12
5
8
-13
-12
-2
12
6
-12
-11
-19
-9
8
32
17
4
-37
36
-17
37
-1
3
10
39
-4
-40
10
9
18
-5
-16
16
-33
-15
-7
-11
-20
70
13
-7
15
-16
-57
49
-9
-18
-39
-24
-9
19
43
-14
28
61
5
-37
2
-2
13
-39
6
-25
-70
-13
-25
-4
30
-50
82
127
-24
39
0
-11
33
-22
-3
-47
18
-14
-1
-24
-10
-53
-27
-47
-29
6
-68
-41
82
25
-30
-18
106
0
91
-30
-11
7
41
13
-23
87
23
-46
-1
-22
-8
-16
4
-40
-59
44
25
34
-35
-24
-3
-51
-16
-20
12
16
5
70
-35
9
7
-5
8
-24
-21
-22
0
5
25
-8
-58
-4
53
-15
-17
1
-17
16
0
9
6
-39
7
-7
17
-12
0
20
-14
44
-3
25
-48
-16
28
-29
-22
-14
6
18
-12
21
70
-7
-21
-10
-30
-18
20
26
3
17
0
-44
4
31
22
31
-95
-8
22
-11
-4
45
-60
-27
11
-31
42
-23
-26
-12
16
-3
2
8
7
21
42
5
39
25
15
-23
19
44
-18
33
-10
-10
-1
15
-17
9
20
-8
8
-5
3
-2
18
-4
-5
-7
30
14
-1
0
-13
0
16
-10
18
-1
4
19
3
0
10
-1
9
0
-3
2
-4
4
-1
-9
10
-27
-50
7
7
-9
7
-6
27
-10
9
-27
-18
1
6
4
12
22
-9
-15
-4
-46
10
1
-3
-5
-20
8
1
-8
-7
15
-20
-19
-53
4
-11
-3
-7
15
22
-36
0
-14
5
-41
-3
-26
16
36
75
-2
38
11
-37
19
-10
-10
31
7
17
22
16
-18
-11
-19
8
12
1
3
-16
-3
-51
-14
-2
40
-19
-36
4
0
-42
-10
20
8
3
56
17
18
30
16
-32
13
-14
11
-22
11
82
-4
6
4
-16
-21
20
15
-5
-35
-6
12
38
10
26
-1
9
12
-6
-13
-7
12
-3
-36
1
-1
-61
13
-11
-8
18
-8
17
-10
-9
-10
11
-3
-9
23
0
2
2
-5
15
-33
-2
1
-6
-4
-31
-8
-2
48
1
-50
-3
-15
17
8
-4
-5
-21
-3
20
-6
-29
-39
88
9
32
6
-5
-12
9
11
-9
7
8
-19
0
-14
-14
2
-6
3
107
4
3
-12
-11
-6
-13
-49
26
-25
-19
11
65
30
-7
-37
-5
-23
30
27
-4
-10
26
-20
8
-21
-3
14
13
35
-16
-28
-2
-4
22
19
-7
13
1
13
24
5
20
-32
4
1
55
-21
2
11
16
-10
14
22
5
-21
14
0
37
43
28
-17
-3
3
-1
-4
-16
15
-9
-18
-39
-14
-10
-18
15
-16
28
13
-38
-20
-25
-21
-14
-30
-10
-7
10
-29
16
-9
6
-12
2
55
14
-3
11
11
8
2
1
-2
2
-18
-55
10
-37
8
-14
-12
-14
-16
-13
-6
-13
2
-3
-3
6
-4
-5
-5
6
-4
-7
-45
10
-7
5
13
-15
23
34
-18
12
-4
4
19
45
-14
8
14
-12
8
-21
0
-33
17
-3
-21
9
-16
18
1
-10
-3
-28
-32
-9
12
26
-48
10
-14
15
33
-16
-21
16
-15
-22
-13
8
-1
0
24
-11
18
-15
-23
-24
14
-5
-10
-9
-1
65
1
4
6
-23
15
28
-5
12
-4
-3
-21
-16
43
-42
19
35
-1
-2
0
24
6
10
39
-3
11
0
27
4
55
11
-26
-5
-3
-36
31
-50
14
-10
-22
-50
-1
-16
30
-31
32
33
-7
19
-11
-24
-11
100
-3
0
3
-35
38
-16
10
5
-5
-52
-20
27
-9
0
127
-4
24
-12
-11
0
-8
-8
9
3
-4
13
-9
11
-13
21
-31
2
-11
-20
15
21
-40
-45
23
-14
-42
-9
-8
-6
2
28
15
-35
38
-9
-3
-20
-7
9
-19
-5
50
21
-22
-9
1
15
10
-1
-22
-7
12
-10
5
-31
24
5
6
-16
6
-13
1
4
-17
-15
-5
27
-4
-12
1
-33
5
11
22
-14
1
-3
11
-31
6
35
71
8
2
19
-6
-5
-24
11
-43
-2
21
3
5
1
-26
-2
7
0
-14
0
-23
-5
-18
-13
30
-12
-1
-8
6
-6
15
11
32
4
-17
59
8
-27
35
-41
-21
9
-13
3
-16
-9
3
-42
5
5
-12
38
-33
-16
-17
10
-2
-4
8
-11
13
17
-7
30
46
-33
-2
15
-13
-18
-18
-12
10
-25
78
-11
-7
-2
34
2
1
-7
-4
14
21
8
-8
-9
-5
-14
-7
-4
-3
-1
-1
20
-3
-1
6
18
-2
-4
2
1
3
8
-12
-4
-6
-38
25
2
2
-3
-45
-7
19
-1
10
3
0
7
0
-26
13
12
-9
-23
102
17
22
32
-50
-25
40
0
2
14
18
-7
-39
-13
32
57
2
0
16
-12
-65
4
-11
13
-13
-37
26
-41
23
-9
-17
6
9
-28
-6
27
-18
-3
14
-23
0
21
-44
4
7
3
-8
-25
-45
-2
-16
3
-33
10
21
8
1
-10
-13
-1
-12
16
4
-34
-12
13
-1
-19
-25
4
-21
-5
6
-8
-4
59
21
-21
-8
-19
-9
-11
15
1
11
3
-4
25
-18
18
0
-5
-3
1
-19
-3
-45
-4
-9
4
33
-28
-45
15
-14
-28
-1
-12
17
-26
8
-50
-5
23
0
-108
28
29
-9
-21
-31
6
45
41
13
-4
-3
-24
67
5
-7
37
-11
-15
-61
-6
41
32
9
11
6
-26
-6
1
20
-2
0
-26
8
3
28
-8
13
19
-22
-59
-8
-10
6
16
1
10
14
17
-12
-1
29
-5
-33
-4
15
-29
-5
50
-25
14
-34
-1
4
23
14
0
7
-7
29
13
-42
-23
-7
-28
-14
4
22
26
26
8
-24
42
5
-9
-15
51
-21
-13
0
-3
1
9
22
-23
-59
43
1
-11
6
-10
16
25
-6
-29
1
15
0
32
-25
22
6
-3
-26
-27
-18
-5
47
1
6
-4
-19
-6
-9
-14
-4
1
-13
36
46
26
-5
-4
44
6
-5
-30
-6
-6
12
35
6
-9
13
2
-8
-14
3
10
-10
-5
22
16
25
-15
-15
14
-3
9
2
13
11
-14
-6
3
-31
14
-6
18
21
-14
-57
-11
21
-3
6
-13
-40
36
7
15
16
-41
10
-34
-23
24
-2
-15
-15
15
-9
-7
9
26
16
21
33
4
18
27
-16
22
-2
-11
-31
0
1
24
-11
-22
-19
21
46
0
-30
20
-4
5
24
-11
-22
3
-7
22
-12
-46
25
26
-22
-8
6
7
1
-20
-6
23
1
-7
12
-21
-11
-1
-4
1
21
80
12
-39
15
4
30
-8
-18
-13
19
23
-8
10
9
7
7
4
7
12
16
-17
-1
-12
-12
-3
-5
-25
-3
-8
-8
3
4
11
-7
-2
-5
-17
-5
-7
11
13
-1
11
-10
-1
7
-9
26
60
-25
16
32
7
-9
9
-4
5
-31
-26
-3
14
-44
4
0
-11
-6
-2
6
44
-41
23
29
1
-16
-32
-37
-4
-14
-6
-2
26
-26
-24
22
-11
-6
35
-3
68
-5
33
-33
-8
56
-15
22
27
19
-18
1
5
8
2
21
-2
-12
13
-16
-9
22
8
32
-5
-26
-1
-23
4
-1
-2
7
-8
2
-7
6
0
10
-15
-38
2
7
-13
-14
24
6
52
-2
41
13
-16
-21
-15
-11
-10
20
-3
-20
38
17
-27
-27
23
-5
34
32
-10
3
30
-15
6
26
-17
-14
-12
-7
-12
23
-2
45
-4
10
-33
-3
-5
-70
6
13
31
-30
30
-16
-37
-8
-27
28
2
-9
-29
5
5
13
7
-31
-23
9
7
-1
-30
16
2
1
-14
-3
6
42
35
-22
6
-35
3
21
-6
-9
7
14
19
61
-1
-10
15
-7
42
-5
-3
-6
-57
-30
46
-6
25
-1
23
-12
-7
-4
14
17
2
-9
-24
4
-50
-22
25
39
16
-8
2
6
-6
9
-21
-27
-4
1
-3
22
-21
5
6
-2
-13
2
-15
8
-7
-19
20
31
18
-4
16
20
-8
5
9
-16
-9
-22
14
-11
-17
11
4
28
-7
-21
-4
-6
14
-31
-34
0
15
-12
19
7
-25
-7
5
7
-5
44
-8
-30
17
-10
28
31
-14
-36
-16
-20
7
-15
-53
-33
10
-6
23
37
-65
1
-60
-3
-6
14
-9
-35
6
42
40
21
3
-25
33
-27
-50
-15
-31
14
51
-29
17
78
18
-17
45
-14
-11
43
-10
22
-6
-15
3
-3
0
-5
-1
11
-1
3
21
10
6
1
-2
6
0
8
-33
3
2
11
-5
5
-13
4
-4
1
0
1
0
23
-23
1
-16
-12
11
7
-10
0
-2
22
7
20
7
0
6
10
-17
-1
-23
32
-3
18
-6
-2
12
-26
11
11
13
-1
7
-54
-48
16
-22
20
30
-16
-14
23
6
-28
69
-2
-13
-22
-7
-36
61
-24
16
12
11
-23
10
12
-7
-36
-22
37
-20
-9
12
10
22
20
4
-25
-28
-59
21
-44
-3
11
10
-48
-20
-2
11
-14
14
-14
6
-8
-59
-9
82
9
1
16
47
-63
-8
54
-4
46
-16
32
-16
-36
-24
-23
24
7
-73
57
19
-16
-14
-5
7
-20
-9
-15
-15
-8
-2
39
0
-52
-13
-14
-15
-7
25
-10
2
-10
-1
37
-9
1
28
-5
39
34
-12
10
11
-11
-11
10
3
17
-16
-9
0
-2
18
-5
12
13
-13
8
30
-8
-8
17
36
16
21
8
-1
-13
14
-35
14
-24
0
-16
81
-15
-38
30
-11
-22
3
5
42
-28
27
29
15
-40
28
2
6
-15
-11
0
-9
-13
14
30
-9
49
2
-10
-9
-36
3
-19
36
-37
-24
17
-9
19
-40
-20
7
-37
18
-2
-31
-39
15
30
46
-38
30
22
4
10
17
-9
-55
-15
-19
-17
-13
6
-9
-9
22
7
-29
4
-8
-8
23
-23
4
-3
74
-44
-16
6
23
7
12
13
15
-16
-24
-3
-7
-5
-4
6
-5
37
3
-5
23
15
52
-6
-21
51
-28
-1
-24
-4
12
-24
41
12
5
-16
-26
25
22
-27
7
18
2
-13
-10
-8
40
-18
-38
-2
-26
5
-24
-1
-5
22
19
-8
3
14
5
-12
1
13
-5
14
31
-31
3
0
19
-21
-12
5
20
10
11
-16
-4
-13
-3
-8
-5
5
-5
-10
5
-12
5
18
-2
27
-17
31
-4
19
47
-2
-6
7
-2
-3
-10
1
-2
13
25
-56
-15
5
4
-20
7
61
11
-10
-23
-45
-17
4
-23
-18
-18
3
-4
52
-26
-25
44
-3
-11
54
8
44
3
-19
-15
29
7
-11
-8
-18
-43
-24
4
-30
7
-13
-10
-3
-1
-5
-5
-17
-1
1
-7
-22
-4
5
34
-28
4
8
-4
19
-75
64
-108
74
-4
-38
15
-38
78
30
58
34
16
-28
-13
3
36
39
-17
-42
0
-10
-44
-34
-33
20
-70
-49
-37
-3
65
-53
-17
-63
88
-27
28
-7
32
1
-6
-11
22
12
-1
-4
-8
9
-27
6
18
-14
-20
27
-1
3
34
-18
5
-12
-21
-14
43
3
-29
-3
-4
-18
-3
7
46
-29
-8
-9
-47
41
5
-5
1
9
-41
-7
13
53
10
6
-4
19
3
-10
26
12
21
7
0
24
-41
23
52
15
14
14
-15
-32
38
-2
19
-22
105
11
-14
10
6
1
3
15
1
52
-20
3
-19
5
-32
-13
-16
-8
3
29
13
9
-44
-9
-15
17
-22
0
-4
-18
-4
-12
-9
-24
3
-4
4
-7
13
-12
-8
5
28
-9
36
-5
-28
5
13
-3
-7
15
3
-5
37
-17
7
4
-6
4
9
29
8
-19
21
2
1
-9
12
-4
17
-5
7
11
-19
3
11
-3
-9
-3
-40
18
2
50
6
-17
-32
-22
-8
11
23
10
53
-18
-8
11
2
-6
6
-3
-13
-15
5
-33
-2
-15
1
-19
-26
-6
10
12
-8
-8
-26
0
16
-13
-13
17
17
15
-25
7
10
5
-21
33
10
-7
0
-14
40
-2
38
-1
32
43
9
2
-3
-7
-14
4
-6
-4
-1
-16
31
-14
6
4
8
27
-24
10
-21
29
2
-19
15
8
-4
37
-13
-12
10
35
-3
8
7
-23
-1
-19
13
35
21
42
1
11
-14
-22
-12
-9
40
-9
-29
-21
14
-5
1
13
2
-17
19
7
-16
-43
-11
17
-1
-17
-16
26
-81
67
-36
-30
-37
1
-22
62
-3
35
-8
-26
0
0
-17
22
-7
0
6
-18
6
-18
-1
-32
36
-8
-26
-28
1
2
-6
5
-21
-1
20
4
14
-29
-5
7
-18
-16
-8
-2
-10
-44
7
0
-1
19
-21
28
-13
-15
1
23
-11
-12
21
-19
-1
-6
9
-6
-5
-13
-12
-44
0
-15
-13
5
5
1
-3
34
-14
-3
46
-12
22
6
5
6
25
-10
-13
-10
20
6
-8
28
3
-8
19
-2
-7
11
-18
-17
13
12
-5
-33
7
-24
-16
11
-11
-10
3
-11
13
-1
6
9
21
40
-13
-16
79
3
6
-26
29
-32
-27
-1
34
-14
-39
-9
-25
12
-15
7
21
0
33
-12
17
100
1
-43
4
-6
-44
19
-10
-11
-8
-13
-8
7
14
15
8
-15
10
-9
2
32
-5
42
-23
9
16
37
8
-8
-29
48
-4
66
12
-10
-13
-11
-17
-16
-6
-29
-8
-6
8
12
-6
-1
-6
-35
-28
-13
-27
7
31
18
-18
6
10
1
21
-16
15
-8
-1
17
24
11
11
16
2
4
5
29
18
16
39
38
17
-4
24
-3
-35
-19
-79
5
9
-26
-10
-5
-31
-21
-5
-24
-7
39
14
5
12
2
-27
15
13
7
-3
8
-20
-32
-4
31
-4
-46
-4
87
49
-27
-1
-13
-23
-11
23
4
11
-2
-3
-5
1
-18
-1
-41
0
-6
-25
21
28
4
-58
20
-26
1
-13
20
-18
11
9
8
22
-47
16
-24
-31
-3
34
0
-5
4
8
27
14
10
16
-7
24
-7
-5
31
-15
6
-13
25
6
50
-4
-35
14
-8
-1
62
18
9
26
4
12
3
10
18
6
8
-21
19
2
16
0
32
0
-16
50
10
-8
14
25
3
8
-14
-13
39
22
35
13
-24
-21
-35
-1
-5
-27
8
15
-6
2
-30
-37
27
0
21
23
7
8
-7
20
8
-7
7
70
6
36
16
13
22
-13
-1
14
32
34
-46
16
32
35
-3
33
-8
-6
42
15
2
-8
-21
-3
-2
3
-1
6
-13
7
-25
-19
-8
-30
-13
-7
-22
-3
1
30
-28
-4
-11
43
-6
-19
-14
-26
2
-19
24
-16
-3
-6
-36
17
-79
4
62
-26
-5
-53
7
49
-29
-21
19
-29
-21
-13
-7
47
40
-6
-14
8
-1
1
8
8
19
9
-27
-5
1
23
-10
0
-6
-15
2
-43
9
31
-4
6
-8
-26
-2
37
3
-7
28
15
13
-28
4
52
19
2
-15
24
-21
-27
37
9
-13
12
-1
-5
-1
36
-16
10
18
33
-3
-13
-65
-18
-50
16
-32
74
-8
52
-15
4
-10
-20
10
5
22
82
-3
-80
10
13
-25
-4
-21
-17
39
-10
-81
-35
-11
95
-13
-29
68
-16
16
45
35
-13
28
127
-46
-21
-24
6
13
-3
-55
-3
5
-2
-11
7
14
17
2
27
-11
-36
-20
-26
-12
40
23
40
15
14
-12
16
13
-6
-28
-1
-26
2
-14
12
-22
-27
-38
23
1
-12
42
-18
-14
-35
18
1
-4
-22
-1
6
-4
-40
-17
-29
-4
7
-23
-2
7
-64
-1
0
75
29
-14
49
-15
-28
18
-53
-2
10
40
-25
-18
-6
-13
6
-4
-48
21
47
39
-12
21
7
20
-14
-10
-17
-8
10
14
52
-17
-31
19
-9
14
23
-12
-11
8
-1
-5
-65
40
13
9
-25
-18
45
-7
-11
9
0
-1
20
-5
87
-10
21
-8
-7
41
5
4
-8
-9
37
9
-16
-16
17
58
-28
24
-18
-4
-21
11
-24
34
-7
13
0
7
-13
-32
-16
18
-8
23
-4
5
23
7
6
38
-4
5
-61
-14
29
-6
-14
-15
-18
-19
18
6
7
13
4
1
-30
17
60
1
2
-12
9
12
-24
12
-14
-10
-14
7
7
25
6
-6
6
2
-6
-20
-2
-4
2
14
24
-9
-32
0
0
23
-22
-6
-29
-8
0
-11
-6
29
-19
-20
-23
24
1
-3
2
-4
19
9
44
4
41
-8
10
3
-4
48
-4
50
38
39
-1
-3
50
-7
9
10
-2
10
10
12
-5
5
7
-2
10
16
-1
20
2
-3
-36
12
10
14
10
13
-10
4
7
13
-12
-1
-5
6
56
-31
-15
19
-17
7
7
-10
12
2
-11
18
16
7
-1
-20
6
-2
5
4
-5
23
-14
-14
-4
15
-62
17
-23
-19
-7
-10
-13
-5
20
-7
-2
-14
56
32
-26
-4
12
13
-2
38
-1
33
-4
4
39
12
23
-15
-4
17
1
7
19
-22
12
-11
-28
-17
3
2
6
1
3
-19
24
17
-14
106
33
2
21
-3
0
29
4
13
-35
-29
7
-17
-31
-26
0
-9
-9
36
-10
1
-2
-31
40
-3
8
22
1
-20
12
17
-10
12
-21
4
15
-33
0
-38
-15
17
-14
-43
9
6
4
5
31
-4
6
-1
83
70
-4
-16
-40
-4
-20
-1
-37
-18
-11
-31
-9
10
16
-8
-21
21
5
-23
-13
42
-14
17
-32
30
-21
8
-43
-7
14
6
127
19
15
5
-16
-2
-3
22
-14
2
-5
-36
12
7
6
4
-20
-22
-1
-28
-27
15
-4
1
29
16
-16
23
-11
-5
17
7
1
-18
-3
-2
-32
-1
4
4
19
-10
2
9
2
23
-27
-22
8
-7
39
13
-11
-7
-10
30
-15
-10
29
25
13
-10
-9
3
72
57
-28
7
32
-19
46
-36
11
10
81
4
-13
-21
17
24
11
-40
39
18
6
-12
-84
127
-37
63
31
-22
13
1
-99
-106
4
6
47
33
1
-2
5
-6
1
-6
-11
5
-5
-12
1
-5
-42
13
8
20
-15
-8
-6
8
-7
5
27
-6
-4
49
-27
-6
-9
5
-9
37
-14
6
21
-21
41
-13
-7
2
-14
-2
27
22
7
-9
-21
2
-12
18
5
-4
-1
-5
-8
-7
-5
-8
-21
-19
-33
-12
35
-23
-4
22
12
-10
23
-13
3
4
-3
-7
-33
28
4
-3
-2
-7
28
-6
-18
10
-1
43
27
-18
1
-57
-15
-1
22
-10
-21
2
-2
-1
15
-19
3
24
-40
20
-21
5
28
11
9
-34
0
27
-12
-12
12
-15
-38
0
35
33
-34
-5
-2
8
-5
-4
-3
-5
-37
18
26
13
-27
-39
31
56
-20
-27
46
5
18
6
-8
34
-12
-9
7
6
15
-18
-17
-34
9
14
-5
22
-60
-14
-13
-38
7
4
18
9
1
-4
18
-20
3
-7
-13
-13
10
-15
9
-15
6
-7
34
-6
38
-43
11
9
22
4
-11
-28
59
6
-16
28
-11
-39
6
-12
-12
-7
-3
-7
9
-20
-10
38
15
-10
3
12
9
-10
41
5
-15
0
44
4
-6
-5
-10
21
1
9
11
14
-17
16
5
-7
-20
-12
-1
2
0
-25
-18
-16
-7
-2
0
6
-15
-1
3
3
9
1
15
15
3
-29
25
-13
18
1
22
-8
-1
-4
8
-4
-6
-5
-14
-2
20
6
-1
-6
1
15
-33
-16
19
-32
31
-27
75
-5
-26
-15
-5
20
3
1
1
4
-18
4
25
-10
5
-16
-3
-29
-7
40
-7
1
33
5
-36
-3
-24
24
-18
1
0
33
26
-3
-1
-10
2
4
11
17
-19
-3
14
12
15
-5
-14
0
-5
16
10
4
8
-12
15
-34
-29
-15
9
10
0
-1
-13
-17
22
27
-9
14
5
0
12
-3
40
-8
7
-7
6
-16
20
30
-5
-8
2
36
23
-9
30
23
1
30
-2
22
26
72
-18
14
-51
3
-2
-17
-1
-2
-4
-42
6
-52
14
35
-14
17
-18
9
-9
-9
2
-10
9
7
15
-2
-2
-17
1
-8
-3
8
-2
-18
-23
-17
49
39
10
7
-3
-3
5
-20
13
13
-23
4
10
1
12
-10
22
6
-15
-12
-27
-19
-9
14
0
30
33
20
13
21
-1
-32
24
-22
69
49
29
-30
-20
-17
-5
30
-38
-29
9
47
29
-15
20
31
-4
5
-10
-11
29
0
16
22
-9
-28
-6
-32
20
-29
-30
11
-15
52
-10
-2
-11
16
12
19
7
-6
-6
-24
27
-3
-11
86
-11
15
-32
-35
56
54
-1
39
-8
-27
17
41
-7
-17
-76
-6
22
-27
-2
127
-9
5
-20
-22
-54
-10
-20
28
-45
-30
-20
-16
-17
-17
-19
25
47
60
6
24
21
-1
2
5
11
-49
56
-3
4
-47
-30
-3
45
32
-4
4
20
-41
21
-5
38
-9
38
30
9
-5
18
-28
-6
5
3
5
16
22
25
26
63
3
0
21
-21
53
-3
45
-21
29
-8
-21
-6
-7
-21
-30
23
91
-32
-4
-26
7
-59
-27
-3
31
7
-35
17
14
-10
-19
-3
-11
11
-6
28
15
29
-19
6
18
-13
68
-4
25
42
13
-36
-18
6
3
0
-20
5
-40
24
0
12
-4
-22
-11
-11
24
-10
16
33
5
4
-4
17
3
38
-3
-6
-25
-9
4
-30
-12
58
-9
31
-14
6
-14
14
9
-2
-4
-4
3
-36
-7
-56
-5
-64
-6
-27
5
-4
56
49
-14
25
-5
9
25
7
-8
7
-9
1
-12
7
-4
6
3
9
-10
-2
-6
-3
7
0
-3
29
0
2
-2
-9
8
13
2
-7
8
-2
8
-9
1
23
4
20
-4
-21
9
11
-16
4
1
-18
-12
14
12
28
-12
6
3
-7
12
18
-33
-18
-21
-3
10
24
-31
9
43
-10
-35
-10
5
6
11
-20
-20
26
-1
-21
-13
33
13
-11
-4
-16
3
-4
-30
-66
-2
28
-18
0
-26
1
8
28
32
15
19
16
15
13
-13
-6
-8
34
-11
18
-4
7
10
-2
1
-26
5
39
-70
-24
0
9
-14
43
-13
10
-9
28
-15
1
12
-20
13
-7
-22
7
34
-39
45
-30
-14
1
35
-23
0
-4
-12
-36
-17
-12
-37
-20
-5
17
-4
-1
26
1
16
3
7
-36
-4
-32
-33
2
7
-6
20
-15
11
-5
1
-53
-21
16
23
-18
12
-5
-2
-5
-6
35
-26
7
12
40
26
7
-13
-2
10
-30
3
-3
13
0
9
20
10
1
8
41
19
16
-33
-10
-18
25
-8
-21
50
18
-33
3
-24
-3
11
-3
2
-56
-14
2
-18
-16
0
13
44
2
28
-81
-9
39
11
25
0
-13
-7
6
5
-15
-14
23
-6
-6
-26
9
-10
-11
-2
16
0
-30
-12
3
-31
19
37
-9
-7
4
-27
14
-15
16
22
-36
24
12
-11
-30
40
-23
2
4
3
2
-18
31
-1
4
-38
3
-31
33
-23
26
65
42
-26
-25
32
5
-19
-32
7
41
-19
28
-22
11
21
10
-3
-2
-14
1
16
-19
-16
-35
8
34
8
-22
-4
-25
25
-4
2
-16
5
7
-1
0
4
-21
13
-6
35
-30
29
-13
2
-3
-28
43
-29
-5
-4
0
13
16
-25
12
22
18
-6
-20
24
7
-23
17
-17
30
-6
11
-17
-3
5
-48
16
-10
3
-27
-19
-12
-15
-39
-7
28
12
0
-17
6
-18
-3
-15
25
-24
-24
0
-10
-7
14
-3
13
-10
-10
-1
5
8
-8
10
-17
-2
-38
-15
-17
-45
-23
17
-7
33
-1
16
-14
-3
22
-16
-14
-1
-7
-15
1
-16
-11
-2
-2
-13
-6
-7
-37
26
-3
-16
-49
12
18
6
2
49
13
1
-31
31
-7
-41
78
-9
2
5
16
-58
1
60
26
-18
16
1
-46
-14
-4
52
6
-39
-22
-8
4
-2
64
-36
-5
18
6
-21
1
-1
-1
-61
-17
-37
25
-13
-40
-1
12
-15
23
-22
32
-10
2
-35
29
16
-11
5
0
35
-8
56
-17
27
4
-36
52
-6
18
5
4
-20
19
-14
10
22
-39
-10
12
-16
-10
-12
24
18
-14
-2
-9
-8
6
-18
-7
18
-1
-21
-7
6
2
-10
14
-25
-6
-39
-11
6
20
16
-2
10
-13
74
-22
23
5
12
71
12
-4
-31
-7
-28
8
13
9
16
-16
-11
21
-6
18
-17
20
-4
-5
-6
-4
31
-10
-21
20
1
32
-1
-6
12
-15
21
-2
-3
-4
-18
-7
-10
0
-3
2
7
8
-11
-10
10
9
-10
1
-13
-29
-17
12
39
8
-7
-26
4
-1
7
-1
-10
-37
7
-4
-1
-5
-3
-2
-7
51
15
11
-2
32
3
25
-5
5
6
-10
-1
-9
26
3
22
10
2
65
2
12
-45
-8
-9
5
-27
10
2
6
1
-6
-34
66
-28
-32
-38
-13
-15
26
-1
-15
-46
-22
-20
53
3
18
-53
-7
21
-3
35
4
98
20
-61
9
55
-35
9
9
-2
14
-48
-19
-20
-2
11
-8
0
-16
-6
8
-25
-16
0
-28
-28
-8
40
-8
-12
17
12
-20
5
62
15
-3
-5
15
18
17
-27
23
19
4
-25
-12
2
-19
13
-11
-16
2
43
5
30
-3
-22
-12
-8
12
11
30
10
15
-24
-27
-16
-2
-10
43
-2
-62
-3
-3
-4
-39
-15
-12
-7
36
-1
-34
11
-11
-6
-7
35
24
38
2
29
7
33
-17
2
0
-23
14
-30
5
-18
-12
-25
-2
-13
49
7
12
-3
-7
3
-32
-25
-13
-10
5
43
44
64
8
18
13
7
2
-22
12
38
-14
-4
15
3
-2
-15
-14
15
-1
3
10
-10
49
-35
58
-19
15
35
0
5
21
-35
-30
-26
11
-35
-25
77
7
2
-8
21
4
27
-5
-6
11
-4
-14
2
-20
2
-3
-1
-29
23
2
0
4
13
-1
33
-22
-10
6
10
14
-23
1
19
35
-11
-13
-11
2
-4
21
-15
16
-15
20
-4
-10
-9
-8
-2
24
-6
-3
1
-11
-32
62
-14
6
-14
-3
5
27
26
-19
-19
-38
24
-13
-22
-59
16
-24
15
43
-2
20
28
-19
-19
-25
0
30
-24
-19
23
30
-12
22
1
2
26
-4
33
-25
48
6
-39
17
-22
16
6
3
10
-29
20
-5
37
30
19
14
-21
27
13
-27
12
-17
-23
0
3
-23
-5
-5
-6
-11
-18
-11
-10
11
-73
-2
14
-24
21
43
-16
-5
-11
0
-34
1
16
-11
4
-7
-18
-5
-16
17
-8
9
-16
-9
-45
26
-15
61
18
-11
11
6
-32
-1
-2
39
12
-26
4
37
-16
-6
-13
35
-5
0
-5
2
-36
-74
-4
-60
-45
-1
-18
-22
6
-13
12
23
15
-11
-3
-3
6
1
-13
-16
26
44
-17
-12
10
13
-21
62
-14
65
33
-10
1
-25
-8
7
-54
111
0
0
-14
-9
-24
15
-14
6
14
-10
-35
71
30
7
14
-43
-33
16
4
5
-23
-1
-49
-4
-24
15
7
28
-18
6
6
-36
-5
13
-30
-4
-3
19
-9
-13
-28
-10
18
5
-5
-63
-10
-17
-4
2
19
-1
-8
14
-21
-12
14
-8
18
-6
10
17
18
-34
-2
21
-16
-34
-28
13
-34
13
0
-12
-3
0
-9
-13
-11
23
32
2
-13
7
-10
38
-24
-8
20
-26
6
10
-19
3
-9
10
18
14
-10
-3
19
46
-30
8
4
-7
22
16
-2
-11
10
26
-33
-20
-22
-7
-29
36
-10
-6
-10
20
-8
-28
5
-4
12
-7
-5
-3
-5
9
-19
-1
-3
-1
43
-4
-17
2
-5
-17
-22
1
12
20
8
-16
6
0
0
3
-4
1
22
-20
3
-9
13
33
-19
19
-27
-4
7
-11
5
5
30
16
24
8
13
7
6
-17
-33
0
-9
-4
-11
-12
-10
8
4
23
-2
9
0
42
-4
7
20
-22
11
14
8
10
-20
6
-6
-5
-8
-10
29
2
-5
-10
22
-4
5
3
12
-20
1
2
35
13
-29
19
0
-2
33
-8
-23
-16
-17
-1
-27
-5
1
24
6
-11
9
-18
12
7
5
-13
9
29
4
-12
-8
-2
-1
-15
-2
21
10
0
19
27
33
-22
-16
-7
26
-25
7
-14
43
-29
-11
-20
26
11
65
-16
5
70
-26
-13
-33
-19
-19
-5
-1
-3
5
49
-3
-11
-5
9
27
-10
13
7
-21
37
-1
-10
41
-7
-2
16
-43
-8
-40
-70
-29
22
-18
1
3
-27
-39
0
-5
-10
-26
-6
-3
6
4
-16
16
-46
-12
-20
-29
-10
6
-15
-12
-46
7
-27
1
-2
43
20
13
21
0
25
9
-36
-19
33
-25
8
-24
1
73
-5
-40
1
-57
-13
6
25
17
-55
-44
1
-29
6
39
-33
-69
-29
41
-6
10
47
65
-13
69
8
9
19
45
0
12
5
9
-10
11
-15
27
-13
-7
-19
-17
-77
-2
-18
38
34
-21
4
7
24
-56
-27
-21
-10
-14
-6
-36
62
-28
-13
20
1
-19
31
91
33
-64
-8
-11
-26
30
-1
-7
23
5
23
-9
20
-31
8
-3
-25
7
4
12
-24
-8
4
21
-14
6
-14
12
4
9
-11
-30
29
-2
-9
-7
-15
-17
-10
-8
28
-58
27
20
3
26
22
28
-12
-3
-11
-9
-14
29
-13
50
10
-42
-37
-29
-12
-6
11
22
21
-22
0
-11
54
-6
-8
-26
-21
25
14
-36
-4
86
15
-3
-10
-21
-44
-8
101
-10
15
58
-46
-20
-28
-31
-46
-1
13
-20
-14
-44
-2
-9
7
45
-18
3
-15
21
-9
-10
28
10
-8
-7
18
-8
-13
-17
1
9
7
-14
-7
13
2
8
-7
40
-9
34
-14
-23
27
2
-9
-18
-24
-12
-15
29
-6
-25
-7
-16
-22
-2
17
6
0
-4
-3
-33
16
40
-12
0
61
23
25
7
-5
14
-32
-1
19
-14
18
11
23
-11
-25
-5
6
43
6
-6
-2
-5
-47
-7
-7
-12
-42
21
-12
19
-5
12
-14
-29
-28
53
-4
-55
4
-6
-2
-5
-11
-18
6
-33
-2
10
15
-13
-3
31
18
-27
6
0
-18
-6
1
-3
22
9
-9
3
-12
-21
10
8
4
-8
-4
17
16
4
21
-5
4
5
0
11
-19
-11
9
-9
5
6
3
7
5
22
-7
-5
9
13
-7
-30
-1
5
10
-25
-1
11
11
-14
-38
-14
-17
-5
27
-4
37
15
27
1
0
-5
-8
-30
19
11
-3
1
36
-41
-13
5
-3
21
9
-47
-36
37
-5
-18
4
-5
12
11
11
17
25
-74
9
3
-7
46
-36
25
13
-9
10
-31
-17
9
39
9
25
1
9
7
-13
5
-4
61
-1
-23
-4
-20
-15
10
6
-14
-9
2
16
-7
0
40
40
25
-27
-17
0
-25
6
25
5
-21
3
4
-6
2
4
5
-15
19
0
11
-15
-10
-3
10
-13
-16
-28
18
2
-2
-22
-7
4
-5
0
14
-34
-12
31
-7
-12
37
1
-15
9
48
19
-2
40
13
6
-4
-3
9
-2
-7
-1
-8
-26
-11
-3
2
-61
-6
-20
-7
23
26
-4
-22
-10
23
8
-13
5
20
-17
4
7
13
-10
-26
14
3
15
3
23
9
-43
-3
14
19
18
-19
-10
1
10
1
13
-9
-5
0
8
-22
1
37
4
4
-3
20
-10
0
7
-4
3
-4
5
-6
-12
5
-18
-2
28
-5
-5
-23
3
2
14
-28
-1
31
23
-5
-8
-4
-6
-12
0
13
3
12
10
-11
-17
31
4
-30
6
-13
-3
0
6
55
-18
-26
-15
21
-22
-16
-15
13
-1
19
-6
8
-1
-17
-2
-27
10
3
-35
3
-14
-3
18
-13
14
-47
-33
15
15
-17
-1
35
-2
-24
-20
91
-4
-23
-19
-25
25
19
-14
15
15
-4
49
51
24
39
8
-7
20
-32
-22
20
34
14
2
-22
-39
-4
-22
-9
55
-6
-57
50
-3
-43
-15
8
-5
4
14
20
-53
-1
-93
-18
-22
-13
41
-24
3
57
18
9
42
-15
-20
-8
-10
-7
-21
3
-11
-11
-16
-15
32
17
25
10
-13
32
17
-18
9
-13
-5
-1
20
28
-8
21
23
-3
-11
5
7
-6
-42
3
47
17
-34
11
6
7
-3
16
9
23
27
-7
14
-3
-7
-4
11
9
9
-9
-7
-22
-2
-8
-3
-3
-10
-9
-3
3
-9
7
-6
8
0
2
-7
-7
22
8
8
19
-2
2
-4
-18
17
15
4
-20
-29
8
4
-2
-5
-6
12
-5
7
3
8
3
-7
12
15
1
4
0
2
-9
-5
-5
-26
-11
-9
34
-11
-18
12
-5
-17
-11
11
17
-28
-4
-20
5
-14
-9
0
-4
-4
-3
-16
-2
-10
-4
-19
-17
-1
25
-16
-11
11
-10
5
-20
11
11
-10
-18
2
-18
-28
-39
5
-38
-21
-39
18
-6
-19
-6
14
-17
-16
-26
-49
13
34
-17
23
-5
20
-20
-13
6
10
-2
-7
5
30
27
-15
34
26
-22
31
-33
-7
-15
-10
13
28
30
0
17
42
-1
17
-28
-7
6
-26
27
-5
23
-23
-10
19
-8
-8
-9
0
-3
2
-6
9
9
-2
-19
6
-7
6
21
-6
16
-10
9
36
-47
38
25
27
-22
3
17
-13
-15
-3
-25
-4
1
-22
-59
12
-1
15
-7
-15
8
6
9
-1
-24
-4
-1
-36
-1
1
-18
59
-1
-20
-8
-8
-3
-19
-11
-20
3
4
-16
13
12
3
-2
28
-11
-18
16
-18
-21
28
20
-13
-14
-12
-5
8
-4
22
-7
-11
5
0
1
-16
-40
39
4
0
-4
3
-1
70
-30
12
13
0
-4
-39
-11
14
-3
45
10
3
-4
-26
4
-6
28
-3
30
-25
-18
-17
-10
13
22
19
13
14
36
-23
1
-19
14
-6
-26
3
3
-4
-24
18
8
-16
-7
-29
-22
-35
-11
68
1
-19
-5
24
-24
-41
-6
-10
-13
-42
-5
-16
-32
25
79
-13
-26
-14
50
-43
-6
-23
4
-18
8
-21
13
62
105
43
19
15
-2
2
20
-7
12
-3
-5
-5
14
-22
17
14
-12
-36
15
28
-9
-14
-17
1
-2
26
-15
14
3
8
-12
-4
-11
21
11
-7
3
6
5
12
-16
-41
0
-38
-35
5
-20
-7
-48
-34
-3
-33
3
11
25
3
-3
0
-7
33
-6
78
-33
14
12
9
-8
10
-6
-11
-32
10
-7
-19
2
-30
-4
37
-7
3
12
4
10
-7
-23
17
-13
-30
18
86
-23
-27
-16
-8
-12
-14
25
6
-26
-39
-20
-6
44
8
-5
-20
1
-3
-12
17
-13
-14
93
0
22
40
-5
9
2
-21
23
21
-26
16
6
13
-23
-24
8
-36
-2
15
-27
-10
-28
5
7
-10
27
51
51
29
-9
1
6
3
-11
-24
5
-27
-20
49
-12
12
5
4
-5
13
5
4
0
0
-2
34
12
0
-13
8
2
-5
-10
-19
18
-5
-5
-3
-1
8
-5
0
-9
0
23
-9
-6
-10
-5
-10
16
7
1
5
0
-14
-5
-9
-9
-8
-2
2
-7
21
-1
-24
81
-27
-5
-3
-7
-41
-13
-23
27
3
26
2
-2
15
-21
18
26
1
-12
9
13
35
3
-11
8
-3
17
6
12
10
-1
-1
1
-3
-1
-3
39
-2
-5
1
11
-11
7
-8
5
-14
2
-7
-13
12
-6
-4
-8
-4
0
-29
-19
8
-19
19
29
34
17
-3
-20
36
-17
14
-2
-28
42
-2
-12
-2
20
25
-4
19
1
44
17
3
5
6
-35
2
10
-13
-2
-31
60
37
15
-3
1
-9
-21
-22
-6
3
-11
22
18
-36
23
-6
10
-4
2
13
-3
29
-1
9
-32
10
14
15
-1
-18
9
14
-3
17
-22
-9
-6
-5
0
-9
-17
10
0
9
5
7
12
19
33
-6
1
2
-34
44
70
4
-18
26
-13
43
-43
69
-8
-11
62
-3
67
-16
11
-43
28
-100
-41
37
4
-5
1
-8
-29
-16
-34
-20
-22
51
-17
-105
26
-23
34
31
-11
-27
-65
9
15
60
21
-46
-14
-2
-7
24
-6
22
-4
-3
21
-14
12
-20
10
-3
40
-10
10
8
4
18
-10
32
-9
-10
2
-1
-7
3
8
0
-9
41
-10
-13
20
19
-2
15
-28
2
-23
-13
33
-11
27
-39
2
-23
-2
-6
6
11
-7
-3
-29
2
-6
7
1
-48
28
12
-16
25
3
-25
-2
9
19
47
22
0
-3
-2
0
-25
-22
-5
-24
-47
-26
29
3
-14
7
-2
-4
-9
30
28
-3
9
-4
15
50
15
-13
-3
-7
-7
16
-2
23
18
8
15
-5
4
7
-23
9
1
-18
-5
11
2
7
-6
48
9
25
13
-2
6
-24
2
-21
20
22
45
-19
-13
26
10
6
-9
-7
-15
-6
8
22
3
60
-14
-5
9
8
-7
8
-17
-2
-15
13
-5
-13
-14
-9
12
-5
-7
-6
22
-6
-6
36
-8
1
5
-1
4
5
11
-9
-14
-5
-8
16
-18
17
-27
1
-13
-6
-16
5
-7
-1
-45
-24
-1
4
-8
7
0
-4
18
22
-20
7
20
-20
-15
5
14
10
5
-8
-26
-2
-14
25
18
2
83
39
11
9
31
8
-1
-9
-11
-4
-41
-14
-35
-39
39
-28
-2
49
1
1
47
-9
-24
2
3
-13
8
-9
-4
10
-18
111
-11
6
-25
36
55
27
-41
26
-3
-72
-6
5
9
-5
20
-24
36
-12
-17
-21
19
11
-10
6
9
19
51
-58
-50
-18
-53
3
-27
-16
-15
-42
13
4
21
27
-7
6
24
-22
-8
5
-17
2
-18
-9
-4
-23
-15
21
6
-19
10
32
-23
1
14
29
-31
1
3
22
-5
-3
1
-3
9
-8
10
-25
-16
2
8
0
-34
-5
0
19
4
9
15
20
-21
-37
10
-4
-14
3
-2
-3
6
7
5
0
-2
11
-15
5
6
18
-5
4
-13
1
1
-13
-20
7
-32
-3
-8
-18
-10
-9
14
-3
3
21
26
-17
-63
-29
-5
12
-10
-10
3
1
-18
38
-18
5
-1
28
7
2
-12
-4
28
13
16
-4
0
-13
-17
-15
5
19
39
28
27
10
-50
17
-17
-23
71
-10
-32
0
-20
-13
2
-10
-5
-67
-17
-17
15
15
-30
-7
25
10
-16
-19
-1
13
-1
-4
21
38
12
-25
-16
-1
26
-6
8
-4
25
-13
13
32
1
-7
-13
8
2
-1
11
-10
21
-9
16
-7
21
26
-5
16
15
-3
17
-3
20
13
30
-9
-21
-10
-19
5
20
-9
17
19
9
-12
-3
8
13
-9
-14
22
1
-5
3
12
15
-4
16
-7
34
-16
11
14
9
-9
2
-5
-2
-6
3
-27
4
11
-1
4
-5
-1
-4
4
28
1
12
-18
25
-1
-5
10
-1
3
-13
10
-14
-7
9
-10
-11
1
19
9
18
-43
14
12
-1
-18
-30
-8
-28
43
2
56
-7
-3
5
0
-16
22
13
7
11
-3
-6
-12
-25
-1
-2
-35
20
-12
40
11
-23
-43
-1
-11
10
6
0
-5
-2
29
3
-32
-12
-14
10
-21
2
6
-17
27
-21
10
-1
31
20
-22
-25
74
13
11
17
-4
-41
12
6
-9
-15
19
-12
-17
9
-1
-19
-3
-6
-19
83
-46
28
-1
-17
8
11
-39
-3
-18
4
17
7
-8
12
-7
12
0
11
-2
3
-3
4
-6
-10
-1
31
5
-2
-4
-7
3
-20
2
-3
2
-14
-4
2
-9
-5
2
13
-2
-5
1
8
-26
-26
5
11
-33
28
9
-4
-7
-24
39
28
-2
-33
-29
-6
14
2
7
15
1
-21
-13
2
-19
-10
3
-25
37
-8
-15
-17
11
12
-5
3
1
-8
-24
-9
1
-1
14
-3
1
0
-14
-4
-3
-47
-2
-3
-19
-11
2
-1
12
15
-8
2
-23
-12
10
16
-8
6
18
-8
-1
-10
5
-15
26
3
5
48
-3
3
-26
15
-1
26
-22
8
-18
32
32
-15
-25
7
6
18
21
9
41
15
14
10
-2
20
-24
-36
5
-29
20
-44
31
-15
30
9
-23
-1
0
38
23
-51
-40
-7
-14
-8
-42
-51
2
-23
-30
-30
67
-9
-27
8
-51
-13
-19
3
-34
8
123
-11
-10
69
17
3
-11
-18
-13
-18
-13
3
98
89
-62
-21
-9
-46
-5
31
-28
-12
-47
-29
10
7
-6
2
-24
-15
-19
4
5
-4
-2
-54
0
7
-16
6
-5
6
-10
1
6
-4
1
-1
5
-2
-14
7
-2
-2
1
-4
-10
-22
-14
19
3
-1
2
6
-9
-19
4
-3
24
-7
7
-5
1
2
2
6
6
-1
-8
3
-25
-5
6
-12
-28
1
2
1
-4
-7
6
-15
6
-13
-9
-19
-1
-5
-7
3
-11
0
-17
16
0
25
-1
11
7
4
1
7
4
27
-11
-5
0
22
-3
11
-4
58
2
70
30
-61
-25
24
-38
-10
4
94
-24
-31
-34
15
-17
68
-24
-27
25
-13
2
-13
-12
-22
20
-35
-5
-15
-11
-33
-30
-12
-24
-79
-29
18
8
-22
3
-43
60
-38
-6
2
-12
12
16
0
-6
-3
-11
-22
30
5
-30
19
19
-12
10
-13
29
-3
-6
-18
10
-13
-6
-32
12
-17
-12
-22
25
-2
-13
-19
0
-27
-13
13
23
31
28
-3
21
1
37
-10
11
23
-14
5
21
22
0
8
-7
24
19
25
7
1
-4
48
42
-16
65
3
15
-31
-7
-58
-27
33
1
60
29
-27
11
72
9
-16
8
-18
99
107
20
58
97
-44
10
10
27
-2
3
-80
-51
34
-65
0
-27
4
5
-4
14
-2
-9
-1
-16
5
-7
17
10
-6
33
-3
-34
18
-12
10
-14
20
35
24
5
3
-5
21
7
-3
-17
-15
-12
14
-14
10
36
29
-1
-8
-3
-9
-27
4
22
8
-13
-17
-2
-9
-13
9
-35
-34
29
-14
-35
-7
7
-24
-54
65
5
-31
29
1
13
70
18
-3
27
-63
6
-21
-37
7
6
-20
13
8
55
29
-11
-20
-40
50
73
108
-19
-33
-8
-18
-3
-19
-12
-2
70
-30
3
-3
-33
4
-16
-14
31
-6
79
21
-5
40
6
14
34
-47
46
-6
8
-3
-20
3
-16
-15
8
10
22
-16
-31
-4
10
-3
-23
-4
-12
63
-3
-13
15
-15
3
-21
26
0
42
-13
-40
-13
-55
7
-9
-2
13
-5
7
17
-5
-23
5
-1
22
3
11
-8
-2
-4
0
-7
-1
-13
-21
-1
10
63
-27
1
-12
2
-41
17
-2
-12
-14
5
8
5
30
-10
1
29
6
-4
2
1
3
17
-13
-1
19
18
-11
20
-1
-6
8
-17
-7
-22
-11
-13
5
-42
-3
-20
-5
-17
-7
51
13
2
-11
-11
-13
-22
-3
3
-3
1
-5
7
2
12
16
25
-12
11
14
17
2
-5
16
-8
12
11
-2
-34
13
63
20
-51
94
-33
-23
-15
-30
-5
-8
-4
1
-18
-42
56
25
48
8
-48
42
-41
13
36
22
56
-38
-33
30
13
-19
-61
-15
-9
-12
1
-44
-37
58
-23
36
-36
-15
32
-100
-36
2
-18
-8
-14
-38
49
-55
62
5
-26
-6
-1
26
0
-22
-4
-6
51
-11
20
-4
-42
-31
47
-13
1
-7
-6
21
3
-15
-33
-16
-2
31
79
-8
-13
-16
-16
19
-19
-7
-19
-26
9
-30
4
-10
1
23
-11
-15
-21
-26
-20
-6
-30
7
-29
-23
-19
12
21
-13
17
-9
-12
10
9
-1
-2
61
14
2
9
-9
12
1
13
-15
-9
25
24
4
6
23
3
-31
-9
25
17
-6
10
22
-5
-22
-27
49
0
-21
-21
45
2
44
21
-26
-54
-20
-17
0
-50
-24
-76
22
16
-23
37
25
-6
-25
54
-11
12
-14
14
1
-12
-26
-61
18
17
-50
67
-32
-39
53
-21
-29
4
25
4
-37
-16
23
-1
-7
-6
-3
5
-9
6
12
-25
-9
-12
-1
-27
-4
-12
4
53
-11
-3
4
-22
12
44
2
-23
45
-8
-6
1
20
54
36
41
-32
49
-19
0
21
6
23
2
1
2
37
9
-16
3
3
7
2
3
7
1
-23
-12
-1
-6
-3
54
18
7
41
12
2
-7
-11
-16
-14
9
-1
-8
-1
12
0
4
15
19
20
4
-2
-4
15
17
-23
-16
11
22
-1
1
32
53
5
24
-18
-3
-19
-9
21
36
-32
6
28
3
-8
13
-16
42
-5
-25
-17
6
3
-2
9
10
-2
41
7
1
-10
20
15
8
-5
28
11
-21
-16
7
-12
-72
-27
-6
-10
6
-16
42
-16
-23
4
-3
28
0
-19
6
-24
-9
1
-21
4
-5
-19
30
-15
-8
-7
-12
32
-4
-21
59
-14
15
1
0
12
11
-2
17
-16
6
2
0
5
-28
-11
2
9
28
-8
38
-4
-40
-4
-15
-8
31
-24
4
-18
-11
-2
-20
-12
-9
9
-17
-108
-13
-55
14
-31
-36
8
-29
-12
30
12
11
30
28
25
35
48
10
4
16
33
12
-8
3
21
29
-19
8
-1
-28
65
-8
-14
-4
-30
-7
15
-7
4
49
-28
9
33
36
13
2
41
-42
-12
14
-48
11
-35
18
-27
-15
-36
64
-44
-20
-21
-8
-19
36
-45
-35
-36
-4
-14
-37
15
5
-21
-35
-46
-7
28
-61
-62
79
59
-32
-2
68
-6
87
-4
-12
-2
-8
-5
9
17
64
-24
-5
-32
25
-23
12
-8
-10
-39
-35
-8
1
-15
16
18
0
-9
44
8
-19
20
-25
-23
-17
76
10
-31
24
0
25
3
10
-25
-28
60
-48
-61
-17
-30
40
-24
5
-15
-25
25
9
13
1
15
5
11
-3
-18
-14
4
-20
7
22
-16
1
9
-7
14
-1
-3
-41
8
-11
5
1
2
-7
-6
-1
2
22
-6
1
8
-24
-2
-17
-8
-4
-17
-21
1
19
5
-2
-2
5
0
-14
-4
-16
9
-13
-25
-12
10
-22
-15
20
59
12
11
22
-5
-5
-16
-15
5
67
-53
-9
9
-20
9
-4
5
0
-23
-32
-8
12
3
93
3
17
-24
-6
-38
16
-22
-17
4
-31
-7
-18
5
16
-23
-24
51
37
-39
5
-55
-39
3
-62
-5
-34
34
-9
-11
81
-22
31
20
-1
-1
-21
-18
-16
-12
-24
27
7
63
-41
-1
30
-32
50
33
127
-23
-47
-3
2
-20
-11
-25
-43
29
-22
31
-2
-6
-2
-40
4
21
-26
17
6
-2
-16
6
-16
13
-8
-37
24
11
15
-12
41
31
16
-17
-10
-26
3
-8
22
-4
19
6
25
-9
56
11
-8
-8
13
10
-3
26
-22
22
26
10
-18
-6
-4
-15
-18
1
-1
23
-6
23
14
-13
27
-2
-3
6
-20
13
10
-1
12
-12
-8
20
-24
-11
6
12
6
-30
-1
0
40
-8
-1
27
42
18
-21
-7
13
-27
-10
25
1
-21
-27
16
-7
-1
12
9
15
-40
2
20
-10
-9
-29
-4
17
15
4
-20
4
0
4
13
-14
-3
2
-25
-3
-4
11
-18
0
-11
25
15
-4
-2
20
18
1
-19
6
-6
-23
11
-5
34
-14
-9
-1
9
6
10
-1
-51
2
4
10
44
14
-9
-2
0
1
8
-16
-32
16
71
-7
2
-35
-16
-11
41
5
-5
8
-5
-20
-6
-1
6
-4
1
-40
25
-75
47
1
25
5
-7
22
-2
-18
12
-37
-42
-19
-25
29
7
7
-6
-17
24
2
37
3
0
2
-18
-18
-26
-10
8
-48
-3
2
-13
-17
-4
9
-20
-2
5
-7
18
-6
-3
24
-4
11
19
125
-42
12
16
-12
-23
-34
-27
-23
11
-28
-7
-14
-7
1
-12
32
79
-7
16
-18
-12
44
56
27
36
-34
0
-1
-11
24
-5
39
-24
32
-23
-52
24
17
-93
-9
2
-12
-2
13
-1
70
21
-11
-25
6
16
14
-5
13
0
-19
21
-2
-24
-3
-20
-6
14
-1
46
-14
-23
29
19
40
-7
-37
-11
4
-21
-22
-29
14
-22
32
6
11
-1
-2
-10
-17
16
19
20
16
-2
7
3
-20
4
-12
-2
-4
5
9
-19
26
12
5
-18
3
12
-1
12
-13
-11
-21
-6
-23
-12
-43
-32
-45
55
6
26
-22
4
6
-29
34
29
11
-5
-8
-7
-18
-4
23
34
-8
4
-9
1
-3
-9
-16
16
59
16
-12
-7
47
17
4
3
1
-18
-9
-35
31
13
5
-6
-8
-21
-10
17
-3
-11
74
27
-17
-20
7
6
-20
12
33
-11
-31
-7
-12
13
-12
42
-16
3
1
-28
-14
33
15
-52
-67
-21
-30
12
0
-17
23
50
3
-31
-11
19
8
-7
-16
-8
-1
-7
-2
8
-9
10
0
13
-20
-19
28
-22
0
-2
14
5
-15
-2
6
35
-18
6
7
-9
-6
-1
-7
-4
-27
47
7
7
-25
2
27
30
-17
19
12
-38
-14
-24
-14
8
-10
52
2
5
-2
-5
-7
-11
8
3
-5
4
33
8
36
4
20
-4
22
-11
6
-8
-5
-1
6
-11
10
-4
5
-5
1
29
5
-3
-23
16
14
-2
24
3
8
-4
-9
0
3
7
2
41
-20
-15
-20
1
-2
-9
-6
-30
-11
-11
24
-7
-1
-16
2
-39
21
20
-20
-5
0
1
-13
-5
20
-15
24
-11
-12
-14
-17
-3
21
11
-3
-12
-39
-36
41
-12
-63
-15
-5
-3
-45
-10
-15
-7
4
19
2
6
2
-10
18
3
14
-5
15
-10
23
19
-3
12
-24
57
-9
-5
16
10
-17
0
17
23
-16
-12
-15
-21
3
0
2
-14
-46
-13
15
-3
9
-19
-12
-34
23
8
-19
8
10
10
-16
-17
11
-8
-5
-3
-5
2
6
-9
4
3
-20
28
-17
-14
11
37
13
-10
23
0
11
2
-61
-21
-16
8
3
0
16
4
6
-13
37
-40
-70
-20
-35
-1
27
-5
44
-18
-21
1
1
0
9
-12
25
-6
-19
-22
4
11
-8
25
12
-11
-27
8
20
15
0
-32
-9
-3
-26
9
12
-11
-19
22
9
-18
17
16
-24
-7
0
10
110
50
-18
1
-6
-5
-8
32
1
34
24
-10
-24
16
-20
1
-10
-1
4
-17
5
-11
-23
-9
6
-5
-4
-19
-26
38
-11
58
-6
-1
20
-6
-2
3
7
-16
-7
-6
-22
-4
-5
6
-8
28
13
-38
42
-27
18
-41
-11
-11
12
0
-29
-43
17
-9
16
-11
40
-11
-17
-13
-9
-29
-44
37
-19
14
-21
-36
-21
-8
-28
-11
-57
-33
-60
-20
42
-10
-23
-2
46
-29
-19
-2
15
-19
3
82
-5
7
29
-8
-15
-37
18
-12
3
-4
-21
-14
-1
34
20
20
-18
24
-11
19
6
-40
-28
20
6
-2
-38
2
102
17
-39
38
86
-11
-13
-16
-40
4
3
-34
-4
4
-8
16
69
2
-22
-34
31
26
24
-30
35
81
-55
31
-9
0
-3
0
-16
4
13
-26
-9
-15
-1
8
-23
-29
20
-29
-13
-6
21
-3
-1
15
48
-11
-15
-12
46
28
-10
-28
8
-20
48
-11
-24
-36
14
-4
7
-58
-30
23
-36
-40
19
-34
17
0
-15
-26
-31
43
-26
4
67
43
-6
26
7
-6
36
1
-1
6
5
22
-15
-14
31
-21
-11
-9
0
39
-16
14
-8
-21
-1
2
5
-22
5
35
-5
-7
10
40
-21
-28
-2
5
-44
17
32
4
13
-27
52
-13
-11
-3
2
-2
-37
-18
14
3
48
-3
59
-18
6
30
46
-52
-48
-12
11
-39
-12
6
-59
-3
39
22
-110
19
-53
11
-9
-21
22
-2
19
22
-22
109
26
-15
-43
60
-11
-18
-43
-69
0
-46
-12
-16
30
-17
-16
-1
6
6
4
1
1
-12
8
1
-8
-17
-19
39
-5
-28
-19
-6
11
18
-18
4
-33
-13
9
4
-5
-6
-8
0
-17
-12
0
-12
-3
30
23
-11
-20
38
-16
-21
-3
12
-8
-16
1
7
0
-7
6
4
-16
-2
-6
-27
-22
45
43
29
39
9
-4
77
2
1
64
-74
4
19
-25
15
-20
-22
6
13
27
-39
14
71
37
-33
37
27
-6
31
-25
-46
13
6
-31
4
-1
11
-42
10
-8
2
-4
10
3
-17
-46
-6
-17
-34
43
30
-15
-54
-18
13
-6
-14
-3
28
-32
1
21
1
-1
2
-25
9
-2
-6
-9
60
9
-30
4
1
8
-6
-7
3
-6
38
-25
17
-7
13
3
-37
127
4
10
15
40
-3
-13
5
-32
-20
28
0
39
-5
-1
-8
21
-27
-32
17
-40
0
26
-29
-36
-8
31
-45
7
89
3
16
4
18
-40
15
-15
-9
-31
34
18
-21
2
-3
10
-11
16
-15
-43
-13
17
-9
6
11
-15
-22
0
-32
32
22
-14
-21
6
-26
-10
1
33
-17
-5
-11
-7
16
-3
-1
7
-11
-3
-25
-6
10
-3
19
-10
-7
65
-9
14
-7
17
13
6
26
-4
0
2
-8
9
-2
31
-7
6
-19
-5
0
6
-12
0
-10
-16
-21
-3
-5
-22
-5
23
8
-13
4
8
0
-1
23
6
1
-10
17
6
1
-15
0
-1
-5
17
10
25
28
-25
19
-7
8
19
-32
2
4
-6
-3
19
-14
-17
21
-1
-15
3
23
13
23
-25
10
12
39
2
-8
31
-8
-3
-8
-32
-1
10
2
0
-35
3
-19
10
15
16
-18
44
15
-13
4
8
-25
-29
-32
-23
11
6
3
18
3
26
-1
26
12
9
-19
-28
-30
5
4
-10
-5
12
5
9
11
9
8
-14
4
37
-12
28
14
0
2
6
8
10
7
-10
19
31
0
-47
-11
24
9
-3
27
-16
-18
-9
26
-11
-2
-14
2
6
-4
1
13
-6
16
-14
7
-5
47
9
-2
-57
-4
-19
-28
-34
-33
6
4
-12
-3
3
21
-7
-16
29
-4
24
3
-13
48
-54
-5
-20
-9
-62
-24
16
-9
-12
4
-24
-9
-9
26
-7
1
-2
19
25
40
-28
11
-13
-5
16
7
35
4
-71
6
2
-18
21
-7
21
-27
3
9
9
-9
-4
6
18
-17
-4
-3
6
29
10
9
-12
-3
-12
-21
59
15
-25
19
14
-17
20
11
-10
-26
-21
30
6
-25
-15
-38
-17
5
-10
-17
-8
-12
50
29
1
9
3
-18
-31
-1
-16
24
101
-3
11
-9
-8
-17
-9
-9
14
-47
30
-21
16
-12
-25
-5
-24
-50
-4
-8
-18
-28
10
0
4
-24
21
21
7
1
-13
2
-18
14
-4
7
17
26
18
-9
1
1
-5
-3
-17
2
-1
7
-3
-1
14
-5
-26
3
7
5
9
22
-36
1
21
-19
20
12
-6
12
-3
-6
6
-2
-29
-5
0
-3
4
0
-5
40
2
24
-29
25
-11
12
4
-15
20
37
-32
0
-6
-3
2
-36
11
-6
1
15
-35
-9
4
43
-13
-8
-5
40
27
-35
9
22
21
33
-18
-6
-17
-1
-7
-1
12
4
14
-23
9
-10
17
6
10
9
3
1
9
-44
-4
-11
11
8
13
9
3
-6
-4
1
-1
5
-14
17
-12
-7
-10
1
-8
10
-5
-4
-1
-7
8
4
12
-9
7
33
2
19
11
8
2
-20
-8
-3
-10
3
-28
-27
-6
-25
5
24
-3
-17
23
-10
-13
-5
8
-8
-21
-17
13
4
4
3
4
4
-7
-11
-25
4
6
15
0
6
-7
-21
7
8
24
47
19
4
2
35
-2
-11
12
43
16
-26
-11
10
10
0
-3
26
-13
15
12
13
-12
13
-22
17
2
11
-17
-7
-3
-14
15
-17
18
31
19
-19
-22
11
-2
-23
11
48
19
-24
15
-19
33
-3
6
19
6
28
-6
-16
12
-27
-14
-39
-7
8
5
-6
-1
-8
-17
5
2
-15
-48
32
-24
-5
-28
73
-14
11
-32
-17
44
1
-16
11
-5
0
-12
11
0
-3
0
-29
38
-12
11
-1
-42
26
-5
-5
10
-5
8
-16
25
-39
-4
37
42
3
6
-23
4
-31
-24
3
-4
3
1
-25
-26
11
-14
14
55
9
42
-12
8
-2
15
-26
-26
17
16
11
11
-19
-4
-41
-22
-4
-22
24
-15
34
6
-49
-18
-17
-16
8
-2
-6
25
6
2
-16
-3
17
-4
-6
-21
24
0
-23
-2
3
-35
-5
-2
-12
-21
3
1
30
-20
6
-2
-14
-10
-11
-15
-12
0
2
1
24
5
1
3
-33
21
40
11
-2
1
9
-17
6
32
-2
16
-13
4
2
7
25
-33
-12
-7
-1
-1
-57
-20
-8
-76
11
-6
10
15
-8
-22
7
-25
-11
-9
57
14
38
11
3
-4
-1
6
23
43
-7
10
30
23
-21
20
-6
-4
-26
43
-16
19
-14
12
20
-18
13
7
-3
7
-11
-4
83
12
-2
-42
2
-5
42
-12
-23
-6
-14
-18
-2
9
-1
11
-1
17
-17
-10
10
5
-14
-6
-9
-29
-19
6
8
37
22
-7
-24
-24
-22
5
4
-15
-2
-7
-16
-7
-6
-14
-15
-28
89
33
-46
6
34
-25
-36
-34
42
-21
17
-41
18
-3
-3
-5
19
-7
7
26
-8
12
11
3
-7
7
-13
19
48
-57
44
-38
35
-9
26
-7
-14
-5
-21
14
15
12
-11
48
21
3
-8
13
6
-3
0
-2
23
-1
25
16
7
-16
-2
12
-6
-9
-10
-9
-1
-2
-4
-12
-2
12
-8
6
-5
16
16
35
-5
-23
-6
-32
-9
5
4
-3
-13
-3
18
1
10
-7
14
-11
4
-6
-6
-8
12
-8
-35
5
-18
-7
25
-3
-22
-3
1
72
-3
1
-3
-32
8
-32
11
-8
-4
10
-20
11
4
11
-13
-20
-18
6
-1
-67
29
2
29
27
19
32
16
41
13
2
0
-25
22
2
1
-10
-6
3
-16
-1
-13
-48
-31
34
-17
21
14
29
-18
12
12
-17
-4
-20
-19
21
-18
-5
3
-25
-2
15
-30
21
-24
-7
39
-80
45
4
-52
2
-34
15
1
-7
41
19
26
-23
-24
3
19
5
30
48
10
24
-6
14
4
13
7
2
-8
-6
-17
-5
-8
22
-7
19
22
8
-8
-11
25
-1
-40
-6
16
-7
8
1
-8
5
-9
5
8
-24
6
-43
-18
22
16
-11
33
7
-2
-15
27
9
12
30
3
-10
13
27
-2
-38
-30
1
2
21
14
8
-14
3
-14
-27
-15
9
-36
-6
31
12
-12
3
-49
-32
8
29
-15
33
-33
5
19
-23
8
4
47
22
8
-4
-36
-10
-9
-10
-5
4
-2
-14
-7
10
12
-20
-3
-18
-2
4
-13
51
-13
-1
-4
29
-25
-13
-11
-20
-12
8
12
-2
28
12
-17
-7
-3
-38
-25
4
-5
-22
60
11
-32
19
-5
4
-24
2
42
0
29
-18
-12
-13
9
-12
-11
1
-4
0
-14
3
2
-7
0
28
-8
36
-22
-19
-12
-1
-4
-8
-24
14
-7
-7
5
7
-10
-11
-7
-4
4
-18
-4
10
1
3
-14
-9
-1
20
-7
-18
-9
5
-5
2
-7
-5
-2
-17
8
27
12
-11
8
6
-30
-13
14
18
-5
21
4
9
3
29
-17
-1
-8
4
-15
6
-6
11
34
-41
-19
1
-28
7
40
-12
25
7
48
-8
46
20
-16
15
-9
5
4
4
-8
9
13
-3
-11
-6
-46
-41
-11
-24
-3
-2
-23
-31
-7
-15
15
2
17
-12
-28
17
9
32
1
-4
-39
-6
-39
-27
2
23
22
53
0
33
-40
4
24
-10
-3
10
5
11
1
-7
12
-16
-9
-9
-37
3
-2
-4
-25
-20
30
30
29
4
-5
3
-13
-18
0
15
5
49
22
-9
2
34
-19
-10
3
-19
-20
-24
-16
-19
1
21
15
20
-4
9
0
21
54
17
-23
-16
23
17
-4
-3
-9
-127
26
-97
127
-30
16
27
5
-8
10
-33
-22
-14
7
9
-3
-4
-5
61
11
-60
17
16
-45
-1
-23
14
1
14
-55
-65
-36
30
32
-16
56
-34
44
-14
-8
19
-4
-7
71
54
-16
-7
5
-4
-51
-18
-29
-30
34
20
1
-39
30
13
34
-22
-27
-4
-10
50
-13
10
-2
-4
-3
7
-34
3
-5
-8
62
-25
-4
-31
18
49
-50
12
45
-18
4
-26
-54
-23
3
-18
9
-18
46
-22
19
23
24
-15
15
-4
-35
0
-19
23
-29
-41
-10
-7
-15
1
-18
5
19
30
22
10
-20
-9
-30
-9
-7
-1
-20
3
-18
-21
-16
27
1
4
12
-31
45
-17
-29
37
44
21
-18
-11
17
-4
-22
-3
21
18
13
23
-3
65
-31
-32
5
-8
25
16
17
5
-9
4
10
-45
1
20
5
-39
-7
-16
0
27
26
42
-27
21
-26
-53
25
-12
4
11
31
8
-17
-19
-22
33
-38
3
21
-2
1
-15
-15
7
2
-1
43
-41
17
34
14
-6
29
-5
-2
-8
1
23
-20
57
38
3
-9
-33
12
-11
4
1
44
-11
-5
9
3
-19
23
13
-8
7
5
-9
0
15
14
-13
-24
-6
1
-11
-25
-14
-1
-8
14
15
13
-11
-17
35
-15
7
-6
9
-14
19
22
-24
-23
6
-20
14
-15
3
20
-5
38
17
8
35
-26
1
25
-3
16
12
7
-13
-17
-10
15
26
-25
0
4
0
5
24
-17
37
-1
20
56
-6
8
43
-21
-2
-5
-19
10
23
-17
-14
47
59
-13
-1
-29
-31
-7
-22
-13
-2
21
-5
39
-4
-51
-20
0
0
16
-10
-5
-27
10
3
37
-7
1
21
9
16
14
-11
-9
6
-25
9
-34
-11
-27
-11
5
-18
37
37
-38
-12
-5
-15
-13
21
-1
6
2
-34
-2
16
-10
-10
-7
21
3
40
31
-46
1
22
-10
-10
2
-20
-11
20
23
13
25
-26
-1
-10
-21
-14
-11
-3
-30
-5
-18
-8
-39
1
14
-8
-3
16
20
-11
-7
14
-13
11
8
58
19
1
-10
-19
-28
5
-7
10
-15
12
47
12
25
-7
5
2
5
-35
-5
9
26
9
23
-23
0
-26
-1
-17
10
-16
-31
-1
25
4
9
-1
-38
-7
-32
0
14
-19
-1
-11
-9
8
-1
29
-22
21
23
-31
7
-18
-21
-9
-10
53
-19
32
14
20
39
4
9
7
2
-10
-10
-34
6
-16
-24
-21
3
7
31
-11
31
10
-15
-11
7
-49
-2
-12
40
-4
-26
10
9
-24
-15
-14
-13
-5
20
35
6
29
8
-9
-18
-16
-33
33
21
-21
11
6
28
-17
-22
20
23
-24
-1
53
1
-15
18
-3
4
-3
16
15
-33
8
-4
-11
4
2
-33
62
-10
-8
7
20
7
15
4
-11
7
-14
-12
-15
18
-19
9
5
-12
20
46
16
12
21
-3
-15
-12
0
-8
-9
5
-30
7
-2
-16
-11
-7
-19
4
20
-33
39
-21
-34
-12
-10
-17
-19
-31
75
14
-25
-9
-13
-1
21
3
-29
40
-24
-15
-23
0
23
3
-22
-9
-16
-22
-4
34
-45
-6
-35
0
-18
-28
-4
30
21
17
-10
2
-25
-13
-31
-2
9
11
-10
-17
-3
-21
10
11
-52
5
50
19
6
1
-7
0
32
-8
27
-19
53
5
25
4
-11
15
-3
3
1
17
-7
-25
14
18
1
-9
-4
-26
25
-3
-9
-7
11
20
-1
1
-10
-6
-1
-10
1
-6
12
-20
6
-25
-63
10
1
42
-8
-28
-7
-4
-1
-33
-14
0
-43
6
4
4
9
-5
-3
5
4
11
-36
-8
-33
20
10
-3
-3
-14
27
18
-12
22
-23
14
-11
45
4
12
-4
1
-8
2
-1
8
-12
-14
43
-1
-16
-16
21
-15
2
7
-6
7
2
12
4
-8
-6
7
10
-4
6
-6
-6
-5
5
5
-29
-13
18
11
-13
9
6
4
19
-4
-6
-4
-7
-15
19
4
0
7
-7
-2
12
21
4
-6
-15
-1
-7
18
2
27
-23
-9
12
13
7
-22
59
-16
4
-12
21
-11
-5
17
6
-8
42
22
10
18
-13
-2
1
0
7
62
42
26
2
-32
-8
13
5
1
13
-25
-13
9
24
13
7
-9
51
-20
-10
-16
44
19
-18
-11
47
-20
-12
-13
-10
7
-4
28
10
19
-4
21
-4
-1
-50
4
-52
2
-27
-10
-4
16
-2
-18
12
-22
-8
7
-2
30
4
-12
-4
-19
-9
41
-15
-1
-2
4
-24
-22
16
-25
2
37
-34
3
-29
-22
-9
-7
-7
-5
-3
-12
-7
1
-9
1
4
10
-33
8
16
-9
13
12
-20
-4
1
9
1
-5
-35
19
29
8
4
-6
-20
-16
19
-14
25
-36
6
33
-24
-2
-16
0
-18
-19
-32
-18
-12
-9
-24
6
40
14
-5
-2
33
-43
28
22
1
72
48
2
-8
-27
-16
-4
24
5
-14
-18
0
36
-19
-8
-13
14
-5
-15
-18
19
-46
20
-44
28
-16
52
32
26
-10
8
-47
-11
-20
52
10
-2
11
2
4
7
-23
8
31
48
9
-5
7
-4
21
-29
46
-7
1
19
-5
-5
-3
-10
3
28
16
9
-26
32
48
-10
-2
10
28
14
-20
31
2
-14
84
-16
-19
-21
5
-34
6
-12
11
-8
-35
-5
-16
8
-24
6
-28
13
4
-13
3
3
33
-21
-8
18
-10
-19
-43
-39
-4
11
26
-28
45
36
7
-23
-13
-43
-8
-14
16
-10
0
1
8
-44
-9
-3
32
44
-6
-20
119
17
24
-13
27
-2
-17
12
-29
-9
-12
-12
8
0
6
-77
-27
15
-8
-14
25
-13
6
13
-9
24
11
-15
3
-19
-8
-6
-24
20
-11
23
-25
0
35
0
8
24
18
-7
-20
-7
-13
-28
-4
10
-10
12
1
1
-6
-10
-8
6
0
-14
-6
-11
-14
-26
-3
13
-6
-6
-32
29
-8
-19
-3
-4
21
13
-1
-7
-7
12
-12
-3
-12
37
-4
28
2
8
-14
-1
6
-16
3
8
15
6
-23
52
15
7
11
-24
-23
16
-28
-9
6
1
-12
23
14
-35
33
-16
1
33
15
-5
-18
-11
-12
13
46
-6
54
-29
-13
-26
-19
-12
-22
7
5
6
13
0
-13
-11
-24
-2
-21
45
8
-26
5
-21
-53
9
9
19
-45
27
-5
4
-27
-25
-13
-11
-4
3
-28
5
60
10
-30
-12
13
-32
2
-12
43
-26
6
-43
-23
-12
1
6
2
64
17
-18
-13
0
10
3
45
-12
4
10
-1
-19
-47
-8
-27
11
9
-4
-13
15
-1
-6
43
-12
2
10
4
-34
-48
-32
-21
25
-15
-13
16
-22
-15
-24
5
27
-13
33
-18
19
-8
0
-2
-8
9
8
-1
9
8
20
9
6
-55
60
-8
-7
-12
3
-2
-8
2
-20
7
-4
31
26
40
-1
-19
26
-12
56
17
-37
-30
51
11
-45
-23
13
4
43
14
42
1
0
-4
51
8
-13
-9
-6
42
127
70
64
-30
-27
-42
116
2
-4
14
-54
-27
-12
-9
-30
-1
-3
-127
22
0
-22
-5
-45
21
-18
4
0
-100
9
-40
58
42
35
-3
-39
-28
8
6
11
-65
6
-9
54
20
33
-3
6
-2
3
-8
-6
-4
-9
3
3
-57
-12
1
-6
-22
-5
-6
-6
2
15
-24
8
2
1
3
-3
-2
-15
-1
-22
-3
-10
-11
16
37
0
5
0
-17
15
13
-12
26
8
-3
15
12
-3
-7
-24
-9
43
-8
20
-42
-44
-2
42
-29
2
-42
9
6
-42
13
-3
-12
-11
4
-16
-23
12
4
-14
-4
14
1
-46
1
-41
72
33
-18
-2
-8
28
-5
-7
-35
34
9
7
13
20
3
2
-1
34
-3
-22
12
14
-1
-6
74
8
-10
14
-16
7
-16
9
20
14
5
-4
38
0
-25
27
-19
23
1
-18
3
60
-14
55
-30
22
-18
-15
-7
-13
1
-11
30
-22
3
-5
-19
-30
25
-3
-11
-13
13
-6
19
-14
-20
-1
-4
13
15
24
2
57
27
-10
15
-5
19
-5
24
-12
5
4
-8
-8
-13
0
-6
1
22
-1
-18
4
9
23
27
17
-16
-2
-14
-2
0
0
-2
23
-5
16
-23
-3
-7
-5
-27
27
-5
-10
30
17
5
-12
11
-1
25
-6
10
0
-2
25
-9
5
-1
-6
9
-26
5
-12
-8
-5
-5
5
4
9
18
33
-3
3
12
-36
13
17
-4
-31
-21
-22
11
1
-20
23
-13
-26
10
13
-15
4
6
0
22
-4
-21
-20
7
-35
0
10
-15
18
-29
-41
-4
23
-6
33
-10
35
-5
-11
-7
-37
27
33
-48
-12
0
-35
22
43
9
7
-32
12
-3
13
42
27
6
10
-3
-43
11
4
-34
-24
29
-38
3
-5
-8
-23
-4
-3
75
7
-23
-5
-30
-8
76
-29
-12
-14
-5
-11
12
-41
-13
104
-61
-29
-75
18
0
-17
24
41
-7
51
-23
15
-3
-8
-6
41
-11
2
-18
-49
-19
26
-2
18
28
-3
39
-46
19
-1
5
5
22
-11
33
-6
-3
25
-14
-26
-35
-5
-11
-17
-1
15
71
-20
19
9
-49
11
-9
19
-17
-10
15
-12
13
13
11
-48
-41
6
-11
16
-6
25
6
51
-15
56
22
-1
-10
10
1
2
-30
-3
23
-7
19
-3
11
-13
-3
-5
-5
49
-5
1
-19
6
-17
-3
-7
19
-46
-8
-6
-11
35
62
17
-27
1
16
0
23
42
1
10
-8
17
-24
14
-14
2
22
10
-13
84
3
-8
-3
-2
18
-12
13
7
-14
12
-15
4
-12
36
-17
0
-5
-19
-9
-18
15
6
17
-11
-7
21
-25
8
-19
-5
-6
7
-4
-2
12
24
-16
7
6
-9
13
-15
16
-4
16
21
-9
13
-4
-3
-14
-10
9
-5
-8
-3
13
-34
-6
0
12
-1
-2
-7
-16
6
8
-44
14
-6
-8
-30
6
22
-22
-12
-2
8
-23
5
-20
33
4
5
2
17
-5
17
51
10
31
-1
38
51
11
13
-7
7
115
-4
8
51
-17
-27
22
40
14
-35
-4
-44
-34
-1
-8
5
34
5
-48
12
36
-65
26
-33
-20
8
106
-47
-92
40
-14
-1
-6
4
11
-4
5
27
20
1
-3
9
-23
40
2
19
-20
-13
7
-16
-16
-9
13
14
3
14
-13
8
21
45
10
-21
26
14
-19
-19
-52
-5
7
-27
-39
31
10
29
9
-7
-19
-19
6
-13
-29
0
-17
-12
-10
-6
-48
-20
-14
-7
-44
2
-16
10
35
-4
-30
-14
47
-14
-23
-18
1
5
27
5
-6
19
13
19
13
3
26
6
-3
-17
35
-23
2
1
-11
2
3
-1
-18
6
-5
-15
24
-20
11
16
9
22
5
-18
-6
10
-8
17
20
-22
-4
-6
2
-17
21
2
-13
-28
12
-14
-10
-31
0
-31
22
15
3
-17
-12
8
-3
5
-1
10
-28
11
29
4
-16
-13
1
0
3
-21
-4
-10
-1
11
-14
-1
-19
10
14
-3
7
39
21
-3
5
15
-25
-6
-4
43
8
14
-6
-13
31
23
8
18
-14
-15
13
12
0
-11
23
3
16
28
27
26
8
-17
0
-18
6
13
-5
6
8
8
-8
14
17
-9
52
-13
60
4
9
-30
20
-47
-7
-11
59
-7
8
-11
12
-18
-8
38
-35
-33
19
1
-39
-1
2
-9
7
-2
-30
-11
-9
-63
-16
-3
-24
19
-13
3
10
19
-5
-33
25
33
-12
-2
1
-5
17
8
-9
-9
5
28
13
-5
22
-4
-16
7
2
-15
-12
6
12
-10
-7
8
7
-3
0
5
-4
12
-19
44
17
35
-1
8
4
5
9
6
2
27
-9
-27
9
5
-5
-16
14
3
-12
26
-1
42
-57
17
-28
-20
-66
9
17
5
-26
-13
-10
1
38
-50
2
21
-9
-38
30
48
-30
-14
29
3
-20
-18
69
-16
35
-74
2
-14
-21
-26
-19
8
13
12
-4
42
45
-22
-25
0
-4
7
41
-18
21
12
0
30
-13
-3
-11
13
44
-30
9
25
-2
-6
-18
31
-6
-26
-16
-38
15
-17
11
-8
3
38
5
47
-1
1
5
-7
-13
-2
4
-31
15
3
22
-3
-46
-20
4
-22
35
3
-11
3
0
-16
70
-12
-26
10
16
-2
-19
74
8
-17
1
-17
-16
77
25
10
-37
5
47
-9
13
-17
11
54
6
-5
3
57
81
49
-30
-28
-37
10
13
35
-32
12
36
-32
-9
9
22
-12
19
2
-24
17
-43
38
-43
-15
21
33
-28
-15
-34
-4
27
3
1
0
-8
-1
-23
3
40
19
23
-5
-13
14
8
8
40
42
-23
0
-5
1
-7
0
22
11
20
-3
-39
-20
-2
-10
-22
-10
-14
-9
-16
10
10
32
21
49
5
10
16
-8
4
11
11
21
-12
-5
-30
-32
-32
16
21
-10
2
18
-33
18
9
45
2
-19
3
18
-7
8
7
-9
15
50
17
4
-6
3
1
6
-71
20
-18
-56
50
-16
-41
-9
-52
29
-56
-17
30
82
-3
5
-10
-21
-9
24
-22
-8
5
41
-2
18
-2
-29
-13
9
0
-17
101
45
-28
-43
18
-15
-13
-21
-5
31
16
-8
45
-9
37
14
13
10
-8
9
-7
7
-1
-3
-10
-12
-4
5
24
7
6
-9
12
19
-6
21
-17
18
-12
10
-13
3
-6
12
-25
20
7
-8
26
33
-13
7
12
-5
1
1
-6
1
6
17
-30
11
17
-14
3
7
23
-12
-5
7
-2
23
-7
25
1
-14
29
19
1
13
-9
-15
-4
-2
-19
-7
-4
18
-1
7
-5
9
32
-34
39
11
-1
-61
-1
-19
-26
-5
-36
12
-36
-8
36
29
-3
-8
-7
0
-10
-7
-23
-5
22
-9
-17
31
-24
-75
2
4
-38
79
-1
30
-21
-23
-12
37
17
-21
-14
12
8
-3
2
-7
-49
4
7
-29
24
-30
8
36
-21
-13
-9
2
22
53
-8
9
-16
-8
-17
-3
15
-10
-23
-13
-27
5
8
27
14
106
2
-5
-3
-34
-13
1
5
2
2
-25
-6
-9
5
-16
11
11
16
23
20
62
7
-9
21
-12
-8
19
7
-14
-13
-9
-31
-21
-26
-15
43
-21
25
-34
-2
13
-27
8
-10
-5
19
44
-41
-34
20
18
16
-10
-13
11
-23
3
-6
-15
-4
-12
-40
30
36
-19
-15
5
18
-8
-6
-37
21
6
83
0
19
20
-18
35
28
17
-9
2
0
-39
-26
-15
-5
7
-18
-19
-31
12
-28
7
-16
8
-4
-21
48
7
-11
-6
-26
-9
-14
-26
20
11
-39
10
23
2
1
2
11
-21
3
-30
-8
39
-20
-7
3
-21
1
-15
-18
6
55
-3
22
-17
0
-11
-4
1
-17
1
-13
0
13
2
-6
26
20
-4
1
2
-1
-2
-6
20
-1
30
-2
-21
-18
-24
19
9
-8
8
52
-26
19
4
-14
-73
37
33
-21
0
9
-17
0
27
-3
13
-6
-25
1
-8
-13
14
89
25
3
7
26
25
-11
-18
-11
-15
64
-11
1
22
-2
-1
-6
-28
-23
-17
1
23
-25
2
-22
-3
-45
5
11
5
18
-23
-3
-19
-11
-27
15
32
48
51
13
-12
-49
30
-5
14
19
-6
6
-9
-26
-11
-21
-7
9
-43
-19
25
14
20
-8
-41
-7
-32
-1
26
-7
-3
13
-3
-7
13
2
-6
-30
20
-2
-24
29
14
1
12
-6
4
-5
-18
-41
-16
11
10
-5
-21
-20
6
-7
-15
-17
10
8
3
-20
8
-5
-15
18
25
5
-24
4
-34
-5
-5
-5
21
-19
-5
-22
16
-16
-5
4
11
9
-15
-12
29
28
-5
37
29
-27
5
-10
-21
-11
0
-16
-6
-24
-14
-4
-4
12
-7
-7
64
2
35
-12
-39
-13
0
-29
10
5
-5
2
-7
12
25
-12
25
-6
-33
24
34
8
-7
18
-11
14
15
-30
7
-5
-19
8
-3
23
3
46
-25
-2
-3
-15
19
33
-4
-5
12
27
-4
-9
-10
53
-10
-1
-9
-8
21
-17
0
-41
-10
-2
16
-18
-19
-13
27
-5
-24
27
-7
4
17
-4
-14
-1
33
-4
49
-31
10
35
29
-11
2
34
1
-1
62
-8
4
7
-14
1
-11
13
8
-30
1
13
-9
-1
11
-18
13
16
0
-5
19
3
-9
14
-6
2
11
-13
-25
7
-5
6
25
-4
11
-6
24
23
-64
-27
-30
37
21
28
-12
40
4
61
14
-11
-17
22
-8
12
0
15
-9
12
-17
9
-22
10
12
19
14
22
-16
1
-9
12
-11
5
34
3
33
17
-15
-1
27
46
-9
-6
0
18
-19
-15
14
11
-15
77
-20
12
0
42
9
-19
-2
-15
-6
-16
-15
10
-10
47
-14
16
-7
-15
-7
40
32
50
0
-21
-5
8
-25
-2
4
5
-17
-51
30
43
3
-19
-7
13
7
2
-8
18
-15
2
-20
5
-32
10
15
-10
-2
0
12
27
47
11
-25
32
54
-8
-3
-11
-9
-18
37
-21
5
-2
-1
-24
-11
-22
21
10
-8
-14
12
-10
0
-13
0
-12
-8
-14
3
-11
-2
-2
1
-20
-27
-31
8
6
33
7
-26
19
-20
-10
-2
-5
23
-18
-3
-1
-15
7
-7
12
9
2
4
3
-10
5
-37
-14
19
-15
2
31
-22
-6
14
0
-9
-10
12
51
-10
-1
7
13
-10
-26
11
-34
6
23
-31
35
-9
-13
-4
-19
11
-36
10
3
5
13
-14
2
16
-2
-6
-10
-15
-4
11
-43
-42
58
2
53
71
45
-20
-6
17
28
13
-10
31
3
-39
-3
-7
-4
32
-7
-3
-15
11
29
6
16
101
-18
8
47
-14
-16
-33
30
20
-14
-27
-12
-53
78
6
29
-2
27
-14
-39
-12
-13
7
-13
-21
0
-20
34
9
-6
22
-4
0
12
-4
-14
-19
-17
0
0
9
2
3
-12
7
-19
-5
-10
-13
26
5
-23
-14
3
-5
-16
-7
-1
37
33
11
31
0
-18
-6
27
-3
-9
5
-49
4
-13
8
-39
-64
20
9
-36
-9
27
4
13
16
-9
14
14
-1
-7
-6
31
2
-3
-15
8
-17
7
-47
0
63
-13
20
23
18
15
-18
-1
13
5
-10
-5
2
8
6
-27
3
-5
-8
-10
2
10
59
6
-33
-27
-11
-35
-2
9
-27
24
3
-16
33
-2
-7
-5
-27
26
1
19
-4
11
-33
2
-28
12
60
-7
34
-10
14
-13
7
6
-28
11
-24
2
-21
-19
-15
5
-9
11
22
16
-12
3
-7
-12
-43
50
13
27
-25
-33
-9
-9
10
-15
88
62
37
4
-10
-7
-1
54
-3
-49
22
2
40
33
28
-35
-20
6
-16
41
-14
33
25
-6
0
-12
-20
23
2
-13
-23
11
-19
6
22
9
-5
20
4
8
1
30
-11
-1
-42
-1
-15
-8
31
6
-15
-5
-23
16
1
-15
-2
38
2
-18
-24
7
29
-4
3
11
-15
-21
5
-18
0
15
-5
1
4
-1
-5
-14
-7
13
0
-50
-4
0
-11
17
0
1
6
18
-7
1
-4
8
-5
1
-6
27
-1
5
5
-12
-15
17
27
-4
-27
22
7
-13
-20
32
-7
-9
6
-19
12
13
-15
-10
-3
22
3
-17
-7
-4
6
5
37
-23
-7
29
-1
14
-15
21
-11
9
-34
27
1
-3
-8
5
43
31
-23
-9
-21
-17
-14
-1
-1
6
-37
4
-37
40
-2
-15
17
-9
22
-6
6
-21
-19
4
-15
18
-33
0
7
-10
-14
43
-22
4
-1
12
45
10
-9
-22
9
19
-13
7
17
-6
22
47
-1
-4
16
2
18
-18
2
5
4
50
-3
17
23
15
41
-30
4
40
-1
7
-27
-6
-9
11
-7
33
-22
9
8
21
1
-32
-22
12
-20
-6
23
-7
24
-2
13
30
-2
1
-89
0
-28
-6
7
-17
21
2
25
-10
-26
-26
-1
2
30
-27
-46
9
12
-51
3
26
-8
8
-38
-42
-42
-15
-2
22
-2
15
9
3
4
-13
25
-16
-3
-10
-2
-18
0
-4
29
-43
-9
-18
-2
16
31
1
-39
29
37
-10
3
-25
-5
4
0
-10
-35
21
5
14
-4
5
-5
11
-14
4
36
6
10
-2
-25
15
18
-21
-2
-8
2
-8
3
-1
12
28
-38
-5
-16
16
-8
0
0
13
28
4
10
-6
26
22
-2
-18
-26
6
-1
6
2
14
-16
-18
-13
-20
-31
13
-14
-20
-9
-4
-12
-4
7
3
10
29
-2
-13
4
8
-12
-29
-34
54
3
27
75
13
10
50
19
-39
14
62
-36
-2
-40
-10
3
79
5
-40
-4
-12
-23
8
-8
33
63
27
-29
-3
7
-19
-1
-8
-3
31
-36
8
36
-15
-23
-4
-22
18
0
-10
27
22
4
1
10
-7
-12
25
45
12
1
-33
2
7
-20
21
11
-7
-107
14
-22
-26
0
26
0
-1
20
26
-62
0
-62
44
25
-1
-1
2
16
-8
-16
66
-47
57
-16
44
20
-2
-14
14
-10
-19
1
4
-18
9
14
-38
9
13
6
12
9
25
-21
-3
13
-5
-21
-1
0
14
1
3
9
21
5
66
47
-16
-17
14
51
9
10
-10
6
1
1
-21
4
-29
-16
-18
-18
12
9
3
0
22
-30
-17
2
-7
-1
-6
46
14
-32
17
9
12
-15
-11
-29
14
-2
-8
-7
1
7
-3
-16
12
-4
-41
-3
-32
1
19
-24
55
-5
4
6
12
-3
-7
-14
-29
8
-10
7
23
-2
7
-8
58
19
-7
23
-23
12
-37
-33
1
15
-37
-1
-5
-10
2
3
-2
-26
-26
27
-1
16
0
-26
18
-13
33
10
11
-7
45
-9
5
13
29
30
-50
2
3
14
10
17
-15
-28
20
4
7
8
5
16
15
-8
11
5
18
13
13
-10
-7
9
0
3
9
-6
-7
6
10
5
20
5
5
-3
3
2
-16
-7
7
-3
16
-10
-6
7
8
6
15
29
-15
24
-1
-4
-21
-19
3
-6
0
-16
42
22
1
16
-13
41
24
20
0
16
-10
-1
-5
-4
-12
4
8
2
11
2
12
-11
3
-11
-9
2
18
20
4
-57
5
-5
5
14
10
-10
18
9
75
-2
10
5
57
-2
-4
-18
32
-25
31
2
14
-9
25
19
-32
-20
22
-14
-25
-25
-14
2
73
52
-5
32
-21
-22
-5
37
-8
-13
-11
23
-31
-2
6
10
29
-59
-28
49
15
-20
41
-10
-39
47
39
23
-54
-11
24
-5
-5
37
-15
-8
17
-14
-13
5
-3
-4
0
3
-19
31
-9
4
-11
-11
-27
3
-7
1
-28
8
-4
6
-16
-8
8
10
5
-37
21
-29
11
-12
-14
-23
32
-35
2
-20
24
5
-26
2
-3
-15
-19
8
37
15
-24
3
-5
-6
-2
-3
1
-4
-5
-3
-10
-17
-8
-29
-14
14
29
25
5
3
-1
0
-12
-3
19
-23
-21
19
13
19
2
-4
-10
10
12
-26
12
48
-6
-33
28
7
4
-7
-5
-4
14
-35
-14
-4
8
-17
28
10
12
-31
31
31
0
-39
-16
1
26
27
-30
7
-17
-20
14
-6
-21
44
-17
-49
24
6
22
6
6
13
-25
10
-17
12
12
0
5
8
37
5
1
-14
-19
-1
-64
-5
17
7
13
50
-5
17
-30
-6
-56
-29
38
4
-14
35
17
13
3
-31
-25
14
54
2
-23
8
-16
-32
-18
-25
48
12
3
0
6
14
-9
-45
-2
-31
15
-4
-4
0
-4
-13
3
10
31
-8
-7
-11
-16
-3
-6
10
-8
-33
39
-22
4
-61
-27
-5
-21
40
1
-24
24
-9
27
-21
3
6
16
68
36
19
16
20
34
-1
-36
-16
-31
-27
-2
25
57
0
-12
4
7
-26
-17
-9
-11
5
-15
9
-2
-17
-9
0
35
-10
39
20
3
42
-25
-18
3
-30
-8
-13
-2
-30
6
35
-9
-1
5
11
9
7
6
31
6
2
-27
0
-12
-16
10
-13
26
-3
21
-6
-19
3
-7
-2
11
-17
2
-8
12
-15
31
28
-13
-19
-19
1
-2
30
16
-15
-4
6
17
-16
3
14
0
-5
9
-1
6
33
-5
16
-31
13
6
5
0
14
-3
2
12
42
-21
10
1
-4
-12
-4
1
-31
37
39
-41
-3
-17
77
-24
19
-13
38
9
-8
-1
9
5
8
10
54
21
-16
3
6
1
-12
-8
19
-5
24
-20
-26
-13
-14
-7
-37
-13
2
-54
-9
21
61
-16
4
40
-14
6
13
8
8
-15
12
-28
16
0
0
13
-1
16
20
5
-27
-4
-20
14
-27
1
6
-8
-33
-3
3
-10
2
-2
-6
-5
-21
-6
30
7
56
-17
3
-16
-10
-19
16
-3
4
-6
70
-14
3
-2
-12
5
-9
11
14
16
11
9
66
-12
9
-17
-2
7
1
1
16
-1
11
-2
25
17
-1
11
-18
6
9
-12
-3
-2
-3
-7
0
-4
24
-2
-9
-17
-2
18
19
-7
-14
3
-6
-8
4
-9
8
2
-58
-14
-7
16
7
-2
-13
23
24
-2
-18
13
20
3
39
14
-1
4
74
26
59
-15
10
28
-13
-6
-1
-5
29
-11
-47
-11
-15
10
-7
7
62
3
-15
4
-1
-10
-21
-8
-14
24
6
4
-4
-19
-20
9
-4
-35
44
15
-21
-23
9
17
-14
25
-14
13
-15
24
-53
-8
-4
-4
-26
-10
-8
-10
-7
-9
15
17
34
-8
18
6
0
-11
8
1
6
-20
13
-40
27
-18
2
11
12
7
10
18
-49
-24
-3
-4
20
16
-14
15
-18
19
6
12
-3
36
3
17
6
1
12
7
-11
24
13
-18
25
-24
-10
-31
74
11
-2
14
-26
0
-28
-40
-50
14
-18
16
23
-12
-14
6
4
9
14
4
-11
-10
0
-4
29
-6
-4
2
1
-6
9
8
4
6
-5
19
-41
5
7
-2
-4
-1
8
7
6
4
26
11
9
3
13
22
8
12
9
-9
-3
26
18
33
14
15
6
8
8
12
-9
-4
8
-43
-4
4
-15
-19
7
-11
3
9
-7
-7
-2
19
11
2
-1
22
10
-12
12
-12
-3
-3
13
0
-4
8
16
30
-29
-10
-18
26
0
-12
5
10
-29
-6
8
12
6
-13
14
-8
-30
-38
-33
5
1
27
18
3
-49
-8
0
34
-17
-1
-2
2
7
31
-27
19
-10
-7
-7
-12
0
-12
10
7
-50
41
-4
-30
-9
4
-4
-25
-27
-48
-30
26
3
27
10
2
9
-1
15
0
-20
-3
-22
-8
-4
-3
-33
-31
-8
-12
13
8
-8
-6
22
6
7
-1
-36
3
7
12
-2
-20
10
-9
-1
-30
43
29
17
2
-20
26
31
33
-17
-8
-40
5
36
2
3
-10
22
-14
-2
-13
28
-25
-4
2
18
-41
16
19
-33
16
-22
32
3
-24
6
1
12
-14
-6
-11
-11
20
-18
-28
-17
12
-18
30
11
-37
-24
-45
55
3
-3
-3
6
18
-39
11
-28
17
-1
1
-10
-10
-7
-9
15
-11
-1
47
31
14
50
-7
-51
27
-15
21
-18
6
40
3
-6
-8
-27
-40
-6
2
8
34
-5
-7
5
17
-52
27
-51
17
-24
-8
-11
5
26
-11
-14
28
30
4
15
-7
37
-3
14
-11
-8
-15
0
24
5
-3
61
-27
2
-10
8
17
-33
-18
10
-12
-23
-4
28
10
33
8
15
-17
10
-8
-10
71
10
25
-54
7
-12
21
0
29
-36
-11
6
-7
-6
8
0
-5
-27
29
19
-23
-9
-11
6
-22
8
-35
-2
-7
15
5
-13
40
0
-5
41
-22
-12
15
-32
7
-9
-10
-11
-4
3
-12
-3
-15
-13
-4
10
13
25
19
39
-10
14
18
-7
9
6
6
-16
34
-15
2
-5
20
-6
-3
-12
-7
1
-22
10
-31
-8
18
15
18
5
-9
-40
-4
-56
-7
12
17
1
11
-8
-13
-10
-9
-15
-19
-16
-2
-30
14
7
-8
12
-8
15
-19
-31
-11
5
14
-5
12
-1
-12
-6
-8
19
-1
-8
-8
-11
-8
21
-5
-15
-5
52
16
-5
-12
-2
-3
-28
-6
4
-16
10
23
29
-5
-3
24
-8
-13
5
27
-48
6
-40
-9
14
16
-8
0
-13
-15
-12
17
-18
17
6
-2
7
13
-7
-20
9
-3
10
-3
20
3
19
13
18
-37
-16
-3
13
6
12
6
-12
3
11
-3
30
-9
1
-14
6
-37
-7
17
2
12
6
-5
3
5
7
31
24
7
5
-2
14
4
-1
6
0
17
-1
-4
-25
-26
-18
-9
36
-13
11
66
8
10
31
-2
-12
-3
-8
-6
16
-23
2
15
-4
-2
13
-25
-3
-16
-6
7
-27
-32
30
-22
-25
6
20
3
5
11
-13
-15
-36
-7
-3
0
3
-11
9
-6
-15
35
13
5
-10
-40
96
3
-5
-1
-28
-10
17
1
-26
3
-18
-1
-21
-6
20
-35
-12
-1
-13
-37
102
-27
-42
-12
-85
-5
11
-15
54
11
-13
37
-6
6
14
-31
-17
13
0
-4
2
-5
46
48
2
-32
13
2
0
-9
25
-19
-26
-13
6
-3
11
-6
27
-13
29
-35
-7
-23
-1
-5
40
5
3
39
-70
-6
-1
-8
2
24
4
10
9
6
10
15
-19
-23
26
-6
-15
0
-7
17
-11
11
-6
6
0
21
45
43
-12
25
2
-5
-12
5
22
-9
34
-8
-14
-2
26
27
2
10
6
46
-5
-4
0
-13
-22
4
-3
1
17
16
17
14
-8
-13
-14
9
1
-10
16
15
-10
37
2
-38
-7
74
-19
-17
0
-2
-4
-6
-4
33
21
5
-9
2
-2
-41
60
-4
-19
-44
-16
7
0
-12
-50
-15
-9
38
-1
39
9
13
-19
-28
-18
25
-3
4
1
-45
17
-15
-5
-10
32
-29
48
-2
-4
4
2
12
2
38
-26
-10
3
-12
-1
8
-2
-4
-40
12
-9
3
0
-16
1
2
4
10
0
-22
66
16
-6
-2
5
5
1
7
1
-10
1
3
-44
4
-11
-6
20
-18
-9
-29
-18
-21
6
-46
-27
-25
-90
11
-3
73
-21
-7
-42
-21
22
20
-30
-32
11
48
-56
2
61
-21
-1
127
95
17
-15
31
-6
-18
33
112
-21
6
-32
13
-28
-127
27
60
-36
10
2
-7
-15
-20
3
-27
3
-12
-13
-33
58
36
-1
25
-4
12
17
4
-30
-27
-3
19
22
-21
-42
-4
8
4
-13
9
-13
17
4
6
11
-21
18
-25
-14
-40
-21
-35
78
36
-12
16
10
-11
-12
-6
-19
-3
-36
20
-18
2
58
-10
-12
14
7
39
26
-11
-7
12
-19
-2
37
6
18
-13
-7
-11
-5
2
4
-6
2
13
9
-19
-53
22
26
21
6
-30
56
-20
13
-10
-13
-50
-10
22
-7
1
-6
14
-9
22
-14
-4
-41
29
54
-11
10
-5
-30
-1
13
-10
33
-21
50
19
36
-11
-12
40
-19
14
4
-12
-19
-36
-8
6
60
21
-5
27
-42
6
28
11
20
7
-23
6
-5
21
-7
-29
-14
13
22
-32
-9
-15
-32
-8
-27
20
-5
-19
-13
0
18
-1
-8
-19
0
20
55
-13
40
-11
-1
18
22
21
-4
-13
-10
-18
-14
13
1
27
-15
9
6
10
0
-37
21
-6
10
15
-8
-6
5
14
5
-14
-10
0
-4
5
29
4
-1
-8
-1
-5
-10
-7
-5
-8
22
-20
-10
15
5
1
-2
-10
-2
-8
25
1
9
-8
-26
11
-12
-4
-6
-5
11
1
2
1
10
1
-3
5
-16
27
-13
-49
-27
-16
-11
-8
13
18
-10
-19
-5
-20
32
22
-19
56
34
-1
17
21
1
-12
-9
-25
40
1
-23
-31
-24
-14
-32
-3
-49
-47
-19
53
-13
5
-6
16
-30
-13
-15
37
25
56
36
11
30
-47
-39
-2
5
-10
-33
-21
-14
18
27
-63
-104
8
-76
22
-24
1
-6
-8
5
41
-11
-13
-7
10
5
-69
-48
-29
-15
66
-14
-82
25
107
6
23
54
12
-20
12
-7
19
-10
-9
-9
3
16
11
-20
0
-11
-1
29
38
-26
21
20
56
-2
-6
24
-8
0
5
40
-7
11
12
21
19
-4
33
7
31
4
6
-15
41
54
6
1
-19
14
22
-14
23
11
3
-9
15
27
14
7
17
13
-3
24
-13
-3
-12
25
9
20
11
6
39
-6
5
-127
20
4
-21
47
16
-13
8
17
7
4
8
6
85
47
12
-24
24
-2
30
20
18
-11
50
3
23
4
-45
-6
39
-5
25
-1
9
7
9
34
-11
14
-10
-32
14
-45
-2
0
-27
-13
-10
-20
14
11
3
6
6
7
-2
6
-1
-8
-17
-7
-13
-8
-2
18
13
23
-1
14
1
-15
7
50
3
12
6
-2
3
-9
-2
-8
1
-2
-5
-26
-1
12
5
32
23
46
6
19
34
-14
0
19
-10
-5
-12
-21
4
0
-20
-8
-16
-19
3
-3
-22
13
28
41
34
39
-4
18
-22
-1
26
6
20
10
-1
-17
33
-3
-13
2
-29
-19
-10
10
11
-21
-14
-7
34
-21
41
3
31
26
-22
15
1
-64
64
28
-38
12
14
16
38
-12
1
15
-35
50
-50
22
-7
-21
-14
1
-35
10
30
-37
-4
-42
24
3
41
-37
-16
-10
32
55
36
12
-12
-18
-9
-34
-35
77
-17
6
-39
17
-19
-33
1
-2
-29
28
-47
-4
41
35
-1
-4
13
-7
19
-54
-14
47
-1
-13
-36
1
0
-9
-3
-10
-16
-7
-26
-23
24
7
-17
-2
22
16
23
-7
-25
-5
-13
33
37
-7
18
5
-23
3
17
14
-7
1
-13
35
-14
1
9
18
13
-4
-20
-9
49
-6
20
33
-24
23
-16
-22
-1
-11
-46
11
19
-30
-17
10
1
-11
-16
-14
12
-30
-12
4
-13
7
-21
23
-26
-1
-8
7
76
57
-16
7
-18
-7
10
-11
-19
18
18
10
-20
33
2
10
0
9
24
4
10
31
-3
-12
-32
17
57
-43
3
-31
12
21
37
-33
-10
4
-20
3
-29
11
-1
7
-3
21
-18
-3
-3
24
58
-8
-1
18
0
-4
1
20
11
3
-19
-17
0
-4
8
1
3
-70
8
12
0
-43
22
-12
-9
1
-3
-18
-9
21
17
3
0
-16
-7
-3
4
0
-28
6
-28
4
-3
27
10
-42
0
7
18
-34
7
-9
-4
17
-22
29
-20
10
13
5
-16
-11
-6
-17
-3
27
0
20
40
24
-9
9
-6
-14
0
3
5
11
-20
5
-26
-14
-7
-12
18
16
95
-4
10
-5
42
33
-8
-26
-37
8
-36
-41
9
3
41
-28
8
-18
-13
-11
-15
-1
-16
-3
33
-15
-4
27
-13
21
25
88
-4
20
10
-8
-54
31
-70
-13
-26
-50
56
-26
-27
7
-17
-23
21
-30
-29
14
-30
-16
4
-5
34
127
-2
-25
-13
-103
17
12
-11
-36
12
3
127
28
-27
-12
-5
10
55
-20
-22
12
-12
60
64
-12
-35
-17
-4
-26
12
-3
-28
0
10
-8
4
-5
-19
23
59
44
-26
-6
29
-18
-29
-3
30
-10
-18
-1
-11
-1
19
-18
-19
-20
3
18
1
23
-25
9
1
-3
-2
14
59
-30
-6
-4
54
1
-9
-4
63
38
1
0
10
11
-20
-9
5
0
-12
-2
-62
-20
-2
-2
8
8
-18
12
22
-12
-17
2
-21
0
-11
6
19
-16
16
-7
10
2
10
5
-6
-1
8
-39
7
-1
-24
5
-23
-7
1
1
-17
-4
18
-11
33
-15
-15
5
-4
-22
32
17
-17
-54
-16
-4
6
22
41
62
-23
-26
-41
-35
-5
-15
-36
127
8
26
-44
43
-12
2
-2
-7
-5
5
-69
-51
-20
-2
10
34
52
11
-9
8
-5
83
15
40
-6
-10
77
25
-11
-6
-1
10
-18
14
-11
-6
1
38
31
19
1
3
-35
3
-2
9
6
18
-7
23
-7
19
-9
39
-22
4
14
4
30
-4
28
36
5
-20
-18
-12
41
33
-10
4
-20
-10
6
-4
48
-22
-2
10
-3
2
79
61
19
-9
4
88
36
-21
13
43
8
-18
-3
20
-3
-8
-4
28
-17
26
17
8
20
-15
1
0
23
27
15
22
23
-1
3
16
12
2
23
4
22
-24
21
3
-28
-15
2
-21
-4
-13
-9
49
-31
6
-10
56
-12
-5
39
36
-11
-17
-8
-34
17
16
5
-26
-19
2
24
30
-7
7
-3
-23
-10
-4
12
-23
0
-7
-31
11
-2
12
20
35
-14
-5
-54
15
-26
0
-18
-21
22
5
35
-22
-50
-7
-20
-17
7
105
-16
-40
-56
5
-26
-21
5
-16
-26
-45
-50
-27
-16
-6
2
-22
86
-7
103
-21
-18
-13
-21
24
5
6
77
-9
3
32
-7
-11
-39
-6
-8
7
46
-6
10
-16
57
20
-12
3
11
-6
13
21
-5
17
-92
-8
8
35
39
9
-6
3
6
14
3
24
21
3
34
-4
-15
18
-17
13
17
5
22
2
2
2
21
4
9
20
7
-5
21
13
16
-20
4
33
-31
-32
-20
-12
-25
17
13
17
-44
2
21
2
40
-34
-2
0
-11
36
36
-11
-4
-9
-9
8
29
1
-30
12
0
66
14
-1
-33
21
-27
-2
21
42
-14
-25
-20
20
74
0
30
1
-21
3
-21
17
-10
17
36
24
4
30
-35
-24
39
-51
0
-30
2
26
-15
-38
-7
-8
-18
2
-11
9
15
-3
25
6
5
36
21
-8
5
15
-6
19
8
-8
-19
34
36
25
-46
8
-10
-5
-7
-20
-5
11
-11
-6
-2
11
-3
32
40
-1
29
-8
-13
-21
-2
9
-10
3
-15
20
-1
33
1
-12
-17
-12
46
23
-7
-13
-8
-36
-13
-4
-25
0
20
-5
-16
12
21
-28
0
-13
-13
1
-39
25
-80
-42
23
4
31
1
8
54
110
-7
-26
-18
16
33
-8
-32
30
0
13
11
2
-69
21
11
-12
-9
13
-32
-4
16
38
-60
-1
-15
111
10
27
-7
30
-67
-73
-5
3
-7
-30
-10
7
-11
-2
-6
-3
7
-10
13
-8
17
-1
-8
22
-5
2
12
5
-11
3
17
14
6
-15
-12
17
8
0
-17
15
12
23
-23
-20
18
7
0
-1
17
13
16
0
-5
11
32
-1
-7
-1
7
-8
-3
29
0
-16
-5
12
-11
6
-39
8
14
13
-6
6
-6
0
22
10
-17
-38
19
12
-5
14
-10
-15
5
-1
-8
2
25
26
23
-25
-9
-5
7
-5
23
16
10
-29
-12
-6
-19
-7
25
30
2
31
-3
-34
-19
-26
-12
-14
-6
6
-27
-49
-6
18
-34
-9
30
14
-2
-3
-18
-8
25
6
-3
-4
44
8
12
2
43
45
-22
-33
-13
-11
5
4
-12
12
5
20
16
-14
-11
0
5
-5
4
-21
-9
13
1
-16
-34
-26
-23
-16
-6
-19
-3
-11
62
-8
0
65
-16
-31
-30
3
13
-18
-3
2
4
-34
-20
22
-69
-14
34
-4
-6
-11
-18
-6
8
-9
-18
18
-7
-2
1
-22
5
-33
-9
-42
46
-106
-20
-63
79
7
10
-59
14
2
4
0
14
-20
-4
16
95
-29
38
29
-30
80
-20
-26
4
24
60
47
-8
-54
-71
-34
-19
23
-27
-10
18
-51
-23
-9
0
-108
-3
-20
-3
-24
-3
2
-16
-14
1
10
-25
15
22
-9
-4
22
-11
-8
35
-9
33
0
15
-16
-22
-7
25
13
-10
11
3
-20
1
-41
-21
30
-29
23
27
21
10
-4
-29
-9
2
-10
-16
11
-26
-4
30
15
-14
13
-12
-11
-8
-33
-25
11
-2
-6
-11
-21
8
-23
-37
7
-5
0
25
17
1
-23
14
3
-16
5
6
-46
3
-11
-31
-11
25
-32
-11
-4
1
24
36
6
-26
-1
7
-16
8
-15
-10
-16
16
-17
-13
-14
-14
33
-32
-1
33
-1
-3
50
4
-39
20
5
1
-15
-45
-38
-21
6
6
3
1
41
11
-23
-54
0
-36
-19
11
-47
1
-12
-3
32
8
2
-25
-32
-8
5
-13
127
-18
-19
6
104
-8
-8
-16
-32
-19
-15
16
-6
3
-3
11
85
-7
2
20
-4
17
71
-19
26
8
-1
8
18
18
11
-37
10
-21
-45
-5
-18
5
-6
-4
23
-23
-33
5
0
-19
-16
-4
-40
10
-16
-4
29
16
-7
-10
15
-33
5
10
-3
-26
13
0
-2
27
-3
24
10
-38
18
43
16
24
-6
17
-20
14
17
-9
19
17
16
-13
3
-11
4
-9
14
-12
-21
24
-11
-6
-39
1
-16
4
-12
57
31
19
19
13
3
-16
16
-79
28
7
-20
3
-1
39
14
-13
11
33
-13
-17
-2
31
-97
-27
7
9
-5
-58
21
-42
-16
33
-17
-11
20
-29
10
-23
6
86
5
6
4
48
-13
9
13
-6
6
-23
-26
3
1
38
35
-18
-12
-13
-13
-13
-17
25
-12
11
-5
-19
-4
-10
-5
12
21
9
-14
28
51
-2
50
-22
-36
-50
-47
10
-21
20
-5
-8
-4
7
-13
17
-27
-12
-10
5
19
-14
10
1
7
-25
-2
-7
13
-62
17
-1
1
47
-15
-30
-8
11
-15
22
-14
-15
35
-17
-6
-5
-18
-13
56
4
-9
-11
6
55
15
-21
17
-31
-15
3
-1
-10
5
2
27
-7
14
7
7
-31
9
-14
30
-3
-26
46
23
27
11
-9
6
-12
3
9
11
44
3
-46
-1
-23
1
27
7
-1
17
20
0
-17
-5
-55
22
-33
-10
26
-9
9
-10
27
-14
21
-14
-19
-27
11
7
3
-1
-4
-33
-7
17
-5
33
15
-26
7
5
11
7
-5
-4
-20
-21
-22
8
-10
19
-9
11
-24
-31
-4
14
-13
13
-38
-16
-11
-27
41
-3
-17
0
-24
-49
3
-33
-4
-5
20
-14
-8
-24
8
-2
-65
-68
3
94
-23
-5
-15
19
-52
-9
13
16
-33
-3
3
2
23
-2
105
18
41
-21
-21
7
-5
39
-17
3
-21
30
-12
16
-24
-29
21
-13
27
-26
2
-18
12
-1
6
-72
-8
-1
-15
-7
5
2
-13
-8
-18
-1
-11
3
6
-22
-10
-16
11
-9
16
-9
8
16
19
-16
0
3
6
10
3
-12
-16
-21
5
-8
15
1
-13
3
19
13
-13
-8
-17
3
-9
9
-12
7
3
-12
-10
23
-22
-37
27
15
32
4
-24
-12
5
-12
-15
-7
1
-6
-5
4
38
-14
-8
-13
30
-5
-20
-11
-1
10
-1
-5
-23
27
-32
38
17
28
11
-23
-22
7
-8
3
12
30
-9
-6
-31
3
-15
10
12
13
-14
14
-4
-5
-13
11
-29
39
5
34
-29
30
-13
0
-23
-9
29
10
7
-11
7
3
0
-7
22
6
2
2
22
-11
18
-4
-4
19
-15
-11
-9
2
-11
2
-33
17
12
-6
6
13
-38
-43
41
-59
-19
2
-55
-7
-32
1
13
-9
-18
-7
23
6
-4
-1
-27
-18
46
14
-9
-3
-18
76
-18
-25
-28
-10
-39
35
47
0
-18
35
-36
-6
24
4
-3
7
51
-24
-13
2
6
10
30
35
15
-5
13
-11
-52
7
2
-18
-4
-10
-4
-15
-2
28
-5
26
-6
-2
-35
4
8
17
-9
7
1
2
30
6
-19
29
-7
-13
7
5
8
12
19
1
-6
-33
12
-13
6
-7
-13
37
1
-7
0
-23
5
-8
-11
-3
-27
-3
-28
6
8
-8
-23
-5
-14
-3
64
20
-19
28
-11
9
6
-6
-12
6
-47
33
40
19
-44
-8
33
-35
-13
60
9
-13
5
6
9
12
-18
-5
-7
-16
-8
53
2
-6
-3
7
32
-3
27
-20
9
-6
-2
18
18
10
-9
-6
-12
-3
1
12
32
2
5
5
-5
3
-4
-26
2
13
-42
27
-1
-41
2
-21
28
-27
30
4
-13
-5
-1
2
-22
-15
-2
-22
-28
-12
-7
11
8
28
-47
16
26
-3
-6
10
40
2
6
11
32
-5
9
10
-16
-17
12
9
27
-19
2
-20
29
20
7
-11
-8
4
7
25
15
30
-19
-41
1
-9
12
2
1
-24
6
5
26
14
-12
31
-44
13
-12
-6
-3
1
10
-9
13
-7
-23
-7
40
-1
-29
20
22
-14
3
7
4
2
55
-10
-24
-23
-25
-4
21
7
6
15
-20
-22
61
-3
9
31
-26
-16
-5
-17
2
15
-15
2
-6
-11
-27
5
40
19
-7
-4
-30
1
-5
9
3
-6
2
19
9
-1
15
11
-5
-29
-2
1
-10
-21
43
-12
12
-21
39
1
20
8
5
34
4
-4
2
2
21
4
0
-3
-1
58
-23
-3
10
6
-5
-2
-4
29
-12
-6
-17
-18
26
-1
5
-11
56
-21
-4
5
-25
19
0
13
20
78
-16
-15
28
-8
2
-6
15
-23
-1
8
4
8
12
2
-9
46
6
1
3
12
-17
2
12
-23
-2
27
-48
-7
-25
-15
-13
39
-13
-4
18
-2
22
-31
1
14
11
-13
4
-7
-5
-10
3
-3
102
22
72
15
-18
8
25
-10
-7
-14
4
-51
31
-15
-2
-33
15
-6
-1
1
-7
13
-7
-10
0
-10
8
13
-27
-7
0
-1
-11
3
1
0
-1
9
-13
-4
1
5
4
6
1
-8
0
-13
-15
1
4
9
19
9
-1
-7
-7
12
11
-5
-3
-6
-4
2
5
8
-11
-4
7
-59
1
-2
-15
-14
-50
28
19
1
56
-5
11
16
-18
2
3
23
-11
4
15
-11
-31
0
-8
-2
21
-5
77
-24
-40
57
-46
-13
-12
11
-13
-13
-32
46
-15
3
7
8
-4
-14
5
18
1
-8
26
-6
13
45
-7
-29
41
7
-21
-9
-39
-5
-7
-12
9
-17
-3
3
-12
-25
-14
-12
13
-5
-3
68
-13
4
-22
41
-27
-29
32
23
-48
-25
-7
1
-7
42
-13
-33
-8
19
10
-18
-5
-1
-6
0
3
19
39
-1
-10
-14
28
-47
-17
2
-23
-6
7
2
18
23
21
-27
-7
6
19
-1
-2
6
-55
17
-2
5
34
16
9
-28
-17
-13
12
-28
16
16
-12
-9
2
-3
-2
-19
5
30
-5
-35
6
-12
-13
-2
18
-14
-21
-26
3
8
-9
-9
8
14
41
1
11
3
24
-22
6
-1
1
12
5
-1
14
5
30
-3
-9
5
10
-35
39
20
8
-2
20
-6
23
18
2
-1
-6
24
-12
35
-13
34
-7
-15
81
-16
-14
39
3
0
-21
-12
10
-6
-52
-31
-6
-16
10
-9
-5
18
20
14
-5
-7
15
-7
18
-26
-22
7
-13
-33
8
9
10
-31
-25
34
11
19
-7
-3
11
-11
-8
-22
11
-1
27
27
41
17
11
-37
-12
12
-4
-33
3
4
19
-18
-20
2
15
-10
-8
20
-7
-44
10
-13
-14
-3
-39
-33
-19
2
22
-3
28
19
-42
-4
4
37
-18
1
-3
22
23
-17
3
-12
-11
-22
-28
-19
-29
-24
12
-14
-6
-12
1
-3
-7
-9
-4
-7
27
20
-15
8
4
19
-3
-33
29
-4
-11
64
40
-8
-10
-22
-21
-5
7
-23
-18
-3
-25
-17
-2
18
-12
22
-9
11
-9
21
2
-14
-52
22
21
-29
-9
12
24
0
-21
-6
-4
-13
-40
-9
-4
12
19
1
-10
-1
-14
-25
-3
14
1
8
19
-36
-6
19
-14
23
6
-3
21
-1
-7
-4
-12
-13
0
16
-3
-13
-3
-35
0
-12
24
-16
-43
-20
-8
-22
2
-8
-17
-9
17
18
5
-3
-5
17
23
17
4
-4
-2
-20
7
26
20
22
-8
8
6
-9
-14
6
37
-12
11
-24
13
-7
8
11
-25
-7
44
-14
-14
-38
4
-1
-31
-35
-17
-38
25
-10
33
6
21
-27
-42
-3
104
13
24
6
-3
16
11
-42
16
-50
-27
-21
-21
-44
-54
-52
23
46
6
-54
-4
-6
-3
8
-22
65
29
6
14
8
-11
-5
3
-13
13
17
-22
3
-36
24
-23
-23
-13
9
26
-4
-7
-18
13
23
0
10
6
-7
8
13
12
-30
21
21
-26
13
-27
9
1
-19
6
-20
13
-9
5
-6
4
-6
6
4
-13
20
-8
10
0
-3
-10
-13
-23
13
11
-16
9
39
2
-15
45
-17
6
8
-72
51
15
16
11
-18
2
-31
9
-8
0
64
47
31
38
-21
1
-8
-19
40
9
-6
3
-9
-30
5
-15
-12
-5
-8
58
-6
4
-13
-16
49
12
-13
22
13
-36
-13
-32
15
5
-3
17
-9
-13
-24
-8
1
37
8
-3
-28
-5
27
-14
57
51
-10
6
17
1
-23
-15
9
2
13
-29
-43
-53
-29
-10
8
0
-3
-27
-18
25
13
-2
40
-37
-7
51
17
10
-5
18
11
60
0
12
4
15
24
-3
2
20
6
-2
-5
-16
8
25
-24
1
-1
-24
28
14
-15
-27
12
1
3
8
30
2
-40
-23
6
-16
-35
-12
-31
45
13
10
2
-69
38
-15
7
63
38
-9
23
-16
5
-5
-3
29
-12
-35
-1
-14
-14
-11
-52
-11
-37
23
26
-42
16
-18
-35
23
-4
-13
-22
-1
39
27
24
-5
7
10
-18
4
28
44
11
19
41
3
-28
-87
2
25
7
9
-20
-14
-2
-20
17
9
-8
-37
22
-6
-27
2
-19
-13
-28
8
21
-6
-14
-2
-18
-9
31
27
8
-38
9
16
-13
0
-12
8
1
23
-9
-10
-2
13
-13
13
-19
7
7
31
-45
-32
-22
-4
-10
20
3
-30
5
-13
-4
47
-16
-11
-6
-17
17
1
-25
-6
-34
-21
-11
25
-1
-24
6
3
15
-7
5
47
3
-27
7
-3
38
-12
-13
-3
-15
-13
14
-19
-9
-21
-11
-31
9
-30
-18
-5
-3
5
-3
-24
3
-1
-3
26
-19
-23
-16
9
11
-2
-9
6
-7
6
6
13
-17
-11
12
-2
-5
12
25
-16
6
-1
9
8
-29
44
3
2
-10
24
-30
-30
0
-12
-15
43
-4
-20
30
-15
22
7
-1
-32
-3
22
4
1
19
18
7
19
-5
-8
-18
-4
3
21
23
-7
-13
22
6
-26
-10
16
-41
25
-28
-26
18
17
-5
18
2
-10
-11
-26
12
-26
-7
-6
17
47
8
37
15
8
24
8
-9
8
-12
11
-1
-6
2
-6
-7
-10
7
7
-1
9
16
5
-4
-8
17
11
5
26
-13
11
-3
-13
4
-6
18
7
9
11
4
-5
6
44
-17
-2
31
-1
-7
9
12
8
43
14
-16
-19
-12
0
-7
23
-5
-12
23
-10
-32
16
20
-5
7
-7
-40
-55
-13
-21
4
-46
-15
10
-23
-1
41
9
16
12
-10
-25
-4
12
3
2
-2
1
-23
-37
27
-7
13
-11
-34
60
22
-14
3
56
11
22
-29
4
-7
-34
-14
-4
1
6
-7
-13
-9
-5
20
6
-38
-27
-6
2
0
16
-6
-9
40
-13
48
-24
46
-17
-10
-7
-4
18
-16
-36
-4
-29
-33
5
-12
-10
-15
-2
44
-37
-3
19
2
-27
3
44
74
-12
-9
8
33
-9
19
-4
16
7
-8
24
-33
36
12
0
1
42
-47
-7
-17
-28
13
34
-7
18
-20
-36
5
7
5
-7
12
4
1
-15
-14
46
-33
13
-13
2
17
-15
1
-4
-5
44
-20
-52
27
52
-15
-4
-1
-14
-3
0
5
5
8
-39
-8
-8
-5
1
48
10
6
15
6
0
-23
-12
-10
3
-13
-29
-12
11
-29
31
-7
21
-3
-8
-23
-89
0
4
-39
-14
-10
19
19
31
-5
99
2
4
-20
3
5
-4
-2
19
-34
-19
18
16
3
-34
-1
-15
0
-11
13
4
2
-6
13
3
30
12
14
11
21
31
27
60
-72
-23
-27
-68
-32
35
-2
13
-27
5
-27
-7
18
47
-21
-29
-5
70
35
16
-41
-7
-25
-3
-11
38
10
-16
-3
-3
-5
-34
35
-13
31
-17
-19
40
-31
27
-17
-28
-24
30
76
13
-45
-36
5
-5
-21
-55
-32
-51
127
-7
-79
4
-13
12
11
-33
-12
0
8
1
23
-18
-27
12
-33
-2
-32
47
13
-45
-7
-30
1
-10
-65
38
2
13
-1
-1
20
-26
71
-31
-12
6
-4
-6
11
16
6
5
-2
36
38
28
3
2
-15
8
-7
-13
-7
-3
2
-8
-1
4
20
0
2
4
-2
16
16
-23
-15
12
-1
-16
20
-1
24
1
-5
1
-9
-26
-10
8
-35
-16
3
-25
25
-10
75
24
0
-5
29
-50
12
37
16
-2
-25
-33
-5
-14
-18
39
-17
49
30
6
12
-6
-7
-13
-1
-24
-56
84
-7
-29
-37
14
27
21
17
24
89
127
-32
-25
10
34
-37
8
-10
1
-1
-24
-2
-12
-3
11
19
-12
19
15
50
-6
16
-3
-3
-19
-11
6
-10
21
9
-9
31
16
-10
-3
-16
3
-28
-29
-16
18
31
2
-23
23
8
7
-15
15
-30
0
-14
-21
5
2
4
10
-27
23
2
24
-7
-17
2
-32
-7
-33
-1
-18
90
12
-15
64
0
-7
-2
1
-9
8
-9
-27
6
-13
-4
-8
23
-43
30
62
29
-21
-28
-14
-8
9
-4
-26
-45
17
-6
5
-42
-20
4
-4
-16
-8
51
-25
7
15
9
-27
33
13
55
-32
-23
-7
29
-19
-17
-8
5
20
-19
20
5
28
-8
-6
4
24
-1
34
6
-9
32
-5
-7
27
-22
56
24
-28
17
-6
2
0
-21
5
1
-4
-21
9
-8
8
8
4
-1
-20
26
4
44
7
-15
-13
28
0
-8
-17
2
58
53
-9
-12
11
3
-7
-21
-27
-22
7
-22
-1
54
63
3
0
27
-9
-4
-5
-14
-8
-15
-7
-39
-30
-8
-9
23
15
-33
1
18
-4
6
-9
14
-64
-15
-21
17
10
-19
0
-17
-18
-1
0
-6
-3
6
-23
50
11
16
-11
-12
-42
19
-8
-19
-13
34
-4
-32
19
-18
-2
7
14
18
-4
20
36
9
-9
1
-31
-10
-10
-48
6
-5
29
-3
54
-1
-16
1
-37
-6
-21
29
-22
-2
-35
21
119
8
-9
-19
-9
-19
-3
75
49
-20
-69
20
7
46
2
-31
-67
-43
0
50
6
-27
70
25
5
65
6
0
18
-45
21
6
0
-4
60
-8
-21
11
14
35
-5
-6
22
15
-11
-2
-48
-17
-15
-10
29
-28
-7
-1
-9
-25
4
8
17
12
2
-12
6
-8
7
-9
-10
33
22
-12
-7
-11
-34
0
-9
23
-21
19
5
27
-34
-21
-18
-62
-71
-18
108
-13
-31
-22
-19
-7
-23
5
38
-2
5
-7
-14
-5
9
37
12
-23
-15
33
-53
33
-28
12
5
-30
9
9
-8
39
-10
1
-14
-15
-28
13
11
-4
23
-23
-7
-1
7
-4
-15
-28
13
-11
0
26
8
-13
20
17
6
-1
20
16
17
4
-3
12
-7
3
-3
29
17
-20
-38
-2
9
14
12
17
6
30
-12
1
-1
-7
5
-24
2
-6
-10
13
-12
-6
-24
19
14
15
-17
-8
14
8
-24
-21
-4
4
-29
21
-33
-1
3
-17
-7
1
16
29
0
-18
-1
22
-23
2
-16
-4
-30
22
-14
-1
-2
12
42
11
-25
24
-3
-22
13
-20
11
14
-3
-1
1
37
-42
42
40
3
-36
4
-14
12
-22
-17
-3
7
8
-11
-13
-5
-15
-1
22
-13
-11
-11
18
1
-42
-6
-6
9
-22
-6
38
-23
-8
3
-2
-12
5
-1
-17
-37
-6
19
-2
-9
11
3
-16
-14
-12
-6
0
7
6
-6
1
10
6
-8
-3
-5
11
-3
15
-3
5
6
-9
-2
-5
3
2
-8
-6
9
13
27
-36
3
11
17
0
-3
-5
10
-5
14
-5
20
1
-6
-26
-19
11
-18
1
27
-6
1
31
-28
-12
1
2
-6
-30
16
6
-9
13
-3
21
9
-20
-23
19
-10
10
-17
7
-30
-2
-10
20
7
-27
8
2
-8
-8
-42
-14
-19
5
22
1
15
0
5
-3
4
-17
-5
-8
14
-13
2
-6
8
9
33
-7
49
-30
3
27
2
10
7
4
11
-9
9
-1
14
0
-3
8
17
-19
-5
37
2
35
-8
3
8
22
-10
-6
1
6
-1
16
-3
24
15
-9
-1
-5
-14
1
-24
-13
25
-19
13
-28
-37
-2
29
21
-5
26
-7
-7
-7
1
-11
1
24
8
-1
-10
1
-4
19
-51
0
9
-18
2
106
18
-36
-4
-38
-8
-11
36
-7
12
-9
-12
2
-3
10
-9
-9
6
32
35
43
13
1
-8
-6
-31
11
39
2
4
-12
-18
1
-42
13
4
-4
-9
-40
5
-30
1
-3
-20
-13
-12
-3
36
-3
6
-13
-35
-9
11
-23
4
-13
-22
-3
1
-15
3
14
9
-10
-7
12
2
4
2
-8
-13
-11
10
14
1
3
-3
6
-8
0
-10
5
-2
1
-28
-1
1
-10
5
8
4
-7
8
-9
27
5
-3
9
0
7
35
5
4
-14
23
6
-4
2
4
21
-16
-24
-12
-5
-7
-1
-8
26
-19
-46
2
-10
97
-1
21
-12
-14
-15
-67
14
-6
-13
-12
9
12
-1
19
-45
49
-16
-11
-11
-20
19
-8
-32
20
-16
18
0
17
-10
7
-6
-3
17
7
-16
1
-34
-6
7
-10
-7
-4
-13
13
25
13
12
-27
-1
-6
-18
2
-3
-28
7
9
9
1
3
-4
1
4
3
-29
-2
-23
-11
31
-27
-8
15
-4
-14
-21
27
-15
-13
17
-14
-7
-8
-2
-6
16
16
2
-1
-13
-9
6
-7
-26
-6
6
42
-7
-16
-4
-10
-24
-6
8
-17
-12
18
-9
20
-32
-14
-2
-56
50
-16
-64
32
-56
30
-15
6
-3
5
18
20
6
28
8
14
46
6
-5
-1
-32
10
-4
-18
-8
-58
-16
9
-69
40
4
57
14
-4
46
-6
-5
1
-55
25
-10
0
22
2
-14
-19
12
-1
60
-23
46
-26
48
-11
5
-15
-1
11
4
-11
0
28
4
-18
28
-10
2
-1
3
6
11
-10
-8
-5
15
-12
5
-3
-9
-7
5
-10
-11
13
18
6
-18
-10
8
3
-12
9
8
18
7
-1
37
-1
22
18
-35
5
23
27
-2
-33
-12
43
32
-3
3
-18
-18
10
2
-27
11
29
22
-1
-6
15
-13
-2
-16
7
9
-11
-29
-2
-30
8
20
-17
6
-1
-39
-9
-5
8
-4
-19
3
28
19
24
-16
8
28
19
23
-4
-14
-11
-3
2
-3
31
14
-19
-2
-6
2
8
0
-9
6
-4
7
17
6
-18
6
0
7
2
-3
0
18
8
-8
-1
-15
1
-4
7
8
-9
0
16
-4
-12
-20
19
10
12
5
1
-5
4
-8
-5
-3
0
4
5
15
16
2
-4
-5
4
8
-43
-8
-14
-4
0
15
-17
-72
18
-15
-19
13
-17
-16
-18
-4
7
53
-1
-15
4
45
-41
-1
-12
6
32
-22
-12
35
-7
-2
-10
26
-32
-6
-2
-10
-15
11
-14
-6
5
70
-18
-22
-7
-17
39
-1
-8
13
-28
40
-21
-52
18
-2
2
-6
7
-21
14
-7
-22
-4
21
28
-7
11
-23
-6
52
-17
-13
3
10
-50
52
16
14
-15
-10
-5
-27
15
-41
27
25
-32
9
-18
3
8
-14
16
-11
-21
-21
-15
11
-58
7
-12
20
1
-16
34
-1
6
-8
-5
5
8
-13
-18
26
-2
-24
-20
28
2
16
13
-14
9
7
12
-33
-34
75
6
-12
13
9
27
10
-4
22
8
-5
-6
-21
-18
-24
32
9
4
1
47
-15
-23
9
11
0
18
32
15
6
31
3
11
-3
12
4
-16
-28
-7
14
-2
31
8
-3
-24
9
2
8
20
-5
-35
-24
-19
-4
6
17
-24
-8
-6
7
-4
-17
5
17
5
-37
-3
10
0
22
-25
25
1
16
-16
12
20
25
-5
5
-19
-15
6
8
-17
-7
-1
1
12
34
4
-41
8
-4
-39
-22
16
-8
-9
40
-8
-19
28
-16
20
-12
-1
-1
-16
11
-5
3
-15
31
0
-39
2
-3
-50
-18
-13
-21
2
1
53
-8
-43
9
19
6
24
14
6
-14
12
-16
16
56
-18
-14
-24
19
-9
2
10
9
-6
28
12
-9
-12
-10
14
24
2
-26
-8
13
-20
-12
-3
-4
-8
-6
-2
13
-27
27
0
22
5
3
32
-25
4
8
-7
1
-4
-7
-1
10
0
-5
18
-6
14
0
4
-21
2
19
0
8
-6
-15
-12
-5
-7
16
8
-32
6
0
-7
-6
51
-46
36
-29
-38
-30
-67
-17
-2
-21
-42
-84
13
-31
41
-18
-58
-13
-13
9
-28
30
127
-16
27
47
26
-64
-63
74
63
35
-54
-29
-16
11
-59
-4
-27
49
24
-30
2
1
-6
2
-8
6
-44
-17
-56
22
-28
8
51
-21
38
-17
5
-32
-17
4
-7
21
-28
-6
1
-20
89
18
-19
-6
10
8
-11
22
3
59
-90
-35
-8
16
3
-11
38
1
-58
9
6
-28
24
13
-7
16
-9
-6
3
-7
-30
10
23
-15
-15
3
-23
32
-17
-15
-7
9
-3
-15
-18
-24
51
-20
-15
-11
-2
30
-2
17
-18
-13
13
-19
-22
8
-3
-32
19
11
12
31
16
-9
-2
2
23
68
1
1
8
-7
52
-3
2
-19
5
-6
-36
-33
-19
-6
-11
-3
-8
0
-8
7
23
2
17
6
2
14
26
19
-1
6
3
27
-55
9
24
35
-43
8
-1
6
-8
-8
40
3
-38
-1
-22
3
-29
17
0
15
-5
-17
-4
11
-6
9
61
47
16
27
6
0
-10
-3
4
-19
6
-5
48
17
-12
0
44
29
-8
27
5
-26
-34
-37
-14
13
7
9
-25
-21
22
44
-40
-1
0
11
-18
8
-5
8
8
14
26
22
-16
-5
-45
-28
-10
-16
2
10
0
44
11
-11
-69
-19
-8
11
53
-1
-47
42
24
-1
-5
-5
7
62
60
41
41
8
-50
-6
-11
12
-9
-26
36
-7
10
-44
8
11
-11
5
-13
14
8
15
23
2
1
0
-6
8
-7
-31
-19
-10
-14
3
17
-8
12
4
-2
2
7
-5
10
-7
-7
-14
-10
13
-13
6
55
31
35
3
15
-12
-6
-5
-7
-32
-3
-9
-12
1
5
-12
12
10
6
20
3
3
-23
-26
-24
-55
-45
-5
7
-2
6
9
-26
-15
8
-20
-9
18
-20
8
9
18
8
26
20
9
-41
31
109
14
28
-2
-10
16
-40
15
29
54
-26
35
-9
-16
-29
-8
16
-20
-4
-35
15
6
-4
38
-42
-3
-14
-13
-2
76
-11
-11
-10
14
-2
1
-36
28
23
-14
-22
2
-7
5
-2
-20
96
-15
-8
47
3
9
16
2
11
-28
-21
-26
43
-27
6
-14
0
2
-21
16
-32
14
-11
8
8
-5
-52
4
-107
2
-3
-2
6
-7
40
-12
-9
-15
-59
-15
-20
16
49
20
-4
0
0
31
-36
14
32
35
22
4
6
26
3
-8
-32
-35
-2
37
24
53
3
-8
0
21
-11
-39
6
-18
-6
-3
-1
20
3
-14
-10
47
-12
-10
-10
0
25
7
-7
16
-6
0
3
3
-5
1
-2
34
-34
3
7
17
-12
6
-27
5
34
-7
-3
22
37
11
-10
1
16
9
-3
36
15
32
3
26
-6
62
-1
64
61
-39
5
5
43
8
-4
-41
-15
39
-76
65
-25
-32
-16
-10
-4
-43
-6
83
-24
27
-59
36
-91
55
-36
31
19
-51
-59
-116
20
-24
5
80
21
6
3
25
3
-5
-20
8
0
34
17
-18
38
22
16
55
30
2
95
-65
22
12
41
-10
10
-6
-29
-7
1
28
8
107
4
17
-42
22
-33
-35
25
2
-20
21
-14
35
-16
3
-29
25
-20
0
19
4
3
11
19
3
2
27
-21
11
3
-11
-6
29
-10
-3
-2
-7
10
3
17
29
6
7
-22
-13
2
-6
11
5
-10
-9
31
1
-49
-25
-8
11
14
-4
-20
14
31
24
2
-6
0
9
-7
14
-12
13
41
-6
25
-14
-37
-4
11
-3
-11
-17
-40
13
-4
11
-26
2
16
91
38
18
1
-10
-1
127
23
-8
28
-20
35
29
1
-4
12
-29
16
-19
42
-1
7
-1
-6
18
27
-13
10
5
11
29
25
-10
14
-7
10
14
-2
-24
15
21
10
5
-7
-4
-20
8
-10
-2
12
-1
-14
18
5
11
20
-29
-10
-11
19
-5
48
-13
-8
14
5
6
10
6
11
5
-20
13
5
6
-3
11
-7
35
41
-18
1
-4
-24
8
27
11
-20
19
-19
16
-43
-17
19
1
49
33
-3
9
5
4
-1
-22
21
37
-33
-3
-6
-4
28
8
15
-27
1
4
-1
-36
-12
8
-29
-29
8
-11
17
18
-18
-38
-14
21
-12
26
-14
-12
51
39
-13
-11
12
-14
23
-40
-10
-17
-1
3
11
23
-13
0
38
8
6
-22
111
34
13
-2
-13
-17
36
0
-5
1
6
-13
13
-7
-10
-16
-31
-23
1
3
5
-26
-1
-9
-1
-13
21
7
20
-8
2
-19
14
1
-11
-4
-14
-2
-1
-2
7
-3
15
12
1
-7
-7
12
11
29
-3
-25
-11
11
-5
15
0
11
17
-1
1
-21
-2
-5
0
7
-14
-4
-21
40
-10
36
9
37
37
7
25
15
-34
22
7
-10
-47
34
-23
16
18
-13
-37
16
43
-71
8
-26
6
0
12
28
-41
35
-62
-1
-3
-29
-29
-36
3
54
-18
-8
-24
-1
52
-38
-16
-5
-7
-31
-16
5
19
5
-40
10
3
9
-1
-9
-42
32
-35
-12
-13
-12
-1
-20
-30
-1
11
14
8
-16
10
-12
64
-27
13
-5
31
-4
-6
27
-5
-37
18
29
7
15
-29
-26
11
-17
-8
10
-11
4
17
11
4
7
-1
-1
-16
31
-1
-20
18
0
14
-6
-22
-3
-2
9
-6
-8
6
11
9
2
-3
-25
31
-15
10
-8
25
-4
6
-30
7
-38
-6
33
38
-25
8
33
-2
-20
-3
-1
8
-7
23
-26
7
0
-44
-20
37
24
-29
-10
-13
-4
-12
42
-45
-9
-67
20
12
6
30
2
-18
-7
-14
-1
34
83
-33
-6
6
35
-4
-8
-11
-3
-8
-2
-13
2
-2
18
12
7
4
16
25
-27
4
-2
11
36
7
-15
-17
11
-15
23
-26
3
6
-2
-6
-9
-55
3
-13
34
10
-17
-8
-6
0
18
-30
-20
6
-8
34
9
10
5
7
7
-4
-4
-12
-6
37
-5
-14
-1
-11
15
-8
-46
10
21
2
-34
-47
26
54
33
18
54
-21
-11
39
-11
0
16
89
-4
2
4
-54
0
41
