57
127
56
-12
-1
-17
-63
-93
-62
105
85
66
51
127
43
93
93
49
1
13
37
-6
-127
77
1
9
41
48
31
-55
76
26
-127
44
39
-55
-41
9
50
-35
-77
127
-42
22
44
24
62
28
50
127
40
37
57
19
-4
45
38
-80
-127
76
10
44
33
58
63
46
92
127
82
45
81
32
37
61
46
53
127
81
19
60
31
48
36
36
34
127
49
49
33
24
-93
-86
-119
-84
-52
-71
-127
-82
-124
60
127
37
53
-37
12
-86
-113
-77
39
38
38
127
101
-31
27
44
37
1
45
54
62
40
127
3
42
52
83
119
91
83
0
78
62
127
87
57
74
46
37
-127
35
48
78
47
28
32
-9
62
127
15
14
20
1
124
106
-7
74
115
-17
127
116
-1
-114
-123
-108
-82
-54
-127
-123
-93
-116
7
50
-1
38
127
23
7
34
1
31
42
10
127
-6
-45
26
45
9
-36
-19
-1
-59
127
23
-42
-14
1
-39
65
41
-43
127
87
-35
36
52
-85
-127
-73
-3
-33
-6
51
102
37
61
127
28
-29
-31
-2
-50
-115
-37
91
39
-77
127
-32
-75
72
36
-77
-102
-114
-124
-95
0
-83
-81
-127
-100
21
22
-1
9
127
22
12
17
5
40
71
-73
127
10
-99
-51
-43
110
66
122
52
42
127
-29
62
116
57
73
85
53
127
84
71
51
105
47
29
49
11
60
127
54
27
50
12
5
15
9
16
127
24
2
22
3
-74
-73
-75
-127
-53
-72
-70
-67
-81
-125
-124
-79
-2
9
-17
94
127
85
55
30
-20
127
107
28
46
33
-8
52
95
44
90
127
71
55
67
49
14
40
7
68
127
45
5
29
10
47
-13
-40
127
-50
-103
43
-20
-43
-74
100
80
-29
-127
66
-74
88
71
-3
-50
-1
67
127
83
-11
-47
-6
33
39
8
42
127
23
19
34
-1
-59
-127
-49
64
107
72
21
88
62
3
30
6
10
127
47
6
24
2
44
127
47
-11
-43
-21
-59
-85
-59
-11
-42
31
-47
-35
127
1
-44
32
19
31
15
36
127
37
25
19
19
-50
32
69
-26
78
127
-42
36
64
-81
44
49
-127
22
120
-77
40
44
-110
-114
-78
-118
-65
-127
-85
-99
-73
50
40
30
57
127
61
40
29
23
37
7
34
12
-127
20
39
16
34
26
20
16
9
-127
26
25
19
17
56
87
42
102
127
91
54
63
47
-3
42
11
23
127
20
-5
36
14
25
127
69
121
69
127
47
106
52
-32
4
74
-71
-69
127
-25
6
67
18
64
27
44
127
79
9
81
21
44
-14
-16
127
-18
-32
41
-21
-14
55
127
31
122
76
-108
70
112
36
-54
97
-62
114
127
81
-54
73
-65
-59
7
30
-92
28
127
-55
11
22
25
23
11
24
-127
31
26
28
9
7
30
8
42
127
31
10
32
10
-19
46
6
35
127
46
-22
29
12
45
-9
-3
127
39
-68
42
-14
-6
71
92
35
123
41
127
78
84
28
29
60
53
81
127
71
27
37
53
-124
-5
123
-118
46
120
-127
-2
114
16
44
-2
65
127
45
17
43
-5
54
69
-31
127
25
-78
46
66
-32
27
-30
-7
127
-114
12
21
-23
-8
-65
-127
-96
19
18
20
23
96
52
3
20
8
12
127
61
5
13
13
30
63
14
127
83
14
32
57
-6
6
44
14
26
127
18
10
36
7
-14
17
35
-23
-127
94
-8
13
34
57
86
27
127
108
57
62
56
33
32
66
32
-1
-127
69
25
65
30
31
32
25
82
127
97
31
24
22
-23
-3
-7
-7
127
21
-21
1
-6
12
27
-38
127
44
-126
11
20
-34
63
42
40
59
127
51
56
51
29
24
31
12
27
127
40
10
46
0
-38
-127
-40
11
4
-7
29
104
35
15
38
-3
49
127
48
5
44
8
54
34
-3
127
24
-32
49
38
-10
-61
52
104
-66
119
127
-78
46
91
26
39
29
38
127
32
15
39
25
9
62
14
59
127
59
22
56
20
55
82
8
127
64
21
56
70
2
73
114
71
68
91
126
40
127
61
27
123
50
-9
-23
-7
-46
-127
-63
12
5
-56
29
127
-57
14
-1
-47
28
47
29
37
127
19
16
41
24
-96
-80
-71
-126
-81
-127
-67
-101
-57
41
67
27
75
127
47
46
61
27
-48
-127
-52
-5
-29
-13
57
114
54
78
75
32
97
127
61
54
59
32
13
53
28
53
127
29
4
38
23
-4
31
-15
14
127
21
1
20
-6
64
92
18
69
127
59
52
73
14
31
29
-13
86
127
3
25
25
-7
24
-12
-17
127
-23
-22
21
-18
-11
25
111
44
-7
34
-3
-37
-127
-45
0
42
30
12
127
74
-14
37
31
72
-1
-37
127
-122
-70
68
5
-29
41
127
64
52
102
77
51
112
60
-35
48
52
-63
68
127
-36
45
48
72
27
-2
127
-115
-77
71
40
-3
23
104
14
127
85
113
17
101
13
41
-28
-27
127
-20
-76
39
-38
-29
8
10
7
9
127
19
11
11
7
50
37
-4
56
127
52
36
34
-2
-25
35
66
-127
-22
88
-42
33
63
56
56
14
127
109
-41
44
53
6
36
40
18
67
127
41
31
35
17
56
56
37
72
127
50
64
53
20
-127
17
106
27
-21
-23
101
-13
-124
-48
-127
-48
-45
-70
-57
-38
-119
-42
64
111
58
118
-127
93
60
113
52
15
26
13
31
-127
18
16
28
13
2
23
18
25
127
25
-4
20
17
16
6
35
36
-127
32
17
1
31
-20
8
-9
13
127
21
-19
12
-10
-9
50
22
3
127
51
-1
39
23
37
46
-5
127
-43
-33
35
40
-3
26
-6
-62
127
43
-71
25
-9
-69
93
-123
-93
-36
-40
10
-109
127
73
15
25
21
20
127
7
5
14
18
-29
4
-39
-16
127
-7
-20
-9
-35
-73
20
50
-108
91
127
-70
19
34
12
16
-2
33
127
7
2
15
-5
-122
78
82
-98
0
127
-105
61
70
33
21
15
10
127
11
35
18
8
-41
8
67
-127
-62
108
-35
18
57
21
59
59
59
127
81
26
60
56
34
-8
-18
127
39
-34
23
-8
-22
-5
16
-10
35
127
43
2
18
-1
16
40
12
-4
-127
-16
11
47
11
10
41
22
26
127
3
16
36
22
15
50
-1
58
127
79
4
42
21
-13
-57
-20
-53
-127
-54
-15
-47
-15
9
36
9
50
127
34
11
32
3
-87
-117
-73
-115
-93
-111
-83
-127
-86
-16
-33
-17
-30
-127
-36
-14
-30
-14
36
89
17
85
127
86
29
70
27
96
101
53
92
106
127
71
77
77
2
42
39
76
127
95
16
40
10
10
9
9
5
-127
9
10
8
9
-10
-52
9
127
-123
74
-10
-52
8
31
88
58
75
127
82
25
82
53
-69
-127
-46
-14
-4
5
61
101
12
9
94
-12
83
127
101
5
86
-30
37
14
-32
82
-13
-127
35
20
-37
-2
6
77
-6
-127
72
-6
-2
73
10
31
-9
4
127
25
16
19
-10
63
127
79
55
127
102
47
124
84
69
127
69
96
110
58
55
113
64
27
85
26
79
127
63
36
62
22
-15
75
77
-35
-127
125
-19
72
67
-89
-127
-47
-90
-124
-98
-103
-104
-64
30
58
15
37
127
24
25
52
21
-9
11
5
16
127
-7
-12
9
7
1
29
7
32
127
32
7
20
1
23
60
13
46
127
60
9
54
14
-77
-127
-60
18
66
-6
45
88
37
21
33
14
13
127
-3
19
33
12
-70
-106
-56
-97
-127
-119
-65
-109
-49
-22
2
-14
-5
127
5
-22
-1
-13
-46
31
44
-127
27
88
-41
29
43
85
94
38
124
109
127
68
60
50
5
29
10
22
127
21
6
25
7
47
95
31
70
39
127
40
84
30
15
53
32
40
127
63
8
60
30
-55
-64
-40
-83
-57
-127
-53
-60
-37
-83
-107
-60
-78
-29
-98
-61
-127
-60
-33
45
-6
33
127
31
-37
32
-16
89
109
91
107
127
123
75
112
88
26
62
34
35
110
127
23
54
31
36
34
-20
89
127
-12
20
30
-21
0
37
18
66
127
29
8
33
23
0
24
1
13
127
22
-1
9
8
44
127
25
-1
-27
-14
-27
-126
-11
22
18
-22
76
127
7
14
13
-22
21
77
21
15
15
-3
-45
-127
-17
-56
-101
-36
-27
-30
-5
51
127
31
3
-115
0
-127
9
-96
9
-112
6
35
17
-51
127
87
-94
39
15
-45
64
27
-54
127
25
-75
45
37
-52
17
127
62
15
-7
-106
-33
-126
-37
11
49
17
37
127
74
16
34
8
25
50
18
38
127
43
21
44
8
-30
-4
-13
-19
127
8
-27
-7
-14
25
66
-4
50
127
-3
23
59
3
-115
-127
-116
-82
12
-80
-114
-105
-111
-35
69
127
1
21
108
-40
70
118
-29
-36
-39
-46
127
-50
-30
-34
-41
15
89
60
19
127
73
7
90
48
-44
68
4
-106
127
11
-37
64
7
50
99
50
70
127
81
37
89
31
64
76
61
27
127
92
68
70
72
54
37
5
48
-127
-1
51
43
8
35
108
42
0
34
27
-44
-127
-77
39
56
23
-2
-127
-15
32
48
26
5
40
17
5
127
32
0
36
19
-39
-44
-27
127
122
69
9
47
11
-2
14
5
16
127
7
-3
10
0
62
60
43
71
127
42
61
36
41
38
31
-8
61
-127
-32
37
34
-18
-56
9
54
-15
88
127
-56
17
46
-3
113
69
-40
-127
67
9
114
67
26
56
24
38
127
81
26
62
15
44
59
17
119
127
42
34
61
15
56
71
-39
85
127
-11
48
70
-39
79
14
-53
127
-68
-74
64
14
-45
2
50
8
29
127
45
12
37
-1
69
32
-77
111
-12
-127
57
30
-67
86
127
26
105
111
11
82
115
9
-5
42
10
16
127
44
-1
33
12
-49
-127
-44
-11
49
-13
17
101
19
5
-6
12
0
-127
-11
6
-3
17
-53
-127
-59
-7
-1
1
45
102
43
6
97
0
-68
-127
-86
6
91
1
-89
-127
-57
13
3
-28
50
123
57
2
30
-1
25
127
12
9
19
1
17
43
32
73
127
9
10
37
17
-41
-111
-40
-127
-78
-51
-23
-96
-34
-25
1
26
-77
-98
127
-22
-2
24
-80
-127
-83
-44
42
-48
55
91
53
115
127
15
115
-26
-49
110
126
17
65
42
45
69
127
66
62
45
39
-31
-127
-34
-93
-52
-79
-29
-120
-25
-13
54
43
-59
-127
109
-8
53
43
17
35
13
41
127
47
9
34
12
-6
41
5
40
127
18
5
36
4
-52
-127
-41
0
-12
-4
41
115
38
-53
-118
-86
-63
-67
-127
-52
-123
-70
-35
-127
-49
-16
-5
-10
40
105
43
61
127
72
103
97
21
69
110
81
82
79
10
82
127
87
45
54
9
-40
-40
123
-33
-37
127
-39
-33
117
-3
-5
-5
29
127
-10
2
-8
-1
-127
-95
-116
-81
11
-80
-102
-97
-114
-64
-95
-52
-32
-27
0
69
127
32
-55
71
64
19
92
127
6
77
57
-70
37
62
-116
-57
127
-67
26
64
19
118
37
86
127
45
6
110
14
18
63
56
23
127
85
18
50
48
34
26
-4
43
-127
-26
32
23
-9
-63
-122
-91
-116
-17
-127
-58
-117
-79
-22
-127
-37
18
26
14
25
58
25
-10
-29
6
-18
-49
127
-6
-31
3
36
39
29
43
127
73
39
24
38
11
37
27
34
127
31
12
33
26
8
35
11
34
127
23
4
24
-1
16
65
11
67
127
37
7
57
5
13
19
-6
22
127
20
5
15
2
60
117
80
64
-5
105
45
127
74
57
46
3
127
-43
-55
38
46
10
47
107
57
17
9
8
-59
-127
-58
41
59
42
60
127
50
50
49
43
99
110
61
127
102
90
105
107
53
29
57
18
58
127
43
28
49
12
-27
-20
28
-69
13
127
-23
-14
22
50
92
21
86
127
68
45
64
24
80
127
-70
89
117
-79
75
113
-67
-25
67
45
-99
-32
127
-30
63
30
-25
-13
52
-32
-77
127
-18
-24
48
24
79
15
79
127
61
10
65
22
-5
82
0
93
127
95
-2
74
-5
-68
-110
-100
-127
-29
-107
-61
-114
-88
65
127
24
60
33
-29
62
122
22
35
80
43
80
127
71
31
81
21
32
50
-17
-22
-127
-2
29
51
-18
3
120
-15
-101
-127
-93
2
120
-16
82
99
-66
127
64
-75
75
86
-53
-94
-84
-127
-56
-24
-50
-86
-67
-116
-68
-91
-56
-127
-65
-111
-71
-79
-45
-94
-118
-94
-127
-105
-118
-91
-88
-96
23
40
11
29
127
47
10
43
11
-38
30
84
-47
-6
127
-32
19
79
-83
32
39
-124
39
127
-71
32
26
21
-30
-1
117
-127
30
25
-29
0
-25
45
5
-25
127
59
-28
-30
-35
-119
-127
-68
-97
-102
-95
-86
-122
-66
-20
51
59
-119
76
127
-28
48
52
50
127
80
-34
90
124
71
103
89
102
104
58
112
127
47
75
86
35
50
36
-12
127
-23
-36
44
39
3
18
46
10
34
127
50
22
51
-1
-7
12
-2
25
127
5
-5
10
1
-14
53
11
55
127
67
-5
45
3
32
52
28
-5
127
113
28
41
20
45
90
23
66
127
58
35
84
9
45
60
-22
127
107
30
43
63
-22
37
51
26
70
127
50
34
31
28
-5
-38
-7
-27
-127
-47
-10
-52
-15
36
39
10
127
93
-28
29
37
2
47
78
43
10
47
15
-74
-127
-80
-48
-67
-41
-94
-127
-91
-32
-67
-31
28
69
34
47
127
66
11
62
33
31
48
9
-14
-127
-30
36
42
9
89
127
39
74
78
95
89
122
38
81
127
49
-46
-67
-27
-50
-60
-56
-23
33
-24
25
127
36
-26
24
-16
73
100
65
89
127
106
47
92
55
38
3
-39
127
-29
-72
35
-4
-39
13
63
27
79
127
11
12
54
43
-34
67
127
-9
93
119
-25
41
102
-13
100
0
-73
-127
-65
-6
90
-4
52
15
-24
127
-58
-25
49
19
-21
27
38
-7
60
127
35
21
33
-15
30
76
13
127
120
105
18
70
16
5
-12
31
-4
-127
85
1
-10
29
-19
17
28
-39
3
127
-20
16
20
0
20
-12
9
127
-14
1
18
-19
79
1
-88
127
-24
-94
68
2
-78
18
49
-20
51
127
40
24
30
-15
24
65
8
81
127
18
22
57
-9
-21
75
41
6
127
105
-12
55
43
-11
11
-4
4
127
27
-9
15
-6
-39
-65
-56
-71
127
-66
-43
-59
-53
-5
26
3
19
127
50
-4
26
7
18
37
-1
88
127
-17
17
31
-3
26
72
57
58
127
103
36
63
44
8
71
64
70
127
92
5
76
61
28
-9
-8
127
-71
-21
18
0
-5
-46
0
12
-51
45
127
-41
-4
8
8
59
11
-9
-127
-54
16
59
17
46
5
33
82
127
62
39
8
34
-121
-113
-39
-76
-25
-69
-127
-116
-13
25
48
10
63
127
29
21
39
14
37
49
50
46
127
47
29
30
46
7
26
-3
39
127
27
4
26
13
110
120
54
20
30
-8
95
127
51
-118
-79
-127
-77
-55
-92
-101
-70
-106
-9
-127
-17
63
111
76
-17
-115
-20
7
19
-18
36
127
-22
6
17
-9
-73
-92
-95
-74
-127
-68
-65
-111
-82
3
-83
2
-50
-43
127
-80
74
48
10
71
43
57
127
67
8
59
42
46
-32
-65
127
-65
-77
45
-24
-60
38
42
25
58
127
33
48
28
22
-57
13
35
-127
70
105
-53
2
41
-20
19
-1
26
127
10
-20
12
-2
23
-18
13
53
-127
40
23
-14
14
88
59
-84
127
-97
-114
69
58
-68
0
47
26
-30
-41
127
-1
52
27
73
58
-99
127
50
-108
57
43
-91
-51
-103
-68
14
-53
-8
36
127
48
-53
-99
-47
-56
-33
-127
-59
-69
-45
39
60
36
65
127
61
24
55
21
38
84
37
86
127
78
25
80
31
74
46
-43
85
-114
-127
63
50
-48
-127
-106
-103
-116
-21
-108
-97
-103
-67
40
114
34
15
15
12
-66
-127
-71
33
85
32
-76
-127
-121
31
101
26
11
29
13
37
127
20
5
25
14
17
42
23
51
127
45
22
33
28
-8
29
7
25
127
12
-8
38
11
-1
-35
-13
7
127
-16
-4
-44
-11
95
66
6
116
127
49
83
51
-9
-39
-127
-43
-19
21
1
27
122
28
15
127
22
2
-16
-12
15
115
23
64
70
31
72
108
127
56
55
18
-18
67
-33
61
127
50
-11
62
-15
17
34
0
22
127
16
13
30
2
-78
-113
-82
-108
-121
-127
-68
-96
-54
2
42
4
36
127
33
0
38
-6
0
55
16
20
127
54
-5
51
16
-43
44
53
-29
14
127
-37
28
48
-2
58
55
-20
13
127
15
45
56
107
82
0
127
-72
-63
99
89
-16
-1
127
20
-100
-90
-105
10
121
34
43
67
61
19
127
84
46
53
68
21
22
3
29
127
11
15
32
1
15
127
30
121
-28
91
7
104
10
7
29
13
14
-127
13
8
34
11
-21
10
-2
9
127
0
-16
2
1
-60
18
80
-71
-79
127
-56
22
78
2
29
25
-57
27
127
1
30
28
57
43
-38
127
24
-99
46
34
-36
-37
-11
29
-65
127
88
-35
-3
29
21
110
17
91
127
32
49
88
19
22
65
17
36
127
25
12
60
-1
31
-14
-39
127
80
-104
19
-5
-39
56
68
16
78
127
5
46
57
23
-71
9
84
-127
-49
117
-65
6
83
47
6
-46
88
14
-127
45
5
-46
13
41
19
50
127
48
2
41
12
2
19
1
15
127
18
-3
14
1
-13
48
0
33
127
29
-15
34
3
-18
69
50
-87
4
127
-3
61
36
17
38
-1
31
127
28
12
30
2
36
91
27
127
119
69
30
80
21
6
5
11
56
127
64
11
-7
5
5
127
15
-43
-110
-42
-5
122
25
15
56
52
74
127
79
14
46
49
-10
0
-10
-9
127
12
-8
3
-9
-1
-127
-8
4
5
6
-5
-124
-11
-14
-86
-46
-76
-127
-88
-25
-67
-35
19
65
20
38
127
40
29
58
32
16
91
65
56
100
127
2
67
65
40
83
39
111
127
75
40
63
51
44
72
-4
50
127
63
33
65
-6
32
33
22
-7
-127
16
32
34
21
-82
-85
-27
-85
-62
-127
-66
-80
-24
86
117
-14
-69
-10
17
-57
-127
6
-26
57
-21
-98
127
-98
-19
47
-18
75
-10
-64
115
-10
-127
75
0
-66
38
4
-13
127
62
-55
30
0
-17
30
84
29
78
127
50
25
89
30
13
52
5
63
127
73
17
46
0
-30
-127
-17
4
32
-4
34
80
31
42
20
-51
127
-71
-126
35
14
-40
42
65
12
94
127
53
26
57
12
19
-63
24
55
-127
67
7
-44
21
-7
-1
36
-71
-127
-3
1
-3
35
55
96
48
11
43
12
-71
-127
-58
-24
36
42
-102
-56
127
-24
38
34
12
65
8
-8
-127
-36
14
57
0
2
-48
-6
127
-81
2
0
-48
-3
2
-14
6
-23
-127
-32
5
-19
9
-32
-28
-28
38
127
31
-41
-27
-26
24
41
8
57
127
-20
25
36
4
-45
-124
-36
-101
-59
-97
-23
-127
-39
88
112
67
127
88
126
91
103
67
-101
36
87
-84
65
127
-106
30
80
44
115
50
7
-9
26
-68
-127
-94
3
43
-15
26
127
18
9
32
-13
62
21
-11
127
-111
-30
46
38
-16
54
77
39
127
91
58
37
64
39
33
81
18
23
39
4
-60
-127
-50
85
74
11
44
127
45
80
61
5
-114
-91
-96
-102
-55
-127
-110
-95
-74
2
24
2
8
127
21
8
18
1
93
-2
-127
2
-29
21
-119
30
82
47
12
34
64
127
83
39
1
40
-53
-117
-58
-21
-27
-25
25
127
45
39
51
15
59
127
27
32
53
15
-1
32
-16
1
127
17
2
30
-17
29
85
33
69
127
64
22
74
32
9
78
9
51
127
65
2
63
15
46
87
54
48
127
71
42
66
50
8
22
1
22
127
6
5
13
-1
31
48
27
-59
-127
-49
29
47
29
-106
-112
-124
-127
-51
-93
-102
-121
-116
-13
-42
-4
5
127
46
-18
-46
-11
42
70
39
17
127
65
41
63
39
-118
-86
-111
-127
-31
-116
-99
-81
-88
48
39
30
27
127
33
37
33
25
-35
3
-18
-32
127
53
-17
-10
-11
33
25
29
40
-127
17
33
26
26
33
96
36
28
-15
33
-58
-127
-56
-7
32
-6
18
127
17
-6
30
-8
52
70
36
84
127
72
29
52
33
-52
-100
-97
-15
-64
-35
57
127
98
22
36
41
127
125
89
21
39
26
23
19
30
24
-127
28
23
21
29
84
74
-4
127
34
-22
68
84
6
-41
87
88
6
9
-13
36
-127
-90
-34
-99
-40
-56
-48
-7
76
127
49
75
17
-65
127
57
-73
70
7
-72
66
64
-32
127
-29
-47
55
54
-42
-5
105
108
32
127
119
-1
86
92
14
44
21
18
127
3
5
35
17
61
87
47
77
127
49
51
82
52
23
27
-4
80
127
-26
17
32
-12
36
54
38
49
127
97
36
61
39
-34
-78
-28
-67
-127
-74
-40
-60
-30
-30
15
28
-58
127
79
-27
18
20
-2
31
19
27
127
41
10
26
25
0
28
-1
45
127
29
2
24
-1
63
89
42
96
127
125
55
91
26
17
31
19
47
127
21
15
26
20
46
62
30
72
127
4
46
47
19
12
50
-5
33
127
28
6
37
-13
-127
-95
-53
-82
-17
-106
-109
-90
-51
-37
-89
-5
-63
-44
-127
-37
-93
8
3
18
-59
105
103
-127
7
9
-48
9
53
6
71
127
39
19
35
13
-38
96
71
-32
118
127
-21
89
60
37
98
45
14
18
2
-35
-127
-46
-32
-127
-28
-9
27
2
27
81
33
62
89
45
127
-26
84
62
85
60
8
50
15
45
127
64
7
47
22
-85
-95
-106
-59
-15
-105
-70
-127
-84
58
69
10
110
127
20
71
36
7
29
41
28
46
127
38
29
46
16
3
31
15
20
127
29
6
22
16
-41
108
127
-12
-3
-29
-37
115
114
44
125
42
98
52
127
48
99
39
37
58
14
99
127
48
32
60
19
17
54
19
36
127
63
19
49
18
-70
50
-12
-106
127
24
-75
51
-6
7
45
11
35
127
57
17
33
3
-88
-43
-77
-80
127
-88
-77
-52
-68
62
106
-2
127
56
8
64
80
-1
-27
54
71
-42
49
127
-13
47
56
-4
33
55
3
90
127
-2
28
49
23
13
-7
127
-74
-57
18
14
-7
-52
-15
59
-67
-10
127
-46
-10
50
60
45
-78
127
60
-124
65
32
-87
26
127
41
-12
-62
-21
-49
-118
-33
61
45
-33
127
-74
-26
55
49
-32
7
22
32
9
127
49
5
21
22
30
-1
-36
127
-82
42
34
-15
-30
83
16
-67
127
-23
-96
78
1
-55
21
36
29
28
127
47
28
38
13
17
85
-17
85
127
47
19
76
-15
65
30
-15
127
124
3
50
26
-18
51
-8
-33
104
127
-15
48
-14
-33
-89
-127
-68
2
5
3
78
105
55
64
95
64
127
42
109
70
101
65
1
39
15
42
127
46
5
44
10
9
41
-12
43
127
43
14
38
-1
-127
-117
-120
-124
-45
-110
-108
-118
-114
11
32
19
52
127
9
16
29
7
107
92
87
127
-33
122
85
108
75
53
121
51
-63
-63
87
-45
127
47
61
98
-1
127
-54
-96
38
112
-5
53
126
23
89
116
127
54
101
36
30
43
15
47
127
39
28
41
16
44
107
8
80
127
96
59
74
-5
45
71
54
53
124
127
44
60
46
16
-19
-17
127
-51
-56
18
-17
-19
42
-48
-18
127
-48
-62
32
-37
-22
30
64
39
57
127
88
33
62
34
93
93
-5
86
127
-45
103
71
-5
29
1
-34
127
33
-45
19
1
-30
40
80
29
85
127
48
30
69
37
6
27
9
20
-127
27
7
20
11
33
-36
-19
127
-61
-70
29
-28
-16
14
69
13
26
18
21
-15
-127
-18
16
59
21
63
127
48
14
57
20
89
88
37
76
85
24
-127
-101
-60
-24
68
24
127
115
56
-26
70
15
-78
-119
-54
3
-13
-13
49
127
52
55
59
-14
127
55
-27
55
49
0
-71
-58
-80
-127
-126
-81
-77
-22
-80
32
53
-2
104
127
14
22
46
2
24
46
18
38
127
53
25
48
13
26
19
-6
36
-127
4
26
22
-8
14
26
14
-2
-127
-1
11
20
16
20
44
-3
108
127
1
14
46
-20
48
108
88
38
94
62
39
127
59
-20
2
-15
-12
127
1
-21
5
-18
16
60
6
47
127
28
15
48
14
77
112
66
127
94
49
87
110
62
53
68
-9
127
51
-85
47
50
6
22
83
0
72
127
45
21
76
15
35
98
63
-13
5
-3
-56
-127
-62
-3
29
2
19
127
14
5
22
5
59
127
55
90
59
55
54
121
57
7
46
15
12
127
48
9
36
20
60
82
30
127
89
33
52
79
39
-22
-127
-62
-60
-13
16
51
108
33
7
40
13
33
80
127
20
20
-1
-47
11
31
-42
57
127
-47
5
26
35
48
54
77
127
90
19
45
60
38
65
-4
27
127
87
30
51
-16
-31
26
51
-94
-105
127
-22
24
46
31
58
34
42
127
80
33
58
33
13
14
2
26
127
5
14
10
1
-28
-19
-45
-6
127
-42
-26
-19
-55
-2
-10
-2
-2
127
-19
-3
-15
-8
52
49
53
51
127
58
41
59
38
30
-51
-3
127
-102
0
31
-45
0
-20
31
50
-68
72
127
-16
40
31
45
62
40
124
127
64
43
60
37
-18
34
62
-44
69
127
-14
8
60
31
21
42
28
127
20
31
17
40
41
127
56
90
95
71
32
112
54
-98
-127
-78
-43
-66
-21
69
126
66
-72
-115
-54
-97
-95
-127
-59
-118
-45
-19
-47
31
-2
-113
127
-27
-49
28
22
73
94
69
61
127
33
67
98
57
126
27
8
-20
9
-74
-127
-50
10
19
-58
45
127
-66
9
5
-55
-1
74
13
-13
-127
-37
10
74
15
127
101
58
109
56
85
109
75
79
3
-114
-27
-58
-69
-48
13
-127
-23
-71
-127
-57
-11
-3
-34
73
119
52
46
4
-57
127
25
-70
45
-5
-53
5
46
35
48
127
63
4
48
22
-27
71
80
-85
-98
127
-33
73
71
29
34
29
42
127
36
26
17
27
55
113
127
35
70
103
48
110
119
4
26
25
33
127
24
6
23
24
13
17
23
14
-127
30
14
17
19
6
35
-18
41
127
11
-16
8
-32
22
48
12
-14
-127
-22
17
46
12
68
117
59
115
99
127
42
121
36
-11
-36
1
-23
-127
-46
-6
-39
3
-35
6
29
-38
127
33
-36
11
30
-34
-95
-49
-127
9
-75
-38
-101
-46
28
23
30
75
127
-7
24
-5
37
-13
50
35
127
16
-71
-25
51
49
-7
50
26
50
127
65
-10
44
8
-47
-69
-61
-127
-79
-109
-31
-71
-48
-22
11
2
-6
127
29
-19
11
-2
23
25
26
19
127
33
11
30
19
47
69
41
101
127
40
36
78
14
28
40
31
41
127
23
23
38
31
90
120
18
127
101
36
85
92
21
12
-9
6
81
73
127
-7
-16
-20
-66
48
56
-127
-10
104
-71
47
48
20
57
-2
86
127
50
14
53
3
50
83
58
-36
127
97
50
84
49
49
71
35
56
127
67
60
54
35
10
19
-4
9
127
24
7
12
0
-87
-127
-73
0
25
-7
60
101
53
-113
-100
-89
-127
-86
-125
-76
-106
-82
59
80
26
127
49
96
50
94
35
44
25
-25
127
-74
-44
36
26
-28
12
45
-16
60
127
62
13
34
-16
-71
-114
-89
-33
-14
-23
48
127
70
13
36
19
54
127
36
15
21
15
-3
70
27
39
127
93
-22
79
16
-115
-127
-117
-115
-112
-117
-122
-113
-85
72
74
46
108
127
25
73
80
48
5
69
7
-75
-127
-82
9
66
18
1
67
65
12
120
127
5
64
64
51
36
59
72
127
25
46
29
61
-13
-21
39
-103
69
127
-3
-31
31
-10
41
8
22
127
30
-6
42
5
34
26
18
127
6
21
29
35
14
24
46
10
-19
-127
-9
23
40
12
85
116
24
113
127
-15
81
101
43
-91
-127
-94
55
49
33
45
90
46
-77
-97
-60
-92
-70
-127
-72
-86
-48
10
50
14
31
127
18
2
46
19
-45
-127
-48
13
33
-4
29
86
49
22
88
30
43
127
52
-2
82
25
61
101
32
62
127
81
52
82
30
-62
-127
-45
45
32
30
41
113
37
36
46
1
127
91
-81
23
46
10
-72
-103
-78
-108
-127
-83
-84
-84
-70
48
81
-5
106
127
-26
53
81
6
0
63
45
21
127
85
-1
68
25
-124
91
101
-11
-91
92
127
60
-89
-22
-22
29
-31
-20
127
-15
-28
28
-22
112
55
57
94
127
6
105
52
44
122
36
29
77
29
35
127
49
-4
-37
-4
-32
127
-27
-1
-31
-8
-1
8
1
6
127
2
-1
5
-2
25
26
-1
95
127
28
25
22
-7
85
127
64
58
-17
104
63
108
65
36
100
47
89
127
97
40
89
50
-77
-26
-16
-127
91
88
-69
-25
-12
9
20
13
53
127
16
13
3
10
90
127
93
97
-21
102
86
112
85
0
38
7
32
127
28
2
28
1
10
34
8
38
127
45
13
32
3
28
14
36
28
127
73
23
19
12
-77
-107
-59
-85
-67
-127
-56
-90
-49
-37
-34
-47
-127
-36
-73
-30
-40
-55
43
83
20
46
127
52
32
81
19
65
38
-11
127
89
0
70
33
-17
12
30
-2
10
127
20
10
25
6
-59
-99
-17
-113
-72
-127
-47
-83
-14
61
-72
-21
127
-87
19
61
-69
-19
-2
24
-3
29
127
-3
-1
18
-7
9
43
19
47
127
45
15
24
20
55
122
66
126
127
-60
51
117
56
-82
43
71
-127
5
108
-66
43
74
93
-8
-85
127
60
-123
86
-7
-84
18
72
23
-38
-29
127
23
61
13
63
35
-32
127
-38
-31
57
32
-25
100
101
103
122
-126
127
98
85
116
-35
12
5
-100
127
54
-30
9
2
-59
41
42
-127
33
112
-52
34
41
27
43
34
56
127
40
27
39
21
83
79
92
74
127
100
89
70
80
-35
32
61
-17
76
127
-35
29
55
59
-127
14
63
-84
-4
57
-111
11
-38
59
50
-37
127
126
-17
52
54
57
41
-15
100
-127
-63
43
42
-20
48
127
13
-28
-44
18
-39
-124
-69
-73
-111
-116
-127
-113
-109
-56
-94
-84
51
65
8
78
127
54
17
71
17
19
35
5
44
127
36
22
27
9
-1
33
21
19
127
21
8
26
20
-40
-127
-50
1
0
-5
25
96
47
45
51
54
72
127
52
34
46
45
-23
-11
-61
98
47
-127
-20
-15
-58
39
125
39
-127
-79
40
44
120
36
-55
91
72
-32
127
97
-49
73
53
5
63
0
73
127
45
3
55
3
-43
-127
-58
10
1
9
40
103
54
44
72
22
21
127
4
46
57
26
46
58
20
74
127
43
48
51
20
12
42
26
42
127
17
7
50
18
75
15
-78
115
-80
-127
78
20
-64
-1
3
0
127
47
93
-27
-10
-19
37
42
23
43
127
26
41
28
31
62
86
36
44
115
127
62
95
29
-127
20
67
35
-89
25
54
43
-121
-67
-127
-69
10
-16
-21
41
115
60
33
127
4
76
119
81
16
116
9
15
25
8
90
127
17
14
25
6
80
127
57
-28
-59
-4
-90
-119
-71
-37
-127
-58
2
-20
-4
38
122
55
20
12
9
51
127
-50
18
1
14
34
55
29
29
127
70
41
42
15
35
19
-6
47
127
6
31
21
-7
-49
-19
57
-59
-58
127
-50
-11
45
86
-2
-127
-1
-39
21
-102
42
79
-118
-70
-59
-119
-27
-57
-127
-70
-50
39
53
12
48
127
68
36
54
13
45
120
71
-72
39
-78
40
127
49
-36
8
35
7
86
127
-17
-2
36
13
28
11
38
127
35
4
21
15
36
12
-43
127
47
-50
36
10
-43
2
39
-14
62
127
25
5
23
-17
91
70
-17
127
-88
-41
93
63
-3
-11
-107
-17
-127
90
-115
0
-103
-20
30
25
0
42
-127
-41
29
32
1
28
27
40
34
-127
44
23
29
38
10
43
31
38
127
47
6
37
41
-10
89
15
-55
-127
-28
-9
91
26
-53
-127
-34
-17
-14
-4
54
102
34
-34
61
67
-104
74
127
-60
62
58
124
92
127
108
-34
126
125
99
98
-93
-34
84
-104
-63
127
-65
-63
84
56
75
48
62
127
50
69
79
34
81
127
69
68
49
52
77
99
71
41
39
64
45
127
-2
35
38
50
-60
35
36
-47
127
79
-56
33
30
-28
-9
24
-82
-55
127
-34
-1
22
68
55
25
52
127
13
51
54
15
12
63
57
12
33
127
9
54
48
-35
-9
-4
-88
127
24
-41
-7
-5
59
47
72
57
127
45
62
35
75
44
71
14
61
127
21
35
61
15
67
51
60
46
127
53
72
17
68
85
63
18
86
127
49
73
62
16
-57
-8
62
-54
-8
127
-56
-12
56
127
77
80
108
46
66
113
71
68
8
53
11
-30
-127
-30
14
52
11
-24
-84
-31
11
-127
9
-25
-111
-40
6
40
20
8
127
58
4
33
23
87
78
25
127
63
71
82
75
25
42
37
27
69
127
23
27
49
19
15
31
18
45
127
31
20
29
8
3
24
-7
22
127
36
2
20
-1
0
-34
2
126
-120
127
8
-35
12
9
24
13
-58
31
127
15
14
18
1
57
1
68
127
35
-3
34
-5
46
37
-47
127
-9
-100
37
34
-48
40
-1
-13
127
-100
-27
30
-5
-22
19
95
18
102
127
65
-7
87
11
-5
85
22
15
-105
-127
-5
82
12
50
125
40
2
-59
30
-55
-127
-65
-73
-76
-74
-69
-45
-127
-59
-78
-73
59
127
41
-38
-45
-46
-72
-117
-45
47
127
27
-47
-9
-38
-62
-123
-42
-122
12
102
-127
-41
127
-112
8
100
60
125
46
-60
-44
26
-38
-127
-82
10
57
6
57
127
43
15
40
9
-42
96
98
-50
76
127
-64
90
90
66
82
-40
127
62
-47
70
80
-35
16
-4
-39
88
127
-68
10
-9
-44
10
44
23
43
127
41
19
43
25
8
31
25
31
127
30
3
27
16
-2
-4
9
27
127
98
5
-2
11
23
1
11
39
127
49
11
-3
14
34
58
7
62
127
34
30
38
8
49
35
0
23
127
55
42
40
-17
23
-53
10
127
-84
33
19
-55
7
13
74
32
27
127
20
-62
-113
-42
-15
41
-25
64
127
33
-13
28
-31
-52
-127
-68
12
-44
-9
49
118
68
37
111
30
28
12
11
-78
-127
-50
-91
-81
-47
-127
-81
-123
-66
-76
-52
0
63
27
-32
-127
-18
-6
64
27
-19
-25
-14
-23
-127
-25
-18
-31
-12
68
71
-38
70
-127
-72
63
74
-27
47
70
54
83
127
45
44
60
52
13
19
-62
23
127
-110
16
13
-57
48
46
41
26
127
25
43
35
44
24
45
11
108
127
-37
40
34
8
16
33
25
61
127
26
11
29
29
-79
-127
-99
-118
22
-85
-64
-125
-80
14
36
37
98
127
84
27
32
33
-61
-83
-41
-27
-29
-48
41
127
42
-8
12
25
-13
20
127
-5
10
18
-21
-70
40
-9
-73
127
-18
-64
32
51
-6
-14
127
-67
-10
44
-4
-16
-6
35
-13
24
127
55
-12
32
-10
4
29
-8
12
127
5
2
25
-7
52
118
107
72
121
127
42
99
95
-16
56
34
-25
127
104
-10
44
26
-27
10
27
-48
-11
127
-28
7
20
40
30
-37
127
48
-81
26
21
-28
22
47
-8
83
127
6
8
42
0
40
37
-40
127
76
-51
39
42
-39
39
85
25
127
88
125
16
83
15
9
17
17
24
127
22
3
20
19
-56
-16
60
-63
-50
127
-63
-20
71
12
54
6
-37
-127
-71
12
60
2
-19
48
-14
30
127
26
0
40
-13
27
40
6
24
127
13
24
39
-1
-3
-13
19
89
127
127
-28
0
6
-31
17
35
-66
50
127
-39
13
38
-2
124
71
-10
52
127
-8
127
68
33
104
13
-87
-127
-82
29
90
14
46
-3
-14
119
-127
-38
39
0
-17
-55
-25
77
-26
2
127
-48
-26
55
-52
23
55
-75
-37
127
-67
27
55
99
105
29
94
127
64
90
110
33
16
109
57
-1
22
-26
-42
-127
-48
-117
-20
-115
-72
32
-104
-127
-5
-115
23
93
1
6
-127
-89
25
86
7
43
27
-85
116
127
-97
39
27
-83
15
41
7
30
127
27
15
34
13
27
37
40
53
127
31
31
33
43
16
55
12
59
127
44
19
55
8
26
61
2
75
127
-33
34
48
7
52
66
15
121
127
79
40
71
19
-5
32
-11
-127
112
-5
-3
35
-15
21
127
47
67
70
113
28
122
27
41
125
34
5
-20
-6
-54
-127
-50
-55
48
100
-17
99
127
-49
43
87
-91
6
45
-127
68
110
-71
3
40
4
3
-32
33
127
-96
3
4
-27
35
69
75
28
87
127
18
61
59
48
80
9
41
127
93
54
74
1
41
34
-3
127
102
-58
39
31
-8
59
19
-69
122
-37
-127
50
7
-65
3
18
-14
23
127
18
-4
19
-19
41
77
25
60
-127
11
36
69
20
-48
-127
-53
9
-10
13
49
101
38
48
40
40
56
-127
51
47
47
38
-127
84
63
67
-113
32
73
-26
-93
41
95
9
57
127
42
28
76
18
17
86
17
5
29
27
-29
-127
-55
33
127
31
12
-20
1
-43
-123
-56
42
32
75
127
98
120
58
33
64
45
59
58
64
127
67
61
55
44
23
127
47
13
-33
-20
-53
-109
-48
-15
40
62
-33
58
127
-17
28
59
28
52
-15
66
127
14
13
44
-7
68
38
15
75
127
62
63
52
-1
13
32
17
53
127
23
5
26
20
59
69
35
127
46
-33
46
74
17
-56
-113
-51
-127
-10
-100
-61
-98
-56
-74
-105
-34
9
-77
-7
67
127
46
-4
-72
-10
127
-53
-32
-14
-70
-7
46
121
39
21
-22
36
-90
-127
-81
-43
55
51
-10
93
127
-35
52
51
-52
-127
-64
-4
-18
-23
44
124
51
50
68
44
71
127
56
50
60
41
34
16
14
39
-127
-21
32
15
9
-13
32
-11
18
127
28
-14
34
0
-23
-6
-3
-27
127
3
-29
-7
1
16
81
14
60
127
52
4
74
4
4
43
2
41
127
20
5
35
-2
46
127
61
76
85
58
30
119
49
20
33
8
25
127
21
11
27
2
37
68
8
39
127
36
29
58
8
8
6
16
6
-127
4
7
8
15
52
83
41
88
127
87
58
58
38
86
15
-77
121
-1
-127
79
12
-72
90
113
94
122
127
117
66
106
81
0
47
21
3
127
40
3
39
18
-9
0
-11
13
127
-21
-7
-3
-12
-1
127
20
123
13
-60
-17
113
51
31
17
-45
80
127
-95
30
18
-45
-28
56
24
59
127
60
11
53
18
4
28
14
53
127
11
4
31
10
71
18
-67
127
-81
-107
62
21
-50
25
50
15
28
127
37
17
47
10
54
34
-84
111
20
-127
52
34
-75
39
70
52
50
127
103
35
82
42
-68
-127
-58
-4
25
1
51
105
43
36
45
19
50
127
35
36
29
22
28
54
49
58
127
49
21
48
44
46
106
-41
47
119
127
31
109
-42
86
125
107
76
-121
83
73
127
99
36
99
64
3
61
15
-58
-127
-79
-38
117
64
27
73
127
-2
101
61
37
88
6
76
127
36
31
82
9
-48
-69
-42
-83
-127
-70
-41
-67
-25
19
102
45
68
127
93
39
72
46
80
68
60
116
127
49
81
66
57
31
46
39
41
127
37
28
47
29
40
2
-38
84
24
-127
34
5
-39
67
78
45
68
127
54
62
77
30
34
52
22
21
127
96
22
35
23
26
97
57
47
127
124
20
81
42
62
49
-52
127
98
-56
46
43
-71
-85
-84
-65
-13
-105
-2
77
127
64
14
38
8
33
127
30
7
18
14
-28
37
6
24
127
3
-33
27
9
18
43
22
-16
-127
-32
22
42
21
0
76
15
57
127
15
-10
68
22
35
41
-24
78
127
45
22
42
-25
25
29
6
79
127
52
16
35
-7
-6
-67
-5
-45
-127
-60
-4
-60
2
81
73
79
127
123
66
81
61
69
86
91
61
115
127
65
42
86
81
108
84
71
127
117
88
93
70
84
-77
-99
-66
-6
-61
16
63
127
55
-34
-127
-12
7
31
-2
26
89
9
-12
40
-13
21
127
22
-9
32
-8
-124
33
49
-63
127
62
-112
30
39
16
32
-3
43
127
12
9
30
-2
16
60
48
49
127
67
15
63
29
25
45
24
28
127
38
28
37
24
-61
47
62
-61
-8
127
-70
51
54
69
59
82
95
127
121
42
76
48
29
85
27
-10
-127
9
24
73
28
6
52
42
-31
109
127
9
39
35
1
32
-9
38
127
13
1
23
-3
1
51
37
113
127
37
12
51
31
-1
77
5
-61
-127
-79
-1
71
-6
39
127
37
-47
-1
-41
-62
-127
-55
54
70
38
117
124
127
54
72
30
2
10
42
0
-127
53
8
15
43
-57
33
34
-127
98
118
-50
33
33
48
44
-96
111
127
-93
44
45
-108
24
43
30
34
127
42
11
39
23
12
42
14
47
127
10
7
38
11
-4
28
0
47
127
27
-2
29
8
30
26
-5
36
127
47
28
27
-6
-37
-72
-42
-28
-69
-12
32
127
41
119
76
29
104
127
64
90
80
18
-125
-107
-56
-127
-60
-99
-113
-94
-51
0
35
-3
45
127
37
-8
32
0
-62
-107
-73
-127
-123
-64
-48
-84
-65
57
127
50
95
93
65
60
119
65
18
44
32
47
127
13
23
45
32
27
55
10
46
127
37
26
55
8
-21
41
24
29
127
85
2
31
20
4
54
-18
63
127
63
5
52
-9
-2
69
30
114
127
78
6
75
18
-119
127
66
-124
72
125
-125
98
70
18
33
25
31
127
45
14
29
23
16
46
-4
127
31
-18
18
41
7
-41
-127
-48
-20
51
13
33
73
26
-24
-29
49
-28
-67
127
-25
-22
41
37
30
5
57
127
45
29
28
-5
-110
-125
-63
-127
-46
-101
-110
-121
-66
-1
80
61
16
127
113
-9
60
59
33
9
-20
127
22
-42
26
6
-16
27
46
49
125
127
76
34
44
37
73
97
65
63
127
90
56
94
65
-13
25
46
-56
-35
127
-6
29
40
2
49
16
64
127
59
0
40
9
57
60
26
65
127
-4
47
40
34
106
103
24
127
-32
23
85
102
28
-29
20
22
13
127
2
-11
-17
31
20
48
12
46
127
63
19
53
5
68
127
14
117
86
56
67
103
13
22
47
17
57
127
41
20
39
15
17
33
2
28
127
15
7
35
3
1
16
-8
19
127
8
2
16
-9
61
32
-90
127
95
-93
56
34
-91
58
127
38
15
118
36
57
118
22
50
91
65
68
127
77
44
67
45
-4
29
20
9
-6
-127
-10
33
25
-24
18
45
-69
-47
127
-26
11
48
45
113
35
122
127
108
57
86
15
30
22
-30
91
127
-34
28
22
-27
-4
34
14
-8
72
127
-6
37
15
69
53
-47
108
-127
-39
64
45
-29
95
127
17
121
89
-77
83
111
14
-4
15
-1
18
127
19
-7
18
-4
-23
-77
-13
-110
96
-127
-15
-75
-10
-14
36
11
34
127
28
-3
27
8
-7
17
0
27
127
-3
1
12
3
91
89
30
116
83
60
-79
-127
-70
-2
-6
7
-11
127
-22
2
-12
7
-76
-95
-37
-65
-127
-47
-68
-90
-43
-3
39
5
26
127
47
2
28
-1
-55
-61
-32
-48
-127
-26
-37
-82
-27
1
20
7
5
127
10
8
11
9
57
79
69
72
127
79
26
82
68
43
42
-16
127
119
-5
39
29
-7
102
53
-67
127
70
-48
103
42
-61
37
89
36
27
127
85
37
75
35
44
88
3
127
81
21
34
79
3
26
93
64
125
127
76
11
87
50
39
52
43
50
127
62
38
42
34
2
53
42
-35
-127
-76
8
53
49
72
27
5
127
52
-40
69
17
12
0
-124
-26
-107
-120
-108
10
-127
-10
47
38
-14
76
127
44
41
32
-9
27
86
14
-44
127
90
29
71
12
63
82
43
38
127
87
59
63
54
22
55
21
26
127
57
31
50
15
40
37
45
73
127
63
40
49
34
53
108
38
127
124
57
35
86
27
40
85
49
74
127
99
36
97
59
-9
26
-21
26
127
7
-1
21
-14
61
-25
-18
127
-9
-18
55
-42
-27
1
11
-3
8
127
18
2
1
-3
3
45
-16
48
127
38
1
35
-10
96
116
102
109
120
127
75
119
79
-42
-113
-66
-116
-127
-107
-51
-95
-62
-22
18
39
-60
0
127
-30
21
33
12
24
21
70
127
61
15
13
24
55
13
24
127
82
120
-85
-59
-93
61
-14
57
127
117
74
55
-5
45
33
46
24
32
127
34
30
47
20
24
65
38
52
127
25
26
49
37
39
53
21
89
127
5
30
60
29
45
77
46
68
127
52
40
62
36
-32
-30
35
-104
-37
127
-34
-30
39
83
99
35
109
127
108
67
89
31
0
21
-10
19
127
30
-9
27
-4
-39
-127
-47
7
-22
17
29
117
35
68
127
75
72
24
119
65
99
80
13
109
41
-73
17
127
22
110
50
16
6
-28
36
127
-31
15
3
-30
37
50
44
55
127
42
29
46
34
-89
31
67
-116
36
127
-80
34
63
101
127
87
34
89
9
111
115
99
-61
66
127
-95
16
127
-60
78
113
23
114
33
93
90
127
26
96
30
55
52
37
61
127
60
52
47
36
88
-19
-75
127
-46
-81
75
-21
-66
14
23
11
33
127
30
15
22
7
-75
0
-71
3
127
-12
-77
-3
-62
67
80
-33
127
17
-51
65
60
-33
-8
-78
-40
-58
-127
-47
-13
-79
-26
118
-52
-73
1
-1
-30
-127
46
79
21
54
-9
51
127
20
28
51
-5
-77
-85
-84
-93
-20
-127
-90
-78
-53
16
75
16
37
127
66
18
47
27
19
28
17
15
-127
18
16
26
18
2
28
9
32
127
20
-7
18
3
-5
51
20
30
127
40
7
39
26
26
-1
-59
127
89
-92
19
5
-51
26
45
23
48
127
35
28
42
15
-5
67
0
41
127
56
-17
51
10
54
123
40
53
-72
94
-90
-127
-85
-8
-2
28
-56
-64
127
-6
-4
24
40
127
31
4
8
31
-50
-127
-59
28
-91
-23
-127
-61
-91
30
-70
-18
97
113
91
127
9
119
94
89
94
27
58
34
48
127
78
18
48
42
26
78
22
127
-60
-35
22
77
23
-83
-1
25
-113
3
127
-69
-7
26
60
57
37
41
127
42
48
54
42
37
-38
-48
127
-38
-79
36
-44
-47
31
71
17
50
-127
-9
30
65
24
-75
-127
-113
-124
-120
-91
-75
-123
-110
13
88
26
-67
-127
-78
17
89
14
39
66
-2
118
127
52
25
60
14
5
25
-11
30
127
18
9
29
-19
10
24
6
26
127
9
9
14
12
-109
-104
-101
-97
-58
-127
-98
-102
-73
29
96
36
12
36
-18
-56
-127
-51
-37
-14
50
-89
-7
127
-36
-20
38
13
62
19
84
127
82
0
52
6
5
102
31
-82
-127
-92
2
99
26
-4
59
53
-54
-127
86
-10
64
52
34
85
29
83
127
30
32
82
29
18
32
15
22
127
17
25
18
13
31
22
-33
127
-10
-33
26
15
-26
18
68
53
-2
127
41
12
56
38
-10
-3
-6
-4
127
-13
-4
-7
-4
56
103
40
24
15
-19
-79
-127
-59
17
73
-7
-127
-101
24
1
69
-3
67
57
78
55
127
51
58
56
103
21
45
19
29
127
19
18
35
17
7
68
69
67
32
127
19
62
65
4
32
-7
20
127
16
-3
24
-11
35
75
29
43
127
106
37
76
25
37
55
24
49
127
53
38
56
18
-49
25
32
-116
32
127
-47
31
31
-44
-126
-66
-37
-10
4
34
127
46
54
127
60
-23
-28
-23
-71
-111
-78
-14
22
-12
41
127
22
-11
20
-22
-8
39
33
-47
127
118
-13
27
38
-25
-113
-42
8
-3
-108
-9
127
87
-81
-89
-73
-127
-55
-116
-88
-65
-64
-1
19
25
-54
77
127
-6
12
20
70
101
60
85
33
127
70
103
56
-24
-90
-62
-75
-127
-57
-35
-74
-53
-26
-91
-1
6
14
-127
-29
-87
3
-7
38
-60
95
127
-102
-11
42
-62
31
6
-32
65
127
-12
22
-1
-28
47
24
10
81
127
43
30
22
12
3
31
12
26
127
35
3
26
10
20
23
26
17
-127
22
20
23
26
5
42
24
42
127
39
6
37
19
1
3
4
14
127
10
0
3
-1
32
49
-1
41
127
52
27
47
3
18
47
14
47
127
36
18
33
17
60
92
41
75
127
24
63
66
54
10
64
38
33
127
30
9
64
31
4
61
24
70
127
46
7
47
23
24
71
29
36
127
62
23
49
21
37
39
-15
62
127
40
37
26
-23
-71
-116
-78
51
-71
14
45
127
88
38
83
53
19
127
105
27
86
63
-5
27
13
46
127
-6
-5
25
6
-103
-32
113
-107
102
127
-79
-39
99
44
127
43
-14
-88
14
-21
-115
-42
34
33
45
41
127
34
33
26
43
-1
-19
-15
-9
127
-27
-2
-22
-15
4
17
14
19
127
22
-2
17
19
15
27
27
58
120
127
29
-2
39
103
47
-16
127
67
-45
88
41
-16
34
-27
-13
127
-97
5
29
-25
-16
53
89
7
41
127
21
50
95
7
13
60
38
5
127
82
8
53
44
10
28
-11
15
127
13
17
18
-12
2
24
7
26
127
18
8
20
18
64
43
-12
127
5
-8
68
42
-3
10
63
17
48
127
43
9
50
16
-47
43
69
-23
69
127
-52
40
62
-45
54
57
-21
127
83
-48
48
65
8
55
4
73
127
45
17
41
20
4
26
12
29
127
17
3
21
7
-36
37
41
-120
-39
127
-32
41
30
72
120
69
92
104
86
93
127
53
55
89
6
112
127
-12
44
77
13
30
67
62
96
127
43
15
68
57
8
87
-1
-92
-127
-55
0
89
-1
0
61
33
60
127
83
0
49
25
21
38
14
31
127
38
6
37
9
-17
-7
-23
-17
127
-32
-14
-1
-22
41
29
-21
127
54
-52
32
26
-24
13
121
106
-10
106
118
9
127
89
30
62
49
87
127
44
27
58
35
4
60
-2
33
127
47
7
41
10
32
5
-113
104
25
-127
26
4
-99
-1
47
-1
32
127
48
-6
34
0
50
60
49
37
127
-3
54
53
41
39
56
48
53
127
55
39
42
39
84
75
127
96
98
34
90
58
111
-51
19
66
-93
-127
124
-50
5
75
6
17
-18
0
127
8
10
13
-15
21
80
72
3
8
127
43
75
66
-127
-105
-109
-67
-81
-81
-96
-110
-97
20
73
29
9
-127
-63
19
80
26
-42
82
48
-51
57
127
-30
66
51
-24
-63
-66
-86
-127
-83
-16
-53
-68
-70
-86
-79
-90
-127
-93
-82
-83
-75
16
29
40
41
127
58
15
24
37
-5
29
59
-67
44
127
-9
25
44
53
108
25
46
78
-24
-109
-127
-89
43
-10
-57
111
84
-127
47
-3
-55
-76
-112
-69
10
-44
-2
69
127
64
-7
4
-16
6
127
2
-8
-2
-9
27
59
13
79
127
68
27
53
8
-75
18
50
-127
21
118
-64
11
50
