-1
-64
22
-127
-28
70
-30
-18
-51
-44
-52
-34
70
63
12
-33
-63
89
-80
-21
-101
-44
10
-21
-93
42
22
-33
5
2
-6
-84
-25
11
-14
-99
-52
-90
45
-79
-50
-11
-33
-27
10
7
-17
-48
-7
-12
11
-14
-77
5
-74
0
50
-28
-11
21
-34
-86
-52
21
-8
-58
-101
24
-3
-21
-75
-51
-54
24
91
-26
-51
-1
63
-20
22
-115
-121
-26
-21
127
-25
-47
-65
-75
-3
44
-9
-42
-52
-37
-32
-110
-47
-12
-16
69
27
93
127
-112
-78
23
-8
-26
-101
-9
42
-24
-98
63
14
-40
-40
12
-23
-42
-84
-75
-64
-59
10
71
10
-12
2
-7
81
-85
40
-39
5
-10
-24
-3
-51
-46
7
24
-86
-126
-29
-23
-49
-114
-22
-46
18
7
-103
-12
-118
-62
74
-4
12
-60
-22
-127
-3
-1
6
65
8
-102
-5
114
-11
-34
-44
-93
-72
52
-16
-117
11
-43
-92
1
-16
-115
-49
0
-30
-34
-14
17
-28
-5
-46
-50
-24
-61
-18
9
-97
-75
68
16
-78
34
81
-11
-68
-22
3
39
-29
-60
-24
-1
24
-42
64
4
-6
36
-27
41
-35
-58
-20
104
-2
-59
-66
127
-12
-45
11
-115
76
55
-28
-70
25
70
-12
-44
6
-10
-27
11
-73
-72
-87
-18
6
-49
-28
-7
7
-127
-11
-19
-78
41
6
-15
-49
-72
-113
20
-35
-33
35
8
106
-80
-45
3
-12
-44
-45
-57
-51
34
-59
-38
0
-61
3
49
-56
-113
-43
-45
-46
-39
25
-13
-86
31
-32
73
15
-39
-78
-2
-5
-68
-70
-77
-49
-7
-12
-108
-44
-14
-94
57
46
-67
19
-98
-122
-7
70
-37
-15
9
-19
-127
75
-69
31
-16
-20
-29
-94
11
-77
-58
-57
-23
-104
-59
9
-52
-77
14
-27
-59
-1
61
75
-49
-114
-27
67
-100
-54
1
-19
-12
6
34
-97
94
13
-50
-19
-53
-15
-65
-54
3
-21
20
-4
-7
-29
-90
25
-71
54
-41
70
-9
-20
-42
94
-82
-83
100
22
-110
-33
-127
27
-78
39
58
-81
-24
-19
1
27
-43
-12
-57
-44
64
-34
16
59
31
-31
-75
29
-74
-4
9
-12
2
70
26
9
-127
20
95
-53
-40
-6
-25
104
57
10
23
20
-93
-23
-63
-92
35
-31
-44
-84
-53
5
-9
-25
-54
-2
54
-71
17
-52
-60
39
3
-38
-69
48
71
-41
-72
46
-66
39
82
57
-33
-71
-43
8
18
1
50
-75
-30
-1
127
84
88
-29
-127
-28
-33
-90
21
42
-1
-65
-1
-47
-127
-32
-40
-14
2
-13
4
-39
7
-4
-90
-111
-63
10
-73
29
-61
1
-110
-81
-60
11
-42
25
-66
127
-19
4
72
53
-6
18
44
-16
39
28
-29
-12
-27
17
57
-10
20
58
74
14
8
-111
-46
-31
-65
60
5
-41
-79
-43
-14
-47
19
-5
29
25
-16
16
-20
58
18
-114
-32
-35
81
-25
81
-19
-64
-20
39
37
-80
-41
-106
-47
49
22
25
29
-1
60
-45
-45
-18
1
-38
21
-17
28
75
-40
-85
-40
14
2
-18
39
3
8
-39
10
28
-32
80
-2
116
58
0
-77
-61
-43
-11
-50
-85
-72
-53
-42
3
15
-49
-70
57
-30
-24
-16
-45
52
-84
-54
54
-60
-46
-32
-12
-26
-127
-75
-107
-48
6
-13
85
-49
-7
-45
1
-61
-42
26
-38
41
39
-17
-20
40
-69
12
20
-127
7
1
43
23
-52
-5
24
14
-69
81
-26
34
-80
17
-24
4
-25
-70
-29
-36
-114
-8
-28
-107
58
-51
56
-31
-24
-28
-4
-15
-22
-47
-42
-77
22
-11
63
38
76
11
9
28
85
53
-4
5
-6
-28
-87
-5
-33
-69
-55
-48
33
50
-55
-127
-25
-30
-120
-26
-1
-1
-19
-46
41
-48
37
-26
-127
-9
-55
-7
20
16
-92
13
-54
41
-41
63
39
-54
29
-31
-73
26
98
33
-28
50
-92
-43
-56
28
-33
7
-68
14
39
1
-4
-23
91
-31
-56
-73
84
-21
-2
-78
-3
-76
14
-39
-52
42
-17
21
-26
53
27
25
49
-127
-25
50
-110
-37
-55
64
17
-87
118
-41
-21
-54
-57
27
41
-73
19
-39
-19
46
127
52
18
-1
-50
37
11
3
59
61
-56
-23
28
63
119
66
-7
14
48
-97
-7
27
6
-78
62
-63
-23
119
-89
-40
-103
69
60
8
21
39
-73
-14
43
-54
-118
-68
-23
-8
-59
19
-26
-14
-35
10
-122
-48
-49
-46
-52
18
-23
0
89
-26
11
-76
-44
-7
-51
12
-73
-83
51
93
-9
35
-62
55
-1
59
-48
-50
24
-7
25
26
-9
33
-35
55
107
15
-2
43
97
-18
-67
-41
-7
-30
-53
-26
-31
-67
51
-16
80
9
46
-88
-27
-111
37
-16
-23
5
15
18
-18
-12
60
10
-85
-15
38
-70
-46
-2
-17
-37
-48
29
33
30
-14
-33
-2
42
26
-21
-38
-25
-17
23
1
-52
-82
40
-16
78
1
0
-35
10
-106
12
56
14
-23
-38
-36
-127
-66
-80
-25
-47
-41
-53
-11
0
-52
-127
-7
-16
71
-39
39
-2
104
-29
-23
36
-35
-31
-3
-4
35
-18
127
15
4
-64
-13
-16
67
-93
30
-84
5
-62
-6
127
43
-49
-33
93
-79
-38
-7
-109
-53
27
-82
-8
16
-14
-68
-55
13
-35
43
-29
-32
5
-98
-75
-16
-15
55
21
29
-2
-27
-59
-48
98
-69
-16
-74
48
-91
-46
-65
-61
60
-26
-51
-10
4
-22
-127
94
-127
26
55
57
19
-68
2
-47
-55
48
-54
7
-24
-92
127
52
104
11
-5
4
2
-23
-36
7
2
-88
54
-49
40
36
15
-31
-14
-50
-47
-45
-25
-125
-11
32
-50
99
26
-46
-32
29
-15
6
-34
-78
10
-32
63
-19
7
-18
-68
-43
-49
-29
-66
-93
-17
29
34
-16
28
-12
-33
12
-41
-71
11
26
-9
-118
-28
-127
-49
89
-1
-48
13
-7
-29
20
-9
-69
-80
-21
-14
14
-56
37
16
19
41
-36
-36
-52
-19
-44
-59
-4
5
-1
-57
-53
-64
-10
34
22
-19
-60
-66
-44
-61
-19
16
-25
-24
-63
14
92
-49
-1
-98
32
-19
12
-35
-16
-65
-104
-98
-26
11
52
-8
-3
-40
-40
-85
-32
44
-58
-7
-6
-66
19
0
-75
27
-77
104
-51
45
-22
-51
42
-15
-21
-19
8
-61
-119
17
55
-49
11
-77
-4
-58
-60
-45
66
-116
-14
26
-41
3
13
-25
-45
3
-28
-82
-45
-34
-24
-66
-36
-45
-53
31
-127
-16
-48
-9
5
-112
-38
-46
37
13
-49
-49
-92
-98
-23
-9
18
-127
-16
-24
-6
-27
-66
-57
-44
0
-1
-53
-55
-10
-24
18
-67
30
-2
-10
25
16
75
-9
-30
-37
5
32
-49
-81
46
47
-35
23
-74
-19
-98
25
-82
-77
1
99
-34
-49
-42
-77
45
20
56
-57
-36
-6
62
-50
9
-24
-41
-94
-98
-30
-8
-4
32
-22
-32
32
-9
-29
34
56
-24
0
47
12
105
0
32
-62
-94
35
-68
-31
19
-102
-8
-43
0
-12
24
-26
14
31
-65
-54
-75
-127
-14
-11
-64
4
-42
-22
-48
-46
21
-58
-12
-26
55
15
-39
-68
-89
46
-22
-100
-3
-72
-9
43
1
-109
-89
46
-52
62
-3
-43
49
-4
-113
-65
-54
-94
-22
4
19
-39
-95
-6
-33
8
22
12
-52
32
25
-12
-127
-20
36
-26
-79
-68
60
0
71
-49
5
-51
0
-41
-56
11
-69
-127
8
-13
53
-47
5
-16
-47
-87
33
90
-90
-4
0
24
61
-13
-22
-101
26
-6
1
-44
36
-20
46
-29
-20
-31
-36
-70
30
46
-49
-10
-87
-100
-61
-18
-34
-52
-22
-74
44
-7
81
-42
-11
-21
-52
-21
13
-65
17
83
-77
-13
-107
-13
-118
29
-118
-66
3
-71
-59
-61
0
-65
-93
-29
-22
52
61
-30
-45
-65
-12
-104
-69
-41
-50
-2
-2
18
-73
-40
-15
-102
-77
31
34
-26
-1
-25
3
-27
-47
-31
30
-78
13
-86
30
-1
-14
31
-1
-24
-75
-10
-15
19
19
-28
-72
-8
-52
-59
-66
57
-68
-42
-8
-23
-74
-1
-15
-35
16
-94
-3
-64
56
69
-59
33
-85
-62
24
-67
-1
4
28
-27
-55
-19
-84
54
-68
19
-25
-52
-21
-13
1
-46
30
-53
36
-55
-122
-19
-4
-50
-20
-25
14
-30
-46
-43
-43
-65
21
-49
-50
-47
47
-20
-19
-58
-75
-44
-15
-27
3
41
-116
-53
-41
-81
-59
-38
-18
-81
17
-62
-10
-29
-57
62
-69
60
0
-94
-38
-93
-5
2
-36
-62
-113
-34
-61
-39
-104
-61
-1
-85
-32
12
-27
37
-79
-95
0
32
-5
-54
17
-74
-55
-4
-11
-5
-47
-38
-41
-61
-5
-28
-29
92
44
-22
-4
-59
-80
-18
16
-97
-20
-42
25
-41
-48
24
43
-82
106
5
7
9
11
3
-80
-35
43
13
-5
-115
56
-43
-78
42
69
-83
-92
-86
-57
-35
-39
55
-127
-15
11
-21
-12
-15
53
-79
-33
26
-79
-81
-25
58
25
-18
-36
-95
2
-58
-46
-16
-14
-21
-47
29
-15
-25
-34
-16
10
-96
-60
-28
-19
40
-39
9
-30
-52
-55
-86
-12
27
-33
-94
-73
-34
-36
-47
-68
24
-127
20
-43
-93
-26
-11
0
-11
16
-90
-106
-61
-54
19
-88
8
-29
11
17
14
-47
2
-3
26
2
-51
-8
-9
-25
-8
-68
-73
4
-26
29
-58
-29
81
-46
1
-12
-74
-34
-18
-46
-72
35
-40
42
-43
15
26
-36
-14
1
-42
-49
-38
-76
-37
80
-21
0
-7
74
-82
-44
-27
-71
5
31
0
-3
-45
-73
-55
-46
-111
-54
18
-25
65
-83
35
-14
-60
36
68
-56
-46
-60
34
-58
-108
-43
-17
38
-36
-63
-59
-52
-2
1
-39
-59
36
-78
-20
14
-40
36
-25
-52
42
1
125
-10
64
9
44
-53
-64
-9
-68
20
-68
14
14
5
-68
-75
25
-85
-60
-18
-49
-29
-52
-55
-119
37
-27
-89
-44
-20
-20
-13
-66
-12
-43
8
46
93
-33
-65
112
-30
-23
-38
-15
-100
1
33
-22
127
-39
-17
-26
47
-42
-9
-40
-98
57
-97
-19
-66
-21
-69
-33
-42
21
23
-105
-22
-56
31
-55
-52
36
-52
-60
6
-2
-112
5
-12
-48
-28
-33
-44
-7
29
-64
36
-21
-76
-6
-13
-90
-93
-39
13
4
5
52
-81
-59
78
-50
71
-36
-21
-40
-27
-18
2
-26
69
-31
63
-23
-34
-21
-27
-19
-18
54
-46
-5
75
-15
-34
17
-80
-64
37
-48
-35
9
4
-37
-36
-12
-57
-9
-2
-34
-28
-9
-39
-4
37
-82
-82
-60
29
-17
-14
-100
-29
-44
-68
2
-36
8
37
-13
-61
-11
-20
-97
-104
4
-45
-49
-108
-66
-22
71
-37
-81
-110
-78
15
-20
-10
51
-7
-1
54
-34
-8
11
-73
0
-65
-63
-93
-42
10
-33
43
63
-48
-15
-46
-16
36
-10
73
-7
-100
26
-18
-72
1
-40
1
-45
-67
4
52
-40
13
15
34
-9
69
-67
54
-54
-6
35
-7
-30
-112
47
3
-34
-121
28
-27
-103
32
18
-60
-37
-45
-44
15
56
10
-21
58
-45
-15
-41
-35
-48
8
-53
-43
-34
2
3
-53
-56
-11
-55
-127
-19
-16
-127
-57
11
-71
-61
32
27
45
-8
-16
33
-69
-23
-6
-74
2
-1
-25
-68
-21
-68
-69
-30
8
-15
-8
-29
-32
0
14
1
-52
-5
-38
17
-45
-10
-35
24
43
-45
-113
-85
11
-21
-57
-19
-8
-123
-1
75
-18
-12
-33
-79
-27
96
-40
-10
16
-45
39
20
-71
12
-61
2
-18
-72
9
-13
-45
-54
-22
30
27
-14
-32
-123
-3
9
27
116
-98
-68
-61
37
24
-27
35
-13
-113
-22
-103
30
1
-50
-68
-51
-64
70
-67
7
-14
-6
-55
-65
-1
-24
-43
-46
8
-68
-18
-38
-59
-101
-7
-75
-10
80
-8
-59
-9
-14
-85
-127
-40
-40
-20
-37
-42
26
-90
5
-22
-28
56
-26
-41
-15
10
-77
-44
-98
-5
-17
-79
-118
-8
13
44
-90
-46
-54
15
-95
-10
-50
1
13
-97
-16
75
-26
95
-27
23
-44
-16
-49
-111
45
24
-66
-16
-59
-58
-71
16
-26
23
-42
8
8
15
35
34
-82
-23
7
-57
38
-36
-13
49
3
21
-16
-44
4
-2
-49
-59
123
-54
64
-100
16
32
-14
-29
21
-11
-65
-88
-11
17
33
-63
-42
-52
-60
-124
4
-43
-83
-17
-34
15
2
-77
-61
-25
-60
24
-25
46
-63
29
-71
-51
76
34
66
-40
-71
-15
36
16
-46
-22
-28
-16
-101
-82
-40
-1
3
6
-43
8
48
-43
-74
77
-14
-36
-51
-94
30
-59
-54
-28
-2
-8
-91
-12
-44
47
-37
-3
-21
21
29
28
12
-93
-84
-16
20
-14
-30
-23
-8
-7
-95
-42
-31
-32
-31
41
-51
18
7
-10
-19
-60
-3
-10
-10
-58
-86
-75
0
-51
-10
-34
11
45
-76
-36
-125
-12
0
-21
-32
-14
1
-39
-23
-7
-55
-26
-5
-28
19
-77
-6
-39
-22
-14
-26
-96
13
-20
7
-18
11
45
-59
-2
-101
-7
-53
0
-102
-25
-5
-22
34
-88
-17
-59
10
-17
23
-8
7
35
-12
-83
8
-35
-80
-56
-50
87
-112
-32
29
24
-63
-50
-53
-57
-33
-126
1
-35
62
-24
-88
-16
61
108
-5
-73
-5
-42
28
13
-35
-8
12
-16
-39
-127
-14
-23
-22
-52
127
-67
-49
2
-48
-110
18
-99
-111
-51
-35
-82
-26
-5
29
-84
-9
-5
7
-102
83
41
68
50
-17
-95
-7
17
-51
-11
-37
-5
6
-37
21
-12
91
95
-42
-44
-6
-39
-16
-79
16
8
-49
27
-14
-39
-37
0
-59
-16
-5
-37
61
8
-28
28
-29
-79
9
-46
-37
35
-106
-44
-42
-8
-9
-5
-20
-48
-61
-45
10
-30
-57
2
-21
-7
-41
1
-70
71
-29
-15
72
-24
-2
16
-31
5
-7
-104
-115
1
4
-51
-13
68
64
6
-3
26
30
-52
9
3
12
-3
120
37
0
11
14
-1
8
25
-10
34
13
-76
58
-25
-8
-78
-127
29
-46
38
-107
27
28
40
-44
-78
-1
-74
-127
-22
-70
7
-27
32
-29
28
-81
-90
-37
6
-10
19
-26
-44
-104
-94
-54
-92
81
3
107
-75
9
13
-55
-22
-71
75
46
-20
-67
48
-99
59
-4
-90
-22
-2
-73
28
44
21
-6
-52
22
-94
127
36
-2
-2
-5
-9
-74
39
6
-109
-80
-37
50
7
90
-20
-3
-85
-4
10
-1
-7
-58
10
7
1
29
-24
-11
-28
-118
46
-30
-103
-7
-82
46
-13
-15
-20
53
9
-32
-86
-21
63
64
-100
-42
-13
-42
-3
32
-100
-16
40
28
-2
-10
-7
-85
-13
-48
-3
-46
59
-16
-40
-108
33
-34
-18
29
22
13
-27
-7
-3
-33
14
-127
63
-67
-42
-14
15
7
16
10
-72
-112
-43
-127
47
4
-28
-24
-34
-98
-35
38
-70
-55
3
64
-8
-30
33
-83
-5
8
66
17
-108
-28
-53
-23
65
-60
2
-111
20
11
46
-47
20
-89
-127
-8
-26
11
26
3
-18
57
23
-35
1
-20
-28
15
-123
-22
96
28
-49
18
35
-63
17
-65
-10
-46
-60
-84
-36
-35
-13
-43
-112
-25
6
32
-60
-7
3
-63
-90
10
101
9
-79
12
23
44
-46
-127
-31
11
-127
-6
-28
-2
-23
-127
10
37
-38
-8
-68
-35
-3
-127
-30
-50
68
-35
-85
-100
-3
-92
-45
-40
-3
-56
-43
-18
-43
-14
-97
-20
-8
-39
-121
-127
30
65
-58
-28
96
89
-39
-11
0
-77
-4
-4
58
-121
-15
-86
-4
-43
110
-30
-49
-22
-67
45
2
30
-58
-106
-12
15
9
-82
-127
5
-25
-45
9
-28
-10
19
25
-52
-45
-17
41
-21
-73
-23
-106
24
-6
41
44
-78
-72
-32
-23
-22
26
35
-12
-1
-44
-33
-58
-27
20
-10
78
-39
-22
-47
-22
-87
26
-43
-77
-32
21
24
-63
-77
-24
-18
76
86
24
-44
4
-77
-12
-51
-40
-7
-52
35
-28
-94
42
37
-52
-28
33
-35
-35
4
-40
2
-66
-88
-52
25
-23
-84
-86
-26
26
-51
-41
25
-32
72
16
-33
39
-29
-84
-11
-48
27
78
-74
-24
127
-76
29
-4
-23
8
-71
-17
27
-10
32
-14
-88
-19
-122
9
-63
-101
-67
-22
-20
55
75
-53
42
32
8
-19
-50
-7
-68
8
8
-13
38
63
76
-18
-31
-9
45
-9
-75
-18
-62
-13
-86
-66
-23
6
-24
-56
-68
-49
-17
-68
91
84
56
28
27
23
-32
-104
9
-103
-78
-102
-49
-55
-24
-68
-58
22
15
5
4
15
80
-54
-22
16
1
-48
-99
-92
-72
-100
-127
-36
27
-49
-5
-4
-4
-8
-66
-15
68
-58
-46
-72
6
-33
-68
-91
19
79
1
75
-29
84
52
-81
-17
-6
-1
-76
-42
100
39
-5
-10
-29
-28
-26
-22
-54
6
61
35
-1
43
44
33
26
-5
11
18
-19
2
16
-31
-48
-44
10
-54
-23
10
-47
-40
1
63
-15
-46
-24
-7
25
12
16
24
40
38
11
-46
13
-9
-74
41
-16
18
74
84
3
83
-49
-84
18
61
15
-7
70
-24
70
-1
-23
14
-37
-62
-18
-55
4
-53
-21
1
-13
55
4
-53
34
-16
-59
-9
-33
-1
-57
-24
-11
-42
-23
-42
-3
-40
26
-21
-30
-42
72
-60
-67
-43
-7
-10
-41
51
32
-6
-55
-66
-119
46
-30
-58
-61
-46
-23
-103
57
-18
-127
58
28
-48
-10
-6
-6
37
-7
-49
-23
-2
37
-16
-15
26
-26
-44
10
18
50
44
8
76
76
-107
-44
19
-19
29
25
42
84
-68
-33
-9
-15
-3
-25
-52
-15
-53
-32
-34
-15
37
29
2
24
-10
9
26
52
13
-20
6
-49
-45
-53
-52
16
-15
40
-27
-34
-16
7
-4
31
-35
-17
-61
-36
-76
-14
-73
-34
-72
57
-36
12
-57
46
95
-51
-27
84
-50
-15
28
116
-52
-52
58
90
-25
-16
18
-103
12
42
37
-22
26
-14
65
-37
-127
-35
45
-22
-17
-39
-124
-8
-65
-16
-11
-22
12
53
3
-20
-15
14
-57
-127
-68
-100
13
41
58
47
-56
-47
-46
-37
-37
-53
-9
-43
-17
-97
-31
36
-25
73
55
-29
-58
33
-101
-66
-10
-7
-23
-67
22
-44
-59
-54
-49
8
20
-46
-65
-41
-48
-20
-44
-20
-64
13
-62
-47
-19
-34
-4
-57
-74
2
22
-34
-11
14
-41
11
-57
30
82
17
-127
-79
-58
10
39
-6
30
-88
-4
-105
-72
90
16
-72
1
-69
-57
4
-45
-121
-31
-37
20
58
10
84
-57
-32
45
-38
-37
-13
58
-31
29
15
3
-15
-1
-49
-40
-44
-9
-9
-34
-21
-55
-29
-8
-102
-36
5
-9
-7
-48
7
-58
-16
31
5
-1
-33
19
-49
59
68
-30
-38
16
2
63
-49
-25
10
-19
40
21
-56
-23
-30
7
4
-18
-42
61
21
-61
-10
-27
-36
-12
3
-42
-46
-99
36
-79
-1
-73
-122
-22
-66
-28
-20
3
-102
-71
-54
-24
3
-20
-40
23
-59
-46
3
103
-70
5
-69
-13
-24
56
-5
6
-2
63
-56
-29
-70
-80
-12
-34
-45
95
45
-62
-72
-104
-58
-36
-80
-3
-46
69
-13
-64
-6
-113
-45
-33
66
-7
-64
-23
-72
-11
-34
28
-42
-55
-9
-71
-46
-112
1
-10
34
-36
-10
-73
-34
-47
27
-63
-74
-127
0
20
113
-1
36
-30
-4
2
-55
-7
-20
-1
-114
-38
-8
7
14
-22
-60
29
0
-95
-82
-29
64
-19
29
-35
-41
-13
-29
16
46
-14
53
-34
-110
-74
-42
-24
-63
69
-53
-70
-98
-72
17
18
-2
-86
18
102
-91
-14
-33
-52
-124
-42
-67
57
11
-20
96
115
6
-27
-34
-74
-68
5
-43
-17
-7
-64
40
96
31
-95
6
-30
-36
-32
-32
-27
-121
33
-70
-41
-63
-49
-26
-50
-36
-17
-27
-39
79
-127
13
-22
-44
-90
-127
-51
-65
-61
-52
-29
-21
-74
-8
-31
9
-12
-58
73
-27
-14
106
36
-65
-10
-90
-100
-19
37
11
-89
8
6
-10
-82
-16
5
120
17
71
-31
2
-62
39
-15
-39
-43
16
-8
-45
-116
53
-1
-37
-19
-4
1
-38
-21
-93
0
-49
47
-82
15
-53
-15
-31
-65
-64
26
64
4
-94
-3
-112
-9
66
45
-65
25
-22
-36
-7
16
-23
-44
-62
8
18
-19
51
92
-11
5
-104
-8
-33
-29
-52
-53
24
-42
-127
-40
5
-56
-34
18
-83
-9
-127
-20
-105
-13
-17
35
-79
-14
-127
-64
-127
0
-14
29
-114
-6
-57
14
-32
96
-36
-16
-112
12
-12
36
-18
-51
-44
84
-23
-53
16
-74
42
-14
-52
-63
-70
-7
-29
-32
37
27
22
57
-15
-53
-26
-26
-72
15
-43
-40
16
14
-47
41
-42
-18
70
-45
-92
-2
90
46
-10
-28
-32
-45
-104
-6
-55
-23
-16
-12
-46
-49
3
-51
109
-64
-98
127
-94
-6
-81
-35
-15
15
-65
-35
-63
-2
7
-30
7
-52
-15
-43
-93
-77
-11
29
0
2
-25
-33
-3
-70
-93
-4
-26
-35
-9
-49
-40
-86
10
-13
-52
-7
4
-86
-28
-17
27
-44
-56
-58
2
-53
-27
-109
-48
-38
-25
-62
111
-31
44
-14
-10
23
62
-127
71
-121
-20
13
-3
-6
2
-19
-32
-14
-26
-74
-11
51
-68
-73
-112
15
-48
-61
-116
68
-119
-35
56
-58
8
-13
-70
31
-73
-64
41
-39
-39
49
-25
-40
-18
26
33
-29
-53
-32
-68
-108
-14
-2
78
-4
-2
27
-13
-24
-72
-26
-39
66
-1
-113
3
-60
-7
-55
-44
-2
27
90
29
-6
-4
-17
59
-107
-21
5
-105
-59
-86
-46
78
-56
-25
-5
-13
3
-26
-61
-33
-18
35
53
-34
24
-71
-76
2
18
-32
-36
108
-33
-35
-32
22
-41
-86
5
45
27
-96
-46
-91
3
-36
-39
-39
-31
-41
-51
44
1
-8
80
-84
-78
-6
-61
-46
-115
37
-65
-50
-39
-67
-62
13
-31
74
67
18
-68
-36
-17
52
-27
-39
-29
-40
-31
-22
55
-51
-114
-84
-61
-84
-65
43
20
46
-54
-30
-13
-96
19
-42
-5
-36
-30
3
-14
83
10
-2
-66
33
-127
-14
-2
40
-55
-14
5
-16
66
69
-120
1
-33
-85
-20
-15
77
-16
-1
9
73
5
-90
-75
-34
-77
-15
-52
60
15
-89
0
-6
-38
-31
-39
-28
-15
-74
-25
32
-127
-127
-54
-12
11
-14
-42
16
38
30
-45
21
43
-11
36
-27
4
-64
24
46
38
-84
-27
-2
30
-2
34
-21
-32
-55
-23
-58
-2
2
-42
-75
-7
-79
19
-39
-73
-100
-16
-2
20
-70
-14
-33
-51
-45
-21
-30
13
-25
-19
117
-62
-13
41
-84
-50
-50
-127
-62
39
-41
67
-56
3
-25
79
-45
-76
-13
-11
33
52
-21
24
-15
-9
36
-61
8
-26
-16
111
-19
-38
-24
-2
-24
-30
10
46
-11
-37
-32
-12
-16
-52
-65
-1
-49
-26
-52
-7
-21
5
-35
-84
-36
-44
19
32
-42
75
-8
89
-36
-47
-44
-9
-8
-55
-88
39
-44
42
-53
9
-47
-6
-49
2
-95
17
-60
-127
-57
-73
-65
69
-11
-34
-73
-54
9
-80
5
-19
-12
-8
-56
-1
41
-32
-32
49
41
-89
-63
13
-50
107
-90
-10
-43
105
12
-78
-77
66
-25
-69
-127
-8
-59
-96
-39
-87
94
-47
-22
-20
-44
17
-23
-57
15
-56
-93
-51
-64
-28
8
-20
-47
-74
-49
-2
22
3
-100
-49
7
-12
-30
92
-35
-25
68
-87
-20
-66
-5
23
-77
53
23
-9
35
19
15
11
27
-13
30
45
-42
-16
19
-51
-21
-7
-34
-19
-43
-32
-70
74
37
-96
-28
-34
-78
-63
27
-70
40
2
-111
-2
31
45
-41
85
26
-29
-50
-51
-38
-36
4
-26
-24
-35
-29
-21
-32
-53
28
-61
-23
-71
-37
-40
-89
-21
-48
10
47
-122
-17
6
72
-72
1
-11
-48
-127
-43
-75
-23
127
-54
-23
0
-70
-10
4
13
7
-1
-74
-29
-76
-40
-11
-20
-29
-66
58
51
111
-40
1
-18
-2
6
5
-13
-84
-8
-63
74
-22
0
-21
-91
-90
-14
60
74
-77
-83
-48
-16
-72
-54
-88
52
38
-64
2
-21
-75
0
-97
-32
-48
-21
-27
-18
6
-21
-67
-7
-30
-29
-49
-50
-68
-18
-55
-27
-20
-4
10
38
-33
22
-49
-20
4
-69
-3
-68
-20
52
-43
-60
7
-12
14
-103
25
-38
-29
-68
93
-26
-61
-32
-67
-1
-45
-90
35
-83
10
96
-127
2
-37
22
-21
-61
11
25
46
-1
-33
53
59
9
21
66
-17
-62
-29
20
48
18
-31
-43
-51
-27
20
44
53
-127
-17
21
-2
-45
-49
-2
15
-9
-67
0
-64
-74
-75
-36
-29
20
-39
-42
14
8
-72
-66
-35
-19
39
-19
3
1
7
33
-60
-29
40
54
-58
-8
-1
-78
-47
-48
-70
13
-18
-97
4
2
16
-15
-75
-15
12
48
47
-98
-71
0
-74
-34
49
-96
-35
-15
-80
8
-60
-13
60
-71
-29
-23
-44
3
-1
-9
-52
26
-36
-80
-17
-103
-74
-42
-80
1
-50
-65
-38
-110
-97
15
4
-38
81
-76
-26
70
-11
-30
21
-77
-4
-45
7
17
-9
27
-79
-94
-47
-45
-21
-70
-38
-88
-63
-45
-67
-79
-57
-96
8
-118
11
-9
-127
83
26
-58
-6
-126
-6
-15
19
-44
23
-98
-94
-114
6
-44
-14
-41
-6
-123
-21
-40
-68
-37
-23
4
-16
-20
-66
-7
16
-33
34
-51
-75
70
-94
-54
10
-24
23
-41
-46
64
-47
-59
-57
-52
79
-116
-46
-13
-127
-36
-12
-126
27
-33
15
-45
-51
-66
-47
-19
-13
67
-118
-85
-66
-14
-1
12
-21
-4
-47
13
-49
-44
-99
-21
-43
-51
-61
0
60
8
9
22
-79
-15
-53
-20
-4
-28
-51
-95
-61
74
-2
18
-30
-7
-46
18
-11
-92
-68
19
-58
-12
30
-56
-100
-9
-25
123
-4
-107
53
-44
-92
-2
42
-101
-64
-21
-19
-33
-73
-26
14
6
-41
-61
-90
-15
-71
27
-13
-11
-83
-126
29
20
38
-9
-28
-11
15
-25
-27
-20
-28
-64
-27
-62
-33
-15
-34
-23
-4
20
-36
-20
-31
8
-31
-18
36
-40
-61
-52
1
-77
25
24
-66
-24
-19
-45
-37
-10
-18
-31
-43
-58
-40
-45
-20
-35
21
-71
-25
-61
-11
-68
-75
1
-39
-127
-21
-83
-44
-93
-27
-48
46
-39
7
-75
-63
-31
-1
-98
-73
-21
53
-65
-60
-70
-59
-55
13
17
-103
-23
22
-94
56
-91
25
-26
13
-65
-8
-68
-88
-127
52
-50
14
-97
-79
14
-75
-25
-23
-36
26
-68
-7
15
-4
-41
15
-71
-125
-46
-32
-57
-19
-22
9
-68
-28
-61
-61
9
-127
-45
-20
-16
-118
-70
-15
-77
-18
27
-99
-37
-120
-80
-45
-54
-59
15
-2
-63
64
-18
-7
-32
-48
-32
-34
-43
-26
3
-18
-24
-4
-16
-127
-27
-27
-16
10
-60
-12
-76
-51
-43
-48
27
-58
-42
-8
-60
-43
16
-5
-28
64
-56
-43
-6
-6
-20
5
-5
-32
-22
-103
-51
-88
-22
-73
-52
14
-31
23
-8
6
-75
-40
-64
-70
-15
42
-38
24
-21
-127
-50
-69
-33
51
-2
18
28
-75
-49
-11
-52
10
-96
-52
-68
-24
-127
-15
-127
25
-62
-22
23
9
-53
4
-6
11
8
-17
-3
7
-43
-25
-39
37
-89
-33
-17
-15
-23
-35
53
2
-28
-60
20
-23
-19
-14
-74
-54
4
-62
-38
-32
-38
-66
21
-24
0
63
-3
-41
-15
-70
-36
-33
8
16
-38
-92
-28
39
-9
2
12
16
-40
-60
20
-116
-14
61
-121
-44
-44
52
-55
2
-22
-56
-15
38
-58
-25
51
-23
6
-8
-60
-93
-28
-36
10
-86
-98
2
-63
-2
5
-86
-24
-3
3
-12
-63
-17
30
-63
-59
-37
-33
75
22
14
-99
-67
-58
16
-73
-20
-31
13
-63
29
-13
-79
-67
-6
-5
-22
-19
-69
-49
-39
-35
-43
127
-9
-45
3
-60
-55
-9
120
-34
6
-5
-42
42
-51
-67
78
-21
14
-17
-59
52
120
34
-42
-23
20
-16
-8
-60
23
-4
-63
-60
-81
-26
5
-64
-67
-14
-104
36
-47
-25
11
43
-27
-42
-41
-38
16
93
59
59
-57
-97
23
-51
8
-35
-4
-31
45
-38
-61
-45
-47
-91
53
-2
-35
-17
-91
-31
-55
77
-12
-100
-59
-73
-21
38
-12
-55
-12
-74
-98
-12
-21
19
-14
125
-48
37
-22
-74
-56
-18
-44
-84
54
-12
-9
26
12
-30
-68
-74
76
-17
50
-32
-36
-4
-3
33
-21
-69
-6
-68
64
0
-69
-73
-48
9
-39
-14
-62
-23
-33
-86
-61
-14
-64
-84
3
-44
62
-72
-78
-52
-9
-90
-38
-33
-35
-86
-7
-50
-46
-6
14
-89
-2
-68
27
-45
-14
-95
-70
-20
-22
-4
-55
54
70
-52
-2
-49
-51
38
-46
-56
4
-32
28
39
-48
10
-63
-20
-12
75
-55
-5
-94
-15
-75
-6
-32
22
71
-24
0
3
-36
-22
-96
-104
36
-53
6
-115
9
-57
48
-35
32
48
-65
-9
35
-57
-8
-37
-79
-78
-11
-20
-33
-56
-18
4
36
68
119
-33
86
-73
-51
-3
43
-15
-60
-48
-31
-48
11
35
-66
-55
5
-127
-49
-127
-30
-56
-120
-41
-21
-32
-14
-2
-41
-127
-8
-19
-26
-55
-18
-58
-53
-86
-74
-77
-14
-71
-47
-55
-15
-56
-48
-12
32
17
-68
21
-5
-56
-26
-90
17
-18
-1
-59
-38
20
-8
-102
-68
-37
-106
-53
-68
77
-49
-22
-74
-117
-127
-69
35
-5
-30
-32
-7
43
14
-39
19
-33
-18
-44
40
-62
-17
57
-16
-45
-23
-41
2
116
-41
-37
-65
-34
-81
-14
-28
-81
-73
-108
-21
-49
-26
-5
-113
-48
3
58
-127
-23
-44
-9
26
-56
-11
63
-61
20
24
-16
45
-88
18
-43
-10
-24
-39
-35
12
-53
-107
-60
4
-75
21
37
-52
-60
29
10
2
-64
3
-8
-31
-36
5
-7
-20
51
-48
-119
-45
0
2
-81
6
-21
-52
-115
-5
-5
63
-72
-6
-51
-29
-101
-90
-55
-42
41
-54
-22
108
-40
16
1
-20
-18
-61
-5
-9
-19
40
-33
-71
-127
-14
43
-30
61
-24
-127
20
8
-86
-35
75
-64
25
-15
-56
-61
-77
22
-112
-42
-1
-59
-36
-49
20
21
-32
-25
-127
-67
5
-127
16
4
27
50
21
-120
-69
-127
-52
76
-55
-43
-38
-60
43
-57
11
-12
2
-34
35
-77
-116
-96
-127
-40
12
-46
-38
0
-90
28
42
-51
-43
-37
-18
-49
-77
-50
-9
11
-67
-95
29
-92
-51
-9
6
9
-75
-127
30
-92
-63
67
71
127
-38
57
2
24
-69
-54
21
8
30
-39
-95
-10
-104
62
123
-72
-110
-43
-4
-12
3
-127
37
14
-72
-74
-12
-12
-8
-25
1
8
47
20
-76
-88
-93
-46
-69
48
-97
-77
-19
-1
-64
-12
-24
-99
-62
27
-63
-50
12
-84
-92
7
-127
42
11
41
65
38
-37
-67
-66
-41
33
-23
88
-124
4
-41
-70
-37
30
9
26
-24
-44
70
33
-116
-19
-48
-10
55
17
11
12
48
-65
-9
-80
-127
-47
-53
-22
42
70
24
1
43
-74
80
-112
-26
-4
-42
-39
-35
-48
-61
-45
-127
6
-106
-33
-52
0
-3
-12
11
-38
-6
-72
-105
-59
-79
75
-40
-73
-60
39
-127
-20
-86
13
-85
2
-18
-30
122
-25
67
-34
-22
-45
0
46
-31
-14
-35
-70
57
-89
78
43
-60
30
-77
-16
-46
-27
-77
-81
31
-114
31
-52
-115
-59
-21
-56
-38
81
-33
37
-127
-35
-17
-5
37
33
19
-82
-50
3
-20
4
12
-27
-37
-64
13
-43
-42
-34
3
-35
-44
-63
-61
-53
28
-101
68
-89
-73
-83
-78
-26
31
24
-37
-92
-63
18
2
-9
-64
8
-59
-66
15
-24
-80
-72
-127
47
-89
-67
66
-60
44
-48
-45
-56
42
33
-29
92
-58
-92
-127
-17
-31
-78
25
103
12
-79
-108
-73
-2
-73
-3
43
-83
-90
-12
-119
-39
-37
-7
-66
-84
20
-58
42
-24
-14
-28
-35
-13
-29
-24
-64
44
-16
62
-33
35
-1
-44
-64
-61
5
-51
-95
-65
-15
77
11
3
-4
-81
70
-65
-62
-40
64
-3
-80
-31
-57
-21
-108
6
-85
-58
-13
44
55
-58
2
15
-127
-40
-45
-40
-80
-46
2
-11
-49
-8
-32
22
2
-57
71
-27
14
-80
127
-37
-74
-35
36
0
-6
-103
-34
-36
-6
-60
-24
-19
-17
-30
-127
42
-1
8
-31
-88
-93
-92
-42
-56
-35
-34
10
7
-63
-13
-7
-61
-54
-66
-2
-55
63
-43
1
3
-41
-53
-12
-68
-53
-63
-56
16
26
-12
-104
-69
-32
-81
-13
-29
-67
-18
-96
-53
-47
15
-78
-49
-12
-72
-14
24
-15
95
-31
33
-43
-29
-50
-110
-57
30
-27
24
-127
8
-104
26
-73
-49
53
-23
-127
-13
1
-111
-81
-15
-14
-31
-34
5
-88
-83
26
34
31
21
-74
-64
-7
-28
-8
-109
44
-28
58
-127
-47
51
23
-106
-86
83
13
-79
26
-27
8
-2
-19
-36
-58
-69
-28
-31
-96
-51
36
-73
-56
-40
-84
-28
-12
127
-25
-33
-42
-95
-36
53
-60
30
-34
48
-6
-57
-3
-39
8
-80
-23
21
-31
-100
2
-86
-127
-31
-7
-7
-36
4
-70
-65
-77
-37
6
30
127
-39
12
3
-22
-15
41
-76
-33
2
57
60
-52
-84
4
30
-44
40
-65
-19
-38
-70
-8
-67
-43
-63
55
-18
-5
45
-29
-69
70
-43
-7
-87
-40
24
-94
-79
-16
-15
-22
-21
-40
-14
43
21
-1
-2
-4
43
-43
-30
-81
-10
-8
14
-14
6
-16
-66
-70
-47
8
-71
-64
-37
90
27
8
11
-68
10
0
-54
22
-41
70
-12
-25
-39
-42
-43
88
-55
-38
-108
-17
-95
1
-78
-30
-51
41
-44
11
65
-46
85
77
-66
-10
-63
70
-32
-53
-46
-14
-47
3
-2
-116
-78
4
30
-115
-61
-7
-62
-17
-62
-55
18
-75
-17
56
-81
-9
18
9
-72
-81
35
-83
-115
65
-51
-72
-77
10
-46
-20
-103
9
17
35
-21
-16
-20
52
22
-38
-44
25
-127
-94
-34
-8
-30
-10
23
5
17
4
-86
12
-4
-59
103
-21
-88
-36
-48
-45
-7
-94
-70
36
-3
65
-16
-11
-8
6
-60
-30
-18
38
-29
-37
8
-1
-43
-38
11
-40
-49
-24
88
-74
0
83
-11
-23
-113
-62
-45
-23
32
65
58
-84
-48
-65
-9
-1
-61
-25
36
20
-120
-46
-66
23
-52
9
7
-15
6
-8
-23
40
15
15
-30
53
-116
-13
-17
-33
-27
-73
102
-119
-28
39
-76
54
-51
-94
-90
-50
-1
-61
-127
11
-51
19
-62
30
-39
40
-73
-87
-62
-58
-72
-17
-45
-26
-29
79
-57
-23
-49
-16
-43
-77
21
-13
-61
2
-48
7
-54
3
-127
-5
-8
25
23
-32
-8
-13
28
21
-81
-127
-12
-7
-87
17
-46
33
22
-37
-27
-41
-23
-3
30
-66
55
2
127
31
-56
35
-35
0
-4
-16
-85
81
21
-23
10
-39
-81
-54
-99
6
-43
119
-66
-51
-1
-71
-47
27
-33
22
-71
-78
-54
-73
-52
-50
-9
-35
11
-44
-4
10
-31
58
-3
-62
-31
46
-3
68
-58
-80
-62
-18
-41
-13
-16
127
-20
-14
1
-89
27
50
19
41
127
-60
-66
-24
57
22
-6
-89
29
35
-36
-127
-2
29
-50
-81
-2
11
-69
-34
-63
-50
56
-9
48
33
-12
-18
-7
-27
-22
4
28
21
-44
-113
-5
-17
-5
-59
18
-35
3
27
-52
-84
-62
-127
-33
-38
-106
-70
9
-67
59
41
114
-74
3
9
-32
-2
-84
35
2
87
-24
-48
-54
20
-40
-41
69
-65
28
56
5
-67
-43
-10
64
50
-113
66
21
-85
-47
-75
59
87
-75
2
6
-41
47
71
-63
67
19
-35
-1
19
-9
-3
-62
1
-42
-54
-15
-32
-17
4
21
-62
-76
-28
7
-77
-50
-26
-118
-21
-52
-9
32
13
-24
-42
59
-10
127
-20
-26
-42
4
-4
-18
-55
22
-6
-74
-2
92
-52
-104
-2
-51
-18
-116
-18
-127
-37
5
33
33
-85
-56
-9
-79
-35
-84
-47
-60
-43
-51
-2
6
-56
-36
9
-90
-43
-18
38
-96
32
67
70
-97
-56
-36
-62
-22
-52
60
-82
-38
-104
15
-6
-127
-34
21
-12
-56
64
2
2
43
-74
-117
67
22
-84
53
-6
-9
22
-23
-89
-38
-9
-7
-41
-37
1
-21
-34
-40
-22
-76
31
-16
24
5
-66
47
8
39
-54
11
-43
-12
-65
119
14
-111
4
-85
-23
-79
-30
-39
8
-32
-29
-28
-86
35
-104
-42
87
-7
45
-19
-28
-17
-35
-43
42
34
-5
-39
-11
64
2
-25
-4
-123
-4
61
-105
12
26
-55
-100
12
-35
-35
51
-86
-49
-38
-58
79
-100
-30
10
-20
17
-9
-80
-2
-76
-14
-19
-54
-55
90
-127
41
-66
-21
102
18
-104
-44
51
11
66
-26
-8
-48
-52
57
-38
2
-23
95
67
-34
-23
66
-59
-38
94
1
-98
37
14
47
-34
-37
-101
-12
-56
-112
-39
37
-23
-1
-9
-19
-5
-36
41
46
-59
14
-30
16
-36
-125
-49
-4
-5
74
-36
-46
118
7
-3
42
30
-65
-47
22
22
37
-75
-30
-24
-88
-79
-15
-1
-117
25
-76
-1
-2
20
-15
-19
27
13
-21
-51
1
-11
-102
55
-57
-51
18
6
-123
-24
-63
-81
-11
5
-8
68
-43
-17
-77
38
6
40
-14
13
-7
-34
17
-4
-127
25
-72
-7
35
55
76
1
10
6
-57
56
-47
46
62
-127
-74
100
-21
-91
-54
26
-28
-62
-40
117
-17
46
-69
-45
3
-25
-43
-29
-30
-39
-37
9
18
-67
-32
-80
14
12
20
39
0
-17
-43
65
-19
-40
63
-68
-48
-56
-79
0
86
-54
-64
-25
-47
76
25
-22
-49
-100
-16
35
-73
44
-18
-22
-63
11
-14
38
-46
26
-36
25
-70
-53
2
-127
21
9
-31
-23
51
7
-26
-40
-3
-7
-59
-79
-23
-47
10
-42
-58
-61
-68
14
0
-51
-59
-85
-94
5
-8
-21
-47
-44
-37
54
-76
-76
-33
19
1
5
-27
106
-63
-22
-19
56
-6
-127
10
-53
0
7
-82
80
46
21
-30
21
-77
-28
-18
30
-30
-20
-15
127
-3
60
11
-59
55
3
16
-24
-17
-47
57
-29
-6
-32
-30
-45
42
-42
-127
-11
15
-53
33
-72
-47
-59
-3
-21
127
-61
-8
20
-28
-15
4
30
-28
-34
-37
67
-81
21
-56
-40
0
-24
26
-1
-75
12
14
-56
-63
7
-22
100
-69
21
28
-50
-10
-46
-115
-75
-58
-92
-48
97
-59
-13
37
-75
27
74
69
14
-56
-22
-75
31
20
-27
24
5
-105
-8
-41
16
8
-90
-2
-83
-81
2
21
-37
-99
-80
-35
-37
38
-28
-111
-20
116
-22
-90
-26
-50
-10
-127
-14
-14
-10
0
-72
-98
2
-14
-56
103
25
-58
-28
-34
-48
-16
27
5
107
-1
-29
-9
16
16
-7
11
-84
-118
-30
-12
6
-35
54
26
-28
-44
68
-26
-36
72
9
-32
-95
17
6
15
-28
-82
1
-69
-43
-107
50
12
-83
6
3
16
47
-54
29
67
8
-59
-7
-6
-51
24
-23
-38
64
-64
-61
89
-18
-24
-111
27
-39
-83
34
-32
-8
-122
-1
18
68
26
-5
61
-61
-71
-35
-83
-36
-21
93
-122
-49
-74
-115
-51
-29
88
-54
-5
-57
7
-27
11
-127
-56
-127
-65
-13
-21
-28
86
-34
127
5
-74
-27
-64
44
64
-10
-55
36
-10
-77
-7
-43
58
11
-123
89
42
-86
-18
-31
-4
48
59
-20
41
-127
50
-6
-59
-96
-92
17
-1
-65
84
-12
45
58
-24
72
75
-44
-69
7
-2
127
-14
-71
-57
-16
-49
-4
-33
26
48
121
13
-25
-92
91
43
-80
-117
11
45
-3
-72
-75
-2
-59
7
30
10
3
-56
4
-25
-13
-7
13
-43
-58
-23
20
-78
4
-56
-113
-48
4
14
-38
48
-103
5
-24
116
-29
-113
-38
26
23
20
2
-65
112
-10
-50
19
11
13
-63
-84
23
-21
12
-127
-127
35
-21
-61
-55
16
14
-76
-11
20
-11
1
14
23
-11
34
-70
-1
2
-37
-61
-59
-49
-69
35
-72
-67
-1
-68
-72
49
22
-48
12
-42
-1
81
-41
-38
-75
-18
-14
19
-98
-53
3
29
-29
2
-92
-10
26
11
-36
27
-10
-46
39
-15
85
0
36
-57
-42
-55
-1
-19
-100
0
-110
-21
-102
-17
24
39
-3
-107
-101
-42
25
-72
2
-18
-23
-24
76
-7
-41
-73
-12
27
-102
-39
-32
-12
32
-8
47
-63
73
-40
-7
-10
-55
-120
21
87
-4
-9
-54
-50
8
-15
21
-78
-17
-96
-76
127
17
34
-42
52
-27
-97
89
-26
-48
-21
7
18
-18
-90
-56
-51
-103
-41
-27
-82
-81
7
-12
99
-52
5
-19
62
3
24
51
41
86
-2
30
-4
-59
-28
-15
-14
120
68
-44
-51
-61
92
-7
-22
-12
-10
-43
-127
20
-53
-21
44
35
-76
13
-34
-28
-104
-91
-66
-14
-20
64
-21
-39
-4
-38
-57
-22
-43
-48
18
43
-3
35
-127
-60
1
-43
32
-63
-43
-65
-30
-5
-26
-79
-69
-38
-59
-127
-127
-26
-55
-67
-6
90
65
-59
-30
-16
31
-103
-48
-127
29
14
-71
75
-46
-20
-23
61
50
60
-2
-39
-49
-103
-80
-127
-13
-12
-81
-58
-34
-73
36
-59
-2
-51
24
66
-21
-53
-100
-24
-127
4
-121
-16
-7
-55
-56
-79
-40
-6
-29
-30
-37
-92
-3
3
5
52
-14
1
-81
-79
127
9
60
-36
-66
-118
107
-64
107
-7
-44
-64
31
-47
23
8
-43
-47
-115
-24
-3
-34
-46
-45
2
-40
47
1
45
25
-38
-55
-75
13
-51
11
-78
-14
-53
-47
-59
75
-35
-39
-35
-32
-68
29
-70
-26
2
23
-119
-45
55
0
11
10
-46
-57
-5
27
-49
37
-14
-46
-51
9
-104
38
81
-87
-6
20
-53
84
-49
56
26
3
-98
-50
-43
-53
7
-38
6
9
12
-78
-87
-58
-56
80
56
21
37
-20
-46
31
-107
-33
122
-26
3
-66
-21
59
-2
56
-127
76
32
-11
0
-106
-38
-33
67
-104
-14
-34
-23
-29
56
-78
-76
37
28
11
-16
-46
26
-31
44
-27
24
-59
-68
-62
-123
-22
-11
18
-61
-6
11
-87
-80
49
-1
2
14
-63
-35
35
-45
-46
-8
17
51
7
-10
25
70
-83
96
12
-17
-14
36
-12
-127
91
43
-127
40
-28
-2
-106
-51
-66
-1
-71
-104
34
-51
-12
37
127
-91
31
40
-67
-33
-18
21
-15
-56
-10
-94
46
-7
-18
-20
-20
-4
39
-87
-77
-118
-59
-45
-70
17
-5
-69
60
-49
-3
-55
35
-41
-21
-27
12
-56
26
-12
12
-3
35
-64
-18
12
27
-70
9
-74
-3
-41
-64
-43
19
-83
-41
88
45
-83
-24
-56
-91
125
-78
36
-104
-42
29
12
-34
1
-36
41
-79
-22
53
-71
-76
-32
-51
-26
47
27
-6
1
-95
-50
-46
127
-43
-20
-13
12
-48
-34
-19
-35
-4
-4
12
-4
-70
-10
-14
-17
-13
19
-66
-89
-5
-28
7
-38
-22
1
-5
-32
-63
-55
-34
2
-93
69
29
-9
-66
20
-42
-109
-78
-13
-27
-120
14
-106
-5
3
11
17
-57
-76
-8
15
-120
56
-43
-6
51
-57
-58
32
10
5
-16
54
-69
-33
5
-54
-9
-23
117
-42
-69
1
-104
-49
51
-45
-9
-127
-92
-47
-21
35
4
-20
-6
-83
38
-26
-67
-20
-28
-21
-6
-27
-112
-23
-26
-104
-35
-127
24
-54
-6
10
-85
22
65
-71
-69
51
30
25
-10
-30
19
7
-12
45
-23
127
-6
-67
3
0
-44
-23
3
-22
-74
-68
-36
-18
-27
-26
-49
10
-26
14
-48
-91
54
-49
-127
21
-31
-57
-45
-30
-44
52
-68
-44
10
6
-9
-9
-127
49
71
-65
-56
-35
-66
-48
-35
18
71
-49
77
-61
-6
-49
-11
-14
-19
-40
-13
-26
-26
-63
-89
-127
19
-15
-100
41
-37
-22
-39
76
-111
7
-44
-52
75
-54
-85
-8
11
7
-12
-31
-42
-106
7
49
48
-41
41
-8
-49
-6
-8
-7
-30
8
22
-3
73
-110
-82
11
-27
94
1
-3
62
-47
34
-92
-28
54
4
5
-34
-3
15
-36
117
-79
8
24
-14
34
-122
-109
-32
-22
-73
-26
-53
-111
-120
-80
15
40
41
70
-22
0
-19
23
-41
1
-16
-68
-32
-7
-6
28
-9
-50
118
-127
21
-36
-65
-24
-127
10
-27
-30
-1
-32
-77
-23
68
-13
9
14
0
-12
61
-47
-12
11
-6
-25
-127
-86
-72
25
-48
-101
-127
24
-17
-39
-43
-4
10
-5
125
-72
-89
50
8
10
5
39
-12
20
-57
-79
-53
0
63
-51
-8
49
-44
-84
11
-40
8
-39
-14
18
-127
27
32
68
-77
-19
27
-21
12
-73
68
-54
-12
-12
-19
20
-64
-13
-18
70
26
-12
-8
11
-127
53
-50
-70
-28
-13
-4
-102
-6
-127
-55
-28
0
-46
-90
-70
-32
-42
-65
86
-113
-17
-1
52
-29
-85
-1
16
-27
102
-2
-29
-27
-60
10
57
95
64
-51
-94
-25
-68
17
-70
2
-10
-3
-2
-121
-85
-13
14
-64
-39
-23
13
-14
14
-45
83
-63
-1
-68
-15
-25
-39
-41
12
5
-79
3
-123
41
-4
55
41
-70
-85
-59
48
-50
-45
-51
-20
-40
-127
-11
-97
32
-80
34
-83
-17
59
14
34
-30
-55
-8
57
2
-54
-65
-42
7
-79
25
-15
-63
-77
-10
0
-31
-3
96
33
20
-24
-16
32
-93
2
20
-91
65
-46
-77
-60
-45
-67
-47
12
127
-26
-38
-27
-80
-31
-28
1
-51
-66
-24
12
81
-77
-94
57
6
-44
-113
-24
4
-37
-19
-76
17
-74
8
39
33
-73
-127
-54
-23
-56
-56
-9
8
15
-127
-42
39
35
-97
-75
-20
-6
-82
-42
-108
17
-73
-17
-73
4
-20
-62
47
-84
7
7
-38
-127
15
10
-23
-32
-14
26
15
12
-35
-29
-63
-4
48
-4
63
35
-5
-127
4
-54
-94
-41
-15
5
20
-56
-65
26
-28
-19
-117
6
-89
-50
-69
-9
-12
-16
-61
-102
-29
14
-69
-127
-112
-70
-97
-53
-2
-37
50
-29
26
-34
14
-42
-9
-52
-47
-67
-59
3
-98
0
35
-78
-31
-62
6
33
-30
-23
-36
-14
-29
11
-39
14
-6
-111
-14
-94
-19
-24
-45
-33
9
-38
17
-49
-107
-44
-16
-48
37
-127
4
-2
-6
38
-72
-31
-80
-127
-91
15
-46
-43
-31
-13
13
-39
-127
-63
-34
50
-51
20
-39
34
5
26
-99
65
-23
-42
7
-28
9
-64
-54
-127
-43
-26
-12
-53
34
-45
-10
-9
25
-72
10
-1
-81
-19
-30
41
78
-80
-78
-27
-88
-42
-12
77
-89
68
-7
-41
-1
-54
-17
58
-14
9
-50
-51
-95
-6
-26
-20
26
6
-3
-99
14
-18
4
14
-86
-50
22
-41
7
-17
-3
38
-1
-91
-42
-96
-34
-41
-10
-49
14
-37
-5
-70
-53
-75
-111
-127
-15
-33
-6
-35
2
-51
-20
-95
-90
-6
99
-54
-15
44
-57
-29
-1
-47
-23
22
45
-15
44
33
-28
-53
41
55
-16
-34
-35
-43
5
-31
-20
-3
-19
-116
-53
-72
33
-34
61
71
-104
-5
-59
-21
-101
4
-111
-22
-54
23
-61
-77
-18
13
2
21
-33
21
-27
27
4
-37
-18
-59
31
-26
45
21
-58
-78
-24
1
13
-45
-106
-64
-23
0
-37
-71
-73
12
-2
-33
-88
53
-18
45
-4
71
-117
-77
-91
-65
19
-3
-31
-22
-59
-127
-91
40
9
-56
-78
-89
-44
0
-82
116
-17
-2
4
-65
127
-2
4
-25
-11
-9
-13
30
-39
-119
-69
13
-21
-97
-30
30
34
1
17
-38
7
-12
-95
-24
2
-68
6
-39
-73
-96
1
48
9
41
82
70
48
-45
-78
76
9
31
44
-59
-43
-14
-83
12
-37
-127
-28
76
-51
37
-61
21
-24
-36
20
21
8
-68
12
38
-29
-22
-29
6
-71
56
8
18
-60
31
-51
-52
40
4
7
13
-5
-77
-27
-70
-58
61
-11
41
29
-2
8
-37
-70
7
-101
-51
36
-71
-28
4
-3
-4
-101
85
3
56
-15
54
102
1
16
-15
106
81
8
-12
-58
-84
-34
-73
58
-41
-52
95
-5
-34
-61
-5
17
-15
-83
-120
45
-127
-57
-10
-22
25
24
22
-46
-50
-7
28
10
-15
37
-5
-51
-32
-7
-63
-58
22
10
40
-6
-20
1
27
-127
-29
-64
-19
-103
-45
-86
4
-51
-53
-36
-12
-25
-58
-113
-16
30
44
-23
-21
-83
19
-29
127
-47
34
-48
88
40
19
-101
64
-11
28
-14
-50
16
2
31
-34
16
-9
19
92
-39
68
77
-26
-10
-39
-118
-15
6
-62
-18
21
6
-44
-28
42
-71
-60
-98
70
-45
-13
106
-30
-1
-8
-38
-8
32
12
33
-59
-72
22
-3
108
-45
-42
6
-3
34
-23
-7
-6
-46
-40
127
26
54
-2
24
-56
-4
31
127
-70
54
-45
-23
-11
-20
-7
-7
-55
-8
-66
-73
21
-18
-62
-48
-19
-11
67
36
-55
7
-25
83
-3
-100
-53
-44
-30
-58
65
69
-16
-48
-31
-41
-17
2
49
-4
73
-1
-4
89
-74
-68
-50
-27
0
4
-20
-23
2
-21
48
-58
-111
19
8
42
-97
-19
-25
24
45
-54
-62
-22
-4
-23
-50
-43
-31
-33
25
23
-36
57
16
-127
80
-2
55
-42
9
-4
-38
-31
-8
-5
127
-20
-13
-17
-75
-56
-82
14
-13
-24
-19
87
62
-123
127
-11
37
6
-3
13
-44
-41
38
110
-7
82
-81
127
-24
-101
81
-84
-1
-44
36
-32
61
62
77
-60
-127
-24
-67
19
-58
-38
-17
-39
127
65
-87
67
-71
61
-40
5
19
1
-74
-49
0
10
99
-57
-37
-27
-26
-39
-76
1
-34
-44
-25
13
-89
33
39
-35
-68
-38
-4
-73
-118
-59
4
57
41
17
55
-27
-102
-26
62
-31
-60
10
-31
-49
60
-26
44
107
-41
-51
-21
-41
-65
35
53
65
-32
48
-60
-3
-43
38
-50
-57
82
-108
-69
3
-37
-68
-15
7
-57
77
-15
-33
107
-110
-32
-29
-22
-31
-1
29
82
-66
18
-48
-41
12
-27
127
-23
44
58
-69
-7
34
21
-65
57
-14
-24
-82
32
-19
-127
-66
-43
27
30
-50
-10
85
32
-6
-73
-54
-57
44
40
-29
-56
86
-28
-12
-3
42
15
-106
-12
36
-54
-81
-27
-63
64
-20
-85
89
4
37
-10
-70
-7
-36
29
-23
-127
17
-6
119
19
17
-16
-15
-38
-62
-14
-27
-81
83
-37
-47
2
-58
13
-59
51
42
-57
-22
-49
80
84
93
-21
16
-56
-95
10
-14
-16
19
64
36
69
-60
51
62
-55
-89
28
-25
106
47
-56
2
50
41
-12
-45
-13
-5
-44
10
15
-2
11
-29
-32
11
31
77
-30
-112
-6
-92
-72
-2
84
-47
-56
31
-17
7
-45
32
-15
-39
5
-73
112
18
-42
-34
26
61
-9
35
8
68
-44
-23
21
14
3
-69
16
-58
-22
-53
22
25
-17
41
-35
-10
3
-10
-66
-31
-18
-37
-24
-14
24
-57
-94
-99
-54
24
-75
-27
14
8
18
-46
69
64
-13
2
-28
40
-14
42
-42
-10
-47
-10
49
1
-7
-56
-11
10
-37
-34
-56
29
-114
37
-19
68
-36
92
-28
14
-80
25
-4
10
-62
-69
1
18
78
-7
59
-38
-24
-27
77
-35
77
45
-43
-98
-20
14
75
-62
-78
20
-46
-16
-29
-84
47
20
9
-43
-104
-107
3
-44
93
-77
-22
21
-56
54
35
1
36
-52
62
79
6
48
-15
7
-1
49
-44
6
-27
19
61
35
30
-44
-32
-23
87
0
66
-42
78
-10
29
-27
-37
22
-4
-31
46
66
-28
3
81
-31
40
85
-40
-69
-12
-24
-81
58
-111
-45
-31
42
-24
52
7
20
-69
2
-38
127
33
83
10
33
-12
-29
-10
94
-32
-55
-43
-74
-63
3
98
38
-72
76
-14
-3
43
2
18
-19
28
-63
-90
-9
-34
-41
-82
14
24
-31
-127
-43
-50
-82
62
-11
22
-26
-27
70
-83
-60
28
4
-29
13
-46
34
83
-23
-65
-127
40
7
-34
-4
-56
-29
8
57
-17
22
-7
28
24
19
-86
12
-38
-24
-127
3
8
53
6
49
-63
-6
-44
79
61
-67
23
-49
10
-108
26
-40
-24
23
-23
-87
-79
-67
70
-58
31
30
-42
-50
54
31
-79
7
27
-7
3
65
-18
-55
-6
-42
-5
-51
26
11
-14
4
-7
31
-30
70
-6
39
-17
-25
108
-29
66
-5
36
17
13
32
-72
-19
-66
-49
44
-35
43
-7
-14
-19
-8
-41
-55
-38
-127
45
-19
3
118
78
4
-73
-49
-1
23
-41
33
72
-26
40
-66
4
30
-18
32
-57
-77
27
-2
-71
-72
-4
-26
-26
86
-70
-51
-16
40
-35
49
37
63
-10
6
-46
8
38
22
47
-22
-127
27
125
-32
53
37
-35
119
-32
-34
1
17
-58
-11
-11
81
13
38
-46
-15
-34
-83
-67
98
76
-102
-52
45
-9
71
-51
26
-74
0
76
-44
23
-48
-37
-54
-47
-44
0
31
-40
-78
96
127
66
48
127
-43
-47
34
-62
29
-44
-104
-42
59
16
-12
-14
-72
34
-41
54
-83
74
115
-39
19
-44
43
-93
-42
-18
-77
54
7
-1
32
-35
-56
-27
47
38
121
-93
-41
-18
-5
-23
-43
5
-78
-61
-39
-22
-112
80
28
64
-7
-87
9
-5
-9
46
1
1
-69
56
57
13
-44
-67
-69
37
-27
49
78
32
-54
0
-2
34
7
60
50
37
-15
-18
-24
-100
-74
-83
-10
-28
-9
38
105
37
-29
44
83
60
-88
15
49
13
-60
-59
-19
-60
1
0
10
-66
-16
30
104
-3
13
-30
-50
-29
64
18
18
44
38
3
32
-35
8
-5
-23
59
18
74
-99
-8
-8
-24
11
47
120
29
91
-7
22
48
-127
-104
-51
-5
7
-22
-94
-7
110
8
17
57
-26
-25
12
59
-89
59
39
11
27
57
-13
-105
-5
-11
-21
-76
1
-73
50
-35
46
-73
-96
-47
8
-14
-86
-79
36
-31
11
0
13
-11
68
30
-114
87
-76
-5
34
23
-19
20
11
-81
-9
1
-14
60
4
-17
8
-111
7
60
-33
-36
-66
-60
55
-19
29
-97
-83
-17
-31
-11
2
-8
-43
63
-58
6
-81
-6
8
-36
-58
-127
-49
-46
74
-93
1
-106
-119
-37
-94
-36
-37
1
-89
-45
-39
-53
-31
-2
26
6
-17
-65
-80
-57
20
-2
20
-6
83
-84
5
-38
-57
-6
53
16
-49
-41
-47
8
6
-81
16
-88
-8
14
66
-47
-33
-48
18
7
-74
-70
-29
45
-111
-25
81
19
-55
-101
41
87
-30
-6
-45
-127
-11
-99
-58
-57
-98
-80
-8
85
-65
-55
50
-10
-24
18
38
99
-93
-87
-45
-42
-8
14
-127
-91
-113
-32
-81
13
-83
-63
-34
43
-56
-33
-52
-75
-47
27
-73
-47
-4
4
-101
21
10
-68
-31
-30
-76
127
33
44
81
-75
-18
38
-127
-21
-25
-27
70
-1
-18
36
-16
-32
20
-18
-71
8
-33
7
20
36
-30
-65
36
-77
-48
-65
-4
-69
-127
-5
-63
44
-36
-31
-100
38
55
-4
-65
-12
16
86
47
-13
-37
1
-23
-70
-38
0
-88
-100
-82
1
17
-76
-17
-38
-98
18
69
-62
-46
-83
-103
-85
-81
-109
17
1
-19
-32
-64
64
60
-26
16
-49
-57
0
3
50
20
-70
31
-45
127
-4
115
54
80
-10
-91
-38
-49
-112
-48
-10
23
-125
-20
-126
-29
-48
19
-5
-70
32
-8
-56
-90
-34
-54
-100
94
10
-79
52
-53
20
-58
13
67
-107
41
-66
-31
-96
-14
-26
-18
-22
-49
47
3
-46
-43
-53
-81
-18
-33
-112
-85
54
-29
-16
-66
-44
11
46
-29
53
-21
9
-84
25
-66
-71
-34
-41
-59
-52
-45
-10
38
8
-4
-121
1
-52
-63
-54
6
-41
45
-24
-66
15
-13
-21
-102
-61
-9
12
-35
-60
23
-11
-19
-44
-73
-28
-75
-31
6
-90
-56
-35
-127
-56
-127
-92
-29
-35
-13
-31
-87
-70
-91
-2
-127
-32
-9
-81
28
-80
3
27
3
34
-20
-127
-13
-79
-27
54
-59
-27
-78
37
29
9
-7
-36
-9
-50
-127
-1
16
33
-32
-49
29
-32
-81
-13
47
-29
-28
-77
42
-5
-56
36
0
-34
-49
16
-75
13
84
-27
-22
38
16
-20
-45
10
-127
12
14
-54
70
-21
-4
29
-57
-28
-77
-67
-35
39
-8
-56
2
-19
-45
-79
5
2
-48
74
-57
53
-111
-60
-54
-23
-127
-29
15
-26
-104
-68
-34
-48
-26
-31
-40
56
-21
-29
37
-9
-19
-79
94
-6
-57
-20
-18
82
-18
-29
-98
-10
-7
-127
-92
-127
-42
-27
-50
-42
-107
-70
20
17
-15
-37
-39
-43
-88
-71
-47
-127
-23
-32
-25
14
102
-20
-47
-53
-76
109
23
-127
-53
-79
28
-100
33
5
43
19
-46
-57
-3
-36
-22
-6
19
-52
0
40
-48
10
-44
-24
-119
-127
-84
-25
48
-85
33
20
-68
-69
118
1
-26
38
-94
13
-36
-22
-38
-9
59
-6
98
71
-28
-5
42
13
-4
0
0
-64
22
-26
-83
65
-21
22
-44
-108
-94
-55
-54
4
-98
-49
-16
-100
34
-30
-2
-87
-20
9
-36
1
-59
5
-1
-35
-38
-77
18
-62
-54
-52
-63
32
16
-51
90
-27
-34
12
-14
-54
4
-32
-1
6
-101
-46
-102
-8
-58
-15
-6
-41
36
59
-56
-33
-100
-35
-46
-95
-41
27
-114
-50
-27
-72
26
-1
36
37
-55
2
-77
-51
-36
-74
59
-87
-19
-11
-127
-37
-36
26
-55
-43
-54
-29
48
36
-16
86
-25
-82
100
-6
-7
-63
-8
-118
69
-9
-16
-5
-53
-69
37
-74
-42
-11
-45
-89
63
-42
-40
-42
-45
47
-54
-21
0
-68
70
-1
53
-84
-57
-17
-38
-39
-19
12
-127
-5
92
-4
-21
-75
34
-17
36
-29
-46
-57
-40
-5
65
-65
95
-24
10
-13
8
-16
-25
-59
-20
-37
-63
-83
-47
-48
-23
-10
-119
-23
-95
-14
-15
-69
-12
6
-44
-61
5
15
-10
-8
-50
-82
4
-91
-127
15
44
48
-34
-119
5
46
42
-14
-56
68
-18
24
-73
-127
-97
-87
38
-6
-6
-26
-10
1
-94
-36
38
1
-79
-30
-57
33
-17
-48
-107
-74
-66
-88
17
12
-6
-72
53
19
71
2
-7
-27
-126
-22
34
39
-61
-53
-33
-23
-34
48
-17
-1
-24
-68
68
7
-38
-51
1
-23
20
27
-83
-28
3
25
-6
-89
12
26
41
53
-19
9
-15
10
26
-16
-21
47
-3
-21
-4
-48
-25
-31
-89
-8
35
-3
-87
-46
-50
-62
59
-21
1
6
-48
2
36
21
10
27
5
-36
123
-9
-45
-87
-8
-86
-38
98
-29
-39
-42
-2
22
-64
-85
-56
-30
-21
-79
48
-51
-67
-1
-107
-15
-95
-72
-34
35
12
-36
-88
98
-32
-109
-64
-94
20
-37
-63
-85
-127
-31
-23
-49
-20
-56
-96
-80
-120
-57
-63
-63
-102
-60
49
-51
-74
-54
-54
-46
-35
-51
50
-12
35
-5
-62
-57
-72
-65
8
-55
9
-6
44
-62
-17
45
18
-19
-41
3
-87
-6
-127
-19
-40
-50
4
-11
-98
-18
0
85
-54
4
-77
41
-52
46
-7
-24
79
1
17
-34
86
-1
33
-79
-1
-109
-11
103
-36
-38
-66
-77
6
-64
-34
-24
-70
37
-16
-35
-6
20
-9
-22
-59
-39
-71
-5
-41
105
-72
-48
29
-97
-45
-113
1
-112
-47
75
21
-12
2
-12
-4
-66
0
-96
45
-20
-72
27
-73
-16
-118
-77
-71
-3
-96
-29
-25
82
12
-83
-63
-9
29
-111
-14
-39
-58
-62
-46
-33
-66
18
-74
-44
-107
-13
-127
62
45
-26
-23
-46
-70
-54
-16
-45
-65
127
-5
-37
-16
-43
39
-85
-46
-54
-58
-38
-79
-26
59
-109
-56
47
22
-49
-38
30
-86
62
-21
-57
-8
-13
-25
25
13
-29
-31
-106
23
-48
-17
-82
-88
-1
4
-14
-12
-44
-15
11
-32
-40
-127
27
-62
-21
-48
-79
-96
-30
-10
-39
-70
69
-28
-79
8
48
21
100
-37
-30
45
7
18
0
-46
-36
5
-91
-32
91
-39
-98
-67
-85
78
-8
-3
-50
-8
-113
-14
-38
21
-38
-25
-57
-10
-43
-9
53
16
-36
51
2
-44
-28
-79
-20
-5
-81
9
-67
-13
75
-87
94
-30
41
-21
-6
106
-60
69
-22
46
-69
-74
-41
-102
19
-25
-53
37
-26
-11
-20
108
-29
42
-23
-71
19
-31
16
35
31
37
-7
61
4
-17
78
-122
-17
-8
-17
56
-30
15
-31
6
-68
-9
26
4
5
-107
48
2
11
11
-1
42
-22
-16
-36
34
34
-22
62
8
-16
17
-2
-20
2
19
6
-59
-45
83
61
-27
-62
-2
28
-33
-17
-75
97
-45
12
-45
2
-3
37
11
1
-70
77
20
127
19
51
-12
127
-43
-14
-127
-70
46
-23
50
-71
127
8
-105
-45
63
-26
25
36
-7
30
5
20
29
-40
-1
-5
-71
-36
-3
16
-9
-68
-9
-46
26
-46
-13
8
-27
56
45
6
-24
-34
-42
-89
3
-31
-55
-21
14
20
34
5
5
17
18
61
-66
25
22
19
-2
-64
35
23
-64
-29
-10
85
26
-43
-79
66
-23
-47
-49
9
33
13
-13
-54
7
32
44
46
81
17
-28
-8
27
-44
-18
-23
-71
-37
44
-91
31
-22
-108
-16
40
70
-49
-33
-25
16
-91
-5
-49
63
-57
8
-26
57
-29
-46
-51
34
-87
-28
9
37
-27
-56
-22
-68
110
41
20
-1
-82
-85
-48
-38
8
-39
-19
-27
48
-47
25
-66
-60
-19
21
10
-127
-22
-17
12
-13
-36
-10
-33
-56
125
-32
20
95
40
56
-45
-31
5
-8
56
30
-88
70
-4
-45
-84
-87
-71
52
10
5
22
26
-1
-43
75
-65
-11
56
-44
39
-64
-25
-82
46
-32
51
-35
-43
-67
-76
-52
49
-71
-10
-22
2
-54
-85
-52
-32
0
-34
5
27
-34
33
127
25
-44
-33
38
-9
-33
19
20
-21
-42
-39
-64
-34
3
4
-2
8
-33
36
-41
-127
-82
27
98
28
-124
-13
-55
-19
18
-41
58
-14
22
-38
-20
-51
-41
-15
-47
-9
-46
52
31
-41
-10
-56
-66
-51
-101
-16
-62
87
46
-38
-33
-45
-12
87
77
-19
-44
33
45
32
30
-68
14
-57
-10
-34
74
-68
-99
-27
-31
-30
-63
-115
-49
1
-5
-32
34
29
-28
-41
0
-39
87
12
9
-25
47
-10
82
-58
-79
43
8
-2
-14
-92
6
-46
-15
-77
-21
-65
-14
-39
46
-38
114
-8
11
9
1
-13
7
-43
-7
28
-44
13
41
-70
-27
-14
-37
-56
-22
21
-75
55
-30
-74
-44
36
-35
-35
-14
68
-3
-47
-29
-11
21
-64
14
-22
-15
-26
-10
-7
70
7
-74
51
-58
-47
-18
-50
-43
-127
56
-29
-45
-2
24
-53
-31
-21
25
18
-46
-5
-1
4
-63
-89
-29
-82
-3
-35
23
-86
-55
7
-29
-64
-63
13
13
32
9
-74
40
80
0
-7
-25
-21
-51
-71
22
-30
-42
-38
-68
21
19
-37
-9
-35
-2
-26
51
-95
-49
-4
32
24
83
-108
19
46
16
33
-1
108
18
6
-34
-23
20
57
-47
-48
-30
-18
-20
37
-59
-5
-15
20
105
7
-31
-13
-27
-25
-20
-5
-10
-4
-56
-25
20
68
0
-36
-20
-26
-8
-8
66
-127
-110
-7
-1
65
76
-127
-72
93
-2
-34
75
-61
-59
-1
58
24
-32
-127
-35
-37
-37
-22
-67
-33
12
-20
-24
-34
-11
22
82
39
-75
-15
41
-24
4
-13
-56
-9
46
-127
18
-19
47
-38
-86
-8
-7
4
-58
-57
6
45
-3
14
-63
18
20
9
74
-127
12
40
-55
-38
-32
-33
-109
-10
-8
-22
-95
-48
-20
22
-32
-33
-62
127
-57
0
-60
-22
-20
36
-127
127
-53
-67
18
96
-25
-67
-11
88
-54
-2
-4
-44
22
50
-85
-23
-28
-13
-1
-21
-21
100
24
-34
62
-70
-2
-34
5
-51
48
-74
-45
-36
-66
-1
-1
34
-37
-18
15
-47
14
33
107
-72
28
30
-85
-2
-40
15
18
-73
20
30
23
-75
-104
-70
-40
75
-37
46
5
-41
2
-41
35
-107
-19
-78
-1
61
111
127
20
11
-120
-11
-20
17
-53
-54
-60
10
21
56
35
17
32
-63
-4
-127
-26
23
-29
-5
-37
22
-46
-46
99
-53
21
-29
-5
12
24
7
56
-44
-50
-73
-97
20
-8
-22
-78
-40
-39
-3
-5
-13
32
-50
-76
93
5
-7
15
-26
-86
17
-71
17
19
-1
-50
10
17
-39
127
4
-61
20
1
5
-77
-92
17
-46
43
-7
-78
0
18
56
74
-7
61
-26
-17
-53
-26
94
-47
-44
-23
31
-92
70
-10
-57
2
-19
10
-50
-18
20
17
-26
-29
-53
-24
27
12
-54
-25
35
-61
-41
1
-16
-24
-13
-5
-56
-26
-6
-32
-85
66
-5
-51
65
-53
127
27
17
-52
10
-61
-26
47
-55
-8
-7
-43
2
0
-16
12
-14
-7
15
-55
28
2
7
-3
98
12
-24
-40
-69
4
-73
-31
49
23
-23
-24
-63
-4
-59
11
-12
-5
-32
34
-40
-44
-28
78
-19
-6
26
12
-45
-74
-79
66
89
-34
-31
-64
30
-15
36
-72
-54
74
-26
-20
-29
59
-36
-82
-8
-21
106
-55
12
-2
-80
47
-74
-5
-69
-3
-76
-42
-66
-22
76
13
12
-5
-59
-58
-25
60
7
-27
-19
22
-15
9
-9
-36
-75
35
-105
-10
8
-20
-54
5
45
-59
13
0
7
88
40
23
15
-59
-16
-63
-76
82
-121
12
-102
-28
-2
-11
41
18
-92
-13
-59
27
-72
1
-40
-29
42
-37
47
6
-1
-5
-108
-48
-30
49
72
23
-53
-18
-35
-51
-97
-59
-41
15
-12
-18
-54
35
-61
21
-46
-102
-14
49
-40
-44
-46
0
78
-117
48
-26
-38
10
83
13
9
100
-57
-62
15
-22
-69
-22
-10
-62
-72
60
-1
-36
127
3
41
-39
114
3
-39
-101
-19
-46
-41
-16
9
17
-73
-51
-10
113
-12
-64
-36
8
-2
-55
-62
-54
35
-61
59
-40
71
1
20
-57
-39
8
4
-67
-47
-12
-15
-127
-52
20
-55
-21
-54
7
52
-66
-22
-31
17
47
-58
-10
-69
-52
10
-22
3
-6
-75
-91
17
-38
27
-5
14
-88
-84
17
-48
-33
10
-40
-49
-3
76
-65
-8
-96
-102
37
-27
-12
-99
-9
11
-88
-55
-41
-64
-73
-26
-8
-32
47
45
-22
-127
-63
42
-66
79
-53
71
1
-109
11
-51
-104
-43
75
44
74
31
64
-95
-71
-5
9
75
40
11
-79
-34
-84
83
4
29
55
-62
54
21
-31
-90
15
0
-61
-49
26
-20
-39
12
31
30
47
15
-57
-17
-2
-42
66
-71
93
38
50
36
-50
-64
-28
-75
-11
-33
38
1
-15
-74
-48
-127
-34
-76
-98
3
-49
-72
-14
23
-90
-56
-12
-96
41
-49
-35
-14
28
18
104
-67
-45
38
-4
22
-119
-105
-3
49
30
9
51
-43
-1
-49
-51
0
-30
2
59
-71
35
-75
63
-66
127
15
8
40
-48
-4
-34
127
-12
-2
-66
-20
29
-34
-60
-18
-57
-22
-41
-24
-13
40
47
-76
85
10
35
-46
-3
13
-64
-79
-126
22
-67
-70
62
8
-16
-41
-32
-3
-103
26
-33
2
-77
-49
69
39
-5
4
-13
11
36
-27
33
-1
-11
-49
34
-6
0
62
-60
6
20
-25
-11
-66
-60
-61
-18
-10
-71
-40
9
23
7
-46
-63
15
-78
-56
-32
103
-127
-38
-31
109
-42
-16
-31
-95
59
86
-90
19
14
-51
16
-36
-43
18
-39
-9
55
-65
53
40
-34
38
18
61
-94
4
-94
7
-24
3
-48
-31
-7
-51
-74
-21
-25
6
-69
-21
10
-7
-11
65
-37
-39
-67
19
13
26
11
33
-35
-64
22
-75
26
-34
-27
-11
-3
-38
50
57
-56
58
18
39
-17
-20
-43
-74
-21
-29
-62
-81
-34
20
-7
24
-60
9
18
76
-25
18
-86
-22
42
-56
59
-30
-3
-19
-7
-44
29
14
33
13
61
-1
-3
-49
-5
-37
-17
-61
117
-21
-13
-31
-8
-32
127
-6
127
-47
-108
7
-67
90
-52
-27
19
-83
-71
8
-10
-5
-35
-22
-71
124
-13
127
7
40
-59
-103
85
11
-18
-2
-13
-9
-21
-66
-42
21
-121
41
27
-3
64
-63
8
44
40
1
19
-41
33
-109
-38
-50
-22
-13
-58
-47
-24
26
-47
-85
-51
56
-33
82
13
45
9
36
8
-42
-3
18
10
32
58
-47
-8
-28
32
-26
24
-34
-42
-69
-102
-65
-22
4
-20
-9
-36
2
15
35
-29
26
34
-44
-44
11
-42
-14
3
-46
-48
-107
-126
-10
-46
-27
13
-12
-76
-97
-44
4
-13
6
35
17
-15
12
-8
3
109
-4
5
42
-5
-40
48
-23
45
-16
46
-82
-57
45
-26
-9
-118
-27
47
-1
10
6
15
-47
11
16
8
37
-42
-29
44
-15
64
-57
-37
25
-35
-68
-11
-13
-47
-102
-14
-1
-90
-79
30
11
-29
-19
-60
-37
1
-35
16
13
4
34
11
-2
-11
-7
-17
-58
-37
35
-53
-69
4
26
-58
-27
-10
-17
23
-21
-47
-45
-42
44
-34
42
-6
52
-42
-87
-111
-78
20
-61
-22
-26
9
21
-46
-25
60
18
65
-26
10
-27
5
-69
2
-49
-46
3
-6
65
-12
-34
0
-19
-50
-3
42
-17
-19
52
29
-1
30
48
127
-2
51
-52
-62
-48
31
-18
29
23
0
-59
43
-67
3
45
15
-11
-8
-89
-50
-3
-28
127
-1
-40
-26
-46
-5
-18
-48
84
82
-64
76
-32
-93
19
-23
-16
-69
31
37
-49
-52
-7
15
-6
-60
-47
-115
-46
-6
-22
-18
-63
66
-96
-27
10
-40
-35
19
2
-20
69
-77
-103
-17
-23
-65
-72
59
-106
-47
-63
3
31
61
-87
-12
-1
-61
2
-38
-3
-6
15
24
4
-84
-69
-35
74
21
-31
30
-37
-17
4
-8
-118
-48
-17
63
45
2
-54
20
68
29
-6
37
-93
55
-127
-2
-88
-30
-55
51
-30
44
-113
96
78
127
-40
48
-108
-61
127
-39
-34
-104
44
-126
-39
17
-88
-61
24
-62
73
-40
-1
-37
-65
-25
-20
-13
-78
35
24
-55
26
65
-29
-15
-29
-42
-80
-4
-40
60
-81
-53
-32
27
33
8
-6
-19
48
-38
-66
-18
26
-64
-33
4
-26
-37
-21
-6
27
52
-61
-2
-76
-111
24
-66
-39
-78
-48
1
20
32
52
26
-44
-48
-59
-17
52
12
-1
15
90
-20
-18
-24
-12
7
-30
-34
-100
-30
21
66
-46
-9
8
-25
64
-39
-19
-58
-17
-17
47
61
14
-27
-70
97
-45
-47
24
-58
-17
-71
-72
-81
34
-10
-12
-99
26
-48
-105
115
123
-28
-62
-5
-48
25
30
72
20
-115
-104
9
7
-74
19
13
-54
-33
-44
-39
20
-6
50
-109
-14
-62
-24
-9
-35
-79
15
-7
-32
37
-25
-27
-54
-36
57
46
-11
-8
-64
-71
-6
-30
18
-102
6
-50
-53
-35
-25
34
4
-48
-19
-22
-62
-90
-30
-76
-95
-15
-34
-27
-75
-40
39
-25
24
-59
-10
-37
35
-92
-28
-76
-47
-64
-9
-39
-57
14
13
-40
-25
-69
51
-37
94
-35
48
-26
58
-92
-24
-93
27
-43
-15
-2
41
-77
-49
-92
-1
-35
-21
2
-44
20
-2
-58
-17
31
-54
2
-16
-61
-14
-44
51
-18
23
-42
-34
113
55
-9
-31
-41
23
-103
8
-52
34
-13
-43
33
-21
74
28
-36
-127
-58
-8
-40
-35
-43
-15
16
-70
70
12
-5
61
-23
-44
-48
28
-83
-119
-7
-32
17
-6
80
-36
-65
52
-21
-6
-127
-127
-30
-69
16
20
-12
-56
59
-36
-16
10
-14
-11
68
-26
3
-127
-28
-116
-38
-82
-5
-44
-40
-8
-31
-24
-43
-29
94
25
0
127
-122
-34
43
-50
-47
-75
127
44
10
-12
-113
-63
22
-63
-17
-56
0
27
-67
22
14
-20
36
-31
-41
-50
95
-8
50
-125
8
-32
-10
-7
13
14
-63
43
21
39
111
74
-109
9
-27
-37
-43
127
-76
-126
-72
-55
-35
-63
-40
-84
-4
-20
13
-11
1
-16
76
-48
24
-2
-91
-11
-4
-23
81
-25
-5
9
-7
-16
38
1
-2
22
-25
126
-80
-11
102
56
62
-28
12
-24
-70
-95
-29
-14
-50
-50
-42
-10
29
-55
-15
-49
85
-11
0
45
-30
-75
-16
-38
-49
-46
-31
-32
31
11
7
76
-60
14
-22
-33
30
8
1
48
47
2
-39
23
-127
-85
-11
-71
-18
-95
-29
-63
-38
-28
-7
-22
50
-10
36
-83
-16
25
-57
25
28
-94
64
-14
-7
-17
-88
-57
14
-37
-110
74
-59
-19
-8
-93
52
-7
55
-112
-25
-110
-32
-12
-113
-1
-38
-70
-57
20
117
-58
-36
34
73
-17
10
-23
9
-16
24
-54
-75
-1
-73
-32
-2
9
-34
-102
-21
-73
24
18
-10
-48
-80
-17
23
-48
33
18
37
-14
-28
12
-47
0
-50
37
-11
-52
-26
-13
-39
-18
13
-20
-44
-12
-12
25
30
-54
-77
-14
-55
-107
-37
-18
54
-26
42
-75
-14
-74
-10
-61
-58
-2
35
65
8
56
-39
61
-12
-31
5
0
-59
-57
-33
-52
-68
5
-59
-66
36
-33
-50
-27
-77
-16
9
61
-100
37
-73
-46
-65
-28
18
-73
-16
56
61
-77
11
81
-78
-78
16
36
-6
39
-69
40
57
-117
-101
-10
-121
-39
21
-41
-85
-14
-30
19
-10
-84
-31
48
-45
-81
-4
-78
119
-65
-11
47
4
72
24
41
61
42
20
43
-73
-64
-102
-70
-11
-80
-21
-83
-54
-46
13
-49
8
-116
127
-11
19
-21
29
-49
93
-22
-87
-60
28
21
2
-62
29
-85
30
25
59
-73
-76
11
-54
8
-70
-37
-30
-14
44
-44
-3
-17
89
-17
-27
-16
36
5
-14
9
-29
89
-13
-4
15
-42
-56
-95
-48
-15
56
-87
7
14
17
-4
-48
75
-7
-42
65
-23
55
15
8
-14
64
-45
42
24
83
-25
-23
-127
94
-40
9
23
3
-107
-107
-29
-25
-36
35
-64
-12
48
-76
-30
-23
-44
-123
-26
-13
30
-85
-86
-29
3
-5
-17
-18
34
-10
-50
39
-36
-2
1
75
-41
36
-94
-84
8
-62
32
4
37
7
28
-54
-52
39
35
3
-66
-13
1
89
0
17
-88
-16
-45
-31
0
15
40
-6
12
-42
-24
-43
20
-2
22
-127
-35
-92
54
16
-67
-30
27
-48
75
-24
-63
-12
-6
-38
76
49
-2
-62
-8
27
-3
16
26
-78
-36
13
-16
48
35
-93
62
-13
65
46
23
-50
28
-16
-17
36
-26
127
-6
12
-71
-87
-3
-9
-6
49
-16
-27
-28
-70
27
-61
-56
73
4
69
-42
3
-127
-4
25
-27
26
-33
-127
-22
31
70
-35
-54
-110
22
32
-46
29
-27
-124
36
-66
-89
-12
-10
-43
-11
-32
-44
2
-87
-33
-1
2
23
-42
19
-26
29
-57
-37
-97
-34
55
-18
-30
32
-21
-63
78
58
-23
4
-26
-14
60
-53
62
-42
-26
32
17
-36
-43
-127
-44
81
-51
-102
10
-41
-40
-26
-41
-122
-26
-21
-58
-40
109
-41
94
2
-42
4
-30
-77
88
-71
0
12
35
67
4
2
-6
-127
-61
-90
-60
-8
-50
3
-97
-44
68
29
-43
-23
-22
-127
-73
-24
-32
51
-97
84
-20
36
15
65
5
17
40
31
-72
32
18
-20
-32
27
-41
-3
-50
-70
-9
-32
-15
-16
-31
60
-4
-79
-106
-1
127
-43
-59
-79
-48
-66
18
-127
-34
-109
-33
-23
15
6
34
-12
2
-51
-88
4
-85
-13
-52
15
-29
-81
-3
22
-28
-42
57
-78
-55
-11
57
23
64
-29
31
59
-59
-57
23
-51
18
-7
-2
-127
36
36
-4
70
-27
-41
-32
-13
-1
22
19
65
-14
-9
-24
-69
107
-102
33
-28
11
-20
-4
20
-32
-98
11
-72
-103
-6
106
85
-22
-12
10
-37
-79
-32
0
-40
-21
-93
-8
-42
-27
-53
24
80
-15
29
-12
-11
-44
-21
44
-114
-48
7
1
-78
-20
22
77
-110
30
-62
-8
-50
20
-27
-115
-15
-19
15
4
-10
-55
-108
-29
21
26
-37
-39
-90
-97
-44
-72
29
-44
34
-1
7
95
-43
-108
35
29
6
-59
2
-10
4
-17
-39
45
57
5
-55
-60
-23
-108
-28
3
11
-1
2
-33
-4
-118
-36
-127
-4
-15
-65
-116
4
-36
-20
-70
74
-20
-9
78
41
69
-33
-40
17
18
89
123
23
-15
35
7
-5
-20
-17
48
-14
60
78
-3
-21
6
6
-23
-11
-29
68
43
-31
0
4
-30
69
-67
39
-41
-73
12
-67
-106
-127
-108
-12
10
-9
-31
59
-105
96
-35
-65
-12
-39
-10
-51
-50
-56
-38
-28
-62
-2
-24
-90
-37
10
16
-23
27
-18
-92
96
2
4
-114
-88
15
16
3
-20
10
16
48
-37
18
10
-92
-106
-37
9
-14
-8
-32
-38
-33
7
-19
46
1
-54
37
-74
-29
-101
-28
-45
-52
-42
30
9
-36
-98
-9
30
-15
88
-1
-89
34
-86
-40
0
12
-127
11
10
-62
1
41
-55
14
-10
29
127
1
18
-40
-61
-41
-44
-25
-35
-13
14
83
-41
-64
-27
72
8
-65
19
-30
-61
-36
-20
-11
46
5
16
29
12
-27
-60
-49
-26
-96
-76
-87
-53
-9
17
-29
-18
-107
54
29
17
-69
-34
-15
5
-8
0
-4
61
-40
-10
28
2
-72
-84
20
-50
-45
31
-51
-79
-37
-41
-44
-106
-43
57
29
-119
-17
-27
36
10
-42
78
78
-74
22
-53
-52
17
-47
-62
1
-40
16
-31
-28
52
71
55
-20
-39
-39
16
-70
-56
8
-11
-28
9
26
-62
-15
87
-28
51
32
37
-25
15
-2
-29
-43
-10
-4
-17
-86
-23
-2
-5
-3
29
30
-50
-99
5
-107
-32
-16
-5
-81
8
-34
-6
36
41
-94
17
-30
-27
-88
72
16
36
-16
-37
44
-56
29
23
-9
72
-44
-56
-64
15
5
-6
13
17
4
-44
-21
46
-7
-29
-43
52
-33
-2
-28
-12
81
-29
40
-22
-11
-52
-8
8
26
59
4
-5
43
-79
62
-73
35
-80
47
-22
-32
100
17
9
-12
-65
-29
-10
2
14
28
54
-111
-78
-69
-11
-10
-16
17
-24
53
9
-23
-127
30
-47
4
-3
-8
2
-49
-47
76
-25
5
-74
44
79
-21
22
91
43
19
8
127
6
-13
1
-48
26
-65
-42
-68
6
41
6
61
-59
10
39
-55
127
-42
-67
-28
74
7
-65
-6
-47
-37
36
-27
27
-82
-5
84
3
-61
-89
91
6
3
-32
-66
27
62
-42
36
40
20
-2
-75
-54
-76
26
18
-61
-40
-37
26
42
-53
16
-14
47
34
1
-55
109
-10
8
-60
28
25
4
-114
-34
-93
22
46
-9
-43
-12
-64
-96
-110
24
1
8
38
55
-60
40
-22
-7
-38
-48
-5
88
-20
-81
58
-82
-38
-22
58
77
93
41
25
24
-70
-84
7
34
-9
-5
-44
-23
-25
-17
3
8
-49
-50
-63
7
-46
5
-43
1
36
118
11
-81
-34
117
-43
-21
64
-53
-48
6
0
8
3
-74
-64
16
105
127
58
-77
24
-13
-5
32
-4
50
-14
-58
-51
-22
-34
-13
-101
70
-83
-68
-49
-42
-46
61
104
-27
-69
10
-2
52
28
7
-11
-97
16
-53
-40
-64
-74
-30
60
-70
37
53
-4
-29
12
-39
-127
26
-77
-31
-59
-1
17
-34
-21
18
-27
127
81
16
-93
-54
-37
21
-26
18
-63
27
-35
-31
106
106
9
-83
-108
19
-64
-22
38
-31
-127
-41
5
32
-88
-41
-18
-21
-36
-19
-29
2
19
11
64
-70
18
-93
-8
-2
30
-44
107
-57
5
-64
-4
-36
-92
-103
-12
-41
-4
7
44
-10
-111
-15
-58
-49
78
18
-21
-48
-68
95
27
17
-3
-8
61
71
27
-82
6
-35
-68
-5
-24
-16
0
-46
-87
-35
12
-63
-22
6
3
41
-33
-111
-28
-10
-69
-96
-23
39
30
-47
-16
-127
-87
-7
-48
24
-31
-24
34
-45
-38
-36
-42
-10
-46
-68
-102
4
-21
-73
0
-17
-29
51
82
-16
6
-119
-62
1
-2
-36
2
50
-18
-20
-31
-27
-11
-12
-84
-4
-39
10
-71
19
-14
33
12
6
-100
-28
20
-11
48
-61
8
-54
5
8
-54
-38
-18
-118
-33
-46
-22
1
-91
-37
-34
-11
92
-44
-44
-90
-51
-27
-63
32
-41
-64
2
51
-3
-38
-18
-44
67
-77
-37
-29
3
-83
109
0
-4
-28
60
-22
-51
48
0
15
-25
1
-74
-127
-68
-35
-30
21
11
80
-30
21
54
-60
-31
83
-5
0
31
15
-37
14
-90
15
-122
-36
-30
-27
-7
-68
-55
-67
-28
-89
-65
-78
-32
36
25
-29
-43
-33
13
-68
9
34
-80
19
-58
26
-41
-5
-68
14
14
8
27
-41
-67
-12
-16
-2
-49
-24
59
13
60
-38
7
12
7
-122
-2
0
-16
23
-45
-23
-18
70
-10
-46
-15
53
-23
-52
44
12
-46
-7
-26
-19
8
-11
-8
-16
-64
-66
-7
34
66
19
-6
-28
-26
-31
127
25
-49
-59
8
28
-17
127
-9
-13
45
-64
35
-29
-72
32
13
95
23
-6
-26
1
-85
18
47
-28
-100
92
35
-30
-76
25
-85
-74
15
-30
-74
-39
-36
31
-17
12
-21
11
-111
-13
-121
-38
-6
-52
-46
52
20
72
-6
-56
-10
-77
-47
-20
-45
-14
-41
50
10
1
-81
28
-114
-110
-19
31
-76
-105
2
-90
-55
34
-26
-10
-27
41
106
-58
-84
-31
-62
-8
80
-14
-7
-85
75
-32
-20
32
6
119
-24
-23
59
32
-24
-40
14
-36
-2
11
-56
114
67
54
-12
-83
6
-24
-46
-15
-43
-67
-28
49
18
15
-13
34
11
28
-67
-57
-84
-32
-6
-53
97
-8
-44
62
92
28
-72
24
-68
-64
-80
73
9
8
-23
-6
-33
-22
-52
-36
-25
-9
-20
-36
68
-57
-4
110
-26
-61
-16
-97
-53
-8
41
-17
-34
-46
42
43
-40
30
17
-32
-1
67
25
9
-77
58
23
61
-5
-26
40
-12
10
-28
7
48
-77
-20
-88
32
67
32
-22
-127
-17
-39
-20
-61
-65
-34
-48
-25
-93
-42
-50
-15
16
39
-67
-106
-33
-24
-78
-77
-36
-60
-24
-45
-84
44
-99
-39
-91
-56
-27
-44
-11
25
-17
-97
-66
24
-42
50
71
-48
2
10
17
-64
-52
71
12
-59
17
123
16
-92
-28
-77
100
45
-38
26
-69
79
-16
-38
-44
-55
-20
18
-77
39
-2
30
-30
-38
-100
7
-35
-73
-19
6
-6
16
-14
-82
-31
29
9
17
-19
-32
22
-52
-50
-52
20
-105
-30
-61
-22
-33
-61
-24
-10
-50
-103
-75
-2
-4
-41
-60
16
-97
-10
47
-50
127
42
-37
87
115
-42
-28
-100
19
-44
-17
-116
-14
37
-25
-48
-50
-48
127
11
-22
-25
-6
33
-31
-90
-6
2
-69
-5
12
8
11
-64
-12
17
-38
-86
73
-12
58
-16
-16
-16
-52
-67
-49
1
30
-22
-127
-27
-26
-27
-105
-45
-29
-60
-25
21
-74
52
-29
-39
-127
-35
52
-18
31
92
-88
-127
-19
17
-55
-71
-51
-43
8
15
-39
71
-44
-38
39
-9
-48
49
-32
0
-30
-17
14
-64
-37
14
68
5
-112
-58
-14
50
29
53
21
-127
-84
-63
-14
0
32
-43
-113
-108
-18
-55
19
-64
-127
-113
4
-17
-26
41
-42
-93
-64
-78
-127
45
-10
-89
-47
-21
18
-26
107
-74
-127
41
-58
-44
-2
-26
16
-46
-16
7
-54
57
13
-29
-63
33
63
19
-64
127
27
100
-40
-3
-36
-60
-36
7
-32
-61
-91
-56
-49
-73
14
38
13
-13
-37
25
-4
-7
12
18
59
-59
-65
-11
-2
-15
52
0
16
-5
-63
-20
-2
21
63
-5
19
-9
1
-95
9
-84
-42
39
21
-67
37
-101
-54
61
-40
126
-23
86
-39
-24
-126
-72
-27
-2
-42
6
-1
-71
-9
-15
-8
-62
113
29
-3
14
-32
-13
28
-3
-60
42
-82
-112
-29
-3
-45
-111
23
-18
-84
-43
127
-50
-14
-32
127
30
-26
16
9
127
-26
-48
0
-59
-50
2
-85
-45
-30
-35
-127
-67
-20
32
-33
-32
29
93
5
-38
41
-16
-50
-50
-49
-111
65
-98
39
7
-3
10
-12
-26
-41
-29
-19
10
-13
-49
91
127
-11
-27
62
-41
44
45
-64
24
-29
-14
-35
-37
-48
-36
-127
-68
23
15
-11
-36
-26
-63
-118
73
32
-44
-23
4
-49
21
-12
-65
-19
-86
40
-104
-55
-55
53
-44
-54
-41
-17
-102
54
-58
-53
-64
-42
-114
-29
13
-62
7
9
-45
51
19
-49
-56
66
127
28
3
58
-9
30
-31
-82
79
11
58
-67
-15
-5
-10
51
-69
-41
-18
-30
45
14
-11
-72
10
4
8
-14
-35
-51
-65
23
1
13
-31
43
-108
43
-127
9
-78
-10
-13
-62
10
-4
66
40
40
-98
42
67
28
46
3
-23
14
-68
-31
-26
-12
-26
5
-54
-42
15
4
-98
-29
-43
-25
74
6
37
-24
28
-4
-41
65
33
53
-4
-67
-62
13
-20
-7
-93
-64
-11
-22
80
10
-20
-49
79
36
16
-15
-69
-51
-54
-77
55
-10
74
-25
39
-116
-33
-78
9
21
-17
-25
-86
-8
-127
-33
-25
24
31
-19
-76
40
-33
7
120
-59
64
16
2
-8
-24
15
-8
-38
11
121
-92
49
-15
62
-81
68
-27
-41
-58
-45
-5
-11
-26
-77
72
22
127
-69
24
-33
-37
119
66
34
23
-67
-31
42
84
-16
-41
-92
-74
-8
-63
-3
1
-14
-27
-43
54
-127
-81
25
-81
-83
19
-26
-43
-24
-90
45
-26
6
-61
43
-53
-42
-51
-16
37
-30
23
-17
-36
-84
21
65
12
-39
-15
-5
-22
-66
81
78
-33
-102
-62
-33
-15
-21
-21
106
-40
-16
34
22
62
-46
127
-27
-22
10
-48
-64
19
-78
4
64
-66
-14
-84
127
21
58
-46
-8
55
33
33
-26
81
57
-33
-16
-14
-3
-44
-105
-4
-23
-55
-5
-62
-5
-20
39
12
-95
-1
-41
5
-15
-41
46
-36
-9
6
5
-69
-18
-78
-72
99
-14
-5
-32
-27
-41
71
44
9
-31
-13
-110
-25
-4
-45
127
-17
29
38
-54
-31
19
33
-90
-73
-77
63
18
44
44
-63
44
-53
-71
9
-16
61
-20
-27
-30
-59
-127
90
75
-48
127
6
-10
12
-53
6
-85
-22
15
-42
0
-69
50
-68
-31
-72
-24
10
-122
-19
80
8
-22
-8
101
-13
-62
-117
-19
-29
12
44
-65
-66
-66
-15
68
-51
-26
-14
33
66
-48
5
-7
-33
-59
-3
-85
-50
97
-1
-45
-105
35
-28
-12
-40
-34
-88
87
-71
33
57
-28
60
-64
-8
-95
-39
-83
35
-74
-1
119
-15
-38
-56
-6
-15
-47
83
-24
-76
-21
-73
-9
75
-60
99
-17
-13
-11
-54
-17
94
-10
-6
19
-31
-49
-43
-57
-80
-116
-10
-27
-50
0
16
-4
-75
-79
-38
-53
-62
-35
28
-49
2
-21
54
40
-4
-54
-43
-5
26
-3
8
22
25
71
54
81
-13
80
-44
-123
45
-9
-10
12
-4
-8
25
81
4
3
-65
25
-51
99
68
-127
5
75
19
-43
-56
6
-29
19
43
-73
-3
22
-33
3
-83
53
-8
-127
-69
40
-28
2
55
-6
36
-28
4
55
-30
14
-37
-30
127
-85
-5
-35
-6
127
74
-20
-41
-26
-72
-83
33
3
-65
-48
69
37
43
-34
12
-98
36
-94
20
-50
44
23
53
31
-7
-38
5
-92
20
-34
12
3
2
-30
-110
-41
-37
0
-13
-95
23
-50
-124
-60
-92
-59
13
-43
-18
13
0
-62
-19
-60
-4
-87
58
33
1
-82
-62
6
-13
43
30
23
-39
28
11
1
13
-41
-60
-36
-90
-12
77
2
-23
40
-17
6
5
-57
-3
-47
-59
-64
-19
-1
95
-56
-28
-35
-25
38
-43
-63
-24
-25
-41
-1
-75
-95
52
-55
-45
-59
29
15
25
127
14
-33
-15
-26
78
13
-17
-33
69
13
-32
-59
-4
-1
20
-46
65
-49
-38
30
-4
-4
-110
-79
-39
-32
-39
-22
56
7
-55
60
-33
13
-11
71
127
-30
-61
97
-59
-122
29
-41
75
-66
3
16
-43
127
-25
7
-19
-32
66
-90
-4
5
32
-73
-12
-50
25
-82
-27
-57
96
21
41
65
115
-3
-14
-79
-81
63
-65
47
-9
-10
-74
-35
63
11
84
-24
-73
3
-103
-17
-56
-51
-23
36
66
-50
-127
-44
-84
0
-78
-80
-75
-8
-10
26
0
22
-30
-23
65
-29
10
53
60
127
59
51
24
12
18
-29
20
46
52
44
-37
60
38
7
-8
9
70
65
-27
127
64
-62
43
-125
51
2
-125
41
-51
-20
74
37
-32
-18
89
-45
127
17
-2
-25
-68
-41
23
-44
34
-11
-52
125
-38
-45
-15
-39
-67
-41
-47
-12
54
-46
-17
-57
57
87
6
-5
0
2
9
-53
35
-70
106
-54
15
-10
-30
37
-18
-50
67
-26
-49
10
-49
-49
-51
1
-67
-59
-52
-82
-27
-24
7
-79
52
-4
102
-93
-45
14
-71
-1
-98
10
-28
-26
9
21
82
-127
-17
-81
4
-39
-2
111
-22
11
4
-14
58
-34
20
12
-38
-63
-77
53
-19
-11
-39
-49
20
-38
-54
85
-22
1
90
45
23
-19
-56
-68
-31
1
-12
21
45
-14
1
31
-47
-20
52
-27
-17
24
-103
32
8
3
31
51
-69
-29
127
-50
64
-21
94
19
-8
63
-3
-56
18
-85
-88
14
30
-32
-19
-72
42
-50
-41
18
88
-94
-66
-70
41
115
-25
-32
-72
18
-12
-10
-58
59
-57
-48
-62
3
-33
127
-15
-37
30
127
-72
-29
9
-47
-23
-53
-8
-74
23
-43
93
4
-48
14
-2
-19
-2
7
-71
-73
-94
-47
-64
25
-64
-35
-6
-47
-24
-64
-31
-93
22
-88
121
0
67
-100
13
-54
-85
-48
-18
-35
-74
-30
-29
-9
-28
-16
-76
15
82
-22
110
-104
-83
49
-43
-30
-12
22
-24
7
-46
2
-64
-24
-109
58
-28
15
48
-59
-51
36
-97
17
44
41
-27
71
-9
57
-85
1
36
-57
-25
-74
1
-13
-69
-96
53
-36
9
-14
-73
0
62
-85
-63
-9
36
-33
-110
19
47
-64
-63
72
28
-82
-43
85
-31
-84
-56
-23
-23
10
55
47
32
-123
67
11
-127
18
-104
-58
-76
-28
-106
-33
-71
-48
-62
-57
-127
-74
-29
-45
-74
-116
-44
-54
-75
-33
-62
-100
-115
-49
-127
-118
-60
-96
-82
-66
-87
-110
-27
-52
-87
-98
-98
-74
-100
-99
-6
-70
-49
-100
-78
-86
-55
-64
-101
-108
-109
-63
-127
-72
-11
-67
-100
-127
-27
-60
-127
-78
-43
-70
-79
-91
-68
-54
-95
-71
-57
-63
-127
-83
-46
-100
-77
-67
-73
-127
-43
-54
-16
-49
-14
-91
-117
-77
-77
-92
-51
19
-104
-50
-127
-20
-35
-92
-127
-50
-22
30
-100
-34
55
-96
-104
-16
-103
-29
-63
-58
-87
-116
-37
-113
-52
-96
-50
-127
-104
-104
-81
-85
-106
-69
-36
-71
-127
-52
-65
-69
-84
-61
-96
-58
-35
-61
-102
-65
120
-51
-61
-88
-98
-127
-63
-29
-125
-108
-30
-127
-72
-83
-123
-127
-92
-69
-9
-93
-65
-61
-20
-75
-49
-109
-99
-99
-34
-99
-127
-78
-10
-95
-67
-107
-55
-122
-105
-74
-127
-118
-89
-102
-106
-120
-75
-23
-84
-7
-73
-75
-127
-29
-9
-61
-52
-65
-51
-49
-117
-42
-99
-62
-74
-107
-97
-37
-46
-16
-62
-97
-91
-26
-24
-66
-54
-83
-34
-34
-53
-58
-29
-20
-79
-91
-39
-78
-77
-127
-78
-106
-78
-47
-104
-127
-75
-54
-109
-93
-90
-103
-71
-39
-46
-86
-35
-74
-70
-29
-111
-105
-87
-44
-111
-50
-85
-32
-123
-32
-55
-56
-35
-92
-125
-66
-127
-105
-71
-63
-126
-72
-72
-63
-55
-92
-63
-94
-51
-112
-59
-62
-87
-62
-60
-127
-66
-127
-127
-85
-81
-81
-114
-63
-86
-50
-108
-50
-33
-127
-90
-56
-81
-125
-6
-82
-82
-118
-124
-112
-67
-49
-63
-36
-121
-72
-30
3
-110
-109
-50
-58
-56
-127
-56
-71
127
-53
-73
-77
-57
-82
-127
-89
-120
-50
-51
-70
-80
-109
-110
-78
39
-126
-116
-68
-94
10
-54
-38
-37
-65
-75
-97
-96
-84
-73
-112
-97
-61
-35
-75
-75
-70
-82
-93
-77
-88
-52
-57
-31
-127
-105
-127
-92
9
-124
5
-92
-96
-87
-38
-41
-34
-91
-72
-88
-127
-94
-61
-67
-113
-37
-80
-66
-50
-60
-127
-65
-20
-80
-92
-114
-42
-58
-62
-48
-56
-79
-107
-64
-127
-14
-2
9
-121
-49
-96
-74
-36
-50
-91
-72
-117
-57
-77
-68
-57
-91
5
-101
-89
-107
-102
-47
-48
-113
-50
-63
-104
-82
-127
-91
-40
-51
-18
-38
-32
-15
-101
-37
-60
-127
-54
-57
-90
-40
-74
-111
-94
-58
-60
-36
-121
-69
-93
-127
-110
-40
-97
-103
-30
-55
-84
-82
-42
-108
-69
-85
-108
-65
-74
-48
-48
-51
-49
-64
-65
-75
-78
-43
-71
-127
-116
-88
-96
-57
-96
-123
-74
-60
-91
-45
-92
-33
-127
-100
-127
-29
-53
-103
-66
-114
-41
-127
-27
-104
-127
-90
-66
-96
-89
-57
-25
-110
-59
-17
-112
-91
-24
-80
-69
-24
-77
-59
-84
-18
-24
-114
-85
-63
-35
-59
-39
-65
-93
-96
-127
-127
-94
-73
-26
-41
-60
-34
-105
-54
-65
-73
-84
-16
-74
-27
-20
-87
-117
-88
-81
-53
-20
-71
-63
-40
-7
-106
-102
-25
-80
-88
-127
-77
-34
-72
-114
-127
-95
-86
-74
-81
-127
-98
-81
-91
-50
-44
-40
-27
-92
-124
-89
-69
-119
-48
-11
-98
-106
-122
-127
-58
-91
-68
-97
-23
-57
-58
-106
-47
-99
-30
-46
121
-3
-70
-74
-119
-127
-127
-50
-118
-97
-17
-50
-13
-78
-79
-80
-57
-127
-76
-27
-66
-8
-124
-10
-71
-24
-37
-69
-61
-24
-70
-100
-40
-87
-127
-41
-110
-60
-72
-86
-45
-5
-118
-24
-64
-75
-89
-80
-88
-82
-127
-103
-25
-75
-98
-58
-45
-90
-127
-40
-124
-61
-29
-127
-86
-55
-71
-127
-90
-37
-25
-61
-68
-80
-103
-82
-44
-44
-65
-106
-106
-45
-65
-110
-44
-83
-90
-123
-75
-47
-58
-23
-127
-46
-127
-44
-80
-101
-127
-87
-127
-77
-67
-66
-59
-17
-62
-109
-108
-90
-90
-22
-74
-88
-67
-106
-102
-3
-43
-41
-103
-67
-61
-126
-121
-88
-60
-58
-45
-87
-69
-83
-52
-55
-91
-19
-81
-69
-88
-127
-87
-56
-8
-74
-48
-70
-59
-119
-114
-50
-127
-21
-67
-21
-63
-117
-37
22
-53
-84
-113
-96
-80
-13
-10
-50
-86
-99
-127
-99
-44
-71
-93
-127
-117
-117
-91
-102
-66
-33
-59
-53
-47
-32
45
-112
-127
-58
-87
-41
-47
-86
-65
-105
-87
-105
-73
-94
-6
-106
-50
-93
-52
-28
-44
-35
-46
-33
-47
-88
-121
-111
-50
-117
4
-127
-87
-109
-83
-22
-73
-93
-106
-4
-127
-64
-118
-60
-85
-80
-80
-25
-61
-22
-96
-127
-95
-62
-33
-102
-86
-81
-75
-66
-94
-65
-52
-69
-96
-26
-51
-39
-116
-52
-55
-127
-53
-127
-127
-56
-23
-94
-66
-56
-40
-29
-24
-97
-73
-74
-55
-127
-68
-107
-64
-91
-114
-54
-66
-52
-31
-127
-42
-47
-85
-127
-37
-101
-95
-121
-57
-80
-44
-44
-92
-37
-91
-91
-96
-49
-74
-63
-80
-47
-33
-55
-53
-4
-37
-68
-82
-127
-127
-15
-65
127
-84
-127
-46
-57
6
-28
43
-36
-55
-13
-99
-121
-7
-52
-66
-72
-98
-59
-55
-70
-70
-126
-96
-34
-33
-123
-44
-75
-47
-51
-94
-77
-109
-99
-83
-61
-98
-75
-47
-78
-16
-10
-87
-105
-68
-100
-47
-72
-36
-17
-33
-64
-76
-72
-26
-74
-66
1
-127
-99
-98
-67
-114
-127
-104
-127
-91
-87
-122
-90
-127
-83
19
-124
-86
-127
-96
-64
-64
-37
6
-116
-77
-102
-122
-69
-97
-127
-72
-38
-41
-54
-9
-82
-83
-55
-45
-26
-90
-68
-64
-79
-99
-38
-25
-1
-127
-61
-127
-52
-49
-87
-82
-56
-77
-95
-58
-88
-67
-54
-14
-36
-55
-87
-66
-115
-31
-52
-60
-74
-37
-114
-66
-127
-92
50
-71
-54
-93
-127
-120
-53
-90
-59
-44
-127
64
-48
-35
-16
-96
-105
-87
-127
-81
-75
-30
-51
-70
-127
3
-39
-86
-58
-110
-87
26
-71
-48
-82
-43
-113
-125
-77
-31
-58
-81
-33
-78
-69
-58
-74
-127
-88
-61
-51
-127
-45
-119
-64
-86
-79
-83
-23
-45
-59
-107
-104
-127
-127
-100
-68
-39
-127
-36
-58
-127
-74
-13
-93
5
-99
-127
-57
-59
-110
-38
-70
-97
-81
-89
13
-13
-39
-13
-67
-15
-20
-50
-79
-65
53
-25
-47
-86
-35
-50
-59
4
4
-1
-18
-54
3
18
-66
-23
-100
-35
1
-55
17
53
-15
22
-47
-37
-17
0
-64
-61
-69
62
0
0
25
50
12
-50
-126
20
-38
-68
102
-85
-30
5
-11
-66
-11
-51
-40
29
-6
-35
-108
-127
24
-28
-90
10
-7
-127
26
-127
-14
10
16
26
-33
-12
-70
-46
-7
-8
-104
-12
-99
10
21
-68
-84
-28
37
17
-23
4
3
-63
6
-21
22
-67
-6
16
-36
10
-5
29
-96
-50
-4
-49
-74
-73
-83
-48
-1
-26
-25
-113
-33
-87
29
-69
-42
94
-66
1
14
-127
-49
59
-11
-26
79
-72
-8
9
19
-44
-44
-21
-28
90
-17
-93
21
-26
25
-11
-17
-79
-19
-68
-67
12
-12
-67
-8
-55
-90
-127
71
-70
16
7
3
-56
-54
-42
7
-65
-57
-5
-66
23
69
-76
-19
-79
-101
4
-54
-68
-37
21
-102
0
-67
-84
5
-15
108
9
-55
39
-69
-38
39
-18
29
-19
-75
-104
11
-118
-62
62
37
-12
-44
20
-68
-3
-34
23
-72
-15
7
-115
5
-32
-63
-57
-37
-31
-60
33
-46
-36
-70
-127
11
-42
-113
33
-44
-49
-50
-55
-86
-29
9
-106
-88
-6
-69
-69
-3
-99
-45
-82
-2
75
17
13
-26
-30
-101
-35
-82
-27
-88
-49
-23
-62
-127
-64
-29
-68
-43
-63
-53
35
-47
22
-36
5
-85
-29
0
-3
8
-95
-31
-22
-42
-57
1
-12
-17
-33
-19
-29
70
-53
-61
-53
-126
-28
-60
-9
-1
-61
18
-10
-58
-114
-80
-55
-10
6
-50
76
-125
-19
18
-96
-19
-13
-63
-45
-107
-40
-127
-23
-28
-70
-52
-19
-28
37
-22
-52
-55
-112
5
-77
-64
-7
-22
-111
-89
-20
-8
-125
-82
-4
17
10
-33
16
-73
0
-43
-28
34
-44
-127
-56
-125
-127
-33
-12
26
47
-37
-53
45
-32
-1
25
-76
-5
-38
-52
-4
20
-10
-42
-27
-52
-36
-59
-103
-3
-69
2
-55
34
-28
-81
-5
-12
-19
-27
16
-85
-27
-127
-45
-36
-16
-56
-127
-15
4
-67
23
-60
6
-83
-127
-10
-11
-18
-42
2
-45
-2
-5
2
-64
-18
-127
-14
-37
56
-56
-20
-77
-55
-104
-12
1
-30
-77
-86
-76
18
-21
-68
-49
15
39
20
-127
-58
-68
4
-79
19
63
-75
49
-37
-49
-77
-121
-73
21
-52
-68
-94
-59
-108
-17
-62
-45
-79
-39
-60
-25
-61
-54
82
-75
-90
-16
48
21
-31
37
-33
-86
-67
-17
-34
0
21
-62
24
-57
-103
-46
17
-17
-62
-54
-48
11
-12
30
-66
-20
-62
-47
-24
-48
-25
-86
1
-68
37
13
-65
28
-43
1
-45
7
-37
-52
-41
6
-74
24
-57
-81
9
14
-89
53
-10
-78
10
-50
15
22
-42
-13
21
-51
-18
-39
-127
27
-14
-42
-39
-127
-60
-64
-50
18
-33
-57
-39
-57
-91
-9
-38
-5
-114
-19
-43
-46
87
-37
-19
-15
-24
-59
-35
26
-87
-23
36
-3
-33
-24
-19
-13
-6
11
-16
-114
-81
13
39
-20
-25
-71
-84
-58
-31
-3
-65
-29
-1
4
-86
5
28
-68
-43
-100
-5
71
-29
-61
-31
-43
-49
-83
19
26
54
-35
-71
-6
-39
-69
-21
-41
-18
0
-41
-66
-24
26
-115
-27
-49
-19
-13
-7
-36
3
-39
6
-68
-50
14
-32
-26
-3
-98
-34
78
55
-24
62
-3
-9
-38
-5
-68
-8
-5
-53
-40
16
41
-65
-31
-5
-69
35
-52
-3
-83
-45
-76
-54
-34
19
16
-85
-23
-78
-6
4
42
-63
-30
10
-67
24
17
-25
5
-43
42
-13
-47
-43
10
-25
-33
-46
-22
-65
-34
5
-115
-18
45
-44
-17
-55
-61
-62
-16
6
11
-87
4
46
-17
-71
-69
20
-7
-30
-8
-26
16
-23
24
-45
7
28
40
-39
-77
-13
-23
-88
-98
-51
-59
-67
-40
-37
3
-31
-60
-37
-87
-69
-8
60
-127
26
-29
86
28
87
-19
-44
-76
60
-41
-34
-19
56
-51
-56
-14
-62
-60
-106
-46
-98
-57
0
-99
-28
-60
-25
-24
-63
-37
0
-34
9
-19
-116
-11
-17
-127
69
37
-100
-6
-13
-55
42
54
-16
-53
-45
-29
-37
-10
10
-22
31
42
36
-20
-55
7
-13
-30
-74
44
-55
-26
15
14
-51
-81
-34
-10
-127
29
-79
-48
-1
18
45
-51
-48
-106
-80
7
-59
-11
-62
-25
-33
42
41
-14
-51
-71
-48
-88
-34
24
-2
-6
-58
-20
14
13
-86
-11
-51
-13
28
-68
-72
-127
-4
-3
-22
-75
-94
-45
-71
24
-125
-59
-39
-110
-24
0
26
-42
5
29
3
-67
-84
-79
-26
-67
-39
56
-34
-58
31
-62
55
-49
-61
5
-27
-28
1
-100
-57
-9
90
-41
-53
-11
-20
-36
-127
-78
-5
11
-62
-28
-42
-77
-96
8
-10
-68
-10
-10
-1
-74
-17
33
39
-63
-118
-7
-47
-19
-74
-65
-2
1
-61
41
11
119
7
-16
-84
22
-26
16
-20
45
-2
-81
-43
-12
-16
-5
-24
-17
-25
-85
-48
-77
-5
-64
-50
12
-73
-91
-109
33
-67
12
16
-21
-47
-51
-45
-49
-45
64
1
-58
-35
0
-47
15
1
-35
-10
-75
-17
-43
-66
39
-93
-23
16
19
38
73
-20
-54
-8
4
8
-37
-37
-57
-5
-48
-56
-50
-36
7
-93
-104
-32
-28
-25
-99
6
-30
-68
-41
-61
38
-19
-127
38
-78
-78
-39
-27
-39
-94
-74
-18
28
93
-122
-51
-10
-5
-7
-31
-34
-19
-73
-48
73
-27
-102
30
-93
-43
-37
-33
-3
-5
-42
-13
-64
-22
-67
-44
-39
-11
57
-39
-50
-45
-117
-19
3
-5
-29
27
4
-1
-14
0
-127
-45
-46
-43
-64
-38
-71
-75
-29
-127
-117
-68
-57
-56
-1
-11
-36
-19
-57
-127
-108
5
-57
-56
-9
-14
18
-41
-109
3
18
11
5
-88
-37
-10
-104
-58
-20
-14
-64
-80
95
-78
-24
-27
-28
-40
-60
-8
-44
16
-27
-20
-49
-47
-1
-19
-55
5
-20
0
52
47
-40
86
29
39
-71
-55
-78
-127
-70
-9
16
-30
-21
-17
-67
19
-70
-49
-13
-58
-44
-72
-61
-28
-66
29
15
-50
-48
-66
6
-31
12
-16
-18
35
-127
-2
22
11
-81
-9
-6
-75
-17
-12
4
-15
41
3
-60
-42
42
-27
-39
-114
90
30
43
-6
-65
18
-33
-39
-99
-73
-49
22
-25
-44
-113
-59
40
-41
-102
-50
16
-63
35
68
56
-82
-27
-23
-18
-76
-23
-4
-92
61
-4
-18
-32
-45
-51
-87
-88
84
-49
-4
19
-60
51
-42
16
-17
-97
-99
-4
64
-11
-127
-86
10
-67
-14
-127
124
32
37
-38
32
-2
18
-13
16
-72
32
93
2
-2
35
0
-58
35
-10
-127
-55
-30
-74
18
-89
-25
4
64
-56
-25
4
20
-66
5
-39
-49
-36
10
88
7
-14
39
-98
-74
-10
-50
57
29
42
29
23
-5
12
16
-29
-23
17
27
-6
76
-48
-37
-40
-30
2
17
-53
10
45
17
10
-55
-53
-34
-11
-13
-61
-20
-45
59
-8
1
-106
-108
-127
65
29
60
-73
-40
1
24
-48
-13
-113
-64
-75
-20
-92
-45
-83
-44
-70
-56
-78
-23
-127
-19
117
-15
-76
-15
-1
49
-40
60
4
-3
-24
14
53
-60
127
-28
2
21
-17
-66
48
28
-22
-80
-127
-37
-107
-9
-2
-61
-52
-2
-2
-56
-78
-48
-126
1
-42
-44
-84
-24
43
-57
-35
23
-60
-42
-3
-92
6
-28
-24
42
-67
-39
-44
26
51
-35
-5
27
-62
-4
97
-46
-36
-84
-88
2
-51
0
-8
6
-38
17
-127
-101
-36
-21
-91
-112
-48
20
13
-28
-26
16
16
-49
-29
-29
-44
-47
-112
-46
-1
-109
-23
36
5
-24
-47
36
-86
24
7
-4
-69
-47
-18
73
22
-62
30
-108
-26
38
-19
70
14
-6
-33
17
-53
-88
-13
-44
-45
-1
-46
47
-30
14
1
-26
-31
-10
11
-117
-46
-63
-63
66
-46
-59
-27
-12
43
-15
-51
-77
-20
6
-60
26
-9
-50
-21
-25
4
31
-2
-21
-62
-15
-9
-13
-38
45
2
-6
-38
4
2
127
15
-127
15
-57
-49
-41
21
-29
-36
-40
101
-18
-85
-52
103
-114
-27
12
13
127
4
29
-4
-79
-19
34
-22
47
-37
-11
-28
14
9
-31
-51
12
18
-44
10
18
-16
-65
-58
18
-127
-91
-24
-69
-67
-83
-15
-66
-56
36
23
-54
26
38
19
-23
-18
-29
-42
-72
90
-61
-37
-97
9
61
-10
-100
-89
-30
9
49
-38
-49
55
28
-123
-22
-51
4
-19
-20
-60
17
-27
-37
-45
4
-102
-127
-6
-42
-105
-78
-42
41
-98
23
-21
-85
32
-100
68
-55
-127
-99
-50
-42
36
-45
28
-24
-97
-121
13
1
-18
3
51
-42
-49
-2
-69
-17
88
-14
-110
-11
-51
-2
2
96
-10
-28
-57
-76
-116
12
-9
-10
-35
-64
8
-11
-113
-32
-23
-36
9
-60
-86
-45
-37
-68
27
-45
-17
19
16
-89
-77
4
-44
53
-19
-89
45
29
-104
5
-55
-65
-63
-4
-60
-95
-104
-65
39
-13
11
-2
-45
-52
-4
29
-40
-27
-22
26
-5
11
-92
4
-57
-58
12
-63
-35
1
0
-69
-27
9
12
13
74
4
-59
26
39
21
-35
-50
4
15
-93
-29
-9
-69
63
-56
-87
-25
28
-42
15
28
-3
10
29
-102
-5
-9
-15
-31
-21
-7
-19
-36
-120
-33
20
-46
-62
-37
-33
-22
-11
-76
2
66
-44
96
72
-56
-57
-97
-100
-57
2
-60
-65
-77
-24
45
-58
-22
-24
-42
-25
-121
-10
60
47
-8
22
69
-18
7
-58
-4
5
-24
37
-54
-27
-12
25
31
-15
-48
-59
-25
22
-77
-27
1
-43
3
22
-50
-13
14
-19
60
-127
-101
-9
31
-20
17
12
-17
12
66
11
-40
-31
-30
-30
-9
-68
-17
54
-53
-69
-64
64
-28
4
40
-60
30
-107
-40
-14
-32
22
-51
-63
-127
107
-104
-76
-73
82
-48
-51
-26
-27
8
-45
-16
0
-63
56
-22
3
-105
-9
-45
-14
23
-29
-66
-31
-103
-47
8
-28
24
-111
-27
26
-27
-30
66
-18
-15
-60
101
-7
-7
52
-32
-28
10
48
19
28
61
-63
-41
-13
-32
-58
-6
-67
22
12
-35
-39
-82
44
-127
-22
-127
-18
-41
-12
35
-48
-10
-61
16
14
93
-51
-70
18
-16
69
53
82
-21
-17
-57
84
-13
24
-46
1
-45
43
-26
-9
72
-32
-70
-27
-46
-56
-103
-111
-21
-31
-40
-25
8
11
-58
-16
-91
-37
-3
9
-36
-42
-64
-27
12
13
-34
-5
29
-59
-83
30
-127
-48
16
-86
-47
-115
-75
-8
-123
-5
24
-30
-72
-43
-48
5
-53
29
-2
-71
-111
68
-6
22
-48
-72
-22
-60
-32
-17
0
-1
22
-11
-33
-121
-53
113
-2
-54
-2
35
-31
32
-62
-32
-33
-15
5
-42
-57
-67
-55
18
-127
-19
35
29
-55
31
-108
-3
-41
-49
-8
-9
-32
-27
-101
-61
-5
-22
-48
14
26
-5
21
65
-26
-57
-127
-92
-98
19
-60
20
14
31
-1
-61
35
-14
-79
-25
3
-68
19
-127
30
61
11
31
-41
16
11
74
-11
-121
21
6
-21
-29
116
-5
8
-11
12
-10
24
-42
-91
19
83
-25
13
-50
-83
-16
-11
56
-107
43
-15
-12
-97
20
-9
74
0
18
-14
39
22
-33
-84
-127
72
74
-44
-73
66
-36
-4
-115
0
-42
24
-101
75
-45
-79
-74
20
-122
41
-38
-36
3
-38
67
28
45
-57
7
-23
-106
10
4
-39
-114
7
-56
36
-71
25
7
-5
-57
-61
-2
-42
-8
-33
-38
-118
-52
-77
12
-62
37
9
0
-14
57
-52
-34
-100
-32
-35
-17
-78
-127
-127
48
-80
-91
38
-1
-12
22
-101
3
-37
16
-49
-32
-61
-9
-2
6
-4
-78
36
-5
-10
-61
-53
-6
29
-6
-83
-71
-7
1
-3
-70
-45
-8
-52
-46
63
32
2
-79
-105
12
29
-37
-100
-34
-12
-75
9
12
-65
28
-71
12
4
28
5
-56
6
-83
76
-62
50
-94
39
-59
81
-88
31
-55
-43
-67
17
-16
-55
-9
-9
127
-13
-13
0
-42
-56
33
-7
-75
-94
-44
-62
71
-35
-30
75
-101
37
43
-38
-66
29
11
91
27
-73
70
-62
16
-96
-127
-20
102
-24
-127
-16
-86
-37
10
35
82
-75
-1
-8
-65
-1
-24
33
50
27
24
35
37
-4
-59
-46
10
-49
-53
4
21
-33
-10
-9
98
18
-23
-39
75
-27
35
-32
-71
-29
-10
17
-41
7
-28
48
-37
16
61
66
-62
-72
43
33
127
-5
12
59
-56
3
123
29
-41
40
-13
-61
-2
61
-82
-11
-44
-127
-21
-36
-10
10
6
4
49
63
-6
-59
20
9
-58
-113
-7
30
-52
-43
-20
2
12
23
5
24
-4
12
26
-81
-4
-111
-20
8
65
-77
-1
41
39
25
-62
-25
15
37
-49
-83
-57
58
14
13
-81
-91
-64
-14
76
49
11
-46
-79
-43
-36
-39
-25
-61
40
-6
-69
2
23
-13
55
109
-47
-30
11
-31
-51
-35
39
127
-85
-7
40
15
-25
-62
-40
-62
3
77
-22
26
71
-7
33
-23
-63
70
-21
52
-64
32
-55
-17
81
-15
-84
49
21
9
119
88
85
-47
3
-35
-74
-8
7
43
17
-28
27
-5
-50
2
46
4
39
13
55
36
54
-25
-46
74
50
-17
-75
-12
21
-79
-98
0
31
-46
28
-86
-13
0
-17
-90
-127
18
-1
24
54
-106
-11
-127
-57
-84
69
-46
-26
-89
-15
-127
-28
-19
-19
-113
-127
-69
-5
-49
-58
-44
-58
27
11
-24
-44
-45
21
26
-34
-24
43
-74
45
-89
-4
73
10
3
-35
-53
58
-10
18
-66
17
-75
-42
22
-43
-78
4
16
-45
3
24
119
11
54
-71
-7
-26
-5
30
-94
97
127
25
3
20
-84
11
58
-56
55
-82
9
-89
-16
-39
-50
-82
1
-3
46
-37
-35
59
-46
1
68
-80
53
-10
52
-9
-19
7
-95
-38
14
-6
52
-45
43
13
21
45
-54
-17
30
-94
-107
-9
-28
14
0
-49
90
-86
32
32
19
48
-3
-55
32
34
-18
-52
-44
-52
23
-52
47
-62
-75
-16
73
-111
17
-11
-62
37
38
-26
63
-87
16
-26
0
-79
4
3
62
11
-85
-17
12
64
-88
-70
37
-29
54
12
-35
-40
-110
2
-3
-5
-32
-2
-28
40
-29
76
-48
19
-20
14
-68
-20
4
62
26
-46
-36
30
-38
127
-39
0
-46
0
120
70
-26
21
-26
37
19
19
56
-53
21
48
-74
4
-127
18
-24
40
-68
-70
-24
-5
-123
-28
-57
0
-1
127
72
12
-35
-6
-1
-61
-15
-15
44
-67
-22
-22
-7
-20
8
22
0
10
-47
-15
56
15
24
32
-7
-24
55
-30
-54
-62
-4
-82
22
37
91
40
15
-5
-24
33
-80
-65
-21
-53
127
5
2
46
-25
108
-85
3
-31
-31
43
-35
59
-49
104
35
-126
-40
-55
-102
64
77
-46
-3
-16
88
-18
-64
-3
-98
39
-6
22
-39
12
41
2
-30
-83
11
0
-22
-69
24
-76
3
-9
34
-127
-94
-127
29
-11
25
11
71
-18
-73
-65
43
62
50
81
1
48
-69
15
37
-88
-77
-46
2
-1
-9
31
14
9
-15
-100
-43
-34
-22
39
16
-66
-31
-3
25
21
25
3
-11
53
-1
66
-76
-27
-57
-52
32
-27
-86
28
-50
-6
81
25
71
72
88
-54
-21
-83
-23
-40
-47
25
-116
-93
41
-62
-127
-16
15
127
58
29
-29
-54
42
48
0
-24
-31
-2
2
-21
69
21
-83
-20
-36
8
-28
-123
-19
-31
-3
49
7
-71
-17
48
-1
0
-30
-17
-42
-39
-54
-34
-22
31
-50
-57
15
21
-44
-110
-54
27
27
-6
-34
7
-43
39
-53
-64
36
31
25
-34
-70
37
-69
26
-45
-84
-106
-41
43
-10
11
-37
-49
10
-41
-23
54
-6
-109
-3
29
-57
1
-44
29
-81
-75
30
-34
-33
-28
-5
39
6
-22
-121
-22
-32
2
-110
-43
-48
-44
-66
-59
18
-61
25
-14
-33
26
67
26
20
-19
33
-16
-127
38
-15
62
121
-127
18
-62
-13
-31
-30
23
49
-25
36
-30
52
-11
-29
-6
57
-1
92
1
-27
52
25
4
34
-33
19
-11
-37
-103
-64
-8
-109
37
-25
17
19
-13
-6
68
-31
16
46
30
-104
-35
40
-16
-39
118
63
4
-92
-9
-4
-48
-80
127
8
0
12
45
-25
-7
-100
27
-63
-127
6
-24
-47
12
21
17
-32
26
-16
26
-28
-6
21
26
40
-8
41
-44
-12
36
23
-21
-63
32
-48
-114
-33
-52
16
-6
-21
19
-34
-54
-127
-67
29
13
-49
-65
96
-2
-44
39
-105
0
-89
-25
-26
-65
-16
-49
-36
-70
33
8
26
-31
0
-10
14
15
-49
-40
18
-79
-22
-73
-20
30
20
-41
25
-14
-3
9
-106
-28
28
23
48
51
-28
107
-13
-56
12
-30
54
5
-3
-43
-33
49
22
-9
14
-49
16
-48
11
-42
71
127
42
111
-24
127
-52
-41
-15
8
-38
3
-6
2
-64
-7
-41
2
-71
-9
-61
75
-15
14
34
-69
-22
-127
-17
33
-59
-46
7
38
18
-59
32
-99
29
-55
-30
13
-62
15
37
23
12
21
-3
4
-20
7
-62
-29
-65
1
65
-28
-57
10
-77
50
40
-32
-57
-88
28
102
-14
38
-60
-93
15
9
47
-40
-43
-6
45
-86
82
40
33
-16
-40
-120
-64
-10
-64
-13
20
-72
-87
-88
30
-11
127
57
-49
92
13
-18
-11
7
-67
-16
-12
-36
10
-5
-61
1
-11
-108
45
55
-34
-83
-26
-8
-24
23
-30
-2
-32
-34
-83
40
83
26
43
19
-5
90
-42
-2
7
36
-55
51
-11
-49
10
-28
-109
40
-127
-23
-56
-4
44
65
-51
28
14
-6
24
-49
54
24
-27
127
40
22
-54
66
26
55
-45
49
-17
-38
-19
-39
-89
-45
-109
-15
35
-88
-19
58
27
-25
-79
59
-42
49
-57
7
47
30
-116
-73
-98
-33
-33
-12
7
-2
-13
-101
-5
-17
-86
-56
-60
-11
-66
-61
-63
-64
-85
-24
-126
10
-57
-20
-70
-40
-83
30
1
0
-127
-40
-31
15
-18
-77
-11
-65
-6
-61
-43
10
12
-50
-22
-51
-39
-18
-37
0
-40
17
-44
-18
-26
-58
-75
-85
-23
-96
-80
-67
-42
-99
-3
-37
-22
-106
-127
42
-79
-73
-19
19
35
-9
-63
53
-109
-71
19
3
-18
-39
6
17
-51
-6
12
-15
-55
-33
14
-121
-13
-37
-47
-50
-41
-34
-8
-23
6
-46
-59
-78
-2
62
-45
39
-39
-44
36
-7
3
-52
-32
127
6
-37
-23
-75
-65
-90
-29
-10
-18
-22
-48
21
-84
3
-57
-127
-104
27
-63
-63
-61
-4
-54
-91
-36
20
66
-23
-49
24
-51
9
-29
-5
-54
-2
-33
78
-54
-92
-64
-34
-5
-60
7
-52
-44
-114
19
-127
-66
-50
-52
-31
-36
9
-73
49
-35
23
-12
6
-22
-82
14
4
-32
-64
-10
-11
-121
-23
47
2
-107
-19
-61
-33
-22
-10
3
-51
105
22
-69
-23
-110
38
-69
-59
-22
-18
-25
33
-64
-62
-3
-63
-42
-2
-41
-17
-49
-121
-47
-25
-17
-104
-64
-127
29
-127
-2
-33
19
-88
31
-78
-25
42
15
-21
-52
-24
-43
-44
-30
-29
-15
-17
22
-9
-76
-42
-108
-55
2
-43
-88
0
-70
-95
-27
-31
-65
-51
-15
-48
-78
5
-109
9
-5
-37
47
-97
13
-17
-32
-83
-55
-10
-11
-82
-64
-28
-86
-15
-57
-90
-24
13
-2
-67
-35
-10
-3
-67
-31
-66
-61
1
-22
25
-32
-3
-12
33
-88
-109
-41
-127
-70
-35
-44
-83
-74
17
-33
-44
-39
-127
-64
-90
-55
-31
-20
-62
-42
-46
-21
-92
-106
-53
-107
-21
21
-21
-73
9
-59
-50
-52
-94
-58
-28
-59
24
20
-127
-84
-127
-25
-41
-56
-43
14
-127
-24
-8
-18
-46
7
3
-12
21
-116
-35
-35
-40
-58
3
-71
-68
-80
4
-71
-1
31
6
-55
-69
-54
-74
-17
-51
99
-47
12
44
-17
-22
-45
-61
-26
27
-16
14
103
-127
-23
-86
-97
-36
-19
-13
54
20
-13
-48
-60
-20
-99
-56
-34
-118
29
-74
-72
-28
-5
8
4
1
-15
-67
-64
26
-94
-40
3
-30
-23
-5
24
-63
-56
-25
-101
-35
-52
-43
-95
-80
-71
-7
-127
-23
70
-67
-82
23
-4
-48
-78
-112
-13
3
127
-127
-15
-60
-13
-6
-14
-15
-58
-96
3
47
6
30
-48
26
-127
-3
-76
-44
-32
12
-12
37
-82
-98
-52
-47
-57
-97
-18
-8
-53
-118
-12
25
-71
-91
-29
-111
-46
8
-36
-49
-40
53
40
-50
-8
-44
-11
-2
-99
-100
-72
-28
-30
-43
-92
-127
-41
-41
-5
37
-7
12
82
-80
-14
-84
-124
3
-74
-127
-64
-67
-13
-97
-46
-59
-41
-45
-26
8
-46
-53
-84
-47
-1
-14
-31
-30
-77
-58
-89
-60
-100
-33
17
1
-8
-77
-20
-38
-47
-3
-5
-59
-26
-76
-64
-93
-127
8
-19
4
18
-48
-25
-127
-67
-37
-35
-39
69
-32
-37
-1
-115
-52
-33
-39
18
-40
-97
-24
-80
-40
-75
-46
21
-48
-41
-121
15
-26
-72
-52
-14
5
-82
-46
62
-15
-50
-37
-78
-64
-51
-24
-51
82
-58
17
-19
-30
-23
-38
5
-18
14
-58
8
-37
-54
12
-35
-41
-68
1
-16
55
-22
-52
-60
-37
-50
-127
-127
-61
-26
-68
-58
-42
-37
-10
-8
-116
-95
-60
-73
70
65
-55
37
-108
-66
-38
67
43
-40
-82
16
-52
-59
11
8
-86
-44
83
-45
-1
15
30
-2
14
-76
-37
17
-41
-19
7
-48
-71
16
-121
-85
55
-40
26
-51
-88
-28
-66
67
-12
-103
-10
-59
-8
-6
-34
100
-115
-92
-2
-54
23
-15
-80
-30
3
-24
-79
-79
-103
-52
-11
-6
46
-52
-127
-127
-23
-48
-27
5
-62
-30
-64
-42
83
-17
-52
90
-86
-36
-3
-95
-51
-109
-8
-55
-70
-14
-6
-121
-8
6
-51
-14
-6
-41
-49
-65
-33
-2
-80
-20
127
-47
-29
-46
-71
-103
-84
-85
-41
-88
39
25
25
-52
-107
-24
-66
7
-111
-29
-40
-55
-109
-77
-24
-14
-19
-65
-35
6
-91
-88
-14
-7
-21
-47
-74
-9
-37
-28
-34
71
31
-35
-31
-23
-4
-69
18
-72
40
11
-65
21
-15
-48
-5
-6
34
-29
-14
-105
5
12
-59
-60
-50
-58
-11
40
-37
-11
-29
-48
61
-56
-114
-94
-124
-4
-68
-91
-126
16
-63
-32
-94
-39
-27
-58
-26
-52
-70
6
-69
36
-70
-5
-5
-38
-84
-30
7
16
-24
-36
-126
-23
-43
-82
-41
-73
43
-22
-106
-23
-97
-37
-57
-117
-127
-72
-66
-112
22
22
-33
-74
-50
-106
30
-127
-19
42
-7
19
-71
-69
-35
-37
5
-73
-7
-44
-39
-40
14
-53
-4
33
-71
27
-27
-69
-100
-26
-21
-55
-75
-48
-23
-33
-76
4
-38
-10
-52
-115
-104
-34
-23
-44
35
20
-84
-58
-45
-49
-15
-90
-30
-38
-81
-77
-66
2
-24
-12
-6
-56
-54
-4
-28
45
-31
-39
31
-7
-22
-12
-98
71
-57
6
23
-105
1
-77
10
-117
42
5
-61
-6
-45
-10
25
-63
-26
-18
-49
-90
22
16
-85
-44
-95
-63
-64
4
-35
-101
48
-127
-27
-111
5
-27
-87
-79
-107
-17
-64
81
-46
-57
-17
-39
-112
-45
-32
-40
16
-84
-119
16
-42
4
-65
-32
-100
-72
-19
3
-77
-15
-81
-28
-127
25
33
-68
-2
31
0
-44
-107
-49
-35
-8
-49
-35
105
-39
-53
-29
-96
-23
41
0
-12
-93
-47
127
-29
-64
-118
-36
-50
-13
-70
-10
-35
-85
-100
-20
-27
29
18
-8
-3
49
-67
36
-38
-32
-27
-66
-36
-91
-27
35
-47
-30
4
-73
-92
-75
10
-48
2
-9
-41
-49
14
-59
-4
-60
-68
-28
-7
12
16
-27
-61
-15
-125
-52
76
53
-4
-14
-4
71
-79
19
-13
-65
-66
-21
-3
-57
-127
-38
-18
-18
-76
71
-127
12
-81
-41
-10
18
-33
28
76
-42
-42
-11
-54
-23
-104
25
5
-12
28
9
-47
-75
-99
-53
40
18
-111
-43
-3
59
8
-8
31
20
-14
-82
-8
-66
-25
-14
-21
56
-70
-40
-62
44
0
2
77
74
-15
63
-44
-80
-19
-7
4
35
-57
-63
7
-32
-38
-14
-83
-3
42
55
-82
-52
53
-21
43
-6
-72
-14
-31
-40
65
-16
12
33
-58
13
44
-3
47
126
2
-103
-35
36
-63
-29
30
-14
-50
-5
31
-54
-33
-34
-72
-31
-4
-73
33
52
-9
-48
-16
-33
-44
3
-3
18
-79
77
52
0
36
26
-48
28
16
120
67
-51
-111
-55
111
68
31
11
23
-33
19
31
34
-121
17
38
-79
3
94
80
-110
48
-46
75
-73
-75
-3
-63
-29
-56
8
-34
11
2
-53
28
-21
5
-61
-78
28
60
-18
-113
12
0
-27
5
57
-42
-15
-19
-32
-13
-71
-20
-40
39
-2
-22
50
-27
20
-37
6
53
-99
-65
-19
13
-36
-42
-105
45
-127
-32
41
-76
-3
-61
-43
-88
-15
-60
33
-48
-25
-1
-89
95
-51
-4
-56
67
-22
-43
1
-37
4
2
-67
46
15
-7
-52
47
-55
118
-57
-46
25
-43
-19
-10
-8
13
-127
-75
89
-40
14
37
-30
-52
-1
13
-77
77
-38
-37
33
9
-16
-59
53
-18
-3
18
-71
21
11
117
15
-68
-15
-35
68
-56
16
-103
-32
52
34
45
-6
-7
-41
-23
-47
-89
127
48
-21
-9
-36
-83
-38
59
7
-56
-12
38
-4
-52
-39
16
-3
26
20
19
-42
-16
-21
19
0
-72
33
-30
-43
-58
-21
-23
85
-13
-22
-59
-79
-39
-78
-19
18
55
103
-18
-86
-127
9
-59
-73
-33
-69
13
28
13
-79
-21
-3
-25
35
-56
-63
-42
-125
-22
-16
33
-12
-33
-45
5
-19
4
-18
26
54
0
-5
-39
-49
-56
20
34
-3
-3
-2
50
-35
31
-44
-62
96
-37
-18
49
-10
50
-6
9
21
-35
-23
-70
-55
45
-14
-31
-31
-79
-68
-70
-127
-22
-48
-13
71
36
3
20
19
4
20
-72
-46
2
2
28
-12
47
-22
55
-68
-9
-35
57
-35
-47
74
15
62
-53
-8
19
-67
-86
-42
28
49
-11
119
-27
20
0
-66
4
24
-3
32
-17
38
40
-72
-31
1
-13
-4
-95
-79
-11
-26
-57
14
32
-45
-127
16
-70
-41
3
-53
53
6
-20
69
-61
-79
20
-90
0
-72
-44
-54
-39
35
-127
-1
-19
17
5
-74
45
-96
33
-1
9
59
-40
15
-19
-14
48
14
-5
-76
6
-60
-49
-78
36
59
-18
-13
25
5
-14
-51
-1
75
74
-21
-9
19
-18
123
-86
48
56
-14
48
-14
6
1
-12
-72
33
-17
127
-60
-30
-21
-8
-14
-12
41
-82
80
34
-48
-9
-63
-30
-58
-31
-72
-34
-59
-63
-93
35
55
-9
-91
-78
39
-6
-39
47
-2
-66
15
-19
-57
-50
71
-35
-84
8
-24
-36
30
-35
-78
5
-91
56
81
-4
-60
127
-47
-57
44
-55
56
9
-2
15
60
27
-34
28
12
4
30
4
-29
127
-48
-60
11
-23
-62
32
-58
-49
6
-13
-25
42
17
20
-6
105
12
69
-47
-46
-81
2
-5
-35
-54
-23
49
11
98
40
16
-6
-19
-43
-65
-127
-5
30
-57
-34
30
-29
30
-38
-44
-30
47
40
-18
19
-19
-40
54
-81
64
-57
-14
56
-97
76
-28
57
31
-8
-22
-20
-43
3
-74
5
92
-42
4
-44
93
-26
-54
-14
110
-36
-18
-30
-3
61
82
-87
0
-45
70
-46
25
2
-4
24
-27
-1
-79
3
76
55
-59
0
-66
-51
-48
-59
18
5
-119
-66
-23
29
-13
25
-79
-42
-7
-54
-55
125
-8
-56
-31
-21
6
-42
-70
37
-27
-52
5
28
-3
38
85
10
22
11
-25
47
13
-15
25
33
-43
23
-22
5
-56
80
10
12
-80
-21
45
1
-95
0
-27
37
85
-47
-66
-109
36
-23
-72
-22
-18
5
37
-34
33
-40
-40
-41
101
-33
-26
-22
-44
-22
-44
-46
3
126
-115
-9
-57
13
33
24
-28
-74
13
-66
-8
-7
50
94
-34
28
66
-2
-21
91
39
-27
49
-105
47
29
35
-30
-18
-102
21
7
-77
11
-26
-32
-51
15
-55
-8
-9
-41
-38
1
-58
-46
4
-15
64
56
-64
-41
-31
-43
19
27
-29
-28
-27
-25
-42
0
-80
19
-5
-10
-16
-36
31
-45
16
-24
7
-94
-94
15
19
-49
-11
-2
-35
-51
93
29
-9
-86
-11
-19
-62
-13
-127
86
-35
-41
-127
-69
48
97
30
-24
-82
1
18
-42
14
-32
48
-40
34
-25
43
-98
74
-111
-24
4
-16
-96
-37
-50
12
51
-88
-47
29
-53
-49
-70
-109
-4
-1
24
127
26
-71
-32
64
19
-11
-14
-24
-56
-26
103
51
-44
-36
2
89
-20
0
-32
-21
-46
-59
-34
-42
-11
26
-4
-18
5
78
-31
-124
-47
-65
122
18
-79
-5
-18
-22
-5
17
-30
-10
5
-4
7
32
-59
34
-5
-28
85
-17
9
-93
-66
-28
-97
-40
34
-77
51
-70
-32
6
-22
-69
-37
-117
-25
-57
-119
11
-55
25
-61
-6
-48
-21
-32
-29
58
-7
69
-2
51
34
-10
-20
-13
-66
-23
-9
-24
-73
75
-54
-16
-15
-39
-53
-25
1
-78
-49
106
-32
-119
-9
-27
-35
-14
-44
-15
44
25
-108
-23
7
-11
-73
-93
35
56
-54
-8
99
-21
-21
-26
-34
-38
-43
-28
-97
-72
-90
-32
-23
24
73
4
94
-3
49
-18
26
1
65
-47
54
-78
-97
-41
75
-57
-71
-53
-38
-45
51
-33
21
5
34
-12
49
-26
-30
-85
-38
-43
6
-39
-25
-66
-34
-18
8
-21
1
-8
-70
-26
-35
63
25
0
-45
116
-87
77
53
-50
57
-74
-8
44
-27
-52
-32
-61
-42
3
127
-23
-75
-103
-87
11
26
69
6
90
-118
76
-73
8
-69
-18
-9
-84
-96
-9
-39
4
-9
-39
-28
89
10
-52
1
-58
-18
-13
-30
-55
-71
31
1
-34
55
-20
-60
10
26
-6
14
-64
-60
56
-20
6
-95
-51
67
48
42
-63
-65
67
-8
-13
3
31
-13
0
-31
-103
-20
-45
101
-32
-52
-67
-108
-34
127
-68
-33
29
-70
-3
17
52
-90
-4
-93
63
-75
-49
-22
-125
18
-13
-19
-17
-23
27
-44
-77
62
-4
-50
17
-50
-62
-60
-26
-59
-69
2
-36
-49
-90
-48
-115
-14
10
-23
-28
54
-55
0
-14
23
-10
-11
-57
14
64
38
-11
-48
-25
60
-65
-13
-54
-20
-94
-8
51
-88
-24
-22
-31
-38
-70
-94
17
-28
-36
27
90
89
-8
40
-52
11
-48
0
-50
-84
-102
-65
-61
-11
-39
-49
-39
15
-44
46
30
-14
-95
9
-13
-41
-70
30
49
-94
-50
8
-74
-15
-63
1
-4
13
-50
23
-99
15
48
-19
-37
-78
69
-2
103
-81
71
-51
-42
-2
-50
-4
24
-78
-10
-26
24
-39
-28
-63
-78
34
-47
46
-54
-80
-103
-46
1
47
-9
29
-5
-55
-96
8
-54
-5
-24
-127
51
-16
-127
-35
-2
44
-28
57
32
36
48
13
-86
25
-77
0
-75
-36
-48
-38
47
-26
-32
-73
-44
-51
-1
-57
-59
-95
-40
11
6
-52
-10
27
-85
2
60
59
-1
-4
-116
-39
-24
51
-101
-55
-75
11
-53
-12
-14
-93
12
8
19
11
-96
-52
15
26
-30
6
54
-71
77
-69
5
-9
-115
57
23
38
-50
-63
45
-28
94
-19
58
-12
-6
19
-39
6
66
-3
-71
-81
3
127
-9
2
-31
-91
42
19
-97
-21
42
-24
41
-28
-28
-3
-48
1
61
-36
15
6
-26
-20
6
61
127
-98
-25
-53
-10
-15
-43
-32
-5
4
-47
8
-26
19
46
-127
23
63
-71
-35
21
-63
-14
-60
-52
-63
-35
7
-97
25
12
9
7
-4
7
-66
-10
28
-50
-29
1
83
-27
3
-30
-71
-114
-65
-54
29
39
-39
-38
37
-34
11
1
-25
-73
-12
-71
-28
-28
-96
-23
52
-5
-35
-42
-84
-47
-21
36
-22
86
-70
-69
-1
30
-8
24
28
-37
-33
1
-64
-29
7
-26
-72
101
-22
-4
-68
-111
3
-15
-36
-40
24
-41
-30
-29
-24
-22
53
-49
95
-44
-28
-49
-75
-12
-42
-22
-3
58
-2
4
-79
-127
127
14
-41
-5
-23
-54
-7
24
-22
-80
16
-38
-68
-111
-57
24
15
-42
-81
-21
-26
23
-15
-16
-38
-30
106
-97
7
59
5
-79
-40
-15
-24
-61
35
-48
-53
32
-27
-35
-38
-74
24
-42
-20
69
-63
-17
-27
24
-17
38
-62
88
-31
1
0
-45
-18
30
-91
-1
70
-97
-94
34
-101
63
-23
-42
1
-38
-8
-77
-84
-19
-127
7
9
55
-60
-30
-6
-124
32
6
-67
59
-127
-67
-38
-36
-74
-20
-21
-22
-15
-6
15
4
-26
15
-73
-29
18
-75
30
47
-60
63
26
-20
1
97
30
3
3
1
-12
69
-42
-18
7
74
-43
34
-39
-33
-7
-84
60
66
33
-114
47
-22
31
-23
8
-59
-55
-80
70
4
3
-64
-34
14
-47
44
-11
-13
-29
3
-64
50
-33
-10
-77
-52
-13
19
-7
-69
-36
-18
-47
11
6
-2
-83
-57
26
-14
-62
10
74
-2
1
-42
-30
-55
-54
13
-64
-29
-60
-25
-16
127
-19
-31
0
-50
-58
90
-22
-41
-72
-43
-58
-44
-34
11
-62
39
-47
-9
-8
-76
-8
-32
3
-17
6
-92
84
32
-6
-80
-12
-11
-8
-30
-127
63
-49
-60
-68
9
-12
21
-51
-117
-70
-43
-56
-41
-53
-23
-27
-90
-26
-14
11
21
-14
-50
22
-121
46
-97
-26
-75
51
3
-64
-62
-112
26
26
-39
-19
-46
-42
-28
-4
-63
-4
3
-52
-23
49
47
-9
-97
-50
-88
-33
-71
36
18
-69
-18
-39
-43
-50
-8
-98
16
12
47
56
-43
17
-41
-13
-36
-63
-104
61
-74
64
-95
-55
3
-50
-26
-53
54
-121
16
-88
49
-17
-14
8
23
-59
-33
-89
-75
13
50
55
-78
12
40
-23
36
13
15
-45
-88
2
-22
44
-110
-26
-30
-106
4
1
26
-71
36
-9
-14
-14
108
-46
-54
-40
-45
10
-86
-7
112
-9
-42
8
-3
-24
8
-21
12
57
-12
-13
-42
14
19
-45
22
-74
-20
-93
13
-56
23
51
10
-19
-18
-59
-5
-82
-43
-121
6
-9
78
32
16
-23
-95
-12
-27
-31
59
-127
22
32
11
-64
9
-4
-17
2
-31
2
85
10
-45
127
62
87
6
8
-27
10
-86
39
-28
1
39
-85
10
-20
19
63
-33
-29
-10
-48
78
-47
-73
-23
73
7
21
38
-47
-29
-42
68
-33
-12
-39
96
18
-54
-24
-25
100
-26
18
-13
-38
100
31
-24
-116
-54
19
-5
-16
10
-81
0
26
-21
-20
-31
-85
-23
-127
22
38
20
106
-16
-9
-7
-40
-1
4
-10
53
7
-58
18
-57
2
10
6
0
57
-25
-60
-33
-24
7
42
-8
28
-99
-53
-50
86
57
-29
-71
-21
3
14
-40
16
-80
-39
-35
-27
35
-48
-127
-65
6
33
3
67
-15
-58
-45
-24
-72
1
-88
-105
49
18
-52
-47
-28
-58
-96
-25
-21
-44
-89
-81
-23
-43
-48
17
36
7
-13
-17
-1
-57
-27
-32
8
20
-6
0
-8
-38
23
19
-54
-51
-24
13
33
-76
81
60
-61
-69
-44
-119
67
23
22
-46
-62
0
-23
-29
7
-64
4
-58
-2
55
70
-3
-16
3
-12
-86
-32
-12
-51
-8
10
-127
-58
4
-18
36
-16
-34
-46
1
-115
55
50
-13
-48
-67
-65
-8
-29
-21
-69
-112
1
43
-58
-90
-49
8
-92
-39
20
-37
-14
36
57
-68
-14
3
-17
17
20
-30
-4
11
-97
31
-24
-24
-44
7
23
-7
-29
28
-15
-56
27
-7
-51
16
10
85
2
61
-63
-22
-95
11
-97
6
7
85
21
-30
38
-100
36
-88
-23
7
-47
-115
-29
5
88
127
-43
9
17
-22
-127
36
-48
-37
-30
10
-53
12
44
22
46
-26
-77
-27
-30
-34
5
-10
-23
-126
-14
-14
32
80
-47
71
11
-84
127
-26
-86
8
45
-50
0
-1
26
-30
9
58
-38
8
4
12
-46
-71
32
-82
-100
30
27
-20
31
-65
-65
61
9
84
66
33
-18
-52
15
-112
33
-26
-92
97
-21
90
-30
54
-23
66
11
102
7
-26
-109
18
-20
-7
-19
-61
-82
-53
84
-55
-60
-52
88
-20
64
-94
-102
60
-30
62
-18
24
30
-24
-83
39
-7
-127
1
-77
30
-25
-14
-90
77
-72
-43
-27
-46
6
-11
-114
-60
50
-3
-37
-82
45
-80
-70
35
14
48
-89
-14
-8
-75
-4
17
-22
114
-14
-24
-17
-68
6
15
-22
62
-10
-50
3
-39
41
38
19
-76
-13
-103
8
-26
-53
-40
-6
-65
-42
-67
-3
28
7
-41
4
-42
23
-6
-51
54
-38
51
-43
52
-101
-56
31
-64
-63
-22
38
11
49
2
-45
76
68
-67
-58
-44
-20
-6
29
-21
-34
-47
-109
-64
59
-45
38
14
-60
-73
63
-17
20
25
103
-75
-52
-44
-17
55
27
74
35
60
-19
-92
-49
90
-61
-37
-13
-127
31
-32
37
-32
-97
18
20
-46
47
47
33
-51
68
4
-54
-54
-26
63
27
-39
-1
97
-21
-39
23
-75
-20
-2
-46
-11
19
-2
-20
-12
-56
-2
-27
-24
-20
22
-19
16
14
-16
19
74
33
-39
78
-4
32
-41
-44
74
-26
18
-26
-35
-64
-60
-8
66
-2
32
9
-54
-13
30
10
4
-15
-21
14
19
31
1
61
-10
25
-57
46
-47
-75
-4
8
44
-3
-52
-77
50
-37
-32
-30
-69
-51
-13
-8
-5
30
39
-19
-35
46
32
-81
-2
36
57
-44
-41
44
-39
14
32
-27
20
-3
-54
-73
-5
70
52
10
-5
-87
-6
20
10
-15
-45
-72
5
-38
6
-19
67
30
-65
-103
11
9
-31
-41
1
31
-43
-45
-116
-70
22
-3
-115
87
-18
-41
16
-27
17
-58
71
-23
-14
-15
41
-19
-108
-63
-7
-38
-2
-63
66
-6
12
40
-13
-64
62
-21
114
-1
45
-48
-44
-2
1
-26
4
39
-3
80
5
18
13
-11
-69
-34
-47
-34
-43
7
-31
38
7
-59
-36
-42
-84
-34
38
-34
11
-18
18
2
58
-28
123
-11
-3
25
-97
-83
-17
5
40
-15
-42
-48
16
3
-41
-127
37
-39
-69
-51
20
-108
0
-6
13
-60
-4
-22
22
-17
36
35
-3
-76
12
-101
-28
18
-73
80
-24
12
-39
-83
12
-54
-50
-6
4
14
-4
-69
94
40
127
29
22
-42
-65
-20
127
11
-14
10
-16
-37
-4
30
50
-56
-40
-37
60
-73
-16
17
-69
30
-108
-31
26
51
-49
-1
-33
2
-51
10
-38
0
61
25
34
24
22
17
-43
-35
9
-56
3
-43
-28
-35
76
14
-1
-55
-16
-33
-65
-31
-40
-76
8
14
29
-38
10
-71
119
-49
-42
-31
-80
12
50
73
40
27
-20
-31
-48
18
-24
-22
-106
-27
-126
-47
52
-29
-61
18
-44
108
-43
7
20
-64
17
12
28
-56
-70
103
-67
29
55
53
-16
-10
-55
-6
-53
62
62
-11
-34
-18
-39
-33
-68
-28
54
-61
-33
35
105
-60
-58
57
-6
33
-64
-101
-15
72
29
-44
35
-46
-35
20
7
53
11
-6
-111
-46
-68
56
-35
0
-16
70
-36
7
-47
4
127
-85
-34
-6
46
37
-5
-1
-13
-36
-48
48
-56
-11
32
-9
21
-63
-23
-17
-3
-35
72
15
-41
-104
68
-37
-16
17
32
5
-14
-30
-31
-37
-32
-2
-98
33
-8
-69
-126
-40
-127
29
-17
-10
-47
-19
12
-33
-18
-30
-38
-8
-32
17
-21
-58
-19
93
-63
-25
23
8
-50
-69
11
-60
-51
23
31
-4
19
8
71
-13
-127
4
86
-22
-53
-61
19
-95
96
-15
45
24
-58
-61
2
-105
-39
-74
-80
8
-1
18
-17
-30
41
6
-48
-24
-23
21
-47
50
4
26
52
-80
-4
17
-95
-95
-84
30
13
-41
-12
-20
-15
-17
0
-75
-13
-19
-127
45
-40
14
-71
21
23
-7
127
-52
-43
35
-13
-9
-2
-44
49
-6
-36
-22
-42
-84
-7
22
-42
53
-35
7
20
-33
11
2
44
-72
39
-104
72
14
-69
16
9
-109
31
-9
-37
-13
44
23
-40
-107
-26
4
-1
14
-16
35
11
-46
-77
-4
32
-4
13
0
-11
32
-23
1
-22
-11
-36
51
-95
-35
35
42
4
-55
33
30
38
23
-7
3
23
-18
-78
-57
-83
-36
-30
-23
19
3
81
-55
85
-12
13
-81
-21
-6
16
-47
-31
20
-24
-26
67
14
-37
-56
-121
-18
-27
57
13
121
-50
83
-5
74
33
10
-4
-47
-5
13
28
-54
26
-21
-1
-22
-62
-6
100
107
0
-40
-25
10
-39
-124
-49
-1
-17
58
-12
15
-96
-44
-96
11
-70
-18
10
61
6
-32
17
-44
-37
127
75
-36
74
-5
9
-27
-54
-60
-113
-14
11
-38
46
75
127
-33
-34
67
-47
2
-29
-60
-127
-41
-17
-82
-80
18
-22
-19
-42
-48
-33
-26
-127
-46
41
-30
-30
-29
-46
7
86
-24
23
-79
-13
-34
-57
-33
78
-127
-12
30
-98
13
-63
35
-34
-57
-58
32
-36
5
-25
-44
-49
-38
-2
-16
9
-17
-65
-3
44
-34
7
-28
-61
-10
-25
-80
-45
40
0
-33
-75
-11
-65
-39
-35
-18
22
1
62
-7
-73
-19
10
23
-72
-54
-25
-15
-14
-82
-119
-19
-17
60
-7
44
-65
-50
-22
-54
-25
23
-36
87
-20
40
-19
-19
-65
23
127
-49
7
-25
-73
61
22
0
59
-14
-11
31
-68
-127
-11
45
-27
-54
14
-56
8
-12
60
-45
9
-1
-45
-127
-62
-44
127
1
-39
-68
-46
-12
-39
-43
-53
74
-79
7
25
20
30
-57
-22
-74
26
-81
-8
-14
2
4
-99
-85
127
52
-85
-58
-3
-15
-9
-80
-35
42
-87
-16
-44
-1
-109
-126
-56
-91
8
17
-4
29
-1
-92
6
44
-76
-7
-5
7
97
20
-11
41
-21
-57
-22
-77
-37
-1
-3
-23
-16
-74
-33
-87
-4
-67
-81
-55
10
-31
-67
-41
5
10
119
-59
-87
-109
-64
-10
-22
-25
-108
6
-68
9
71
-74
3
-27
-22
64
-80
5
34
-43
-71
-36
-33
84
-5
-52
-21
119
58
30
11
-13
-60
-127
-24
-30
50
-1
-71
-72
-10
-8
24
-34
53
54
13
-14
2
65
30
59
-9
-59
-67
-6
29
5
26
42
41
-15
-12
73
-111
-40
37
-66
-48
-75
50
-59
21
-27
21
-77
-10
-56
-11
-79
-29
5
-123
39
-54
3
21
-52
-38
-74
17
-63
-63
89
37
-12
-53
30
-24
-55
24
27
-59
106
22
17
-34
-110
-9
-36
-50
-23
28
-36
16
-127
-59
4
23
30
67
-79
-25
26
-36
36
6
10
-25
-31
-17
-27
-4
-62
24
-38
15
40
51
-92
44
-33
-24
-55
127
-43
-17
33
46
-69
17
23
-33
1
-4
58
-28
-113
31
5
-26
-103
-28
68
62
-48
95
-72
0
19
-50
34
-127
-6
13
6
-38
-18
-48
3
41
-75
36
-39
-56
53
1
-73
-18
-18
9
-2
-74
58
-38
-6
-44
-62
-3
38
-43
12
4
-88
-36
28
-13
-4
-29
-11
23
-113
-40
-60
15
74
14
31
43
-10
-15
64
64
1
-79
35
-49
-11
-31
-11
-50
8
-40
22
-54
-21
13
-73
-48
21
-88
21
21
-67
-45
-49
-98
-38
-62
-70
-28
-127
-21
-3
-44
-60
-33
48
-23
-43
18
-1
-12
3
-17
-26
89
-6
-7
-35
-4
9
-24
9
-25
31
-114
44
-34
-28
10
63
-48
36
-55
-14
-16
-51
-13
-13
18
-16
-64
35
-79
20
-51
-95
-86
94
-55
-127
-8
-88
-55
-36
23
-50
-14
-10
-20
25
-96
0
-20
-100
-11
-69
-15
-10
-67
3
-5
-45
-16
24
-53
19
40
105
-55
108
2
10
127
-58
-55
-3
21
80
-59
33
6
-71
22
-127
-19
85
-35
-61
49
-24
-25
6
10
-96
-15
2
-17
11
-25
-25
-87
-1
5
-44
-48
31
13
-9
-66
-10
-39
1
-99
-18
-2
-58
-23
-12
-9
-58
-26
-13
-47
-19
-47
-44
-15
-57
-55
-7
-10
9
-35
17
-29
-121
-11
35
-21
-75
-82
38
-69
5
-49
-23
-59
44
82
-38
-46
-51
-64
-40
-10
-11
-75
-6
-73
22
-59
7
-127
8
3
42
-90
18
-8
50
5
-6
20
-14
-54
94
41
-68
-54
13
7
-44
-35
-127
-24
5
-29
64
-18
9
-4
-47
7
7
10
-8
9
1
-4
-9
-22
30
-28
-38
-27
42
44
20
47
-3
-32
-9
61
48
-103
49
24
-74
-32
2
-19
6
-15
64
114
9
-79
36
-14
-46
-28
0
-48
-91
-37
-53
-43
-71
-1
10
36
-27
-69
3
19
-33
-37
11
-57
-37
57
49
-9
-54
-17
-42
-5
-92
-30
-31
32
-71
75
-3
-20
-127
-52
-40
21
-110
-62
-63
24
-16
-35
-34
-71
-42
-3
-10
-52
102
-3
-40
33
-48
-19
-70
-13
74
-12
92
17
29
-70
-55
-32
-104
59
27
1
-62
-70
-83
50
87
9
-98
-59
-34
-2
91
12
-113
-22
32
-48
28
-56
13
-27
-61
-56
-65
-35
-79
-14
-14
-24
-23
103
21
-62
14
104
-31
-20
-39
-15
-60
4
22
16
26
-97
-44
-75
-62
-45
-40
-71
26
9
-32
-17
-37
-45
6
-46
-19
-44
3
-38
-36
12
-54
6
64
-1
53
-70
-86
31
-14
-31
-59
66
-71
-14
30
-99
-12
-31
-36
72
16
7
-53
26
-43
-70
97
-85
-72
-127
13
25
-127
-125
12
7
9
-38
50
-67
-70
49
-31
-59
-35
4
-100
-26
20
-33
-18
-52
-31
-19
-13
-77
60
28
-47
-75
-3
-42
-54
18
66
-42
8
-47
14
-42
4
-58
3
25
-55
5
-47
55
24
-17
-61
-25
27
-33
-11
82
1
24
1
-65
2
16
-88
-3
-31
-17
-6
-112
-1
-11
-92
-4
-42
-114
-54
-59
23
-88
-13
-4
7
-15
7
8
-57
58
-100
-65
16
-18
20
70
19
-70
27
-27
57
-89
6
-89
-53
-46
-24
-18
-39
1
-20
-34
30
-55
-39
-9
-23
-30
-5
-81
-59
-95
-20
-65
-18
-83
10
-25
-12
30
-28
-16
-31
-50
-65
-77
-5
-18
11
-67
-77
-84
4
-53
17
7
15
27
-24
-43
-10
-58
5
1
-106
-99
-127
10
42
3
-24
-6
-108
-17
-51
-60
-78
-43
-35
-2
-42
-85
-43
-26
-59
-83
-43
68
-19
-48
18
-25
-127
-22
-20
-30
-62
-39
21
-48
65
8
-86
-78
-93
8
-37
-38
-17
-61
-22
-60
18
18
-27
-27
-32
9
20
-22
14
-44
-20
92
85
-4
16
32
-5
-10
8
-125
-15
5
63
-12
-10
-21
-28
-17
-16
-123
-116
-24
-23
-32
6
-15
-13
-63
9
-48
29
-16
-62
0
-127
-77
10
-12
-50
-24
-61
-36
-31
-1
5
22
43
36
-51
-38
19
52
-14
-11
90
-7
-1
-23
-21
-71
69
-7
-7
-39
17
-51
23
-34
-13
-90
7
-51
-68
-39
19
-22
-61
-39
28
-95
-14
67
58
-48
-7
-17
-17
25
-87
33
-23
-35
-125
-47
-33
49
-32
-7
-15
-56
28
-50
-85
-13
-28
-13
32
2
-66
-65
-5
-25
15
33
23
-20
36
-81
1
103
-32
127
-35
20
58
-31
-64
-11
-36
-101
-12
10
12
-45
22
11
-11
-63
16
-74
-111
45
-43
-93
73
-61
105
-15
-30
75
89
39
-73
-61
-48
-30
48
61
-59
-48
22
-62
-23
-58
31
10
26
-54
18
-109
-67
-19
-23
-2
-72
-35
-11
-46
-22
20
24
8
-56
27
-119
-70
-1
-31
-11
-127
-61
-26
12
-60
-24
9
-24
-44
34
15
-66
-69
-9
-17
-22
7
-86
-52
18
55
48
-22
-77
-96
-68
-8
-53
-127
-20
-8
-5
86
1
-26
-30
14
-67
12
-24
-26
-59
-41
34
-12
24
-47
-13
-18
-7
-10
-60
-24
-24
6
-31
-16
-33
-11
7
-6
18
64
26
29
48
30
18
-11
-24
11
26
-15
29
66
48
48
-11
-56
-20
-24
-67
79
-52
14
-20
-13
31
49
-113
-52
52
-17
113
-26
-23
46
109
73
-79
-71
-14
30
-48
46
75
-53
99
-114
27
-6
-58
-15
14
37
-74
-5
66
-24
-49
-15
-37
58
-12
-29
13
-28
104
45
-52
113
7
31
63
83
93
13
127
10
-17
-70
73
49
18
76
-76
-2
-62
127
12
64
27
20
23
54
29
14
17
-33
-15
-47
-20
27
-72
48
4
-39
41
-15
-14
127
-2
21
-16
-6
40
63
-53
-22
-12
82
56
18
6
20
70
-6
33
-1
-15
-7
33
22
22
81
19
25
54
87
-32
78
-78
-14
-37
-65
64
-2
-35
13
39
-14
-102
-37
-61
-57
63
-5
-88
-13
-13
100
127
-36
-72
47
2
-39
-73
-37
15
-106
-70
-64
127
7
-1
77
53
17
2
-107
27
-42
36
44
26
1
28
-3
31
119
-60
-51
38
-35
-96
-55
-73
42
127
-70
-102
-3
-17
