-3
-5
3
-2
22
0
-10
38
9
-8
-9
-1
4
-2
-1
1
-6
-6
5
4
44
1
8
50
12
9
-12
-9
6
-8
-11
4
-1
3
-1
4
12
2
8
5
-7
-2
-8
4
7
-1
-7
3
2
-1
1
-5
34
0
-4
43
5
-12
0
-2
1
-1
-6
-1
-1
-10
3
4
37
0
19
57
15
2
-12
-3
-11
-3
-10
4
1
2
1
3
17
0
2
13
2
4
1
4
-1
0
-8
1
1
5
-3
0
1
3
-3
11
-5
9
-4
5
8
-1
-5
-1
0
2
-1
3
0
3
2
14
-17
-2
5
3
4
-2
-6
2
1
3
-1
6
2
3
5
3
-11
2
-7
3
4
0
-3
-1
10
-9
-11
12
16
10
12
43
-17
23
1
13
-6
8
-39
-10
-27
18
-22
-14
-18
10
-1
-40
5
21
-11
5
3
9
34
34
-6
1
4
-5
-1
-15
2
8
-8
-10
5
5
-7
0
-32
1
14
-4
10
20
-13
20
-11
-30
-4
-4
4
-7
-11
-35
55
-21
11
13
2
-6
31
-4
15
53
11
50
-12
5
12
24
-36
-9
-6
-12
16
8
4
-20
-10
0
7
-12
-2
-15
-16
-8
11
4
-2
-2
5
15
4
-2
16
-12
4
16
1
-15
-2
0
-16
-16
-1
-12
-3
-16
-20
7
-22
-37
-3
-33
-6
4
19
0
16
3
1
-7
6
-4
-13
-21
-1
-6
-2
-16
15
0
-11
3
-19
-5
-7
21
2
-3
-17
-20
1
-35
-3
8
0
-31
5
2
25
6
-19
-39
2
24
54
-52
-4
98
6
-28
1
15
-10
-13
-12
-16
6
9
-2
-9
-13
14
4
-29
-2
24
-4
3
6
-2
2
3
3
-32
60
4
-10
-23
-1
-12
6
-55
4
29
20
9
-9
14
1
26
28
74
8
-104
-4
-5
1
55
6
-30
-74
-4
-37
-127
4
6
-3
-11
-4
7
1
1
-5
16
-2
-6
11
0
2
13
2
5
-6
1
-4
1
3
-9
-5
23
-2
1
4
-2
2
0
1
10
-5
-12
-4
13
-3
-4
0
-39
-6
1
21
1
-6
9
-2
-1
-1
-6
-6
13
2
-7
1
4
4
4
3
6
-6
1
-4
-4
0
40
13
-72
-2
19
-1
-41
-2
-27
13
2
-6
17
2
-20
4
-1
5
-2
0
9
-1
49
4
28
13
-5
-19
-2
3
7
0
-6
5
3
2
3
-3
-1
-8
-1
3
1
4
2
-8
-28
-127
104
-4
-127
-3
-26
-4
14
-4
6
-30
3
1
44
-5
31
16
6
9
-20
-2
21
6
28
4
-39
-30
-10
-15
3
-1
1
2
-3
-5
2
-1
-3
-2
13
1
2
3
-1
-3
0
3
8
3
-23
-4
8
1
4
-4
-22
-2
2
8
-3
3
3
-2
5
-2
-5
-4
10
7
-10
0
-14
-1
7
4
6
2
-2
0
1
-2
-8
-2
9
-3
-8
1
-22
0
-1
-2
2
2
3
14
-3
-2
33
14
-25
-4
11
3
-42
1
-8
23
9
-17
7
79
-7
1
-30
-11
28
2
-35
0
16
-1
-7
6
15
-16
4
-1
-2
2
3
-1
4
1
2
2
9
1
0
1
1
-6
0
0
17
-1
-34
-16
13
3
-12
-2
54
5
-34
-7
-6
23
-5
25
80
-10
13
11
-39
4
50
4
-10
3
-99
-12
-127
85
-13
-7
-12
1
6
-7
3
1
-12
-2
3
1
0
3
6
-17
-5
-3
-10
4
9
0
-5
-1
-5
0
-20
-3
6
6
5
-8
-2
4
-12
-3
-3
6
1
-5
0
-2
-21
-1
5
4
8
-23
-1
-6
-12
1
3
1
5
0
0
2
-8
2
12
2
4
-4
5
-7
35
-1
-16
1
16
-3
5
-27
-13
7
-33
9
6
10
4
-6
37
-14
13
13
-6
-14
24
-5
-22
10
-33
5
13
10
1
-5
4
0
2
-13
-3
-7
-27
4
10
7
-1
-5
2
-19
0
9
-11
44
-63
0
74
0
28
-31
-16
-4
16
16
-18
92
5
27
-9
-13
81
29
-49
4
65
0
-15
1
17
0
-27
86
-17
1
-1
-6
11
-5
-7
-14
-27
13
8
11
1
3
-4
-16
13
-6
-13
17
-8
1
10
12
10
-2
-3
4
20
16
10
10
5
-12
-23
-18
13
2
-3
18
-7
7
-4
4
28
-1
11
24
-12
0
0
-6
-2
-11
-4
0
-19
11
29
-7
0
-1
6
-14
3
1
1
7
13
7
-10
-10
19
-2
-66
-14
21
-11
-1
-18
-6
8
-1
-2
-12
16
20
8
20
1
-66
-4
28
12
5
5
8
0
-1
-13
30
9
-30
2
-14
1
-36
-10
8
-3
10
9
-13
8
19
10
3
10
4
-7
18
1
-40
-5
-36
0
-10
-15
-12
6
19
2
-7
3
14
-5
0
3
-46
6
-20
23
-10
22
0
2
1
-7
38
-4
-35
-1
-11
2
-29
0
-7
10
-7
11
-15
9
-43
3
-3
7
2
-4
12
0
-16
-7
19
-9
4
8
-7
4
-43
-4
-5
4
1
10
-1
5
-21
2
38
9
10
19
10
4
-46
-4
30
-8
-41
4
-15
5
-20
3
27
-6
0
22
-5
4
3
1
-1
10
-1
-52
41
-35
-9
127
6
3
3
17
0
0
7
-2
2
2
1
-119
14
-46
-12
104
-2
8
0
12
3
3
7
-1
-2
11
-3
-57
-42
42
14
-97
5
4
4
-1
-1
1
2
3
-6
-37
5
25
50
-46
-18
121
-3
-6
-4
2
-3
-3
-1
-2
2
-23
0
19
31
-34
-23
101
-5
2
-4
-2
0
0
0
-3
4
9
-5
-5
-27
33
5
-52
6
-3
2
-1
-3
-2
-3
4
12
-21
4
61
-13
6
6
-68
-4
4
-1
0
0
-2
-11
1
2
-3
1
108
-10
19
5
-35
3
4
-1
-2
1
0
-1
-2
-6
1
1
22
-27
20
16
-50
-5
-11
2
1
0
-16
36
0
2
6
-25
-2
12
8
5
5
-88
-2
14
-3
3
-91
102
-8
-31
0
10
-6
-3
8
-19
4
-127
2
33
6
1
2
-17
3
20
-7
0
-2
-8
-8
13
-3
-4
3
-1
-13
-6
0
-4
-5
-32
0
17
-6
3
3
-33
0
-9
7
-11
19
-3
30
18
3
22
15
-40
8
27
-1
-8
2
-27
0
-6
9
-2
-7
-12
3
9
2
8
1
-1
3
2
-2
7
4
-5
-12
5
-2
-4
3
8
-2
-2
2
-7
-2
2
-5
7
-5
-2
-1
-2
1
-4
-1
0
5
1
-1
10
-3
-17
-2
5
5
-3
-3
-4
0
-6
0
1
-1
-1
2
-4
0
13
1
12
3
1
-5
3
34
-9
0
1
4
-9
-5
-1
-3
24
-1
-42
17
30
18
-1
31
15
-4
-4
-13
9
5
-29
-2
-11
1
-28
4
37
10
-3
1
-7
1
4
-1
2
-4
4
-1
5
-2
-7
6
-1
-7
0
1
-15
-2
0
8
-11
3
19
2
-45
8
-5
-14
12
29
-4
-4
-15
-11
-2
1
5
7
12
2
0
4
7
-10
24
29
-13
-6
-5
0
2
-2
2
-2
-12
-1
-4
-3
0
4
1
-4
0
1
-1
-1
2
-4
5
-1
-3
2
18
0
-2
7
2
0
0
4
-2
2
3
-5
2
-1
-14
-4
12
0
-1
9
8
-6
1
-4
0
0
4
0
-2
1
5
2
-2
0
0
1
-3
0
-1
-1
6
-1
-6
-108
-2
-50
105
4
-14
0
6
-6
4
-2
-2
-2
6
1
2
-53
-8
-106
77
-12
-18
-20
3
5
0
-5
-8
-1
2
4
0
79
2
-27
-64
7
21
-6
0
-2
-1
9
1
-1
-10
-2
-11
-95
11
23
79
4
-24
-1
-3
-5
-3
-34
2
0
-7
-7
1
-53
-8
11
50
-4
-23
-30
-6
12
-6
-21
0
1
-1
3
3
55
-1
2
-27
9
7
-4
2
-1
-2
-2
0
0
2
1
8
25
1
65
-43
-16
26
10
1
1
1
14
3
1
6
0
2
30
2
86
-23
-6
14
4
1
3
3
10
-1
0
-5
2
-2
31
1
3
-49
5
-1
24
-4
-11
1
8
2
-16
-6
-10
-1
17
-5
3
24
-6
25
-6
0
-34
-8
54
-3
-18
-6
-3
-9
-2
11
4
10
15
19
9
0
-30
-6
23
0
-1
0
0
-1
-7
-2
-4
-10
0
-7
7
3
-5
-2
-13
-2
0
0
-19
-3
6
5
-1
25
9
-2
10
-2
-33
0
41
-6
-1
0
-6
-4
8
7
6
10
1
13
2
-4
-39
-5
24
-3
4
0
1
1
-1
-3
-3
-10
1
-1
0
-1
-6
-1
-6
0
1
2
-2
4
-7
2
-1
-12
3
3
5
-2
2
0
-3
-2
0
-1
0
1
-7
1
-1
-11
-2
-3
2
0
3
-4
-2
-1
1
1
1
2
-2
-2
1
2
2
-1
2
1
1
1
0
-1
2
-28
7
-92
11
39
-3
19
1
16
3
10
-2
-5
-9
-16
-9
10
-9
-10
1
-2
5
1
8
-30
1
-35
-7
3
12
4
-2
-1
0
8
-10
-7
-2
-10
-6
2
0
6
2
2
-10
-4
8
8
100
-127
16
98
-5
36
8
-10
6
-32
4
-10
-13
-49
3
-37
-21
-26
23
23
5
26
2
-42
-3
27
8
3
8
19
0
3
1
1
8
-7
-3
1
-1
-13
-5
1
-5
1
-7
1
0
6
-3
2
-17
-19
2
-33
-4
24
-4
10
11
7
-5
-2
7
4
-4
10
-10
-21
-4
-11
0
4
4
9
3
-1
-6
-4
0
1
0
8
1
-9
3
3
1
22
1
3
5
-2
2
-4
-4
8
1
-5
-3
4
-4
-11
5
-8
13
-5
0
1
-2
-5
3
45
5
5
6
-1
6
2
1
-9
13
-35
7
13
16
0
-6
6
-3
-2
-5
-5
-2
-9
0
4
-5
0
1
3
-13
-8
-10
-1
7
-36
3
42
1
3
1
-2
10
-3
0
-2
21
-9
22
9
-13
42
15
12
-9
44
1
-10
0
24
12
-29
127
44
4
5
5
25
8
-24
3
7
4
15
2
0
1
-11
-12
-9
2
-11
1
-6
-4
0
-8
-4
4
5
-3
-3
1
5
-8
-11
-6
-37
-5
1
5
0
15
5
2
1
6
30
9
15
8
14
-6
-11
2
0
-9
-6
-2
-6
-2
13
-8
5
0
7
-8
-12
3
-1
-2
9
18
0
19
-48
18
32
-20
-1
2
-3
12
3
0
-36
-6
-2
33
7
29
-25
19
45
-18
29
3
-9
23
-5
8
-3
2
-5
-17
-6
65
15
-13
-21
10
-1
-3
-5
-1
3
3
5
0
35
32
-31
-22
-57
18
28
-24
1
10
-2
26
9
-20
29
21
-7
66
11
10
-2
18
72
-20
1
-4
32
-33
-31
-7
4
-7
-19
-17
29
13
12
-4
-7
11
3
8
7
11
17
-1
-2
-2
2
-3
5
-37
15
-2
-26
-2
1
1
-3
2
6
6
18
3
5
-3
3
-60
19
-2
-6
3
-21
2
-9
31
-17
6
-3
-7
-1
-37
-5
-18
52
-20
-38
25
-1
-1
-8
-9
10
-1
0
-2
-5
71
-1
-24
-4
-68
1
96
-6
11
-2
6
-1
-3
0
0
7
43
-3
-37
-18
-50
0
106
-1
4
-5
16
3
1
6
1
0
-53
3
-30
11
61
-7
-125
6
4
3
-3
-3
3
-3
-4
-8
46
-3
9
-6
-55
11
97
-6
-4
2
8
-1
4
-2
2
1
50
-1
12
13
-31
-6
111
-9
-16
1
0
3
-1
-2
-1
-2
-20
3
-6
-8
36
-3
-59
2
-2
-1
-5
-1
-2
-1
-1
1
-51
4
17
13
27
-6
-115
8
5
1
-13
-2
-4
-4
1
3
-16
-4
45
7
16
-3
-51
2
0
-3
-4
1
2
2
0
0
-5
0
17
-21
-10
11
-56
1
-2
0
-3
1
-4
5
-1
-6
-59
7
12
25
40
-2
-102
-6
10
-1
-1
-3
-6
11
-5
7
-48
-9
-15
71
43
-10
-67
-13
1
2
12
4
-3
5
0
1
65
3
-14
-61
-73
14
61
8
3
-3
-11
1
5
-9
14
-10
-54
10
-15
59
44
-19
-76
6
-2
-2
12
-8
8
-21
-11
11
-55
-21
5
85
47
-11
-42
8
-7
5
7
1
4
5
2
-5
31
3
2
-23
-12
5
29
3
-1
3
-5
2
-4
2
1
6
58
2
-3
-47
-66
17
54
-1
4
-1
-8
-1
-4
1
-4
-1
22
4
15
-4
-13
-1
36
0
5
-5
-5
-1
-1
3
2
3
10
4
14
-39
6
0
-14
0
-3
2
0
0
11
-21
-2
-11
21
-9
0
35
3
-14
3
29
19
1
-18
-2
-9
11
0
-52
-25
29
-2
-43
1
18
3
-25
4
-2
-9
23
1
-3
1
8
5
-15
3
14
-3
-10
-3
-1
12
6
0
-7
-5
25
-82
-20
7
-15
-3
7
0
31
-2
-27
-18
-10
17
-1
0
-33
-10
-99
33
78
2
59
6
-27
-2
10
-1
-12
17
96
-2
-4
2
5
-3
-10
-2
-10
2
-15
0
9
-9
3
-3
-14
2
2
4
4
-3
-5
-1
-3
2
2
2
3
5
4
-1
-4
-4
0
7
5
-14
-18
1
-26
-2
4
3
7
-9
-1
2
-8
4
7
-1
7
-4
-10
0
-3
2
-1
5
2
2
-3
8
-7
0
2
2
8
-44
-2
37
-81
119
19
-99
4
-3
3
11
1
0
-13
5
-1
-20
11
106
-44
126
-2
-106
-3
3
-2
-1
-6
-1
-6
1
2
23
0
84
51
-127
5
39
-7
-7
-2
-4
6
2
13
-3
5
2
-10
-35
-78
112
14
-106
0
-3
3
7
1
0
5
-6
-6
7
9
-37
-20
115
-14
-93
0
0
-4
2
-2
1
-1
1
2
15
-4
30
43
-67
-5
33
1
6
-4
-15
1
-1
-3
0
-4
19
-2
-58
15
-91
8
39
3
0
4
17
0
0
3
-2
-5
9
3
-100
39
-45
-9
32
4
3
4
1
-5
-2
1
2
0
-6
-6
-27
44
-61
-11
17
-2
1
-1
-14
1
-2
8
0
-6
118
12
30
-127
-14
18
53
-3
6
4
12
3
-4
2
1
7
85
-6
127
-114
4
7
20
-10
0
-6
7
-3
1
0
0
2
-95
-1
72
103
0
-13
-7
1
-2
2
-8
4
4
-2
-4
-10
127
6
-48
-123
14
23
-3
5
-4
-2
6
3
10
-7
-2
0
113
-9
-49
-50
11
-6
-6
1
-12
-4
-6
-7
-1
-5
2
6
-44
-5
11
69
-11
-7
-3
-2
0
-5
-10
2
-3
3
2
0
-83
3
-50
78
14
-10
-16
7
3
2
8
-2
-3
1
-3
0
-45
-2
-86
54
-2
-7
8
4
11
4
4
-1
0
1
1
2
-50
2
-5
37
-10
-1
15
0
1
0
-11
2
1
8
3
-32
-5
16
1
-2
32
-14
-9
-6
-4
-2
7
-4
-26
45
-6
21
0
-12
6
20
33
-15
-24
-41
7
0
43
6
-5
6
3
8
3
-6
21
10
-14
5
-6
4
1
-5
-18
-8
6
-16
5
-24
14
20
-9
5
19
-26
-3
0
3
-4
12
-10
5
-56
-20
26
21
-7
-3
26
23
-28
-12
38
11
22
42
23
1
-3
9
15
8
-5
2
-1
-12
10
-3
0
-1
3
-6
-2
4
2
1
-5
2
-5
-6
-8
-9
17
0
-2
-6
-2
-13
0
5
3
0
-3
1
-6
-10
1
-2
5
7
0
4
-10
-2
-2
4
4
1
-7
-4
1
-1
2
-30
26
-3
2
-1
-6
-18
-5
-17
-21
4
-38
-10
24
-2
-22
0
32
0
12
-11
-15
22
-4
-27
-40
1
23
14
-41
3
37
2
-12
3
34
4
-25
18
-6
5
3
2
1
-3
4
3
-10
-3
-15
-6
-6
0
-4
-1
8
1
-39
-8
36
8
-53
4
25
2
-25
2
30
14
25
-11
4
-31
-94
-7
-54
-15
42
-2
-31
0
14
7
79
-5
74
-7
-10
7
6
4
2
0
11
-1
-1
1
-12
0
-14
0
-12
-5
2
-2
3
-1
-1
2
10
0
2
-4
31
-2
-9
-4
-8
-8
7
2
6
0
5
-4
5
4
-13
-4
28
-6
-11
2
-7
-2
0
4
8
3
0
2
-3
-6
11
4
2
3
-12
-6
-5
-4
-2
-1
16
-6
-2
2
22
9
10
-21
-22
-14
-7
-28
0
-3
3
-17
43
19
10
27
-27
5
38
-1
-74
-6
8
-8
-12
-32
-30
2
1
5
-33
3
0
8
-8
-1
-44
-16
-14
-25
-6
13
9
-22
-13
4
9
-4
23
8
-20
5
-72
0
15
15
22
-45
18
-19
14
9
21
-12
12
-14
-38
21
-127
-4
26
33
-4
16
-5
-7
-2
-3
-34
-20
35
1
-9
0
-72
12
-3
14
2
18
9
0
-13
-11
-12
-7
1
5
-21
-5
-51
-10
-27
-31
-3
19
16
8
34
8
-3
9
-15
-6
13
5
-65
-5
-45
-15
-2
28
-9
8
-14
-4
-22
-17
1
-10
-17
3
-47
12
-21
-15
2
16
4
0
-21
3
5
52
-4
16
-45
9
28
-23
14
-1
-5
8
-2
-2
-24
4
-13
17
2
32
-21
5
33
-6
17
3
-6
-1
-5
3
4
1
3
-21
-2
31
25
-11
-27
-3
1
-5
2
-3
2
-7
12
-21
38
67
-36
-5
-45
10
35
-27
-8
-3
12
-6
1
-21
9
6
-37
25
36
0
-21
9
44
-4
-8
7
14
0
13
3
1
2
-1
-21
1
14
20
-6
-14
7
1
2
-3
-14
-6
7
4
-11
2
13
6
-49
-19
11
-15
-22
-10
-6
-7
9
-2
6
7
5
-5
-1
-2
-30
15
1
1
-4
-10
4
-3
5
3
2
-1
5
2
-35
-3
-12
42
-17
-36
11
-1
-4
-3
-7
-3
-14
-1
2
-4
-2
3
4
-1
-8
34
3
6
-4
-6
13
-5
-11
-11
-1
-8
15
-3
-1
30
10
6
-4
4
-16
-8
23
-5
-4
1
-1
1
-8
-2
0
-9
-1
1
6
3
0
-1
-8
-2
-6
1
-6
8
8
-7
-8
12
0
-11
-2
-4
-22
-3
23
-4
-7
-6
-1
-16
28
3
12
49
5
36
-1
-7
-127
-14
72
-10
-2
-1
0
-1
-8
2
-5
-17
4
-1
3
1
-22
-3
-19
-4
1
3
-1
-2
-2
2
0
0
5
1
3
-1
4
0
-1
0
-1
1
-2
0
-9
-4
-1
-11
-2
-11
5
-1
-18
-6
6
-7
1
2
-2
1
-4
-1
2
-7
-3
-11
-2
1
1
0
2
0
-2
-34
3
13
-15
-10
-20
24
-36
30
36
24
1
-7
14
-4
-3
-38
4
-14
-5
5
-25
14
-17
35
13
25
4
-8
17
-3
3
-3
0
-4
3
1
-35
-25
26
-15
-1
6
0
2
-7
2
-6
14
-23
64
-5
-53
11
55
-51
31
27
-10
-2
12
-3
-2
-24
21
8
-48
1
54
-3
30
-22
37
5
-9
4
22
20
19
3
4
0
-11
8
10
-18
-18
25
-6
4
0
1
-1
-12
-5
9
12
-10
10
-19
-4
43
4
-7
-10
29
-21
-6
-9
7
-7
7
14
7
-8
2
4
39
4
9
1
11
-20
5
-7
6
7
4
1
3
-1
13
-1
13
-32
28
-26
-13
-1
-2
-2
-8
-1
-2
-9
-2
46
-22
-39
-4
-7
-4
42
-7
8
14
5
33
5
32
-66
5
-4
9
19
-2
57
-11
66
-21
56
9
6
23
-16
12
-11
-9
-24
-6
30
-6
-18
5
11
-1
16
9
10
18
14
-8
4
11
39
-9
-31
4
6
-2
31
1
-7
11
1
25
11
-6
65
29
3
15
16
3
56
-3
73
-11
-51
-4
-17
64
-36
-7
21
-12
-23
9
33
1
19
4
9
6
-7
15
-10
15
14
1
5
-3
4
1
-4
1
-2
9
-22
5
-5
2
-2
2
2
-5
7
-7
-3
2
4
0
-6
9
-12
7
-10
10
6
3
-3
-6
1
-2
-3
8
-2
2
-12
1
-32
3
-1
4
1
-7
7
9
-36
-3
43
-26
-36
-7
51
17
19
-12
28
8
3
7
-4
41
-38
8
-34
-24
44
8
-10
5
53
-10
39
8
9
17
8
-7
2
3
-4
8
-2
-4
-13
1
-28
15
5
0
2
-10
-7
-17
40
-29
42
-18
-35
2
9
6
55
-11
-27
-6
-14
38
1
-2
53
7
-33
8
42
1
60
5
52
-11
-32
2
-24
36
29
-8
1
2
-6
6
3
-7
-14
-1
-1
9
-1
-1
-1
-15
-10
-4
-2
7
1
-2
4
3
-12
5
-37
9
-4
2
9
-12
-5
-7
-7
0
-6
3
-5
1
-22
-1
-7
1
-3
1
10
-16
-6
1
-3
2
0
12
-7
-1
-9
-15
-33
-11
2
-7
4
-8
-2
1
-1
-12
-5
7
-4
-2
5
-8
-5
-5
-6
-13
-7
19
-3
-16
-18
-5
-16
22
10
9
37
4
22
-8
1
-51
4
50
-6
-6
-1
-1
-1
-11
4
-4
-18
-4
-4
0
7
-7
-10
-15
-2
0
2
-6
-4
0
-4
-8
11
2
9
0
-4
-8
-6
9
2
1
3
4
-1
9
-8
11
19
0
-12
4
-5
-60
5
27
-11
-3
1
-4
-3
2
3
-3
-6
-3
9
-9
-1
-2
-7
-6
0
0
2
-2
1
3
3
3
2
1
4
-1
0
7
1
-4
0
-2
-2
-2
1
-2
0
-4
-10
-4
-4
-3
-1
1
-1
-5
-1
-1
0
-1
-2
-2
0
1
1
-1
-1
0
3
3
-1
0
2
28
-43
-2
-14
7
-5
-1
8
-1
-26
-2
28
8
0
-7
-7
127
-127
5
-7
-5
-23
-1
-18
0
14
-3
93
-8
-40
11
-11
-4
5
2
5
-3
12
-1
-10
-1
-29
-2
-16
-2
2
-12
6
-11
16
6
26
-10
-15
-1
-21
0
42
3
-13
11
-3
-9
6
-22
21
-4
-20
-7
27
5
7
-1
18
-2
-10
9
-12
7
0
-9
12
4
2
3
5
2
3
3
-2
4
-9
0
-4
6
-2
-3
2
-3
-5
5
3
3
12
-4
5
-3
-3
1
1
-3
3
1
5
1
2
-2
-3
0
-8
-1
-1
0
-3
-1
5
1
-1
-1
7
-1
-4
-1
2
-2
3
0
-6
1
-8
-3
-1
-1
-1
3
-2
-2
10
-31
-7
-5
1
-4
17
39
5
3
-3
3
1
-3
-47
-10
-7
-14
4
-44
43
-17
37
21
38
5
-10
26
-3
5
-5
1
-11
0
-7
-37
-18
9
-9
-6
10
1
-9
-11
4
5
-3
3
50
-31
-47
6
11
-19
4
34
-2
10
-3
29
10
-23
26
26
-4
14
17
11
87
-31
61
15
0
-9
42
-5
-35
-9
5
-9
-35
10
40
-29
-17
11
3
-15
2
6
9
14
21
3
-3
-3
10
-6
-2
39
-12
4
-24
4
-5
3
-4
-11
7
8
26
5
0
12
8
34
-6
6
-3
-5
-36
1
-13
26
-21
6
6
-7
-4
26
-1
28
-29
15
-22
-27
-6
0
-10
-15
12
3
-4
-2
-8
19
-5
-7
30
16
-2
-4
-4
8
0
6
-2
4
2
1
-2
20
-3
15
16
11
3
1
-7
5
6
3
0
1
2
1
6
13
3
0
-5
-7
0
-10
0
5
0
-5
0
5
5
-9
-21
36
-3
-11
52
2
5
1
2
4
7
5
-9
2
2
-10
-3
17
-15
24
43
20
-3
-13
8
-11
10
14
-5
1
3
3
4
2
0
2
4
-12
3
-3
2
10
2
-13
-2
-1
2
-3
0
5
4
-7
17
-8
3
3
5
5
1
-8
-1
2
1
-1
3
18
1
-1
18
-8
5
3
4
3
1
-10
-2
-3
2
2
6
10
3
-1
10
-4
-1
-6
3
4
-2
-3
1
