70
55
-82
34
-9
63
15
-25
0
22
42
-15
-3
127
-54
-43
35
-12
16
-56
-53
30
31
9
-107
61
2
-37
80
57
-46
-7
-86
-70
52
-117
-44
-81
-32
35
-7
-5
5
75
53
40
-1
45
44
7
-20
-36
34
8
44
-33
11
-103
-5
-3
-7
-75
4
76
13
127
-36
19
37
-63
-45
-11
-44
7
-65
17
-35
-54
-1
11
-29
68
-10
-55
94
-62
110
-24
3
-43
75
-110
17
-46
-55
-3
127
-15
80
88
21
-127
13
56
-8
42
-27
72
53
16
-51
119
-7
51
53
-2
-28
-13
49
-75
-44
-31
11
28
57
41
-67
59
-4
-127
84
63
82
-16
9
19
-49
98
19
29
3
34
-12
61
-41
18
-40
0
-61
31
14
-42
-17
109
-33
-100
-5
-78
-86
-126
38
11
24
-16
-52
-28
-9
3
107
44
9
70
-34
-1
-26
20
-29
-60
13
67
-58
-96
64
-6
20
29
41
46
99
19
-11
24
33
-29
126
91
40
38
27
16
-5
71
57
-20
34
24
-64
24
6
-27
24
62
41
-50
45
81
63
-1
-78
-57
46
82
4
67
71
54
-17
24
-22
7
22
-3
34
-24
-24
-14
70
-8
127
49
-8
10
66
28
50
52
26
11
62
-31
-11
18
49
-102
-72
87
-127
73
8
-49
-23
-25
8
-37
32
40
110
38
115
95
-4
74
-18
-38
127
43
-86
85
-27
38
14
-60
29
-41
21
-58
-21
-4
72
18
39
11
36
-47
-46
20
39
98
36
-5
-1
-29
35
-43
-29
76
-39
-1
-42
101
-3
31
-24
-6
-28
-77
-75
-42
-42
-61
1
-96
-40
-32
127
-83
-64
54
-71
44
122
19
-73
-42
1
37
22
-38
5
57
-30
39
99
-109
-10
27
70
22
28
-48
-111
-5
52
10
64
127
19
25
8
-13
20
-64
16
51
59
20
10
27
-17
27
-59
-106
-127
20
82
8
53
68
-5
-43
-112
25
7
-24
-39
-19
-124
29
104
-46
-127
9
29
32
37
54
-6
26
-22
-14
13
41
44
-5
-104
48
45
-127
-1
46
-2
10
62
60
-3
-31
27
-58
-50
72
92
86
127
-34
-36
36
-36
64
84
-1
-90
-11
89
17
-63
24
-87
-38
71
-59
-25
-94
127
46
32
73
-54
-81
-26
61
-2
56
-38
79
24
33
76
-5
-54
-8
-40
-81
1
5
-25
84
-36
65
-22
29
-29
98
49
56
44
23
11
-68
-10
40
-15
13
29
73
-6
93
-12
-32
47
-63
-37
30
13
21
-28
-27
51
6
-34
-24
21
41
-67
-23
-29
127
85
-116
-59
-61
-49
20
48
9
34
-88
-93
50
11
-9
8
-86
-65
46
15
33
86
57
54
-2
22
-32
28
25
-22
57
-34
81
29
75
1
31
24
-125
51
26
-9
52
123
-2
89
31
28
-33
37
-9
-127
-20
127
-40
41
-36
-64
-40
-12
62
-87
93
93
50
62
5
67
-45
-43
19
23
4
-20
-40
117
56
-52
-11
-17
23
57
-43
-43
9
46
26
118
-33
-33
19
3
-4
46
8
-32
32
45
44
-54
-8
33
4
-64
13
-45
-113
6
3
-87
27
30
-9
15
-39
15
84
47
-13
-34
33
-6
-62
-81
-54
19
33
-37
5
26
47
-17
-10
-2
85
-12
54
-36
51
-87
-75
49
10
14
-78
124
-56
45
18
-12
-95
23
9
-2
26
6
-11
77
-24
-56
2
-14
-27
93
-13
-16
31
-40
-10
28
59
-70
-71
28
-39
36
31
-46
-10
-7
-39
7
83
-59
29
-86
-127
35
52
37
39
-68
-32
-39
42
-14
-101
-68
-14
-127
70
-66
47
-33
-11
127
-53
-15
-44
-92
-127
-72
7
46
-16
-97
-27
-58
-19
0
-23
-41
1
3
-44
13
51
17
63
-15
7
-22
-90
-95
-20
-127
-96
-127
-42
2
-72
-127
63
-13
-47
3
16
-48
-48
-18
-58
-120
-6
-82
-7
-4
-38
11
-42
-21
107
-58
-1
40
-10
3
-18
-14
43
-10
-12
-19
-127
46
-127
-27
-74
69
-25
8
-59
-5
-111
8
26
-5
-12
49
11
-32
11
36
-46
-78
44
1
-11
-53
-53
-38
23
56
-18
-22
-59
1
-64
-50
127
51
42
48
42
-127
8
83
-45
-6
5
14
-55
17
23
-26
2
-53
-68
25
15
-127
102
0
74
-12
-62
-95
-12
12
-46
-3
-33
-82
9
-29
-22
-10
-61
-39
-11
31
-18
75
33
-88
-102
12
17
-25
-55
0
-4
8
-30
-46
-54
-37
-59
-37
-17
-19
-11
-80
-41
17
-81
-11
-37
16
-79
-87
24
33
12
11
-55
-11
39
-56
34
-54
-18
70
4
-14
-10
5
-15
-2
-127
77
-104
13
-72
18
-54
-80
-1
-11
86
127
-25
127
45
-25
-89
50
81
-60
-71
54
21
-24
-72
-9
38
10
44
46
-41
29
30
-93
-23
69
-119
-72
-62
-47
64
20
127
52
-22
10
-33
-51
-31
-6
-47
36
-62
-92
97
-15
-25
-74
-17
-40
8
-127
32
127
-57
76
-1
-118
-94
-7
-39
4
-40
28
69
15
3
-49
-84
-2
6
-127
2
-3
6
62
-22
-37
-46
-6
5
-28
-50
15
68
-17
-27
-80
-21
9
-51
-108
2
19
56
-16
-35
-22
127
-39
-106
-53
-14
3
-31
-39
4
38
86
27
-17
-37
-66
-105
-77
-39
53
-36
27
29
-34
1
19
-86
-106
-8
42
25
-28
-40
-51
36
54
-46
-24
52
26
-92
16
-58
-48
21
-32
28
-64
-93
-33
-15
15
16
-19
65
-50
-55
-26
63
56
30
12
-28
-86
-48
19
-12
-4
24
79
-34
15
-35
-36
-13
-65
39
62
43
7
61
-10
-14
-65
48
52
-61
6
-28
-51
-36
-19
-7
16
-11
35
-66
-83
15
22
47
-5
-56
-36
86
2
-84
15
31
-64
10
-32
-21
-66
9
19
-127
24
-21
-53
-20
-43
50
40
-83
4
-127
-111
33
-4
23
-23
-55
52
24
-9
-14
16
8
-1
4
11
-14
-101
-43
23
-44
-50
-69
-127
-68
-24
33
9
10
-54
19
-64
31
22
-3
21
22
54
14
-7
-70
-87
-72
6
-57
41
-58
-9
-23
62
-50
40
80
-69
8
1
4
17
-42
-4
-11
-9
-127
-25
92
7
-19
1
-42
-14
-13
12
46
-127
30
2
-21
-40
-79
38
30
54
8
-65
-64
-4
-38
17
47
27
1
-33
38
-40
11
-49
-14
-9
-59
13
29
87
34
-111
36
-15
-107
-67
-48
-81
21
27
-98
-46
74
45
-71
-99
-14
-127
-52
-16
-113
-97
8
-82
8
41
-26
6
-41
26
-16
15
-11
-27
-50
-16
11
-83
-18
-42
-111
-2
-44
-127
-20
-108
-22
-14
-35
75
-25
39
-10
20
69
-92
-31
-105
42
-23
-57
-18
-23
-46
-16
40
41
-14
-19
-70
-8
-12
-13
-39
-34
-15
27
-42
-21
-16
-49
-45
-57
53
-113
127
109
-42
54
-30
1
15
10
39
31
-54
-58
-8
34
-59
-17
24
-7
-31
-83
20
-117
-88
8
8
-7
-77
36
-45
-89
23
-57
-54
-5
29
-17
-51
3
-20
68
-113
-107
86
3
-67
-72
-44
49
-24
-117
63
-4
49
-9
-5
112
-42
-42
-127
-18
-89
-68
-25
30
43
3
-63
-127
-48
-59
-20
-31
-31
-3
-24
32
20
1
-15
-38
-51
-68
-85
55
-51
-4
-50
-10
-41
16
25
60
0
-45
20
14
21
-34
-14
-68
-73
-24
-39
-110
-63
59
-29
-72
-12
-45
-48
1
-97
-37
-20
33
-50
-10
12
-40
-57
-9
9
-8
-3
5
-8
-27
-84
-17
-94
-96
89
-28
-108
-45
-75
0
5
19
114
-3
-101
-16
-20
-74
-33
-42
66
2
-22
8
-19
9
34
-88
40
15
-103
-1
-95
-23
-70
-26
-68
-47
38
-20
-28
-5
22
-127
70
-127
-3
-10
71
12
-41
-19
-61
-4
53
-51
-55
-27
-37
-55
-6
-34
-59
20
-48
-12
8
-38
4
16
24
-21
-21
30
-11
-82
37
-14
57
-23
-73
45
-17
58
41
-8
-63
-44
-84
43
-10
-41
51
-23
-34
-97
30
-85
-26
-84
-45
-47
-6
-127
-127
-17
-71
57
-49
-120
40
-36
-24
-62
-2
51
-3
15
-28
95
-36
11
9
20
4
-13
49
-107
-17
27
1
-9
-80
-49
-26
17
-33
4
-81
103
14
-62
13
-22
-127
-28
-31
-24
44
-35
48
16
19
16
35
97
58
-56
2
-15
57
-15
53
-12
-111
12
-66
81
42
7
-126
-68
-6
9
0
71
62
-40
-25
-40
-10
-36
35
-43
-50
-99
-27
24
-40
26
-44
-32
-103
-2
25
6
-31
-54
-39
-6
-13
29
-109
-71
-46
-37
-18
-32
-101
-11
-103
-58
-14
-56
-26
-127
62
-24
26
98
-54
-31
-81
-45
-52
36
37
-72
-104
-4
20
-20
-13
36
-71
-3
58
-14
-10
-17
-11
-102
4
-6
19
-15
23
-105
-103
-47
-17
5
26
-67
48
-127
-2
-103
-76
-14
-120
-18
13
74
-127
-53
-55
-44
44
65
50
-21
-30
-86
-84
-65
91
-48
-69
-8
4
12
11
3
-10
-5
-46
-18
11
86
55
57
-18
-14
-38
-4
7
-52
6
40
-27
-54
-39
-15
0
72
-7
46
-30
50
-27
-1
46
45
-40
-24
32
-23
47
-11
-24
-83
-38
-32
-64
-21
-15
66
-119
6
-7
7
-16
-43
-4
-95
-62
39
-108
-10
-42
-42
-20
16
-12
15
-107
-6
10
-109
64
-64
90
67
50
-40
10
6
-74
19
13
-40
-122
-23
6
58
42
-78
30
-100
-45
85
10
-48
-51
-5
22
-35
-71
-6
-47
-86
13
-126
-94
45
-102
64
-14
93
-9
-15
19
-18
62
12
-40
0
5
83
55
3
-39
-79
-25
-109
-36
-79
-44
-2
-99
-11
7
15
-13
-70
95
-13
23
92
-127
-1
69
-23
-84
-47
16
14
-58
25
5
-67
-31
-8
44
-8
-73
34
-68
-20
-6
-25
23
8
-18
-102
48
11
-26
44
9
-46
-48
11
-46
-122
28
-127
-69
-43
-22
-43
-27
-31
-45
37
-98
-90
-60
-11
10
-72
-42
96
-15
5
15
83
-48
30
-117
66
-6
18
-127
-38
-72
48
21
-59
-33
-15
-108
116
-120
-127
-6
-68
-29
43
42
-12
-38
67
-45
-47
-30
-96
-71
-26
76
-46
-59
-48
-107
-38
11
-23
-58
-5
-3
-43
-19
35
10
38
-47
-119
56
-52
-18
-19
-68
-35
-68
58
-34
-90
22
-68
-112
-127
-95
-68
32
-15
-15
-75
20
-98
-27
-60
7
59
124
36
21
65
74
-52
-18
-13
-93
26
-66
13
9
-35
1
-51
65
-6
-3
-27
-4
-11
-45
-6
-15
12
5
-53
-46
-27
-5
112
-18
-26
-43
4
-111
8
-42
-56
-6
-32
-18
70
-109
-5
-16
9
-10
-17
-60
6
14
3
0
5
-92
27
-38
51
-38
-35
-12
-41
-10
42
47
-33
4
3
8
-30
-69
21
3
-106
15
-5
19
-2
-11
2
-53
-26
11
-46
-44
-4
22
43
35
14
18
2
52
33
-20
25
-8
-32
-12
-30
-5
2
12
-55
9
-22
-31
28
72
-9
20
-34
-31
-3
-55
26
2
7
-35
23
-5
1
-15
-46
6
-29
49
4
-19
-7
22
-38
2
13
57
-85
57
-39
-51
-66
5
10
-5
-12
-25
-4
56
-13
13
19
-1
-7
-33
-127
39
19
32
48
-81
-38
-30
7
1
42
5
8
-66
-77
-51
-35
-4
16
21
15
-34
-10
14
-20
9
-4
-9
-33
3
-30
-32
-19
-27
-26
14
-50
-27
-6
15
50
43
56
59
-32
-5
-19
6
10
40
72
-33
25
32
-47
-37
-12
-26
35
-71
-27
15
-22
47
-21
-21
28
9
19
-3
24
26
93
-23
-6
-37
-52
-5
-19
-48
5
-12
14
-51
127
-24
-8
21
-48
-7
-12
-94
-33
-32
16
5
7
28
52
50
9
-12
-36
-41
71
50
9
-58
-22
35
-41
6
31
41
3
9
14
-16
26
-64
-3
66
4
37
-2
2
-17
83
2
-1
-17
-21
-64
127
-30
-19
2
-52
-40
6
-3
-6
-26
-28
23
-26
53
12
-21
14
-8
44
2
11
61
-44
-5
-39
-36
-6
-4
17
50
-17
-43
-90
-16
-8
-66
4
-25
-36
2
-12
0
-75
40
-27
-22
9
102
34
-30
68
7
-43
23
-6
-67
5
-20
9
-6
-9
9
0
-18
45
-77
-70
34
7
5
22
28
-15
-11
-2
-73
29
59
-9
13
-25
-9
22
-57
46
-45
-19
-37
98
20
0
-47
-4
-15
59
-40
-18
51
-6
43
16
4
55
85
-19
-38
23
9
-99
-11
-20
37
51
52
-15
-127
-23
18
15
67
-13
-14
-6
47
4
-33
-72
3
42
-40
7
-5
28
-8
8
-2
-110
24
-63
-9
-21
-43
-77
43
-55
38
-19
-4
5
-17
4
90
-6
-43
18
-20
68
-98
-30
-50
-8
-37
31
-31
-1
69
54
19
15
62
-42
19
-29
127
-13
-14
15
-28
-21
-30
-33
10
15
-34
25
74
29
10
16
-9
-28
-31
47
-34
23
-4
-97
-23
-8
72
6
-9
6
1
50
-3
-14
38
-25
-3
1
-35
4
29
-45
-6
49
-32
-25
33
-127
19
44
-14
59
-29
57
-59
-3
10
9
-80
100
19
-31
-5
-43
40
118
-38
15
-40
33
-21
-10
23
-16
38
14
-25
54
-20
55
-4
43
-21
-55
-11
-12
-18
64
3
-30
0
11
-10
-3
-40
2
9
-39
-81
-40
-6
32
-20
-64
-45
-67
-10
35
-20
10
4
55
-59
59
-24
23
-34
-41
34
10
22
43
-13
-26
5
-42
-29
-3
84
3
18
1
-73
19
-8
-7
36
68
-11
4
25
25
49
-15
-45
-69
3
5
12
37
-11
17
43
-73
-47
63
0
7
13
-13
-47
-37
46
-10
5
28
-3
-18
16
21
-50
6
-1
18
-19
22
-72
-28
31
-26
-16
-21
14
-5
15
22
-52
3
53
47
-55
65
-13
12
-11
62
51
-22
-32
-96
24
89
8
-2
-18
-53
-15
-36
-40
11
-10
1
94
-21
-102
14
-16
-22
-96
-15
-49
-78
60
49
35
-89
10
-68
-17
-5
21
23
95
46
-11
78
6
-64
-127
-21
56
-29
-101
29
28
72
45
-8
11
-9
-63
67
27
-3
-90
-127
64
45
-22
-54
-111
-48
-49
7
15
47
70
22
57
8
11
-26
18
-91
-102
2
-127
-63
-31
-26
-20
25
-8
82
33
-57
-16
-30
14
-6
25
-9
91
9
31
-1
-111
-127
-7
-17
-3
-2
18
6
47
-39
-2
-6
-82
-38
57
-4
103
66
-8
-19
-12
33
-59
-82
-102
-75
-52
21
-23
3
10
-17
25
17
-14
19
-14
8
8
-11
-49
23
16
-66
0
13
-21
8
-16
-8
50
-31
-82
9
-25
9
100
29
-83
14
-4
-83
-23
18
2
-22
38
121
-18
-75
-61
74
94
0
-8
-120
17
21
-6
44
15
27
40
10
44
-48
-48
-34
-32
36
4
127
-8
-2
-45
-98
-6
-73
28
25
12
16
-27
-63
-14
-113
16
127
69
13
-69
-1
-4
-28
-48
6
11
32
-23
-19
-25
17
-6
-42
-78
76
26
11
-108
-54
0
-24
29
10
-34
-10
-21
13
-21
-33
-26
5
30
94
-35
56
-23
-19
-47
-21
44
18
-38
23
-2
16
9
-63
-12
-15
93
-66
3
-27
8
-5
-19
-44
-78
0
18
34
-27
-6
12
-7
46
-16
-13
61
-52
-2
13
-38
11
-11
20
-43
49
24
-13
-2
51
-127
-42
-111
0
-17
8
-39
-61
-124
-1
-23
-11
-39
-10
-10
30
-90
21
2
27
-19
-13
7
12
-88
-108
-5
75
-60
39
-29
22
11
6
55
3
-39
-49
-41
-29
-27
41
-70
-44
-23
-41
-14
-7
16
100
32
-19
20
21
42
21
10
-25
51
-56
-104
-34
28
8
-22
-16
-53
-37
-110
14
4
46
91
7
-5
-64
61
3
1
-12
-26
-1
0
33
40
-20
6
-39
-71
89
-27
-37
27
-61
-36
23
-32
29
-88
5
8
-48
27
44
-30
91
-19
25
11
-3
-7
115
61
67
23
-55
-14
-16
-47
-62
-2
33
-64
61
2
3
-60
21
-127
67
2
16
16
-49
-39
-5
4
52
-23
-73
27
-6
6
-14
31
115
-127
34
48
-64
7
-35
-1
18
-83
-33
18
-60
14
55
3
-21
-18
11
-44
62
-71
6
-89
62
-19
20
-27
-42
-58
-35
24
-29
-45
38
67
-57
-29
14
-14
29
88
-88
-24
-37
24
66
-60
3
49
102
-118
0
-12
114
-6
-16
35
13
7
6
-95
-61
-50
-26
-3
-39
-28
64
4
-22
-126
-29
4
-30
-15
18
10
4
77
42
-40
-53
-26
-63
-13
27
-18
-35
12
-42
37
-13
-61
16
-35
19
32
127
13
62
33
9
-30
64
-39
2
-44
10
100
33
-23
127
-10
55
-42
48
65
8
13
-40
0
-14
-9
15
-3
43
15
-11
-121
42
-49
-41
-43
-13
3
-127
-127
71
68
13
-24
36
-31
-6
26
-61
-32
69
90
5
-68
-15
9
-24
-127
46
57
64
-38
53
111
63
101
56
23
36
-27
12
0
37
-101
-60
127
109
-6
64
-21
-91
5
27
2
-77
-37
-42
-2
-26
49
23
4
-64
-83
75
-67
28
76
-47
-31
64
93
46
-18
7
-9
-23
-19
-14
105
-15
-69
-5
69
-4
-42
-87
-5
34
-33
18
-77
45
-41
35
22
-23
-5
-18
-56
-19
-36
-34
-4
90
-24
-73
-15
33
-19
16
108
77
-4
-46
-57
-86
-46
43
5
4
-55
-54
-27
40
60
-13
-58
-116
127
-75
9
-1
-10
-28
127
16
-55
31
-31
-30
-122
-50
-3
-16
-24
-5
76
17
-81
-17
-28
114
-22
-21
-11
1
-22
48
-40
-47
-3
-127
61
28
43
-45
-127
-41
25
-8
82
-18
-11
50
-7
40
72
-125
-76
6
-55
80
18
-121
-28
-8
104
-32
-127
127
-104
57
-127
-8
-49
-108
-30
-32
41
0
90
16
-65
-57
16
-6
-22
73
-33
-67
-91
-2
49
127
-36
-37
-13
-5
15
3
36
73
-94
46
10
108
21
-39
22
-38
-127
53
91
-50
3
127
98
-18
-36
-53
42
-53
31
127
-57
-26
-94
30
-65
-27
-70
18
-21
-38
127
90
-19
-124
-46
-33
42
-1
3
56
-51
-116
71
66
-13
10
87
-2
-18
-4
-127
19
47
-7
-55
-22
-19
-53
17
71
-58
-15
-121
111
-7
-74
-18
-36
4
22
-74
49
-30
6
-26
41
50
92
-53
-15
127
-80
24
25
-23
-2
-61
12
-68
-68
-27
-1
-14
-127
-57
6
127
-14
127
1
-17
-25
29
-36
-38
73
-13
33
87
34
54
-61
-2
-28
27
30
-48
-48
-124
-40
-24
-25
-58
-61
46
-24
-21
127
-44
-72
49
11
3
39
99
7
-26
-13
-64
-35
-18
-56
-90
-58
109
-11
-65
15
41
-2
-42
66
-40
59
-69
-33
-115
-77
-18
-23
-15
54
20
-33
9
45
-54
-7
57
-19
-49
-91
127
21
-11
45
4
1
-42
-61
9
-27
127
127
-35
35
-127
16
-46
6
-127
-17
52
18
36
89
-28
-18
119
21
-42
-1
43
127
75
-46
29
-7
36
8
-21
-45
-40
33
-37
-29
-61
-72
-35
-69
13
-9
-57
-8
45
23
-66
72
-4
-117
52
-1
-19
77
36
-19
113
20
-104
12
60
26
-80
-1
-127
88
-4
41
-117
-104
-71
-7
7
-25
-26
-58
52
-127
-24
-99
4
59
-96
-37
49
40
0
32
117
-19
-76
-42
-81
-21
-53
-3
3
38
-98
-64
3
-12
10
-16
-127
66
49
-9
113
-77
68
-107
35
16
127
68
-115
-94
4
18
-76
127
-27
-127
-51
61
-12
-19
-103
21
38
-40
-23
-2
-37
4
127
-31
-58
52
-99
4
-81
117
-26
-35
-46
-4
-94
-27
64
-74
-3
-127
-1
-12
-23
-78
18
59
-4
-64
-47
-18
-61
51
-82
-3
-127
-88
125
-51
-37
-61
127
1
13
-19
-13
-16
-7
-22
41
-34
-113
68
116
8
65
35
5
-69
-79
-35
127
-57
40
-127
-110
95
67
-94
-33
68
-115
48
50
-88
-11
-6
-127
2
-72
-10
-19
-127
14
1
-91
-34
-13
-31
82
-16
1
-39
36
21
-32
-102
-7
-61
26
69
17
-93
31
51
-9
-13
118
-62
-28
-124
-127
-61
14
19
-59
-88
66
57
16
-30
49
-57
-44
-127
42
-19
-41
-8
-9
-79
-64
127
-41
7
21
46
27
-48
-60
6
37
54
-3
-20
-16
-13
-14
-30
63
-40
127
-55
37
-18
-20
-93
-15
66
-53
-15
-75
-21
127
-34
-76
120
-11
-35
12
28
-34
-33
-5
-11
40
-8
21
118
52
13
-44
-24
-4
-21
-52
-4
-25
-124
0
-20
-12
34
23
127
-110
-75
-20
54
-65
-45
-58
-19
59
-26
-70
67
-37
-96
-127
-84
28
66
-4
-39
-127
127
-102
25
127
-9
-3
-127
4
-9
-67
53
25
127
-15
-12
2
-6
61
-29
3
-53
-55
-39
-23
7
-34
-35
85
127
-1
-19
127
24
-27
-127
-54
-81
-25
75
53
26
-34
-127
-3
-36
-70
127
26
-64
-127
-92
-35
-64
49
-16
-82
51
3
-43
23
-81
4
-24
-51
17
-25
12
-40
-7
-28
104
-4
-100
-39
9
-127
-37
-93
-127
39
-1
60
41
16
47
-19
-127
-84
59
-117
-10
-24
16
43
-19
5
-35
0
52
40
9
-88
-17
-27
-67
-23
38
-20
23
-37
-55
-87
9
-35
-66
-58
-1
-9
24
13
-28
-64
-127
-37
60
30
-69
1
-24
-41
24
-28
-29
20
-16
-98
-45
36
-69
74
-40
-43
51
14
29
-1
-43
34
-17
15
44
-48
56
-4
-41
-81
-53
-25
-26
40
-75
11
-1
5
-25
76
-9
116
-16
-8
7
22
-54
-36
-14
-34
-40
51
-3
40
-102
2
-71
127
-36
-20
-17
-80
41
9
-45
-12
-63
-62
18
24
-39
18
-13
-38
-8
-59
-43
-26
-15
-18
-127
-13
2
-104
10
-43
-28
-34
-24
5
2
20
-54
115
-71
-17
22
23
23
-16
29
-30
28
13
8
-49
-35
12
5
11
-27
-39
127
-8
-9
-117
-24
46
-24
-45
16
-60
41
12
26
-73
13
30
-3
57
32
35
-36
-69
-25
11
-72
-48
-14
-16
15
-64
14
-45
37
27
-8
-12
-79
-35
-82
-18
-30
-38
-35
-56
-34
-93
-127
-40
-13
-58
-61
-1
-13
-33
80
-21
-80
29
5
30
-9
18
7
-71
54
-41
-89
-19
16
-84
15
-28
28
11
-47
-36
-127
-35
-64
-54
-36
-75
-31
85
5
-83
102
-81
3
74
18
-38
5
-29
-112
-1
-41
-29
9
51
15
12
-32
87
-67
11
-70
5
-27
8
4
-104
-24
-30
-23
-21
-34
-25
72
-56
11
-10
-34
-9
59
-2
16
-34
15
10
43
-60
-31
-35
10
-3
-93
-91
-29
-83
-42
-127
-74
-71
-49
36
37
-87
-23
-99
-28
33
-6
-82
96
-19
-18
-73
-31
28
-66
38
-118
27
-26
-78
43
-64
-45
-46
38
-43
-69
-66
-43
-32
10
42
2
-31
-50
-19
47
-47
-16
-99
55
-66
-99
-39
-56
-98
-36
19
-68
-97
6
32
-37
-15
-30
23
18
-15
-29
37
8
-80
-11
-27
-29
-26
36
-53
0
-1
-65
-27
-88
45
42
3
-16
-52
5
27
-22
30
-59
70
-74
63
26
7
-75
-18
11
-40
-44
-127
58
-23
-110
-36
-39
-32
-117
12
-127
6
59
76
-32
3
10
21
37
-22
-46
46
-18
52
5
11
-26
-29
17
45
-18
-90
1
-110
-23
4
8
19
-82
-29
61
-20
-64
59
6
-81
-30
-112
12
26
51
100
-16
-21
-24
-27
75
-31
-21
-39
33
-53
-29
-43
-12
-32
-105
-38
-16
20
3
24
-91
23
19
23
-23
39
-48
3
17
-9
-127
35
-28
-79
20
-44
-51
-10
-116
-68
-21
-28
10
20
0
-11
-52
-18
68
48
40
-50
-36
-8
32
7
-45
-46
12
-9
-24
16
-42
-91
-63
3
-55
-62
-22
51
24
-34
-4
-16
-40
-18
-127
-9
-21
-24
-38
-13
15
-10
34
106
54
-76
-46
36
-81
-64
60
17
27
-20
-102
-32
1
-10
-6
11
27
-103
46
-96
-48
85
-127
40
-57
11
-50
-8
24
-52
-41
-11
-40
10
23
-6
-96
-42
-31
-103
-40
-32
-125
-127
5
-43
-56
-111
-60
-2
-94
-42
-38
-13
34
10
44
-104
-88
-127
-58
-14
1
-6
-22
127
-2
-127
21
-55
-6
33
60
-12
-3
13
-17
22
2
-69
-4
-102
127
-31
-4
58
40
-53
31
1
125
46
-35
64
-25
-23
-17
3
-8
25
-118
64
65
-35
-92
14
-43
-67
2
29
80
-6
74
-30
21
-26
-73
8
108
-51
-16
-21
19
-41
-11
-38
-8
14
-20
-11
-5
37
-38
-2
-24
-29
-9
68
30
-14
28
18
5
3
-18
-18
-17
-33
9
4
-49
-26
12
-12
-8
-7
24
-29
-4
18
4
6
25
-60
-14
-9
-21
3
56
-46
-19
3
36
38
3
-34
73
-16
8
28
51
-16
9
-4
-99
21
12
-41
7
6
0
17
-11
-24
11
-27
13
-18
-80
45
19
-26
2
39
3
-77
42
19
1
38
-1
-21
-2
81
21
-65
-30
-8
-39
-32
-5
-9
6
-18
4
-26
-10
6
87
-127
-7
5
-32
127
6
-2
-1
-18
21
9
21
-14
-22
-16
39
-9
7
89
-13
-50
14
34
42
-30
34
16
50
9
-33
19
-33
-2
127
2
-27
28
-48
-39
35
46
15
-29
-14
-36
40
-13
-42
-68
-35
8
-69
-1
-35
-126
5
3
-35
14
-10
-14
10
-2
24
-84
25
-39
10
3
22
29
42
24
30
-30
-1
34
-25
0
6
-17
-39
-3
-32
-2
-18
12
-1
-90
30
5
-50
-13
67
-22
-30
-48
-17
28
-35
-52
3
16
-31
-10
-7
9
-51
15
3
-10
-86
23
30
43
-19
37
41
11
-55
-36
28
-31
54
-8
2
-26
29
-29
25
9
0
-20
8
58
27
-9
10
-52
-3
-10
51
42
-6
46
-46
9
-12
9
-25
-42
-28
24
29
39
15
-4
28
-2
0
-63
11
14
-27
71
-11
-9
21
8
117
65
-26
6
-3
44
-19
32
-33
-27
-11
2
-33
-11
-19
12
-25
3
-38
-26
-13
-68
-6
-1
-96
35
20
23
-2
-18
8
-4
0
9
0
-23
9
127
-3
10
-21
49
1
21
15
6
8
-66
-7
-46
4
-6
13
-60
127
-54
-18
-15
-43
24
-46
9
-95
35
46
-7
66
1
-8
21
1
82
-3
-11
28
-97
26
-37
5
43
20
-41
-26
6
9
28
29
-5
24
15
-51
52
14
5
-109
-48
-44
-3
-9
-48
15
9
-81
29
31
9
27
-37
-12
9
-18
20
-9
-83
-9
-19
-57
-47
-7
-6
-11
49
8
-36
-33
4
0
-22
10
-53
-70
7
43
25
-4
9
1
1
-62
-22
64
-20
63
-105
-55
-26
31
-35
74
5
-63
-45
42
4
-12
-30
25
5
-11
-3
-30
11
-6
-23
104
-13
30
19
-50
-30
13
-17
48
-25
-18
-1
-76
-11
-15
-73
12
-24
30
72
-11
-20
4
-6
-15
33
4
-12
-28
-13
1
-43
25
-26
-50
8
-28
48
-6
29
-7
22
-32
44
5
-25
15
72
9
42
-41
29
27
-46
-27
-23
-60
2
-14
33
-65
101
-7
-12
-111
119
19
52
-12
-45
122
-3
-44
28
-25
29
-13
13
-32
-127
13
33
0
-74
90
11
-3
50
8
16
-31
30
-4
-26
2
7
10
7
-4
17
20
-106
-4
31
-30
-32
63
14
-3
4
-19
19
-36
10
-28
23
-13
26
6
-82
44
-2
44
17
-44
-13
-44
-56
-39
-24
46
37
13
38
-6
-37
57
-44
-17
-39
-16
-10
101
-26
21
-11
-19
-28
14
11
-111
127
-5
13
-75
-50
-9
-3
114
-13
-32
20
-39
-22
29
-21
-20
-45
47
-15
-7
-6
-18
22
-41
-34
-5
-19
10
-46
30
43
-30
-11
-3
-83
33
14
-22
-9
32
-63
-8
-31
-7
21
38
-16
-31
-14
12
-8
-53
0
-24
-1
-3
-9
1
4
-15
-16
-21
-34
32
-32
-29
-97
-45
24
48
30
-73
29
28
-28
-42
-14
25
-7
-18
54
15
18
-67
-5
69
-44
-26
-10
3
-13
22
-3
1
-13
-79
99
-47
-21
-41
-60
127
33
-18
40
1
-3
60
-49
16
24
17
-47
1
51
46
-11
15
-1
-9
-21
18
-105
-48
14
6
-21
-36
-18
-7
-100
17
61
-33
23
76
9
-15
5
-22
-6
-13
0
22
-39
6
59
-7
36
2
-15
61
36
27
-21
9
-33
17
18
-46
-32
-22
-48
24
19
-38
85
-20
3
-23
-14
13
-30
25
-35
26
-29
-36
22
-13
-35
127
-108
15
-62
-46
-77
-39
32
10
25
66
29
-45
62
7
-26
40
15
-18
57
-24
8
-15
44
-17
-119
18
25
-34
22
-60
3
7
-8
-9
2
7
-27
-47
-28
16
4
15
-11
-97
-82
3
71
-2
46
-51
17
79
11
47
-33
57
10
19
-2
-24
23
-54
-16
-21
22
8
-66
-2
18
33
-90
105
-34
20
-18
-41
28
-49
-12
30
-51
36
51
-6
37
2
10
26
-15
-17
-34
14
27
-51
3
-45
11
-18
-16
3
13
16
-39
-55
50
32
35
-59
-48
-55
-78
-50
-99
-6
4
23
-57
52
-22
8
30
-2
95
22
-5
11
81
29
-127
16
61
-10
-23
-27
6
16
-12
-29
-48
34
45
-27
-49
-51
-24
-59
-11
-1
-54
17
56
10
-19
-44
-45
2
-28
26
-93
-14
45
-18
17
-23
49
-6
10
50
-80
-90
-38
28
-38
1
67
-45
-61
8
-17
-28
-40
65
28
30
34
23
-36
-9
-15
-40
-127
-30
-84
22
16
-5
-10
-38
-20
18
11
-61
-24
-22
-10
-28
-61
55
-12
24
-37
-21
-58
-49
103
7
34
30
11
-8
27
-46
-62
11
10
8
31
-9
57
-3
-17
27
25
31
-121
62
22
0
-40
-2
-14
-72
-36
-6
2
27
-122
89
20
-4
16
-10
-45
-3
29
3
-19
-41
6
25
-15
2
28
-32
1
-42
5
24
-22
-27
-13
-115
8
38
-60
-15
-5
-21
-13
-19
-97
39
9
-28
18
37
45
-33
35
30
-3
-91
-96
22
21
16
-30
52
-28
-27
-5
11
-35
-28
24
-32
-36
38
75
-5
16
-12
48
-13
-40
-122
-25
-17
46
-55
-57
7
7
9
31
-5
17
-74
52
63
-50
-40
0
-43
-14
6
-49
30
10
40
1
-19
1
-48
-98
6
-7
11
50
-5
27
7
45
40
72
-37
-77
-41
61
-64
-30
-40
-15
-14
17
34
5
-38
-3
-18
23
55
-18
-20
31
-90
-40
-7
-96
16
-56
35
-4
-27
6
-55
-27
124
10
-3
-41
23
18
-39
33
-55
35
21
-28
-64
-55
-62
44
10
127
-9
-62
-12
4
-7
-10
-37
3
3
33
-39
22
3
-34
-85
63
14
-9
58
58
-39
-10
35
-8
-28
56
-9
23
-11
-5
15
-32
46
-28
41
-20
-37
10
-55
-35
-6
56
4
-26
106
11
31
-25
-8
49
-12
-34
-45
-66
-13
-58
-96
68
-28
35
45
35
-26
0
-29
-23
63
72
-35
-66
-77
-54
-20
-39
-13
1
17
42
-99
27
-12
30
-66
39
-43
-52
127
52
27
40
23
-56
-8
-11
91
-11
17
0
-35
10
3
42
7
43
33
2
-103
-25
-68
-7
5
18
31
-54
-7
26
-51
-14
-26
-41
-73
4
-44
0
-19
-2
-55
28
12
-32
-18
8
-66
6
16
2
20
-46
28
-48
-63
-35
-30
6
-79
-1
-24
62
-11
-15
-20
-54
26
12
-83
14
127
-25
-14
-7
-24
19
113
54
-1
34
63
-123
-5
-32
-19
21
-36
13
-115
43
-19
52
13
-55
39
1
-24
6
28
-56
-26
29
9
-5
-10
17
9
-25
-45
-16
14
38
-42
22
-39
23
18
-12
-22
-21
27
-78
3
-92
-20
-19
44
-123
8
-35
-13
12
13
-14
17
-4
53
-15
22
-31
32
-51
-17
14
29
18
4
11
34
-46
30
-61
3
-13
-14
-2
-5
-6
-1
-8
-48
-1
57
46
-29
-10
-44
10
-33
104
-20
6
-23
-44
-10
-13
-30
-3
-2
127
40
7
27
-66
-3
39
52
28
8
-1
1
-44
81
17
0
-63
26
-54
-7
9
-7
14
-12
1
-10
11
28
-14
-9
19
-43
34
0
-34
63
-13
22
32
12
-29
-111
3
14
21
16
-48
36
-23
-3
-28
-54
4
28
-8
-99
27
6
-6
127
5
-42
127
32
-27
127
-41
0
39
-18
-13
21
62
-25
-9
15
-6
38
38
-54
-1
-32
22
-15
-19
21
56
52
-25
-127
-29
-33
-7
21
-58
-22
-28
-3
-41
-28
-4
0
26
-12
-20
-15
11
-46
43
15
-37
-67
4
-24
12
48
8
3
-19
7
2
73
6
33
-118
23
12
5
15
15
-11
83
19
-1
-18
-8
-22
-13
1
29
24
-70
11
12
-1
-32
20
10
-6
63
28
9
-35
-12
-49
-22
55
7
-14
-5
-47
46
8
20
-7
-8
4
-11
-23
60
-27
45
21
-24
-33
-22
54
15
-44
-88
28
-30
9
-48
-56
5
4
0
0
5
-22
-40
13
-1
-28
15
-23
-40
-42
-36
-6
63
-3
-45
21
-12
-21
-2
-26
-32
-4
-67
-28
-6
66
-54
-40
22
50
-2
4
-41
24
3
-25
-43
34
3
-24
-2
-127
12
40
17
-5
-24
77
39
35
104
0
-8
9
6
-18
-13
-45
9
71
-16
9
-18
-75
33
-12
27
-9
-6
9
24
2
-29
10
14
43
2
23
-60
-16
18
47
-69
20
-25
-1
-3
14
27
-1
41
48
-2
-64
92
-5
26
17
-12
9
4
-87
-11
-34
19
-31
6
-3
-2
16
-12
51
12
2
-5
-51
15
2
38
36
43
50
-20
-6
-29
-28
-17
-2
-56
-12
15
-122
61
-38
68
29
59
50
-77
-35
26
-6
0
-49
22
12
-27
-55
-20
-5
15
63
1
11
-12
11
31
13
-29
-45
-28
18
-11
-7
17
-28
39
19
31
44
-33
28
-10
-8
-56
0
7
-13
-44
35
-26
-16
3
-54
35
10
-40
9
-29
75
26
0
-33
-14
-54
-33
5
1
-10
82
23
3
0
-9
69
123
48
2
18
14
-5
9
-93
-42
29
-31
-16
14
-39
-16
-50
-19
10
-32
10
-3
24
61
-14
-44
-54
42
-7
15
2
-35
10
73
-22
1
19
-34
73
-30
-12
14
-19
-12
28
-16
13
29
82
-47
28
17
-14
-24
19
-9
-32
-52
-24
-15
-25
-1
23
-13
-75
15
-13
-108
-59
34
-6
12
24
29
21
-14
-12
-1
14
56
5
-17
0
-45
-9
-21
-13
-13
35
-3
127
-22
-47
-15
-11
11
-36
14
-37
-81
21
-36
-2
16
-22
-6
-19
3
-18
-33
14
20
-3
-12
-4
-21
34
-19
64
-32
-89
-34
-7
12
-3
9
7
-21
12
65
-9
-17
10
37
-39
30
-3
18
-13
-16
-35
28
30
19
-29
67
-30
-19
-14
14
-37
22
23
-17
-41
-16
18
-18
17
-18
12
19
-15
40
-18
-21
67
82
-78
-48
-26
42
-118
-14
-28
39
-4
-24
-3
23
-34
-124
-39
-43
-1
-42
-4
-17
-51
19
-26
12
-52
-57
-2
26
30
-127
2
-82
-5
-41
-53
-32
-37
-123
-19
-80
-50
18
-7
-95
48
37
-54
-42
-127
23
-3
-18
-31
-74
-67
-60
-46
25
-2
-19
10
22
64
22
40
-47
8
-107
-93
-28
-11
-60
-72
15
-114
-8
127
127
40
-127
6
103
32
47
-25
11
-18
-9
-125
-98
-49
-33
-32
-36
-64
-54
-118
-63
-127
-41
69
-9
-35
-104
-43
97
127
-101
-127
20
-20
66
-61
20
-78
-114
5
16
75
83
-21
-41
-127
30
78
-90
-106
31
-41
17
-74
-27
83
56
-127
-98
43
-77
-4
-16
-77
52
0
1
18
-19
-48
-4
58
-31
-29
31
-7
-21
-72
-63
47
-42
-67
8
-39
-57
54
-13
4
40
-127
-39
-111
8
-45
-98
43
-10
-48
-22
-4
-54
-51
-42
-103
15
49
-89
-74
22
-3
-14
-26
-96
-116
-39
-52
6
-65
21
-66
14
-89
-110
28
-13
127
-34
8
-57
-1
63
50
116
-15
-25
-64
-76
58
-42
-69
28
7
1
-40
-120
-96
105
-52
-127
-7
0
-1
13
-39
-127
-93
-127
42
-111
-13
-41
46
24
-58
43
25
44
-71
-5
-81
-20
-1
23
-25
32
-120
1
21
-100
31
-37
-44
-62
-3
58
-1
-30
-29
-79
3
3
-31
-20
59
-103
1
-46
19
-64
-42
-64
-13
6
-30
-72
-29
-127
-90
-24
-127
-127
-13
-76
17
-42
-14
-103
5
-12
-56
10
-1
-98
-7
-50
-24
27
-17
-63
-20
104
127
-127
13
-26
-3
62
-127
-85
-73
-118
-39
-4
29
-76
25
-127
-79
-50
28
-48
-18
-49
-39
-44
-75
73
-2
-73
-70
5
-83
118
66
12
12
36
12
17
127
-79
28
-25
60
-105
-69
34
-3
-110
-17
-38
-33
-57
19
121
53
-54
-29
84
17
-58
-87
1
-40
-25
-36
-81
78
-70
-127
-27
-54
-127
55
-127
12
-69
19
-60
-111
45
-31
-2
-39
-127
-42
2
-9
3
-71
-13
-29
-127
-61
-28
-22
-9
-58
-61
-42
-85
4
-20
11
-13
11
5
-49
-52
-35
-91
-9
29
24
-52
-27
-11
-42
-14
-79
15
-99
20
-127
34
-61
127
-31
44
-54
-91
-127
-26
55
-24
-63
68
-67
8
24
-2
8
-47
-7
69
-36
-55
-127
86
110
-82
-35
-48
-86
24
-35
64
-13
-41
3
-39
-15
22
-99
2
106
-13
-127
25
-36
-29
-40
-87
-29
-80
-64
127
-124
-8
98
-82
-24
-42
-62
-28
-46
-85
80
0
-11
-45
5
36
26
-51
127
-63
54
-101
13
-72
-21
-53
127
-127
94
36
-98
58
-3
-54
-46
-1
-34
-90
20
-36
75
-45
-7
20
109
-65
37
-31
-20
-37
47
-26
-72
34
-19
-16
-127
-104
99
-77
-29
27
-25
2
-2
14
-11
-38
-17
-11
-67
-87
-14
25
29
-4
-17
-93
-43
23
-65
19
20
-80
-62
33
-20
-17
10
19
84
-17
48
-13
66
11
-61
-59
-18
12
4
-86
-24
10
-29
64
-58
7
-87
-20
-2
9
-103
-45
-121
100
67
-127
-38
-1
30
-42
-127
11
7
27
-127
7
-4
44
58
-21
-62
5
-7
76
1
-20
-27
-38
-36
-82
58
-27
13
31
-87
-68
59
44
-68
-23
-35
26
-46
-95
-60
87
21
-73
-65
-38
121
-55
-113
49
-32
-75
35
33
66
-68
42
31
-49
-105
-95
19
17
23
-47
13
-93
-18
75
93
26
127
11
-69
-30
19
52
14
32
19
-9
-13
-28
-116
33
-63
-47
43
23
-45
-20
42
35
8
1
60
63
-127
-42
-78
-96
-33
-89
50
-26
-51
19
10
-18
-32
-14
12
-77
-67
-15
-17
4
-67
-23
-126
-48
77
14
37
32
-14
26
-67
-7
17
-37
71
57
-25
-18
-8
-16
-11
26
50
-31
5
12
8
-16
11
-89
62
-2
9
-20
-5
17
-38
-90
-11
10
29
25
21
-68
-58
-95
53
-28
25
-81
26
-127
-49
-61
12
17
17
-85
-42
-8
-99
13
-36
30
-92
-17
24
-43
127
20
-101
-13
33
93
-33
-28
-39
-64
38
-98
-58
-55
-2
-13
-42
-52
29
3
-73
-60
-29
-42
-27
27
-3
96
44
-111
65
-45
5
101
-2
-20
6
-6
22
-22
23
-9
-38
-35
127
-47
95
-23
-20
60
4
28
-31
-10
-48
37
14
-4
-63
37
1
-24
-4
13
-127
0
-16
36
1
11
-51
16
41
28
-23
-51
-43
-126
24
-51
-127
-33
113
-11
-9
15
14
-45
-115
42
46
7
-30
34
-5
8
23
-79
-102
-98
-5
-32
-108
-36
11
27
-54
27
-68
-33
-20
-44
-76
17
49
-2
12
7
-27
25
-54
36
-12
51
-41
-36
52
-76
-101
-3
-19
-32
127
8
18
13
7
-53
18
-63
-127
43
54
80
17
2
-24
48
14
64
-37
21
-103
-60
-31
-62
-27
25
77
-21
-52
-40
-59
-51
-39
-16
-54
9
-25
-18
-79
-51
-73
-58
-27
2
-47
-95
-32
29
11
44
-2
-46
40
9
-6
16
-8
44
-10
-17
-55
7
-20
3
-23
36
-39
-127
-23
-24
17
-45
12
-78
68
1
-15
-39
-49
-16
71
-27
-43
-10
29
48
-22
-66
-69
-20
29
-24
73
-8
13
96
-66
7
-47
101
-8
-4
-8
10
-16
-35
-82
-8
-40
-45
-84
21
-41
-93
-27
38
-33
-127
-68
5
-36
38
5
38
-4
3
-108
-30
-43
-94
-32
17
-39
12
1
-33
-74
48
-28
2
-16
-9
-57
-52
-25
42
-50
-47
-49
-9
-25
-82
-3
16
-4
-125
-41
-30
-17
5
-85
-2
18
3
-2
12
-50
22
2
-14
-20
-28
-15
-37
25
39
-20
-32
-20
21
24
-36
31
51
-53
-44
-84
-27
-45
-10
-45
118
29
-57
-61
25
-49
-34
-83
-30
-16
-55
-45
-23
-127
-5
86
-51
-27
-6
-75
-46
-35
-23
-28
2
-4
4
3
-55
-27
28
20
97
-26
-64
-40
-8
-20
82
-21
-75
-13
25
25
18
-49
14
-17
-68
-55
-4
-32
34
-39
-57
-116
-63
-71
-90
10
-65
14
-6
127
-73
34
-53
13
-46
-16
-64
9
-11
-36
29
2
-67
7
-22
-124
-13
-39
-56
9
9
-65
-92
-22
-87
24
32
-46
-1
39
-27
-53
-1
72
6
-25
-17
109
-25
15
23
8
80
-41
-51
-6
-10
11
-127
-39
-45
-28
-49
-47
46
-36
-12
-14
-77
78
10
-99
-18
11
-83
4
3
-1
-94
-16
-49
58
-58
-111
113
39
-67
-77
-40
-16
56
0
13
7
59
-4
44
19
-108
11
57
-39
-113
-4
-48
-36
-34
-57
-93
2
8
-85
-127
-32
-8
28
-70
-40
5
18
-49
-21
73
-60
14
-38
-38
-28
-40
19
-16
44
-28
-19
-89
-15
10
65
46
85
-22
-24
-54
-72
-20
-22
-1
-30
-75
-56
-18
45
67
-12
-38
-127
32
-17
-76
92
33
-18
-3
-85
-60
-15
1
33
-67
-66
-107
64
-37
95
1
-44
-38
-75
-40
-25
-85
-16
-4
-69
-17
-30
-9
32
-21
103
-66
1
-58
44
102
-127
-56
-43
-41
-16
-43
-7
-91
-17
13
-8
-18
7
-17
-54
-18
-29
13
-78
23
3
16
-33
37
92
3
-72
-12
-21
18
-92
7
-43
30
-18
-39
-12
34
-46
12
-94
-33
62
-2
59
33
33
-117
-5
-10
-71
51
-78
10
120
28
36
-39
-34
28
-7
11
12
-85
-77
-87
-26
-41
32
26
-124
31
106
35
-24
-97
-102
41
21
31
75
35
-5
-2
29
25
-97
127
-4
-52
-33
-43
-42
-2
19
10
-36
-15
-18
-68
58
6
127
-7
-28
110
41
-20
-2
-60
-28
-21
-75
109
17
85
2
-93
64
10
-21
-24
-79
-83
-60
-70
-65
13
-20
-59
28
34
7
-13
-30
-25
30
5
61
-11
-21
42
-11
12
-19
30
-1
7
115
22
34
-6
17
-50
16
-7
-10
-2
-39
-10
-38
25
16
4
-82
24
22
25
-19
-6
-3
-7
-107
94
-9
-29
-98
-67
70
16
-56
127
23
27
127
-57
-42
-85
52
41
44
63
91
88
-5
7
-16
-46
20
17
-35
40
-23
-69
66
47
-60
-12
2
-44
-63
32
-45
22
41
44
19
-17
-43
-63
-42
44
21
7
35
-107
41
-66
-18
-9
79
-1
-105
-52
106
-25
52
76
66
-94
-12
66
-44
18
47
-12
-11
68
-18
-108
-31
51
-43
-53
-77
-11
-18
-19
-32
115
-74
94
-74
-87
-67
-45
-6
-8
14
-73
87
-7
27
-64
32
-11
45
40
16
-88
-70
-3
18
-4
-127
5
55
10
-3
-127
-33
-105
62
-54
-117
-10
-37
-87
-28
19
6
-12
-24
-39
59
30
127
-10
-45
-24
40
25
-53
17
-87
-61
30
94
10
127
-90
-13
-79
-3
39
-17
-26
-45
-22
2
-34
-10
0
-26
-34
-21
-17
-22
-45
-37
-38
-14
-8
78
19
-47
27
-13
-58
-47
-70
-69
-15
99
8
57
-4
12
127
3
-70
-32
7
-56
54
15
-78
27
-21
41
-71
124
-34
-42
3
-50
-25
-15
-32
-48
-116
6
127
-17
48
-10
-59
-81
-77
-92
-29
-58
18
25
-32
43
-16
36
-42
-127
56
-34
20
68
55
-55
41
-19
127
13
72
39
-11
-45
127
84
-66
-68
-92
-39
-71
107
14
55
-18
-14
57
-5
24
127
-85
-6
26
-27
18
19
-63
80
41
-7
-37
-47
123
-15
56
58
-41
40
-13
-41
-105
16
4
12
-55
-113
-77
-124
-100
4
61
60
115
-14
-18
83
-59
-26
40
-127
-46
-5
24
-41
20
-127
43
6
-127
-17
29
-49
6
42
-4
15
-12
-46
-21
-47
-41
-10
-44
86
-6
21
20
54
33
-10
34
-28
-12
-13
-21
56
39
-3
22
-124
29
27
-19
18
77
-17
-60
19
12
-8
-3
-24
0
-89
127
-28
-15
-70
-5
30
127
-2
32
-28
-24
5
28
-28
11
-53
-44
-111
-24
0
43
-33
55
61
107
-15
-13
21
7
-114
-60
81
5
23
7
29
-75
51
-45
37
-77
-17
78
25
-3
-56
-53
-18
-2
-29
17
-77
-56
-53
0
-117
-7
-77
-2
93
-36
-29
-18
-17
-78
-29
-32
105
-102
-67
-47
40
-5
25
32
46
-54
-101
46
24
-3
-35
-15
49
9
74
12
67
127
51
58
13
-29
123
-19
-68
-23
38
-59
-4
19
-127
-91
-4
-56
93
90
8
-78
-115
-68
-70
2
53
-19
108
-22
-89
-2
41
-27
-3
-4
-127
65
-11
-127
85
-63
-83
-53
9
-84
-18
110
-30
69
39
37
-43
46
14
11
36
16
-66
-11
48
-62
-18
56
11
33
-36
37
-36
43
-97
12
36
-44
-23
-61
3
9
-48
-54
9
80
-5
-35
8
-50
-127
4
-15
-44
-49
-68
-75
28
-20
-9
42
-15
-3
-64
64
73
-102
-22
-62
-40
47
-11
-46
32
31
-14
47
-14
35
55
-54
37
-8
-30
-11
-7
-9
-95
81
32
-9
61
10
-73
1
26
-1
34
-61
-37
33
-68
28
-24
2
21
-16
-20
-14
41
53
49
1
-13
44
49
-33
-66
-15
10
-10
-26
-21
116
-126
22
45
109
118
2
23
-19
17
4
0
25
-48
63
39
-18
27
46
108
24
-6
73
26
83
-4
-36
85
-98
-36
36
-82
69
0
42
60
-11
-107
32
36
-76
0
-32
2
-29
-6
1
18
19
-7
67
50
-31
-22
55
4
-23
-14
-19
-2
19
25
32
-48
15
-2
75
102
25
-18
-5
45
-31
-19
-4
-14
-18
127
32
-59
8
60
24
-10
127
53
-22
-30
22
-63
-4
7
15
48
-42
-26
41
-16
-48
-17
0
32
81
-87
-11
-2
-5
-21
92
127
-59
-13
15
14
-23
-16
3
12
-26
-21
-23
32
-4
-28
127
-13
-37
24
-19
30
8
-95
66
31
-21
-23
51
18
31
32
12
-13
-18
-57
-19
8
-19
13
-6
55
41
-27
-4
-94
47
-46
7
-2
-2
-3
-21
-39
8
-46
-12
-31
-36
-12
127
-13
-90
-33
-34
8
14
7
81
-12
53
34
9
-96
14
-34
44
-3
-19
41
66
-8
13
5
63
-8
6
26
-46
11
31
-37
-21
-13
36
-87
77
13
-26
-47
12
105
22
12
-32
71
36
4
-31
62
4
85
14
20
26
127
-59
24
36
33
-9
45
3
0
-25
51
33
-42
66
-69
-16
57
15
50
-42
-32
-22
10
-20
10
127
49
-30
-21
30
-3
-69
36
41
-56
24
-72
3
-42
-5
21
1
-6
-25
-79
14
23
5
43
-40
19
-2
3
-22
90
-64
-30
-18
54
14
30
-78
25
2
3
-23
33
14
-28
-53
46
-53
-1
-23
37
7
-12
-51
-15
26
103
15
30
26
47
-25
19
88
43
10
48
16
32
11
81
41
8
-10
91
-65
12
24
56
71
5
49
-38
7
-12
87
-32
28
41
1
-3
25
25
-32
32
-13
6
-13
-8
9
58
6
5
-16
6
-1
-10
49
17
-5
-49
-7
125
0
0
14
9
26
-23
36
30
-21
-2
-47
-33
71
15
-53
-45
-1
0
-49
10
15
25
-24
56
6
68
0
-33
33
12
-11
-13
-95
-25
28
3
-28
-27
12
-39
-12
-18
-69
-30
-37
-30
73
-19
28
-25
34
61
39
-37
16
-33
-5
21
57
5
58
14
93
-25
-16
-88
96
-2
27
0
14
54
-4
-20
-3
19
15
-16
-29
-26
24
-21
-7
-35
9
-35
0
13
-81
72
76
-43
-58
11
-96
11
10
30
91
-15
35
37
-9
25
65
-72
-17
-33
-39
76
-9
-26
2
-29
27
63
-15
-24
-14
-59
-29
-127
10
-41
-127
-45
27
56
35
-10
1
75
-42
34
-11
41
33
30
60
56
31
49
3
12
9
11
14
36
-7
-10
10
19
-35
-43
-19
86
87
-4
58
-33
18
-49
-33
-37
-17
-27
-94
-15
19
-6
-32
57
-54
-18
44
-11
-43
12
2
-49
7
-1
11
-51
-13
14
21
52
43
-51
-25
53
-21
-2
-127
-23
-9
-39
67
11
52
-15
-89
-78
-62
-24
-23
-54
-18
67
31
15
43
51
-64
17
-81
55
-10
-44
95
45
102
57
107
28
53
2
127
-21
9
9
-13
-27
40
24
-21
-26
62
-13
-62
1
-11
33
46
45
12
32
94
-19
24
-30
-26
-44
-75
-17
-15
-22
-127
-30
65
-11
61
-75
80
-2
53
19
-5
-46
34
9
23
-78
-47
-18
21
25
-60
61
-6
-5
-13
66
51
-33
11
-24
-14
-65
26
37
75
-23
76
-19
-23
39
-42
23
48
11
10
-26
19
-2
-62
-30
47
-17
-9
-3
62
41
6
18
17
-4
18
10
-37
31
-23
3
6
-41
-95
36
-37
18
25
3
-79
-26
4
20
-24
-5
21
20
44
35
-53
-73
53
-2
22
60
90
-12
-16
55
-33
14
-30
33
40
4
-32
-4
26
49
50
4
37
8
1
-3
-32
-52
8
-13
25
42
29
11
19
1
-37
-48
17
-72
-5
9
-89
49
-86
-37
-16
-5
-7
-16
34
-58
-14
-15
-96
-59
33
8
-32
-29
-8
-45
39
27
29
-11
8
13
-13
-24
26
-54
-20
27
79
105
32
-70
-112
-62
-21
26
-17
-21
-29
21
-5
-10
-13
34
1
33
32
-26
-101
-8
-28
48
26
-27
36
48
77
49
-17
28
-45
-8
-38
36
0
-26
59
-13
-13
7
-12
44
1
40
-11
4
12
-39
-54
40
0
-28
38
-6
-52
-10
-42
-24
-2
7
11
-17
-20
-12
15
-24
46
-16
23
-23
55
29
54
-7
-14
70
77
-12
-22
51
60
2
-11
88
36
-18
13
58
18
-8
2
-67
-22
-80
16
45
-61
66
49
-2
-25
18
33
60
20
40
16
7
19
-28
12
-42
63
26
-2
-21
-25
-3
-38
-2
48
4
-19
-56
20
-7
18
-51
-15
11
127
32
30
-11
4
59
-29
37
-24
13
26
-6
-83
-47
-45
-15
-5
69
-17
-23
13
62
-52
14
-3
23
61
17
-53
-1
20
-90
15
-61
-83
-23
-53
15
14
-12
55
27
18
21
16
8
-81
20
-35
-40
46
-16
17
28
-16
-21
8
51
16
2
-8
-4
43
-35
-38
46
17
-39
12
36
5
-18
21
30
56
28
-11
38
-27
8
-21
-16
27
49
-4
34
6
30
14
55
27
-34
-4
-1
48
-7
-14
-31
54
-5
-43
-23
-23
-38
25
-8
-3
-55
-12
17
101
13
52
51
-68
-14
-50
12
-75
1
102
44
1
-30
-11
-51
6
42
43
23
21
6
-19
-23
-79
59
-27
102
1
20
41
21
-4
24
-61
72
20
-116
6
37
25
-15
54
-20
51
-44
28
92
88
12
60
-14
6
9
31
-46
-21
-29
64
24
43
10
-25
-15
-17
51
6
-24
44
91
42
4
8
-41
72
6
-1
-15
-10
77
-84
13
76
-14
-37
-83
-3
1
4
-9
91
64
33
-39
59
18
2
37
28
-31
-42
63
103
28
40
54
-38
-50
-93
20
-26
-106
-127
-1
35
-12
-48
-5
-1
-43
6
-18
-101
69
-76
33
8
6
94
-9
-23
-19
40
-89
8
-6
69
-67
29
15
15
-25
-55
-50
-45
91
-28
5
-21
18
-41
7
48
22
-8
25
-45
5
-6
22
-127
-127
-5
85
4
-2
33
-79
63
-79
-5
-37
-92
4
-16
117
-22
-10
11
-41
-27
31
-10
30
-24
90
54
25
-12
7
97
21
-42
127
3
-24
-4
12
6
-9
18
-39
-1
46
43
38
-6
28
27
-15
-11
23
38
-4
-5
4
36
-30
-10
8
32
-17
40
-24
-27
-6
-19
-49
-60
-16
0
-118
-5
103
-34
38
-30
-54
-21
-86
-48
31
32
-13
-38
-46
13
76
-1
74
-15
7
37
-31
12
0
-5
-32
75
82
-16
61
90
28
7
-72
-13
-31
-36
13
-11
-18
-45
-67
-30
-66
-73
48
0
-55
-2
45
30
30
22
-26
-31
0
-2
54
8
-68
-19
-7
-32
-15
-12
27
-50
-112
-22
24
25
5
-22
114
11
-2
-81
38
-5
-3
-12
75
47
-83
5
62
2
-2
-113
-24
127
30
-53
-20
-81
-14
-38
-9
79
2
-109
-10
-43
-3
-28
-83
-8
-51
65
14
-41
-72
-18
8
-24
-26
-6
18
-41
42
-65
-27
-86
-29
-12
-71
70
-26
90
-31
11
-59
-127
48
-97
-17
-66
-62
-48
16
2
52
36
-15
-65
15
-43
-40
-21
33
-49
-7
-12
-18
-3
15
12
35
-5
-13
-4
82
-28
-13
-127
95
-30
1
-19
-33
-5
5
-27
-93
17
-32
29
108
-107
-19
-49
-9
-5
-96
33
-4
10
65
39
-53
19
-2
90
-76
84
56
-68
-95
-15
12
-28
48
-61
35
31
-81
-45
-62
-16
1
-40
-19
-107
-22
-55
-38
-29
-9
20
-3
-85
-40
-7
-24
-8
-42
43
-96
-45
-8
29
-10
-78
71
-94
-8
-10
-12
11
-4
-78
6
-48
0
-63
-94
-85
-22
31
-5
-56
5
-81
-127
-23
1
-34
-49
5
127
-30
-2
11
-111
-2
-16
46
49
64
32
-62
-14
110
33
10
-8
105
-30
-23
35
-35
-127
-69
7
1
-68
-56
17
7
36
44
19
-84
17
-25
-66
-15
-6
-5
127
-104
-34
-8
103
-127
-80
-101
-127
-10
1
-64
-127
-55
-47
-6
-3
40
1
-90
24
19
-127
-22
-68
69
-6
-82
-121
1
88
-75
-14
-52
-47
-120
127
-28
-20
8
3
-87
127
13
106
-34
44
-28
3
-127
-127
-44
-12
7
-42
31
55
-8
-36
36
-42
-68
-32
76
-32
-47
-61
-43
-18
-14
-34
-34
-17
-17
-10
-7
-21
34
2
-13
35
26
-22
-33
9
-30
1
-21
-56
73
53
21
-1
39
-47
-40
-33
-20
-127
113
-99
72
82
-5
46
-79
13
7
-28
25
-14
-24
-32
-11
-92
-49
41
-17
7
-127
0
65
11
-10
-88
-1
98
-73
86
-67
28
0
-8
0
-49
61
60
29
-68
-28
35
16
-49
-59
25
19
-53
-26
-1
-9
-21
-40
-9
84
19
-5
120
6
104
8
-108
-9
-79
-48
70
12
-34
-32
79
-25
-56
-109
53
-23
-39
-6
-127
4
-127
-15
33
30
-12
-14
-14
38
-17
-2
-3
46
-83
42
-32
-36
17
-78
108
-50
13
64
-17
-57
-3
-22
127
-80
-16
-127
12
20
-30
-11
22
-37
-70
-20
4
-38
8
14
-59
-57
-17
-127
-41
30
20
-41
-19
-127
0
12
9
10
127
33
-36
0
-35
-79
8
-94
2
-51
67
42
-95
-90
-29
-49
-127
-36
-50
60
19
-15
-24
-51
7
-4
-123
-26
-63
-127
-86
-7
-127
70
-85
-89
-79
0
-33
-58
-81
-59
17
1
-53
-9
-6
16
-34
4
-24
19
-35
-36
-76
-116
-37
-9
-16
-22
37
-30
-53
24
-93
-127
54
-33
-41
-41
12
46
-61
-2
-48
-20
-60
-93
-43
-11
-34
-40
-100
89
127
-6
-3
-83
-33
-20
-127
-117
60
-36
23
-59
8
83
51
-111
-25
-12
-17
-22
-18
20
-24
-127
67
-28
2
-49
-18
-10
48
-37
62
-34
10
-78
-27
37
-90
-15
20
-12
-110
40
17
-38
8
-10
17
-6
127
-34
-34
-59
-27
89
14
76
-127
19
60
-61
-12
21
-77
101
-37
10
50
-30
12
-40
63
18
32
25
-37
42
65
-17
-3
-43
78
-8
29
37
-43
-36
-72
-20
127
-49
-30
-8
-34
43
-47
11
15
-49
-59
41
-19
10
9
30
11
19
-49
32
-88
-37
57
34
77
6
41
8
-70
-91
51
119
46
26
-127
50
-22
-30
4
81
25
46
-48
4
56
22
-4
27
-46
8
-31
36
36
-99
-27
-18
68
-46
-22
-56
-61
-16
34
13
-12
22
-4
4
52
-23
-25
-58
-94
87
11
-14
-17
45
30
69
-2
-47
0
-127
13
-53
110
-32
98
16
-23
51
-2
33
-8
-88
-43
-25
37
-61
-50
107
13
-30
-27
-29
33
19
26
37
-63
-88
-13
-3
-19
-16
13
-127
-5
26
36
-65
6
-1
11
11
27
46
-127
9
65
96
74
41
-100
-38
-14
9
-49
20
-37
-113
36
-78
14
39
-39
-73
-60
-15
-46
14
45
26
13
-30
-3
-74
-49
49
-8
-58
23
43
94
5
-70
-127
-7
25
55
26
-15
-19
-62
-27
-4
-50
47
108
-103
62
10
-104
26
113
-68
68
17
-103
71
16
-1
-75
127
77
-102
-102
-16
69
-13
-5
-33
41
27
96
38
12
53
-47
59
-37
81
-12
-60
-72
-12
75
-10
-63
-94
64
-52
54
-37
-9
11
-19
-7
-66
-28
4
25
3
2
63
-49
3
-101
35
54
15
95
-26
45
9
-18
56
-5
64
-14
16
125
-14
-21
-105
-6
-26
-94
31
-27
1
-3
-5
24
-7
74
39
-82
49
27
39
18
-60
19
-83
-35
127
-74
26
-5
127
-12
-16
26
-31
-19
-36
-127
-75
-7
-82
93
3
-2
12
82
-46
-19
127
92
-56
-17
11
34
127
-41
79
-39
-35
8
56
21
-51
25
7
61
-38
5
16
50
58
110
103
33
125
127
23
-127
15
8
33
-41
-21
14
127
23
-14
29
17
-3
-56
88
-66
27
15
-13
-4
-30
7
44
127
17
12
57
18
-6
4
35
3
80
16
-12
44
46
9
2
-127
43
-86
13
17
72
104
-4
-8
-25
36
-5
-106
29
-80
-33
42
-44
49
36
5
-33
20
-11
-53
127
-9
-19
-72
-25
-44
5
8
65
55
-104
-49
127
127
-39
127
76
22
69
36
-2
-14
-14
127
-67
60
59
-25
-60
-1
82
-36
35
63
-31
127
41
14
79
-63
29
6
-62
21
44
-101
63
-16
76
28
18
69
42
85
-4
44
-36
61
-82
21
127
-59
-50
71
-31
28
45
-11
18
-13
-11
120
-26
-21
34
-5
-3
-7
81
43
-11
19
17
21
-20
-13
-61
18
-6
3
-27
20
-112
-78
-5
-83
-15
49
102
42
30
-14
-103
-56
4
-26
3
-34
0
-14
75
38
-48
-3
11
-37
-43
40
52
35
17
-74
7
-42
80
22
-19
-51
61
-8
-59
-24
109
-31
-31
-37
3
88
96
62
3
95
65
-14
-127
-2
-3
32
-5
-52
-51
-44
67
-47
5
-12
32
-80
5
31
30
37
8
-73
-31
-57
34
7
0
117
-11
5
-16
49
-17
-62
84
56
65
-53
70
-50
-25
-22
-45
101
-19
124
-37
-30
0
23
127
5
-56
-27
23
-32
59
119
38
-61
-33
-33
16
47
32
-31
-66
-54
-17
32
-44
13
27
40
21
75
-38
8
11
12
-20
-28
85
-37
-101
-65
-22
-42
27
-58
-51
25
-12
-33
24
-3
37
-22
68
-42
-25
120
87
43
118
38
-16
39
48
-6
64
6
-43
-20
-4
63
66
9
-17
41
-2
53
-4
-39
-21
-96
-1
2
3
49
-59
-127
25
103
-31
-30
0
-127
-56
-59
127
68
5
-19
71
105
9
-18
-77
-22
127
-127
-38
52
75
79
-39
-35
74
-111
45
-127
51
-107
-18
-48
-25
-5
-127
24
127
127
-103
112
24
-127
125
21
127
0
-61
-3
-48
-103
46
-15
28
-14
12
-27
9
-57
-61
71
9
-30
-11
-2
-57
-17
127
57
-26
127
-41
-85
67
-10
-23
-23
-93
78
82
3
47
127
127
-25
-21
-91
97
32
-25
56
-67
9
71
-84
9
127
-19
127
56
-24
-35
51
-32
-92
2
127
-5
127
-50
95
127
1
6
58
28
-38
18
127
-83
18
-1
-33
-20
50
109
12
65
-11
-6
29
119
53
-41
18
-54
-47
62
-116
-1
-8
66
-60
70
127
-33
-7
-48
-28
24
86
-4
7
-61
117
40
127
26
32
127
-51
10
-70
-127
0
75
-48
12
-33
123
53
51
-87
-9
-21
67
-127
127
-11
35
-3
4
-44
7
42
-88
-36
19
50
30
2
-92
2
-43
4
-50
76
101
74
20
59
31
-50
90
13
-68
-97
6
-53
127
127
4
127
54
67
-120
-2
-49
-63
-91
-47
-59
-11
-30
44
-43
68
51
-123
-25
-30
-4
91
15
58
-124
83
72
127
-42
91
1
58
5
127
25
26
7
-49
-41
-103
-6
87
9
94
-109
43
23
69
127
24
-107
-110
45
-2
-13
-74
47
124
88
68
93
-35
108
53
-46
3
121
-59
58
-78
-55
43
127
62
79
-11
6
-28
-21
-10
47
-110
18
18
9
-94
127
-16
-106
-25
-77
13
-4
-50
74
-49
-27
4
127
24
41
83
9
-85
-87
-79
-6
-75
-23
69
46
-90
15
-13
-56
71
27
49
73
127
-25
57
-95
76
-3
-97
-64
-17
-37
2
-35
12
-14
78
-8
-78
87
29
127
39
-12
16
127
-4
-21
-19
51
2
127
-7
10
-25
0
4
0
41
-27
125
115
109
44
-58
52
38
127
13
126
63
-29
19
64
127
-61
-42
127
27
-68
60
81
127
25
70
-17
85
-11
127
81
31
23
59
9
94
66
44
-22
127
-99
-98
24
20
127
-3
7
-3
-85
-127
5
15
-75
-30
19
-21
86
127
1
98
109
127
50
60
101
-33
107
-23
-82
-61
-7
28
49
127
46
-37
76
-105
114
69
24
-17
65
127
-47
-14
106
107
-37
-32
11
45
16
15
-44
31
-22
22
-127
16
62
-58
-6
99
127
3
3
127
33
43
-51
79
36
-63
10
1
-31
-33
20
-49
-25
-97
-58
51
20
58
-24
120
53
-2
-11
-11
-52
-8
-12
32
28
97
15
-7
39
58
-61
28
127
-94
110
65
62
26
73
-41
-39
-29
7
-37
127
-23
15
0
-20
-45
48
-127
-10
-97
45
92
70
-59
-3
-5
127
93
-120
5
-24
-127
-19
-16
22
35
84
117
10
-127
-21
-51
-46
-75
-41
114
12
1
73
-39
87
127
108
-12
-127
16
127
23
-46
54
78
-42
-83
-22
127
62
-68
-5
16
117
-4
3
52
-127
124
5
9
-110
-48
-28
84
-84
43
50
-25
-28
-89
102
-48
79
23
0
13
-59
-75
127
-49
1
127
127
31
71
85
55
127
-11
11
-14
-62
-53
-44
-25
-85
-26
-20
-50
-36
-5
-127
-36
-127
29
-1
-36
-72
-100
86
-51
0
-75
-21
-16
16
-106
-75
-120
-40
-54
-30
-32
-102
-10
43
24
-46
-58
-55
47
-52
-68
9
-19
48
-64
-72
-125
-56
-13
-51
-45
-38
-127
-33
-15
34
18
-42
74
1
-62
-24
61
-30
96
-114
-99
47
-31
31
-105
-45
-27
-6
-22
-117
-12
11
-6
-8
79
-10
1
-35
66
47
-74
-6
-57
-44
-19
-61
-118
-24
-127
-46
-32
-89
51
-35
35
-10
-19
11
116
-9
63
-66
95
0
15
6
-71
1
-104
-3
-117
4
-16
-10
-75
-117
-83
18
-8
-6
-33
-93
-30
14
-86
-37
-30
-7
-98
0
-10
-34
16
-46
-39
-43
28
-127
29
24
-20
-29
1
-21
14
-89
-54
-77
-44
-47
-87
-11
-18
-127
-53
-8
-48
29
-2
-89
-25
37
-84
-97
33
1
-43
24
-30
-63
27
-88
-34
55
34
16
-47
-70
29
21
-69
8
106
-110
9
-17
-36
-37
-34
55
-112
25
104
-22
-37
-127
50
70
-47
-20
14
-39
-45
99
63
-22
10
-52
-31
58
-15
34
-86
-22
-77
12
-93
-71
-63
-8
-18
51
1
-23
-16
-17
31
-32
-14
-79
-79
-127
-45
-58
-24
-64
8
-6
42
-22
-127
-29
-99
-60
60
-32
-67
-96
75
-109
-42
-58
-46
-30
-19
-127
-5
39
-46
58
78
9
-6
-75
34
-12
-54
-11
29
-93
28
20
-4
8
-36
11
32
-26
-45
-127
14
-34
-19
-32
-92
81
13
69
-68
59
-55
-40
-10
-29
-96
7
-25
2
-23
60
-12
-26
-15
-75
88
59
-15
-49
5
92
75
3
-86
-17
0
-20
-13
24
-6
44
39
-89
1
127
-7
-80
-43
-65
-9
-17
31
-10
-15
-9
-60
-9
51
-74
-84
-12
-62
-69
-16
35
-75
-106
7
43
-20
20
-56
15
-11
-60
49
-19
2
8
45
18
127
-18
-100
-12
-21
-24
-23
25
-6
-87
-31
93
1
-64
-36
-33
67
20
-44
0
-7
3
-3
12
-69
31
-9
23
-73
-7
26
-82
-48
23
-20
50
-80
-49
-106
-35
-27
-33
-21
-1
35
14
-13
-44
-69
-11
-4
18
-13
-53
-14
11
-35
-61
-54
-25
-19
-48
44
-40
-36
62
38
-95
7
-114
-24
1
-61
-126
-70
1
-61
25
-23
10
55
-7
-72
-1
-34
-20
-56
12
-55
-104
5
-3
-111
-69
-21
43
8
-73
43
-80
9
16
-12
-5
-64
-71
11
-12
9
-20
-42
41
45
-58
-28
32
-8
30
-55
-32
26
-26
19
79
-22
3
-62
24
-27
-45
-27
76
16
-39
-27
-21
-92
46
-11
-79
-17
-38
-37
-68
-8
18
-15
4
-57
65
-77
-127
-81
23
54
-2
20
55
3
-8
-32
-127
20
-127
10
22
-1
127
21
-26
-70
-59
42
-50
-127
-5
10
7
-127
78
15
1
-46
41
26
-30
-3
-31
-35
-105
-58
-66
22
-100
-21
-72
-21
-55
10
-83
-18
-10
-62
-55
19
31
-52
-52
-11
71
-5
6
-19
-40
-83
8
-33
-63
30
-4
60
-14
-94
-53
-92
-28
-19
-77
-84
80
17
31
28
-122
21
-76
36
-62
-24
44
-38
-23
0
-56
-58
-11
-127
10
-61
-22
1
-44
-35
17
-19
60
11
-4
-30
15
-36
-80
-28
-49
-99
4
123
-19
-38
-17
36
-55
-5
-42
-26
13
-4
-26
8
22
-38
9
-19
-6
-127
-18
-32
-123
-19
89
-127
-54
-58
-127
-1
50
82
-57
-36
-56
4
-11
-9
-44
42
47
74
-28
-12
-120
-80
-105
-113
-27
-15
-110
3
-118
-35
-35
-53
-38
42
-60
-46
-13
-89
-91
-53
0
-84
-118
-124
-52
-39
8
-108
-106
13
48
41
-20
-27
-33
-65
-33
-127
-35
-84
19
-34
-127
-127
-108
-54
-127
-119
14
-57
-69
-71
-26
-127
-88
44
10
-37
-47
-72
-4
-66
-127
-82
-72
-21
-36
-37
-81
-40
-59
15
-54
-73
-16
-40
-31
-62
-39
-47
-36
-36
10
-127
-24
-42
-33
19
-96
-37
-4
-53
-51
-106
-74
-125
-79
-88
-36
-61
-40
-14
-72
-62
-2
-37
-67
1
-32
-127
12
55
-51
-71
7
-101
-11
-43
5
-41
-105
8
11
-42
-79
-127
-115
-62
-72
25
-66
13
-61
-42
-23
-79
-127
-4
-47
-7
-80
-78
-120
13
-118
-46
-51
-75
8
-36
2
-72
-18
-126
-13
-17
-87
-22
-40
-12
-52
-106
-127
-46
24
-109
9
44
-20
-15
-106
5
-77
-6
-32
-19
-25
-42
4
-102
54
-54
19
-120
-29
-8
-57
0
-85
-26
-121
-65
-127
-103
-9
-79
-94
-16
54
-33
-1
-41
-101
-29
-76
-108
99
-42
-103
-117
72
-26
-27
-88
26
-52
-31
-127
-8
-80
-98
-107
-71
-76
34
31
-44
-20
-53
-35
-127
20
4
-43
-28
-87
-84
-37
-81
-127
-31
1
-102
-109
62
-44
-107
-61
-101
-29
-86
-125
-44
-80
59
-120
4
-27
-9
27
3
-72
-51
-4
1
-27
-127
11
-17
-12
-25
-10
-35
-61
-57
-58
-47
-23
-1
20
-8
-9
-41
-106
-70
-18
-63
-115
29
-91
-74
-14
-51
-127
-72
-46
-127
9
6
-66
-27
-27
-65
-65
-38
-87
-45
-76
-94
-77
-99
-3
-89
9
50
-71
3
-26
-127
-103
-91
-3
-21
-68
6
-92
6
-41
-30
-107
-63
1
-62
-90
-18
-102
-35
-9
15
-61
-60
-119
41
14
-78
-11
-3
39
-30
-32
-101
-69
-72
-86
-26
-17
-31
-33
-40
-38
-32
-36
-99
26
-9
-11
-38
-66
7
-53
-45
-4
-127
-34
-4
-48
-102
37
0
21
-40
-20
-70
-94
-107
3
-93
-18
-69
-14
-39
-11
-9
-14
-47
-42
2
-78
-81
-20
-42
-44
-7
-6
-39
-75
-14
-13
-28
-100
-127
-97
-25
-127
-23
-91
0
109
-127
-43
-78
-69
-52
-70
-39
-42
-73
-48
-40
14
-118
9
-26
-109
-67
-42
-17
-23
-40
-91
54
-127
-15
-6
-35
-51
-48
-52
-45
-29
-48
4
-92
-9
-13
-127
-57
-122
-71
9
-40
-19
-66
12
56
-64
-127
31
-71
-127
13
-18
-81
-21
-2
-111
-16
-127
-91
-27
-1
-14
-32
-77
-9
-11
7
-30
-18
26
-55
-95
-43
-1
-87
-24
-84
-73
-46
-14
1
-6
-126
-76
-68
-32
-55
-74
-19
-18
-41
-59
-14
31
-60
-106
-127
-45
-26
-64
-42
3
2
-61
-17
-85
-30
-55
-26
-95
-64
-40
-16
-67
-127
3
29
6
-9
51
29
-92
-55
-29
-1
2
126
-6
-45
-107
-32
-127
2
26
-41
-49
14
-76
-75
-127
-127
-39
-30
-51
13
-48
9
-13
-85
-50
-99
-80
-119
22
-127
-127
-73
-31
-127
-124
-95
4
-14
-29
-88
42
-66
-87
34
-1
-125
-56
17
-21
-67
2
-43
-13
-35
-28
-37
15
-46
-33
-60
-73
4
-70
-52
-98
-68
-55
-35
-85
-35
-21
-22
-1
-71
-32
-88
27
-52
9
-7
28
-14
-10
-13
-87
-115
-30
-92
6
-41
-6
-11
-97
-67
-32
-35
-32
-77
-127
-28
-13
-28
-70
-86
-97
-48
-10
0
-28
-50
-51
-87
41
4
-17
21
-90
-76
-46
-45
-22
-24
-15
-54
-92
25
1
20
-32
-49
103
32
-69
-46
-53
-69
-4
8
4
-32
-84
3
-127
-127
-86
-127
-127
-15
-127
-17
-74
-86
-102
-57
-109
-31
-55
-42
-37
-47
-78
8
-30
-61
-119
4
-36
-67
-61
-100
-8
38
2
-92
-127
33
-79
-127
-16
-102
-44
-77
17
-3
-22
-3
-45
-12
-16
0
-68
-106
-9
-54
-127
-15
-127
-71
2
-23
-87
-127
50
-54
99
20
-15
12
-26
24
-45
-25
-114
20
-127
-127
-67
-127
-113
-115
-127
27
25
-35
75
-104
-37
60
-22
-91
-51
3
43
48
-101
-115
-32
-11
-9
-90
-3
-59
-121
7
-77
-23
-46
-127
-27
-22
-41
49
-43
-127
-7
-73
-49
-78
-78
0
10
-84
122
-8
-24
-33
-34
-40
61
-76
-39
-105
-111
8
-28
-94
-58
-33
-127
2
-90
-8
-110
26
-38
-63
42
-23
-127
-4
25
-30
-99
-25
-65
-57
-26
6
-83
-127
-9
-127
-1
-17
-32
-127
-59
-109
38
-16
-66
-64
127
-86
-17
-50
-10
-127
-127
88
58
-29
67
-78
-62
-10
78
-56
-127
-54
-79
-127
-127
-59
-16
-34
116
3
-31
-87
104
-43
-127
-81
-51
-46
-38
-22
-127
-127
70
-102
29
-19
-4
-59
2
-2
-80
-127
-45
-1
45
-61
-95
10
-99
-46
-5
-95
-58
-127
-42
-95
-127
-127
-119
-127
-127
18
-100
-52
-22
-102
-106
-96
-115
-51
-8
87
-7
10
-89
-77
9
-17
-5
42
53
-95
3
-102
13
-62
-24
-9
-74
-76
-47
-80
-77
-127
-75
-45
-111
-31
-101
-25
-114
-113
-44
62
69
-114
-12
31
-127
6
-59
2
-69
-67
-127
-86
-127
54
-10
-74
-1
-78
-38
18
-127
-88
-127
-74
-77
-110
-62
5
-60
-107
-52
-66
62
27
-34
-42
-127
-98
-27
-9
-119
33
-9
-51
97
-77
-25
-3
-8
-74
-19
-3
13
-89
-64
-20
-55
-70
-22
-10
-127
-99
55
-41
-49
-17
127
-22
49
-36
31
-36
-127
-127
-52
-65
1
-15
-127
-127
-78
-109
-83
-45
-115
-36
-77
-2
12
-94
7
33
-6
-85
-1
-12
-106
-101
-51
-75
-92
-115
-46
-6
-123
-21
8
-35
-44
-72
14
-96
33
-35
-127
-34
-46
-63
-66
-30
-127
-99
-127
-12
-9
15
-24
-72
-84
-111
-70
-67
-60
55
-39
19
-109
-111
-56
73
-118
-21
-86
-113
-47
-126
-111
-49
-89
0
38
-127
-127
-28
-2
-89
-127
-12
-104
11
-99
-101
-123
-91
-31
-31
0
-81
46
10
-31
-5
12
-54
-7
-127
-61
-16
-127
-115
-104
-127
-91
-127
15
-127
-48
-45
12
-105
-77
-51
-79
-71
-127
-127
32
-102
-127
37
-7
-127
-105
19
28
-69
-41
69
1
-79
54
-70
-50
5
-18
4
-48
49
-83
-100
-106
-42
-6
-83
-52
-46
-101
77
-31
-103
-63
-23
-127
2
-127
17
-35
20
12
-33
16
70
-111
-32
-28
62
-87
35
-76
4
-58
-12
-28
-10
-127
17
-124
-24
-30
-54
-20
-1
-127
5
9
-83
-127
-9
-97
-127
-14
8
17
-101
-28
-98
-38
127
-47
-55
-31
-127
-20
-57
-79
-127
-62
-79
-23
-88
44
-96
-127
-53
-32
1
39
-2
-9
-38
12
-127
-109
-103
102
-44
31
-8
-21
-56
-58
-119
-38
-43
2
-79
-91
-127
-64
84
-66
-28
-15
-57
-90
-61
-88
-116
-19
-70
-84
21
52
-56
48
-97
-127
-42
-28
-85
-14
-54
73
-10
-127
-48
127
-127
-75
-54
1
-31
-47
-72
-100
-70
77
-17
5
28
-99
-52
-35
-106
-112
-27
-127
-58
-59
-93
-50
-31
-12
11
-4
-127
-14
-70
-125
35
-127
-127
0
-84
-127
-53
13
-6
-16
-42
-20
-19
-41
-28
-27
-75
-63
-123
-66
-3
-5
-25
-75
19
13
36
5
72
4
-30
66
29
-88
-54
-46
-8
-127
-127
-36
-29
-53
63
-56
-27
-71
-60
-48
-82
-92
-98
-28
-25
-97
2
-40
-127
-28
-17
-127
-34
-81
-64
-69
60
-32
-80
46
-41
-40
19
-39
-67
-9
-19
-60
-39
-96
48
-7
-93
-34
21
-18
-33
-71
-121
-61
-1
-67
15
-48
-76
46
-78
-17
-41
71
-46
-21
-33
27
-13
-104
-58
-9
1
-121
-7
64
58
-81
23
-60
-43
-35
2
-16
-13
-7
-124
24
-91
-51
38
-7
18
-79
-77
-57
-127
-2
25
-117
-33
-71
-127
-54
-96
-104
43
49
7
-95
116
-10
-53
23
-25
48
-43
-35
-62
-17
-46
28
-41
29
-11
-88
-16
-57
-48
-6
-96
-127
-96
-58
24
-5
-52
-5
-36
15
17
-108
23
36
-71
-39
-127
-127
-12
-83
-101
-18
-22
-77
19
-62
-52
-49
-20
-92
-127
-18
41
-127
7
7
-3
-107
-48
-28
-69
-82
8
-30
-69
-19
10
-127
-13
-46
-63
49
-27
-53
-41
-85
-31
-120
45
-45
6
0
-25
-22
-53
-13
-1
13
-75
-66
-69
-69
24
-40
-48
-91
-22
-42
-1
-60
-66
-40
-11
10
36
-127
12
-71
-49
-127
-15
-114
-27
33
0
-127
-1
-8
-127
-48
-63
-127
-8
-110
-69
38
-83
-63
13
-81
-7
-38
-12
0
52
60
-19
31
-81
-9
-45
-55
-62
-27
15
-23
-79
-38
-62
-127
24
-2
-10
40
-9
-38
2
-45
-127
69
-37
-64
-31
-106
-40
-12
-78
-88
-31
13
-13
-34
-92
-59
-28
-11
-94
77
21
-5
-11
-63
-105
-49
35
-42
-8
-55
-2
-10
-127
1
11
-18
-80
-22
-48
-100
16
-40
-15
82
-106
-23
-43
2
-18
-60
10
-24
-51
-52
19
-68
-31
-68
-92
-61
-67
-46
-84
-26
15
-66
-47
33
-121
-5
-80
-65
10
-107
-13
15
-49
-76
-24
-36
-29
-8
-127
-34
-32
1
-114
-8
-25
-11
-79
5
2
-28
26
-20
-62
1
-6
32
-46
-96
-88
-42
-13
31
-117
25
-70
-117
-79
-106
-74
10
-115
-58
-53
4
-19
-40
18
-53
-127
-19
-30
23
-4
-7
-24
-88
-63
-116
88
-20
8
-52
-44
-26
-6
-52
-38
30
12
-24
-5
-37
-20
-53
58
-47
-92
9
-96
-50
-10
-21
-127
-4
-100
-51
-35
-83
-73
7
20
-70
-16
-72
-127
-85
-6
-55
3
-12
-75
-63
-40
-23
-49
-5
16
-38
-38
8
-18
11
35
-92
-27
53
-98
-14
-72
-66
-25
-30
-51
32
-9
-48
35
-127
54
-127
-13
1
-77
-68
-75
-48
-76
-96
43
-67
40
-24
12
-45
36
-7
-91
5
-55
-38
-22
16
-14
11
8
-12
-2
-106
-1
-46
1
57
-52
49
-99
32
-6
-18
-55
14
-24
5
-53
-119
-63
-48
5
-56
22
-67
-84
-5
-2
-65
34
-46
-47
5
-118
-63
-127
-58
-41
3
-23
-6
-67
-77
-36
-58
-71
-111
3
-18
-47
34
29
-127
-67
13
-92
-27
-33
0
-54
-20
-45
-50
-64
-39
-81
-74
-36
-78
-62
-20
33
4
-14
-5
127
8
-14
-62
-6
40
-43
-52
4
-16
-13
-24
45
-30
-49
-81
-79
22
-45
-106
20
-102
56
-46
-56
-16
-26
-10
-31
0
-10
-5
-61
-51
-47
-92
-63
-61
-24
-22
-73
-83
-25
-60
-127
-91
-5
-98
-25
36
-44
14
57
-89
-94
-47
-81
-63
7
15
-72
9
51
36
127
-49
-15
-95
-4
-4
-35
8
26
41
-11
28
-1
-56
-36
15
16
-29
-16
-17
-92
43
-38
-68
14
-3
-7
0
-13
-13
76
-23
83
-28
52
11
-98
-28
-33
-9
22
-9
-19
-6
-43
20
-34
28
8
-26
32
-2
-26
-36
-17
23
3
-4
-20
-21
19
60
-46
1
-15
8
80
-18
-35
26
19
-13
-50
-59
51
-25
9
-6
4
40
36
49
6
-28
55
13
-24
-5
-11
38
2
53
-28
-21
8
127
-21
7
-14
-77
1
-127
23
-33
-2
-7
-7
41
19
-56
9
52
-45
-11
32
-64
-2
-26
36
-21
-9
1
24
-72
-34
-45
20
-46
10
0
-23
65
15
0
-36
12
-25
15
18
-77
-22
-10
-13
3
-49
-9
36
-11
-29
-16
10
28
98
-93
75
3
-72
9
8
-127
15
-3
-63
-42
-127
-53
-21
17
-58
-81
14
-13
-26
-42
-7
30
5
-65
-4
-89
-125
-28
-13
-51
-49
-12
15
7
-21
-24
-57
1
-54
-9
21
3
-30
-20
31
-2
-82
-13
-20
47
-25
1
73
-15
-2
7
-16
-25
12
15
83
26
-6
-35
3
-32
-60
-40
15
7
-14
38
-17
-15
9
15
79
-29
7
31
-2
-44
30
4
-39
29
-93
54
-12
13
29
-32
51
36
18
-6
-17
55
127
21
-10
34
-6
7
-18
-11
2
1
28
-8
-27
-1
-31
66
-3
-46
-13
0
-9
10
-61
-10
-26
-30
0
-15
26
-38
15
-6
-5
-11
29
26
-127
-45
-32
-14
22
-32
-17
14
-20
11
0
20
8
14
47
63
13
-4
12
16
29
-33
14
-10
65
-106
-13
-44
5
-36
39
-6
54
0
4
-48
-41
-56
54
-48
-13
-22
-14
24
-22
15
11
-50
0
63
11
-22
-13
-98
-22
-1
22
-13
26
75
-40
8
3
24
33
-51
-41
-2
-14
18
-2
-16
25
18
40
3
-6
1
-5
38
-19
-35
-21
-24
-54
12
41
25
-27
7
-63
10
13
17
-5
5
23
3
34
-33
-55
5
-25
52
-6
62
-31
-79
13
-11
57
-77
3
127
-19
-3
60
-41
20
22
-2
17
-2
-61
-8
-31
-24
-19
22
58
18
-111
-21
54
-15
-1
18
26
8
-12
-58
-6
-17
-127
10
-35
-17
9
55
-15
-13
-34
-11
45
11
60
23
-39
-2
-36
11
3
21
74
-68
-16
-11
31
-12
-30
9
-52
23
62
-34
-7
-33
40
-5
-37
-24
-8
31
-7
27
-18
-4
8
-26
-30
-13
5
19
3
-23
-24
-39
2
23
0
24
4
4
-12
-22
10
0
3
-23
-15
-40
51
-6
7
-55
-54
2
18
-30
-63
6
6
-24
-26
-7
127
55
-49
-8
53
-6
15
-9
-1
84
-28
-9
-50
57
67
11
15
-1
38
-5
-83
-67
15
80
7
16
-6
-21
-59
101
-14
-5
-19
-40
26
36
19
10
0
-15
-127
-39
19
3
-29
56
3
4
-78
-10
-12
21
28
-12
5
62
-98
7
-49
0
-29
-47
-59
-8
-14
-32
-52
8
45
20
-21
94
-38
12
-62
-59
11
-11
-52
-23
-9
79
36
-70
12
-3
-1
2
25
-42
6
51
33
9
-104
-53
31
26
-3
19
-1
-17
-5
21
-46
10
14
10
87
-87
26
-3
16
-4
-56
8
13
-54
19
65
48
-7
-3
-68
-19
-67
-39
-12
-11
5
15
-56
-25
45
18
29
-15
72
-5
-17
-47
30
7
-15
16
17
-10
-39
-34
-46
2
16
3
70
-40
9
-66
61
-19
-11
-84
-25
-37
-52
-40
-52
49
-1
-67
33
-4
21
-86
-32
49
87
-49
-51
21
11
-52
75
7
49
6
9
-14
-78
50
38
-65
5
12
14
5
-18
-88
-37
-16
-16
-17
-15
-42
65
-12
-13
10
11
19
76
-14
52
14
-5
29
8
55
31
-42
5
-33
-33
-16
-52
-37
62
-19
-37
-45
58
-3
-43
-51
67
-44
31
-5
-3
11
-16
47
81
-69
7
-10
7
2
63
61
19
-61
-36
31
56
65
-43
-62
2
-59
-37
20
42
-18
-127
-29
-7
-22
0
-7
16
-3
-24
4
-19
-27
0
-20
127
42
-104
69
3
4
-8
19
2
-18
26
39
-37
59
5
-6
20
59
-5
-45
-102
-11
-28
-59
11
-44
21
-36
20
-106
34
55
-24
-61
-5
80
69
-44
-41
-32
-29
24
-14
-45
-40
32
17
31
-66
19
48
11
-45
22
43
-62
-1
23
14
10
-9
-103
78
-19
23
10
-63
11
15
22
-46
-38
-37
-27
-50
78
79
-80
-55
36
14
-30
-5
-8
-17
-34
-9
-13
7
-99
-36
-39
35
4
0
14
127
59
-12
31
-40
-1
-42
-93
60
-9
34
-4
-21
30
20
-37
-30
52
4
42
12
15
-25
-8
113
-63
25
-11
-59
37
19
-54
-46
-37
-14
-14
50
30
45
2
76
15
-28
4
48
-1
55
36
-8
56
17
-28
-106
-29
7
-59
-28
-54
27
31
-40
-33
-16
-41
-6
72
8
-40
-46
-75
-2
7
25
43
69
-127
-71
-29
-3
-11
-78
33
-30
-7
-12
-16
-50
-16
-38
23
8
-5
36
-64
-16
-7
-65
-13
-23
-54
-49
-63
8
-46
-39
-17
79
12
34
12
69
-24
115
2
53
-22
-61
26
58
-103
18
-30
7
-51
29
-37
-55
5
0
127
13
-9
-4
79
10
44
-90
13
38
92
-29
32
-10
-14
-11
28
-59
-17
-27
41
-6
18
3
-23
-30
-31
22
5
-19
-10
102
12
-62
-42
95
-10
-51
67
-18
-7
-44
19
20
-31
5
-4
3
0
8
11
-36
42
47
39
127
-3
61
-103
93
-38
-127
-8
-30
-17
29
-13
7
-24
21
-5
-44
-13
53
23
5
51
-25
3
12
30
-16
-19
-24
-6
44
18
2
-62
78
-64
53
16
-6
11
-39
-43
48
-17
84
51
6
-39
29
14
-32
53
25
-34
-63
8
-57
51
75
-37
0
9
14
123
-25
-46
-91
6
-15
-11
-36
-69
75
-53
-79
-22
-58
-31
68
-78
-88
-60
-28
-46
10
-91
9
-31
33
33
49
11
50
-22
30
30
-47
15
12
-14
-50
-43
-2
27
-55
22
-1
89
55
25
-56
15
-14
11
4
-40
86
71
-48
-47
-20
-5
-54
30
-22
-4
-7
-23
24
79
25
7
-47
-71
-4
-15
9
22
47
74
5
10
32
33
-127
2
4
-52
-44
-17
24
-3
31
-17
-52
-3
2
1
42
-11
-16
-28
33
19
-5
-29
-18
-81
74
12
-54
54
45
-85
-7
-127
-18
5
19
83
-25
41
-39
-49
16
-79
104
-82
28
-92
-37
15
11
-19
-15
-70
-49
-11
-21
30
54
-42
-19
7
-20
34
27
-10
30
-35
42
72
-39
7
-38
-94
9
-3
-9
15
-111
-85
-10
36
-79
-16
-66
2
-30
-48
-10
-108
-24
8
17
98
27
-14
-18
43
-110
-4
7
-27
-81
-77
-67
25
11
-17
30
-27
21
17
-45
58
-7
-5
1
-16
32
1
-70
-29
97
-20
-21
-52
-30
-96
-84
-19
-121
-68
-35
-83
34
28
-95
17
23
43
-52
19
-54
-30
3
-73
18
37
-13
47
31
83
9
-63
49
-35
127
-9
127
3
12
20
56
28
-28
-40
70
27
-93
62
32
-45
-20
-34
30
-17
-73
-57
-3
30
2
18
108
8
-4
64
38
21
2
-65
-47
2
3
-67
4
-17
47
-6
70
-3
80
-13
-19
-34
67
0
-54
-35
-35
-9
-40
38
-67
127
-21
1
13
-37
-24
19
-110
-31
11
-8
-11
47
-15
12
-57
-8
13
28
-69
7
-10
54
-33
27
-6
-58
11
-17
-8
-17
106
1
25
42
11
36
-19
-27
-31
-19
-101
22
127
29
29
5
13
-42
72
97
-49
-7
55
70
2
-45
4
-17
-88
-53
-75
-5
11
-52
127
26
32
88
68
-90
-14
-42
97
-9
-12
50
-66
-43
15
20
5
-21
-26
24
47
105
59
6
-35
45
-18
-9
26
-55
-7
-94
-27
-61
-26
-4
-68
-75
-5
-9
9
-13
16
64
-24
-18
23
-80
77
25
-33
-15
12
46
-39
-35
-45
-27
18
6
-27
-24
32
-45
-3
-34
53
-1
-3
-38
-58
-15
16
-40
8
-30
-21
11
58
-122
-25
34
21
-46
-3
13
54
-7
-16
2
-16
-127
-34
-38
-31
-2
-53
65
80
-5
-14
6
-76
39
16
27
18
-3
-64
-27
-39
30
1
51
127
27
29
-17
5
-7
3
85
-3
-127
21
89
3
55
-95
-31
-63
28
-34
60
127
50
-122
-83
-27
6
15
79
-23
118
-3
-23
-85
56
-42
72
-28
24
11
33
-25
-36
-5
-48
-34
41
-22
63
2
30
-41
-21
111
-76
-39
106
4
-3
-32
21
-41
53
11
20
69
29
-7
30
24
-37
-19
-4
-11
-16
-43
45
10
19
52
127
69
-2
-15
16
1
28
-19
-64
-21
45
13
7
1
29
-3
-27
-26
-18
42
-48
-79
-15
-21
20
14
-21
36
30
-33
21
-67
7
-29
23
56
0
-11
-44
-15
-19
-41
54
-30
-18
15
14
17
-75
2
-28
-15
-2
-36
82
-4
15
-32
21
-11
24
5
9
55
-40
-46
-61
-21
-16
15
0
6
-21
6
-68
-55
-19
23
27
-11
6
23
52
-8
19
-5
52
28
15
127
-74
-37
-2
0
-44
52
21
127
-34
-68
23
-102
-16
121
-26
75
-79
-21
-78
-5
-18
4
-14
-69
-56
-46
30
84
110
55
-32
-1
39
1
-82
127
32
52
17
-33
19
-10
119
-50
-4
31
-68
42
16
-23
-34
-32
51
-67
-2
127
2
19
38
-3
-54
102
34
-18
4
0
18
73
9
-39
80
26
17
16
-60
-2
76
-6
-21
59
29
-36
63
-61
-77
-27
-55
-2
-88
-16
-59
-73
25
-5
10
-12
17
7
-22
39
103
-15
30
-23
-127
-17
-4
-42
63
-24
117
41
-41
40
67
-29
-13
-13
-7
-25
-22
-28
12
-8
19
-17
-15
-10
13
-13
48
34
-5
-101
-127
-98
19
1
7
-66
-63
3
26
9
5
-85
58
-32
27
-35
-23
15
-71
-14
126
80
-35
-4
-40
-29
-47
127
-8
-47
-8
-83
59
12
16
50
21
-31
44
46
23
110
14
11
-71
-49
60
1
-19
3
-4
-27
48
43
40
62
21
29
-17
-55
19
-49
7
-113
13
11
69
18
-9
-10
20
-19
-27
0
-86
25
32
-22
16
-1
-51
-61
23
-47
-37
28
-22
-91
16
-12
-23
-34
-36
-13
39
-41
-6
80
-16
42
-35
-41
27
29
36
27
44
-15
-15
-9
12
2
44
-20
-4
88
22
2
127
-2
-67
7
-12
18
24
-50
-2
-25
25
-73
14
-36
-55
35
28
55
-30
27
2
-72
-56
8
-30
-25
-14
-28
-20
-28
12
38
-24
-51
5
-42
41
-13
-11
-61
-74
34
-37
-85
-99
-29
8
0
-109
4
-6
25
106
3
-45
47
23
51
-17
-15
-10
-17
14
-11
-18
-2
1
13
32
-24
20
-30
-64
48
-44
-3
4
16
16
-48
-34
-35
22
-4
-15
17
-84
7
58
-36
-11
-32
-27
-8
-93
3
45
21
-70
-4
-16
-5
11
-36
-47
-51
-11
-23
10
-75
-101
35
-10
-78
-47
-114
18
-58
32
-18
-22
14
109
12
69
-37
-5
-45
127
-62
19
-7
-19
-57
-1
-53
-17
-36
127
-6
13
-6
-63
41
-28
32
-65
-49
-21
-19
15
-41
67
-66
-19
3
-5
18
1
-127
42
-23
-8
-21
-72
-17
-127
-5
68
-35
33
-3
1
88
7
-95
-20
67
2
-40
-21
-58
-3
104
16
-28
17
80
-45
-70
-18
-84
-35
5
12
-41
-17
-24
127
4
4
-24
-21
49
30
14
37
-47
-29
58
64
19
-50
-6
8
28
26
-2
4
18
-44
-115
-58
-22
-51
11
-47
-37
18
-127
38
5
31
-1
41
1
-24
16
-7
-22
68
-29
-35
-104
5
-37
-88
15
37
15
-35
35
1
-55
22
-43
-8
95
-21
0
-9
-3
-10
88
-95
-27
-7
-79
-45
-6
-5
59
-43
42
-70
-14
-35
12
3
33
-68
-43
-42
-23
-54
-28
30
39
-60
-15
-50
127
-35
2
-11
26
-19
11
78
28
-11
-28
-31
6
-127
-56
-62
1
-35
-9
-53
13
-2
54
29
-25
-3
35
4
37
31
24
-5
-6
-49
-8
31
2
35
0
2
34
99
21
5
52
-2
38
94
-13
27
127
-61
12
-110
127
-7
-2
-35
-14
-17
34
16
9
66
-14
3
30
13
-54
-75
8
-10
-4
16
25
-13
-61
-34
-19
-68
42
-20
-127
-127
127
-13
14
56
41
-6
-78
-7
-20
-97
-10
-14
-5
3
-119
-24
-16
26
-127
1
-3
15
-20
-3
-9
12
-20
-39
-11
4
-33
-20
33
68
-11
38
23
23
13
10
-8
-2
-8
21
-101
-10
-14
-51
-75
-30
3
1
3
40
4
-36
46
-4
-63
-30
-9
-62
12
6
-16
-22
-2
-45
5
-23
-65
-75
87
-84
-46
-54
-58
-127
4
4
23
49
42
57
-22
-37
-80
43
-5
33
1
8
29
-7
-5
-11
-4
61
4
13
38
13
-4
-12
39
-62
2
-58
30
-14
37
0
8
16
-18
77
-4
-12
8
13
-17
-71
37
-1
58
-5
-23
13
-31
26
29
6
-1
115
-16
40
9
38
-69
-23
-4
16
24
-36
-12
-28
13
126
-7
13
13
56
-45
63
-17
15
-2
-81
7
16
-12
-6
-77
40
-52
-27
-6
14
-21
53
-76
34
30
2
-12
103
9
-6
-10
-11
1
2
27
-16
-39
8
-35
127
-10
8
-12
46
-23
-16
28
-37
-41
12
39
68
22
-95
4
19
-106
-4
28
-20
38
127
2
27
-9
18
26
13
-27
-51
-82
-8
68
19
16
-61
9
-73
-6
-12
-46
-19
19
-11
-11
-18
-21
39
45
-67
-52
2
-81
-57
9
-32
8
-25
-29
-40
15
71
8
-17
-13
-127
64
-24
-26
38
56
-42
0
-50
36
-17
-6
39
15
9
-8
29
-20
-4
-17
-47
-11
4
-49
3
-4
17
-18
21
-70
104
-9
33
39
-22
1
-16
-31
-13
13
127
18
45
8
3
1
-9
81
16
7
62
-95
5
22
-110
15
15
47
-48
-88
41
-7
44
4
-16
-35
-1
-64
-39
44
-15
-11
-44
8
-35
-30
17
-3
-88
-57
-25
27
0
-32
-19
-41
-20
-12
21
-22
-20
-35
-12
-34
56
127
-21
7
8
59
-30
84
8
-88
61
-23
127
23
-31
10
-2
22
17
127
12
30
16
-14
55
85
54
-63
31
-68
-19
-14
121
8
53
-20
6
48
-29
-30
-10
-15
10
-22
-15
-27
-16
-6
-28
65
-38
5
22
7
9
-55
14
24
-4
45
31
-17
-24
-30
4
8
-17
-70
-7
-127
14
-21
-13
-10
-4
-9
-31
-17
-21
1
-55
-27
-9
38
6
1
73
10
23
-18
-93
-2
-68
0
-4
-18
5
-19
-20
-66
15
12
87
31
-4
-5
-43
3
-6
-3
-3
9
56
74
-8
38
-8
5
-56
22
-27
-37
-12
-67
11
-10
33
-14
2
48
-14
-12
-56
32
-59
-53
55
4
18
-19
5
-33
-47
50
4
76
16
-3
1
-31
-13
-57
127
-13
-26
16
28
127
-63
-5
24
24
-6
-15
-75
-15
-26
11
-127
-127
-20
-16
-18
-7
-18
26
-21
-11
-50
-16
-39
-4
-5
-121
14
-39
-89
15
11
97
-65
-10
67
-32
8
10
-44
30
80
50
-29
115
73
77
-24
22
2
11
-47
127
-24
9
18
10
-45
-27
-3
57
-16
127
72
77
1
15
8
39
-43
-40
17
-1
-19
9
33
-30
-43
2
-6
16
-31
26
9
3
127
1
8
83
41
46
2
-23
-28
-39
127
-3
-37
8
34
-10
-58
-12
35
-43
-7
23
-15
-11
-26
29
-121
-18
12
-107
-18
60
-72
1
31
-23
45
6
18
79
32
-4
19
-43
-3
-50
10
-24
9
-14
-42
-17
-34
-19
92
43
29
-29
2
4
29
-13
-12
127
-40
-34
82
80
-42
12
-18
10
62
-22
72
41
-6
-3
-37
-85
-68
12
-13
32
-4
7
-50
-31
-4
-5
11
-79
-39
26
-16
11
-127
-4
23
-31
-15
3
-19
2
8
21
-23
-127
-17
71
-40
61
-15
-9
54
127
-53
19
24
-90
14
0
-127
-2
-6
-45
-12
23
-15
-83
8
43
-103
52
58
-16
-30
-43
21
-44
8
-45
23
23
-11
-16
-29
1
-9
-127
-19
81
87
-67
-23
70
-37
0
-36
19
10
-18
-85
24
-19
-15
-14
-23
80
-25
-82
-3
26
-8
10
-16
6
-31
18
21
61
-70
-18
-36
-20
34
59
-50
-51
-11
-32
-8
-14
-71
2
41
29
-6
76
-9
127
-1
0
2
20
9
35
-15
127
-20
-21
5
-13
-57
-7
-17
-4
6
33
-88
-15
66
35
88
-3
53
22
-21
-4
-16
14
-5
-14
15
3
-70
-75
-7
-47
-56
18
21
-48
127
-35
-8
-1
18
-24
-3
-15
-42
-16
-48
22
-8
103
-26
14
43
46
-39
-44
1
-39
-33
-37
36
-21
19
6
-79
-13
26
17
-21
-33
-4
111
-27
40
34
-1
-6
33
5
-30
-18
-56
-26
-61
12
-4
-36
-1
46
-127
-19
13
-64
-28
-8
-9
-59
31
-7
35
23
5
4
31
10
-26
-44
41
18
2
-6
76
-6
69
18
-25
-19
39
15
-27
-127
64
29
-6
8
-23
-50
127
-20
-58
-17
-17
12
16
53
-37
-69
-80
-27
-87
-58
3
49
-15
-87
-16
-47
48
13
-26
1
-44
60
63
79
30
-6
6
-20
-18
-19
-12
19
15
-11
60
46
-32
-61
-39
4
6
-39
-14
127
-33
17
-18
-7
-14
58
3
24
19
-8
-6
-127
-49
40
-8
-72
74
-27
2
-19
-22
70
-25
30
-22
46
11
3
-31
56
-15
-1
-4
-8
-10
-32
25
-43
-12
-46
-34
22
-66
-7
9
22
-91
-5
91
-29
-50
-8
8
-2
13
30
92
-5
-10
5
-21
14
-29
-49
31
93
-9
9
5
-111
64
50
-4
0
6
-9
6
7
-32
3
-25
2
8
1
2
-39
-10
12
-42
-1
12
2
-17
-41
29
32
15
-15
46
10
-3
95
-21
35
4
-127
45
-68
-101
49
11
13
-44
-106
39
-41
-25
-43
51
63
13
-14
127
4
3
57
1
78
-88
-64
25
-63
15
-32
-11
-22
7
16
9
0
9
8
-17
-40
40
-91
-42
22
18
-4
-3
27
5
-19
-17
-38
14
62
-10
-16
-10
-38
-9
-16
-38
3
45
15
21
-76
-14
42
14
-9
13
80
13
20
-18
31
-11
12
-77
57
57
52
32
-37
-13
43
-26
-12
17
-50
-27
-30
11
-26
-44
73
-5
127
-13
-53
-11
-26
-26
-48
18
-31
-30
30
-122
17
-78
-4
4
-1
-1
-10
14
-29
22
-9
-66
6
24
-64
-10
30
-40
-34
-70
2
-31
13
-4
-24
1
-40
-10
-65
-22
-18
-35
11
-5
-15
-2
-22
43
-46
1
-25
41
-22
-24
-14
35
-13
13
82
31
57
10
2
-51
-3
92
23
-2
-33
-65
29
-11
-1
-28
-6
-33
15
-22
42
-37
17
-3
-67
23
-14
-18
-2
9
-38
-4
0
-39
26
-1
4
-38
52
-18
7
-85
-5
40
-26
-56
-42
-61
-103
-12
-46
-28
0
-59
7
-92
4
33
49
56
-11
6
-19
39
-21
79
13
26
0
-77
-18
100
34
-127
-48
50
-6
-127
5
-110
47
-44
-12
31
10
50
-2
94
8
8
30
0
12
-29
-22
-3
-58
23
38
-10
46
-7
88
55
-46
-81
25
23
-5
20
18
-116
-40
-2
-34
44
25
127
-27
-42
27
3
-13
-15
4
-6
-3
14
-7
-32
-71
-21
-86
39
28
-14
13
4
32
-77
8
12
28
20
2
-66
22
-23
-17
-19
55
13
24
-8
-47
-15
87
49
-75
-53
88
15
-65
29
38
45
-17
-21
-25
-41
35
55
40
-44
28
32
5
0
-36
51
-118
7
-84
14
7
-57
24
-18
-97
2
39
10
60
-15
-49
-45
65
14
43
14
46
28
30
-39
-21
-32
55
-23
-1
94
26
-11
49
-12
40
8
-6
-54
-79
-41
31
62
-6
-17
-15
16
127
25
-127
-63
-13
17
-5
-6
-64
59
-72
-29
41
-55
7
-3
9
66
-10
58
36
-127
-54
45
95
-5
7
1
38
86
-64
-14
9
-19
127
-82
39
26
-51
-45
127
21
-23
-8
72
-4
-8
42
39
-8
-40
-65
-16
13
49
-62
14
29
-9
-5
18
-96
-31
45
40
27
-19
12
32
-46
-46
-64
-70
-3
32
-24
71
-1
42
51
59
38
-31
21
59
-7
0
25
-27
-56
-30
-22
28
-41
33
-52
-82
41
5
32
-25
-57
29
-79
42
5
-14
-1
18
20
-16
-29
-27
7
-77
-33
39
10
10
-3
42
-41
29
-36
-127
-46
97
-85
-75
29
1
126
-127
-41
33
67
23
-7
5
-24
16
-37
-9
-3
-3
11
21
-1
37
-20
-20
79
-15
-29
-1
-10
-32
24
-52
1
5
33
26
1
-98
-23
22
32
20
-38
127
17
