-10
10
-8
-41
66
60
3
-6
-31
-13
47
11
-67
-42
39
-35
14
-76
-36
-47
-31
-38
33
27
-33
-57
-37
-12
-35
-31
-5
-7
-33
-60
10
-22
13
-23
-9
17
-19
-52
7
-39
-69
12
-51
-39
20
-43
-79
-8
50
23
-14
6
-15
94
-54
5
6
22
-91
12
1
34
-31
27
-54
-3
47
-31
37
26
-11
100
-15
1
47
-2
32
50
-36
-31
-69
87
37
3
39
32
48
-42
-48
1
-41
27
-13
57
-20
-79
7
-26
-23
-1
6
-7
109
-34
-21
-63
-24
-7
24
-4
29
10
-5
-2
37
-9
-6
-44
42
-28
-31
12
-65
45
-13
-11
-5
73
4
-4
-57
-67
1
7
-11
31
29
126
68
-15
-26
-61
10
64
50
7
11
-47
12
-35
-1
-82
64
-26
15
4
30
42
-3
-45
-50
-42
-24
29
-20
-35
16
-27
64
-39
34
-47
37
51
-60
-6
24
30
30
21
41
6
-43
-17
48
-14
-39
22
31
-27
-55
-30
-3
3
-5
-13
-13
46
-20
49
-19
-32
40
74
25
-8
-24
-37
20
12
59
58
42
77
34
20
32
-14
-24
-14
0
112
-19
4
9
26
5
5
-35
-25
75
-17
-22
7
12
-6
76
58
12
52
12
-41
-33
56
5
-27
29
-26
-60
35
47
-12
-24
24
19
-30
64
-76
46
4
-7
15
-49
-41
-37
-4
-20
22
-20
12
17
-85
-26
-32
-37
41
-12
14
-6
45
-18
45
21
40
34
29
34
18
11
3
-14
81
-3
-14
5
-9
31
40
-49
-10
-13
-29
-29
-11
-9
43
-45
-31
2
-41
-54
4
-48
35
-40
-12
50
-17
42
47
16
54
-17
-16
-89
-14
-42
-24
36
31
63
-10
-56
-2
35
-55
76
-4
7
79
43
-26
-87
-23
-41
46
-2
-23
-57
-26
-24
-11
-60
-11
19
-35
4
-54
41
7
-35
-27
-51
-14
-5
-21
-44
87
6
73
-62
-12
-16
11
-72
-26
23
-39
-2
-22
-9
17
-28
26
20
6
20
-74
-16
15
9
-8
15
14
-17
26
64
-26
-61
24
33
44
-5
22
-45
-4
-3
-23
-77
22
-42
-3
11
-58
-27
7
97
-12
-64
38
-15
-10
-67
-20
-68
-68
7
-31
-11
-13
19
18
-35
-4
58
47
47
-27
-15
-48
-30
19
-85
-24
-51
-15
83
-4
10
-3
48
-25
-87
-76
18
33
57
-50
39
21
16
15
36
-43
-72
60
-4
48
52
-13
-22
-26
14
89
-40
-7
-33
-28
-38
-4
-32
-36
-38
43
10
-55
7
-15
-2
31
12
10
-33
-26
20
-6
-3
-51
40
-5
20
20
9
-18
1
-47
4
-34
17
-35
8
-59
-49
41
-5
-2
29
7
-12
-9
-11
26
-20
-17
33
-74
30
-30
46
27
-7
57
-30
45
36
36
-21
19
40
-28
8
-31
43
9
24
-10
12
-48
-62
15
-58
30
-9
20
-9
-15
-36
28
-9
8
58
-22
74
-21
22
-33
56
10
-5
5
6
-4
27
-28
-9
37
4
-53
-121
-35
15
-48
-37
-47
3
-26
-45
-80
-17
14
-39
5
-10
-30
14
89
40
-66
-16
-6
56
18
67
-45
1
-52
23
-52
1
-8
-22
-49
25
49
8
35
-10
-44
-90
22
64
5
39
-111
-9
15
-4
-52
46
62
16
-19
20
50
35
-88
-19
4
-2
24
-38
28
-22
23
-76
26
114
1
-9
-7
32
73
-7
23
-79
-30
-36
-63
22
17
20
-70
19
15
-67
-10
-27
-16
-43
4
-55
50
-38
-16
-47
-35
-27
-5
60
-9
27
-36
-21
-20
42
-106
16
43
0
-31
-8
69
2
-42
-34
47
-30
-42
-20
-26
-26
-2
-52
43
64
-39
6
47
31
50
9
-69
-8
-45
12
87
12
-30
-24
68
-85
-6
-9
40
-26
4
-29
37
15
127
-29
-29
5
19
-38
1
-7
-8
64
51
-79
-69
-12
-69
-48
6
52
60
-11
-21
-74
-62
44
6
11
52
37
8
-39
44
-49
-38
-21
7
-36
5
33
-12
30
-85
-34
-87
-4
-28
12
83
34
-21
-39
15
-44
-36
-12
-36
33
6
15
35
16
75
48
-53
0
25
-42
-45
-32
-21
-78
-30
-18
-18
-28
2
6
14
-16
21
20
-33
-32
-8
27
-64
82
-56
-51
-9
-27
54
-44
-3
50
-54
-32
37
-4
40
21
-35
7
-4
-1
-7
4
-28
-27
-10
5
40
48
16
43
17
18
9
-19
-29
11
16
-22
65
-45
13
-21
-56
43
-3
-71
29
16
-32
28
-7
-19
-28
-20
12
-54
-36
62
15
-59
47
65
31
3
4
10
17
-22
-19
-77
25
22
-21
-12
-38
32
23
13
8
33
-19
-80
27
-15
65
-16
68
-58
-48
16
-92
28
27
-78
-28
-4
43
53
-4
23
-57
-14
-1
1
-28
-23
-8
-4
-57
-33
-14
11
97
-38
40
-22
1
57
1
36
42
127
-31
-24
23
-17
-11
-2
-54
-9
-29
24
15
8
13
-20
-46
24
14
-2
-36
-11
-34
-33
61
74
54
55
-53
-25
-47
-21
49
28
16
-22
-54
-39
54
-113
-23
15
-24
14
69
88
43
-24
2
24
74
-38
32
46
3
34
-76
-42
-35
-16
61
-43
78
9
-14
50
-41
-28
7
43
-17
1
-2
52
-1
-6
-30
-19
-11
-1
12
2
-26
47
-21
-54
15
-43
32
80
16
-75
-45
-1
-16
-19
-34
-25
-4
12
-8
-54
-76
-58
-10
-8
-7
10
16
-7
-8
20
-8
-6
-49
-30
7
19
-8
-58
-37
23
17
-18
30
45
-25
0
-28
17
-20
74
-1
53
-33
29
96
30
9
40
36
-22
-56
-45
-8
5
-4
59
-16
-24
11
-72
123
-11
5
-22
32
-12
36
3
69
-48
30
-6
15
30
6
34
7
-42
-49
-23
43
61
-52
-76
-6
-10
28
-75
40
12
14
33
-1
-13
-21
-75
45
1
36
-51
38
27
27
4
-4
83
-68
17
45
-14
-41
105
26
-3
16
15
27
50
27
43
-33
-36
9
28
-11
-66
-39
42
-17
36
-91
-26
-37
-26
-41
-16
-8
89
-15
-5
-123
-16
-28
-12
-27
-3
19
-53
61
-8
53
-31
17
34
-25
10
-44
-14
74
-36
-69
32
-36
-9
-13
34
-12
16
15
19
-75
28
-16
22
-70
6
23
-14
38
-8
-30
31
35
-6
2
84
-47
-39
-46
6
-58
-58
-5
3
14
41
75
57
-127
3
-27
-23
-45
-12
42
-17
7
-22
-10
2
21
9
45
-55
-16
54
-63
9
-41
52
34
11
46
-22
4
16
-1
-9
-29
11
-6
-27
-34
-11
-49
-11
25
-39
-33
77
8
-97
-19
-6
35
-48
62
-31
8
71
-40
-43
57
-20
-9
-33
9
52
-70
8
-37
48
29
45
-93
-92
20
90
12
15
21
5
20
-7
37
-13
68
61
-46
-12
57
61
-125
-11
1
-25
-21
24
67
-85
-20
32
-88
51
41
71
-34
-24
-50
68
-27
37
35
0
-20
-20
-87
-72
-69
-68
28
20
27
115
72
2
-67
66
-84
18
-34
7
5
-28
-20
13
22
34
9
59
4
-68
3
89
13
81
27
-45
-29
61
-22
19
5
26
-33
91
-34
28
44
39
10
13
6
45
71
-8
2
7
26
31
22
-54
40
-12
-44
-32
3
66
-42
9
-54
-5
16
-47
-6
-60
-59
-41
6
28
19
43
-2
17
-41
3
-26
-22
-13
8
-12
-12
-28
3
-37
36
-22
3
11
42
-33
-45
14
-34
-3
2
51
-30
25
31
11
22
10
-95
-127
43
-12
68
-18
44
10
-23
36
5
-46
34
44
-75
45
-57
22
35
-6
-3
-31
-54
-91
-68
-6
23
49
3
-63
7
-22
-57
-29
39
24
14
-29
-21
-65
36
-50
84
46
25
11
32
6
-1
-92
-51
-55
26
30
-45
13
-5
-127
26
-49
-33
48
-11
-73
72
-40
2
-8
-18
54
-21
38
27
39
59
-7
-19
58
-92
12
57
25
-52
-25
-24
25
71
14
-24
-10
-35
-26
-1
-84
-10
-2
-28
-8
8
2
76
-50
63
37
7
27
-57
22
8
48
43
-16
-15
44
2
13
-9
22
-86
67
-56
127
77
-45
18
68
-31
-49
40
13
10
-56
79
-37
-28
-5
-47
4
26
-30
-25
-6
-79
61
-23
9
-9
-29
-20
-32
0
-72
-3
39
72
62
26
45
25
-30
60
3
-12
-31
-2
29
3
-27
-58
79
-14
15
40
-39
-56
41
-11
-14
42
55
-64
-105
23
31
76
-12
-9
-15
4
-16
-17
-41
11
53
-77
8
88
-39
53
36
1
-56
33
-55
-21
34
7
102
-76
16
54
-57
-11
112
-21
-46
33
5
4
35
-32
23
39
-11
-2
41
28
-89
108
-22
-7
-33
-19
18
-41
32
10
42
23
-65
5
17
12
8
24
-42
-53
-18
-91
18
-36
35
42
-20
21
45
79
21
-3
48
18
44
22
-51
-34
-3
5
-81
-35
-31
49
-31
23
53
37
66
0
-7
90
50
-9
-69
25
-34
37
78
26
11
6
-23
44
35
18
38
22
35
58
-17
-24
0
39
74
60
108
24
13
13
-16
12
1
32
-42
-102
-60
2
7
6
43
-73
-14
27
71
39
54
-68
-85
18
-7
-61
50
-25
37
1
47
-25
81
64
-61
41
106
18
-35
-7
74
-85
6
35
-25
-25
-6
30
-20
-8
-34
-22
35
35
-4
16
53
52
-7
-7
115
-23
11
41
-22
47
-13
-49
48
-13
16
-53
-42
50
38
-126
69
-16
17
-89
-34
-41
-35
-19
-37
11
38
46
10
42
-38
-47
9
-25
-18
-36
-74
24
-5
-15
-5
23
85
-8
28
-48
-6
-69
127
-22
21
-82
-8
18
-84
-16
48
37
-34
-61
34
32
22
-25
-39
-65
23
12
-41
-31
-19
15
11
24
31
6
88
-22
49
38
-16
13
-51
5
-83
-37
-13
-19
-25
-48
43
-5
-35
-78
-35
-50
45
53
34
2
-32
118
6
5
47
57
-40
14
-31
-37
-15
-16
40
-69
-34
0
27
-47
32
38
-68
3
4
-39
27
-22
-27
-60
0
-42
17
-8
-21
5
18
-60
61
5
-73
-36
-41
33
25
-9
20
-35
30
55
-90
-38
29
6
52
8
-35
-7
-29
33
-21
56
-28
-10
3
17
21
-17
25
-21
-32
28
70
-43
-60
65
87
-7
104
-51
-61
-58
-47
-6
10
30
-25
32
31
41
6
8
56
-12
-32
26
26
-22
-77
38
4
6
-13
-82
-17
35
87
55
-11
15
12
24
-16
23
18
-37
-73
37
38
45
45
-40
24
-45
49
-6
68
52
-37
40
66
5
17
-1
79
-41
11
-11
-15
66
-10
30
-52
-68
17
-13
23
-40
-93
11
-55
-89
16
-7
70
-36
22
25
-57
-2
-44
15
12
54
-59
12
76
-72
-67
27
-64
-102
-28
6
36
-87
7
27
85
-3
9
-5
-58
30
-37
60
0
17
4
-20
30
3
14
-42
-17
-73
50
-78
-30
43
-51
-4
-38
-24
106
-41
5
7
44
-27
-56
2
0
-56
37
-27
-21
-66
91
-45
9
-7
-90
6
96
28
-31
83
27
-7
-81
-35
-41
7
39
24
27
-34
27
-7
29
26
54
65
102
-27
-10
-29
46
-26
2
15
18
58
-7
15
-18
-28
27
-72
-51
-21
13
-9
-47
-14
-29
-1
-17
-24
1
-10
11
-14
46
13
-9
-8
-36
-23
23
-33
90
70
17
-1
46
38
11
-31
-26
-2
89
-44
-9
47
11
6
16
15
9
14
-25
-36
0
-20
-58
7
-8
-3
-56
-124
76
3
26
38
32
51
-92
24
-3
-11
24
-24
-6
62
-3
38
-14
70
0
30
-88
34
22
32
-24
-31
-29
67
-59
-29
0
3
-56
22
5
5
87
5
0
-72
47
-42
-32
-29
49
-18
-11
-41
-1
24
-7
33
10
30
63
40
0
-82
20
16
-11
38
17
51
33
-3
50
34
-14
-32
52
63
20
4
15
-22
18
60
18
13
-60
-17
-19
26
1
-57
-38
-5
74
40
-34
118
61
100
30
100
-13
5
-9
34
-35
13
1
-44
1
45
-54
12
21
62
-14
-21
24
22
51
-44
80
42
27
-54
1
8
0
57
-27
29
-44
0
23
-62
-24
35
-6
-10
15
-56
-43
2
-26
70
7
-50
31
-7
79
11
-16
40
33
-24
41
-13
-16
-5
-67
-6
-22
116
-20
55
-33
19
-14
40
-68
5
1
36
32
55
9
-20
15
-2
-81
21
65
13
54
127
-41
-3
19
-31
60
-1
-29
8
-17
6
-20
-34
-29
-16
3
86
35
-44
53
10
48
-38
-28
-36
-36
-12
26
11
-33
-49
-48
36
-15
-42
9
56
66
-23
-47
-30
15
60
36
87
30
52
17
82
20
-26
44
51
54
-2
16
-61
9
-19
0
-12
-32
4
-14
61
-24
-15
40
27
59
-5
-9
26
13
-18
4
14
71
-13
18
-71
5
-42
-4
38
89
-51
-31
10
-40
-9
51
4
-59
-21
-39
75
47
24
-2
-25
-40
22
-14
61
25
0
-20
-2
45
27
80
21
-24
48
5
75
-21
22
52
-7
36
20
9
9
3
52
-16
27
19
11
-12
35
26
70
49
-39
21
-5
28
44
62
-15
27
11
-46
11
-39
-70
75
-91
-17
46
25
11
18
-39
-5
4
-40
-19
-12
11
69
-15
12
60
-63
14
52
-28
21
62
69
-28
85
7
-52
-22
-18
-27
-37
41
-20
8
48
-2
-13
24
71
-96
58
32
-5
-57
68
51
73
34
-7
-4
1
-34
-30
-62
-102
-28
25
-63
64
-27
7
4
10
-30
46
17
13
-2
88
59
7
-21
44
-8
-69
-51
6
6
8
-12
-19
-15
-17
-37
-24
-40
47
-52
6
-24
14
-20
-5
53
-10
-5
69
12
-3
-40
-8
20
-28
-17
53
46
36
19
-33
0
-4
-13
-74
67
34
16
-38
-8
-67
32
-56
10
2
-7
19
21
-68
6
28
-6
40
-88
-54
28
-44
-5
1
18
-52
1
-75
-5
-28
5
7
30
-71
1
3
-3
-110
-1
-33
7
33
24
-18
-5
-71
4
-52
11
-3
12
9
89
0
-2
-14
7
-27
-29
62
30
33
9
34
15
-18
4
64
-2
26
-13
32
9
18
-41
4
36
-8
17
-59
-29
-8
31
50
-30
42
-29
-26
-68
42
-19
39
1
66
31
66
-41
9
-20
46
2
-38
26
30
51
0
62
-72
54
-36
-7
54
7
2
31
-48
4
37
-5
60
54
-63
-6
3
32
55
-55
17
36
55
29
-23
-10
13
20
-8
27
14
-6
-23
20
-38
-18
-8
-40
6
-37
5
-1
61
-13
-11
-36
-15
-39
-3
76
27
-70
37
-17
54
60
93
-45
27
-5
-35
31
-30
24
32
-2
33
-9
50
10
57
24
7
-26
-10
-76
-29
50
118
55
-38
13
30
35
37
-44
-25
22
-84
-29
-2
48
-35
-43
-43
35
3
-31
10
-2
9
-76
0
1
-39
0
6
-69
-2
34
-34
37
21
13
1
-23
5
-1
-116
-79
-12
35
94
34
30
24
-45
-14
-4
-22
-34
32
34
41
-8
9
23
-13
27
-42
-10
-44
27
0
-9
3
9
-3
-11
62
41
-70
26
-5
-35
-80
23
66
101
-9
-3
14
-13
8
1
6
-14
0
63
26
18
-103
61
1
7
-75
3
29
57
4
37
25
-36
-28
20
34
-54
43
8
-53
-16
-78
29
-8
-20
-17
28
-17
2
49
19
22
-71
70
76
-11
33
39
-1
-32
66
-55
37
-42
21
1
23
-20
62
25
-28
-38
-42
17
46
-21
-23
-43
-25
-26
-17
9
-2
39
38
40
-22
-32
47
-60
-48
-14
71
7
30
22
-75
4
21
21
-16
-27
35
-34
-76
50
15
40
18
78
-56
-46
32
12
-76
-46
94
21
26
-59
-74
68
-15
32
-1
30
-13
-16
-2
40
-37
-37
20
82
-7
-40
7
56
9
91
2
50
18
19
-15
28
52
-35
-118
10
28
-11
21
-16
2
28
-78
-11
-8
49
-2
-36
12
18
31
28
8
-9
-57
27
51
-74
-27
3
-54
-18
12
-50
-27
42
-39
-81
-43
-52
-2
-19
40
32
46
-5
-69
19
2
-14
22
102
-16
16
32
-4
-16
68
36
67
-45
21
-60
36
-67
-36
-36
-27
-21
14
-49
-19
-46
27
21
24
32
-12
-18
-22
-15
-17
-1
21
59
-15
-30
39
-106
-45
57
-2
-38
33
21
109
127
12
68
48
-18
-56
17
36
57
75
7
6
22
12
3
16
-34
2
6
-54
18
-32
0
3
35
83
5
-11
-6
-12
90
18
-11
15
27
100
36
-49
-5
71
45
-6
-9
-49
-42
-43
6
6
-39
33
0
-10
5
49
-11
1
15
20
-55
7
10
19
42
83
10
-31
-19
48
30
-9
32
56
-3
-23
-51
72
8
70
-11
-17
-39
72
-76
3
53
-28
-22
-20
49
11
7
18
-17
7
38
22
-23
28
10
-60
-56
120
72
-38
68
-35
47
-91
-60
18
-5
59
-37
56
11
-11
-6
-7
-18
80
39
61
89
-36
-22
33
23
18
-34
46
-9
54
70
-43
87
-28
-18
22
21
-32
-2
-9
15
22
-44
20
-76
-7
44
37
-16
-71
-24
7
59
1
3
-59
56
57
96
-22
-51
-3
72
25
86
8
-75
100
13
43
-28
38
-7
-39
83
-79
32
36
19
-47
17
-21
36
30
-20
61
87
-2
22
-15
25
-37
53
3
-5
-54
36
-5
-16
-2
49
21
5
59
23
50
-117
-5
-9
33
-25
0
56
-49
-72
39
38
8
-27
22
-22
9
-17
127
9
87
17
24
57
44
11
51
62
-25
21
-2
-31
55
50
16
-17
-7
41
40
-3
6
102
-27
4
-45
-12
-53
14
22
70
-14
31
-7
61
-24
70
47
-12
-31
7
-54
-9
59
-48
-3
-6
-37
51
56
-19
58
11
4
22
-81
-8
-40
14
8
-57
-27
-49
28
22
-2
38
6
11
11
65
-7
14
32
52
3
1
-52
-14
-3
-7
-43
-47
-15
29
73
80
-26
40
-27
9
71
55
-2
19
-30
-13
6
-9
47
3
-10
12
8
40
27
-37
7
-29
41
-106
57
25
47
-1
96
21
-9
29
-4
47
-13
-21
32
-2
12
-42
-20
65
-40
76
48
-44
-53
0
47
-15
-24
-45
58
43
-45
46
4
-22
-10
-62
25
51
72
-25
-12
-15
-55
-16
-69
7
78
-18
-7
11
48
4
35
-103
-48
4
17
-82
3
65
7
-57
-7
16
-41
-45
-43
-88
12
7
-12
-56
-88
-17
44
90
-21
-17
-41
80
-20
-57
-104
-70
9
-25
1
66
10
-15
-26
-54
17
0
-11
-58
-12
-39
-56
52
36
-64
5
34
-2
54
-41
6
-23
-6
-21
19
63
127
11
8
-44
-18
17
-17
42
-48
0
-57
-11
-47
47
8
-27
34
13
11
29
-58
7
1
24
29
-1
41
-44
-44
-41
-22
-3
0
6
84
-26
-11
42
-36
18
-14
-1
33
8
49
-7
39
17
-54
6
-7
22
-127
21
-13
30
2
-1
9
45
-9
23
-2
60
18
37
-85
57
-63
-2
-8
-29
-37
35
-12
54
-77
-7
-33
-2
-41
89
81
5
-26
-40
-18
-58
-29
-15
54
5
51
-37
-12
-42
-43
4
28
-53
-39
6
-32
-39
-103
5
27
-3
10
17
64
-21
22
23
16
23
49
58
49
-39
91
-13
-55
-6
31
6
38
10
11
-35
54
-13
-32
77
25
-40
-39
0
13
-26
-2
40
-54
46
-7
-35
-28
-25
-14
-9
-19
-13
18
-54
12
-58
-21
26
-14
8
-11
-21
-32
-18
-51
-25
78
13
-14
97
-14
0
-18
-28
-61
-42
24
19
-77
-32
-37
22
-26
20
75
-8
49
44
-9
-3
-12
-12
12
13
20
1
-47
-70
40
64
-63
-31
77
-17
71
-52
15
45
-6
-9
9
-21
78
-37
-4
21
2
71
32
-60
57
11
6
39
-47
30
-81
4
10
20
-19
38
-9
88
-76
-17
-68
33
-12
116
62
36
52
10
-52
-10
37
-73
-27
118
-49
-18
-22
-45
61
33
-42
-41
20
26
-23
-21
20
-91
7
-48
92
-25
-59
-24
-21
-47
55
36
-14
-82
-9
17
0
-3
-13
67
23
-10
9
17
0
-18
-20
-21
-36
22
-56
-88
72
5
-13
11
23
-6
28
-43
-21
6
60
16
-61
5
46
-23
4
44
19
-1
47
18
3
15
-12
-30
17
15
-34
-10
-60
-11
-12
56
-44
18
-27
43
68
9
-28
0
-1
8
35
-47
56
-69
-24
6
13
-11
3
-33
15
8
-78
0
23
-34
-120
-23
127
-17
-29
96
-26
16
-40
0
9
45
35
87
16
24
58
-4
2
-55
-7
-34
-35
1
5
13
-36
-35
71
-45
26
-6
-43
-42
-2
46
-38
-7
-23
0
-34
68
-12
-116
4
-29
-1
-5
-2
75
10
26
-4
-18
42
61
-50
-46
15
-55
-1
-41
-21
47
64
-43
33
27
37
-37
119
17
5
-47
-7
4
1
-60
-45
27
-33
-32
-25
-27
-19
14
15
-44
-28
-66
-8
-18
63
4
-11
-32
-64
-31
-57
12
62
-10
-10
-44
-56
-28
-10
-5
-16
-15
-19
-5
-35
2
1
4
1
60
-28
22
-36
65
46
-37
-67
-3
75
6
8
63
-45
-1
-38
25
10
-31
38
6
90
19
-1
-14
38
11
-32
-32
36
-14
-13
-6
-12
47
-43
42
-18
4
-37
-33
8
13
-57
-4
23
-28
73
-75
51
24
41
-35
-5
22
-35
-59
10
-15
-37
-39
-8
-6
42
4
-16
-18
-3
82
36
31
-36
17
3
-65
25
46
-45
-3
7
-30
22
12
-4
-33
-2
-21
0
39
-14
54
-45
38
-27
-29
31
32
-4
-49
-78
-66
11
-1
8
-50
8
22
-25
37
-18
-39
-4
56
-100
9
-16
-43
-18
4
127
-13
14
-58
14
-34
9
-31
60
-38
-2
-18
20
53
29
-49
-37
-28
-13
-6
45
21
-31
16
-45
99
-6
6
15
1
-4
-35
3
35
5
-22
-13
37
33
-22
103
29
33
11
-68
-34
22
61
75
-14
-64
27
-3
-56
56
-11
15
-53
-7
-8
51
-41
4
-105
24
-10
42
-47
-47
18
-33
-22
0
10
-97
0
22
-4
-56
9
-29
7
-4
-6
-24
6
36
60
56
24
18
26
88
5
-58
-8
20
-9
8
-30
-32
24
64
57
-17
-10
17
47
-22
-9
-57
-45
31
31
74
3
41
-40
17
-92
-7
-28
-39
-6
23
15
28
14
24
71
-47
-49
9
17
-64
-35
17
14
26
-22
-20
7
-11
8
-2
-61
-25
-13
27
43
-24
-43
-15
-1
-34
-16
-12
-24
48
-11
33
-30
-73
-65
15
11
-12
68
-32
-6
-52
-30
3
-5
34
-32
-57
52
110
-58
-4
5
8
-5
8
52
56
12
57
-13
18
-5
-3
-22
66
-18
7
23
38
-45
18
7
6
-24
59
-51
44
-14
-43
91
-82
-52
-40
17
-51
-13
26
31
41
101
-3
-15
-10
97
-47
48
32
39
-122
38
-43
17
21
-32
-3
1
-48
-74
-22
4
2
10
-4
-13
31
32
24
-99
-7
14
48
5
112
23
-66
6
-15
18
30
57
-65
-51
-40
75
-46
-48
-52
-9
3
20
74
46
-24
-10
-6
-76
23
17
17
-35
-2
36
-61
-40
-37
-25
2
8
10
85
59
-16
0
62
9
58
53
-9
-43
19
43
-70
43
-25
48
-25
5
-64
3
63
2
-13
-46
-4
-35
2
1
18
45
4
-9
10
31
20
42
20
-2
-50
-51
-16
-30
22
11
-28
24
24
6
-54
-30
79
-25
12
0
-29
13
87
-7
37
7
61
12
-3
20
-6
14
-17
-39
1
-15
-9
0
-41
16
-38
8
19
-6
-17
-21
66
-20
-17
-12
-37
-36
17
-29
23
-23
25
-4
-78
22
17
-18
-2
-22
39
-11
3
127
-74
38
23
-34
23
36
56
-35
-28
-21
9
-14
2
31
-3
25
54
33
54
25
-22
-31
75
26
-28
-13
-4
-52
78
-34
24
-1
48
-25
-53
-48
33
39
-38
31
30
-57
48
-78
42
50
-1
-16
-43
25
1
-12
-8
-64
27
3
20
8
43
70
1
-15
-47
6
-55
-34
-15
-48
-12
46
19
-34
67
-96
-10
-11
-4
-85
-42
37
-16
-36
-6
24
42
-23
28
-29
-24
85
-22
16
-62
7
7
-76
-26
-18
5
30
55
12
13
51
-6
-42
-5
-74
-45
6
29
13
-14
-103
1
33
22
-64
5
-69
-23
28
-17
-8
-23
-70
26
49
16
-21
-2
61
-22
12
-20
-72
-20
-12
-74
-32
-26
-37
-27
10
-25
-43
66
27
36
-59
38
-22
6
-36
25
-1
-72
-39
23
-36
-27
-28
-2
39
-11
15
-84
-92
13
11
72
11
3
-48
10
33
47
-43
-51
64
9
-17
-53
3
22
-36
82
-51
20
-34
42
11
-8
-83
-86
10
38
-1
-5
-31
51
-13
-30
38
-11
-71
-71
-36
14
53
-1
-52
-23
-16
-9
11
42
-48
-6
-70
28
-31
-29
-27
-39
-18
-30
-5
49
-19
4
-1
49
32
12
20
14
-26
-51
-14
2
-75
-16
-27
-93
45
-39
-26
23
63
-35
-37
37
53
-12
3
-74
-16
-85
-87
64
32
-28
-25
-14
-32
-71
56
21
50
48
-15
-33
3
26
22
-2
3
-5
5
-56
3
36
-12
23
-62
27
-29
37
-24
18
-6
73
-19
34
8
10
-4
39
-30
-56
26
41
-23
16
-2
-37
-32
-16
20
38
-22
27
10
21
13
-31
-101
9
-9
-61
0
-68
-41
-14
-22
89
13
3
-37
-26
-51
-31
-26
-80
-34
-13
45
-48
-75
19
18
48
-6
-54
13
53
-6
28
48
-27
33
12
10
11
45
29
-4
18
21
-5
32
-81
-30
30
-10
-27
91
-10
-58
-3
65
-15
6
17
13
34
-4
-10
3
-34
-10
38
-7
-36
39
5
-26
-24
12
43
-7
36
33
-73
-11
-54
2
23
13
41
25
-94
-9
-9
-16
46
-58
-4
34
-4
-20
7
-32
-20
-26
-25
17
20
25
66
21
-49
5
6
-68
66
-1
-24
27
49
-49
2
21
-32
-11
-46
36
47
-58
-59
13
-63
-38
62
-26
45
24
10
-24
-24
-20
-76
-49
-35
44
-96
-25
-38
-3
39
24
24
21
45
16
90
-9
-22
-72
-4
1
-33
71
-79
-13
-12
-24
-66
25
27
-48
-53
-32
14
-36
-32
11
-16
53
-62
-22
49
-70
24
18
-21
-32
6
-28
-69
-1
-35
-109
-28
-34
-40
19
-63
39
-30
-36
-4
-35
63
-24
-32
-21
34
12
21
-67
35
-14
-29
-53
-16
-20
-77
-14
-35
-4
-23
-37
-21
10
-46
-7
-31
-55
-67
35
-23
-36
42
19
19
51
-34
42
5
13
-2
-18
-8
22
-35
-52
-35
-24
-21
-45
64
5
65
-42
-27
74
-29
79
-26
59
43
-61
-30
-36
-19
51
24
-25
-19
10
-28
-5
-69
-44
20
48
-41
5
-6
83
-27
-55
10
12
-71
-23
0
-12
-22
93
51
0
-55
110
-18
32
78
-56
14
83
9
-49
10
14
-73
-48
14
57
14
7
-54
-41
29
7
77
-46
-11
-35
-36
30
61
41
-22
-40
29
36
-14
-31
-15
-8
0
18
18
-26
-43
8
9
16
21
98
-16
47
-17
-34
112
-34
-1
3
43
65
35
-44
-1
19
82
4
-21
108
5
8
32
-11
-11
-47
-72
44
7
51
-20
41
-22
-49
-31
-17
-49
-72
37
-50
24
-12
9
28
20
-5
-33
42
-73
4
52
46
-54
43
-65
-8
18
-13
-22
16
26
37
-8
0
21
61
7
64
40
-6
-13
-105
-51
-70
17
28
-41
-45
-113
127
-28
-53
-14
-42
-6
-19
5
-12
58
-30
-6
60
28
-64
-35
-13
3
-43
-9
1
-21
-72
24
33
52
61
-72
-24
21
35
13
-96
10
5
45
-19
-86
-80
2
4
56
-8
77
23
8
12
17
12
-8
4
13
38
-17
-18
-34
-39
-35
6
7
-1
8
-44
-10
-6
-11
27
-54
12
-15
10
38
73
-82
-21
-16
6
-53
-6
42
4
-45
7
-1
36
-5
42
37
-9
-13
22
9
-55
13
41
55
-29
52
-16
-3
21
69
-60
-4
-103
-80
-24
-12
9
33
-65
-54
0
-34
-7
3
21
-44
-53
29
8
9
27
2
99
13
-18
-35
17
20
-11
46
-30
39
-30
-61
5
43
73
-8
-39
-56
9
-21
15
35
-1
-44
-31
-58
-73
-66
110
-72
-21
18
-21
-39
7
-21
-33
35
-32
35
-37
52
36
22
68
7
-20
31
-81
-6
-16
-34
-5
-4
-15
87
-42
-56
21
-108
5
-52
-4
-84
6
-90
10
61
15
-21
2
78
-9
-41
-28
10
8
36
-42
56
26
39
-73
59
37
28
2
33
22
-34
-43
-40
38
-5
-7
54
44
31
21
-49
-60
14
-17
17
-28
50
54
-1
0
3
21
-31
43
-35
51
-40
36
34
23
61
23
5
48
-79
-47
41
26
-19
-43
20
-15
16
37
66
-35
-38
40
50
88
-19
18
-45
-2
-28
-52
3
42
35
46
-2
-8
-47
-46
-72
2
-17
42
10
-9
-2
13
-30
45
40
14
56
-71
-21
-23
19
-45
-42
-40
13
-32
8
-55
-28
-17
38
-127
23
-10
-11
-35
5
-13
38
34
6
-6
-58
-42
52
-83
-6
26
23
6
-6
40
7
-12
7
-34
-10
51
-5
37
-53
-63
34
11
16
-39
57
-30
5
-2
-42
-42
0
49
-1
36
42
-23
24
123
32
-32
27
-3
55
-53
1
-18
-7
60
-50
5
-27
-48
70
31
93
-16
8
-62
50
-40
-1
12
41
-19
0
6
-38
-15
-31
-14
-9
43
15
27
-30
-30
-26
38
-78
-12
-20
-5
-24
103
13
-11
-31
-33
-2
-16
42
-19
28
43
65
21
-67
11
12
-51
32
35
-85
44
36
32
93
-33
-18
-39
-16
-26
56
-1
7
-7
-30
-25
-35
32
-36
19
46
21
14
-15
44
31
20
33
-22
-24
48
17
-17
10
10
58
-44
-25
49
-8
107
13
46
-8
7
-21
40
-15
37
45
31
71
-31
18
3
-24
-44
-15
-36
48
16
75
-8
40
-16
4
18
-18
-8
35
73
60
22
-35
-36
-45
27
-10
-64
-48
0
-17
6
-30
13
78
57
30
-16
61
29
30
-4
18
26
-14
105
-22
87
36
20
-13
-62
-83
90
-14
26
-45
27
19
54
12
77
103
11
56
41
43
51
64
-79
80
21
90
34
-11
-21
-30
79
23
37
95
-1
2
-15
-38
40
47
-12
-36
-14
52
18
-102
39
12
114
11
-17
127
49
-30
-33
41
36
-60
-68
36
39
78
75
-13
11
48
69
-52
23
25
88
123
24
18
47
-34
37
7
6
-35
5
-21
34
12
-46
62
64
14
-60
13
-49
36
43
-59
-120
86
-3
41
-27
96
55
72
34
69
-64
4
45
27
31
21
115
-57
24
-41
-57
13
-19
-80
-2
23
6
-31
-10
54
-30
56
22
-36
-13
-5
-72
14
14
112
80
-20
46
48
4
54
31
43
23
56
72
9
-5
-26
15
35
10
26
-33
-14
-42
77
6
-12
-38
3
-19
-20
-24
-30
79
-4
60
56
38
19
-47
42
74
-72
-53
6
43
70
35
57
-29
-6
8
25
10
29
-35
17
-6
40
46
-75
-13
-45
19
6
63
-90
74
-86
20
-19
26
-9
5
19
3
42
-2
46
-39
-41
9
-6
-46
51
14
-30
-57
-68
26
-11
-36
-6
-90
50
29
64
73
-11
1
53
15
21
68
7
53
42
-26
12
-6
51
25
-39
-42
15
36
-14
109
-25
25
11
-64
34
16
-63
25
44
-23
14
13
-15
12
-16
22
0
88
-7
-31
10
39
57
-16
14
23
-30
-42
12
-6
-40
11
-47
47
8
-30
-18
42
-4
-24
34
-4
10
-1
27
7
46
37
12
3
-26
19
-44
-22
-30
21
49
4
-6
32
49
32
72
-8
30
-6
11
7
0
2
86
-1
34
1
21
11
-30
17
31
4
101
1
24
-33
-67
76
-70
-24
115
11
-15
24
4
-71
54
32
-40
18
-62
4
43
-39
3
-63
43
1
-21
-4
38
42
-36
-29
40
38
-1
26
57
-14
32
60
-8
-3
7
37
47
-18
61
-40
20
9
15
-54
-20
30
8
24
-8
-23
-60
11
69
43
-6
64
-11
3
-13
35
-11
37
-4
-21
-30
27
23
31
-67
-69
7
-36
14
4
22
-5
59
-86
-5
42
-32
27
63
4
23
-11
43
2
-21
-59
51
75
46
45
64
25
-47
-14
-40
-2
-14
-106
26
-24
33
-68
-35
2
27
-24
-19
-17
91
-34
29
2
-28
-15
-37
5
5
27
102
-3
25
24
-41
-42
-13
48
7
-1
30
5
-6
38
11
41
48
15
-14
4
20
10
11
-16
61
-6
-1
-1
-9
48
51
-35
24
4
-44
56
10
53
-17
-38
12
39
-61
21
-8
81
4
28
44
43
81
23
71
-3
-28
-42
-29
-76
-33
47
-31
-83
79
-2
12
93
-35
-20
-11
-35
-88
35
1
42
9
30
-64
-42
68
21
-19
31
32
4
56
-23
35
20
26
33
1
3
11
63
-24
14
-26
107
94
23
107
40
29
-18
22
13
19
21
97
33
21
-43
-6
-19
-27
-75
-11
-11
81
-38
-30
-61
15
-65
24
-53
63
-9
85
-52
-11
64
8
-28
58
-5
-5
22
19
43
37
62
82
-23
-60
24
2
26
3
115
-30
-41
-19
3
18
33
23
68
61
55
42
-13
13
21
-12
55
11
1
24
-30
99
1
51
7
-38
26
-51
-38
45
62
35
13
16
23
72
28
-5
46
55
27
25
76
-9
19
-3
-11
12
60
-69
1
12
39
35
86
22
-29
44
61
-108
27
54
56
24
-48
39
0
10
52
-17
-15
-25
-6
47
14
-6
15
9
68
6
-4
-50
22
-23
-56
90
46
52
-29
25
-34
18
-16
22
30
-33
22
88
28
-43
31
47
15
-64
16
-8
33
-101
26
12
114
9
53
-86
-9
-65
-20
84
20
55
33
8
0
13
-25
93
-22
-77
-26
63
71
27
26
51
-30
105
13
1
85
21
8
-57
10
34
0
44
4
-18
-10
-43
-20
23
-26
127
-6
16
-14
41
32
-41
-1
9
16
82
-61
13
-9
19
100
-54
18
0
-28
-3
1
36
-29
-21
-24
-13
73
59
-8
-8
20
-4
-47
35
55
127
40
127
-9
9
-1
15
-48
22
38
-18
112
66
37
24
-31
-29
13
-8
53
-62
-21
13
46
37
76
-2
5
-6
36
5
-52
31
30
55
95
-13
75
15
24
-18
86
-13
64
-54
52
24
32
18
16
96
58
59
28
20
43
60
34
60
-48
-24
56
-5
30
3
-21
-3
-27
56
10
-3
-16
-18
43
7
37
-51
38
30
18
2
-56
34
-7
27
52
-6
3
-68
24
18
-40
2
-34
11
41
-59
64
32
45
-6
49
114
28
-8
-3
3
25
43
-66
-73
-14
-35
40
-20
52
50
-59
-22
22
-2
-1
-38
-20
10
-1
10
-24
-14
-50
69
16
4
-25
-31
13
18
14
47
2
72
-35
-57
28
57
-59
-38
-61
17
41
43
33
-69
71
35
30
9
-4
-40
29
-17
34
-6
41
12
27
-34
99
-39
2
11
70
24
-34
-31
-27
29
27
14
49
-7
12
-11
76
-34
60
35
44
24
64
18
-4
-104
-62
51
31
26
-27
57
25
-9
64
2
50
-2
5
58
-3
-35
-33
93
56
-38
-87
33
-28
84
9
81
11
-48
76
59
34
64
-51
24
21
12
1
85
2
34
48
66
17
-20
61
104
127
-38
-10
-11
-57
-24
-17
5
-7
2
51
-39
-29
-11
-48
17
-36
-43
-54
27
-22
4
-14
-53
74
37
-18
39
-30
58
-5
11
-35
-59
-28
-27
-106
-8
45
1
-57
51
48
-42
37
34
-13
-127
-4
-22
-32
-43
22
-57
-4
-43
-17
40
6
24
5
-52
-73
-19
-81
83
-31
30
-43
-7
-62
-48
34
14
-18
27
-120
-75
-29
-16
-7
-81
-36
0
-51
26
-50
33
3
-2
66
25
-61
-9
-28
-35
-69
-77
-16
-37
-42
-46
-50
-87
40
13
55
-9
44
72
10
0
-3
33
125
-33
62
-103
0
78
28
-14
10
53
-21
13
15
-49
4
19
51
22
52
3
-18
-1
15
-75
55
-65
-68
-93
8
42
60
-13
-36
22
8
-36
8
-101
10
13
-82
-17
-101
2
-5
-6
-48
-86
3
84
-28
22
30
-28
-68
-25
25
-62
23
26
52
2
45
12
1
-120
68
-18
-10
-26
-9
-21
-58
-19
-20
29
26
31
-9
10
24
74
-23
-19
-24
-25
-22
118
-66
13
-74
16
8
-57
-4
2
-62
-75
-40
-20
-68
17
-64
74
-55
-17
-26
73
-65
-7
-75
12
8
63
-46
-14
3
58
-27
-5
25
-18
-14
-107
18
-60
-1
-1
-36
-26
-66
-33
-1
-28
12
-33
29
17
-43
-36
42
-19
-63
-62
-14
14
28
-1
-62
-11
23
-11
-16
-13
111
-15
22
-98
-58
4
16
-6
-15
-70
31
-3
-17
-14
18
51
76
88
-30
-61
20
9
-17
-61
-51
-28
-127
-65
33
-19
13
1
17
-57
100
-23
-1
-48
23
67
15
21
1
8
-75
11
-24
-20
-2
-73
-20
71
-17
-39
-21
-29
-56
-22
-127
3
75
-16
-50
-14
-62
6
-21
9
-23
-62
7
54
32
-56
-22
7
55
8
-89
-45
16
3
-46
57
23
13
39
-127
-76
54
-72
27
27
59
-37
69
-123
-2
15
-27
-9
-1
13
-19
9
51
9
27
-19
-35
-53
27
6
0
124
15
-103
-27
-22
1
-15
5
16
10
-23
47
-104
-24
6
43
20
-47
-44
9
-67
-45
-91
-68
-10
27
-30
24
28
-9
17
112
-8
27
-22
38
-12
-44
-61
25
71
20
-30
15
-23
-24
-27
-47
3
-46
32
-2
-1
-56
20
-36
-13
-83
-33
13
1
12
94
-56
-60
5
37
-43
-62
-6
-3
-37
-3
14
-55
18
-29
16
-24
-41
15
-127
50
-68
-8
-27
1
21
37
-21
0
-27
35
-14
-35
48
-10
-34
-27
-4
-2
-48
-34
-10
31
-76
-46
-79
-86
31
-54
62
45
6
65
60
62
30
64
-43
15
28
84
111
-36
-10
73
10
-59
-78
9
-91
10
13
33
-3
-1
-4
46
-37
-38
126
-35
36
15
43
24
20
6
24
-35
-45
-50
-38
-27
-8
-11
-38
-4
-46
-113
-40
-14
-34
6
108
36
-127
3
-67
-103
-2
-41
35
30
-119
62
2
-29
3
-82
-51
45
8
6
1
-23
-3
-64
17
33
-33
50
61
12
-80
-3
-73
54
14
-6
-35
10
-53
-41
4
28
-34
4
42
-59
-10
41
-24
-23
-22
-62
28
72
9
-101
29
-111
52
-53
15
19
32
-117
-25
21
-28
-100
-37
45
-49
1
4
-58
23
-33
41
-58
36
19
-31
34
-113
-10
-13
-22
-78
34
106
0
-71
-32
-60
-99
41
74
-122
28
52
8
31
8
7
-33
-13
11
-11
-44
11
-26
5
-60
-95
-40
18
-11
17
12
-23
-21
27
2
-12
12
55
-18
1
42
69
30
52
-7
11
32
32
4
34
-39
31
-103
-23
-20
2
-37
-49
-21
-3
-37
-2
-16
-48
27
-30
-61
57
8
-35
22
57
89
-32
-44
-31
34
24
29
-96
-40
9
45
38
3
-58
10
-50
102
-21
45
21
-107
10
-3
20
-61
45
-20
-59
57
-127
-29
-127
-26
40
-89
-100
21
47
56
-72
13
33
32
-57
12
9
-22
14
19
-118
42
52
-15
-4
-77
16
-102
-69
0
42
-12
-33
-19
59
15
30
7
2
-30
-4
21
-9
15
2
89
78
-21
37
92
85
-6
-71
93
-38
103
99
-7
-3
67
-7
45
45
16
30
-17
-48
-7
-37
-49
75
49
-31
26
64
14
-29
8
27
-112
-1
65
15
28
-40
22
38
17
-9
17
72
20
48
-28
-7
24
26
5
18
81
35
-50
-16
-24
33
46
6
32
104
41
-34
-58
19
0
-32
53
-13
10
40
2
-17
-19
10
65
-46
10
33
20
56
1
-23
-12
18
-15
18
15
51
-48
-8
55
21
2
25
26
-61
14
9
37
10
-73
-108
-6
-17
51
-7
-54
-42
-47
-58
9
57
45
-44
-1
-31
17
57
10
-11
51
44
101
87
-16
52
-41
24
44
-53
34
35
6
-51
-32
2
-50
72
2
20
50
5
-4
-50
-38
4
22
-52
20
-59
1
95
-63
82
-16
25
-15
-18
8
-99
-11
109
-10
-7
-19
-31
-1
95
-4
-47
-2
-18
-4
-28
8
90
-33
7
-16
-44
39
2
5
39
-14
-6
-65
-31
67
-79
-29
50
-22
-55
9
-58
-22
-14
-25
38
-28
-69
-63
30
-25
39
-89
61
25
29
-57
-89
-106
-17
-72
30
28
-29
-17
-24
49
40
49
-127
-17
-44
-21
-39
5
-70
-7
-5
-108
99
73
34
-15
-46
-9
18
-1
-30
24
-84
-3
-10
80
40
-27
18
16
-23
-1
65
-16
-6
24
16
19
-54
6
35
41
33
-17
53
29
-45
42
-65
-26
17
70
-55
3
-31
0
44
-25
26
-36
-11
-61
64
0
79
43
22
-81
-13
52
11
-88
-2
115
34
51
-29
-51
-70
-14
67
11
28
44
-4
-19
-75
42
86
-14
-49
5
-54
31
-12
-1
18
-13
-62
1
-39
20
-20
47
-36
11
-20
-12
5
40
-34
-33
-23
5
-72
-78
5
-111
11
-33
85
-4
-69
63
57
88
-29
13
-32
89
-96
-24
62
-88
-33
-5
-31
-34
17
-30
-34
-127
-74
-2
18
-5
-16
14
-82
92
54
88
-36
17
-48
-79
-36
-40
-16
-55
-14
17
-3
-26
24
-1
-23
-41
-47
62
-62
-42
-14
-37
-6
-47
-48
-49
7
58
-111
-16
56
103
-59
-3
-4
-1
-32
-84
26
26
-41
29
-11
60
-90
36
-38
-25
80
-7
21
-40
-15
-26
9
30
50
54
-24
-35
32
44
-60
23
-4
-3
-41
60
10
21
-28
105
-41
3
-2
-97
-78
-19
-4
-22
20
-32
46
25
-49
78
16
-35
-10
-16
16
84
-76
-4
-46
-37
-74
-72
-75
23
-15
-2
-32
45
-51
-1
34
36
-44
3
-29
33
69
-4
-26
109
34
-47
26
-5
-44
-8
-8
14
-6
74
0
5
-7
39
10
56
7
49
-22
-46
-8
44
19
6
-34
44
-10
-63
-22
-11
51
-19
-32
2
35
-90
20
15
8
17
-36
30
-1
19
-30
-30
-10
31
-22
-49
19
-51
-90
-11
-86
6
92
-1
-24
16
14
-39
-92
-67
-45
-84
-95
62
15
18
1
-15
-6
17
76
20
26
-91
-36
35
13
-39
15
22
37
36
-39
59
-14
2
-20
11
48
-22
-50
-9
-49
17
-88
57
28
-13
-8
-66
-14
-20
-11
58
-98
-43
114
6
33
35
44
11
20
55
55
-1
7
14
-51
-11
3
-1
48
-18
-14
4
28
-20
43
-51
-18
-1
40
22
49
35
42
-46
-73
25
15
12
55
-50
-29
26
59
-57
44
-44
-2
-66
20
-12
35
-9
-57
-55
13
40
-20
-15
31
35
-46
-32
56
25
-20
-18
-11
-49
59
53
1
-6
-11
24
17
9
30
-25
68
34
95
-51
-68
28
52
-33
69
-33
-22
-13
-8
-37
8
33
-49
-11
-3
-15
-33
29
2
-24
-92
86
15
-49
-41
2
-24
33
5
4
41
97
18
-2
-39
77
63
-24
6
-42
31
28
34
-21
-12
86
-10
60
-22
41
-53
6
45
41
-21
28
34
75
-40
-8
0
-28
39
-32
32
2
3
7
61
43
6
85
21
-44
29
12
38
-32
7
3
-17
18
-24
-10
36
-6
101
12
125
-61
13
36
80
-4
-57
-23
45
-117
-15
18
19
-34
-10
105
-37
-23
11
-2
-71
14
-35
-26
39
8
-28
-44
-48
-7
-17
-11
36
14
-28
-127
-3
-28
-36
33
13
-20
8
29
-1
-53
-1
96
31
-13
-91
16
88
21
12
73
22
-15
39
-4
31
-87
-14
-65
44
-67
38
-47
-34
-40
11
15
46
4
66
53
-37
-64
-54
15
52
-13
-52
-4
24
-15
9
1
22
-9
-55
-11
-21
-72
9
-64
-25
-3
70
11
-18
-123
31
3
-33
0
57
42
-8
1
71
-30
10
-9
24
90
-30
-53
-12
73
-50
52
-8
31
-33
-8
50
27
27
39
-3
18
36
30
54
3
-4
15
-2
22
29
-32
-4
61
5
-84
0
17
30
33
14
-12
44
38
-75
120
9
2
-56
35
-3
-52
-29
-80
-53
29
13
44
-30
-68
5
-22
-33
24
11
-13
61
-4
-35
-8
51
112
2
-10
-29
-91
-74
-27
42
97
-13
39
-25
32
11
36
-13
-9
-40
-83
-18
0
34
-9
-9
-25
-11
2
62
-8
-62
-59
14
-37
73
68
7
-6
-65
41
12
63
34
-42
28
-37
20
-26
-9
7
66
-27
-46
-37
-31
36
-14
-1
87
12
61
-60
19
-54
-20
48
-75
-4
10
66
78
-3
-64
17
-15
61
-1
-15
33
-5
31
26
-94
-38
1
10
2
-19
0
-27
-52
-13
-20
-81
79
14
-48
25
21
-7
74
-26
-29
-39
-32
27
-26
7
-4
17
-67
-77
18
-2
-32
0
-17
27
-29
88
-21
-23
-17
-43
12
-61
70
60
83
10
82
-43
-68
69
19
6
-9
23
64
106
-49
-5
-15
-22
43
-66
8
-46
36
37
-6
-32
-6
47
0
20
69
51
40
-21
13
102
52
-17
9
93
40
-29
19
42
-65
57
30
6
112
77
-85
35
14
28
-36
9
33
-26
33
1
-56
11
-8
22
26
11
-17
-4
-76
-19
1
3
36
-14
23
-50
25
5
10
7
-6
12
7
-46
-35
-64
38
65
70
-2
21
56
7
-42
36
4
-13
-6
-32
-4
12
44
64
-1
-73
49
-27
18
-23
-56
30
123
57
27
-1
-53
17
-28
7
-27
27
30
27
-27
40
30
-29
-1
-78
1
52
-6
6
6
66
36
-18
-34
0
-40
80
66
85
48
-21
33
45
87
29
4
77
-16
-12
33
2
12
-1
4
-15
-21
-103
36
-36
12
10
22
-50
-27
36
-90
15
31
-5
4
-11
-51
-11
-16
68
27
65
23
-40
-13
35
-17
16
79
-19
1
23
-113
-83
20
45
-29
-17
-49
15
-92
-59
-24
-27
-75
35
18
-13
-50
-15
-6
34
-51
-20
30
-3
-14
-24
21
26
-22
-42
-54
-12
74
3
-34
10
-7
53
21
-32
-43
-47
62
95
9
-13
39
50
-35
59
15
21
9
38
3
33
-14
11
-44
-78
53
-30
-30
-1
42
-5
-32
56
-9
36
50
-26
-18
-13
-11
-47
9
26
20
14
11
9
28
4
18
-24
-48
9
-96
-45
-56
-9
-22
51
0
41
3
8
15
48
12
16
72
-13
2
-90
41
53
52
27
29
-44
12
-49
7
24
28
16
-44
27
72
0
-26
-13
22
-79
-5
46
-56
35
-7
-42
116
-14
88
38
40
-36
69
9
-41
50
43
-19
-34
62
52
-75
-8
-22
1
-10
20
-36
2
-7
-1
45
22
90
-75
-10
68
76
13
-23
5
18
-7
0
-89
-72
-51
-70
60
-11
-18
44
-121
27
62
-1
11
-34
-7
-10
-1
-23
18
30
9
-3
-19
80
28
-16
-41
13
28
33
72
60
7
-16
8
48
127
50
18
-12
-3
-2
44
-36
11
60
17
17
-10
34
-51
47
27
-21
-50
71
83
5
47
4
-63
-24
11
-9
-39
-17
-13
45
24
19
70
16
-18
98
1
-58
15
44
-20
38
-5
-15
-52
20
-6
62
-25
-17
-12
-8
-53
3
-32
-32
-20
54
21
-33
-28
95
23
-38
2
6
61
-47
50
23
0
-68
-37
4
-69
37
-26
-28
-73
-23
9
-7
-31
38
-85
-27
6
-36
26
81
-5
43
39
47
38
20
-7
-8
-71
16
-5
-31
57
-9
-110
-61
-21
-40
17
34
0
-116
-17
-63
-31
-10
-20
-20
30
-40
50
12
3
-45
-2
75
-68
-43
-22
-30
-35
74
-52
26
-12
15
-77
36
-69
7
-37
8
10
-16
-4
-5
-12
24
-4
-28
4
-7
52
33
21
-48
33
93
88
12
37
15
19
16
-37
13
1
2
-26
21
75
8
20
0
-13
51
37
-44
13
-83
22
10
17
-3
-46
-44
9
-2
-44
71
6
-3
35
-4
-27
-69
-35
-9
7
28
62
74
-1
25
3
28
2
-70
21
-38
-5
-14
-77
-6
10
-11
-21
30
35
61
31
38
42
71
-68
-15
10
-26
-57
-9
-6
86
53
-26
-52
36
37
-20
-21
-41
-6
25
8
-2
17
-40
-17
0
8
20
25
-37
65
3
9
-5
50
-44
1
48
-25
-21
8
-29
64
68
-38
30
10
70
-29
82
3
60
0
25
-18
49
2
-31
53
-7
-18
-12
0
13
-48
-26
-45
10
0
-14
34
-27
-29
23
-15
-37
35
-18
58
46
19
-40
-84
45
22
-6
13
41
28
-24
15
-43
-15
-32
10
8
-72
127
-11
22
19
34
43
17
-40
-23
-16
-47
7
45
79
-60
-1
-2
-26
15
31
15
-6
-15
1
9
-38
-76
42
25
-13
-29
74
30
47
21
35
31
35
127
-20
29
58
-46
47
-54
-8
-41
27
-39
-17
-10
-36
51
-5
-51
-62
-51
-14
15
51
10
51
-34
6
61
-27
78
29
0
-4
23
-45
7
12
35
5
-3
-68
4
-41
91
-8
-24
-29
-79
13
18
70
19
-55
4
-22
49
38
45
18
19
-23
-22
83
-43
-39
-14
-39
-17
-25
35
20
-60
62
23
4
16
51
30
41
3
-10
-1
36
19
41
31
-20
-65
-20
-14
-41
40
7
7
56
20
-24
14
-18
6
35
-34
13
-21
-21
47
-9
45
4
31
15
11
-52
-45
71
38
-22
11
-2
89
-20
6
-18
-84
-1
-9
42
1
17
-4
-25
-77
-8
47
10
1
-10
88
9
-8
-77
-1
-39
16
23
30
47
-4
-15
39
-88
65
78
65
54
-28
71
-10
-6
8
-39
3
-69
-38
6
-15
16
23
-67
-32
66
43
90
-54
-13
45
24
-25
-53
87
-4
55
36
16
13
20
127
14
-39
-21
22
1
-30
-26
11
-62
5
39
58
9
-16
29
69
26
28
-68
-55
21
7
-80
33
20
-11
10
2
-58
26
20
24
-66
-3
-38
-13
4
-53
-4
-17
-42
-19
25
16
6
29
30
7
-16
-19
-18
11
-51
-8
-3
29
7
-62
7
3
-14
0
55
21
1
72
0
52
34
13
-31
-25
-28
-37
-30
-25
26
42
-50
-30
-96
4
-51
40
9
-29
23
63
-34
-39
54
-25
19
-2
-9
73
-26
-80
25
3
21
56
-39
16
80
55
10
34
-3
66
-17
8
74
57
-29
0
28
79
26
18
22
-27
-71
33
71
-79
-13
17
39
9
48
43
73
35
-44
79
8
-40
-51
29
-23
26
43
5
-37
46
16
-95
-23
33
51
16
13
-21
-25
-19
-42
-41
-5
-42
-7
54
-21
21
-32
7
37
-29
-49
-36
47
20
29
-29
-10
63
-1
-87
59
85
-27
24
3
18
3
-7
40
-25
-5
-3
15
-79
-4
1
-16
3
106
96
-46
81
-16
26
-11
30
37
-9
-43
-82
4
12
-13
-40
-10
36
36
17
-27
-25
-18
-61
-14
4
5
17
39
-32
8
2
30
-59
54
-14
-34
57
32
52
43
25
3
-81
14
84
-5
1
-16
-72
5
-56
-4
14
-9
-21
7
11
-16
32
-48
-38
68
-24
-26
27
1
-62
3
-13
23
-25
-33
-45
-44
27
-2
-37
-15
-63
15
-18
-59
56
27
66
66
10
67
18
-26
-22
37
-51
-21
33
10
34
-32
11
-23
33
61
-55
-15
-6
9
22
14
-5
7
10
1
14
54
-7
31
48
-2
9
-48
50
-29
13
36
127
8
30
-8
-16
39
-45
-14
-25
49
-33
40
-96
45
-32
56
-28
36
73
-37
76
-31
-4
-44
-44
4
81
-16
-23
69
-53
60
-8
17
-2
21
-5
2
-5
7
-14
11
-18
70
63
-37
25
9
48
15
-38
-44
13
-8
-2
10
-16
11
15
38
3
-52
-1
34
2
-26
-21
19
-35
-6
25
6
12
29
5
27
85
24
80
10
0
-29
50
-47
-32
-19
19
43
-16
-11
36
9
97
52
31
18
-45
-15
-40
53
-37
-37
-17
-40
22
43
-5
-18
40
25
-49
0
47
-74
0
-64
-43
50
-22
-41
6
-45
-2
22
-34
-15
60
-1
-19
-22
-23
21
-51
-4
53
-117
-49
-1
42
-26
-10
-9
127
-43
85
-43
30
-25
32
113
11
1
-22
22
37
28
76
-20
-7
3
-15
-16
-43
13
-8
11
-8
0
-27
27
23
26
-11
64
62
7
27
0
16
-47
20
-80
84
8
33
-16
-17
-28
-109
9
-64
2
-10
-72
-33
-7
-14
46
49
-5
14
-1
51
-5
41
-15
2
-61
-37
-46
40
-62
-55
-13
-39
23
17
54
-2
15
-18
40
104
78
29
78
-44
-58
-18
-24
-11
2
19
12
19
-23
-29
-51
-26
-29
23
-82
-31
2
-80
-61
31
52
-33
-17
12
-66
58
-52
44
-28
-29
22
21
58
30
4
50
70
55
-19
5
25
14
11
14
-33
35
1
4
46
-33
-40
108
35
20
78
36
-14
6
16
-25
9
-7
32
41
37
16
58
34
25
42
-12
51
-46
29
18
-33
24
-25
5
11
6
-42
33
-26
-5
71
-25
2
-62
45
-31
-15
-74
-32
8
9
-12
31
39
-29
12
-2
-4
13
-8
-21
39
-4
7
-44
-1
-64
-3
15
49
60
14
10
-15
-24
32
-67
-33
68
1
8
-33
1
17
12
-4
45
-80
23
-3
-35
-89
44
-4
-21
-8
-1
-34
63
34
-22
-7
-18
21
-21
-46
-7
16
-17
35
-20
-49
19
-29
-21
-88
8
-10
9
1
-53
-31
-30
-6
48
-23
36
-32
-29
49
-43
59
11
12
65
-10
-2
0
-14
64
-3
-29
-10
31
21
3
6
44
12
7
37
-29
32
68
-56
-39
-50
-28
20
15
74
-65
-33
8
4
-71
69
12
-3
1
-44
5
73
-2
-19
18
109
16
-26
-31
-120
0
12
47
-87
-27
14
39
-19
-4
-101
24
-111
-23
-55
24
-10
93
1
-2
42
51
-50
71
-10
-78
-9
-94
-54
-38
93
58
-65
-32
83
58
-39
-51
3
-32
93
-78
28
27
-29
9
-31
-22
-34
-75
29
51
-5
-35
-34
34
-26
-121
15
20
-5
5
26
9
-26
28
82
-27
-14
-2
-23
112
61
23
32
-45
-25
19
46
-32
-27
4
13
-22
23
8
54
19
49
-44
-103
13
21
45
-62
-30
-16
-66
-107
3
10
-18
16
-2
10
-62
50
-57
-19
51
-98
-70
114
-36
-54
0
-29
35
51
-28
-80
11
-127
108
-6
-69
-40
-68
-37
26
-16
0
-6
-16
-33
-3
-20
51
-80
12
-61
-52
-3
18
47
-42
-117
16
51
-28
-70
-1
18
17
7
-29
-51
-61
21
-37
-20
26
10
-19
63
-84
49
-33
55
-11
-15
-9
-51
36
28
-27
-61
-26
25
0
-40
1
9
4
-40
-28
-44
-44
-56
34
-10
-20
59
12
-65
34
-49
-11
11
-46
-24
-26
-36
-21
9
19
-58
-55
24
-33
-42
35
-72
6
-17
13
-26
47
100
-13
-33
50
2
-69
19
86
-81
-5
8
-65
-46
112
-127
-89
42
-1
-26
30
-47
-34
46
-3
37
27
5
-5
-56
-79
45
127
-8
-60
52
-29
-20
-89
-52
30
68
40
-38
-43
51
23
48
-13
-20
63
-26
-40
3
-87
59
-64
50
-23
-91
-5
5
-5
-65
6
44
-82
19
-63
107
-91
11
59
-34
-116
-40
30
55
-35
21
29
-59
-59
40
18
-20
-77
7
-53
45
-1
74
-5
-66
20
-45
-14
-14
-27
25
21
17
-50
58
66
89
116
-112
-17
-83
38
-2
41
-22
-36
-44
-6
4
-25
-17
43
-92
10
7
-72
61
5
-88
-40
18
19
20
24
-52
-19
-11
-127
-29
16
-16
-3
36
25
-22
30
-40
-7
-75
22
-18
-45
8
-37
-39
-68
-22
-25
2
-47
-11
14
-16
-22
101
61
-111
44
64
20
18
0
-39
21
34
25
34
19
51
4
-24
-25
-113
22
-127
-17
-110
-40
-33
19
9
65
39
18
40
28
21
127
32
-51
-63
-60
16
-64
40
-1
-16
-127
0
84
-70
-83
25
-21
-39
59
-31
124
-34
34
-108
19
-35
-36
-54
-20
69
-101
-26
-9
10
30
-51
8
15
42
54
43
15
11
12
-60
-45
108
52
-4
13
-92
2
51
22
36
72
-95
52
-76
-11
7
36
0
-11
-63
-36
21
-44
17
-36
57
-22
-44
1
29
-32
-24
-32
0
-77
-61
-84
63
21
29
77
-87
-19
44
9
-115
48
42
-52
76
-127
21
7
5
-1
9
0
8
121
23
-50
-34
-11
20
68
-21
78
68
77
-79
25
-42
-29
-47
-10
66
49
12
3
-51
-106
-55
-28
0
64
79
-78
-31
-17
30
-35
-70
16
-26
-3
-81
58
47
-13
-78
29
44
-101
-35
-33
16
-35
29
-14
3
-30
-27
-77
29
55
-37
-66
33
77
25
1
-9
-64
-20
-61
-23
-17
63
-71
9
75
94
65
-10
-3
68
-9
-85
82
4
-2
-13
-80
4
24
-32
-36
56
5
-33
7
35
47
2
54
-49
-97
-24
-16
-1
-29
-87
23
-15
25
39
53
-52
11
-30
-21
-32
-8
-90
-9
-8
92
29
-20
26
-40
23
75
38
-33
-67
41
42
8
2
22
-37
-77
-70
4
-92
-90
3
-105
-38
-38
96
-11
13
-60
21
-39
-28
5
-8
-9
-47
28
-16
-23
-16
24
78
53
20
32
-30
96
2
33
-60
0
65
14
-20
38
-62
42
-68
14
2
-97
-19
18
-4
46
56
2
-127
-4
-57
-27
-18
44
20
55
-82
-46
56
-127
-60
-46
3
84
-34
-51
-3
13
-1
-67
-76
-17
-108
-77
-8
-57
16
-41
-78
21
84
7
-44
28
10
35
32
23
10
76
-7
-57
9
-18
46
-20
-13
-32
-25
-4
47
-6
-19
-24
-127
89
65
127
31
-20
-18
56
-21
-32
-26
61
-70
-3
0
-51
19
5
-28
-8
61
-39
-28
26
99
-23
-89
3
-8
-41
22
31
63
-70
-8
58
-42
1
-2
0
-13
14
-45
62
-22
-91
-54
-18
6
25
-2
-40
-42
8
-2
-44
-5
-16
37
-12
-5
-72
-15
-46
6
13
-40
-21
37
40
-1
-3
-91
53
-37
70
7
-37
71
-13
-30
33
61
6
74
68
77
-73
35
24
67
-44
-7
-59
65
66
-21
-31
27
2
0
-29
22
19
11
-66
20
-11
33
-22
-21
3
-22
63
-25
0
-59
-38
1
-15
8
59
-102
67
127
-79
-17
15
-127
38
-12
-23
15
27
16
44
-36
-99
41
-60
20
-23
-86
-27
-14
42
14
61
-15
115
75
-6
59
13
25
10
31
81
25
15
14
18
-20
43
2
87
3
11
8
-5
3
93
-41
6
-89
62
7
28
-35
27
101
54
-127
-35
-69
61
22
-5
127
16
54
-12
-18
-2
25
-39
-7
-122
-14
11
-48
-56
-49
-64
22
-19
-22
40
-80
41
19
31
-115
7
12
80
23
23
20
14
45
-59
-15
13
-15
15
31
46
25
13
38
-4
-22
33
-22
-31
34
-5
-5
121
63
15
-17
38
-19
30
-16
2
-32
12
56
-12
-54
52
14
-8
2
19
19
-21
78
-24
-6
63
-27
70
-99
-7
-72
-37
-11
-91
35
11
8
-16
65
32
71
-43
60
1
-47
14
29
-76
53
-83
-16
-45
-27
10
18
9
-40
41
64
53
10
42
53
75
-8
-38
-62
-37
-4
-21
59
-127
5
-43
-127
-2
-58
-21
-7
18
108
-15
-1
-52
-53
-32
-54
22
18
-34
-2
18
-3
-58
69
-40
-5
-29
0
24
-49
58
-38
-45
-73
53
-28
39
-29
49
-27
-23
12
-24
-40
34
-13
-4
-15
12
43
-50
19
-29
-75
51
-4
-48
-90
23
1
3
23
15
-72
-36
-13
52
-19
10
5
97
45
44
-28
32
-50
-100
-53
9
12
-39
24
-12
-44
53
16
22
15
7
-11
-5
11
-102
-30
52
53
83
-49
2
7
28
6
15
34
39
-33
0
-22
28
-51
-28
11
-59
-38
22
-27
19
-103
8
-5
-20
17
32
-15
1
28
-9
-18
40
-54
-18
2
-23
16
10
14
-98
-6
25
9
-19
24
16
62
14
34
28
-12
-10
-34
-46
47
-21
-54
11
43
-33
-87
3
10
-29
-94
18
-25
-16
-47
14
5
-46
2
26
90
-30
-11
15
-21
-35
-55
-23
-29
-27
-60
12
-30
-59
7
-12
-53
-26
-10
-4
-63
-8
-14
11
48
-61
47
-19
37
27
-74
40
55
-46
-27
18
-27
-63
50
-8
-13
15
-8
3
-29
-5
-57
13
-38
-13
-24
14
-17
-14
49
-42
69
0
6
27
-9
-1
-84
9
-20
-50
-6
-86
-14
-57
14
28
30
-55
-71
-46
41
7
10
9
48
-33
4
-53
29
38
43
-85
-17
27
-68
3
22
2
23
-12
7
30
-26
8
-18
-31
-10
43
-34
15
25
-20
45
8
-33
-13
34
-8
41
-16
-28
-20
11
-70
43
48
-17
-1
54
-27
-84
21
7
1
-18
12
4
5
-23
-6
-75
-7
36
35
9
24
-7
-25
-9
82
-61
48
6
-27
-98
-3
40
-40
-7
-16
-20
27
-99
-10
-62
-5
-36
12
-37
-24
46
33
-9
-18
-22
23
22
-49
96
21
65
-48
0
-29
16
-53
-9
-44
-56
-69
-17
-3
34
41
54
-60
44
-16
26
-11
91
-65
25
-48
2
-20
-13
95
-20
11
43
89
-5
65
-33
-5
90
-46
50
-29
-11
54
15
7
-18
-40
-9
46
68
-69
9
33
-7
19
-6
-73
-55
60
-53
-30
-63
-44
35
-3
43
-77
-43
-60
82
-45
19
19
63
-20
19
50
70
4
-19
23
-40
8
16
-62
-97
9
10
-25
-19
27
20
18
0
-20
-28
-8
-14
-43
3
32
-57
31
61
6
4
27
-29
-61
-13
1
56
-90
-20
-39
-63
-21
-5
42
3
41
13
20
26
-8
59
14
-13
52
-40
18
15
32
1
4
10
72
46
-64
50
7
77
-44
-22
6
-24
4
-2
-21
-9
-22
36
-11
12
35
-11
-58
21
-17
-13
4
3
7
55
-24
28
9
0
40
12
8
24
-28
-75
3
86
-3
-11
3
1
-24
-18
-49
60
6
21
-36
-85
-75
-2
-19
-23
-87
7
-16
63
20
-18
-66
19
-43
-4
-70
-4
-48
-12
10
0
-83
-59
-5
13
19
-26
69
42
-49
-13
52
-45
-46
-24
36
-59
14
-56
5
-70
25
25
30
19
-24
73
1
26
15
18
113
-19
-28
49
36
67
34
-64
44
-48
-5
15
-27
15
-23
-43
-75
-5
23
-36
13
58
-106
1
6
5
-33
-4
29
-43
-64
-4
-33
16
-35
10
-18
-23
-46
27
-55
-1
5
-58
28
55
21
-56
26
-93
34
-53
-6
-15
-36
-7
-22
12
16
38
-5
-16
11
-12
1
-17
1
-12
-70
78
14
58
5
-9
20
-72
63
-73
72
-80
-4
-31
-27
7
12
-35
11
84
2
63
0
-30
28
-52
-23
-23
-58
27
20
13
-3
41
15
-17
-1
-12
-2
4
-34
43
30
-8
-19
54
12
5
-87
-17
-12
-102
48
20
75
-3
24
-56
-15
27
-41
11
5
-109
12
-12
-25
0
15
34
73
-55
57
-75
-4
106
-23
-25
-30
-39
-39
19
-59
6
-79
-86
-16
-49
-58
-12
-102
48
29
28
-41
73
-42
-35
38
-80
-37
69
26
-8
16
-9
48
24
0
-44
7
-27
26
-63
18
-26
-18
5
-15
61
-1
-44
1
-20
5
-60
-58
-92
37
10
-27
-70
-71
-40
11
33
-25
9
37
22
-7
15
-15
19
25
-2
-9
19
33
3
-76
53
-6
19
-60
-26
-38
-14
34
33
-4
-25
55
-34
17
-18
76
16
-2
18
-16
-50
-5
-39
-13
-76
28
23
52
33
-9
-7
33
-20
-13
-8
-34
-10
-26
35
-15
33
-10
-37
15
-20
-3
27
35
-48
106
36
-54
51
-4
-9
34
-85
-37
8
-19
-31
-17
-4
75
34
-30
-29
-15
96
-39
29
-75
-12
-6
6
62
-17
8
10
30
-54
11
-47
-69
-25
16
41
-17
-9
-6
-13
29
-26
-10
-72
9
14
-7
-13
-41
22
-23
-37
-6
96
-38
58
-30
-25
-89
3
3
17
1
-6
32
8
-39
22
10
-27
13
-41
0
-39
85
91
-32
-2
45
85
-34
-47
-18
43
-46
76
-14
-1
58
-5
54
-80
-115
-37
12
-66
-12
46
-37
-49
59
-8
-35
5
3
-13
-28
44
7
-31
-40
-57
-43
62
-17
-8
22
19
-51
100
93
-8
-32
-59
-20
27
-44
21
17
-31
-52
-61
-26
-21
26
41
36
-20
-80
-35
-42
5
-41
6
-72
27
35
8
16
-52
27
-33
-2
95
33
-15
2
-72
13
-3
29
10
18
6
-63
10
-49
-15
-17
-21
-44
-29
31
-4
4
-23
-25
-47
-26
27
-22
-26
15
-24
40
-69
2
-10
-86
21
-44
26
75
1
41
-18
46
68
-24
26
52
13
-45
7
-20
16
53
26
29
15
5
-24
13
0
-107
-16
23
7
-43
-11
-40
-16
51
-35
-43
-5
6
8
-83
-1
14
-22
21
-38
-10
14
68
10
12
-10
26
23
-66
8
23
21
-33
32
12
3
-52
-10
-114
-23
53
26
-22
-1
-57
65
-11
-24
-51
-14
-58
16
34
32
10
-8
9
26
105
-14
14
26
22
47
-40
-65
17
22
-36
-41
29
66
-33
-12
57
-12
-9
28
-31
-10
22
16
-36
-14
94
12
-37
-46
120
24
-44
-59
40
-33
-32
-73
-16
-43
-73
-9
-43
4
14
2
52
23
-13
24
-8
14
-102
97
12
2
-49
-16
-36
-22
-26
58
0
1
26
27
33
5
79
-44
-38
0
-37
100
39
-73
4
22
38
-93
-4
25
-3
-73
-37
-49
-93
8
-83
-50
-54
-11
65
-68
-45
-50
2
26
-87
0
-11
47
70
-121
15
-105
14
60
25
55
25
13
-38
29
65
127
-61
-43
-29
3
70
9
-39
19
-23
23
-16
-42
7
109
25
34
-56
13
-40
-2
-47
19
10
76
40
53
35
-34
-48
5
7
-13
-69
-7
8
44
46
25
-62
32
37
39
47
52
-98
-52
-61
-42
56
18
-40
-11
-62
-36
53
44
13
40
-29
3
48
7
-54
-1
-57
-1
-29
43
42
-1
43
34
-48
-37
15
-81
51
12
-6
-28
1
-58
-26
-20
-3
-12
-46
-11
-9
-108
69
-57
-41
-6
45
-103
-44
-16
20
-37
54
-20
15
25
-42
-15
-105
-21
37
24
53
-73
42
1
-49
-29
-31
8
-43
59
94
56
-8
-38
-6
34
6
4
21
-28
15
11
37
36
2
29
-85
-2
-21
1
99
52
39
-13
16
33
-45
-26
40
-1
-44
12
-44
-10
23
11
-11
-5
97
-60
20
-8
69
-21
-2
-18
-28
-29
-5
46
-28
-25
-14
104
4
-74
-18
-5
0
18
3
-13
-63
43
34
-12
22
-72
-4
-55
5
93
-14
10
3
-56
-105
-82
25
41
45
-15
-64
6
35
28
67
75
2
25
22
-50
24
-1
15
-26
86
6
-74
32
-16
88
36
-16
-22
58
46
-7
54
-23
39
-12
-27
15
53
13
21
23
-76
73
-3
-11
-26
-7
-14
39
26
-5
30
-33
21
-83
23
4
16
-15
-18
-16
12
-20
-4
6
20
-1
17
-14
-90
17
-11
12
39
36
32
51
42
51
-35
32
52
-57
97
-17
-25
-47
-27
-22
57
10
-7
44
-1
-12
-107
52
86
-42
-39
8
-35
-20
54
88
51
-14
32
6
64
52
12
-16
26
-66
-33
-6
12
16
-72
-36
15
-83
-27
50
-3
-6
102
73
20
-11
32
-17
-6
12
6
9
-7
65
23
-14
78
-13
-6
34
-8
-77
-2
-38
-22
34
-7
-48
-53
9
-26
47
-36
-52
75
-62
56
5
-11
-16
-4
59
-57
-36
35
3
8
-14
20
29
-37
-2
19
-67
-28
-11
1
17
-16
-101
46
-69
-33
-28
-30
10
-27
21
77
104
27
48
26
-16
74
37
-3
-22
-127
-33
-10
-3
-5
-89
-13
-76
-36
-35
8
-26
20
53
16
78
71
5
32
-65
40
-90
87
65
-18
-54
127
-8
-6
-22
6
-24
14
29
-44
-12
-43
43
-19
37
-27
-6
-35
-7
102
37
-5
2
15
-4
-49
-88
22
32
-25
1
38
13
37
41
31
-24
-37
44
-10
11
-58
0
71
-5
-51
-37
-51
-10
-14
-52
-38
-2
38
-32
-13
9
-4
1
-2
-30
20
26
-1
54
-17
17
4
-26
62
-56
-90
52
45
-24
28
13
56
-14
50
10
-34
-35
-50
30
-23
-13
-84
-5
63
61
-54
-32
2
-2
4
19
17
-11
-12
-46
-6
0
3
51
-13
68
-25
-18
-11
17
-25
7
3
29
-30
25
-68
0
24
-67
19
-5
20
7
49
-41
-56
85
-26
83
-40
32
18
15
18
21
-10
-15
-15
-45
11
1
13
-4
-3
-103
-60
2
14
1
14
-21
12
28
-63
113
26
-61
34
-27
30
39
-45
69
-56
7
-5
-62
-50
14
-24
-84
35
34
-12
-34
3
40
-25
9
-14
-28
-36
70
-18
-46
-80
-15
-23
-65
-15
-8
13
27
-3
-20
-5
-18
-7
10
-44
-38
-33
-95
-13
-52
41
-21
-75
29
61
35
18
83
-24
39
15
-26
-13
-10
21
26
33
-36
-9
55
-25
-64
30
36
-70
59
-29
-27
-12
-105
-30
-31
25
2
87
-66
-103
79
9
3
26
-71
33
75
45
6
-35
15
-4
37
24
13
3
81
2
40
-85
15
-5
37
-39
-47
10
-54
18
-71
60
-27
-16
-30
-25
3
-10
-8
57
-2
-9
25
-12
-50
18
48
24
-58
45
48
14
76
34
-30
81
49
-77
-6
16
-18
81
32
38
32
17
22
12
43
23
14
7
-63
23
-13
-22
-34
10
88
-94
-1
-24
32
0
40
-63
0
60
-29
-27
44
-3
35
-56
-26
-58
5
105
-12
3
25
23
23
24
-2
14
-113
-31
-69
-15
41
-32
-7
-48
-37
-4
-68
19
1
-70
-33
-127
1
69
17
68
27
-26
-20
28
16
1
66
-4
-43
38
22
32
48
-20
-42
-7
20
10
-1
-31
11
30
36
-33
39
11
9
-33
-17
74
1
-55
32
-51
-50
-48
17
52
75
-12
23
-8
6
-23
-30
0
67
38
3
21
-3
-15
-30
59
-39
2
-53
-12
19
-50
70
33
15
28
36
58
-11
11
25
43
3
-14
4
6
-27
-18
75
-7
66
-30
-45
62
-59
-77
55
2
9
-6
43
-25
76
-77
6
42
30
-13
66
19
15
3
65
45
-18
69
18
53
40
-32
-56
24
-19
31
31
-15
-62
24
115
10
-28
-9
-31
-2
-42
9
3
-39
55
-14
18
-11
-11
-28
34
17
28
-28
60
7
-3
3
30
-35
-73
25
-3
127
-12
11
-11
13
38
22
39
-1
-3
-3
8
41
-61
-61
-20
21
9
-23
1
12
24
38
-4
-10
40
50
50
18
72
68
21
-7
-67
8
16
-20
-38
15
96
53
-56
11
-52
49
-11
-18
-7
-78
-70
23
41
5
-50
-4
-24
42
83
-75
31
1
47
29
55
-5
-61
-42
12
-62
-9
46
68
3
2
-36
-7
15
15
-55
-25
-2
87
28
5
-98
-86
20
-1
-2
-5
-32
-34
-75
9
16
-46
33
-24
-68
27
1
-8
-20
85
-8
-22
8
-15
44
46
-1
50
19
-21
14
20
7
-38
-6
-61
-51
-96
-48
9
-16
-17
11
-33
-41
52
-11
9
10
16
12
-74
-38
-5
-35
18
-32
34
2
-5
57
-5
39
-59
-4
53
29
-18
3
3
-96
-62
10
20
27
-12
-64
-49
75
-33
-71
45
1
100
-38
-56
69
45
127
-26
-31
-7
29
16
-4
59
-30
41
56
33
35
-124
42
-22
48
-95
-36
114
68
33
-11
-50
-37
-14
50
1
-72
-11
2
-22
-4
30
-4
76
-8
-15
-26
35
-49
-40
-19
-52
65
-124
-28
-20
24
-36
17
-38
33
59
18
16
12
-34
17
-16
25
58
-42
70
-37
-84
-27
-32
-27
18
-17
8
-34
-46
-8
-105
-26
-30
13
14
-11
7
-11
-49
1
7
19
57
-33
-1
-31
28
23
-12
-50
116
-82
-5
-59
-42
-21
18
21
87
28
60
-13
3
49
-118
-53
1
1
-118
-64
-28
31
29
2
24
-5
16
-10
100
-4
-24
-43
4
15
-42
49
26
32
-33
22
41
22
49
-87
4
-79
-11
27
10
-40
-26
-34
81
-9
-14
-60
-53
-16
-10
23
13
127
-28
-87
-83
-6
61
76
-15
-42
-36
8
-35
7
-11
7
-60
21
-18
53
48
50
38
-21
41
30
18
2
22
2
-33
46
6
23
21
60
-28
-2
79
1
19
32
48
-6
52
33
-29
82
-72
-49
92
51
-76
-5
-5
-22
-36
32
20
4
-46
16
6
64
51
-75
-35
7
-43
22
-23
-24
6
14
59
9
61
-8
30
-8
23
-9
-66
9
90
-23
0
25
-1
11
95
-29
68
-4
100
107
29
19
23
6
48
58
79
-27
28
-39
-18
9
74
2
24
-15
-38
36
-21
-34
9
24
-6
26
-4
33
-2
-9
39
58
-8
-12
31
24
32
-13
-34
45
11
29
-22
-11
37
-51
4
-17
1
8
30
-55
-70
58
-2
-4
13
8
30
-3
-36
-42
-53
-6
49
-20
-57
-112
-28
32
60
46
66
-27
75
-47
78
18
3
31
12
48
57
-21
2
39
-29
-64
13
27
-59
25
13
79
14
-76
49
18
-6
2
-12
10
-38
45
6
-2
-19
26
-2
16
73
-26
37
38
8
-11
5
66
-32
19
-13
-7
98
-60
-25
-15
-19
27
45
47
12
21
6
-23
8
26
55
-34
-17
-21
7
-66
73
-23
-77
20
16
-36
-25
7
33
-9
39
5
30
13
27
-16
-39
24
-21
-11
-39
-27
-6
-15
-22
-47
-29
96
-33
-22
-33
8
9
30
-64
-11
53
66
-68
-63
-16
-18
-31
13
-86
-118
-50
-8
36
15
46
11
-30
-41
-48
10
38
18
11
101
50
-42
61
43
22
-18
-77
21
-14
30
-52
6
14
-61
-11
84
31
15
27
-12
-57
29
81
69
13
-13
-21
42
9
58
-15
11
-6
87
39
-23
20
-45
-3
-64
-10
49
-20
-24
-16
-49
49
3
-29
-6
-28
-57
25
6
-85
-17
20
-2
6
-1
2
0
-23
63
22
18
-26
67
16
127
38
-50
-22
58
0
127
-1
-50
-81
29
46
-22
-96
34
-17
85
-73
-7
38
23
6
20
31
33
-5
5
-59
12
-33
36
68
10
42
-111
-33
1
8
2
-81
-50
4
-11
-11
44
-43
-77
-11
124
-12
23
103
0
61
7
26
54
19
-18
71
-21
27
-127
62
16
-8
15
21
-58
18
-23
17
-88
-39
-41
-80
45
-38
127
31
-20
-12
62
5
52
40
-21
23
37
9
-6
-19
-57
26
122
-27
-72
12
27
-15
-32
1
3
31
81
-24
25
63
-4
-51
33
15
-104
-28
-4
55
-64
-1
14
32
-6
-22
23
-60
-24
3
55
0
17
-39
-42
95
24
36
11
-69
17
-9
24
-53
12
-36
10
16
-16
9
-26
9
41
-15
-4
-27
11
24
44
-4
-11
-37
27
19
60
-41
-19
-44
29
-11
3
-30
-89
41
50
10
0
-74
-16
26
27
94
73
36
-81
-29
-34
-44
-46
0
113
66
80
-46
-21
-2
-3
-33
-53
9
1
-3
-117
-21
-58
16
-31
35
21
79
0
55
-41
20
-49
-7
-1
27
-68
-86
-5
-1
-25
1
2
78
111
-4
41
-5
-64
-23
-87
-16
-9
66
43
24
-50
66
-9
-72
-10
-16
-48
-2
-20
21
35
66
28
-6
-45
33
20
30
40
-81
78
-28
-40
-7
15
-40
29
-8
51
-29
37
2
60
94
37
14
33
23
10
23
-6
-3
63
55
29
46
68
84
12
47
8
-41
10
-10
43
1
-13
-33
23
-38
24
-22
2
-5
15
-33
18
-20
20
9
-2
-27
0
-8
1
21
18
23
-2
5
-1
95
91
-46
22
-68
-23
12
-6
-25
-18
-1
3
50
25
-53
24
5
24
24
37
-76
23
25
15
42
23
-89
42
-23
32
97
-2
4
-36
83
-89
56
-1
-11
-53
-37
-45
-7
4
-53
10
14
-71
-7
-34
87
23
8
-51
108
-3
111
24
-31
51
43
-2
34
-55
1
96
-42
82
25
67
-60
7
-41
20
41
1
52
-35
16
30
19
-120
-2
13
-32
23
-4
-23
-40
16
123
-44
-26
11
22
16
35
34
-91
11
26
24
-21
53
-9
-11
3
10
-22
2
61
-15
-6
-48
47
15
-52
76
-24
15
34
-30
-6
17
40
-15
36
31
40
-9
-85
34
94
-19
33
-31
-96
-5
-3
65
61
-14
35
44
-5
72
-12
23
22
48
43
4
-35
50
9
67
-56
41
-29
-6
50
80
-64
-55
2
32
-5
17
-38
-43
6
-61
-83
-45
-11
123
19
62
-47
25
18
51
-29
-47
7
31
25
67
-35
115
29
27
-73
-57
63
16
52
39
-53
-26
21
-26
1
-85
-2
92
49
29
30
54
18
2
30
41
-30
-44
95
16
30
38
-1
10
-19
-62
-35
-17
23
53
51
67
-49
2
-25
5
27
16
-89
68
56
17
-34
37
-36
-5
-48
-56
-41
12
-7
5
-33
42
-2
35
-67
-3
-20
89
-10
25
-75
64
-51
-7
-38
-12
-5
21
36
47
43
-36
36
16
47
49
26
2
-1
-12
13
30
-21
49
-29
-58
-29
69
-19
-55
14
-38
-39
29
4
4
-4
4
-59
-56
-14
-29
3
-56
-35
17
-20
64
19
-42
45
28
14
-36
-49
-30
-25
-47
-3
-62
-17
-76
-12
-61
-3
11
-14
45
-33
9
7
4
-26
33
66
-32
1
-21
4
6
-7
-27
-71
-61
0
-56
-66
-47
-6
16
-63
-18
30
20
-35
7
24
-22
71
-52
3
-37
26
40
42
73
53
16
-30
-15
15
-1
-27
21
-74
64
18
40
-5
35
14
3
-18
-87
-30
16
-13
5
27
3
-23
22
-54
-36
-50
-3
-18
-98
97
21
-13
-57
-14
-127
23
-46
19
-21
-26
-28
-12
-25
127
8
73
-26
-7
-59
-7
-46
-46
-5
-16
-73
0
9
-23
-43
1
5
-24
-37
28
-53
-5
36
-124
61
21
-17
-17
68
-54
20
-39
-20
57
-58
-14
12
-9
-12
-36
-37
-19
34
42
-34
-62
-35
-69
-35
-21
-20
3
-10
-1
-12
-55
-46
28
7
-28
-24
11
-11
-25
-30
-70
-19
-84
-3
19
-29
-23
-16
62
10
30
13
-58
-3
-21
22
-20
25
-1
-20
-88
21
-84
-78
-2
32
6
16
21
-29
-5
-60
-54
-7
-33
-39
-39
22
-39
11
3
-27
-13
43
19
105
-7
-27
52
-17
-15
-51
-35
-30
-4
-8
-13
12
8
50
-35
-43
-17
-28
24
42
29
0
-2
-17
65
16
-3
-38
-31
-25
-113
22
5
2
-36
-65
34
-53
8
30
-7
-12
32
-53
-21
-65
0
-36
52
-36
54
-104
-81
13
11
-15
-7
67
27
-43
-20
69
-127
43
3
-75
-81
-48
-15
79
30
-9
-35
-44
-66
-8
15
26
17
-42
45
-31
-19
34
-14
0
1
-3
-16
-73
2
-27
-69
-26
-28
-101
16
-46
55
-64
9
-90
-17
22
-34
-26
-41
-57
-3
-27
-46
7
90
-5
54
27
45
-7
19
19
-24
2
-82
-21
3
6
-7
10
-106
-29
25
-7
10
49
-101
24
-28
-75
1
13
-25
-5
82
12
-29
-49
-12
-105
82
25
11
-33
53
-36
-41
5
-54
-89
-34
17
5
8
11
-16
-26
17
4
-31
-11
12
21
-14
-79
-12
-24
-56
-8
-53
15
-92
-38
127
-87
-33
-54
-23
-7
32
48
-32
-32
-64
-32
-20
1
62
-4
-22
-22
-87
23
37
-72
-31
-127
53
14
54
11
2
7
-49
-3
-16
-39
5
-78
-21
16
6
30
-3
-53
-63
1
6
-41
31
34
-3
25
-19
28
-25
-65
-22
-17
-27
-47
-41
-47
23
-36
14
-81
-4
-8
13
-45
-86
-7
-59
0
-37
-46
19
6
-44
-21
-7
-13
-21
-79
7
-69
2
-23
29
-18
7
-27
-18
-30
13
-41
13
-23
-33
-19
9
-53
-68
31
-5
12
68
-31
3
15
-29
16
-6
-47
-19
30
21
33
-52
23
-127
-45
38
13
16
50
-48
6
-33
31
13
-32
38
-43
-28
61
12
29
-44
-60
-7
25
-29
-25
36
-45
-58
-27
-78
-73
2
8
-65
-26
0
50
-11
22
-64
-59
-13
5
-64
35
-75
-23
31
40
14
26
12
1
-43
-36
22
-52
127
-24
-47
-23
-23
58
-22
-70
-35
-49
-5
9
-34
7
41
12
-43
-12
-31
-39
-58
-45
40
52
19
-69
-83
35
-9
-8
-44
-23
40
22
79
-51
25
-2
29
7
-12
-10
-7
-65
22
-12
-46
-35
0
-25
29
59
3
77
31
-16
-5
-35
-13
-19
-4
4
43
-91
-45
7
7
-17
-13
-66
7
-64
-7
-18
-9
17
23
-19
-78
-22
81
-61
34
13
22
-11
-17
16
11
-13
-39
34
-23
-6
57
-20
-31
3
27
-34
34
-15
-21
-44
37
78
-41
-15
-68
-52
-7
-25
-5
30
15
1
28
-73
-89
10
-16
39
-2
-83
-81
6
-94
-12
6
1
15
-5
-69
-12
45
8
20
18
-45
-39
-57
-27
45
-77
4
58
-25
-55
-31
40
-58
-25
30
22
50
12
-47
16
55
63
5
10
10
-3
28
6
35
59
-65
16
-38
9
-9
38
-35
-43
13
-52
-10
-8
-24
-7
57
-29
22
-93
-14
58
19
-30
-69
21
26
-60
64
-86
-16
16
6
45
-6
-34
1
35
52
-65
-36
-82
-39
-56
-16
66
-85
-17
15
-2
-11
3
39
6
45
-42
9
-77
-58
89
-54
34
-2
3
29
23
-7
14
-93
-43
-88
11
15
-112
10
-92
-24
-6
9
-32
-5
8
-15
25
-51
-68
-86
-21
4
-29
-29
-59
16
8
69
-25
66
-5
-8
-34
-33
-29
27
-39
-47
-37
-6
99
-8
48
-48
-36
-14
-34
27
-35
-34
-43
15
34
-13
9
-6
-107
-29
-26
-9
-35
-10
-15
38
62
116
-28
-31
8
-19
-17
-16
-18
-23
-83
-51
-56
1
-34
6
-18
-68
-14
7
16
36
-11
-27
-56
-24
-64
57
13
-30
5
127
-26
38
29
-41
-18
-23
30
96
-12
-62
-52
-49
-34
62
-28
-35
-35
1
-35
-23
45
-63
-15
1
-16
24
17
-11
30
-29
10
28
18
-62
-16
-80
-74
-18
-86
-49
31
2
-22
-96
44
48
-57
-21
-41
-77
-46
-19
45
-28
3
-6
0
-53
-75
-79
75
-94
-15
9
-1
-32
26
29
14
3
3
-11
70
-29
-54
15
0
-7
-91
-38
16
-11
-27
-2
-8
-22
-16
-20
76
14
-20
34
12
47
51
5
8
63
-2
9
-12
15
-94
-42
4
-15
-48
-38
-3
33
-22
-17
60
28
-28
44
-28
64
24
-18
-28
15
-5
-2
-59
-7
-24
-3
-69
17
6
-14
-59
8
-53
-33
22
-30
-24
-97
-37
14
-94
13
1
-96
19
40
-46
-12
27
-17
-21
43
-7
-29
15
-7
-59
14
14
57
18
-58
-30
-69
-24
-28
-24
-50
-53
-73
17
-1
-9
-59
10
60
-33
74
-104
-23
61
-49
-31
-67
-3
-40
-71
-31
-56
-3
14
-59
1
32
-14
-42
-60
-24
-36
22
-59
-56
-19
69
20
-9
8
-24
-66
31
12
-34
2
27
-1
-28
-46
6
-12
-11
-54
-15
33
35
-15
-11
-74
87
-18
63
18
-16
-21
-4
59
38
-62
3
65
-105
-30
-16
-46
-4
18
124
23
21
-21
56
20
8
48
10
34
61
-22
74
-59
3
66
-29
32
-58
14
-38
-114
116
-74
48
-16
53
1
16
78
-18
18
49
71
-41
44
8
32
50
-5
60
44
12
9
76
11
56
61
-16
27
-52
-42
68
-29
23
25
7
51
-19
-20
38
9
-4
9
-86
50
61
-97
43
-13
47
-9
9
9
-26
-45
-10
-49
22
-54
69
-66
-12
30
-69
-33
-5
-27
-35
20
30
-27
12
10
88
-43
-14
-20
8
15
40
101
-22
8
44
-7
60
-3
36
7
0
64
39
42
-7
17
85
-15
46
-65
-9
-17
-13
-10
99
38
111
-12
-42
12
-92
36
-2
-14
61
22
-30
-22
7
10
9
35
29
-17
63
95
-1
-27
13
-43
25
-13
19
-4
-3
72
1
4
-34
40
88
1
32
-49
-48
-27
0
58
92
81
46
-13
41
-30
-65
-36
67
49
-28
-23
25
47
-14
-44
-8
60
-56
-13
47
11
14
76
-61
-108
-23
-32
18
37
22
-24
-49
10
20
38
23
59
20
31
64
-3
43
-4
-48
-33
-12
-7
22
21
-53
-10
86
-55
-17
-127
15
8
47
-64
38
-33
-7
28
28
-30
3
-5
44
37
1
51
32
50
32
-18
-53
48
-14
11
35
-26
20
77
23
72
-25
-27
33
57
1
-34
25
30
-34
-22
83
-1
-10
42
-60
-10
32
27
55
-34
-8
47
32
122
0
18
-4
-7
-1
-2
62
21
8
17
44
-4
43
44
1
-25
24
-4
55
-10
43
36
47
23
72
-39
9
-11
0
-127
29
17
-18
-65
0
70
100
-67
-46
-88
14
106
63
-52
55
42
-33
-41
-33
77
16
51
37
22
57
-74
5
50
-4
3
1
49
31
7
-12
-65
-32
53
52
31
-29
21
7
-58
59
16
26
-36
16
-58
97
-6
26
-49
23
-1
84
68
-13
-1
-68
57
30
-61
-6
16
4
-37
38
4
9
8
0
25
13
50
3
-12
39
38
-44
80
58
-6
-22
5
46
39
30
-42
44
-38
-61
-18
71
67
-55
-36
63
48
10
45
109
18
-1
112
12
-44
-39
46
67
-52
-117
28
14
-9
-5
-18
-26
-15
51
82
-40
-18
62
44
61
16
-29
30
29
41
43
-71
70
18
0
0
-2
-19
-33
-25
-9
-22
5
7
0
-21
1
-37
-12
50
51
31
-78
14
-16
-34
-28
9
101
-12
19
24
-60
6
83
-35
-7
19
-55
28
6
19
4
73
-19
18
24
30
-8
-28
-19
4
32
52
-16
42
-9
-8
73
-60
-40
27
38
-2
33
-26
10
47
-2
3
-11
-47
-18
44
52
45
78
59
12
35
42
-9
10
61
-9
18
-21
38
3
-18
-58
-20
-15
-59
3
21
-1
-35
29
26
-14
-53
-36
18
39
12
-21
44
68
-18
51
23
17
53
-55
57
38
-57
5
7
12
11
14
59
82
2
-82
-24
17
-7
-60
7
-34
-38
35
48
41
-6
6
16
11
62
-96
31
100
0
7
-56
-62
-19
75
32
-35
1
12
-36
78
-24
-18
4
42
75
-14
-52
21
49
34
67
-34
9
48
-44
21
12
-98
17
4
22
-14
23
-8
-31
52
42
51
-27
65
-46
127
7
-3
-22
-46
19
26
21
6
-20
34
-17
1
-67
23
79
-11
19
-49
40
-15
7
81
-30
-6
20
-9
59
-6
2
25
-27
96
26
5
57
2
89
8
-22
-5
-29
33
-13
40
-17
-8
-72
37
28
29
-50
87
73
32
-3
10
73
30
17
-31
32
-16
41
33
-56
29
34
14
-28
71
-8
-17
-33
-55
3
6
-8
46
73
58
87
-26
27
32
76
-85
-21
45
9
-55
-42
-6
38
-10
49
26
-8
69
26
69
29
-27
6
17
-7
11
-41
36
32
76
11
14
107
30
-49
70
0
-33
46
-5
66
44
25
18
7
62
-36
-38
-74
78
-17
19
-10
-1
84
59
2
47
-4
-1
4
4
41
-36
-14
56
44
11
27
38
-62
14
-27
-70
-83
60
24
-38
-34
46
26
-71
31
87
10
45
36
27
-32
15
-35
61
7
-20
59
25
36
-15
-14
38
64
-33
16
22
71
14
-58
58
45
11
-21
-41
39
87
36
72
-22
72
83
67
-7
39
1
-82
-43
21
95
2
-4
-7
-2
13
27
25
71
66
-20
6
-56
33
-9
15
33
92
-9
-115
-33
26
-8
12
-6
-37
-18
-29
43
29
-34
42
11
39
-18
54
48
-58
-48
-2
-34
-23
25
7
0
29
32
-39
2
87
-30
-21
45
9
5
71
-29
-15
-19
23
48
-13
-26
-2
-17
-3
-9
62
28
9
-8
-11
52
42
32
40
22
-43
56
35
99
-57
20
-109
14
25
23
56
8
35
-22
50
-14
17
92
1
49
9
40
-24
15
-9
81
43
43
-15
45
16
7
55
-9
-2
-35
-13
-3
-1
57
-4
15
84
-32
-76
22
-24
84
44
7
70
31
66
66
-42
13
1
31
10
4
-56
15
-24
-20
67
37
-70
2
3
-1
49
-6
72
-40
-19
14
46
47
2
-39
21
-65
59
21
41
8
40
-12
39
38
-18
50
2
-33
-31
2
-69
-7
20
22
-36
-13
21
30
3
-27
-15
-45
10
-20
-5
-26
-9
-38
-1
103
6
-40
61
25
50
-8
35
-29
14
4
-63
19
-34
13
-48
-13
-57
71
-4
-53
85
-26
-8
-44
3
-34
-8
-31
5
-19
24
-11
41
54
45
75
-8
-38
39
7
9
13
32
1
-45
-5
54
76
45
19
78
41
36
39
-66
35
77
56
-48
54
-17
13
31
-3
-26
-127
-18
39
-38
21
54
-21
-7
-1
-6
21
-42
-12
115
-9
-35
58
118
-63
79
78
-8
-63
-23
-12
79
-57
17
1
125
-10
9
84
34
-21
21
31
27
35
38
71
62
38
65
-70
40
-5
-33
34
29
4
1
7
69
3
55
-70
8
11
-54
22
-46
3
15
-48
-31
-72
2
-39
23
9
-127
54
49
-13
-25
14
-8
-47
30
37
-1
9
-70
76
-34
-3
22
-86
-14
-40
26
69
18
-12
-9
-24
72
-19
-52
19
19
-45
49
-12
-11
-21
39
-3
18
63
-6
4
39
-36
45
-9
-3
0
-10
2
-86
61
24
-6
-82
2
-4
11
-3
-13
40
-45
-24
-14
-52
-3
-39
0
-6
50
-38
-16
-25
-19
-6
-24
52
5
39
-13
-23
25
-36
23
45
17
10
-50
-68
-98
0
-43
46
-41
37
-1
-46
-90
79
22
-44
45
55
25
16
-40
11
41
-3
-22
44
39
13
14
-127
80
-77
42
-18
-35
-34
22
56
-19
23
-3
-11
15
56
-72
16
-23
-1
28
11
-98
81
-6
51
53
-34
-11
39
36
1
-14
28
54
-14
10
-1
41
44
-34
23
-24
1
89
-21
-17
20
5
-39
-1
54
93
2
7
6
72
1
-35
-15
17
-55
12
70
-47
-45
11
12
9
25
46
14
93
-41
-83
9
-80
6
-69
-17
5
5
23
-56
-17
2
21
-72
82
-1
40
3
-15
64
-19
-81
-43
93
7
-6
-30
14
-76
3
-118
30
-42
38
21
81
-50
-58
66
41
28
-31
25
25
9
24
-23
10
64
19
9
0
-56
17
-20
-63
-9
-28
55
2
8
8
41
-4
-36
-27
21
31
-9
19
10
31
-29
24
31
87
-11
32
37
-9
-41
88
42
-89
33
13
19
-2
-80
-35
-5
9
-74
-48
38
-5
21
-60
-36
-16
-15
66
47
-10
20
-14
35
11
-10
76
42
25
-15
8
-117
-27
19
-15
-12
-127
9
58
-21
0
67
4
-40
29
-5
73
2
41
67
72
16
8
71
-1
71
-51
18
-62
57
1
-27
-48
31
-2
-75
49
43
-20
4
-29
9
27
52
4
18
-35
18
0
-82
-25
-59
-48
37
9
55
-38
-31
19
-28
-15
0
8
-58
-20
20
-30
44
38
19
-18
82
11
-86
64
-32
-27
48
-13
-82
7
-23
23
-8
-34
39
21
-31
113
15
-66
25
12
39
-63
99
75
4
-127
4
-15
25
-11
17
-10
55
-9
-38
-13
31
32
73
-34
101
26
10
64
-50
-9
48
-32
-58
41
-26
17
19
34
-10
7
17
24
16
27
-1
27
38
-59
15
77
17
35
69
16
57
-3
-94
-7
-78
-27
25
-38
65
6
-3
63
19
-17
-8
16
18
13
25
16
-22
-81
38
46
-12
9
34
1
-41
1
-7
25
-27
-27
-73
-5
-27
-4
-13
-46
28
-15
-42
-11
20
-33
123
-13
69
36
-7
59
20
-4
11
8
-31
8
-10
-36
-28
14
46
76
-61
6
-57
6
30
-19
-6
45
57
69
7
-8
31
-54
57
13
-27
-70
-36
-8
-11
-35
-32
-69
45
-6
-49
43
-1
107
18
72
43
-9
-31
28
60
-7
-27
33
-75
-26
13
-49
11
-111
-43
12
16
55
-86
-11
-7
71
76
22
17
-49
-44
38
-9
-3
-16
-52
-34
34
6
6
-75
50
8
72
-50
-30
-44
-5
19
51
-7
-42
-62
27
25
124
-60
-19
3
17
11
-81
56
-22
-16
-31
-8
-61
3
-94
54
-22
-45
-59
-26
-8
-23
-35
3
-57
-35
-114
-55
-8
31
-48
-26
34
-52
25
20
16
79
14
79
25
30
-4
44
-48
-33
-9
-3
56
-30
35
-26
-1
3
-5
51
8
-4
-1
8
-5
-47
-15
-55
20
39
94
-48
-5
-10
4
-36
-18
-82
23
4
-24
-20
5
-41
-36
69
13
-9
-28
-6
38
-28
21
23
25
-3
-36
-28
60
-37
-8
9
44
-57
-20
8
-30
20
41
-12
3
107
-59
-36
17
17
-3
57
-25
-15
-8
-56
-39
-53
-46
19
-32
-84
82
-30
36
25
49
-45
63
-11
-26
0
60
62
25
102
-4
69
-39
-61
21
13
47
-47
22
20
27
-76
-22
-62
25
-2
-18
-1
-32
21
-58
-44
-8
-33
37
77
-10
-41
-14
-27
48
23
-29
10
-16
-27
3
32
-17
-27
64
78
48
6
-37
-75
-11
-11
3
7
-42
27
13
-44
15
16
-19
-3
48
-23
-4
-27
49
22
30
66
35
9
-81
19
-10
-89
0
14
-11
-26
5
-17
34
45
9
8
0
-46
12
64
53
3
86
35
-6
-89
42
24
90
20
41
-16
68
66
5
31
27
-17
-46
33
37
-26
-37
-3
33
-52
28
11
50
8
-1
-20
41
28
-13
56
-6
14
-1
22
8
46
-7
-29
69
4
12
-18
-23
54
6
20
-51
16
24
-13
19
33
16
-14
-8
8
60
-38
121
-20
8
42
25
-8
-52
52
-17
-47
-16
57
0
-51
4
-9
12
74
-21
-35
40
-11
16
13
8
-40
-15
-36
-26
-72
90
91
-55
-29
2
14
9
36
-35
4
-22
37
-56
5
31
-36
79
-69
33
-13
-65
-15
-19
-7
-30
59
5
-15
18
10
0
-17
-74
-64
67
-24
10
20
-24
0
40
-7
16
43
34
19
-26
11
1
75
-12
20
-30
38
-2
-42
-5
-50
-23
43
31
-76
13
77
1
-33
-22
25
-4
65
54
-38
23
-82
64
-49
-37
-13
0
24
-39
-39
13
-33
4
-4
-30
56
9
-50
-28
16
12
-35
-15
-27
27
32
-10
-2
-13
27
-51
-13
4
3
24
0
12
8
13
66
-58
51
53
-11
-13
-30
-111
-31
-3
-9
111
-3
12
-95
4
-95
-90
0
90
68
-12
-7
23
-88
-43
-49
-11
-10
12
19
-8
38
-22
11
19
53
12
-46
-8
81
23
-27
44
25
-20
22
-96
-73
-29
-64
29
88
-35
-32
61
-46
-14
53
22
-24
34
-57
61
5
45
39
49
-7
-37
32
-84
21
-8
65
89
43
25
-90
-37
-17
127
-26
-8
92
-25
0
-46
36
-32
-20
24
17
-7
-17
58
-53
-8
53
-43
14
-89
-63
10
5
3
-9
-8
3
9
16
-11
42
-68
-52
-12
-39
-3
11
23
-29
-77
17
-46
14
-55
-8
-38
-10
10
6
-36
-13
-15
44
-33
-59
13
-47
18
8
-18
-35
-8
-29
17
-101
-50
7
33
19
15
56
-53
41
-45
39
5
-27
-77
-64
13
-27
-26
4
-82
-85
32
39
-2
48
7
7
-108
2
-35
-5
8
-115
-18
-19
30
-44
12
-66
17
-37
-17
23
-6
-49
-5
-52
7
4
11
44
-16
-32
-25
-44
-11
-1
-38
-31
31
-10
10
-41
24
48
-20
-9
-20
-34
-52
-11
37
-27
-2
-10
-108
3
-24
30
-43
-5
-40
7
-54
43
37
-3
35
-5
-7
-41
-34
18
48
24
-25
7
13
-10
-41
-12
-49
-40
-17
-11
-9
-47
-66
13
-21
-15
-28
1
-18
12
8
-17
10
-81
-79
106
-23
-31
2
-24
-62
13
19
37
10
12
-2
-8
2
7
3
-26
-81
38
-8
-5
20
50
0
9
-15
-12
-42
15
33
-1
-14
9
4
-35
-48
16
39
-107
36
-47
-36
-24
61
7
-21
19
-3
24
20
-22
54
-40
-22
31
-7
-20
28
11
51
8
-30
29
-36
100
-7
-15
24
-24
-2
-73
33
-28
-29
-110
-31
-11
-38
-53
-58
-62
-37
7
-21
3
2
-35
13
-44
10
53
-2
-21
-8
6
-25
-30
-69
41
-25
-30
-38
-20
-18
-3
-99
-76
5
-12
-72
9
-52
-12
18
14
-24
-106
51
-107
77
2
18
-52
-18
34
13
16
-24
-53
-85
-23
32
-38
10
-3
66
-42
63
33
8
-47
-52
15
-53
-44
21
27
-63
-75
-61
-31
-18
55
17
50
37
-64
-74
-21
4
14
-31
36
-5
-3
22
36
8
45
-22
-3
-15
-71
-7
-24
80
-14
-54
11
-19
27
-3
43
20
6
-8
-3
18
33
11
-80
-17
32
-27
-55
21
-28
9
-12
3
-49
-36
-37
-2
47
-19
2
-20
-1
56
16
-45
-15
38
22
-14
34
-47
42
13
4
-2
-36
-39
14
-26
24
-27
42
1
22
-9
-7
-44
-23
25
12
-13
5
-65
-49
6
-14
19
-59
-12
-5
55
-38
-50
-10
-64
74
-13
58
31
-56
-54
-1
51
-1
-52
-40
-38
16
24
-30
23
-73
-64
-55
62
-6
-2
-51
-76
-6
12
-82
-42
28
-59
8
-62
9
-7
-22
45
-2
-8
-55
-5
8
-2
1
27
-10
-70
1
-6
-26
9
-39
50
-3
33
-8
22
-30
4
-41
-56
-34
-14
-96
-59
-40
12
0
-12
-18
-5
-55
61
16
9
-48
-42
-13
-40
18
-38
-28
32
8
-64
-1
23
50
-8
-23
-31
31
-78
34
40
20
-38
14
1
12
20
-17
26
0
-90
-49
30
-50
-71
-3
-32
-35
-12
8
63
8
-7
33
-11
-55
21
-25
-1
-14
-12
-67
46
-16
-51
22
51
4
3
-32
-12
14
0
-44
-66
9
43
-25
-17
-49
-65
-40
37
-46
-37
-16
-24
-105
-28
-16
86
-45
39
-68
18
13
-3
-71
-39
19
-29
-38
33
-63
-52
11
-85
-10
44
7
-60
35
27
17
22
10
63
-16
-85
-39
-11
47
-105
7
-80
29
-33
-30
36
-9
1
-18
-4
-22
35
45
11
-41
19
67
33
17
7
-17
12
51
5
33
-45
17
-43
-34
4
5
-17
-111
-31
-11
-72
44
-26
15
14
-4
-53
7
-53
17
-73
-68
30
-62
17
-10
-41
-39
6
-9
-35
-18
-27
22
-20
-62
-33
-19
23
-24
-19
-9
14
16
-50
31
-54
-48
34
-12
-47
36
48
17
-36
22
-28
36
15
40
18
-51
-11
6
-42
75
-48
35
60
-48
13
-13
22
-41
-28
-42
-11
-21
9
-31
39
104
-37
21
26
-62
6
72
-27
-37
46
-29
-50
-38
15
-16
-19
-23
-11
-11
71
19
49
28
-16
-13
10
-103
-3
-50
-27
35
28
-11
-50
-2
-5
-26
-42
21
-29
-18
37
-43
67
5
11
-11
-84
-24
54
30
-29
27
35
127
13
-9
-26
21
-15
-25
48
-26
19
-10
31
1
25
8
46
-25
-74
44
16
17
-50
0
2
-67
-14
-26
-7
-36
28
-11
43
11
45
-25
38
13
99
-24
44
79
-72
40
-20
78
-9
-41
13
-90
-14
28
42
-11
20
-28
14
-66
54
-9
52
-3
-50
37
-127
74
10
0
-71
13
-8
34
-13
-9
-2
-90
-49
-7
-28
-31
-18
7
-44
18
4
26
-32
-5
60
-87
-24
10
6
-33
-34
-22
50
-42
38
-9
-21
-25
-57
-19
30
-36
3
1
-15
-3
-77
1
-86
-58
22
-32
6
3
-46
4
-2
15
-29
42
-18
-21
-25
44
-11
22
41
-32
-66
-70
-10
19
-20
-9
-78
-11
-42
2
38
-2
19
43
23
-17
-27
-77
15
-10
-9
12
27
-41
3
-58
51
36
-66
37
66
-6
2
-5
44
-37
7
15
-27
-100
22
-10
33
-27
-12
-20
-23
4
27
-39
11
24
42
35
3
-15
26
0
12
4
39
-103
56
72
-14
-27
-85
-6
17
-41
25
4
22
36
-7
-35
41
54
29
-18
62
0
-20
18
-4
-2
-31
-1
-18
3
-16
62
-15
15
-39
-70
22
-12
-3
-45
57
-44
10
39
12
30
34
-93
2
-73
19
-2
-45
10
40
-22
45
-13
-89
19
51
23
-11
17
-78
-11
-58
-10
-52
-32
-81
-50
-27
85
-7
-35
-62
-41
-63
20
-14
1
-9
-19
-20
-20
91
65
1
-32
60
-8
-4
-62
4
-47
-101
15
24
-90
29
-35
-61
-7
54
-75
13
-40
-15
45
27
14
11
-1
43
-60
14
-1
-51
41
31
-53
78
9
-19
30
36
-6
27
-38
-48
17
13
-14
4
-11
-47
44
-55
-26
-59
62
-27
-126
-21
-82
-13
-2
16
48
-4
11
-43
-80
16
-39
-10
-28
-60
-38
-17
-17
-46
47
-11
17
-30
-52
19
12
-7
-22
-58
13
10
14
-24
-39
-7
33
-3
-21
-127
-26
-17
-77
27
43
-37
-111
-65
29
-63
-18
-27
-20
-3
3
3
-30
36
30
-78
8
-54
54
-17
-65
-91
16
-25
12
-48
7
-11
6
-4
-8
-46
16
-65
43
1
-27
-97
-6
-1
-37
16
-36
-13
16
-8
-46
-36
-55
-44
-1
16
-15
-29
7
74
23
27
-36
3
14
-56
-15
-19
-38
-66
-26
5
-21
53
-40
-15
38
-32
-54
32
1
-17
-6
-58
32
66
47
35
3
5
-11
-60
47
12
-46
24
2
23
-35
54
21
4
-67
42
32
22
-5
-38
22
-13
-26
-13
-38
-25
81
14
-44
6
-4
-21
2
-4
-35
59
-7
-16
-29
15
-18
-81
5
34
9
-40
1
-27
20
-47
46
-31
19
-8
0
-24
11
71
-10
1
12
5
-20
6
6
-66
39
-14
6
-65
10
61
-19
-39
-38
6
13
10
0
25
77
-11
-35
14
-106
-71
-2
-28
-14
-26
-13
8
-47
-4
-37
18
-32
48
70
-38
24
37
10
-34
-22
-4
-60
3
-51
31
16
98
-78
-31
-11
-13
-89
-21
-37
-103
-16
37
-44
37
-36
38
37
-2
-53
45
-3
-63
-5
-52
64
29
10
16
26
-5
-19
0
22
-18
-52
-15
-25
-16
14
-20
-23
-35
12
-8
-12
-47
-20
6
19
-32
-43
3
-15
-4
-15
-13
13
-24
22
89
60
107
35
-56
-14
-35
-6
-72
-68
-40
-7
-32
-14
42
-33
33
0
27
-52
16
-24
-9
56
-5
-20
5
-32
19
-13
-16
24
12
-25
15
-66
-37
-5
-31
-6
-78
-28
-65
17
19
-40
-11
7
-1
26
35
17
-32
-8
127
-68
-21
4
34
-36
-7
-11
13
-4
21
-42
71
-35
-5
-18
-51
-44
-12
-74
4
18
-24
8
-60
48
-35
-31
-76
0
-13
32
6
-43
-38
39
19
72
-37
36
-19
-19
-27
6
5
13
-29
-52
-16
3
0
37
-47
-40
9
-56
8
60
-30
7
1
-55
-53
-27
-34
41
6
21
7
-91
20
-3
61
-14
19
-34
-60
27
-1
-3
42
-83
-13
-18
9
82
37
2
-13
-69
-8
8
-22
18
-66
-10
7
-12
25
-45
11
-26
45
-30
28
12
-33
-20
-8
3
54
13
8
-38
-9
-97
5
-18
38
12
5
16
-59
56
-35
15
22
60
-7
-46
-21
20
-1
-46
-32
13
-17
3
-32
6
-4
46
9
10
-101
-38
19
-15
62
-84
-12
16
-37
-61
-4
-39
58
-11
-83
32
24
-61
-80
53
-57
0
-42
-15
-35
-20
-95
9
35
20
-42
-19
1
-19
28
-59
-3
-40
-11
32
-36
44
-5
41
-50
30
-104
14
-59
-37
-10
-70
-11
-74
20
23
19
-31
-27
45
-109
-33
-25
-27
-5
-39
4
-81
4
-52
-6
-7
1
1
-45
27
-15
-81
47
5
23
1
11
-67
8
25
-59
-23
-3
-31
33
19
-12
-25
69
-35
127
-42
-5
28
-17
32
-7
-33
9
19
-1
-32
3
9
56
6
-49
39
12
-5
-43
5
-25
-3
9
-8
92
-6
-53
59
-17
-8
-37
-9
-4
-36
19
-19
-56
36
19
2
-25
4
-34
-89
-78
15
-4
58
4
7
20
38
-19
-26
14
-4
-49
62
22
5
-56
13
39
-51
-102
0
-34
85
-64
10
13
33
51
-8
10
-15
-38
-15
-5
15
9
72
35
-3
12
-51
-127
19
19
-37
-58
5
3
11
-62
24
-55
22
21
-20
-6
5
-10
-63
74
-42
-52
-40
2
-33
92
41
-13
3
3
18
-22
21
38
-62
-39
-10
8
-12
-25
-71
25
-66
-32
14
2
-32
43
-10
10
-31
4
19
3
-34
-75
-43
62
33
-23
31
68
-44
-42
-57
-7
-52
-68
-30
-20
32
-21
-4
-50
-14
33
22
45
77
12
-46
43
29
-26
-12
-24
-25
-17
36
-42
73
-37
17
3
-40
-4
28
-21
-14
13
33
-39
5
-21
-18
-8
1
-39
19
32
-37
-7
-48
-26
73
4
54
48
-103
4
17
42
13
-30
26
-15
49
-30
-4
19
-76
-8
-49
-37
15
-13
1
16
-23
-9
52
-45
3
6
2
39
-11
94
-14
37
-96
-65
-51
-3
16
15
-38
15
-22
-3
-12
-85
-14
-58
-25
50
-41
-45
-33
16
14
32
21
44
18
-26
-16
77
-62
-91
-14
-84
-37
-16
2
-12
12
-15
-10
23
-44
-43
3
12
6
-15
54
-64
-18
2
-19
-29
84
-11
35
4
-2
-37
19
-29
-32
-24
36
-11
-58
-53
-93
24
-30
-22
25
-16
37
19
-1
30
-34
-117
-24
-40
6
4
-6
-66
-52
-43
-21
3
-9
14
53
26
-5
42
81
113
-101
-32
-25
-81
34
-68
-60
-17
-26
-44
-61
-8
29
34
5
-8
-85
28
-10
33
2
-10
34
-50
41
-61
-90
-10
-2
45
-49
4
-2
-6
10
-63
-33
5
22
-18
50
-4
-1
-85
-53
-55
-7
53
19
-27
-50
-27
-120
11
-17
48
-32
-24
-33
23
-42
18
13
14
104
-37
-75
28
-49
83
5
44
-99
-8
-12
-20
-80
19
45
26
-29
-23
-9
32
15
11
-42
-20
-49
26
-29
33
-21
8
18
3
37
-43
36
-39
-9
-48
102
75
-20
-55
-23
-41
-25
-4
-16
-24
13
15
-44
-120
-63
-87
15
-45
47
-5
1
3
-15
-30
-80
13
26
10
-28
-95
-33
-36
-4
9
2
-41
-4
-50
86
3
13
4
-20
-47
2
-90
-21
52
-31
23
-57
5
-1
-27
37
-4
-14
28
18
-43
38
-9
-8
31
-4
7
66
56
43
46
-12
-49
-19
-23
-16
-58
6
-30
-26
-81
-11
-16
-55
-9
-17
2
22
-47
-51
29
34
13
20
-54
-8
1
35
0
-49
27
-19
-8
-17
45
110
-55
42
-89
-2
-42
-23
25
-9
-15
-45
60
10
30
-50
-2
-36
-39
-18
-15
-20
1
-23
-37
16
7
30
29
-6
-101
-5
51
15
26
5
-41
18
-45
-6
42
48
-38
46
-9
72
-25
6
-95
-11
-17
59
-24
-28
17
-10
4
-30
78
-20
10
-108
-7
-63
87
38
10
-4
-56
11
-36
-66
8
-19
4
19
-25
-6
25
-32
64
-6
-24
-42
55
-52
-13
19
-49
-39
-80
-7
-9
-21
-24
-16
1
41
33
30
-30
-73
-30
17
2
-17
38
-37
-65
32
34
-75
-40
-29
46
-39
-24
-79
-25
-3
89
-14
12
23
-82
17
3
-27
-24
-2
34
74
41
9
67
11
54
-13
-12
52
-48
8
-97
-14
26
-15
-5
34
-2
-43
-15
7
3
23
-35
56
7
-82
-21
22
-61
-51
90
23
47
-52
-44
86
-6
1
-1
9
-24
11
16
-41
-13
15
-5
48
-118
18
-25
-16
-12
-57
-16
-14
-87
-24
-87
-26
47
14
34
-5
-61
-55
-36
-4
-40
25
20
-41
-11
2
11
3
54
-2
23
61
-12
-56
18
17
41
-63
71
4
32
50
-22
-42
-36
17
-19
36
-65
6
-34
-80
-38
7
27
-25
-13
8
9
-76
-26
-19
23
-49
6
-18
36
35
-17
40
-5
4
57
-3
28
-11
-77
-24
-61
43
-41
-8
-13
-76
41
-22
-23
79
-62
28
-25
-98
-85
-29
3
-42
15
-8
52
-5
-42
25
1
68
-14
-16
-49
44
-37
73
-27
-8
-48
14
-14
-79
19
-20
13
-39
-46
25
-29
-32
-36
12
-16
-41
-46
-40
12
31
9
-4
63
10
44
125
2
4
-15
-17
41
43
58
-63
-26
-5
42
36
-66
79
-42
-79
59
7
-6
3
-29
32
-12
54
-40
11
-42
12
3
-49
17
-41
30
20
7
-59
18
20
6
-31
-50
74
-24
-70
13
-27
52
35
-23
-36
29
-4
-17
57
35
31
-17
-20
-36
16
21
11
-35
-66
11
-3
40
-60
11
-55
-19
66
14
35
-81
-25
-59
68
-1
-14
50
-12
95
13
26
5
-35
-20
-18
-29
-35
-35
-30
-53
22
-81
-32
-22
-20
2
-29
-65
19
-113
-34
-28
-62
21
-1
39
-10
28
16
19
-36
-15
-6
2
49
9
-50
23
-14
4
-32
14
5
-1
15
8
-31
11
11
-52
2
30
12
12
28
-12
-126
-18
21
35
68
-55
-30
-12
29
44
-44
40
70
6
-25
19
5
61
-17
37
-14
22
-14
3
-19
-33
-42
50
11
-54
-42
13
44
-4
-42
-1
-6
-10
14
-50
-35
65
-76
-47
-8
-29
56
52
-8
3
0
-12
-36
63
-3
-5
-9
-36
-11
-45
-22
-7
-15
-43
22
24
43
-6
45
-109
25
30
-15
45
89
-6
45
9
1
-12
-8
-52
-69
-23
-65
40
-40
-16
30
-49
-13
-37
-20
44
68
10
-36
50
-2
18
60
12
13
36
-82
27
-3
59
38
63
-18
8
-12
8
-21
-14
1
36
50
-53
22
1
-52
-18
57
24
30
-98
49
13
-20
-7
-6
-36
32
-20
-38
-15
-40
-94
41
26
-8
5
24
10
-54
29
15
-34
-23
-11
28
-59
24
36
60
10
-47
55
30
60
-12
11
-64
-52
-19
-39
52
-5
-4
16
9
13
24
-9
7
23
-14
-45
-9
5
78
-35
33
16
33
-33
29
-74
34
-48
11
-21
-32
22
33
71
-14
-18
-26
-69
-62
4
72
-45
10
42
39
27
48
-2
-23
66
-2
-57
34
-18
56
-40
-2
-35
-16
-83
-65
-82
49
25
-18
27
-70
17
23
-52
-30
-74
25
1
75
-11
-38
86
-58
21
33
-8
7
22
-32
79
25
-42
-34
-65
-85
21
-34
63
30
16
-44
10
11
-34
-3
-72
-70
62
46
42
74
17
21
4
47
37
26
-30
4
-11
18
13
-11
12
8
-17
39
-52
4
66
37
34
0
-38
-22
-16
-39
-4
-9
39
-68
-16
60
-6
62
41
24
-30
25
-50
58
-35
-29
17
-56
-98
53
22
11
-16
-37
4
0
-65
-10
42
20
-90
-71
74
42
9
-44
1
-96
21
-61
51
-85
72
-19
-25
-56
-30
-32
93
-32
-55
-10
-89
-41
-69
53
27
-69
76
-66
35
41
76
-88
13
-41
48
4
19
-96
29
12
-19
41
-35
-67
27
78
14
-109
-15
-17
-55
-50
38
57
-28
71
85
-19
-33
-53
10
18
-2
2
-3
-21
-45
17
-49
19
-47
11
-9
77
-28
22
19
39
-19
-22
-36
-79
-3
-16
19
4
49
27
-2
-57
34
6
-15
40
51
-20
54
-39
48
-22
-15
43
-57
-13
3
8
-44
27
-32
-67
28
-58
35
39
44
39
80
-3
-47
1
21
23
8
-6
-116
-35
-4
10
-82
-56
-43
-42
-25
-16
-38
58
-15
27
-53
-28
3
38
-45
34
8
-66
-6
-41
-8
-46
-83
36
-38
19
8
19
-29
-16
-24
-70
30
-38
-78
74
5
-58
12
65
2
16
-54
2
-20
1
39
-27
27
-6
35
-16
-11
-7
-25
-8
65
-1
-45
26
-3
-34
37
34
-57
2
4
2
-23
-29
-53
86
-16
-105
75
-27
10
-55
-44
-31
-4
-7
-18
-86
-109
-59
-44
-14
-54
-7
-112
-3
-17
-9
-63
17
-15
-46
-59
48
-43
78
89
4
-3
11
-11
-9
58
-30
-28
16
-9
62
-41
78
-53
-101
53
-4
-108
35
21
-127
-46
-21
8
32
-16
48
35
-63
9
-68
21
35
-2
-22
7
48
84
16
-31
14
9
23
-57
14
0
-31
-17
-11
-81
-41
26
23
-57
36
9
81
-9
3
-5
-4
-9
-24
15
-77
4
8
15
3
-1
-13
-35
-54
36
2
-1
-25
-16
-17
-8
-43
-25
65
3
7
-28
6
-49
33
5
-21
-20
-28
-5
12
30
-34
-13
9
-23
-38
54
71
10
-42
-43
-16
73
-72
22
38
3
-60
-26
-59
11
-39
8
-3
18
-4
-34
-40
-36
73
-40
-10
25
-25
58
27
16
24
17
-7
47
10
-48
67
20
18
13
-27
52
-42
-51
25
8
-37
54
-45
25
14
-24
-11
-26
34
43
96
59
-50
-30
-19
-20
62
48
-50
88
-32
-11
-81
11
-3
6
47
41
-1
37
8
30
37
-30
77
-17
-20
-3
36
29
35
38
22
-56
-61
13
45
41
-6
-31
-34
22
-24
20
-71
-53
-43
-20
-25
11
14
2
32
65
26
42
14
-50
-10
27
-36
-12
-49
24
-51
23
-28
-3
-59
-23
-4
-3
0
32
-32
5
6
-75
57
-54
-34
41
-11
-5
-32
-67
54
2
-13
-17
-15
-37
-23
26
55
-4
-27
6
-49
82
93
-53
16
-30
-30
-42
-86
-1
-19
-51
27
68
31
31
-20
9
30
0
-18
-76
-52
-28
-2
-50
34
-32
34
35
-25
-60
17
-44
42
-32
-1
-74
9
-75
12
-13
10
-15
-14
13
-12
22
-40
12
-46
-111
19
15
23
-6
19
-97
64
-6
52
-35
6
56
-47
17
-6
4
47
18
-27
8
18
-38
-8
-24
-24
-25
-66
-16
-29
14
-27
-30
32
-30
2
-14
30
37
30
3
-106
-17
59
-23
9
-6
-5
0
-50
-25
-92
45
-14
28
63
-49
-45
-95
-89
17
31
32
7
-16
-88
30
-75
-12
-6
-73
-72
-10
20
-2
-7
-8
-44
-16
-24
-87
14
-49
-42
64
-53
-8
-76
18
-78
-75
24
-57
-12
-1
2
-27
86
-121
3
94
-12
-24
43
-6
67
12
-8
66
-57
-16
54
-48
-13
4
-94
18
-32
-34
-54
-32
-43
25
18
19
-1
13
18
-24
34
-10
9
-8
-67
46
34
13
-3
-51
76
25
-16
13
-68
-45
52
-73
-38
-46
114
14
-29
67
-1
-30
29
-25
-13
-57
-36
12
-15
8
-17
-25
14
21
13
35
-38
80
19
42
-25
5
41
-19
-51
-10
-4
20
-46
5
-32
-25
9
36
-86
71
-9
18
-11
72
-4
-20
33
17
-79
33
11
27
-13
21
-55
-15
19
-16
52
-26
-108
10
120
-19
83
-18
30
50
-26
-7
78
7
75
15
-23
26
26
-60
-22
7
-14
7
63
-3
-5
-83
-100
13
-3
-34
-37
108
49
-72
-42
16
105
21
24
-20
-14
9
29
-70
-28
-39
-65
-3
53
34
40
-30
-1
-28
-46
-73
42
-70
40
24
18
34
-31
-7
20
-37
40
-44
-36
-45
18
-21
-22
1
-19
-28
24
-27
1
-39
-23
30
2
-57
-31
33
3
8
9
3
3
-41
18
52
-7
-43
51
3
-41
-27
-28
-5
65
8
-35
-23
41
-17
-9
-52
-50
-24
69
13
-17
39
73
-7
11
-10
-3
-29
-19
-2
16
-37
7
72
52
36
15
69
-41
38
-34
-4
3
37
-28
31
45
-27
56
0
-25
30
12
60
7
-25
3
-39
-19
-47
11
10
7
-114
-42
39
30
27
-1
53
55
20
-69
5
-22
33
-45
38
-54
26
16
-47
10
-72
-68
-46
-56
35
-59
27
-24
5
0
0
-46
-18
-33
82
-49
-31
-1
-17
7
40
-91
0
-13
60
9
-23
-25
-89
53
-77
41
46
-90
27
-6
14
-127
-95
40
-26
40
-54
31
-31
-41
34
-3
20
35
1
-13
-23
-42
0
50
35
-66
4
33
22
-14
40
10
-12
-32
-11
-6
20
-24
-4
21
97
74
-35
59
13
-6
39
82
16
-3
-20
-18
-28
3
-77
-58
43
-110
11
9
-72
4
17
-7
-68
-56
-65
2
32
26
-49
-38
49
47
-21
-25
-67
-52
-27
-15
-8
127
23
-29
-89
-39
-34
11
-10
19
-14
31
13
22
-50
-25
-10
37
38
-37
40
-6
-15
-91
36
-27
-10
-13
2
28
68
4
-16
-54
37
-88
2
21
49
23
-2
21
-44
0
2
-50
-18
-2
-57
46
-10
8
30
-15
7
10
-16
-1
-18
-29
-52
10
69
-11
-40
2
-51
13
-15
39
-67
4
-28
-34
-46
-70
-40
12
-13
-50
-65
-25
-27
-55
-51
28
-1
-19
-23
-45
18
6
21
-3
-15
-27
-24
5
14
41
-29
45
-51
-22
41
-20
-28
-74
43
6
9
-53
-68
7
4
72
-7
39
-39
34
-21
-8
49
-32
-20
-47
14
30
-36
-51
27
70
11
89
79
-13
-39
-63
59
-6
-25
7
-41
127
35
-33
-30
50
35
-15
-13
28
-49
23
-22
27
10
-32
-36
-21
-15
-30
13
-52
-24
13
-25
27
73
19
-2
32
-65
58
49
-15
-6
-65
-34
16
21
-2
31
9
4
46
26
48
-72
-28
5
-119
-54
-4
3
41
-71
17
-28
-118
-36
-21
-29
17
1
-20
30
75
0
-52
32
-43
-58
27
-40
-1
-13
2
36
-20
-21
31
-16
39
33
-72
31
-30
-15
-8
-42
-10
-47
58
31
74
2
-27
28
15
8
12
-5
44
39
-86
37
-34
3
-14
-27
-4
30
-27
-10
-22
8
-6
-40
-28
-73
46
-36
48
-57
62
-88
25
-21
29
-22
-55
31
24
6
37
-64
-5
74
-37
19
28
-49
-10
22
-10
16
-67
56
-7
-5
15
-29
18
-8
73
-12
4
-23
-3
-2
-6
-14
-19
-75
39
-12
-11
-28
-25
20
-18
-8
-30
-68
16
0
24
6
-31
-26
-31
44
2
-64
-65
-17
-36
-26
49
23
20
-66
-2
-96
-1
18
-47
59
-49
-15
-2
-4
-42
-4
-39
-13
-6
-85
5
-30
-7
11
47
-55
-53
32
-6
23
-40
-30
-36
10
-11
-62
24
48
-78
-19
3
-34
15
80
-30
36
12
-63
-1
-123
-13
-21
-10
-30
-31
-127
-8
-4
18
-53
19
32
33
19
83
10
-6
-40
22
-9
-58
-33
-42
-126
-32
-66
-30
-95
-26
-96
-8
65
22
-8
27
-38
-43
34
21
-33
-44
35
-28
-56
27
-17
24
-38
-54
-10
96
-51
-47
14
-58
-67
-40
-24
-15
26
13
-19
-121
-47
12
6
37
15
-58
-5
31
-4
-26
7
48
-9
-15
11
3
-1
-23
19
-43
60
2
-15
49
-35
35
-10
-11
-79
-13
-4
63
78
5
4
-10
20
1
-30
-27
29
-40
-23
-35
60
-11
-83
-31
-1
-38
5
29
18
54
-58
-41
23
-18
-6
-1
-20
21
29
-37
37
12
-57
14
-49
2
6
15
-5
43
54
-14
-10
-25
-68
48
1
59
3
47
9
15
-98
-76
13
26
-34
7
-12
47
-48
6
31
-8
60
-24
10
-26
-40
-24
-20
-22
-92
1
11
-42
37
-8
-26
-7
34
-38
-18
2
6
28
19
-4
-10
-15
-55
-36
-27
-23
-10
28
-71
-18
44
-24
28
-65
34
30
29
-6
-33
-35
40
-4
53
29
39
-19
5
-21
-30
35
-64
-42
-95
61
-43
13
97
-87
89
37
-48
30
43
-2
-12
-53
24
-22
-72
-63
0
-16
-19
-100
40
39
-11
-11
-26
73
-38
36
-5
-37
76
-4
-55
-63
-17
-66
-28
-30
-83
12
-5
-36
-43
2
-6
-79
19
-1
16
39
24
57
-6
-50
-48
-17
17
-60
-16
-36
-34
-48
14
13
-21
-15
35
-18
29
-7
-47
39
8
65
6
-15
-48
-33
-12
6
35
-5
-4
-13
0
-12
-13
26
1
-26
9
6
-4
17
55
13
-14
-29
-64
23
-45
26
28
-39
-29
-81
15
55
72
6
12
-5
-52
-19
-66
44
50
-20
-5
-55
37
-56
28
-70
-17
67
-36
81
72
-59
17
-72
-20
-22
22
14
-11
-60
61
7
-35
47
-39
40
9
-16
-72
-63
-16
-36
45
-26
5
-98
-17
-38
-13
-40
33
-17
-24
-34
0
31
-9
13
-46
-74
-5
-6
41
-12
16
28
-89
20
-20
19
9
-68
-62
-2
5
22
-23
-31
-26
-36
3
2
20
-42
35
120
-32
19
-35
-57
-32
3
-39
44
69
19
79
16
8
-37
32
47
0
-11
-45
-72
-37
9
20
-18
6
7
-28
-36
-1
-14
-65
36
20
17
30
30
-50
15
-18
61
-85
-30
-28
-26
74
19
-87
-6
-13
29
-43
4
-48
30
10
3
-5
-9
28
-61
-20
25
-11
3
43
-54
23
36
1
15
-29
16
7
43
-28
-2
-69
-28
-8
6
-26
-19
-60
97
58
9
-11
-13
30
-67
13
-39
14
-30
-21
-74
-12
-20
-18
9
-77
24
32
-13
-58
-49
12
23
53
28
3
-44
-40
2
-4
27
-21
-72
-126
-38
20
-25
-9
55
39
42
-80
1
16
3
1
10
6
-70
17
-47
67
-52
-24
-76
21
9
-27
-15
1
16
33
-82
25
39
-73
-21
26
11
39
-18
7
-29
-22
33
76
-13
38
1
-38
4
10
4
-26
-18
49
-25
28
-68
-7
37
-72
-11
-16
-44
-9
-37
17
-16
43
7
39
39
5
-14
-30
39
7
1
-44
-70
-72
6
-56
23
3
-59
55
77
50
6
53
-36
40
29
-9
-44
5
-38
-26
-88
-80
-33
-46
108
-2
-61
20
15
-42
-16
-2
28
-73
10
-18
-9
-127
47
89
44
-49
-38
27
6
-26
-3
-43
-57
56
21
34
-16
2
57
15
81
-24
13
1
-31
14
60
33
6
-12
38
24
-50
51
1
-35
23
32
-34
-9
22
-45
8
-33
5
57
-14
-15
-89
9
127
-25
-33
3
-9
-46
-22
57
1
-6
-80
13
-11
1
-16
52
-54
9
30
12
-49
-35
56
7
10
-76
2
-18
-46
33
-37
-34
-82
38
-42
10
82
-29
19
37
-51
-38
-59
9
-9
16
41
-72
-37
6
6
-9
-67
4
-14
-61
120
28
44
51
-23
43
-23
17
-63
-16
22
-18
10
7
-41
-43
14
-46
-77
-16
-22
-53
-59
14
20
5
31
-19
-69
11
4
30
-16
63
-37
29
-39
-29
-109
-44
21
26
-20
37
-19
2
-22
1
5
-34
16
-26
47
5
29
-16
20
11
42
-29
66
-68
-41
40
-31
-23
-44
10
-3
-52
-1
-15
-53
-26
5
-56
-18
24
-62
11
-1
21
89
7
14
73
-65
58
21
-42
-32
-15
17
-42
43
62
-41
-71
-32
-82
-13
4
-19
-34
-47
-44
4
1
41
56
6
54
-70
13
-7
41
18
-2
15
45
-9
-18
-11
-25
-8
39
40
-40
17
46
-26
-3
45
-26
-17
4
29
21
0
-88
-52
-50
15
9
57
11
1
-15
1
-28
69
38
24
-43
31
41
-18
64
-44
73
26
-27
24
-2
-79
-99
-62
-39
4
-54
11
42
18
-51
57
-102
-8
2
-63
-13
-33
-4
-70
-9
-37
-43
99
47
15
38
47
-27
14
-39
45
9
12
-22
-46
23
3
9
14
-15
75
49
7
2
-10
2
-61
-57
22
-49
9
-35
31
38
5
-99
2
11
28
102
-22
16
-24
38
-23
78
36
47
56
22
-18
13
45
-28
-40
9
51
-5
-8
-22
-28
102
-27
23
1
-29
-13
43
-22
-63
-1
-33
-23
-7
28
15
-27
-3
59
-6
48
8
-23
51
61
37
10
0
41
26
34
-26
-37
-46
-77
0
27
57
17
10
12
66
-55
3
-38
-12
28
23
-7
-5
-50
-22
22
-23
-12
23
1
3
4
-65
-47
3
-79
58
6
-59
5
39
5
-1
47
-71
-6
-12
22
-21
-16
38
-6
-41
-41
-74
-14
-25
-1
25
-20
21
-32
-5
57
-8
-15
24
-24
3
-48
-22
15
-2
-72
77
68
29
-30
67
-72
-3
-89
-48
-24
-9
21
-17
5
26
-18
18
18
-72
-79
4
-32
-82
2
-90
-4
-88
-25
10
-31
-39
-71
47
29
-9
-55
-37
-22
18
-35
16
-79
47
48
63
0
75
65
5
23
3
44
55
-33
-11
43
-70
66
-17
69
-6
-5
-13
33
-50
9
47
-21
36
-26
-10
-14
23
16
-8
-2
10
48
-68
-17
59
17
36
-58
57
-33
-49
77
-66
-27
-55
-10
-6
15
-23
29
89
0
-24
-10
-21
55
14
-69
-28
45
-28
-51
-10
-127
24
-10
-64
75
-3
-26
59
-42
-65
-34
49
3
18
-45
-56
-3
-77
-14
9
26
-3
37
-51
-46
2
19
-31
16
-45
-10
-31
58
51
81
1
13
-48
59
25
20
3
-18
34
32
46
-13
-6
-6
37
111
-23
-34
82
-60
-89
-3
6
35
4
127
3
91
-35
29
-2
-54
-42
37
4
-22
0
-30
-40
29
21
21
-26
-13
36
45
41
3
-39
21
52
50
-14
-15
-11
19
-33
-107
43
-49
-23
-78
19
57
3
18
-10
74
49
13
-29
5
54
-15
21
37
7
-28
52
23
47
2
44
-47
-4
-93
12
-28
-41
-101
27
-10
-33
60
-50
-18
-34
106
-8
-28
42
-28
64
-33
84
58
10
23
17
30
29
-127
-25
-76
8
-1
30
17
-43
45
-3
33
-15
52
-22
56
27
-23
5
21
60
-22
-46
76
30
-75
71
83
-53
-8
-23
-26
2
-52
68
-26
-80
-31
1
-54
15
0
34
68
73
37
-20
46
64
-38
19
-6
-83
-29
-9
-65
-26
-60
13
-18
35
-44
9
45
-28
106
41
0
-23
5
3
31
22
28
-48
-124
-31
7
63
27
-59
5
35
-17
5
45
-60
10
-13
-12
-72
-62
36
19
46
-25
59
-26
-77
25
67
-62
-22
-4
-5
21
42
22
8
41
-20
46
-71
-30
8
28
-70
72
54
36
54
-14
26
24
29
66
-81
-43
25
-11
60
31
-40
47
31
63
-41
-41
-36
18
32
-63
-16
-67
45
21
49
-8
48
13
-59
-1
-26
-35
48
3
35
8
20
16
-36
-41
-60
-34
65
-13
-2
-48
-4
-106
46
14
3
-33
-21
3
-76
-69
-31
61
32
-8
5
49
40
19
-13
4
3
-11
35
-12
-38
-79
14
15
-14
-4
36
44
67
36
-13
21
-6
-24
25
12
5
28
-30
46
-1
19
-12
-6
85
-24
-6
-24
-1
-43
-81
35
16
-33
30
-17
-15
62
45
-63
52
-36
16
5
25
-28
1
-8
7
60
-13
-12
-39
-52
31
-29
-56
-26
38
-28
-6
-30
9
6
-41
-18
43
-14
46
45
28
-19
9
48
70
-10
-51
-13
-11
11
-10
14
-30
51
51
23
6
29
-18
-15
-10
-18
56
-17
-72
2
41
-13
-19
-76
28
29
19
93
-5
-65
1
53
-49
37
-26
29
-49
70
8
-92
30
-10
12
-45
-45
74
-55
25
-9
-9
2
-32
35
3
27
-8
-33
-77
68
-23
-9
-47
47
96
9
-26
17
-29
-77
50
80
0
30
29
10
-73
-43
20
-39
51
-59
-25
-16
-20
-9
-25
-6
7
65
20
58
39
75
-6
-12
82
24
34
-5
38
-21
10
62
34
15
75
6
17
-56
15
113
9
-5
36
16
48
8
-10
26
13
35
-51
14
6
100
-27
27
54
-16
2
13
73
68
11
46
34
11
-61
15
1
70
-22
38
-7
68
69
67
6
88
62
44
-87
-21
-33
-20
73
-11
-22
-6
30
21
92
-37
4
-60
-63
-42
-24
24
-5
-54
-38
-16
-81
22
14
2
24
-14
-53
-5
-4
8
106
-27
-30
57
48
89
35
-45
-6
13
-22
104
27
-31
8
-24
16
26
8
30
21
19
68
-63
35
-18
-7
-23
-62
-5
4
66
-5
47
-7
43
-1
51
-15
-44
73
6
3
-62
45
26
-21
-62
-7
-41
23
-43
27
84
65
-60
-9
-35
-89
5
4
32
-16
-27
11
-32
-9
-56
29
-96
22
5
30
2
-17
-28
-17
-23
19
21
14
14
-85
40
-20
3
-36
1
-78
7
-9
50
-66
21
5
-3
1
43
127
-38
127
-39
-7
18
44
-23
43
3
1
-48
51
34
-4
-66
27
-45
16
16
-6
11
-30
-101
43
-9
-22
0
33
-53
20
78
-29
24
64
19
23
20
-22
-4
-7
-2
31
60
51
19
-84
-29
-11
41
29
16
47
38
48
0
11
-40
-14
-30
20
-2
-94
63
33
13
26
-5
73
-9
38
-17
41
37
22
-92
1
37
-17
15
-29
41
22
1
-20
17
4
33
-24
42
-30
41
63
13
22
-48
23
-1
33
-7
50
63
-26
18
15
-14
-48
91
12
-9
57
-37
28
54
18
47
2
36
1
0
-85
-47
15
-64
-15
-125
1
-48
30
22
-36
2
-23
-36
18
-39
-62
-14
37
30
-7
52
-8
-16
67
18
-13
-4
63
-13
-7
-19
-43
-23
-9
-7
44
22
48
12
-39
-44
-82
80
17
3
-51
-18
-24
26
-41
1
9
-56
15
-49
10
5
-28
-38
18
23
73
14
-21
-11
1
-4
-5
10
-7
25
0
-14
43
-127
-43
80
9
-35
-9
2
26
40
56
49
28
-39
44
74
4
12
-17
37
43
-46
32
-13
18
-3
-6
-28
60
-27
46
-4
-60
39
-39
3
12
31
-20
-9
-127
-10
19
-55
-20
1
25
-93
-5
20
1
-10
28
37
-93
15
17
14
-2
55
16
10
-19
-49
26
37
-36
58
10
-41
-9
-17
8
-62
-5
58
-23
6
-4
1
64
0
-31
-28
30
-38
-2
-38
45
-5
-69
-5
-16
16
46
45
5
19
24
-5
52
-1
4
9
-22
-22
68
-20
-38
-46
-21
-31
-66
17
-25
-2
-36
53
-73
42
75
22
-20
-89
6
78
-16
-16
-12
24
-5
-54
7
-5
-48
0
3
5
10
31
47
25
27
39
-13
73
-54
-1
17
53
47
-92
43
2
-77
-40
2
8
-18
-49
-4
-47
7
-7
-1
30
-4
10
-35
-4
52
-11
-24
-46
39
-74
8
8
19
-6
52
-7
-13
-30
35
-5
25
-31
33
20
-61
-1
31
-20
59
-19
27
93
20
13
53
-26
-28
21
57
-22
9
-50
16
2
83
-2
55
-61
74
-49
-24
-33
-51
60
30
26
-26
-44
37
-10
13
11
37
-39
39
38
33
43
32
-71
-55
-60
32
-40
-9
-32
-83
2
9
0
-21
23
-5
-15
25
27
-63
15
-4
45
11
-44
19
-33
17
-78
15
-40
-37
25
-45
54
-22
15
-101
-62
-26
-23
72
-34
43
-1
11
0
-27
-24
-34
-12
-7
24
-23
-6
-77
-51
8
-3
18
-5
29
60
23
-49
-11
-43
25
7
-7
33
31
30
-10
21
3
79
-6
31
26
-46
-58
4
32
-16
-35
46
-19
46
-6
45
-27
5
-13
-15
33
-1
-45
-70
-45
19
4
-35
-67
18
-91
4
15
12
-4
-8
58
-57
41
13
4
-26
8
-2
15
-54
-16
-85
10
17
-6
64
-55
9
-22
45
5
29
-18
-9
32
-39
-45
-8
-30
-40
27
-49
9
23
27
17
66
-10
115
20
43
-3
59
34
-4
36
-7
53
-1
-32
42
25
-40
-20
21
87
-6
-40
41
-24
7
-4
-25
51
-59
-65
-127
-1
-84
11
1
-54
-39
15
-3
-71
-53
127
-23
-20
-49
-103
-60
-94
-127
79
15
47
-27
81
-113
-48
-31
74
26
118
75
13
-14
5
-94
-1
4
-18
-21
14
27
-33
62
18
13
14
120
16
17
-38
32
-76
-32
-127
18
54
127
-22
20
80
47
22
-98
21
28
-29
36
-86
-48
58
-8
7
-67
-11
38
32
-44
-69
63
3
-69
61
127
20
-21
-40
71
16
46
-105
22
-43
-29
14
28
61
-43
22
98
27
30
-73
52
-22
-4
-119
-96
-16
-6
75
4
-25
74
-32
-51
-19
-51
18
-3
37
-36
-76
-21
-127
-25
-26
-6
127
-39
8
7
-9
-37
19
16
-23
-19
16
17
-79
48
33
29
6
16
60
123
34
22
-32
16
13
60
-48
47
-40
-21
53
12
-24
64
11
29
-28
-56
-8
13
45
-25
29
-56
-82
46
40
39
75
53
22
84
-94
108
4
30
52
-9
-50
-29
4
39
-127
-20
6
33
-28
97
46
0
28
-37
1
4
37
-23
5
28
-32
-8
17
-5
68
33
93
-46
-28
1
-8
-80
68
13
-28
-35
-44
102
-48
-40
1
-53
6
127
26
8
32
-30
0
-54
53
-57
-64
20
1
-28
10
27
43
42
33
10
-5
-44
-8
-34
12
19
75
69
14
127
104
-18
-9
10
-118
21
-14
-28
-33
-127
76
40
32
54
-24
-18
11
-56
44
-5
76
25
-45
0
-35
-1
8
-50
17
78
61
-86
12
-12
30
-54
0
-41
-55
64
-1
-82
-24
75
96
-84
-92
-63
-4
-74
-14
25
-1
-31
-11
-79
-52
62
-39
-43
-23
29
-45
-11
33
23
-79
74
-25
7
-2
-54
18
66
-47
-67
28
27
45
70
73
21
34
25
84
18
10
-22
-81
-3
16
-51
-9
45
-95
-6
-7
-66
11
-15
22
-56
19
-117
-17
-30
-13
87
42
-23
29
-109
22
-112
16
-48
3
6
-4
36
-91
-55
-62
91
50
-2
-14
-127
11
-124
-11
32
46
34
2
-2
-50
33
-30
2
33
121
23
127
-53
-7
127
6
-16
-10
21
-72
-14
-59
-82
-12
68
31
78
-7
-32
-58
-43
-33
-91
-46
-75
-34
5
-96
19
-19
-46
55
-91
-57
100
-70
44
-60
16
-104
-56
22
84
29
84
92
-38
24
-33
-86
-78
-44
-19
-6
-15
-10
0
108
62
-57
70
-24
50
-19
69
36
51
-46
-7
4
60
55
-3
-44
-12
-71
77
82
44
-9
45
43
60
-30
89
44
-79
-18
6
57
-18
45
-18
-17
62
-50
20
-14
-97
3
14
41
-58
0
-58
55
28
33
-24
66
66
-27
-1
23
-40
-48
-96
-24
-39
56
-91
-17
-14
43
-113
45
-30
127
56
38
86
86
55
-50
-127
-53
-24
-30
-49
-119
14
-59
73
41
-54
1
8
110
59
-43
41
29
-45
-68
127
-31
-2
76
-104
35
73
-28
-5
7
-19
21
-99
73
33
19
37
-10
90
-98
27
-65
-47
-29
17
-40
5
-55
45
-100
-82
-29
4
127
-30
6
-39
71
45
82
-45
-127
45
64
44
94
126
66
1
-127
-98
70
7
-33
14
96
56
-112
59
65
88
-3
-61
58
-59
31
-51
-31
-94
-16
15
43
7
-24
-59
-127
-73
-7
61
-20
-124
19
5
-47
37
55
59
5
-28
90
-9
-8
80
-5
50
-47
7
26
15
97
-42
-9
34
-15
-39
38
18
-118
127
-5
8
0
-31
-3
28
60
30
-56
-59
127
33
-34
-39
-22
40
-121
59
51
52
-7
0
83
52
-127
-95
127
8
15
-1
-13
-119
-64
1
48
-35
93
30
30
28
39
-53
5
-59
-127
59
14
-86
-8
-19
-18
-9
9
-40
2
2
40
10
127
-3
-117
67
39
-40
-105
-24
31
54
-84
6
-10
11
-70
55
-22
-17
43
15
-10
-20
34
15
1
58
23
12
10
65
104
-1
-11
15
-18
115
2
41
-100
81
5
-26
-48
49
-42
-22
49
-60
-27
21
-88
-43
26
-66
44
86
41
-30
7
39
-2
-51
66
-19
118
-4
-10
-14
12
-73
-127
73
-87
52
22
32
-27
-50
-30
-41
8
43
-60
57
72
127
-86
90
-29
6
-40
85
20
21
75
2
-127
38
-16
-31
-16
-65
-73
-6
-25
-43
17
-15
72
62
21
-13
-79
58
127
32
61
70
12
-52
-42
-32
-9
-10
-49
-47
-29
17
-7
62
-46
72
-42
81
49
-30
-127
27
-6
31
-26
5
-6
-47
35
-9
-26
6
-65
26
127
-37
38
-16
-19
79
-39
25
30
3
-35
8
36
-4
16
-127
27
-65
-127
-33
7
17
22
-18
-99
45
62
-5
32
3
-15
19
-102
-16
-38
-40
0
65
56
-29
-13
83
-48
-21
12
11
51
124
-48
1
62
-127
20
-16
32
-10
5
31
117
0
82
0
41
89
-112
-33
40
47
124
-1
83
25
107
0
53
6
127
-38
86
12
12
55
-33
-71
-26
-52
-19
22
35
-32
-73
-86
15
27
-57
76
-94
-127
68
63
-26
12
17
-77
15
2
-8
122
-1
-4
-20
91
-15
0
5
67
50
-80
-16
-113
-42
-43
35
-43
-18
-71
-24
51
-26
-11
-80
-6
-68
67
5
-18
-25
19
-70
59
30
-19
127
-18
-74
127
-4
-68
-72
71
127
3
28
-84
-76
10
37
46
20
12
-67
-1
15
72
25
24
-123
-45
40
17
-46
-9
5
39
-75
-41
-64
35
8
14
-42
-3
66
-91
5
-114
4
17
-88
40
76
-34
-47
34
64
31
48
49
38
-8
-127
-75
-127
13
15
-127
-64
26
-7
-13
60
0
96
-5
-17
39
17
-30
15
45
-13
8
-18
-44
12
12
40
-3
-73
-7
9
-65
65
65
-7
-12
-4
-58
7
13
-21
41
58
-14
-41
-24
1
43
2
-63
-29
-45
127
55
78
73
-14
9
-41
-38
2
-63
69
26
-37
-11
24
-37
-28
-29
-15
-6
16
-55
-57
-1
-82
37
-84
-51
6
72
16
56
-21
56
-18
34
-68
-15
50
-72
-33
-52
18
-54
-1
-3
28
-33
9
-29
-14
-27
-57
-53
-38
-24
-54
-12
14
47
37
-37
-70
9
34
-62
-21
17
22
-61
5
14
-18
34
15
-45
4
-17
15
-57
-25
-51
-50
-59
25
27
-2
-52
3
-99
-10
13
-27
-27
-38
-52
45
17
35
-70
10
26
17
-47
35
-37
-33
-45
15
37
-12
-3
-25
-1
46
52
11
-21
5
-17
-1
-43
36
-16
-6
-18
14
40
24
-55
-62
-36
-11
-11
-35
4
-10
-34
25
-3
-20
-7
-13
-33
-94
35
-5
-10
-22
39
-17
2
-21
15
27
-50
-28
-24
-3
-89
-75
-106
-1
-58
14
-5
2
-28
-45
43
-44
-23
-28
-30
-58
-93
-12
-55
22
-39
-10
-35
5
-58
3
27
14
-46
-17
13
45
-75
-14
-21
21
-74
-92
-13
-35
55
26
-56
12
-9
17
-29
-36
52
-18
-29
24
18
28
-8
18
17
2
-22
14
-8
-53
0
5
-50
-11
12
-33
-10
17
-15
57
-6
14
22
-39
38
70
-39
-13
-81
7
-55
-43
45
-67
-127
-11
27
-13
-20
-17
-75
-77
55
17
-18
55
-45
3
23
17
42
5
-21
-26
20
-84
31
-53
52
13
-13
9
31
11
-113
-61
42
-26
-11
-28
19
42
9
-29
6
-44
-39
-75
103
-11
-52
-43
-44
-24
-77
-75
23
27
30
5
9
-42
-5
14
17
-8
0
11
-71
-13
22
-55
-54
-115
35
34
-29
71
35
43
-57
1
-28
-87
-46
11
28
-59
0
-43
8
94
-29
-28
-28
-86
-13
-31
-16
30
66
-6
62
-14
-8
30
-45
-1
-58
-30
-4
27
2
-53
-98
31
-92
38
-20
-47
-63
-15
5
-43
-10
-2
19
33
-15
6
15
-99
4
-8
-37
-8
-16
-46
9
-15
1
33
-18
-34
-79
-12
-22
-11
-80
15
-51
-39
-8
32
44
8
-28
44
80
-45
-32
-3
-61
11
-16
-70
-23
-27
6
-30
12
-2
-23
-16
-30
87
-71
21
36
-1
-52
-90
43
-24
-2
-35
55
-26
-2
-8
-75
-15
-36
-14
-26
-48
36
-31
-66
-45
-9
-72
3
-22
59
37
-31
14
-7
5
-10
21
1
5
5
-8
-36
89
-6
72
25
13
-77
21
2
-2
-32
-36
19
13
-43
-48
-127
-63
52
49
-24
-8
33
-64
-63
-21
-70
2
19
-6
-58
20
-1
-65
-8
22
-24
-17
-44
-40
-38
-11
-28
-73
68
28
16
-94
-17
-25
81
38
19
1
-32
-114
-59
-41
39
31
16
1
-13
-12
-46
-24
-5
4
-44
6
-5
-7
-17
-77
-36
-31
-46
-11
-1
-45
-73
-41
9
-36
4
28
-94
-35
28
-102
103
-4
-7
-32
-22
22
69
-25
21
-19
33
-21
25
-16
17
44
29
12
-19
-25
-66
4
8
-95
-42
0
-27
-70
-8
16
-63
-34
0
0
-39
-8
-60
-11
1
35
-14
48
-21
-43
27
-32
-18
19
-57
-82
-64
-29
15
-61
-3
-72
19
39
-59
-30
38
-47
-42
-52
-9
-35
41
-64
-6
-45
93
-1
-38
-61
38
41
-18
-20
1
-18
18
25
-61
16
-3
18
0
-40
19
27
-26
-57
-22
23
28
-45
-24
-1
-32
-31
10
-17
-30
9
-22
49
-19
-68
-27
45
-10
3
20
-39
-52
38
29
-47
63
1
-70
60
2
-12
-34
18
-32
-13
6
-34
-42
41
86
-30
81
3
-36
-48
-2
-27
38
-58
-5
52
30
-21
-55
17
-38
-84
-24
-82
-13
-31
24
42
15
21
-12
-10
5
-14
-40
25
-127
-8
57
9
-38
-17
-49
22
-6
-16
-64
29
15
-102
-47
-55
83
-36
-22
-5
-23
-44
-18
-20
-20
-26
20
11
-18
22
1
-67
8
85
-31
20
-55
23
-40
15
55
-30
62
-40
-113
-22
-2
-24
-69
-76
18
-35
-20
17
-64
17
33
-47
-30
-22
-31
32
-60
-79
45
-20
-49
-3
83
15
-36
20
-41
-122
-47
-17
5
35
-42
24
35
37
-43
-41
25
-12
18
-32
-10
-27
14
-68
8
-41
19
14
-45
-8
-103
-29
-21
-112
-47
52
-66
-36
11
7
-26
-82
9
-55
-15
-12
44
63
-86
23
-12
-3
1
13
-56
4
3
-5
-7
-18
-65
-52
20
47
2
19
2
0
-39
-25
18
-3
12
-57
-18
-39
-59
-30
79
-13
-77
-72
-76
-14
18
-11
37
-56
-101
-38
-57
-8
49
-19
-7
-6
14
29
-22
58
-44
66
-6
-40
-43
-29
-31
-65
6
53
-41
-43
-88
-11
-30
28
-19
43
83
30
15
-31
-1
-54
-82
-70
38
84
-63
27
60
-30
11
69
-7
18
19
74
1
-16
-9
-24
-51
-60
-2
3
32
32
25
11
-8
5
47
-53
8
-61
7
37
13
-18
-41
72
-42
41
-39
88
3
4
66
-69
-11
-17
-34
-50
-68
-23
-38
-27
39
-2
19
-33
-33
1
-97
-34
7
-4
1
-28
4
-59
-25
15
-26
22
3
-58
-20
50
25
-36
-59
-37
37
20
-14
22
-29
-65
-48
-21
-44
-37
6
-14
-24
-30
90
11
-21
54
-24
3
8
-68
46
-32
-32
-4
-5
12
-58
-2
-8
-48
7
43
-38
-23
-15
3
-46
-24
-17
16
25
-9
-15
-53
37
19
-8
-34
-49
121
1
-46
-52
-50
-27
-13
-7
65
-33
-6
-18
-6
-19
-50
-37
5
6
-93
-10
-34
-72
-26
-22
38
-47
-24
-12
29
23
19
36
22
-27
-7
-75
36
-23
-14
-80
-11
40
-75
-53
-24
-20
20
-33
-47
-30
-68
-4
-16
109
11
-13
-37
-102
-74
18
-44
3
12
18
8
-33
-23
-34
26
-121
9
-21
21
33
10
-50
-2
-111
-13
-22
-9
-36
11
60
-67
59
41
-55
-95
-8
57
5
-13
35
51
-26
-34
15
-70
-39
-13
54
15
-34
-16
44
41
-23
18
45
-28
5
-76
-46
-27
63
21
-30
-12
-16
-52
11
4
-55
22
-42
18
63
-41
-13
-107
-8
35
31
30
12
19
-33
-33
44
-31
34
-13
39
49
-34
18
36
-48
-35
-28
34
-23
-8
-13
-11
31
-45
-22
2
1
-10
-17
16
-38
57
-41
31
-4
-31
-34
-5
26
-20
-1
-33
36
17
-39
-35
-55
11
-9
17
-127
22
3
44
18
32
-1
-68
-88
67
-35
-26
6
-49
75
5
-8
7
-43
42
-12
31
13
49
-79
-7
26
6
-16
30
-18
10
-19
6
-34
15
-2
87
-36
10
-3
42
-31
3
-79
-101
23
80
-46
73
-20
-84
-8
-15
-14
52
45
-54
36
33
-41
0
22
-51
57
56
76
39
-83
-15
-22
19
22
39
-38
16
-30
-7
-13
-47
-19
11
10
-13
20
5
3
-23
-11
-11
53
51
-5
49
5
-3
30
83
2
-33
53
14
-32
-35
-13
3
20
44
-16
15
-48
-72
-1
-25
-7
-47
38
-5
-72
-62
-29
8
26
32
32
-1
-67
40
-21
-76
-7
19
32
-76
11
9
46
47
1
50
-40
-23
-15
61
-31
-4
-35
-27
-11
34
18
25
-15
-39
-25
27
-27
38
56
-18
-1
4
-24
-85
51
-35
-1
-43
-64
-11
-69
0
89
-32
-43
14
16
40
-74
39
1
-8
-1
12
-5
51
-17
24
-28
-59
62
-50
-20
-31
-16
18
15
4
-35
107
20
-52
-92
22
-16
2
-39
-11
28
-25
-46
-19
7
11
17
34
-2
-23
19
-1
33
-6
-40
34
-32
-17
24
-2
-25
-15
-12
-46
-14
28
47
9
42
16
-18
-59
46
21
58
-7
-43
-2
-38
-25
-49
-37
-37
-10
-36
-42
70
-10
48
39
-37
-75
-35
10
21
-35
-44
-13
74
-12
-14
-33
24
9
54
59
46
20
-8
-3
-25
32
-9
-5
-34
29
-64
5
27
-54
-127
-16
19
-2
39
-32
-42
-35
-11
44
-4
-65
67
-85
-57
-62
10
-58
16
55
18
-22
-58
3
8
14
-33
15
-32
-30
12
25
-10
-30
42
-18
-11
-33
14
16
-57
-52
15
10
31
-15
17
-18
-4
-75
-4
-6
-10
55
5
13
73
5
-31
46
9
-38
-31
-11
14
85
50
72
-38
-39
19
-28
-33
76
10
8
-17
21
20
-10
35
-6
-23
37
-28
-24
-10
-7
-30
23
50
-51
-101
12
-52
7
21
-26
-12
26
-19
-25
50
-26
-36
-19
4
41
-30
-18
-49
-50
-1
5
4
-47
42
-81
10
-11
16
69
-4
54
5
-56
-32
-19
0
29
-13
8
13
13
-66
7
54
-7
-31
-68
-11
-45
-32
-30
65
70
-89
49
-1
92
-16
20
52
28
-35
-44
-19
-39
-47
-8
-64
-79
-38
13
15
10
-89
-31
-29
-32
-92
-61
-55
5
23
30
45
-31
-21
43
-12
-2
-20
4
-25
-1
-7
15
-25
12
-7
-52
-28
13
-11
20
-4
-42
-5
-51
26
93
37
4
-2
-55
38
0
2
-10
-33
-97
-17
-2
-38
-21
22
-4
-31
-53
53
-5
48
-38
13
-8
-32
-4
51
16
-3
-24
-96
26
-9
21
67
-14
16
-66
-29
-1
77
35
48
12
23
21
24
6
21
89
-11
-19
10
-14
17
-2
14
-105
13
22
27
61
69
-4
-63
14
-54
-10
64
-35
23
-3
-56
-42
4
-5
15
26
29
-43
-27
-46
27
27
9
-6
2
48
32
-5
79
-9
-24
43
-33
-64
42
19
-55
-19
21
-92
12
29
53
5
-45
-11
31
-12
2
-127
-8
-18
-23
31
-25
78
37
12
-1
-10
34
-20
17
-35
10
-17
-44
20
-1
13
68
-41
-23
-5
39
36
-79
-46
30
73
-9
-32
24
-36
-45
35
53
57
-9
-77
-48
28
19
31
-95
-15
-87
9
-21
-2
21
-22
-21
-11
-23
-1
-3
26
-30
-78
-35
-35
-41
24
-22
21
-102
17
79
25
70
-34
49
-66
55
-3
6
2
-5
114
-10
3
-55
86
52
28
-86
-3
51
45
-8
-1
-27
19
-1
41
-27
-54
-13
2
-33
3
-48
39
-42
20
-16
-35
-39
-70
96
-14
26
-18
75
-45
-36
27
-16
-23
-63
-1
22
6
-44
-78
-28
14
-9
6
-23
-71
62
46
-8
-39
3
-37
30
28
-75
-6
17
2
47
46
2
-4
14
23
9
6
3
-29
-62
24
-25
-61
-45
-53
30
23
-41
-27
32
-79
66
-12
-44
-15
12
13
-127
15
39
12
-48
8
-7
67
-48
-48
-28
-42
-7
-77
-56
-68
-23
35
-7
-59
-43
-41
13
5
8
5
48
-62
23
-41
35
-28
-122
-25
-62
-4
-60
23
-4
-44
5
21
15
2
-10
-5
-6
-2
-79
-7
-65
-35
-6
-13
-32
66
-86
63
6
29
-41
19
-7
7
-22
-25
-20
-31
25
21
4
-7
17
-3
-15
-19
6
-20
2
16
-51
4
29
35
25
-127
41
37
77
-38
-7
-37
52
42
-22
-118
-81
-2
-12
-22
-7
-7
-46
18
34
13
-29
-25
-75
91
-45
-65
74
-67
14
-58
-33
47
8
37
-9
-68
-77
-4
51
52
-73
-4
72
-8
-18
-43
29
102
-7
-63
-31
-38
-24
-47
-65
-16
35
30
-16
-57
13
-2
-15
67
12
8
-2
37
-57
-16
64
3
-85
18
28
-127
36
-16
116
34
8
-11
30
-13
6
-75
-2
-19
-42
-33
-72
-3
-8
-36
-56
-34
33
-12
61
-70
3
11
30
-44
33
-78
59
5
-8
-26
-9
-49
16
-68
44
-11
-33
-25
-11
-3
-37
-12
-68
91
-9
-24
-26
-18
-117
-39
-47
-25
30
-103
46
-28
-64
-23
-58
-31
-24
-98
-6
-79
19
-62
-24
-25
-14
-10
-20
-43
17
-5
54
-54
-37
-26
50
66
43
19
-11
28
26
3
41
-44
-48
-40
-17
11
7
45
-8
11
16
-12
-30
20
-80
31
-6
4
-58
-52
30
-28
-59
3
23
27
6
12
19
4
-37
-28
-46
-52
10
-37
11
-8
53
-5
33
30
-7
62
-6
77
-42
-20
-19
-5
17
-6
32
-21
-57
25
33
53
-12
-28
-20
45
-23
-60
16
-15
15
1
-10
-46
-27
30
-79
-37
-2
8
-41
13
28
-66
-7
36
32
-22
22
-6
-38
-96
-10
50
-52
22
1
-20
38
-59
-16
48
-21
25
46
-78
-51
-7
-3
16
20
-41
44
-56
85
9
64
-96
87
-56
-18
-38
-62
47
100
44
-36
7
-38
-49
-55
-1
13
-33
-71
-80
-5
1
-13
6
-35
-68
67
-6
-68
-15
-58
24
-21
-106
62
43
-12
11
-72
-12
-127
-116
28
-43
62
-5
-47
-45
49
-65
50
25
6
50
42
40
4
-36
-8
18
16
-8
21
-23
45
5
119
10
-36
78
57
-3
21
127
-11
27
-28
19
4
-5
-75
74
17
-69
27
-7
-2
-23
-73
16
89
-40
-85
8
-20
-9
32
29
1
63
-49
-5
-9
3
88
-9
-7
11
-17
75
6
47
-10
-1
91
-36
-28
69
-41
50
-88
22
-63
25
-8
-25
-100
-4
-7
14
50
4
-57
-9
12
-10
-36
-86
-25
106
-72
15
34
-40
99
65
-50
63
-31
51
58
-32
-97
42
-1
57
-30
28
-25
-14
-8
-30
9
-18
-127
58
-19
18
-2
4
-38
-45
35
-23
-20
11
24
-29
16
33
69
42
10
2
-38
-2
86
-55
12
62
-57
4
127
-27
42
38
9
-3
-46
80
13
40
-56
-105
69
48
-92
-67
38
34
77
2
-26
-22
-6
-10
28
-69
5
-29
-27
16
-36
76
18
-20
127
1
-14
16
46
33
99
-17
39
7
-17
-42
-10
-32
-12
-26
62
14
-104
-16
-38
25
-13
9
-39
-102
-64
9
-98
-18
58
-64
-45
-35
-31
77
-74
-57
10
-14
-27
-8
9
58
12
-74
14
74
14
-111
90
-51
36
32
63
10
-96
-2
27
12
31
-34
-22
-65
-37
27
-12
87
13
52
102
22
6
14
-16
38
-80
14
-11
-59
76
42
-56
29
-20
67
-16
-44
-16
-57
63
-6
68
-45
-70
-9
19
-46
-85
0
7
-6
-29
5
40
-69
-86
-31
-34
-70
-26
7
-36
31
-35
79
55
-59
50
-12
-9
-26
-52
-36
2
36
-3
37
10
-62
-102
17
-19
-40
-4
-70
-51
18
33
-51
57
36
45
-116
-85
-49
-29
76
-53
-98
51
104
38
-57
-24
-12
80
-63
-30
-44
-24
6
-52
35
1
-51
-27
-44
-16
-40
-69
20
21
-69
-38
10
-6
3
-21
-71
-43
-15
56
52
-1
58
-67
-25
-32
1
-19
-53
65
-64
-33
10
-111
0
55
-28
48
-15
-27
39
106
5
-57
-9
52
33
16
-67
52
-102
-1
-33
45
5
-22
0
59
15
-36
-13
68
-92
12
-60
28
20
-24
18
20
10
9
-5
1
-19
-66
-1
52
-43
-3
-88
-87
55
18
45
-39
59
-76
41
-56
-67
-43
46
51
60
38
10
-72
-4
3
-16
4
-103
30
28
-17
26
4
42
-77
-27
42
28
-25
69
-106
15
51
49
92
-59
22
25
-23
20
-26
-22
40
26
5
11
-30
29
-9
21
19
26
-30
-127
-33
58
-16
-38
-10
-88
19
-65
15
32
22
-18
17
-31
12
42
90
26
-24
-66
54
91
-41
-63
-47
3
-13
-90
92
-81
-51
117
15
35
62
-60
-54
9
-25
63
18
61
11
48
78
-68
-30
-82
-62
-90
20
8
-68
4
-27
-80
7
-16
19
-5
11
-92
-42
43
31
-13
127
21
2
-12
-13
36
17
-4
87
29
-76
-61
-99
7
107
33
-44
-127
-53
24
-7
31
-32
-17
-47
14
-7
56
16
72
-19
59
17
-16
-15
26
-5
-10
35
127
-5
-12
-1
31
-39
1
0
1
-127
34
61
60
-8
71
-4
18
49
-39
-67
-26
29
59
56
99
-45
39
-127
-75
15
76
4
9
-40
-107
88
3
-9
-15
57
127
44
-26
-14
-50
68
-26
-28
40
120
40
15
-18
32
-28
42
10
-51
101
-34
-1
-46
-38
20
49
40
62
32
45
30
5
66
0
-9
-127
-12
100
-13
85
76
-36
49
-15
-116
-22
55
2
6
-46
-70
-1
54
-3
-76
127
-61
-3
12
42
38
60
31
79
-25
48
-88
-3
-43
13
-25
-29
47
89
33
-30
-26
-56
71
44
-71
-127
4
7
30
13
-11
-41
-29
80
-69
-127
-58
-36
-26
40
30
35
23
18
-13
75
102
30
70
-40
68
-64
58
33
92
35
5
-10
0
-28
-32
22
51
12
23
93
-13
95
15
42
32
17
-20
67
-15
-8
-53
7
93
-41
-12
-33
-60
-62
-9
-59
36
-50
-31
-73
59
-19
14
22
31
-64
61
-8
51
-32
-34
-105
38
3
18
-25
-62
-6
69
23
8
127
-74
-24
-9
-8
56
-74
1
43
-66
36
25
97
-73
40
29
-99
-18
19
52
50
90
83
-17
-58
-14
-10
22
42
-32
34
-54
-3
55
10
-73
-3
106
11
-49
127
25
61
-95
13
46
-12
-15
31
-29
5
-29
-51
7
-28
-16
22
-25
59
29
23
28
45
55
-21
-2
-28
-41
-89
-2
-55
15
26
-67
-46
-81
28
47
-110
74
-83
35
74
-10
49
96
-28
-79
-8
-31
60
-67
-78
-14
-38
36
10
21
38
66
-13
-3
-9
-53
-16
-23
-84
-2
-27
-63
13
-17
39
13
-75
54
-42
12
-10
20
72
73
-20
26
-73
-22
-85
-52
-101
-46
22
-58
-27
-51
109
50
-12
-76
12
47
84
-85
39
33
13
103
-92
-14
-10
-9
-39
83
-42
-40
5
71
2
-25
0
49
-46
9
-83
-13
27
-77
13
39
72
21
-70
83
-127
-19
-21
-12
-10
-68
-46
81
-61
-20
26
15
-88
-105
-41
-37
38
-46
96
-45
14
-80
96
17
35
82
-45
80
-43
32
2
-12
-22
-41
-38
92
-16
-27
20
-7
25
-19
-22
-13
-49
-2
74
-10
8
59
-7
-45
23
-44
49
5
9
58
-30
114
62
-59
