56
103
52
112
127
102
60
95
45
54
93
23
127
61
114
44
104
35
21
28
16
3
127
4
21
20
14
1
34
4
51
127
16
8
38
13
11
-25
3
127
-94
-6
9
-22
3
17
127
39
-54
-116
-51
6
-14
-3
106
85
105
116
-127
64
3
0
8
3
60
20
62
127
78
12
53
28
32
33
29
33
127
35
39
38
40
-21
25
-6
-65
127
-29
-17
30
-13
15
26
12
-19
127
-88
23
24
5
24
127
20
-10
-37
-12
-29
-102
-21
9
26
0
25
127
15
8
19
2
-60
0
111
9
-88
127
-73
12
111
10
12
-55
115
127
-37
12
3
-35
-26
-112
-33
-127
-68
-94
-18
-115
-33
-39
-39
-32
44
-41
-41
83
127
23
1
41
5
43
127
22
10
41
3
-89
22
64
25
127
5
70
22
-89
-18
22
32
-7
-12
127
-24
19
27
-7
16
-9
32
127
5
16
-4
2
6
17
7
25
127
9
10
17
9
23
-62
-46
127
-65
-31
21
-68
-39
-108
-127
-122
-105
-107
-77
-91
-111
-121
50
127
16
44
-53
11
-17
-15
-13
-25
-15
-26
-14
127
-11
-28
-13
-33
15
-22
9
-25
-127
-34
5
-20
5
25
127
15
-13
-78
-22
-27
-78
-28
34
-56
24
73
-127
64
27
-48
28
-14
-127
-80
79
56
-104
44
72
-9
4
68
3
-24
-127
-17
8
67
1
20
112
-13
-3
127
-1
25
109
7
-78
-96
-54
-102
-30
-127
-54
-112
-57
-51
75
112
-50
53
119
-41
85
127
-5
2
5
0
127
3
-2
2
5
4
113
95
-124
-57
93
-75
-127
-4
50
-31
-24
127
-123
-21
50
-31
-17
99
-26
-66
-11
127
7
-39
-16
88
60
116
83
127
-6
91
75
89
61
-24
-60
-39
-42
-127
-59
-29
-47
-36
-4
127
29
41
-112
-12
-10
-62
-42
15
-89
4
-51
-127
-2
19
-83
4
127
-50
-53
-112
-68
5
114
-66
-44
24
23
12
127
-52
2
23
30
17
19
-52
8
66
-127
81
18
-49
14
22
45
11
37
127
56
31
45
14
-18
-37
-26
-7
-117
-32
38
127
30
-54
-46
-23
32
7
-28
127
109
-35
-127
-108
-73
-86
-73
-81
-110
-100
-88
-79
-125
-13
-127
-37
100
-8
124
89
-102
-119
-90
-114
-108
-101
-101
-127
-103
-1
58
3
12
-127
18
1
45
-3
4
43
19
-14
-127
93
5
40
26
22
18
29
-41
-10
127
23
24
26
89
118
81
72
67
127
108
118
84
-3
-78
-30
-27
-127
-40
-19
-76
-28
-4
70
-1
5
-127
8
-3
73
-8
35
25
-30
84
-13
-127
27
20
-25
0
42
10
48
127
-5
0
42
6
-90
-108
-126
-94
-43
-103
-101
-117
-127
6
15
7
17
127
17
1
18
8
75
12
-1
127
-9
-5
52
22
-4
5
-1
2
-30
127
45
1
1
2
15
118
86
-103
-4
86
-87
-127
-8
-7
-26
-6
5
127
11
-3
-11
-2
-7
-68
-12
17
127
18
-6
-45
-3
8
49
10
5
-127
5
7
56
7
38
-73
-3
127
-109
-12
26
-60
-3
25
23
-14
66
-127
-19
23
16
-17
8
8
9
9
127
7
12
8
14
15
1
7
39
127
37
12
-6
13
1
-24
-6
127
-53
-9
1
-20
-8
20
67
19
80
127
36
18
72
12
82
22
46
-47
-127
-8
85
12
46
38
-25
2
127
-44
15
30
-12
-4
12
25
8
-17
127
26
17
24
13
2
31
14
22
127
20
4
31
12
-64
-127
-23
-123
45
79
-33
68
39
15
68
6
-17
-127
-31
13
58
10
13
29
14
27
127
23
15
27
14
12
40
1
12
127
13
8
33
-1
38
127
37
-9
23
-2
-22
-60
-26
-46
12
41
-83
17
127
-36
-16
51
14
34
11
14
127
28
13
41
9
0
9
5
11
127
12
1
11
4
9
2
32
67
-127
60
4
12
24
46
67
50
127
116
111
44
75
41
-16
31
68
-32
78
127
-13
38
53
9
-5
3
1
-127
-8
9
1
6
-10
-16
33
-14
-127
108
-10
-21
25
-4
44
40
-6
58
127
1
45
37
-26
-127
-47
-82
-110
-103
-26
-120
-44
-75
-123
-102
-107
-56
-120
-46
-127
-115
14
40
14
33
127
44
15
31
19
7
17
24
28
127
30
7
15
18
7
18
1
9
127
9
8
21
5
-11
33
0
-17
127
37
-27
28
-11
-50
-79
-20
-127
-61
-54
-88
-74
-18
-7
23
108
-8
-41
127
17
22
90
5
127
41
16
-79
-42
6
125
46
8
-21
-22
127
-62
-45
15
-21
-19
23
75
7
60
127
61
16
69
5
1
-75
-127
51
69
82
6
-67
-110
-2
27
10
31
127
23
0
31
-4
-4
-27
-7
-18
-116
127
-3
-27
-10
15
-9
16
36
127
23
7
2
6
-3
17
-27
27
127
26
4
24
-16
-15
-12
13
107
-117
127
-14
-6
5
7
-20
-58
38
127
-23
12
19
-23
-42
14
34
-58
-127
84
16
64
51
1
-127
-88
79
71
-110
52
71
-5
-70
116
-38
-127
29
52
-67
121
-41
-16
-57
-20
-38
-72
-33
36
127
32
-3
84
2
57
72
72
-127
-123
-122
-21
-49
-30
-21
-57
-36
47
127
35
10
8
-1
29
127
40
15
0
4
-20
127
-7
7
-110
7
15
-42
11
-51
-93
-23
-127
-35
-89
-52
-95
-17
5
36
-41
8
119
-127
-1
33
-24
52
60
32
92
127
72
39
67
38
18
94
29
59
127
93
15
86
39
25
41
26
23
127
49
24
47
26
41
-99
45
49
-118
75
-63
127
-57
14
24
30
36
127
28
9
26
26
0
2
30
-16
49
127
-2
0
31
-14
-53
-27
-39
-127
-65
-22
-46
-24
37
42
17
28
127
33
37
45
20
28
6
30
-1
-127
10
29
11
27
53
91
46
66
-127
48
54
68
51
15
74
35
-49
-84
-127
17
79
37
49
39
-27
31
127
-33
52
39
-36
-39
-32
44
-84
-109
127
-32
-16
43
-27
-83
-26
-85
-127
-79
-27
-74
-37
25
-46
18
80
-127
53
27
-47
18
-30
-50
62
-1
-3
127
-17
-35
54
0
-75
29
-20
-89
17
7
127
-39
-68
-54
-63
-65
-127
-67
-65
-51
-90
-76
-70
26
-125
69
127
-26
33
45
-5
19
-10
-2
127
5
-1
20
-8
102
127
77
-41
-91
-26
-92
-73
-59
13
-62
2
86
-127
30
15
-66
0
-12
-40
-42
-35
-127
-10
-12
-22
111
22
104
29
53
127
24
27
108
3
9
23
11
18
127
12
10
21
10
-97
-127
-16
-123
-28
125
-17
103
95
-107
-120
-81
-115
-73
-127
-87
-123
-79
14
17
11
15
127
16
8
17
1
-8
-58
19
92
127
108
-14
-66
14
46
70
54
80
127
74
38
72
48
3
21
6
0
127
-1
3
16
7
1
-55
21
28
-77
127
1
-42
9
-2
-14
-39
14
127
-53
-4
-8
-42
-19
45
-8
65
-127
31
-7
28
-5
-36
-52
26
-75
18
127
-33
-55
14
30
10
-2
127
-35
-1
40
22
-8
-58
-125
-4
-127
-67
119
-14
112
105
-10
-39
34
-15
-127
102
-10
-29
31
12
15
10
-10
31
127
8
20
19
9
11
12
18
127
22
12
18
9
84
110
61
101
127
108
76
105
57
17
-40
-17
3
34
0
-7
127
21
8
7
7
11
127
16
14
15
2
-12
2
23
-47
127
87
-5
2
20
-8
32
-2
127
-64
-76
1
23
-1
19
69
12
-20
-127
-20
12
52
9
-73
-82
-46
16
127
17
-65
-83
-59
37
-57
22
-18
-34
-43
12
127
34
22
37
8
22
127
17
21
39
6
12
87
-11
104
68
-123
6
-127
-61
2
84
-39
-39
-47
127
4
80
-25
17
28
15
26
127
24
13
29
22
-11
-11
-5
-91
-71
127
-14
-9
-8
50
68
66
-20
127
13
58
78
71
22
59
23
39
127
34
27
59
21
-3
41
4
29
127
19
-7
34
5
-16
-12
-11
12
127
5
-11
-9
-15
-4
56
20
14
127
-24
-2
51
23
28
68
11
60
127
41
30
73
9
40
-19
-30
127
-57
-30
31
-4
-30
20
-73
23
54
-127
47
17
-69
16
26
-35
-21
127
-70
-68
27
-20
-24
-8
12
44
-29
73
127
-3
16
46
4
-4
8
1
-127
0
5
-2
11
20
19
16
9
127
23
23
11
22
36
127
43
-30
-38
-29
-32
-51
-38
6
13
11
25
127
22
13
19
11
21
45
17
45
127
33
25
29
21
12
-14
-54
51
127
-80
6
-10
-52
13
35
23
30
127
32
11
27
27
-7
-28
9
-34
-83
127
-7
-32
9
11
18
6
26
127
4
5
10
2
-1
-36
2
-33
-127
-36
-1
-33
-1
7
5
-17
1
127
8
6
8
-25
-12
-13
19
-35
-54
127
-8
-6
21
-16
-23
-1
-48
-98
-46
32
127
14
43
-16
-52
127
-119
-92
41
-4
-46
-6
-14
-11
-37
127
-11
12
-51
0
8
86
25
94
127
101
10
85
13
45
127
44
-23
-22
-3
-50
-123
-34
18
-12
-23
127
-65
-24
21
-14
-31
64
120
78
102
-72
127
69
127
73
-17
25
26
127
-2
-78
-20
28
26
10
28
3
31
127
25
11
26
6
-4
-65
2
-47
127
-31
-9
-45
-5
-38
-38
-31
58
127
28
-41
-51
-31
34
-36
-6
127
-40
-31
38
-29
-9
2
20
15
127
73
-29
6
19
26
30
111
25
30
127
52
26
116
28
-7
94
75
-127
-37
92
-56
-113
-5
12
39
-67
-16
127
-65
10
32
-76
-31
-63
-38
-35
-127
-13
-56
-35
-30
9
24
16
44
127
36
9
26
13
-10
32
46
-21
-97
127
-4
27
54
28
3
-63
70
75
-127
29
18
-35
-5
-13
-11
-14
127
-28
-12
-17
-16
11
-74
64
3
127
-119
-2
-13
26
1
7
4
10
127
10
5
6
3
3
18
0
19
127
19
-3
17
-4
-25
-127
-24
34
77
27
-21
-101
-26
0
-52
44
-30
-73
127
17
-49
38
7
5
3
11
127
5
6
7
1
-19
-41
-6
-54
-127
-54
-22
-29
-9
-122
-97
-110
-107
-38
-105
-102
-109
-127
7
4
-12
127
-44
-98
16
-4
-2
-65
-119
-68
-127
-57
-110
-78
-117
-62
90
53
75
81
127
35
72
43
71
2
44
43
-26
-67
127
-6
50
44
-13
-127
-30
-21
-127
-20
-14
-122
-24
12
24
14
41
127
44
17
17
16
7
9
-1
-127
124
4
4
16
0
0
-2
2
-11
127
3
-1
2
2
28
62
38
3
127
-16
28
54
35
-17
-8
-24
-37
-127
-31
-10
-15
-28
19
-1
-7
86
-127
40
25
-1
-7
23
41
13
-14
-127
-16
25
46
9
-22
-99
-23
-10
-72
-24
33
127
34
-2
16
-30
-33
127
-69
-9
14
-22
1
32
13
25
127
37
1
29
8
22
64
-11
127
89
79
42
66
6
35
-12
-30
127
24
-74
26
2
-33
45
60
-5
63
127
88
44
51
-6
10
-119
-1
-29
-127
-22
9
-101
-1
-127
-14
16
-11
112
12
21
26
17
1
-121
-96
106
6
-127
72
124
4
22
64
12
-39
-127
-25
14
64
4
14
3
5
16
127
-5
16
0
3
3
-11
9
-33
-28
127
6
-13
-5
7
15
6
16
127
14
9
14
6
22
14
-1
-32
127
41
27
8
2
-13
60
-20
99
127
99
-1
48
-7
-37
-113
-23
-12
-45
-8
54
127
35
49
-31
-26
127
-113
-21
46
-30
-25
-63
21
34
-127
97
80
-52
5
37
24
22
2
16
127
33
20
20
-3
-127
-124
25
-114
91
110
-16
83
64
70
86
73
92
127
78
82
86
61
-48
47
-11
-119
127
-58
-36
33
-18
48
-123
-59
79
80
-127
-22
73
42
29
74
36
-62
-127
-61
35
67
29
29
77
4
56
66
-74
-2
-127
-67
14
27
14
18
127
28
9
24
14
33
-79
22
-57
127
-43
7
-10
9
3
21
6
16
127
16
3
11
1
6
44
1
36
127
39
3
45
4
7
29
2
37
127
37
9
33
2
7
-30
12
19
127
33
4
-20
14
-11
20
9
26
127
11
-4
9
21
-66
-127
-56
37
-24
-24
48
122
44
-63
-109
-59
-34
-25
-28
56
127
68
-10
-56
-12
-79
-127
-78
-6
-56
-21
-76
-127
-50
-36
53
53
-19
43
57
-1
10
-4
-21
127
-25
-1
19
-6
11
36
25
21
11
127
13
42
17
21
39
17
36
127
27
22
33
17
9
1
5
-1
127
-11
5
1
5
-22
37
53
-30
-76
127
-14
32
49
26
127
37
-22
-60
61
32
114
36
-58
-34
3
104
-64
52
97
127
7
-5
-3
-5
4
127
8
-5
-7
3
18
14
16
31
127
19
23
8
29
14
66
15
-30
-127
-22
9
67
8
-19
-34
38
-21
-126
127
-18
-24
32
19
51
8
29
127
5
10
56
9
-5
-9
0
19
-127
98
-3
-5
-1
5
17
8
27
127
19
2
12
14
-16
122
92
-122
-74
104
-39
-127
-12
-26
-85
-23
-34
-127
-37
-22
-79
-24
-1
21
-7
13
127
28
2
20
-3
-74
-127
-32
-12
43
47
27
89
36
46
82
45
118
127
-86
62
94
32
63
127
67
-43
-36
-39
-15
-71
-28
-64
88
-8
88
-127
11
16
-5
-4
-18
-8
12
-23
-77
127
-15
-8
16
-1
-97
-6
-76
-127
-69
3
-104
-14
3
22
11
47
127
23
5
27
7
21
23
28
127
68
101
28
29
20
-62
-127
-46
-112
-119
-107
-45
-123
-42
28
108
12
84
127
75
29
99
28
-9
45
63
58
127
99
-8
36
49
78
75
33
119
127
84
49
78
22
-42
-127
-24
-21
106
23
-1
40
20
25
19
-74
-12
127
-64
30
13
-73
-4
23
6
18
127
44
0
29
14
-13
2
-5
23
-70
26
93
127
70
-6
24
0
11
127
15
-4
15
-1
-37
-42
-17
-68
36
127
-34
-39
-1
-32
54
44
-127
45
68
-17
47
28
21
42
15
44
127
37
17
41
16
56
121
45
9
-83
59
38
127
19
30
31
-5
83
127
3
19
24
-1
8
23
11
23
127
12
10
25
11
-7
12
-5
14
127
8
-1
5
-4
25
41
8
31
127
21
13
35
18
-8
-16
48
-24
-127
85
-10
-17
45
10
113
-71
108
127
114
-46
99
-32
16
33
9
27
127
13
20
29
15
-47
-24
61
-48
-87
127
-46
-16
60
15
27
18
23
127
22
12
19
12
-3
-14
-12
-13
-127
-11
2
-13
-6
-1
13
-11
16
127
19
-6
9
-18
26
99
17
-35
-127
-29
-4
36
1
-47
11
-26
-127
-17
-41
-59
11
-23
2
-1
2
11
127
3
2
10
1
-113
-127
13
-84
95
87
13
88
35
-1
16
2
12
127
30
8
14
6
-2
17
-6
19
127
23
0
19
-6
1
42
6
48
127
35
2
38
8
-7
-7
3
-76
127
-80
5
-4
-5
23
-19
8
127
-17
-22
18
-19
9
33
127
30
-33
-81
21
-48
-96
-28
22
66
7
127
82
99
17
41
8
-26
-19
33
-103
-20
127
-28
-49
32
-21
-50
-23
-46
-127
-61
-17
-48
-28
13
37
-34
48
127
21
-5
34
-22
74
-38
-40
127
43
-40
46
-42
-37
-4
-15
28
82
72
127
6
-34
31
17
-42
-3
-19
-28
127
13
-42
-4
22
79
2
67
35
-55
6
-127
-35
35
64
24
61
127
57
36
60
36
-36
42
14
63
127
36
-36
50
22
32
-29
-7
125
-127
-39
42
-4
-15
-5
2
16
94
127
46
-8
2
3
16
-46
24
-40
127
-72
5
-10
2
-28
-62
-17
-122
-127
-99
-23
-68
-17
12
127
15
84
9
87
12
117
30
-38
-127
-39
-33
-7
15
32
115
52
23
16
12
-3
127
21
16
20
11
13
16
6
37
127
36
11
20
0
17
10
12
33
-127
43
19
0
18
-14
-9
25
-29
-127
112
-15
-4
20
-28
-12
23
-41
-31
127
-20
-13
21
-52
-16
53
-127
-77
123
-53
-24
48
-70
23
9
-73
127
-4
-75
23
9
6
103
13
49
127
64
4
112
7
-2
-3
3
11
127
14
-1
-3
-1
4
31
10
38
127
33
1
34
4
-9
4
-9
60
-127
66
-8
6
-10
-5
15
-8
16
127
3
3
10
3
-4
-8
13
-25
84
127
2
-3
11
-26
27
20
-96
127
22
-42
18
20
17
37
8
32
127
-24
9
31
-1
33
46
41
85
127
19
38
36
34
61
89
38
75
127
78
46
79
43
45
49
50
70
127
27
48
35
51
42
127
29
-23
23
-31
27
113
22
11
127
0
-22
-89
-7
-1
-36
2
-66
-62
-69
-91
-61
-127
-62
-73
-45
50
-22
-40
127
-9
-80
49
-9
-36
-43
-13
60
-25
60
127
-41
-9
57
-12
-23
-14
-14
-3
-33
26
127
35
15
27
-15
49
127
-25
16
22
-16
-16
-32
-19
35
-113
13
8
127
46
-28
-83
-26
59
127
68
-36
-84
-32
35
127
39
-31
-28
-6
-28
-98
-19
-6
-50
-4
-127
-111
-104
-15
-49
-13
94
127
110
20
-37
22
-3
-15
-10
21
52
14
-2
127
-13
13
51
11
-62
-115
-79
-127
-110
-119
-64
-98
-62
9
11
-3
-127
24
81
6
5
-2
-25
-50
-17
24
46
-27
127
86
-35
-55
30
41
-61
127
62
-37
18
42
-65
-26
45
-73
-95
127
-51
-14
45
107
127
93
45
-33
11
-47
-62
-36
42
101
35
22
13
0
-51
-127
-47
14
111
13
4
61
33
-48
-127
-54
7
31
11
20
127
31
6
35
14
7
97
10
-21
-127
-28
2
108
7
29
127
36
37
93
102
21
125
23
1
2
-2
4
127
3
-2
6
4
68
-62
-13
127
-111
-33
-118
120
37
-2
10
4
2
127
5
3
16
2
22
46
12
45
127
55
24
57
26
32
7
-61
77
74
-127
31
15
-60
7
38
-3
36
127
17
3
36
0
46
-37
-18
119
-127
-29
53
-15
-24
-49
-116
-42
50
127
44
-6
-25
1
61
116
65
6
99
-18
65
127
63
19
54
14
55
127
32
20
49
6
-4
19
2
5
127
3
-3
15
1
37
-44
-20
127
-127
-38
54
-14
-21
16
-23
5
127
-59
-43
4
-20
3
-23
-73
-22
-73
-127
-81
-21
-78
-19
-3
70
-19
-18
114
-21
14
-127
19
25
27
-31
-39
44
127
33
26
-19
92
127
4
45
-90
-120
-21
-100
-68
123
127
-4
-20
10
-43
-5
-83
28
75
101
22
81
112
127
44
106
33
43
116
36
-3
-1
8
-58
-127
-46
-18
-5
-10
-54
-127
-46
-20
-8
-23
14
41
2
39
127
42
10
42
-7
30
-21
-12
127
-114
-41
37
-6
-9
4
43
21
59
127
19
0
38
23
-16
-57
-48
20
-127
-35
60
-6
-8
-2
82
22
83
127
50
-18
95
29
32
57
25
69
127
37
39
45
32
9
33
11
30
-127
27
11
34
16
-20
-71
-8
-86
127
-22
-24
-37
-9
-17
127
-18
5
-1
-27
-23
-57
3
-45
-102
-18
-109
-127
-90
-44
-101
-25
12
8
9
37
127
31
-1
8
-1
-57
-36
83
-94
-73
127
-56
-21
79
-15
-54
-7
-43
-127
-46
-5
-52
-13
-2
-60
4
25
127
11
-6
-55
-6
-25
-42
-17
-47
-127
-47
-12
-37
-16
0
32
30
43
127
73
4
29
19
17
46
20
52
127
23
22
38
14
-9
38
4
16
7
-28
-25
-65
127
-41
-77
-33
-64
-127
-43
-33
-85
-25
3
3
-1
5
127
2
8
11
-4
5
7
-1
10
-127
-16
1
4
-2
-35
-42
7
-49
-16
127
-26
-36
4
32
27
42
41
127
38
28
51
24
30
62
20
-92
-127
-69
21
66
21
-44
-127
-16
-45
-87
47
26
117
53
-22
-40
-3
53
-10
37
127
0
127
-6
25
25
-6
73
-127
-8
27
17
-22
-127
-23
0
16
6
27
99
30
-15
-5
70
-53
58
127
-7
-4
63
14
20
25
30
127
29
21
21
14
16
41
16
54
127
39
15
48
8
-1
30
-5
43
-127
42
-1
30
-5
8
-99
-24
-17
34
16
-43
127
54
43
68
31
91
127
71
45
71
43
-15
-45
-20
-45
-34
-37
39
127
47
84
119
76
127
-16
86
73
103
86
35
127
55
37
-109
13
-5
-6
-10
-61
-117
-94
-127
-8
-119
-86
-127
-63
-14
33
1
-29
127
-28
-18
39
-3
12
61
24
46
127
54
17
66
31
8
5
-6
9
127
0
6
6
-9
-17
-59
-1
32
127
20
-18
-56
-2
-27
-127
-25
-2
72
-18
-2
54
0
44
-34
-26
127
-70
-56
48
-33
-26
8
-33
4
104
-127
110
10
-38
8
19
21
9
16
127
10
15
25
9
0
4
-7
2
127
20
-1
2
-6
37
70
33
59
127
42
37
78
32
-8
-1
14
-66
127
63
-10
12
15
-5
106
3
-29
-127
-33
9
109
8
14
103
17
21
59
79
13
127
13
-10
35
-8
44
127
41
-5
29
-11
45
-127
58
-16
57
-26
-28
61
-37
1
37
10
10
127
-12
3
35
6
1
5
7
13
127
16
6
-1
8
15
27
11
31
127
29
2
35
11
50
-28
-9
127
-90
-34
50
-27
3
-15
-8
-13
-5
127
-7
-22
-9
-14
22
2
-18
127
-21
-104
22
-5
-17
11
79
22
-100
127
72
-116
-87
24
-3
31
31
-33
-127
71
-4
30
25
3
-127
25
-98
68
34
17
40
9
-13
-2
28
-17
-54
127
-3
5
14
19
51
20
50
127
48
18
49
20
24
57
20
43
127
51
13
58
11
107
108
-23
78
-127
-102
-5
-103
-37
16
108
-33
73
127
1
31
88
-26
-33
-25
47
-92
-13
127
-37
-30
52
82
23
-22
127
-118
-89
37
-57
-34
-1
-13
3
-23
127
-24
-2
-4
4
-6
-11
-9
-8
127
-15
-10
-4
-4
5
17
-4
4
127
-5
3
23
-3
49
-68
-6
127
-96
-35
37
-57
0
88
49
-8
127
-85
-12
84
46
-8
10
24
19
44
127
28
11
17
10
-29
81
77
-127
-27
123
-72
-102
21
9
-78
1
10
-67
3
-17
127
9
-20
-127
-57
32
82
3
21
43
12
43
30
51
53
127
67
52
35
41
75
112
77
74
127
27
64
102
73
44
59
30
56
127
56
42
45
36
-84
-100
-61
-127
-88
-107
-80
-97
-60
9
67
13
-23
-127
-12
9
59
13
-111
-3
13
-30
127
39
19
53
47
10
16
7
20
127
26
11
15
7
17
-7
-30
15
127
-110
16
-14
-29
13
49
-2
23
127
-18
3
40
-5
25
5
-12
127
-36
-1
24
11
-7
46
127
43
-41
-88
-17
-43
-77
-32
-4
127
92
-108
-104
91
-50
-99
-13
11
32
1
29
127
-1
7
28
-11
25
59
18
-42
-127
-39
20
64
10
2
13
-2
18
127
7
2
17
3
-39
-122
-48
14
-43
9
-38
-127
-37
-73
-109
-89
-127
-74
-107
-74
-106
-98
4
17
0
-5
-53
-3
-9
127
-6
-4
-123
-10
61
127
76
-2
-117
-16
4
-3
21
3
127
25
6
-8
18
11
79
17
42
127
61
2
83
25
-3
8
0
19
127
11
1
9
2
-2
127
7
-4
-97
-4
1
-66
-7
4
45
5
47
127
39
2
48
6
4
-32
2
17
127
22
3
-30
4
-7
28
-3
57
127
38
-7
32
-3
-22
61
30
-4
117
127
-24
59
5
6
-12
0
-23
-127
-15
5
-9
6
11
36
17
-102
84
43
1
-127
-1
-8
-9
-6
-18
127
-14
-5
-11
-1
16
-38
17
79
-127
69
10
-25
10
1
4
2
53
127
51
-9
14
1
3
44
18
60
127
22
6
38
21
-20
-124
-9
-127
75
-121
-23
-119
-28
-9
9
9
-127
127
-3
-8
12
0
18
28
5
36
127
-28
18
35
3
8
7
7
80
127
50
9
13
10
-35
-127
-9
-1
44
27
22
72
7
-31
-1
39
-121
-44
127
-28
-7
38
-6
12
-5
13
127
10
-5
0
-7
-20
-92
-15
22
127
17
-5
-40
5
9
25
16
32
127
28
5
33
16
1
20
11
8
127
3
2
7
11
22
74
23
15
127
-7
23
48
15
-34
-56
-53
23
-15
-69
127
64
1
28
19
0
33
-127
-22
27
21
5
16
-8
-7
127
54
-40
30
-5
-3
-16
-30
-23
-12
-127
-17
-10
-24
-19
48
-31
-42
127
29
-38
31
-31
-28
13
48
11
50
127
44
14
47
6
84
18
102
46
83
52
94
13
127
6
-7
1
42
127
28
-4
19
-6
-5
-44
-22
-58
-43
-31
41
127
4
-92
127
-21
2
-5
10
88
-113
12
-5
38
1
-121
-73
-127
4
39
6
6
-10
-27
127
0
17
3
-11
-24
17
13
21
28
127
16
27
-2
20
26
48
18
67
127
26
31
47
17
-19
-69
65
-48
-41
127
-21
-61
67
-5
-67
-6
-20
-127
-17
2
-50
-6
-4
-8
26
-20
-20
127
-18
-10
24
-83
-114
-88
-112
-127
-119
-81
-115
-81
-18
68
65
-21
127
114
-21
54
53
-42
-127
-17
50
13
-48
41
55
-6
-25
-127
-1
7
-6
-4
18
115
-1
20
-25
-4
118
-127
-19
27
-18
-10
-127
-114
7
-99
89
102
1
93
52
-1
10
5
51
-127
62
10
-3
6
47
84
13
116
127
17
28
93
13
9
14
-1
8
63
-14
-44
-127
-31
-31
27
-13
-30
127
-87
-29
31
-15
91
117
81
81
127
97
-11
-76
9
36
-17
-17
80
-127
-17
20
-17
-26
4
29
10
25
83
13
-24
-127
-10
67
57
64
80
127
93
56
63
65
-32
-11
69
-24
-98
127
-35
8
68
48
-22
-27
119
-127
-53
59
-2
-32
99
105
-9
108
-25
-120
-7
-127
-85
6
56
0
-75
127
61
-114
-55
24
-55
-127
-56
41
112
35
15
20
19
-10
-1
-10
30
127
29
-15
-5
-10
38
84
17
93
98
127
29
89
8
-28
-127
-16
-96
-45
-91
-43
-121
-30
28
-83
14
-60
127
-22
12
-20
-6
16
39
22
37
127
21
16
31
14
-75
-113
-53
-93
-73
-97
-79
-127
-68
6
38
-41
18
103
-127
12
38
-39
-19
-41
-11
-9
-124
4
33
127
14
27
76
-24
65
127
-51
11
51
-22
42
-31
-24
127
-102
-45
47
-45
-19
22
127
29
-8
-48
2
-20
-102
-22
-36
-127
-23
-92
-46
-122
-25
-125
-17
-21
-24
-17
-32
-127
-16
-13
-13
-12
29
17
-8
73
-127
9
-19
-36
61
-27
52
26
56
127
40
-18
55
4
17
4
6
72
127
-25
9
4
-1
2
16
10
4
-86
127
-2
20
13
11
37
5
36
127
36
9
31
9
12
-1
20
9
-127
27
14
0
18
-4
21
0
13
127
8
-2
29
-3
-42
-21
20
-108
127
0
-44
-14
21
10
41
18
45
127
30
23
27
19
-9
127
31
-115
17
65
-33
-121
0
-8
7
-1
1
127
2
-3
4
4
71
107
47
93
68
115
53
127
55
27
113
25
-23
-127
-17
-2
-1
-6
-7
3
-1
-2
127
-12
-8
1
-2
29
-1
22
55
127
60
27
-9
23
10
21
5
19
127
14
12
15
4
15
14
17
23
127
21
10
20
29
9
-51
15
103
-127
85
11
-50
14
29
-1
-6
127
-32
-18
22
-3
-3
-38
-106
-29
-127
-97
-107
-47
-101
-22
32
127
42
-12
-62
-29
2
-27
4
38
3
-54
83
44
-127
38
11
-56
86
127
70
75
-19
82
-11
-49
6
2
22
-9
30
127
3
3
26
-12
-29
-79
-22
-50
-127
-35
-18
-78
-16
5
-127
-115
116
114
-119
39
93
-17
5
-121
-48
98
3
-119
37
127
2
23
27
-7
83
-127
-36
21
20
-7
2
10
6
7
127
18
3
8
10
4
39
5
37
127
-7
-4
39
7
2
22
-13
7
127
31
1
17
-12
-38
45
48
-17
127
73
-29
37
51
7
29
14
23
127
14
8
30
16
-99
-79
-99
-106
-7
-69
-117
-68
-127
-10
-14
33
-25
-74
127
-13
-6
22
29
75
17
90
127
73
27
83
17
1
0
1
2
-127
4
1
-3
-1
-18
49
-13
51
127
54
-14
51
-16
-10
-24
-13
-18
49
-38
36
127
4
-17
-8
-11
14
127
29
-19
2
-11
-12
-15
-1
-44
127
4
-14
-6
-4
-38
-113
-42
-28
-29
12
39
127
44
0
-4
-5
41
127
-18
-2
-12
-2
-20
-3
-10
15
127
6
-11
-4
-14
2
26
9
17
127
24
0
22
-5
-3
-51
12
123
-127
58
-3
-62
3
-52
-117
-83
-111
-100
-100
-70
-127
-73
-53
-67
70
-53
-94
127
-51
-51
57
46
126
34
7
27
8
-58
-127
-68
39
-44
-11
127
-82
72
39
-44
-13
15
22
7
35
127
26
16
21
1
-2
13
5
15
127
12
5
5
7
12
120
101
-98
83
127
27
117
100
-13
10
-15
3
127
-20
-8
9
-16
20
25
9
31
127
29
17
21
5
-26
28
16
-39
127
17
-20
31
15
15
0
2
74
-127
51
3
13
-8
33
-19
-7
95
-127
30
27
-25
0
-12
-21
-2
-35
-21
-2
-25
127
-40
58
13
-46
16
-127
12
-52
20
54
-46
-48
66
-68
-60
127
-38
-57
59
-4
21
-14
-46
-70
127
-2
23
-9
8
26
13
5
127
5
7
14
13
-81
-108
-62
-103
-77
-124
-95
-127
-66
-7
21
3
9
127
18
-16
19
7
3
54
0
-31
-103
127
2
49
2
5
12
3
-3
127
3
7
12
8
15
-6
11
55
127
17
7
-7
5
8
127
89
-119
-99
64
-86
-108
-9
39
25
-76
79
73
-127
46
24
-93
-22
-12
30
-80
-67
127
-13
-14
33
27
-36
2
52
127
47
34
-45
14
68
126
88
113
93
57
60
127
59
-43
82
27
51
127
125
-18
94
20
10
8
7
4
127
4
14
5
13
44
78
33
127
25
-30
52
77
32
-52
-127
-32
-111
-56
-67
-47
-93
-45
14
54
17
81
127
51
8
67
12
-83
-127
-75
2
9
-2
65
122
67
-2
31
-10
27
127
20
-6
35
-12
3
40
7
-18
127
-13
6
44
7
-12
17
25
14
-127
41
41
3
-19
-41
56
-10
72
127
59
-1
72
-28
-17
-19
62
-60
-127
121
-23
-22
70
15
-52
32
-23
127
-74
18
-55
19
-36
-91
-58
-12
-79
-49
72
127
46
35
96
33
9
19
6
-30
-127
-42
13
4
22
-6
-127
13
12
4
20
33
127
-6
-12
25
-15
1
-13
-9
15
94
4
-22
127
-51
11
70
5
13
32
15
26
127
28
11
26
14
44
77
19
110
127
61
27
67
17
