7
0
15
1
7
-19
-15
-17
-15
-5
20
-26
17
14
6
-48
-24
8
-13
33
-9
26
-6
-12
18
7
42
4
33
-74
-8
31
-26
-18
-23
20
10
28
-43
-4
-5
-17
-12
24
11
10
-5
23
32
14
0
3
-10
-9
-23
47
1
-27
-12
3
16
24
-29
4
-11
-8
10
12
1
5
-19
2
11
-20
16
-7
34
13
-26
11
4
62
0
1
4
-17
30
-34
11
-4
62
-9
-2
-4
51
-6
1
-32
-93
36
-80
-4
-59
-61
17
26
-64
32
12
56
14
0
99
-48
7
10
-6
114
-22
43
6
-17
-40
14
-66
-24
34
-74
-48
-17
15
-91
46
7
-4
47
3
-29
-18
70
-58
0
8
-8
5
110
6
-13
7
-1
18
-43
-118
-43
16
22
24
22
-87
4
-21
-36
29
88
60
-9
-33
-18
-65
-79
59
-12
-1
-58
-5
2
39
-5
2
21
25
18
37
66
-43
-30
42
38
-18
-99
-27
-24
-11
-26
39
28
42
-5
-35
9
5
27
23
26
10
37
-45
-17
-12
-26
18
22
4
-11
23
44
-48
14
-2
59
51
23
-12
29
-3
-12
16
23
20
2
0
27
-22
18
-57
33
-1
-9
-17
-14
23
18
-20
-13
14
42
-13
-4
-30
-1
-12
21
22
24
17
7
3
-42
25
-33
26
-3
14
-22
4
-48
-6
-21
-30
-9
24
15
-12
6
21
23
0
-26
3
15
-26
-53
5
-24
-3
-18
13
-8
66
15
51
2
-16
32
30
32
-17
65
-68
64
10
51
20
23
25
7
-2
64
26
36
0
-39
8
-29
-19
7
-24
-33
-13
-37
-13
-42
2
83
-82
63
5
-11
27
31
17
-52
-45
19
-9
25
24
42
24
-18
-35
-11
21
-6
-52
-10
-20
19
21
-14
59
5
-12
64
5
-32
18
-5
-31
1
8
10
-14
-5
45
-84
12
4
12
32
-3
-56
-31
4
-18
-1
9
7
-68
-20
-10
-55
-31
-64
-60
28
67
83
45
-32
-11
-127
37
-17
-64
2
-6
19
-7
-14
-66
87
-18
-69
-4
11
70
-6
34
-42
-27
-41
-46
-20
-12
-59
-45
15
35
-110
-3
-92
30
5
-71
34
-64
9
-4
26
25
-11
47
-84
24
-44
13
20
-41
19
96
10
4
-8
-50
24
52
5
22
-45
-23
9
-51
49
32
15
38
57
45
54
48
56
-80
-2
-18
25
-12
68
32
6
0
31
-47
20
-48
44
-48
124
-26
-26
33
6
-55
4
14
32
15
-31
-29
37
-38
11
-2
-38
-10
10
-34
-18
1
-25
91
67
25
40
-20
-61
8
17
-56
-23
-21
-38
-20
-95
-55
-60
1
10
17
26
10
-10
-17
14
-8
-9
-62
-21
-7
52
-38
26
-18
-18
51
83
55
15
36
-51
-37
-15
107
-4
48
21
-61
66
23
-3
47
-5
61
8
11
11
45
45
-54
4
56
-6
6
-14
-21
4
104
21
19
-6
-8
35
-13
1
-51
40
-19
10
51
14
28
4
-11
34
-64
16
21
17
-15
11
-20
-10
23
17
17
19
-22
22
-5
-8
11
6
0
-6
7
3
-10
2
-11
-21
-9
13
59
11
14
-5
20
31
-9
-21
18
-35
1
10
-54
23
34
44
-9
54
-10
2
2
6
26
-35
2
14
24
-4
1
-20
0
-43
7
13
59
-37
29
-33
-4
8
22
-39
-49
33
25
18
-9
21
-51
-9
3
36
-20
31
8
1
22
25
-28
3
-13
-33
7
-63
27
31
58
10
-75
20
-4
-29
-4
50
3
38
11
9
32
98
23
-81
-3
90
-12
18
7
-41
29
-39
-16
-5
58
-40
-28
-3
-37
-29
0
48
-52
62
30
8
8
38
9
-18
-23
0
-72
13
38
15
-125
9
-4
10
4
-52
21
-65
35
-3
5
73
-5
-87
6
10
-6
9
-2
47
19
-92
62
76
16
19
-6
22
-39
12
4
-18
-28
-73
-27
-33
7
17
23
-50
8
38
47
7
-10
38
24
24
-9
19
14
-10
20
0
3
59
-127
-58
18
17
29
21
20
30
-32
-14
0
-8
50
-57
-27
73
-38
26
-31
-26
-17
-74
-41
31
-29
13
-58
12
24
-11
-47
-18
16
8
50
-50
28
-2
-60
8
4
-6
-39
57
6
26
-49
-22
24
-88
-26
77
3
21
-9
80
48
102
-6
-77
-5
-55
-6
-2
-23
3
21
32
-64
14
6
46
-87
0
47
28
48
44
-30
-31
41
9
-37
41
51
24
0
-71
-123
-17
8
-27
17
-25
34
29
-37
-48
-38
-6
-21
36
-68
-3
-24
30
-10
80
21
-10
-54
-84
-32
13
33
-16
-18
68
-47
2
-37
-39
-74
16
-48
54
8
-27
-31
-31
-54
45
74
3
21
0
-57
20
-10
18
19
-6
-15
-9
-11
6
1
38
-2
10
-22
-16
-10
-35
-15
-7
-17
8
4
-3
77
-21
-102
8
-27
1
-32
-26
127
-18
60
-52
-37
18
-36
-74
-28
-33
-53
-1
-10
38
57
1
49
-32
22
73
8
39
9
-22
-43
21
19
43
27
-19
10
1
-73
8
27
15
-20
16
61
6
17
-2
0
-41
18
-35
-29
85
27
48
42
-19
36
-38
-14
-16
-9
-7
-40
-9
122
27
19
-9
-23
32
1
-3
44
-32
-6
10
23
-5
12
-10
-60
44
14
-15
27
-3
-64
15
-15
-37
1
31
-16
-26
4
40
30
-10
32
-6
6
-48
11
-26
20
56
11
13
14
-40
7
10
3
-13
25
28
-31
28
21
23
-15
-1
6
8
-9
35
9
-19
8
66
60
47
38
12
-116
-30
10
48
108
18
12
-32
21
26
-10
-8
-34
0
22
59
-16
47
24
41
-7
-30
-14
2
73
-57
-16
-24
10
-3
-11
21
-14
9
-33
-28
16
-13
2
-8
26
-17
26
47
33
-11
55
-21
-16
-10
-24
19
17
79
-33
-6
80
29
-30
-47
-31
0
-35
35
-14
-60
24
57
-2
-24
6
21
104
81
-22
-36
89
-45
-3
41
11
39
-19
-3
-41
15
-13
-10
-115
37
22
33
-4
8
72
29
-18
54
7
60
2
55
29
11
-4
-41
17
88
63
39
-19
-84
62
-3
1
9
-39
90
-29
29
-13
54
19
-68
-11
13
58
-11
76
-23
9
-8
-46
12
-17
-12
-7
80
-47
-38
35
-8
-26
33
-1
15
-127
-31
110
33
72
41
38
-3
-16
-42
38
7
-58
-21
-26
21
36
44
-3
42
59
-37
2
16
-23
-16
4
-27
-16
-12
22
-19
-10
12
27
15
17
14
-21
15
-9
-57
21
-14
19
27
-4
-36
88
-17
-13
13
-23
85
-8
35
-7
11
26
8
6
64
53
-7
-16
85
-8
13
-13
-17
-40
-2
-16
-20
7
-11
10
-7
-65
9
24
1
-18
-32
24
15
7
23
58
52
24
14
-51
10
33
-15
-1
-16
36
7
0
47
-19
9
17
-9
35
1
12
-48
13
-16
45
-18
-28
-3
-13
-53
11
77
-30
-1
-33
-6
-24
5
43
-13
-16
29
21
-50
-40
-1
-48
-30
127
32
-19
-63
-5
34
-2
47
-82
5
-16
65
2
33
-7
-3
-17
-5
65
12
23
31
11
24
17
-40
59
18
5
29
54
14
-1
70
-13
34
-68
-6
1
-22
0
26
27
-32
35
5
-7
13
39
3
11
3
-13
-17
-4
44
50
8
31
-16
6
-35
-6
19
6
6
47
6
-7
33
30
-46
26
1
-27
17
-13
-42
23
-14
-15
27
-19
-36
1
-7
-8
-22
45
-5
11
-1
38
33
-8
71
-21
26
38
-48
-8
47
-11
-28
15
39
-11
-9
-11
20
-18
72
1
16
38
18
-6
-24
-2
3
-10
45
3
-2
-26
-15
-5
-8
-24
-20
-17
0
5
-22
-40
21
24
-14
-47
21
-30
-1
-17
9
-31
8
27
20
-25
4
12
4
13
16
12
-5
-36
-15
-56
-20
14
-11
-25
-3
13
1
27
21
-31
-10
-10
9
4
-21
4
-40
1
2
-8
-6
30
24
-2
0
-39
-2
23
-67
1
88
34
30
3
48
-39
46
-64
-26
120
37
-28
-11
20
47
38
17
18
-43
-25
10
9
41
4
-19
-18
33
66
17
-23
61
-7
-34
5
-23
105
-7
1
5
-26
5
-56
21
54
0
-33
-4
36
16
20
-63
21
13
-9
18
-37
11
-86
32
3
23
-3
63
5
-12
-70
-63
-2
12
-23
5
17
-51
19
5
2
23
6
19
-37
-41
13
-7
-5
-21
12
21
-16
16
-15
63
-18
-79
-17
-35
66
5
11
1
-12
-111
82
8
-2
-43
-15
28
-5
30
51
-46
3
-6
-31
18
-1
-70
-12
-22
34
0
27
49
53
-30
10
-9
12
-18
59
0
-1
-5
41
17
-49
19
20
-51
35
57
-10
0
8
11
10
-17
-28
4
2
-6
-38
-85
22
-13
-17
-59
30
-23
31
-5
2
-8
37
-2
-55
-62
25
-37
28
-7
-80
-13
-19
41
-2
-35
27
65
61
-28
-25
-35
8
43
-32
41
9
51
42
78
39
-43
-27
18
14
3
-70
33
-45
9
-93
-7
28
-40
-37
-23
-1
-33
-19
-41
8
-15
-10
-49
55
-24
43
-27
5
-111
-12
31
45
-96
-58
-22
-18
31
17
-91
-33
-51
60
-34
42
56
19
9
-19
11
67
-16
-9
43
22
21
-14
43
89
-57
7
56
70
69
13
8
-9
-73
30
-10
35
40
-17
33
6
2
-53
-49
4
-24
104
72
-14
25
-6
-2
-1
-24
-16
8
8
27
-4
-9
-3
32
-42
-21
-2
-43
-44
27
-17
14
50
-2
32
-3
-3
33
-62
-29
26
18
-16
-26
16
35
-36
21
11
21
-52
14
-19
-13
6
-11
-39
-31
3
9
-6
-8
1
35
2
22
-19
12
-35
-45
1
10
39
11
5
-1
21
-2
-28
3
40
-33
19
15
-18
-26
-54
9
20
-9
35
-10
4
16
-30
-17
2
-12
-4
-51
38
21
1
-14
-30
21
19
-3
-37
-16
-30
17
-2
-21
-8
-17
-15
-17
27
0
-13
26
23
11
26
2
-3
-45
-14
-34
-10
20
-6
15
0
-49
13
-14
-49
43
34
-22
17
3
-14
17
-27
39
7
-30
42
40
15
6
-26
-31
19
19
28
-9
35
-18
-48
-5
-5
23
0
67
-4
-1
36
-7
6
-35
7
-38
12
-6
-12
-42
28
8
19
32
40
-7
-4
-3
9
-2
-30
52
28
23
-22
-30
28
-11
26
-46
-5
-3
-14
3
47
-3
-11
31
39
-4
8
-38
-16
-2
21
28
-10
-3
-23
22
-12
33
59
-85
-38
-49
-32
70
-25
-5
-27
31
4
30
-5
-18
25
-25
2
-32
-17
16
35
-8
88
-51
-8
5
-38
21
15
30
15
-39
7
-16
53
-4
-69
24
27
-7
-23
33
-30
1
43
7
71
-23
-11
9
-34
4
-3
-18
48
4
-12
17
-6
-20
76
2
1
45
-19
-5
-31
41
-8
33
-3
19
-13
-91
47
-17
-39
37
-22
-65
-14
18
-69
44
-1
-15
51
-22
10
0
-30
-68
14
21
1
94
-10
-44
8
-29
3
-15
6
-19
-79
58
4
-98
8
67
11
19
-35
-17
-24
38
0
-15
-64
61
-8
41
41
-61
-57
6
-33
-76
12
-12
-48
27
32
-1
4
114
25
64
15
-26
-26
-36
2
-5
-61
9
23
11
35
-52
-7
13
72
-37
6
-14
-4
57
26
-19
-43
-29
58
-13
43
-17
43
-17
-11
-45
53
-20
7
-34
10
-5
-15
-2
22
27
-47
15
29
-32
10
23
6
-27
-46
9
-23
55
-33
56
26
7
21
26
42
13
35
-71
70
-13
-63
97
-7
-38
-54
-4
-54
32
23
-3
4
2
-24
38
-31
-49
-19
2
48
37
-14
-45
-68
56
70
-25
23
75
30
77
-15
-22
-31
-49
-34
21
2
31
-7
-23
1
12
11
23
-27
35
-10
-46
-13
67
34
-12
43
30
7
59
7
43
3
-17
-6
-40
17
-14
8
41
64
9
92
11
2
9
14
-3
9
26
21
-4
19
43
-44
-10
-21
40
-13
-54
-25
-41
-47
-34
-7
-30
-11
15
-52
0
1
53
8
79
32
16
8
-24
9
-37
35
61
-20
64
45
11
-30
-11
38
-11
0
21
36
-4
50
-23
19
15
-29
51
8
23
20
41
-68
2
-30
-12
10
-20
40
44
-10
-21
-2
-39
41
4
17
24
-24
-1
15
-20
-10
-21
-28
23
51
-6
-7
-4
-36
52
42
-17
11
20
10
-18
-21
-18
-19
-39
-1
-56
-51
75
-17
-96
-19
14
16
-12
-23
-30
21
11
-44
-39
-3
-22
12
-29
-59
45
38
28
-32
-19
-16
17
-47
-10
-13
-20
-45
-49
2
-38
16
86
-12
63
-69
75
22
-31
13
-31
30
-51
-16
-1
-31
60
-60
8
30
31
9
21
-60
10
26
24
25
30
11
20
27
-60
99
31
-8
60
26
15
1
-24
24
75
19
-19
-92
-44
4
21
-41
-8
7
-49
2
18
-67
-19
20
-50
-41
15
-13
42
13
33
-16
18
38
-29
6
77
28
-29
-3
20
17
5
-21
-17
-7
-34
-51
-20
-21
-24
15
-36
8
-3
1
20
20
-37
20
23
-76
-30
-37
-25
44
-1
-3
21
-7
6
10
-10
-85
2
32
5
69
58
-18
-3
-25
5
62
23
-29
7
-47
-3
-31
-18
-59
16
-22
-58
-10
15
24
0
-29
43
-4
52
-25
21
-12
34
19
41
1
-58
39
-3
-18
-47
-64
3
-25
-41
-59
24
37
-42
43
-92
10
14
21
17
-11
2
-1
-11
-22
48
12
41
-25
29
29
29
5
40
31
112
-90
5
-6
-74
-39
31
22
-31
-38
-5
-22
-69
-25
20
-9
-13
12
36
21
-11
7
-19
-39
-7
14
20
-3
-20
-5
23
-6
-16
5
4
-3
-36
1
31
6
-8
-36
27
25
10
44
-8
-77
8
17
12
7
2
24
8
42
31
-56
-30
19
-15
-8
-26
-12
-7
48
-5
-30
6
0
-53
30
-25
38
-26
-13
21
38
16
-1
16
-11
-39
14
-22
-31
-36
18
8
-11
29
24
1
-93
8
14
-10
38
49
-52
7
-53
0
40
12
-29
-35
-21
50
-13
39
-36
-73
46
-23
-72
-82
55
14
30
36
-8
0
-19
64
-12
11
-15
6
4
3
-55
9
-48
-4
-60
53
-6
-22
26
23
-50
-15
-42
31
-10
-46
-2
-49
-11
-25
68
-34
9
-67
57
-29
-3
-28
92
28
-55
-78
-36
51
-49
-16
-16
-5
24
-60
85
-38
-10
21
22
-13
18
-18
9
65
-2
-9
-23
25
-21
-40
-20
-13
-2
29
15
3
48
18
54
-82
79
-1
9
37
13
-87
-95
23
37
-55
-5
23
-68
-21
-30
24
18
-18
-1
6
9
49
9
-36
-27
0
-38
-3
17
-94
80
42
7
-8
-9
4
10
0
46
14
-31
16
24
9
-21
-42
42
31
46
28
27
3
-27
-19
126
28
-14
-91
-24
92
22
3
47
23
-7
-18
11
-18
91
-73
12
-23
-36
-1
-14
-35
4
9
-33
-16
-45
-28
12
0
70
-9
46
37
-11
42
-24
-55
2
-18
29
62
16
49
26
33
-20
-39
39
15
-33
5
-100
-67
-74
26
7
3
-7
2
-46
0
2
40
14
11
27
-27
38
18
22
30
-26
27
7
-15
-45
11
38
-6
25
-4
-31
23
-20
21
10
-41
15
47
-34
30
8
72
40
7
98
0
43
59
-103
-9
-40
-22
8
-59
31
47
-3
-38
19
-37
8
-52
-27
-73
-7
-33
5
6
-4
-42
-20
21
26
-19
-51
-24
-65
21
-36
23
32
22
10
-2
-13
65
-33
9
6
-62
4
7
10
-68
2
2
1
-20
2
31
-22
27
-3
-3
-3
-2
-65
38
-13
-1
-34
12
63
9
-5
23
-48
5
22
-16
17
17
-32
-33
35
-7
25
71
4
5
11
-5
7
-40
-33
5
-11
12
9
4
62
30
-30
11
-50
-24
43
-108
-46
-4
7
26
-44
6
-10
45
-46
14
-4
26
32
-53
-12
3
-12
-1
84
-39
21
76
-103
2
0
16
-5
-79
31
15
-12
-103
-30
3
8
22
14
-23
47
36
-2
-3
26
-2
29
21
41
-62
24
19
1
56
46
20
-61
-52
65
-21
-100
-14
-17
-19
-62
-26
-25
-11
45
-15
12
-15
-2
15
-2
-23
-66
-34
-4
-1
12
91
-13
-25
14
41
62
25
-28
21
-29
-55
12
39
6
-74
0
-22
-64
-2
24
32
33
16
-6
-62
23
13
-36
44
-22
43
-23
47
29
-5
31
8
19
-35
-88
-11
32
0
67
-3
-24
36
-10
-15
-1
-58
-23
-88
-127
-30
-7
-33
8
1
5
-15
15
6
44
27
-89
56
3
-27
38
-28
-17
4
2
9
-60
42
18
-14
-52
-3
-64
-5
31
-28
-17
9
-4
52
18
32
-7
-97
-6
38
-19
20
4
30
7
-24
48
-20
-19
-12
-1
-43
-21
40
7
-38
-62
24
-56
-57
-37
6
-48
43
44
-9
-49
-12
-17
38
-19
28
-26
-18
-67
5
56
-2
-17
57
-3
26
27
-83
-1
-53
1
-36
-44
22
28
56
12
32
60
-16
-61
-7
82
-32
5
-8
21
58
-26
-2
-43
5
-17
-8
-1
-25
-32
-44
-30
-36
-32
15
4
-4
10
64
46
33
-52
-21
-7
10
-33
19
-2
7
-17
-2
-29
-21
-68
-1
2
20
-33
-14
-9
13
-45
27
-65
48
-6
27
31
12
-15
24
-66
-35
-26
-13
-59
40
4
-31
-73
9
-95
47
39
88
-15
-34
4
7
42
32
13
93
-33
24
13
-88
-69
-27
46
-52
-16
38
-11
16
25
17
43
9
-32
18
124
-17
-38
32
52
77
50
-40
-29
24
-13
-67
5
26
-46
-44
0
-17
-11
11
2
-12
56
43
-1
77
-35
-26
32
47
-9
-44
20
55
-4
29
-16
5
-51
-38
17
-34
-24
15
29
47
-16
122
-81
46
-1
15
18
24
-115
-83
-10
-38
-53
29
27
65
4
15
55
-22
36
-20
45
21
41
-49
-1
-34
80
55
35
-13
30
-48
-5
33
71
-34
-116
-58
26
-50
16
-36
-57
96
-26
67
3
-10
31
-51
25
-49
4
-19
-70
-62
-58
81
-22
15
48
-4
33
75
18
35
-22
-4
7
43
-13
-17
-8
26
-35
-23
0
-17
47
-14
53
13
-23
-35
57
-19
-14
-25
42
-85
21
-33
46
33
33
34
121
-68
-16
-120
-7
22
-4
-3
-39
-101
4
59
3
-28
1
27
-2
22
21
11
-12
10
32
-10
11
-3
-5
-8
-28
49
9
14
-26
40
-3
13
-18
86
-10
-11
-60
77
46
-1
-4
18
-39
5
66
-50
-11
16
-30
-36
16
12
30
15
-25
13
29
-23
3
-38
-19
3
30
-47
-30
8
-12
37
-37
2
-12
-13
10
-2
26
-38
-22
17
-2
-28
11
2
4
-3
-9
-19
-47
-21
-29
0
22
-5
-27
-18
-5
45
16
10
0
62
4
-11
23
77
48
-66
-4
-16
52
-34
42
10
-1
-24
-3
1
48
-30
8
36
-12
25
29
-54
-11
14
-23
-18
-50
-106
-34
-12
35
32
28
24
-10
24
-51
-3
23
25
-31
17
13
35
-2
37
-51
19
-9
-31
-26
9
73
78
-31
45
-19
-14
48
-64
15
49
39
83
27
31
-3
-25
-14
39
-12
6
53
-17
12
7
1
-19
68
-4
40
-36
24
-38
39
40
72
46
-5
13
-35
-35
38
37
-19
8
-23
-49
32
-27
-8
25
-23
-14
20
11
10
10
-4
-35
23
19
88
32
9
71
-7
3
-33
3
28
-45
-17
3
41
-31
-10
-29
-37
52
-23
14
-36
10
-10
-21
-1
22
-2
-24
26
5
10
-33
11
-13
15
37
-47
-35
-16
21
-83
86
13
11
53
9
-47
48
0
18
-13
15
-20
13
-20
-24
-30
55
-45
7
12
7
23
-4
-17
11
27
-9
22
-51
59
11
4
7
-30
-17
-7
-20
10
9
-39
61
-36
7
-51
28
30
-101
-14
29
-23
-36
18
16
-75
4
-5
-32
38
-47
102
-86
-55
110
-84
9
-5
50
-26
-24
32
-69
0
44
-12
6
42
45
14
-6
2
26
83
38
-97
9
31
13
-25
-46
-53
7
-22
-7
-30
13
-8
-64
-10
29
14
27
5
-11
-27
5
-17
16
-7
9
-2
-69
-72
31
23
0
4
-22
-21
35
-6
4
-40
21
-6
-30
-18
19
-51
44
-36
-20
17
-17
-19
-98
10
88
53
30
-25
14
88
-62
-16
11
-57
-3
20
-70
-24
63
27
4
-36
47
-35
71
2
106
20
51
38
76
20
-9
-98
90
-20
47
-30
-32
16
-12
38
-16
-53
-4
-57
-72
-7
76
15
51
-76
-13
67
-27
-32
-9
10
-32
52
-63
-5
-18
-17
53
-36
7
11
31
-34
109
-3
14
-68
6
13
-45
14
-19
15
-18
1
-92
-16
-44
-52
11
42
24
89
20
27
-4
-10
76
-85
-34
-17
-40
-7
14
17
35
-35
13
1
-2
-16
-23
104
27
-13
-39
-16
-50
-24
-34
34
1
41
21
10
28
48
-16
12
18
17
-13
38
42
-24
-19
3
-18
96
-60
39
10
72
-29
3
17
-41
-14
0
-47
45
-7
-11
0
127
-46
12
29
12
-51
-11
44
22
-42
-4
-7
13
-56
-24
-25
36
38
5
48
-11
15
51
-66
-60
100
99
-42
48
-96
47
25
-26
-22
-3
-77
58
3
-42
-30
2
56
31
-5
-9
-30
-13
-1
-5
-11
-10
-18
-30
-8
10
5
18
-42
-50
-13
-39
43
3
-6
-21
33
-2
5
56
-27
-27
7
-2
-7
-25
57
12
2
66
11
52
-10
6
-5
-7
-7
-17
3
21
7
-27
-6
-9
65
26
-38
2
12
18
-1
-75
-23
-52
4
22
-3
-23
4
-24
-8
-44
13
-27
32
27
10
32
39
7
32
29
-50
-16
1
46
26
-40
-72
12
-26
-41
-40
37
8
-2
-42
16
-4
-32
-72
49
78
22
-60
-20
31
-47
-13
8
3
-11
0
33
11
21
10
32
56
49
72
-18
23
-127
48
33
-46
-40
-10
-67
-19
-9
45
-85
-14
-9
38
-32
78
37
-76
-63
24
-12
-50
35
3
35
17
-59
-1
24
-13
-39
-13
35
11
23
9
-29
-12
-48
48
-51
-11
-22
23
-5
34
30
-71
28
12
45
-24
27
31
17
-20
-54
-14
-43
33
26
37
13
-22
23
34
2
18
76
14
105
10
-31
-58
34
-62
-100
-1
46
21
64
-26
-4
109
-6
-5
15
-50
27
-19
-3
24
34
37
29
29
72
14
-35
-37
-46
-42
69
-36
3
-64
-14
46
-16
7
67
-19
-36
-2
71
24
-20
-23
15
-72
-55
-22
-4
4
73
-13
73
-26
25
-18
70
-1
56
-5
-15
-11
-71
12
5
-6
-25
-23
-62
20
-2
2
54
6
32
-11
-29
-1
-12
27
-16
29
-61
25
-45
3
-6
41
-3
30
-82
2
26
-10
29
-13
21
-7
39
-5
-4
-38
-49
4
14
-49
-22
10
-57
-46
-16
-34
73
108
-74
-34
25
-28
-28
8
-103
-16
-41
8
14
3
-45
-93
-41
-77
-32
35
76
3
-21
-30
23
5
-20
56
13
25
40
1
-3
-43
-24
-6
101
1
-18
-7
-5
-1
76
-10
-41
61
-43
62
-12
-6
10
-21
69
-5
0
36
33
-1
-34
28
60
19
8
-2
-18
-14
13
-55
22
8
78
14
0
-52
0
54
2
10
27
35
-14
-43
-34
41
-62
4
-36
37
-1
-36
64
-13
-23
-9
-59
80
-28
17
2
15
-28
-28
-7
18
-52
23
18
-36
-40
9
20
3
-84
41
-13
-38
39
-10
38
17
-70
7
2
-46
-4
13
-2
11
-25
4
26
2
-27
-17
21
0
27
14
32
1
-5
-34
-11
-12
24
6
-36
1
-34
54
-41
-18
48
-26
-2
28
17
20
-10
-15
34
20
14
17
-5
2
29
-2
-10
-6
-14
-57
-8
35
45
-12
-12
-31
-20
-2
-25
0
52
19
14
4
-2
49
26
-8
28
-12
1
-66
52
-1
13
-22
-18
-2
46
29
16
-1
-13
10
12
-23
-15
19
-33
-41
-45
-1
-7
6
-4
31
-2
27
-18
16
28
18
19
-37
-4
-11
-8
-9
-20
-8
-10
2
-7
7
3
12
25
-7
-30
4
2
10
-38
-7
2
-84
-10
-24
23
4
-39
-14
7
15
-2
24
32
30
-7
-6
-40
-40
4
5
4
42
64
6
51
-34
-5
16
0
-26
2
-24
36
-80
-17
-12
84
87
-15
49
41
-40
-45
2
24
-1
9
50
55
-33
-45
10
1
5
-17
-15
-20
-32
41
-20
-61
30
37
22
11
-17
-75
-13
39
-25
-95
-26
-7
40
2
-35
53
63
-58
-10
65
-34
-12
-98
-3
11
-15
35
-23
84
-4
0
40
30
9
112
4
-11
-71
12
8
-11
9
21
-49
-33
-4
38
34
12
17
22
-14
-7
11
-41
-12
23
-13
82
-3
19
-26
-46
7
-21
-21
26
6
-26
-3
5
-22
-6
16
-45
-14
-10
-45
57
53
-38
13
-28
37
29
-84
-19
11
-28
31
10
21
-24
12
7
14
-6
21
37
-5
24
5
-23
-21
9
-38
45
-31
-31
-11
-3
13
45
-35
23
8
-20
-4
2
-1
4
-24
-29
49
15
-5
-10
4
5
13
22
10
-64
26
19
18
-18
21
17
15
-15
3
13
-43
-34
10
5
-8
-34
-10
7
-38
-2
8
24
-6
-36
6
-11
4
-9
-3
-25
42
8
-11
17
-12
-28
-22
-3
-31
13
-17
-3
35
-17
-1
40
50
2
-83
-9
-35
-5
-45
36
15
10
31
-11
-12
13
-39
17
12
-70
-11
27
-10
27
1
0
22
6
-11
12
16
19
-53
-5
32
-2
8
-11
42
2
7
26
-7
66
12
-1
-4
-8
60
35
-3
-26
-31
-8
16
0
-54
23
15
-1
-5
17
15
-68
-26
-7
-19
-7
-7
-51
9
30
42
-18
6
3
7
27
22
53
-21
8
22
2
12
-12
-12
5
4
10
36
24
-10
-49
-1
-24
-34
42
39
3
30
-31
-24
-49
5
1
53
84
-30
7
-18
7
-8
0
2
26
-24
14
12
69
54
-11
36
6
13
14
-75
13
6
-64
-38
28
1
46
-35
16
-41
-23
22
5
25
9
8
-18
-4
13
-10
-14
-15
24
-33
-8
8
27
8
3
-1
59
59
18
15
14
-64
-74
8
-23
59
48
20
7
-57
19
-38
-80
-59
-8
3
-38
3
6
12
-23
-14
-30
14
20
18
-75
-17
-16
28
11
25
-16
-11
-16
18
29
-4
-12
-20
13
-1
-36
48
-25
-7
12
-62
-29
-18
23
38
-10
22
-15
-8
-9
-4
54
42
33
-56
6
44
4
5
-14
-15
11
16
8
-12
-38
-28
42
-23
-17
42
16
0
-22
45
-3
-6
64
-6
-26
15
2
57
10
18
-24
13
-18
-33
-5
-7
21
7
14
9
-13
-3
88
-80
-22
-1
-28
28
2
13
-43
-33
44
-10
-22
35
100
-12
-44
0
-41
79
38
57
-1
-1
34
-18
-23
67
0
30
-1
31
63
-10
-42
31
2
-53
2
-14
36
-27
31
-11
-8
-43
-9
39
6
-24
-40
-21
-34
33
66
-27
32
5
-25
-41
8
34
-23
-58
46
-18
20
-18
-13
15
-10
-23
23
4
43
-31
-66
-23
-1
10
62
5
-13
29
-14
-67
-33
-2
-5
-27
-19
-22
-24
-19
-12
34
-10
7
-1
-35
-27
66
-32
93
63
25
-52
-38
-2
-3
12
10
-34
62
-100
-38
-11
-6
-3
28
-73
35
-12
35
20
-36
-82
-52
8
7
-16
33
20
26
39
19
13
0
-6
-46
40
24
25
60
39
12
-30
-12
-5
-96
14
-50
6
-3
62
3
34
7
32
-11
7
44
-29
23
56
-58
35
-14
-29
-40
15
21
-22
-11
-127
2
-3
-27
29
-48
-123
77
-76
31
22
27
-9
-6
14
-25
-49
31
43
-59
-21
-31
61
-52
-7
-33
-42
4
-22
60
34
15
-90
35
-14
7
44
2
-127
2
-40
9
-14
-5
29
-33
78
123
-42
-13
-66
0
-41
-14
44
-33
-27
-77
27
92
27
19
49
-12
-45
-33
-79
10
-29
-3
14
5
5
-41
54
-61
-2
15
48
-2
-39
14
-19
-20
41
-19
5
33
-61
51
17
-1
-9
-78
0
-8
52
9
55
58
-9
13
37
-7
24
50
22
45
49
-2
23
-52
-16
-62
56
17
35
-17
-41
36
-63
-2
10
51
-1
-33
-3
6
22
-8
18
81
-6
-20
89
19
-33
45
18
44
19
-6
-31
-36
-25
-20
-54
44
72
42
13
-37
58
-22
-31
-8
-46
-8
20
-3
17
-47
43
1
-23
-3
-92
-45
21
23
13
18
-51
-1
-4
28
-1
-17
2
26
41
12
19
-23
12
30
-30
3
66
88
-34
12
15
31
2
-5
2
42
-77
-60
-65
23
-8
21
27
-20
60
16
31
15
-14
-14
-11
-21
-19
6
35
33
-21
47
-49
22
8
5
23
11
39
47
-51
17
59
-9
18
-15
-51
50
19
21
-118
22
-3
-29
62
-23
-22
1
-8
-38
15
-15
34
-22
-29
-21
2
-2
4
-18
-30
60
-37
-8
41
8
13
8
-19
13
6
-23
12
-8
21
12
-11
-17
-31
-11
33
-2
2
-14
-45
-9
23
9
8
7
-1
44
12
25
-32
-7
-12
31
52
-23
42
18
-10
6
-45
-18
59
99
6
-45
-13
-1
-81
-27
24
-5
12
62
39
-15
29
-12
-8
-28
20
-8
-33
6
6
-7
19
-3
-19
50
-5
52
-46
35
-34
19
-17
-27
-76
39
-4
-12
28
-22
-32
-68
18
-35
-15
-7
1
-14
-24
0
-6
-12
37
-17
-7
-19
-14
-22
-7
83
-11
2
-25
-31
-29
-73
45
-29
-8
2
-2
3
28
-3
-23
64
15
-19
11
-47
-23
10
-19
23
-3
-44
50
-6
-19
27
24
-8
106
-58
-35
9
4
-36
-4
59
66
73
16
-38
-27
5
3
55
-19
-101
33
15
-25
27
-19
-13
-4
42
-21
14
20
9
23
79
11
-44
-59
44
-6
21
10
45
-58
-7
34
68
-31
-86
65
-104
-25
80
21
25
2
-23
14
-20
-28
-37
18
-43
3
22
-23
2
59
-63
23
45
-48
-55
18
-8
127
-22
6
-17
15
24
20
37
-16
69
-94
-5
0
41
29
27
-69
-13
-52
31
51
56
26
-18
20
59
71
-33
24
0
-25
13
-53
30
-6
0
21
-26
-65
1
28
3
-41
-18
-26
13
37
-33
62
-46
0
84
-69
34
-24
-19
20
0
-59
80
16
7
-61
17
15
-5
16
-39
-27
25
90
-7
-34
57
19
19
-3
-9
-25
-12
-31
-43
3
-10
1
3
3
-7
-46
-71
27
4
-20
33
34
26
6
-1
-3
-6
-16
-8
-64
-55
-42
-46
15
-20
5
35
-39
-48
19
49
-72
-44
-38
-24
-26
5
-16
122
-87
-25
29
-42
5
6
16
11
-40
-67
2
46
-19
17
3
-26
20
-16
18
-51
-24
-41
-55
-1
-3
-1
-7
23
1
31
25
-7
-87
24
-11
-6
4
16
11
6
-15
18
-27
-74
36
9
19
23
-10
0
33
-29
17
-28
-16
16
-10
14
34
17
42
-5
51
-11
-38
24
36
-12
1
-26
-8
28
-27
-12
4
-19
33
13
-27
3
-26
-21
-55
10
28
89
-29
1
-25
63
9
-15
-22
-8
4
70
-21
-38
13
-10
1
-4
23
32
-13
-16
-3
-5
11
-18
17
3
30
-16
-37
0
11
-46
-4
-21
33
-22
0
-43
-34
-2
18
-37
-44
-41
-43
8
12
24
5
-33
-9
28
7
-27
-24
-6
-18
27
32
12
28
-20
2
11
-10
15
-24
36
36
-6
-10
-12
14
-22
6
-27
39
16
-16
1
-4
2
23
29
-3
-5
32
-25
-30
26
-9
45
-55
12
0
21
-2
-11
-37
-18
-5
3
34
-31
-31
29
7
-12
2
-6
-12
23
-47
4
20
15
29
-4
-49
-45
-29
83
14
7
51
-48
-114
-2
12
25
-20
-54
15
22
3
19
-26
-21
-61
-43
16
-20
-114
81
34
21
-20
-19
12
-12
-16
-11
-49
-33
-24
-4
28
1
23
71
-2
-27
-14
-55
21
20
24
32
110
17
10
-19
72
45
-36
-6
-22
-37
-59
17
-44
-17
28
-40
8
-26
-4
-10
-40
-65
13
-17
67
-36
13
97
-15
-14
23
-33
10
52
-16
6
21
23
11
-21
71
63
-26
33
-8
14
64
-23
-55
10
2
-9
-26
-18
-9
47
27
-28
-25
-47
35
20
7
16
27
3
-37
9
25
6
17
33
-10
26
-20
-35
34
-24
-41
22
12
-8
-41
-36
-10
-31
116
-6
-16
15
-4
-70
43
21
43
-45
-16
49
15
18
32
86
-33
-26
-23
-14
7
-20
4
18
-48
-48
-19
0
-4
39
-50
51
-29
-18
-7
47
35
23
-53
-13
13
28
46
22
-57
-35
20
-22
8
22
-3
8
5
7
14
-27
-21
23
14
3
-14
-19
13
-9
56
13
27
32
0
52
29
10
-20
26
-22
-11
-46
-50
-30
-14
-24
-61
-2
5
-25
-18
40
3
9
7
-3
-21
1
-14
3
4
-17
-27
10
-5
6
37
-18
-27
-14
31
66
-5
2
2
-27
-13
5
28
-27
14
38
14
-25
8
-36
-43
-9
-5
-1
-21
40
-13
-22
-35
30
-43
62
43
12
67
-2
43
-11
-3
-5
22
-5
48
13
0
14
93
10
23
-34
-41
26
-4
-27
20
-12
-6
-50
8
-14
81
59
-68
23
-12
-23
-59
-13
-33
-11
14
-6
11
-11
-24
-70
-31
-22
24
31
127
37
15
-6
5
13
-30
7
21
-21
18
4
-19
-3
-47
6
97
-13
-44
-16
23
5
25
-21
4
14
-44
-3
28
-13
22
-27
-8
-58
-25
-8
-3
35
-67
5
-3
-13
10
-1
17
3
-23
-15
22
16
50
-5
14
-33
30
41
-30
82
77
58
72
-6
-28
-21
35
55
31
-5
92
-88
-78
3
12
-73
-63
41
-44
32
-58
-72
-29
-18
22
102
114
-24
-13
46
66
-62
-24
55
-70
-81
-75
37
-40
-17
-12
30
-7
-41
-71
-28
33
-17
52
-50
63
83
-1
-15
63
77
-12
-5
-47
-19
-31
-7
-75
-33
2
-55
59
-41
-16
-50
-83
24
-18
27
-3
9
-21
-32
40
9
-15
0
28
6
36
-79
28
-86
102
-10
-17
-27
-3
-84
6
12
-22
-25
30
-34
10
3
23
-39
33
-1
13
34
38
-5
-12
-37
-20
2
28
-12
30
-44
-16
-25
10
-7
-14
-33
37
5
44
2
-54
-38
-26
14
32
-17
-3
13
-67
-7
-9
5
29
7
-10
4
-34
-2
8
64
-6
6
13
15
23
-20
-21
-25
10
-24
4
12
3
26
7
-31
2
-26
22
-34
-3
49
-29
-1
35
-4
47
-12
-50
0
26
0
58
-2
-35
2
48
-12
-8
40
-5
-6
18
-21
14
4
-7
-22
-8
-18
-42
-49
41
-71
-23
86
49
19
-7
-28
-13
0
-6
-107
-10
-53
20
-36
10
33
12
60
-28
-23
17
-18
27
35
12
57
18
55
-57
8
15
51
-31
6
-11
-2
40
0
32
31
-11
8
-7
-51
-12
45
-12
23
-12
88
13
4
35
-23
56
-5
16
-16
-20
36
11
-10
30
39
-45
-15
-13
-9
-10
-51
-36
29
-45
12
58
16
14
-31
30
81
8
53
25
30
25
-46
-4
-11
43
-19
-24
49
-30
1
89
108
-15
2
8
12
-4
-50
-57
-29
-25
-55
-82
24
6
69
106
6
-34
48
37
45
30
13
-66
20
90
31
-26
-27
60
-37
-4
66
-34
23
-32
39
-77
5
-28
9
69
-1
67
25
16
35
-26
25
-33
-21
-9
12
51
-40
85
10
5
7
-23
-11
24
-31
-42
4
-38
-2
-31
-17
30
-12
41
44
-12
-25
-5
74
-37
40
49
-26
-34
-13
-16
-40
5
-14
17
-18
-9
-35
18
3
15
-11
11
-46
-3
99
-12
2
29
27
27
10
-9
-44
6
-46
6
-62
-50
-15
-12
-21
-10
-29
23
-24
-17
39
-23
19
15
12
-48
-10
-18
-1
-52
-2
0
10
25
12
14
-49
12
2
-97
6
13
15
-8
28
-6
65
-31
-8
-17
-13
-42
13
6
10
10
-15
-17
5
-17
-4
2
-18
-43
9
12
-7
-41
21
13
110
65
-39
-52
40
-105
12
-13
-36
-46
52
-5
19
0
-40
50
13
15
-14
25
13
-13
27
-1
16
-22
-11
0
-29
16
9
-7
-13
-4
-9
-1
22
-50
12
-31
10
-9
89
30
-9
-51
89
6
-15
21
15
-7
10
7
-41
-9
20
-19
-25
3
-32
5
32
13
28
-10
22
5
11
53
-5
35
-24
36
-2
4
34
-7
-29
-1
2
9
2
38
-1
26
-25
63
12
21
-10
-51
6
8
-5
-16
-17
-11
-32
14
8
12
-15
-3
-11
50
25
-7
-53
29
17
9
58
-50
22
-19
36
0
-22
29
-43
11
21
2
-42
12
-36
40
54
46
-34
51
-51
-44
46
-91
15
-15
-13
-77
12
-27
-30
-56
-43
-53
-5
-13
-20
-27
-34
-35
6
-12
41
-31
23
-15
14
19
21
-8
0
48
-18
2
50
-27
-81
-25
23
-2
57
51
-6
-59
4
-7
40
-11
-13
7
-80
-3
32
79
-2
7
5
-15
15
96
5
-12
-34
-3
-24
-38
47
-50
30
-104
71
21
-53
18
25
-24
28
48
2
-54
0
-6
-49
-40
14
49
54
8
-1
31
7
7
-23
-2
55
77
11
2
-16
-37
-1
18
7
47
25
-26
-30
2
20
-19
12
-13
10
76
-39
2
52
3
25
43
-35
-14
6
-17
-28
-23
-32
-32
-57
-32
18
-29
59
44
-11
3
4
10
16
-11
15
18
16
20
-35
1
44
-46
31
-55
3
66
-10
18
8
-7
0
10
18
17
35
44
46
25
59
-31
6
-62
-32
3
-15
16
29
-42
-25
-70
19
13
30
3
13
30
-15
-35
-8
5
1
-23
35
62
-47
-6
-41
-86
-5
41
-26
25
-101
-9
-26
22
10
-78
-8
-12
13
13
37
-1
-31
3
-20
-17
-6
12
-9
12
-6
-19
-8
22
-5
-91
-11
-18
-15
7
36
-1
35
15
12
-22
-7
41
-53
-44
4
14
53
29
-31
8
8
-5
-16
-39
-13
87
-2
-5
28
33
52
33
2
24
-33
23
-20
-14
-16
-10
11
-14
43
8
-44
-22
5
-20
14
-1
-12
6
34
-5
9
11
-6
-16
-2
-45
10
20
-30
28
18
44
-51
-69
20
7
-10
-17
-47
-9
-4
6
-5
9
-22
59
-35
-32
34
0
-39
11
60
18
14
10
-48
-6
5
-14
8
-15
21
5
0
17
-16
-23
6
-7
-26
92
59
51
2
-17
-8
-28
1
-11
-56
-39
-43
-14
13
-47
24
-7
-22
1
11
47
-43
-3
18
28
-8
3
-18
-11
-36
-6
-51
-5
29
17
30
110
-51
-1
9
-6
-2
-22
48
-58
-69
10
25
57
-12
71
-3
11
-29
-20
-12
16
4
11
31
21
12
-18
96
-28
-108
-67
67
35
70
30
-23
17
2
-8
54
-14
0
-25
-18
-83
14
24
-60
-19
-47
24
10
-75
-13
28
47
0
27
-2
-18
-30
9
9
6
42
-2
19
38
-23
18
2
-2
47
23
58
40
7
-23
15
-15
4
67
3
-42
-39
-2
-14
6
-29
13
4
-19
38
-12
-11
12
22
16
98
9
-12
-3
-16
6
-46
2
2
0
18
35
-12
6
11
5
-40
-3
84
14
53
-2
-16
11
11
38
21
45
45
15
-3
5
-28
-18
5
-12
-26
-5
-9
0
20
-7
6
-26
27
4
-23
19
86
-34
26
-4
4
-33
25
31
-20
-14
7
30
33
54
8
34
-27
-59
10
-25
-12
-9
40
10
3
41
-20
32
3
-3
11
41
17
22
4
-44
7
-21
1
39
11
-36
-18
-6
-8
59
32
46
-25
10
-39
-33
42
23
-64
-18
-21
5
2
25
52
-10
-57
71
6
-7
-68
-11
-5
30
52
32
18
-78
-11
55
-15
-18
27
-27
26
34
18
78
4
-27
36
0
58
-40
-8
-11
-17
23
2
-31
15
-20
43
-43
23
-47
-13
-30
-5
-81
13
-1
16
-24
24
-66
-13
4
9
8
-24
25
18
38
2
15
35
-7
54
18
13
15
-9
40
3
-36
12
21
-6
-33
-39
-15
-26
-1
-52
14
35
7
5
-13
-21
-48
16
34
0
9
70
7
32
-28
8
25
-8
26
-19
-6
-8
14
45
-66
-55
101
-22
-16
-17
37
12
24
-4
8
-36
-2
-19
-9
4
-1
-12
-4
39
-49
19
12
15
28
-23
1
29
-37
28
12
67
-23
36
-27
-40
11
-54
21
-30
39
46
-11
1
-39
56
6
57
-37
-12
-22
-4
-4
-23
15
12
13
-28
37
-16
-18
-27
-24
-12
-38
17
30
34
-19
30
-47
-49
48
-11
47
13
-85
-3
-35
-88
-12
96
60
-12
-56
52
-12
-89
43
14
47
-22
38
23
-119
-44
11
5
35
-39
-61
0
-29
5
-91
59
14
66
-4
75
-76
-15
79
64
3
-90
-23
49
-14
-14
-16
-5
15
-47
-67
-1
-42
-38
-2
16
-6
46
21
1
68
-18
4
40
28
-8
25
2
35
-53
-23
25
26
-67
-54
2
-24
-14
25
-3
41
26
67
-70
27
23
-34
3
12
16
5
7
-13
-69
47
-35
-80
-4
48
-93
12
12
65
13
32
30
10
12
5
5
65
-21
2
-11
27
-114
27
-46
-80
44
31
-22
-34
10
18
14
7
14
19
33
23
19
-22
-4
37
-14
-7
7
71
-1
-21
12
-21
54
-24
-29
-34
0
25
40
-12
31
0
-23
3
-55
-4
32
9
2
-1
-58
-44
49
26
2
-48
-14
-9
11
48
-9
-16
-17
-13
-12
32
-12
-15
-6
32
-6
-62
-71
-13
91
39
-22
-58
70
-63
-10
-11
8
58
70
-39
-25
15
8
9
16
30
40
-20
-24
51
-31
25
61
19
-34
-24
0
-68
-27
-35
56
-43
-25
-42
-37
9
4
9
25
39
-58
1
49
-6
-1
14
-19
-24
-51
-39
-39
13
11
-11
-51
-19
-13
15
67
-11
13
13
-17
-6
-41
11
12
-27
-43
-17
-56
30
-29
-9
22
-21
-37
22
-41
17
-3
-16
18
9
-30
9
19
7
-16
13
-12
28
-96
56
-5
-1
-8
-19
-17
25
-32
42
-56
-34
33
17
13
1
-6
-8
19
80
15
20
111
-26
-10
-27
70
-22
22
-14
-83
-55
-54
13
-62
116
-15
-15
25
-21
-49
18
99
18
-9
-63
-19
-30
2
41
-94
21
61
-45
-12
-8
-19
-51
5
25
72
-2
-25
-18
72
7
-66
2
38
-20
71
-23
34
7
44
-15
-11
7
13
-8
-50
2
-65
8
16
23
6
-28
6
35
9
9
-16
38
-6
47
50
32
-41
-29
-29
12
-34
-34
-2
3
29
-29
23
41
11
-7
-21
17
49
-12
64
-5
18
-41
-51
-5
-9
-3
-21
-15
-2
-32
-57
44
5
-32
-15
-28
74
6
-1
29
-15
-13
18
-7
50
-4
14
48
40
-71
-16
-11
22
1
-33
4
-53
23
-2
21
15
-21
32
-1
36
13
65
-8
-3
2
19
18
0
-14
31
-8
10
-5
25
-4
23
8
-3
43
4
-6
-23
-4
32
-5
-18
-22
-9
-102
38
25
17
24
-99
25
17
6
-26
15
-19
16
-26
31
81
77
-6
-46
23
-19
40
34
38
-38
-18
70
-88
-72
-66
-22
-22
20
87
-57
16
-9
35
21
36
-46
-65
-51
-66
26
14
-26
-23
7
53
-55
-26
-94
37
-15
-25
-32
-52
-23
40
-17
25
-15
-63
28
-31
-30
27
18
12
56
0
62
10
-60
-20
-12
-7
15
7
-13
41
-29
-31
68
43
-63
34
-60
-12
54
20
86
-31
29
-34
-44
-58
88
7
-18
-5
6
6
-12
72
25
53
16
26
-17
-11
56
21
-1
20
-4
5
46
1
-29
19
37
-17
47
72
-35
22
-45
18
-61
0
8
-72
-29
-24
2
-20
7
-57
56
-37
-5
14
-39
14
15
-27
-23
-4
-12
16
9
-80
23
76
-25
21
-38
40
-3
30
-10
-52
-20
-10
6
25
-12
-36
12
-51
-57
-3
-65
-29
-11
-14
-4
-26
35
-24
20
20
-35
6
26
-13
27
-42
28
2
-24
-36
41
-34
18
63
-56
-31
66
65
-10
52
-19
-17
-18
15
5
-21
17
-16
-15
1
3
-21
-60
21
9
-23
-6
75
3
16
-18
-19
35
83
-19
-49
-61
-12
-1
-21
26
-14
-69
24
-11
46
-30
40
25
40
-29
-29
-6
-54
10
14
-12
25
-4
18
34
-10
-88
60
26
41
53
66
-63
17
-1
-7
-23
-37
74
-10
-83
41
-11
-9
-8
-14
35
27
-17
-89
14
21
-60
50
-2
-11
26
4
21
43
50
-15
63
-5
-45
24
-27
37
-27
-6
28
-17
-72
-1
12
-15
-35
-18
-27
47
55
-18
-38
-101
-26
21
17
-54
57
2
-62
-19
3
27
-13
-6
9
43
-1
13
21
11
3
62
23
-8
21
21
15
20
-52
-28
-36
-17
-66
-53
23
-11
16
8
2
56
-31
3
15
35
43
-7
-38
1
11
-10
-4
-15
41
15
-62
-21
-19
0
0
-17
13
34
-28
-32
23
-12
-34
-41
-44
24
-8
1
-46
121
-39
-4
-51
-39
0
-6
-10
-23
-7
0
5
19
-99
10
-56
35
4
-4
-12
11
-10
48
-32
83
50
30
-67
27
-10
76
-46
12
-56
-35
24
45
-6
-28
31
-7
25
-17
-21
45
-52
28
-43
-2
-48
62
-22
11
6
1
-1
55
-16
-31
-28
16
-22
-32
54
14
8
-2
-22
-30
-6
-18
-11
10
24
28
-10
-24
8
-12
11
-6
-33
66
-44
19
-30
69
20
18
6
61
9
75
32
20
10
24
-14
65
49
14
27
46
-81
7
-119
37
12
-60
22
-37
-15
-15
-6
-66
72
13
33
-59
-74
22
-76
-21
-49
43
0
-10
-64
54
-11
-43
22
58
13
-75
-127
48
-8
-27
85
-81
59
-39
49
34
-23
-6
10
10
-87
-17
-22
-26
4
-8
-43
27
30
-22
69
5
2
18
29
20
8
-16
31
17
-8
-61
22
-15
10
57
31
-33
29
17
36
-68
127
26
61
-23
-32
-25
9
-38
91
-38
124
1
-15
-88
66
-52
-8
18
-21
29
-11
-92
68
-2
31
-60
4
-52
-7
1
-2
-26
62
49
-15
-17
17
9
0
-4
11
-19
-13
-82
12
-32
-5
49
46
-61
7
-17
16
23
-71
-50
58
-18
35
31
52
47
16
16
29
14
-28
-24
-41
63
-7
-25
-24
10
9
-52
-10
94
-15
-26
15
19
13
-9
-9
-7
18
22
-1
37
69
4
9
9
2
28
32
-53
34
101
30
43
23
-7
18
2
12
-52
-9
12
-36
-5
-17
-24
-21
-12
-39
-19
-20
-6
43
14
-4
39
15
-39
-5
4
4
-14
-22
52
26
28
-43
-36
34
41
-48
29
45
-66
13
6
0
7
29
11
-14
33
-3
-22
-3
10
62
2
-10
-61
4
8
-2
23
-46
5
-9
33
-4
8
-49
-17
-50
-9
29
36
-74
2
-19
15
-20
-35
-61
19
-5
17
33
-15
9
23
9
-24
-21
57
13
4
11
48
48
-56
2
35
-6
22
15
-59
-48
37
-78
-6
8
-20
4
-35
-14
-9
-9
30
7
3
-25
3
-5
-5
56
-38
-31
14
44
-35
-83
7
-17
-38
-4
25
4
-11
1
0
71
-39
-5
-17
-24
-29
27
36
-9
24
-5
20
11
9
-16
18
1
28
9
24
-9
25
-23
-24
-35
27
9
-62
-32
58
1
14
-30
-32
-2
-12
18
2
38
7
21
2
-3
67
-37
-13
-11
-20
-42
37
-27
-41
22
-3
-33
-25
22
-13
18
3
15
22
-29
-28
63
-42
16
2
22
-17
1
-1
9
-46
9
-10
22
-38
39
35
10
-15
39
21
-11
-3
29
15
11
-50
-84
14
-15
31
-15
24
13
-41
-53
12
14
29
-7
12
19
64
6
8
-9
1
49
-38
-34
-111
16
-13
-59
19
19
30
-58
-10
-7
4
49
-75
9
30
83
-45
12
-5
-5
45
3
-7
42
-10
43
81
28
-16
-5
92
-30
28
-9
12
-32
12
18
-8
15
-6
-46
-17
22
20
-26
35
-29
-21
43
-41
-42
-17
-28
-37
16
-55
69
-13
-1
44
24
38
10
30
-104
-1
53
32
-31
-6
-3
-16
-42
-2
-15
-29
-10
18
-4
25
-23
6
23
-6
31
-4
36
67
53
-11
-21
0
15
-1
-9
47
17
38
24
-59
-11
-13
-19
8
105
3
-38
-26
25
-36
-35
41
56
-1
3
2
-31
19
-91
-34
-41
7
-4
-22
-40
18
5
30
4
-33
-57
73
16
-33
7
-20
-6
-4
-21
4
-41
-25
-55
-13
51
-11
-58
-14
11
-34
3
23
3
-19
57
-33
11
34
19
-32
17
7
-18
48
-23
21
22
39
-32
-12
30
16
-53
33
-34
-14
-29
-36
-2
4
14
52
30
-35
51
-5
-45
9
14
19
27
-46
-14
9
13
-30
-8
-15
-7
-21
-35
-10
-3
4
16
13
-20
79
5
34
14
-3
-16
3
-37
-15
-75
-2
-28
-33
-11
-13
31
9
-10
1
0
-9
-46
-7
16
-26
8
-10
3
-67
-16
-25
-27
2
17
-23
-26
-18
-11
-83
-4
-46
86
-127
27
29
6
-8
16
25
41
45
2
-65
61
-20
-47
80
9
-34
-23
-6
37
-11
6
-51
70
-17
35
15
15
37
-1
-27
-13
-2
-100
18
-10
65
-2
8
2
5
56
91
9
65
-32
10
-59
-17
13
-22
1
-23
-35
-21
-91
-14
-43
-62
61
-62
-10
0
-23
-52
47
-2
19
16
-20
-19
-20
-77
80
-6
-39
-57
-100
-10
0
-69
-27
33
20
62
9
19
-2
19
-42
-18
-40
13
127
-24
-20
-13
-83
-32
65
21
-68
-42
2
10
-21
78
-70
41
7
10
-26
47
44
11
-23
-23
-22
1
0
-35
29
69
20
-30
-55
-73
-38
6
21
-1
-24
-32
-9
102
68
15
76
24
5
-23
10
-7
-41
-29
-39
-49
31
106
64
4
34
-56
6
14
0
-91
12
2
-2
28
55
-17
-12
46
8
-2
-14
5
26
48
-10
24
-20
42
34
14
-51
-40
56
-15
1
-27
18
-5
-18
11
9
-53
-3
6
-24
13
20
37
11
-19
0
34
-54
-12
1
17
44
-30
64
-38
13
11
39
8
-5
24
-31
-31
38
33
3
2
18
-1
23
51
28
47
-20
18
-3
-31
-24
11
-58
-21
23
73
-22
57
-36
1
-62
33
4
-13
40
-7
-9
31
6
-4
-55
-17
-1
21
-8
1
-56
11
-15
-11
-54
4
26
57
-8
-17
-51
-44
18
9
-30
79
-2
32
8
-7
23
-16
-28
10
8
29
5
-7
23
-31
12
13
-16
-59
8
-12
-19
13
0
-6
44
-19
49
-35
11
-8
11
25
-20
24
-25
11
-13
-5
-43
33
4
35
-26
-6
36
24
23
31
-50
16
-42
22
-14
7
19
31
65
-17
61
2
-3
-8
12
33
-47
-19
-29
55
16
2
-33
-7
-39
22
-6
59
-43
48
5
7
14
41
-11
-24
-1
21
23
-3
13
-27
-5
33
13
-13
11
-15
25
27
22
-18
21
-20
37
2
5
-8
13
22
3
5
0
-4
-1
-5
46
10
-48
-3
2
-12
-1
24
-1
-33
-3
-34
-10
-20
32
21
-17
-15
7
30
-28
1
-48
24
-9
-16
-9
13
7
-12
11
23
20
1
-19
1
10
5
8
-12
-35
-47
0
-2
-12
-7
18
5
-7
-4
-2
27
-75
-25
-15
23
9
-12
0
11
-28
6
-21
36
8
-2
0
-26
-17
-2
16
-17
11
3
-36
23
7
-2
-4
-1
2
36
-15
51
26
25
7
3
2
79
-54
-14
-3
-22
-4
-27
19
-8
-37
-19
30
-42
-10
-46
18
7
-47
16
27
-21
-15
43
48
-50
-51
15
-6
-3
-29
-21
82
16
29
-49
-25
31
-3
-28
22
-40
-2
-57
43
-16
12
4
-1
46
-2
-6
66
-2
38
59
-37
61
-4
9
57
4
9
25
-9
28
39
8
-19
16
8
-19
23
-7
-11
5
-79
-12
51
-15
18
36
26
24
-3
14
6
12
47
-38
3
13
-15
-30
5
20
-28
7
-16
-19
1
13
-23
-6
20
-5
21
-9
-14
-35
-36
2
-5
15
19
-31
61
7
-10
7
14
24
37
32
8
26
-19
-26
0
7
-26
28
-38
-7
18
6
5
-14
37
12
6
4
-7
-9
-8
13
6
-34
8
19
40
-3
-42
21
-9
-16
-6
4
4
3
-27
17
-12
5
23
-12
13
-1
-9
30
-10
-6
37
-21
2
17
-14
-3
-13
12
1
-2
-21
-12
2
34
4
-7
85
-77
-29
-4
-10
-3
-40
103
-6
52
31
-2
-19
55
42
-15
12
-33
-30
45
-43
33
-17
33
-71
-3
-31
-10
14
-16
-56
56
22
34
65
43
19
7
44
-86
29
-56
15
-22
18
-44
0
-2
17
28
-4
-15
-57
54
-19
3
31
-1
-12
-3
42
9
-16
-3
10
45
10
-14
57
7
37
-61
6
1
-60
13
-62
-30
-36
-1
0
31
6
5
-67
-25
-58
22
-17
-15
-36
-16
29
40
-4
0
66
-6
-17
-9
-9
9
-20
70
-23
0
-13
-28
14
24
-1
-47
-60
-14
-15
-96
41
57
23
29
-17
22
-4
26
-39
-42
1
16
42
-22
29
22
31
33
38
41
27
-9
10
-52
4
-27
14
28
1
-20
-44
-15
20
23
56
12
19
-61
-32
21
-11
-22
22
-5
-21
26
20
-23
40
26
-6
-3
-25
10
36
15
-25
-19
-4
16
-26
-45
-28
6
-43
-49
28
25
1
5
26
17
-94
113
3
-2
78
24
29
18
9
-37
-3
-37
-45
-9
79
14
-13
22
10
29
-4
-2
-115
-41
-1
17
27
-8
8
3
12
-16
-14
-24
111
16
-4
10
-56
54
-17
-16
-12
-13
82
42
-25
2
-16
-3
-4
10
-6
-2
-17
-16
2
-12
11
-23
-9
5
-84
32
-29
-99
20
-17
35
19
4
-10
19
14
-7
-31
5
-34
-24
0
-28
8
-4
4
36
-2
9
35
13
-12
-40
-23
-38
45
-11
10
-2
8
28
-11
-24
3
53
-43
-70
-23
-1
23
20
-7
-23
-9
-17
22
-19
17
-22
-19
-13
23
47
1
-51
13
4
24
-31
-25
7
25
-37
21
-15
38
-97
-27
13
-19
13
64
-44
12
57
26
-35
-9
4
-67
15
-19
-2
4
10
26
-25
-4
-15
-2
24
-32
52
37
-8
-10
-2
40
62
16
-11
-7
-8
0
-26
-38
-22
-15
-30
2
-9
46
-65
-2
-1
53
17
20
29
-3
16
75
15
-5
-39
-21
-28
-23
-40
-73
-33
-21
16
-12
-44
-23
-47
7
-52
8
2
-31
20
19
0
72
-61
-1
25
28
9
26
-4
-72
17
95
-6
-41
56
50
-12
41
0
69
0
17
49
-58
7
-7
-27
79
7
-8
-5
-5
21
13
5
12
20
-13
-13
51
-28
-7
22
-19
10
-21
5
-42
30
6
3
0
-41
2
-2
39
-75
40
8
-29
59
33
-38
-17
-18
43
-27
-24
36
30
67
43
-4
49
-22
31
-4
47
104
1
14
-33
-1
-17
-39
18
0
-8
-18
-20
30
-4
15
-18
-40
-24
-21
-10
-32
-8
27
-5
-4
7
-17
-5
-10
16
-27
-11
-7
-19
6
20
6
2
21
-11
-1
0
12
37
3
10
14
39
-9
19
7
16
-22
5
-20
-23
-30
-56
-45
-25
11
-10
29
-2
14
6
-38
-7
3
-14
8
4
-7
9
3
-22
27
-12
-21
2
-6
4
-5
8
2
-13
5
23
11
2
-21
45
8
12
-26
20
8
68
127
30
-55
-53
-6
35
-5
18
-12
5
-13
9
-14
-4
36
20
2
13
-7
127
-14
51
44
-98
10
-53
43
-92
9
-10
-12
-15
47
-26
-31
-39
-83
16
-32
58
-28
-122
13
-24
17
7
-26
-5
-51
-48
-68
2
-13
20
-77
36
41
59
29
-72
-15
-44
12
10
57
-34
45
24
8
-88
16
24
20
-3
-20
-14
40
-40
-12
22
-58
-10
-27
61
21
4
-55
56
-43
11
-127
2
-20
-80
-28
-32
30
-6
-18
-24
16
14
-16
-11
35
16
-77
-15
18
47
-10
-6
17
6
3
57
32
-58
25
-10
15
-11
23
-6
-13
6
-20
53
17
16
-19
-8
-5
-14
-16
-5
-15
-13
12
11
11
-40
-49
-54
-10
-6
23
-9
-9
-22
-16
-12
0
-34
4
-69
81
28
-25
26
-34
32
-3
-3
24
-7
30
-5
2
17
35
16
-1
2
-29
17
-74
27
-9
8
-13
-80
-63
46
12
-27
25
-15
15
-38
-44
32
-59
-27
-16
0
39
69
-33
-32
25
7
26
-24
37
21
-7
11
62
9
-44
13
7
0
-11
-44
-60
-15
-29
43
49
15
-11
-14
40
48
-33
25
77
52
-49
-14
-30
7
-14
24
32
42
-11
42
-20
-113
88
-15
-55
58
14
5
-34
-71
33
55
-2
-82
-14
16
4
15
15
-12
14
-30
24
71
26
21
-18
56
-4
48
27
127
51
-7
7
3
13
-73
32
-64
44
5
-10
14
29
11
1
9
12
-19
18
6
-21
-37
-48
-9
-3
53
7
0
-48
19
12
8
5
-3
-44
78
3
4
-41
9
-81
-60
-11
62
-56
15
-25
10
64
-2
-12
-2
-25
-26
-11
-5
3
5
27
15
9
10
-48
32
30
-13
-4
5
-2
11
-9
-9
-21
54
-13
-50
-4
24
2
15
-31
-2
1
-37
-3
-1
8
38
-5
15
5
57
-24
6
17
31
-93
28
-13
2
-13
-21
-8
20
21
-37
74
-8
65
44
-44
40
-45
33
-16
-43
-37
-21
-20
-28
-66
31
-23
-13
-24
17
-7
-18
15
2
24
-57
-7
-74
-61
28
19
-4
9
-7
11
-12
-37
-6
87
-12
-15
8
4
-46
-6
-1
6
28
-57
31
52
43
21
9
-6
16
-62
9
2
-16
-61
-11
6
-45
20
-52
13
3
14
-18
-5
30
9
-39
3
-26
26
-17
-11
3
25
-34
-69
11
-7
-55
-20
-12
2
-24
12
5
-39
0
33
-9
8
8
-2
72
-5
-1
-5
14
-7
16
32
3
-1
7
26
-7
-3
-48
20
24
4
-14
-25
-9
12
10
-2
-19
22
-29
28
-3
-19
-45
-30
2
-31
-6
0
-56
-48
21
13
-22
59
34
-25
-3
26
-24
-47
10
-5
45
4
-11
11
26
18
88
-3
57
11
-1
22
-36
26
33
3
6
22
-12
-10
-6
1
-29
-24
-20
-40
28
-59
-59
26
-2
-15
6
-31
-12
3
51
-6
5
-13
1
21
35
-11
-23
17
52
-20
24
12
-27
-7
-39
24
10
-1
-21
15
9
15
-15
-4
-11
-27
-12
-46
-11
40
-8
-28
-83
-43
43
-21
41
-5
10
25
-7
-6
9
30
40
62
1
0
-44
-53
10
14
-7
29
-35
86
24
-2
-1
-31
4
26
-1
34
-45
-4
-42
-67
13
82
-44
49
11
0
-29
29
-22
15
21
-33
13
-3
-12
-18
-35
-12
48
22
-25
-30
58
-20
-16
36
2
32
0
27
-9
18
-106
9
-22
-40
-91
15
29
-4
-3
-66
39
-39
-38
-25
-39
-9
127
-44
5
52
4
30
4
14
-20
-53
-15
6
24
-40
21
-58
-62
-15
13
-26
25
-32
6
10
-56
-11
-45
29
16
28
0
17
-45
18
16
-23
-24
10
13
-18
-49
-9
7
-17
20
-14
60
-17
22
1
-12
-5
-6
16
-21
-38
-77
35
-12
-7
0
-27
18
-20
-14
-5
-3
-2
11
-4
-4
-43
-3
22
14
24
31
-53
-12
-13
-28
85
13
3
-65
-2
-22
-52
44
-41
-3
-78
10
-37
-21
-23
8
-1
16
-3
45
-3
28
-31
-10
26
22
-98
31
47
-22
-90
-3
-18
23
-39
17
-35
-95
21
-3
9
-63
1
5
-22
9
50
-40
63
18
24
18
-38
23
8
25
-14
-2
7
16
-31
-15
-16
-8
9
-24
67
3
46
34
11
13
10
5
-16
-11
-42
8
74
20
-8
-12
9
19
-6
13
-62
32
7
18
-14
62
-29
-42
-2
-41
28
22
20
-3
-56
33
9
41
-20
13
-17
-31
5
38
22
-1
-18
25
19
0
6
-5
-15
-11
12
-17
52
-53
24
-70
-9
9
-47
-38
14
-3
0
37
-90
-19
26
-28
-22
89
-4
-28
-13
74
-19
-25
38
7
-10
-4
-26
-3
19
44
-17
8
-43
15
-7
25
10
-25
5
-31
-8
56
7
37
54
11
-13
-23
53
11
-18
8
-25
48
52
20
-22
3
-69
34
-10
15
28
2
-5
7
17
-76
-13
-17
23
28
0
1
-1
-8
-6
-2
-18
13
-27
-9
-23
7
5
-18
-10
-14
30
-27
-19
5
6
-25
-5
21
31
-16
-58
3
-41
19
-12
-8
-11
11
-31
-13
42
2
-15
-32
22
59
12
-33
-42
-14
-37
-8
10
55
31
3
8
-21
-18
33
-15
67
-13
-4
-51
-13
13
11
-3
-15
8
-2
-39
-22
-15
-8
48
1
-3
2
4
-17
-2
18
-7
49
-69
-10
26
8
-10
14
-38
-8
-4
2
5
-10
-19
9
14
30
15
-22
-54
-18
-3
-10
-11
52
8
23
-21
26
-70
5
17
-3
-7
-56
30
1
21
-16
20
25
11
-5
-22
2
-51
-9
-51
-18
-40
20
28
5
-34
-36
-11
13
51
1
-8
-3
-37
1
-3
-29
9
31
-1
0
73
22
35
-38
-11
39
-69
-82
-38
34
6
-1
19
-10
-6
17
-23
38
-22
39
15
-20
1
5
-8
-64
-37
16
14
10
15
0
27
16
-57
-14
-42
21
10
-5
-45
-39
24
-18
-39
-6
-5
-10
36
35
-57
-21
-14
63
-21
-9
17
-11
-4
-22
18
22
51
19
39
-41
38
16
-36
0
38
-33
-28
15
-11
-32
5
-27
37
12
49
-30
30
0
-8
35
68
-2
7
22
8
-8
-13
46
14
4
-14
-11
-10
77
-9
-8
-23
-51
-49
65
-5
14
-17
44
39
-12
5
-8
15
20
-8
-5
-1
38
40
23
20
93
-122
-15
0
6
-39
-49
8
-18
-4
87
83
-36
-14
19
34
3
-4
31
-34
-6
-2
21
2
46
-65
10
29
50
-74
-15
-26
1
-116
12
-23
26
-20
2
-17
87
-21
-39
-31
40
-34
-38
-57
39
-13
-9
-38
11
-30
102
5
-3
11
-67
-7
-12
25
-18
43
-64
28
-32
-59
1
52
12
11
26
-19
3
5
-4
-3
-30
33
-37
69
41
-10
1
29
-34
-18
11
31
-16
-79
82
-24
1
-3
74
-32
-28
24
-53
2
-58
-51
-16
-18
-10
-44
23
-14
43
28
-15
52
-11
-6
39
19
6
13
47
72
24
-64
-62
-8
79
37
3
25
6
-31
-39
9
12
-80
-17
-22
35
11
31
26
-72
-56
-119
30
-39
-98
101
-3
35
38
-31
-64
5
34
-49
18
59
-1
61
42
-22
-6
47
-29
1
19
18
2
21
18
10
104
-7
40
2
15
13
-22
6
41
-44
-36
-1
-19
9
-5
56
-32
0
-67
11
-21
-84
30
11
-73
-11
-82
57
-35
110
-7
-56
-19
73
65
-25
68
-79
4
-5
57
18
62
-34
59
-15
9
-13
26
12
-1
1
38
-3
63
-64
73
74
-9
-24
41
27
-18
17
6
66
47
2
40
-6
-11
-29
-35
10
-30
-21
-60
-37
-2
38
-9
-31
22
-44
0
-22
24
3
-50
-25
9
20
20
-9
13
28
0
37
-5
21
-12
-52
-4
-28
11
22
-9
-76
14
20
-5
-23
-34
-27
-45
-49
6
-8
-17
12
48
-79
6
-22
-21
-13
-91
-41
-13
-58
-67
18
-42
-8
-19
55
-6
15
104
33
-2
112
-48
13
-105
-41
19
-40
-89
61
-59
24
26
41
49
63
-2
40
4
4
66
63
-98
23
17
-4
86
-36
89
-40
-71
107
-8
48
25
53
-36
6
-29
-69
58
-26
24
-24
-12
54
-26
-1
1
-10
-29
-30
-9
-27
-26
23
-7
-12
31
27
-14
-15
32
25
-51
-25
21
-18
13
88
-17
25
-16
19
-70
-26
-39
-46
-19
46
-47
42
-22
66
-26
27
-60
-18
-9
58
7
56
-43
-40
-10
14
18
22
52
41
12
-19
-15
2
3
-48
-10
33
4
17
-61
61
15
46
13
-26
17
18
40
-31
26
-20
37
61
-4
-14
40
14
-8
-23
25
-1
14
2
34
-33
-19
11
33
8
62
19
-27
-10
-9
3
24
2
-41
4
13
-38
22
87
10
18
-5
-15
-4
15
-7
2
-16
40
-32
-3
14
23
-1
-8
21
-21
6
13
-67
-25
39
27
-43
-14
-7
-22
32
6
-9
-19
-54
25
31
-10
-18
30
3
23
-11
-32
20
12
-33
-5
9
20
-19
41
-49
7
-19
-33
22
-76
23
72
-11
6
74
-7
-20
-39
60
4
-37
-12
-2
6
-11
30
-49
28
46
-34
-27
-13
-35
25
11
-8
31
4
-6
51
2
-15
18
-32
41
40
2
-15
87
-95
9
-40
-13
7
-21
52
-2
-16
18
11
62
41
-2
-1
-74
-8
-1
21
-3
-84
15
-4
29
51
4
-5
46
43
-3
94
31
-99
34
-5
-35
-102
34
6
25
35
-7
-9
1
14
-4
32
-33
-31
-56
-13
82
-7
104
32
-2
65
44
61
-9
7
-3
25
2
-31
-62
-18
25
-15
32
-48
-28
-89
68
-15
14
17
1
-63
-34
9
-9
-2
-7
54
-22
48
-49
-7
-35
59
11
-15
-4
-18
-14
-36
4
-10
-2
-1
1
60
59
7
27
73
-44
-22
8
-40
-19
-3
1
6
-1
-22
-82
-10
-26
-43
19
26
35
9
48
-57
21
-47
39
9
-32
-3
-15
53
12
-3
26
20
15
-15
12
21
-4
57
4
-45
-33
-4
50
-25
-6
34
-23
-7
5
-31
-35
-51
-43
-10
67
13
-14
-19
4
27
27
-23
-28
-15
-6
61
-9
69
-10
3
-25
-32
6
68
-12
0
-14
-11
-17
-45
-20
-30
31
-14
17
-13
3
-2
8
-6
-14
-8
36
10
-20
-24
-3
-3
37
34
15
-55
-13
-20
-60
9
23
5
-8
38
32
10
0
12
35
16
80
41
-17
18
-24
51
-11
-64
86
-12
12
-28
-26
-42
-91
15
35
9
7
15
7
12
9
-52
32
-55
23
79
11
-56
-63
-49
7
2
53
-2
47
57
33
30
-36
41
-2
-33
-69
-2
20
-25
41
72
37
7
-48
-4
17
121
17
-28
-18
34
-10
2
36
58
-64
28
77
37
37
-67
10
-81
57
36
4
53
122
19
-7
-97
-25
9
39
13
-32
55
20
42
12
34
9
29
-13
-14
26
48
-10
-33
-36
12
-33
5
6
9
8
83
-5
-9
60
24
0
29
1
-3
-6
38
45
22
-33
8
41
8
18
-16
-30
6
-26
75
2
-40
-37
-47
11
37
30
-20
16
-62
-14
47
7
-31
-15
-12
3
-37
82
-1
-20
37
-8
3
16
-8
-35
-15
-39
2
12
6
-37
40
17
2
-40
-74
-4
-21
-8
-27
-11
-86
-31
-56
14
44
-58
27
10
-15
-34
44
-42
7
17
-109
19
11
25
-13
5
-24
14
19
36
6
19
-17
-10
66
-71
49
-17
-2
18
17
36
5
-14
7
39
19
19
20
-40
42
-4
14
14
-27
40
-68
-46
30
40
-2
4
6
22
47
11
-40
33
31
45
-43
7
-13
-14
-65
17
-8
-16
-33
-2
-19
-65
14
17
-21
23
-8
57
-1
32
20
18
17
-30
-27
-4
4
17
8
-34
42
20
58
-29
1
41
-20
-34
-22
1
2
10
-13
-21
24
-4
30
48
-5
11
22
21
24
93
41
79
109
-65
43
45
39
-67
-39
3
-44
-71
10
-18
-127
48
44
-38
-22
-66
127
-127
-11
-58
54
6
-17
-14
-57
-66
-9
-12
82
75
31
-8
7
-108
0
-19
-34
79
43
29
55
15
21
-75
10
-38
10
4
-87
18
124
-13
39
10
-84
-1
45
13
-1
15
-26
-36
-26
-6
18
22
2
127
-80
-58
79
118
22
3
33
22
43
-6
46
-33
-38
-63
-24
31
-82
34
29
73
45
-56
26
43
-46
16
-1
-31
24
28
-24
11
-4
2
-16
19
6
-7
-13
20
3
64
-16
-29
-65
51
-2
39
-41
-22
75
22
-6
-43
-1
-26
-40
-11
-12
-23
-7
49
0
11
-45
10
-31
-23
-6
48
-65
-24
50
-20
-17
11
-20
6
-65
-11
-45
34
75
9
-42
4
-9
4
66
28
0
7
-12
-26
52
10
-15
-61
-12
-22
-30
-11
-12
7
10
8
18
32
41
-10
4
-16
54
-20
-4
65
-7
30
-1
-14
35
7
-16
14
-102
28
-5
-7
-14
-95
2
-37
65
-13
-29
-24
50
-15
49
29
-38
-12
37
-1
-4
19
46
-60
-22
-3
23
18
-32
25
17
-5
-28
-24
-26
27
-19
8
-18
17
38
-54
48
18
5
-27
-17
28
-12
-12
-9
-7
-1
7
9
0
34
6
-7
1
82
-3
9
14
-3
28
32
42
1
-20
-33
24
-3
31
11
12
29
36
-60
19
-15
73
-22
36
-7
7
-1
-6
4
-24
3
-16
37
-38
21
11
-28
14
45
16
0
0
2
36
13
41
9
52
-3
-37
-46
-8
-12
20
-21
21
43
-28
-17
-53
1
67
-19
-27
-9
-1
44
2
-15
21
-10
-23
-17
-11
-15
21
-4
-10
-66
2
39
-31
3
69
-18
23
-50
0
49
-13
-8
-32
-37
-1
-35
-20
47
-25
9
11
-3
13
13
16
2
-10
17
7
11
26
-25
-12
11
16
21
4
24
-38
-2
17
44
-19
3
17
65
-23
-27
-17
36
0
11
13
4
-18
8
3
5
43
22
-32
12
-26
-1
-8
-2
-9
31
22
8
-1
33
-24
-7
3
73
-5
19
23
-74
7
-1
-7
-16
24
36
9
54
-33
34
24
49
-43
9
50
7
-10
-29
22
14
3
-61
7
72
-2
-21
16
26
8
-36
1
-40
40
-34
-13
5
17
-21
-1
19
-28
-4
14
46
-32
-57
-3
84
13
12
9
18
22
-42
1
-20
50
51
46
15
37
14
44
16
-18
-52
26
-16
45
55
32
-28
13
12
-27
-26
-12
40
-41
11
10
14
-3
117
-25
-4
9
-115
-32
-67
40
27
-11
0
4
38
58
-3
-65
14
52
-17
-53
-51
-12
-46
27
19
44
14
-44
113
10
-13
-39
-26
-3
-33
-56
7
8
-60
53
0
18
74
-1
39
-74
40
-24
3
34
-55
24
80
-116
10
-8
-47
31
-49
4
-66
18
-8
19
-13
7
-74
22
-60
21
24
24
-3
23
20
-35
26
23
-27
20
12
33
127
29
5
34
2
30
-7
-33
86
12
25
-84
20
24
-34
10
71
-30
30
-9
-39
10
30
2
-28
44
35
-21
5
-51
29
-100
-30
-9
-7
26
-39
-26
-42
32
-12
-46
18
7
37
-89
-2
96
17
-21
-10
-16
6
20
-30
-65
64
-14
20
-64
-15
-2
40
15
-20
5
19
-18
33
-31
1
42
-28
-7
16
-43
-17
4
9
39
-49
-45
1
22
38
-18
36
-18
-29
-26
-3
28
-55
8
25
-18
-12
2
39
-64
12
68
1
21
24
-19
-20
30
23
29
-32
28
-47
49
-76
17
5
-61
-4
-31
-19
18
42
23
-11
-16
23
6
29
8
28
5
5
48
8
-15
25
-44
61
-4
2
-29
10
25
19
1
-9
20
30
57
7
16
-23
-5
-9
-3
-42
-7
16
11
-27
-21
37
-50
-4
85
20
-23
-18
13
8
26
-2
-18
5
0
55
-63
-12
4
16
-18
23
-14
49
-23
-2
-45
-3
-9
-1
-19
32
18
16
-22
-24
10
-10
38
-6
-33
21
64
24
30
-61
1
-15
-25
-7
36
-10
8
-24
-29
14
-10
8
49
-8
-22
-24
13
-23
48
-21
-5
103
-2
11
47
8
34
-8
-48
40
-24
2
11
-50
-36
27
-25
-23
-18
-16
6
-19
-3
-13
-15
27
13
0
17
-3
-17
1
-4
-19
31
-23
-2
-13
-22
-46
0
-5
-30
-23
-3
-45
1
-12
-19
11
-5
19
9
-31
-6
-4
-72
-27
-14
43
49
-44
2
10
-4
84
-48
29
25
48
45
22
28
37
-6
0
-33
46
-6
31
-36
11
36
-32
-58
35
-50
17
-32
22
12
-31
1
46
31
16
11
-36
23
11
-44
46
20
-5
28
-7
-24
-13
-4
72
-16
19
49
-27
-20
17
20
-41
-14
14
-56
-23
0
-22
-15
25
-31
20
43
-10
22
6
-18
8
21
-39
10
10
-23
16
-22
4
-81
-16
-7
-71
-5
-8
18
-22
35
-16
37
-50
6
27
-70
-11
2
-2
15
34
-38
-8
10
19
18
-32
43
4
12
15
23
24
29
-25
17
-25
10
31
-2
-10
73
-12
-1
9
-31
-18
-27
-2
-75
10
35
-5
-37
-17
2
36
7
-47
-49
14
-45
0
-12
-9
11
43
10
-18
-13
-19
23
16
14
-12
8
24
-30
-38
-26
21
-10
25
-5
-6
-8
46
11
15
-3
12
17
-11
-6
-12
-13
-2
-14
3
-8
3
25
5
0
41
29
-104
-47
79
56
-28
80
110
-32
-3
-14
-44
-29
31
-25
-2
-28
-36
24
28
89
46
-75
17
-77
-70
36
-122
-34
7
17
22
28
-65
32
57
39
31
-79
27
6
-36
24
85
-53
-27
11
-27
14
52
57
40
45
-23
-26
-67
20
-79
31
8
8
-87
31
-30
6
20
-2
127
-23
-4
-27
-24
-7
16
-8
34
12
-83
44
-51
-2
38
-3
2
-12
11
-11
11
20
33
30
2
-38
-19
-50
96
-10
-110
94
6
-5
6
61
-15
62
69
49
-29
-10
15
-4
27
-58
0
33
-5
42
30
83
-37
32
-54
68
-5
-17
-45
-27
37
80
-22
-17
-28
-11
-24
-58
24
2
-40
6
27
18
11
17
-2
-15
20
-11
-43
13
-3
-4
39
11
70
15
-28
-45
78
-8
37
-9
-15
-55
-26
36
36
22
9
-2
-9
22
-13
39
-15
50
-22
-8
-53
46
5
0
28
-21
-58
-31
-7
-22
-40
-5
-39
-14
-98
-58
-19
-20
69
8
24
-55
10
-29
22
-51
-2
-7
-29
0
-21
-49
-24
3
34
-44
29
-64
43
-36
-28
-127
6
-65
19
-1
-11
-45
-9
-22
12
43
51
-19
-22
-2
0
-31
-35
97
24
-50
-12
34
26
-34
2
8
19
28
25
5
22
-17
10
39
15
-18
22
-15
-17
-28
21
63
4
12
15
-2
-2
27
-38
-22
-24
94
35
-4
0
-37
4
-11
50
1
-43
-76
-2
12
-21
56
11
27
34
-24
6
22
70
39
6
57
-8
41
22
46
-42
41
5
7
-17
13
-12
-1
17
-6
-17
0
17
-46
4
-28
7
-26
-28
-21
-48
-61
-33
1
-33
26
-108
35
14
30
0
79
9
8
-57
-19
30
-45
20
16
-15
-19
-33
4
3
6
-25
18
-10
12
17
60
-7
4
-12
5
-60
-7
5
26
-4
-11
-7
23
71
34
-26
-57
-15
-3
1
16
-45
6
-13
63
-20
-43
1
-13
-55
-15
-38
-3
-31
-19
-23
8
36
0
5
1
47
-12
14
-4
-3
-26
5
-80
-14
-42
-32
-92
-17
6
-14
-2
-2
82
-56
13
9
43
-63
66
0
-52
50
24
39
-73
-34
-28
18
-5
-52
7
58
3
37
-34
9
-11
51
-9
-20
89
-12
3
11
-11
4
-6
57
32
60
-21
31
14
-18
54
33
-23
20
-1
-20
20
-10
29
25
-1
-3
19
41
17
-9
28
10
10
-41
-3
8
-68
6
5
-6
14
6
-40
57
42
-31
-15
45
50
12
0
31
16
29
15
-40
2
-13
-15
-20
5
-62
-1
5
8
-12
-22
42
18
-11
-19
48
-12
-3
24
25
-40
-45
-1
-28
50
16
12
1
-52
56
56
1
4
-24
18
10
-5
7
27
44
-18
2
15
32
-17
-31
-3
-16
-6
41
17
-32
-16
5
9
31
-13
-9
31
-15
4
45
56
-2
14
2
-33
-34
-1
-11
9
-4
-28
7
29
17
-25
-14
-20
-41
-12
-1
60
-42
-15
1
6
1
19
9
20
-15
-10
30
5
46
-58
17
-13
-42
26
-19
-17
-11
36
-57
-30
7
4
17
-13
-4
-62
-9
15
-20
23
-42
-4
-32
-25
-43
49
-3
39
-13
-36
-18
39
-11
16
28
-10
26
31
-30
-7
-51
5
82
-3
52
69
3
17
13
4
22
-6
6
51
-6
10
-4
-3
45
50
13
35
19
-28
-30
-25
-43
-20
7
-16
-13
19
76
-12
16
21
-31
20
94
-10
1
-1
50
34
-68
-50
28
17
-23
-33
-15
-17
-29
-43
-12
1
2
-14
18
14
-32
26
2
-5
21
-64
27
-28
-35
7
-76
-5
9
49
28
-21
-2
17
15
9
-8
-44
26
-9
-56
-2
89
-60
-37
-13
10
10
9
12
24
-2
19
2
-88
18
44
45
-7
-43
-18
-18
3
11
23
-38
-17
-10
-23
-19
7
5
43
8
14
-34
10
27
-2
13
18
18
29
29
33
-4
-39
7
19
-33
93
-22
9
-6
30
-19
-49
7
23
-10
7
-3
-29
-24
46
-23
1
80
28
-13
8
7
-21
20
-44
-118
-2
-16
34
62
-33
3
1
11
0
23
-5
70
-98
3
-23
17
56
24
-7
-4
68
-76
-43
-53
-16
53
-46
16
17
-14
24
-15
-24
-10
126
-4
-36
17
7
-6
-3
88
10
-27
8
-21
34
43
3
-13
2
-29
11
-36
-10
82
51
-16
17
5
41
-18
2
39
5
-4
-2
4
21
-8
-1
18
-36
-1
-91
-70
-10
-76
7
0
31
32
1
26
89
-36
-9
4
-32
46
20
-35
-53
-30
14
-38
40
-26
12
-7
-67
-38
-33
15
-8
-13
-26
8
96
85
21
-117
-15
-47
52
17
-55
6
-127
114
-1
-16
-21
-28
18
52
-93
68
-11
-33
-11
-69
34
-26
-127
17
16
-7
-18
-2
43
46
-43
-44
-111
20
49
-30
43
-92
-28
-6
27
-13
69
4
5
41
22
5
12
6
-2
7
-17
-35
7
-31
-10
-96
-45
40
44
4
69
33
-19
90
5
-5
22
12
-66
8
0
11
-12
12
-8
0
45
-23
-11
-45
-15
-40
-35
-33
-59
-30
-65
-40
-13
-73
-7
16
-23
97
104
13
-13
10
16
-55
-6
39
34
-25
-14
-10
7
-16
23
2
25
5
22
-8
-77
-2
12
-38
50
-44
-12
19
-10
-4
-64
-1
-10
-6
-4
16
44
3
-52
56
-19
-7
18
-9
14
17
22
2
-39
-51
-27
-112
12
4
-29
25
18
-9
-23
4
27
34
5
4
18
-28
34
-17
29
-9
9
24
16
20
-1
46
-8
-44
3
2
1
1
28
25
-41
-2
5
-37
19
4
3
44
-6
-101
-21
46
29
-35
16
-4
21
-6
-28
36
0
-40
-31
5
19
8
-44
-12
-1
3
15
35
12
-2
15
-9
9
-8
-11
-16
-24
35
11
-16
5
-25
36
-30
23
1
-11
-11
5
-34
12
-4
9
16
-15
15
2
-23
-13
-31
14
-20
12
-41
-21
-20
-4
12
-6
-17
-29
47
12
-72
15
33
-29
47
-57
-8
18
21
47
24
0
-21
4
-30
29
41
55
14
66
16
28
-29
-61
21
33
0
7
-23
11
1
48
-7
33
-5
17
-5
-20
73
-20
-66
1
-28
9
4
-12
-8
-18
4
-11
19
-56
22
7
-1
54
-21
-10
-1
-5
1
15
7
33
-1
-12
23
-13
-13
17
-14
1
6
-14
-3
1
-4
14
-4
-5
20
47
-13
-4
51
53
10
1
-4
1
1
23
-60
-28
-5
-18
-3
0
12
-1
3
19
-12
-30
11
-2
-45
6
51
-2
-12
-15
-23
-17
-12
-57
14
-16
1
19
13
-8
-28
-45
20
10
13
-16
-11
-34
3
-7
11
33
0
14
24
26
6
19
-10
7
4
1
-22
-31
-43
-11
-4
5
28
0
16
22
4
-3
-38
5
-17
23
1
-1
13
13
-12
8
16
-9
-40
11
-1
-23
8
4
-20
-11
7
-27
51
-48
5
-48
11
15
1
-12
13
-9
-9
1
0
-29
-32
29
-24
-11
13
14
69
-62
16
20
-18
1
30
0
34
6
20
-14
46
-10
-9
18
7
-16
43
-53
36
-11
0
-27
-5
29
69
24
2
54
-32
13
23
8
-41
-32
41
23
20
28
-11
-4
22
13
7
47
8
-15
12
-5
3
13
37
-8
-15
36
-26
-18
-43
-54
52
-5
16
0
-44
-3
80
22
-5
-2
-51
-52
0
-45
70
2
-18
-30
-51
-30
39
-3
-33
-5
10
-3
-51
-3
-27
15
3
25
24
3
-8
3
-9
15
0
-31
28
14
-63
-13
-6
-14
-43
31
-10
52
-45
30
-28
45
6
4
-23
-21
23
24
3
6
-31
25
-9
46
17
-17
8
14
-1
15
19
17
21
7
-15
-21
23
1
-4
-11
11
16
19
19
-23
-47
-4
3
27
22
-19
-7
-35
9
-6
11
52
8
63
-38
-23
-10
-15
-27
17
-7
-20
31
-26
-6
-50
1
-14
-1
-28
-40
39
61
-47
25
23
26
42
45
-14
12
-35
23
3
-95
7
7
-27
-11
2
-31
30
-5
-13
4
18
100
-56
-22
9
-104
-12
-63
-79
-23
-83
-72
-51
124
-51
-90
21
-5
12
6
72
-38
45
-49
-15
42
-9
29
14
-34
-39
-35
-23
-6
-23
-23
-40
40
20
-30
55
-8
-7
-39
-10
17
7
31
23
5
27
-27
13
53
-49
50
-28
13
14
43
-13
-44
-21
10
56
57
8
10
-17
-13
92
7
-16
8
-20
-20
23
40
-10
5
6
27
36
18
-48
-10
15
10
-29
-4
51
-29
9
7
-51
92
-32
10
49
-37
-43
58
1
35
12
-18
-7
-44
11
-22
-36
-13
-21
-25
34
-41
-9
28
33
5
31
-15
26
43
19
32
-70
-47
-17
-39
22
68
-19
-16
24
89
-51
-31
19
-2
-20
39
43
15
7
-27
-8
-26
-7
12
-41
29
-3
29
53
-39
74
-13
17
-48
-1
72
-47
21
4
11
-31
8
-29
5
20
-109
-4
100
-7
-1
13
50
18
-17
-14
-72
1
-6
-56
-13
-30
23
20
11
9
24
-60
53
-34
-21
-17
-93
17
-1
65
39
32
13
27
-3
85
21
-22
8
20
-44
32
45
-14
-15
9
-12
19
72
4
36
-8
25
-35
-38
12
-1
41
13
7
-127
-19
-6
13
36
27
-15
-7
13
-21
14
43
63
-31
22
31
-34
-3
37
-12
51
2
10
39
4
-5
47
0
9
30
-25
8
-15
-79
127
-23
3
17
-2
17
-57
10
-13
-14
41
-45
28
-3
19
55
9
7
-35
1
-52
-44
-30
-14
-39
-99
-10
-10
64
24
63
-18
17
26
0
59
10
33
-48
-2
9
12
-4
2
-18
-26
36
0
21
-2
16
-19
3
-6
14
-5
14
-44
-39
-26
-2
2
-49
17
10
24
1
23
-17
51
-16
13
-32
41
-22
38
-11
-23
22
-22
-33
6
-30
-7
2
-11
16
-9
-71
-23
67
76
59
-36
-44
10
47
-3
11
-41
47
-20
-16
33
-55
30
-84
31
10
4
0
34
-52
-47
-29
-19
57
-8
5
-7
22
-35
-13
30
-18
-74
9
43
2
-26
47
-13
35
-41
40
11
-42
-4
-13
32
34
3
-35
7
22
17
39
-8
-11
-11
8
36
-6
14
-37
40
-9
11
32
4
-16
-34
13
19
-55
25
15
46
-62
-8
22
48
-6
-13
37
8
-88
7
5
-25
2
35
-25
69
-33
17
57
-25
-2
-3
-52
21
-4
6
-62
-23
34
82
-66
3
56
10
10
-19
-61
8
19
-18
16
-11
-56
26
-24
54
51
-64
62
27
-3
45
-52
34
-30
16
27
5
-67
19
22
-17
-4
-38
15
37
-30
-10
101
-40
-63
29
-16
0
5
56
48
67
13
11
1
9
2
39
16
-42
-54
43
-26
-2
24
-3
110
-17
-5
-16
-16
3
69
-20
16
-21
-28
11
-11
-3
56
2
27
-33
-5
-16
1
-43
8
24
-13
-24
-1
-18
87
-70
-1
4
-7
31
-8
27
-26
7
37
-2
-18
-3
-20
-21
20
17
-10
-36
3
-9
-37
62
19
38
-24
-14
12
-36
-85
2
-16
-27
12
-16
-14
-71
-4
4
15
43
84
1
13
29
-29
-9
-1
4
0
18
2
-31
12
16
-10
11
14
2
-1
-57
-7
-19
28
-9
33
5
50
49
27
1
51
19
7
-39
-14
-2
-18
-5
-49
-3
6
32
35
-29
0
18
-5
56
13
16
-45
37
8
-50
10
-16
21
28
15
21
-65
-62
47
16
11
0
33
61
31
-13
4
23
52
44
-25
-17
42
-22
-22
3
40
-27
-10
-22
-35
-96
-37
-19
18
-31
12
-46
-28
12
17
20
21
-29
-16
-22
12
1
8
22
75
-32
-42
34
16
40
-40
0
-38
13
0
23
31
-18
73
-7
-1
17
-35
-7
-13
3
47
2
-44
-9
35
25
23
-45
95
-16
6
0
13
1
-39
3
-29
97
-12
-28
45
10
-11
-26
-22
-40
-35
-14
46
29
13
-46
-15
26
-23
-2
-5
-18
20
-83
43
57
-18
1
-42
-6
-26
42
-37
-53
79
46
53
9
-13
-19
-14
-50
-10
-14
53
3
-32
-62
-94
18
-11
4
48
-16
3
63
1
17
12
-4
18
-16
2
36
-21
29
-57
-81
20
27
62
-13
-37
-22
-39
19
-1
11
4
-4
41
-2
-7
-43
-14
65
59
-33
-30
-3
29
27
47
-18
14
15
41
-19
0
9
-15
-63
-5
-40
-2
42
11
-27
11
40
29
-56
0
7
-109
-84
-29
56
-1
-39
-25
21
-15
-27
57
-29
7
-35
9
42
25
-36
51
26
66
25
-19
63
-12
-26
7
15
-50
23
32
19
30
-2
-41
11
-64
-54
34
12
-13
29
-11
26
17
24
-45
4
17
10
37
-52
58
-89
-71
5
40
60
-60
-20
1
-20
-49
-15
14
6
-22
2
-42
69
24
-66
-8
3
-7
22
-127
127
36
67
-31
0
71
-14
9
-22
-91
67
39
-45
3
-12
17
-53
17
-13
-16
16
-21
-27
35
18
-19
-22
-18
14
22
14
-4
35
-65
-36
23
-62
-39
39
20
27
-20
-53
32
32
1
14
5
-14
-9
2
-2
-26
23
80
-45
52
-14
-12
-43
-7
-9
-50
33
-24
-11
-22
-70
10
4
22
-20
-4
0
-9
21
-22
-42
32
-2
1
-23
32
-21
17
21
-31
-21
45
2
11
-7
-17
12
-37
-19
-18
36
4
-18
-54
-1
-39
0
4
95
-22
12
8
-9
1
38
8
0
-12
-5
-62
-19
43
-36
-34
-41
-33
-23
54
0
-52
31
5
12
29
31
-23
32
-13
3
35
2
-44
47
-47
30
-41
99
7
2
-17
-31
-55
-46
82
48
-58
-17
35
11
-25
-21
23
61
36
-47
18
37
6
-25
35
-16
-44
13
-26
-32
-14
45
28
9
11
23
13
3
67
-15
-32
-53
103
-10
-34
-39
-3
52
-18
-6
6
-12
54
2
-18
-17
15
22
58
95
-25
-16
34
32
5
41
4
27
29
17
-39
-12
-72
1
-8
-15
27
5
45
28
-55
-5
-47
66
6
7
-10
66
12
15
-47
-2
76
-24
-6
16
-3
22
33
12
-25
1
33
-21
-13
59
-3
38
11
51
-45
-16
-47
40
12
-5
6
71
56
-11
7
-23
15
38
-19
13
13
-4
-55
-30
23
48
17
-16
37
35
-4
27
56
39
6
-29
-4
6
7
24
16
-3
-9
-28
-8
-76
-11
23
-4
50
25
52
-4
5
-21
14
27
29
-57
-4
-14
5
-5
12
27
-30
-50
-11
34
-27
13
73
6
30
22
-40
-10
-32
4
-21
11
41
-21
24
-35
-6
-34
-39
9
24
-28
-21
-29
14
0
44
-9
-15
17
29
8
-38
57
-28
-8
-40
-14
49
25
20
2
-19
-58
44
-6
-8
25
23
15
21
-17
28
26
40
3
-17
-55
-1
42
-12
25
-5
-68
8
6
29
-11
-21
55
12
-9
36
49
38
19
17
-16
-19
3
38
25
18
-24
-5
-21
2
2
2
42
21
35
-7
-33
5
10
-9
19
25
10
9
23
39
25
2
-15
-38
-6
6
0
2
-5
-21
-13
21
16
17
32
9
2
-5
-11
-2
-16
-20
12
-66
3
-17
27
-8
-20
43
-1
21
6
-16
15
1
-3
14
6
-19
27
-52
5
10
5
2
-11
2
-19
3
29
32
16
11
-12
29
38
-5
-6
10
5
54
-56
21
-15
28
-8
9
3
-6
21
25
25
36
39
18
36
-32
4
1
16
77
17
9
6
-64
-37
14
22
-24
-9
36
-14
16
21
-46
-30
-10
60
127
-26
-18
19
13
-3
7
39
-30
16
-11
-5
6
14
-53
21
-34
-35
-7
6
38
34
-4
-6
15
4
-12
-1
-29
-15
25
3
2
-2
48
9
24
-69
2
-7
27
-27
41
-28
23
-45
-11
-13
33
21
4
9
-9
6
-3
6
35
-16
2
15
-15
-61
22
-28
-27
-32
44
-45
-22
21
54
3
1
12
46
-32
48
-60
10
-20
-19
-19
-7
-2
-28
-13
36
-8
-1
23
-13
52
51
-68
1
-27
1
-18
16
53
-17
-78
-39
-7
-51
17
-44
39
-25
9
52
49
15
29
-65
45
-37
6
12
16
-3
-71
-84
-2
83
-11
39
60
-33
32
71
-16
-51
3
8
43
10
1
-40
-30
62
11
-3
-78
10
-33
-47
30
37
-48
-32
22
-21
0
-55
-33
61
9
79
-16
21
12
-83
-21
-9
17
-25
3
6
60
36
-14
-8
16
23
-16
-5
32
-34
-35
3
-29
6
-27
-23
-26
14
-29
24
30
17
22
-30
59
-36
20
-8
-36
14
92
5
-21
14
5
37
31
-3
-20
-35
-14
29
27
36
-6
7
36
-13
10
-2
14
7
26
-11
-6
28
-38
12
31
-7
51
-3
0
18
36
-2
-15
19
7
22
21
20
21
9
-25
-63
31
3
-7
7
8
20
14
24
9
-16
-26
-8
35
17
-4
-21
-30
-18
-27
-37
5
7
-48
-2
0
-9
-12
-1
-2
-10
-4
84
14
-54
-48
25
42
22
-29
6
-89
27
3
27
-40
-30
39
61
8
-15
55
36
8
2
17
-37
-30
28
-18
-8
1
-7
-35
-5
-54
-16
47
12
12
0
-14
-53
2
10
41
7
-45
55
-21
-12
27
-52
21
-26
14
54
10
-1
-52
36
6
1
6
-29
13
-10
-24
-18
-10
-21
-14
9
35
-7
-13
-28
-22
-26
-15
20
32
13
12
-21
-1
-2
-17
-17
-35
-22
5
-13
59
-33
-50
-14
-19
-45
1
14
-45
-2
-21
7
50
39
-19
-15
47
-5
1
5
-61
14
18
-13
22
17
16
3
-16
5
-34
-38
29
21
0
34
-15
-22
-12
-14
38
-1
0
48
-2
22
-11
6
-39
9
-14
78
-2
6
-9
-5
10
20
-18
-17
19
10
60
-39
-5
41
49
27
-19
-30
-6
59
-16
47
-5
-14
-6
14
-23
-6
23
30
42
14
-18
-62
39
-11
-21
17
14
-3
4
-8
32
-35
19
-4
-9
39
9
-15
-75
17
13
-7
-41
7
21
-12
65
-19
51
-17
22
-27
43
-2
-36
-29
56
58
-26
10
-27
-30
6
-16
-21
13
46
-6
-4
49
-19
15
-11
-22
18
-21
11
8
45
0
-42
35
-8
25
-7
-34
36
-48
-13
45
-6
-5
3
-13
-8
17
17
-15
23
2
-13
-76
20
-12
1
-18
32
24
25
22
50
-46
4
-6
20
60
-29
39
-1
84
21
-17
-7
13
11
10
-13
-31
-36
23
19
-2
-32
-24
-31
11
-23
-54
51
-64
-4
-13
-2
-13
54
29
-32
3
21
53
-3
-26
-57
-31
-29
-3
-1
-13
7
55
-48
18
16
32
11
25
-26
-6
-29
50
-27
4
-24
-36
7
-26
-5
-25
-35
14
7
4
-11
-6
7
4
-20
-32
32
-39
-41
3
-7
-22
-13
-18
12
-49
3
-9
-18
-6
20
-16
-15
12
-13
-9
-38
8
36
46
-3
-39
-33
21
-25
-7
89
7
-21
-60
-1
-9
-7
24
-93
16
-3
-42
-20
7
-24
24
-49
49
-44
-29
50
-69
-6
-31
-7
-9
-12
-27
-13
15
-5
-10
0
-8
-19
0
39
78
0
-13
7
1
-5
74
-9
-23
50
-6
9
-51
-11
3
-5
12
-2
-28
28
-24
38
-16
-62
-20
18
-6
-25
-24
-27
17
18
16
15
6
26
29
2
29
-10
55
-5
-21
21
26
-18
11
-7
17
39
12
-32
-3
4
-3
39
24
-52
8
45
-18
-35
-14
-5
-5
-27
9
24
34
-18
-32
-32
24
-40
21
-28
-41
-1
41
24
-7
20
-6
6
-4
56
-1
17
-60
89
54
16
2
32
-14
20
59
-46
19
76
19
-8
-7
-39
4
5
-12
4
-35
11
-6
6
22
8
32
-14
37
5
-19
51
12
-20
11
22
13
27
26
2
20
-28
-2
5
10
8
-26
21
16
16
-27
3
-34
29
-6
55
-37
-5
-8
11
57
13
-41
-32
28
112
-46
-98
6
14
36
-49
-10
-16
-26
0
-1
12
-40
47
71
-61
-4
36
62
-35
21
-78
39
-94
-8
19
-14
-12
28
-8
88
-76
75
-13
-4
-45
-7
-6
-88
36
106
-101
24
56
-73
-58
1
3
70
41
-79
21
-12
35
4
43
-27
13
28
-2
9
-61
43
23
6
-59
51
-7
-31
14
47
4
-28
93
-5
-9
-4
-38
27
27
54
-3
4
-19
-9
-33
-45
-5
9
10
10
-18
-24
-26
27
-34
-32
15
-4
-16
-22
-36
-21
28
-2
16
-19
-37
39
-25
10
27
17
-57
-31
-26
-58
-65
-76
6
3
-54
10
-20
-16
-14
-32
58
62
-21
-21
53
7
-39
8
53
-27
-11
-56
8
36
7
2
36
21
11
80
-13
-54
-20
8
2
78
-16
10
-21
-9
10
-14
45
7
22
-32
1
-11
41
-39
-9
-16
24
63
2
7
-23
-12
-25
42
46
-6
-14
-23
21
36
40
9
-44
45
9
3
-5
39
11
-29
-32
7
-11
-2
-64
27
-22
-9
-7
21
0
2
-1
1
-10
2
9
-58
-51
74
-13
-12
-17
24
-53
9
34
22
57
16
5
-1
29
-50
18
19
-8
56
-39
-3
40
31
13
-16
6
69
4
6
0
11
-62
-40
-12
-22
24
-53
3
25
10
5
-14
18
-28
-38
-9
-5
11
-15
-11
-4
47
-39
-36
-23
19
-60
-13
4
12
2
13
-13
-41
20
32
11
37
19
22
21
-2
-40
25
10
15
-11
2
-4
-32
-23
46
0
6
-33
14
-19
8
-10
23
-24
-10
-58
17
-11
21
-94
52
-25
-31
39
-54
-21
-28
-7
-58
10
12
-8
3
-59
-25
-2
5
-11
-54
27
13
-5
31
34
24
-17
33
-23
-37
8
4
22
-9
-15
9
-52
64
46
-31
-34
-36
-4
55
-5
-29
-4
-27
-4
47
6
39
65
-27
-8
0
48
-11
5
2
15
-14
-50
-15
-7
9
-56
-23
10
0
25
-9
44
18
-24
61
-10
-6
-7
58
26
-34
-13
37
20
-11
15
11
0
16
15
52
11
24
-17
68
-11
32
43
29
6
-83
-16
9
-33
-1
20
23
29
-11
-2
26
-20
-25
-9
27
-28
46
-4
27
-31
-2
71
-13
7
-2
12
10
33
-12
-23
-2
36
-4
-57
-37
6
-39
-23
-10
6
0
12
-8
31
45
-2
-4
10
-14
26
1
3
8
-47
36
32
-18
-30
-2
15
1
-10
-47
-9
-3
46
7
-9
27
-37
2
28
97
-49
-46
-14
-56
57
46
13
-28
62
-24
-11
17
-35
-29
26
63
-12
15
37
-30
-10
-28
-38
44
0
-36
-26
-21
-42
34
16
28
0
54
30
-31
-18
-6
-4
-22
-27
12
52
10
-28
-3
-18
-43
64
0
44
52
14
10
5
33
42
-30
30
-10
6
43
-30
4
10
5
10
-5
0
-35
8
-14
-1
-24
70
-8
-2
7
3
-48
23
-73
24
-28
-16
12
-60
24
-52
24
70
-15
-11
15
-18
-11
21
27
-26
-54
59
64
93
-1
-77
-8
4
-29
74
98
60
58
7
31
-9
33
-35
-6
-17
-8
-33
47
29
-23
65
127
-61
-17
-54
24
30
77
-54
-64
21
10
9
36
-84
-8
33
5
-92
15
-15
-8
-46
2
-12
-53
-30
-37
-98
-51
13
-20
-8
-11
2
-6
34
84
15
2
-9
62
31
0
48
22
27
0
39
-26
41
57
62
-26
-98
44
-66
-10
33
6
-71
-46
-8
-43
-4
-3
-12
4
-5
18
-11
-5
3
-23
-4
28
-12
-6
19
13
-3
18
-19
-43
-18
-1
-37
40
-24
14
-44
28
9
32
7
19
59
20
19
23
30
-13
-43
18
16
11
18
16
-10
-49
-33
-55
14
-6
-2
63
47
-8
-37
-4
-28
27
20
42
-23
11
8
7
1
-8
21
-5
-9
6
-24
28
-1
-40
-60
-17
55
-2
-11
10
-1
-13
-29
-19
-17
17
-13
-7
-46
31
-7
-5
-35
-44
6
-78
70
-26
3
0
15
32
-3
34
-72
13
-48
-14
-30
90
8
-9
-3
-17
55
90
42
-54
2
33
-12
54
-14
61
34
-36
29
-10
-12
-88
32
-45
114
20
28
-9
-43
-1
15
43
-1
-49
-54
-9
39
16
-26
-8
-20
-24
18
63
-19
22
-11
15
100
-19
-11
19
-17
4
24
-6
-22
-24
-39
-7
6
-24
-42
10
-15
14
-43
73
-28
-7
44
-27
-70
-28
-52
8
86
-49
6
6
34
-47
10
-46
24
18
-27
-7
23
2
-28
33
-23
-60
-21
-26
15
47
48
-53
13
15
30
-9
-20
-1
82
19
-42
-12
-27
-6
-13
4
13
1
-21
-10
-4
-18
78
-33
38
-22
14
-23
-11
40
23
61
-11
-14
26
0
-14
65
4
-44
-1
-15
-5
-5
-69
-24
-8
11
37
55
14
34
-1
22
-58
25
-6
-3
11
28
66
84
-7
-22
22
-5
12
-7
13
37
-43
-42
27
58
-26
32
20
61
-53
-47
0
26
-69
-12
-4
29
-19
-24
-127
-41
-13
29
-18
5
63
14
5
-12
-12
110
-17
-2
8
-28
0
-20
-28
-30
-85
-21
49
31
-6
-56
-8
8
-63
-66
-101
-11
37
70
47
32
5
-4
-8
24
37
-63
7
-19
-11
9
10
-31
53
-27
14
-21
-38
24
-7
-127
-30
-33
-74
-3
-19
-42
-23
24
71
-23
-9
-3
-15
6
23
5
57
61
99
-33
-87
-12
3
-48
-56
-31
-31
1
-127
-15
4
-43
44
22
47
12
31
-9
12
43
-5
-2
1
81
-3
-44
8
9
-35
-6
-50
-36
32
-11
59
-3
-22
-23
78
-19
-18
41
37
-31
14
76
40
79
4
43
-29
-40
-8
-5
-4
-2
-40
27
15
3
-29
-4
37
-2
-1
-11
18
-19
-14
-30
3
-3
-85
11
2
-2
-7
-4
33
-21
-3
-1
19
9
7
18
-12
7
55
-11
16
26
23
-36
-22
-20
24
11
-12
-5
-17
-9
-42
4
-2
6
40
-78
-13
16
-41
21
33
-17
-12
-2
42
-5
19
-15
4
7
-24
20
19
35
20
-14
-18
3
86
-10
-18
-9
12
-8
-6
-29
16
-103
-12
-51
-56
12
18
-4
-13
44
52
-51
13
14
-13
-13
-33
46
-41
41
-16
-17
-9
-7
-43
-5
47
35
-11
-1
5
4
-10
68
28
-20
24
-15
-29
51
-43
6
35
67
25
50
-10
-15
3
5
-3
9
10
-3
19
-42
55
-69
16
23
52
30
-10
15
21
-4
-28
62
-26
-25
31
-1
44
14
81
41
-15
11
-3
-63
1
25
-2
-62
-6
-4
-46
18
-5
-102
53
17
10
-8
62
-26
-40
12
-62
-54
8
30
8
-14
48
35
-18
-56
34
3
2
17
-44
33
47
8
22
-32
11
-7
38
31
11
-2
-37
14
36
26
-41
69
-20
-29
42
19
49
35
18
28
0
74
0
-3
26
26
-20
-29
19
3
-99
9
-10
-47
23
-8
-7
-4
36
14
21
-29
29
-20
13
-29
-23
3
57
-48
-16
27
20
-29
74
92
-29
2
-15
-4
13
-19
40
-59
-1
-84
-88
48
30
10
69
-2
13
41
2
115
-9
19
-60
76
120
-34
-9
-10
-7
-64
-30
17
9
68
-14
41
-85
-58
-11
9
57
2
-3
47
15
55
-2
56
-28
-17
15
-6
59
-23
65
14
-27
-5
1
-27
-1
-62
-3
39
-33
55
-39
-22
25
8
54
103
3
-20
-16
63
-65
-18
-14
-32
-18
-2
-10
-22
26
-16
-76
24
-14
14
72
-4
44
-2
56
-30
12
25
5
45
3
-65
-19
31
-54
-58
42
-24
38
4
19
-22
47
15
3
-15
1
-11
11
84
-9
30
28
-7
-8
50
39
77
-67
-22
3
-5
9
-2
-5
10
-17
-32
49
-15
-41
94
-7
-94
-20
-44
-10
-8
30
-89
-15
-12
2
85
6
-48
45
-28
35
-14
-11
30
42
20
-14
-21
122
14
76
33
-59
-11
23
26
-16
43
-26
59
20
43
50
55
-1
-22
11
-18
-48
23
-25
-25
11
-42
-5
0
12
-15
-50
-25
8
19
11
-22
14
16
-24
73
-19
41
-39
61
31
31
22
15
39
9
-21
7
-16
-27
67
-5
12
6
-33
11
-14
26
52
31
5
23
2
-8
77
-10
39
-43
8
-27
-3
-20
-6
16
-13
-29
-16
-4
27
-13
-26
-10
-12
15
-46
-35
37
54
94
-7
21
-13
10
-25
-14
-13
-45
-18
7
-1
98
52
8
-1
82
14
-28
3
58
-5
10
-1
89
30
60
-19
37
-98
5
103
-14
1
19
6
35
-43
11
26
23
-30
-20
-2
51
-10
33
-40
44
7
14
-13
1
31
11
-18
-18
6
-18
34
-6
11
40
1
20
67
4
14
48
-112
34
-27
70
-8
48
-4
19
-31
35
49
-47
3
31
58
26
-14
10
-5
-8
6
-21
-53
20
35
23
55
16
-17
31
21
19
17
3
4
27
-32
-10
24
-101
2
36
-72
42
64
-30
-74
2
2
46
1
10
8
-40
-9
-6
-50
-13
13
20
23
-33
-23
2
9
-4
-21
15
-19
-53
36
-8
23
-35
-15
14
-18
5
-12
13
15
33
33
-4
-86
21
41
25
-2
-21
-20
11
14
-28
0
-10
-69
19
-3
94
-15
30
-4
-11
-17
22
11
-32
7
15
-34
5
-3
28
-3
-18
19
-7
15
-47
-31
43
-28
-4
-7
4
13
23
4
9
-4
20
-20
11
-16
-11
4
46
-30
7
34
-9
-5
20
-8
-13
25
2
41
-49
-23
-13
22
25
-24
-2
24
8
21
-34
-7
5
-11
5
8
51
-28
47
-5
22
-6
-12
-12
-28
9
26
-68
-47
-16
17
0
-23
65
-55
14
-21
8
1
-17
-3
13
0
9
0
-11
30
6
55
48
30
-22
19
47
-24
5
19
-11
25
-7
-3
-35
-2
6
8
32
5
49
-15
-18
22
-7
-24
-3
25
-14
-28
13
-11
-32
-6
-3
-8
3
-2
47
28
3
-26
22
-65
-24
-35
-28
-32
-21
14
24
18
-8
4
15
-7
22
25
14
21
13
23
85
-20
29
-32
38
-72
22
-4
29
40
63
39
10
-26
-32
8
-6
-11
-27
-7
9
38
-24
9
3
33
-2
-59
40
17
-28
6
-24
13
-19
-40
-37
-12
4
18
2
-16
9
-24
-9
40
10
10
-15
8
-8
32
-44
36
-18
13
-53
13
-23
37
18
-4
-35
-23
5
4
27
33
-22
43
38
-14
-58
45
41
52
18
25
10
-12
9
33
7
8
-28
-18
4
67
-7
-7
-6
29
-20
27
69
-6
23
-38
32
46
26
-11
6
-25
-27
43
-80
-18
37
-9
58
-5
-13
-53
11
-7
51
50
3
-24
1
14
-12
-49
-24
-29
-56
-22
-9
-7
8
78
53
-15
38
-13
24
28
18
-3
-12
-4
50
4
-18
40
-42
69
-20
0
-33
16
25
33
23
-4
29
18
19
31
15
-57
30
42
65
-25
24
-12
1
-61
46
35
-16
17
-33
4
-44
44
11
12
-15
-2
33
8
-27
-45
42
-15
4
-33
-31
-29
50
78
9
-4
-43
25
-40
42
-49
7
56
-53
31
-16
-29
16
-10
4
7
53
-1
5
-8
4
-28
-2
3
1
38
8
-28
-15
-30
-20
27
-22
7
40
14
28
25
59
19
-75
-27
-6
7
-33
-40
9
14
36
32
18
12
91
-53
6
12
7
127
-6
-3
-38
-36
-9
-44
-43
-23
3
-24
4
-35
39
52
10
-17
-17
-30
21
40
-7
-44
-3
9
-2
4
5
6
-26
-25
-11
58
37
12
34
-52
19
-31
-51
61
-28
61
-7
-86
-21
45
13
-34
-31
84
63
11
18
5
-42
-20
12
-87
44
75
-7
41
18
-58
-2
6
18
-14
-6
21
47
39
-32
-45
15
9
91
-23
35
35
-13
-27
18
-3
-20
-7
7
18
43
23
12
10
12
-21
16
-27
-5
11
34
13
-2
26
18
9
-66
25
2
9
17
-28
7
-12
41
-8
-29
-44
-35
19
8
-20
42
21
20
-75
30
38
-26
-56
16
19
-20
50
18
40
-92
-71
-8
-18
-34
44
-13
4
-49
83
24
-55
-11
18
-38
0
-53
-16
15
3
-52
-31
12
-21
30
0
44
18
-10
7
-66
5
-26
-33
16
-4
-22
49
-23
14
-20
-24
-41
-16
8
1
57
-8
27
3
-6
-1
46
24
35
21
45
8
-6
-4
35
-5
23
4
-36
5
14
6
9
28
43
-29
35
-33
56
17
24
24
14
46
17
73
-10
50
2
-40
-69
-56
-32
51
-1
22
74
15
-34
4
-57
12
-30
-3
76
-35
-5
48
-41
-20
-45
-1
-66
5
-10
20
53
-96
26
-40
8
-1
-39
-1
-18
23
25
55
29
-36
14
1
82
-61
8
14
8
18
-7
41
-8
-44
23
58
0
34
5
26
-87
-39
12
30
36
53
2
3
-31
9
2
32
29
57
6
12
19
10
40
-13
60
-5
6
-12
15
-4
30
45
13
-51
-58
22
-16
-4
-28
41
2
-24
-8
13
-16
-13
-8
-3
2
29
26
-73
3
-27
61
-24
-58
27
4
-56
26
-3
46
-15
-1
18
-18
-36
53
22
-4
44
-5
-19
5
14
-51
2
-20
-6
10
-37
19
-28
-29
21
4
-8
-33
18
-2
-5
28
-24
32
2
20
3
4
8
19
22
-38
-36
16
-41
-14
43
28
-34
-16
7
10
43
13
-39
-5
-20
-12
32
23
-12
-15
-37
-23
-20
31
-1
21
15
18
-15
16
41
-12
8
-2
35
-32
28
16
-38
17
26
-30
-16
55
43
-52
41
-34
18
25
45
7
47
-27
-78
-20
58
8
-6
29
-6
-24
0
-36
38
-3
9
-41
-29
37
-21
-53
52
-28
5
4
69
-9
-18
0
-26
49
1
36
3
15
9
-10
-16
17
5
21
-36
-1
-15
6
-29
23
13
8
-10
26
24
4
0
-16
14
32
20
11
0
20
-50
-4
1
-5
16
-34
15
-2
-52
47
50
43
-14
26
-14
-24
-73
-33
-56
-22
-59
31
-2
-7
1
-24
-16
-10
6
19
36
-4
28
-23
11
-23
75
-12
-52
-26
63
6
-1
17
-36
37
36
-28
-5
27
3
-3
-8
0
-1
-8
32
28
4
32
15
-44
36
-46
22
15
15
65
-2
-14
61
-37
38
21
-9
6
17
-26
-62
30
-6
-40
4
3
-7
-28
-4
-8
-38
-19
19
9
38
-10
39
-3
1
-30
17
-34
-3
39
12
31
-20
15
19
-18
-36
-16
-26
0
29
-39
2
-27
-45
-33
-50
35
-16
14
-2
6
3
-27
56
-34
28
-24
29
-26
27
-10
69
-28
18
-6
-28
-18
44
26
18
50
-53
27
43
27
5
-5
-19
26
37
27
-19
25
-12
-21
-4
-5
20
17
34
70
25
-9
56
-11
5
-10
8
20
18
52
-30
10
16
-26
-27
24
24
-61
29
8
-10
-13
2
-24
9
-3
13
-33
28
2
-17
45
30
17
9
8
19
55
10
9
20
-64
43
-7
26
-16
-20
11
6
-56
-16
-19
24
23
-6
15
37
12
4
64
-43
-41
75
4
2
-2
-9
-5
-11
-6
28
-3
-22
10
53
21
93
-4
22
7
-1
8
36
10
-4
9
-19
34
-17
8
-25
-41
-46
-38
-27
-45
17
-15
-4
70
2
13
-2
-22
8
47
23
-80
-25
11
-2
8
36
-21
-9
-16
-38
12
-36
-70
-58
18
11
36
-3
19
58
52
19
45
-18
25
-27
11
53
26
48
-39
41
-60
-25
0
-108
33
46
-8
-78
15
-32
111
55
31
-23
-15
-18
-35
15
85
-39
9
-6
-32
7
-36
-4
-29
-38
48
66
47
19
48
-12
-12
-34
16
33
87
-30
-41
-41
5
13
54
-5
-7
-2
4
-76
15
-17
67
-10
2
26
55
38
34
-5
21
17
4
-62
-17
10
-7
47
-127
11
93
-22
32
9
9
34
-42
26
-52
24
91
43
-8
24
14
0
19
-74
-16
-41
-31
122
20
-19
5
-12
48
6
0
6
-3
-7
52
-44
10
95
35
-39
-62
17
-23
-71
50
33
14
-43
-12
-24
-51
57
-53
53
89
12
-10
53
-44
-67
-44
28
-17
-53
-57
-105
-10
31
26
56
-6
-18
28
-6
-72
15
34
-72
51
-7
-30
-21
11
10
-31
40
-18
4
-41
23
9
14
-24
50
-10
-19
32
24
-1
-50
3
14
21
26
-74
-30
-7
18
7
14
-16
9
18
18
9
-41
-6
18
-4
-7
-29
-27
-33
58
-47
-26
-3
3
0
-42
-11
-22
-32
30
35
72
46
43
-12
-11
103
-15
-62
64
2
-78
33
-20
3
-34
21
51
-5
-34
-38
17
-17
51
4
-4
8
7
-29
38
31
25
14
-10
47
-1
26
-23
-35
-54
-3
1
-9
-12
-20
-45
37
79
70
-8
-23
5
29
-69
-25
19
-32
-46
-39
18
8
-41
-19
-33
36
5
84
-14
-15
18
-15
25
12
51
-6
-27
-38
-75
8
-17
-4
59
38
11
26
-19
8
-40
25
47
-6
21
36
22
13
-6
25
11
15
28
31
-26
52
-11
13
-101
-2
2
-5
12
-1
11
-33
6
-2
57
-26
39
-2
-12
72
8
3
-45
10
13
66
-7
22
14
6
5
14
15
5
7
50
48
-47
-15
-12
8
-20
-4
-24
-11
40
8
36
13
55
31
-26
44
-43
-26
-19
8
1
-12
-9
-2
18
-14
-35
26
-76
-43
10
17
-5
0
-46
29
45
4
-25
8
13
-20
-1
-10
8
-21
8
-69
-17
-7
-7
-74
-30
8
-83
-23
-3
36
-46
18
20
-3
-89
56
17
-44
3
3
51
-53
-32
-5
10
-38
-14
1
55
18
26
-21
20
-17
-2
-16
16
55
-17
8
-9
4
-9
24
82
4
16
-14
-11
24
-26
6
45
-25
19
-5
-45
20
-26
42
9
-24
-3
-13
45
5
-51
29
1
-12
-19
-8
70
-37
33
9
-81
9
17
-32
76
14
33
32
32
-57
12
-9
-9
-28
-19
54
28
-23
-46
27
48
19
-73
4
-53
36
-31
-32
-14
34
-20
35
12
59
-40
37
112
51
-35
31
-58
45
-15
9
-3
-33
39
24
19
-8
-47
30
-53
-32
-26
98
35
-23
26
10
85
-16
-34
-50
-11
-35
13
34
5
13
21
60
-17
-32
25
-34
-75
-23
-2
37
-56
32
57
-41
25
37
21
-15
-22
-31
-21
7
-59
6
24
23
80
36
-41
56
4
28
-20
15
-45
59
39
-89
19
-12
-16
86
-14
33
59
45
-96
-64
3
-32
-61
15
101
14
-9
-22
9
-27
-7
127
-42
-23
22
28
-8
65
3
29
-1
66
-2
-53
-78
-36
-18
44
39
-38
-51
15
127
22
-8
-34
13
35
-8
-19
-18
93
-18
126
39
20
57
9
-29
-70
-20
-49
8
4
-127
-7
51
-36
30
15
-14
44
3
-11
13
5
8
5
-7
-14
14
-37
-31
-24
100
-31
0
80
-66
47
-39
-29
39
-31
-45
11
4
-19
-37
-17
-27
-62
29
-5
2
3
32
27
1
10
27
-25
27
-12
-40
77
-60
-16
-5
-36
-16
58
41
0
11
-44
39
-5
-1
7
-42
-4
36
-47
-41
1
-3
16
72
-4
0
23
25
17
-65
-2
23
0
3
-21
23
-4
-19
-6
-18
-52
-13
20
-7
1
21
8
-11
-70
41
14
-14
-45
-4
-11
24
-20
9
15
-3
-13
-38
-7
6
-7
47
13
-2
-33
12
7
-21
48
-2
-32
-9
-7
-29
11
-17
5
-24
-22
0
12
-33
33
15
7
20
-7
64
42
-24
-2
39
26
2
-23
6
-7
52
20
-12
23
-4
32
11
34
50
-2
-28
15
59
82
7
-27
12
-33
11
-34
44
-17
-6
14
43
23
3
20
33
46
3
-2
3
15
-10
-34
30
-21
12
-4
6
6
18
34
-4
21
-7
20
-31
22
7
-26
-2
-12
-23
-14
-46
0
-23
13
80
34
8
12
-58
-55
-37
95
97
40
-3
-20
76
-21
39
26
13
-61
-11
20
-65
-63
18
13
15
-21
-58
56
-48
36
7
51
-3
24
-8
15
-83
40
15
-27
7
29
16
37
42
-5
51
-28
34
13
-38
-4
-27
6
-12
46
-17
12
-5
-8
22
-3
26
27
-7
-59
61
-37
11
52
39
57
8
27
32
26
2
-15
-6
10
34
-18
-37
8
-32
17
-28
-40
-14
60
83
-8
-31
-6
71
34
15
-6
56
59
-66
22
45
-49
37
5
-20
-48
29
-1
-37
-36
2
15
-21
27
-72
-20
35
-17
-57
-9
-29
22
15
14
12
42
-47
26
-26
-11
-55
-22
24
-41
-10
33
6
1
58
18
63
17
71
-23
-8
8
-50
-19
-35
1
4
-14
0
25
-9
-21
-57
16
-12
-51
-56
-5
11
24
-2
28
23
7
25
0
-35
-17
65
-6
2
-30
-7
69
51
25
51
5
36
19
13
49
53
-10
20
-19
-43
7
42
86
-101
-3
23
-26
2
5
-15
14
1
-24
-53
-30
9
-47
-4
-29
12
4
-12
-12
-63
-4
-8
-22
14
23
57
-22
-50
4
-25
30
28
49
-86
-41
-27
-13
-38
36
17
-16
-18
47
66
25
50
12
-31
-8
66
9
-11
11
19
6
29
-26
29
6
10
52
-23
-127
28
18
0
23
-32
19
-13
16
49
-15
7
21
7
-35
50
-8
-40
45
11
-29
2
13
-36
16
-5
47
14
-44
-39
-28
5
4
-45
-57
56
34
37
30
54
-127
55
-79
-18
94
-48
-10
18
16
-2
74
13
-120
-10
1
-88
20
70
-15
-97
21
-25
56
61
97
63
24
40
-56
-26
-63
-8
43
5
12
-63
12
-119
88
15
47
-45
-65
53
-32
-33
64
26
-2
27
127
-53
-29
-79
16
-29
-22
-127
-16
89
46
-40
59
-127
27
-14
-8
-85
15
22
-45
8
18
55
-10
61
-6
-5
-63
35
7
8
-84
41
-25
1
-14
13
-95
-6
-19
16
10
19
32
-39
26
55
6
-38
-43
8
-46
-14
38
31
-27
-18
-34
17
34
-47
30
76
51
19
6
-42
4
1
-10
-10
50
-18
-83
8
12
-1
26
62
-18
-4
71
53
98
4
44
-52
29
-5
-10
22
-20
-14
19
-74
-16
-15
-35
-15
62
11
-41
-39
-50
6
10
-49
-41
5
-76
2
-3
-27
-37
-6
-16
-38
-49
59
-31
30
15
1
54
-14
-8
-41
-53
44
-12
-87
-70
-29
15
-119
1
27
-7
-9
-49
61
45
-4
2
-8
-37
84
-63
-37
12
29
-10
-90
-16
-21
74
-9
-112
-14
33
-44
49
-10
66
18
76
45
58
36
33
-14
69
77
8
8
-36
13
-47
-32
-39
-29
50
-54
-28
-45
25
-9
20
-15
-24
44
3
38
29
-4
-66
-40
8
-30
10
22
-4
12
-29
14
-23
-62
-2
24
22
-47
2
53
24
25
28
-28
-43
45
-23
25
-9
-13
6
-4
19
99
34
3
16
10
111
-21
21
4
-19
-20
75
-80
-16
25
-37
-20
8
-7
-69
5
17
9
-71
-12
51
-37
-45
50
-4
-50
-17
-31
42
-37
104
17
14
-46
25
-4
52
-20
29
21
-38
33
52
-34
-60
4
-29
5
-35
-33
-10
-78
53
-3
-50
72
-10
26
37
58
1
-18
-20
26
-14
-13
-6
7
-18
-17
20
22
5
-4
-16
26
65
18
-41
45
-8
-16
15
-7
13
-2
-19
47
-23
-26
-49
55
31
-3
0
5
-41
21
-17
-34
-18
1
21
7
2
-14
10
4
-55
39
-63
19
21
8
-7
14
66
-8
0
-7
49
26
18
-31
41
-5
-126
-11
-41
-108
12
50
-51
-37
31
-41
-9
12
23
4
-24
-11
48
-9
-18
-16
-6
14
11
21
-10
-1
27
35
-60
-10
-27
-41
74
21
25
9
-49
0
-27
42
-38
-10
13
-10
-19
0
25
0
7
22
-20
83
4
12
5
-3
-10
16
45
23
21
-9
-22
57
-29
25
-9
-1
1
-27
-35
-41
-86
-63
2
-32
24
-12
73
-9
-72
9
-5
-7
-72
2
78
-15
-14
-20
35
-64
4
-22
-16
37
23
-35
20
3
12
-8
-38
48
-3
-21
8
-65
-33
40
-38
-127
-17
21
24
15
-45
12
39
-46
10
-85
-10
41
-45
14
-16
72
-6
22
9
-7
-14
25
5
14
-21
5
15
-6
-73
-29
-11
11
-14
17
15
16
37
-3
5
59
-12
-56
-10
65
-10
78
-38
8
50
9
8
-22
-65
-57
67
57
39
-14
-18
1
-79
5
-49
-91
-89
-26
21
39
-45
-36
-3
66
-59
50
-64
126
-85
-1
61
20
20
55
5
29
45
47
-10
66
34
-75
12
-72
86
-14
81
21
-13
-37
82
52
40
12
30
-87
127
-33
46
4
-8
-3
-70
55
0
-14
-24
-11
46
-11
-127
-29
-20
77
-94
-69
-24
-5
-17
-53
-110
-19
0
-33
58
-14
31
-45
-64
35
1
-20
42
62
40
-6
-44
-88
-38
28
3
8
5
-34
0
-3
-10
-68
29
4
9
14
-1
-28
11
18
-36
17
21
31
-21
-44
1
1
-16
-74
-27
46
31
24
-56
36
-43
21
62
-42
1
-16
-19
6
14
19
6
7
15
29
-28
21
-42
-1
-27
-7
-10
-1
-25
8
-9
-36
-14
-44
35
-10
-85
28
-48
17
6
-44
19
-6
-8
-13
-49
-2
33
14
29
-27
2
24
-12
117
-18
28
-32
14
16
2
34
-43
31
-28
40
82
-34
-71
39
-93
-11
-28
29
48
-29
12
-32
16
23
10
-31
24
34
10
-50
29
12
122
-77
91
3
21
-1
-28
47
-29
60
-48
-31
1
61
-9
-58
-9
78
7
29
19
20
-77
116
-11
47
-39
99
12
0
3
-98
4
-44
45
17
-57
29
-42
-22
-2
-66
28
-34
-3
51
-37
-13
-8
-29
-22
-24
-29
-25
-3
-50
-82
15
-51
18
-12
74
-43
-14
58
-6
13
-34
20
-19
45
34
-4
61
-66
-26
44
12
-2
33
-4
-57
16
8
-8
-10
37
-21
-26
-40
18
-21
-21
24
-2
-41
-22
4
-39
10
-66
-10
-40
12
19
-84
1
31
-17
-12
-13
-39
-38
2
-8
-27
-56
16
-100
-18
-52
9
35
79
-28
-112
-50
1
-4
-3
12
5
-62
4
8
-6
7
4
71
15
7
19
0
-57
21
-10
-6
9
-53
8
14
-29
69
11
-7
9
11
-10
24
34
26
-22
-9
-17
25
1
-13
69
12
-77
-14
25
-15
-25
0
6
7
7
7
35
2
11
-55
7
8
-39
7
-6
-1
-5
39
2
60
20
-23
-19
11
-37
-35
-17
19
37
-2
3
-4
-7
-39
21
0
-20
17
1
22
8
6
19
-3
-1
-8
31
4
-16
-7
-8
17
-37
-21
-39
12
-22
-19
3
16
-11
-11
0
1
-28
2
-15
2
10
2
-3
-17
-5
-4
-20
0
31
2
9
34
-25
3
10
-23
10
-32
22
-1
21
-18
12
19
21
-22
36
-27
-29
22
16
-6
33
23
-15
-16
-1
-6
14
-5
7
-8
-43
16
-20
7
47
-35
-32
23
10
18
18
17
-16
-42
80
2
3
-25
38
13
-56
9
15
36
12
-19
8
26
-12
-6
22
-21
8
-33
-33
0
29
-4
-17
15
-5
18
5
16
-14
45
-17
5
9
-33
30
33
3
46
8
-30
-1
2
59
9
16
5
7
47
-21
-1
41
-6
2
-27
11
38
-19
-6
10
-42
-19
-12
3
-35
-30
-23
-38
-28
7
15
28
-53
5
-53
9
12
34
-17
35
42
54
-15
56
-14
3
25
-40
-41
-4
-36
-20
13
-18
30
18
5
40
37
57
-33
7
12
42
6
4
-22
-19
-41
30
13
-54
-12
-21
4
-23
32
24
-5
25
78
-3
-23
-15
21
-10
-12
46
-14
45
35
-49
1
-44
4
-5
-19
50
9
37
24
19
-55
-10
37
-49
-10
9
-81
-33
-58
44
-32
-16
-44
-85
-14
38
-28
-35
30
20
22
-39
-6
6
10
-58
30
33
-12
-17
65
-53
13
2
21
-13
17
16
-19
27
-8
29
2
28
8
-41
12
-13
7
-62
1
-40
-95
-18
-63
-46
-25
4
10
-16
-33
16
-50
-32
15
-23
1
-24
39
16
21
2
-26
-13
-36
-5
-29
14
-17
-12
65
29
-6
11
3
29
-4
-10
-3
15
-2
1
-50
61
16
62
-16
-15
-89
-2
7
-1
18
-46
36
-9
-5
-12
-52
-6
-87
-2
-18
5
-36
-45
29
-13
-10
24
25
15
79
19
-19
67
-20
-12
18
-24
7
60
-7
-67
-32
-31
56
36
10
18
8
-72
-33
56
53
-25
1
-19
-16
-48
-14
-54
31
-56
-10
14
-34
-9
43
1
-16
-25
-13
-24
7
-3
9
-49
-14
42
20
16
-26
-3
13
-9
-27
9
55
8
16
-52
-5
8
35
-7
1
23
-10
-30
6
-27
6
56
-41
-4
57
-34
20
1
-6
14
5
8
-39
-2
22
28
-15
50
-10
11
-21
21
16
-3
26
-1
66
27
-24
53
39
-93
31
100
15
18
10
47
2
34
1
38
53
-39
27
-28
46
-35
30
-34
-6
-23
70
-27
-14
-1
-43
2
25
0
18
62
-35
39
20
-8
-25
36
40
6
16
-43
6
5
75
2
71
-24
-13
-46
13
-5
-14
16
-9
21
29
39
-7
6
-66
-5
-15
-14
-58
22
-20
-76
-10
10
-1
1
-4
31
-16
0
47
4
-32
38
-59
-5
6
-31
-7
31
-19
-36
-45
1
-2
-103
84
-2
-73
-40
-14
30
-3
19
14
19
0
7
42
59
-24
-17
-38
-23
-25
74
26
-6
116
4
-8
-55
15
-39
4
15
-33
5
18
24
23
-25
-41
73
-14
13
9
-47
58
2
-48
0
-2
23
51
-21
-45
10
21
36
-71
41
16
-11
12
16
-27
8
14
19
7
-35
17
-16
2
34
31
45
-18
-13
8
-5
-11
-6
-63
-1
-12
10
17
-22
-27
-36
22
29
29
40
-1
-3
25
4
-19
-11
31
-31
91
65
46
-27
-11
-18
2
33
-6
-13
66
13
-46
-12
59
-3
-48
10
35
2
-15
38
-30
17
14
-2
-33
64
-68
23
4
74
6
-37
-3
27
30
41
-11
7
-18
45
-16
-15
-127
3
10
17
42
39
8
34
31
63
-5
45
-3
-16
24
0
-3
-26
49
127
-17
7
11
-20
60
-21
-19
-93
-16
-27
-127
15
58
-82
68
-77
-98
-17
100
-5
46
-38
-22
-16
19
33
102
18
-17
80
-55
-2
49
-17
-12
35
-31
-28
6
10
-6
-73
15
27
-41
-29
1
114
83
-11
9
41
37
-73
-22
-61
44
23
-4
0
-27
-4
91
-7
-43
30
61
-34
-23
43
-1
85
76
-27
-51
-78
4
67
-26
-4
29
-33
-56
-41
1
-37
-13
4
-11
76
59
88
9
-16
32
-20
23
-44
-22
82
5
59
-69
-21
93
-6
-26
-29
-47
35
13
48
14
13
33
3
20
-41
13
-8
14
5
-67
38
10
10
6
-3
-4
34
53
10
15
-14
-32
45
1
23
36
18
-8
-13
20
-17
6
-2
9
8
26
-48
5
-58
-17
73
8
-17
31
43
-17
-31
-47
-3
41
-28
-29
-29
56
-52
-15
6
-7
17
38
-22
0
9
17
39
66
-14
-32
22
-28
-29
25
36
1
23
4
19
-28
-63
13
-2
9
2
4
35
23
-4
-4
15
-2
-11
-4
32
14
-22
36
-6
23
-15
-40
20
-51
26
-37
-35
55
39
13
-49
-17
-16
-14
47
-31
-20
63
7
-20
-30
28
1
0
-6
98
-17
-38
-31
38
-4
-40
33
74
22
22
40
2
19
-27
25
9
9
-14
-4
49
-58
-12
104
45
-28
-20
1
29
-37
-26
23
11
-49
-10
-36
52
50
-30
42
14
7
-61
-12
-88
10
-6
-111
30
-3
-83
18
-75
-8
27
-13
80
-25
-12
-2
55
16
5
19
11
19
48
-3
28
42
42
-45
1
98
-35
-14
23
43
22
39
13
48
19
-9
15
28
-26
4
-22
6
-11
16
-7
-31
-14
-127
1
14
16
27
-21
17
-94
2
-9
-15
2
-43
12
27
-49
115
120
13
-22
-11
71
-62
29
-12
-10
30
-5
2
-65
-10
25
31
37
38
3
2
86
0
-2
26
-10
-32
-17
-23
-31
-81
-20
28
-15
-2
5
3
32
-59
-21
22
-7
33
31
65
12
18
-42
8
-71
-8
39
7
18
26
97
25
-21
-45
-83
33
-1
-68
2
0
-30
40
-43
21
-58
-42
44
-35
-46
-4
35
12
-21
37
-27
19
-10
-52
-30
27
7
2
6
-18
31
-21
-27
19
23
75
12
39
12
42
43
-32
-1
-8
-39
46
9
-29
-34
-7
-50
7
13
-16
23
72
21
6
-21
-35
31
5
-10
14
-49
-5
4
-33
-27
-32
4
14
-53
39
-33
23
10
-5
-24
-36
27
-62
-6
-23
13
11
-41
48
-37
-31
-8
-72
-16
-12
-27
-4
33
-11
-32
-1
-67
3
-39
-59
8
-15
22
0
94
-127
-17
23
32
-22
-8
29
33
23
19
-16
23
28
-38
75
-6
38
38
87
0
29
24
4
36
-73
-7
22
5
-7
-35
30
11
-93
-21
-19
24
-15
-13
-7
-19
-21
-18
-16
-71
-1
31
9
16
16
-24
24
-14
-1
-15
12
32
18
10
-1
-38
-35
-13
24
6
-57
49
17
0
14
-4
-30
-23
6
-9
49
59
7
8
-51
83
47
-11
-3
-10
127
21
-5
42
4
27
-17
56
-36
12
5
46
61
27
-16
-50
23
20
43
-15
-6
-16
-88
-15
3
5
-15
20
26
-17
34
11
-4
2
27
30
-25
-30
27
-31
7
44
-27
-42
-40
7
-59
-31
34
-55
-14
70
-6
20
-3
-3
-44
32
32
58
55
-24
-25
-16
-8
-72
-9
-51
-45
15
-13
-4
-29
-21
1
-7
28
-47
-36
-43
-20
14
-9
-29
11
37
-22
-27
-65
9
-48
97
-25
11
-25
22
33
-15
-8
23
-40
27
94
23
-46
-36
-4
11
-40
2
13
26
-8
-7
18
-52
63
-23
-93
-34
55
-18
-36
-62
3
29
-16
-8
35
-34
-17
-26
89
14
34
5
7
-9
-45
35
20
-66
10
-41
-19
29
-20
-2
-20
-18
15
81
0
5
23
-12
-65
44
-23
34
20
2
62
-5
-37
4
29
-36
-6
39
11
-48
43
1
-36
74
13
-12
-10
-25
-16
48
-4
-48
34
10
16
86
34
-7
-9
35
103
-72
-42
6
43
26
15
17
-23
-22
33
-21
-2
31
-19
-5
-18
15
-8
14
-23
68
-20
-60
-2
21
-20
-25
31
100
21
36
-3
13
17
-53
-19
-11
9
-30
14
38
-53
22
86
43
-42
-15
21
40
-19
-100
43
4
-49
14
-13
55
56
-39
16
7
35
-21
1
-60
18
-22
-75
34
12
-48
6
-64
3
15
22
71
-1
-25
1
93
35
-8
8
-13
2
28
39
5
18
-16
-3
9
91
0
-26
-8
24
21
-9
-17
-25
-21
-15
-29
0
-2
11
6
-32
-45
34
27
-16
47
-4
13
-60
35
-33
-6
-18
-4
6
43
32
-14
-7
15
-37
18
26
29
70
-62
30
-30
42
-28
-17
-50
-5
21
13
-20
-13
-29
35
10
-24
30
-30
2
41
-4
-9
-57
-19
4
-20
18
-11
28
6
-1
38
3
25
51
-18
-21
14
37
31
18
25
27
-93
-30
2
-41
26
-39
21
-23
1
25
39
-10
15
49
36
-17
-7
-4
2
8
-2
30
-2
-39
0
-28
48
-8
-7
-57
-14
9
-19
-30
-26
-22
25
31
-4
-40
20
-20
21
-51
26
-6
-22
-50
-11
-2
13
-25
-23
-9
1
25
3
19
29
14
-18
-15
-13
-7
-23
-29
-4
-5
3
-20
7
-27
-3
-12
-2
-5
-16
18
1
11
41
-31
11
8
-15
-20
-12
20
-42
14
-13
34
-21
-31
3
-16
2
-16
-3
-7
-12
2
-47
-29
10
30
-5
12
-15
30
16
-22
-36
-127
-127
-127
41
20
-55
-26
46
12
38
-6
55
22
24
113
-59
14
77
25
80
-31
21
-13
-35
-22
90
69
-71
-15
12
-18
-31
-100
75
93
-20
-3
34
-11
-71
96
-2
23
-27
-65
-72
3
91
38
28
1
5
16
-37
-65
-67
45
18
91
-56
-51
12
-45
62
-7
21
11
-61
-32
-2
-25
-58
-39
-18
-36
-40
78
17
25
18
57
-30
-25
-31
-48
19
29
7
66
-1
15
-83
68
-27
18
-14
-54
-30
9
-25
8
7
-2
10
105
0
7
35
6
24
-22
-25
-24
-13
6
54
-61
35
34
36
16
-13
-33
65
-21
40
43
33
36
-75
-35
-12
-5
13
-44
7
-15
35
-3
32
-1
-13
-6
-1
-21
12
-15
0
-35
8
12
-15
24
-2
-25
24
-58
7
-16
-7
8
21
8
2
1
-11
-12
-10
-5
16
-41
-7
-52
-7
19
11
12
50
-30
2
-4
59
-23
10
2
-20
-10
12
25
60
-32
14
14
20
-19
2
31
0
0
-1
11
-18
-14
-58
17
-30
-12
-74
-9
16
-10
14
20
29
-54
-4
30
0
-66
51
-6
-86
20
22
42
-82
-12
-3
9
-22
-27
4
51
23
17
3
37
2
4
2
-19
43
-33
-1
0
-6
-9
-8
77
4
37
-13
16
7
-1
-19
46
-23
25
7
-16
23
-10
13
2
-20
-27
-12
39
17
-28
29
10
9
-38
8
43
-3
-11
10
-73
17
16
2
117
44
-32
-27
-15
-31
4
-64
32
9
-37
11
-85
45
29
63
8
66
15
-39
2
-7
83
-12
35
74
25
11
-48
-13
-21
39
40
-16
-39
12
-40
-15
58
12
69
-15
9
-32
23
65
17
-44
2
35
-7
-46
0
7
-9
-74
50
10
-15
42
-35
43
-22
20
-21
-5
-37
64
-40
14
7
3
-46
13
-79
74
24
-21
39
20
14
-2
45
-24
-21
-6
-35
-18
74
-22
17
21
65
-11
7
67
-83
79
29
-20
-6
7
3
5
18
8
13
53
-18
-28
-39
11
-61
-3
13
-38
34
61
31
37
-28
-33
12
-42
-13
-3
5
-16
-19
-28
33
-25
-33
-65
35
10
-23
-24
-1
-1
26
15
-28
-26
29
11
-19
-21
-13
-6
15
13
-74
6
5
8
-21
-9
-57
27
25
-21
-16
69
17
6
14
62
6
-15
40
-32
-26
-60
4
80
-30
36
40
-12
-44
-19
-51
42
11
-10
24
27
21
37
-25
-12
87
30
16
37
36
0
14
-50
-30
-9
-13
-4
11
-54
43
-51
-14
-5
-19
-18
-7
17
62
60
-6
-11
-19
-24
25
64
41
10
-25
-2
-15
-37
-2
68
11
-5
-41
29
-63
-1
-30
67
-12
1
18
-35
52
8
60
-41
-2
21
-25
-1
5
35
49
23
28
9
2
17
-25
-56
70
-51
19
0
-1
-7
-12
14
1
-49
-14
-25
25
5
-2
14
5
15
-41
-11
29
35
-2
-22
-52
-32
-7
-8
-30
64
-30
49
-29
-3
38
-47
21
3
13
124
-38
20
-56
-60
-40
81
16
-4
-53
18
60
25
-9
-10
10
0
-10
-49
26
64
0
18
-18
13
5
5
37
60
76
31
-38
7
29
-16
-18
26
-29
30
9
-19
127
69
-8
-16
14
-62
2
49
-21
-83
1
-7
6
6
84
-7
-14
79
-33
33
-8
5
-116
6
29
-40
63
84
-24
-47
-39
-40
38
6
-24
9
61
-79
14
77
17
71
17
13
32
-32
-59
-10
53
116
-43
3
60
55
34
-37
0
-87
-25
6
-19
-10
-13
18
32
-45
33
30
54
-10
23
-29
29
-3
-9
20
-85
-62
39
-61
76
-41
-62
41
-3
16
-83
40
-58
-22
92
-78
28
28
-53
-77
-26
17
13
11
-32
14
1
70
-4
34
-39
-9
64
10
-26
8
45
-26
-31
-10
31
59
28
90
82
34
13
78
-47
-32
-8
-6
9
-49
48
-10
43
-13
0
38
-64
-19
-19
-52
12
69
2
-27
9
-14
14
39
4
27
13
17
49
53
60
-9
3
-7
-20
-43
22
65
-79
-24
-37
7
-14
32
51
-32
-42
-43
-7
-52
-39
2
-98
31
-95
31
-4
21
50
122
8
4
-27
-6
8
62
73
-7
32
-6
-29
-48
-21
26
67
44
-30
6
-6
99
-22
25
17
-27
-4
36
22
-10
12
-57
33
21
49
-20
4
-33
0
-15
15
14
-23
55
12
31
-7
-4
-3
-8
-14
-4
-11
-1
19
47
10
-12
44
1
-7
-63
3
-13
6
-56
26
3
14
16
-10
-10
9
35
13
10
-15
-41
-2
-8
64
30
49
-31
-25
21
4
25
-12
5
-17
69
4
19
-25
-46
11
24
-7
-39
1
-10
11
-11
6
16
5
-2
-11
31
12
2
35
-18
9
22
25
47
-1
4
-43
4
6
30
-9
-4
-30
-21
-7
55
-3
18
3
12
33
38
-59
41
-34
11
41
-27
38
24
40
-20
39
-13
14
-30
19
48
74
-66
-27
10
-2
40
50
47
63
12
-5
-2
-14
22
-68
5
12
16
24
-16
15
59
-27
-19
23
-7
55
-5
7
-17
-7
-38
-2
56
-28
-12
104
9
-15
-32
-9
-39
-19
-45
0
27
-37
-1
-39
-4
20
20
28
9
-46
50
-89
-4
12
27
-39
18
10
-20
-15
-20
10
-9
-7
11
37
48
-78
-34
-45
27
7
14
-26
57
-15
54
-79
3
-21
68
-18
-12
-3
-1
39
-44
-11
7
25
17
-7
18
-30
36
29
9
43
-1
11
-16
-17
-70
-16
-17
-1
-26
18
36
-7
14
-19
13
8
53
14
8
-13
1
10
-4
8
-127
-12
-48
-38
-16
-26
-11
-1
-17
29
-28
-56
0
16
-48
15
62
-29
-36
-1
-7
7
-1
95
3
-96
28
-43
-23
24
-20
28
2
-5
-27
20
14
-8
4
-18
21
39
4
-4
-41
35
-6
-41
-16
-15
3
-6
-4
17
-3
70
15
-12
-5
16
23
-9
-14
-8
-39
53
-31
-16
-20
-43
-26
34
-2
0
-45
-18
-33
8
9
4
30
-11
20
-19
11
38
10
-3
-26
-13
47
-65
-2
-54
-1
-6
-16
-20
106
-41
-38
35
-17
-4
8
43
-9
13
-22
1
38
30
25
-16
-33
-45
-29
-4
-65
29
-92
-53
23
-21
-12
-109
-15
6
5
-36
62
-14
68
-29
-5
-48
25
-14
50
3
-1
-6
1
-28
-23
-34
-18
-18
5
-18
7
0
-41
23
15
-11
-43
9
44
31
-4
-9
-36
-20
-59
2
60
-50
-9
6
-8
2
35
7
41
-31
12
16
-12
17
-33
25
-1
-1
-39
6
-3
-55
28
24
-12
-17
33
15
2
-71
51
28
-9
-21
33
16
22
-7
-63
9
24
-30
-3
-30
-11
25
3
9
-8
-6
-8
-11
55
0
12
6
31
-13
8
-2
39
-22
-10
-21
7
34
-9
69
-36
26
8
8
5
-17
19
1
-32
5
15
-18
51
-28
-5
5
5
-24
5
-6
-27
18
7
6
-24
-11
1
30
-20
8
7
63
4
9
-31
11
36
-35
5
14
30
33
-38
-16
44
19
39
10
31
-16
14
-10
24
7
31
10
5
8
19
61
19
18
7
-11
-43
-15
0
-21
-30
0
41
50
3
-9
-28
-2
1
23
7
6
20
18
-1
-21
-28
-34
-29
-8
4
9
6
8
36
40
25
-55
8
-41
-11
-5
-1
-43
46
-17
8
-81
32
-5
-34
-78
-37
4
27
-35
-16
-21
-40
21
19
-27
10
45
21
20
-30
17
-61
18
5
39
26
36
37
-28
-102
-21
53
-27
-4
-67
-25
4
-21
-37
4
26
12
27
-15
-50
14
15
-68
15
0
-24
44
-57
5
-35
-26
-44
8
19
-9
-21
0
-41
52
-24
44
33
-23
-8
-28
3
-24
-11
49
2
-2
-35
5
-8
-26
-40
-44
-19
0
0
-11
24
28
-10
-10
-21
-45
38
-1
19
69
-25
52
18
-5
45
-34
14
-90
34
-36
-1
7
9
10
70
6
85
17
-8
6
36
-15
65
-46
-51
20
-20
-14
-69
-6
-59
-9
102
-37
13
-60
27
11
-1
-7
-34
-38
-1
50
-6
-28
-28
1
11
65
61
10
-31
-10
-46
43
-47
25
-5
20
23
-11
17
29
53
-26
12
5
-59
-8
-30
-16
-1
57
16
93
-41
-3
-22
61
-26
-22
4
2
48
-13
8
46
2
8
30
72
-20
-23
18
-8
12
11
21
84
-55
-27
-43
19
-27
47
-11
55
77
30
-57
-26
-75
37
10
25
-6
4
1
11
22
-8
9
1
-63
-16
22
8
-3
9
7
-100
6
-4
11
4
-3
-22
44
35
-9
9
100
-10
-9
38
6
16
52
7
-78
-15
-52
95
-16
-5
-31
-47
-11
-3
-40
5
-4
-17
-8
-32
29
-31
-10
21
16
24
-76
5
55
-16
6
-76
6
0
-17
-4
-36
6
9
-16
21
19
64
-1
-2
-28
-27
11
1
-41
52
72
31
5
-76
-23
-18
52
-4
-87
2
-4
27
6
23
68
4
45
2
20
-22
18
20
23
76
3
-24
-4
-29
-52
64
23
47
-40
-15
21
-25
-18
-33
-31
-92
-31
-45
-57
64
7
-55
97
-47
31
0
32
-16
-2
-61
46
20
6
3
-16
-24
19
-14
2
14
-3
0
30
-6
36
-41
66
-25
61
-37
32
-23
2
7
-35
4
-71
18
31
58
-26
87
12
20
-10
17
-32
38
-80
40
-34
-2
-9
-20
34
9
2
-24
-57
3
7
22
62
5
-11
-23
-34
16
66
0
-4
-15
44
-4
-71
11
22
14
-7
8
-16
-24
10
-11
49
12
-73
13
18
-50
72
-12
64
-39
7
-16
17
-35
26
-8
-22
-15
-6
30
15
22
-11
43
-32
-28
63
-5
-27
7
2
-16
-14
-11
29
8
-14
-34
21
-36
6
-13
16
-25
-27
-15
9
42
-13
-8
24
5
75
3
-13
33
22
25
40
-18
-24
-6
16
-20
-32
-28
-6
-19
-14
-15
17
41
-22
50
-30
-25
0
13
3
-30
-63
-20
-13
-27
-39
-15
17
-33
-14
5
17
-31
-58
44
9
2
9
8
4
67
22
12
19
18
-29
61
21
40
82
80
-4
-20
-16
-8
-127
31
-2
-20
-29
0
-10
-9
-1
11
12
24
10
1
2
-18
-27
20
-18
21
-41
51
-37
-14
-4
-18
16
-6
-8
40
18
-5
-17
-36
-70
37
49
-62
-8
23
-17
-28
-12
-51
-30
-25
-10
17
1
-77
-6
26
1
7
-23
48
-80
33
0
-5
-27
-20
-78
5
21
-7
-3
-33
-13
-53
-12
20
-4
63
28
93
-22
0
16
42
-47
-56
27
-65
-28
3
-34
12
-28
-14
-19
-19
28
0
26
-16
29
4
15
-4
48
-5
-2
-24
-32
3
16
27
-11
-26
9
-16
-44
-16
-29
-35
0
33
19
27
-10
24
-23
44
-11
-19
7
112
-73
-9
4
30
8
-45
-2
81
-66
40
-36
-35
-1
55
41
-9
18
21
53
38
53
14
-2
-4
-48
24
11
-24
-12
34
0
17
-3
-37
1
2
-2
-6
-3
-30
25
55
39
5
7
-69
55
39
-83
22
28
28
3
-33
-36
15
-11
2
32
22
15
-11
-1
-47
25
22
-10
2
48
-26
28
19
24
-29
-29
13
17
-13
57
33
-52
-8
41
20
-1
-31
37
10
-12
2
9
44
9
-23
-26
-5
-21
7
-34
19
21
55
0
-35
29
-37
-1
-87
58
30
-38
38
25
21
-1
56
14
-21
-15
54
-41
-14
-34
-14
-1
0
-23
-34
-35
-11
-28
-7
-26
-18
30
32
-24
25
21
-4
0
-64
-21
-76
28
7
5
-40
-6
-14
68
-14
25
64
49
40
23
-2
-38
-28
0
5
41
-10
32
15
-15
-12
2
8
0
-10
-37
-5
5
4
-32
8
40
24
7
60
-6
-18
-20
-3
7
18
1
19
-22
-29
-9
-10
-28
-2
55
-8
-29
49
13
16
12
15
13
20
47
31
-33
16
-26
12
-3
19
57
-37
31
-11
-30
-15
3
9
-1
81
-11
16
11
2
-44
2
36
-22
-55
2
-27
-26
-28
-31
-16
48
-31
-8
0
-9
12
-29
57
5
-13
-7
-21
20
-2
20
-20
0
3
0
-3
-15
-10
17
3
15
22
-27
26
4
-1
-29
-10
30
5
-2
-31
5
5
18
39
-17
-15
-37
-24
-3
15
-7
11
30
6
16
17
9
-37
26
4
-12
6
-18
12
41
-100
25
7
6
-20
-30
-4
9
-13
-10
1
-26
-9
-64
-40
-72
-27
69
-3
33
2
-27
-22
82
-7
32
41
-49
46
43
-54
41
-11
-28
17
-2
7
3
64
-110
50
-93
-24
13
71
-37
-1
-36
66
69
9
42
-28
0
121
-45
27
-29
25
47
-10
7
-121
51
-96
38
36
-71
-14
-6
47
3
-20
-1
7
14
21
-69
41
-6
-9
-61
92
-11
-27
15
-15
-31
80
-51
48
-76
-17
34
-41
70
9
7
4
30
-43
31
49
-28
24
-1
-26
-63
-62
15
16
15
2
21
-1
-61
-5
7
-6
-1
31
36
-7
17
30
-46
72
28
-52
-11
-50
-39
-50
-15
-13
31
-46
-60
28
-45
9
46
-10
-54
-16
39
0
-46
12
-59
-40
-71
6
-17
21
38
-105
-17
29
-4
-13
-14
36
-5
67
18
-35
7
-8
78
1
12
-1
-7
-7
-47
24
-26
18
-16
-16
-51
17
4
-28
6
27
-22
-22
-12
53
2
10
43
20
-11
12
10
-24
13
-8
10
-10
-34
13
-36
55
37
69
-49
-22
37
-20
55
-58
-2
2
41
-5
-2
-21
46
54
18
-4
38
-36
8
-63
-31
-11
-31
30
31
-52
74
-22
-59
21
30
15
40
1
46
3
16
-34
-42
-84
-25
-22
41
-12
-6
-1
-14
0
4
-1
-28
13
-40
22
-48
-28
5
-23
-12
62
18
-27
-11
-26
21
-43
2
-33
14
-28
2
-69
27
-8
-39
0
-49
27
-2
-69
-97
-15
-37
-1
-87
-12
-4
17
-22
-44
8
43
-51
28
14
-6
-21
39
-17
28
-17
11
2
18
23
9
14
-42
1
27
79
-13
9
49
-29
-30
-50
18
33
2
7
37
10
-27
-3
1
23
-19
5
-61
-54
10
-37
56
2
-31
1
-9
103
10
17
-26
-7
-12
-26
5
-26
1
45
55
23
22
-4
25
41
-56
14
-36
-4
27
9
8
13
-40
-1
-15
-3
49
-30
12
-42
-48
-10
-8
-39
3
-11
69
-24
27
-23
6
-3
16
-55
-1
56
78
57
31
53
-3
-4
77
-8
36
9
-9
-39
-30
30
-16
-79
-11
-31
17
2
31
23
-26
-1
87
41
21
-123
74
72
-36
-13
-36
17
8
-39
77
-24
-84
86
16
-4
62
-76
12
5
-6
0
116
-35
-48
-23
-14
51
-29
-30
-32
-54
-3
-32
20
-32
20
-6
56
17
11
70
2
-79
-10
-50
47
-66
-38
40
-28
55
-16
58
9
25
-108
-4
-22
-6
1
8
-1
40
45
0
-26
-25
7
10
-22
66
-52
23
69
-67
-28
20
-18
14
30
-11
35
-38
14
16
10
39
56
48
0
16
26
93
-1
-17
-36
-5
-24
-10
-13
-57
23
-24
-18
41
16
-12
44
6
-3
24
-11
-31
31
2
37
-91
-14
-34
29
25
31
11
-18
16
-14
5
7
-60
-56
26
-2
-12
36
63
-29
31
26
6
-12
16
-20
-6
-34
38
2
-27
6
-40
6
28
8
-24
12
-2
-20
-52
-29
68
-18
-9
-5
-3
-87
-9
32
6
3
10
-36
25
-3
-67
-49
-23
-18
34
-47
54
32
5
5
18
14
-17
-51
32
2
7
-81
-56
32
-3
-33
-41
-33
-127
-7
21
-49
-93
15
25
60
-52
31
4
49
27
18
-13
-18
-6
21
25
12
-2
-11
49
-6
59
-72
-4
-33
7
89
19
44
-15
-42
44
-22
6
-71
-49
-33
9
-14
25
40
0
-9
48
-28
8
14
93
-12
-1
32
71
-2
-20
8
3
-19
60
5
-28
5
38
40
-38
8
24
-19
6
40
34
-18
-32
-28
88
-53
-58
-29
36
-25
43
-74
-13
-23
59
-62
8
-13
5
24
-10
-1
6
-78
54
-48
29
-42
50
-29
-41
-13
-54
-14
57
19
-65
40
-29
-68
-72
-4
-37
-17
-38
-73
-68
-10
-48
91
30
44
-6
-9
10
22
-7
127
22
63
-15
36
94
-43
29
-66
-32
51
83
-27
-43
-23
-28
46
56
14
127
-67
-18
127
4
111
117
27
39
11
-13
-14
9
20
23
24
27
-14
22
17
20
61
1
-22
19
6
-2
33
-5
-73
23
-27
52
3
19
5
42
-54
4
17
39
-33
-11
40
59
-54
-3
-8
10
-41
21
9
-14
36
-14
-4
-16
-57
-20
-38
-22
15
-8
19
-4
-41
9
22
-25
-18
16
-24
12
-16
19
0
16
-22
-17
-23
11
-5
51
-2
27
11
-11
-15
10
34
-14
-2
74
-15
19
-1
-22
11
13
17
-3
-33
49
20
-27
-10
-10
-6
-38
11
37
3
7
-36
-27
-2
-6
-2
-15
-4
-30
99
45
-8
30
10
-14
41
-24
-21
-8
-44
-33
-14
-13
-9
-42
8
-4
51
-8
-15
-9
88
19
35
5
3
-30
-27
23
-4
-43
36
-33
2
23
-32
6
-5
34
3
9
-12
35
-16
-23
-48
17
6
21
26
-4
34
-68
-25
-5
-16
-41
-28
-3
13
16
12
-12
-24
-48
50
-18
33
27
1
15
-14
14
72
-16
17
-1
-12
-6
44
-15
24
31
-24
-71
-50
-51
-66
-12
-96
29
32
-19
47
-22
2
-30
16
54
2
35
25
-48
-22
-53
13
-4
-72
76
29
-4
-54
98
40
-22
37
-70
32
18
-114
23
36
-15
11
-45
74
-9
-2
-1
-40
12
107
41
-59
-8
-15
-62
-12
-72
-60
30
82
42
41
-78
-12
24
1
17
84
14
2
45
-20
-62
-79
6
27
-41
-9
-11
14
21
36
-38
121
-10
64
-32
-10
-8
-23
8
57
-32
77
10
11
51
-4
-30
-11
10
-39
89
-13
-7
19
-7
-15
-14
75
23
17
-40
-43
-39
20
-69
-65
-30
21
-43
-7
29
-62
78
-17
-39
13
15
20
3
34
37
-18
-6
35
5
-7
-5
36
-18
-77
2
-58
60
-4
-29
-9
-23
12
36
-42
-9
12
-28
12
-39
17
-2
2
11
-70
21
-31
25
-1
16
0
44
-4
15
73
24
30
7
-5
44
-46
-20
17
-46
-4
-26
33
-20
-3
39
14
8
-35
122
28
-27
-10
30
3
-14
-52
-60
-24
-56
-33
-46
-15
-36
69
-9
-57
4
-21
22
-13
75
-11
28
48
-25
48
27
-36
-67
-29
30
24
-38
103
-47
-51
23
50
76
-18
2
-22
25
40
45
13
30
68
-17
-37
-50
-3
-27
-79
-20
3
-5
23
-50
40
55
56
-69
8
-69
84
28
7
4
7
-32
8
26
23
9
32
55
2
96
32
58
24
-19
-39
-21
-20
56
99
24
54
-58
-14
9
23
-45
25
-15
-18
-15
-30
-24
37
-9
-7
-38
19
44
-23
7
27
3
-32
46
9
-34
9
5
-6
22
15
-33
-16
4
16
-25
-48
11
5
-24
-28
-26
-6
13
-8
-19
-12
3
-55
37
25
-60
1
-64
-9
69
0
15
8
-6
39
100
1
-37
9
-17
-41
23
1
8
-4
5
37
-80
8
1
9
-52
27
-13
16
-79
1
28
-38
43
26
-5
-8
19
-19
-41
10
-34
62
-1
33
73
15
14
-29
32
3
-9
11
-50
42
21
-80
-46
-9
-61
-23
8
-32
-1
0
30
27
-59
-7
8
-5
-21
-25
43
-48
31
36
-52
24
40
-22
-4
-1
56
-11
81
-9
-27
18
34
-37
38
-27
-6
9
-26
1
-6
41
-3
19
-20
-34
-13
19
35
-16
39
-42
-7
-24
-38
19
27
19
-10
2
30
-22
14
-30
-68
-1
9
-5
-62
-52
32
-35
50
12
19
-4
31
-20
29
23
30
38
39
-3
72
9
38
-31
-10
50
-120
-87
-101
45
-86
-71
-23
-52
16
-6
6
-21
-25
8
-42
5
41
21
56
-25
30
63
43
26
-28
-62
-52
-20
33
-38
-83
30
29
-37
65
-69
118
-24
10
37
-35
-70
19
-11
81
-39
-5
50
-12
-97
-25
15
45
27
-37
4
44
60
38
34
-11
-34
20
-30
-30
-37
50
26
-29
-23
65
53
25
-111
8
-21
-38
74
40
4
19
-15
-30
40
46
8
50
7
-23
-5
50
-5
5
-101
39
-10
-3
56
-32
-13
-19
52
44
31
11
43
34
15
-13
-54
-71
48
7
-56
-28
-42
15
-59
5
18
4
-2
-21
4
25
-24
-23
-12
-2
-11
36
-11
-29
-26
35
21
11
-1
-19
-30
-3
52
26
-84
36
-10
46
-127
5
58
-24
1
-21
-20
-11
-17
-13
-5
44
13
0
-82
30
3
18
-32
6
12
19
-26
-23
1
-85
-11
-75
6
37
-7
23
-7
20
1
-19
23
-37
-21
21
51
-22
-10
117
-10
7
38
51
42
33
-22
38
50
-37
5
-65
-78
-1
-29
25
-14
-33
15
3
1
-23
7
13
-3
-33
51
-31
-14
-46
26
-12
15
7
-11
18
34
-38
46
14
-53
-7
13
8
33
-44
12
-15
6
24
39
2
25
2
7
-48
0
25
-33
10
-9
-10
-22
20
-9
-27
-26
-42
2
19
53
-4
5
-21
30
-27
-37
20
-70
-48
8
42
-2
-29
-36
23
-13
-13
-32
2
23
-7
3
-21
8
-11
-21
15
-43
-56
-10
-12
4
23
24
-47
-32
-35
24
-19
-49
-54
42
20
-8
-48
19
-29
4
2
-15
10
3
-39
-16
-67
2
9
-4
25
55
-17
-6
1
-44
1
-19
20
-2
8
-23
24
10
8
-22
-3
-26
29
-58
-7
-13
-10
4
-6
-18
18
32
-40
43
-5
3
-21
7
21
5
-21
11
-40
-18
-6
6
6
1
32
-19
24
21
8
-56
16
-5
-10
-22
-22
-8
-5
21
7
42
5
-5
-19
10
57
8
-32
-27
-6
0
-55
35
56
-5
-24
21
-31
-51
-18
-26
2
-69
-40
2
33
32
70
-1
15
-47
-31
10
-31
-27
-76
-16
25
33
-19
12
35
-118
34
7
5
23
52
28
12
-54
-50
22
11
16
-27
-84
-12
21
27
35
19
31
-18
-65
-18
14
0
19
-29
-14
-30
-57
64
21
-13
-21
18
-12
31
-3
65
-48
-33
-35
32
-46
-20
-8
-34
-27
49
21
-4
-5
49
11
28
-17
-10
-13
-51
25
-21
14
18
13
-8
-5
52
0
40
-14
-25
44
53
12
-18
-13
-28
36
-75
-9
4
3
3
-50
19
-29
-11
37
0
-45
-41
-10
-22
-33
54
13
2
-29
-46
-29
23
20
-28
-7
32
-21
34
13
-8
2
45
2
61
-5
76
24
-6
-18
19
35
-13
4
4
14
9
-7
14
-1
-13
-54
-7
45
33
-34
-55
-14
-14
8
-16
13
13
34
91
19
-54
61
21
-29
117
-5
-28
-2
51
59
-45
-10
-9
4
-40
-2
4
-9
-21
-31
9
-3
11
-50
-25
-33
15
-7
32
-85
-4
30
72
0
-8
-62
-29
-27
-26
21
14
-26
-7
-11
6
2
45
11
-26
9
-54
-6
-2
48
47
-16
6
2
25
6
16
22
30
46
-44
4
-3
8
-22
7
-30
18
-20
-2
0
2
-36
33
23
0
63
8
19
23
44
37
-8
91
26
-27
7
-16
37
-15
0
4
4
27
-20
-24
19
-9
19
38
57
-9
-17
25
-27
41
12
29
54
-43
15
-20
7
42
10
-18
-28
9
-4
57
51
-54
27
-22
2
-65
2
17
-8
-3
20
-127
-60
15
14
-38
12
76
77
-23
6
27
-8
-4
-4
-47
81
26
27
34
12
-97
-25
-12
7
0
-28
17
26
31
-9
23
-30
6
42
-10
-8
15
9
-14
-30
-9
56
8
4
-20
51
-9
26
71
26
-18
-15
-5
8
40
0
-9
-26
14
24
-2
-25
-6
6
-21
-7
39
41
-28
-16
6
4
-9
-48
4
18
21
16
-8
20
10
25
-1
3
70
-11
10
41
-11
3
-3
-18
-23
22
26
-29
-29
-8
-22
-51
30
-11
-13
31
-19
-29
3
-3
-3
15
7
-3
-23
-15
-14
-38
-14
25
-28
-4
2
-19
41
27
8
40
-3
1
-30
-60
3
-9
-30
-48
4
29
6
11
0
28
24
1
-2
21
12
5
-25
3
18
14
-36
-8
20
33
25
11
-14
11
39
-2
-6
8
33
34
21
77
-7
-21
-36
6
0
20
15
-16
-26
82
-64
5
70
-3
-30
-22
14
104
-4
10
11
2
1
-19
90
-62
40
4
0
-22
16
-52
15
-28
-76
15
29
24
3
-83
38
0
41
-10
-11
24
-55
0
-67
28
24
16
-82
33
56
15
6
-40
0
14
16
-19
30
-3
33
33
2
-51
7
-33
46
-28
-27
-41
58
-56
-12
17
-15
-22
-18
-12
17
14
3
59
-46
-6
-77
-14
-3
-61
40
1
17
-10
45
4
37
-15
54
-19
-13
-16
27
0
-16
9
63
54
-78
45
20
67
8
-8
15
70
-35
-48
-2
-25
7
46
25
55
35
-9
-67
25
-33
53
-33
-13
1
30
-62
-12
-9
0
12
24
-8
15
-63
-16
26
15
4
8
35
16
51
8
31
83
16
-2
-29
-2
-5
-4
-2
3
7
-18
-56
6
21
22
21
-48
2
-38
-70
0
-43
-5
-19
-24
-14
-16
64
-8
58
-1
22
33
-38
4
-10
-61
14
-12
-18
-40
-23
-5
-32
-3
-40
20
33
16
-29
-1
13
-106
43
24
23
70
-2
-17
26
2
-58
-7
-10
28
39
53
-37
-36
67
16
63
20
95
-41
76
53
1
-11
-27
53
-48
-35
9
19
40
13
21
33
-18
-43
17
-8
127
-21
25
78
-13
25
-26
-39
-14
-16
-14
-56
4
17
-18
-20
102
29
46
-5
30
34
-21
-8
8
-26
15
-45
32
15
-56
-113
21
35
28
-4
-27
25
30
-31
27
12
23
42
17
6
-19
-33
34
-5
-5
-10
-6
4
15
-18
-62
23
23
40
66
40
18
43
11
9
-27
0
-40
-41
-51
-80
-41
4
-38
-13
-12
52
-22
-5
28
20
12
-15
25
-11
-24
-21
3
4
4
47
-26
-38
-4
0
-8
32
-24
-30
5
-11
-13
3
-14
-29
3
-17
-6
19
32
-16
11
12
1
-2
-6
17
-26
46
14
18
-8
-84
-31
-4
0
16
59
7
-38
2
-59
-24
54
-14
7
15
19
-13
-53
6
-68
-11
30
-12
11
7
46
10
21
3
17
-43
8
5
12
8
3
-68
-16
-105
109
-89
-23
0
-78
-26
22
59
-8
11
2
-31
36
-30
85
-34
-16
-35
10
-9
-8
-11
-8
-2
-6
33
-35
19
62
-47
-9
56
-26
-52
-16
42
65
-3
-39
1
4
-3
25
13
-3
3
-47
23
3
20
34
28
17
-12
-21
-46
-84
52
-34
3
-8
-37
66
-31
-43
-45
-83
66
46
9
-22
61
71
8
-18
-22
39
-62
30
-23
30
77
-4
-51
40
18
8
26
-50
31
-9
-29
50
-76
21
12
-18
-65
89
-45
-34
40
102
2
27
-10
-4
-25
56
13
-29
-95
127
-26
-7
28
-15
53
-18
-10
20
-12
8
2
-16
1
59
-33
48
-26
57
-47
90
-52
-33
-25
-31
-23
-73
17
-33
-12
10
127
15
31
-7
17
-10
33
-18
-19
-30
-16
29
-54
5
-36
28
-31
54
50
11
37
54
-10
-10
-8
8
-39
8
-30
-32
8
-13
5
-35
-43
7
15
-12
5
28
23
-64
11
-15
6
-2
40
13
-36
-6
-29
112
-44
-11
10
-82
5
54
-22
20
13
9
19
41
-48
-3
25
-27
37
4
-21
32
3
-14
44
-22
20
50
-5
26
-42
54
26
-10
16
28
16
19
-34
3
2
1
-17
-28
-6
-12
-18
-7
52
15
59
-26
-37
-9
-3
37
-47
-24
-13
19
-16
39
-24
-10
70
42
77
-6
11
7
-15
38
27
11
43
-42
8
32
55
-25
41
22
-18
15
6
-47
-2
24
-44
-10
18
-11
8
23
28
13
23
42
24
-19
-17
8
-22
-48
11
-11
54
27
22
45
-4
-18
-32
-52
2
-23
-21
-66
15
-16
-25
27
-27
-42
20
16
-25
-28
20
-1
-23
-35
4
19
34
-31
-6
29
21
-22
-7
-51
-92
-10
1
15
-13
-16
-17
-41
20
-13
-34
-21
-14
-24
15
-34
-7
-20
60
19
14
-4
-4
29
-8
-30
-40
9
-23
-24
12
0
10
2
28
-9
-10
13
-19
-25
21
51
-15
-77
18
-38
52
-39
-8
20
14
-31
-21
30
2
-58
51
15
-16
3
71
-8
-5
29
13
64
51
53
-18
15
46
-33
-10
17
0
-16
-10
-4
-10
-1
3
9
-2
14
5
-42
96
29
31
12
-24
22
9
-42
-12
-51
-37
-82
4
23
-59
6
5
-6
-30
10
4
2
-20
67
-126
-29
-11
7
-14
-2
3
28
5
-13
-29
-47
74
-22
42
12
18
-28
22
47
0
8
5
-1
12
54
-23
-16
19
19
45
-55
-41
8
56
24
-8
-30
-18
2
80
-21
-90
32
-14
-28
-15
69
-6
-33
-60
-1
-4
-11
-53
5
-6
-33
-28
-5
-93
-8
-84
26
-16
31
19
59
4
6
22
-20
48
-12
11
14
-18
-26
14
34
54
115
-3
-36
27
1
-6
-14
-5
-1
13
51
15
87
5
0
-91
-14
5
30
-53
62
-33
-17
1
-10
16
27
19
-19
-29
22
-14
-48
-9
9
124
-3
-25
-15
-28
16
-37
-13
-41
-21
-35
-6
-13
33
-9
-49
23
-88
-36
5
-32
-16
127
-20
22
-31
6
-37
-18
-15
0
-8
37
-29
-34
14
-16
8
96
26
6
5
70
-41
15
-47
-3
66
19
40
2
2
-14
-19
28
-71
-57
-117
-16
6
24
4
-42
-12
16
27
-29
19
62
58
16
27
22
29
33
-21
53
16
-51
38
22
54
-127
-57
35
-22
-15
50
42
-31
-5
-20
-53
-33
35
45
5
-12
-1
5
2
72
35
-38
39
-93
-31
10
7
-34
-42
53
-29
7
29
26
31
65
43
-9
24
-24
-6
41
91
-50
-3
-11
-23
-26
96
51
35
43
4
9
-31
23
7
14
-9
-21
-65
-7
-20
12
-16
-50
-4
36
17
-2
7
14
-6
-94
-10
-11
-70
-27
-27
-20
23
1
-11
-11
2
3
21
81
-3
22
13
-54
-27
-4
13
-8
-14
-60
-54
2
-30
29
16
-64
-21
-17
4
26
-2
-64
23
22
65
7
-20
5
0
82
-61
74
-15
-53
-22
-10
-28
-86
14
-26
-32
20
11
-64
2
-29
10
19
-62
-60
-37
-1
-43
