8
26
7
44
127
34
7
24
-1
16
127
19
12
18
11
15
124
24
0
10
-13
14
127
11
1
9
-10
25
-48
26
-29
-127
-40
25
-59
23
49
-20
-26
127
-103
-3
49
-26
-31
2
0
0
-4
127
-11
2
-1
-2
106
80
116
76
48
127
108
74
115
-2
24
30
-25
-28
127
7
29
33
-11
-1
48
-66
-53
127
-36
3
40
-14
21
0
42
127
26
-16
23
1
10
42
-19
39
127
31
8
42
-15
-45
-41
1
24
11
-34
127
1
-30
-89
-121
-86
-121
-127
-103
-50
-119
-80
66
-21
4
127
-100
-11
61
-9
6
0
0
0
-1
127
-3
-1
-1
1
67
52
55
82
127
47
50
50
66
-65
-124
-127
-9
90
37
-43
114
127
34
-39
10
127
-59
-49
30
-37
5
21
-14
-2
82
-127
11
20
-15
1
14
63
-5
56
127
47
19
53
-9
-40
-50
-46
-48
-127
-51
-45
-47
-33
-3
23
4
29
127
39
2
22
0
-8
44
79
-41
-121
127
-6
51
79
47
125
2
53
-53
57
37
127
-5
11
99
20
106
127
78
29
96
28
21
54
12
54
127
99
30
57
-4
35
5
-29
127
18
-34
34
-2
-25
18
10
5
-37
127
-10
19
12
6
-15
-68
-26
-12
11
-2
-2
127
34
10
28
21
-10
127
55
11
28
19
7
48
15
48
127
32
-1
51
12
27
-34
7
73
-127
62
15
-23
11
21
23
-11
26
-78
-27
64
127
29
-42
-27
-45
16
-111
2
43
127
55
-6
-46
-15
-24
-127
-62
-16
-49
-16
21
21
25
23
127
34
18
23
10
-4
54
12
92
127
-51
-21
57
6
80
104
88
122
-84
122
72
127
114
-15
-4
-4
-4
127
13
-17
-1
-3
-35
-5
51
-22
-84
127
-35
3
43
19
33
17
22
127
20
17
31
19
-28
-87
26
-127
-119
-83
-16
-83
22
-79
-7
70
-98
79
127
-72
-13
64
19
7
-11
127
-29
-26
21
11
-17
0
-1
-15
114
127
-49
6
1
-26
-102
-86
-62
-127
-44
-87
-65
-83
-55
1
-63
-2
-17
-127
-9
-3
-57
9
86
60
-3
127
-71
-52
93
58
4
7
20
10
17
127
29
8
14
6
103
-2
-51
5
-34
-25
-66
81
127
127
42
31
65
89
35
13
77
90
-16
0
23
-62
26
127
-24
-4
28
-14
-43
-8
0
127
7
-20
-32
-5
-17
13
34
-66
50
127
-13
3
32
-18
-83
-4
-4
-48
-12
33
127
12
61
64
68
37
127
27
51
69
78
68
18
5
127
-6
-4
67
29
11
-62
1
13
-127
122
44
-62
1
7
-4
-25
0
-47
-18
-8
52
127
-4
-6
31
3
38
127
41
-6
32
10
-17
-107
-48
-72
49
-89
-14
-127
-46
39
-4
-55
127
23
-105
31
-6
-47
-41
-77
-53
-18
-67
-1
61
127
62
-14
17
-7
-19
127
-12
-10
15
-16
-9
17
64
-46
-23
127
-9
23
66
-34
-83
-56
46
127
45
-22
-21
-3
36
40
-4
50
127
52
33
36
-6
-83
-51
-14
46
31
-55
57
127
-63
-115
-127
-96
-108
-70
-94
-93
-126
-75
45
127
52
61
-6
-9
31
-25
8
1
58
-13
78
127
72
1
54
-6
-44
-49
22
-22
67
-23
-11
127
37
-27
-44
26
-37
-61
127
-27
-43
37
-22
-27
-2
-36
-127
-67
-28
-26
1
24
102
70
-15
15
-20
-26
-127
-90
-10
127
19
-31
5
-36
-11
-41
-10
16
7
37
48
127
17
12
3
36
22
-9
-20
127
-3
-22
21
-10
-10
0
4
-4
34
127
-7
-1
3
2
20
24
24
49
127
12
20
19
17
66
39
51
127
118
93
57
26
53
-25
-124
-13
-83
-93
-74
-13
-127
-36
118
124
57
-105
-31
-75
107
127
55
7
31
3
42
-127
37
0
34
3
8
23
9
17
127
19
7
21
6
47
127
-9
-44
-8
-3
4
-28
-2
7
-11
17
10
-127
97
3
-10
17
-77
33
127
-80
25
74
-84
-37
4
44
39
50
127
-18
15
42
58
48
22
36
15
-34
-127
-17
19
35
9
-12
-15
18
-26
64
127
-12
-11
22
-35
-46
-48
98
86
127
-23
-50
-36
11
16
8
25
127
19
7
5
12
9
85
50
-65
53
127
2
79
39
12
67
9
-23
-127
-27
11
66
12
-13
-34
30
-15
-37
127
-10
-34
17
47
127
40
-10
89
-8
51
122
45
54
83
46
116
5
127
48
95
25
19
53
10
18
127
-62
19
43
24
-21
-79
-29
-6
69
-5
-40
127
36
-74
-76
-68
-127
-96
-99
-69
-79
-59
-65
-94
-81
-120
-22
-127
-102
-109
-80
-23
-22
23
31
-69
127
-25
-33
34
4
15
8
8
127
11
6
12
6
53
127
39
66
120
83
52
116
56
-40
33
35
-74
124
127
-31
20
44
-8
-2
-2
8
127
4
-3
-2
-1
-15
55
-11
74
127
72
13
64
6
-12
-37
19
-48
1
127
-12
-34
18
61
119
100
-14
91
106
56
127
93
47
12
-61
123
20
-127
47
26
-69
-4
-64
-29
-19
-62
-7
-11
127
102
7
33
14
28
127
34
7
35
12
-2
48
-1
47
127
10
5
39
5
-26
26
48
3
-56
127
-31
15
40
-16
25
36
-52
-127
70
-16
36
35
37
41
19
127
18
-21
36
43
25
68
97
32
127
39
113
58
103
32
16
102
106
-36
-37
127
32
106
97
-88
-127
-94
-84
-35
-120
-78
-118
-92
9
32
8
-2
127
39
9
26
1
13
13
2
23
127
13
10
22
-4
54
102
61
7
20
-7
-72
-127
-59
38
124
26
80
63
115
43
127
29
15
-32
23
76
-127
55
17
-30
21
25
58
35
27
-7
27
-40
-127
-50
-25
-92
-26
3
127
34
-26
-73
-47
6
21
5
7
127
12
2
11
3
64
118
50
-6
58
13
-106
-127
-47
-5
42
41
-4
-18
127
-10
42
41
-123
-118
-43
-20
26
-25
78
127
80
49
49
-11
127
53
-9
56
47
-20
-25
-77
-22
25
62
16
55
127
24
27
31
10
18
-127
0
28
22
12
9
27
12
25
-127
50
10
36
14
-62
-95
-75
-105
-13
-127
-62
-100
-69
5
47
-2
29
127
21
19
37
-2
14
56
4
36
127
47
11
52
10
-49
2
-2
-123
127
48
-57
5
-5
52
92
16
127
90
37
51
107
34
55
26
-9
92
-127
-43
61
33
-14
-28
-72
-80
25
-65
-43
69
127
22
39
108
17
-26
-127
-3
-57
-58
-39
-5
9
-18
18
127
6
-2
4
-5
82
117
62
76
127
123
99
119
54
-63
5
24
-127
70
96
-52
18
14
31
46
38
22
127
29
50
86
59
-18
-11
-6
3
127
-10
-16
-7
-5
12
-3
2
38
127
22
13
-14
8
5
34
-4
31
127
17
2
24
0
-31
-19
35
-14
29
127
-25
-10
29
15
13
40
-70
-127
102
8
33
33
-2
65
2
57
127
90
3
83
-7
81
127
70
-6
-32
-45
-10
-10
-23
16
115
27
-6
-8
6
-21
-127
-7
17
94
9
127
108
106
1
82
22
-11
-11
-4
-3
127
-4
-12
-12
-6
6
54
32
-62
88
127
18
50
45
-9
25
-2
29
127
26
1
23
9
-60
-85
-70
-122
-127
-106
-43
-94
-97
-8
-10
-3
2
127
4
-8
-5
-3
-127
-74
-77
-75
-77
-40
-108
-64
-73
0
8
0
1
127
-4
3
2
-1
-24
-3
45
-64
72
127
-25
-6
41
46
18
-35
127
-87
-7
40
11
-28
-4
13
-7
13
127
2
-4
9
-5
-5
55
14
35
127
17
-5
47
25
1
-51
-5
7
127
8
1
-55
-14
30
29
40
61
85
127
36
66
59
31
86
22
-19
127
8
26
79
25
-8
17
-1
27
127
17
-8
19
-5
29
58
18
35
127
32
30
58
15
43
51
62
83
127
30
31
53
69
1
6
3
4
127
14
5
15
8
-40
-56
-35
-44
127
-60
-42
-62
-27
-11
17
-3
87
127
-23
-34
12
-2
-9
-5
-7
5
127
6
-10
-2
-9
26
28
27
30
127
39
28
20
24
-32
-19
4
1
127
48
-29
-21
0
-12
-3
-8
-6
127
13
-12
-4
-3
25
31
25
25
-127
38
29
35
24
-70
-116
-64
-103
-74
-100
-65
-127
-66
18
46
22
15
127
36
15
38
25
21
2
-79
39
100
-127
24
16
-85
22
119
16
6
2
0
-31
-127
-13
-26
-13
27
-49
-26
127
-23
-14
18
-70
-43
11
-127
99
39
-67
-37
18
15
25
-14
27
127
12
7
20
-14
-11
-5
-6
7
127
-5
-12
-10
-4
-104
-93
-87
-80
-72
-127
-99
-97
-73
-8
0
4
4
127
18
-6
-1
4
6
-5
-1
-7
127
1
6
-6
-1
25
75
30
-37
-127
-77
11
71
30
-23
81
108
71
127
26
109
26
3
65
-23
-13
127
-16
-10
61
-22
-13
-30
20
111
-3
-127
-32
-23
-60
-21
-14
-10
7
127
69
-50
-21
-16
17
-39
16
8
-105
127
36
-35
18
3
41
69
70
12
-9
127
47
84
71
-56
51
50
-127
61
73
-45
42
50
-76
-99
-78
-51
-127
-53
-106
-96
-85
12
0
-5
127
-16
7
13
4
-6
127
22
-19
103
-114
-120
61
-31
-79
-65
-93
-42
-8
2
-58
41
127
25
31
-3
-13
127
11
-51
30
6
-15
18
30
-7
127
12
-36
15
28
-4
-1
6
-2
13
127
5
0
6
-4
-10
28
-8
22
127
32
-1
31
1
-14
5
-20
127
102
-113
-20
8
-19
-2
8
-15
-7
127
48
-10
8
-5
-14
-8
-13
-1
127
5
-17
-1
-16
-50
39
60
-66
-8
127
-39
16
45
-44
22
36
-31
-52
127
-47
15
32
0
-10
-5
-18
127
-12
1
-11
-9
-62
-127
-32
5
86
10
23
73
24
-97
122
127
7
8
-33
43
-109
-68
2
13
3
14
127
4
3
9
-3
10
12
6
45
127
43
9
23
-2
-86
-127
-71
29
61
-1
87
89
21
-78
-115
-47
-124
-100
-127
-55
-110
-43
5
5
-7
-7
127
8
2
6
-10
-19
-98
-18
-127
27
-79
-22
-100
-24
-3
-50
0
-20
-127
-22
-12
-38
-2
-41
8
62
-66
17
127
-40
0
65
1
10
-3
13
127
-5
1
8
-1
6
6
-3
33
127
-22
10
8
4
-7
-56
-3
-45
-127
-70
-15
-38
0
4
40
8
97
127
-24
-2
41
7
59
127
60
-28
-16
-2
-51
-82
-46
-7
-115
-33
-77
-124
-100
2
-127
-28
-4
80
9
-13
127
-8
10
69
10
-43
127
22
3
72
11
-26
-89
-33
52
11
-16
127
-60
-42
50
15
-14
2
-127
-41
-9
-14
0
13
113
45
-7
11
-43
37
-105
-127
-1
-5
-38
-16
-89
-38
-18
-12
-20
9
127
50
22
5
19
2
-127
13
24
6
22
17
73
39
23
127
-5
5
-43
-9
112
99
63
95
12
38
127
109
54
13
127
89
8
-25
-26
-50
-64
-47
10
26
12
14
127
21
12
18
8
-70
-109
-62
-127
112
-103
-79
-117
-79
78
52
43
61
-127
-50
62
-44
-58
8
18
16
19
127
19
7
11
17
26
-25
5
64
-127
44
26
-24
4
1
42
-3
90
127
-28
-2
33
-4
20
4
-2
127
92
16
21
3
0
57
107
58
-31
127
-52
57
89
68
15
127
-6
44
62
52
17
119
3
-1
52
5
70
127
22
5
44
3
-9
44
12
18
127
52
6
43
9
17
69
30
22
44
14
-28
-127
-57
17
29
-1
27
127
18
21
32
-3
-9
20
53
-16
-48
127
-12
33
34
31
40
28
42
127
52
39
34
28
-3
63
77
-57
43
127
-32
54
78
-46
-84
-127
-72
-121
-111
-64
-77
-126
8
127
20
-23
-51
-38
-27
-49
-48
-53
68
49
-44
-31
127
-41
58
54
2
29
-5
27
127
28
-4
27
6
58
89
38
61
127
34
70
90
34
-51
-88
-38
-22
63
16
52
127
2
127
21
-43
34
27
-45
-63
-65
-22
-108
-127
-47
23
70
-91
126
106
-91
4
-2
-4
-18
127
-38
10
3
0
6
43
10
49
127
58
15
46
8
40
-1
28
67
127
44
49
-14
36
102
79
113
82
127
103
111
125
117
14
100
6
-59
-127
-44
11
97
6
48
102
44
99
110
109
60
127
9
4
30
9
3
127
38
11
15
20
-25
-127
-50
-23
-15
1
21
116
29
3
2
-50
31
127
-84
8
-3
-51
44
1
-30
127
14
2
27
-7
-29
60
127
80
6
-57
29
60
111
77
57
50
31
127
-53
-44
63
64
33
53
115
6
-13
18
-72
54
127
-1
45
127
51
-3
-42
-15
-48
-98
-41
-17
-29
-15
23
127
16
-7
-35
-21
5
18
-5
21
127
5
13
19
-1
-2
45
0
0
127
63
11
35
6
25
35
22
37
127
24
26
30
27
8
-112
19
-19
-29
-34
11
-127
22
0
19
6
20
127
26
2
17
2
43
127
13
-19
-38
-36
-26
-91
-26
31
30
35
24
-127
20
35
34
35
61
100
-47
108
127
-59
59
87
-42
59
68
28
93
127
94
67
75
21
63
127
75
84
118
108
67
113
67
29
35
21
11
127
1
-68
-122
-41
39
124
3
127
41
104
57
117
14
-8
-68
-2
-46
-127
-54
-3
-54
-8
-6
127
10
-104
-76
-101
-7
127
-1
57
47
8
74
127
39
58
37
18
4
4
-9
56
127
55
2
12
-10
79
-70
-43
127
12
-52
79
-77
-49
-8
-44
8
95
-81
127
0
-51
8
21
89
51
113
127
104
51
95
59
70
127
70
105
64
113
59
124
60
4
3
1
3
127
19
5
2
-2
-16
-96
-23
-96
55
-127
-8
-95
-22
-13
-16
-18
28
-56
6
26
127
28
80
127
71
117
65
47
101
122
96
8
11
11
11
127
22
9
-6
-1
46
46
37
65
127
45
58
43
36
17
127
27
85
-25
108
39
124
26
-1
20
5
5
127
26
6
1
6
-22
-38
7
81
-108
127
-13
-39
8
-5
-74
-45
-23
34
-34
-1
127
25
2
19
1
41
127
34
0
17
-5
60
9
-28
127
43
-20
59
10
-22
57
0
-43
111
127
-36
52
0
-51
25
-17
2
127
-25
-39
23
-11
9
-14
0
42
-5
-93
127
-10
8
42
56
30
-15
127
-71
-31
52
27
-18
41
93
28
110
94
127
44
86
33
-38
10
-10
-24
127
-36
-30
1
0
59
127
60
83
29
91
58
126
51
26
5
-7
12
127
11
21
2
-2
2
21
2
19
127
43
3
13
2
1
80
14
-25
-127
-35
-8
79
2
14
98
41
-19
88
7
-87
-127
-105
-57
-118
-41
-65
-22
-68
25
127
40
3
19
6
11
127
23
11
13
7
14
34
7
14
127
32
29
32
20
2
25
34
55
127
47
1
15
40
34
67
-1
127
92
-47
25
73
-8
46
126
39
28
108
31
43
127
21
26
-3
-18
127
7
-70
21
-5
-15
3
0
-2
7
127
9
4
2
-4
-88
-77
-126
-121
-42
-74
-64
-96
-127
16
-22
17
-2
-127
-10
23
-28
17
20
29
20
28
127
19
17
31
21
-5
17
2
18
127
25
-2
14
-2
-37
-30
36
-62
-66
127
-40
-26
38
-2
5
-2
4
127
-2
-2
4
-6
-11
-51
22
78
127
-17
2
-63
23
2
9
5
-1
127
17
1
5
9
69
11
-34
94
-127
-44
60
5
-40
8
40
9
13
127
15
11
34
9
-90
-108
-92
-78
-120
-127
-77
-115
-80
75
127
69
-21
42
-17
-111
-100
-47
-3
10
-1
43
127
37
-5
6
-8
-32
7
38
-24
-59
127
-31
13
37
-1
29
1
46
127
3
-2
37
9
-20
35
86
-61
-68
127
-9
31
88
-15
39
5
45
127
72
9
25
1
-23
72
11
-50
46
127
-12
68
8
18
60
39
54
111
127
19
58
61
-42
-5
19
-107
52
127
-43
-3
17
13
11
10
23
127
29
12
7
-1
3
41
12
51
127
49
-5
42
3
-29
-66
3
-127
53
83
-32
-62
6
4
-25
-1
0
127
-89
5
-21
-1
-16
-42
-17
-10
-127
-19
14
44
68
4
21
-4
9
127
11
9
26
-4
15
73
29
-34
-127
-39
24
71
27
27
83
50
62
127
81
32
78
42
-60
127
71
24
-65
-51
-5
-58
-45
-29
-57
-50
-55
-21
-3
56
127
32
48
-8
-24
21
-127
-26
47
-18
-26
54
96
89
-2
-127
-24
-19
-10
-29
-31
-64
5
-31
-127
-18
-22
-59
-1
21
127
27
-31
4
-27
-18
-82
-41
80
80
42
-43
34
32
-22
-127
-66
-55
18
51
-79
62
127
-42
34
51
11
-21
11
65
-127
59
12
-24
15
25
127
48
-5
-50
-13
-35
-22
-63
-122
-61
-46
-78
50
-59
-127
-70
-44
79
82
-24
127
115
5
74
66
-7
56
91
4
82
127
42
51
73
11
1
14
-5
28
127
8
4
12
-2
25
127
20
-43
-63
-12
-1
-73
-23
9
34
11
30
127
23
-13
31
16
47
127
21
19
56
6
-28
-75
-32
12
20
8
28
127
15
12
22
9
-31
-51
-47
-24
-23
-37
29
127
48
9
13
7
32
127
23
4
20
9
31
127
71
-15
86
-15
-11
-52
-19
-58
-48
81
-95
-13
127
-63
-36
86
5
7
4
6
127
22
-1
16
7
20
73
15
127
-11
13
25
90
19
8
2
6
-11
127
0
11
4
3
13
120
23
-86
-78
5
-4
127
21
4
44
24
15
-127
-53
5
49
23
-26
-73
-32
123
101
127
-19
-65
-3
-1
-16
49
7
-127
59
-4
-12
46
-13
28
27
-28
-76
127
-17
16
24
0
-6
-19
25
127
-15
-4
-3
-15
-41
77
-32
-57
127
-13
-52
83
-40
31
-45
-12
127
-54
-38
22
-45
-13
7
127
38
-4
106
-29
-18
-51
-16
-2
-9
-5
-12
-127
-2
-4
-13
-6
20
-60
-9
127
-30
-68
12
-57
-12
2
-4
2
38
-127
50
2
0
2
-3
-1
-7
-8
127
18
-5
4
-4
56
91
71
70
61
127
69
72
92
-23
50
61
-47
-70
127
-22
57
60
0
7
9
17
-127
72
-5
27
5
65
73
49
70
127
61
53
74
47
11
26
-9
35
127
11
4
19
-4
88
103
33
126
45
-99
71
127
31
4
-9
1
-58
127
7
4
-13
3
21
-29
-10
127
-19
-70
21
-27
-12
-25
18
-38
-95
127
-59
-26
12
-36
25
122
30
-68
-127
-70
25
117
10
-9
-31
-19
-9
-25
-16
65
127
60
-15
-78
-43
-89
-102
-127
-6
-87
-45
13
127
39
-23
-118
-40
-23
-28
-29
4
18
3
29
127
28
9
12
7
66
78
56
83
97
127
65
77
71
11
39
-3
61
127
23
13
54
-5
15
66
19
55
127
25
29
53
20
39
127
70
-77
-42
58
-106
-84
-14
127
95
-34
6
9
-58
-47
-54
-11
1
-3
4
1
127
2
0
-4
0
-25
-44
-7
-63
-52
127
-24
-33
-3
77
92
92
81
3
127
100
88
105
32
10
-14
127
-78
-12
37
5
-13
2
23
-11
17
127
1
2
28
-5
5
18
-13
23
127
0
8
9
-4
-22
-22
-21
-17
-127
-8
-21
-20
-18
72
127
-51
31
-122
-50
73
119
-52
-11
-22
-7
-21
-127
-25
-13
-23
-6
10
87
9
-35
-127
-33
15
89
9
-13
-20
-28
-27
-54
-7
11
127
33
26
67
10
-49
-127
-7
36
75
16
70
127
38
-1
-43
-39
-45
-77
-69
-5
-50
32
-25
-48
127
-9
-47
26
27
56
35
29
-127
72
25
54
38
-1
46
34
39
127
94
38
62
57
49
51
29
73
127
74
63
47
34
-106
-44
15
-109
34
127
-79
-50
26
8
35
14
22
127
25
11
32
18
43
-17
-38
127
-1
-49
30
-19
-27
-3
-13
-5
-6
127
-14
-5
-12
-5
43
36
80
52
127
47
38
52
59
47
126
49
-7
-60
7
-27
-127
-38
-25
40
53
-17
127
62
-22
21
59
-14
-6
14
2
-64
127
-20
0
21
3
127
39
10
-23
-25
-17
7
-3
24
-1
23
8
127
31
18
-13
23
45
25
-16
127
0
-30
48
25
-15
31
127
48
110
43
122
52
119
50
15
35
26
21
127
35
15
33
25
18
34
22
31
127
27
18
28
20
102
33
71
17
127
25
85
14
88
60
95
59
-25
16
-37
-106
-127
-79
-4
33
-2
-127
-77
-126
6
42
1
-60
-76
-12
-4
27
-57
127
89
-36
70
109
5
-90
-127
24
56
112
8
11
7
13
16
127
36
-2
11
21
-12
-97
-25
-80
-56
-127
-15
-89
-42
31
127
43
-1
1
8
-52
-74
-48
-13
58
19
-46
106
127
-4
54
13
49
58
50
31
-127
57
49
62
55
-26
-33
-8
-86
127
20
-30
-34
-11
62
95
30
89
95
127
55
78
55
54
32
-18
74
-127
-52
44
33
-10
112
70
-46
127
-98
-93
108
74
-46
-14
19
-18
26
127
10
-20
18
-20
-70
-86
-14
-127
-102
-104
-56
-74
-8
-1
-12
-4
-2
127
-11
-8
-14
-9
48
-6
-86
71
78
-127
50
-5
-76
14
-18
-7
127
-28
-52
8
-14
-20
-25
-24
27
-2
127
95
-35
-22
25
40
-53
-56
127
-33
-49
39
-62
-58
72
127
53
-18
7
2
-52
-120
-58
16
32
17
49
127
42
16
36
26
-6
-13
-3
-45
-54
127
-12
-22
-1
33
87
17
71
127
59
22
69
0
30
79
36
-63
-127
-76
38
88
30
5
-4
-7
5
127
-2
7
-2
-4
25
47
0
-5
127
77
24
49
-3
127
80
-5
15
-97
-65
-35
-60
-59
88
-14
-77
127
44
-93
72
-12
-95
2
3
4
-2
127
7
7
-3
4
21
21
44
8
-38
127
17
20
37
-14
-10
-17
1
127
0
-16
-4
-11
2
21
0
27
127
50
3
26
0
43
42
8
40
127
69
39
36
15
12
39
9
16
-127
21
11
30
3
15
127
27
-39
-24
-47
-11
-89
-17
25
64
31
41
127
66
32
78
35
13
24
11
31
127
25
12
25
14
-127
-91
-95
-95
-42
-98
-107
-93
-105
13
127
50
1
-45
9
-17
-27
-17
0
-16
-12
-1
127
-6
26
41
43
13
21
27
9
127
38
13
11
25
-16
-22
-22
-33
-21
-12
20
127
68
-1
34
23
11
127
39
-2
33
21
-5
-24
21
-2
-29
127
-12
-18
12
7
-13
3
-65
64
127
4
-4
-6
60
127
-6
-26
-1
-11
-48
-103
-6
24
6
35
6
-127
0
27
7
37
11
-6
-74
108
127
-51
10
-6
-71
-16
-113
10
-106
-99
-127
-8
-112
21
50
104
64
66
88
127
31
112
47
-107
-80
-97
-80
127
-89
-95
-89
-84
-91
-127
-71
-8
31
4
61
108
44
-12
26
16
15
127
26
-14
29
16
54
105
61
97
21
99
47
127
46
2
9
-3
11
127
4
-2
6
-2
51
68
49
34
11
127
55
60
58
8
30
3
26
127
28
11
26
-1
-11
-48
-7
-7
-127
-16
-13
-47
-15
17
26
16
19
127
25
19
24
21
64
127
-53
32
10
-58
-51
-58
-18
23
41
29
2
-127
18
22
39
27
78
87
49
127
127
121
52
100
49
-13
117
17
-74
109
-4
-16
127
-2
-75
-34
-2
-110
127
22
-74
-34
-2
14
21
-32
20
127
-53
8
23
-31
-12
-21
-5
-20
-127
-30
-11
-22
-1
7
14
4
9
127
27
5
16
4
51
31
49
127
-114
43
50
30
42
1
9
-1
11
127
-1
1
3
-5
-35
-7
55
-55
49
127
-42
0
53
76
-15
-51
127
8
-77
69
-11
-49
-17
21
41
-29
-127
76
-11
23
39
-96
-92
-23
-69
-34
70
44
127
57
-4
52
71
-81
-68
127
-27
52
63
-7
27
-2
26
127
44
-2
29
1
19
9
31
14
127
17
7
13
19
7
40
16
18
127
45
7
36
9
40
43
21
81
-127
4
32
47
19
-7
25
20
8
127
25
-5
28
15
-19
-20
23
-23
-19
127
-21
-11
19
51
92
70
99
36
127
42
107
66
8
-24
-43
40
-127
-25
48
44
36
-106
-109
-78
-106
-104
-127
-97
-101
-85
-38
-63
-55
40
-98
-10
23
127
68
-14
-12
-19
-18
127
-13
-19
-11
-21
-56
-15
95
-69
-74
127
-42
-24
82
-71
-52
-31
-43
-92
-22
127
114
92
65
127
-3
31
-119
-48
67
124
-2
11
7
-12
42
127
-20
15
8
-13
56
46
23
91
127
-28
66
45
24
-55
-5
69
-58
10
127
-58
-8
51
-10
31
18
-127
107
16
-5
30
14
2
23
13
41
127
37
3
29
13
62
56
20
127
86
13
44
71
29
-58
-31
-17
-23
-127
-11
-57
-34
-12
40
4
-7
127
114
-28
35
1
-14
-30
-11
46
-34
-64
127
-28
0
39
-16
47
70
-67
-127
110
1
49
90
127
116
-40
38
-1
-31
-112
-117
5
23
31
25
0
127
-13
26
16
27
0
19
-4
13
127
20
3
12
-2
11
19
18
-18
35
127
11
24
22
-14
-13
32
-29
-32
127
-7
-13
33
10
9
16
24
127
14
10
16
10
-7
63
56
-75
62
127
-3
66
53
3
123
12
41
105
0
14
127
23
-45
-44
-4
-56
127
38
-24
17
52
-1
4
-23
1
127
-71
-2
3
-23
29
43
14
26
127
38
12
45
14
-24
18
-7
19
127
38
-25
6
-3
-2
-31
8
-13
-26
127
2
-33
10
5
59
23
102
127
73
-4
58
25
30
20
7
30
127
13
22
23
-2
-7
-16
-11
-10
-127
-11
-3
-18
-2
12
46
19
62
127
71
15
47
26
-20
21
-4
19
127
13
-4
18
-8
1
6
2
3
127
20
-2
4
1
10
21
3
24
127
29
7
25
1
-3
18
3
15
127
21
-2
16
4
9
12
0
33
127
19
5
15
-5
6
10
-3
-2
127
20
4
20
-2
6
10
2
5
127
4
2
11
2
30
13
22
53
127
71
29
9
23
14
19
4
25
127
26
12
17
4
14
18
-25
127
12
-96
22
5
-24
42
27
-8
127
-55
14
39
23
-6
-37
3
-48
-53
-91
-23
44
127
74
19
28
26
27
127
34
27
35
31
-1
16
10
12
127
14
-3
14
12
-15
115
68
-22
-59
120
-31
127
78
98
127
105
105
81
94
103
127
102
48
-34
-37
127
-2
-81
45
-22
-44
3
6
14
20
127
26
3
7
14
5
-3
-1
1
127
-6
4
-3
1
-2
7
-7
9
127
3
-5
11
-11
24
32
-2
127
26
-27
13
32
-1
47
127
39
88
-91
83
53
120
41
127
126
84
-51
-106
-7
-68
-45
-16
5
0
15
23
127
20
8
6
15
-7
-11
-5
127
19
-40
-1
-5
-3
-7
-5
-11
22
127
9
-12
-8
-8
10
42
0
37
127
29
13
39
-6
2
-31
2
127
-21
3
-1
-31
-6
-82
16
63
-120
45
127
-103
11
75
3
8
-16
10
127
-23
-3
2
-20
24
48
16
34
127
56
28
35
14
5
43
19
42
127
35
9
35
23
10
9
9
11
127
26
11
6
4
37
5
-18
127
-1
-68
38
10
-24
-5
-40
-28
96
127
-99
-10
-30
-35
-1
12
0
4
127
6
0
9
-1
3
21
-11
17
127
10
4
21
-4
17
9
21
14
-127
2
17
6
20
-94
-101
-84
-111
-78
-127
-93
-91
-88
-11
20
58
-34
30
127
-13
29
52
-71
-81
-45
-67
-127
-76
-73
-71
-50
-4
18
-12
20
127
15
-5
15
-8
-72
10
-26
-72
127
-19
-64
13
-18
9
10
2
33
127
15
13
2
1
-47
-54
-40
-25
-66
-25
30
127
40
53
11
-15
127
89
-37
45
11
-14
12
2
9
69
127
57
17
-9
11
-42
-106
-39
-82
-127
-57
-56
-92
-50
103
3
-66
51
-127
-50
98
0
-65
0
25
-12
41
127
-13
-11
17
11
-15
-39
6
127
-49
-14
-13
-40
8
50
52
15
-4
18
127
45
63
16
20
49
18
56
-127
45
20
43
22
-48
-98
15
-116
-26
127
-52
-95
19
-64
-127
-65
-127
-71
-86
-60
-117
-62
14
56
14
28
127
24
10
57
11
21
40
29
-25
-127
-30
19
36
24
-13
-5
-13
-12
127
12
-11
-11
-17
7
27
4
31
127
31
0
28
2
-49
-120
-58
-45
45
-17
-52
-127
-45
-50
35
35
-93
108
127
-38
22
38
0
9
2
2
127
13
6
8
0
-9
11
53
18
-127
0
57
5
-17
17
22
11
27
127
19
16
23
5
5
105
88
-24
53
9
-30
-127
-56
-17
31
0
13
127
14
-14
30
6
14
64
58
-7
127
-28
12
55
57
107
40
-22
127
48
39
108
35
-10
-10
-25
-19
0
127
-9
-14
-22
-18
-7
37
-12
24
127
26
-10
36
-10
11
56
10
-127
-121
-86
6
56
12
-31
-40
-29
-50
-127
-25
-38
-45
-36
7
15
7
-17
127
-12
0
10
11
-17
-10
8
-47
-9
127
-23
-15
9
18
23
16
36
87
127
9
20
10
24
-59
53
95
127
61
40
-64
66
-62
-76
-16
-88
-127
-49
-51
-41
-14
3
-23
-4
127
-36
-20
7
-21
-12
12
12
18
24
127
-11
10
10
15
-53
-100
-36
-62
-127
-98
-38
-124
-14
-10
21
-5
20
127
8
-2
13
-6
30
-69
-17
127
7
-57
22
-52
-25
14
67
-3
75
127
22
9
58
-10
47
15
-37
127
-32
-64
38
18
-41
-6
14
-1
61
127
-20
1
15
-3
43
62
40
66
127
58
47
66
36
47
28
-33
127
-55
-60
54
30
-29
38
-55
-63
0
32
-8
-72
82
127
41
44
-6
48
127
-11
44
53
-9
-59
-54
-32
22
72
-11
45
127
21
-6
12
-5
5
127
0
-5
5
6
32
35
-4
127
-19
-51
35
41
-26
80
27
-6
127
-78
-44
85
37
1
47
66
-23
127
19
-31
36
66
-7
8
-16
4
22
127
7
0
-16
2
54
-5
-36
127
-62
-39
51
-9
-39
-68
-99
-51
-40
-127
-76
-54
-99
-58
28
42
33
30
127
34
30
48
28
-5
-41
-8
-32
-127
-42
-4
-47
-12
54
97
66
127
1
38
39
101
52
-3
-76
-87
63
122
-127
-4
-72
-87
-14
1
2
2
127
2
-11
1
2
13
48
-19
127
-60
-59
7
-3
-6
12
5
-2
14
127
5
11
5
0
-54
-127
-67
-93
-49
-114
-57
-115
-64
11
124
29
-16
-37
5
8
127
20
1
66
28
26
127
68
13
60
29
-43
-67
-13
-46
1
-14
82
127
5
31
60
28
47
127
81
12
59
24
