-19
-3
-34
-42
31
-7
-74
-38
92
-22
-81
-15
-10
-5
104
-98
80
2
1
-8
23
68
-19
-58
-64
76
-10
-33
-4
-127
-91
-9
-18
50
-12
-20
0
41
-22
87
23
39
58
-7
-79
-39
-57
8
-2
-123
1
-17
-20
-27
39
43
39
-17
-63
-10
-105
50
6
-14
-16
-17
-3
-74
8
-18
-22
-60
-70
-81
-47
-56
27
46
24
-84
-44
-26
53
-57
18
-5
23
78
26
26
-31
43
-57
-26
38
-68
-7
-37
-25
-78
-45
6
29
62
33
-3
-15
48
0
26
-35
-44
8
-8
-127
-12
61
-18
-23
-69
22
20
-67
46
-22
-42
11
-35
-94
2
26
-9
43
127
-13
-86
-22
-27
-127
-45
74
-30
-59
69
20
56
-39
-21
-17
9
35
41
-10
-26
-9
-73
18
4
-7
10
-2
91
-79
-41
23
69
-28
35
-48
28
70
28
-22
-52
72
-14
31
46
-17
-4
67
-15
127
-22
64
41
-77
-11
25
-26
-69
-64
-93
48
-76
0
25
14
-80
-99
45
32
104
-31
27
20
4
91
-7
-127
-127
-38
-1
-19
-21
-20
-17
4
-22
-11
3
-62
-46
-22
-21
63
-74
70
-52
36
-31
2
57
-120
87
-27
67
25
-29
39
30
-54
-110
56
-105
-62
-57
120
127
-33
-98
-36
-30
-32
34
20
-7
6
-1
15
66
19
50
-30
20
-21
8
-48
70
19
-56
22
25
-68
84
19
-48
109
13
57
40
-37
-80
29
-13
-66
33
-70
-48
-76
19
2
7
127
73
61
58
-16
82
-14
126
88
-30
-89
8
20
31
-11
-53
-50
-12
16
32
2
0
19
20
-75
26
39
4
11
35
-98
24
-34
32
49
50
-24
8
-11
50
-44
-41
-7
49
78
-66
-23
-41
73
-2
47
-33
56
-55
6
-18
43
43
-3
-110
9
-9
-46
42
-27
11
8
-6
-108
-3
54
-16
-49
18
-29
-36
66
-127
-41
79
16
-7
-24
-18
86
38
-76
-37
2
12
-97
-26
15
4
48
-49
12
10
3
-49
24
-55
-2
5
0
1
-23
17
0
-1
-2
9
22
1
-37
29
1
0
-106
78
-58
-3
-35
57
-8
19
-26
6
-32
-23
-43
-26
-77
58
-2
-15
-27
35
-8
3
-15
41
2
-52
10
-44
-17
-29
-46
45
-6
-25
-1
-85
-36
-37
-23
3
-12
-21
-14
-30
-23
-48
-7
-27
-27
-1
-34
-36
-32
-10
-6
-36
-34
-29
-37
-3
2
45
-6
-39
16
43
-18
-29
8
4
4
-32
-29
17
-4
-7
10
14
56
-44
-22
0
-25
-8
-21
-31
-40
-38
-22
-47
8
-16
-63
16
-49
9
-34
27
-9
-17
30
-6
-31
-90
-24
-83
5
21
-5
-44
-58
-32
-20
21
-3
-43
-31
-11
-45
-9
-24
-31
-32
-36
-19
-18
-39
-27
-8
-26
-3
18
30
127
-71
-20
52
-7
40
-18
27
-13
-22
5
-63
84
-6
24
7
-48
1
0
-1
4
48
14
7
-6
2
-56
2
33
-110
-41
-1
-1
15
21
-27
-3
-46
38
-5
19
61
-39
-7
64
18
68
5
13
-13
-7
-14
13
37
25
-2
-29
-9
-16
-30
-19
-29
-11
-7
41
-20
-9
-1
-20
-5
12
7
-8
-41
-99
-15
-10
90
-28
35
7
79
41
55
11
-6
-42
-14
19
85
-35
-8
-60
3
-73
8
-18
-26
21
4
-12
-56
19
21
-12
-22
33
-8
52
-62
0
-8
13
3
-14
-50
-13
8
-23
-16
-9
3
4
-33
-107
-8
-44
-14
-3
8
35
4
-37
7
4
-18
-30
-36
52
-42
6
-22
7
18
-4
-3
-5
29
21
-5
-17
-19
-23
-36
-44
66
14
-8
-1
2
-51
-13
-76
46
127
6
-4
-17
17
54
-10
21
-47
17
-62
42
3
22
10
15
1
3
37
4
-50
-7
-6
-50
37
-18
-3
-29
125
89
-25
48
3
-71
49
-34
12
-46
1
53
-107
-8
-39
16
-36
-31
-1
-19
-10
38
30
-32
32
-2
-2
-4
60
-10
-8
23
-20
-3
26
24
-2
-98
3
26
41
-35
73
19
120
16
-62
26
-34
78
-6
2
109
30
92
-16
56
-25
14
20
-8
-2
-19
-13
57
-14
5
5
27
8
-4
-127
-31
-17
127
-14
-5
-16
-60
32
18
83
23
52
-2
20
70
-18
-23
15
51
-15
77
10
6
17
4
9
88
127
-28
100
-6
-1
0
-14
47
-19
112
23
-11
49
22
2
-33
-69
-7
57
-39
-2
16
9
47
-9
-6
-29
20
20
-4
32
-8
43
-95
-8
-23
-29
-10
23
-36
-31
-12
50
12
8
9
20
-33
-59
51
-10
-126
-127
-12
55
-33
-45
23
23
3
-27
-50
-39
72
-66
-108
49
-4
14
56
22
70
-1
67
78
0
-40
13
0
6
-8
-9
17
71
10
12
75
15
-33
116
19
-30
11
3
-74
38
59
9
-2
37
22
-7
-93
3
-19
38
-3
-37
107
80
25
9
-11
11
37
-61
-33
93
0
26
-8
-22
16
58
12
-81
-106
-99
0
10
19
36
73
46
-40
33
-65
-12
96
-7
120
-50
40
-70
-46
-5
6
-5
13
-15
58
-31
-11
12
-23
85
-52
5
60
125
-101
-66
-4
-91
-2
86
-52
30
-95
75
14
1
-112
20
-16
71
-55
-41
59
98
-7
66
69
1
-97
7
-58
-47
32
-3
-11
4
-2
105
-53
127
97
-86
82
-27
98
-10
-49
95
35
-115
-78
-59
-1
-111
-68
48
100
-75
-62
-22
-102
49
-65
-19
108
-29
-102
0
42
0
88
-39
114
117
27
-94
-87
110
3
87
39
19
-18
14
22
36
-16
64
-10
104
-9
-7
2
-4
84
61
2
-31
14
33
-16
55
19
-105
61
-15
13
11
8
-60
-97
-109
34
32
-89
42
82
-105
63
-12
21
33
-77
-85
-13
10
73
-88
66
55
44
-7
-62
24
-2
1
-20
111
89
-33
-66
69
74
-6
-16
127
-80
-77
-40
-62
-9
13
-39
10
-23
-54
-49
19
-23
99
-104
89
6
28
35
-97
-5
54
-19
-102
0
-52
-43
-15
-127
14
-42
-15
-40
74
97
-4
12
18
-65
16
11
-16
-68
9
52
20
-56
-32
34
-6
10
30
46
-60
-14
-57
-15
21
127
-21
-1
28
30
-101
-48
-29
8
47
8
2
13
-60
-31
12
127
-18
-71
-2
32
-23
-11
14
26
73
-62
-122
-64
-17
33
-39
-25
-16
-27
-23
17
47
43
24
-9
127
-14
-7
31
-33
-88
-57
62
-17
127
-4
-27
5
44
7
12
0
-69
50
88
127
-16
46
-29
-81
82
-75
-31
18
-55
-11
3
127
13
53
-4
86
-36
25
-8
2
1
58
4
21
3
7
39
-49
1
-1
9
33
-20
24
-9
46
-80
40
-12
-12
49
-24
-64
127
-84
-28
22
-23
63
-108
25
-2
59
7
-73
-21
-32
5
-25
-33
41
-11
66
-66
49
-80
50
-26
-13
-78
25
24
5
68
101
13
-4
-7
127
-15
2
-10
57
-19
-14
29
56
24
17
-6
-63
-10
127
-32
23
-4
33
-55
-5
-122
13
-34
-37
-48
18
-10
15
-127
23
-127
-21
-72
-15
8
14
29
-57
7
-2
11
-26
8
6
39
40
18
-85
-30
69
28
-14
-15
-83
93
7
-12
-94
-29
24
-52
10
22
-8
47
-45
-50
-19
27
39
-32
-38
-3
-10
-127
79
-26
-8
6
12
27
1
-41
9
90
-52
-14
41
32
-13
0
127
-33
127
-23
-25
59
33
38
-14
-33
34
-71
3
14
11
-86
59
127
11
13
-16
-9
19
-35
24
9
-10
10
0
-2
-1
20
-4
40
9
41
-29
-25
29
65
-28
-26
8
11
34
62
8
-20
21
29
-32
28
56
3
-5
67
-6
-118
17
8
92
-10
-35
9
24
-30
-28
-127
-13
-24
18
5
53
-116
-14
29
15
17
50
-78
40
-11
38
17
7
35
-124
32
2
-103
7
-18
-127
1
-9
-15
29
-10
-24
-76
-18
-127
-5
7
-9
1
-37
55
-16
22
-73
83
-39
-22
23
-89
-30
69
-31
24
-2
-47
0
-13
-45
-68
-69
48
23
-34
49
-22
125
-43
35
-18
-81
19
-108
-127
-21
19
127
28
-45
82
-127
-13
-25
-40
-10
27
-6
-81
-10
-28
-92
-42
-5
-10
24
90
-22
-24
-25
-20
-32
-39
-8
-11
58
-14
23
16
25
-26
32
-40
-29
-26
-38
-28
-127
-7
-123
55
79
51
60
-32
66
37
7
40
-56
-34
22
-49
46
-127
12
76
9
92
-55
43
80
20
82
11
-50
-24
50
6
5
0
-15
-59
-99
-21
23
54
53
51
71
10
33
47
-26
22
-19
-15
1
-5
-26
23
-17
-23
31
-33
-29
48
-17
-85
122
25
4
8
12
-23
-9
-6
44
-32
109
7
-7
38
-46
-1
105
45
-103
40
-31
-6
-6
-58
11
-38
42
-35
-18
-28
71
-30
-24
-59
50
68
84
27
13
-72
-25
34
36
19
24
52
-5
-56
-52
10
-6
-33
55
4
0
15
90
-70
-8
-95
43
74
27
25
-95
-13
6
53
15
8
-5
78
11
-5
-71
70
-77
37
-58
15
59
53
78
17
16
40
-2
55
14
34
126
-68
3
-95
-61
16
38
54
51
-73
11
-9
17
61
17
95
85
26
-3
-64
-77
-87
-78
68
-22
127
12
-72
16
-40
-101
14
21
16
-10
-43
23
-52
-29
-3
19
25
100
-4
66
-7
20
40
-97
80
27
51
10
42
15
30
16
-97
-6
63
-96
38
124
-5
-80
7
1
36
-108
-123
-28
-7
0
61
-94
-103
66
16
61
-27
-4
-16
-42
121
-9
-25
-7
-19
-25
52
15
-8
-106
5
2
42
-4
69
1
-84
13
-30
17
8
30
-36
45
-30
18
-5
-31
2
-127
25
-4
15
96
-33
127
12
42
38
40
3
-12
-37
55
49
-79
43
-13
15
50
22
69
-18
-10
-4
-91
9
-75
52
17
-96
-25
99
-84
-38
-16
22
-61
-28
-57
13
-90
13
6
86
-92
63
-75
29
20
58
-20
37
6
1
-54
-58
-16
-11
2
-29
-89
2
-16
100
54
25
16
9
-13
16
20
-14
-65
-41
-13
53
-32
-5
61
32
-56
85
56
-34
29
-63
-127
-49
-6
-65
42
-37
-85
-58
-1
18
99
49
6
16
-83
-12
14
56
-2
21
-4
13
61
2
-31
14
-48
-6
41
-4
23
-42
24
49
108
50
-85
84
-23
-49
25
-7
-14
28
120
-50
5
-30
-13
-33
-29
13
66
-66
43
13
30
23
-14
-20
-96
-57
2
26
-3
-19
54
-96
115
33
93
23
11
2
-10
-92
20
50
16
28
1
-8
-3
-3
-1
31
4
18
65
59
38
48
13
-75
18
46
-8
-32
-23
-9
0
-19
-36
-10
-72
57
37
8
-52
31
33
61
-127
36
-8
0
27
-59
2
-66
20
25
-25
-21
21
-18
22
53
-92
2
-39
-39
17
39
18
18
-38
88
68
-80
63
26
16
22
-87
-65
35
-6
6
50
27
0
-6
8
-19
4
18
7
-10
9
52
1
-2
-33
4
6
11
-115
-29
-6
-11
-2
-5
6
-16
12
17
-3
-46
-28
2
-4
-3
116
-1
42
-13
-12
5
-6
-9
-12
-116
-5
-5
11
-62
8
19
14
51
-58
-30
1
-9
15
10
-35
-15
11
-4
-2
-1
-87
-38
25
-91
3
-7
0
17
-10
-3
-13
1
60
9
-19
-26
-5
127
-81
8
-18
-1
-7
-20
5
1
24
2
-3
-7
80
-6
2
7
0
17
-13
113
5
-2
4
11
-6
-29
14
26
-1
-26
-4
-17
-15
11
5
-78
81
3
127
14
-4
127
2
47
-34
-13
-3
-24
-4
72
81
37
-79
-18
-17
29
27
52
13
-35
-74
5
-105
1
-4
-16
2
-7
-10
6
17
-14
-32
15
2
-1
-1
2
15
26
-8
-35
-18
98
1
-18
90
-25
3
29
-11
-43
31
-14
-61
0
32
-5
3
-8
4
122
-36
2
20
10
-69
-6
-29
-38
-68
16
-17
-34
-7
-35
44
61
4
2
-51
-51
41
3
-56
-15
-65
44
-13
-7
18
-7
-59
14
-61
47
-50
-43
18
82
40
46
0
9
15
-12
41
-25
-13
-17
-29
-51
-9
-11
0
17
24
-61
53
-5
5
-8
68
31
22
15
4
-15
29
-41
3
21
66
-4
-85
38
-22
28
-65
51
15
-50
-2
-13
-36
4
-6
-10
-45
53
58
4
-68
0
-14
21
30
1
-10
31
-10
-3
28
15
-81
-7
39
15
1
-12
-16
19
58
-19
-19
5
12
6
-25
74
-13
60
-13
25
37
39
-7
-127
6
-1
-23
-54
36
13
20
29
-1
10
-2
29
-2
15
-40
45
-20
13
-9
17
14
69
26
93
-127
30
4
59
6
34
5
-7
48
29
-68
-25
24
-10
-7
-19
-45
32
-13
-23
33
16
-42
18
3
-53
36
98
-19
-4
6
41
50
20
51
-61
2
-3
14
-3
6
88
-5
2
-25
-3
-50
-22
35
11
-28
-13
-13
-5
-7
24
-10
-19
-35
6
-52
-36
-1
15
22
-3
-29
23
-127
61
-5
-5
-34
1
-29
24
10
-14
15
17
3
-7
10
-18
29
-22
50
-15
15
-16
-17
-7
-30
-60
4
3
22
41
33
51
-3
4
18
-22
-40
13
-34
-19
50
-16
15
7
28
23
-16
-74
1
-19
-20
11
-15
-101
-22
-5
-53
2
-31
-30
-21
-1
13
125
-44
-24
-11
23
-21
-27
-2
24
-120
16
26
-15
40
-2
2
10
3
-1
110
127
27
3
-5
10
-1
16
-24
31
5
20
-5
-10
0
-26
9
23
-51
5
-114
1
34
80
38
-25
67
0
8
72
39
69
68
14
69
-9
-11
41
-31
8
24
-19
-30
17
-15
-16
-6
-29
-8
-5
-4
-25
-54
8
6
17
-10
36
-79
10
-21
41
-54
14
-7
40
-1
18
18
25
-4
-35
17
-24
-29
-27
27
-32
-33
-21
2
-3
-4
105
-53
4
-59
-1
-86
-5
-51
-21
-49
4
-4
-50
12
6
22
-10
17
25
19
-47
-60
2
0
10
-101
-76
-67
14
0
-16
0
4
11
91
-10
2
5
5
20
46
-8
14
-126
-3
94
-21
-26
-49
-12
-53
15
-13
48
-7
-47
34
-55
-18
9
-88
127
-7
49
14
-69
2
10
12
-24
-5
96
-5
127
50
30
85
15
21
3
-34
24
5
-5
-5
-127
-9
2
-12
29
52
-127
19
-58
-6
3
-16
-11
-6
59
-8
24
19
15
-33
-32
-17
-10
11
-125
50
-26
8
13
-5
-10
-21
-44
-38
12
94
2
17
15
24
0
75
59
-5
30
-14
12
40
-17
25
-14
27
1
-16
-14
-32
77
8
71
2
-16
40
30
-77
39
-1
88
7
116
16
15
47
-10
1
10
27
31
9
14
-3
3
0
10
21
-12
-67
117
39
37
-127
10
-6
-127
-1
-2
2
-21
39
-52
11
-26
6
-83
40
-9
-17
4
-48
-35
-18
23
7
-70
7
-58
38
-77
23
-26
-9
23
8
-18
-5
127
-21
62
-48
-83
27
34
10
-33
-34
-34
-33
4
-17
-28
61
-31
71
-3
-56
13
-1
23
11
-22
2
-22
17
-28
-16
9
-32
-13
25
5
73
116
-6
-43
-6
12
-35
21
-27
17
-11
6
-30
-26
13
85
-85
3
-3
54
33
-15
-48
-20
24
-38
-16
-1
49
4
-8
24
-18
31
5
42
13
43
46
12
21
31
33
5
-17
-7
18
-15
25
-15
11
-127
-31
19
-3
22
17
19
36
32
-1
27
-8
8
15
-9
13
-1
-8
-7
-4
2
9
43
-82
-61
19
47
60
20
30
32
-8
66
-21
-7
77
34
-24
127
54
-4
-37
-29
59
15
-24
4
22
-6
55
-2
-3
-11
11
-10
-18
-16
3
-58
35
40
-31
4
47
-42
19
-20
-13
-17
-25
-4
3
-26
48
-35
34
13
17
28
35
100
-18
23
-33
-11
30
1
-21
-2
72
-21
-29
-54
8
10
21
-34
-13
4
21
4
0
19
17
4
88
93
29
51
-24
-35
13
-127
13
53
63
-49
-1
-8
-11
10
66
14
21
30
64
11
7
15
-8
-15
9
-38
18
49
3
-8
-21
-13
8
8
-44
-22
-6
14
-66
34
-21
31
5
-61
41
35
17
-15
15
-67
54
-21
-12
-52
3
19
16
47
50
6
11
14
19
13
27
-52
-8
12
16
31
-16
23
55
-97
17
-8
3
14
14
-4
18
-63
5
-5
4
-35
-12
-25
2
6
32
39
48
23
0
12
3
-10
-5
-26
20
10
42
12
9
-2
17
11
82
-12
7
-1
-24
14
5
15
-94
-127
22
-10
-127
6
47
-18
65
-110
28
11
16
-30
2
-26
50
-6
16
-1
-15
-1
15
24
27
8
17
28
2
23
-38
1
13
14
10
9
9
-115
-51
-6
-54
-6
-72
-7
4
18
-12
10
14
-33
27
20
10
-9
-31
-5
-10
2
53
-21
-46
43
-2
-103
-2
32
24
-32
18
-16
-95
35
26
-55
-8
8
30
-79
-103
48
68
10
17
-27
113
59
10
-68
-2
14
3
30
81
39
-30
39
-7
27
66
33
29
-7
8
10
-85
32
-86
39
59
-94
67
30
-8
127
-7
12
-71
13
46
116
29
-31
43
6
56
-41
19
-47
-8
45
-19
40
-7
-13
3
16
-72
-32
31
48
60
-58
51
-13
-18
64
28
79
-97
-1
28
-62
-12
-67
38
-70
-83
-40
6
-7
-10
-14
-9
16
-15
-23
50
47
-66
1
96
85
-127
-59
-18
-7
72
109
-9
21
-35
-33
43
-43
4
69
-17
-30
17
-38
-82
20
26
-6
18
-29
-10
29
25
59
27
-42
47
-89
-98
37
-40
-50
-25
48
127
-34
-18
16
1
-15
14
-11
11
12
17
127
-55
4
1
11
-11
-95
5
-22
-32
28
-52
23
66
2
120
44
-54
-39
-1
-90
57
-94
36
13
-29
-75
-12
0
-13
86
18
7
41
45
-34
5
-16
62
71
0
10
1
24
12
5
8
-7
0
-11
-15
16
-39
2
-39
-48
40
-3
4
9
16
-14
8
-8
19
-23
4
121
43
-11
0
-11
12
-2
-61
7
15
0
-8
1
1
30
16
-4
-45
-71
-10
-43
3
-36
45
-81
-6
-18
24
-1
-22
-44
25
-8
53
7
15
49
63
6
11
-4
-12
35
1
-11
34
0
-26
3
-40
12
-11
-25
58
-9
52
-10
-5
-2
-10
-1
-63
2
1
21
-59
3
6
13
-1
8
63
-20
-12
-5
-2
8
-15
-117
118
14
-5
14
-1
4
10
-17
1
-5
-32
3
-70
20
-6
-12
-5
39
-16
-8
4
-20
-17
-45
6
-58
-106
-2
-4
-9
-109
-85
18
-45
63
19
-17
8
-1
-1
-1
-9
-9
-5
1
4
0
-3
3
-8
37
-2
7
-103
104
-60
12
-5
-4
-124
-41
8
0
-24
3
-11
-69
9
-26
8
34
60
2
10
8
-25
-1
-11
36
4
79
8
-31
-58
28
-12
18
-33
-6
24
-16
-79
21
22
24
-49
73
-6
89
-3
-62
99
-75
12
10
26
83
45
55
-12
24
-41
-3
-30
32
-23
-3
9
58
24
58
-37
44
-2
-14
-37
7
100
-104
1
46
26
-69
-49
-20
30
37
36
-27
1
19
15
-14
9
35
5
54
22
-35
-56
-20
-36
63
12
18
20
-10
-7
-13
-2
-2
4
127
-6
37
63
-78
-15
2
-87
13
121
-10
22
-33
12
-32
6
-4
14
-5
6
12
-12
-12
65
-84
-1
8
22
-11
19
-26
0
-3
-10
2
10
3
9
24
21
-42
17
122
-6
25
72
-55
27
29
15
-6
-6
-74
-17
24
-24
-20
-28
-42
76
-90
-59
20
-63
93
-13
-69
-21
-9
-14
-6
-11
8
-15
49
-1
47
-81
-15
-52
72
-19
-26
55
0
-14
3
45
-17
54
-14
-21
18
-127
15
-5
-46
-3
21
67
17
5
4
27
4
-32
-31
-26
77
-6
-69
3
-15
-80
-110
-22
-115
-12
-127
-35
-42
-21
28
-22
1
21
28
-15
45
20
-13
67
-35
-32
-8
-99
-19
-24
-19
-112
-43
-7
-15
-100
4
98
91
-29
-25
27
3
20
-127
86
33
-25
110
28
75
-20
47
-29
-38
-38
106
-36
-26
16
-127
2
81
0
94
-35
70
-20
3
29
11
44
-21
-6
-25
26
-127
-61
20
-16
17
74
-16
127
14
21
-9
38
21
-123
44
-8
-14
-36
82
-28
-38
33
-46
-13
-14
-75
17
92
127
-127
1
47
-10
-9
-40
-70
9
-15
68
16
1
21
36
30
31
-50
16
56
8
127
74
-14
14
17
-32
5
29
-7
40
22
-14
38
-98
-4
3
-13
-65
27
13
-25
12
-20
18
-44
17
23
-127
-121
-6
-6
-43
93
-18
19
-5
-50
127
-32
4
-15
-5
40
-61
-2
-31
2
-127
50
8
39
80
-8
8
-89
-15
15
-35
-20
69
-29
1
-110
-44
-29
-33
-18
-20
-26
23
-102
-14
-8
-127
-119
12
-1
-4
31
-7
0
-19
-7
27
74
-34
-17
2
-9
89
-64
-44
47
1
16
20
-24
21
-2
6
12
-3
-66
74
28
13
10
27
42
42
17
-6
4
-20
60
5
-38
66
9
-28
-3
5
20
-12
-49
-114
-21
29
-1
-38
12
-2
-20
33
9
-103
-14
-38
24
-24
14
20
-38
18
114
13
-14
-36
21
-6
17
-31
-62
-8
18
-71
10
1
-32
10
11
3
30
-46
-6
15
20
31
-16
-53
6
8
-10
19
45
-9
-5
-1
30
31
-10
34
-46
-2
-40
-6
6
4
3
32
-34
20
9
12
38
29
21
-10
51
18
0
-2
17
2
127
-77
-46
-73
-33
-1
24
75
-84
-24
-24
69
-26
-30
-9
4
27
-16
-16
5
10
-13
46
-14
-60
-3
-18
26
16
6
-64
-119
-37
-7
0
-14
-38
-32
-18
-19
-15
-5
22
4
-24
-5
16
-42
39
-1
14
2
-32
9
0
31
-3
-58
13
36
-83
-23
-3
-32
-4
-16
29
-38
55
-70
-25
-74
9
-115
0
-68
-12
1
-127
-21
21
-31
14
5
-15
12
-45
-16
-20
-1
-56
32
-22
1
-23
-127
-37
-17
-33
-4
-18
-7
-36
-30
-14
-108
9
-64
36
3
3
-34
-89
-37
63
-33
-1
4
-48
-66
107
-81
8
-1
11
75
-48
2
108
10
19
-22
74
-11
6
-21
6
-7
-58
-45
2
-21
24
34
-27
1
-39
-39
-34
-5
2
-35
8
-18
14
2
-5
23
-56
15
-13
57
32
7
3
-21
14
7
1
17
-77
8
-70
-1
-16
-17
-51
-29
-44
-29
14
24
-38
-1
27
-18
2
-87
-23
-5
-93
-17
-14
15
-48
43
-13
-11
-6
71
-8
9
89
83
-14
127
-17
-11
-1
1
25
-17
-43
24
-13
-1
24
-21
-37
11
-27
-6
-11
-23
50
-32
-90
-15
24
-73
-16
-34
-25
14
69
-52
-41
2
6
-11
-13
-6
20
0
52
-13
25
34
-3
14
-14
-11
73
-14
-18
3
26
-13
21
40
-66
-17
9
10
79
-3
30
64
-7
96
-8
-33
-23
0
12
96
-46
84
16
18
38
22
82
-21
31
-4
13
-31
-4
22
35
8
30
-12
94
-8
29
97
3
-16
-36
-67
37
-16
27
-22
-6
-15
9
28
-1
-62
21
19
2
-75
39
-36
-55
-26
24
85
-48
13
-109
3
-9
-2
4
-18
9
-28
27
-4
56
-20
-7
3
-99
12
31
-4
26
76
38
34
7
27
14
2
-20
4
-11
-91
46
-99
-3
-8
11
46
49
-7
127
1
8
-5
-1
24
7
66
30
-2
8
6
116
23
-33
-76
-8
-4
11
9
-49
-95
27
13
-8
-83
-50
13
38
29
94
-6
78
85
10
36
-18
-9
5
-3
-15
-2
-9
89
11
-54
35
12
-75
127
39
37
32
63
-32
6
-22
-2
78
17
32
7
-30
41
28
-43
36
31
92
30
14
-5
16
4
39
-14
10
120
3
-33
3
-13
67
57
-10
-1
-28
30
119
-103
30
-48
-41
65
0
-17
-5
6
48
53
-28
-13
-19
28
-17
76
58
37
-82
127
32
-13
50
10
5
-2
18
15
33
-23
-55
15
67
21
51
-15
-12
69
-39
-34
81
109
-27
34
127
35
-6
22
-34
60
-55
10
73
31
-41
-52
-1
-15
50
3
20
41
-29
-7
-48
20
40
13
-18
-52
7
113
4
32
19
25
13
20
56
-22
58
-34
-20
-2
-9
-101
-47
-44
-3
11
41
-16
44
-5
16
41
-25
-48
-20
-41
29
34
-61
-27
-3
47
56
5
51
7
11
57
-15
-13
7
-49
-23
125
31
-12
-45
-5
-9
124
-8
-45
13
-66
-18
-27
23
34
34
-44
31
-32
17
-11
-114
13
-34
46
42
-33
17
-41
49
9
-6
-11
127
-15
-22
-18
0
86
-127
127
-4
21
-87
32
-81
22
-61
7
-38
18
-25
53
48
32
-11
33
-24
-27
-33
37
-48
-26
-32
29
-10
14
2
-32
20
34
-59
-35
41
-11
-14
-35
-5
-14
-127
-57
-27
12
-22
-40
-16
31
-64
-15
22
39
-127
28
43
20
48
-15
-24
-16
3
21
-17
-11
-14
-4
-49
-15
-58
21
-48
11
34
-5
15
17
33
6
-36
-16
27
55
-16
-54
4
-67
15
-1
27
6
18
16
-6
-50
-127
29
-19
35
32
11
-63
-8
-4
-37
29
-3
27
-49
-23
58
-60
18
-20
19
-26
-6
30
34
-11
-28
-14
-23
11
-15
43
-9
-24
8
-45
20
-46
-16
7
13
-8
-15
-3
-62
-24
9
-67
-16
-24
-19
-47
-70
-79
-80
17
-57
-113
6
-21
4
-41
4
1
12
0
2
-96
-113
17
-37
73
-66
-21
-4
41
-18
31
-4
-63
-9
-54
-16
-28
-14
-20
-12
-29
9
32
80
-26
-28
12
9
-40
-67
13
-101
-47
21
5
-25
6
-6
-120
10
-53
-14
6
16
-7
-127
27
-59
-7
-12
24
-9
-31
15
33
18
2
-4
1
25
9
-101
-37
18
0
-7
-11
6
22
-10
7
19
6
30
10
-44
-7
14
68
22
36
3
-1
9
-23
3
12
-12
-27
7
-47
-25
25
9
11
-27
28
-5
13
-16
15
-18
21
-8
8
69
10
50
-11
-7
3
5
-4
28
71
-18
2
3
8
-19
24
-11
8
-8
7
45
-67
43
23
4
-6
19
-15
-6
12
-38
4
3
10
17
11
13
-57
-36
5
-15
8
13
11
16
19
2
3
28
1
22
19
16
-3
12
2
18
-24
4
5
6
16
35
-85
90
48
6
40
3
-5
-2
13
11
76
-35
7
37
0
34
-32
1
127
-36
-3
2
-39
6
-6
-8
70
3
10
24
-31
42
30
-5
15
1
11
28
-1
-7
-16
9
16
3
3
24
31
5
-3
16
4
4
28
8
127
49
8
8
-26
-4
107
8
69
19
15
7
-12
127
-14
39
2
6
-39
-4
-4
-4
106
41
10
15
-6
-43
-7
40
55
49
-11
-31
-31
2
19
-30
-9
20
13
-18
-57
-23
8
23
4
-33
-8
49
12
-2
-3
5
61
5
-18
9
11
-6
-76
-7
-17
-4
-7
35
-19
-7
-17
39
-24
20
-20
-1
-7
-5
-9
-13
-22
28
-49
0
19
-36
-37
1
7
2
-8
2
-11
16
-15
9
6
-108
-25
95
-41
0
-32
-20
-127
-2
-11
3
-8
12
-6
49
-51
-26
-85
6
-1
-29
-14
-14
-22
-10
-12
60
-3
-45
-8
18
-24
-67
6
-7
4
-67
-40
-1
0
-10
14
-18
-127
42
-73
-3
-62
-3
-8
3
-6
-2
-27
-21
-6
-76
46
-3
-61
1
-19
26
11
2
32
-9
-26
7
-50
-41
-22
-32
-61
28
77
32
44
-63
1
-30
-19
2
-15
-3
-17
-12
-6
-4
-20
39
4
-18
-8
2
-15
-29
14
-100
-41
-16
70
8
74
54
-34
-3
-13
7
-37
-28
-4
25
7
-11
2
2
-6
0
-127
-16
13
8
2
34
3
-38
-11
-21
5
-8
-16
-8
54
-39
6
-111
36
43
-19
81
6
-13
47
12
62
-3
6
-24
19
33
27
16
-67
61
24
-1
-14
4
-98
-26
-5
-1
-29
24
-1
15
74
-18
-7
27
59
-48
-49
-1
33
46
13
-34
82
-1
-15
21
31
-8
-34
14
76
-4
-59
-45
61
-9
7
28
29
18
-4
3
66
42
27
-46
-37
82
-18
-42
-127
21
-6
8
18
-36
11
-44
-76
14
37
-63
47
38
-56
31
12
-127
18
32
-7
54
11
31
19
-77
31
15
-28
-14
99
15
42
43
19
31
6
-11
-86
9
26
52
7
12
-21
58
-21
19
35
0
2
52
-11
28
-58
-29
22
-19
-25
-13
57
14
68
-56
-49
6
-66
-18
-17
34
48
-49
-13
-29
17
1
17
-1
54
-14
9
-31
102
-24
-63
38
2
-12
21
23
59
25
127
76
-15
48
14
-12
20
-27
-56
-28
13
-3
71
-3
-10
-24
-24
2
18
-15
56
-38
-24
-8
1
-5
-12
-22
-23
26
-14
-39
42
-2
-8
28
-4
55
-10
-26
-25
2
5
1
9
5
-17
-6
-1
-9
50
-15
-35
-2
-19
-38
-20
44
-5
4
9
-15
9
-9
-11
-38
2
13
25
-31
14
-8
-13
-79
-7
-32
-10
4
-17
17
-20
6
3
-54
8
50
-9
53
7
11
24
-7
102
-20
-3
-11
3
4
-20
4
36
-1
10
-78
-9
-23
-18
-14
14
6
10
127
2
14
-1
12
-4
20
2
10
-4
-127
41
-17
-6
1
12
-24
-103
89
24
-2
-15
-1
-10
-8
-20
-5
-33
-8
13
-60
-21
10
7
-14
33
26
-20
0
11
3
27
-16
35
35
-1
-1
-8
-21
-28
0
-18
24
-14
21
-24
-9
-26
-3
-2
-5
-24
11
-16
-14
-36
-10
-8
-23
2
48
7
-80
16
-11
-37
-15
-22
-42
32
-16
-11
6
-18
45
22
22
13
-11
-15
-6
1
1
33
-8
-2
-3
-4
-69
4
14
20
-22
-7
17
20
-22
26
0
-2
-92
17
-20
33
-23
4
14
-24
-25
-26
-29
-11
-7
8
6
-90
8
3
-22
65
-5
9
31
29
24
17
69
23
-7
32
-17
21
31
9
14
12
15
19
-9
22
-6
-11
-17
-63
15
127
-18
1
20
13
-5
27
-23
20
32
-15
-27
0
90
-26
7
22
20
-119
3
-10
17
20
-57
20
-97
4
5
38
20
-11
-6
-10
11
14
16
3
28
1
0
18
-23
33
9
-25
-5
-20
-3
38
-5
1
12
-10
5
-47
38
22
1
-17
-11
-5
-14
4
30
18
-10
-2
56
19
-11
58
-21
-65
-2
15
-7
7
-17
27
100
0
32
8
10
19
37
-38
27
-59
58
-10
-27
0
-4
9
-11
-1
5
-10
4
14
-30
10
12
-10
14
-2
6
20
51
21
1
56
9
33
11
71
5
16
-9
54
122
39
30
2
33
-3
-4
10
-6
86
-74
31
15
-4
27
0
-53
-71
4
-10
-26
12
4
-54
21
12
54
-9
54
96
55
23
-36
2
75
22
21
-5
11
-3
-13
24
-8
9
-9
36
19
6
-107
75
-9
17
113
10
0
12
-1
2
-43
-27
9
19
19
1
-4
-27
-48
11
4
14
-49
34
54
14
-2
10
6
-25
-42
3
-76
18
-4
-3
7
-127
-7
58
19
-8
22
-5
-50
-6
65
1
31
-4
-12
3
-2
11
0
16
14
3
-8
59
-25
18
-4
4
25
-47
-10
-28
14
-2
22
-2
-2
8
3
49
88
17
1
20
0
-41
-9
18
35
22
-56
36
28
8
23
-83
53
-11
-4
-1
-37
-9
1
-41
12
43
-18
-36
22
65
11
-33
43
8
-6
-127
-52
5
-127
-12
-6
47
11
7
5
27
44
35
-62
28
-1
4
-10
59
11
18
52
34
18
39
-10
74
36
45
8
-20
30
58
-16
12
57
-17
-12
41
0
1
12
9
16
-36
-1
5
4
13
20
-17
31
0
-16
32
-7
-31
-28
-44
11
-18
-21
56
20
-8
48
2
-63
9
8
-10
-10
0
6
29
2
-53
-19
-72
-9
-67
-74
-57
0
-29
-108
8
-58
-8
32
-4
12
-21
-9
-34
-46
-3
-1
-72
-80
-41
5
-61
-48
-2
-41
-22
-2
-4
3
-79
24
-3
41
-8
95
-26
-75
41
7
-32
-23
-52
-17
-16
57
-5
-23
5
24
-87
-39
-2
78
-12
44
-22
-12
5
-8
-3
32
-1
-46
13
-49
-11
-72
3
0
-2
-21
-13
-42
-10
-8
5
13
31
11
-82
-1
-127
-3
-14
-15
-15
-5
-56
-5
2
-51
16
-2
50
-32
0
20
-30
-3
6
-38
52
-18
-37
-33
-21
6
27
-106
53
1
43
60
0
125
-31
-8
-38
-8
-19
-11
-19
47
-12
-22
-41
-26
-21
-4
-8
18
-8
38
1
-17
-80
-5
-43
-36
54
5
-63
0
-83
78
-14
-57
9
16
31
2
2
3
16
-23
-22
22
5
77
9
-45
127
-65
-3
25
25
15
17
48
-6
-20
-29
53
8
7
1
-8
2
-71
-28
51
-24
10
2
-2
-31
4
-7
10
1
-4
127
14
39
0
18
40
-22
-88
10
9
31
-3
-12
15
26
99
2
-14
25
33
-51
-2
55
-62
29
31
-33
25
8
-16
-4
33
-5
67
-13
-105
89
4
8
3
43
12
54
16
-10
90
-6
59
18
48
29
5
-21
84
17
66
8
20
28
6
5
24
-13
63
-12
-7
12
16
9
-5
9
-4
-45
6
-5
-4
-5
45
-14
33
21
-12
12
-7
10
12
15
-28
124
3
-12
47
-32
4
50
5
-4
35
-31
1
30
-1
-36
79
-10
-23
16
48
20
-127
94
11
94
-75
4
-17
27
5
11
2
-17
1
12
-20
-6
21
39
22
-3
29
29
48
-34
-61
-27
18
35
3
-97
42
127
5
-5
-18
-1
46
-17
-5
3
-6
23
2
1
2
6
-8
15
9
2
85
10
-64
20
59
11
73
23
-37
69
23
-57
-40
-40
7
33
2
-36
25
23
-34
60
-71
-35
-9
63
91
33
66
120
60
-34
-27
-56
-9
-44
61
-12
-29
6
13
-2
15
-121
-20
-87
13
-37
6
-22
42
19
-21
-7
-59
36
-36
-34
-5
-32
-127
14
-35
106
21
-29
27
5
42
47
-13
-23
76
107
-1
-44
42
64
0
55
-39
74
-36
45
-1
91
-42
-1
33
-69
-39
-3
31
28
20
-7
-18
-46
-76
120
29
23
24
-46
26
82
-52
41
5
45
7
24
-6
59
40
-81
49
3
4
-52
26
-13
63
8
55
-67
19
48
-8
8
5
-28
17
-33
-7
45
-32
23
-49
-38
48
109
-6
-45
51
-56
72
-44
2
-85
-11
-67
31
54
-48
-52
52
8
-21
16
3
11
34
-15
16
58
10
-72
48
10
-12
-44
-14
-5
89
68
13
-69
-33
-32
116
77
-121
-94
-26
71
-44
3
-74
91
48
-25
-122
31
29
-26
5
-48
-72
82
-13
114
-14
-9
28
21
11
25
-127
1
27
-18
-28
-86
-5
5
-30
-58
103
76
84
31
125
-72
1
-17
1
-41
-81
-10
5
-46
-3
61
-5
33
9
-45
26
29
-112
13
-35
127
40
79
48
99
-60
-21
-26
20
-56
70
7
56
-76
17
22
4
-63
0
-11
-24
85
47
-24
-69
-7
-58
20
-62
-22
-78
30
20
-47
-1
5
-2
17
-17
5
-29
-6
12
-57
3
72
61
25
-81
27
-102
9
5
12
-3
-12
40
97
-20
-5
3
24
-22
37
109
-59
-50
11
52
-7
-28
-30
8
82
-63
2
15
51
-9
-4
19
16
-33
19
75
-45
78
-29
-10
104
2
-23
27
19
15
74
11
13
-127
-15
87
-64
-64
-1
51
36
-74
-19
26
21
47
49
2
100
-83
-75
-93
111
40
-5
63
-13
65
-62
36
7
72
50
17
-12
102
-54
79
-41
-74
76
37
-26
-58
39
73
16
-45
37
-22
62
9
-2
12
14
57
1
-5
-16
-14
22
54
60
-5
-14
-2
69
38
-3
-5
4
10
-5
-5
-22
-4
66
87
-1
-89
-4
-5
0
-9
-8
7
19
-4
2
3
4
3
-9
-18
29
2
-13
-7
60
23
-6
29
14
-27
-19
-32
-32
-2
54
-72
50
4
-75
0
-24
1
71
17
-10
-16
3
-90
-21
-18
-21
0
-24
-8
-32
-1
-6
-6
-82
-10
32
42
9
3
-13
-2
35
1
4
7
16
-14
22
26
-13
10
-57
14
41
-16
-26
12
-20
-61
24
6
-9
-9
-8
-7
-19
-26
-22
-26
-35
-11
109
-25
-4
21
68
-46
74
-26
-20
76
76
60
-64
-102
-81
-13
15
23
-49
57
-33
53
-47
-1
30
-69
9
-6
-9
-25
0
-21
-69
-9
-52
-38
-13
69
-69
-14
61
-19
73
-92
36
-24
13
-29
-2
-45
-18
-59
6
-30
-58
-40
-18
-16
-20
35
6
7
7
2
-16
-14
-60
0
-78
26
50
31
-27
8
23
-11
-16
92
44
66
-18
40
66
-57
-75
-14
-83
1
-52
-58
-15
24
-11
29
4
-18
-13
11
96
-13
3
-28
2
-25
-3
-4
41
-10
38
4
38
-61
-42
36
-11
38
-50
-7
-23
86
127
27
-30
100
58
84
24
24
18
24
29
75
-44
-2
92
10
-68
9
14
-7
4
-41
18
76
29
0
2
1
99
14
55
92
-6
15
-19
10
-36
54
-11
36
1
48
-38
4
11
-3
-4
3
80
-46
4
-18
47
22
77
34
24
56
43
-14
-23
30
32
-2
-12
-12
9
-23
73
18
107
-4
-94
122
45
-22
127
1
1
51
7
3
127
-79
-33
-51
-51
-78
-13
30
-18
67
44
68
-97
-5
-11
-91
13
24
-8
1
-26
1
-54
-31
18
90
-19
112
-90
22
-23
34
22
-84
63
43
4
97
32
75
6
-44
21
33
-13
23
-37
-17
46
10
-27
35
6
-8
-3
18
-73
15
-9
-2
-20
10
-61
-24
-13
-30
-9
76
4
73
-59
-26
-55
-47
-13
11
-97
-13
-20
-47
67
2
-8
4
7
-67
12
46
72
-127
9
85
6
6
-3
2
83
-2
36
-1
-20
-32
12
1
2
37
-31
5
-36
49
94
-68
-13
113
6
31
-10
11
35
-32
-20
74
-26
6
21
2
-95
21
-127
-54
12
-20
1
-39
-8
2
-51
-1
10
-26
-116
16
20
-48
-47
-13
8
54
-12
-36
6
-25
69
9
3
1
-66
7
-9
-19
-9
-10
-97
-64
63
-14
-26
-19
-41
37
-33
-5
-13
10
-5
-4
-6
-30
-26
90
-68
-3
-41
-42
1
-65
85
86
-43
-7
-7
-36
101
0
33
-58
-59
67
-56
-49
-31
36
-40
0
-102
-5
-67
-101
7
3
7
8
1
-24
-27
11
55
-124
-5
78
-23
-13
-29
-48
-44
-81
57
55
8
-107
50
40
-21
23
-2
43
-54
9
17
17
46
-11
3
2
-7
17
63
23
-34
-11
-18
-4
24
-53
12
-5
18
15
-20
-13
-28
10
8
2
-32
70
-5
-1
8
-12
-7
-32
-97
6
-4
8
-2
-33
-11
-4
15
-17
-3
-51
-40
-34
17
18
-21
83
52
24
-15
-7
-14
-55
-7
-12
65
8
2
15
21
1
-4
71
5
-70
-20
9
-8
-2
21
-7
2
14
1
-3
-53
12
2
11
-6
67
20
22
-1
-14
-50
19
119
22
-67
15
-24
80
-66
-4
-16
1
8
16
6
5
-62
6
-57
-10
-3
26
20
-11
-3
-24
57
90
26
-2
-1
13
-26
14
54
-1
-5
0
-15
-10
-16
-2
-31
60
-20
2
68
-104
4
115
11
35
21
1
-15
41
18
97
46
20
13
62
7
33
78
127
-5
114
-100
-14
-5
9
-1
-4
-5
-10
9
-2
-13
41
-39
-113
4
7
-25
-7
12
-20
85
-6
-3
-31
1
25
33
-70
-8
21
-14
2
-58
40
48
-14
15
5
-3
13
-2
-98
-46
26
-21
4
-77
-12
-40
95
-54
-27
-69
-127
-67
11
-1
12
10
5
-56
-91
-39
-15
-13
-96
-34
-70
-42
28
-63
-49
32
34
3
-27
14
47
-17
7
-19
34
-62
-21
17
90
24
-127
-89
23
10
-37
77
-9
-73
81
-2
25
26
-127
59
8
103
-6
-105
-27
71
127
56
-57
-74
86
47
-33
-9
66
26
0
5
21
-11
41
-76
-127
-21
-21
47
-97
-29
-102
127
55
-34
-62
-25
7
53
20
53
13
40
-25
-71
127
27
-53
-106
-127
9
-69
-17
46
9
45
126
-6
-33
35
-34
68
35
-57
-127
-127
-10
-10
56
-11
-2
18
-32
3
-16
15
19
-24
-18
-5
10
2
11
-19
4
2
-29
-39
-127
127
-37
43
27
28
17
-43
30
-12
-10
115
-127
-127
49
68
-15
121
81
-109
25
46
-11
-19
-127
-120
91
-30
13
48
-6
1
-11
-63
-127
-10
-21
76
-4
-18
77
12
49
127
-48
-49
127
16
-52
33
-4
127
-33
-72
9
28
27
-70
13
42
0
127
50
44
61
-18
30
127
-58
16
-20
2
40
28
22
-40
22
-9
21
18
14
-59
93
17
6
-26
127
23
0
10
-73
36
-71
35
-10
73
-7
-21
10
-14
-38
4
18
110
112
22
11
8
-108
17
22
-21
71
21
22
72
12
-1
-44
-1
25
-28
-2
99
18
44
23
-5
7
7
22
-1
-97
20
19
-36
-37
8
69
10
21
56
27
6
2
24
77
14
-8
15
19
-5
-23
0
-3
-7
-36
-20
63
-6
20
32
46
3
44
100
-4
-99
6
24
19
24
-53
36
13
-11
3
-57
15
89
102
38
14
-20
10
29
93
37
57
74
-30
63
17
-49
33
-107
2
40
51
4
42
-103
-1
23
1
5
18
26
-51
22
-75
28
2
103
-29
39
21
44
31
-96
62
-83
3
127
-50
-22
8
13
12
18
-37
-2
-26
20
82
-29
7
-7
-2
7
-5
-18
-53
-4
83
-9
-31
-65
19
-1
-37
-12
-57
33
46
10
-41
127
37
41
52
-73
24
-55
28
-16
1
60
29
-31
38
38
-9
61
26
-10
-57
-40
16
-51
-51
-38
-20
-122
127
-21
-76
-77
1
63
72
-79
94
51
-43
22
47
-32
45
37
-15
7
-78
127
-20
17
110
-62
41
45
-42
5
11
21
-1
16
3
-71
-26
-30
-98
-104
-62
-47
-20
-32
94
-57
-2
-22
-64
-68
-127
21
88
71
49
42
-114
-2
109
58
-40
-16
-62
-1
18
-63
79
0
29
-60
-18
47
21
-8
-127
-78
-81
-79
-56
-28
0
-14
-17
-19
-3
15
92
68
8
-43
50
25
11
127
48
34
56
-3
17
-24
-43
31
7
-122
36
-18
-19
4
52
-93
52
-38
-16
20
-42
-67
47
44
-47
-125
5
-30
35
62
-38
-28
-13
-23
10
-78
39
32
-21
-34
-47
-44
-84
-69
14
10
8
127
32
-8
-37
69
45
-26
65
-28
51
-26
-34
20
-84
-46
1
-6
-26
-94
-14
44
-6
-4
-19
73
9
-18
-56
16
29
-16
-100
-4
-97
61
-44
-4
-3
-7
11
17
13
-58
17
-43
-10
-68
-17
-40
-22
-28
81
-25
-69
0
-48
13
6
6
-10
21
-62
3
36
30
32
29
-1
88
-5
-3
-4
-34
-53
-32
-57
126
-61
6
93
-11
-45
-3
-4
-67
17
-14
-21
-6
-6
24
127
-13
16
-55
-33
-26
-39
11
76
-8
38
-4
-16
-56
1
-32
86
-4
-5
-18
-80
-4
-17
-23
-6
-4
-81
12
20
0
-12
-16
-21
12
59
-82
1
-44
9
16
-5
-24
14
-2
-71
-4
-111
61
-32
88
28
-19
-95
-29
0
-107
23
-53
34
45
13
-75
66
64
38
15
20
-48
-63
-12
-63
-31
-5
17
28
37
16
-9
40
-6
-34
51
-18
14
-8
-18
71
1
43
9
9
81
-2
-13
51
-60
-21
25
-6
40
-81
-31
-79
11
-81
-71
-1
-11
3
-115
-59
-15
18
-12
87
-15
-127
-41
-62
-12
56
-27
-98
-19
-6
3
62
-15
26
23
8
127
21
-38
19
16
-22
2
0
4
11
-88
-15
-14
-11
-15
127
0
-6
-106
6
127
-21
3
81
-30
-81
10
-127
10
127
-36
62
28
20
19
-20
19
35
4
-15
37
-57
12
5
70
45
-50
6
40
-35
127
-12
-118
-20
-24
-2
-8
-13
9
-18
-54
-17
31
-31
54
-77
-35
38
23
-53
-76
-14
8
44
23
127
127
-29
127
-52
30
45
78
21
-48
98
-125
-11
9
-8
9
35
77
89
-15
-24
8
11
73
-38
-30
127
-127
0
25
27
84
37
33
127
-45
15
-6
9
-15
-127
24
17
12
54
23
-24
-4
-50
-13
30
-27
18
-30
31
51
-62
1
-73
8
-41
-35
3
25
-16
-49
-30
24
-7
-3
-4
127
-14
47
31
-19
36
-119
-94
110
-5
53
34
-69
127
13
55
25
-116
-3
52
21
-4
2
23
38
-1
13
-21
24
-127
-20
-14
-23
106
-125
127
-73
102
38
127
1
35
-5
-21
-7
35
14
-81
-8
25
90
-56
-34
-71
127
-7
-66
10
-127
18
20
6
-4
21
6
-34
14
-5
69
21
-49
125
89
38
-15
-101
-16
48
12
84
-4
26
-59
-127
-5
0
-17
125
1
101
78
-114
28
-98
21
-19
25
-13
-104
-8
1
-2
21
-70
-53
67
69
-20
-4
-27
-76
-85
-32
52
55
-7
127
7
9
-47
-62
-39
-32
-30
38
-49
-18
-4
124
-43
-114
38
102
11
58
24
126
127
-56
2
14
15
-120
127
79
-7
-61
-11
-18
21
12
24
31
28
-13
-13
0
30
28
12
-16
11
-1
39
16
-13
23
-13
-11
-83
68
38
-6
2
4
-38
33
-37
-28
-26
125
0
17
22
-127
-36
50
21
-53
106
36
-11
-19
-69
-1
1
-38
27
-28
-24
20
5
40
37
64
22
127
17
27
65
6
68
-1
-100
127
15
-65
-8
112
-14
45
-33
127
9
-13
-1
127
-67
-68
-17
7
40
-19
-71
40
103
-100
-22
17
24
3
-127
-102
-66
-18
88
-79
7
-59
16
-71
-16
-67
1
24
-3
-21
-41
43
-26
-14
8
-65
-73
47
26
-106
14
30
49
0
-107
17
-36
-65
67
-49
37
-44
-1
33
99
-53
70
-33
75
-7
127
9
55
-78
-16
11
15
87
57
-7
-63
-55
9
-63
-20
22
-46
-26
74
40
-10
-34
-24
-28
70
-59
12
-7
-46
9
20
27
-44
-121
-32
70
-89
-32
53
57
-31
-120
-104
-19
-45
15
-27
33
-117
20
-11
28
-56
25
73
26
-16
-76
-55
-28
-20
9
-25
7
-1
36
-35
-11
-41
11
-47
-56
20
-73
-65
117
-13
-44
89
-41
35
21
91
-5
80
-40
12
-14
11
67
40
-6
91
-19
-35
-15
6
-36
-60
16
-94
17
-12
42
93
23
-51
58
-81
74
11
-56
-41
58
-17
-7
93
27
94
-88
8
-51
-81
-73
35
-43
42
-39
1
1
8
-43
-5
-20
-20
-1
20
-8
3
2
-127
-30
-26
18
38
-13
19
-7
27
15
-8
-2
33
-4
29
-18
10
46
8
37
-35
-44
3
-9
-10
8
-7
-25
-50
3
-7
-12
-30
15
91
7
31
124
-24
-67
8
55
-16
5
-13
-26
58
-45
9
127
-61
14
-21
-3
31
-4
57
-28
35
-43
-6
26
-12
21
-20
2
20
-49
-43
-10
-5
-31
-32
-13
33
-12
-20
-21
-8
6
-8
3
5
-7
-85
13
-7
-37
-2
-34
20
-36
-20
3
3
-3
1
-32
-12
1
1
-47
4
13
-7
-16
6
38
-3
0
56
5
3
-10
0
-64
-39
-2
-8
-44
-5
-46
-67
127
118
-26
-36
-4
32
-18
-8
-35
2
14
-7
-61
0
8
10
29
31
-2
58
-23
30
-32
-21
1
37
-4
-21
-32
-42
65
20
-11
3
-90
20
51
-6
8
-1
61
-83
-40
-31
32
65
-56
-1
-8
-8
24
-10
15
22
-13
-2
-42
32
2
-18
-31
