2
36
33
-18
-127
108
20
4
25
12
127
38
-21
-79
-19
-33
-17
-10
18
57
6
26
127
40
26
71
4
1
-11
0
-13
127
-9
-2
-11
0
-8
89
40
-78
-111
127
27
-102
-7
2
-20
13
-2
-74
-50
17
127
5
1
17
4
21
127
22
-3
17
6
12
26
10
54
127
46
3
19
7
35
3
-4
-127
95
25
-7
-17
3
-5
-121
-13
14
127
-12
-11
-8
15
-4
6
-2
6
127
4
-5
6
-2
-4
-19
2
-17
-127
-23
4
-13
4
16
95
-17
84
64
-101
4
-127
-42
-2
-14
2
-8
127
-17
-3
-11
-5
6
16
5
16
127
24
3
18
5
-57
-127
-64
-111
-45
-107
-61
-111
-48
18
-100
2
-58
-110
114
-43
127
25
-25
-82
-57
-54
-127
-92
-33
-98
-38
-6
4
6
10
127
2
-2
7
-3
-22
-65
-60
-59
127
58
-51
51
36
-4
-44
-8
-44
127
-44
-7
-40
-14
-85
-127
-23
-46
-54
-117
-41
-85
-46
32
34
-37
15
127
-36
-36
-47
-28
-5
-1
-5
-1
127
3
-4
0
-3
2
4
2
7
127
10
-4
6
-1
-9
-14
-10
-16
127
-13
-15
-26
-5
-44
-125
-106
-90
-91
-127
-97
-114
-51
-4
30
13
22
127
19
30
21
-10
-2
3
-1
6
127
10
-4
7
1
-10
-43
15
14
127
16
-10
-26
-26
1
3
0
3
-127
4
1
1
1
3
3
0
4
-127
4
1
1
4
-13
64
-7
65
127
-80
8
-100
-54
-4
-18
-4
-16
127
-30
-5
-29
-5
-57
123
-5
40
-127
8
75
2
13
-1
11
-3
10
-127
10
-2
9
-2
-11
-127
-18
-3
70
27
4
8
-5
-1
11
1
8
-127
19
2
10
3
-8
-15
-4
-20
-127
-14
-7
-7
-1
9
-16
1
127
-89
-5
0
-13
8
-20
-31
-24
-105
15
-77
32
127
51
-5
-13
-2
-12
127
-14
-8
-14
-7
14
116
6
-84
78
-127
2
83
-11
1
-3
-8
127
-115
-9
6
4
-7
20
11
-21
-69
-53
127
96
-33
-25
1
17
4
14
127
21
1
21
-1
16
11
-9
82
127
-111
17
-1
0
14
-3
-6
42
127
22
-16
8
20
-1
-2
4
-8
127
-7
2
-5
2
-27
-34
-41
-31
-127
-35
-30
-40
-36
6
-4
6
-7
-127
-8
5
-4
8
44
59
-114
45
127
102
-112
74
-79
2
64
28
-26
-127
82
2
-30
3
43
124
25
63
127
23
-14
-54
-13
-23
-35
-28
-24
127
-53
-19
-50
-29
7
-1
5
1
127
-4
3
-4
0
-53
-58
-67
-27
-8
-127
-25
-3
-33
5
48
11
37
127
47
9
53
5
-20
-29
-14
-23
127
-35
-14
-23
-21
25
-12
-8
118
-127
-49
28
-9
5
9
-16
-5
127
-57
-35
8
-8
-11
6
29
11
12
127
22
6
21
6
5
37
19
15
127
88
-3
53
34
69
67
-2
125
-109
-127
59
69
-16
-4
-35
7
-34
-127
-27
0
-34
-7
7
-113
13
-101
-82
-127
13
-127
20
8
21
6
22
-127
14
9
15
6
-20
-7
-33
-14
127
24
-24
1
-24
3
-5
-1
-6
-127
-9
3
-5
-1
8
-84
-14
-86
-115
89
-2
127
59
9
83
26
80
118
80
-127
68
-78
-1
-4
1
0
-127
-6
-1
-4
3
-41
39
13
-34
127
49
-45
-27
-37
-32
-97
-2
-61
-127
-54
-12
-51
-6
14
127
-39
-5
-45
-44
11
-38
48
14
36
9
41
127
39
9
37
9
-3
28
5
30
-127
27
6
28
8
-2
-6
0
-5
127
-6
-2
-7
0
-44
21
15
-55
127
61
-33
-48
-36
-11
34
127
-57
68
42
-95
-30
-1
-10
-18
-6
-2
-112
2
12
127
2
34
121
48
6
121
4
-11
127
21
18
57
-22
-59
127
56
-52
-89
0
-10
-110
-20
-93
-67
-127
-4
-116
-13
-2
-10
-4
-8
127
-4
-2
0
1
1
29
3
26
-127
19
2
21
-4
22
-27
0
127
-115
-41
15
-16
-5
0
-20
-10
-21
-127
-17
-5
-18
-5
-2
18
4
21
127
22
-1
25
10
0
-95
16
-87
-124
80
16
127
55
-108
119
96
127
-105
-47
-14
19
-14
19
-11
-10
127
-126
-30
14
-2
-15
4
9
11
6
127
-1
-1
1
5
0
-6
-5
-6
-127
-9
-1
-8
0
1
5
7
16
127
4
6
-6
2
-93
89
37
-58
127
116
-49
-92
-73
91
-4
-31
-38
127
13
-37
-52
80
32
127
26
-44
-118
-24
5
-25
-6
-18
30
-28
29
127
19
-23
32
-14
3
21
-2
20
127
17
1
12
4
7
30
-3
35
127
43
9
35
14
-29
-127
2
-95
-105
-98
-22
-119
-1
-1
-20
-2
-21
127
-19
-2
-16
-3
-7
-7
-4
-3
-127
-6
-7
-2
-4
17
61
1
34
127
7
25
68
4
-11
43
1
49
127
42
-5
38
-8
18
-8
-12
123
-127
-21
14
-2
-13
35
18
-7
15
127
10
-16
10
18
-8
5
-4
25
127
15
3
9
-6
11
23
-1
17
127
33
12
17
8
-3
0
-6
-1
127
0
-4
2
1
9
-19
-1
-17
-127
-14
2
-23
-6
6
21
7
20
-127
24
5
20
8
7
10
-10
17
127
-17
-6
-11
-18
12
6
8
1
127
6
9
5
6
0
6
-6
-1
127
0
-2
1
-5
-3
12
0
12
127
13
-2
9
-1
6
18
10
2
127
-2
6
20
0
-57
48
26
50
53
38
32
42
-127
1
-5
-1
-5
-127
-7
-2
-4
-1
-14
115
-5
4
34
28
-53
-127
2
127
5
-12
83
-113
-39
-12
-32
-16
-6
12
-2
13
127
17
-6
16
-6
-9
-15
-6
-19
127
-16
-7
-14
-3
-11
10
-15
21
127
10
-12
15
-5
0
7
2
9
-127
3
2
5
2
-37
-105
-27
-109
4
-107
-29
-127
-22
4
-21
2
-18
-127
-18
3
-18
-4
1
25
0
21
127
17
1
15
-8
-27
-24
-20
-33
127
20
-27
4
0
-3
-66
-83
127
32
-28
83
3
-8
43
126
-1
127
-7
-113
-23
-118
-28
2
20
11
20
127
21
13
31
9
1
-3
-4
-8
127
3
-2
5
1
12
39
0
43
127
18
-1
39
3
-2
-4
-1
-4
127
-10
-7
9
-4
0
-3
12
10
-127
-13
0
121
-3
1
31
1
29
-127
30
2
24
1
-2
-4
0
5
-127
6
-1
-1
1
50
62
-107
63
127
-49
-113
-39
85
11
30
10
18
127
28
14
21
10
-14
-12
23
24
110
13
5
-127
-23
2
20
1
12
-127
16
2
15
0
3
6
3
8
-127
4
5
2
-1
8
127
-1
-78
-22
62
-21
-63
0
-4
15
-1
18
127
19
-1
15
0
-2
-2
1
-4
127
5
0
2
1
0
35
-1
40
127
37
-2
25
-6
-55
-56
-53
-49
127
-33
-41
-36
-40
2
-1
0
0
-127
1
2
-1
2
-3
-3
0
-2
127
2
-4
3
3
7
-21
-3
-2
127
-15
-6
-23
11
-31
-101
-35
-80
127
-103
-26
-113
-14
-74
-12
59
127
59
-73
-70
-4
21
-42
-55
-34
-67
127
-54
-37
-61
-32
-25
-119
-12
-122
55
-127
-19
-112
-38
-9
-11
-9
-9
127
-6
-8
-10
1
14
39
17
43
127
38
20
34
14
3
127
-7
0
-85
-7
1
-23
-24
3
6
2
9
-127
10
1
6
3
19
30
11
38
127
22
14
26
19
9
35
4
32
-127
22
9
34
7
-32
127
-3
9
40
-25
34
-49
-36
-87
-127
-50
-122
-94
-85
-59
-105
-61
7
-114
-38
82
-62
-25
20
127
-26
-26
-127
-38
-79
89
-120
-26
-103
-27
0
4
-2
6
-127
-3
1
-2
-2
10
16
5
20
127
9
6
8
7
1
10
1
11
127
13
1
15
4
-3
13
-2
16
127
9
-5
12
-4
4
38
3
29
-127
27
3
35
6
16
18
-7
-49
127
-26
-76
23
13
-4
10
-1
7
127
9
-1
10
-5
4
14
1
13
127
15
0
13
4
29
-100
26
-60
79
-127
31
-122
31
-9
-46
-13
-24
-127
-42
-6
-48
-15
-20
-53
-28
-51
-127
-55
-24
-40
-22
3
11
3
11
127
12
2
18
2
-1
18
-1
12
127
11
-1
15
1
18
127
43
-67
-33
-61
-7
-27
-18
38
68
32
84
127
64
24
68
33
3
26
4
24
127
22
1
24
7
-14
16
3
16
127
25
1
28
8
-66
-127
-65
-118
-8
-61
-66
-69
-36
-5
22
-6
12
127
13
-8
11
-5
-1
-2
0
-1
127
-8
1
-3
-4
32
46
-54
54
127
-53
-55
-48
-31
2
14
-1
13
127
5
0
4
1
-10
-57
-11
-47
127
-68
-9
-59
-7
11
30
5
20
127
32
9
31
11
6
19
8
22
-127
28
5
22
6
6
108
-6
-127
25
98
-1
-102
18
-24
3
57
-12
-87
127
-25
-41
1
-28
-30
-29
-10
127
34
-40
46
-4
-13
14
-15
20
127
-3
-12
10
-7
-16
-38
-49
-15
-118
-126
-10
-127
-109
-18
-65
14
57
-127
-67
56
113
-1
19
-5
-9
127
-105
-21
21
2
-11
12
49
18
16
126
2
-8
-127
-23
-10
-42
-9
-36
-127
-59
-6
-42
-17
-76
-119
-112
-127
-59
-127
-97
-119
-104
2
1
5
-5
127
1
3
3
3
-24
-33
-23
-31
-127
-33
-9
-40
-19
-75
49
-25
70
127
69
-50
55
-60
-30
70
11
60
127
-116
7
-115
-38
-14
13
-9
17
127
6
-8
3
0
3
11
-1
18
127
12
0
8
-3
-22
-13
-18
-21
127
-2
-24
-6
-12
0
11
-2
8
127
15
-1
11
-5
-9
-39
-8
-37
-127
-34
-9
-36
-6
-21
-12
23
-24
-116
127
-5
-19
26
31
-43
-8
-38
127
-22
4
42
-30
-6
-34
-4
-41
-127
-43
-7
-31
1
14
8
-45
107
127
-108
33
23
-28
3
4
-1
0
127
2
-1
2
-3
13
22
10
20
-127
20
11
17
12
-23
14
5
-127
119
9
-11
12
1
11
12
13
16
127
10
10
7
10
12
-20
6
127
-127
-12
30
-19
2
22
123
21
-10
-127
-8
-1
-58
-5
-4
4
-5
7
127
6
-4
3
-6
-2
5
1
2
-127
9
1
4
2
-1
81
-29
81
-127
-17
-22
-21
3
30
120
38
-66
-127
-60
22
13
2
39
-18
3
127
-104
-20
33
-16
-12
29
127
6
-15
-113
-4
-8
-35
-11
-8
26
-11
14
127
18
-17
6
-7
-42
-60
-28
-21
127
38
-23
55
-2
-29
127
-27
60
-8
23
-23
119
-5
-1
13
-3
9
127
3
0
7
-7
19
41
4
32
127
17
5
34
18
4
-9
0
-13
-127
-15
-2
-15
1
42
-69
-4
-112
-84
86
0
127
53
-3
-36
-10
-11
127
-19
-13
-24
-8
5
32
-5
29
127
20
-6
23
-2
-12
-46
-21
-42
127
-32
-18
-28
-21
64
-77
-65
76
-127
-77
27
82
35
-14
-24
-7
-13
127
-20
-14
-24
-17
-10
23
-7
23
127
34
2
29
-20
-7
32
-10
33
75
-127
-3
13
-11
4
-23
23
26
-127
-54
37
110
1
18
33
16
40
127
33
16
25
13
-2
-6
-1
-1
127
-3
-1
-6
3
1
11
4
11
127
5
2
8
1
-31
-106
-46
-87
-96
-115
-41
-127
-70
-12
-127
-29
-112
32
-118
-33
-121
-34
4
11
1
5
127
5
2
5
3
-11
-31
-17
-12
-98
-5
31
127
17
4
18
-1
17
-127
16
1
16
-3
-7
-9
1
-18
127
-24
-17
-27
-13
-6
-20
-1
-12
127
-12
-4
-16
2
0
-10
0
-13
127
-9
-1
-7
-4
7
127
10
-6
-104
-1
-9
-11
-15
-5
4
1
9
127
15
-3
18
0
-2
45
-16
38
127
38
-24
37
-36
-39
-48
17
-64
127
21
17
34
-29
6
52
5
65
-127
60
4
63
8
4
-54
25
-44
9
110
-8
127
-25
2
-3
1
-3
-127
-6
0
-4
-3
-18
94
3
108
-116
127
16
110
8
-3
-5
-9
-7
-127
-15
-8
-10
-9
-47
35
-42
35
127
2
-27
-7
31
25
15
30
46
-127
30
24
15
28
8
-9
8
-11
-127
-23
7
-11
7
-4
-11
-3
-9
127
-9
-2
-14
6
-12
-7
-8
-7
127
-16
-8
-15
-13
0
0
0
1
-127
-2
1
3
0
-10
29
32
28
127
27
34
0
-19
33
-83
26
14
104
-127
-7
25
-33
22
-17
5
16
127
25
-15
-115
-14
1
35
-5
28
127
38
8
28
13
-94
-118
-87
-105
-127
-106
-86
-102
-80
1
19
2
23
127
36
4
24
8
11
3
9
6
-127
5
6
3
8
13
26
15
21
-127
26
15
29
16
1
1
4
1
127
5
1
4
3
0
25
7
25
127
37
-1
21
14
-2
-127
9
2
99
16
15
-10
-2
4
31
7
21
127
22
4
31
13
-2
1
-3
-2
127
8
0
6
0
-23
27
17
16
127
-1
16
12
-1
4
41
1
6
67
14
-9
-127
-16
-27
-7
35
59
127
76
27
-32
-17
-15
-27
54
-5
127
-14
37
-38
-14
1
14
-3
5
127
19
-4
26
0
27
-71
3
-62
-127
73
-7
98
48
11
24
7
10
127
26
11
21
11
-15
57
-26
89
127
94
-12
45
-1
-9
4
-10
-3
127
-26
-16
-27
-13
3
-1
2
0
-127
-6
3
-9
5
3
-11
14
5
-127
-22
5
120
15
32
127
24
-22
-114
-6
-11
-23
-18
-2
11
-8
8
127
12
-1
7
-5
4
20
7
33
127
33
10
22
6
11
21
10
26
127
20
10
8
11
-52
42
18
-3
127
68
-62
2
-35
-2
-2
2
2
-127
-6
-2
-3
-1
18
122
7
105
61
-127
-6
-70
-114
-14
-4
-14
-11
127
-8
-17
-6
-11
39
62
26
91
127
-1
50
52
49
-6
-84
-19
-127
108
-20
-1
-31
-12
-3
-32
-7
-19
-127
-28
3
-27
-9
-1
10
-2
12
127
3
0
4
-3
20
-23
-48
8
127
18
-39
-22
16
3
12
6
3
127
8
4
9
4
-3
18
-1
18
127
25
3
18
-1
14
13
15
23
-127
27
16
15
16
-19
31
-11
1
-119
127
-11
-6
-1
-3
7
-1
4
127
24
-5
23
2
20
55
20
41
127
41
18
34
17
-3
8
-5
9
-127
13
-5
13
-2
6
41
9
4
-127
20
10
35
6
11
29
10
33
127
40
31
23
7
4
6
3
6
127
6
-4
10
-3
30
48
28
49
127
74
32
31
27
-3
-84
32
81
-97
-105
34
127
3
1
-127
8
38
64
13
12
-113
8
-21
22
-15
18
127
28
-14
24
-20
12
38
-5
34
127
38
7
21
31
3
23
22
-58
-73
-43
-4
127
-35
6
21
9
19
-127
29
6
22
9
4
14
1
11
127
23
1
7
3
9
35
9
29
127
20
13
23
9
13
43
9
57
127
34
2
43
11
5
-1
-29
127
-30
-94
2
47
-29
-1
-8
2
-8
127
-5
-1
-5
1
4
127
9
7
-116
-12
-5
-19
-6
15
24
16
31
127
21
16
16
19
-10
19
-21
18
127
17
-16
13
-15
5
-5
4
-12
127
-2
1
1
-1
4
5
2
6
-127
0
4
2
3
-20
-92
15
-127
57
81
-15
71
-11
9
38
11
44
127
38
10
35
13
6
-6
4
-8
127
0
4
-4
6
5
6
1
4
127
6
2
-3
3
-9
-115
-6
-78
38
-103
3
-127
-3
2
8
0
10
127
12
1
5
-1
5
-12
30
31
-127
47
27
-10
11
3
38
4
30
127
38
11
37
14
10
82
31
-108
-58
127
-25
-77
-5
-1
2
0
1
127
8
-1
7
1
6
32
5
29
-127
32
5
34
5
2
-7
1
-1
-127
-7
1
-9
7
-14
-78
-11
40
127
46
-9
-25
-11
9
-1
1
-4
-127
-3
6
-2
8
6
35
0
34
127
36
2
29
1
-15
-6
-13
-19
-115
-16
30
127
16
5
-8
24
-53
-60
127
-48
-3
-8
2
-6
-1
-105
-127
-51
58
95
50
15
46
12
25
127
21
0
41
13
-23
-10
-18
-9
127
4
-23
19
21
-1
11
-9
-7
127
24
-8
18
-3
-36
-62
-23
-68
-127
-69
-8
-86
-11
-35
-26
-39
-33
127
30
-44
30
22
-4
-3
-3
-8
127
-5
-1
-10
-4
-28
-127
-36
115
98
114
-14
-72
-42
3
-34
4
-24
-127
-13
2
-13
-1
-55
-127
2
2
74
24
-1
83
6
-3
-21
-4
-18
127
-17
-1
-18
-5
7
-24
7
-16
-127
-11
1
-20
12
-2
-36
2
5
-127
8
-1
4
4
-5
127
-4
-14
-67
14
-16
-22
-3
7
3
6
-9
127
-10
14
0
3
14
41
24
48
127
61
17
62
15
18
23
22
26
127
21
15
18
20
14
8
28
-84
-127
-73
36
82
27
-40
-26
-14
-25
-68
3
5
127
18
21
6
4
26
-127
28
2
13
14
-18
2
-15
-11
127
-17
-14
-19
-15
-25
-88
-33
-78
-82
-127
-7
-79
-47
2
21
6
27
-127
23
2
26
7
-40
-75
-33
-73
127
-67
-41
-83
-32
-10
1
-8
-11
127
-3
-7
-5
-12
1
31
5
32
-127
32
4
30
-1
11
-12
12
-7
-127
-3
13
-16
5
8
127
5
-16
-37
-11
-17
-25
-13
3
4
1
2
-127
5
2
4
4
53
60
-72
79
127
-63
-71
-69
-47
8
33
12
25
127
20
15
36
13
-16
27
3
-127
85
27
-22
9
3
6
-22
-18
127
-45
-14
3
0
-23
-127
96
72
102
-13
-44
77
-27
-91
-91
-127
-14
-85
55
59
-18
24
19
-1
19
23
36
127
12
18
22
18
