97
34
20
127
103
4
91
33
16
45
72
83
54
127
112
33
64
83
5
6
1
-1
-127
-7
3
1
1
83
76
52
108
127
72
99
50
34
-5
22
16
-3
127
13
-4
15
15
51
92
57
127
47
57
62
82
48
61
68
17
102
127
28
65
51
18
-3
39
11
25
127
29
6
34
14
67
66
50
102
127
103
45
72
37
-3
77
28
39
66
127
10
71
18
40
101
28
-85
33
127
-23
105
31
22
52
3
77
127
-20
30
51
5
-98
-90
-92
-115
-127
-98
-90
-66
-95
2
39
38
41
127
58
14
34
36
43
77
48
84
119
127
42
86
41
-76
55
107
-80
121
127
-92
56
91
73
122
54
51
127
65
49
90
68
17
56
0
-23
-127
-50
20
53
14
20
33
16
54
127
29
23
30
9
41
65
-1
80
127
78
43
58
7
41
48
33
45
127
38
31
31
32
125
100
92
90
98
127
117
100
110
51
127
51
20
-26
20
-72
-112
-85
-93
-111
-119
-49
-92
-127
-91
-90
-84
65
47
48
127
115
81
45
48
40
-77
75
94
-104
-60
127
-74
76
76
-5
47
11
43
127
88
8
21
27
-44
-99
-25
-125
-127
-33
-40
-103
-25
-15
34
56
-24
127
122
-14
18
61
19
29
17
37
127
27
18
19
12
-46
24
4
-69
127
74
-51
26
5
-19
56
35
12
127
7
-30
56
42
29
86
34
65
127
56
41
68
36
18
37
16
49
127
26
16
32
16
36
42
-22
-127
-45
-8
34
42
-27
-3
5
30
2
127
21
-3
15
26
18
45
24
31
127
17
17
34
35
-10
25
21
-13
72
127
-4
11
14
9
11
4
9
-127
14
7
13
4
7
25
10
58
127
34
4
21
5
13
25
45
84
127
70
20
22
43
42
64
21
50
127
62
36
59
11
84
37
-3
103
127
30
89
28
-4
21
95
-16
114
127
73
23
90
8
-12
-49
-21
-55
-127
-49
-10
-42
-21
-3
47
32
38
86
127
-1
34
50
34
92
98
64
127
113
37
93
84
68
127
47
-3
-56
-13
-59
-96
-56
15
67
47
-57
127
70
7
62
46
55
127
27
-13
-25
1
-73
-124
-35
-84
-25
50
-72
8
127
-72
-20
55
47
86
14
34
127
89
67
54
23
48
27
-37
127
0
-19
46
22
-39
60
84
-32
127
35
-37
42
88
-24
33
24
2
68
127
82
29
26
0
24
95
32
19
24
17
-35
-127
-59
-22
29
-18
17
127
17
-19
16
-8
24
104
28
110
104
127
29
85
23
-113
-75
-40
-127
-51
-119
-114
-68
-39
63
77
51
97
127
29
64
55
53
67
80
42
127
-117
-1
59
94
26
95
54
-20
127
-53
-75
95
50
-45
41
84
35
81
46
127
22
94
24
-4
22
42
-28
33
127
-1
16
33
58
108
40
18
-47
43
-60
-127
-73
27
47
89
32
63
127
19
62
82
-24
18
31
-32
61
127
-18
10
24
-11
38
12
43
127
56
-7
33
4
101
59
-13
127
-105
-13
97
57
-21
30
99
61
-29
127
92
25
93
50
-7
24
1
23
127
29
-7
17
-6
68
62
38
70
127
19
59
60
45
60
16
-31
127
97
-13
37
12
-36
-17
57
25
43
127
39
-14
43
20
20
33
25
127
113
60
27
56
6
36
28
-45
127
95
-64
39
17
-47
28
63
30
-13
127
61
32
67
24
56
62
-20
93
127
9
62
53
-39
4
39
14
50
127
57
16
33
14
-38
57
21
113
127
92
-10
71
-9
92
79
-7
127
103
77
93
69
6
105
70
82
100
115
127
95
78
48
8
26
0
58
127
16
15
16
-5
64
75
37
56
127
55
52
62
28
37
127
62
106
114
97
39
123
36
87
61
68
127
106
90
84
42
67
-57
127
57
-110
72
40
-49
111
50
47
69
37
87
127
94
37
77
38
-25
-127
-38
15
30
26
29
71
26
30
82
8
32
127
63
34
68
6
-64
-95
-45
-84
-127
-60
-53
-54
-40
54
35
-4
70
121
127
45
51
-2
16
24
-3
45
127
4
5
21
7
-5
-18
-8
3
127
-15
-7
-17
-6
-87
-127
-107
-91
-63
-83
-73
-118
-101
43
127
53
85
-19
117
47
121
60
-39
-88
-73
80
127
103
70
78
70
-7
36
64
-18
16
127
-12
38
50
32
127
60
-24
-26
-32
-56
-98
-68
60
116
81
103
127
113
62
111
66
8
33
14
27
127
44
5
35
10
-68
52
44
-99
34
127
-58
32
36
21
45
18
83
127
60
22
47
14
-50
-127
-59
-9
3
-8
43
104
44
-80
-90
-106
-86
-63
-127
-122
-98
-119
23
20
18
23
-127
23
20
18
16
31
23
24
14
127
21
22
16
17
0
45
93
-11
83
127
-22
44
91
57
115
64
33
-5
9
-68
-127
-40
2
21
48
47
127
103
-10
35
50
28
13
16
29
127
10
19
12
3
85
101
45
55
127
49
69
111
22
77
55
73
93
127
-22
59
60
51
-19
38
26
-1
-21
127
-22
33
27
12
59
61
-12
50
127
11
57
60
28
40
71
62
127
36
11
47
50
-1
0
-3
24
127
23
-2
3
-4
63
54
-4
127
25
-20
53
52
-6
69
127
88
19
18
9
-81
-124
-91
19
78
45
12
127
72
24
73
26
27
108
20
-127
-123
-105
25
110
13
75
127
83
80
89
109
86
96
69
33
110
24
50
127
79
6
95
11
8
37
28
21
127
75
7
43
36
6
16
5
7
127
20
7
14
6
-51
-124
-127
22
-49
69
63
94
91
-83
-16
22
-127
82
114
-86
-21
21
56
-8
-107
118
-32
-127
44
-3
-90
78
69
1
127
76
33
74
65
3
47
59
41
40
127
36
42
50
24
-7
43
-3
55
127
59
2
40
9
-13
-12
-3
-32
127
11
-13
-13
-2
45
56
31
40
127
17
36
51
31
31
59
22
73
127
45
34
55
18
-7
97
90
-16
88
127
-13
96
78
127
29
-28
98
-2
-25
111
30
-21
-14
33
1
16
127
36
1
17
5
-127
-89
-91
-104
-12
-87
-108
-95
-79
2
29
23
20
127
40
-7
30
19
80
125
3
93
127
109
89
110
5
52
76
16
94
127
127
43
90
10
67
107
20
111
127
117
50
90
26
1
-2
-4
-5
-127
-5
4
0
-6
20
34
10
65
127
18
14
31
7
29
57
45
0
127
59
29
68
23
53
77
36
64
127
-7
39
77
20
54
68
19
72
127
20
48
56
12
5
102
0
4
-117
-127
10
94
3
-113
10
127
12
42
-48
114
-39
-98
-14
0
-3
-89
127
26
-14
2
-5
33
27
41
37
127
1
26
26
36
25
46
16
57
127
55
20
30
28
77
87
28
67
127
48
59
86
23
38
127
48
123
15
84
35
117
25
-105
-99
-80
-127
-106
-110
-100
-102
-62
-11
6
-9
29
127
-7
-12
-7
-11
36
70
44
31
127
93
28
65
61
5
3
-2
12
127
-9
0
6
-2
58
85
17
85
127
21
53
75
20
103
91
-43
127
100
13
105
86
-9
28
74
48
-76
127
100
32
52
46
38
105
39
4
28
-6
-70
-127
-42
43
64
36
100
127
90
37
62
40
6
18
8
9
-127
20
8
17
11
101
100
92
127
120
91
98
94
99
-4
76
127
3
60
111
-2
56
121
17
49
-4
66
127
52
3
49
-1
3
18
23
22
127
26
2
14
21
121
126
85
63
11
58
123
127
70
21
39
-5
57
127
44
20
37
1
22
39
21
37
127
56
11
31
13
28
52
18
47
127
91
31
53
10
91
69
6
127
104
-13
94
67
-1
44
25
-6
61
-127
-22
46
29
-1
-9
55
68
-4
28
127
-16
56
73
46
101
38
127
124
118
57
109
33
31
39
-28
127
73
-49
26
28
-24
25
38
28
64
127
53
24
32
23
-38
-88
-75
-67
-127
-115
-8
-100
-53
2
7
4
11
127
6
3
3
5
-15
20
32
-38
-28
127
-19
21
28
55
75
106
64
62
127
29
88
101
66
105
50
67
127
54
65
98
40
-14
72
74
34
126
127
-14
64
54
15
53
43
38
127
61
31
28
44
97
83
46
86
127
5
87
82
40
-79
-127
-70
25
-16
-11
60
124
76
24
99
40
107
127
39
19
95
38
6
26
-2
44
127
-6
4
23
-1
-26
4
4
-24
127
31
-22
-2
-1
-7
-46
36
-24
-57
127
-10
-48
35
-7
48
40
24
127
37
-5
35
36
-70
70
57
-83
44
127
-66
60
38
-10
83
65
-64
74
127
-18
73
47
10
57
29
-12
127
91
6
52
29
-54
-127
-62
-7
0
16
26
126
42
27
74
104
35
103
127
13
64
116
38
55
34
59
127
72
22
49
42
-4
14
-4
10
127
4
-14
20
-2
18
89
22
75
127
52
23
85
32
-55
-34
-47
75
127
-46
37
72
-1
47
127
79
60
86
-8
52
106
75
3
-51
8
93
-127
57
7
-46
4
105
111
127
32
-44
31
-112
-96
-114
18
32
16
20
127
29
16
25
22
43
66
69
36
77
127
62
43
64
56
68
44
113
127
56
57
72
50
44
36
34
28
127
43
32
37
34
88
75
-9
127
124
-26
88
69
0
29
50
15
36
127
30
26
47
16
30
35
3
21
127
29
36
22
3
66
102
61
84
127
114
67
93
49
25
15
40
66
127
35
19
18
43
27
127
24
61
71
52
17
103
17
95
127
67
114
119
77
94
110
63
-91
-96
-58
-127
-105
-109
-81
-95
-47
77
27
-36
127
28
-65
91
27
-34
18
70
9
67
127
47
16
68
16
-1
7
-2
2
127
14
6
1
1
88
108
37
68
120
122
49
127
26
-50
57
85
31
85
127
-27
54
75
16
45
16
46
127
41
11
35
18
6
95
59
-53
-21
127
4
91
49
55
127
92
86
-93
75
43
114
95
-21
-93
-29
-127
37
-115
-7
-101
-25
-122
-115
-127
-74
-67
-99
-121
-104
-122
67
54
26
127
59
10
62
51
25
-76
-87
-30
-112
-127
-104
-63
-80
-46
-3
106
-55
94
127
97
-4
92
-57
97
108
126
127
67
90
85
86
111
-8
-49
5
54
127
44
16
29
25
108
99
95
122
127
86
81
73
102
46
-45
-14
110
-127
-40
44
-41
-10
60
127
49
103
-84
119
61
110
67
43
0
-63
127
-69
-76
39
0
-62
-62
-99
-60
-76
-127
-61
-69
-99
-42
36
58
46
54
127
44
32
58
40
121
102
62
90
93
46
69
127
47
26
79
47
38
127
53
16
69
34
1
-44
9
-28
-127
-40
3
-45
14
-21
26
12
26
127
54
-18
26
16
74
12
-69
77
127
3
82
-25
-41
67
68
52
85
-127
-1
54
72
43
43
48
-4
82
127
29
39
35
-1
-45
-124
-44
-10
-13
-19
42
127
44
-12
26
41
-47
49
127
-22
34
37
22
54
12
45
127
46
22
41
18
52
85
65
-69
49
127
34
99
44
18
53
22
11
127
66
19
52
7
-127
-125
-106
-117
-104
-108
-108
-96
-100
10
36
2
46
127
40
5
32
-2
-94
-127
-103
-55
-65
-121
-98
-107
-103
5
36
17
55
127
51
4
33
11
75
98
70
79
44
125
88
127
44
-48
-123
-63
-5
-7
-8
38
127
57
6
24
14
18
127
26
0
24
10
5
11
-5
9
127
3
1
12
-9
-20
-28
-7
-127
-82
-32
-7
-15
-11
113
77
87
55
104
127
106
65
75
67
88
57
127
-13
109
71
102
47
7
23
5
59
127
54
3
3
13
-2
-2
-12
14
127
2
-3
-8
-13
-7
54
11
72
127
90
-9
37
18
12
52
22
13
127
37
9
47
18
43
48
43
65
127
52
34
52
37
107
76
-5
127
56
-62
93
57
-21
38
0
-26
127
-27
-52
38
4
-31
13
34
25
51
127
73
-5
38
19
-15
42
-27
45
127
53
9
32
-11
22
43
27
37
127
50
7
47
21
14
43
14
35
127
21
12
44
7
61
98
-35
127
-23
-24
61
84
-37
63
80
49
81
127
9
49
85
22
-7
13
13
-44
97
127
-3
8
2
-41
-10
41
-43
-57
127
-35
-3
35
-9
23
-3
24
127
8
-2
20
-6
58
-42
-37
127
-67
-34
50
-42
-35
57
78
5
38
127
45
51
76
10
41
22
-58
127
-73
-78
42
24
-60
-9
-30
38
-13
-102
127
-4
-25
32
80
104
58
26
84
127
77
112
50
40
63
39
61
127
61
35
62
33
21
40
6
42
127
61
20
33
1
6
-8
-1
-1
127
-1
6
-5
-2
57
76
71
-3
67
127
55
80
70
40
94
61
67
127
71
45
90
47
56
49
-29
127
-3
-56
58
42
-24
32
45
19
77
127
4
28
45
4
-44
8
-4
-103
77
127
-52
0
-3
-47
40
45
-81
127
116
-39
32
48
-29
48
-8
51
127
63
-13
50
-10
6
33
-9
36
127
8
10
29
-8
26
41
-2
127
33
-11
18
40
-2
-11
-35
-6
-44
-127
-28
-12
-26
-13
18
34
25
52
127
43
12
37
16
31
34
1
44
127
69
28
22
4
47
47
-79
103
127
-111
50
36
-78
30
62
36
-89
-127
-73
30
62
31
51
37
-59
127
-70
-70
46
36
-48
37
72
31
70
127
103
27
62
28
66
127
64
45
40
49
-75
-101
-81
-40
-87
-41
48
127
20
44
41
-11
-13
-41
-3
-24
-127
-16
-17
-33
-5
81
75
83
91
127
81
60
53
85
49
127
49
-6
-23
-26
-54
-112
-54
65
127
-16
83
108
44
75
93
13
13
39
6
36
127
39
11
38
7
32
112
30
-31
31
12
-45
-127
-48
33
23
4
50
127
92
26
32
2
16
26
10
27
127
24
9
16
8
-32
-17
-30
-34
-127
-19
-21
-27
-25
-20
20
-14
0
127
13
-23
17
-20
-119
-124
-91
-104
-127
-106
-109
-127
-78
43
0
-32
127
40
-92
50
-12
-29
63
104
19
127
48
106
49
82
21
-6
4
-8
20
127
-5
-5
0
-9
37
93
44
48
127
51
52
98
53
21
106
60
88
127
69
19
89
49
91
121
76
126
-102
2
-127
-108
-53
-21
-127
-68
-33
-2
22
39
95
54
20
43
40
39
65
127
26
39
31
39
21
61
10
-127
33
41
24
56
5
58
54
-42
-127
-31
4
58
59
59
127
50
45
91
63
50
122
60
-30
-66
-36
-26
-127
3
-27
-66
-13
-74
-108
-39
-36
-68
22
80
127
32
34
84
-1
68
127
41
40
74
-16
50
101
68
85
-14
127
58
85
78
19
46
1
39
127
63
5
49
0
55
95
62
9
15
13
-61
-127
-95
25
22
17
6
-127
25
25
21
20
41
54
55
49
127
72
38
53
52
-112
-127
-72
85
123
-23
75
117
24
45
23
-32
127
88
7
38
15
-46
35
56
33
55
127
80
28
52
43
51
80
35
127
59
77
46
58
47
26
44
13
53
127
34
23
45
12
-9
92
116
-2
-23
127
18
83
115
84
19
-15
127
59
0
76
25
-25
28
46
12
31
127
12
21
41
16
14
56
32
14
127
25
1
46
37
34
77
37
75
127
34
24
66
45
53
93
48
28
127
93
52
81
42
-42
-15
46
-22
-26
127
-39
-19
41
54
127
70
115
69
72
80
107
80
15
36
11
51
127
22
14
33
6
-24
105
57
-41
39
127
-24
90
55
39
41
70
22
52
127
42
49
56
16
64
7
55
127
37
22
45
16
13
45
21
42
127
58
2
49
23
-48
-127
-19
-13
-36
1
47
126
1
55
69
55
49
127
45
31
69
38
55
95
62
98
-10
127
38
100
43
26
50
64
75
127
47
34
34
49
58
127
57
107
69
83
44
122
54
19
77
0
24
127
32
-3
72
21
43
81
43
100
127
100
42
56
62
-33
26
74
-36
65
127
-20
32
56
9
115
74
38
127
123
6
107
80
60
64
38
127
84
72
49
59
38
24
75
31
98
127
77
14
80
30
68
74
34
78
127
29
31
63
32
7
-9
-18
127
-8
-19
1
-3
-28
44
5
-8
51
-127
-14
42
0
-10
-33
-51
-14
-38
-127
-53
-27
-71
-24
52
9
-22
127
-12
-19
46
14
-13
16
35
11
82
127
16
16
31
13
12
44
26
10
127
48
21
41
29
38
127
44
-41
-18
-33
-36
-53
-29
34
17
-5
20
127
71
35
5
-11
5
36
-4
44
127
47
6
27
-12
11
32
25
25
127
53
3
26
27
15
30
22
15
127
34
17
22
18
7
58
45
-29
6
127
2
62
30
-37
54
46
-63
41
127
-32
48
40
12
35
13
57
127
40
10
35
8
5
31
-3
49
127
39
-3
27
-2
50
60
10
83
127
82
49
53
-3
2
38
0
77
127
39
-2
24
23
47
33
-47
127
98
-65
44
23
-45
30
73
40
52
50
58
-42
-127
-38
93
77
-27
127
111
10
85
66
0
83
127
49
123
108
113
86
88
49
24
99
29
-26
25
127
16
103
24
54
81
29
50
127
55
45
73
34
26
55
28
-43
-127
-40
19
36
23
70
69
32
75
127
104
76
65
11
22
42
15
6
-127
34
21
32
13
62
30
-3
116
127
13
58
46
-20
-76
-102
-60
-82
-127
-71
-58
-84
-58
-25
48
26
-52
68
127
-21
42
21
37
46
6
57
127
65
32
38
12
64
108
60
36
26
58
-68
-127
-102
51
27
-37
65
127
4
49
26
-48
6
64
-2
61
127
44
13
64
7
-13
-57
5
-66
-127
-71
-9
-58
-6
3
-127
-49
11
7
13
12
78
40
9
53
23
38
127
60
18
49
32
6
21
10
-17
127
38
7
19
8
-58
-127
-85
-110
-84
-114
-70
-114
-71
24
88
71
95
5
127
23
75
80
9
37
15
65
127
24
-4
44
16
37
59
50
80
127
31
33
67
39
35
61
36
28
-127
48
43
58
35
11
33
0
28
127
27
24
31
-13
14
70
23
47
127
13
21
63
25
66
51
-120
127
103
-112
32
49
-124
13
53
12
56
127
-10
7
54
15
44
64
-20
47
109
127
44
55
-29
20
57
55
-33
43
127
5
55
46
62
125
11
15
127
-9
53
123
13
41
52
22
36
127
79
39
47
28
32
70
54
30
127
61
39
57
50
79
74
-4
127
85
-49
57
81
-18
-100
-110
-89
-126
-82
-127
-85
-110
-82
5
28
11
29
127
25
-4
27
9
92
79
75
92
127
35
62
80
49
51
74
29
58
127
64
52
66
35
10
24
12
46
127
14
2
26
17
-10
40
34
60
127
18
-9
38
27
97
33
-117
34
-30
-6
-127
-26
116
11
13
11
62
-127
45
5
4
11
5
-84
5
18
127
5
7
-94
3
88
97
45
127
89
71
83
97
44
56
78
-57
127
-51
-100
49
66
-39
51
75
46
52
127
115
37
70
35
0
0
4
-2
-127
6
2
-6
6
-5
122
-22
127
77
76
11
97
-42
64
63
17
127
82
-93
65
47
19
1
20
0
20
127
30
4
18
-1
69
69
67
127
56
57
64
55
64
4
11
0
38
127
33
4
16
6
-49
-56
-45
127
21
17
76
54
25
-107
-123
-76
-127
-100
-110
-127
-107
-70
4
1
-11
14
127
34
-18
19
-20
90
79
-29
11
47
2
-106
-127
5
69
103
52
127
125
112
52
95
49
41
71
29
76
127
89
26
52
34
-93
-86
-107
-67
-115
-127
-92
-97
-108
-81
5
40
-111
127
84
-76
-8
42
0
19
5
-3
127
0
-2
14
-3
12
40
33
33
127
26
6
38
33
18
15
26
43
127
78
-3
8
15
11
30
16
23
127
40
2
33
11
62
72
-15
127
98
32
46
66
-17
-26
-127
-34
-114
101
-98
-18
-114
-20
-18
-127
-91
-78
-71
-36
-19
-116
-77
3
18
-8
32
127
6
4
15
-7
15
66
21
37
127
66
20
54
8
48
127
21
100
-32
-25
43
117
25
-19
-119
-39
-105
-120
-74
-19
-127
-45
-31
-94
-51
-80
-127
-42
-30
-79
-48
21
39
24
-23
-127
-7
23
32
26
18
28
19
39
127
27
19
28
16
6
-27
-23
-58
-127
-41
3
-18
-20
73
113
61
97
46
127
59
95
64
99
79
76
86
127
99
72
97
57
-44
-8
49
-65
-42
127
-39
-14
47
42
50
37
37
127
47
33
43
33
-107
-69
-55
-127
-113
-124
-73
-90
-51
10
46
7
35
127
46
19
49
6
70
70
37
127
-30
25
65
74
36
44
96
87
65
127
87
45
85
67
66
85
4
91
127
26
55
88
-9
-10
19
1
10
127
8
-8
22
-8
-11
35
22
-32
127
118
-15
37
27
44
70
27
25
127
17
43
60
30
-20
56
77
-59
90
127
-10
57
73
33
88
82
31
127
122
44
73
79
19
41
23
58
127
68
23
39
33
47
12
-12
127
64
-24
40
15
2
17
63
30
27
127
52
17
59
23
21
7
-29
127
-105
-28
17
3
-20
39
50
34
41
127
29
42
47
20
36
127
119
43
95
90
28
123
105
23
10
10
-3
127
25
19
6
11
-127
-113
-123
-117
-91
-127
-123
-119
-100
-6
71
60
-62
-10
127
-5
72
48
18
51
-22
127
51
-44
18
48
-5
25
119
55
18
54
-68
19
127
60
-6
-70
-29
-62
-127
-58
-3
-66
-26
-5
90
31
-9
78
127
-14
62
38
-41
-55
-48
-40
-127
-42
-36
-52
-40
15
6
-2
19
127
-16
7
-1
5
83
51
-67
127
117
-74
80
59
-56
50
27
-11
127
4
-32
44
25
-15
7
0
-9
47
127
-10
5
-2
-6
-25
-69
-28
-46
-127
-46
-19
-67
-18
47
38
35
77
127
38
35
37
26
-44
-46
-31
-40
-127
-46
-45
-36
-28
-11
74
82
36
127
121
-9
46
91
-29
121
58
-45
-51
127
-27
107
57
-17
-66
-11
-79
-127
-53
-11
-67
-12
-78
-37
-44
-86
127
-87
-68
-41
-36
-69
-114
-68
-96
-77
-127
-65
-101
-74
8
54
38
67
127
14
7
56
40
18
27
12
27
127
27
21
26
12
32
119
99
103
127
93
29
87
108
50
90
40
-53
6
127
63
77
50
-29
55
73
-69
-54
127
-40
55
69
30
12
-38
127
89
-24
35
-1
-35
6
3
13
18
127
60
0
-6
18
25
33
20
-15
127
94
22
32
22
42
127
68
120
108
75
57
126
57
45
30
-78
127
-12
-99
34
27
-80
-115
-62
-111
-60
-18
-58
-127
-62
-87
-2
-46
48
-19
-127
113
-2
-40
39
-18
-9
-8
19
127
4
-20
-19
-3
14
53
15
44
127
36
22
49
4
-9
-127
-6
32
102
32
-5
-113
-2
36
44
7
73
127
16
26
43
-10
-56
80
44
-72
46
127
-51
73
42
57
114
33
10
46
-3
-86
-127
-61
26
64
11
37
127
64
31
58
11
72
70
11
49
127
33
61
54
20
48
49
45
14
127
105
45
52
36
-10
67
33
5
97
127
-21
66
21
79
44
-91
127
-76
-98
77
32
-83
-37
38
76
-34
92
127
-23
30
63
5
2
-27
11
127
-109
9
-1
-28
43
-10
-12
-20
127
5
30
-6
-20
18
35
7
39
127
41
11
26
16
2
125
77
-21
58
126
-4
127
67
19
34
-9
40
127
-17
19
33
-17
82
104
46
127
127
61
89
87
37
67
73
31
119
127
94
44
65
5
3
93
-93
100
127
69
2
81
-96
118
127
16
34
-6
-18
119
113
7
31
100
57
34
-127
95
28
83
50
-114
-106
-85
-122
-127
-93
-104
-84
-61
52
86
36
102
127
52
48
75
52
3
92
12
-71
-127
-38
5
87
11
1
28
-9
26
127
26
-1
22
0
42
62
23
77
127
32
35
65
16
-100
-127
-121
-120
-88
-114
-100
-114
-94
12
-30
5
127
-98
-9
10
-26
0
13
37
17
40
127
0
14
31
20
-12
13
87
-10
110
127
-13
6
75
43
71
15
63
127
62
33
79
19
27
53
42
20
127
6
23
60
33
-12
25
-11
45
127
47
-8
27
-10
72
99
70
116
74
127
69
101
51
79
127
60
17
8
-7
-92
-120
-66
-14
-37
6
78
127
50
-1
-44
-13
-35
25
48
-10
127
108
-30
21
45
1
107
10
68
55
127
-5
82
31
73
82
44
72
127
48
64
81
37
58
41
-52
127
-55
-41
57
30
-37
1
127
44
106
64
93
16
112
35
27
53
31
48
127
60
17
50
34
-49
-47
-17
-26
-127
-36
-35
-50
-19
28
53
4
33
127
34
17
45
-6
16
50
18
30
127
42
15
42
20
-4
-16
-21
-9
127
-14
-2
-10
-17
8
10
5
30
127
5
7
9
0
111
77
54
127
-4
61
84
92
58
-22
127
92
41
92
95
11
113
97
-21
20
-6
51
127
51
-12
25
-9
17
33
23
-36
-127
19
20
30
26
58
61
71
66
127
50
46
67
80
6
45
4
24
127
31
0
29
6
-1
25
37
26
127
16
-4
19
38
-16
36
-12
44
127
40
-21
22
-27
127
81
61
114
21
-116
112
73
56
-15
33
81
-44
127
96
-30
35
71
6
9
3
9
127
11
7
2
1
14
30
13
22
127
21
10
32
10
48
100
67
-1
105
127
49
88
66
-9
89
51
100
127
45
-7
86
34
96
86
-4
127
107
33
88
75
0
12
51
18
39
127
46
9
42
22
-11
12
5
2
127
22
-7
12
3
-14
16
66
-64
-4
127
-21
27
56
-20
71
45
-18
127
84
-2
61
29
-67
14
72
-86
-28
127
-73
13
80
26
35
2
23
127
15
16
30
1
-87
-102
-20
-119
-127
-102
-77
-86
-42
43
73
5
110
127
39
28
77
16
-45
59
88
-31
-66
127
-39
47
88
30
78
9
20
127
15
26
59
9
-5
77
47
33
127
84
5
56
55
-114
-70
-127
-92
-28
-91
-88
-68
-100
82
23
-67
127
69
-78
79
11
-68
47
75
17
80
127
42
36
77
14
26
69
55
61
127
88
21
78
28
15
31
22
-119
-95
-127
6
38
14
52
42
-112
39
-104
28
-127
34
55
48
38
24
58
127
44
53
25
20
54
99
14
127
125
71
57
94
18
50
42
-12
59
127
44
40
40
-19
-41
26
66
-59
-48
127
-37
23
64
5
19
3
21
127
-2
1
17
7
-4
-2
-9
-16
127
-11
-2
-3
-10
15
70
25
48
127
76
18
54
27
-48
13
50
-51
66
127
-33
8
48
-35
-23
32
-29
-51
127
-38
-22
25
-20
72
6
90
127
31
-18
65
-9
-63
45
38
-52
19
127
-58
36
37
38
99
47
127
127
86
62
23
85
6
28
11
59
127
32
7
30
10
-66
-82
-62
-20
-127
-63
-55
-79
-60
17
58
20
45
127
38
0
44
33
3
29
8
27
127
15
3
13
13
-4
19
7
-4
127
12
-1
8
8
26
30
-48
127
55
-107
17
34
-37
28
63
11
39
127
22
26
58
7
-84
-4
77
-82
-21
127
-77
1
63
93
43
34
127
57
-3
85
52
41
-1
-11
-1
0
-127
-13
1
-10
-1
10
78
41
46
127
72
26
75
32
3
75
64
49
127
117
-6
71
50
62
60
34
87
127
60
39
64
30
-18
51
21
34
127
56
-9
39
15
17
41
18
78
127
36
19
37
14
-49
-114
-89
-9
5
-7
29
127
68
71
90
33
93
111
127
95
25
80
71
127
33
94
-39
98
55
126
23
-76
-127
-94
15
5
18
78
118
70
60
127
46
91
111
92
33
110
50
-71
70
73
23
124
127
-65
63
73
14
60
15
51
127
41
26
49
23
47
86
19
122
127
63
31
87
14
65
127
59
86
-45
85
52
120
49
127
107
101
120
119
95
111
98
96
-105
-119
-98
-125
-59
-84
-124
-127
-94
4
35
2
44
127
35
2
30
8
23
67
22
56
127
45
21
52
24
-127
-104
-105
-73
-97
-105
-102
-83
-102
24
56
63
-20
111
127
19
61
49
86
77
12
127
-14
-20
64
73
12
47
65
-1
51
127
45
51
61
-2
44
61
-21
127
-88
-42
36
54
-20
19
19
19
21
-127
17
17
24
19
-14
-10
-8
1
127
-1
-13
-18
-5
-70
-94
-89
0
-13
13
67
127
69
-55
-65
-66
-99
-127
-87
-44
-69
-45
44
96
22
112
127
75
49
96
21
-49
-85
-47
-43
-79
-27
57
127
49
5
64
28
-57
47
127
19
44
38
-41
3
4
-103
36
127
-37
3
3
3
65
48
-16
127
76
0
70
35
24
16
18
36
127
-12
11
16
8
109
113
9
127
70
81
94
109
12
-87
-122
-55
-120
-6
-100
-65
-127
-54
90
73
127
86
64
115
57
93
94
75
83
46
127
107
64
80
78
43
10
54
24
4
127
40
6
49
24
42
81
68
127
118
86
17
104
63
76
48
-69
127
69
-57
57
30
-63
27
69
17
66
127
78
28
65
9
38
54
43
96
127
63
29
48
43
-47
24
49
-97
-127
97
-59
34
41
-64
30
-4
-89
127
22
-67
27
3
-48
91
79
-42
107
111
-30
-127
-103
4
37
14
37
127
91
6
34
9
121
94
110
40
46
34
-112
-127
-80
-22
54
102
-45
81
127
-40
63
85
-6
50
46
-25
72
127
4
42
51
51
104
21
127
102
112
47
91
24
-127
-42
-100
-40
52
-65
-115
-29
-82
102
62
44
91
127
72
69
75
23
52
100
34
127
103
79
51
93
18
17
19
18
24
-127
16
17
19
18
-7
68
49
-41
127
120
-12
64
42
45
35
-13
127
79
-36
47
22
12
18
87
0
-42
-127
-88
17
85
-4
27
48
15
53
127
46
19
39
6
6
-19
9
3
127
-3
2
-23
8
56
126
-3
118
-63
-79
46
127
-4
39
41
8
127
111
25
36
47
2
-8
39
48
-16
127
116
-3
34
40
-67
-21
-67
127
100
123
-66
-22
-69
-26
-127
-35
17
16
38
20
71
27
77
109
127
90
106
115
64
88
124
-31
-2
65
-54
-89
127
-28
-7
56
73
114
51
103
98
86
63
127
52
59
117
84
109
127
110
63
96
74
36
84
45
22
92
127
18
79
42
26
64
32
96
127
70
22
66
7
73
127
61
-47
-121
-37
73
124
55
-59
26
68
-76
-13
127
-44
32
60
2
32
6
24
127
12
2
26
8
39
63
37
35
127
63
26
49
38
15
44
29
33
127
4
10
37
35
93
91
-1
85
127
49
96
98
-11
67
97
68
127
91
44
52
85
69
33
58
35
41
127
86
30
67
29
24
36
11
58
127
51
-13
51
12
-2
-35
40
13
-127
94
0
-34
35
30
59
-11
127
85
-17
22
50
1
-22
-127
-86
7
51
16
-19
110
66
29
2
16
87
127
84
25
8
11
10
19
16
8
-127
36
7
23
15
-10
98
-10
72
127
99
29
55
-8
-52
-127
-29
0
17
-15
29
118
17
105
102
25
127
98
-20
102
96
24
20
51
34
37
127
23
33
50
22
-61
-118
-81
-39
11
-22
44
127
46
59
59
44
72
127
54
53
61
34
-23
-66
-15
-53
-52
-26
35
127
13
30
98
49
127
96
84
28
87
41
-25
-13
42
-21
-84
127
-21
-17
36
32
42
22
38
127
29
22
33
36
36
60
49
46
127
90
13
52
44
-12
24
56
-74
-69
127
-10
28
55
40
66
42
28
127
31
42
55
47
-41
31
28
-69
27
127
-40
33
22
-66
-62
-82
-112
-94
-127
-67
-51
-61
21
60
13
12
127
10
18
51
12
24
53
7
75
127
39
25
49
9
31
34
1
18
127
62
19
30
5
54
80
47
69
127
51
45
55
50
30
88
15
127
61
84
55
30
65
12
36
11
11
127
32
6
28
10
-50
47
44
-25
-31
127
-39
35
47
35
75
22
-64
-127
-50
36
76
30
-3
43
20
2
127
47
0
41
16
41
40
-48
127
1
-102
42
32
-48
7
45
9
72
127
43
20
36
9
22
44
26
23
127
34
11
45
16
74
107
115
64
125
120
48
108
127
28
62
8
82
127
54
14
68
5
37
59
39
53
127
29
29
52
30
12
51
-1
19
127
11
13
57
-14
3
26
9
20
127
35
-3
24
3
56
99
24
65
127
87
54
78
40
31
52
15
28
127
40
39
32
20
123
96
-39
127
83
-25
95
101
-38
0
35
-1
86
127
82
0
21
1
57
77
47
93
127
75
67
64
51
45
52
63
85
127
67
61
26
67
0
81
28
36
127
63
-12
69
27
34
63
-17
17
127
96
38
42
5
-69
-127
-20
24
-12
-58
38
116
32
-67
-86
-59
-127
-84
-81
-63
-88
-55
3
53
24
45
127
44
0
40
41
30
126
-1
127
15
119
31
126
22
19
88
44
70
127
67
19
72
36
31
67
25
54
127
38
21
67
11
-12
34
55
-107
-96
127
-6
36
49
6
17
18
4
127
43
8
14
14
2
26
-5
42
127
-14
-5
25
-2
1
20
-24
17
127
8
0
5
-22
16
-2
-30
54
127
-32
13
-5
-30
46
-17
-46
127
25
-52
44
-25
-51
67
75
47
113
127
53
55
60
31
19
-26
-16
127
-35
-19
15
-21
-16
31
64
27
44
127
42
18
59
21
37
116
15
30
127
76
29
93
28
10
127
74
-46
27
-31
1
103
73
-2
7
2
-1
127
19
2
-7
0
112
123
-2
80
106
48
127
124
-1
104
96
93
124
-64
127
99
103
89
-31
50
44
-19
124
127
-15
50
45
35
65
36
53
127
71
32
69
35
-45
60
65
-27
80
127
-41
44
57
16
45
-4
49
127
13
18
25
3
23
53
13
38
127
64
16
51
5
82
127
98
45
79
106
85
99
106
0
58
-13
62
127
41
0
51
-16
-45
-123
-45
3
-41
-6
36
127
42
5
67
84
33
62
127
-9
68
68
-45
29
15
-47
98
127
-41
29
7
121
100
71
117
-126
53
127
97
68
63
-1
-19
127
-23
-65
59
-2
-29
66
18
34
127
64
-44
62
21
11
19
12
31
122
74
127
22
19
24
-1
59
3
-9
86
127
11
48
4
50
88
-9
101
127
44
43
76
4
118
121
74
15
-67
51
-116
-127
-99
14
36
-2
56
127
22
18
24
11
-1
28
-19
14
127
12
3
19
-6
77
61
74
106
127
68
68
68
67
53
47
33
117
127
76
43
56
13
17
29
2
46
127
37
18
26
-3
28
19
53
16
127
44
36
-5
49
62
68
27
63
-127
-109
55
68
32
-23
34
3
-15
48
127
-11
25
10
-9
42
37
-2
-127
89
-5
38
35
27
74
-3
-51
-127
-28
23
60
2
-27
41
46
-6
117
127
-26
31
36
74
42
9
121
127
41
82
35
18
-39
0
92
-69
-31
127
-36
8
87
76
78
93
127
84
88
86
77
75
31
40
15
-22
124
127
36
24
25
-45
-111
-45
12
-2
11
7
127
9
11
5
24
10
127
31
18
-6
32
-63
-124
-105
-126
-66
-40
-86
-92
-127
55
48
-12
82
127
16
58
40
-5
75
48
-54
127
50
-37
64
51
-48
35
87
-1
105
127
118
36
58
13
-91
-80
-19
-127
-68
-24
-98
-89
-14
35
50
25
56
127
52
37
38
24
-11
63
42
-9
119
127
-13
58
32
17
43
31
35
127
77
13
40
29
-27
40
-2
55
127
12
-23
23
17
40
127
41
113
110
74
38
122
23
-58
-127
-46
-9
-18
6
58
123
38
109
109
40
127
123
59
90
99
34
63
40
-21
127
-57
-31
65
37
-18
19
48
17
67
127
56
8
40
6
-5
37
20
6
127
82
-14
38
9
48
127
24
-19
-29
-1
-50
-102
-46
77
118
-80
10
127
-98
64
106
-66
25
29
6
49
127
30
20
29
12
73
124
45
0
-54
-5
-81
-127
-58
80
24
-88
127
-3
-81
83
15
-82
98
35
91
36
127
97
85
37
98
1
89
-4
103
127
126
-6
76
-2
30
56
35
41
127
18
29
59
29
46
96
-32
106
127
33
51
79
-5
-2
16
0
17
127
25
2
11
-8
-71
-127
-114
-4
25
63
31
114
55
41
59
32
88
127
60
36
64
18
-20
40
72
-23
-17
127
-19
30
67
63
86
32
81
127
-6
51
91
32
70
127
-6
108
-29
107
83
77
54
109
78
24
127
79
-2
84
78
30
8
21
21
18
127
22
5
26
16
9
18
13
10
127
33
-2
20
7
34
107
54
41
127
52
30
91
53
-4
70
18
76
127
50
15
59
18
-63
-127
-80
-6
18
12
54
104
57
-33
63
51
-19
-2
127
-17
61
47
30
42
19
56
127
56
29
35
21
56
127
56
15
37
14
-74
-79
-89
-80
-127
-117
-89
-30
-101
-67
-112
-98
55
74
33
93
127
33
56
71
20
-16
74
-40
85
127
79
-32
68
-21
125
101
85
127
113
76
119
99
65
82
89
46
97
127
51
80
78
40
3
36
19
-14
87
127
2
37
28
-7
40
50
-6
-127
67
-2
36
46
45
79
67
63
127
59
43
68
50
23
44
2
51
127
32
24
31
8
56
102
67
78
-55
127
57
105
57
16
13
-19
127
64
-39
14
12
-17
-77
-97
-53
-126
-28
-127
-65
-74
-51
-40
122
78
-28
84
127
-50
101
78
10
90
80
-16
-67
127
0
88
77
47
-39
-54
127
10
-71
42
-35
-45
19
37
-4
46
127
-1
15
32
-1
54
56
31
52
127
29
43
53
28
1
-33
50
-27
82
127
-13
-29
51
47
-18
-32
127
11
-46
37
-24
-30
87
47
54
53
127
58
84
43
60
19
40
8
36
127
36
19
41
4
30
127
51
-2
-4
-21
-38
-112
-54
127
112
53
116
68
93
111
117
58
20
86
25
23
25
15
-24
-127
-54
7
23
-8
41
127
22
10
24
-6
29
37
24
-37
-127
-19
26
37
18
89
101
76
94
127
75
80
81
83
-56
87
70
-45
31
127
-36
73
58
-24
-60
-35
-56
-127
-56
-35
-63
-27
-17
20
52
-33
-34
127
-11
14
40
67
116
3
124
127
44
44
113
14
24
127
14
-21
-42
-20
-43
-73
-19
7
27
17
20
127
39
9
19
18
15
40
12
-33
-127
-29
14
34
16
19
61
-2
61
127
39
15
72
6
-8
99
48
-75
56
127
-16
91
34
-5
18
3
-10
127
-19
-3
12
11
19
13
-2
30
127
1
8
-2
1
-26
34
52
-8
127
113
-25
29
52
18
11
-43
113
127
-60
3
-5
-24
79
59
-14
127
12
-28
72
59
-22
9
70
16
24
127
49
10
68
8
79
127
36
-19
-50
1
-74
-127
-86
71
60
5
79
127
86
70
65
0
53
-21
-41
127
-102
-52
49
-26
-42
80
101
70
127
120
86
77
89
64
-6
8
54
-23
-127
108
-9
8
49
27
29
15
47
127
37
16
29
7
34
41
28
39
127
18
39
33
32
66
74
17
127
34
-14
61
68
10
-11
7
1
65
127
47
-13
-4
-5
52
63
33
68
127
94
44
54
43
50
63
54
84
127
65
50
45
48
-52
-47
119
-29
-73
127
-73
-33
104
-109
-72
-67
-105
-12
-127
-88
-75
-76
-42
-65
-36
-84
-127
-89
-29
-46
-34
22
65
32
46
127
40
20
60
34
-16
41
16
-43
-19
127
-9
36
17
40
101
30
108
127
61
40
84
29
112
127
17
62
-18
37
-99
-108
-16
1
31
0
46
127
55
-9
26
0
-17
4
0
37
127
32
-11
1
0
56
74
40
67
127
64
58
73
35
-13
-11
-38
76
127
-70
-20
-10
-46
49
127
63
56
-70
87
44
118
57
-117
-127
-50
-96
-119
-111
-84
-112
-57
21
48
14
37
127
57
30
44
11
46
75
56
23
127
63
45
66
39
40
46
-11
80
127
37
38
47
-11
65
127
39
99
107
93
46
113
48
21
64
18
-36
-127
-39
24
59
24
-35
11
42
-12
61
127
-31
-1
29
48
65
23
78
127
74
45
58
28
23
71
15
39
66
11
-64
-127
-40
26
36
20
34
127
47
25
42
11
16
20
-4
31
127
40
12
13
3
59
25
6
127
20
-15
50
38
0
68
0
-51
127
-65
-94
68
4
-46
36
33
4
83
127
16
34
22
4
-23
28
7
57
127
77
-8
18
15
-114
-92
-93
-111
-101
-127
-115
-88
-97
22
52
4
42
127
36
12
34
5
-93
13
57
-102
36
127
-79
6
50
11
41
19
-33
-127
36
9
39
20
92
62
-103
111
-84
-127
87
56
-105
-14
13
59
-36
-107
127
-20
17
46
94
90
9
127
75
-90
82
87
4
-22
-15
59
-61
-87
127
-25
-15
48
19
43
74
38
126
127
9
44
81
15
37
21
27
127
32
18
32
12
-114
-114
-74
-127
-70
-51
-96
-113
-71
2
85
74
-6
127
113
11
79
78
-26
54
22
-92
-27
127
-22
51
21
-36
51
35
-56
5
127
-32
43
40
-23
-25
28
-25
-51
127
-21
-27
23
-19
38
35
-31
127
107
-7
30
35
33
76
1
127
121
-21
24
84
3
85
127
64
-25
-69
5
-78
-83
-72
53
-23
-29
127
-16
-39
44
-25
-37
8
29
-48
91
127
-33
6
12
-52
2
29
3
47
127
24
2
23
-4
-3
42
6
36
127
36
5
35
0
33
127
11
36
110
85
33
119
15
-16
-69
-67
-33
-127
-60
-18
-64
-56
59
127
36
-16
89
71
45
121
38
0
-38
-18
-68
-127
-45
-8
-40
-4
44
87
56
76
-127
74
47
78
45
-5
27
2
25
127
61
-2
21
5
-102
-89
-127
-89
-105
-44
-105
-106
-105
46
108
24
127
112
89
49
87
37
9
9
-3
31
127
14
10
6
3
17
32
28
11
127
64
3
37
23
23
31
17
44
127
47
12
31
16
-95
-93
-49
-127
-96
-72
-76
-85
-56
61
28
-7
127
49
-5
74
13
-20
12
44
8
58
127
41
8
41
6
75
65
-65
127
110
-101
79
43
-63
21
49
23
47
127
90
27
33
25
4
27
1
36
127
0
5
17
0
53
54
-23
127
-68
-79
52
47
-27
-27
-13
-17
-19
127
-9
-26
-12
-15
10
12
43
99
6
127
14
13
36
85
89
54
65
127
122
69
82
54
46
59
18
52
127
86
53
52
24
2
47
7
15
127
22
8
38
5
115
105
-22
127
114
-86
102
90
12
-60
-127
-87
13
-15
15
37
125
57
70
85
-2
108
127
27
62
81
-23
31
-5
30
59
127
63
27
-10
33
14
31
7
26
127
33
14
36
11
-118
-126
-34
-127
-79
-108
-82
-94
-54
14
45
3
14
-127
-8
15
38
-3
4
36
23
127
117
108
-8
45
7
30
94
4
98
127
54
34
65
21
0
73
26
73
127
79
-28
81
28
29
65
34
92
127
121
21
72
44
22
57
22
58
127
57
26
54
20
5
24
-59
43
127
-111
1
32
-71
65
127
41
76
81
80
71
106
51
42
64
44
62
127
40
56
54
49
116
81
65
82
109
23
127
85
61
20
28
27
30
-127
24
22
31
30
127
108
4
115
92
-66
123
95
7
66
60
-10
122
127
48
47
49
-1
49
110
-36
104
-127
-121
40
101
-21
62
74
24
90
127
50
58
85
19
96
25
-45
127
11
-33
96
9
-46
27
41
29
127
122
52
22
41
21
18
77
36
64
127
-15
23
77
34
40
22
-31
127
-58
-39
40
25
-33
-49
-127
-82
-4
-20
35
29
118
57
37
57
22
119
-39
127
45
48
25
38
55
-2
100
127
32
14
52
-2
36
31
-25
127
86
-44
32
33
-32
47
78
62
22
42
28
-71
-127
-60
9
52
76
15
114
127
16
57
68
-53
-89
-53
-40
-16
-44
45
127
43
9
20
7
22
127
15
1
14
5
41
43
31
53
127
40
27
46
35
-38
-55
73
-23
-72
127
-39
-50
70
102
9
-66
127
11
-62
90
13
-64
-40
61
77
-19
96
127
-4
48
74
17
127
25
71
98
118
19
102
19
29
22
-31
31
127
-39
30
26
-20
-26
67
37
-63
57
127
-30
58
35
27
-22
-22
127
-48
-27
16
-19
-18
-4
13
13
20
127
21
2
12
5
36
24
16
79
127
3
33
30
7
15
26
21
-45
102
127
16
19
12
50
63
40
81
127
70
22
78
50
-44
-55
-48
-101
-127
-81
-26
-57
-35
39
47
41
87
127
81
48
40
49
44
80
43
72
83
127
53
68
45
44
34
0
127
-114
-51
48
39
-11
48
64
-91
127
-83
-98
50
41
-78
-127
2
99
32
-65
13
96
8
-114
89
74
8
127
74
6
82
68
8
-8
24
6
48
127
35
-17
29
-2
-31
50
64
-50
-17
127
-27
48
69
49
0
-15
127
82
-23
39
3
-26
15
69
-10
89
127
85
20
50
-12
-127
-89
-112
-117
-21
-102
-122
-76
-99
-18
-36
-3
7
-127
-40
-15
-37
-6
-89
-127
-34
16
13
-11
67
101
26
54
73
25
105
127
39
55
49
31
-50
33
33
-50
49
127
-30
28
36
0
97
39
90
127
74
-25
100
50
12
65
21
81
127
61
4
57
18
7
36
17
16
127
38
-1
35
14
9
32
7
11
127
33
10
38
-5
94
75
-38
127
58
-31
91
59
-19
59
55
-12
108
127
-13
56
47
-8
-122
-107
-89
-83
-35
-96
-127
-109
-100
-47
-84
-42
-46
-55
-76
-44
-127
-32
6
43
19
29
127
54
14
29
22
56
97
72
118
40
127
70
94
67
-79
-123
-69
-117
-96
-127
-83
-103
-79
-2
51
51
78
66
127
-4
63
42
-15
16
63
-45
-60
127
-6
3
55
31
112
67
-15
127
113
33
99
56
112
64
-14
127
120
-45
96
59
-40
51
71
12
68
127
48
54
79
14
-31
68
92
-43
127
126
-51
81
76
-6
34
-2
40
127
35
3
30
-9
40
56
62
70
127
52
37
62
45
15
61
15
7
127
55
22
61
15
-14
-127
-35
20
27
29
12
73
15
54
77
53
88
127
63
41
72
49
7
45
18
-32
-127
-3
9
52
17
14
32
9
20
127
21
8
30
12
77
127
52
121
124
122
52
115
49
12
29
7
42
127
16
2
28
-2
-58
-127
-60
29
21
4
52
114
40
46
39
-16
127
66
-37
41
24
-14
78
32
-45
127
57
-80
58
28
-36
13
23
20
34
127
24
10
14
19
122
110
100
68
-98
43
127
95
101
53
64
56
104
54
127
43
66
42
15
79
56
2
94
127
14
62
50
48
70
68
74
127
110
-18
-23
13
31
66
83
28
88
127
25
61
70
11
43
7
57
127
30
15
35
15
11
92
17
93
127
83
11
67
29
5
-18
-24
-2
127
-53
6
-24
-23
38
74
18
127
92
105
42
70
28
59
67
75
110
127
73
49
66
75
-8
19
2
8
127
3
-10
19
4
113
55
-27
92
127
-26
99
69
-21
38
26
-5
44
-127
-21
35
24
-2
18
45
36
63
127
34
20
41
29
37
49
7
41
-127
-1
40
39
9
74
127
46
-7
-62
7
-73
-102
-35
14
44
12
50
127
43
21
34
12
49
71
45
65
127
101
50
67
24
10
69
-37
93
127
27
10
55
-14
48
69
64
57
127
50
44
53
69
-3
16
-28
20
127
-52
-1
16
-25
6
24
24
7
127
36
-1
26
13
66
26
-74
127
-59
-101
56
18
-74
44
127
69
35
49
48
41
109
58
35
36
-41
127
27
-60
40
28
-36
13
23
15
46
127
62
30
13
24
15
51
24
38
127
25
11
44
22
38
127
65
83
93
102
35
118
46
-9
-49
-22
-55
-127
-34
-8
-44
-24
58
116
47
117
43
127
36
115
34
23
54
4
117
127
6
5
40
-1
-10
43
10
59
127
34
9
32
23
24
35
-21
77
127
6
19
27
-4
15
38
19
10
127
56
13
24
17
68
127
68
94
62
87
54
119
71
21
36
42
-6
127
125
6
36
36
45
51
39
75
127
33
36
36
32
62
43
30
127
64
21
58
48
33
0
89
-18
28
127
121
3
71
13
-19
-36
-6
-53
-127
-53
-13
-41
-5
9
59
7
89
127
52
14
61
20
50
80
80
52
101
127
29
89
53
33
29
24
55
127
56
29
19
20
100
84
-10
127
80
-18
94
76
-2
10
32
37
-41
-127
10
13
31
33
38
49
42
54
127
48
33
57
41
19
37
15
27
127
24
13
34
4
111
48
-28
127
-87
-92
93
62
-34
18
4
18
-7
127
7
15
7
9
81
13
-66
127
27
-85
71
6
-69
-7
-7
-10
17
127
3
-11
-7
-4
75
79
11
127
122
-24
83
70
11
127
123
122
126
127
97
103
108
109
35
43
26
37
127
45
38
27
26
89
127
90
113
107
104
78
126
64
67
87
59
127
125
68
46
74
51
10
17
8
5
127
26
11
16
-2
35
48
21
68
127
62
-14
-59
-24
54
109
54
51
127
79
22
91
41
-101
-108
-127
-103
-112
-85
-77
-94
-118
-40
30
41
-43
105
127
-46
24
33
-67
62
116
-99
-51
127
-75
59
103
14
19
14
-2
-127
1
18
13
18
2
24
9
48
127
61
12
16
16
-64
-16
100
-112
-92
127
-52
-26
103
67
90
49
86
127
91
66
86
46
-5
47
43
1
127
86
2
39
40
-22
49
35
-54
127
76
-14
34
35
34
8
-82
100
-47
-127
31
15
-78
-112
-127
-120
-104
-37
-97
-104
-103
-109
70
101
11
34
-21
-27
-127
-115
7
77
66
-11
127
-6
-25
64
67
-8
-91
-127
-102
-88
-95
-107
-109
-90
-99
36
27
25
24
-127
10
36
26
24
24
54
30
41
127
58
26
38
26
4
50
65
-47
116
127
16
55
44
-20
10
-21
1
127
5
-13
4
-11
28
-10
-20
127
46
-20
26
-16
-21
67
117
-27
30
-116
-127
68
122
-20
42
90
54
79
127
68
44
73
64
-110
-95
-100
-104
-26
-101
-127
-70
-117
43
53
-33
127
72
-76
28
48
-50
8
17
-2
34
127
16
6
8
-1
-57
-29
12
-127
80
49
-60
-22
20
33
41
-37
78
127
38
25
28
-9
35
118
9
127
-59
65
37
98
13
16
67
58
57
127
55
14
59
48
-16
28
-29
34
127
-3
-13
19
-27
13
26
7
10
127
42
9
27
13
-76
-100
-127
-99
-34
-115
-54
-88
-108
19
109
8
109
127
120
32
85
29
-127
-83
-109
-85
-85
-107
-119
-79
-98
94
43
-39
127
69
-32
88
39
-36
64
64
68
10
105
127
56
66
74
-22
127
58
-114
38
102
-9
112
54
28
127
48
-9
-49
10
-54
-116
-69
29
3
-21
127
65
-72
22
13
-22
-12
51
34
-15
63
127
-23
47
36
81
127
57
82
78
78
78
124
56
24
35
68
47
127
55
18
33
66
-33
-93
-70
-98
-127
-54
-47
-89
-56
-109
-69
-93
-118
-80
-44
-127
-61
-80
28
-27
-1
127
-86
-37
20
-19
-2
5
110
48
8
-127
121
56
89
25
0
103
65
42
127
116
4
105
57
32
84
46
68
127
73
24
92
43
13
50
7
42
127
33
8
40
9
75
65
2
110
-127
-48
73
73
-7
127
78
-36
124
37
-38
124
65
-31
41
50
48
58
127
88
36
57
48
