10576
67519
61944
-17746
5224
-37740
-27601
587
-436
-71708
-2458
-27680
19124
92900
81514
-53543
-17318
-32833
-10101
-22986
-27591
-893
-17261
55477
-27622
-4749
-56079
50920
-7489
10788
-22167
-15670
61465
-23273
-26202
31687
34361
70339
-21223
-5634
-8199
25790
-13872
-19475
22941
-3400
35978
48653
-22126
-45248
2051
25948
19395
53436
3142
-1864
-9557
14490
11706
52458
-831
4777
-9757
-4836
4691
96036
19714
-17295
-3849
-53822
-18569
9476
-43674
39270
-8760
26883
63015
18495
10741
-2440
-23804
6895
4349
-8034
94867
-4082
98600
-17100
14842
-371
4513
-33143
35683
-16249
-14011
-19238
-20612
14726
12949
-5073
-3544
-20358
-27207
-34338
629
-40774
2981
39363
-18168
87048
-58144
-19147
-10621
-8215
19847
-21474
-24528
-1506
93954
-27523
21598
-27098
-13965
840
39065
-12754
-3647
-26219
30170
36322
109147
-7051
5672
-9541
97727
-44037
26356
-11092
-37437
44713
-18001
3505
-29806
-13837
-13629
69373
-9351
-31849
-27574
39511
-8315
45766
30749
14910
25275
-22802
27016
34480
-15292
19777
-26124
-36304
-55240
38046
-6496
-27600
-36426
46508
-11233
22159
13351
890
5301
-15141
28568
89428
-2398
-50868
-21081
-28491
4126
63347
53500
7029
-18355
-13941
38440
46555
-36176
1986
-14650
-14026
23667
3150
-3676
61461
-13300
-919
74387
39902
-13627
16579
-20582
2007
72715
-10383
-48637
-12796
3002
4001
146426
4134
-6026
18208
-3792
17631
3445
87101
-2212
1250
128286
58736
56839
41808
-11895
-24722
-26692
-8264
-28613
12953
-6469
-25663
5597
51354
107437
-24627
36763
-6471
-5324
8886
-18817
12188
-3445
-24069
-6218
54524
19367
-14664
-2529
-4368
25436
9441
25413
-1432
-33876
-34050
-12931
-10258
-10271
25656
-10642
45324
-9755
-31083
-39738
-5854
22420
32542
-6914
-20424
9742
-25929
24579
51193
-24235
-64330
-37282
25425
5909
-28954
-31935
-1500
-7354
-23402
-4034
37246
66007
-44240
17491
-8521
-35717
26051
-27803
28913
25605
23374
22400
66574
-63462
-11457
-35442
-7379
-24409
-12478
-37047
61017
-55
9839
9348
9873
8426
5459
-39631
32064
71521
-33880
12127
-14796
27732
-10172
-1036
-14261
-26694
8885
-43624
26261
6573
-8210
72705
-28186
7216
21309
-25676
24378
-18319
7364
72561
34220
-25174
4911
30508
-27406
-52813
19154
610
26724
41562
24887
30574
34936
12843
-4871
-21529
-11293
-35679
-20109
24269
6985
35092
8859
-1739
34891
74885
51361
-28234
24090
-32378
32882
6931
31945
14879
-17891
-3099
8352
52752
-20326
186
24474
-1492
13645
-19309
59183
-31594
25483
