48710
34882
-3367
8944
-11342
9744
25900
3283
6294
14021
11668
20146
26264
6791
20665
4850
14499
27497
-5615
7556
-23567
-5625
21379
8485
32629
2360
33540
53617
9051
-2886
10156
4230
26716
34926
11032
9488
63152
2813
906
7828
23642
3919
10745
-4802
11734
9133
12331
-3660
55571
-18372
-2330
275
-2685
-6506
21290
630
24330
14581
-16345
12454
2889
8652
-12101
6607
6140
78778
7403
-20152
-11765
-21428
8771
17306
19690
-17509
29045
-3378
-2855
-631
5104
34226
956
-6988
42646
2484
22629
561
-26667
-12585
-6473
-11385
25565
-1262
-21143
12182
-1059
23789
18320
4056
16688
-7829
38224
18811
268
-16218
-16077
3946
1106
-5773
4017
-13745
30482
16830
47157
65010
6359
9570
16438
-9124
4902
36727
5451
7962
-7150
31270
6589
-1453
11685
-25680
4513
-2208
13906
7521
30598
28866
7640
-1296
7345
-5185
4052
8463
34027
15691
29114
3516
-3019
12876
3987
-7828
17774
-24175
974
24468
-4693
3345
-7136
23393
-414
-2860
-9353
2062
11192
-3151
5738
-12323
1790
20604
29729
17137
8836
-26138
16142
46206
16169
32509
-1203
1943
3090
-372
641
28780
-5224
2418
-905
-23571
30022
-1442
-6075
43021
48510
-83
22710
-5056
11197
-12794
-9747
2717
19461
-1234
2116
-26277
-9424
6605
23893
-106
7021
25936
43118
39055
25786
77219
3158
6077
-27072
8331
5333
19147
12778
956
-7932
21030
-16042
-3498
-3773
2513
-27497
11477
4207
-3481
6565
4445
10902
10544
-9656
64450
-41416
3441
15813
12702
-5336
-19573
-755
19602
-9771
889
38898
41906
1623
16622
3069
14262
-8515
-6556
-936
16079
11326
-8080
8641
21405
-10906
-4680
19399
-5469
6828
-2389
16490
1954
-9350
-16295
3719
6622
34366
-1321
1058
4734
155
-19091
-930
-2717
40597
-4529
25613
5211
-10721
36151
-3458
-14396
15173
4981
28221
-3440
3797
-6827
19120
-13728
2396
8112
-10148
31973
-25586
31104
25828
10467
-3877
14893
-4612
18400
3821
9898
27249
14695
-5992
29766
3012
-9551
15902
16582
10511
11634
18827
18756
39629
20488
958
-1657
4538
-3774
-13970
1343
21030
-26405
12812
-21857
17787
13566
10062
15580
24250
20096
9223
27724
-9828
-12626
1405
5310
6282
-26101
17177
-1214
6704
27674
1712
13159
9847
-24410
22349
23886
7439
10866
6264
20466
-15435
1907
43314
-455
17662
-487
9227
-3995
28598
3054
52652
5355
-10572
-9160
7139
4540
4857
20202
-30384
3285
30863
7969
-2482
10926
5387
25628
25348
16712
2751
22521
7996
3311
28588
-8377
-4819
-26331
22946
23418
20678
-31879
24174
25585
-1570
21498
14544
4679
-12763
14107
34337
31650
-23024
-264
-30683
29825
10547
30641
-24275
41430
12959
-14658
9419
-6143
5546
34244
15518
-7605
38668
11073
24685
3707
13370
12944
19959
27798
-24953
45876
5444
-6271
10298
18582
12762
4742
4383
7423
3564
-34510
-5803
146595
8801
-4781
31695
1669
27388
46592
50838
6112
-11681
10904
40546
19805
-5436
-5663
366
35178
28505
48378
37844
14207
5903
-14598
5821
20278
12048
8704
2785
-1690
35039
18239
7035
45585
30472
7796
-13324
28680
41361
11876
53814
-3911
90116
-4497
28310
13418
7655
15053
-15927
23463
32781
4782
-11781
-8261
41351
-2725
5022
-9866
3412
-6718
12511
30994
24987
-6543
-4591
40433
3324
152984
14012
23848
-2121
16018
-10063
-2877
22075
536
41444
-29356
-601
8373
-7032
44223
18658
6385
32444
-1858
2169
-18335
-55380
20295
49302
42681
-27978
26590
29784
8578
78245
13995
166
-18861
5201
48732
22065
21717
5551
31931
35457
-2007
39494
-13419
37362
-23413
8721
-2531
-21366
20511
10295
9870
12485
3798
-12678
5578
21150
67397
37974
13751
18927
2644
-19890
14847
