-32115
11704
5036
12744
116796
60339
-16536
-34815
-19209
-40180
-3949
36630
5246
1556
-16292
13089
-31199
-6831
25072
-13914
-20126
2518
-44646
7877
-18221
7622
-20195
-9206
21314
3170
16300
-39389
-3925
-32716
2578
-1964
30757
24011
-9625
-31371
25128
19746
-28297
-14430
53350
11609
18496
-27215
-16239
587
7284
24018
12888
-28624
-25784
5170
57121
-7641
-22172
-10374
-15931
-6592
-13
894
2702
-51061
2786
45190
27760
-9251
-13976
-11980
-15379
106782
-3532
38184
-11159
4026
20700
-1497
7176
-28858
-18240
-2161
-30507
-7520
-22926
-13338
-12844
33709
-18112
17994
-8938
-9962
-26050
6132
-10124
-29073
-13909
-15154
14778
-10082
-13110
-36161
55841
-5554
-20847
-3451
13795
-3976
141
14732
21379
-3379
10797
-8786
32522
-5383
-46316
-17754
-1335
-24819
29828
-28239
-8027
-7024
-23861
228282
7674
-4722
-19129
15957
-8466
9885
-30125
43315
-16077
9271
-19231
-12256
33138
22165
-28436
-5611
-2850
-4917
-23532
40429
-14085
743
40841
1992
21016
1521
-9473
-4572
56465
1955
-9009
-14336
10625
-7104
-32374
-9890
41487
-6715
-7488
-27647
32166
-15564
-5830
26692
-60025
3902
-27843
414
-36221
-8062
-26048
-36253
14374
-19667
-4809
149226
616
-2703
-13161
-1533
-17459
24488
14669
-37291
9005
4738
38095
-23981
3082
-18358
8609
23198
-40906
11232
-3632
31591
50525
-10861
11281
-51876
16106
71180
-22497
-28897
14398
-916
1562
8742
-7835
-6462
5602
9552
6664
34495
718
23508
-14077
-19373
-8778
-4864
-29023
4353
-15858
-23403
-27737
14543
-3662
27289
-14402
25494
-27683
5385
-16523
-32211
-12075
-6679
38500
-4558
-5043
-29543
37973
-28781
16369
38516
-2973
29745
3734
-80106
4222
18058
67549
-6496
-9236
12365
-5559
7167
37523
-16274
-32392
-2895
12320
-14860
5409
-7017
-106
12505
1159
-15704
-31549
-13372
34246
-17129
24445
56536
-24882
62730
-34858
4528
-29222
-9943
-8729
-16635
3842
25905
25618
-3679
-10640
-37054
2196
-42378
-48959
-20082
-1724
116664
-3613
-4496
-22859
9934
-23914
22034
-39357
-41290
-22618
-1253
-16576
35026
-32521
-11261
-11125
-24971
-21198
-43429
28341
73861
-4604
-973
-6228
6074
-9685
14722
-8452
1979
-24940
5103
9569
-54607
-46985
-19828
-9484
-3532
-4658
-7195
16507
-24878
8977
6632
-32478
-3270
-48708
8259
16436
39205
-13495
30266
-31701
-19704
16406
-13805
45577
-5995
-3722
14152
-56804
-8396
-20198
4457
19639
27981
-7998
-143
-7096
-22178
-47536
14961
-35922
6647
19553
-28357
-11485
3223
-28429
-2736
-16740
10150
-18614
-416
17449
-2437
20538
-45869
-70
7305
-22042
-25577
-7732
-37408
21185
-49416
-23274
-23665
-2964
16901
-10967
12128
-11797
314
4781
-11898
-32247
-6769
20315
-21127
23216
9864
7485
-41426
-10252
4383
7340
-21135
-9880
2680
12435
-26696
51709
30800
-325
-19169
5638
15822
1663
-21268
-5343
-24759
-24670
-4979
-20210
-7332
8014
-29101
-3744
-12114
-19058
-30015
-14389
-13317
-25642
1976
14653
7928
-8931
2685
-6771
18439
-207
39015
6167
-469
-12462
9570
28484
-33705
-8718
67972
6703
-18329
-13173
-24675
36957
-4048
1291
-5218
31366
-10200
-7422
-12628
3686
-32566
14004
3954
14594
-26451
-3697
32073
-15860
-23047
-1341
14834
-3527
-17373
-28775
-1199
-20477
-1916
-7513
16221
35566
-29475
-12347
10961
2285
-28472
98355
-5574
-3092
-7468
-11515
19156
-12491
-56
-6233
33832
15680
55578
-29133
-22249
9447
29887
2893
13163
-10191
-1668
43445
16275
-5690
1699
-11056
12117
-36836
12006
-28558
9197
-1567
-20007
-21150
4362
-20394
4969
-32089
35609
-17235
19809
26577
38212
5795
-20559
-31649
-497
-35464
-43044
-26121
-38868
3447
8463
57103
1821
12354
-14512
4763
-24196
21855
29313
-46376
-23419
-13873
27192
5232
-7054
-21873
2782
-34433
34038
42507
-23891
-25644
7577
-4939
-15438
33998
22002
15448
6152
5651
-15329
5501
11684
-3755
-29737
-6113
29873
2841
-3002
-28323
-24277
41134
24144
-25038
-18134
-27491
93615
5097
-17818
3950
-8406
-4091
-32264
-43006
12242
1794
-6474
-47534
-6004
-35298
-33993
-22049
-18636
-8990
-50387
11846
-39122
-33476
13530
12761
13532
520
28838
4279
31256
-414
25753
-3397
39189
-3358
3272
-52132
15924
-23968
-4667
21936
52154
-9693
17180
3213
22100
-18543
-15337
-12734
5650
-19420
-12674
9016
50567
-1595
-21787
-30093
-17681
-706
10040
-32689
-9077
-730
-7138
-5372
25241
-26726
19555
12428
9219
-1457
-1530
-26577
-14989
-34219
-25611
