-62
8
-112
-72
-58
-60
-93
-20
-46
27
-14
-53
-53
60
32
-120
-87
5
48
-29
18
64
-111
-14
-68
-60
61
-84
-24
37
-115
-39
-44
-56
30
-70
-32
-34
-51
-24
-112
-82
2
11
5
-50
-102
-46
-18
-17
-100
-68
-32
-119
-26
-105
3
-2
-86
-97
-40
6
-92
-73
-84
-27
62
-82
65
-30
-55
14
-74
-81
-76
-110
-9
-122
55
-61
-120
-26
-79
-84
-60
-23
74
55
-88
3
-27
-122
47
9
-14
-58
-84
-73
-33
11
-12
-69
-84
-34
-46
-15
-118
-60
-77
-14
-20
-29
-89
27
-104
-88
39
0
-104
-15
8
-118
-52
-64
-73
-89
-102
11
6
-116
17
83
-26
14
-91
-34
-72
-14
-48
-105
-103
-56
-91
-56
-106
77
-21
12
63
-87
-118
-9
-17
-74
-69
-39
17
-17
-124
-57
-20
3
-15
26
-15
-90
36
-34
-79
-17
-56
-95
-117
-20
-52
-37
-33
-107
-97
-6
12
-86
-91
-95
-2
-84
3
-78
33
-71
-62
-84
-62
-5
32
-46
55
52
-68
53
-89
-3
-100
27
-34
26
-20
12
67
-20
20
-76
-48
-70
2
-32
26
-79
-63
-6
41
-85
-115
-57
26
-100
70
-115
-106
-63
-9
-63
-108
-60
-72
-41
-37
-26
-6
-56
-121
36
-116
-106
-15
30
47
-50
-33
29
-56
-55
-3
-15
-119
-56
-110
-83
65
11
-23
30
64
26
-84
50
-9
-72
-71
-26
-64
-65
-47
-17
21
-5
-69
-62
-88
-106
-102
11
52
-118
-89
-32
-39
50
-32
41
-61
-39
-23
-3
-21
-40
39
34
-63
-64
-37
-11
-50
-30
-106
-100
-30
-36
6
2
-82
-110
-77
-110
-74
-117
-105
-21
-30
-86
-27
-116
-6
-11
30
-30
-23
-95
-27
-56
-18
12
2
-24
-2
-64
-96
-61
-23
41
-12
-63
-69
-52
-82
-30
67
-89
-55
-2
-89
17
-58
-81
69
-106
-92
-23
56
51
-102
-73
27
-67
-52
-32
-27
-122
15
76
-30
-115
-91
-78
-15
-20
79
53
-33
30
-109
0
-62
-32
-111
-120
-78
-65
-33
-50
-20
-109
-109
-17
-53
-96
32
-9
23
57
-70
-36
15
-113
-96
-117
-111
-108
8
-6
-30
-40
8
-86
-9
-5
-21
-12
-12
69
44
-102
75
32
15
-14
2
24
-23
5
52
90
-68
-109
2
-72
-34
-58
68
18
-40
-71
-75
8
65
36
23
-68
-30
-52
-107
-2
29
32
-41
27
-99
-73
23
5
47
-18
-40
-11
-69
-99
63
26
-77
2
-93
-8
-26
43
-79
8
58
-8
-32
20
-6
-18
11
-30
-101
-73
51
-62
29
24
-75
-14
21
-124
-11
-74
61
-50
15
0
-122
75
-5
53
-111
-32
56
-15
-51
-2
-111
18
-44
-21
-50
-122
-62
-60
-93
75
33
-17
-36
24
51
18
-11
72
37
48
-14
-44
-21
-70
-106
-109
-76
-65
-62
37
-74
81
-47
-97
65
50
-114
-2
-23
-53
18
30
-100
-2
-52
-114
-89
-20
-123
23
21
-11
-27
-6
-75
-107
-14
-106
-15
-43
-43
-18
-11
-94
24
-108
-12
-18
-46
-84
30
-32
-9
48
-2
64
61
-39
29
-75
-122
-92
-23
-100
-97
-64
-105
14
-15
47
-70
-58
-20
-84
-111
-104
71
26
-48
-109
-6
-84
11
3
-39
-72
-46
8
53
-55
-97
-33
52
17
-18
-88
-50
-15
-113
-80
-51
73
-91
-61
-2
33
-53
-103
-37
-91
-111
-80
-77
-86
21
-51
-57
-75
-33
0
-47
32
33
-99
18
-122
-118
-21
-118
2
20
26
-20
-14
-12
-78
-14
-100
-72
-58
-58
-102
