-77
-62
0
-62
0
-53
-62
33
-11
-33
70
43
43
77
43
-33
43
-22
-95
-104
-43
-77
-90
-33
33
-11
-122
43
-84
-22
33
33
-70
33
-100
-43
22
53
33
-33
11
-90
-84
127
-22
-84
33
-95
-53
53
-22
-70
-33
-95
43
0
-100
-95
22
53
-108
-70
43
-120
11
-113
-111
-43
-95
11
-53
0
22
-108
-111
-22
-70
-53
125
-62
33
-22
22
-62
-100
-62
22
-33
-84
95
-53
-77
-113
-62
0
100
-116
70
22
70
43
127
-11
-70
33
-100
-100
11
53
-70
43
22
-100
-100
-84
11
-90
-53
62
62
-90
-62
0
-70
-108
-33
-22
0
-11
22
-116
53
-100
-70
53
-124
70
33
11
-62
-33
117
127
-100
84
53
-70
53
22
-116
62
11
-43
-100
11
-62
-90
-11
-33
-90
33
11
-122
22
-108
-77
-22
-104
-22
43
33
0
0
-100
-111
-84
22
-33
11
126
-77
-11
-22
-11
-22
-70
-77
-124
-100
0
-22
-70
-77
-62
22
-117
11
-33
-113
-95
-22
-111
-100
-11
0
11
-77
70
43
43
108
-77
0
-22
-53
11
-22
-22
62
-116
-11
-11
33
-113
-128
-108
22
111
-77
-43
-116
-108
-84
11
-77
-33
-53
-70
0
-84
0
-22
-104
-22
-95
53
-100
11
-70
-90
43
43
-77
100
-33
-33
84
0
-33
127
0
-104
-11
-70
70
53
-95
-70
-95
11
22
62
111
-70
33
-77
-84
22
-11
-43
33
0
11
-22
22
126
-123
-43
11
104
-116
-70
33
11
-104
33
-84
0
-100
22
-90
43
0
53
22
-53
-70
70
-33
-70
-33
-53
43
22
22
-111
77
22
0
22
-11
-77
-122
-11
-70
-108
-90
33
53
-119
22
-33
-116
62
-124
53
77
22
62
11
-77
-125
0
-62
-116
-108
22
-22
-120
-100
11
22
43
77
70
-43
-22
-104
22
11
-33
-22
-43
-33
-100
-33
-95
-22
43
-33
-90
-43
127
-70
-116
-53
11
22
-113
11
-108
-116
-111
-84
-22
120
22
-62
127
-33
-95
43
-33
-125
-43
53
22
53
-84
33
33
-113
0
43
-53
-117
11
11
-43
-128
11
33
-53
-62
-70
-33
43
-111
-104
43
-43
-33
11
-84
33
113
43
-113
43
125
-53
-11
33
43
11
-33
-53
62
-84
-62
-11
-95
43
-22
-43
11
43
-11
-11
-33
-84
22
-100
0
0
-77
-123
-111
-120
33
-43
33
-22
95
90
-90
-33
-43
-33
33
22
-43
-43
-111
0
62
-43
-116
0
-77
-70
-124
-33
-117
125
22
33
22
0
-43
11
11
-22
-43
33
84
53
-33
53
-113
-108
-70
-11
-95
-43
43
108
-53
53
-117
-22
-33
-77
11
120
-100
11
0
-77
22
-77
0
-77
-90
77
-111
43
-84
-62
0
33
11
-62
11
70
-43
-116
0
22
11
-77
0
-43
11
-43
-84
-53
127
-119
-84
-11
-53
-53
43
-43
84
-108
-33
0
22
53
-62
-90
22
-100
22
22
-90
11
-62
11
43
-11
0
22
33
-11
43
0
-120
-33
-62
-77
-70
22
-116
123
-53
0
-90
-84
-43
84
84
84
0
33
53
-11
-100
123
-33
-43
-62
-104
0
53
-11
-33
-33
-123
77
-33
53
-70
104
-53
33
-43
-43
-77
-100
-11
-11
-116
-33
43
-22
22
-111
-117
-125
62
-70
-11
43
-22
33
-120
-62
95
-22
-116
-33
-43
11
-104
111
0
120
33
-43
43
-11
-116
70
-53
-95
0
33
124
-95
-11
-70
-22
-33
-43
-124
77
22
-22
-108
-90
-90
0
-84
0
-53
-77
33
11
0
70
-22
62
70
22
-33
53
-33
-95
-100
-53
-90
-70
43
43
-53
-117
43
-62
11
22
-22
-95
33
-90
-84
-11
70
-22
-22
53
-116
22
124
-70
-11
43
62
-53
62
-22
-90
-53
-77
43
-22
33
-111
22
43
-113
-77
33
-122
22
-116
-116
-43
-104
-43
0
0
-62
-111
-95
-22
-77
-43
77
-95
22
-22
22
-90
-84
-77
22
-43
-70
70
-70
-62
-84
-53
-53
62
-116
43
11
77
43
117
-33
-70
43
-43
-117
11
33
-62
22
-33
-104
-120
-62
-22
-33
-62
62
11
-108
-62
0
-77
-111
-22
22
0
-33
62
-90
43
-95
-84
-90
-125
70
33
-11
-33
-62
22
127
-95
62
53
-70
33
43
-111
-84
-22
-62
-108
22
-62
-95
-53
-43
-84
22
-11
70
22
-113
-100
-77
-111
70
43
11
-43
0
-77
-117
-84
22
-22
-62
124
-95
-62
43
11
-43
-84
-95
-100
-124
22
-11
-77
-90
-53
-33
-77
-11
-70
-90
-100
-43
-104
-100
-22
0
0
-95
70
33
33
119
-53
0
-43
-53
-53
22
-53
0
-113
22
-53
33
-111
-111
-84
43
-43
-62
-22
-53
-95
-77
-62
70
100
-62
-77
-11
-77
11
-90
-70
-33
-62
43
-84
0
-70
-90
53
53
-70
53
-90
-22
70
-70
-62
122
-33
-108
43
-77
77
22
-108
-70
-108
-22
22
43
70
-84
43
-113
-95
11
-22
-43
43
-70
11
-22
22
53
-123
-33
-11
90
-100
-77
-11
43
-84
53
-100
-11
-104
53
-100
53
11
43
0
-62
-70
43
22
-77
-43
-100
53
33
-33
-113
70
-22
-33
22
-33
-77
-123
0
-77
-104
-104
22
33
-108
11
-77
-116
-43
-126
62
84
22
33
11
-77
-125
-53
-84
53
-104
53
-22
-125
-108
-33
33
43
-111
70
-111
-62
-111
11
33
-53
33
-43
-33
-100
-53
-77
0
53
-70
-90
-53
111
-33
-122
-62
-70
33
-111
-33
-111
-11
-77
-84
-77
43
-70
-43
127
-70
-90
62
-77
-77
-33
-11
-22
11
-84
33
-11
-111
-95
11
-90
-117
-11
-33
-11
22
-11
-33
-62
-70
-90
-11
22
-111
-117
-11
-62
0
-11
-90
0
-11
62
-43
33
111
-95
-43
62
-43
-22
-90
-77
0
-70
-70
0
-77
43
-77
-77
-11
33
-33
-11
-113
-111
22
-116
-11
33
-84
-127
-113
11
53
-43
43
11
-33
53
-90
-84
11
-43
22
22
-62
-70
-90
-11
62
-70
-113
-62
-90
-43
-111
-70
-120
116
-11
53
-22
111
-77
33
-104
-22
-33
0
84
-11
-22
70
-116
-108
-70
-43
-90
-43
62
95
-104
22
-119
-22
-53
-90
0
-77
-116
22
-22
-90
-11
-104
0
-111
-77
22
-111
-53
-77
-62
11
33
-22
-43
-22
70
-77
-100
-43
22
-11
-77
-43
-22
-33
-84
-95
-53
-126
-119
-62
11
-43
-70
-53
-53
90
-116
62
-11
33
43
-62
22
53
-104
0
11
-95
-11
-62
-33
11
-90
0
0
11
0
43
-43
-117
-11
-95
-77
-77
-43
-100
70
-43
-11
-111
-77
-33
22
-11
53
-53
11
-43
-33
-95
117
-53
-22
-43
-104
11
33
-33
-43
-43
-122
22
-90
22
11
104
-70
33
-70
62
-43
-33
-11
62
-120
-53
11
-33
-22
-123
-124
-122
22
-62
-43
53
-53
43
-77
-77
22
-33
-116
-70
-77
-33
-119
84
53
111
53
-53
43
-62
-124
77
-90
-108
22
11
100
-108
-11
-62
-62
-43
-122
-122
84
-11
-70
-111
-90
-90
11
-33
-11
-53
-84
43
11
-11
70
-22
62
62
22
-43
53
-33
-95
-53
-53
-90
-70
33
43
-70
-116
53
-33
0
53
-22
-90
22
-95
-90
-22
70
-22
-22
53
-117
-33
108
-53
-84
43
0
-53
62
-22
-84
-62
-90
43
-22
-43
-108
22
43
-108
-70
33
-122
22
-116
-116
-43
-100
-53
0
0
-70
-108
-90
-11
-77
-43
-53
-77
22
-22
33
-90
-90
-77
22
-11
-62
53
-77
-22
-70
-62
-62
43
-117
22
0
70
62
-62
-11
-70
-43
0
-116
11
33
-70
0
-53
-104
-120
-53
-11
-77
-53
43
-11
-104
-62
22
-77
-111
-22
33
0
-33
43
-70
33
-84
-84
-43
-125
70
22
-11
-11
-62
-43
125
-100
62
43
-70
22
0
-108
-62
-22
-53
-104
22
-62
-95
-53
-11
-77
22
-11
22
22
-113
-100
-84
-90
53
43
0
-43
-11
-70
-116
-77
33
-22
-84
120
-95
-62
53
11
-33
-84
-100
-62
-123
33
-11
-77
-90
-43
-53
-84
-11
-70
-33
-104
-62
-108
-84
-33
0
0
-95
33
11
43
104
-53
11
-43
-33
-62
11
-53
22
-111
43
-62
33
-104
-117
-70
43
-22
-70
-22
-33
-100
-77
-70
43
22
-77
-95
-11
-70
0
-70
-70
-33
-70
43
-62
53
-77
-90
43
53
-77
70
-104
-22
70
-90
-84
100
-43
-113
53
-77
70
33
-108
-77
-108
-22
22
43
53
-90
70
-116
-95
0
-33
-43
43
-70
22
-11
33
-22
-122
-43
-11
33
-111
-90
-11
33
-90
53
-100
-11
-84
43
-100
53
33
33
-11
-62
-70
43
33
-77
-43
-111
53
33
-33
-111
62
-22
-53
22
-33
-70
-123
11
-77
-100
-104
11
33
-90
11
-84
-113
-62
-126
62
84
22
22
22
-77
-125
-62
-70
-22
-62
33
-33
-124
-108
-53
11
43
-113
70
-84
-62
-111
11
11
-53
53
-43
-33
-104
-53
-70
11
53
-62
-90
-53
-22
-43
-122
-53
-43
33
-113
-43
-111
-33
-53
-90
-62
-53
11
-33
122
-70
-84
62
-95
-53
-43
-53
-43
-11
-84
33
0
-111
-104
11
-90
-117
-11
-43
-22
-53
-11
-33
-53
-77
-90
-33
22
-111
-90
-43
-62
-11
-33
-77
-11
-95
62
-84
33
100
-104
-53
70
-43
-22
-84
-77
-43
-70
-62
-11
-62
43
-62
-62
-11
33
-33
-33
-113
-113
22
-113
-11
-43
-95
-122
-113
11
43
-43
33
22
-70
53
-90
-53
0
-70
22
22
-70
-70
-84
-11
62
-53
-113
-70
-90
-43
-84
-84
-120
62
-11
43
-22
117
-84
43
-53
-22
-33
0
70
-62
-22
70
-117
-104
-62
-43
-84
-43
62
90
-100
11
-117
-22
-53
-90
33
-62
-117
22
-22
-90
-11
-111
0
-108
-43
0
-113
11
-62
-62
11
33
-11
-43
-33
62
-77
-95
-62
22
-11
-77
-53
-22
0
-84
-95
-43
-95
-119
-33
11
-62
-62
-43
-43
90
-113
33
-22
33
43
-70
43
62
-104
0
11
-95
-11
-53
-43
22
-70
11
33
11
0
22
-33
-116
0
-100
-77
-62
-53
-90
77
-22
-22
-117
-84
-33
43
-43
-22
-53
11
-77
-62
-95
104
-70
-43
-53
-104
22
11
-43
-43
-33
-122
33
-70
22
11
-33
-70
33
-70
22
-43
-70
-22
-22
-120
-43
-11
11
-33
-123
-111
-90
11
-62
-53
53
-53
43
-84
-77
43
-33
-116
-70
-77
-62
-119
43
70
108
53
-53
43
-43
-117
77
-90
-111
22
43
90
-111
-11
-53
-43
-33
-90
-119
84
-33
-77
-108
-84
-90
0
-22
-11
-43
-84
43
11
-22
70
-22
62
70
22
-53
53
-33
-95
-33
-53
-90
-70
62
43
-77
-116
53
-62
0
53
-11
-90
33
-100
-95
-22
70
-22
-22
62
-116
-43
108
-53
-43
33
-11
-53
62
-22
-84
-62
-95
43
-22
-62
-108
22
43
-104
-62
33
-122
22
-116
-116
-43
-104
-53
-11
0
-70
-108
-90
-22
-77
-43
-53
-77
22
-22
22
-84
-100
-70
22
-43
-62
43
-90
-22
-77
-62
-53
43
-117
22
0
70
62
-77
-11
-62
-77
0
-117
0
43
-70
-11
-43
-104
-120
-53
11
-84
-53
33
-11
-104
-53
33
-70
-111
-33
33
0
-33
22
-77
33
-84
-84
-22
-125
70
22
-11
-33
-62
-43
124
-100
62
43
-70
22
-33
-104
-43
-11
-43
-108
22
-62
-95
-53
-11
-70
22
0
-11
22
-113
-95
-90
-84
53
43
0
-62
-11
-70
-116
-70
11
-22
-84
119
-95
-62
62
0
-43
-90
-104
-53
-123
33
0
-84
-90
-43
-62
-84
-22
-84
-11
-108
-70
-108
-70
-22
0
-11
-104
11
0
43
100
-62
33
-43
-22
-70
0
-53
33
-111
43
-62
33
-108
-119
-77
43
-22
-77
-22
-53
-108
-77
-84
43
11
-77
-100
-11
-77
0
-70
-77
-43
-62
43
-62
62
-77
-84
43
53
-77
62
-108
-22
70
-90
-70
90
-53
-113
43
-77
70
33
-108
-77
-108
-22
33
43
43
-90
70
-117
-100
-22
-33
-43
43
-70
33
-11
33
-33
-122
-43
-11
0
-113
-90
-11
43
-100
53
-95
-11
-90
33
-100
53
33
43
-11
-70
-70
43
33
-77
-43
-113
53
33
-33
-111
62
-33
-53
22
-43
-70
-123
11
-84
-104
-104
33
22
-90
11
-84
-111
-43
-126
62
84
11
22
22
-84
-125
-62
-62
-70
-53
33
-33
-124
-108
-62
0
43
-113
70
-62
-70
-113
11
22
-53
77
-43
-33
-100
-53
-70
0
53
-53
-90
-53
-33
-53
-122
-62
-11
33
-113
-43
-111
-43
-62
-84
-62
-43
70
-33
117
-70
-90
62
-95
-70
-43
-53
-43
0
-84
33
11
-113
-100
22
-90
-117
-22
-53
-43
-95
-11
-33
-43
-77
-90
-43
22
-113
-70
-53
-62
-11
-43
-70
-11
-100
62
-62
33
100
-104
-53
70
-43
-22
-84
-77
-43
-70
-62
-11
-62
43
-62
-53
-11
22
-33
-22
-116
-111
22
-113
-11
-43
-100
-119
-113
-11
43
-43
43
22
-62
53
-90
-62
-11
-70
22
22
-77
-70
-77
0
70
-33
-111
-62
-90
-53
-84
-90
-120
53
-11
43
-22
122
-84
33
-53
-22
-33
11
70
-70
-33
62
-117
-108
-62
-43
-90
-43
62
84
-100
11
-117
-22
-53
-90
53
-33
-119
22
-11
-90
0
-111
11
-111
-43
0
-90
11
-70
-62
11
33
-22
-33
-33
62
-77
-90
-62
33
-11
-77
-43
-22
-22
-84
-95
-43
-90
-119
-33
11
-53
-53
-43
-43
90
-111
33
-22
33
43
-62
43
62
-104
0
11
-95
-11
-43
-33
22
-70
11
43
11
0
0
-62
-116
-22
-104
-77
-53
-53
-95
84
-22
-11
-120
-90
-33
33
-43
-22
-43
11
-70
-62
-95
108
-70
-62
-43
-104
43
11
-43
-43
-33
-122
33
-62
22
11
-62
-70
33
-70
33
-33
-70
-33
-70
-120
-43
-22
11
-43
-123
-111
-84
11
-62
-43
53
-53
43
-95
-70
22
-33
-116
-70
-77
-70
-120
33
70
111
53
-53
43
-53
-117
77
-84
-111
22
43
95
-113
0
-43
-33
-22
-70
-119
84
-33
-77
-111
-90
-90
0
-22
-11
-43
-84
43
11
-11
70
-22
62
77
33
-53
53
-33
-95
-33
-53
-84
-70
53
43
-70
-116
53
-43
0
53
-22
-84
33
-95
-95
-22
70
-33
-22
43
-116
-43
108
-53
-53
33
-11
-53
62
-22
-77
-62
-100
43
-22
-62
-104
22
43
-108
-70
33
-122
22
-116
-116
-43
-100
-53
-11
0
-77
-108
-84
-11
-84
-33
-62
-77
22
-22
22
-84
-104
-70
22
-11
-62
43
-90
-22
-77
-62
-53
43
-117
22
0
70
70
-70
-11
-62
-77
0
-117
0
43
-77
-11
-22
-104
-120
-53
11
-90
-53
22
-11
-104
-62
22
-70
-111
-33
33
11
-33
22
-77
33
-84
-84
-11
-125
70
22
-11
-33
-62
-62
124
-100
53
43
-70
22
-33
-104
-43
-11
-53
-104
22
-62
-95
-53
-22
-62
22
11
-11
11
-113
-95
-90
-84
43
43
0
-70
-11
-77
-116
-70
11
-22
-84
119
-95
-62
62
11
-43
-90
-104
-53
-123
33
-11
-84
-84
-43
-62
-77
-22
-77
11
-111
-70
-104
-62
-22
0
0
-100
11
0
43
100
-62
33
-43
-22
-70
11
-53
33
-113
43
-62
33
-108
-122
-77
43
-22
-77
-22
-43
-104
-84
-90
62
0
-77
-100
-11
-84
0
-70
-77
-43
-62
43
-53
62
-77
-84
53
53
-77
62
-104
-33
70
-90
-62
90
-43
-113
43
-77
70
33
-108
-70
-108
-22
33
43
43
-84
70
-119
-100
-11
-33
-43
43
-70
33
-11
22
-33
-122
-43
-11
-11
-113
-90
-11
33
-100
53
-100
-11
-90
33
-100
53
33
33
-11
-70
-62
43
43
-77
-43
-113
53
33
-43
-111
62
22
-53
22
-43
-70
-123
11
-90
-108
-104
33
22
-70
11
-84
-111
-33
-126
62
90
11
22
22
-77
-125
-53
-62
-84
-62
33
-33
-124
-108
-62
0
43
-113
70
-77
-70
-113
11
43
-53
70
-43
-33
-100
-53
-70
0
53
-62
-90
-53
-33
-43
-122
-62
-33
33
-111
-43
-111
-33
-53
-84
-43
-43
53
-33
124
-70
-84
62
-95
-70
-43
-53
-33
11
-84
33
11
-116
-104
22
-90
-117
-33
-53
-43
-84
-11
-33
-33
-77
-90
-43
11
-113
-70
-53
-62
-11
-43
-70
-11
-104
62
-70
33
104
-104
-53
70
-43
-33
-84
-77
-53
-70
-62
-11
-70
43
-62
-53
-11
22
-33
-33
-116
-108
22
-113
-11
-53
-104
-117
-113
-22
43
-43
33
22
-53
43
-90
-70
-11
-70
33
22
-77
-70
-77
0
70
-33
-111
-70
-90
-43
-84
-90
-120
53
-11
43
-11
119
-84
53
-62
-22
-33
11
70
-70
-33
62
-119
-111
-70
-43
-84
-43
62
90
-95
11
-117
-22
-53
-90
53
-33
-117
22
-11
-90
0
-111
11
-108
-33
-11
-70
11
-70
-62
11
33
-22
-33
-33
62
-77
-84
-70
33
-11
-77
-43
-22
-22
-84
-95
-53
-77
-119
-43
11
-53
-53
-33
-53
90
-111
33
-22
33
43
-62
11
62
-104
0
11
-95
-11
-53
-33
22
-62
11
33
11
0
0
-53
-116
-11
-100
-77
-53
-53
-90
84
-11
0
-120
-90
-33
53
-33
-22
-53
11
-77
-62
-95
108
-77
-77
-43
-104
43
11
-43
-43
-33
-122
33
-62
22
11
-77
-70
33
-70
22
-33
-70
-33
-84
-120
-43
-22
22
-43
-123
-108
-95
0
-62
-43
53
-53
43
-95
-70
53
-33
-116
-77
-77
-70
-120
33
70
111
53
-53
43
-53
-117
77
-84
-111
22
43
100
-113
-11
-43
-33
-33
-95
-119
84
-22
-77
-111
-84
-84
0
-22
-11
-53
-84
43
11
-11
70
-22
62
70
33
-53
53
-33
-95
-33
-53
-90
-70
62
43
-70
-116
53
-53
0
53
-22
-84
22
-95
-95
-22
70
-22
-22
53
-116
-43
108
-53
-77
33
-11
-53
62
-22
-77
-62
-95
43
-22
-62
-108
22
43
-111
-62
33
-122
22
-116
-116
-43
-95
-53
-11
0
-77
-108
-84
-22
-77
-43
-62
-77
22
-22
22
-84
-104
-70
22
-22
-53
53
-90
-22
-84
-62
-53
53
-117
22
0
70
62
-77
-11
-62
-62
-22
-117
0
43
-70
-11
-33
-104
-120
-53
11
-84
-53
33
-11
-104
-70
22
-70
-111
-33
33
11
-33
33
-77
33
-84
-90
-33
-125
70
22
-11
-22
-62
-43
124
-100
62
43
-70
22
-33
-104
-53
-11
-53
-100
22
-62
-95
-62
-11
-62
22
0
-11
22
-113
-100
-90
-84
62
43
0
-70
-11
-77
-116
-77
11
-22
-84
120
-95
-62
62
11
-43
-90
-104
-62
-122
33
-11
-84
-84
-53
-62
-84
-22
-77
0
-111
-70
-104
-53
-22
0
0
-100
11
11
43
100
-62
11
-43
-22
-70
11
-53
22
-113
33
-62
33
-108
-119
-77
43
-22
-77
-22
-53
-104
-77
-90
43
22
-77
-100
-11
-77
11
-70
-77
-33
-70
43
-62
62
-77
-84
53
53
-77
62
-104
-33
70
-90
-70
90
-43
-113
43
-77
70
22
-108
-62
-108
-22
33
43
43
-90
62
-119
-100
-11
-33
-43
43
-70
22
-11
22
-33
-122
-33
-11
11
-111
-90
0
43
-100
53
-100
-11
-84
33
-100
53
22
33
0
-62
-62
43
22
-77
-43
-113
53
33
-33
-111
62
-33
-53
22
-33
-70
-123
11
-95
-111
-100
22
22
-70
11
-84
-111
-33
-126
62
90
0
22
22
-77
-125
-53
-62
-84
-62
33
-33
-124
-108
-62
11
43
-111
70
-77
-70
-113
11
33
-53
77
-43
-33
-100
-53
-70
0
53
-62
-90
-53
-33
-53
-122
-62
0
33
-111
-43
-111
-43
-62
-84
-43
-43
33
-43
120
-70
-84
62
-90
-77
-43
-53
-33
0
-84
33
0
-116
-104
33
-90
-117
-22
-43
-43
-77
-11
-33
-33
-77
-90
-43
11
-113
-70
-43
-62
-11
-43
-62
-11
-100
62
-53
33
100
-104
-53
70
-43
-33
-84
-77
-53
-62
-62
-11
-70
33
-62
-53
-11
33
-22
-33
-116
-108
22
-113
-11
-53
-104
-119
-113
-11
53
-43
33
22
-62
53
-90
-70
-11
-70
33
22
-77
-70
-77
0
70
-33
-111
-70
-90
-43
-84
-90
-119
53
-11
43
-11
120
-84
43
-53
-22
-33
11
70
-70
-33
70
-119
-111
-70
-43
-84
-43
62
84
-100
0
-119
-22
-53
-90
53
-33
-116
22
-22
-90
0
-111
11
-111
-33
-11
-90
22
-70
-62
11
33
-22
-43
-33
62
-77
-90
-53
22
-11
-77
-43
-22
-22
-77
-95
-53
-90
-119
-43
11
-53
-53
-33
-53
90
-111
33
-22
33
43
-70
22
62
-104
0
11
-95
-11
-53
-33
11
-77
11
33
11
0
11
-33
-116
-11
-100
-77
-53
-53
-90
90
-22
0
-120
-90
-33
33
-33
-33
-53
11
-77
-62
-95
104
-77
-77
-43
-104
43
11
-43
-43
-33
-122
22
-62
22
11
-77
-70
33
-70
11
-33
-70
-33
-77
-120
-43
-22
11
-33
-123
-108
-95
11
-70
-43
53
-53
43
-95
-77
22
-33
-116
-77
-77
-70
-120
33
70
108
53
-53
43
-53
-117
77
-77
-111
22
43
95
-113
-11
-43
-33
-33
-95
-119
84
-22
-77
-111
-84
-84
0
-22
0
-43
-84
43
11
-11
70
-22
62
77
33
-53
53
-33
-95
-22
-53
-90
-70
53
43
-70
-116
53
-62
0
53
-22
-84
33
-95
-95
-22
70
-22
-22
53
-116
-43
111
-62
-53
33
-11
-53
62
-22
-77
-62
-100
43
-22
-62
-104
22
43
-111
-70
33
-122
11
-116
-116
-43
-95
-53
-11
0
-77
-108
-84
-22
-77
-43
-62
-77
22
-22
22
-84
-104
-70
22
-22
-62
43
-90
-22
-77
-62
-53
43
-117
22
0
70
70
-77
-11
-62
-62
-22
-117
0
43
-77
-11
-33
-104
-120
-53
11
-84
-53
33
-11
-104
-70
22
-70
-111
-33
33
11
-33
33
-77
33
-84
-90
-11
-125
70
22
-11
-33
-62
-22
124
-100
62
43
-70
22
-33
-104
-53
-11
-43
-100
22
-62
-95
-62
-22
-62
22
0
-11
22
-113
-95
-90
-84
43
43
0
-70
-11
-77
-116
-53
11
-22
-84
120
-95
-62
62
0
-43
-90
-104
-53
-122
33
-11
-84
-90
-53
-62
-90
-22
-77
11
-111
-70
-104
-43
-22
0
0
-104
11
11
43
100
-62
22
-33
-11
-70
11
-53
33
-113
33
-62
33
-108
-120
-70
43
-43
-70
-22
-62
-104
-77
-90
43
0
-77
-100
-11
-77
11
-70
-70
-33
-70
43
-62
62
-77
-84
53
53
-77
70
-104
-33
70
-90
-70
95
-43
-113
33
-77
70
22
-108
-62
-108
-22
22
43
43
-90
70
-119
-95
-11
-33
-43
43
-70
22
-11
22
-33
-122
-43
-11
0
-111
-90
0
43
-100
53
-104
-11
-84
33
-100
53
33
33
-11
-70
-70
43
22
-77
-43
-113
53
33
-43
-111
62
0
-53
22
-33
-70
-123
11
-95
-111
-100
33
22
-77
11
-84
-111
-33
-126
62
90
-11
22
22
-77
-125
-53
-62
-84
-53
33
-33
-124
-108
-62
0
43
-113
70
-62
-70
-113
11
33
-53
43
-43
-33
-100
-53
-70
0
53
-62
-90
-53
-33
-53
-122
-62
0
33
-111
-43
-111
-43
-53
-90
-43
-43
43
-33
122
-70
-84
62
-95
-70
-43
-53
-33
0
-77
33
0
-116
-104
33
-95
-117
-22
-43
-43
-84
-11
-33
-33
-77
-90
-43
11
-113
-77
-43
-62
-11
-33
-62
-11
-100
62
-70
43
104
-104
-53
70
-43
-22
-84
-77
-53
-62
-62
-11
-70
33
-62
-53
-11
33
-22
-33
-116
-108
22
-113
-11
-62
-104
-119
-113
-11
53
-43
43
22
-70
53
-90
-62
-11
-70
33
22
-77
-70
-77
0
70
-33
-111
-70
-90
-43
-84
-90
-119
53
-11
43
-11
119
-84
43
-53
-22
-33
11
70
-70
-33
70
-119
-108
-70
-43
-84
-43
62
90
-100
0
-117
-22
-53
-90
43
-33
-116
22
-22
-90
0
-108
11
-108
-43
-11
-104
22
-70
-62
11
33
-22
-43
-33
62
-77
-90
-62
22
-11
-77
-43
-22
-22
-77
-95
-53
-77
-119
-43
11
-53
-53
-33
-53
90
-111
33
-22
33
43
-62
22
62
-104
0
11
-95
-11
-53
-33
11
-62
11
33
11
0
11
-33
-116
-22
-100
-77
-53
-53
-90
84
-22
-11
-119
-90
-33
62
-33
-33
-53
11
-77
-62
-95
108
-70
-62
-43
-104
43
11
-43
-43
-33
-122
33
-62
33
22
-77
-70
33
-70
11
-22
-70
-33
-70
-120
-53
-22
22
-33
-123
-104
-100
11
-62
-43
53
-53
43
-95
-77
53
-33
-116
-77
-77
-70
-120
43
70
108
53
-53
43
-53
-117
77
-77
-111
22
43
100
-113
0
-43
-22
-33
-95
-119
84
-22
-77
-111
-84
-84
11
-22
-11
-43
-77
43
11
-11
70
-22
62
70
33
-53
53
-33
-95
-33
-53
-90
-70
62
43
-70
-116
53
-70
0
53
-22
-84
33
-95
-95
-22
70
-22
-22
53
-116
-43
108
-62
-70
33
-11
-53
62
-22
-77
-62
-95
43
-22
-62
-108
22
53
-111
-70
33
-122
22
-116
-116
-43
-100
-53
-11
0
-77
-108
-84
-22
-77
-43
-53
-77
22
-22
22
-84
-104
-70
22
-22
-62
43
-90
-22
-77
-53
-53
53
-117
22
0
70
70
-77
-11
-62
-70
-22
-117
0
43
-77
-11
-33
-104
-120
-53
11
-84
-53
33
-11
-104
-70
33
-70
-111
-33
33
11
-33
33
-77
33
-84
-90
-33
-125
70
22
-11
-33
-62
-43
124
-104
62
43
-70
22
-33
-104
-33
-11
-43
-104
22
-62
-95
-62
-22
-62
22
0
-11
22
-113
-95
-90
-84
43
43
11
-70
-11
-77
-116
-62
11
-22
-84
120
-95
-62
62
0
-53
-90
-104
-53
-123
33
-11
-84
-90
-53
-62
-84
-22
-77
0
-111
-77
-104
-43
-22
0
0
-104
11
11
43
100
-62
22
-33
-22
-70
11
-53
22
-113
43
-62
33
-108
-120
-70
43
-53
-77
-22
-43
-104
-77
-84
43
11
-77
-100
-11
-84
11
-70
-77
-33
-70
43
-62
62
-77
-84
53
53
-77
62
-104
-33
70
-90
-70
95
-43
-113
33
-77
77
22
-108
-62
-108
-22
22
43
43
-90
70
-119
-95
0
-33
-43
43
-70
33
-11
22
-33
-122
-43
-11
0
-111
-95
0
43
-100
53
-104
-11
-84
33
-100
53
22
33
-11
-62
-77
43
43
-77
-43
-113
53
33
-43
-111
62
-22
-53
22
-33
-70
-123
11
-95
-111
-104
22
22
-70
11
-84
-111
-33
-126
62
90
-11
33
22
-70
-125
-53
-62
-84
-43
33
-33
-124
-108
-62
0
43
-113
70
-62
-70
-113
11
33
-53
77
-43
-33
-100
-53
-70
0
53
-62
-90
-53
-33
-43
-122
-62
-22
33
-111
-43
-111
-33
-43
-84
-43
-43
33
-33
120
-70
-84
62
-90
-70
-43
-53
-22
11
-77
33
0
-116
-104
33
-90
-117
-22
-53
-33
-77
-11
-33
-33
-84
-90
-43
11
-113
-70
-43
-62
-11
-33
-62
-11
-100
62
-62
43
104
-104
-53
70
-43
-22
-84
-77
-53
-70
-62
-11
-62
43
-62
-53
-11
33
-33
-33
-116
-108
22
-113
-11
-62
-104
-119
-113
-11
43
-43
33
22
-70
53
-90
-62
-11
-70
33
22
-77
-62
-77
0
70
-33
-111
-62
-90
-33
-84
-90
-119
62
-11
43
-11
120
-90
43
-53
-22
-33
11
70
-70
-33
62
-119
-108
-62
-43
-90
-43
62
84
-100
0
-119
-22
-53
-90
43
-33
-116
22
-22
-90
0
-111
11
-113
-43
-11
-100
22
-70
-62
11
33
-22
-43
-33
62
-77
-84
-62
22
-11
-77
-43
-22
-22
-77
-95
-43
-84
-119
-43
11
-53
-53
-33
-53
90
-111
33
-22
33
43
-70
22
62
-104
0
11
-95
-11
-43
-33
22
-70
11
43
0
0
0
-33
-116
-11
-100
-77
-53
-53
-95
84
-22
0
-120
-90
-33
53
-33
-33
-53
11
-77
-62
-95
104
-77
-53
-43
-108
43
11
-43
-43
-33
-120
33
-62
33
22
-77
-70
33
-70
22
-22
-70
-33
-62
-120
-53
-22
11
-43
-123
-104
-100
11
-62
-43
53
-53
43
-95
-77
22
-33
-116
-77
-77
-70
-120
33
70
108
53
-53
43
-62
-117
77
-84
-111
22
43
95
-113
0
-43
-33
-22
-95
-117
84
-22
-77
-111
-84
-84
11
-22
-11
-43
-77
43
11
-11
70
-22
62
77
33
-53
53
-33
-95
-33
-53
-90
-70
62
43
-70
-116
53
-62
0
53
-22
-84
33
-100
-95
-22
70
-22
-22
53
-116
-43
108
-62
-53
33
-11
-53
62
-22
-77
-62
-95
43
-22
-62
-108
22
43
-108
-62
33
-122
22
-113
-116
-43
-104
-53
-11
0
-77
-108
-84
-22
-77
-43
-53
-77
22
-22
22
-84
-104
-70
22
-22
-62
43
-90
-22
-77
-62
-53
43
-117
22
0
70
70
-77
-11
-62
-62
-22
-117
0
43
-77
-11
-33
-104
-120
-53
11
-84
-53
33
-11
-104
-70
33
-70
-111
-33
43
11
-33
33
-70
33
-84
-90
-22
-125
70
22
-11
-33
-62
-43
124
-104
62
43
-70
22
-33
-104
-53
-11
-53
-104
22
-62
-95
-53
-22
-62
22
0
-11
22
-113
-95
-90
-84
43
43
11
-70
-11
-77
-116
-62
11
-22
-84
120
-95
-62
62
0
-53
-90
-104
-62
-122
33
-11
-84
-90
-53
-62
-84
-22
-77
0
-111
-77
-104
-53
-22
0
0
-104
11
11
43
100
-62
33
-33
-22
-70
11
-53
33
-113
33
-62
33
-108
-120
-70
43
-43
-77
-22
-22
-104
-77
-77
43
11
-77
-100
-11
-77
11
-70
-77
-33
-62
43
-62
62
-77
-84
53
43
-77
70
-104
-33
70
-90
-70
95
-43
-113
43
-77
77
22
-108
-70
-108
-22
22
43
33
-90
77
-119
-100
0
-33
-43
43
-62
22
-11
22
-33
-122
-43
-11
-11
-111
-95
0
43
-100
53
-100
-11
-84
33
-100
53
33
33
-11
-62
-70
43
33
-77
-43
-113
53
33
-43
-111
62
-22
-53
22
-33
-70
-123
11
-95
-108
-104
22
22
-62
11
-84
-113
-33
-126
62
90
-11
33
22
-77
-125
-53
-62
-77
-53
33
-33
-124
-108
-62
0
43
-113
70
-70
-70
-113
11
33
-53
70
-43
-33
-100
-53
-70
0
53
-53
-90
-53
-33
-53
-122
-62
-22
33
-111
-43
-111
-43
-53
-84
-43
-43
43
-33
120
-70
-84
62
-95
-70
-43
-53
-33
11
-77
33
0
-116
-104
33
-90
-117
-22
-53
-22
-77
-11
-33
-33
-84
-90
-43
11
-113
-77
-43
-62
-11
-33
-70
-11
-100
62
-62
43
104
-104
-53
70
-43
-22
-84
-77
-53
-62
-62
-11
-62
43
-62
-53
-11
33
-22
-22
-116
-108
22
-113
-11
-62
-104
-119
-113
-22
43
-43
33
22
-70
53
-90
-62
-11
-70
33
22
-77
-62
-77
0
70
-33
-111
-62
-90
-33
-84
-90
-119
62
-11
43
-11
122
-90
43
-43
-22
-43
11
70
-70
-33
62
-119
-108
-62
-43
-90
-43
62
90
-100
0
-117
-22
-53
-90
43
-33
-116
22
-22
-90
0
-111
0
-111
-33
-11
-90
22
-70
-62
11
33
-11
-43
-33
62
-77
-84
-62
22
-11
-77
-53
-22
-22
-77
-95
-43
-84
-119
-43
11
-62
-43
-43
-53
90
-111
33
-22
33
43
-70
22
62
-104
0
11
-95
-11
-53
-33
22
-70
11
33
11
0
0
-62
-113
-11
-104
-77
-53
-53
-95
84
-22
0
-120
-90
-33
43
-43
-22
-53
11
-77
-62
-95
104
-77
-62
-43
-108
43
11
-43
-43
-33
-120
33
-62
22
11
-77
-70
33
-70
22
-22
-70
-33
-62
-120
-43
-22
11
-43
-123
-104
-100
11
-62
-43
53
-53
43
-95
-77
33
-33
-116
-77
-77
-70
-120
33
70
108
53
-53
43
-53
-117
77
-84
-111
22
43
95
-111
0
-43
-33
-22
-95
-119
84
-22
-77
-111
-84
-84
0
-11
0
-43
-77
43
11
-11
70
-22
62
70
33
-62
53
-33
-95
-33
-53
-90
-70
53
43
-70
-116
53
-62
0
53
-22
-84
33
-95
-95
-22
70
-22
-22
53
-116
-43
108
-62
-70
33
-11
-53
62
-22
-77
-62
-95
43
-22
-62
-108
22
53
-108
-62
33
-122
22
-113
-116
-43
-100
-53
-11
0
-77
-108
-84
-22
-77
-43
-53
-77
22
-22
22
-84
-104
-70
22
-11
-62
43
-90
-22
-77
-53
-53
43
-117
11
0
70
70
-77
-11
-62
-70
-11
-117
0
43
-77
-11
-33
-104
-120
-53
11
-84
-53
22
-11
-104
-77
33
-70
-111
-33
43
11
-33
33
-77
33
-84
-90
-22
-125
70
33
-11
-33
-62
-53
123
-104
62
43
-70
22
-33
-104
-43
-11
-53
-104
22
-62
-95
-53
-22
-62
22
0
-11
22
-113
-95
-84
-84
43
43
11
-70
-11
-77
-116
-53
11
-22
-84
119
-95
-62
70
0
-43
-90
-108
-53
-123
33
-11
-84
-90
-43
-70
-77
-22
-77
22
-111
-77
-108
-62
-22
0
0
-104
11
11
43
100
-62
33
-43
-22
-70
11
-53
33
-113
33
-62
33
-108
-120
-70
43
-33
-70
-22
-33
-104
-77
-84
43
11
-84
-100
-11
-77
11
-62
-70
-43
-62
43
-62
62
-77
-84
53
53
-77
70
-108
-33
70
-90
-70
95
-43
-113
43
-77
77
22
-108
-53
-108
-22
22
43
43
-90
77
-117
-104
-11
-33
-43
43
-62
22
-11
33
-33
-122
-43
-11
-22
-113
-95
0
43
-100
53
-100
-11
-90
33
-100
53
33
33
-11
-70
-70
43
22
-77
-43
-113
53
33
-43
-111
62
-33
-53
22
-33
-70
-123
11
-95
-108
-104
22
22
-70
11
-84
-111
-43
-126
62
90
-11
33
22
-77
-125
-53
-62
-77
-53
33
-33
-124
-108
-62
0
43
-113
70
-70
-70
-113
11
33
-53
77
-43
-33
-100
-53
-70
0
53
-53
-90
-53
-33
-53
-122
-62
-22
22
-113
-43
-111
-43
-43
-90
-43
-43
33
-33
117
-70
-84
62
-95
-70
-53
-53
-33
0
-84
33
11
-116
-104
22
-90
-117
-33
-53
-33
-84
-11
-33
-33
-84
-90
-43
11
-113
-70
-43
-62
0
-33
-70
-11
-100
62
-62
33
104
-104
-53
70
-43
-22
-84
-77
-53
-70
-62
-11
-62
43
-62
-53
-11
22
-33
-33
-116
-108
22
-113
-11
-62
-104
-117
-113
-11
43
-43
33
22
-62
53
-90
-62
-11
-70
33
22
-77
-62
-77
0
70
-33
-111
-62
-90
-33
-84
-90
-119
53
-11
43
-11
120
-90
43
-53
-22
-43
11
70
-70
-33
70
-117
-108
-62
-43
-90
-43
62
90
-100
0
-117
-22
-53
-90
43
-33
-116
22
-22
-90
0
-113
11
-111
-33
-11
-90
22
-70
-62
11
33
0
-43
-33
62
-77
-90
-62
33
-11
-77
-43
-22
-22
-77
-100
-43
-84
-119
-43
11
-53
-53
-43
-53
90
-111
33
-22
33
43
-62
22
62
-104
0
11
-95
-11
-53
-33
22
-70
11
33
11
0
0
-33
-113
-22
-104
-77
-53
-53
-95
84
-22
-11
-120
-95
-33
43
-43
-22
-53
11
-77
-62
-95
108
-77
-62
-43
-104
43
11
-43
-43
-33
-120
33
-62
22
11
-84
-70
33
-70
22
-22
-70
-33
-84
-120
-43
-22
11
-43
-123
-108
-100
11
-62
-43
53
-53
43
-95
-77
33
-33
-116
-77
-77
-70
-120
33
70
111
53
-53
43
-53
-117
77
-84
-111
22
43
95
-111
0
-43
-43
-22
-95
-119
84
-22
-77
-111
-90
-84
0
-11
-11
-43
-84
43
11
-11
70
-22
62
70
33
-62
53
-33
-95
-43
-53
-90
-70
62
43
-70
-113
53
-62
0
53
-22
-84
33
-95
-95
-22
70
-33
-22
53
-116
-43
108
-53
-70
33
-11
-53
62
-22
-77
-62
-100
43
-22
-62
-104
22
53
-111
-70
33
-122
22
-113
-116
-43
-100
-53
-11
0
-77
-108
-84
-11
-77
-43
-53
-77
22
-22
22
-84
-104
-70
22
-22
-62
43
-90
-22
-77
-62
-53
43
-117
11
0
70
70
-77
-11
-62
-70
-22
-117
0
43
-77
-11
-33
-104
-120
-53
22
-84
-53
33
-11
-108
-77
33
-70
-111
-22
43
11
-33
22
-70
33
-84
-90
-22
-125
70
33
-11
-33
-62
-70
122
-104
62
43
-70
22
-33
-104
-53
-11
-53
-104
22
-62
-95
-53
-22
-62
22
0
0
22
-113
-95
-90
-77
43
43
0
-77
-11
-77
-116
-77
11
-22
-84
119
-95
-62
70
0
-53
-90
-104
-53
-122
33
-11
-84
-90
-43
-70
-77
-22
-77
22
-111
-77
-108
-77
-22
0
0
-104
0
11
43
104
-62
33
-43
-22
-70
11
-53
33
-111
33
-62
33
-104
-120
-70
43
-43
-77
-22
-43
-108
-84
-90
43
0
-84
-100
-11
-77
11
-53
-70
-43
-70
43
-62
62
-77
-84
53
53
-77
62
-108
-33
70
-90
-84
95
-43
-113
43
-77
77
33
-108
-43
-108
-22
33
43
43
-84
77
-116
-104
-11
-33
-43
43
-70
22
-11
22
-33
-122
-43
-11
-33
-113
-95
0
43
-100
53
-100
-11
-95
43
-100
53
33
33
-11
-70
-70
43
43
-77
-43
-113
53
33
-43
-111
62
0
-53
22
-33
-70
-123
11
-90
-108
-108
22
22
-62
11
-84
-111
-43
-126
62
84
0
33
22
-77
-125
-53
-62
-90
-53
33
-33
-124
-108
-62
0
43
-113
70
-70
-70
-113
11
33
-53
53
-43
-33
-100
-53
-70
0
53
-53
-90
-53
-33
-53
-119
-53
-11
22
-111
-43
-111
-43
-43
-84
-43
-43
43
-33
116
-70
-84
62
-95
-70
-43
-53
-33
0
-84
33
11
-116
-104
22
-90
-117
-33
-53
-43
-70
-11
-33
-33
-84
-90
-43
11
-113
-62
-43
-62
-11
-33
-77
-11
-100
62
-62
33
104
-108
-53
70
-43
-22
-84
-77
-53
-70
-62
-11
-62
43
-62
-53
-11
33
-22
-33
-113
-108
22
-113
-11
-62
-100
-116
-113
-11
43
-43
33
22
-43
53
-90
-62
-11
-70
43
22
-90
-62
-77
0
62
-22
-111
-62
-90
-33
-84
-90
-119
53
-11
43
-11
122
-90
43
-53
-22
-43
11
62
-77
-33
70
-117
-108
-62
-43
-90
-43
62
84
-100
0
-117
-22
-53
-90
53
-33
-117
22
-22
-90
0
-113
11
-108
-33
-11
-70
22
-70
-62
11
33
-22
-33
-33
62
-77
-90
-70
53
-11
-77
-43
-22
-22
-77
-100
-53
-90
-117
-43
11
-53
-53
-33
-53
90
-111
33
-22
33
43
-70
22
53
-104
0
11
-95
-11
-43
-33
22
-70
11
33
0
0
11
-33
-113
-22
-100
-77
-43
-53
-90
84
-11
-11
-120
-90
-33
43
-43
-22
-53
11
-77
-62
-95
104
-77
-70
-53
-104
43
11
-43
-43
-33
-120
33
-62
22
22
-90
-70
33
-70
11
-22
-70
-33
-90
-120
-33
-22
11
-43
-123
-104
-104
11
-62
-43
53
-53
43
-95
-77
33
-33
-116
-70
-77
-70
-120
22
70
108
53
-53
43
-53
-116
77
-84
-111
22
43
95
-111
-11
-43
-33
-22
-95
-119
84
-33
-77
-111
-90
-90
11
-11
0
-53
-77
33
0
-11
70
-11
62
62
33
-62
53
-33
-95
-11
-53
-84
-70
43
43
-70
-113
53
-62
11
53
-11
-90
22
-95
-90
-22
70
-33
-22
53
-116
-33
108
-62
-62
33
11
-62
62
-22
-84
-62
-100
43
-33
-77
-100
22
53
-108
-77
33
-122
22
-116
-116
-43
-104
-53
-11
0
-77
-108
-77
-11
-77
-33
-53
-77
22
-22
22
-90
-108
-70
22
-43
-70
43
-90
-33
-70
-53
-43
43
-117
22
0
70
62
-77
-11
-62
-95
-11
-117
0
43
-70
-11
-33
-104
-120
-53
11
-84
-62
43
-11
-108
-77
22
-70
-111
-22
33
11
-33
22
-70
33
-84
-90
-43
-125
70
33
-11
-22
-62
-33
125
-100
62
43
-70
22
-11
-104
-43
-22
-43
-104
22
-62
-95
-70
-22
-62
22
-11
-22
11
-113
-95
-90
-70
43
43
0
-77
-11
-77
-116
-77
11
-33
-84
117
-95
-62
62
0
-53
-90
-104
-43
-123
33
-11
-84
-90
-43
-70
-77
-11
-77
22
-108
-70
-111
-84
-22
0
0
-100
22
0
43
108
-62
33
-43
-22
-70
11
-53
33
-113
33
-62
33
-104
-117
-77
43
-33
-77
-33
-62
-104
-84
-84
33
22
-77
-100
-11
-77
11
-62
-70
-43
-70
43
-62
53
-77
-84
43
53
-77
70
-104
-22
70
-90
-70
95
-43
-113
43
-77
77
22
-108
-43
-108
-22
33
43
53
-95
62
-116
-104
-11
-33
-43
43
-70
11
-11
22
-33
-122
-33
-22
-22
-113
-95
-11
43
-104
53
-95
-11
-95
22
-100
53
33
33
-11
-70
-62
53
53
-77
-53
-113
53
33
-43
-111
70
-22
-53
22
-33
-70
-123
11
-84
-108
-108
22
22
-53
11
-84
-113
-33
-126
62
84
0
33
22
-70
-125
-53
-70
-95
-43
33
-33
-124
-108
-62
0
43
-111
70
-62
-70
-111
11
22
-53
62
-43
-33
-104
-53
-70
0
53
-53
-84
-53
-22
-43
-123
-43
-33
22
-111
-43
-111
-43
-53
-84
-43
-53
33
-33
122
-70
-90
62
-95
-70
-43
-53
-33
-11
-84
33
0
-120
-100
33
-95
-116
-33
-53
-53
-84
-11
-43
-33
-77
-90
-33
11
-113
-53
-43
-62
11
-33
-77
-11
-95
62
-77
33
100
-108
-53
84
-43
-33
-84
-77
-53
-77
-62
-11
-62
43
-62
-43
-11
33
-22
-33
-116
-108
22
-116
-11
-62
-95
-120
-113
11
43
-43
43
22
-43
43
-90
-53
-11
-70
43
22
-95
-62
-84
0
62
-22
-111
-70
-90
-33
-84
-90
-119
62
-22
43
-11
122
-84
43
-53
-22
-33
11
62
-70
-33
62
-117
-108
-53
-43
-84
-43
62
84
-100
11
-119
-22
-53
-90
33
-22
-117
22
-22
-90
0
-113
22
-108
-43
0
-77
11
-70
-62
22
33
-22
-43
-33
70
-77
-90
-62
22
-11
-77
-43
-22
-11
-77
-95
-53
-104
-117
-43
11
-53
-53
-43
-53
90
-104
43
-22
33
43
-62
33
53
-104
11
11
-95
-11
-53
-43
22
-62
11
22
11
0
22
-62
-113
-22
-100
-77
-53
-53
-84
84
-22
-11
-119
-77
-33
22
-33
-22
-53
11
-95
-70
-100
108
-77
-84
-53
-104
43
11
-43
-43
-33
-120
33
-62
33
22
-95
-77
22
-70
43
-22
-77
-22
-95
-120
-33
-22
0
-43
-123
-111
-104
11
-62
-43
53
-53
43
-104
-77
22
-33
-116
-70
-77
-70
-120
33
70
108
53
-53
33
-53
-119
77
-84
-108
22
33
95
-111
-11
-43
-33
-22
-90
-119
84
-33
-77
-111
-90
-84
0
-62
0
-43
-70
33
0
-22
70
-11
62
62
33
-43
53
-33
-95
43
-62
-90
-70
53
43
-43
-117
53
-70
-11
22
-22
-90
43
-84
-84
-11
70
-22
-22
70
-116
-22
123
-70
-11
33
53
-53
53
-22
-84
-53
-113
43
-33
-100
-95
22
43
-113
-84
33
-122
11
-116
-116
-43
-104
-53
11
0
-77
-108
-62
-22
-77
-43
62
-90
22
-11
22
-90
-108
-70
22
-43
-77
53
-77
-53
-90
-33
-33
62
-117
43
11
77
62
84
-33
-62
-111
-11
-116
0
33
-70
0
-62
-104
-119
-62
-22
-77
-70
70
11
-108
-84
0
-77
-111
-22
22
0
-33
11
-77
43
-100
-90
-33
-125
70
33
-11
-33
-62
-43
127
-95
53
53
-77
22
22
-111
-70
-33
-43
-104
22
-53
-95
-62
-22
-62
22
-11
-62
-11
-116
-95
-84
-77
53
43
11
-84
-11
-70
-117
-62
11
-22
-53
125
-95
-62
53
-11
-43
-84
-104
-22
-122
22
-11
-77
-84
-43
-33
-84
0
-70
33
-100
-53
-104
-104
-33
0
0
-95
70
33
43
117
-84
11
-43
-53
-77
11
-53
0
-113
33
-53
33
-108
-119
-84
43
-43
-70
-62
-33
-95
-77
-70
22
100
-70
-84
-11
-77
11
-84
-70
-33
-70
43
-84
0
-77
-95
43
53
-62
62
-90
-33
70
-84
-53
124
-22
-111
33
-77
77
22
-108
-22
-108
-22
33
43
70
-84
43
-111
-90
22
-22
-53
43
-62
0
-22
22
70
-120
-33
0
43
-111
-90
-11
33
-104
53
-95
-11
-70
0
-100
53
11
43
0
-62
-53
53
43
-77
-53
-108
53
33
-33
-111
77
-33
-43
33
-33
-62
-123
11
-77
-108
-111
22
33
-11
11
-77
-113
11
-126
62
84
22
43
11
-90
-125
-53
-77
-117
11
43
-33
-125
-108
-62
22
43
-108
70
-11
-53
-111
11
33
-43
33
-43
-33
-100
-53
-90
0
53
-62
-90
-53
100
-53
-124
-62
-62
0
-111
-33
-111
-43
-77
-84
-22
33
53
-22
127
-70
-90
62
-70
-77
-43
11
-22
11
-84
43
-11
-122
-95
53
-95
-117
-11
-53
-53
-113
-11
-43
-53
-70
-90
-11
11
-113
11
0
-62
22
-11
-95
0
-33
70
-53
43
108
-104
-53
53
-33
-11
-84
-77
-11
-95
-62
0
-62
53
-70
-53
-22
43
-33
-11
-116
-111
22
-116
-11
-90
-84
-126
-113
11
53
-43
33
11
-43
62
-90
-53
-22
-33
43
22
-100
-70
-90
11
70
-70
-113
-62
-90
-22
-70
-77
-120
117
-22
53
-11
104
-84
33
-95
-22
-43
0
84
-11
-33
70
-116
-108
-77
-43
-90
-43
62
95
-95
22
-119
-22
-53
-90
0
0
-116
22
-11
-90
0
-100
22
-111
-84
33
-53
-53
-77
-62
11
33
-22
-53
-22
77
-70
-100
-62
-11
-11
-77
-43
-22
-11
-84
-90
-53
-124
-117
-62
11
-43
-62
-70
-53
90
-84
43
0
43
43
-62
22
53
-108
11
11
-95
-11
-43
-43
11
-62
0
11
11
-11
43
-53
-117
-11
-84
-77
-70
-43
-77
84
-22
-22
-111
-77
-33
33
0
11
-53
11
-100
-53
-90
113
-62
-77
-43
-104
53
43
-33
-43
-43
-122
22
-84
33
33
-124
-62
33
-70
43
-43
-90
-22
-117
-120
-33
0
-43
-22
-122
-123
-116
22
-62
-43
53
-53
43
-116
-77
33
-33
-116
-70
-77
-43
-119
84
70
113
43
-43
43
-53
-124
77
-95
-108
22
0
100
-108
0
-43
-22
-33
-70
-122
84
-22
-70
-111
-84
-53
11
-33
0
-70
-53
33
43
-43
70
43
53
77
22
-33
43
-43
-95
33
-43
-90
-84
-43
33
-11
-122
43
-53
-22
33
0
-62
33
-90
-62
11
62
22
-33
22
-95
-77
127
-11
-90
53
-84
-53
53
-22
-70
-33
-120
43
0
-95
-95
22
53
-104
-84
33
-120
0
-113
-113
-43
-90
-22
-43
0
0
-104
-11
-22
-70
-53
125
-62
33
-11
22
-62
-104
-62
22
-11
-77
77
-70
-70
-95
-33
-53
90
-117
70
0
77
22
127
-11
-62
-117
-43
-90
11
43
-77
22
22
-104
-90
-77
43
-84
-53
43
62
-90
-53
11
-70
-108
-22
-22
11
-11
43
-119
53
-104
-70
-11
-124
70
33
0
-43
-43
-125
127
-100
95
53
-77
43
11
-116
0
0
-53
-95
0
-43
-90
-90
-22
-43
22
0
62
11
-108
-77
-33
-100
0
43
22
-95
0
-95
-111
-113
11
-11
22
126
-84
-22
11
0
0
-84
-95
70
-108
-11
-33
-53
-77
-43
22
-22
22
-123
108
-90
-22
-119
-104
-11
0
11
-77
77
70
53
104
-77
-22
-22
-43
-11
-11
-33
43
-116
22
-11
33
-108
-128
-104
22
-124
-84
-53
77
-95
-84
-43
33
22
-77
-70
0
-84
0
-33
-108
-22
-62
43
-100
11
-70
-43
43
43
-62
95
-33
-33
84
-53
-108
127
0
-100
22
-62
62
11
-95
-53
-100
11
33
33
95
-90
22
-90
-84
53
0
-33
33
11
0
-11
33
127
-122
-33
11
70
-100
-70
-22
22
-90
43
-84
22
-53
22
-95
43
0
43
11
-43
-70
70
33
-62
-43
-77
43
22
22
-111
77
-22
-11
22
-33
-77
-122
0
-70
-108
-108
33
43
53
22
-53
-116
-22
-124
62
77
22
62
11
-62
-125
0
-62
-104
0
33
-22
-119
-100
-22
22
43
90
70
-77
0
-104
22
11
-33
-22
-43
-22
-104
-53
-100
-22
43
-33
-84
-53
126
-53
-108
-43
-43
62
-111
0
-108
0
-100
-77
-43
117
33
-33
127
-62
-90
43
0
-43
-53
43
22
33
-84
33
43
-122
-62
33
-62
-116
22
-11
-43
43
11
22
-43
-62
-70
-33
0
-108
-33
62
-43
-22
22
-84
33
116
43
-95
62
123
-108
-33
33
-43
22
-11
-62
53
-113
-77
0
-90
43
-22
-22
11
62
-33
-11
-120
-84
11
-100
0
-104
-77
-122
-111
-117
33
-43
53
-33
53
77
-90
-62
0
-11
33
22
-90
-53
-100
11
62
-62
-113
0
-84
-33
-104
-53
-117
124
11
33
22
43
-62
22
-53
-22
-43
43
95
43
-33
62
-113
-104
-62
0
-95
-43
53
104
-62
53
-117
-22
-33
-77
43
-70
-100
0
11
-70
22
-70
0
-77
-100
84
0
53
-62
-62
43
33
0
-77
0
77
-53
-108
-33
22
11
-77
-43
70
11
-43
-62
-53
127
-116
-53
43
-53
-43
-11
-22
84
-90
-22
0
53
53
-70
-77
11
-100
22
22
-90
11
-33
-11
43
-22
11
33
33
-11
43
33
-119
-43
-53
-77
-70
33
-77
119
-53
0
-84
-84
0
0
95
53
-11
11
-119
-33
-95
113
-33
-70
43
-104
62
62
-11
-22
-33
-123
62
-43
22
33
-126
-70
-33
-43
-22
-33
-43
0
-108
-117
-22
22
-33
11
-108
-119
-122
53
-70
-22
43
-22
33
-77
-62
90
-22
-113
-33
-43
-22
-108
111
22
117
33
-33
-53
-11
-117
70
-77
-95
43
22
119
-108
0
-53
-33
-22
-127
-123
77
11
-22
-108
-95
-70
22
-77
-11
-43
-90
-22
-11
-11
70
-11
11
70
43
0
33
11
-100
-100
-43
-77
11
-62
43
-62
-120
11
-53
11
0
-43
-95
53
-90
-84
11
70
33
-22
-11
-100
-77
62
-70
-70
11
-113
-53
53
-77
-90
-33
-84
0
-11
-100
-95
43
33
-113
22
53
-123
33
-116
-116
-70
-70
-53
-43
22
-62
-104
-113
-33
-11
-33
84
-84
22
-22
0
-95
-90
-77
0
-62
11
53
-70
22
-95
-77
-62
95
-117
43
11
62
43
0
-62
-84
53
-104
-117
0
22
-53
11
-11
-104
-117
-70
-43
-100
11
43
-22
-108
-62
-22
-70
-111
22
22
-11
0
11
-95
33
-104
-70
22
-125
53
33
11
-22
-33
122
127
-77
-33
43
-53
33
11
-113
0
11
-43
-104
22
-62
-95
-11
-43
-77
43
0
-122
22
-100
-70
33
43
-11
22
11
11
0
-77
-100
-77
11
-22
-62
122
-84
-77
22
0
-62
-70
-90
-127
-70
0
0
-84
-84
-90
0
-123
0
-43
-119
-90
-33
-90
-100
-22
11
33
-77
53
0
22
43
-62
-33
62
-43
-70
-53
-43
-11
-113
-22
-62
11
22
-84
-90
53
108
-70
-33
-124
-100
-70
11
-104
111
-77
-62
-11
11
-33
-62
-111
-43
-111
43
-33
0
-77
-104
33
11
-104
-22
-77
-43
43
-62
-77
119
-11
-104
-11
-77
-33
62
-108
-62
-100
-22
22
53
43
-53
22
-77
-90
33
-22
-43
43
0
0
-43
22
62
-124
-43
11
22
-104
-43
43
53
-84
53
-100
-22
-100
33
-90
-22
11
-11
11
-53
-90
33
-22
-70
-43
-53
62
22
22
-116
70
-77
-11
33
-70
-62
-123
11
-95
-116
-95
33
22
-90
11
-77
-117
43
-95
53
90
-33
43
0
-62
-126
-43
-84
-122
-116
22
0
-33
-108
-22
22
43
53
70
-62
-62
-111
11
0
-43
0
-53
-22
-70
-62
22
0
53
-70
-90
-43
119
-84
22
-62
0
43
-113
-22
-113
-116
70
-53
-33
95
33
-22
127
-11
77
62
-22
-126
-33
22
-11
-11
-77
43
-22
-111
70
43
33
-117
0
0
-77
-128
11
-22
-70
-62
-90
-43
43
-116
-100
-43
-70
-33
0
-84
11
-53
70
-104
33
117
-84
-33
43
70
0
-11
-70
0
-62
-43
11
43
33
-43
-70
-11
62
-11
-62
-33
-116
53
-77
-22
11
-70
-127
-113
-104
53
-53
43
-62
-11
70
-104
-11
-43
-22
33
-53
22
-33
-111
0
70
-70
-116
-62
-84
-70
-108
-70
-120
100
-11
33
-33
84
-53
-11
-11
0
-22
53
-11
-53
-43
53
-117
-95
-84
-43
-90
-43
0
90
-113
53
-120
-22
-33
-77
-43
104
-11
22
-11
-84
-11
-104
11
-108
108
70
-70
0
-53
-62
0
-11
-70
-62
0
70
-77
-108
-43
22
11
-90
-53
-84
22
-77
33
-33
127
-100
-77
11
-62
-70
-43
-43
95
-119
-90
11
-22
62
-77
-77
53
-104
33
0
-84
-11
-70
0
0
-111
0
-11
22
-11
-70
-43
-120
-70
-84
-77
-77
-43
-100
62
-33
0
-117
-77
-43
33
-22
43
-53
43
43
-22
-104
113
-43
-43
-77
-70
0
33
-43
22
-33
-120
43
-100
53
-70
53
-11
62
-53
-53
-84
-100
-11
-33
-120
-22
62
0
-11
-122
-117
11
33
-53
-43
-11
-77
11
-123
-100
-11
-33
-119
-53
-84
-43
-116
77
11
77
33
-33
43
-62
84
77
-70
-90
-11
0
95
-90
-33
-104
-43
-53
-53
-113
90
-62
-53
-108
-104
-100
11
-104
-11
-62
-108
-22
0
22
70
-33
11
62
43
-11
33
53
-100
-104
-53
-84
11
11
62
-84
-116
0
-70
22
22
-77
-117
43
-70
-108
-22
84
33
-22
-22
-119
22
43
-100
-62
33
-11
-53
43
-84
-104
-53
-53
-43
-43
33
-104
33
11
-120
-22
43
-124
53
-117
-119
-70
-84
-84
0
33
-90
-104
-84
-22
-11
-33
-108
-108
11
-33
0
-113
-62
-95
0
-11
43
53
-77
-33
-100
-70
-100
77
-119
43
0
62
43
-104
-77
-33
43
-70
-125
-11
0
-33
22
-22
-104
-126
-33
-70
-53
-11
22
-33
-122
-43
-22
-84
-111
22
70
-33
-33
62
-22
0
-108
-90
-70
-127
53
33
0
-11
-43
-22
77
-84
-90
22
-43
-11
53
-104
-70
-33
-77
-104
33
-62
-90
-33
-77
43
43
-33
33
22
-104
-95
-11
-43
0
11
-22
-70
-11
-90
-100
-70
11
-22
-90
117
-100
-111
53
11
-43
-95
-90
-116
-117
-22
22
-90
-100
-90
-33
-77
-22
-90
-108
-90
-43
11
-90
-43
0
33
-95
53
11
11
33
-84
-33
43
-77
-90
-33
-62
-53
-108
-53
-77
11
-22
-11
-22
77
-43
-62
11
-84
-62
-53
0
62
22
-84
-33
-22
33
-33
-104
-100
-62
-70
33
-53
-11
-84
-104
33
0
-116
-53
-120
11
11
-77
-100
95
-11
-104
11
-84
-43
22
-117
-84
-104
-62
22
53
33
-70
43
-70
-95
33
-43
-33
62
-53
11
-62
22
-84
-124
-22
11
11
-111
-70
0
62
-100
62
-111
-33
-100
53
-90
-22
11
-53
0
-62
-70
-22
33
-62
-43
-33
70
33
-11
-113
62
-70
-33
33
-90
-53
-123
22
-100
-113
-84
22
0
-100
-11
-95
-117
-43
-104
62
95
-33
0
0
-22
-126
-95
-100
0
-116
43
22
-77
-113
-53
43
53
-90
70
-111
-84
-116
0
22
-43
11
-53
-22
-90
-33
-33
33
62
-104
-90
-22
-11
-62
11
-70
-53
11
-111
-22
-116
-22
-22
-62
-33
-77
-70
-33
70
-70
62
70
-53
-95
-22
22
-11
0
-77
43
-53
-84
-90
0
-62
-117
-11
-11
-22
-104
-11
-84
-100
-62
-111
-11
11
-116
-120
-70
-95
-53
-11
-77
-11
-113
90
-43
22
100
-84
-43
33
-77
11
-53
-90
-62
-62
-62
22
-22
-33
-70
-95
-43
-11
-22
-62
-104
-125
53
-100
-33
-43
-70
-128
-116
-11
62
-62
43
-53
-84
62
-111
-84
-33
-33
22
-62
11
-43
-95
11
77
-84
-113
-95
-84
-33
-116
-77
-122
84
-70
11
-77
90
-84
0
-84
-11
-11
43
-11
-77
-22
62
-117
-77
-95
-84
-70
-33
0
84
-111
22
-122
-11
-43
-90
-70
-62
-22
53
-33
-95
-62
-122
11
-119
62
70
-90
-77
-62
-62
11
-22
-53
-84
-43
62
-104
-95
-22
22
0
-104
-77
-62
-53
-108
0
-33
-122
-100
-84
22
-77
-84
-62
-53
100
-116
-22
0
0
43
-62
43
90
-104
11
-11
-100
-33
-70
-43
-22
-100
0
0
0
0
-77
-62
-119
-62
-117
-77
-77
-90
-77
43
22
-22
-125
-111
-43
43
-70
-33
-84
22
-53
-33
-95
122
-53
-77
-70
-70
0
22
-22
53
-43
-116
33
-120
22
-22
11
-33
43
-77
11
-70
-33
-22
53
-122
-33
53
11
-11
-127
-122
-33
33
-22
-70
-22
-95
0
-84
-113
-77
-43
-119
-90
-111
-43
-124
33
62
53
22
-43
33
-90
0
84
-95
-111
22
22
70
-95
-43
-104
-77
-62
-124
-116
100
-77
-90
-111
-100
-100
11
-53
-11
-53
-111
-22
0
-11
77
-22
11
43
33
-33
43
43
-100
-77
-43
-90
22
0
62
-90
-113
11
-22
11
43
-62
-117
43
-77
-111
-22
84
33
-22
-22
-120
-33
0
-84
-22
33
0
-53
43
-90
-104
-53
-77
-43
-33
-43
-104
33
11
-119
-22
43
-123
53
-117
-119
-70
-90
-90
0
33
-95
-100
-77
-22
-22
-33
-70
-108
0
-33
0
-111
-70
-95
11
-53
43
33
-90
-43
-100
-70
-95
62
-119
43
0
62
43
-84
-70
-22
-33
-33
-125
-11
0
-43
11
-43
-104
-126
-22
-33
-70
-11
0
-43
-122
-62
0
-90
-108
22
84
-33
-33
43
-22
-11
-108
-90
-53
-127
62
22
0
0
-43
-70
11
-95
-90
22
-33
-22
22
-100
-43
-43
-62
-100
43
-53
-90
-62
-43
11
43
-33
11
33
-104
-100
-33
-33
-11
22
-33
-62
-11
-90
-95
-22
22
-22
-100
111
-95
-113
62
22
-33
-84
-95
-95
-120
-33
33
-90
-104
-70
-53
-90
-22
-77
-90
-90
-43
11
-70
-43
-11
33
-95
22
-22
11
33
-84
-22
53
-62
-77
-43
-62
-43
-104
-33
-90
11
-22
11
-11
70
-43
-62
-11
-70
-53
-53
-11
53
-53
-95
0
-22
11
-33
-95
-95
-62
-70
22
-43
22
-84
-108
33
33
-116
-22
-123
22
0
-90
-111
53
-22
-108
11
-90
-43
33
-117
-77
-108
-62
22
43
22
-77
62
-70
-95
11
-43
-33
62
-53
-11
-53
22
-53
-124
-43
0
-33
-84
-77
11
62
-95
62
-111
-43
-84
43
-90
-11
11
-62
-11
-62
-62
-22
33
-70
-43
-11
70
43
-22
-116
43
-77
-53
22
-84
-62
-123
33
-95
-113
-84
11
-11
-90
-11
-95
-113
-53
-100
62
95
-53
-22
0
-33
-125
-104
-95
-33
-84
33
33
-84
-113
-62
43
53
-100
70
-84
-84
-116
-11
22
-43
0
-53
-22
-84
-43
-33
43
62
-104
-90
-11
-77
-62
-22
-53
-11
33
-113
-33
-116
-33
-22
-43
-22
-53
-33
-33
-62
-62
53
70
-77
-62
-22
-22
-33
0
-77
43
-33
-84
-104
0
-70
-117
-22
-22
11
-116
-11
-84
-90
-70
-113
-11
11
-116
-100
-77
-95
-33
-33
-53
-11
-90
90
-53
22
90
-95
-43
53
-77
0
-77
-90
-70
-62
-77
11
-33
-33
-62
-90
-43
-11
-11
-62
-104
-125
62
-100
-33
-43
-77
-126
-116
0
62
-62
43
-53
-70
62
-111
-43
0
-43
22
-70
0
-43
-77
0
77
-53
-111
-95
-84
-33
-77
-84
-122
53
-77
0
-77
100
-84
0
-70
-11
0
43
-22
-84
-11
62
-119
-70
-84
-84
-62
-33
0
70
-111
22
-120
-11
-43
-90
-33
-62
-11
53
-33
-100
-62
-124
11
-120
53
43
-77
-33
-53
-62
11
-11
-62
-84
-43
53
-104
-84
-43
22
11
-104
-77
-62
-43
-111
-11
-33
-108
-100
-77
22
-70
-77
-53
-43
100
-104
-33
-11
11
43
-62
62
90
-104
11
-11
-100
-43
-62
-43
-11
-90
11
33
0
0
-70
-33
-117
-70
-117
-77
-70
-95
-62
22
11
-11
-126
-116
-43
77
-77
-70
-84
22
-77
-43
-95
116
-70
-77
-77
-70
22
22
-22
53
-43
-113
33
-111
11
-11
-43
-22
33
-77
-11
-53
-62
-33
-22
-122
-33
43
53
-22
-127
-108
-62
22
-22
-77
-22
-95
0
-95
-113
-77
-43
-119
-90
-111
-62
-124
0
77
43
11
-43
33
-90
33
84
-90
-108
22
62
53
-104
-43
-95
-53
-62
-100
-113
100
-70
-95
-111
-95
-104
11
-33
-11
-43
-111
-33
0
-11
77
-11
11
53
33
-33
43
43
-95
-53
-33
-84
11
33
62
-90
-113
11
-53
22
53
-62
-117
43
-77
-111
-33
84
22
-22
-22
-120
-33
11
-84
-62
33
-11
-53
43
-90
-104
-53
-90
-43
-22
-70
-104
33
11
-119
-22
43
-123
53
-117
-119
-70
-90
-90
-11
33
-95
-95
-77
-22
-33
-33
-70
-104
0
-33
0
-111
-84
-95
11
-43
62
33
-95
-43
-95
-70
-95
62
-119
33
0
62
53
-84
-62
-22
-77
-22
-125
-11
11
-43
-11
-22
-104
-126
-11
-11
-70
0
11
-33
-122
-77
0
-84
-111
22
84
-22
-33
11
-11
-11
-108
-90
-11
-126
53
22
0
-11
-43
-62
11
-90
-84
22
-43
-22
-33
-95
-43
-43
-43
-104
43
-53
-95
-62
-33
11
43
-22
-22
33
-104
-100
-43
-33
-22
22
-33
-84
-11
-95
-100
-43
0
-22
-104
111
-95
-113
62
11
-33
-95
-100
-77
-122
-33
43
-90
-100
-62
-62
-90
-22
-77
-43
-95
-43
22
-33
-43
-11
33
-95
0
-22
11
22
-77
-22
53
-53
-77
-62
-53
-22
-104
-33
-90
11
0
-53
-11
77
-53
-53
-11
-77
-62
-70
0
33
-53
-100
22
-22
22
-22
-95
-95
-62
-70
22
-33
22
-84
-108
33
22
-117
-22
-124
11
11
-90
-104
53
-22
-111
0
-90
-43
33
-117
-70
-108
-62
33
43
33
-84
70
-70
-95
11
-43
-33
62
-53
-22
-53
22
-53
-123
-43
0
-53
-84
-84
0
62
-95
62
-113
-53
-70
22
-90
-11
11
-62
-11
-62
-62
-22
33
-62
-43
0
70
43
-33
-116
33
-43
-53
33
-95
-70
-123
33
-95
-116
-84
11
-11
-77
-11
-95
-113
-33
-104
62
95
-43
-22
0
-22
-125
-100
-95
-53
-77
33
33
-77
-113
-62
43
53
-104
70
-70
-84
-116
-11
33
-53
22
-53
-22
-84
-43
-33
43
62
-100
-90
-11
-84
-70
-33
-62
-22
33
-113
-43
-116
-43
-11
-53
-33
-62
22
-33
-33
-62
53
77
-70
-77
-33
-43
-11
-11
-77
43
-22
-84
-100
22
-77
-116
-22
-22
0
-122
-11
-84
-84
-77
-111
-22
11
-116
-84
-77
-95
-33
-33
-33
-11
-90
90
-62
22
95
-95
-43
53
-77
0
-70
-90
-70
-62
-62
11
-33
-43
-43
-84
-43
0
-11
-53
-104
-125
53
-100
-43
-70
-77
-125
-116
-11
53
-62
43
-53
-62
53
-111
-53
-11
-43
33
-70
0
-43
-77
0
70
-43
-111
-95
-84
-22
-70
-90
-122
33
-77
0
-77
100
-84
0
-62
-11
-11
43
-22
-90
-11
62
-119
-70
-84
-84
-62
-33
0
70
-111
22
-120
-22
-43
-95
-11
-33
0
53
-33
-100
-62
-124
11
-120
62
22
-70
-33
-62
-62
11
-11
-53
-90
-43
43
-104
-77
-53
22
22
-100
-77
-62
-62
-111
-11
-33
-108
-100
-77
33
-70
-70
-43
-53
100
-104
-43
-11
0
43
-53
62
90
-108
11
-22
-100
-43
-53
-43
-11
-77
11
22
0
0
-62
-22
-117
-62
-120
-77
-70
-95
-62
43
22
0
-126
-113
-43
84
-77
-70
-84
22
-90
-53
-95
116
-70
-95
-70
-77
33
22
-22
53
-43
-116
22
-108
11
0
-70
-11
33
-77
-22
-43
-70
-33
-77
-122
-33
33
53
-33
-127
-108
-62
11
-33
-77
-22
-95
0
-100
-113
-70
-43
-119
-95
-111
-70
-124
-11
77
43
11
-43
33
-95
33
84
-84
-111
22
70
70
-108
-43
-95
-53
-53
-104
-113
100
-70
-95
-111
-95
-104
11
-22
-11
-43
-111
-33
0
-11
70
-22
11
53
33
-22
43
33
-95
-62
-33
-77
0
22
62
-90
-111
11
-53
22
53
-62
-117
43
-77
-111
-33
84
22
-22
-11
-120
-43
-22
-84
-70
33
0
-53
43
-90
-104
-53
-84
-43
-22
-70
-104
33
11
-119
-22
43
-123
53
-117
-119
-70
-95
-90
0
33
-95
-95
-77
-22
-22
-33
-70
-104
0
-33
0
-111
-90
-95
11
-11
53
33
-95
-43
-90
-77
-90
62
-119
43
0
53
53
-84
-70
-22
-70
-33
-125
-11
22
-53
-22
-22
-104
-126
-11
-33
-70
-11
11
-43
-122
-70
0
-84
-108
22
84
-22
-33
22
11
-22
-104
-90
-43
-126
62
22
0
-11
-43
-62
11
-90
-90
22
-33
-22
-43
-95
-43
-33
-62
-104
43
-53
-90
-53
-43
11
43
-22
-22
33
-104
-100
-43
-33
0
22
-33
-84
-11
-95
-100
-22
-11
-22
-104
111
-95
-113
62
11
-22
-95
-104
-84
-122
-43
43
-90
-100
-62
-62
-84
-22
-77
-33
-95
-43
11
-43
-43
-11
33
-90
0
-11
11
33
-70
-22
53
-53
-77
-62
-53
-33
-108
-33
-90
11
0
22
0
77
-62
-62
-11
-70
-62
-53
-11
53
-53
-100
0
-22
22
-33
-90
-104
-62
-70
22
-33
22
-84
-108
33
22
-117
-22
-123
0
0
-90
-104
53
-22
-111
0
-90
-43
22
-117
-77
-108
-62
33
43
11
-77
70
-70
-95
11
-43
-33
62
-53
-22
-53
22
-53
-123
-43
0
-53
-62
-84
0
43
-95
62
-113
-53
-70
22
-90
-11
11
-62
-11
-62
-62
-22
33
-62
-43
11
70
43
-22
-116
43
-77
-53
33
-90
-70
-123
33
-100
-116
-90
22
-11
-62
-11
-95
-113
-22
-108
70
95
-33
-22
0
-22
-125
-100
-95
-70
-77
33
33
-77
-113
-62
43
53
-100
70
-77
-84
-116
-11
43
-53
-22
-53
-11
-84
-43
-43
33
62
-104
-90
-11
-84
-62
-43
-62
0
22
-111
-43
-116
-43
0
-53
-22
-62
11
-43
-33
-62
62
77
-77
-77
-33
-43
-22
0
-77
43
-22
-90
-100
33
-77
-116
-22
-11
0
-116
-11
-84
-77
-77
-111
-11
11
-116
-77
-77
-95
-43
-33
-33
-11
-100
90
-43
22
90
-95
-43
53
-77
0
-70
-90
-70
-70
-77
11
-22
-43
-62
-84
-43
0
-22
-62
-100
-124
53
-100
-33
-62
-77
-125
-116
-11
53
-62
43
-62
-62
43
-111
-62
-11
-33
43
-70
-11
-43
-77
0
70
-43
-111
-95
-84
-22
-77
-90
-122
33
-77
0
-77
108
-84
0
-43
-11
0
43
-22
-90
-22
62
-120
-62
-90
-84
-62
-33
0
70
-111
22
-120
-11
-43
-95
-11
-22
0
43
-33
-100
-53
-124
11
-120
53
22
-70
-22
-53
-62
11
-11
-53
-95
-53
43
-104
-77
-62
22
11
-104
-77
-62
-53
-111
-11
-22
-104
-100
-77
33
-62
-70
-53
-43
100
-104
-43
0
0
43
-62
43
90
-108
11
-22
-100
-43
-53
-43
-22
-90
11
33
-11
0
-62
-11
-117
-70
-119
-77
-70
-95
-62
43
22
0
-126
-117
-43
84
-77
-70
-84
22
-90
-53
-95
116
-77
-95
-77
-77
33
22
-22
53
-43
-113
11
-108
22
-11
-70
-22
33
-77
-22
-53
-70
-33
-84
-122
-22
33
53
-43
-127
-104
-33
11
-43
-77
-22
-95
0
-100
-113
-70
-43
-120
-95
-111
-77
-125
-22
77
43
11
-43
33
-95
43
84
-84
-111
22
70
53
-104
-43
-100
-53
-53
-111
-113
100
-70
-95
-111
-95
-100
11
-22
-11
-53
-108
-22
0
-22
70
-11
11
53
33
-33
43
43
-95
-62
-33
-84
0
33
62
-90
-113
11
-53
22
53
-62
-116
43
-77
-111
-33
84
22
-22
-22
-120
-43
-11
-84
-43
33
0
-53
43
-90
-104
-53
-84
-43
-22
-70
-100
33
11
-120
0
43
-123
53
-117
-119
-70
-90
-90
-11
33
-95
-95
-77
-22
-33
-33
-77
-108
0
-33
0
-111
-90
-95
11
-43
43
33
-100
-43
-95
-70
-90
62
-119
43
0
53
53
-84
-70
-22
-70
-33
-125
-11
22
-53
-11
-33
-104
-126
-11
-22
-70
-22
11
-43
-122
-70
0
-84
-111
22
84
-22
-33
33
0
-22
-104
-90
-33
-126
62
22
0
-11
-43
-62
-11
-90
-84
22
-43
-22
-43
-95
-22
-43
-53
-100
43
-53
-95
-70
-43
0
43
-22
-33
33
-104
-100
-43
-33
0
22
-33
-77
-11
-95
-100
-22
-11
-22
-104
108
-95
-113
62
11
-22
-95
-104
-84
-122
-33
33
-95
-100
-62
-62
-90
-22
-77
-22
-95
-43
22
-33
-43
-11
33
-95
0
-22
11
22
-77
-22
53
-53
-77
-53
-62
-33
-108
-22
-90
11
-11
-22
0
77
-62
-62
-11
-77
-62
-62
-11
33
-62
-100
-22
-22
22
-33
-95
-104
-62
-70
22
-43
11
-84
-104
33
33
-117
-22
-123
11
0
-90
-108
53
-22
-111
0
-90
-43
22
-117
-77
-108
-62
33
43
11
-77
77
-70
-95
11
-43
-33
62
-53
-33
-53
22
-53
-123
-43
11
-53
-70
-84
0
53
-95
62
-113
-53
-70
22
-90
-11
11
-53
-11
-70
-62
-22
33
-62
-43
11
70
43
-22
-116
43
-70
-53
33
-95
-70
-123
33
-100
-116
-90
22
-11
-70
-11
-95
-113
-11
-108
70
95
-33
-22
0
-22
-126
-95
-95
-70
-77
33
33
-70
-113
-62
33
53
-100
70
-77
-84
-116
-11
43
-53
-11
-53
-22
-84
-43
-43
33
62
-104
-90
-11
-77
-70
-43
-62
0
33
-113
-43
-116
-33
0
-62
-43
-62
0
-33
-43
-62
53
77
-70
-77
-33
-43
-22
0
-77
43
-22
-84
-100
33
-70
-116
-22
-11
0
-119
-11
-84
-77
-77
-111
-11
11
-116
-77
-77
-95
-33
-33
-33
-11
-100
90
-53
22
95
-95
-53
53
-77
0
-62
-90
-70
-62
-70
11
-22
-43
-53
-84
-43
0
-22
-62
-104
-124
53
-100
-43
-53
-77
-125
-117
-11
62
-62
43
-62
-53
53
-111
-62
-11
-43
33
-70
-11
-43
-77
0
77
-43
-111
-95
-84
-33
-70
-90
-120
33
-77
-11
-77
104
-90
0
-62
-11
-11
43
-22
-90
-22
62
-120
-62
-90
-84
-62
-33
0
70
-111
22
-122
-11
-43
-95
-11
-43
-11
53
-33
-100
-53
-123
11
-120
53
22
-62
-22
-53
-62
11
-11
-53
-90
-43
43
-104
-77
-33
11
11
-104
-77
-62
-70
-108
-11
-11
-108
-100
-77
22
-70
-70
-43
-43
100
-108
-43
-11
0
43
-70
43
90
-108
11
-22
-100
-43
-62
-43
-22
-84
11
33
-11
0
-70
-33
-117
-77
-119
-77
-70
-95
-62
43
11
0
-126
-117
-43
84
-77
-70
-84
22
-90
-53
-95
116
-77
-77
-77
-70
43
22
-22
53
-43
-113
22
-108
22
-11
-70
-22
33
-77
-33
-53
-62
-33
-77
-122
-11
33
53
-33
-127
-104
-33
11
-43
-77
-22
-95
0
-100
-113
-84
-43
-120
-95
-111
-70
-125
-11
77
43
11
-43
22
-100
43
84
-84
-111
22
62
62
-108
-43
-95
-62
-62
-108
-113
100
-70
-95
-111
-95
-100
11
-22
-11
-43
-108
-33
0
-11
77
-11
11
53
33
-33
43
33
-95
-62
-33
-84
0
22
62
-90
-113
11
-53
22
53
-62
-117
43
-77
-111
-33
84
22
-22
-22
-120
-43
-11
-90
-53
33
-11
-53
43
-90
-104
-53
-90
-43
-22
-70
-104
33
11
-122
-22
43
-123
53
-117
-119
-70
-90
-90
-11
33
-95
-100
-77
-22
-22
-33
-70
-108
0
-33
0
-111
-90
-95
11
-33
43
33
-100
-43
-100
-77
-90
62
-119
33
0
53
53
-84
-70
-22
-62
-33
-125
-11
22
-53
-22
-22
-104
-126
-11
-22
-62
-11
0
-33
-122
-77
0
-84
-111
33
84
-22
-33
33
0
-11
-104
-90
-22
-126
62
33
0
-11
-43
-53
11
-90
-90
22
-43
-22
-33
-90
-43
-43
-43
-100
43
-53
-95
-70
-43
0
43
-22
-33
43
-104
-100
-43
-33
0
22
-33
-77
-11
-90
-104
-33
-11
-22
-104
111
-95
-113
62
11
-22
-95
-104
-77
-120
-43
33
-95
-100
-62
-62
-90
-22
-77
-33
-95
-43
11
-22
-43
-11
33
-95
0
-22
11
22
-70
-22
43
-53
-77
-53
-62
-33
-108
-33
-90
11
0
-11
0
77
-62
-70
-11
-77
-62
-62
-11
33
-53
-95
-11
-22
11
-33
-95
-104
-62
-70
22
-33
11
-84
-108
33
33
-117
-22
-123
0
0
-90
-108
62
-22
-108
0
-90
-43
22
-117
-70
-108
-62
33
43
11
-77
77
-70
-95
11
-43
-33
62
-43
-22
-53
22
-53
-123
-43
0
-53
-70
-84
0
53
-95
62
-113
-53
-70
33
-90
-11
11
-53
-11
-62
-70
-22
33
-62
-43
0
70
43
-22
-116
43
-70
-53
33
-90
-62
-123
33
-100
-116
-90
22
-11
-70
-11
-95
-113
-11
-104
62
95
-33
-22
0
-33
-125
-95
-95
-70
-77
33
33
-70
-113
-70
33
53
-104
70
-70
-84
-116
-11
53
-53
-11
-53
-22
-84
-43
-43
33
62
-104
-90
-11
-77
-70
-43
-62
-11
22
-113
-43
-116
-43
-11
-43
-43
-62
0
-33
-33
-62
62
77
-70
-77
-33
-43
-11
0
-77
43
-22
-84
-100
33
-84
-116
-22
-11
-11
-119
-11
-84
-77
-77
-111
-11
11
-116
-84
-70
-95
-43
-33
-33
-11
-100
90
-43
22
95
-95
-53
53
-77
0
-62
-90
-70
-62
-70
11
-22
-43
-62
-84
-43
-11
-22
-62
-104
-124
53
-100
-33
-62
-77
-125
-117
-11
62
-62
43
-53
-43
53
-111
-53
-11
-33
43
-70
-11
-43
-77
0
77
-43
-111
-95
-84
-33
-77
-90
-120
33
-77
0
-77
104
-90
0
-53
-11
-11
43
-22
-90
-22
62
-120
-70
-90
-84
-62
-33
0
70
-111
22
-120
-11
-43
-95
-11
-22
-11
53
-33
-100
-53
-124
11
-122
53
11
-84
-22
-53
-62
11
-11
-53
-90
-53
43
-104
-84
-43
11
11
-104
-70
-62
-62
-108
0
-22
-104
-100
-70
22
-62
-70
-43
-43
100
-104
-33
-11
0
43
-62
43
90
-108
11
-22
-100
-43
-53
-43
-22
-84
11
33
-11
0
-70
-22
-117
-62
-119
-77
-70
-95
-62
43
22
0
-126
-113
-43
84
-77
-70
-84
22
-90
-53
-95
116
-70
-95
-70
-77
43
22
-22
53
-43
-113
22
-108
22
-11
-70
-22
33
-77
-22
-43
-70
-33
-77
-122
-11
33
53
-43
-127
-104
-33
11
-43
-77
-22
-95
0
-100
-113
-62
-43
-120
-95
-111
-77
-125
-11
77
53
11
-43
33
-95
43
84
-84
-111
22
62
62
-104
-43
-95
-53
-53
-111
-111
100
-84
-95
-111
-95
-100
11
-22
-11
-43
-108
-33
0
-11
70
-11
11
53
43
-33
43
22
-95
-62
-33
-84
0
33
62
-90
-111
11
-62
22
53
-62
-116
43
-77
-111
-33
84
22
-22
-22
-120
-43
-11
-90
-53
33
0
-53
43
-90
-104
-53
-90
-43
-22
-70
-104
33
11
-120
-22
43
-123
53
-117
-119
-70
-90
-90
-11
33
-95
-100
-77
-22
-22
-33
-70
-108
0
-33
0
-111
-90
-95
11
-33
53
33
-100
-43
-100
-77
-90
62
-119
43
0
53
53
-84
-70
-22
-70
-33
-125
-11
22
-53
-11
-22
-104
-126
-22
-22
-62
0
0
-33
-122
-62
11
-84
-111
22
84
-22
-33
33
0
-22
-104
-90
-43
-126
53
33
0
-11
-43
-53
0
-90
-90
22
-43
-22
-33
-95
-43
-43
-43
-100
43
-53
-95
-62
-43
0
43
-33
-22
43
-108
-100
-43
-33
0
22
-33
-77
-11
-90
-104
-33
-11
-22
-104
111
-95
-113
62
11
-22
-95
-104
-84
-120
-43
33
-95
-100
-62
-62
-90
-22
-77
-33
-95
-43
22
-22
-43
0
33
-90
-11
-11
11
22
-70
-22
43
-53
-77
-53
-62
-33
-108
-33
-90
11
0
-11
0
77
-62
-70
-11
-70
-62
-62
-22
33
-53
-100
-22
-22
11
-33
-95
-104
-62
-70
22
-33
22
-84
-108
33
33
-116
-22
-123
0
0
-90
-108
62
-22
-108
11
-90
-43
22
-117
-77
-108
-62
33
43
11
-77
77
-70
-95
11
-43
-33
62
-43
-22
-53
22
-53
-123
-43
0
-53
-77
-84
0
53
-100
62
-113
-43
-62
33
-90
-11
11
-53
-11
-62
-70
-22
33
-62
-43
0
70
43
-22
-116
43
-70
-53
33
-84
-62
-123
33
-100
-116
-90
22
-11
-62
-11
-95
-113
-11
-108
62
95
-22
-11
0
-33
-125
-100
-95
-70
-77
33
33
-70
-113
-62
33
53
-104
70
-70
-84
-116
-11
43
-53
-11
-53
-11
-84
-43
-33
33
62
-104
-90
-11
-77
-70
-53
-70
22
33
-113
-43
-116
-33
-22
-62
-33
-62
0
-33
-43
-62
62
77
-70
-77
-33
-43
-22
0
-77
43
-22
-84
-100
33
-70
-116
-22
-11
-11
-117
-11
-84
-77
-77
-111
-11
11
-116
-84
-70
-95
-33
-33
-33
-11
-100
90
-62
22
95
-95
-53
53
-77
0
-53
-90
-70
-62
-70
11
-33
-43
-53
-77
-43
-11
-22
-62
-100
-124
53
-100
-43
-62
-77
-125
-117
-11
62
-62
43
-53
-43
53
-111
-53
-11
-33
43
-70
-11
-43
-77
0
77
-43
-108
-95
-84
-22
-77
-90
-120
33
-77
-11
-77
104
-90
0
-53
-11
-11
43
-22
-90
-22
62
-120
-70
-84
-84
-62
-33
11
70
-111
22
-122
-11
-43
-95
-22
-33
-11
53
-33
-100
-53
-124
11
-122
53
11
-62
-22
-53
-62
11
-11
-53
-84
-53
43
-104
-84
-43
11
11
-104
-77
-62
-62
-108
-11
-11
-108
-100
-70
33
-62
-70
-43
-43
100
-104
-33
-11
0
43
-70
43
90
-108
11
-22
-100
-43
-53
-43
-22
-84
11
33
-11
0
-70
-22
-117
-62
-119
-77
-70
-95
-62
43
22
0
-126
-117
-43
77
-77
-70
-84
22
-90
-53
-95
116
-70
-84
-77
-77
43
22
-22
53
-43
-113
22
-108
22
0
-70
-22
33
-77
-33
-43
-62
-33
-77
-122
-11
33
53
-43
-127
-104
-33
11
-43
-77
-22
-95
0
-95
-113
-70
-43
-119
-95
-111
-77
-125
-11
77
53
11
-43
33
-95
43
84
-84
-113
22
62
62
-104
-43
-95
-62
-53
-111
-111
100
-70
-95
-111
-95
-100
11
-33
-11
-43
-108
-33
0
-11
70
-11
11
53
33
-22
43
33
-95
-62
-33
-84
0
33
62
-84
-113
11
-53
22
53
-62
-117
43
-77
-111
-22
84
22
-22
-22
-120
-43
-11
-90
-53
33
-11
-53
43
-90
-104
-53
-90
-43
-22
-70
-104
33
11
-119
-22
43
-123
53
-117
-119
-70
-84
-90
-11
33
-95
-100
-77
-22
-22
-33
-70
-108
0
-33
0
-108
-90
-95
11
-33
53
22
-100
-43
-100
-77
-90
62
-119
33
0
53
53
-84
-70
-22
-70
-33
-125
-11
22
-43
-11
-22
-104
-126
-22
-33
-70
0
11
-33
-122
-70
11
-84
-111
22
84
-22
-33
33
-11
-11
-104
-90
-22
-126
53
33
0
-11
-43
-53
0
-90
-90
22
-43
-22
-33
-95
-43
-43
-53
-100
43
-53
-95
-70
-53
0
43
-22
-33
43
-104
-100
-43
-33
-11
22
-33
-77
-11
-90
-104
-33
-11
-22
-104
111
-95
-113
62
11
-22
-95
-104
-84
-120
-33
43
-95
-100
-62
-62
-90
-22
-77
-33
-95
-43
22
-33
-43
0
33
-90
-11
-11
11
22
-70
-22
43
-53
-77
-53
-62
-33
-108
-33
-90
11
0
-11
11
77
-62
-70
-11
-70
-62
-62
-33
33
-53
-100
-22
-22
11
-33
-95
-104
-62
-70
22
-33
22
-84
-108
33
33
-116
-22
-123
0
0
-90
-108
53
-22
-111
0
-90
-43
22
-117
-77
-108
-62
33
43
11
-77
77
-70
-95
11
-43
-33
62
-43
-11
-53
22
-53
-123
-43
0
-62
-70
-84
0
53
-95
62
-113
-53
-70
33
-90
-11
11
-53
-11
-62
-62
-22
33
-62
-43
0
70
43
-22
-113
43
-62
-53
33
-90
-70
-123
33
-100
-116
-90
22
-11
-62
-11
-95
-113
-11
-108
62
95
-33
-11
0
-33
-125
-100
-95
-70
-77
33
33
-77
-113
-62
33
53
-104
70
-77
-84
-116
-11
43
-53
-11
-53
-22
-84
-43
-33
33
62
-104
-90
-11
-77
-70
-53
-70
-22
22
-113
-43
-116
-43
-11
-62
-33
-62
0
-43
-33
-62
62
77
-77
-84
-33
-43
-22
0
-77
43
-22
-84
-100
33
-84
-116
-22
0
0
-117
-11
-84
-77
-77
-111
-22
11
-116
-84
-77
-95
-43
-33
-33
-11
-100
90
-53
22
95
-95
-53
43
-77
0
-62
-90
-70
-53
-70
11
-33
-43
-53
-77
-43
-11
-11
-62
-100
-124
53
-100
-43
-62
-70
-125
-117
-11
62
-62
43
-53
-43
53
-111
-53
-11
-33
43
-70
-11
-43
-77
0
77
-43
-111
-95
-84
-22
-77
-90
-120
43
-77
0
-77
104
-90
11
-53
-11
-11
43
-22
-90
-22
62
-120
-62
-84
-84
-62
-33
11
70
-111
22
-120
-11
-43
-90
-22
-33
-11
53
-33
-100
-53
-124
11
-122
53
22
-53
-22
-53
-62
11
-11
-70
-90
-53
43
-104
-84
-43
11
11
-104
-77
-62
-62
-108
0
-11
-104
-100
-77
22
-70
-70
-43
-43
100
-104
-33
-11
11
43
-70
43
90
-108
11
-22
-100
-43
-53
-43
-11
-84
11
33
-11
0
-70
-22
-117
-77
-119
-77
-70
-95
-62
43
11
-11
-126
-116
-43
77
-77
-70
-84
22
-90
-53
-95
116
-70
-84
-77
-77
33
22
-22
53
-43
-113
22
-108
22
-11
-70
-22
33
-77
-33
-43
-70
-33
-77
-122
-22
33
53
-43
-127
-104
-43
11
-43
-77
-22
-95
0
-95
-113
-62
-43
-120
-95
-111
-77
-125
-22
77
53
11
-43
33
-95
43
84
-84
-111
22
70
62
-108
-43
-95
-53
-53
-108
-111
100
-70
-95
-111
-95
-100
11
-22
-11
-43
-111
-33
0
-11
70
-22
11
43
33
-33
43
22
-95
-70
-33
-84
0
22
62
-84
-113
11
-62
22
53
-53
-116
43
-77
-111
-22
84
22
-22
-11
-120
-43
-22
-90
-53
33
0
-53
43
-90
-104
-53
-84
-43
-22
-70
-104
33
11
-119
-33
43
-123
53
-117
-119
-70
-95
-90
-22
33
-95
-100
-77
-22
-22
-33
-70
-108
0
-33
0
-108
-95
-95
11
-33
53
33
-90
-43
-100
-77
-90
62
-119
43
0
53
53
-84
-70
-22
-70
-33
-125
-11
11
-43
-11
-22
-104
-126
-22
-22
-62
-11
11
-33
-122
-84
11
-84
-111
22
84
-22
-33
33
-11
-11
-104
-90
-33
-126
62
22
0
-11
-43
-62
0
-90
-90
22
-43
-22
-33
-95
-33
-43
-53
-100
43
-53
-90
-62
-53
0
43
-22
-22
43
-104
-100
-43
-33
-11
22
-33
-84
-11
-90
-104
-33
-11
-22
-104
111
-95
-113
70
11
-22
-95
-104
-77
-122
-33
43
-95
-100
-62
-62
-84
-22
-77
-11
-95
-43
11
-43
-43
-11
33
-90
-11
-11
11
22
-70
-22
53
-53
-77
-53
-62
-33
-108
-33
-90
11
0
-11
11
77
-62
-70
-11
-70
-62
-62
-22
33
-62
-100
0
-22
11
-33
-90
-104
-62
-70
22
-33
22
-84
-108
33
33
-116
-22
-123
0
0
-90
-108
62
-33
-111
11
-90
-43
22
-117
-62
-108
-62
33
43
11
-77
77
-70
-95
11
-43
-33
62
-43
-22
-53
22
-53
-123
-43
0
-62
-84
-84
0
53
-95
62
-113
-53
-77
33
-90
-11
11
-53
-11
-62
-62
-22
33
-62
-43
0
70
43
-22
-113
43
-70
-53
33
-90
-70
-123
33
-100
-116
-90
22
-11
-70
-11
-95
-113
-11
-108
62
95
-33
-22
0
-33
-125
-100
-95
-70
-77
22
33
-77
-113
-62
33
53
-104
70
-77
-84
-116
-11
33
-53
-11
-53
-11
-84
-43
-33
33
62
-104
-90
-11
-77
-70
-43
-70
11
22
-113
-43
-116
-43
-22
-53
-43
-62
0
-43
-33
-62
62
77
-77
-77
-33
-43
-22
0
-77
43
-22
-84
-100
33
-77
-116
-22
0
0
-117
-11
-84
-77
-77
-111
-11
11
-116
-77
-77
-95
-33
-33
-33
-11
-100
90
-53
22
95
-95
-53
53
-77
0
-62
-90
-70
-62
-70
11
-33
-43
-62
-84
-43
0
-22
-53
-104
-124
53
-100
-33
-62
-70
-125
-117
-11
62
-62
43
-62
-53
53
-111
-62
-11
-43
33
-70
0
-43
-77
0
77
-43
-111
-95
-84
-22
-77
-90
-120
33
-77
-11
-77
104
-90
11
-53
-11
-11
53
-22
-90
-22
62
-119
-62
-84
-84
-62
-33
11
70
-111
22
-120
-11
-43
-90
-22
-33
-11
53
-33
-100
-53
-124
11
-120
53
22
-62
-22
-53
-62
11
-11
-62
-90
-53
43
-104
-77
-43
22
11
-100
-77
-62
-62
-108
0
-11
-108
-100
-77
22
-70
-70
-43
-43
100
-104
-43
-11
11
43
-62
62
90
-108
11
-22
-100
-43
-53
-43
-11
-84
11
33
0
-11
-70
-22
-117
-62
-119
-77
-70
-95
-62
43
0
-11
-126
-116
-43
77
-77
-70
-84
22
-90
-53
-100
116
-70
-90
-77
-70
33
22
-22
53
-43
-113
22
-108
22
0
-70
-22
33
-77
-22
-43
-70
-33
-84
-122
-22
33
53
-43
-127
-104
-33
11
-33
-77
-22
-95
0
-95
-113
-62
-43
-120
-95
-111
-77
-125
-22
77
53
11
-43
33
-95
43
84
-90
-111
22
70
62
-104
-43
-100
-53
-53
-108
-111
100
-70
-95
-111
-100
-100
11
-22
-11
-33
-111
-33
0
-11
70
-22
11
43
33
-33
43
22
-95
-77
-33
-77
0
33
62
-90
-111
11
-62
22
53
-62
-117
43
-77
-111
-22
84
22
-22
-11
-120
-43
-11
-84
-53
33
-11
-53
43
-90
-104
-53
-90
-43
-22
-70
-95
33
11
-119
-22
43
-124
53
-117
-119
-70
-90
-90
-22
33
-95
-100
-77
-22
-22
-33
-70
-108
0
-33
0
-111
-95
-95
11
-43
53
33
-90
-43
-95
-77
-95
62
-119
43
0
53
62
-84
-62
-22
-70
-33
-125
-11
11
-43
-11
-33
-104
-126
-22
-33
-70
-22
11
-33
-122
-77
11
-84
-111
22
84
-22
-33
22
0
-22
-104
-90
-43
-126
62
22
0
-11
-43
-84
-11
-90
-90
22
-43
-22
-33
-95
-43
-33
-53
-100
43
-53
-90
-53
-43
0
43
-33
-11
33
-104
-100
-43
-33
-11
22
-33
-90
-11
-95
-104
-33
0
-22
-104
108
-90
-113
70
11
-22
-95
-104
-70
-120
-43
43
-95
-100
-62
-62
-84
-22
-77
-11
-95
-43
22
-70
-43
-11
33
-95
-11
-11
11
22
-70
-22
43
-43
-77
-53
-62
-33
-104
-22
-90
11
11
-11
0
70
-62
-62
-22
-70
-62
-62
-11
33
-53
-100
22
-22
11
-33
-77
-104
-62
-70
22
-33
22
-84
-108
33
22
-116
-22
-123
11
0
-90
-108
62
-22
-108
0
-90
-43
22
-117
-62
-108
-62
33
43
11
-77
70
-70
-95
11
-43
-33
62
-43
-22
-53
22
-53
-124
-43
0
-70
-84
-90
0
53
-100
62
-111
-53
-84
22
-90
-11
11
-53
-11
-62
-62
-22
62
-62
-43
0
70
43
-33
-116
43
-62
-53
22
-90
-70
-123
33
-100
-116
-95
22
-11
-62
-11
-95
-113
-22
-108
62
95
-33
-22
0
-33
-125
-100
-95
-84
-77
33
33
-77
-113
-77
33
53
-104
70
-77
-84
-116
-11
43
-53
0
-53
-11
-84
-43
-43
33
62
-104
-90
-11
-77
-70
-33
-53
11
22
-111
-43
-116
-33
-22
-62
-33
-62
11
-43
-43
-62
62
77
-77
-77
-33
-43
-22
-11
-77
43
-22
-90
-100
22
-77
-116
-22
0
0
-116
-11
-84
-77
-77
-111
-11
11
-116
-70
-77
-95
-43
-33
-43
-11
-100
90
-53
33
90
-100
-53
53
-77
0
-70
-90
-70
-77
-70
11
-33
-43
-43
-84
-43
-11
-22
-53
-104
-124
53
-100
-43
-70
-62
-124
-116
-11
53
-62
43
-62
-62
53
-111
-53
-11
-43
33
-70
-11
-53
-77
11
70
-43
-111
-95
-84
-33
-77
-90
-120
33
-77
0
-77
104
-90
0
-53
-11
-11
43
-33
-90
-11
62
-119
-62
-84
-84
-62
-33
0
70
-111
22
-120
-11
-43
-90
-11
-33
-11
53
-43
-100
-53
-124
11
-122
43
33
-43
-43
-53
-62
11
-11
-53
-95
-53
43
-104
-84
-43
43
11
-104
-70
-62
-53
-108
0
-11
-111
-104
-70
22
-77
-70
-43
-43
100
-104
-33
-11
11
43
-70
43
90
-108
11
-22
-100
-43
-53
-53
-11
-90
11
33
-11
0
-77
-33
-116
-62
-120
-77
-70
-95
-53
43
11
-11
-126
-116
-43
84
-77
-70
-84
22
-90
-53
-95
117
-70
-90
-84
-70
33
22
-22
53
-43
-113
22
-108
22
0
-70
-22
33
-77
-33
-43
-70
-33
-100
-122
-22
22
53
-43
-127
-104
-33
11
-33
-77
-22
-95
0
-95
-113
-62
-43
-120
-95
-111
-77
-125
-22
77
53
11
-43
43
-95
43
84
-90
-108
22
70
62
-104
-43
-100
-53
-53
-111
-111
100
-70
-95
-111
-100
-100
11
-22
-11
-62
-111
-33
0
-22
70
-11
11
53
33
-33
43
43
-95
-33
-43
-77
0
-11
62
-84
-111
11
-62
33
43
-53
-117
33
-77
-111
-22
84
22
-22
0
-120
-22
-11
-84
-77
22
11
-53
43
-90
-104
-53
-95
-43
-43
-77
-90
33
11
-119
-33
43
-123
53
-117
-119
-70
-84
-90
-11
33
-95
-100
-70
-22
-22
-33
-70
-108
0
-33
0
-111
-100
-95
11
-43
43
33
-90
-43
-100
-62
-90
53
-119
33
0
62
43
-90
-70
-22
-100
-22
-125
-11
11
-43
0
-43
-104
-126
-22
-33
-62
-22
11
-33
-122
-70
0
-90
-108
33
84
-22
-33
11
0
-22
-104
-90
-43
-127
62
33
0
11
-43
-62
22
-90
-90
22
-43
-22
0
-95
-43
-43
-43
-104
43
-53
-90
-84
-43
0
43
-43
-43
33
-108
-100
-43
-22
0
22
-33
-84
-11
-90
-104
-33
0
-11
-100
108
-100
-113
70
11
-22
-95
-100
-62
-122
-33
43
-95
-100
-62
-62
-90
-33
-77
-11
-90
-53
11
-84
-43
0
33
-95
0
-11
11
43
-77
-22
43
-53
-84
-53
-62
-33
-108
-11
-90
11
0
22
-11
77
-53
-62
-22
-84
-62
-70
-11
11
-43
-100
22
-22
11
-33
-90
-100
-62
-70
22
-33
11
-84
-108
33
22
-116
-11
-123
22
0
-90
-104
53
-22
-111
11
-90
-43
22
-117
-62
-108
-62
33
43
22
-90
53
-77
-95
11
-43
-33
62
-43
-11
-53
22
-53
-124
-43
0
-53
-77
-84
0
62
-95
62
-111
-53
-62
11
-90
-22
22
-62
-11
-62
-62
-22
43
-62
-43
-11
70
43
-22
-116
43
-84
-53
22
-90
-70
-123
33
-95
-116
-100
11
-11
-43
-11
-95
-116
0
-108
62
95
-33
-11
0
-33
-125
-100
-95
-95
-53
33
33
-77
-113
-77
33
53
-90
70
-62
-84
-116
0
33
-53
11
-53
-22
-100
-53
-43
43
62
-104
-90
-11
-70
-77
-70
-22
-22
22
-113
-43
-116
-43
-11
-62
-33
-53
11
-43
-43
-62
62
77
-77
-77
-33
-33
-33
-11
-77
43
-22
-77
-100
43
-70
-116
-22
-11
-11
-119
-11
-84
-84
-70
-111
-11
11
-116
-43
-77
-95
-22
-33
-70
-11
-90
90
-43
22
90
-100
-43
62
-77
0
-62
-90
-77
-77
-62
11
-33
-43
-62
-77
-43
-11
-22
-62
-104
-124
53
-100
-33
-62
-53
-126
-116
0
62
-62
43
-53
-53
53
-111
-43
-11
-43
43
-70
-22
-53
-84
0
70
-43
-111
-95
-84
-22
-70
-90
-120
43
-77
0
-70
108
-84
11
-70
-11
-11
53
-22
-90
-11
62
-119
-70
-84
-84
-62
-33
0
70
-111
22
-122
-11
-43
-84
-33
-22
-22
53
-43
-100
-62
-124
22
-119
53
43
-43
-53
-62
-62
11
-11
-53
-95
-43
53
-104
-90
-62
-11
11
-104
-70
-62
-53
-111
-11
-22
-113
-104
-70
22
-70
-70
-43
-53
100
-90
-43
-11
22
43
-70
62
90
-108
11
-11
-100
-43
-53
-53
-22
-84
11
22
-11
0
-70
-22
-117
-62
-117
-77
-70
-95
-43
43
0
-11
-126
-113
-43
70
-77
-62
-84
22
-95
-62
-100
116
-70
-90
-70
-70
43
11
-22
53
-43
-113
22
-111
22
0
-90
-22
22
-77
0
-43
-77
-33
-111
-122
-22
33
43
-33
-127
-108
-43
11
-33
-77
-22
-95
0
-104
-113
-70
-43
-119
-95
-111
-70
-124
-22
77
43
11
-43
0
-95
22
84
-90
-108
22
53
62
-104
-43
-100
-53
-53
-104
-113
100
-62
-95
-111
-108
-100
11
-77
-11
-43
-104
-33
11
-53
70
-11
11
53
33
-22
33
43
-95
0
-53
-84
-11
33
62
-77
-116
0
-77
11
33
-70
-116
53
-70
-108
-22
77
33
-22
11
-119
-22
43
-95
-53
22
-11
-62
43
-84
-104
-53
-113
-43
-53
-104
-90
33
0
-122
-22
43
-124
53
-117
-119
-70
-84
-90
-11
33
-100
-100
-70
-33
-22
-33
-62
-108
11
-11
0
-113
-100
-95
0
-33
22
43
-90
-43
-100
-53
-70
77
-119
53
0
70
53
-77
-77
-33
-111
-22
-124
-11
11
-53
11
-33
-104
-126
-33
-70
-62
-11
33
-22
-122
-77
-22
-90
-111
33
70
-22
-33
11
-33
-11
-108
-90
-22
-127
53
33
0
-22
-43
-53
117
-77
-90
22
-53
-11
22
-104
-43
-33
-22
-108
33
-43
-95
-90
-33
11
43
-33
-77
33
-111
-95
-22
11
-22
11
-22
-84
-11
-90
-100
-33
-11
-11
-95
119
-95
-113
62
0
-33
-90
-100
-33
-111
-33
33
-90
-100
-70
-43
-90
-22
-53
22
-84
-43
33
-108
-43
0
33
-95
33
11
11
43
-62
-22
53
-77
-90
-62
-62
-53
-108
-11
-84
11
-11
-22
-22
77
-70
-62
-43
-53
-62
-70
-11
43
11
-95
-22
-22
22
-11
-100
-100
-62
-70
22
-62
-22
-77
-116
33
11
-116
-43
-122
-11
0
-84
-104
108
0
-108
11
-90
-33
22
-117
-43
-108
-62
43
43
43
-90
11
-70
-104
33
-33
-43
62
-43
0
-53
22
-100
-123
-43
11
-33
-62
-77
0
43
-90
70
-111
-53
-11
11
-90
-22
0
-62
-11
-62
-62
-11
43
-62
-43
-11
70
33
-22
-111
62
-43
-43
33
-90
-62
-124
33
-100
-113
-104
22
-11
-11
-11
-95
-116
11
-104
62
95
-33
0
0
-22
-126
-100
-100
-104
0
33
22
-77
-116
-77
53
53
-62
70
0
-84
-116
0
43
-43
0
-53
-22
-77
-43
-22
33
62
-100
-90
-22
-11
-84
-33
-43
-33
22
-111
-33
-116
-22
0
-62
-33
-53
33
-53
117
-62
62
70
-33
-70
-22
33
0
0
-84
43
-43
-70
-90
62
-62
-116
-11
-11
-33
-125
-11
-84
-90
-62
-111
-33
11
-117
11
-62
-95
-33
-11
-95
-11
-111
90
-53
11
108
-100
-43
22
-62
0
-62
-90
-77
-104
-62
22
-33
-33
-62
-77
-43
-11
-22
-62
-104
-125
53
-104
-43
-90
-53
-128
-116
-22
62
-62
33
-53
-77
62
-111
-33
-11
-22
43
-70
0
-53
-95
0
77
-84
-113
-95
-90
-11
-70
-84
-122
100
-70
11
-70
77
-77
11
-77
-11
-22
43
0
-77
-11
62
-117
-77
-95
-77
-70
-33
0
90
-108
33
-122
-22
-43
-90
-70
33
-33
43
-33
-95
-62
-120
22
-120
70
53
-70
-95
-70
-62
11
-11
-33
-84
-33
70
-104
-95
-53
-22
11
-104
-77
-62
-53
-113
-11
-33
-113
-104
-95
22
-77
-77
-53
-53
100
-53
-33
11
11
43
-62
33
90
-108
22
-11
-95
-33
-43
-53
-22
-90
0
-11
0
0
-77
-53
-119
-70
-116
-77
-84
-90
-33
43
22
-22
-125
-108
-33
77
-70
-43
-90
22
-108
-43
-90
120
-62
-90
-62
-108
62
33
-43
43
-43
-116
33
-117
22
11
-104
-11
0
-77
-11
-62
-77
-33
-119
-123
-33
53
0
-22
-127
-122
-62
33
-33
-70
-22
-95
0
-113
-113
-70
-43
-119
-95
-111
-43
-124
33
70
62
22
-43
43
-90
11
84
-95
-111
22
11
77
-95
-43
-100
-70
-62
-95
-117
100
-70
-84
-111
-95
-70
22
-43
-11
-70
-84
-22
62
-53
70
11
11
70
33
-11
33
-11
-90
0
-43
-77
-11
-90
43
-53
-120
11
-43
22
22
-43
-95
43
-84
-90
0
70
33
-22
70
-104
-77
33
-77
-77
53
-108
-62
33
-77
-84
-22
-119
-11
-22
-95
-95
43
22
-113
0
33
-122
43
-116
-116
-62
-84
-62
-22
22
-62
-104
0
-22
-11
-33
100
-77
22
-11
0
-95
-90
-77
-11
-43
0
53
-84
0
-100
-62
-90
84
-117
43
0
70
33
11
-53
-77
-117
-11
-111
0
33
-62
11
-11
-104
-117
-62
-33
-62
0
22
-22
-111
-43
-33
-77
-111
22
11
0
0
53
-113
22
-104
-70
-33
-125
53
33
11
-11
-33
-127
127
-77
0
33
-62
22
11
-111
-11
0
-43
-104
11
-62
-95
-90
-53
33
43
0
53
84
-100
-70
22
-70
-33
11
11
-95
0
-84
-95
-100
0
-11
-53
120
-84
-90
43
0
-22
-95
-100
90
-84
0
0
-77
-84
-77
-11
-22
-11
-125
104
-84
-33
-104
-104
-22
0
33
-77
53
11
22
33
-22
-33
53
-53
-33
-100
-53
-11
-113
-22
-62
22
11
-84
-84
53
-126
-70
43
90
-95
-77
22
-11
95
-100
-53
-11
-11
-11
-84
-111
-43
-43
33
-62
-11
-77
-70
43
0
-104
22
-90
-62
53
-70
-123
120
-11
-100
11
-77
-43
0
-108
-70
-104
-22
33
53
43
-95
11
-77
-108
33
-11
-43
43
0
11
-33
22
77
-123
-33
11
-22
-43
-62
-11
53
-95
53
-95
0
-33
33
-90
-22
11
-22
-11
-53
-43
33
0
-62
-43
-43
53
22
11
-116
77
-70
-11
33
-77
-62
-123
11
-95
-116
-108
43
22
-33
11
-77
-117
-77
-100
53
84
-33
33
0
-53
-125
-53
-84
-77
22
33
0
-33
-108
-43
22
43
70
70
-77
-62
-111
0
0
-33
0
-53
-22
-108
-62
11
0
53
-70
-90
-43
111
-77
62
-22
-33
53
-111
-11
-113
0
53
-53
-62
100
22
-53
127
-62
77
53
-11
-43
-33
33
-22
-11
-84
43
-11
-62
0
33
22
-117
11
-11
-22
-70
0
-33
-70
-62
-95
-62
0
-116
-43
-22
-77
-22
11
-90
11
-22
70
-90
33
116
-95
-43
43
-77
0
-33
-84
-11
-90
-77
11
33
11
-22
-43
-22
33
-33
-62
-116
-116
43
-84
-11
-70
-62
-127
-113
-100
43
-53
43
-62
-53
62
-108
-62
-11
-11
22
-53
-104
-33
-104
11
70
-84
-113
-53
-84
-70
-84
-70
-119
95
-22
22
-22
90
-43
0
-33
0
-22
53
11
-53
-22
53
-116
-90
-84
-43
-95
-43
0
90
-111
62
-120
-22
-33
-77
-11
-43
-22
22
0
-84
-33
-100
0
-104
113
70
-90
-11
-43
-62
43
-22
-62
-62
-11
70
-70
-108
11
33
22
-90
-70
62
0
-84
22
-33
127
-100
-62
43
-62
-62
-33
-22
95
-77
-70
0
33
62
-53
-53
53
-108
33
0
-84
-11
-33
-22
0
-70
0
-22
22
-11
-70
-33
-120
-70
-77
-77
-70
-33
-62
70
-43
-11
-116
-70
0
11
11
11
-53
0
-122
-43
-104
111
-43
-90
-77
-100
53
43
-33
22
-33
-119
43
-104
0
22
-113
-22
-11
-53
-33
-22
-22
-11
-95
-120
-22
62
-11
-22
-122
-119
-11
22
-43
-43
-11
-70
0
-11
-95
-33
-33
-117
-62
-84
-62
-117
84
22
84
33
-33
-62
-62
70
70
-84
-84
53
-22
95
-95
-33
-100
-53
-43
-127
-116
90
-22
-53
-108
-90
-70
11
-70
0
-33
-70
-11
-11
-11
70
33
11
62
22
11
43
0
-77
-95
-43
-43
0
-70
43
-70
-119
33
-62
-11
33
-53
-100
33
-84
-95
11
70
11
-22
-43
-104
-70
117
-70
-70
11
-100
-62
53
-70
-84
-22
-84
-11
-11
-100
-100
43
33
-108
-43
53
-122
22
-116
-116
-62
-33
-53
-43
22
-77
-104
-113
-33
-43
-33
-62
-77
22
-11
0
-95
-95
-70
22
-53
-43
43
-90
-62
-62
-90
-62
84
-117
11
22
70
53
-70
-43
-77
33
-111
-113
0
33
-62
11
0
-104
-117
-62
-22
-95
22
33
-33
-111
-62
11
-70
-111
11
33
11
0
11
-90
22
-104
-70
22
-125
62
33
11
-33
-22
116
123
-62
0
33
-62
22
-43
-108
0
11
-43
-104
22
-43
-95
0
-43
-53
33
22
-113
33
-100
-70
43
0
-33
11
11
-22
0
-77
-104
-84
11
-33
-77
108
-77
-77
53
22
-11
-77
-100
-126
-62
-11
-43
-84
-84
-53
-33
-122
11
-62
-100
-90
-33
-100
-100
-22
-11
33
-70
-11
-11
22
70
-53
-33
22
-53
-70
-62
-53
0
-108
11
-77
11
53
-113
-84
53
90
-43
-22
-120
-104
-84
33
-111
11
-95
-53
-11
22
-53
-70
-108
-43
-108
33
0
33
-77
-95
33
22
-70
33
-95
-53
33
-70
-70
108
-33
-108
0
-77
-22
70
-108
-53
-100
-33
22
43
33
-11
11
-62
-70
-11
-22
-33
43
22
0
-33
22
-53
-124
-43
0
-53
-108
-43
43
33
-95
43
-104
-11
-95
33
-90
-11
22
-22
0
-62
-95
33
-33
-70
-43
0
62
22
-22
-117
70
-33
0
33
-43
-77
-123
11
-70
-117
-108
33
22
-70
11
-77
-119
22
-62
53
90
-22
33
0
-43
-126
-43
-70
-124
-117
33
-22
11
-108
-11
-22
43
62
70
-70
-70
-111
0
-70
-53
0
-53
-33
-84
-77
-33
-11
53
-62
-90
-33
-11
-70
-11
-62
-11
33
-116
-43
-113
-108
53
-53
-22
-11
43
-22
126
-11
62
62
-43
-125
-43
-62
-11
0
-77
43
-11
-95
84
43
22
-117
-22
22
-84
-125
11
-22
-53
-53
-90
-70
43
-116
-100
-62
-77
-43
-22
-84
11
-108
70
-104
43
111
-90
-43
70
70
-11
22
-77
-53
-22
0
11
-33
22
-70
-53
0
43
-22
-43
-33
-117
43
-84
-22
11
-77
-125
-113
-95
53
-53
33
-62
-62
53
-104
11
-33
-33
33
-53
22
-22
-116
11
70
-43
-116
-62
-84
-70
-77
-77
-120
43
-11
11
-43
104
-53
11
0
0
-22
43
33
-90
-62
62
-119
-95
-77
-43
-90
-43
22
90
-90
11
-120
-22
-33
-84
-22
-43
11
33
-11
-90
-22
-108
0
-104
0
90
-43
0
-62
-62
0
-11
-90
-53
0
62
-77
-117
-62
11
11
-90
-62
-84
-11
-70
11
-22
111
-104
-70
11
-43
-43
-62
-43
95
-120
-90
-11
11
53
-77
-70
53
-104
33
-22
-77
-11
-70
0
0
-43
0
-11
33
-11
-70
-43
-120
-33
-90
-77
-70
-53
-95
70
-43
0
-120
-77
-43
33
-22
-22
-43
43
43
-43
-108
113
-62
-53
-70
-90
11
11
-43
22
-33
-119
53
-84
53
-70
53
11
62
-53
-33
-70
-100
-11
-43
-120
11
-11
53
0
-122
-100
-70
0
-43
-43
0
-77
11
-122
-100
11
-33
-119
-53
-84
-62
-116
11
0
90
22
-53
53
-62
11
77
-53
-95
-11
11
100
-84
-43
-62
11
-43
-43
-77
90
-33
-53
-108
-100
-100
11
-95
-11
-62
-90
-22
11
11
77
-11
11
62
43
0
43
33
-77
-95
-53
-77
11
22
70
-90
-111
33
-62
22
33
-62
-119
22
-70
-111
-22
84
22
-22
-33
-122
0
95
-90
-62
33
-33
-62
43
-70
-100
-53
-62
-53
-33
22
-104
43
0
-117
-43
43
-123
53
-117
-119
-62
-53
-90
-11
33
-95
-104
-90
-22
-43
-33
-77
-108
11
-33
-11
-111
-70
-95
-11
-11
-11
43
-95
-62
-43
-84
-100
70
-117
22
11
70
33
-84
-70
-62
43
-84
-124
-11
0
-43
0
-33
-104
-126
-33
-22
-77
22
0
-22
-124
-33
0
-84
-108
22
84
-22
-22
53
-22
-22
-111
-90
-70
-127
62
53
0
-22
-43
-53
53
-77
-62
11
-43
-22
-11
-95
-62
-11
-77
-108
43
-62
-95
-11
-62
-11
43
-11
22
22
-104
-90
11
-43
22
11
-22
-70
-11
-84
-104
-62
-11
-22
-100
100
-100
-113
70
33
0
-100
-95
-116
-90
0
-33
-90
-100
-53
-62
-70
-22
-100
-84
-77
-22
-22
-95
-53
-11
33
-90
-33
-22
0
53
-62
-43
22
-84
-77
-62
-62
-33
-104
-11
-90
0
43
0
-22
70
-43
-53
33
-77
-53
-70
22
53
-62
-100
-43
-22
33
-43
-108
-95
-62
-77
22
-22
22
-84
-95
33
0
-70
-22
-122
-11
-11
-90
-84
62
-33
-100
11
-90
-11
11
-117
-77
-108
-70
22
43
33
-43
0
-84
-77
-11
-43
-11
62
-33
-11
-62
22
-22
-124
-22
0
-62
-90
-62
11
43
-95
62
-113
-33
-95
43
-90
0
22
-62
0
-62
-70
-22
22
-70
-33
22
70
43
-33
-117
53
-62
-22
33
-53
-70
-122
33
-70
-117
-95
11
-11
-100
0
-95
-117
-53
-70
62
95
-22
-11
0
-43
-126
-100
-90
-11
-116
53
0
-33
-113
-43
-11
53
-90
70
-111
-84
-116
-11
-62
-53
11
-53
-22
-100
-70
-11
33
62
-104
-90
-11
-70
-53
0
-62
-22
33
-111
-43
-116
-33
33
-53
-53
-70
-53
-33
-33
-70
62
70
-70
-100
-43
-62
-33
0
-84
53
-22
-62
-84
11
-33
-116
-22
11
-62
-77
-11
-84
-90
-62
-111
-53
11
-116
-117
-84
-100
-53
-22
-77
-11
-100
90
-33
22
84
-95
-43
53
-77
0
-22
-90
-70
-53
0
22
-33
-11
-77
-84
-43
-22
-22
-43
-108
-125
43
-104
-33
-53
-84
-126
-117
0
62
-62
43
-62
-53
43
-111
-77
-22
-43
33
-70
11
-43
-104
11
77
-43
-116
-90
-84
-43
-70
-84
-122
33
-70
0
-90
100
-77
11
-70
-11
0
33
11
-84
-62
62
-119
-90
-84
-84
-62
-33
11
84
-104
-22
-120
-11
-43
-95
-43
-62
0
53
-33
-95
-70
-124
0
-120
0
70
-70
-90
-70
-62
11
-22
-77
-43
-33
53
-104
-113
-43
11
11
-100
-77
-62
-70
-108
-33
-22
-125
-100
-77
22
-22
-62
-70
-53
100
-116
-53
-22
0
43
-43
22
90
-104
22
-43
-100
-43
-70
-33
-22
-62
0
11
11
0
-84
-22
-120
-70
-120
-77
-70
-95
-70
22
11
0
-126
-111
-43
62
-77
-70
-84
22
-53
-43
-104
120
-70
-77
-62
-84
11
11
-11
22
-43
-111
43
-116
22
-22
0
-11
33
-77
22
-62
-43
-33
22
-122
0
-11
70
-11
-127
-104
-70
11
-22
-77
0
-95
0
-77
-113
-53
-43
-119
-90
-108
-62
-124
-43
53
53
22
-53
43
-90
-33
84
-84
-113
22
22
62
-90
-53
-70
-62
-62
-113
-77
100
-62
-95
-111
-90
-100
0
-62
-11
-62
-95
-22
11
-22
77
0
11
53
33
-22
43
33
-70
-77
-43
-70
-11
11
70
-90
-104
33
-22
11
43
-43
-120
22
-77
-111
-22
90
11
-22
-22
-122
-22
43
-90
-62
33
-33
-62
43
-70
-100
-53
-84
-62
-11
-33
-104
33
0
-117
-43
43
-123
53
-117
-119
-62
-53
-90
0
33
-100
-95
-77
-22
-43
-22
-43
-108
0
-33
-11
-108
-77
-100
0
-62
0
22
-95
-62
-53
-90
-90
53
-117
11
0
62
43
-53
-62
-43
-43
-43
-124
-11
0
-43
-22
-33
-104
-126
-11
22
-70
22
-11
-43
-124
-62
11
-84
-104
22
90
-33
-22
43
0
-33
-111
-90
-43
-126
62
53
0
0
-43
-84
-53
-90
-53
11
-43
-33
-22
-90
-53
-33
-62
-104
43
-53
-95
-62
-43
43
43
-11
0
33
-104
-95
-11
-33
22
11
-43
-62
-11
-84
-100
-22
0
-22
-104
77
-95
-116
62
22
11
-90
-100
-100
-104
-11
-33
-90
-104
-53
-77
-84
-22
-77
-100
-84
-11
0
-77
-43
-11
33
-90
-43
-33
11
43
-62
-33
11
-70
-62
-53
-53
0
-100
-11
-84
11
53
33
-22
70
-53
-53
11
-62
-33
-70
0
33
-84
-104
-22
-22
22
-53
-104
-95
-62
-70
11
-11
43
-84
-95
33
22
-77
0
-124
11
-22
-90
-95
-11
-43
-104
11
-90
-11
22
-117
-70
-108
-70
22
43
0
-62
11
-90
-84
-22
-43
-11
70
-33
0
-53
22
22
-124
-33
-11
-84
-84
-77
0
53
-100
62
-113
-43
-77
33
-90
-11
43
-62
0
-62
-62
-33
22
-70
-33
22
62
43
-33
-117
33
-53
-43
22
-53
-77
-120
33
-77
-117
-84
22
-11
-90
-11
-95
-116
-77
-70
62
95
-33
-33
0
-43
-126
-104
-84
-33
-90
43
11
-43
-113
-53
-11
62
-95
62
-84
-84
-116
-11
-53
-53
22
-53
-22
-95
-62
-22
43
53
-108
-90
-11
-70
-53
-11
-43
-11
33
-111
-62
-116
-33
22
-43
-33
-33
-22
-22
-90
-70
62
77
-84
-70
-33
-84
-43
-11
-77
53
0
-70
-95
11
-53
-116
-43
0
-22
-100
-11
-84
-84
-70
-113
-53
11
-113
-100
-84
-100
-43
-43
-43
-11
-70
90
-53
22
70
-95
-43
77
-77
0
-43
-90
-62
-53
0
22
-43
-11
-62
-84
-43
-22
-22
-53
-104
-125
43
-104
-33
-43
-90
-123
-117
-11
62
-62
43
-70
-11
43
-111
-53
-11
-43
22
-70
11
-43
-95
0
70
0
-113
-95
-84
-33
-62
-90
-122
-11
-84
0
-90
111
-70
0
-62
-11
0
33
-11
-90
-53
62
-120
-84
-77
-84
-43
-33
11
62
-100
-11
-120
-11
-43
-90
-11
-43
0
62
-33
-100
-70
-124
11
-119
11
33
-84
-53
-53
-62
11
-22
-77
-53
-43
33
-108
-111
-53
22
22
-90
-77
-62
-70
-111
-33
-22
-120
-100
-70
33
-22
-43
-53
-53
100
-100
-53
-33
11
43
-53
43
90
-104
22
-43
-100
-53
-62
-43
-22
-70
0
43
0
0
-90
11
-119
-53
-120
-77
-62
-100
-70
33
-22
0
-126
-113
-43
77
-77
-70
-77
22
-84
-53
-108
116
-84
-77
-62
-84
22
0
0
33
-43
-108
22
-108
11
0
-22
-11
22
-77
22
-33
-53
-33
-33
-122
0
-11
77
-11
-127
-84
-62
0
-33
-77
-11
-95
0
-84
-113
-33
-43
-119
-84
-108
-77
-124
-62
70
43
22
-53
22
-90
11
84
-70
-111
22
43
53
-104
-53
-77
-43
-53
-84
-84
100
-70
-100
-111
-90
-100
11
-43
-11
-62
-100
-22
11
-33
77
0
11
53
33
-33
43
33
-70
-43
-33
-62
11
33
70
-90
-104
33
-53
22
43
-43
-120
22
-77
-111
-33
90
0
-22
-22
-122
-33
43
-84
-62
22
-43
-62
43
-70
-100
-53
-90
-62
-11
-70
-104
33
0
-117
-53
43
-122
43
-117
-119
-62
-53
-90
-22
33
-100
-90
-77
-22
-43
-22
-22
-104
0
-33
-11
-104
-90
-100
0
-22
0
22
-100
-62
-53
-90
-95
53
-117
11
0
53
43
-62
-62
-43
-77
-43
-124
-11
11
-43
-22
-22
-104
-126
-11
33
-70
22
0
-33
-124
-77
22
-84
-100
22
90
-22
-22
22
0
-43
-111
-90
-11
-126
62
33
0
0
-43
-33
-62
-84
-43
11
-43
-33
-53
-84
-22
-33
-53
-104
43
-53
-95
-62
-43
11
43
-11
-33
43
-104
-95
-22
-22
-11
11
-43
-90
-11
-90
-104
-43
-22
-22
-104
77
-84
-116
62
11
0
-95
-104
-84
-108
0
-22
-90
-104
-62
-77
-84
-22
-77
-53
-90
-11
11
-53
-43
-11
33
-90
-43
-43
0
33
-62
-22
11
-70
-53
-62
-53
11
-100
-11
-84
11
53
-22
-11
77
-62
-53
11
-84
-43
-70
-11
33
-90
-104
-11
-22
11
-53
-104
-95
-62
-77
11
-11
62
-84
-100
33
11
-84
11
-124
0
-22
-90
-95
-22
-43
-104
11
-90
-11
22
-117
-62
-111
-70
33
43
22
-62
22
-84
-77
-22
-43
-22
70
-43
-11
-53
22
33
-124
-43
-11
-90
-77
-77
0
43
-100
62
-113
-43
-62
33
-90
-11
43
-70
0
-70
-43
-22
22
-70
-33
33
70
43
-43
-119
22
-22
-43
33
-62
-84
-120
33
-84
-119
-90
11
-11
-70
-11
-90
-116
-62
-70
70
95
-43
-33
0
-53
-125
-104
-84
-70
-84
43
22
-53
-113
-53
-11
53
-100
62
-77
-84
-116
-11
-53
-53
33
-53
-22
-95
-62
-11
43
53
-108
-90
0
-70
-62
-11
-53
-22
33
-111
-62
-116
-43
22
-53
-22
-22
0
-33
-77
-62
70
77
-84
-70
-33
-95
-22
-11
-77
53
11
-70
-90
22
-62
-113
-43
11
-11
-111
-11
-84
-77
-77
-113
-62
11
-116
-90
-84
-100
-43
-43
-22
-11
-70
90
-53
22
84
-95
-53
77
-70
-22
-33
-95
-70
-53
11
22
-33
-11
-53
-84
-43
-11
-22
-53
-104
-125
43
-104
-33
-53
-90
-119
-117
-22
62
-62
43
-70
0
43
-111
-53
-11
-43
22
-70
11
-43
-90
0
70
0
-113
-90
-84
-22
-53
-90
-120
-22
-84
0
-90
113
-77
0
-43
-11
-11
22
-11
-95
-43
62
-120
-84
-77
-84
-43
-33
11
70
-95
-11
-120
-22
-33
-95
0
-62
0
53
-33
-100
-70
-124
11
-120
0
22
-77
-43
-62
-62
11
-22
-84
-53
-43
22
-108
-108
-43
11
22
-90
-77
-62
-77
-113
-33
-11
-120
-100
-70
33
-11
-43
-53
-53
100
-95
-53
-33
11
43
-43
33
90
-104
22
-43
-100
-53
-53
-43
-22
-53
0
62
0
0
-84
11
-117
-43
-122
-77
-53
-95
-70
33
-11
0
-126
-113
-43
84
-77
-62
-77
22
-77
-62
-104
113
-84
-90
-70
-90
33
0
-11
43
-43
-111
43
-100
11
0
-62
-11
22
-77
0
-22
-70
-33
-62
-122
0
0
77
-22
-127
-84
-70
-11
-33
-70
-11
-95
0
-84
-113
-43
-43
-119
-90
-108
-84
-125
-62
70
53
22
-53
33
-95
22
84
-70
-111
22
53
62
-104
-53
-77
-43
-53
-95
-77
100
-70
-100
-111
-84
-100
11
-22
-11
-53
-95
-22
11
-22
77
0
11
53
33
-33
43
33
-70
-53
-33
-70
11
33
70
-90
-104
22
-53
11
53
-53
-120
22
-77
-111
-33
90
0
-22
-11
-122
-43
53
-84
-62
22
-33
-53
43
-70
-100
-53
-90
-62
-11
-70
-104
33
0
-117
-33
43
-122
53
-117
-119
-62
-62
-90
-11
33
-95
-90
-77
-22
-43
-33
-22
-108
0
-33
0
-104
-90
-100
0
-33
11
22
-100
-62
-62
-90
-90
53
-117
11
11
53
43
-70
-62
-43
-70
-43
-124
-11
11
-43
-22
-22
-104
-126
-11
22
-62
22
11
-43
-124
-77
22
-84
-100
22
90
-22
-22
33
11
-43
-108
-90
-33
-126
62
22
0
-11
-43
-53
-70
-90
-43
11
-43
-33
-62
-84
-53
-33
-62
-104
43
-43
-95
-62
-43
11
43
-11
-33
43
-104
-95
-22
-22
-11
11
-43
-77
-11
-90
-104
-33
-22
-22
-104
77
-84
-116
62
11
0
-90
-104
-90
-104
0
-11
-90
-100
-62
-77
-84
-22
-77
-43
-90
-11
11
-62
-43
-11
33
-90
-43
-22
11
43
-70
-22
11
-62
-53
-62
-53
11
-100
-11
-84
11
43
-33
-11
77
-70
-43
11
-70
-43
-70
11
33
-84
-104
-11
-22
22
-62
-100
-90
-62
-77
11
-11
53
-84
-100
33
11
-84
11
-124
0
-22
-90
-90
-22
-43
-104
11
-90
-11
22
-117
-62
-111
-70
33
43
0
-53
33
-90
-62
-22
-43
-11
70
-43
-11
-53
22
22
-124
-43
-11
-90
-77
-77
0
43
-95
62
-116
-43
-62
22
-90
-11
43
-62
0
-70
-62
-22
22
-70
-33
33
70
43
-43
-119
22
-43
-53
33
-70
-84
-122
43
-70
-119
-95
22
-11
-70
-11
-95
-116
-62
-70
70
95
-43
-33
0
-62
-125
-100
-84
-77
-77
43
22
-53
-113
-53
0
62
-104
62
-77
-84
-116
-11
-53
-53
33
-53
-22
-95
-62
-11
43
53
-108
-90
-11
-62
-62
-11
-62
0
33
-113
-70
-116
-43
11
-53
-22
-22
0
-33
-84
-62
62
77
-90
-77
-43
-90
-22
-11
-77
53
11
-53
-95
22
-53
-113
-43
11
-11
-95
-11
-84
-77
-84
-111
-43
11
-116
-84
-84
-100
-43
-43
-22
-11
-70
90
-53
22
70
-95
-53
70
-70
-11
-43
-90
-70
-53
0
22
-33
-11
-70
-84
-43
-22
-22
-43
-104
-125
43
-100
-33
-70
-90
-117
-117
-11
62
-62
43
-70
-11
33
-111
-62
-11
-43
33
-70
11
-43
-95
0
70
0
-113
-95
-84
-22
-62
-90
-122
-22
-84
0
-90
116
-84
0
-53
-11
-11
22
-11
-95
-33
62
-120
-84
-77
-84
-43
-33
22
70
-95
-11
-120
-11
-33
-95
11
-62
-11
53
-33
-100
-70
-124
11
-120
0
43
-84
-33
-62
-62
11
-22
-84
-33
-43
22
-108
-108
-62
11
22
-90
-77
-62
-77
-111
-33
-11
-120
-100
-70
22
0
-43
-53
-53
100
-95
-43
-33
11
43
-53
33
90
-104
11
-43
-100
-53
-53
-43
-22
-70
0
62
0
0
-84
0
-117
-53
-122
-77
-53
-100
-70
33
-22
0
-126
-113
-43
84
-77
-62
-77
22
-84
-53
-104
113
-84
-84
-77
-90
33
0
-11
43
-43
-111
33
-100
11
-11
-70
-11
22
-77
0
-33
-70
-33
-70
-122
0
0
77
-22
-127
-84
-77
-11
-33
-70
-11
-95
0
-77
-113
-43
-43
-119
-95
-108
-84
-125
-70
77
43
22
-53
33
-95
11
84
-70
-111
22
53
53
-104
-53
-77
-43
-53
-95
-77
100
-70
-100
-111
-84
-100
11
-22
-11
-53
-95
-22
11
-22
77
0
11
53
33
-33
43
22
-70
-53
-33
-62
11
33
70
-90
-104
22
-53
22
53
-43
-120
22
-77
-111
-33
90
0
-22
-11
-122
-43
53
-84
-70
22
-33
-53
43
-70
-100
-53
-90
-62
0
-70
-104
33
0
-117
-33
43
-122
53
-116
-119
-62
-70
-90
-11
33
-100
-90
-77
-22
-43
-22
-22
-108
0
-33
0
-104
-90
-100
0
-33
0
33
-100
-62
-53
-90
-90
53
-117
11
11
53
43
-70
-62
-53
-70
-43
-124
-11
22
-43
-22
-22
-104
-126
-11
33
-77
22
0
-43
-124
-62
22
-84
-100
22
90
-22
-22
33
-11
-43
-108
-90
-22
-126
62
22
0
-22
-43
-70
-62
-84
-53
11
-43
-33
-70
-84
-53
-33
-53
-104
43
-53
-95
-53
-53
11
43
-11
-33
43
-104
-95
-22
-22
-11
11
-43
-77
-11
-90
-104
-33
-22
-22
-104
70
-84
-116
62
11
11
-90
-104
-84
-104
0
-22
-90
-100
-62
-77
-84
-22
-77
-33
-90
-11
11
-62
-43
-11
33
-90
-53
-33
11
43
-62
-22
11
-62
-53
-62
-62
11
-100
0
-84
11
53
11
-11
77
-62
-43
11
-77
-43
-70
11
33
-90
-104
-22
-22
22
-62
-100
-90
-62
-77
11
-11
53
-84
-95
33
11
-84
11
-124
0
-22
-90
-90
-22
-43
-104
11
-90
-11
22
-117
-70
-111
-70
33
43
11
-53
33
-95
-77
-22
-43
-22
70
-43
-11
-53
22
33
-124
-43
-11
-90
-84
-77
0
43
-95
62
-116
-43
-70
22
-90
-11
43
-62
0
-70
-62
-22
22
-70
-33
33
70
43
-43
-119
22
-33
-53
33
-62
-84
-122
43
-62
-119
-95
22
-11
-70
-11
-95
-116
-53
-70
70
95
-33
-33
0
-70
-125
-100
-84
-77
-77
43
22
-53
-113
-53
-11
62
-104
62
-77
-84
-116
-11
-53
-53
33
-53
-22
-95
-62
-11
43
53
-108
-90
-11
-62
-62
-11
-62
-11
33
-113
-70
-116
-43
22
-43
-33
-22
0
-33
-84
-62
62
77
-90
-84
-43
-95
-22
-11
-77
53
22
-43
-95
22
-62
-113
-53
11
-22
-104
-11
-84
-77
-84
-111
-43
11
-116
-77
-84
-100
-43
-43
-11
-11
-70
90
-53
22
70
-95
-53
77
-70
-11
-43
-90
-62
-43
0
22
-33
-11
-62
-84
-43
-11
-22
-43
-108
-125
43
-100
-33
-62
-90
-116
-117
0
62
-62
43
-70
0
33
-111
-62
-11
-43
33
-70
11
-43
-90
11
70
11
-113
-95
-84
-33
-62
-90
-122
-33
-84
0
-90
116
-84
0
-33
-11
-11
33
-11
-95
-43
62
-120
-84
-77
-84
-43
-33
22
70
-95
-11
-120
-11
-33
-95
11
-62
0
62
-33
-100
-62
-124
11
-120
0
43
-62
-33
-62
-62
11
-22
-84
-53
-43
22
-108
-111
-53
11
11
-90
-77
-62
-77
-111
-33
0
-120
-100
-70
22
0
-43
-53
-53
100
-95
-53
-33
11
43
-53
33
90
-104
11
-43
-100
-53
-62
-43
-22
-53
0
53
0
0
-77
-22
-117
-43
-122
-77
-53
-100
-77
22
-22
0
-126
-113
-43
84
-77
-62
-77
22
-95
-53
-104
113
-84
-90
-70
-84
33
0
-11
43
-43
-111
33
-100
11
-11
-70
-11
33
-77
-11
-33
-62
-33
-84
-122
0
-11
84
-22
-127
-77
-70
-11
-33
-70
-11
-95
0
-84
-113
-43
-43
-119
-95
-108
-84
-125
-62
77
43
22
-53
33
-95
22
84
-70
-111
22
53
62
-104
-53
-77
-43
-53
-95
-77
100
-70
-100
-111
-84
-100
11
-22
-11
-62
-95
-22
11
-22
77
0
11
62
33
-22
43
22
-70
-53
-33
-70
11
33
70
-90
-104
22
-53
22
53
-43
-120
22
-84
-111
-33
90
0
-22
-22
-122
-43
33
-84
-62
22
-43
-53
43
-70
-100
-53
-90
-53
0
-70
-100
33
0
-117
-33
43
-122
53
-116
-119
-62
-70
-90
-11
33
-100
-90
-77
-22
-43
-33
-22
-108
0
-33
0
-104
-95
-100
0
-33
0
33
-104
-62
-43
-90
-90
53
-119
11
11
53
43
-62
-62
-43
-62
-43
-124
-11
11
-43
-33
-22
-104
-126
-11
33
-77
22
0
-43
-124
-62
22
-84
-100
22
90
-22
-22
33
11
-33
-108
-90
-33
-126
62
22
0
-22
-43
-62
-62
-84
-53
11
-43
-33
-62
-77
-22
-33
-62
-104
43
-53
-95
-62
-53
11
43
-11
-33
43
-104
-95
-22
-22
-11
11
-43
-77
-11
-90
-104
-33
-22
-22
-104
70
-84
-116
62
11
0
-90
-104
-77
-100
0
-11
-90
-100
-53
-77
-84
-22
-77
-53
-90
-11
11
-62
-43
-11
33
-90
-53
-33
0
43
-70
-22
11
-62
-53
-62
-62
22
-100
0
-84
11
53
0
0
77
-62
-43
11
-77
-43
-70
11
33
-90
-108
-22
-22
11
-62
-100
-90
-62
-77
11
0
53
-84
-95
33
11
-84
11
-124
0
-22
-90
-90
-22
-43
-104
11
-90
-11
22
-117
-70
-111
-70
33
43
0
-62
33
-95
-84
-22
-43
-11
70
-43
0
-53
22
22
-124
-43
-11
-90
-84
-77
0
43
-104
62
-116
-43
-62
33
-90
-11
43
-62
0
-70
-62
-22
11
-70
-33
33
70
43
-43
-119
22
-33
-43
33
-70
-84
-122
43
-62
-117
-100
22
-11
-62
-11
-95
-116
-53
-70
70
95
-33
-33
0
-53
-125
-100
-84
-77
-77
43
22
-53
-113
-62
-11
62
-104
62
-77
-84
-116
-11
-53
-53
33
-53
-22
-95
-62
-11
43
53
-108
-90
-11
-62
-62
-11
-62
0
33
-111
-70
-116
-33
22
-43
-22
-22
0
-33
-84
-62
62
77
-90
-70
-43
-90
-33
-11
-77
53
11
-43
-95
22
-62
-113
-43
11
-22
-104
-11
-84
-77
-84
-111
-53
11
-116
-77
-84
-100
-43
-43
-11
-11
-70
90
-53
22
70
-95
-53
70
-70
0
-43
-90
-62
-53
11
22
-33
0
-53
-77
-43
-11
-22
-43
-104
-125
43
-100
-33
-62
-90
-117
-117
-22
62
-62
43
-77
-11
33
-111
-62
-11
-43
33
-70
11
-43
-90
11
70
0
-113
-95
-84
-22
-62
-90
-122
-22
-84
0
-84
116
-77
11
-53
-11
-11
22
-11
-95
-43
62
-120
-84
-77
-84
-33
-33
22
70
-95
-11
-120
-11
-33
-95
0
-62
11
62
-33
-100
-62
-124
11
-120
11
43
-62
-33
-62
-62
11
-22
-77
-53
-43
22
-108
-108
-53
11
22
-90
-77
-62
-77
-111
-33
0
-120
-100
-70
22
0
-43
-53
-53
100
-95
-53
-33
11
43
-53
33
90
-104
11
-43
-100
-53
-53
-43
-22
-70
0
53
0
0
-84
0
-117
-43
-122
-77
-53
-100
-70
33
-11
11
-126
-113
-43
84
-77
-62
-77
22
-95
-53
-104
113
-84
-84
-62
-84
33
0
-11
43
-43
-111
33
-100
11
-11
-70
-11
33
-77
0
-33
-70
-33
-84
-122
0
-11
84
-33
-127
-77
-70
-11
-33
-70
-11
-95
0
-90
-113
-43
-43
-120
-95
-108
-84
-125
-62
77
43
22
-53
33
-95
22
84
-70
-113
22
53
62
-100
-53
-77
-33
-53
-95
-77
100
-70
-100
-111
-84
-100
11
-22
-11
-62
-95
-22
11
-22
77
0
11
53
33
-22
43
22
-70
-53
-33
-70
11
33
70
-90
-104
22
-53
22
53
-53
-120
22
-77
-111
-33
90
0
-22
-11
-122
-43
53
-84
-70
22
-33
-53
43
-70
-100
-53
-90
-53
0
-70
-104
33
0
-117
-33
43
-122
53
-116
-119
-62
-62
-90
-22
33
-100
-90
-77
-22
-43
-22
-22
-108
0
-33
0
-104
-90
-100
0
-33
11
33
-104
-62
-43
-90
-90
53
-119
11
11
53
43
-62
-62
-53
-70
-53
-124
-11
11
-43
-22
-11
-104
-126
-11
33
-70
11
11
-43
-124
-62
22
-84
-100
22
90
-22
-22
33
0
-43
-108
-90
-22
-126
62
22
0
-22
-43
-53
-62
-90
-53
11
-43
-22
-62
-84
-43
-33
-53
-104
43
-53
-95
-62
-43
11
43
-11
-33
43
-104
-95
-22
-22
-11
11
-43
-77
-11
-90
-104
-33
-22
-22
-104
77
-90
-116
62
11
11
-90
-104
-90
-100
0
-11
-90
-100
-53
-77
-84
-22
-77
-53
-90
-11
22
-62
-43
-11
33
-90
-53
-22
11
33
-70
-22
11
-70
-53
-62
-62
22
-100
0
-84
11
53
-43
0
77
-62
-43
11
-77
-43
-70
11
33
-90
-108
-22
-22
22
-62
-104
-95
-62
-77
11
0
53
-84
-100
33
11
-77
11
-124
0
-22
-90
-90
-22
-43
-104
11
-90
-22
22
-117
-70
-111
-70
33
43
11
-53
33
-95
-77
-22
-43
-11
70
-33
0
-53
22
33
-124
-43
-11
-90
-77
-77
0
43
-100
62
-116
-43
-62
22
-90
-11
43
-62
0
-70
-53
-22
22
-70
-33
43
70
43
-43
-117
22
-33
-43
33
-70
-84
-122
43
-62
-117
-100
11
-22
-70
-11
-95
-116
-62
-70
70
95
-22
-33
0
-53
-126
-100
-84
-77
-77
43
22
-62
-113
-53
-11
53
-104
62
-77
-84
-116
-11
-53
-53
33
-53
-22
-95
-62
-11
43
53
-108
-90
-11
-62
-62
-11
-62
-22
33
-113
-70
-116
-43
22
-53
-22
-22
0
-33
-84
-62
62
77
-90
-77
-43
-90
-33
-11
-77
53
11
-43
-95
33
-43
-113
-53
11
-22
-100
-11
-84
-77
-84
-111
-53
11
-113
-77
-84
-100
-43
-43
-11
-11
-70
90
-43
11
77
-95
-53
77
-70
-11
-43
-95
-62
-53
0
22
-33
-22
-53
-77
-43
-11
-22
-43
-104
-125
43
-100
-33
-62
-90
-117
-117
-11
62
-62
43
-77
-11
33
-111
-53
-11
-43
33
-70
11
-43
-90
0
70
0
-113
-90
-84
-22
-62
-90
-122
-22
-84
-11
-90
116
-77
11
-43
-11
-11
33
-11
-95
-43
62
-120
-84
-77
-84
-43
-33
22
70
-95
-11
-120
-11
-33
-95
0
-70
0
62
-33
-100
-62
-124
11
-122
11
43
-84
-33
-62
-62
11
-22
-77
-62
-53
22
-108
-108
-62
11
22
-90
-77
-62
-77
-111
-33
0
-120
-100
-70
22
0
-43
-53
-53
100
-95
-53
-33
11
43
-53
33
90
-104
11
-43
-100
-53
-53
-43
-22
-62
0
53
0
0
-84
-11
-117
-43
-122
-77
-53
-100
-70
33
-22
11
-126
-113
-43
84
-77
-62
-77
22
-90
-53
-104
116
-84
-84
-70
-84
43
0
-11
33
-43
-111
33
-95
11
-11
-70
-11
33
-77
-11
-33
-62
-33
-70
-122
11
-11
84
-33
-127
-77
-62
-11
-43
-70
-11
-95
0
-84
-113
-43
-43
-119
-95
-108
-84
-125
-62
77
43
22
-53
33
-95
22
84
-70
-111
22
53
62
-100
-53
-77
-43
-53
-95
-77
100
-70
-100
-111
-84
-104
0
-22
-11
-62
-95
-22
11
-22
77
-11
11
53
33
-33
43
22
-70
-53
-33
-70
11
33
70
-90
-108
22
-53
11
53
-43
-120
22
-77
-111
-33
90
0
-22
-11
-122
-43
43
-84
-70
22
-33
-53
43
-70
-100
-43
-84
-53
0
-70
-104
33
0
-117
-53
43
-122
53
-116
-119
-62
-53
-90
-11
33
-100
-90
-77
-22
-43
-33
-22
-108
0
-33
0
-100
-90
-100
0
-22
11
22
-104
-62
-43
-90
-90
53
-117
11
0
53
43
-62
-62
-43
-70
-43
-124
-11
11
-43
-33
-33
-104
-126
-11
22
-70
11
11
-43
-124
-70
22
-84
-104
22
90
-22
-22
33
0
-33
-108
-90
-22
-126
62
22
0
-22
-33
-53
-62
-84
-53
11
-43
-33
-62
-84
-43
-33
-62
-104
43
-53
-95
-70
-53
11
43
-11
-33
43
-104
-95
-22
-33
22
11
-43
-77
-11
-90
-104
-33
-22
-22
-104
77
-84
-116
62
11
0
-90
-104
-84
-104
0
-11
-90
-100
-53
-77
-84
-22
-77
-33
-90
-22
22
-53
-43
-11
33
-90
-43
-33
11
33
-62
-22
11
-62
-53
-62
-62
11
-100
0
-84
11
43
11
0
77
-62
-43
11
-77
-43
-70
11
33
-90
-104
-22
-22
22
-62
-100
-100
-62
-77
11
0
53
-84
-95
33
11
-77
11
-124
0
-22
-90
-90
-22
-43
-108
11
-90
-33
22
-117
-62
-111
-70
33
43
0
-53
33
-95
-70
-22
-43
0
70
-33
0
-53
22
22
-124
-43
-11
-84
-84
-77
0
43
-100
62
-116
-43
-70
33
-90
-11
43
-62
0
-70
-53
-22
33
-70
-33
43
70
43
-43
-117
22
-53
-43
33
-70
-84
-122
43
-70
-117
-95
22
-11
-70
-11
-95
-116
-62
-77
70
95
-22
-33
0
-53
-126
-100
-84
-77
-77
43
11
-62
-113
-53
-11
62
-104
62
-77
-84
-116
-11
-53
-53
33
-53
-22
-95
-62
-22
43
53
-108
-90
-11
-62
-62
-11
-70
0
22
-113
-70
-116
-43
22
-43
-33
-22
0
-22
-84
-62
62
77
-90
-84
-43
-90
-33
-11
-77
53
11
-43
-95
33
-62
-113
-43
11
-22
-95
-11
-84
-77
-84
-113
-53
11
-113
-84
-84
-100
-43
-43
-11
-11
-70
90
-62
11
70
-95
-53
70
-70
-11
-43
-90
-62
-43
-11
22
-33
-11
-62
-84
-43
-11
-22
-53
-104
-125
43
-100
-33
-62
-95
-117
-117
-11
62
-62
43
-77
-11
33
-111
-53
-11
-43
33
-70
11
-43
-90
0
70
0
-113
-95
-84
-33
-53
-90
-122
-22
-84
0
-84
113
-84
0
-53
-11
-11
33
-11
-95
-43
62
-120
-84
-77
-84
-43
-33
22
70
-95
-11
-120
-11
-33
-95
0
-53
0
62
-33
-100
-62
-124
11
-122
0
43
-77
-33
-62
-62
11
-22
-77
-53
-53
22
-108
-108
-53
11
22
-90
-77
-62
-77
-111
-33
0
-120
-95
-62
22
-11
-43
-62
-53
100
-95
-53
-33
11
43
-53
43
90
-104
11
-43
-100
-53
-62
-43
-22
-62
0
62
0
0
-84
0
-117
-43
-122
-77
-53
-100
-70
33
-33
0
-126
-116
-43
90
-77
-62
-77
22
-77
-53
-104
113
-84
-90
-77
-84
33
0
0
33
-43
-111
33
-100
11
-11
-70
-11
22
-77
-11
-33
-70
-33
-70
-122
0
-11
84
-33
-127
-77
-53
-11
-43
-70
-11
-95
0
-77
-113
-43
-43
-119
-95
-108
-84
-125
-70
77
43
22
-53
33
-95
11
84
-70
-111
22
53
53
-104
-53
-77
-43
-53
-95
-70
100
-70
-100
-111
-90
-104
11
-22
-11
-53
-95
-22
11
-22
77
0
11
53
33
-33
43
22
-70
-53
-22
-70
11
33
70
-90
-104
22
-62
22
53
-43
-120
33
-84
-111
-33
90
0
-22
-11
-122
-43
43
-84
-70
22
-33
-53
43
-70
-100
-53
-90
-62
0
-70
-100
33
0
-117
-33
43
-122
53
-116
-119
-62
-62
-90
-11
33
-95
-90
-77
-22
-43
-22
-22
-108
0
-33
0
-104
-95
-100
0
-43
11
22
-100
-62
-43
-90
-90
53
-117
11
11
53
43
-70
-62
-53
-70
-43
-124
-11
11
-43
-33
-33
-104
-126
-11
22
-70
22
11
-43
-124
-84
22
-84
-104
22
90
-22
-22
33
0
-33
-108
-90
-22
-126
62
22
0
-22
-33
-62
-62
-90
-53
11
-43
-33
-62
-84
-43
-33
-53
-104
43
-53
-95
-62
-53
11
43
-11
-33
43
-104
-95
-22
-33
-11
11
-43
-84
-11
-90
-104
-33
-11
-22
-104
77
-84
-116
62
11
11
-90
-104
-84
-104
0
0
-90
-100
-53
-77
-77
-22
-77
-33
-90
-22
22
-70
-43
-11
33
-90
-43
-33
11
43
-62
-22
11
-62
-53
-62
-62
11
-100
0
-84
11
43
0
0
77
-62
-43
11
-70
-43
-70
11
33
-90
-104
-22
-22
33
-62
-100
-95
-62
-77
11
0
53
-84
-95
33
11
-77
11
-124
0
-22
-90
-90
-22
-43
-108
11
-95
-22
22
-117
-43
-111
-70
33
43
11
-62
43
-95
-62
-22
-43
-11
70
-43
0
-53
22
33
-124
-43
-11
-90
-84
-77
0
43
-100
62
-113
-43
-70
22
-90
-11
43
-62
0
-70
-62
-22
22
-70
-33
43
70
43
-43
-117
22
-22
-53
33
-70
-84
-122
43
-70
-117
-95
22
-11
-70
-11
-90
-116
-62
-77
70
95
-22
-33
0
-53
-125
-100
-84
-77
-77
43
11
-62
-113
-53
-11
62
-104
62
-77
-84
-116
-11
-62
-53
33
-53
-22
-95
-62
-11
43
53
-108
-90
-11
-62
-62
0
-70
-11
33
-113
-70
-116
-43
22
-43
-33
-22
0
-33
-84
-62
62
77
-90
-77
-33
-90
-33
-11
-77
53
22
-43
-95
22
-53
-113
-43
11
-22
-104
-11
-84
-77
-84
-113
-43
11
-116
-77
-84
-100
-43
-43
-11
-11
-70
90
-43
22
70
-100
-53
77
-70
-11
-43
-90
-62
-53
-11
22
-33
-22
-70
-84
-43
-11
-22
-43
-104
-125
43
-100
-33
-62
-90
-117
-117
-11
62
-62
43
-70
0
33
-111
-62
0
-43
33
-70
22
-53
-90
0
70
0
-113
-95
-84
-33
-53
-90
-122
-22
-84
0
-90
113
-84
0
-33
-11
-11
33
-11
-95
-43
62
-120
-84
-77
-84
-43
-33
22
70
-95
-11
-120
-11
-33
-90
0
-53
0
62
-33
-100
-62
-124
11
-122
0
53
-53
-33
-53
-62
11
-22
-84
-53
-53
22
-108
-108
-53
11
22
-90
-77
-62
-77
-111
-33
0
-120
-100
-62
22
0
-53
-62
-53
100
-95
-53
-33
11
43
-53
43
90
-104
11
-43
-100
-53
-53
-43
-22
-62
0
53
0
0
-84
0
-117
-43
-122
-77
-53
-100
-70
33
-33
0
-126
-111
-43
84
-77
-62
-77
22
-90
-53
-104
113
-84
-90
-70
-90
43
0
-11
33
-43
-111
33
-95
11
0
-70
-11
22
-77
0
-33
-70
-33
-77
-122
0
-11
84
-33
-127
-77
-53
-11
-33
-70
-11
-95
0
-84
-113
-43
-43
-119
-95
-108
-84
-125
-70
77
43
22
-53
33
-95
11
84
-70
-111
22
53
62
-104
-53
-77
-33
-53
-95
-77
100
-70
-100
-111
-90
-104
11
-11
-11
-53
-95
-22
11
-33
77
-11
11
53
33
-22
43
22
-70
-62
-33
-53
11
33
70
-90
-104
22
-70
22
53
-43
-122
22
-77
-111
-33
90
0
-22
0
-122
-43
43
-77
-62
22
-33
-53
43
-70
-100
-43
-90
-53
0
-70
-95
33
0
-117
-33
43
-123
53
-117
-119
-62
-62
-90
-11
33
-95
-90
-77
-11
-43
-33
-22
-108
0
-33
-11
-104
-95
-100
0
-22
11
22
-95
-62
-53
-90
-90
53
-117
11
0
53
53
-70
-62
-53
-77
-11
-124
-11
0
-43
-33
-33
-104
-126
-11
22
-77
22
11
-43
-124
-77
22
-84
-100
22
90
-22
-22
22
0
-43
-108
-90
-22
-126
62
22
0
-11
-33
-84
-62
-84
-53
11
-43
-33
-62
-84
-43
-33
-62
-104
43
-53
-95
-43
-43
11
43
-22
-22
43
-104
-95
-33
-33
22
11
-43
-84
-11
-84
-104
-33
-11
-22
-104
77
-77
-116
62
11
0
-95
-104
-77
-104
0
-11
-90
-100
-43
-77
-77
-22
-77
-22
-84
-11
22
-77
-43
-11
33
-90
-53
-33
11
43
-62
-22
11
-62
-62
-62
-53
11
-100
0
-84
0
43
0
0
77
-62
-43
11
-77
-43
-70
11
33
-90
-104
-11
-22
33
-62
-90
-100
-62
-77
11
0
53
-84
-100
33
11
-70
11
-124
0
-22
-90
-90
-22
-43
-104
11
-90
-22
22
-117
-53
-111
-70
43
43
0
-53
33
-95
-53
-22
-43
-11
70
-43
0
-53
22
22
-124
-43
-11
-84
-84
-77
0
43
-100
62
-113
-53
-70
11
-90
-11
43
-62
0
-70
-62
-33
43
-70
-33
33
70
43
-43
-117
22
-53
-53
33
-70
-84
-122
43
-70
-117
-100
11
-22
-53
0
-95
-116
-62
-77
70
95
-22
-33
0
-53
-125
-100
-84
-84
-77
43
22
-62
-113
-62
-11
62
-104
62
-77
-84
-116
-11
-62
-53
43
-53
-22
-95
-62
-11
43
53
-111
-90
-11
-62
-62
-11
-62
-11
22
-113
-70
-116
-33
22
-43
-33
-22
-11
-33
-84
-70
62
77
-90
-77
-33
-95
-33
-11
-77
53
11
-62
-95
22
-53
-113
-43
11
-11
-95
-11
-84
-77
-84
-113
-43
11
-113
-62
-84
-100
-43
-43
-22
-11
-70
90
-53
22
70
-100
-53
70
-70
-11
-43
-90
-62
-62
0
22
-33
-11
-53
-90
-43
-11
-22
-43
-104
-125
53
-100
-43
-62
-84
-116
-117
-11
62
-62
43
-70
-11
33
-111
-53
-11
-43
33
-70
11
-53
-90
11
62
0
-113
-95
-84
-22
-53
-90
-122
-33
-84
0
-90
111
-84
0
-53
-11
-11
22
-11
-95
-43
62
-120
-84
-77
-84
-33
-33
22
62
-95
-22
-120
-11
-33
-90
0
-62
0
62
-33
-100
-62
-125
11
-120
0
53
-43
-43
-53
-62
11
-22
-77
-43
-53
22
-108
-108
-62
33
22
-90
-77
-62
-77
-113
-22
0
-120
-95
-62
22
-11
-53
-53
-53
100
-95
-43
-33
11
33
-62
33
90
-104
11
-43
-100
-53
-53
-53
-22
-53
0
53
0
0
-84
0
-117
-53
-122
-77
-53
-100
-70
22
-22
0
-126
-116
-43
77
-77
-70
-77
22
-90
-53
-104
111
-84
-90
-70
-84
33
11
0
33
-43
-111
22
-95
11
0
-77
-11
33
-77
0
-22
-70
-33
-95
-122
11
-11
84
-33
-127
-77
-62
-11
-43
-70
-11
-95
0
-84
-113
-43
-43
-119
-95
-108
-84
-125
-70
77
43
22
-53
43
-95
11
84
-77
-111
22
62
53
-100
-53
-77
-33
-53
-100
-77
100
-70
-100
-111
-95
-100
11
-22
-11
-70
-90
-22
0
-33
77
-11
11
53
33
-33
43
33
-70
-11
-43
-70
11
-22
70
-90
-100
22
-53
22
53
-53
-120
22
-77
-111
-33
84
0
-22
11
-122
-22
62
-84
-62
22
-33
-62
43
-70
-100
-53
-95
-62
-22
-77
-95
43
0
-119
-33
43
-123
53
-117
-119
-62
-53
-84
0
33
-100
-90
-62
-22
-43
-22
-33
-108
0
-33
-11
-108
-100
-100
0
-43
0
33
