1369
-27587
-12913
-13345
-26689
7827
5954
2429
-16518
-19846
1994
30563
2290
-13068
-19667
-32971
-21938
14446
-9366
8092
-17677
24367
-22117
2662
-12299
-16081
80378
-2573
2094
-32612
-23494
5032
-11690
-11868
-10600
-28196
6170
-23336
-22221
34829
-20406
-22741
8090
-19065
-6506
-28479
-5430
-20060
-2447
2800
-23629
-18938
11872
-29640
-6563
-19372
38253
-33058
-15757
-29658
-10544
169
1621
-3003
-27638
8032
-4836
3805
-7089
-21921
5841
9568
-552
-16613
13224
-29070
2294
13887
-31117
6715
12153
29770
-14854
10098
6041
-2114
5229
-2614
-14952
22992
-2249
-23376
9724
-15301
31642
20460
12354
9945
8518
-4350
-23822
-18383
14670
8840
-9679
-1319
-27409
-27778
-6838
22177
14724
13721
6124
-10958
-14915
19508
-21995
-11338
3983
-7241
-27164
-21769
-30896
566
-11705
-19368
-13585
40193
13159
-16052
-3117
-12096
-12692
-11925
-14436
-9271
-523
-38628
-21016
-17618
-32189
-10297
-20511
-12366
-24271
-29299
-17515
3991
3277
-1461
-29582
-52107
-3928
-6926
20746
-29593
-17134
26086
-22412
24487
-16319
-4389
-15559
12155
-28585
-22664
-13828
-7062
17411
-24757
2634
-13803
-8763
34279
4481
-3789
9359
-21993
17000
-23996
5959
-27371
-17497
-15823
10922
-30815
-17808
3540
-33344
-15352
-1261
-39236
-17418
-5377
-2084
7451
-11379
-2512
-26404
-10418
-2551
-51984
-17978
16142
21710
-3229
-8099
-3942
-22224
-19059
-10668
44865
5377
-23794
-25226
-40491
-605
-25689
12141
-32315
-332
-6456
-26801
15222
-10278
37171
22700
-23947
12390
18992
34141
-36470
-14748
18260
-25861
5535
-18646
-11227
-1756
-7903
-17920
-34569
13392
-6912
-18190
-13788
11156
-22631
2787
-4435
-15536
4853
1578
-13247
-15230
1573
-24710
-4075
-5065
22314
-27649
70371
-4676
-5213
-9531
-33964
19303
-13953
3611
-27952
-12307
594
-21982
14094
-38217
11003
-16131
27066
-14499
-35058
21599
-17486
13026
-15459
-16135
-17566
5564
-7106
-18775
14105
8686
12618
-16200
-1178
-15080
23169
-10149
-27922
-13321
-9701
11495
52872
7355
21052
3951
-35809
6546
18529
1924
-10705
5644
-28401
-12352
-11188
-18864
-24928
-26662
6300
151473
-43681
19166
-13636
-20346
77063
-15609
1145
45311
-18512
238
-9809
23004
-23105
-4312
-1364
17898
-2424
39362
-20585
9935
8039
-39678
1951
-15250
-21310
160
3236
5596
441
1971
-9225
-9640
-3868
-9391
-10622
-12063
-25562
5741
41779
-5716
27746
-16419
-7401
-34722
-884
11007
7505
5755
-22282
36305
-4884
58306
-18668
-19216
-2784
22078
1627
-5375
-4489
11514
-6697
-35279
-7018
-20036
6290
-20195
-25144
-19793
-53018
-4233
-8266
276
-5301
-16414
681
-2296
-12434
-15390
-21523
-5993
26887
5037
-5709
72466
-15533
-13080
-14378
-18669
-22005
18878
27993
17212
23232
-17531
-7054
17778
-9978
12862
-171
-4235
-30957
27808
-35159
-17782
-1026
9851
12950
-2631
24505
9298
2695
-11834
-5221
-6123
-17027
41443
-14895
-2566
-18479
-2794
-22438
3979
-9897
6744
-9419
-12937
90366
-13528
-3788
-18293
-1202
5370
74449
15242
7945
-24110
-5704
-30173
656
27580
43046
-25193
-4776
22619
-4751
-6606
-2213
-9835
-1756
6491
-32489
-9622
6050
3445
10192
-3558
-14189
47401
-15554
-1635
8474
5018
-18586
20643
-17997
-26464
-3909
-480
-16454
22763
-32117
54847
-5616
18768
-21434
-31114
12960
-24390
2847
8455
5629
-32282
-21763
27405
-25335
-20703
-19803
-5387
-11716
-26541
-31745
-23913
-14415
14281
-24963
-24665
-13275
-17447
-31436
-23011
-8822
-2563
-7273
166
17694
-25712
6645
-21483
10443
-25433
-10558
-2134
15734
-17164
-2588
-6765
-24680
183
5936
-24601
-7860
20137
-4849
-21435
-19256
-28873
18591
2528
-15891
-16381
25046
-7857
-19453
-10184
13502
23656
-13973
-17276
-5267
-20378
35408
-10314
20138
-939
-11362
14111
-23510
-137
-8801
28408
-31843
-4424
193
-5220
-27114
11365
-24783
9204
25704
30266
-17651
-13109
525
-877
-17452
33396
-25339
1071
25035
-34075
1453
-25593
60660
23214
5648
-16481
-7626
-18641
683
46939
33838
-21623
-10551
-23842
-44156
-34215
-15632
-3502
1505
-31215
-22800
-12375
5641
8771
-10461
15129
9624
18084
-24254
-1312
20550
-22625
-28846
-32007
-6478
-31328
-9978
-3186
68226
-18992
-38297
8464
-17583
17985
-19905
-3025
-5435
-26848
-20935
-1211
-14179
-13641
1148
-21037
8415
-7777
-19541
13764
-18607
26516
-32737
-11499
-24898
-32775
-419
-14535
-12150
-10790
-5136
-17513
112068
9945
18685
-6701
8245
-29341
-10557
4439
-22331
-13625
119
13340
-20987
