25612
-29523
-41339
4424
-5726
3655
6152
1254
21391
9590
-6324
-4621
5351
29154
31185
-6410
22816
-9182
566
33164
-11084
21060
-16844
3589
18327
-23771
-23091
8721
17981
-22667
39717
-52638
-28352
8427
7128
-8828
-60536
-35231
-17801
35173
16652
-119
8016
-29784
-26358
-13521
43437
17483
-12345
19799
9971
-4284
-720
55902
490
8808
1346
36720
25545
-1614
-20572
-11231
31732
17874
22098
-4875
-11313
-48347
-12798
-31901
9762
45049
-6476
-21996
5315
40430
-15406
-10861
-42063
-29351
-7435
-10952
10791
-15522
28450
-16274
17144
5193
3743
-10517
-24214
-3360
5596
-8948
13236
-4903
-2363
-16035
13571
24702
34390
-45125
-43352
7733
991
30659
43818
53255
-17394
-2968
-10538
2541
-9372
-26679
12110
-16721
2855
-12978
18402
-21648
14213
11902
-61386
-31604
4431
16146
-13333
-9624
-17231
10623
2266
-36256
26057
-27189
6962
-35865
5896
8868
2561
-4140
-7670
-507
-40849
46653
1777
-2069
-6133
-7592
-21715
25777
6556
-14553
14095
-18664
30422
4281
-21447
6560
9232
61502
15704
1864
10979
24863
-1233
571
47529
26496
-22075
23534
-46547
33510
13809
13737
-22687
7284
-1749
6285
-33612
3767
-35821
-6774
-13293
33308
-19223
22219
-9200
-1599
-21018
5166
-1075
-15760
-25818
-9130
-10564
-8082
6402
8389
-11689
31293
6894
-25271
15355
-8368
-14191
-3916
-9378
-32669
-20480
23152
-27301
-2301
-18677
41588
558
-39240
-25386
-24301
-18803
-17969
5414
-6334
8986
10873
-4264
-1076
19592
-1142
-11977
33996
1356
51072
-12289
9327
12575
-26076
1543
-14610
28623
924
-7623
7968
-9674
-35618
44679
10681
19942
-40631
-20261
10220
35641
16487
832
-2277
-23508
-19898
-36538
-22490
4027
-19361
-18082
-30211
-17778
-25689
-19155
18856
-10381
6514
-17325
11658
37384
15490
-2857
-597
24484
13217
-12218
-7473
-19811
-830
15057
10748
-11564
-26165
45723
-43369
17945
14304
-12667
-12209
23630
-1813
21143
30717
5595
8798
-6915
-2690
36544
38905
-9251
8815
25835
-7310
-11066
-20783
5688
-33457
14829
-14444
-24453
4122
15796
5858
-10133
42548
7859
-5726
-20770
15084
-15606
-2765
-11065
7698
-16155
38516
10079
31012
12285
2846
7510
-19144
10071
11749
-5385
-6561
17995
-20247
-40675
21454
-10561
9928
-43988
-35298
19136
-1295
23509
5415
-9355
-12329
28137
-17778
27831
68929
-947
-1179
-49169
-4781
34007
21807
-10152
749
-6153
-9996
23720
35790
-2387
9348
3840
-24879
-17761
-6680
-34178
25153
-9668
453
8536
21073
14735
-14794
-16737
52189
1601
-3080
4398
-35282
25291
44861
-45667
-22522
-2689
12473
-30198
15222
1945
-28440
-19502
-416
-19569
-12467
-41613
12575
54475
37246
15578
-23256
-10131
-4450
46866
-13236
22584
-21364
-26964
5957
-9315
4540
29747
1356
33251
-19519
3532
2439
-41379
12807
23448
-44737
3520
-2071
24897
-8028
65322
-12987
-7716
-7245
-8928
62
-24087
-34494
9302
30892
17837
4385
-5046
5441
7990
-5623
-2061
11706
-3387
20105
-20184
14731
-22715
-26670
13765
37221
-1741
2356
1766
5452
-9501
17872
-4303
-11966
-8021
-3409
7420
9725
-7723
40735
-20913
34543
252
49251
24637
19543
-19465
-16137
-28687
-22866
16282
5860
-3173
-18010
-17516
-23484
18618
-17411
42348
12878
-3901
12444
3577
-15094
28188
-12205
-45659
-7590
10645
-1269
-23223
-7521
-33775
-21412
-11429
15233
-3910
6290
12235
-10442
-12745
-14847
-20901
-28772
1146
14453
3340
-14621
-10736
-30111
-4385
11416
1260
-17171
-2517
6522
5375
-6770
-24163
31297
10237
28085
12576
5061
-3421
-24553
11759
22781
47898
4646
-69120
-48351
-10576
-18550
-9481
11373
-8445
-44035
35536
-1416
35062
-6675
-2180
-20445
-18769
-3647
18706
29394
-3323
7245
45583
1446
-3845
4364
-11941
12257
-2651
-5004
-24862
15782
-37621
10182
-16252
-5148
-16719
2659
1969
-22512
-2464
41602
-660
-3314
-23773
-17141
-41647
122302
25
3594
30075
-17517
19184
-8142
-2997
-8754
-18217
-15657
33931
19697
-47425
-4984
-17412
-16024
1304
-10182
16932
36150
-8031
-25481
25489
-14783
15435
-13152
-853
56598
42313
19308
-14655
14311
-23968
14946
33990
6055
-8404
1228
-31769
12935
3627
-12917
-18121
3933
15503
-10069
-7733
-12308
-51217
25627
-4599
47751
556
-8580
-8374
-17880
-22257
-20353
-15332
-19284
-3468
-14298
14142
-2555
193
-19128
64588
27173
-5622
-14536
-21303
-25338
32572
1844
-12415
36365
-10241
1614
22997
-6191
-13472
2005
-4463
-25025
-40904
-24868
