315
1387
65
1210
5097
1936
4890
5880
4841
5630
848
13269
2595
5002
2920
20772
5816
5383
4731
-1127
6627
1891
-2095
8021
-392
1566
6197
2727
838
234
5048
3510
3956
5480
4459
4438
869
5669
4669
-5962
5144
2035
720
4453
2325
3380
1164
5281
7087
3270
3161
5437
6119
6617
344
8362
-1690
2799
2728
6199
8689
4142
3176
4894
-1751
2647
1315
-2975
4968
5617
6729
2716
-4131
4820
305
4001
4143
1471
2964
410
-7584
3879
-1015
4332
4872
-3361
-5412
4093
1982
3371
1817
4986
-585
6515
5295
7177
4742
934
1827
3987
8110
681
-5688
3021
2404
-1586
4524
6141
-747
3537
-3769
3068
2180
1356
1448
-2175
3944
8034
4307
3147
-1407
-5837
-2214
6651
-878
-61
3648
-7119
8493
4321
3484
3197
3331
5752
3944
5278
4575
3248
773
377
36506
4735
3801
3486
1044
6158
4797
-693
16619
3796
2346
4857
7623
3263
-194
3982
6230
3299
558
5808
3386
48317
2227
236
11544
4506
6174
3615
2877
4977
-995
4021
3419
3086
5760
1305
5213
3731
-1014
4794
-3953
-11709
5738
-722
4526
-2097
83
2470
2945
515
5521
5583
-2254
1887
3802
4247
2704
6296
677
1406
-3387
6321
-3821
882
5779
-2391
8141
5249
6339
1624
30537
6045
4722
2690
2691
3737
4103
18193
6690
1524
1629
6967
2666
1535
5016
-7224
4631
2226
5019
300
-699
6921
959
5746
2103
-2788
4372
-2421
-447
136
5230
1360
-586
-1349
2860
1887
2024
-1306
2155
5490
3833
-2638
3420
6575
6784
-1746
3424
3487
804
4839
4750
2066
-2886
6956
6762
4394
531
4598
4579
2215
-3104
2555
2387
4999
4221
-1490
-295
6055
4256
2463
-855
3539
-524
2575
1955
2888
3921
36207
-1188
-764
1268
1744
-4071
4307
13770
1255
-4041
4851
3410
5414
167
3065
6035
2763
4213
-2184
4571
6666
1964
-2359
5205
3662
3956
8136
-1674
2227
1315
4650
4832
7527
4296
2937
-4481
-1566
-709
2392
15808
5851
4793
-33
3391
9149
8038
-484
2839
2126
6385
1941
3645
129
6064
6868
3052
-2469
-1354
7469
6552
1703
5421
-272
7436
-2581
3107
1022
3855
1486
6431
-7319
-1412
1103
2998
3908
6409
5042
662
6756
4303
2832
3515
1940
5980
-2841
4242
2255
7352
27325
-13076
2543
2628
3268
1355
6766
-4144
2005
-2713
2567
6759
9457
-522
-18235
735
2094
1584
-1723
-15059
3160
3974
3979
4712
-980
2326
3666
1950
3057
5924
2437
-1900
5448
-8035
-915
4386
3909
2701
7740
3937
1427
6116
2897
5888
416
-25396
3714
4258
5617
2832
4507
3855
-979
6577
1004
4896
4267
992
-2657
4355
4651
1745
596
3588
4706
31533
3192
-4914
3690
-1353
6136
13915
6058
2353
1903
4767
5367
2005
2386
4314
5223
881
-716
4595
742
2209
253
-1314
5672
5170
-11140
4024
838
6822
5376
2911
-16
6306
2545
4689
7537
5818
4965
6320
-510
1611
3006
1853
4822
-378
-13715
5504
7134
2347
7928
3838
5975
691
6103
7021
2160
1979
6422
437
-6597
5644
5801
2652
2459
3055
-203
4537
-4742
2715
4568
2729
2772
-612
2435
5883
3042
2462
2713
4520
-28621
5546
4689
2161
1782
6490
4734
1676
3023
5987
5507
-11482
4393
5353
2124
-21936
3696
3945
6624
6129
4596
8141
2363
2817
-3967
-7073
6922
1468
16130
229
990
-519
6759
4161
9385
3724
60
5887
4494
3444
407
881
4611
2717
3144
5837
20408
1979
-3635
3766
2432
5054
5048
6459
3827
7140
2217
2725
8812
-11418
8361
7240
3892
5065
663
-4763
1888
1762
-1330
5968
1013
1581
-167
3725
3522
3834
-838
3795
-2858
17938
3505
-2695
-1405
853
-784
8405
-1308
3644
-2207
5536
3475
1470
2531
2612
392
3994
3198
484
-10730
4808
1564
9159
2722
1082
-2631
660
1349
-1319
-1336
4570
5822
3117
7340
3725
5224
3035
-4111
5886
2488
8958
1196
3464
3395
-500
-10
2147
6069
2627
5683
5829
2933
1233
-7510
3597
-1948
450
-20569
7281
2287
31343
-2360
5048
5292
-2514
2540
6259
3958
-2913
6146
-7873
7531
-3663
3971
-15007
-10860
874
3545
3254
6329
7895
1341
3048
4802
-13258
5325
-1272
2361
-1600
-2235
3647
3617
9
-4701
3406
1366
1249
6426
-708
436
5061
2682
6196
3456
-2450
4290
3164
3209
6595
-2066
-6328
5245
-2378
2701
4508
5546
-1422
6900
565
1973
4104
3745
7549
6301
5300
792
5245
4135
4074
3794
6116
3579
-2647
-5381
5530
1773
4656
3041
5682
3307
962
4045
39313
203
5897
5220
2765
3241
4793
1882
7705
-3326
-2286
10672
4883
1960
328
1214
3670
4864
1221
386
-574
-11381
5068
-13215
4677
2673
946
6385
5322
-259
4995
5235
4040
-1534
1448
6758
888
5817
7201
-31
-8994
465
1588
5120
5466
5414
2518
3864
3675
-595
-531
13077
2040
857
7050
3153
-2970
7988
3527
3403
2672
-2947
6716
5760
1204
-1364
2973
4425
6206
3627
-2020
6422
5353
-10880
-3786
2525
6170
1306
4921
-2088
2716
7086
6787
5150
4621
-10902
5642
117
457
317
1860
2634
-4618
711
739
2885
2394
1965
3849
5965
1516
6788
-8869
-24756
7011
6209
5039
1533
7562
1845
20818
1865
3622
4156
-9563
3396
5407
1656
4924
-220
6266
1472
5336
1803
2817
4902
2065
3113
2204
3719
2231
596
5001
-9587
4043
3873
4791
4387
-261
3537
3473
-3462
2525
1751
2224
3671
2847
1029
4952
5530
4758
3623
7877
2304
2804
5068
5147
7455
-4959
5067
5525
1108
1819
1879
2501
-2959
-555
1087
-9419
6133
4409
1835
-4450
1467
2805
-927
766
1393
3992
4724
374
1608
692
6534
5382
2983
-2738
3264
3004
8696
-217
6958
-5292
20
2338
8694
-12882
5521
206
-2218
4293
8190
36825
44339
2035
-5478
7529
7512
556
4756
-4141
4407
3471
4247
-1127
3226
3750
-11850
3881
-8
7188
312
1559
1518
3772
820
6923
1338
4001
5807
4373
3062
5033
1754
3580
1856
4688
3666
1840
3183
4149
2371
-439
5182
-5193
3747
-3574
6380
1978
-840
1660
4412
1719
1695
7097
3326
2163
-4358
6900
-35
-167
5031
-13390
-3754
2257
-424
-8222
3981
5316
5088
5515
-1328
1970
5233
3429
15507
6556
4214
-1761
1112
-2684
210
1177
-121
28269
5631
3529
-849
3688
-11256
183
2060
-5914
1680
5272
639
-1154
3184
1206
1160
1088
4988
2119
1790
4095
4079
5559
-4059
3180
2939
2853
6674
1186
1966
1667
2016
766
5407
-892
2872
724
6701
6103
4300
-1759
4254
2768
1702
9452
6344
4840
2296
3189
7425
550
-2584
-17105
3605
6355
4709
-3539
-2343
1250
4493
214
5026
2274
9989
4772
1664
4447
2278
1357
-845
1103
6010
6380
2153
4639
3775
3038
6307
492
-621
5356
3413
3787
5421
7403
5966
4659
-6033
312
3324
525
-1549
2487
-6128
2562
4885
5629
-159
4372
-456
3908
5009
-1496
-2788
4503
-1422
-6431
4107
6406
5147
1367
5422
4354
7095
2916
-28
6903
321
-2473
8559
788
5616
-1783
1499
-812
-549
-4594
4738
