-33
-2
-30
-14
3
-97
19
-48
-51
121
16
-100
-75
-13
-56
5
-16
9
-37
-17
-37
-97
-86
11
-27
39
-22
11
-26
-73
-1
6
-16
-15
-21
-33
70
-42
-21
-38
-50
-11
5
-85
9
-19
0
-38
-26
-42
-86
31
-60
-32
-43
3
-63
24
-11
-45
63
57
-33
20
14
-16
-20
-47
-5
-23
18
97
-67
-34
28
-77
10
-21
-46
-19
-49
1
-68
-45
39
6
44
-7
-4
-6
-33
-70
-32
-39
21
-22
-33
-45
-4
0
-45
2
-35
40
-31
25
-68
32
-35
-17
9
-17
-3
16
-55
-24
-67
65
48
-39
-34
23
-16
-20
-19
22
-39
35
-37
-29
-61
-53
24
-30
20
-27
39
7
-75
-50
14
-58
-70
47
49
-28
-60
-44
54
2
-44
7
-31
-7
21
-42
-49
-90
-50
-14
-19
-21
-18
7
-49
-38
-72
-85
-13
-93
6
-67
34
-35
67
-71
53
-46
-95
-66
15
7
-48
-57
-57
18
14
-48
-8
30
19
-61
-21
-11
-29
-24
1
-73
1
-49
-38
102
15
-88
-88
-12
-24
-6
-7
14
-10
-10
-52
-71
-57
17
-19
44
19
-8
-21
-63
-4
-20
-7
-31
-8
-16
76
-66
-6
-43
-7
-6
6
-71
-3
-28
-10
-46
-23
-7
-61
27
-33
-7
-18
9
-46
-18
3
-35
71
41
-6
32
9
-29
-13
-53
15
-33
18
99
-71
-71
-29
-68
7
-22
-48
-21
-49
4
-68
-35
51
-10
19
-13
-17
-47
-36
-67
-22
-26
6
-39
-55
-46
3
-10
-60
10
-15
27
-46
14
-46
18
-18
-27
4
-25
-15
4
-43
-18
-51
39
38
-25
-26
49
-10
-13
-15
42
-81
-12
-30
-36
-37
-47
20
-9
30
-14
33
4
-55
-37
1
-28
-40
21
41
1
-47
-51
59
1
-23
15
-36
-3
19
-54
-49
-82
-44
-5
-18
-47
-19
39
-53
-40
-90
-46
8
-63
-2
-66
42
-38
57
-66
45
-15
-100
-44
19
10
-30
-79
-73
5
-1
-38
-19
45
-15
-53
-19
-14
-21
-18
3
-73
8
-50
-30
101
15
-84
-85
-16
-26
-4
-11
12
-26
-11
-47
-72
-56
13
-26
46
11
-8
-16
-65
-5
-23
-8
-31
-4
-16
70
-64
4
-46
-10
-6
6
-55
-4
-25
-9
-45
-12
-16
-64
32
-31
-5
-22
2
-39
-10
-3
-28
69
43
0
23
7
-27
-12
-47
8
-32
15
110
-66
-72
-17
-66
4
-9
-61
-17
-48
-10
-63
-40
49
4
19
-17
-18
-39
-41
-68
-23
-22
7
-36
-54
-48
-8
-14
-62
11
-13
21
-45
16
-46
18
-15
-30
-7
-27
-5
-5
-41
-21
-45
35
33
-26
-26
50
-12
-16
-10
41
-71
-15
-29
-38
-40
-36
17
-5
25
-14
35
5
-55
-41
-3
-28
-35
17
41
0
-37
-52
53
-8
-27
8
-32
-5
21
-57
-44
-76
-42
-3
-18
-46
-21
40
-53
-42
-79
-50
10
-56
-2
-62
36
-37
55
-67
45
-28
-100
-35
17
12
-28
-73
-65
2
7
-28
-18
41
-17
-57
-19
-15
-23
-14
3
-74
10
-53
-34
103
11
-86
-87
-13
-24
1
-15
18
-22
-11
-48
-69
-59
6
-29
47
7
-9
-16
-67
-5
-20
-7
-26
-4
-18
69
-65
6
-46
-11
-8
4
-50
-5
-28
-6
-47
-12
-13
-68
37
-32
-2
-20
2
-38
-9
-5
-26
70
41
1
29
7
-27
-16
-45
4
-34
20
107
-72
-71
-18
-67
2
-13
-62
-21
-49
-8
-68
-42
48
4
23
-19
-23
-39
-40
-68
-20
-22
8
-35
-58
-47
-6
-13
-63
8
-15
23
-47
16
-46
18
-16
-30
-9
-24
-5
-6
-43
-19
-50
36
32
-25
-26
54
-10
-16
-9
38
-77
-11
-27
-37
-39
-33
15
-8
28
-16
39
1
-52
-43
-3
-29
-33
18
41
-1
-42
-53
54
-9
-30
8
-32
-7
24
-56
-47
-74
-41
-4
-17
-44
-21
41
-52
-38
-82
-55
10
-59
-3
-59
37
-40
57
-63
46
-25
-100
-39
20
10
-27
-71
-65
3
3
-28
-16
40
-19
-57
-19
-16
-23
-15
3
-70
7
-52
-30
101
13
-82
-85
-16
-24
-4
-12
13
-23
-6
-48
-69
-57
8
-28
44
14
-9
-18
-65
-5
-23
-9
-30
-2
-16
69
-64
0
-47
-8
-9
7
-56
-5
-27
-9
-44
-13
-10
-61
34
-32
1
-22
4
-37
-17
-3
-25
69
45
3
26
6
-27
-12
-52
9
-37
19
106
-64
-73
-20
-65
5
-11
-61
-16
-46
-8
-66
-38
49
1
19
-17
-19
-41
-37
-64
-25
-22
7
-40
-57
-45
-6
-16
-59
7
-14
20
-45
18
-48
18
-18
-27
-9
-26
-5
-5
-40
-21
-45
34
32
-27
-23
48
-11
-13
-9
38
-73
-14
-32
-36
-41
-36
15
-2
29
-15
33
5
-54
-48
-9
-31
-35
19
41
-1
-39
-52
52
-5
-27
6
-34
-3
22
-59
-46
-75
-40
-2
-17
-43
-22
43
-52
-37
-79
-50
11
-59
-3
-60
36
-39
54
-65
47
-25
-99
-37
17
10
-28
-71
-69
7
2
-24
-14
40
-20
-56
-18
-14
-26
-16
3
-70
2
-53
-33
106
19
-83
-84
-20
-24
-6
-13
11
-15
-9
-55
-68
-58
16
-24
44
13
-6
-21
-62
-3
-22
-12
-32
-6
-18
73
-62
-10
-43
-11
-11
11
-74
-2
-31
-13
-46
-20
-8
-60
26
-33
-7
-19
5
-44
-20
5
-38
69
45
-7
25
9
-26
-14
-46
18
-35
16
101
-61
-71
-25
-68
5
-17
-49
-17
-52
-4
-68
-38
47
-5
24
-13
-16
-47
-38
-67
-23
-29
7
-41
-54
-48
-4
-12
-57
6
-12
19
-45
18
-50
17
-27
-31
-4
-29
-15
0
-40
-20
-51
36
41
-29
-23
44
-12
-17
-15
36
-76
-10
-35
-34
-33
-44
19
-6
31
-18
32
4
-57
-44
-1
-31
-37
22
33
-2
-47
-52
56
-2
-24
12
-35
-1
16
-54
-55
-76
-44
-4
-20
-43
-20
38
-54
-40
-90
-45
5
-68
2
-65
36
-36
55
-63
42
-20
-100
-43
18
10
-32
-73
-72
9
2
-32
-17
41
-14
-51
-36
-11
-18
-13
-3
-80
12
-44
-41
114
14
-98
-72
-13
-51
-5
-12
14
-31
-10
-40
-102
-82
23
-28
39
-17
4
-25
-67
-2
0
-10
-13
-10
-28
67
-49
-24
-51
-36
-9
3
-86
12
-24
9
-41
-32
-32
-77
30
-59
-29
-41
6
-74
7
-11
-42
60
48
-39
18
8
-7
-17
-44
-7
-28
16
90
-68
-38
20
-74
7
-21
-39
-15
-45
-12
-56
-44
32
6
39
-1
-8
-14
-22
-71
-31
-36
23
-22
-30
-51
1
2
-39
5
-41
28
-26
28
-65
27
-28
-8
6
-31
-4
13
-54
-23
-63
67
43
-36
-38
20
-11
-27
-13
22
-35
31
-33
-35
-56
-58
27
-20
18
-21
37
-6
-72
-45
5
-49
-66
43
46
-25
-60
-43
55
10
-33
7
-36
-15
26
-50
-35
-83
-52
-17
-14
-28
-22
6
-58
-34
-81
-84
-2
-84
6
-73
30
-38
68
-65
58
-45
-96
-69
9
5
-46
-51
-62
21
17
-48
-11
19
18
-61
-11
1
-25
-19
3
-74
-9
-63
-36
101
16
-78
-68
13
-18
-22
1
-2
-22
-6
-45
-60
-66
-7
-32
41
-10
-26
-27
-56
-11
6
-32
-20
-12
-28
64
-36
-24
-38
-25
-3
10
-68
-9
-17
-10
-47
-45
3
-81
-7
-72
1
-22
-3
-57
-8
6
-53
46
30
-23
23
11
-18
-16
-55
-27
-24
27
83
-69
-33
-3
-63
-6
-31
-40
-14
-43
-2
-54
-26
20
2
1
15
-10
-10
-36
-58
-29
-36
24
-38
-49
-30
6
-19
-38
-28
-27
12
-28
5
-65
11
-59
-10
3
-38
-2
20
-50
-13
-54
38
23
-40
-25
-28
-20
-18
-21
27
-56
8
1
-27
-35
-63
20
-24
32
-26
-1
1
-68
-22
2
-27
-71
30
29
-17
-36
-40
51
8
-25
4
-35
-27
-9
-45
-56
-85
-39
-36
-27
-20
-13
26
-41
-34
-86
-50
0
-76
19
-47
24
-20
54
-60
25
-34
-75
-76
29
-6
-48
-63
-68
28
-1
-41
-8
47
9
-22
-13
-7
-37
-24
-7
-59
-17
-60
-20
91
8
-57
-75
27
3
-38
16
2
0
0
-61
-33
-40
-12
-35
41
25
-30
-20
-50
-5
-24
-16
-39
-7
-25
59
-56
-18
-52
14
3
8
-37
-3
-17
-18
-56
-43
9
-46
-16
-59
17
-3
2
-29
-23
2
-49
45
-4
-7
41
0
-19
-10
-51
-23
-25
18
89
-81
-73
-59
-60
-6
-38
-35
-19
-43
-11
-58
-27
27
-9
-15
-1
-14
-42
-26
-55
-20
-42
28
-40
-52
-34
-8
-39
-44
-35
-5
1
-41
3
-52
-13
-43
-29
-3
-46
13
19
-19
-22
-33
23
13
-30
-8
-1
-42
-10
-23
40
-59
-24
-1
-28
-12
-71
14
-9
38
-15
-11
-3
-42
-16
-17
-8
-34
16
21
6
-26
-50
49
-1
-19
2
-37
-5
-8
-41
-53
-82
-34
-26
-34
-35
-22
42
-35
-41
-78
-11
0
-43
-2
-41
37
-17
46
-44
27
-16
-82
-49
34
13
-32
-76
-68
24
-5
-37
-16
62
-8
-34
-18
-7
-34
-22
-11
-63
-18
-64
-15
91
5
-52
-75
21
5
-31
11
8
-5
4
-55
-40
-38
-22
-45
45
22
-33
-18
-49
-8
-28
-9
-38
-7
-16
53
-60
-15
-54
20
6
9
-17
-5
-16
-14
-57
-32
4
-47
-8
-54
14
-1
-10
-27
-12
-2
-35
46
-7
0
40
5
-20
-7
-46
-26
-24
24
95
-77
-73
-52
-63
-7
-40
-52
-19
-44
-9
-62
-32
22
1
-19
-9
-12
-37
-32
-53
-21
-43
20
-47
-47
-36
-14
-46
-51
-37
-7
-2
-40
5
-45
-8
-32
-31
-11
-45
12
16
-12
-18
-29
24
11
-25
-6
5
-42
-13
-23
42
-53
-32
3
-32
-18
-61
10
-5
37
-15
-2
-7
-39
-21
-19
-13
-31
7
29
4
-20
-53
37
-2
-22
-1
-31
-7
-12
-44
-51
-75
-43
-24
-31
-36
-26
36
-36
-46
-68
-11
5
-36
-6
-46
36
-12
47
-38
30
-24
-88
-37
34
11
-29
-73
-64
19
2
-26
-13
59
-14
-27
-14
-8
-37
-19
-13
-63
-15
-63
-17
91
2
-54
-75
22
6
-32
13
12
-5
6
-55
-42
-37
-24
-46
45
19
-34
-16
-51
-5
-26
-12
-38
-5
-17
53
-60
-10
-57
20
5
8
-10
-7
-16
-16
-54
-30
3
-49
-5
-53
14
-1
-8
-26
-9
-4
-32
45
-4
3
41
3
-24
-9
-44
-28
-23
22
94
-78
-71
-49
-65
-9
-33
-55
-20
-48
-12
-61
-35
19
5
-17
-9
-15
-35
-34
-52
-19
-48
21
-43
-44
-36
-18
-43
-53
-37
-6
-2
-38
6
-46
-11
-33
-32
-13
-45
13
15
-14
-19
-31
23
11
-27
-4
10
-40
-12
-25
39
-54
-33
3
-31
-20
-59
12
-6
38
-12
1
-8
-36
-21
-16
-11
-32
8
27
5
-21
-49
39
-2
-25
-4
-26
-4
-8
-42
-48
-71
-41
-26
-30
-36
-25
38
-36
-46
-69
-16
6
-34
-6
-44
40
-12
46
-39
32
-20
-86
-37
33
12
-27
-75
-64
18
-1
-25
-15
64
-15
-29
-17
-5
-37
-20
-12
-59
-16
-62
-16
91
5
-51
-74
24
6
-34
12
10
-2
6
-54
-40
-38
-21
-43
42
25
-35
-18
-49
-8
-25
-11
-37
-8
-16
55
-60
-12
-57
19
1
6
-16
-3
-19
-17
-58
-35
6
-46
-6
-54
15
-6
-7
-27
-16
1
-34
46
-1
0
41
1
-21
-9
-44
-29
-24
18
93
-76
-72
-52
-64
-8
-34
-52
-17
-44
-15
-64
-29
26
0
-17
-9
-14
-39
-32
-52
-21
-45
19
-45
-49
-35
-15
-41
-51
-38
-3
-2
-39
7
-45
-11
-34
-32
-9
-47
14
16
-10
-22
-27
23
11
-28
-3
3
-44
-8
-25
39
-53
-32
0
-31
-19
-64
11
-6
39
-10
-3
-6
-37
-26
-19
-13
-32
8
29
6
-20
-49
37
-2
-20
2
-33
-5
-9
-41
-55
-78
-40
-27
-30
-33
-31
38
-35
-45
-76
-12
3
-34
-8
-42
41
-14
48
-37
30
-18
-86
-37
35
8
-27
-74
-66
19
-2
-24
-13
61
-14
-32
-9
-7
-41
-21
-6
-61
-21
-60
-19
97
7
-54
-75
21
2
-40
17
0
1
2
-61
-40
-43
-18
-39
41
22
-30
-23
-48
-9
-20
-14
-38
-9
-20
58
-53
-21
-50
17
1
13
-38
-2
-18
-18
-54
-43
14
-46
-13
-56
11
-1
-3
-28
-20
4
-46
48
0
-5
35
1
-18
-7
-48
-21
-24
18
86
-71
-67
-55
-63
-7
-33
-38
-21
-46
-15
-60
-27
23
-10
-16
-6
-6
-44
-33
-54
-19
-41
23
-41
-49
-32
-19
-37
-45
-40
-10
-6
-29
7
-55
-8
-42
-26
-10
-49
11
15
-12
-23
-29
24
18
-33
-9
-5
-48
-12
-18
36
-58
-20
-3
-30
-16
-71
16
-5
37
-11
-8
-7
-45
-22
-13
-12
-33
16
21
6
-28
-49
44
2
-20
1
-39
-5
-11
-37
-60
-84
-33
-29
-35
-34
-25
36
-35
-43
-79
-8
3
-47
0
-38
39
-13
47
-38
27
-15
-84
-43
32
7
-32
-69
-70
24
0
-30
-17
61
-5
-28
-18
-9
-17
-23
-16
-65
-17
-55
-30
92
16
-74
-64
10
-17
-24
8
-7
-9
3
-45
-63
-58
0
-31
36
-8
-27
-33
-50
-19
5
-14
-27
-5
-24
59
-39
-31
-57
-15
-8
9
-71
-2
-21
-2
-52
-44
-3
-68
-7
-67
-2
-22
0
-65
-6
-9
-42
43
27
-29
16
15
-6
-17
-50
-35
-23
29
78
-62
-35
-9
-55
-13
-32
-30
-11
-38
-13
-52
-25
25
5
0
23
-13
-13
-24
-56
-24
-37
32
-33
-47
-34
1
-18
-27
-31
-33
2
-27
16
-72
14
-49
-6
1
-48
2
14
-47
-11
-49
37
25
-41
-18
-29
-25
-22
-15
34
-46
9
1
-35
-28
-65
21
-7
26
-16
2
-8
-60
-19
-10
-20
-59
21
29
-16
-35
-45
51
7
-13
8
-34
-25
-2
-49
-45
-85
-41
-36
-27
-22
-24
21
-39
-42
-91
-44
9
-65
20
-55
23
-16
52
-50
39
-34
-80
-76
28
-2
-47
-55
-73
27
6
-40
-16
26
12
-30
-27
3
-16
-12
7
-70
-11
-60
-35
99
11
-70
-54
16
-20
-17
-10
-16
-22
1
-36
-54
-59
-10
-34
38
-15
-23
-28
-58
-23
4
-31
-18
-14
-20
58
-29
-22
-45
-21
-10
10
-55
-6
-21
-16
-54
-42
6
-86
-7
-74
-1
-33
-17
-61
-12
5
-46
44
34
-20
23
18
-20
-13
-57
-31
-17
7
90
-72
-35
1
-54
-2
-25
-50
-9
-41
3
-50
-32
24
7
8
11
-8
-9
-44
-56
-33
-33
22
-47
-43
-31
2
-17
-33
-46
-29
12
-32
6
-63
18
-48
-12
0
-40
-3
15
-48
-12
-54
36
25
-34
-21
-31
-23
-24
-18
18
-46
5
-5
-29
-37
-55
12
-12
28
-32
-5
-10
-57
-25
-12
-31
-63
26
27
-7
-24
-40
52
4
-19
-6
-36
-29
-11
-52
-51
-86
-42
-33
-38
-16
-9
7
-45
-36
-86
-51
5
-81
21
-49
19
-12
56
-57
17
-40
-81
-83
28
-16
-41
-57
-69
24
5
-32
-11
37
2
-22
-22
-6
-32
-21
-7
-64
-23
-59
-16
87
8
-53
-69
26
-2
-36
9
-3
0
10
-55
-31
-37
-13
-36
43
16
-32
-15
-49
-16
-28
-20
-33
-14
-16
50
-55
-19
-59
16
1
18
-26
0
-22
-26
-54
-42
10
-51
-16
-59
16
-13
-13
-30
-27
-2
-35
42
-2
-7
46
10
-20
-5
-53
-21
-20
1
91
-83
-67
-57
-58
-5
-26
-44
-20
-39
-6
-56
-25
25
-7
-16
2
-17
-46
-41
-52
-24
-44
23
-46
-45
-41
-12
-39
-43
-43
-1
-3
-43
4
-44
-5
-30
-32
-7
-43
14
11
-19
-20
-31
24
18
-17
-3
-6
-44
-9
-24
31
-57
-24
-3
-27
-18
-70
10
5
41
-21
-20
-13
-32
-13
-29
-13
-32
8
18
5
-12
-41
47
-9
-21
-1
-37
-15
-11
-42
-55
-82
-38
-32
-45
-35
-18
24
-45
-42
-84
-1
3
-45
-4
-39
30
-14
44
-39
21
-26
-88
-52
35
5
-23
-78
-66
22
0
-30
-10
54
-11
-39
-19
-4
-30
-19
-10
-64
-23
-61
-16
84
2
-49
-65
27
-2
-30
7
-1
-8
11
-48
-34
-38
-17
-41
43
17
-30
-13
-51
-17
-31
-12
-37
-14
-15
47
-60
-12
-63
17
2
14
-4
-4
-18
-24
-60
-31
1
-51
-7
-58
15
-13
-19
-27
-22
-5
-19
44
-2
-3
43
15
-18
-5
-50
-31
-22
6
97
-76
-66
-52
-63
-7
-33
-64
-18
-42
-12
-57
-33
20
5
-16
-3
-12
-41
-41
-52
-24
-45
18
-49
-41
-41
-15
-45
-51
-43
-3
-2
-43
6
-39
-7
-23
-31
-13
-44
13
7
-10
-15
-31
23
12
-16
-2
3
-43
-14
-22
35
-50
-29
2
-28
-29
-65
7
6
41
-16
-12
-15
-31
-16
-31
-16
-26
3
23
4
-10
-42
36
-8
-26
-2
-35
-11
-12
-44
-47
-75
-45
-31
-39
-35
-17
21
-46
-45
-71
-5
5
-32
-3
-43
23
-10
44
-36
29
-33
-93
-43
32
5
-21
-72
-64
13
8
-22
-13
55
-21
-33
-19
-6
-31
-18
-8
-64
-22
-60
-20
88
2
-51
-66
23
-1
-28
9
-1
-9
12
-46
-29
-37
-20
-44
43
15
-30
-13
-50
-14
-30
-10
-35
-13
-19
47
-59
-6
-64
16
5
13
3
-6
-18
-26
-62
-29
1
-51
-3
-53
18
-14
-19
-27
-18
-4
-22
44
1
0
39
12
-19
-4
-50
-29
-18
5
101
-79
-63
-48
-60
-9
-30
-65
-21
-39
-12
-57
-34
18
3
-14
-4
-14
-37
-45
-51
-22
-46
17
-48
-41
-40
-16
-44
-55
-46
-7
2
-45
4
-40
-7
-25
-31
-15
-45
12
8
-9
-16
-29
24
13
-16
1
4
-40
-14
-22
36
-49
-28
1
-29
-32
-63
8
1
40
-14
-10
-16
-28
-15
-27
-17
-24
5
25
2
-9
-41
35
-7
-27
-5
-32
-10
-9
-43
-47
-73
-41
-31
-35
-34
-16
25
-41
-44
-70
-9
6
-29
-7
-41
27
-10
45
-38
29
-30
-90
-38
32
7
-22
-68
-61
13
8
-20
-13
53
-21
-34
-18
-4
-30
-22
-5
-63
-22
-61
-20
86
0
-52
-69
23
-3
-28
10
0
-8
11
-44
-33
-35
-17
-44
43
19
-31
-11
-46
-14
-31
-12
-40
-14
-14
49
-61
-10
-64
17
1
9
-3
-3
-19
-23
-62
-33
0
-48
-5
-56
17
-13
-18
-28
-23
-4
-16
43
-4
-2
43
16
-20
-4
-49
-31
-19
8
96
-81
-65
-53
-64
-8
-28
-64
-23
-42
-14
-57
-32
22
2
-16
0
-12
-39
-38
-52
-25
-45
17
-51
-40
-40
-11
-41
-50
-42
-5
0
-43
7
-38
-8
-24
-30
-14
-44
12
8
-13
-13
-33
24
13
-18
0
2
-41
-13
-25
35
-50
-28
2
-29
-28
-60
5
1
41
-14
-10
-17
-31
-16
-31
-18
-29
2
25
5
-11
-42
36
-5
-26
2
-34
-11
-14
-42
-51
-73
-44
-33
-35
-34
-17
24
-46
-47
-76
-6
4
-29
-2
-41
29
-13
46
-37
28
-27
-90
-41
33
6
-21
-70
-61
15
8
-25
-13
53
-18
-34
-16
-7
-33
-21
-7
-60
-27
-59
-19
93
5
-50
-67
23
-5
-32
9
-5
-2
11
-55
-34
-38
-17
-37
44
15
-29
-19
-50
-17
-24
-12
-35
-15
-18
49
-52
-21
-54
12
1
19
-23
-4
-20
-23
-54
-39
10
-53
-11
-59
11
-14
-11
-28
-25
-2
-33
42
5
-8
43
11
-14
-8
-49
-21
-20
6
92
-79
-62
-50
-65
-7
-23
-49
-21
-43
-8
-57
-28
20
-4
-13
-6
-14
-39
-42
-52
-23
-42
25
-47
-44
-39
-21
-33
-44
-43
-5
-1
-34
7
-46
-4
-31
-31
-8
-46
13
8
-14
-18
-27
26
21
-24
-7
-13
-45
-12
-18
29
-56
-25
-4
-30
-21
-70
10
4
40
-16
-16
-14
-37
-13
-25
-14
-31
7
17
6
-18
-38
46
-6
-22
2
-38
-13
-13
-39
-55
-80
-37
-33
-42
-30
-17
20
-41
-42
-81
-5
7
-47
-1
-39
28
-13
47
-37
23
-24
-90
-53
32
6
-25
-71
-65
22
3
-26
-17
53
-14
-32
-26
-6
-13
-19
-15
-67
-23
-54
-34
85
15
-67
-59
8
-22
-18
-6
-19
-11
6
-37
-59
-58
2
-36
37
-5
-27
-32
-54
-24
5
-16
-24
-11
-20
56
-34
-31
-62
-10
-4
11
-51
-3
-25
-11
-57
-43
-2
-75
-7
-64
1
-31
-13
-63
-9
-12
-31
40
31
-28
15
23
-2
-17
-55
-34
-20
12
85
-69
-33
-9
-54
-12
-27
-38
-6
-40
-8
-47
-29
27
7
5
18
-7
-14
-32
-51
-27
-30
30
-39
-39
-35
0
-17
-25
-36
-30
4
-27
12
-64
14
-41
-5
3
-44
1
5
-47
-6
-47
34
25
-33
-22
-37
-23
-29
-13
29
-40
5
3
-38
-36
-68
17
2
27
-19
-3
-15
-49
-12
-21
-24
-47
17
28
-12
-25
-46
49
2
-14
-1
-36
-30
4
-53
-39
-78
-42
-39
-28
-21
-15
7
-47
-43
-88
-44
14
-62
16
-59
16
-10
51
-51
34
-42
-86
-81
21
-12
-40
-55
-71
27
8
-31
-14
24
3
-31
-24
5
-11
-14
6
-73
-12
-63
-36
96
9
-72
-56
15
-21
-22
-17
-17
-24
4
-32
-58
-59
-15
-32
35
-17
-26
-29
-56
-25
2
-27
-18
-14
-23
55
-31
-20
-52
-20
-7
11
-55
-10
-19
-17
-55
-42
5
-94
-8
-71
5
-31
-19
-59
-11
0
-45
41
32
-18
18
17
-14
-15
-52
-29
-20
6
91
-70
-35
0
-57
0
-27
-51
-7
-40
8
-51
-28
25
6
8
10
-5
-8
-49
-54
-32
-37
21
-46
-42
-30
0
-16
-33
-48
-32
10
-31
9
-64
21
-47
-17
-5
-39
3
10
-50
-14
-48
33
23
-35
-22
-28
-18
-24
-18
19
-47
4
1
-29
-37
-55
12
-12
25
-31
-11
-6
-54
-26
-12
-32
-63
25
24
-8
-25
-39
52
5
-22
-12
-38
-26
-8
-49
-54
-85
-39
-38
-40
-19
-7
5
-46
-42
-85
-49
11
-81
19
-53
14
-10
56
-58
15
-43
-80
-81
25
-21
-39
-58
-67
25
7
-29
-15
32
-1
-24
-19
-4
-26
-26
-8
-62
-23
-57
-19
86
4
-54
-68
22
-3
-32
10
-6
-4
13
-53
-33
-39
-13
-35
43
15
-35
-19
-51
-15
-26
-16
-35
-12
-22
45
-53
-16
-58
18
1
18
-26
-2
-22
-27
-59
-41
9
-57
-14
-54
22
-13
-10
-35
-30
-7
-35
42
-2
-5
46
11
-15
-7
-50
-22
-21
2
92
-81
-63
-56
-58
-1
-29
-47
-18
-39
1
-55
-23
27
-7
-16
-4
-11
-42
-45
-51
-24
-44
25
-48
-49
-41
-13
-38
-44
-43
-2
-2
-41
2
-45
-2
-33
-37
-7
-51
13
4
-23
-21
-28
21
17
-22
-7
-3
-44
-10
-25
33
-58
-25
-3
-24
-17
-68
11
5
38
-19
-19
-13
-28
-13
-30
-13
-29
8
18
4
-11
-40
46
-7
-23
-5
-40
-13
-12
-41
-55
-81
-33
-36
-44
-38
-16
22
-37
-45
-85
-3
9
-46
-8
-38
26
-9
44
-39
24
-24
-89
-59
37
2
-23
-75
-67
25
3
-28
-11
56
-16
-42
-16
-2
-23
-21
-8
-61
-25
-65
-22
86
2
-53
-65
27
-4
-27
8
-4
-10
16
-48
-33
-39
-20
-42
44
15
-39
-11
-49
-12
-28
-11
-38
-12
-17
46
-55
-8
-62
21
0
9
0
-5
-19
-21
-61
-32
4
-59
-7
-57
16
-16
-21
-30
-25
-9
-14
46
-4
1
43
18
-15
-5
-47
-27
-17
9
99
-80
-63
-53
-61
-1
-34
-64
-21
-38
-5
-58
-30
17
3
-16
-5
-9
-41
-44
-49
-23
-47
17
-51
-42
-42
-17
-43
-51
-49
-7
-3
-43
6
-39
-3
-25
-32
-13
-46
11
5
-13
-16
-32
21
13
-20
-4
3
-45
-14
-25
33
-53
-26
2
-26
-26
-60
5
5
38
-18
-10
-19
-30
-17
-33
-16
-27
5
25
2
-10
-41
35
-7
-29
-4
-36
-11
-14
-44
-50
-76
-44
-35
-39
-33
-13
19
-43
-48
-76
-5
5
-32
-7
-38
24
-11
44
-34
30
-32
-89
-45
34
1
-20
-69
-61
18
10
-23
-17
49
-22
-35
-16
-2
-24
-24
-8
-64
-21
-59
-22
84
1
-52
-63
27
-2
-29
5
-2
-11
12
-46
-35
-35
-19
-43
45
14
-33
-12
-48
-13
-31
-13
-32
-14
-17
47
-57
-5
-63
20
2
9
4
-5
-19
-24
-64
-32
3
-58
-1
-53
18
-16
-18
-28
-24
-6
-21
45
-4
-1
48
16
-17
-5
-47
-27
-15
9
101
-80
-61
-52
-61
-1
-29
-67
-22
-37
-6
-58
-30
18
4
-16
-6
-15
-39
-44
-52
-21
-48
19
-52
-41
-44
-17
-44
-53
-47
-6
2
-44
5
-38
-4
-22
-35
-16
-47
12
6
-13
-16
-33
22
12
-19
-2
3
-41
-9
-22
36
-54
-27
3
-27
-28
-63
3
5
40
-15
-8
-20
-26
-15
-31
-17
-28
5
23
3
-8
-41
34
-9
-29
-7
-36
-11
-12
-43
-50
-73
-43
-35
-36
-33
-15
21
-42
-44
-77
-5
6
-28
-5
-39
26
-9
46
-36
29
-30
-94
-47
36
-1
-18
-70
-60
15
11
-19
-15
52
-22
-34
-17
-1
-26
-23
-7
-62
-23
-60
-21
84
2
-52
-65
23
-2
-30
8
2
-9
15
-48
-35
-38
-17
-41
45
14
-32
-12
-51
-13
-30
-11
-37
-16
-15
45
-58
-12
-62
21
0
12
-2
-5
-16
-24
-60
-35
3
-54
-3
-55
18
-13
-19
-29
-26
-8
-15
42
-4
-1
45
14
-14
-7
-45
-25
-17
8
97
-80
-61
-53
-61
-1
-29
-63
-21
-37
-9
-57
-28
21
4
-17
-5
-11
-42
-44
-50
-23
-49
17
-52
-44
-43
-19
-42
-51
-44
-5
-2
-43
6
-37
-4
-25
-32
-14
-47
11
7
-14
-19
-32
23
12
-19
-5
1
-45
-10
-23
33
-54
-26
-1
-27
-23
-65
6
5
39
-18
-12
-18
-29
-19
-31
-17
-27
8
23
4
-10
-39
34
-5
-28
-3
-35
-9
-16
-41
-53
-75
-44
-34
-37
-33
-17
23
-41
-45
-78
-4
8
-34
-3
-40
24
-11
45
-36
31
-28
-90
-46
35
4
-19
-74
-61
17
9
-21
-15
51
-22
-32
-15
-5
-28
-22
-13
-60
-25
-60
-19
91
5
-53
-66
26
-2
-32
5
-6
-2
12
-53
-38
-42
-16
-37
43
16
-31
-19
-49
-17
-21
-12
-32
-13
-16
44
-50
-19
-55
15
0
20
-24
-7
-19
-27
-54
-39
10
-59
-10
-59
18
-13
-12
-33
-27
-1
-28
43
2
-8
47
13
-10
-6
-42
-22
-20
8
93
-79
-63
-56
-61
-5
-26
-50
-23
-39
-6
-58
-30
22
-8
-17
-5
-10
-44
-44
-48
-19
-45
26
-48
-43
-42
-20
-36
-45
-45
-6
0
-36
8
-48
0
-33
-32
-7
-46
13
10
-18
-18
-29
26
22
-23
-10
-11
-49
-14
-17
30
-63
-21
0
-28
-16
-73
11
5
37
-18
-15
-18
-33
-18
-25
-16
-30
10
18
5
-16
-40
43
-3
-21
-1
-37
-11
-13
-39
-61
-82
-37
-38
-43
-31
-18
21
-39
-45
-88
-3
8
-49
-2
-37
26
-14
45
-41
23
-22
-91
-59
33
0
-20
-74
-66
22
3
-30
-15
56
-16
-32
-28
-3
-10
-21
-12
-65
-22
-56
-34
85
13
-66
-60
7
-21
-18
-9
-19
-13
7
-36
-62
-60
1
-33
35
-8
-31
-31
-53
-24
7
-17
-21
-11
-20
53
-35
-27
-64
-9
-3
11
-52
-4
-26
-12
-57
-41
-2
-79
-4
-66
4
-34
-12
-64
-14
-9
-26
40
22
-28
16
24
-1
-18
-47
-33
-18
14
85
-67
-33
-8
-52
-9
-27
-40
-8
-42
-7
-45
-30
29
6
-1
17
-6
-16
-32
-45
-27
-35
28
-37
-41
-34
-2
-15
-28
-39
-31
1
-27
14
-68
18
-41
-10
-1
-45
4
3
-46
-5
-49
34
25
-35
-25
-36
-25
-23
-14
29
-41
7
2
-32
-34
-61
16
3
23
-24
-5
-23
-46
-15
-24
-27
-47
18
26
-13
-28
-47
46
4
-17
0
-37
-30
2
-52
-42
-80
-47
-44
-34
-21
-16
5
-48
-45
-91
-40
17
-63
15
-57
19
-8
51
-52
35
-41
-85
-80
23
-13
-33
-55
-68
26
7
-34
-19
26
3
-31
-27
5
-9
-13
2
-68
-12
-59
-34
95
7
-70
-53
7
-18
-24
-16
-17
-25
7
-31
-60
-60
-5
-34
36
-23
-22
-29
-57
-25
4
-25
-17
-14
-20
51
-28
-21
-51
-22
-8
11
-60
-8
-19
-21
-57
-41
7
-92
-4
-70
8
-30
-16
-61
-14
-3
-41
43
25
-16
14
18
-13
-17
-45
-20
-18
9
91
-72
-33
0
-55
-4
-18
-50
-5
-34
8
-50
-26
20
3
3
13
-3
-8
-47
-50
-27
-38
19
-47
-41
-29
-5
-16
-33
-45
-29
14
-32
10
-61
28
-49
-19
-4
-39
4
-1
-53
-13
-49
33
29
-36
-21
-29
-22
-27
-18
20
-49
1
-2
-24
-37
-50
13
-14
24
-34
-6
-9
-53
-23
-11
-33
-61
31
31
-9
-25
-36
48
1
-26
-12
-36
-29
-8
-47
-54
-87
-38
-38
-39
-15
-8
8
-40
-43
-87
-49
11
-82
17
-48
10
-15
56
-60
18
-42
-81
-82
28
-24
-35
-54
-69
31
11
-22
-10
35
1
-29
-23
-2
-22
-26
-14
-59
-23
-52
-20
86
9
-52
-68
22
-3
-34
5
-7
-2
12
-49
-38
-39
-7
-35
41
13
-36
-22
-50
-21
-28
-14
-31
-10
-17
43
-55
-12
-58
22
0
14
-32
-2
-18
-33
-55
-41
11
-62
-12
-55
27
-16
-11
-35
-31
-8
-29
43
-4
-2
43
12
-14
-5
-43
-19
-22
5
96
-87
-61
-61
-55
-1
-20
-52
-18
-34
4
-55
-19
24
-8
-19
-3
-15
-42
-39
-46
-21
-47
24
-46
-48
-36
-19
-38
-44
-43
-3
-1
-37
5
-41
0
-33
-35
-5
-46
18
0
-24
-20
-30
18
17
-22
-9
-4
-43
-8
-21
34
-57
-26
-5
-24
-16
-64
9
4
37
-19
-20
-15
-32
-13
-31
-13
-32
12
20
2
-10
-41
43
-9
-32
-11
-42
-14
-12
-40
-54
-82
-37
-33
-44
-33
-17
25
-33
-44
-89
-5
9
-46
-6
-31
24
-11
46
-43
21
-27
-90
-56
37
-2
-19
-78
-64
25
4
-19
-11
60
-17
-42
-24
0
-18
-24
-10
-62
-22
-57
-21
83
6
-51
-64
29
1
-28
3
-5
-12
13
-47
-37
-35
-13
-39
44
10
-35
-12
-50
-16
-31
-11
-36
-12
-14
43
-58
-4
-62
21
2
8
-7
-6
-17
-29
-61
-33
4
-65
-3
-56
18
-19
-18
-34
-21
-13
-12
43
-8
3
38
16
-14
-5
-38
-23
-16
8
99
-82
-61
-50
-58
-6
-25
-65
-19
-34
-2
-58
-27
19
2
-17
-7
-14
-40
-41
-49
-20
-50
19
-48
-43
-40
-19
-41
-48
-45
-3
-2
-44
10
-36
-1
-24
-34
-14
-48
17
0
-18
-16
-32
20
10
-20
-8
1
-40
-10
-22
36
-55
-29
1
-26
-26
-54
3
2
39
-19
-11
-19
-30
-13
-38
-14
-30
10
24
-3
-10
-39
32
-11
-34
-7
-37
-13
-14
-44
-49
-73
-42
-33
-38
-31
-16
24
-39
-47
-82
-4
8
-34
-4
-36
18
-11
44
-40
24
-26
-89
-43
34
0
-16
-69
-60
15
14
-16
-17
54
-23
-37
-19
-4
-20
-24
-15
-60
-19
-61
-22
84
5
-52
-68
23
-1
-29
5
0
-6
14
-48
-36
-38
-14
-40
44
12
-37
-14
-50
-17
-30
-8
-32
-11
-14
44
-58
0
-58
24
2
11
-2
-7
-18
-28
-61
-32
5
-66
-2
-57
20
-14
-20
-31
-23
-11
-15
45
-5
4
48
17
-15
-5
-39
-27
-13
13
100
-80
-65
-57
-62
-5
-24
-66
-19
-33
-1
-59
-28
19
5
-17
-7
-14
-39
-40
-51
-17
-49
18
-49
-43
-42
-20
-43
-54
-44
-9
0
-42
9
-33
-2
-24
-36
-11
-50
11
3
-16
-16
-32
21
12
-22
-9
9
-38
-8
-19
37
-56
-30
1
-25
-23
-56
2
4
37
-18
-6
-19
-26
-13
-37
-13
-28
9
30
-1
-12
-41
32
-10
-35
-10
-37
-12
-12
-40
-45
-72
-45
-35
-36
-32
-20
27
-40
-46
-78
-6
7
-32
-6
-37
26
-8
48
-42
25
-24
-92
-43
35
-2
-12
-70
-61
18
13
-17
-18
55
-25
-37
-19
0
-20
-21
-15
-62
-20
-61
-21
86
8
-53
-64
25
-5
-27
6
2
-10
15
-42
-38
-41
-9
-39
42
7
-35
-14
-50
-21
-31
-8
-37
-13
-14
43
-59
-8
-60
24
0
9
-7
-6
-15
-29
-62
-32
6
-63
-1
-58
21
-19
-21
-29
-25
-11
-13
44
-4
3
41
17
-15
-8
-39
-22
-18
4
96
-80
-61
-55
-58
-3
-21
-63
-19
-36
-1
-61
-31
19
2
-17
-5
-8
-42
-45
-46
-20
-49
18
-50
-44
-41
-21
-42
-53
-46
-3
-2
-39
8
-33
-2
-26
-35
-12
-50
13
-2
-18
-18
-32
21
13
-21
-7
2
-42
-8
-20
36
-51
-31
1
-21
-25
-54
1
5
35
-18
-11
-18
-28
-13
-34
-17
-25
11
26
2
-12
-40
33
-10
-35
-7
-37
-12
-15
-41
-52
-74
-40
-32
-41
-35
-14
29
-38
-47
-81
-9
11
-31
-7
-36
17
-12
46
-41
28
-29
-90
-42
34
0
-12
-70
-62
18
13
-15
-17
58
-24
-36
-15
-4
-23
-25
-13
-56
-24
-59
-17
93
10
-48
-68
22
-8
-30
8
-6
-2
16
-50
-38
-43
-9
-32
42
9
-36
-20
-49
-21
-24
-9
-36
-14
-15
41
-49
-14
-56
20
-2
19
-27
-10
-17
-27
-54
-36
13
-62
-9
-59
18
-13
-12
-32
-29
-6
-27
42
1
-4
44
17
-11
-9
-37
-18
-16
7
92
-81
-60
-61
-58
-1
-20
-52
-22
-39
-4
-58
-25
21
-9
-18
-6
-10
-40
-45
-47
-19
-46
21
-46
-46
-35
-23
-38
-47
-44
-6
2
-34
11
-46
2
-33
-36
-7
-46
12
2
-18
-17
-28
23
21
-26
-10
-8
-45
-8
-15
31
-64
-25
-1
-25
-15
-64
10
5
35
-19
-14
-19
-35
-14
-31
-16
-33
15
18
4
-20
-41
42
-6
-32
-6
-41
-13
-14
-35
-58
-83
-37
-33
-42
-34
-19
27
-37
-45
-88
-4
14
-47
-4
-35
22
-11
44
-44
20
-20
-89
-56
34
-2
-14
-73
-62
22
6
-20
-17
62
-16
-32
-29
-3
-5
-22
-16
-62
-19
-51
-32
86
14
-66
-57
4
-20
-24
-5
-26
-15
6
-36
-59
-59
4
-34
33
-13
-26
-32
-53
-29
3
-14
-22
-9
-17
54
-36
-21
-64
-10
-8
9
-53
-3
-21
-16
-58
-41
0
-82
-3
-67
6
-34
-12
-66
-15
-13
-30
40
25
-23
9
19
1
-19
-42
-30
-17
12
84
-68
-32
-10
-52
-7
-23
-38
-7
-34
-4
-47
-19
26
7
-1
12
-8
-16
-31
-45
-25
-36
26
-36
-41
-33
-9
-18
-28
-36
-34
2
-29
16
-63
23
-39
-14
1
-48
7
-1
-48
-6
-48
33
28
-36
-22
-37
-28
-26
-14
28
-39
0
3
-31
-34
-59
14
1
24
-21
-7
-21
-48
-12
-23
-25
-50
20
33
-17
-25
-44
43
2
-24
0
-40
-29
4
-51
-41
-80
-44
-41
-35
-19
-14
7
-42
-43
-97
-39
16
-58
16
-53
10
-10
52
-54
30
-37
-86
-81
23
-19
-33
-54
-69
28
11
-21
-17
25
2
-34
-27
5
-3
-11
-3
-64
-13
-49
-29
102
15
-64
-57
-3
-16
-31
-21
-22
-24
8
-32
-56
-63
4
-30
28
-31
-25
-33
-48
-35
-1
-16
-23
-17
-16
51
-39
-6
-49
-16
-3
15
-60
-10
-17
-25
-50
-36
13
-91
0
-73
5
-26
-14
-55
-15
-5
-45
43
30
-8
24
17
-4
-25
-39
-8
-18
13
93
-68
-36
-13
-61
-4
-11
-50
-7
-31
13
-57
-18
18
-2
5
1
-10
-16
-36
-50
-29
-48
12
-38
-41
-29
-15
-12
-39
-45
-28
13
-24
10
-47
34
-60
-24
6
-35
3
4
-57
-15
-44
28
32
-40
-22
-21
-24
-23
-12
28
-53
2
-9
-24
-29
-43
7
-2
17
-30
2
-15
-56
-14
-15
-34
-56
35
29
-10
-26
-37
49
-9
-47
-21
-41
-36
-5
-43
-49
-85
-42
-36
-41
-14
-8
19
-32
-36
-90
-42
14
-85
18
-51
9
-14
54
-65
16
-29
-87
-83
26
-32
-35
-61
-73
28
14
-15
-13
44
-1
-30
-26
-1
-17
-28
-21
-52
-12
-42
-16
99
7
-49
-66
20
5
-33
-3
-8
-1
6
-50
-42
-33
-5
-32
37
1
-41
-25
-47
-28
-28
-3
-36
-5
-15
44
-59
1
-49
29
-3
15
-29
-9
-11
-29
-48
-37
13
-65
-8
-56
18
-13
-14
-29
-33
-7
-39
42
-5
5
59
5
-7
-16
-32
-12
-18
15
97
-80
-69
-69
-54
3
-21
-46
-16
-33
6
-56
-16
26
-8
-13
-17
-28
-43
-30
-52
-20
-50
26
-45
-53
-38
-37
-37
-51
-43
-6
4
-26
3
-36
11
-41
-35
-1
-39
12
10
-31
-29
-23
15
12
-29
-11
11
-41
-5
-14
39
-75
-30
-5
-24
-6
-53
2
6
26
-19
-10
-16
-29
-8
-28
-14
-30
24
25
11
-13
-44
48
-7
-47
-26
-44
-19
-9
-42
-49
-82
-38
-33
-42
-27
-18
34
-23
-46
-87
-10
22
-58
2
-39
26
-12
44
-54
17
-12
-93
-59
33
-12
-11
-83
-70
22
6
-15
-11
68
-17
-41
-31
0
-13
-22
-19
-53
-12
-48
-16
94
8
-50
-64
23
8
-30
-3
-2
-8
9
-45
-40
-32
-13
-35
40
4
-40
-22
-49
-31
-31
0
-32
-5
-8
38
-63
4
-49
30
2
11
-10
-11
-5
-25
-52
-28
10
-65
0
-52
16
-10
-18
-24
-23
-13
-27
41
-4
6
53
7
-11
-11
-29
-14
-12
11
98
-79
-71
-60
-56
1
-24
-66
-12
-36
0
-58
-19
19
8
-14
-13
-30
-40
-35
-52
-22
-52
18
-50
-48
-38
-36
-37
-56
-41
-3
-1
-30
9
-29
9
-36
-31
-6
-38
5
11
-23
-21
-23
21
11
-28
-7
14
-37
-8
-13
40
-68
-33
0
-26
-14
-46
-1
9
28
-16
0
-15
-30
-12
-35
-15
-30
19
25
6
-9
-40
40
-11
-44
-24
-36
-14
-6
-43
-49
-78
-40
-35
-36
-27
-16
29
-29
-52
-78
-13
14
-50
-2
-36
24
-10
46
-52
27
-16
-94
-44
28
-9
-10
-74
-66
18
14
-9
-16
63
-25
-32
-26
-1
-12
-21
-21
-51
-11
-51
-16
92
6
-48
-64
22
11
-30
-1
0
-5
6
-50
-41
-30
-12
-33
39
5
-41
-20
-50
-28
-31
-1
-30
-5
-10
42
-63
8
-56
30
3
9
-4
-9
-10
-26
-51
-25
7
-64
2
-51
17
-7
-14
-23
-22
-10
-30
43
-5
3
62
7
-10
-16
-28
-18
-8
16
101
-79
-71
-63
-58
-3
-22
-62
-13
-37
-4
-58
-22
21
10
-14
-15
-29
-42
-34
-51
-19
-55
21
-48
-48
-41
-33
-38
-60
-43
-10
1
-35
8
-30
12
-36
-31
-5
-39
3
8
-22
-20
-26
18
10
-29
-12
17
-35
-7
-10
40
-71
-30
0
-22
-17
-50
-1
7
29
-15
1
-18
-26
-12
-34
-12
-30
18
30
10
-12
-41
42
-14
-44
-24
-34
-15
-9
-47
-44
-77
-40
-34
-37
-29
-20
29
-30
-48
-77
-14
14
-49
-1
-37
28
-15
46
-55
27
-9
-93
-49
30
-10
-6
-76
-69
17
8
-9
-16
65
-25
-36
-24
-3
-12
-20
-22
-51
-12
-51
-17
96
3
-48
-65
19
7
-30
-2
2
-6
9
-48
-41
-34
-10
-36
39
6
-41
-20
-46
-31
-28
0
-32
-3
-9
40
-63
5
-54
27
3
11
-6
-9
-11
-28
-52
-26
11
-62
-2
-54
15
-12
-13
-20
-24
-14
-25
43
-2
4
58
4
-9
-15
-30
-15
-13
13
100
-78
-68
-66
-56
0
-25
-63
-14
-40
0
-58
-21
23
8
-15
-14
-27
-42
-37
-47
-20
-54
20
-51
-50
-37
-38
-36
-56
-45
-6
2
-28
9
-30
9
-38
-32
-2
-40
3
10
-23
-20
-25
19
11
-30
-9
14
-35
-6
-15
39
-66
-31
0
-24
-15
-50
-2
10
29
-14
5
-16
-27
-11
-37
-17
-29
19
28
11
-13
-40
43
-12
-45
-22
-36
-15
-8
-43
-50
-75
-41
-34
-37
-27
-21
30
-27
-50
-80
-13
14
-45
-3
-37
25
-13
46
-54
26
-14
-94
-50
28
-9
-7
-75
-67
19
10
-10
-17
66
-25
-34
-20
-4
-19
-21
-21
-57
-17
-48
-17
105
6
-47
-63
17
3
-32
-3
-10
-6
7
-51
-42
-40
-6
-34
36
0
-37
-24
-46
-33
-25
1
-35
-7
-12
44
-59
-4
-52
28
-5
14
-23
-8
-12
-31
-49
-36
15
-63
-5
-53
11
-11
-9
-30
-28
-10
-37
43
1
5
47
7
-6
-14
-26
-8
-16
14
95
-75
-59
-64
-57
2
-17
-52
-16
-41
-1
-57
-19
21
-6
-11
-13
-21
-42
-36
-52
-18
-50
21
-43
-50
-35
-38
-34
-47
-45
-9
4
-22
10
-37
10
-42
-37
-3
-40
10
8
-25
-25
-26
22
18
-38
-16
3
-41
-8
-9
38
-70
-26
1
-26
-10
-54
3
4
26
-16
-4
-19
-33
-12
-26
-19
-35
24
23
6
-14
-45
43
-5
-46
-21
-43
-15
-6
-37
-54
-83
-40
-40
-41
-28
-17
31
-21
-52
-88
-12
19
-57
1
-35
24
-13
45
-56
18
-14
-92
-54
29
-10
-9
-77
-69
23
11
-12
-14
64
-17
-34
-30
-5
0
-16
-23
-59
-19
-43
-29
94
13
-58
-57
-2
-21
-29
-18
-21
-13
10
-34
-60
-57
12
-30
30
-22
-30
-33
-47
-38
1
-3
-23
-8
-16
57
-41
-13
-59
-4
-8
10
-58
-6
-22
-17
-54
-40
5
-79
-4
-63
1
-28
-5
-63
-16
-16
-35
42
24
-19
21
14
7
-22
-36
-17
-17
17
85
-61
-35
-20
-56
-9
-15
-42
-6
-32
0
-52
-14
27
6
4
8
-11
-22
-23
-48
-22
-45
18
-35
-41
-34
-14
-16
-30
-37
-38
5
-22
24
-49
26
-44
-19
7
-46
6
5
-46
-12
-40
36
26
-42
-28
-22
-26
-19
-6
36
-55
6
-1
-30
-25
-57
13
3
17
-19
-1
-25
-48
-11
-25
-27
-51
31
30
-17
-30
-46
42
-3
-36
-14
-44
-33
4
-49
-38
-78
-50
-42
-38
-19
-17
15
-32
-43
-95
-39
13
-68
19
-54
13
-9
54
-63
24
-25
-81
-81
23
-21
-30
-57
-72
26
17
-16
-17
33
4
-31
-16
-6
-8
-20
-5
-94
0
-36
-30
124
24
-92
-59
-40
-28
-13
-5
-31
-29
7
-20
-82
-75
1
2
22
-60
-11
-45
-53
-20
24
-8
-28
-24
-47
34
-44
-2
-58
-45
-3
7
-63
-12
21
8
-31
-33
-45
-120
30
-77
-15
-35
-12
-72
17
-18
-31
59
33
-23
-28
22
30
-46
-28
-4
-11
23
63
-78
-29
38
-63
-6
-3
-37
13
-29
-13
-46
-13
3
4
38
11
1
0
-29
-58
-30
-35
12
30
-58
-39
-27
-4
-46
6
-33
30
-24
39
-48
12
-44
-10
7
-31
17
-5
-73
-16
-47
40
24
-61
-42
-1
-22
-15
-17
36
-26
39
-26
-31
-61
-10
11
-11
5
-30
39
-4
-66
-18
-12
-36
-51
47
46
-19
-39
-54
45
-3
-48
-35
-14
-32
24
-47
-38
-74
-59
-39
-21
-7
-19
9
-3
-43
-84
-70
4
-70
13
-63
11
-20
61
-79
35
-17
-97
-65
4
-3
-57
-35
-64
34
25
-33
-12
30
0
-26
-4
-11
-14
-38
-29
-72
-15
-37
-19
107
8
-74
-68
-20
0
-13
9
-29
-4
-2
-35
-56
-45
-3
1
30
-10
-41
-43
-57
-17
7
-13
-43
-15
-25
20
-56
11
-44
7
-2
7
-43
-17
12
-7
-36
-33
-18
-91
23
-59
1
-18
-16
-46
-9
-8
-21
61
10
-2
10
13
17
-38
-35
4
-20
31
68
-86
-56
-23
-52
-17
-20
-54
7
-40
-16
-44
-10
15
-3
0
9
-25
-38
-22
-46
-23
-27
5
-3
-67
-32
-15
-21
-65
-12
-18
16
-27
11
-44
10
-36
-2
-4
-32
15
3
-64
-16
-36
27
12
-52
-33
15
-17
-18
-16
43
-48
-4
-10
-31
-24
-8
-1
-3
15
-18
32
-2
-36
-5
-24
-13
-32
22
35
12
-22
-55
51
-6
-18
-30
-12
-34
5
-62
-54
-71
-42
-49
-18
-23
-26
24
-5
-54
-88
-41
6
-52
2
-50
24
-17
41
-64
44
10
-95
-52
19
0
-34
-55
-69
15
0
-28
-10
38
-19
-34
-10
-12
-10
-33
-30
-71
-9
-38
-18
104
14
-70
-60
-21
1
-11
7
-24
-6
-3
-31
-62
-44
-8
0
30
-12
-37
-42
-57
-17
0
-16
-38
-12
-21
21
-60
10
-43
3
-4
5
-32
-17
14
-13
-34
-25
-23
-90
29
-57
2
-20
-21
-39
-2
-11
-12
61
10
0
2
14
14
-33
-34
-8
-17
26
75
-81
-58
-20
-53
-16
-13
-61
11
-41
-29
-45
-13
11
11
-3
6
-23
-28
-24
-47
-26
-29
4
-7
-62
-34
-17
-22
-69
-15
-16
11
-31
11
-43
8
-37
4
-11
-33
14
6
-50
-15
-32
28
9
-49
-29
8
-17
-17
-16
41
-40
-7
-4
-26
-34
-7
0
0
16
-20
28
-1
-31
-10
-24
-11
-24
24
40
10
-13
-52
49
-9
-11
-26
-12
-35
4
-63
-47
-69
-44
-47
-17
-24
-26
19
-12
-55
-74
-43
-1
-48
-4
-49
24
-17
43
-65
44
2
-92
-43
14
1
-29
-54
-68
8
1
-24
-9
34
-20
-33
-7
-13
-10
-29
-30
-73
-10
-40
-18
103
8
-70
-61
-23
3
-12
5
-23
-9
-3
-31
-59
-42
-10
0
28
-13
-38
-35
-60
-15
2
-16
-40
-12
-20
19
-60
14
-44
0
-4
6
-27
-17
16
-11
-32
-25
-22
-92
26
-56
3
-19
-20
-42
2
-11
-13
61
11
-2
2
13
16
-36
-32
-12
-15
26
75
-83
-58
-19
-56
-18
-11
-60
10
-42
-33
-47
-16
12
11
-3
4
-26
-31
-25
-50
-27
-28
4
-7
-61
-32
-16
-23
-71
-18
-14
10
-31
11
-45
6
-36
-1
-14
-36
14
4
-48
-13
-35
26
6
-51
-32
13
-15
-17
-12
41
-37
-5
-3
-29
-37
-7
3
2
20
-19
28
1
-31
-10
-23
-10
-26
23
40
8
-14
-44
49
-11
-13
-28
-10
-36
4
-63
-43
-68
-43
-46
-16
-23
-26
19
-11
-54
-74
-42
-2
-46
-4
-49
21
-15
44
-64
45
3
-95
-42
15
2
-29
-53
-69
8
-1
-22
-9
36
-21
-36
-6
-13
-12
-28
-29
-69
-9
-42
-17
104
13
-70
-62
-20
4
-14
3
-21
-6
-5
-37
-57
-46
-8
1
31
-8
-38
-38
-58
-20
1
-13
-39
-14
-19
20
-59
12
-45
0
-5
8
-32
-17
14
-16
-31
-28
-22
-87
23
-59
0
-21
-20
-41
-3
-10
-15
62
10
-2
8
13
13
-32
-27
-7
-15
27
75
-83
-58
-25
-54
-16
-13
-61
12
-45
-29
-48
-14
15
9
-5
7
-24
-32
-25
-49
-28
-29
5
-7
-65
-36
-17
-22
-68
-16
-18
10
-31
10
-42
7
-34
0
-11
-34
18
4
-48
-14
-35
29
6
-57
-31
11
-15
-15
-14
43
-43
-5
-5
-26
-34
-10
3
4
14
-20
27
-3
-30
-14
-25
-9
-28
24
41
6
-15
-48
42
-8
-15
-27
-12
-36
-1
-60
-49
-72
-43
-45
-17
-23
-28
18
-13
-54
-77
-39
0
-45
-3
-49
20
-18
44
-60
44
2
-96
-44
16
1
-31
-53
-69
11
3
-27
-11
39
-21
-33
-1
-14
-16
-33
-30
-74
-14
-38
-21
108
14
-72
-65
-21
-3
-13
5
-26
-2
-2
-36
-62
-50
-7
7
26
-14
-34
-40
-55
-18
1
-11
-42
-12
-30
21
-54
8
-46
4
-3
5
-42
-17
14
-13
-33
-34
-19
-90
20
-59
-2
-17
-23
-45
-10
-9
-19
63
10
-2
6
12
17
-35
-26
3
-23
30
70
-84
-55
-22
-53
-13
-14
-55
11
-45
-20
-44
-11
10
-2
-1
7
-24
-35
-21
-47
-23
-31
4
-2
-68
-32
-20
-17
-61
-13
-21
15
-27
9
-44
7
-35
-2
-5
-35
18
0
-54
-19
-35
31
11
-57
-34
9
-15
-14
-8
42
-46
-3
-7
-29
-25
-11
5
-2
14
-19
28
-2
-38
-7
-22
-16
-29
24
37
5
-21
-52
43
-9
-15
-28
-18
-38
5
-58
-54
-73
-39
-48
-21
-21
-23
18
-8
-54
-83
-40
6
-53
1
-50
21
-17
44
-62
42
7
-95
-49
13
0
-33
-58
-67
15
4
-26
-12
39
-16
-28
-16
-8
-1
-24
-21
-83
-9
-31
-37
121
24
-88
-51
-33
-36
-8
3
-30
-10
9
-18
-82
-69
14
14
18
-52
-13
-38
-54
-20
15
-6
-17
-23
-35
35
-44
1
-56
-36
-7
-5
-59
-10
18
12
-36
-41
-41
-104
21
-76
-25
-39
-20
-76
6
-18
-27
57
22
-22
-9
2
29
-35
-21
-9
-13
18
64
-81
-25
24
-67
-5
-10
-33
17
-35
-15
-42
-4
13
4
29
8
-2
-5
-21
-60
-27
-41
14
25
-46
-37
-25
-5
-47
3
-33
25
-29
33
-43
10
-38
-5
5
-36
15
-5
-78
-20
-44
53
30
-63
-45
-4
-26
-16
-15
41
-30
32
-22
-36
-56
-14
6
-9
4
-24
38
-8
-62
-22
-13
-35
-50
41
47
-22
-43
-51
40
-8
-29
-34
-24
-34
27
-45
-42
-71
-56
-45
-23
-9
-16
4
-6
-48
-80
-68
2
-60
16
-64
20
-18
56
-73
43
-13
-86
-72
9
-4
-42
-38
-61
26
22
-41
-11
27
6
-28
