-6073
1690
6370
5623
-5952
-10784
-9465
-10698
278
4458
4276
-8091
-14370
10923
9808
7415
12155
21575
20497
-1127
3998
-2477
5553
12716
-15794
6807
6880
-21879
676
-4026
1458
-4471
-1917
-4065
-10716
18472
-1949
-17086
-7050
4146
12647
429
9497
281
-9150
5306
-4789
-14609
10207
13823
2337
-11967
-6379
12703
3152
2690
3294
-7448
12366
-16677
12389
-4166
-1768
21015
-8264
4571
5922
-4492
-9732
-3209
14791
18697
-22903
-4846
-11357
-751
1755
-18804
-468
-2582
-18897
2083
-12876
5009
4665
2694
-10564
9688
-14328
1114
11358
-310
10172
-3078
6576
-9608
2499
256
4780
620
7056
6814
-3194
-4375
-17135
-547
531
21457
-11172
-5236
17478
3526
-7406
10784
-19337
-2979
-123
-11510
-953
9081
-931
12336
8422
3416
1408
28849
-22490
-14713
5133
-1344
11866
-4727
-3017
1038
15556
-975
10522
22184
-9166
86
-5556
-5744
-12762
-1364
387
11572
34
-7092
20085
-1107
4351
9568
-12412
-646
-16631
-20389
-15327
-9097
-17836
-20061
1024
-22340
615
3038
6140
4036
-9382
-2168
16487
-575
5974
-5133
22893
-15075
17786
-15390
-4505
5868
-5086
-18670
12636
7747
4754
-28850
-6852
1038
-11661
-20114
-4261
27336
-700
1941
