-34
-2
-37
-5
10
-93
23
-61
-45
123
7
-98
-84
-9
-46
3
-10
18
-31
-12
-45
-104
-92
7
-37
38
-10
3
-24
-70
-1
5
-20
-13
-21
-31
71
-43
-33
-25
-48
-13
-3
-77
17
-21
6
-36
-23
-33
-85
38
-63
-39
-27
2
-61
24
-1
-32
62
44
-37
36
11
-19
-16
-51
-17
-32
24
93
-60
-43
20
-77
10
-30
-40
-25
-47
-5
-67
-39
35
7
43
4
0
5
-29
-72
-23
-43
28
-23
-21
-36
-8
0
-49
-7
-31
46
-25
21
-71
32
-32
-16
17
-10
-7
16
-52
-24
-70
68
45
-32
-35
20
-19
-24
-14
8
-44
37
-25
-36
-49
-65
30
-36
18
-26
44
11
-67
-51
18
-62
-69
45
55
-32
-70
-59
51
7
-41
4
-32
-5
28
-40
-50
-92
-64
-10
-15
-17
-28
9
-49
-42
-66
-81
-13
-89
4
-61
35
-38
60
-63
42
-44
-97
-78
14
6
-47
-59
-47
16
-1
-43
-6
33
17
-50
-28
-12
-29
-18
7
-57
5
-56
-31
99
6
-88
-85
-18
-14
-11
-3
18
-4
0
-54
-77
-59
16
-29
42
33
-8
-20
-62
-4
-21
-6
-27
-6
-6
73
-70
-8
-33
-5
-13
5
-63
4
-26
-6
-43
-22
-3
-57
35
-36
-15
-2
6
-45
-16
10
-23
67
32
-13
24
13
-30
-8
-57
5
-45
13
95
-61
-77
-28
-66
6
-26
-45
-25
-47
-5
-66
-22
41
-11
13
-5
-11
-39
-32
-69
-15
-29
8
-47
-48
-40
0
-9
-65
-5
-14
30
-42
12
-44
20
-17
-18
1
-16
-12
14
-30
-21
-52
45
31
-21
-23
46
-16
-22
-11
26
-87
-14
-16
-41
-26
-51
31
-11
22
-10
34
4
-50
-36
-2
-25
-35
14
44
1
-50
-65
56
10
-16
9
-34
-1
26
-53
-48
-84
-54
1
-18
-37
-27
35
-49
-46
-82
-43
6
-62
-10
-65
40
-36
48
-56
38
-11
-97
-46
16
6
-35
-82
-66
5
-13
-33
-15
42
-19
-45
-24
-15
-22
-12
5
-59
12
-57
-23
100
2
-82
-84
-22
-15
-12
-7
19
-17
-1
-52
-77
-59
12
-36
43
29
-9
-15
-63
-6
-27
-7
-29
-1
-7
68
-68
3
-35
-6
-13
5
-44
2
-23
-5
-41
-11
-12
-61
39
-34
-10
-5
2
-40
-9
7
-19
66
35
-10
19
11
-29
-6
-49
-2
-48
13
106
-58
-77
-19
-64
4
-12
-58
-23
-44
-17
-60
-27
38
2
13
-10
-13
-34
-36
-69
-16
-25
8
-44
-47
-40
-13
-12
-68
-3
-10
25
-40
13
-44
21
-11
-23
-9
-18
-3
4
-29
-24
-47
40
27
-22
-24
49
-19
-24
-7
24
-76
-18
-15
-44
-26
-42
28
-6
18
-13
39
5
-50
-40
-5
-27
-30
10
43
-4
-43
-68
53
1
-15
1
-30
-4
27
-55
-45
-80
-52
2
-17
-36
-28
37
-46
-45
-72
-48
7
-56
-8
-63
31
-36
48
-56
38
-20
-98
-39
15
8
-33
-80
-60
4
-6
-22
-17
39
-21
-53
-25
-16
-24
-8
5
-60
14
-60
-27
103
-1
-84
-86
-20
-13
-7
-11
24
-13
-1
-54
-73
-62
4
-39
44
25
-11
-14
-65
-7
-23
-6
-24
-1
-9
67
-69
6
-35
-6
-13
2
-40
0
-26
-1
-43
-10
-9
-66
44
-35
-8
-4
2
-39
-9
5
-16
67
33
-8
25
11
-29
-9
-46
-7
-51
17
102
-65
-75
-21
-65
1
-16
-59
-25
-45
-16
-65
-29
37
2
16
-11
-18
-35
-34
-69
-13
-25
8
-43
-51
-40
-12
-10
-69
-6
-12
28
-40
12
-44
21
-12
-24
-12
-15
-3
3
-30
-22
-51
41
27
-22
-23
53
-17
-24
-7
21
-82
-13
-13
-43
-25
-39
26
-8
21
-15
43
1
-46
-42
-4
-28
-27
11
43
-4
-47
-70
54
1
-18
1
-30
-7
29
-54
-48
-77
-51
1
-16
-33
-28
38
-44
-41
-74
-53
6
-58
-8
-60
32
-39
50
-52
39
-17
-99
-43
17
5
-33
-79
-60
5
-10
-21
-15
38
-23
-53
-24
-16
-24
-9
6
-55
10
-59
-23
101
1
-81
-84
-22
-13
-12
-8
19
-14
4
-53
-74
-60
6
-37
41
32
-10
-17
-64
-6
-26
-8
-28
1
-7
67
-68
-1
-36
-4
-15
7
-45
1
-24
-4
-40
-12
-6
-58
41
-35
-5
-4
4
-38
-16
5
-16
66
37
-6
22
10
-29
-6
-54
-2
-53
17
101
-56
-79
-23
-64
4
-14
-58
-21
-43
-16
-64
-25
38
-1
12
-10
-14
-36
-31
-65
-18
-25
7
-48
-50
-37
-10
-13
-65
-8
-10
24
-39
15
-45
21
-14
-20
-11
-17
-3
4
-27
-24
-47
39
26
-23
-20
46
-18
-22
-6
22
-77
-17
-18
-42
-27
-42
26
-2
22
-13
38
5
-48
-47
-11
-30
-30
12
43
-4
-45
-69
51
4
-16
-1
-33
-2
28
-56
-47
-78
-49
3
-16
-33
-29
40
-46
-40
-71
-48
8
-59
-10
-61
31
-38
47
-53
41
-17
-97
-41
14
6
-32
-78
-63
8
-10
-18
-14
38
-25
-51
-24
-15
-27
-11
9
-55
6
-61
-26
104
11
-83
-81
-26
-14
-12
-10
14
-10
1
-59
-74
-61
14
-33
41
27
-5
-21
-60
-2
-23
-12
-28
-4
-9
71
-66
-13
-34
-11
-18
10
-66
6
-28
-9
-43
-19
-4
-56
33
-36
-15
-5
3
-45
-17
12
-26
66
37
-13
15
13
-28
-9
-49
8
-47
12
97
-51
-77
-23
-67
4
-19
-46
-20
-49
-12
-65
-25
36
-6
18
-5
-11
-40
-34
-69
-15
-32
10
-49
-46
-41
-7
-11
-62
-11
-9
21
-41
15
-48
19
-24
-22
-5
-21
-11
10
-27
-23
-53
42
35
-24
-21
40
-18
-27
-13
21
-80
-13
-23
-39
-23
-48
30
-7
22
-14
34
4
-51
-43
-5
-28
-32
17
35
-4
-52
-66
53
6
-16
5
-33
1
21
-52
-53
-78
-54
2
-20
-32
-28
34
-50
-46
-82
-42
3
-68
-6
-65
31
-34
46
-54
35
-16
-98
-46
14
6
-38
-77
-65
9
-10
-26
-15
39
-18
-45
-37
-12
-23
-3
1
-73
16
-55
-34
115
5
-96
-77
-9
-39
-7
-6
22
-23
-4
-47
-109
-87
20
-37
38
-4
-1
-23
-64
-1
1
-12
-11
-9
-25
66
-50
-38
-38
-33
-12
-3
-75
20
-27
16
-40
-30
-23
-77
37
-63
-36
-23
3
-73
7
0
-29
58
34
-41
31
6
-9
-13
-47
-19
-39
18
84
-61
-46
12
-72
6
-28
-34
-19
-42
-18
-54
-36
30
6
37
8
-3
-3
-17
-73
-22
-42
31
-23
-18
-42
-2
3
-42
-3
-38
34
-21
24
-67
26
-24
-6
13
-26
-6
14
-53
-24
-64
71
39
-29
-40
15
-14
-32
-7
9
-39
32
-18
-43
-42
-68
34
-26
15
-19
40
-4
-64
-45
7
-51
-65
41
50
-28
-68
-58
52
14
-27
4
-37
-14
34
-49
-35
-86
-68
-12
-9
-26
-34
9
-58
-39
-75
-80
-1
-81
2
-68
29
-42
61
-57
48
-43
-99
-80
8
5
-46
-54
-53
20
5
-42
-9
22
15
-53
-10
1
-27
-11
13
-66
-9
-68
-30
96
10
-75
-72
17
-10
-17
0
-7
-23
1
-43
-60
-68
-11
-42
38
-12
-26
-23
-52
-8
6
-35
-19
-14
-24
61
-33
-39
-32
-33
-8
12
-54
-2
-18
-9
-42
-46
8
-76
4
-74
-5
-13
-8
-52
-3
3
-42
43
24
-25
22
7
-24
-9
-62
-31
-22
24
79
-55
-43
2
-59
-6
-33
-40
-15
-44
-9
-54
-24
17
0
3
15
-10
-6
-39
-64
-22
-31
27
-37
-43
-25
10
-18
-41
-39
-25
14
-26
2
-63
17
-61
-5
4
-31
-6
26
-49
-11
-53
43
21
-33
-19
-36
-18
-22
-20
11
-61
3
5
-34
-27
-71
21
-24
26
-24
-3
4
-59
-27
2
-27
-67
19
31
-24
-40
-46
45
12
-32
0
-36
-29
-2
-42
-51
-85
-47
-28
-30
-16
-10
26
-43
-34
-76
-50
0
-73
14
-34
24
-14
46
-53
17
-37
-70
-80
28
-9
-48
-60
-60
22
-8
-35
-8
43
2
-18
-14
-4
-29
-19
-1
-45
-21
-59
-17
83
3
-56
-73
31
11
-35
11
3
2
11
-56
-36
-41
-9
-41
38
25
-30
-15
-46
-1
-28
-10
-37
-8
-14
53
-58
-28
-50
5
-2
15
-24
5
-14
-21
-48
-45
10
-42
-2
-60
15
3
-3
-21
-16
-2
-39
46
-5
-8
36
0
-24
-1
-58
-20
-26
11
86
-66
-82
-56
-55
-12
-35
-43
-21
-48
-15
-58
-22
25
-10
-18
-3
-14
-44
-29
-58
-16
-36
23
-47
-47
-34
-6
-38
-51
-47
0
-2
-40
-1
-48
-3
-48
-19
-10
-39
13
30
-13
-21
-34
30
10
-25
2
-7
-44
-15
-22
23
-70
-30
4
-35
-5
-75
17
-4
34
-13
-14
0
-36
-25
-16
-7
-28
1
21
4
-29
-53
47
5
-25
2
-41
-11
-5
-40
-47
-83
-40
-21
-37
-34
-15
38
-37
-38
-70
-14
1
-42
-12
-29
40
-7
34
-37
22
-15
-73
-45
32
6
-22
-75
-62
17
-3
-36
-11
57
-21
-33
-18
-3
-29
-15
-7
-49
-20
-62
-13
85
-4
-50
-73
22
13
-33
4
10
-1
14
-51
-41
-41
-21
-49
41
24
-30
-12
-45
-3
-33
-4
-35
-9
-8
48
-62
-24
-51
12
3
15
-4
1
-15
-17
-48
-34
3
-44
5
-56
14
7
-13
-23
-5
-6
-29
46
-7
-5
27
3
-25
1
-51
-23
-26
13
92
-61
-81
-51
-56
-12
-33
-57
-23
-44
-17
-62
-28
18
-1
-20
-13
-15
-38
-34
-57
-17
-36
12
-52
-43
-36
-15
-43
-56
-48
1
-3
-35
3
-41
2
-33
-23
-16
-37
10
25
-5
-17
-31
29
8
-20
6
-1
-44
-17
-22
24
-57
-38
4
-39
-12
-63
11
-3
31
-14
-4
-3
-33
-31
-14
-12
-24
-6
29
-2
-24
-58
36
3
-26
-3
-34
-10
-5
-42
-44
-78
-47
-17
-34
-33
-19
33
-36
-40
-59
-14
7
-37
-14
-36
35
-3
38
-32
23
-22
-80
-32
35
6
-23
-75
-60
15
0
-23
-13
54
-25
-28
-15
-5
-32
-12
-9
-49
-17
-61
-16
85
-7
-51
-74
22
14
-35
7
14
-2
15
-51
-43
-40
-23
-50
41
22
-32
-10
-46
0
-32
-7
-36
-7
-9
48
-62
-19
-53
12
2
13
2
-1
-15
-19
-46
-32
3
-47
9
-55
13
6
-10
-21
-4
-7
-26
45
-4
-3
29
0
-30
-1
-49
-25
-26
11
90
-63
-79
-49
-57
-14
-25
-59
-24
-47
-19
-61
-31
16
4
-18
-13
-17
-37
-35
-56
-14
-41
14
-46
-41
-36
-20
-40
-58
-47
2
-4
-33
3
-43
-2
-34
-24
-18
-38
11
24
-6
-19
-31
28
9
-22
8
4
-42
-16
-25
21
-58
-40
4
-38
-13
-63
13
-4
33
-10
-1
-5
-29
-31
-12
-10
-24
-5
27
-2
-25
-54
38
3
-28
-6
-29
-9
-2
-39
-42
-74
-45
-18
-33
-33
-18
36
-35
-41
-59
-19
6
-34
-13
-34
40
-4
37
-32
24
-17
-78
-32
33
6
-22
-78
-61
14
-1
-21
-15
60
-27
-30
-17
-1
-33
-13
-7
-45
-18
-60
-14
85
-4
-49
-72
25
15
-36
5
12
3
15
-50
-41
-41
-20
-47
38
27
-31
-12
-45
-3
-30
-6
-34
-9
-9
50
-62
-21
-54
10
-3
12
-4
3
-17
-20
-50
-37
6
-43
8
-56
15
2
-10
-24
-9
-3
-28
45
-2
-5
29
-2
-27
-1
-49
-26
-26
6
90
-60
-80
-52
-57
-13
-27
-57
-21
-43
-22
-64
-25
22
-1
-18
-13
-17
-39
-34
-56
-16
-38
12
-49
-45
-34
-16
-38
-56
-49
5
-4
-35
4
-41
-2
-35
-24
-14
-40
12
25
-2
-21
-28
28
8
-23
9
-3
-46
-12
-24
21
-56
-38
2
-38
-13
-67
12
-4
33
-8
-5
-3
-30
-36
-14
-12
-26
-5
29
0
-24
-54
36
2
-24
1
-36
-8
-2
-39
-48
-81
-44
-20
-34
-31
-25
35
-36
-40
-67
-14
5
-34
-16
-33
41
-5
39
-30
23
-16
-78
-32
35
3
-21
-77
-62
14
-3
-22
-13
56
-25
-32
-11
-4
-35
-16
2
-45
-23
-59
-16
88
3
-53
-74
24
10
-38
10
0
3
11
-56
-42
-45
-17
-44
37
22
-28
-18
-44
-3
-24
-8
-34
-9
-11
52
-55
-31
-49
7
-4
20
-26
7
-14
-21
-46
-44
16
-41
0
-57
8
5
-8
-24
-13
1
-38
49
-2
-6
26
-1
-25
2
-53
-20
-26
8
84
-55
-77
-50
-57
-13
-29
-45
-21
-46
-20
-61
-22
21
-11
-18
-8
-8
-44
-35
-59
-13
-36
18
-47
-44
-31
-18
-36
-50
-51
-4
-9
-28
4
-51
1
-43
-16
-15
-42
10
25
-5
-22
-29
31
15
-27
1
-11
-49
-16
-18
20
-67
-26
2
-37
-9
-74
18
-1
32
-9
-10
-5
-38
-30
-11
-10
-26
3
21
2
-30
-53
41
6
-26
0
-43
-11
-9
-35
-51
-85
-39
-22
-38
-32
-19
32
-38
-39
-69
-9
4
-47
-10
-29
40
-5
36
-30
20
-13
-75
-39
30
1
-25
-69
-63
15
-1
-27
-13
56
-17
-28
-16
-8
-19
-15
-10
-56
-17
-57
-23
86
10
-72
-65
13
-9
-18
5
-11
-8
7
-45
-64
-61
-3
-40
33
-8
-24
-29
-45
-15
5
-16
-24
-6
-20
53
-36
-49
-51
-23
-13
12
-55
4
-25
0
-49
-44
3
-64
3
-67
-7
-9
-7
-61
-2
-10
-31
39
18
-30
16
9
-12
-11
-55
-40
-24
21
72
-47
-43
-5
-48
-15
-33
-32
-11
-37
-20
-52
-21
22
4
2
23
-13
-8
-26
-60
-19
-35
35
-34
-38
-32
6
-17
-31
-38
-31
4
-24
12
-68
17
-49
-3
1
-42
-2
21
-49
-9
-47
43
23
-35
-12
-38
-24
-26
-11
18
-48
8
6
-42
-19
-71
22
-8
18
-14
0
-9
-51
-24
-10
-18
-55
10
29
-20
-36
-53
46
10
-18
6
-36
-28
5
-46
-38
-85
-52
-28
-27
-20
-22
22
-41
-41
-81
-43
12
-61
13
-46
22
-11
44
-43
30
-35
-75
-77
26
-2
-48
-54
-66
21
0
-32
-16
23
5
-28
-24
3
-22
-5
15
-64
-10
-65
-31
96
6
-67
-59
18
-13
-14
-11
-20
-18
8
-36
-53
-63
-15
-42
36
-14
-26
-24
-54
-21
3
-34
-18
-16
-18
56
-24
-38
-36
-29
-15
12
-42
-2
-24
-13
-51
-43
13
-82
1
-76
-6
-26
-21
-58
-7
7
-38
43
27
-24
26
15
-28
-7
-61
-34
-16
6
86
-58
-42
2
-50
-4
-25
-50
-13
-41
-2
-51
-30
19
7
12
11
-8
-4
-45
-63
-26
-31
24
-44
-39
-27
3
-14
-34
-54
-25
16
-30
2
-63
22
-49
-10
2
-32
-8
17
-47
-9
-54
41
25
-29
-17
-43
-23
-29
-17
5
-47
2
-2
-37
-30
-63
15
-12
23
-31
-8
-9
-49
-29
-9
-32
-62
15
30
-13
-30
-48
45
10
-26
-10
-35
-31
-4
-48
-48
-86
-49
-26
-38
-12
-6
7
-46
-35
-78
-51
9
-80
19
-38
16
-7
48
-51
9
-40
-78
-91
27
-17
-41
-56
-61
20
-3
-25
-14
34
-2
-18
-22
-3
-28
-15
-3
-53
-25
-58
-16
81
3
-52
-67
29
6
-37
3
-5
7
21
-52
-31
-41
-12
-42
40
21
-32
-10
-46
-11
-32
-16
-32
-17
-8
45
-56
-31
-53
7
-3
24
-15
6
-20
-27
-45
-44
12
-47
-4
-62
14
-10
-17
-24
-18
-3
-29
43
-5
-11
35
10
-27
2
-58
-18
-22
-8
87
-67
-74
-57
-52
-13
-18
-51
-23
-41
-11
-57
-21
20
-6
-16
1
-18
-46
-41
-55
-19
-41
18
-49
-43
-41
-13
-36
-46
-52
8
-5
-40
0
-43
2
-34
-25
-12
-35
13
17
-13
-18
-32
29
15
-14
6
-19
-47
-14
-23
17
-58
-28
-1
-35
-12
-74
12
7
36
-19
-25
-10
-27
-22
-25
-13
-28
-5
18
2
-18
-47
44
-2
-25
-2
-39
-19
-6
-40
-49
-84
-42
-26
-45
-33
-13
22
-47
-39
-76
-4
6
-44
-9
-27
29
-5
33
-35
15
-23
-82
-50
34
0
-16
-78
-60
17
0
-27
-9
49
-20
-36
-20
-1
-25
-13
-9
-52
-24
-59
-15
81
-6
-49
-64
27
6
-36
-1
0
-2
21
-47
-33
-43
-17
-45
40
24
-29
-6
-48
-13
-37
-8
-36
-17
-8
42
-61
-24
-54
10
-2
20
4
1
-20
-24
-52
-34
1
-46
3
-61
13
-8
-21
-24
-15
-7
-17
44
-3
-9
29
11
-26
3
-53
-29
-25
-5
93
-59
-73
-56
-56
-13
-23
-66
-23
-39
-18
-58
-29
15
4
-16
-7
-16
-41
-40
-56
-19
-39
10
-51
-42
-40
-20
-40
-54
-53
6
-1
-36
3
-38
0
-25
-25
-17
-36
12
12
-3
-15
-34
27
10
-11
9
-8
-47
-18
-22
19
-49
-35
1
-36
-26
-69
8
7
37
-13
-15
-12
-26
-25
-24
-15
-21
-9
22
-3
-16
-49
35
-3
-25
-4
-36
-14
-4
-41
-42
-79
-46
-23
-38
-31
-13
19
-46
-40
-62
-7
9
-35
-6
-34
20
-1
35
-32
21
-29
-87
-41
34
1
-17
-76
-59
11
4
-17
-16
50
-29
-34
-21
-3
-27
-12
-7
-53
-23
-58
-19
85
-6
-50
-66
24
5
-34
2
0
-3
22
-45
-29
-42
-20
-49
40
22
-29
-6
-47
-10
-36
-7
-34
-16
-13
42
-60
-17
-55
9
1
19
11
0
-19
-26
-54
-32
1
-46
8
-56
18
-10
-21
-24
-11
-6
-20
44
0
-7
24
8
-27
3
-53
-26
-21
-5
97
-63
-70
-51
-52
-15
-19
-66
-26
-36
-19
-58
-31
13
2
-14
-8
-18
-37
-44
-54
-17
-40
10
-49
-42
-39
-21
-39
-58
-55
3
2
-38
1
-40
0
-26
-25
-18
-37
10
13
-3
-16
-32
28
12
-11
12
-7
-43
-18
-23
20
-47
-35
-1
-37
-28
-67
9
2
35
-11
-13
-12
-23
-24
-20
-16
-18
-7
24
-5
-16
-48
34
-3
-27
-7
-33
-13
-1
-39
-42
-78
-41
-24
-34
-29
-11
23
-41
-39
-61
-12
10
-32
-10
-31
24
-2
36
-34
22
-27
-85
-36
34
3
-18
-73
-57
11
5
-15
-17
48
-29
-35
-19
0
-26
-17
-4
-51
-23
-59
-19
83
-9
-52
-68
24
5
-33
2
1
-3
20
-43
-33
-40
-17
-48
41
26
-30
-5
-43
-10
-37
-9
-38
-17
-7
44
-62
-21
-55
10
-3
14
5
2
-20
-23
-54
-36
0
-44
6
-59
16
-8
-21
-25
-17
-6
-13
43
-5
-8
30
12
-27
3
-52
-28
-22
-2
92
-64
-73
-57
-56
-14
-19
-67
-28
-40
-21
-58
-28
17
1
-16
-4
-16
-39
-37
-56
-20
-39
9
-53
-41
-39
-16
-36
-53
-52
4
0
-35
4
-37
0
-26
-23
-17
-36
10
13
-6
-13
-36
28
11
-14
12
-9
-45
-17
-26
19
-49
-34
1
-37
-24
-63
6
2
36
-11
-13
-14
-26
-24
-24
-16
-23
-10
24
-2
-17
-49
36
-1
-25
1
-35
-14
-6
-39
-46
-77
-45
-25
-35
-30
-12
21
-46
-42
-67
-9
7
-32
-5
-32
26
-5
37
-33
21
-24
-85
-39
35
2
-17
-74
-56
12
3
-21
-17
48
-27
-35
-17
-4
-29
-17
-2
-46
-28
-58
-18
87
0
-50
-67
26
2
-34
1
-5
3
20
-53
-34
-42
-17
-43
40
21
-28
-13
-48
-11
-28
-9
-32
-16
-11
43
-53
-33
-49
3
-3
26
-13
4
-19
-23
-46
-41
11
-47
-1
-62
9
-11
-14
-25
-17
-3
-29
44
3
-12
33
9
-22
-1
-53
-19
-22
-3
89
-63
-70
-49
-58
-13
-15
-54
-24
-42
-12
-58
-24
15
-4
-13
-8
-17
-38
-42
-57
-18
-38
20
-50
-42
-38
-23
-30
-48
-53
3
-3
-31
4
-45
3
-33
-24
-11
-38
12
14
-7
-17
-28
31
18
-19
2
-25
-47
-17
-19
15
-59
-30
-2
-38
-16
-74
11
6
35
-14
-20
-11
-31
-21
-21
-12
-26
-4
16
2
-22
-45
44
-1
-24
0
-39
-16
-9
-37
-47
-82
-40
-27
-42
-27
-12
16
-43
-39
-73
-7
10
-49
-5
-29
25
-5
36
-32
17
-21
-83
-53
31
2
-19
-73
-59
16
0
-23
-17
49
-23
-32
-22
-5
-16
-12
-10
-60
-22
-57
-28
81
9
-65
-61
10
-14
-15
-9
-22
-6
11
-38
-57
-63
-1
-44
35
-2
-27
-28
-50
-21
4
-21
-22
-14
-18
50
-30
-50
-53
-18
-8
14
-39
2
-30
-8
-54
-43
5
-71
-1
-66
-3
-21
-20
-60
-4
-10
-24
38
22
-31
18
17
-9
-11
-58
-37
-20
6
78
-55
-39
-7
-47
-15
-26
-39
-9
-38
-14
-46
-26
22
8
9
18
-8
-9
-33
-57
-22
-29
33
-39
-34
-33
3
-14
-28
-41
-25
8
-23
8
-63
16
-41
-3
5
-38
-4
7
-51
-3
-46
40
25
-27
-17
-50
-23
-34
-10
15
-39
5
7
-46
-29
-75
18
1
20
-17
-7
-16
-41
-16
-19
-22
-45
6
29
-17
-30
-55
44
6
-19
-4
-35
-32
12
-49
-34
-78
-51
-33
-26
-19
-14
9
-48
-41
-80
-44
20
-59
13
-49
12
-4
43
-45
26
-42
-84
-87
20
-11
-40
-55
-64
23
2
-23
-16
22
-3
-29
-23
5
-16
-6
15
-68
-11
-69
-32
93
6
-69
-61
16
-14
-20
-18
-21
-20
12
-32
-56
-63
-21
-41
33
-15
-29
-24
-53
-22
0
-32
-18
-17
-22
53
-27
-36
-43
-28
-10
13
-43
-5
-23
-13
-51
-42
12
-89
-1
-73
1
-23
-24
-56
-6
2
-38
40
25
-23
20
14
-22
-9
-56
-31
-20
5
86
-56
-41
0
-53
-2
-28
-50
-10
-39
4
-52
-26
20
6
12
10
-4
-2
-49
-62
-26
-36
25
-43
-39
-27
2
-13
-34
-57
-27
14
-28
5
-65
24
-47
-14
-3
-31
-2
11
-51
-11
-47
37
23
-29
-18
-40
-18
-29
-17
5
-48
1
5
-37
-30
-64
15
-13
20
-30
-16
-4
-46
-29
-10
-33
-61
14
27
-14
-32
-47
45
10
-28
-16
-36
-27
-2
-44
-50
-85
-47
-31
-39
-15
-5
6
-47
-42
-76
-49
13
-79
18
-42
12
-5
48
-52
7
-44
-78
-90
23
-23
-40
-57
-60
20
-2
-23
-18
29
-4
-19
-20
-2
-21
-19
-3
-50
-25
-57
-18
79
0
-53
-66
25
4
-35
5
-8
2
25
-50
-33
-43
-12
-41
40
20
-34
-13
-49
-9
-30
-12
-34
-16
-14
41
-54
-28
-53
9
-3
24
-16
5
-21
-27
-50
-43
10
-52
-1
-57
20
-10
-14
-30
-21
-8
-28
43
-4
-10
32
10
-23
0
-55
-19
-23
-6
87
-64
-69
-55
-52
-9
-22
-53
-22
-40
-4
-56
-20
21
-6
-15
-4
-11
-41
-45
-54
-19
-41
21
-50
-47
-40
-15
-35
-48
-53
8
-5
-36
-2
-44
5
-36
-30
-12
-43
12
9
-17
-20
-30
25
15
-20
3
-16
-47
-16
-24
18
-59
-30
0
-32
-11
-71
14
7
33
-17
-25
-10
-23
-22
-27
-12
-24
-5
18
0
-18
-46
42
-1
-27
-6
-41
-15
-7
-39
-49
-83
-36
-29
-44
-35
-12
21
-39
-43
-76
-5
12
-46
-12
-26
26
0
33
-35
18
-22
-83
-59
35
-2
-15
-75
-60
20
3
-27
-11
50
-24
-38
-18
1
-18
-14
-6
-49
-25
-64
-21
82
-6
-52
-65
26
3
-33
0
-4
-4
26
-48
-32
-44
-21
-47
41
21
-37
-3
-46
-6
-34
-8
-37
-15
-11
41
-56
-19
-54
14
-3
13
10
0
-21
-22
-53
-34
4
-54
4
-60
14
-11
-23
-27
-19
-11
-11
46
-6
-5
26
14
-23
2
-50
-24
-21
-3
94
-63
-69
-56
-53
-7
-24
-66
-26
-34
-12
-59
-26
11
2
-15
-8
-12
-40
-43
-54
-18
-42
11
-51
-43
-41
-21
-38
-53
-59
4
-3
-35
3
-38
4
-26
-26
-18
-37
9
8
-7
-15
-35
25
12
-17
8
-9
-49
-19
-25
17
-51
-33
0
-34
-22
-63
7
5
33
-15
-14
-16
-25
-26
-27
-14
-22
-8
24
-6
-16
-49
33
-3
-30
-6
-36
-12
-6
-41
-45
-80
-46
-26
-38
-29
-9
19
-42
-44
-67
-7
8
-34
-9
-28
21
-3
35
-30
22
-29
-83
-45
35
-3
-16
-73
-56
15
6
-18
-22
43
-30
-35
-18
1
-19
-17
-7
-52
-22
-57
-21
81
-6
-51
-63
27
5
-35
-3
-2
-4
23
-45
-34
-40
-19
-48
41
21
-30
-4
-45
-8
-37
-11
-31
-17
-11
42
-58
-16
-54
13
-2
13
13
1
-21
-24
-55
-35
4
-53
11
-56
16
-11
-19
-24
-18
-8
-18
44
-5
-7
32
11
-25
2
-50
-24
-19
-2
96
-63
-68
-54
-53
-6
-18
-68
-27
-34
-13
-58
-26
13
3
-15
-10
-18
-39
-43
-56
-16
-43
13
-53
-43
-43
-21
-38
-55
-57
6
2
-36
2
-37
3
-24
-29
-20
-39
10
10
-7
-16
-36
26
10
-15
10
-9
-45
-13
-23
20
-52
-34
0
-35
-24
-66
4
6
35
-12
-12
-17
-21
-24
-25
-16
-22
-8
22
-5
-14
-49
33
-5
-30
-9
-36
-14
-4
-40
-45
-77
-43
-27
-36
-29
-10
20
-41
-39
-68
-7
9
-31
-7
-30
23
0
37
-31
21
-26
-89
-46
37
-5
-15
-75
-56
12
7
-14
-20
46
-31
-35
-18
2
-21
-16
-5
-50
-24
-58
-20
80
-6
-51
-65
23
6
-36
0
3
-2
25
-47
-34
-43
-17
-45
42
20
-30
-5
-48
-8
-36
-8
-36
-19
-10
41
-59
-23
-53
13
-4
16
8
1
-18
-24
-52
-37
4
-49
9
-58
16
-8
-21
-26
-20
-11
-11
41
-5
-8
29
9
-22
0
-48
-21
-22
-4
93
-63
-68
-56
-53
-7
-19
-65
-26
-33
-15
-58
-23
15
4
-17
-9
-14
-42
-43
-55
-18
-44
10
-54
-45
-42
-23
-37
-53
-53
7
-2
-36
3
-36
3
-26
-26
-19
-38
9
11
-7
-18
-34
27
10
-15
7
-11
-49
-14
-24
17
-52
-32
-3
-35
-19
-69
8
6
34
-15
-16
-15
-24
-27
-24
-16
-21
-4
22
-4
-16
-47
32
-1
-28
-5
-35
-11
-7
-38
-47
-79
-45
-25
-36
-30
-12
22
-41
-40
-69
-5
11
-36
-5
-31
21
-3
36
-31
23
-24
-84
-45
36
1
-15
-78
-57
14
5
-16
-20
45
-31
-33
-16
-3
-23
-16
-7
-47
-26
-59
-18
85
1
-52
-66
28
5
-35
-2
-7
5
22
-50
-37
-46
-15
-43
39
21
-28
-12
-47
-10
-26
-8
-29
-15
-10
39
-51
-31
-50
5
-4
26
-14
1
-19
-28
-46
-41
13
-53
1
-63
16
-8
-15
-30
-19
-2
-24
44
0
-14
33
10
-19
1
-45
-19
-23
-3
89
-62
-70
-55
-54
-11
-18
-55
-26
-37
-10
-59
-25
15
-8
-17
-6
-13
-42
-44
-54
-13
-42
22
-51
-42
-42
-22
-32
-47
-54
4
-1
-32
5
-47
6
-34
-25
-12
-38
12
15
-11
-17
-29
31
19
-19
0
-23
-51
-19
-17
16
-65
-28
1
-36
-11
-77
13
6
31
-16
-20
-15
-27
-26
-21
-14
-25
-2
18
0
-20
-47
39
2
-25
-3
-37
-13
-9
-36
-54
-84
-40
-31
-42
-28
-13
19
-41
-42
-79
-3
11
-50
-6
-27
24
-6
35
-36
16
-18
-84
-60
32
-3
-15
-76
-60
16
1
-26
-16
51
-25
-31
-25
-3
-12
-14
-7
-58
-21
-59
-29
81
8
-64
-63
8
-14
-16
-12
-23
-8
13
-37
-60
-65
-3
-42
32
-5
-31
-26
-49
-20
6
-21
-19
-14
-18
48
-31
-45
-55
-18
-7
13
-40
1
-32
-8
-54
-41
6
-74
4
-68
-1
-24
-18
-61
-10
-7
-17
38
13
-31
17
19
-9
-12
-50
-36
-18
9
78
-52
-39
-6
-44
-12
-26
-40
-11
-39
-12
-45
-27
25
7
3
17
-6
-10
-32
-52
-22
-35
31
-35
-37
-32
0
-11
-30
-45
-25
6
-22
11
-67
20
-41
-8
0
-38
-1
5
-49
-3
-47
40
25
-31
-19
-49
-25
-28
-11
16
-40
6
5
-41
-27
-67
18
1
16
-22
-10
-25
-38
-18
-21
-25
-44
7
27
-19
-33
-57
40
8
-23
-3
-35
-31
10
-47
-38
-80
-57
-37
-31
-19
-15
7
-49
-44
-83
-40
23
-61
13
-47
15
-3
43
-47
27
-40
-82
-86
22
-12
-33
-55
-60
22
1
-26
-22
24
-2
-28
-26
5
-13
-5
11
-63
-11
-65
-30
92
3
-66
-59
7
-11
-22
-17
-20
-21
16
-31
-58
-64
-11
-43
34
-21
-25
-25
-54
-21
2
-29
-17
-17
-19
48
-24
-37
-42
-30
-11
13
-49
-3
-23
-16
-53
-42
14
-87
3
-73
4
-22
-20
-58
-9
0
-34
42
18
-20
16
14
-22
-11
-50
-23
-18
8
86
-58
-40
2
-51
-6
-19
-48
-9
-31
4
-51
-24
14
2
7
14
-2
-2
-47
-57
-21
-37
24
-44
-38
-25
-3
-13
-34
-53
-24
18
-29
6
-62
30
-50
-17
-2
-31
-1
-1
-53
-10
-49
37
28
-29
-17
-41
-22
-32
-18
6
-50
-3
1
-32
-30
-60
16
-15
18
-33
-11
-7
-46
-26
-8
-34
-58
20
35
-15
-32
-46
41
7
-32
-16
-34
-29
-2
-42
-50
-87
-46
-31
-38
-12
-6
9
-41
-44
-78
-49
13
-80
16
-36
8
-10
48
-54
10
-42
-79
-91
27
-25
-36
-53
-62
26
2
-15
-12
32
-2
-24
-25
0
-15
-19
-8
-48
-26
-52
-20
80
5
-51
-67
25
5
-36
0
-8
5
24
-46
-37
-42
-6
-42
38
18
-36
-16
-48
-15
-33
-10
-29
-13
-9
39
-56
-23
-53
13
-3
20
-22
5
-17
-32
-46
-43
14
-56
1
-58
25
-13
-15
-29
-22
-8
-24
44
-7
-7
32
10
-24
3
-49
-15
-25
-4
92
-70
-68
-62
-49
-9
-13
-58
-21
-34
1
-56
-15
18
-7
-18
-3
-15
-42
-38
-49
-17
-44
21
-48
-48
-36
-20
-36
-48
-53
6
-4
-33
0
-40
7
-36
-28
-11
-37
18
4
-19
-19
-31
22
14
-19
1
-17
-46
-13
-20
19
-59
-33
-2
-32
-11
-68
12
6
33
-18
-26
-12
-28
-21
-26
-13
-25
-2
21
-2
-15
-47
38
-2
-35
-11
-42
-15
-8
-38
-47
-84
-41
-26
-43
-31
-13
24
-35
-43
-81
-8
11
-45
-10
-19
24
-1
34
-38
15
-24
-84
-58
35
-7
-12
-78
-58
20
4
-18
-10
55
-24
-38
-25
3
-12
-17
-8
-50
-23
-57
-21
79
-2
-50
-65
29
8
-34
-5
-3
-6
22
-46
-36
-40
-13
-44
41
18
-34
-5
-47
-11
-37
-8
-34
-14
-7
39
-59
-15
-54
16
0
12
1
0
-19
-28
-53
-36
5
-60
9
-59
17
-14
-20
-30
-15
-13
-11
43
-9
-3
25
11
-23
3
-41
-19
-21
-3
94
-65
-68
-56
-51
-13
-15
-68
-25
-30
-6
-59
-23
14
2
-16
-9
-16
-41
-39
-53
-16
-45
13
-49
-45
-40
-23
-36
-50
-55
7
-2
-37
5
-35
6
-25
-28
-19
-38
16
4
-12
-16
-35
23
8
-15
3
-10
-44
-14
-23
20
-54
-37
0
-34
-22
-58
5
4
36
-18
-15
-15
-26
-22
-30
-13
-24
-2
24
-9
-14
-47
30
-5
-33
-9
-37
-15
-7
-41
-45
-77
-44
-24
-37
-27
-12
23
-38
-44
-74
-6
11
-35
-6
-26
16
-2
35
-35
17
-22
-83
-44
35
-4
-12
-74
-56
13
10
-13
-20
49
-30
-37
-20
-2
-14
-17
-14
-47
-20
-60
-22
81
-2
-51
-68
22
6
-35
-3
1
0
24
-47
-34
-43
-13
-46
41
20
-35
-6
-47
-12
-36
-4
-30
-14
-8
41
-59
-11
-50
18
-1
15
6
-2
-20
-27
-53
-34
6
-60
11
-60
18
-10
-20
-27
-17
-12
-14
44
-6
-2
32
12
-24
3
-43
-23
-17
2
95
-63
-72
-63
-54
-12
-12
-67
-24
-30
-7
-60
-24
15
5
-17
-10
-17
-40
-38
-55
-13
-44
13
-49
-46
-41
-24
-38
-56
-53
1
0
-34
5
-33
5
-25
-31
-16
-40
10
7
-10
-16
-35
24
10
-18
3
-3
-43
-11
-20
21
-54
-38
-1
-34
-20
-60
5
6
32
-16
-11
-15
-22
-22
-29
-12
-21
-3
30
-8
-17
-49
29
-5
-35
-12
-36
-14
-6
-37
-41
-76
-45
-25
-35
-28
-16
26
-39
-42
-69
-9
9
-33
-8
-28
23
1
39
-38
17
-20
-86
-43
37
-6
-9
-75
-58
15
9
-13
-22
50
-32
-38
-20
3
-14
-14
-12
-49
-21
-59
-21
82
0
-52
-64
25
3
-33
-2
4
-4
25
-40
-37
-46
-10
-44
39
14
-34
-7
-47
-16
-37
-4
-35
-15
-9
40
-60
-19
-52
17
-2
12
2
0
-17
-29
-54
-35
7
-58
11
-61
19
-14
-23
-25
-20
-12
-10
44
-6
-3
26
12
-24
0
-42
-18
-23
-7
91
-62
-68
-60
-50
-9
-11
-65
-24
-33
-6
-62
-27
14
3
-17
-8
-11
-43
-44
-50
-16
-44
12
-51
-45
-41
-24
-38
-55
-55
6
-1
-31
4
-32
5
-27
-30
-17
-41
12
2
-12
-18
-34
24
10
-17
5
-9
-46
-12
-21
20
-49
-38
0
-29
-21
-57
3
7
30
-16
-15
-14
-24
-22
-26
-16
-18
-1
26
-5
-17
-48
30
-6
-36
-9
-36
-13
-8
-38
-45
-78
-41
-22
-40
-31
-10
28
-38
-43
-72
-11
13
-32
-8
-27
14
-3
37
-36
21
-26
-84
-43
35
-5
-8
-75
-58
15
9
-11
-21
52
-31
-36
-16
-2
-17
-19
-7
-42
-26
-59
-16
88
5
-47
-69
25
-1
-33
1
-5
5
26
-47
-37
-46
-9
-40
39
15
-35
-14
-47
-15
-29
-5
-33
-16
-8
37
-50
-26
-51
12
-5
24
-18
-1
-17
-27
-46
-38
16
-54
1
-62
17
-9
-15
-29
-21
-6
-23
44
-1
-8
33
15
-22
-1
-41
-15
-20
-2
89
-64
-69
-63
-52
-8
-13
-56
-25
-38
-6
-59
-21
16
-9
-18
-6
-13
-39
-43
-52
-13
-42
19
-49
-46
-35
-24
-35
-49
-55
3
0
-29
7
-45
9
-33
-28
-12
-38
12
7
-13
-16
-29
27
17
-20
-1
-19
-48
-14
-16
17
-68
-32
1
-33
-10
-68
13
7
31
-18
-18
-15
-30
-22
-27
-14
-27
3
19
0
-24
-48
37
-1
-33
-7
-42
-15
-12
-33
-51
-85
-41
-26
-41
-31
-16
25
-39
-43
-79
-5
15
-47
-7
-25
20
-3
33
-38
14
-16
-83
-59
33
-6
-8
-76
-56
15
3
-18
-16
58
-24
-30
-26
-3
-6
-14
-10
-56
-19
-54
-26
82
9
-64
-60
6
-13
-23
-8
-29
-10
13
-37
-57
-63
0
-43
31
-10
-27
-28
-49
-25
2
-17
-20
-12
-15
50
-32
-39
-55
-17
-12
11
-40
2
-27
-12
-55
-40
8
-77
4
-69
2
-25
-19
-63
-11
-10
-22
38
17
-26
11
13
-7
-13
-45
-33
-18
6
77
-54
-38
-10
-45
-9
-22
-38
-10
-31
-8
-47
-16
22
8
3
13
-8
-9
-30
-51
-20
-36
30
-34
-38
-31
-7
-15
-30
-42
-29
6
-23
12
-62
25
-39
-12
2
-40
3
1
-51
-3
-46
38
27
-31
-17
-50
-28
-31
-11
15
-39
-3
7
-39
-27
-66
16
0
18
-19
-12
-22
-40
-16
-20
-23
-46
9
34
-23
-30
-54
37
6
-29
-3
-38
-30
10
-47
-36
-81
-54
-34
-32
-17
-13
10
-43
-42
-88
-39
21
-55
15
-43
7
-4
45
-49
22
-36
-83
-88
22
-18
-34
-54
-62
23
5
-13
-19
24
-2
-31
-27
4
-6
0
7
-61
-11
-54
-24
99
14
-62
-63
-6
-8
-28
-24
-24
-22
16
-31
-53
-67
0
-38
25
-30
-27
-27
-45
-31
-2
-20
-21
-19
-14
50
-36
-19
-41
-24
-5
16
-50
-5
-20
-20
-46
-38
20
-87
9
-77
-1
-19
-18
-53
-11
0
-35
42
23
-9
26
12
-12
-19
-41
-11
-19
13
88
-53
-44
-12
-59
-6
-13
-48
-9
-28
9
-57
-16
11
-3
9
3
-9
-12
-34
-56
-23
-47
16
-34
-39
-24
-14
-11
-41
-53
-22
18
-20
6
-48
36
-61
-22
6
-27
0
3
-58
-14
-42
33
31
-33
-19
-33
-25
-28
-12
16
-56
-4
-4
-31
-22
-51
11
-2
13
-28
-1
-14
-50
-17
-11
-35
-52
25
34
-16
-32
-48
40
-6
-53
-25
-39
-36
-1
-37
-44
-86
-53
-27
-41
-9
-8
19
-34
-36
-81
-42
16
-82
18
-40
9
-10
46
-59
7
-29
-85
-90
24
-34
-37
-59
-66
23
3
-9
-13
39
-5
-22
-27
0
-11
-19
-15
-41
-14
-42
-15
92
5
-47
-66
18
14
-34
-8
-6
5
16
-45
-42
-36
-3
-38
33
6
-41
-17
-46
-21
-32
2
-33
-6
-9
40
-61
-7
-44
21
-4
19
-18
-1
-10
-26
-41
-38
19
-58
5
-60
19
-7
-18
-25
-26
-2
-33
45
-7
2
52
4
-18
-8
-35
-6
-25
9
92
-62
-75
-70
-50
-5
-16
-51
-18
-32
5
-57
-12
20
-6
-12
-18
-29
-43
-27
-55
-15
-49
23
-46
-54
-38
-38
-36
-57
-51
3
4
-25
-5
-35
16
-41
-29
-8
-31
12
12
-27
-28
-21
21
8
-25
-4
-1
-44
-10
-12
26
-79
-37
2
-32
2
-58
6
7
23
-19
-12
-15
-25
-15
-22
-14
-25
12
28
8
-16
-52
40
-3
-50
-26
-45
-20
-8
-38
-43
-82
-46
-24
-38
-25
-15
32
-25
-45
-79
-11
24
-55
-1
-28
27
-5
33
-49
10
-7
-86
-62
29
-17
-5
-83
-63
17
5
-13
-8
64
-25
-36
-31
2
-10
-13
-15
-40
-12
-47
-17
89
2
-47
-66
18
15
-35
-11
3
-4
16
-42
-40
-36
-13
-41
37
9
-37
-12
-48
-24
-37
4
-29
-5
-5
35
-65
-3
-43
25
1
13
2
-3
-9
-23
-45
-31
14
-59
12
-55
18
-4
-21
-23
-17
-8
-24
43
-3
1
43
4
-22
-2
-30
-7
-20
5
94
-61
-77
-64
-51
-5
-15
-69
-18
-31
-2
-59
-16
13
8
-11
-14
-32
-41
-31
-55
-18
-49
13
-50
-49
-38
-38
-34
-61
-48
6
1
-26
2
-29
13
-34
-27
-12
-29
4
13
-18
-22
-23
25
8
-23
0
5
-41
-12
-13
26
-68
-39
3
-34
-7
-50
3
9
25
-16
-1
-13
-27
-20
-25
-15
-25
9
27
0
-12
-48
33
-8
-46
-26
-37
-14
-1
-39
-44
-80
-46
-25
-32
-22
-14
27
-28
-49
-70
-15
17
-50
-4
-27
23
-4
37
-47
20
-9
-88
-46
27
-15
-7
-77
-61
15
10
-5
-16
58
-32
-31
-25
0
-8
-12
-17
-38
-11
-50
-17
87
1
-45
-66
16
18
-35
-9
5
-1
14
-47
-41
-34
-11
-40
35
11
-38
-11
-49
-21
-37
3
-27
-5
-6
39
-65
1
-50
24
2
10
7
-2
-13
-24
-44
-27
10
-58
15
-53
19
-2
-15
-22
-17
-5
-27
45
-4
-1
51
4
-22
-8
-29
-12
-15
11
97
-61
-77
-67
-53
-9
-12
-64
-18
-32
-6
-59
-19
16
11
-11
-16
-31
-44
-29
-54
-15
-52
17
-48
-50
-40
-36
-34
-65
-51
-1
3
-30
2
-30
17
-34
-27
-11
-30
3
10
-17
-21
-26
22
7
-24
-4
7
-39
-11
-10
26
-72
-37
2
-30
-11
-54
3
7
26
-14
0
-16
-23
-20
-25
-12
-25
9
33
5
-16
-49
35
-11
-46
-27
-35
-16
-5
-43
-39
-79
-45
-24
-34
-24
-18
26
-29
-46
-68
-16
17
-48
-3
-28
26
-9
37
-50
20
-2
-86
-51
29
-16
-4
-79
-64
14
5
-4
-16
60
-32
-35
-24
-1
-8
-12
-17
-38
-13
-50
-18
91
-2
-45
-66
14
15
-35
-10
5
-2
16
-45
-40
-38
-10
-41
35
11
-38
-11
-45
-24
-34
4
-29
-3
-6
37
-65
-2
-48
21
2
13
5
-2
-13
-26
-45
-28
14
-56
11
-57
16
-6
-15
-19
-18
-9
-21
45
-2
0
46
1
-20
-7
-32
-9
-20
6
96
-60
-74
-70
-51
-6
-16
-65
-18
-35
-3
-59
-17
17
9
-12
-15
-29
-43
-33
-50
-16
-51
14
-50
-51
-37
-41
-33
-60
-53
3
4
-24
2
-30
14
-36
-28
-9
-32
2
12
-18
-21
-24
24
7
-26
-1
4
-39
-10
-14
26
-65
-38
3
-32
-9
-54
2
11
25
-13
4
-15
-23
-20
-27
-17
-24
9
30
6
-17
-49
36
-9
-47
-24
-37
-16
-4
-39
-44
-77
-46
-24
-34
-22
-19
27
-27
-47
-72
-15
17
-44
-5
-28
24
-6
36
-49
19
-8
-87
-51
26
-15
-5
-77
-61
16
7
-5
-17
61
-32
-32
-21
-3
-15
-13
-14
-46
-18
-48
-16
99
4
-46
-65
15
12
-34
-9
-7
0
15
-46
-42
-43
-5
-40
32
5
-36
-17
-45
-26
-30
5
-31
-8
-6
39
-62
-12
-48
21
-6
18
-14
0
-13
-28
-43
-38
20
-55
6
-57
12
-6
-13
-27
-21
-6
-32
45
-1
3
39
5
-17
-6
-28
-2
-22
7
91
-56
-67
-67
-53
-5
-12
-56
-17
-39
-2
-58
-15
15
-5
-10
-12
-24
-42
-33
-56
-12
-48
17
-44
-51
-35
-39
-32
-51
-54
1
4
-20
3
-36
16
-40
-31
-10
-33
9
10
-21
-25
-25
27
14
-32
-9
-8
-44
-12
-8
26
-74
-33
7
-33
-3
-58
8
6
23
-15
-5
-17
-29
-20
-19
-18
-29
14
26
4
-17
-53
34
-3
-48
-22
-44
-16
-5
-34
-46
-84
-47
-32
-38
-24
-15
28
-23
-51
-80
-12
22
-55
-2
-26
23
-6
34
-51
11
-8
-85
-56
26
-15
-3
-79
-63
17
7
-10
-12
59
-24
-31
-29
-6
-2
-6
-17
-54
-18
-45
-25
90
10
-56
-60
-4
-13
-26
-22
-22
-10
16
-34
-59
-61
9
-38
28
-20
-29
-28
-44
-33
1
-5
-19
-10
-14
53
-38
-27
-53
-10
-11
11
-46
0
-28
-11
-51
-41
13
-72
4
-65
-2
-20
-11
-61
-13
-9
-25
41
16
-19
23
8
-2
-16
-38
-19
-19
13
79
-44
-42
-21
-51
-11
-14
-41
-8
-27
-4
-51
-11
23
7
8
12
-12
-17
-20
-53
-17
-44
22
-32
-38
-31
-12
-15
-33
-43
-33
9
-16
18
-49
27
-44
-17
6
-39
4
5
-50
-10
-36
41
24
-35
-24
-35
-27
-24
-3
24
-56
2
4
-38
-16
-63
17
3
12
-16
-4
-26
-41
-15
-21
-25
-47
22
34
-22
-35
-57
34
-1
-39
-16
-43
-34
8
-44
-31
-79
-62
-33
-35
-15
-18
16
-33
-44
-86
-39
17
-64
17
-44
12
-5
46
-57
15
-24
-79
-87
21
-21
-32
-56
-65
21
9
-9
-17
31
0
-26
-12
-8
-12
-11
-5
-85
3
-46
-28
124
14
-88
-68
-39
-14
-11
-8
-31
-30
2
-23
-79
-83
-2
-12
19
-58
-18
-43
-51
-18
22
-10
-23
-17
-50
35
-41
-15
-44
-39
-3
4
-61
-13
18
11
-23
-37
-38
-120
39
-77
-18
-26
-9
-69
14
-12
-19
57
19
-25
2
18
26
-40
-24
-11
-13
23
60
-69
-32
22
-63
-11
-12
-35
13
-22
-18
-43
-10
3
1
42
16
-1
4
-25
-60
-16
-41
8
33
-52
-30
-26
-2
-45
1
-28
32
-13
29
-52
22
-46
-8
8
-19
18
-8
-71
-11
-42
43
25
-53
-38
-6
-18
-17
-20
16
-35
38
-22
-39
-49
-17
8
-13
1
-27
36
-3
-55
-23
-13
-40
-47
42
48
-24
-45
-62
39
1
-58
-44
-14
-39
18
-44
-44
-76
-68
-36
-22
-9
-26
6
-2
-39
-81
-70
9
-71
13
-57
19
-19
54
-68
24
-12
-94
-71
5
-4
-55
-40
-57
29
18
-25
-14
34
-2
-26
-2
-11
-18
-29
-23
-63
-14
-39
-14
102
1
-73
-69
-24
11
-12
8
-29
-2
1
-29
-52
-48
4
-8
26
-13
-33
-39
-52
-14
5
-13
-39
-17
-24
17
-56
5
-36
1
-4
11
-38
-13
8
-4
-28
-32
-16
-88
38
-61
-3
-10
-20
-42
-7
-10
-14
59
5
-7
5
14
9
-31
-36
3
-16
27
62
-73
-61
-19
-46
-17
-15
-53
7
-36
-24
-42
-8
10
-3
5
10
-24
-34
-28
-50
-18
-23
1
1
-68
-31
-13
-21
-71
-13
-13
15
-28
9
-42
13
-38
4
-8
-23
14
5
-60
-10
-34
29
9
-45
-27
3
-14
-23
-19
27
-49
-9
-13
-40
-22
-8
-1
-3
7
-18
29
3
-30
-13
-21
-12
-25
14
35
10
-19
-61
43
1
-29
-38
-9
-36
13
-59
-53
-69
-50
-43
-15
-19
-26
23
-4
-46
-80
-45
7
-49
-1
-42
23
-8
34
-59
34
18
-89
-49
19
3
-33
-54
-66
11
-8
-24
-11
37
-26
-31
-6
-12
-16
-26
-26
-62
-8
-39
-14
101
4
-68
-63
-25
10
-13
5
-20
-4
0
-28
-57
-48
-3
-9
27
-13
-31
-37
-52
-15
-4
-17
-37
-13
-21
20
-59
4
-34
-1
-4
7
-25
-14
8
-10
-26
-26
-22
-89
44
-59
-1
-12
-24
-37
1
-11
-6
60
7
-6
-3
15
5
-27
-33
-7
-15
25
68
-69
-63
-20
-48
-17
-5
-61
9
-35
-37
-43
-12
6
11
3
5
-23
-26
-26
-51
-22
-25
-2
-1
-62
-33
-16
-21
-75
-16
-9
12
-30
8
-42
12
-37
8
-14
-25
12
8
-46
-10
-31
29
8
-43
-24
-1
-15
-22
-20
25
-39
-10
-6
-36
-31
-8
-1
0
8
-21
26
3
-25
-18
-17
-11
-18
17
40
7
-11
-60
43
-3
-20
-35
-10
-39
14
-59
-46
-68
-50
-41
-14
-19
-26
19
-8
-46
-67
-48
2
-46
-5
-43
21
-10
37
-60
36
12
-87
-42
15
2
-28
-55
-66
6
-6
-19
-11
32
-26
-32
-2
-13
-15
-23
-27
-64
-8
-41
-14
100
-1
-68
-65
-27
12
-13
3
-20
-7
0
-28
-55
-47
-4
-9
24
-12
-32
-30
-55
-14
-2
-16
-39
-13
-20
19
-60
8
-34
-4
-5
7
-21
-14
10
-8
-24
-26
-21
-91
42
-58
0
-12
-22
-39
4
-10
-7
60
8
-7
-1
12
7
-29
-30
-11
-13
25
68
-72
-63
-22
-51
-19
-2
-59
8
-37
-41
-45
-15
8
11
2
4
-26
-29
-27
-54
-22
-25
-2
-1
-62
-32
-16
-22
-77
-19
-8
11
-30
8
-44
11
-35
2
-17
-28
12
6
-45
-8
-33
27
5
-45
-26
5
-13
-21
-16
26
-38
-9
-4
-38
-34
-9
3
3
13
-21
27
6
-25
-19
-16
-11
-19
15
41
6
-12
-51
44
-5
-21
-37
-7
-41
13
-59
-43
-67
-49
-40
-13
-17
-26
19
-7
-45
-67
-48
0
-44
-4
-42
18
-8
38
-59
36
13
-90
-40
16
3
-29
-54
-67
7
-8
-17
-11
34
-28
-36
-2
-13
-17
-21
-25
-60
-8
-43
-13
101
3
-67
-65
-24
13
-16
0
-18
-3
-2
-34
-52
-50
-3
-8
28
-9
-31
-33
-53
-18
-3
-13
-38
-15
-19
19
-58
6
-36
-5
-6
9
-26
-14
9
-13
-24
-29
-21
-86
38
-61
-3
-12
-23
-39
-1
-10
-9
61
7
-8
2
13
4
-25
-26
-6
-12
25
69
-71
-63
-26
-50
-16
-5
-61
11
-39
-38
-46
-13
10
9
1
7
-24
-30
-27
-52
-23
-25
-2
-1
-65
-35
-16
-21
-74
-17
-11
11
-30
7
-41
11
-33
4
-14
-25
16
6
-44
-9
-34
30
5
-51
-25
2
-13
-19
-17
28
-41
-8
-7
-36
-32
-10
3
4
5
-21
26
1
-24
-23
-18
-10
-22
17
42
3
-14
-55
36
-2
-24
-36
-10
-40
9
-56
-47
-71
-49
-38
-14
-18
-28
18
-9
-46
-70
-45
3
-43
-4
-42
17
-10
38
-55
36
12
-91
-42
17
2
-31
-54
-66
9
-4
-23
-13
36
-27
-32
2
-15
-19
-26
-25
-65
-13
-40
-17
103
8
-71
-66
-25
7
-12
3
-25
-2
1
-31
-59
-53
-1
-2
22
-16
-26
-36
-49
-14
-1
-11
-39
-14
-29
16
-54
2
-39
-1
-5
9
-37
-13
9
-10
-25
-34
-16
-86
35
-61
-6
-11
-27
-42
-6
-11
-12
62
5
-6
2
14
9
-28
-25
3
-19
24
64
-72
-60
-20
-48
-13
-8
-54
11
-40
-27
-42
-10
6
-2
4
9
-24
-30
-26
-51
-17
-28
0
3
-69
-31
-20
-17
-67
-14
-15
14
-27
7
-42
12
-37
3
-8
-26
17
2
-49
-13
-32
33
9
-48
-28
-1
-12
-20
-12
27
-49
-8
-9
-38
-22
-11
5
-2
7
-19
25
3
-32
-15
-18
-15
-21
17
37
3
-19
-59
35
-3
-25
-37
-16
-41
12
-55
-53
-70
-46
-42
-19
-16
-24
16
-5
-47
-74
-45
6
-50
-2
-42
20
-9
36
-57
32
15
-90
-46
13
2
-32
-59
-64
12
-4
-22
-13
38
-23
-26
-12
-11
-6
-17
-24
-73
-7
-38
-35
118
15
-83
-56
-33
-24
-5
0
-29
-11
6
-20
-78
-76
13
1
16
-51
-15
-36
-50
-17
15
-7
-13
-17
-38
32
-41
-12
-43
-32
-9
-8
-55
-10
13
16
-29
-44
-33
-102
31
-76
-30
-27
-22
-75
4
-14
-15
54
10
-25
10
-3
24
-29
-16
-15
-12
11
59
-72
-26
11
-66
-7
-16
-30
17
-24
-23
-37
-1
13
2
35
12
-2
2
-18
-61
-14
-46
10
29
-38
-28
-25
-3
-48
0
-29
27
-19
23
-47
18
-40
-2
5
-25
16
-9
-75
-15
-39
55
31
-54
-41
-10
-23
-18
-18
22
-34
32
-20
-44
-45
-19
2
-11
0
-22
33
-6
-51
-26
-13
-38
-46
35
51
-28
-47
-58
33
-5
-39
-43
-24
-40
25
-42
-45
-72
-63
-40
-23
-11
-23
0
-3
-44
-76
-69
6
-58
15
-58
25
-16
49
-62
33
-8
-84
-75
9
-3
-40
-41
-53
21
13
-32
-11
30
3
-27
